// include/conv2d_2783_weight.h
// sergio rivera 
// 2020/02/15 02:01:25 

const float conv2d_2783_weight_p[3][3][3][4]=
{
	{
		{
			{0.08670989,-0.18985324,-0.21283123,0.2960085},
			{-0.22728853,0.29347917,0.036311865,0.2322899},
			{0.052753005,-0.033882752,0.18522793,0.037089594}
},
			{{0.17131448,-0.03945076,-0.17177574,0.13820682},
			{0.122221224,-0.25881323,0.020609975,-0.03329835},
			{-0.27009672,0.23847313,-0.22668493,-0.13197747}
},
			{{-0.28906095,-0.19769993,0.21215329,-0.047674216},
			{0.06841965,0.11905735,0.08112854,0.20034087},
			{0.018549487,0.041521516,-0.25183257,-0.0130529795}
}
},
			{{{-0.29589182,0.2544196,-0.2678253,0.027860621},
			{0.11350408,-0.01852006,-0.13942929,0.26751316},
			{-0.053292997,0.3043263,0.14567667,0.004423078}
},
			{{-0.13005495,-0.094745755,0.1720945,0.03078814},
			{0.04341854,0.27474338,-0.0043578446,0.10490772},
			{-0.2807128,-0.25567615,0.18286324,0.042706657}
},
			{{0.034093764,-0.27499586,-0.25739363,-0.30095136},
			{-0.26378262,0.17064744,-0.17847161,0.1379264},
			{0.22669782,-0.188161,-0.29220825,-0.27738756}
}
},
			{{{-0.17963201,-0.068144806,-0.2559326,-0.045288254},
			{0.12923929,-0.25994894,-0.19535038,0.25121796},
			{0.040774602,-0.2840538,-0.27915987,0.22123143}
},
			{{0.09876994,-0.031222966,0.20630917,-0.05398061},
			{-0.27825198,0.0901901,-0.18766469,-0.2310249},
			{-0.16362579,-0.10963431,-0.08648227,0.27326393}
},
			{{0.047394756,-0.13273087,-0.1400399,-0.117574},
			{-0.14152454,0.12005246,0.06999391,0.038827688},
			{0.19879684,0.25395203,-0.046524346,0.12785305			}
		}
	}
};