// include/conv2d_3630_weight.h
// sergio rivera 
// 2020/02/15 03:33:42 

const float conv2d_3630_weight_p[3][3][3][4]=
{
	{
		{
			{-0.18437324,0.09887463,0.082198136,0.15683916},
			{-0.23300843,-0.121546365,-0.16602911,0.08274979},
			{-0.007453428,-0.19246611,-0.2998279,0.055922054}
},
			{{0.29184788,-0.08800708,-0.04214471,-0.11127886},
			{-0.2532916,-0.025153644,0.28747514,0.160555},
			{0.13399008,0.049253125,-0.17042676,-0.07932188}
},
			{{-0.09383997,-0.10774408,-0.1535358,0.1962147},
			{-0.21535869,-0.30986518,0.14765741,0.18557177},
			{0.29682413,0.3037346,-0.2112854,0.30737677}
}
},
			{{{0.09652278,-0.21563128,0.17420521,0.0032857107},
			{0.050305825,0.12669353,0.034650505,0.15886502},
			{-0.07455249,0.17157792,-0.20406625,-0.12657188}
},
			{{0.14909399,0.257308,-0.23127607,-0.12853438},
			{0.0069107907,0.18879142,-0.024830358,0.15017124},
			{-0.063521504,0.0076228655,-0.027880093,0.06834908}
},
			{{-0.0861351,0.2941702,-0.25652573,-0.2055036},
			{-0.26943696,0.23508956,-0.26474187,0.15601574},
			{0.26306796,0.24613002,0.08117995,0.0652214}
}
},
			{{{0.28908187,0.1688579,-0.10650685,0.26559654},
			{0.04196771,-0.076709,0.089351684,0.30376416},
			{-0.20013261,0.29659414,0.0814045,0.27691072}
},
			{{-0.23176628,0.06196093,0.28285858,-0.0864122},
			{-0.02233498,0.006799249,-0.0909639,-0.23787731},
			{-0.29493,-0.14256385,-0.2543418,0.1575977}
},
			{{0.28767365,0.21130824,-0.15159996,-0.18765546},
			{0.0472521,0.053690996,-0.18680336,0.08308868},
			{-0.16088049,0.02290375,0.19734031,-0.16366172			}
		}
	}
};