// include/conv2d_3634_weight.h
// sergio rivera 
// 2020/02/15 03:33:44 

const float conv2d_3634_weight_p[3][3][11][4]=
{
	{
		{
			{-0.19276991,-0.1977062,-0.050113022,-0.015983954},
			{0.12053983,-0.1801945,-0.02153927,-0.10338582},
			{0.1046343,0.13958116,-0.1833473,0.1502062},
			{0.03522098,-0.12285189,0.013354436,-0.013079703},
			{-0.039081186,-0.0075407177,-0.16457279,-0.049936384},
			{-0.15384495,-0.1946612,-0.18123172,0.036909014},
			{-0.16664313,0.021763295,-0.039098427,-0.092939846},
			{-0.16892381,-0.02437678,-0.082922325,-0.18051371},
			{0.18468566,-0.06113656,0.064535454,0.010250151},
			{0.0074068606,0.020984918,0.20086499,0.20823224},
			{-0.06746468,-0.18958353,-0.16850431,0.079487845}
},
			{{0.12112175,0.18630768,0.13320015,-0.027371451},
			{-0.17564991,-0.10726532,-0.07329252,0.0094753355},
			{0.12719478,-0.19229855,-0.15630156,0.16902168},
			{-0.08727133,-0.046087906,-0.012606069,0.08926375},
			{-0.12678678,-0.0010240525,-0.07385793,0.0051820725},
			{-0.033173367,0.14226218,-0.12800436,0.14424686},
			{0.17948835,0.099331096,0.11801,-0.15051737},
			{-0.026011482,0.019049898,0.15282978,-0.18347678},
			{-0.029580414,-0.07062416,-0.17464797,0.052103743},
			{-0.017728433,-0.03633274,0.028828919,0.16729216},
			{-0.12254152,-0.106709614,-0.06314632,0.108857945}
},
			{{0.066786334,-0.05440408,-0.19968902,0.00909631},
			{-0.02009295,-0.060670212,-0.20162264,-0.13172683},
			{0.009984046,-0.19346309,-0.061863467,-0.17706925},
			{0.15488796,0.12074934,-0.072637096,0.06431861},
			{0.013069645,0.03471236,0.084796384,0.028149024},
			{0.18614806,-0.100782596,-0.20311786,0.17648728},
			{0.15395994,0.1148576,0.17325075,-0.11252444},
			{0.18075864,0.17698853,0.003903076,0.092337355},
			{0.11279847,-0.05899836,0.016253456,-0.16087332},
			{-0.11629619,-0.20131096,0.1614884,-0.072139844},
			{0.1271527,-0.15467891,0.10443576,0.12808101}
}
},
			{{{0.13642459,-0.131193,-0.10305795,-0.17625563},
			{0.17508315,0.030619442,0.101871595,0.18465178},
			{-0.086176455,-0.050463647,0.088991836,-0.2067549},
			{-0.006088972,-0.07778253,-0.01845996,0.041266754},
			{0.15145488,-0.14607553,0.057612702,-0.14774889},
			{0.007285878,0.07236351,0.17352732,0.102538124},
			{0.18817727,0.10789095,-0.07574275,0.17120807},
			{-0.15913709,0.105618194,-0.15164849,-0.12880898},
			{-0.1412049,0.1438347,0.09129183,0.1961687},
			{0.09016059,-0.10532024,-0.15279254,0.055946693},
			{-0.067994,0.085206226,0.028566897,-0.09929194}
},
			{{0.008910835,-0.056923866,-0.037150428,-0.10995414},
			{0.059991553,-0.1199211,0.011494562,-0.016149461},
			{-0.1453259,0.06552704,-0.09512991,0.010453805},
			{0.123570755,0.11578263,0.16963856,-0.08644114},
			{-0.0856037,-0.07095967,-0.076523185,-0.17805962},
			{-0.10342904,0.12843455,0.13358854,-0.07920492},
			{-0.022324488,0.087837085,-0.05559978,0.18167116},
			{-0.007929757,0.1287003,-0.1873027,0.20417936},
			{-0.07752015,0.07567008,-0.10569606,-0.020699024},
			{0.028093025,-0.011999503,-0.007898882,0.15779279},
			{-0.17485088,-0.14403008,0.07556774,0.13540424}
},
			{{-0.14500523,0.114571646,0.045519367,-0.033860505},
			{-0.09076954,-0.19295256,-0.12335156,0.13905661},
			{-0.11864252,-0.20747718,0.20260854,0.08596142},
			{-0.15766382,-0.06390725,0.034299448,0.17234327},
			{-0.07370789,0.04157473,-0.044858918,0.17229114},
			{0.035387754,-0.14217994,0.051750883,-0.15832448},
			{-0.1145699,0.09210454,0.172592,-0.03690861},
			{-0.114685506,0.12569799,-0.19389917,-0.078173876},
			{-0.122501105,0.21000786,0.06824069,-0.06697652},
			{-0.059741303,-0.2019895,0.09501736,-0.14063862},
			{0.054052547,-0.048664942,0.11809622,0.13114594}
}
},
			{{{0.18547328,0.12779234,-0.014270037,-0.11962174},
			{0.17230617,-0.20417383,0.12332936,0.06427659},
			{-0.02204527,0.17339562,0.08279742,0.0113876015},
			{-0.036308363,0.15405132,-0.017650872,-0.2057032},
			{-0.00038601458,0.20455293,0.14893888,-0.18948285},
			{-0.21025029,0.117261276,-0.05296409,-0.16543686},
			{0.13145913,0.00087834895,0.10223515,0.115716144},
			{0.07128365,0.012276396,0.21032281,-0.016955793},
			{0.12938519,-0.11067366,0.11266874,0.0085365325},
			{-0.0969906,-0.16971526,-0.000119522214,0.042704508},
			{-0.0041783154,0.05626376,0.042976514,0.14246695}
},
			{{0.18578716,0.20161645,0.13389026,0.07698308},
			{0.06029038,0.09465577,-0.10351942,0.012284592},
			{0.1618038,-0.06312828,-0.13286978,-0.07327011},
			{-0.10788652,-0.056808457,0.15260471,0.004270494},
			{-0.122646414,0.10316135,-0.036474094,0.15951331},
			{-0.068862796,-0.09513298,-0.21007667,0.039958075},
			{0.04620035,-0.15262109,0.20159213,-0.030058667},
			{-0.06569491,0.0003809929,-0.031264976,-0.18648551},
			{-0.16209376,-0.17171265,-0.10546148,-0.13177791},
			{0.16409077,-0.11985571,0.19397618,-0.09315417},
			{-0.10295481,0.14031686,-0.09146211,-0.08708913}
},
			{{0.097613975,0.13794152,-0.15877399,0.065638915},
			{0.15594955,-0.080708995,0.07264383,-0.17640385},
			{0.12486227,0.15962772,-0.19394657,-0.08478105},
			{0.17461656,0.086356,0.019829333,0.11710422},
			{-0.043096796,0.16126724,0.122039184,0.06087543},
			{0.20051916,0.20090507,0.07205586,-0.092292055},
			{-0.117716916,0.018185064,-0.16922559,-0.10427351},
			{0.06758334,0.19156094,0.037613645,-0.15189353},
			{0.07247619,0.14273022,-0.087237,0.18174691},
			{-0.1974422,-0.13716927,-0.18578224,-0.14286111},
			{-0.0027025938,0.08941434,-0.041326985,-0.17446767			}
		}
	}
};