// include/conv2d_3635_weight.h
// sergio rivera 
// 2020/02/15 03:33:46 

const float conv2d_3635_weight_p[3][3][9][2]=
{
	{
		{
			{-0.13314289,-0.22852118},
			{-0.097038195,-0.097268865},
			{0.18809563,0.13326919},
			{-0.03402531,0.17221874},
			{-0.19293964,0.19638565},
			{0.03226888,-0.06359577},
			{0.11193547,-0.2452073},
			{0.12828991,-0.19134486},
			{0.17995289,-0.13427158}
},
			{{0.044529825,0.10453513},
			{0.10417327,-0.13999024},
			{-0.027626142,-0.18108627},
			{0.15177864,-0.20784208},
			{0.10804987,-0.15556234},
			{0.009354562,0.11166388},
			{-0.20512182,-0.04549688},
			{-0.023953617,-0.01141727},
			{-0.13457832,-0.02560158}
},
			{{0.20788968,-0.16467027},
			{0.19187558,0.15108335},
			{-0.14313476,-0.10081096},
			{0.101157844,0.24560684},
			{0.12448713,-0.1719524},
			{0.21972105,-0.18339261},
			{-0.11391899,-0.2313228},
			{-0.073500484,-0.12575886},
			{-0.23016493,-0.14341414}
}
},
			{{{-0.012090966,0.018581003},
			{-0.003313139,-0.08235644},
			{0.006369233,-0.0857258},
			{-0.021939099,-0.16563526},
			{0.008999586,-0.11663297},
			{-0.12733757,-0.18500842},
			{-0.09102504,-0.22173233},
			{-0.16770613,-0.095068514},
			{-0.19344036,-0.11993167}
},
			{{-0.18274727,-0.11080249},
			{-0.20639609,-0.101227805},
			{-0.18090421,-0.18940452},
			{-0.2116202,-0.17037058},
			{-0.15706715,-0.022934556},
			{0.0799458,0.19995964},
			{-0.027283713,-0.08879295},
			{0.2374109,0.20375472},
			{0.15193313,0.06899139}
},
			{{-0.004608929,0.22674474},
			{-0.19032685,-0.24327566},
			{-0.20308489,-0.09815022},
			{0.23441994,-0.09195712},
			{0.10856211,-0.06831886},
			{0.074597895,-0.0680747},
			{0.19077915,0.09336367},
			{-0.08051355,-0.20400263},
			{0.078273475,0.13712308}
}
},
			{{{0.03554544,-0.06474455},
			{0.095709294,-0.0021547377},
			{0.2252937,0.19951925},
			{-0.070571214,-0.20894472},
			{-0.10590601,-0.21471505},
			{0.08953783,-0.21455574},
			{0.023588598,-0.011854082},
			{0.14774528,0.04536459},
			{0.19580892,-0.21406853}
},
			{{-0.12797928,0.05384907},
			{0.094569206,0.09283614},
			{0.13240281,-0.0510609},
			{0.2220392,0.23573405},
			{0.24502388,-0.22311823},
			{0.18134722,0.20330411},
			{-0.038254842,-0.05675322},
			{-0.14097415,0.13501713},
			{-0.0811242,-0.18868083}
},
			{{0.10425481,-0.018155113},
			{0.22743386,0.08616114},
			{0.18910596,-0.019211262},
			{0.07374859,-0.10250202},
			{-0.029598221,0.003515929},
			{0.18355906,-0.16499156},
			{-0.22786005,-0.1619564},
			{0.21558988,-0.15896487},
			{0.19275606,0.027454287			}
		}
	}
};