// include/dense_128_weight.h
// sergio rivera 
// 2020/02/14 21:15:01 

const float dense_128_weight_p[32][100]=
{
	{0.11098878,0.028459258,0.14768325,0.1322439,0.18642424,0.17733623,0.0805169,-0.14261033,0.115017734,0.014391582,-0.07926845,0.014813291,0.04716116,-0.007223228,0.035595488,-0.13297762,0.070006214,-0.012716758,-0.20716217,0.062731154,0.031682514,-0.043289836,0.18882719,-0.053541027,-0.036864586,0.11538215,-0.100329936,-0.16438071,-0.15052462,-0.15059485,0.059666023,-0.15502448,0.12937473,0.10844688,-0.1472961,-0.08417397,0.08060505,-0.1736464,-0.20967972,-0.15123534,0.14599922,-0.15661028,0.037147738,0.007993032,0.07884108,0.20415111,-0.012413902,-0.18103753,0.028901892,-0.08395418,0.17226866,-0.040028382,-0.08149869,0.13828647,0.13289362,0.057090156,0.13664448,0.14996077,0.12463111,-0.011670717,0.15754136,-0.20608513,-0.081946224,-0.20109081,0.04996802,0.011771977,-0.20776433,-0.020894388,-0.1160143,0.06634105,-0.12328717,0.023830853,0.17380846,-0.1659869,0.06965373,0.06814795,-0.004782463,-0.209657,-0.20760839,-0.0851974,-0.117455855,-0.15165868,-0.16907947,-0.11668079,0.07626297,-0.1582343,0.027984368,-0.016917756,-0.07757777,-0.118919194,-0.0066210045,-0.15520677,-0.12797578,0.08735394,-0.11404777,-0.054571405,-0.21115488,-0.06644775,0.13821575,0.11938497},
	{0.113967046,0.036197677,0.15641743,-0.20450762,-0.01226162,0.1341043,-0.121861406,0.016515749,-0.04644979,0.16619413,0.088893406,-0.11629155,0.07119965,0.1852124,-0.1287506,0.11950401,0.066552795,-0.083878405,0.15790485,0.15389134,0.17539325,-0.09776011,-0.074833356,0.15529779,0.07961425,0.089022085,-0.08878208,0.044813402,-0.011945757,-0.15958683,0.1567509,0.07153029,-0.09444864,0.010171879,0.11259602,-0.056153324,0.1915823,0.010324586,-0.19419958,-0.20489268,0.08462146,0.14235647,0.16794533,-0.08858799,-0.1257004,-0.0041962005,0.035942964,-0.14595506,-0.15932995,-0.20128094,0.018124353,-0.018999856,0.17033832,0.121633105,-0.17179279,0.20297772,-0.0948511,0.05573073,0.01502322,-0.19391729,-0.1169897,-0.081169344,-0.08758677,0.07985161,-0.16265929,0.04020065,-0.07150534,-0.045141194,0.039368123,-0.097843416,-0.09324321,0.107810296,0.20598225,-0.080617405,-0.10632721,-0.18853557,0.024739807,-0.06470813,0.017900959,-0.052470185,-0.052917004,-0.050547585,-0.07727263,0.20140961,0.19530459,0.09598955,-0.16902636,-0.1046084,-0.024310345,-0.19464572,-0.044305503,-0.043613046,-0.1336713,0.038078662,-0.10161395,-0.1353761,-0.16946334,-0.08206723,0.10529427,-0.053820536},
	{-0.016750341,0.11641808,-0.16189401,0.20625845,0.111911416,-0.009645643,-0.0882812,0.19604643,-0.019870361,-0.14809772,0.19877681,-0.15776516,-0.12990741,-0.069559224,-0.09291078,-0.017043902,0.09856523,-0.042242955,0.093646266,0.02628853,0.031386234,0.053844735,0.06149572,-0.07723968,-0.064119674,-0.029096382,0.18814182,0.035027936,-0.18509772,-0.08657587,-0.0106591685,-0.07696978,0.20368269,0.07534964,0.123060726,-0.056035787,-0.121629804,0.054785084,0.14482188,-0.18268442,0.191176,-0.12440019,0.1656335,-0.112345286,-0.024424082,-0.077309966,-0.08099445,-0.10751234,-0.14986484,0.045352127,0.094300315,0.11885835,-0.0063374955,0.17178762,0.1581956,-0.04630229,-0.034344275,0.12178872,-0.023320446,0.14295726,-0.062739246,0.060793716,0.11151172,0.023817658,-0.04597161,-0.027706528,0.013113431,0.06550936,-0.11592269,0.05655663,0.15711692,0.18824297,0.19404604,-0.17633364,0.20016791,0.19496262,-0.16588141,-0.021941843,-0.20440993,-0.11589894,0.008893977,-0.118103094,-0.044827484,0.10132001,-0.15712534,-0.12706979,0.108009644,-0.19280572,0.18297966,0.06995442,-0.20980869,0.029055765,-0.19959624,0.16009015,0.0023223795,-0.12488616,0.04266969,-0.10465335,0.04482598,-0.0077946596},
	{0.17828442,-0.110311344,0.1663256,-0.023881646,-0.17755206,0.07626556,0.02399667,-0.19316183,0.096637,0.16753362,-0.13277978,0.011699593,-0.09029215,0.0493617,-0.14450209,0.055022653,-0.15624441,0.19308297,-0.16618611,-0.07077779,-0.087309055,0.17437638,0.14866824,0.08486091,-0.114627056,-0.010016418,-0.038185094,-0.18294178,0.09022806,-0.21389407,0.13540664,-0.014787903,0.056280475,-0.19159907,-0.12925288,0.1772049,0.17355871,-0.12938894,-0.13892043,0.14072935,0.12021112,-0.078137994,0.15702125,0.03282025,-0.03459298,0.032383516,0.20747486,0.0037717132,0.18587552,0.1820392,-0.14096887,0.061226327,0.17828688,-0.08165154,0.13091362,-0.030083926,-0.02207389,-0.2134398,0.14417112,-0.08628399,0.048188422,-0.16421124,-0.07915923,-0.14907265,0.15506582,0.06644491,-0.06669133,0.01296185,-0.012728398,-0.17054595,0.085719526,0.1740104,0.13869157,-0.17139558,-0.18073086,-0.16874965,0.062044874,-0.06048662,-0.034247637,0.20825471,0.11369415,-0.0389333,0.15707102,0.0283365,-0.035899594,-0.10447615,-0.05536064,-0.16770867,-0.006885354,0.1335117,-0.19131805,-0.19151326,-0.1182378,0.10263659,0.20515214,-0.11018393,0.05972543,-0.0874623,0.20242594,0.19714446},
	{0.030211044,0.09114956,0.07309342,0.05264047,-0.21182062,-0.029879127,-0.004464531,0.066354066,0.033164967,0.109455295,0.0052733636,-0.026302498,0.088565096,0.14954336,-0.11936816,-0.114213146,-0.10058403,0.10637137,0.20987448,-0.11246624,-0.15943795,-0.0754132,0.08077007,-0.04734715,0.19498101,0.0044609066,0.06166714,-0.14111929,-0.08430751,-0.017563557,-0.1611111,-0.038798317,-0.02491606,0.11052394,0.14422423,0.15954468,0.0043770303,0.14206609,0.17850311,-0.040200718,-0.022110432,0.08689022,0.13763185,0.14519714,0.036005117,-0.13806412,0.06844791,-0.20325318,0.0635896,0.146761,0.00368953,0.20121166,-0.17158343,0.15130223,-0.016574025,-0.14439999,0.12908293,-0.07506274,0.16575955,0.028738618,0.05586673,-0.008665686,-0.1923586,-0.008383437,0.2128206,-0.17605408,0.117645815,-0.09625946,0.028842777,-0.18274245,-0.18274385,-0.07866012,-0.09730131,-0.1541542,-0.16596204,0.13593572,-0.14950305,-0.0084899105,-0.05394962,0.18764588,-0.08981266,0.016022833,-0.1875631,0.18798834,0.10653128,0.105137415,0.06797299,-0.19950664,0.038911622,0.1230615,-0.04551998,0.18223429,-0.037980124,-0.09046941,-0.15966271,-0.062353995,-0.17620641,0.0044731204,0.13194087,-0.033588067},
	{-0.10668633,0.19400047,0.11181789,0.1879184,-0.08581427,-0.21230069,0.16079848,-0.17805803,0.14732555,0.061613325,0.20595102,0.20120627,-0.1349022,0.1008472,0.07370111,-0.09624122,-0.015018016,0.111779734,-0.20768927,-0.102048025,0.115215644,-0.2062006,-0.15268214,0.08174789,0.20330778,-0.19543536,-0.05002069,0.051382862,-0.079521105,-0.031466015,-0.2067044,-0.07448168,-0.095782824,0.070045516,-0.0153414775,0.19009079,-0.040048,0.15233368,0.14828356,-0.1834356,-0.1831061,0.054200087,-0.21110703,0.08150283,-0.030573666,0.104889646,-0.12750147,-0.1659138,0.17636879,0.15962522,0.14281063,0.08871106,0.079418965,0.14419805,-0.111950256,0.08596118,-0.0036476273,0.12984227,-0.1602191,0.038996175,0.19937585,0.0066674743,-0.20804815,0.1690125,-0.18498631,-0.20662479,-0.17836437,0.16566287,-0.009934252,-0.18504304,0.20107238,-0.16096547,0.15444346,0.079915136,0.04518376,0.17047529,-0.14007348,-0.14499289,-0.07847146,0.050153453,-0.16837855,-0.03003158,-0.14037625,0.17212242,-0.20591299,-0.05393486,0.09807655,-0.05904654,-0.1276038,0.055504147,-0.010173153,-0.11837966,-0.030258657,-0.18285555,-0.1117624,-0.015856164,-0.10968853,0.059075516,0.04672494,0.01841166},
	{-0.20589687,0.15186158,0.15404536,-0.08016739,0.034517083,0.13405469,-0.12041522,-0.0030258456,-0.015745958,-0.13591357,-0.16597968,-0.009603148,0.19386548,0.06311198,0.124379754,-0.16795486,-0.019314006,-0.20118485,-0.2053571,0.1803396,-0.061691985,0.023141248,-0.19160752,0.065999985,0.09571378,-0.10221199,0.18077351,0.1884665,0.0059219003,-0.19846848,0.16231284,-0.016995816,-0.0040524164,0.19622582,0.08095563,-0.18500347,0.036867093,-0.21061875,-0.1576172,0.17318775,-0.14242077,-0.013877039,-0.14762297,-0.17300628,-0.05241789,-0.17524928,-0.18217073,0.062009066,-0.03190385,0.05334764,0.12867409,0.07624259,-0.015894575,0.17707434,-0.111191094,0.1743489,0.11718466,0.031841487,-0.052317318,0.08370992,-0.20622487,0.1457863,0.18729275,-0.093480505,0.21323748,-0.14237271,-0.09670924,0.10185487,0.14816633,0.18498729,0.16065292,-0.008515794,0.16760093,-0.1179397,-0.02086979,0.15278599,-0.14604768,-0.15183212,-0.19776094,-0.089848146,-0.026667204,-0.102684505,-0.07072717,-0.027865022,0.05817533,0.0499002,-0.09350591,0.1997556,-0.20189947,0.08582802,0.08167133,0.14905018,0.09368315,-0.21184957,-0.024767365,-0.073452115,0.12827303,-0.13623455,-0.110013306,-0.010421739},
	{-0.15061563,-0.104204684,0.040004965,-0.015402127,0.11048465,-0.20153213,0.100522384,0.10194295,0.18755506,-0.12732305,-0.085585974,-0.21297452,-0.1413644,-0.06473405,0.0070349346,0.10696921,-0.012505983,0.06966974,-0.17758553,0.18572478,-0.0006866466,0.006822851,0.022131862,0.044405784,0.18166016,0.11392323,0.15639871,0.02041433,0.06941735,-0.13669856,-0.1822734,0.14741807,-0.15648133,-0.020850455,-0.048806544,0.024861354,0.13321973,0.031563047,-0.16523592,-0.043754797,-0.108593844,-0.003282304,0.06353116,-0.18796162,0.13497654,-0.014300214,0.14592652,-0.20097381,0.042058647,0.17604405,-0.1293381,-0.14441846,-0.08488529,-0.1814347,0.0004762058,0.073155135,0.1941817,0.05263542,-0.054142382,0.13478258,0.16098945,-0.016811082,0.024522,0.090807855,-0.1267579,0.037814606,0.026000839,0.16165638,-0.0033837906,-0.12624305,0.13470154,0.07295889,-0.20682181,-0.08499813,0.018992344,-0.2086358,0.027833952,-0.08790623,-0.20455791,-0.1146584,0.09299914,-0.04645009,0.06624976,0.15863594,0.20339125,0.005147662,-0.14627317,-0.20639074,0.09679733,-0.087581865,-0.1672056,0.17370939,0.114465594,-0.044334937,-0.10930436,0.0008046428,-0.07579746,0.20343262,-0.038801853,-0.10735646},
	{-0.016902585,-0.19169916,-0.17373277,0.10273821,-0.08136851,-0.15917051,0.040115748,0.16732532,-0.17786203,0.11164605,0.15621954,-0.18060197,0.1926524,0.088394426,0.1204235,0.058434963,-0.03664931,-0.1608651,-0.17452097,0.034893926,-0.15726717,-0.11047261,-0.17031658,0.20044987,0.1818408,0.0282559,0.025375005,0.118481375,-0.18789293,0.09416708,-0.1756399,0.1766114,-0.15417205,-0.15723787,0.040752772,0.116336465,0.17213213,0.19258642,0.17100218,0.041427515,-0.07399237,-0.056328733,0.1893902,-0.004020886,0.19543006,0.0406331,-0.07819138,-0.1605424,0.10471176,0.15511465,0.028604157,0.09754383,-0.05936939,-0.17025395,-0.0143986065,0.08683629,0.13601054,-0.11191085,-0.11250519,-0.17267522,-0.05345148,-0.037092544,-0.19708323,0.024179062,0.109861836,0.08619113,0.12741657,-0.12716345,-0.08567018,0.14342007,-0.05295339,0.14005132,-0.067409486,0.14572373,0.1766084,-0.11165262,0.16826288,0.06488205,0.05205425,0.07499994,-0.1797168,0.20008856,-0.0984075,0.15964453,-0.20009069,0.022052813,-0.030965524,0.040040854,0.1340012,0.1251747,-0.18899527,0.14538242,0.009764395,-0.14385584,0.016521318,0.009458743,-0.103903726,-0.07588361,0.16691644,-0.11295017},
	{0.05070392,-0.08014272,-0.011027088,0.15039529,-0.05829007,0.17938685,-0.117904656,-0.0658048,0.06941637,-0.18359867,0.029776186,0.1458822,-0.027606696,-0.060583066,0.057632096,-0.21501316,-0.18777046,0.18288566,0.10830216,0.0190758,0.11765405,-0.102664314,0.17948769,-0.07323559,-0.032206487,0.041160703,-0.15191035,-0.077562176,0.17594682,0.08663823,-0.004487552,-0.04101987,-0.13272946,0.18997334,-0.06413335,0.20977305,0.16563895,0.14768413,-0.13707343,0.09097533,0.067685515,0.044810716,0.035996467,-0.19811252,0.13449803,0.16691212,0.01664198,-0.12098685,0.18261026,-0.008866758,-0.08725694,-0.15719777,-0.12136154,0.1183286,0.10254334,0.051982593,0.15678564,0.06275417,-0.1009428,-0.1455902,0.08809382,-0.03457338,-0.0885014,0.04178191,0.057143886,0.11224558,-0.09232448,-0.12171835,0.0002765981,-0.14181247,-0.04525383,0.15340245,-0.06795833,0.0849085,-0.16794045,0.18252568,-0.083892725,0.16356863,-0.073984325,-0.03179357,0.09631281,-0.03446171,0.12547992,0.16928305,0.048064128,0.005760608,-0.0012682573,-0.18967265,0.13931881,-0.09112533,-0.20992787,0.124417245,-0.06390158,-0.18567175,0.09404849,-0.19412635,-0.09085757,-0.19332643,-0.05855506,0.19286433},
	{-0.066977225,-0.06643552,-0.16044775,0.18310544,0.16949168,-0.20599039,-0.20968506,-0.01241309,0.16484417,-0.19442225,0.18368636,-0.023215318,0.08791457,-0.1345422,0.15026471,-0.03237501,-0.015367374,0.004228469,0.109972455,0.06576684,-0.022543311,0.01575818,0.06301574,0.07732369,-0.07976035,-0.116326846,0.15562448,-0.12114866,-0.0423737,-0.059522647,0.10951488,0.12075935,-0.10721967,-0.111149184,0.051261626,0.10188044,0.016291495,0.1671814,0.18896814,-0.18684673,-0.05399354,0.1451786,0.13888352,0.13694066,-0.110808864,0.055591863,0.012180721,-0.077297255,0.06411655,-0.059080277,0.16586727,0.19242518,-0.011676849,0.17289999,0.2044516,-0.094332255,-0.072841726,0.0716773,-0.13829021,0.0020154698,-0.03223331,-0.120302394,-0.050659433,-0.050184514,0.15496786,-0.10700133,0.056448746,-0.06923336,-0.0008847845,-0.009469844,-0.20531146,0.10213511,0.039564982,-0.12749508,-0.049992006,-0.17031509,-0.21043524,-0.051549546,-0.07115842,-0.054189585,0.0043618353,0.15144531,0.019783262,0.0753214,-0.09260809,0.088936195,-0.036835045,0.09331543,-0.10195593,-0.027154284,-0.17082748,0.07674427,0.16560896,-0.12069929,0.017390445,0.16578327,0.11099309,-0.04520513,-0.017138444,-0.19080901},
	{0.00051123323,0.12892647,-0.0027156337,-0.19264282,-0.10807778,0.051125094,0.024214404,0.17666101,-0.03240496,0.07385781,-0.1115511,0.14210914,0.06047042,-0.004059386,-0.14317895,0.00055328594,0.11353567,0.11755856,-0.06671003,-0.04647121,0.107959054,-0.039770745,0.047885146,-0.030517071,-0.17628224,-0.16425797,0.03212778,0.16445976,-0.18116413,-0.11405538,0.20350283,0.07629947,-0.067013115,-0.055342063,-0.0013228836,0.039354533,0.11242657,-0.20071678,0.18452018,-0.071189284,0.00482894,0.066331126,0.08565577,-0.17352276,0.06652378,-0.030184614,0.19549702,-0.074022405,-0.19619466,0.17270081,-0.0025550833,-0.038609773,0.0009770889,0.14340954,-0.0038964693,0.094593555,0.009117454,-0.017094955,-0.03939627,-0.13405545,-0.19999233,-0.028626515,-0.15174824,-0.16301197,0.11543146,0.193151,-0.1436397,-0.18123768,0.14393139,0.087234944,-0.18803318,0.039500926,-0.18519533,0.133475,-0.15218225,0.036563724,0.07444267,-0.07932459,0.1132445,0.0693191,0.12737615,0.18782318,0.19485737,-0.0947412,0.13554527,-0.1959048,0.0798685,-0.12236668,-0.014187618,0.18330836,-0.13840209,0.09131395,0.19079965,-0.16207922,-0.11141296,0.055184994,0.073772214,-0.031817004,0.17624128,0.16070087},
	{-0.11198625,0.040058136,0.13870251,0.18746562,0.0929934,-0.0019753615,-0.02841878,0.18728103,0.14897177,-0.0868129,-0.10738149,-0.11973999,0.073064476,0.13987409,-0.18586938,0.005671797,-0.149092,0.2038294,0.13750778,0.011101957,-0.09402477,-0.2183459,-0.13588731,0.032516353,0.093148164,-0.03546939,0.06519962,-0.03373882,0.16261478,0.11368095,-0.19226718,0.09889775,0.03846241,0.07177712,0.10298326,-0.2015167,0.11442909,-0.09797407,-0.22088401,0.0017343167,0.0102416845,-0.14891718,-0.20578557,-0.1469673,0.17711574,0.13915181,-0.023431992,-0.20995338,0.06789026,0.16325608,0.039044037,-0.08142377,0.12663956,-0.057512786,-0.0026149817,-0.1466881,0.018969903,0.03878522,-0.14753795,0.033823673,-0.21986817,-0.1565211,-0.09358642,0.18644227,-0.020892289,-0.047463525,0.118511796,-0.028054569,0.07284861,-0.0073927445,0.029968621,-0.1275542,0.05340533,0.116456956,0.19795139,0.18980548,0.056585312,0.1427906,0.08357041,0.10528922,-0.036927626,-0.020160178,0.06149482,0.0075434777,-0.06333551,-0.05113635,0.19697702,0.1418356,-0.132169,-0.005113001,-0.13666764,0.009906736,-0.1941772,-0.15758389,0.1253358,-0.056307036,0.08970981,0.061001815,-0.19582434,-0.09840153},
	{-0.13651815,-0.20784582,-0.012029978,0.042501625,-0.12654385,0.15140602,-0.05267462,0.105555534,0.043512218,-0.111542925,-0.037218425,0.067427374,0.17196345,0.06490566,0.19732909,0.10736869,-0.09526914,0.20250615,0.19557689,0.16529073,0.18088813,-0.16911073,0.053879883,0.022102254,-0.05111949,0.11098096,-0.16434908,-0.008141686,-0.06444339,-0.11349823,0.11034049,0.14882462,0.17095295,-0.11002172,0.19414634,-0.21408918,-0.20752272,0.19650337,-0.12482176,0.18967766,0.13191758,-0.037939273,0.008943525,0.18917616,0.1791482,-0.19202675,0.036410064,0.049444318,0.067723304,-0.09746419,0.019108815,0.053185716,0.18028069,-0.065451235,0.15345213,-0.01669576,-0.051659446,0.11276186,0.021657703,-0.18604518,-0.15976252,0.034640383,-0.11456545,0.13839974,0.1815244,0.1264241,-0.17918491,-0.062960126,0.17752215,-0.16751103,-0.14868952,-0.13540527,0.20032515,0.115062594,0.17509307,-0.056251947,-0.022387953,-0.16615671,0.10127595,0.17345878,0.18484773,0.15387492,-0.1553713,-0.10526338,-0.08691423,-0.10349621,-0.018199597,0.16663772,0.13092361,0.0034421943,0.15018286,0.031130021,-0.08524648,-0.13637432,-0.21025816,-0.068435006,-0.1634013,-0.1779017,-0.12879741,-0.15846284},
	{0.0842413,0.046446197,0.07931655,-0.040311497,-0.14826056,0.05885121,0.16872007,0.1350872,-0.19133747,0.15732223,0.072696365,-0.14020678,-0.13918783,0.17342326,0.041108966,-0.0922944,-0.085487776,-0.042270433,-0.027876738,0.16107132,-0.20084292,0.06338531,-0.03402951,-0.010614246,-0.1916871,-0.15920565,-0.017045887,0.1861626,-0.1375465,0.018799858,0.086680725,0.053402595,0.015161498,0.20478517,0.13937038,-0.2029748,0.07597195,-0.09983614,0.023429532,-0.06396916,0.20545678,0.17979549,-0.18925364,-0.049362514,0.07000085,0.18526784,0.19131708,-0.12091738,0.13724566,-0.18708183,-0.015018235,0.188763,-0.21043883,-0.1938728,0.0008236379,0.19461514,0.057817966,-0.014890671,-0.20157501,-0.14088437,0.05858791,0.0063225063,-0.09026866,0.07775815,-0.15813892,-0.06767878,-0.18899545,-0.17021686,-0.074728414,-0.16701755,0.016808262,-0.13633734,0.18795493,0.100732714,0.13836057,-0.02298555,0.065434806,0.15005985,-0.19313157,-0.05070858,-0.18278126,0.0405215,0.21010126,0.02729827,0.06534571,-0.03008923,0.15536818,0.013368993,-0.046526343,0.038112365,0.20996417,-0.059834793,0.055779036,-0.13855584,0.16080266,0.12984511,0.1830744,0.14201874,0.17006467,0.13605672},
	{0.044539656,-0.03424074,-0.07850493,-0.016372291,-0.1168605,0.06470254,0.0033959656,-0.07472819,-0.10864725,-0.06103335,-0.13206252,-0.11539995,-0.20035951,0.19513632,-0.047298267,0.2077293,0.1357893,-0.082821995,0.1582962,0.15236829,0.012242491,0.042577725,0.112842895,-0.1575013,0.13121916,0.08986224,-0.05756945,-0.09937326,-0.073974796,-0.08979256,0.16007212,-0.15467979,0.062184215,0.209709,-0.021881796,0.2062024,-0.07165453,0.16925418,-0.0924546,0.20053983,-0.0511654,0.026189804,-0.17931473,0.050257962,0.036985178,0.13571244,-0.112715594,0.06609239,0.09372818,-0.06966177,-0.06510065,0.16452381,-0.17495959,-0.1002198,-0.2000586,0.024299508,0.12787291,-0.0580443,-0.12617958,-0.069586545,-0.09175333,0.0027881789,0.14703585,0.025976377,0.18245304,0.19461165,-0.10329553,0.16081922,0.06999115,-0.046228535,0.11900906,0.05895398,-0.21317647,-0.20382653,0.10589382,-0.037857905,0.14814681,-0.12446734,0.07895915,0.060860135,-0.07074996,0.130518,0.07569604,-0.08466125,-0.040452592,-0.05341551,0.12964097,-0.19252524,-0.1335447,-0.10460346,-0.15482059,-0.18005334,-0.10266782,-0.05318507,-0.13007832,-0.05474712,-0.17195316,0.086849004,-0.21056877,0.10907112},
	{0.14648181,-0.15200111,0.15317646,-0.1602972,-0.13965297,-0.052815482,0.094197735,-0.04676647,0.09344386,-0.1735268,0.19233625,-0.053341143,-0.04638089,0.1587011,-0.20690869,0.06768518,0.17066601,-0.027904859,-0.030364124,0.13703193,-0.18370718,-0.15731563,0.15119803,-0.19002289,0.097347125,-0.10884928,-0.01973127,0.1773466,0.094013035,-0.122037895,0.15242857,0.06195493,-0.14353415,0.07233629,0.08698982,0.06716554,0.16544648,0.03910438,0.1865488,-0.00826069,0.20727739,-0.1286058,0.20303784,0.09780982,-0.096900806,0.015771158,-0.102736965,-0.0713462,0.11976843,-0.21350026,-0.0061266995,0.01281978,0.0028523167,-0.17678492,0.061028697,-0.15929024,0.07058338,0.1934729,0.1331587,-0.007630393,0.1712937,0.16349114,-0.05030624,-0.0026124304,0.13878962,0.029566454,-0.012422034,-0.13358036,-0.033071898,-0.07899313,0.14130524,-0.20031713,0.102907225,0.07420917,0.11848642,0.053194348,-0.15713629,0.028591288,-0.020520277,-0.1717838,0.19382107,0.12162907,0.010869878,0.09539173,0.1776951,0.16178681,-0.2162204,0.057084557,0.006172045,0.1375402,-0.18722291,0.11971773,-0.15646628,-0.09736781,-0.044660363,-0.19042322,-0.18613355,-0.08660401,-0.17245254,0.013288706},
	{0.04367186,0.20173296,-0.02881832,-0.06768315,-0.004671364,0.09297973,0.14927204,0.19954471,0.10077764,-0.028318856,0.054419655,-0.07617036,-0.1287443,-0.19610496,0.20452642,-0.09159419,-0.05544067,0.17249511,-0.0659907,-0.012479421,0.13440752,0.1829436,-0.04815846,0.12100581,-0.08667153,-0.16702071,-0.06403221,0.20667693,0.09075184,-0.005412,-0.17761317,-0.13178886,0.2055141,-0.024069441,0.20139726,0.03649851,0.04975709,0.07974876,0.17355683,0.1531749,0.15392214,0.1550678,-0.1895571,0.09304327,0.076953635,0.022451054,0.17456698,-0.009547367,0.023643997,-0.15790756,-0.19527903,-0.12503229,-0.19199662,-0.15715602,-0.03493548,0.16688128,0.17425944,-0.102330595,0.103245,0.043603826,0.0140746245,0.07965587,0.15739185,0.19174233,-0.16739967,-0.07514464,-0.06852709,-0.16581635,-0.012124065,0.17700748,0.053842284,0.028062612,-0.05343411,0.15077525,-0.13615614,-0.114223816,-0.077569865,-0.1634291,0.015800862,-0.011538995,0.014197139,0.042124443,-0.19724603,0.13233842,-0.20151502,0.10780774,-0.06068242,-0.042822685,-0.09156666,-0.18246023,-0.09602188,0.1189107,-0.049568392,-0.078105845,-0.17382102,0.13025267,-0.016688135,0.09755828,0.06509412,0.07452385},
	{0.16243392,-0.009316992,-0.19677529,-0.14111666,0.10524931,-0.0011144171,-0.008849021,-0.11212057,-0.037201904,-0.030029774,-0.17721927,-0.09224684,0.05483217,0.11122085,0.040791888,0.18331482,0.0045091743,-0.06129955,0.12827912,-0.19587968,-0.14647706,0.14803775,-0.048406318,0.10807847,0.09249826,0.20118143,0.035211917,0.08400554,0.17054355,0.05748922,-0.13504048,0.089903645,0.13428809,-0.0017850812,-0.17993,-0.08569676,0.018953014,0.05948755,0.05487044,0.05231916,0.007254455,-0.052775506,0.19635858,-0.15124215,0.013471801,0.035166137,0.036762428,-0.08643175,0.08543978,0.021883952,-0.027761111,-0.07883561,0.08151251,0.17704445,-0.033507675,-0.05705103,-0.08237258,-0.09916297,0.19473025,0.08374706,0.15706451,0.18838838,-0.055656612,-0.19028133,0.015403816,0.043229543,0.2102541,0.18224636,-0.03933297,0.070435286,-0.14480998,-0.18480772,-0.047071178,-0.089015506,0.05124424,-0.016171223,0.19854023,-0.07643648,-0.119254544,0.06651618,0.05699928,0.18150905,-0.19280721,0.1705613,0.0026879918,0.15958495,-0.05712908,0.10606209,-0.013250011,0.16283202,-0.09191445,0.15507072,0.17284493,-0.075146295,-0.0038919044,0.0333645,0.09141303,0.12336638,-0.0882747,-0.035431147},
	{0.05343582,0.097374186,0.17302862,-0.1461597,-0.07598973,-0.18231359,0.08308549,0.045518853,0.058874357,0.06447792,-0.03538855,-0.2126371,-0.019475203,-0.18515925,0.035916544,0.1058546,0.16880643,0.09948546,-0.07829268,0.16677722,0.069262385,0.18667531,-0.05582191,0.014091876,-0.13131328,-0.022395052,0.10015199,0.1822618,-0.11068777,-0.057966396,-0.19170891,0.07051445,0.1470742,-0.017456995,-0.015457845,-0.03224439,0.026586382,0.115251124,-0.070449434,-0.17091163,-0.07123052,-0.09673484,-0.10321881,-0.028325906,-0.14417285,0.053352695,0.12980026,0.03687144,-0.14122848,-0.20348044,-0.111109234,0.0057088477,-0.023231668,0.06243822,-0.04129881,-0.046440415,-0.20014487,0.18269636,-0.16705336,-0.11677894,0.039802495,-0.20118082,-0.12312734,0.17518029,-0.020336762,0.20603062,0.022079563,0.065442525,0.06771382,0.061554953,0.19957867,0.10271198,-0.023463663,0.13403876,0.15584381,-0.08164157,-0.052825827,0.18988767,-0.14467229,0.056596424,-0.115955725,0.12087707,0.11619175,0.14631048,-0.13254881,0.110043705,-0.077191636,-0.081177704,0.030811045,0.15340474,-0.14226916,-0.07874922,0.12522058,0.036276698,0.16616455,-0.013658011,-0.21474476,0.014821124,0.051071893,-0.17180505},
	{-0.065517254,0.11277721,-0.048741356,-0.17692558,-0.034917537,-0.15049438,0.17639492,0.064498834,0.100876726,0.044813696,-0.17609046,-0.100518264,0.18797126,-0.08966655,-0.1415317,0.1957633,-0.046757445,-0.13207161,-0.011510353,0.14561129,0.07522827,-0.11081861,0.012159239,-0.13844287,0.18775389,0.19579995,0.039290316,0.03824356,-0.19655669,0.16742809,-0.008392296,-0.07144465,0.042741913,0.1607263,0.07956398,-0.08204003,-0.17927635,-0.019800767,0.0730417,-0.15731569,-0.07589214,-0.19208579,-0.111114845,0.19893306,-0.034153473,0.18758121,-0.19319999,-0.15272374,0.0054015624,-0.080356196,0.19946389,-0.08122507,-0.06969804,-0.085219644,-0.06032815,0.071579754,0.2050114,-0.019439593,-0.11114385,-0.053822763,0.009857972,0.14276038,0.11408261,-0.21136981,0.09045454,-0.19122784,-0.029670669,-0.083558455,-0.0594327,-0.032755233,0.052266803,-0.2097075,0.016219094,0.0019193828,0.18556586,0.06731874,0.109449446,0.16630435,0.17022122,0.14302811,0.15894863,-0.09329503,0.10968808,0.020044172,-0.15383524,0.022186814,0.009284984,0.17597592,0.102372736,0.14049076,-0.066653356,0.07602112,-0.095392585,0.08134967,0.1251878,0.12328811,0.15449405,-0.10860549,-0.049986586,-0.030908542},
	{-0.19626366,0.1087003,0.16416264,0.2026951,-0.06093632,0.1573538,0.11802001,0.051289342,-0.091789044,-0.19980313,0.019589813,-0.13438822,0.17437991,-0.05712007,0.1604305,-0.078422874,0.07445435,0.2067059,0.0748143,-0.036284883,-0.015676737,-0.2000959,0.18449815,-0.0645257,-0.077720515,-0.08131401,0.20875919,-0.09268817,-0.10529284,-0.000742471,0.06934759,0.056212746,0.10380275,0.1902007,0.16505972,-0.046946134,0.1621165,-0.003701166,0.16338134,0.021848701,-0.18596725,-0.17810026,-0.18856137,0.03911014,-0.062612996,-0.19047062,0.035461824,0.18689716,0.08164577,-0.0841533,-0.15177703,0.1750852,-0.16674548,0.022453945,0.14056028,0.20582971,0.14358136,-0.096891575,-0.017860187,0.21108094,-0.19530883,0.07613777,-0.20253028,0.05946153,-0.06322128,0.06288561,0.14043371,-0.0035169919,0.039512422,-0.07678979,-0.2041616,0.18020846,0.18442944,0.2097352,0.10497283,0.07838675,0.20602414,0.094395585,-0.10153184,-0.065658435,-0.07250294,-0.1231824,0.1924243,0.15600748,0.03285356,0.088263124,-0.03613103,0.05358219,0.13008577,0.10367104,0.02231014,-0.16481209,-0.07786816,0.20222512,0.0943429,0.11968927,-0.1261042,0.097653426,-0.20580217,0.027963854},
	{0.028886199,-0.09080122,-0.01751469,-0.09478042,-0.10675189,0.19330403,-0.13736548,0.02425468,-0.09559926,-0.059397712,0.06292224,-0.10154882,-0.06644401,0.007502556,0.09338385,0.19720715,-0.13947994,-0.042942747,0.2103498,-0.15428941,-0.21058084,0.11510658,0.079411775,-0.18591677,0.14474532,0.007920235,0.109693974,0.06264439,0.12000799,0.05796051,-0.061035946,0.112223655,-0.0751289,-0.055546656,0.011605024,0.11592898,0.20065552,0.20220831,-0.21104498,-0.036419258,0.082666636,-0.107615404,0.008274838,-0.123252094,0.06707969,0.17675564,0.026955128,-0.080752835,-0.0035272092,0.15004715,-0.16489346,-0.1186189,0.20266604,-0.11122507,0.11679813,-0.02084376,-0.028909072,-0.04623635,-0.05055967,-0.013241485,-0.18302682,-0.15214474,0.16647914,-0.040656373,0.10332146,-0.02967392,0.01571557,0.13034779,0.03474894,-0.2055775,0.003975749,0.07517657,-0.022676677,0.19202611,-0.12223288,0.19628435,0.0645076,0.09777966,0.18409625,-0.1444594,-0.12593174,-0.18203983,0.08647439,0.21017611,0.07024634,0.046786755,0.18532601,0.12326795,-0.019817993,0.10358393,-0.17002226,-0.07462476,0.02487339,-0.16372389,0.11358541,-0.088549756,-0.0017084777,0.034597367,0.09300861,-0.09001537},
	{-0.19150561,0.14219597,-0.11399724,-0.112645164,-0.03601244,0.14716756,0.1381383,0.20624359,0.19624838,-0.20306975,-0.06729714,0.112391606,0.15703157,0.15619528,-0.13716933,0.041852374,-0.011757319,0.06735387,-0.063331254,-0.16312252,0.089278124,-0.15492852,0.0005767768,0.08341674,-0.075509906,-0.13711037,0.055301026,0.18333967,-0.20019758,-0.08027529,-0.16950715,-0.15488544,0.122575425,0.13858034,0.20317899,-0.024861334,-0.1731485,0.19186914,-0.11751247,-0.16436735,0.15794761,0.111951746,-0.03849012,-0.10146524,-0.16080886,0.029107418,-0.03314839,0.07706185,0.04827005,-0.12854086,0.12866613,0.058147423,0.15384613,-0.18346941,0.20571579,-0.009904977,0.024527779,-0.14500578,-0.07837986,0.007772985,-0.067428455,-0.041079536,0.17481972,0.16293934,0.17338204,0.1367504,0.16393733,0.19560055,0.036537178,0.14603291,-0.02094704,0.13240565,-0.046159804,-0.16278093,0.017668273,-0.16136074,0.19506356,0.20985058,0.12872115,0.09643915,-0.11214386,-0.04278281,-0.048408926,0.045016132,-0.14422612,0.117682636,-0.14034335,-0.033894897,-0.08071217,-0.044911508,-0.11652834,0.0721797,0.14225467,0.047251463,-0.0028729262,0.19386387,0.15463805,0.15584564,0.022251397,0.009049128},
	{-0.15783218,-0.1729543,-0.18700752,-0.11216138,-0.012121568,0.12891187,-0.10085991,0.06856167,0.05989556,0.0694168,-0.057659425,0.04341779,-0.19507931,-0.20720425,-0.11982805,-0.009455874,-0.01693451,0.12122568,-0.17076567,0.0019955465,-0.09620529,0.020558652,-0.08920666,-0.16119154,-0.06395341,0.098848104,0.046401396,0.1761095,0.017348569,0.19277973,-0.14504531,0.14573103,0.08842434,-0.12184059,-0.008351128,0.14463268,0.11734581,-0.10762726,-0.07791316,-0.05100764,-0.1859325,0.09169957,-0.18284063,-0.0048035095,-0.1648118,-0.10881761,0.089744076,-0.0466121,-0.20703956,0.17964031,0.1416898,-0.17900383,-0.1218115,-0.06485263,-0.18871357,-0.1325218,0.1069658,-0.14571315,-0.11692667,-0.13705379,-0.10219131,-0.00262787,0.008788738,0.11217112,0.136412,0.10829616,-0.08896327,-0.19110504,-0.17768759,-0.016082171,-0.13783246,0.10679129,-0.048520766,0.07968484,0.031083474,-0.124915026,0.12828204,0.13671482,0.03824732,-0.1594526,0.059174843,0.1557926,0.051316474,0.03503394,0.027318371,-0.029564867,0.10722669,0.162312,-0.16268629,-0.02441443,0.17625137,0.17586759,0.15028425,-0.096449256,-0.15528123,0.19608763,0.20854278,-0.11699451,-0.121051975,-0.06260337},
	{0.118283935,-0.02324815,-0.12264681,-0.13650924,-0.057704814,-0.0466168,0.14837497,0.057709925,-0.21558811,0.05155812,0.18193504,0.15316486,-0.083014764,0.075677745,0.0899204,-0.03790396,-0.15268965,-0.12904178,0.003714862,0.10368617,0.13286993,0.116752885,-0.09318518,0.13986701,-0.17607006,-0.035197947,0.1674844,0.19617328,0.17251793,-0.10305022,0.19715144,0.0057707625,-0.21632068,-0.16741903,0.19611077,0.077685155,-0.10550498,0.14768626,-0.21615905,0.15498313,0.027367303,-0.10277074,-0.06164565,0.0022191233,-0.08354115,-0.20736755,-0.026376488,-0.16483252,0.112058364,0.20187147,-0.09538309,0.15079255,-0.121801496,-0.1393891,-0.13040926,0.10408944,-0.029162904,0.06011147,0.12644336,-0.07312866,-0.07350837,0.18804333,-0.10459884,0.03619773,-0.121066146,0.11498685,-0.08378659,0.034277167,-0.046956096,-0.050143313,0.10095643,0.1277221,-0.05752615,0.12342108,-0.07881469,-0.18402968,0.035631042,-0.0460338,-0.04346306,0.12027366,0.025290724,-0.16548252,0.018116856,0.005335243,-0.08231256,-0.13105814,-0.07804599,0.20300214,0.0521501,0.0056749973,-0.05064272,0.17526896,0.19320463,-0.12417017,0.12570491,-0.2074638,-0.11880413,-0.18312094,0.09615674,0.014170956},
	{0.2105536,-0.03308317,-0.15335652,0.17222367,-0.04546007,-0.1459907,0.14150076,-0.0098055415,-0.043856595,0.099252574,-0.17352968,-0.12782969,-0.14597565,0.04140953,0.0064518685,-0.054291926,-0.18639785,0.0046093324,0.16789393,-0.017842252,0.15675499,-0.14410041,-0.0638791,0.054445375,0.050091915,0.19995849,-0.11254867,-0.1969878,-0.07569044,-0.19770133,0.09061599,-0.105434686,0.045410026,0.19761476,0.10717051,0.01222689,-0.1284978,-0.111951254,-0.1875135,-0.15718059,0.18910123,-0.16212262,0.16288492,0.14336172,0.045900255,-0.066846356,0.00070051,0.10275453,0.06213272,-0.058334075,0.18413673,-0.1872136,-0.049155097,-0.037336014,-0.20014288,0.07142281,-0.055913933,-0.09683927,0.061078083,-0.0336466,-0.06374287,0.17467129,-0.21359146,0.074317165,-0.046731457,-0.20136023,-0.10199579,0.014934321,-0.1336168,-0.105632,0.020572329,0.016431592,0.12902321,-0.16475739,-0.19873184,-0.19659354,0.13134019,0.14443849,0.21168065,-0.18344893,0.16244507,0.039931145,-0.07715888,0.0021305154,0.08962001,-0.032882925,0.008084252,-0.051816095,-0.07748798,0.03505962,0.023430252,-0.05524894,-0.1605911,0.1254737,-0.06614055,0.08869634,0.18583547,-0.20844325,0.09499458,-0.20530012},
	{-0.19523202,0.15911154,-0.14449754,-0.18294774,0.15014434,0.14719151,0.00892809,-0.09559345,0.09094032,0.16971555,-0.10253467,0.02467442,0.2078842,-0.014365331,-0.024531582,0.046017908,-0.1811536,0.14094746,0.11801353,0.107289195,-0.07850563,-0.07107001,-0.052041262,0.113783725,-0.093187645,0.11063479,0.18624006,0.18499298,0.07587501,-0.115321524,0.11865456,-0.19983448,-0.062765144,0.21014705,0.12566906,-0.16397235,-0.10743258,0.13921611,0.11136409,-0.12924634,-0.026526587,0.060972072,-0.048745602,0.18224221,-0.017609976,-0.11904183,-0.052941047,0.12563719,-0.100648314,-0.019462794,0.18230148,0.019046705,-0.17149968,0.015230474,-0.14878988,0.017385082,-0.2121277,-0.08608076,0.1530503,-0.07616985,-0.06112022,-0.20532967,-0.09062092,0.16844642,-0.18201827,0.0030983675,0.046604194,-0.15476963,-0.079750136,-0.18715931,-0.05396385,0.011264539,0.0979339,0.17436318,0.09928774,0.10157034,-0.11210166,0.07281983,-0.084421195,-0.07052938,-0.005656853,-0.12295536,0.1575994,0.18773165,0.008003956,-0.08977067,0.0810629,-0.1548073,-0.026178848,-0.0913468,0.17977397,0.1738174,0.1263766,-0.031463362,-0.12950224,0.18764673,0.026830254,0.030598296,-0.166224,-0.039026823},
	{-0.16632913,0.09895273,-0.15718286,-0.0044820164,-0.08630891,0.057739243,-0.17047505,0.008329499,0.1869287,-0.20047227,-0.15521783,0.01730974,-0.18047805,-0.03131286,0.06536735,0.12927605,-0.17680004,-0.19346163,-0.1628931,0.01930268,0.14513946,0.09233232,-0.018858045,0.01954291,-0.15181966,-0.06837542,-0.18864179,0.040204026,-0.03948662,-0.13480076,0.13225433,-0.0049752593,-0.0658684,-0.07881088,-0.060493506,0.006741091,-0.1291923,0.14347766,-0.03462318,-0.020714438,0.044945393,-0.09887696,0.124667145,0.012068575,0.048325308,-0.10146932,-0.04225568,0.16486156,0.059915517,0.02094356,-0.21519795,0.19655506,0.15446487,-0.08551866,0.0627851,0.1981535,-0.13542463,-0.04097389,-0.17068993,0.10400414,-0.13371885,0.07792802,-0.014392149,0.060598128,0.05760037,0.03161599,-0.09820644,-0.10886484,-0.07001819,-0.16126268,0.20404351,0.03145038,-0.19177617,-0.159807,0.01616428,-0.069055445,0.19417904,0.092987806,-0.08459758,0.17712723,0.016172184,-0.1268971,-0.021808453,-0.17796634,0.1367588,-0.013922407,0.042806488,-0.036699113,-0.111749254,-0.06333536,-0.054100584,0.11831436,-0.002623952,-0.21645509,-0.03916173,-0.055573482,0.118518226,-0.005605859,-0.18393025,0.1685429},
	{0.066973634,-0.17443131,-0.18973687,0.12014945,-0.108658805,-0.15376434,0.15823776,0.13037026,-0.08555296,-0.15381916,-0.1683363,0.06499127,-0.1430938,-0.16796522,-0.114985354,-0.017596988,0.010792896,-0.088113695,0.021071576,-0.12671287,-0.16947745,0.09410935,-0.14858945,0.08930432,0.10911757,-0.03441399,-0.024572644,0.091008835,-0.09095777,0.19027548,-0.035025887,0.13939987,0.04993165,0.14310057,0.0077443784,-0.062180344,0.100467294,0.13116813,0.09812582,-0.041109107,0.095784456,0.18695629,-0.1627451,-0.14879958,-0.19109406,-0.1472451,0.19636713,-0.04250986,-0.18510824,0.091060914,0.0999742,0.06118806,-0.06699218,0.10624202,0.10084515,-0.088468,-0.049264774,-0.11929041,-0.19948144,0.17831238,0.12377392,-0.04447377,0.10407651,0.18191898,0.046066567,-0.072240256,-0.010151159,0.111726314,-0.14041124,0.17816396,0.023021763,-0.042782485,-0.03910371,0.10407249,-0.1894707,0.18670009,-0.116103835,-0.10040948,-0.043330826,-0.19009261,-0.052890908,0.031670682,-0.07455907,0.1632265,-0.007484411,0.13848576,-0.021748403,-0.03819061,0.0049634217,0.09611173,0.06420322,0.06222742,0.080468416,0.036492113,0.05337667,-0.024598371,0.19982886,0.18399464,-0.050432846,0.06328788},
	{0.13589941,-0.105674274,-0.06962792,0.025218906,0.05842724,-0.1447513,-0.11549134,0.14402428,-0.1267524,0.1875183,-0.15042084,0.16170585,0.071675226,-0.09986779,-0.08671028,-0.14882818,0.19440068,-0.07936417,-0.117190614,-0.02380977,0.117269024,0.01718447,-0.034450445,0.038238272,-0.0039867423,-0.072119,0.17717083,0.16152506,0.12762862,0.18682447,0.17782953,-0.042913742,-0.18922405,-0.103899054,0.09449195,-0.13701026,0.091958575,0.031869747,0.03957074,-0.18405516,0.15463573,0.01875759,0.18775027,0.044958156,0.036073014,0.032029677,-0.19369322,0.15353383,0.056403983,0.08049691,-0.18521744,-0.048916947,0.039350323,0.16498464,-0.186021,0.17524692,0.057094406,-0.17633368,0.18320732,-0.20010976,-0.17893936,0.16012229,-0.21125823,0.15249419,-0.070854604,-0.14633462,0.05550252,0.12154072,-0.15601617,0.17076285,-0.19944325,0.16933607,-0.06876083,-0.18351445,0.19827257,0.17516556,0.0824545,0.0785465,-0.052114937,-0.20591398,-0.14642031,-0.11853735,0.08807394,0.013087008,-0.09793553,0.080449924,0.0664441,0.17619137,0.17763083,0.17801365,-0.046310578,0.07058618,0.019020703,-0.20617469,0.15980032,0.09953563,0.018948296,0.06815785,-0.13880439,-0.13507482},
	{0.11012327,0.009832561,0.0034969302,-0.21586026,0.10547553,0.04434311,-0.19068937,-0.16036382,0.1745838,0.18264292,-0.02822976,-0.1390221,0.1653243,-0.11759311,-0.0263754,-0.064690836,-0.0010999751,0.21259215,0.1611098,-0.08800922,0.11199801,-0.09553693,-0.052775454,-0.11027979,0.16507946,0.095760696,-0.19655263,0.19470938,0.05944222,0.14729321,-0.049350586,0.0863475,0.165526,-0.114576325,0.10397419,0.10833144,0.06754316,-0.1914914,0.09132267,0.1613003,0.18441702,0.08959035,0.13899666,0.051661614,0.08329944,-0.15904844,0.13923068,0.026695991,-0.15664603,0.19899742,0.01068386,0.05711902,-0.148627,0.075374514,0.09725505,-0.17358133,-0.024018848,-0.1985109,0.09123431,0.09651109,-0.21704748,-0.13910624,-0.09077888,0.09101767,0.16515768,-0.027712889,-0.1126101,-0.06528593,0.16152908,-0.03243689,-0.21721204,-0.05343612,0.008470612,0.11119205,0.20617978,0.08235222,-0.073666856,0.11821689,0.093729824,-0.026451226,-0.16964945,0.0836136,0.17963828,0.07991578,-0.14994796,-0.06633528,0.14671199,0.16276081,-0.07767344,-0.015039457,-0.010982198,-0.06944361,0.15175508,-0.1318522,-0.12068509,-0.037777863,-0.21477464,-0.12873405,-0.016361682,0.17424719	}
};