// include/dense_1200_weight.h
// sergio rivera 
// 2020/02/14 20:41:55 

const float dense_1200_weight_p[132][108]=
{
	{-0.1461873,0.15055293,0.061124124,0.039529935,-0.11769946,-0.09776256,0.15534063,-0.06454288,-0.043332398,0.1262583,-0.016269367,0.08680501,0.012116187,-0.13064969,0.023427166,0.063560195,0.08396804,0.07903162,-0.10219279,0.13307951,-0.043979757,-0.0022425372,-0.012671225,0.06858985,-0.11202435,0.04508568,0.1216394,0.14645158,0.08521325,0.04422495,-0.1028073,0.14211468,-0.09493512,-0.10185477,-0.03244741,-0.14208928,0.09733526,-0.06613016,-0.07603433,0.010470891,-0.081959724,0.12926388,0.1021554,-0.15077421,0.120894,0.14317559,0.03934895,0.106078245,-0.07535012,-0.11968293,-0.10311372,-0.045076396,0.032801393,0.13182096,0.01656069,0.068875454,-0.124858215,0.13183965,0.13176884,-0.061283015,0.14569974,-0.07991724,-0.0465354,0.14951731,0.10996869,-0.15022628,0.15068476,-0.0013544703,0.0030668974,-0.14703934,-0.06929272,0.07449459,-0.06729484,0.0789295,0.084271796,0.044386156,0.14155133,0.091640554,-0.074216835,-0.12715276,0.08675949,-0.06266312,-0.01422665,-0.01237689,0.110178225,-0.0735119,-0.027560571,-0.10362837,-0.07208139,0.09906627,-0.04319775,-0.014630932,-0.1107124,-0.094942264,0.13290364,-0.11312439,0.08687305,0.0015982285,-0.05667834,-0.116408095,-0.061231446,-0.092989035,-0.072433226,0.13398091,-0.06609369,-0.12128595,-0.12586433,0.14647698},
	{0.093686946,-0.031284075,-0.049974304,-0.018675238,0.15365243,0.11801112,0.13115239,0.07380805,-0.09264657,0.12000687,-0.10621629,-0.14592095,-0.027256614,-0.086018704,0.07537282,0.082550034,-0.09265563,-0.12697427,-0.014500398,0.057237465,0.12363017,0.14425556,-0.14725217,0.024379667,0.020831482,-0.13975832,-0.042560402,-0.15822826,0.032839004,0.15071227,-0.042206082,-0.10146093,0.08329796,0.13444667,0.16145022,0.10274104,0.13813868,0.106943496,0.052569382,0.11734744,0.056874145,-0.027609015,-0.09451674,-0.15427965,-0.11995366,-0.14175451,0.091058224,-0.070109695,-0.012050221,-0.07979932,0.12418135,0.1399758,-0.14763708,-0.0070546735,-0.05021115,-0.09378017,-0.12273332,-0.10924349,-0.12585533,0.06680896,-0.07915045,0.07045925,0.06380481,0.011719778,0.008364871,-0.09272513,0.096261844,0.08523357,-0.028214946,-0.07004077,0.051492315,-0.14334677,0.018008003,-0.04303168,0.060854565,0.13705285,-0.1215782,-0.13356689,0.07503049,0.1189678,0.044576168,0.10476704,-0.07838442,0.14830388,0.15339011,0.117384724,-0.06713195,-0.12480396,-0.14801367,0.023266122,0.11205922,0.0538793,0.04061736,-0.07206711,0.016552867,0.02220456,0.113389775,-0.12532249,0.07399227,-0.06452065,-0.10123458,-0.047531795,-0.0601928,0.03508555,0.064416766,0.14146149,-0.04403475,0.037573133},
	{0.041513253,0.021251092,-0.04856491,0.111443065,-0.02152833,-0.116341166,0.14049119,0.019003443,-0.124626,-0.05967823,-0.15693358,0.01578941,0.016722884,0.10094214,-0.068070166,-0.020654598,-0.04215699,0.012290675,-0.060288657,0.08428197,-0.01967759,0.093864545,-0.0139122885,0.11178128,-0.09398236,-0.14071201,0.021065148,-0.11149409,0.07071807,0.07597104,-0.113808274,0.02732232,0.019013403,-0.13891977,0.06133953,-0.011053239,-0.14584677,0.0533472,0.0930275,0.07970044,-0.08707764,0.1354588,-0.067353874,-0.062792234,0.11337096,-0.05627447,0.010105722,0.031360187,0.15986359,-0.05485031,-0.1515539,0.1517302,0.043798134,-0.09337762,0.0948704,-0.10244803,-0.049169883,0.01512508,-0.14328304,0.13607894,0.0126351565,0.06618989,-0.004604765,-0.053038217,0.0402831,0.13682911,0.011388319,-0.04067541,0.13892284,-0.15504989,-0.13613836,-0.0012326181,0.09064373,0.07236888,-0.063481584,0.022273935,-0.07831091,0.07359505,-0.1469121,-0.028390199,-0.048707716,-0.091010906,0.03723575,0.002202347,0.15444641,-0.095271915,0.108052135,-0.06257505,0.15052333,0.009157429,-0.04683673,0.11360365,0.09983827,0.15004776,0.08572068,-0.035664488,-0.10595673,-0.04536823,0.13434914,-0.06616995,-0.08076995,0.14376047,0.023020118,-0.12784468,0.111449674,0.089268714,-0.0029045017,-0.08213917},
	{-0.08060586,0.10258362,0.05502126,0.10957761,-0.021376101,0.047628365,0.010922509,-0.012326858,0.14759953,-0.09202874,-0.027364992,0.11627601,-0.09311943,-0.03703179,0.0825011,0.14137119,0.07494687,0.075154476,-0.07349577,-0.049771667,-0.116462015,-0.04358326,-0.017159753,-0.037551716,-0.06709335,-0.1011478,0.14887224,-0.083125,0.0067935945,-0.09710888,0.035185475,-0.032382388,0.14806922,0.095721535,-0.10391679,-0.12545341,0.046777178,0.12420259,-0.058751535,0.11905902,0.022041028,-0.031418923,0.02717601,0.042041544,0.102112465,0.0015090497,0.046424277,0.034011714,0.0460036,-0.035230644,-0.024018778,-0.07552538,-0.07124109,-0.06621201,0.14152208,-0.11017617,-0.002171954,0.12922408,-0.10167562,0.13431832,0.045124706,0.08819393,0.008294244,0.13159126,-0.1419495,-0.07465216,0.06802968,-0.14501664,0.15315521,-0.1414063,0.15273672,-0.031791385,0.032082252,-0.06908856,-0.013336641,0.13350089,0.09376784,0.08809444,-0.053768963,-0.10744537,-0.12838936,-0.024137536,-0.1542593,0.110221885,0.1264916,0.023418909,-0.06310268,-0.06305721,0.06182549,-0.11372746,-0.030305699,-0.11874012,-0.07844577,-0.016568819,-0.027023468,-0.06535469,-0.04075986,0.035573747,-0.09235353,0.049003072,0.010885276,-0.06875254,-0.09446473,0.039231047,-0.06760531,0.03145969,-0.15743667,0.0571313},
	{-0.047796357,0.14356932,-0.071059845,0.08646624,-0.15069024,-0.026477654,-0.079748765,-0.03389969,-0.07565167,-0.024280332,0.0904796,0.06745533,0.021392373,0.15288894,-0.0018011794,-0.0036585194,0.090871386,-0.08467578,-0.048628747,0.14770378,0.001686488,0.04401328,0.074828334,0.122916654,0.13447048,-0.037964996,0.03580603,0.03414161,-0.02542358,0.084144786,-0.10140515,-0.03584045,-0.03983387,-0.046826717,0.04435688,-0.13087249,0.035937995,-0.044320237,0.14955339,0.1499876,-0.033917867,-0.08763694,0.010968275,0.09975883,0.043551166,0.0714183,-0.059990373,-0.09951665,-0.06360065,-0.12732778,0.1372664,-0.020109717,0.0125299,0.04017765,-0.029018883,-0.12921934,0.15229312,0.049241584,0.116206676,-0.13952804,-0.070052,-0.015638158,-0.12693495,0.12426254,-0.03779908,0.07282526,0.054090355,-0.030450257,-0.15396921,0.080313325,0.05728473,0.024590006,0.08010326,-0.14160721,0.1199009,-0.05304492,0.094692975,-0.11543135,-0.08278603,0.002157806,0.05436679,-0.09907471,-0.13043009,-0.11372106,-0.07674995,0.010484815,-0.084916,0.041044768,0.1517367,-0.08499418,-0.14695737,-0.004676286,0.06547978,-0.09007736,-0.14973484,0.13858895,-0.09413087,-0.035974827,-0.09566689,0.029468998,0.0872192,-0.039327964,0.14105146,0.11494718,-0.13963719,-0.012046975,-0.018928409,0.03395431},
	{0.008246753,0.054905042,-0.007846014,-0.10009605,-0.033881996,-0.08170415,-0.092246346,-0.10247111,0.06552908,0.07959535,-0.026465945,0.05990416,0.13166851,0.10155432,-0.0016625365,-0.08148067,-0.008538705,-0.11891703,0.12422824,-0.054452714,0.10731518,0.11618991,0.15655,0.1330034,0.03176206,0.108235076,-0.11659667,-0.118774086,-0.10694352,-0.1389598,-0.09670868,0.086943515,-0.02614848,-0.09541289,0.100782014,0.053461608,-0.081613354,-0.06901157,-0.07115704,-0.028307255,-0.08730652,0.09161713,0.14872251,0.015368197,-0.1226964,0.10614509,0.08500672,-0.09535254,-0.14258797,-0.09829221,0.08255486,0.14163126,-0.1363595,0.07305704,0.037814524,-0.07184769,0.0568439,-0.08392051,-0.022848217,-0.11324988,0.12122935,-0.058462698,0.1334503,-0.034596466,0.07897284,0.12427151,-0.059458397,-0.08655286,-0.122922674,0.11128136,0.07717717,-0.15800314,-0.067483775,0.07241923,-0.08793835,-0.072149865,0.10642261,0.085152335,0.14019139,-0.15358257,-0.14177617,0.06586656,-0.044197723,0.15643924,-0.13344821,-0.13515098,0.122917846,0.08272341,0.016238634,-0.1549489,-0.0536265,-0.045643553,0.057853207,0.11211498,-0.16025208,0.13575362,-0.12708078,0.018641505,0.00454035,0.02327154,0.054417275,-0.0863838,0.115411565,-0.05791011,-0.1464734,-0.041053724,-0.13240759,-0.025662068},
	{0.1255635,-0.08908331,0.016585272,0.10874566,-0.08576644,-0.14612965,-0.15531842,0.0019103438,-0.034216505,-0.043136947,-0.047562014,0.02388029,0.08730785,0.095063016,-0.036930177,0.1367472,-0.15782599,-0.15818112,0.11479588,-0.037624393,0.04619986,0.022664689,0.079203546,0.12272721,0.1317811,-0.027666254,-0.04330437,0.10066835,0.045265906,-0.13388023,-0.11661572,0.042339206,-0.070591494,0.0042249346,-0.027037827,0.13935019,-0.12007584,0.13383982,0.055666957,0.11327855,-0.06967487,0.035993032,-0.06725242,0.02976924,-0.112251155,-0.082121834,0.058238413,-0.07392196,0.12343069,0.01274851,-0.11181013,0.04763492,0.09946699,-0.14900246,0.1257776,0.06681682,-0.080281496,-0.039710663,-0.12019568,-0.12053014,0.027615545,-0.110147,-0.058096476,-0.14696361,-0.1170069,-0.05176215,-0.10502163,-0.05687186,0.10331191,0.007362861,0.06527786,0.10728219,-0.15626061,0.040205456,0.047021605,-0.09127038,0.13404343,0.057928752,0.008306742,0.1258912,-0.12057851,0.10735097,-0.11882391,-0.11299324,-0.1243843,0.14346866,-0.13055715,-0.02391696,0.104765624,-0.080626264,0.1541267,-0.15142205,0.14633512,-0.09155121,-0.0047135693,0.03883085,0.08816591,0.080584265,0.018260345,-0.13867539,0.077621974,0.04307363,-0.10442345,-0.08742851,-0.09171734,0.107004665,0.08749007,0.08595406},
	{0.12356923,-0.15406865,0.011578922,0.07955911,-0.15777546,-0.13647512,0.15594938,-0.024074808,-0.06772251,-0.013591641,-0.15793031,-0.14894532,0.13878484,-0.12389003,-0.014549142,-0.0058135637,0.03876309,-0.030913074,0.039676957,0.10902143,0.016079873,-0.0559161,0.09732719,0.040375903,0.0064708563,0.07951595,0.04124569,0.11178927,-0.064231105,0.10615993,0.13803501,0.012650495,0.13772045,-0.029527359,-0.08695924,-0.10266429,-0.016329851,-0.019839698,0.114983566,0.12977028,-0.027583783,-0.05290225,0.12736139,-0.030975254,-0.025036253,-0.1264007,0.123124056,-0.15453227,0.1446406,-0.013871849,0.07405619,0.029103378,0.007784039,0.048108716,-0.08758877,-0.06253616,0.09452706,-0.022485698,0.059330534,-0.11315221,-0.14741856,0.032663424,0.115763076,0.10774874,-0.07753353,-0.059814032,-0.09385999,-0.0918102,-0.14674988,-0.064687595,0.074330956,0.14802364,0.060255907,0.08241019,0.06374166,-0.042060558,0.07032518,-0.14761354,0.1181149,0.07466326,-0.118698895,0.13772872,-0.084713556,0.08984025,0.018048607,0.11063146,-0.056060728,-0.015148427,0.08134977,0.13112162,0.110871896,0.13934398,0.1231366,-0.087740354,-0.14184621,-0.031208444,-0.07954211,-0.078587964,-0.051591486,-0.13094519,-0.1385939,0.06571465,0.15687712,-0.08286082,-0.026344545,-0.02260963,0.011587787,0.15394567},
	{-0.042978738,-0.014861405,-0.104510374,-0.08577448,0.032040592,-0.0283017,-0.0078099277,-0.067421,0.041146416,-0.0052514244,0.03703913,-0.15270187,0.055352923,-0.014982201,0.106619395,-0.069957525,-0.06912192,0.04382206,-0.11972025,0.15012117,0.063651904,-0.07574487,0.10325618,-0.1137271,-0.063812874,0.05720878,-0.013554528,0.09328876,0.11865019,0.030839777,-0.035469804,-0.04982521,0.10614773,-0.03724639,-0.12093693,-0.14231299,0.029946338,0.061295565,0.06380227,-0.08893727,-0.030709192,0.02783573,0.060619917,0.032951597,-0.07756002,-0.028572284,0.11804025,0.057353366,-0.12194511,-0.10336008,-0.002003043,-0.052116193,-0.029617026,-0.15689369,0.012002991,0.048794538,-0.04892868,0.09672363,0.051608488,-0.04153073,-0.031851828,-0.044558078,-0.12781514,0.11191744,0.030021772,-0.12365348,0.1352643,0.05465153,0.035435066,0.040895075,-0.09853128,-0.08987679,-0.12417453,0.05028826,0.14680555,0.087553285,0.07462427,0.10406061,-0.09050255,0.04473148,-0.06415532,-0.086493425,-0.010420173,-0.05710475,-0.040064942,0.025730923,-0.00025339425,0.14463435,-0.1563927,0.052852985,0.13367258,0.15581456,0.05119531,0.07827902,0.07637547,-0.14060855,-0.07205137,-0.044857368,0.04228787,-0.07790824,-0.13873383,0.09951885,0.0743179,-0.061585214,-0.07318366,-0.13151184,-0.1038132,-7.564662e-05},
	{-0.023476548,0.0105162775,0.14138518,0.08728039,-0.091234036,-0.022745054,0.01480636,0.069099694,-0.004963182,0.029252052,0.08815007,0.05189502,0.09736086,-0.12100927,0.07776588,0.0062233717,-0.01198245,0.11154647,-0.13666965,0.05099042,-0.14350677,0.04853444,0.04472664,-0.029503884,-0.14556214,0.1301544,-0.05768184,0.10433839,-0.024882203,0.03927675,0.006346847,0.12962216,-0.048454676,0.033929512,0.15038021,0.025200212,0.10174583,0.057257853,-0.15991248,0.14389497,0.13834134,0.0851693,-0.11484279,0.091405004,-0.12411546,0.084005676,-0.051092245,0.103536084,-0.11379783,-0.0727057,-0.076342806,-0.030402314,-0.0938938,-0.031045891,0.123382226,-0.12913989,0.028080907,0.03310641,-0.092646375,0.076514795,-0.024634961,-0.07264009,0.0020684178,0.03706629,0.12879619,-0.1468297,-0.07402916,-0.00336349,0.0013812087,-0.123963475,-0.094701916,0.00824929,0.06344409,0.051320445,0.15190887,0.13217339,-0.008626458,-0.14397423,-0.06742525,0.14404617,0.05103738,0.1199818,0.15404126,0.036136582,0.062089697,0.07411024,0.14810207,0.017171845,0.08050638,0.10290227,-0.07475303,0.012162221,-0.00034386571,-0.09984034,-0.030408002,-0.12895644,0.026744679,0.09283511,-0.095757976,0.14055693,0.038477935,0.048744697,-0.012538984,-0.023435898,0.14377958,-0.076835394,-0.09248566,-0.123900875},
	{-0.017127529,-0.04064716,0.13780153,0.07508196,0.0063867457,0.0056777815,0.0761828,-0.03605312,-0.060660165,-0.025875943,-0.08669078,-0.14926463,0.13983667,-0.103284284,0.08370986,-0.08549432,-0.050842226,0.03606582,-0.0034693955,-0.061689835,0.002454059,-0.0704784,-0.09226854,0.016408123,-0.11554534,-0.04499068,0.0363764,-0.04910419,-0.04399869,0.063459404,0.009336548,0.065929584,-0.03199391,0.15303686,0.057453156,0.049340084,0.10131804,-0.14731818,0.122267425,-0.058781676,0.019233773,0.12833041,-0.020315912,0.12136532,-0.102415815,-0.0069299624,-0.0909922,0.10593819,0.12033305,-0.054257482,0.085582696,-0.106758706,-0.098268844,0.01866901,0.04505369,-0.0571991,0.087140225,0.15089025,0.11714807,-0.14909044,0.13682684,0.007062018,0.033289857,0.09139934,0.08461158,0.08181292,-0.13183944,0.112273574,-0.10348734,-0.050382473,-0.0877048,0.14913481,0.078184865,0.0587219,0.12853296,0.0650808,0.03857332,0.10573736,-0.00817059,-0.05062245,0.15547901,0.03707645,-0.12434654,0.026357466,0.11893091,-0.10045912,-0.10472555,-0.025738927,-0.121075556,-0.08887995,0.13826764,0.020675227,-0.01695085,-0.12988159,0.15367822,-0.12449733,0.119742505,0.064677335,0.06215976,0.10452402,0.13736786,-0.10448251,0.01398766,0.13072874,0.056426525,0.120089255,-0.13399647,-0.0051892493},
	{-0.06287826,0.060721673,0.12399677,0.0005033526,0.13946265,0.08254055,-0.029372396,-0.09848379,-0.13119796,-0.10460367,0.037372142,0.011981728,0.1526006,0.10769966,0.13485955,-0.13016307,0.12566572,0.05785917,-0.10438683,-0.090174645,-0.01016345,0.1422358,0.015622485,0.13656297,0.10864912,0.033414297,0.091737695,0.047553398,0.0071099456,0.10035761,0.10514864,0.0406885,-0.07733057,-0.119975224,0.13336818,-0.08628593,0.080459975,-0.12672634,-0.070522964,0.14118452,0.13894425,-0.03795205,0.1530217,0.010893863,0.08736309,-0.11620629,0.15296628,-0.09282385,-0.10551809,0.0063965917,0.07278696,0.05398703,0.14692886,-0.061597105,0.062135436,0.055929795,0.0563933,-0.12536117,0.00949774,-0.0711547,0.020445421,0.09433494,0.07823693,-0.003846905,0.10677436,0.14360695,-0.06854091,-0.12900256,0.08694136,-0.15250328,0.07555402,-0.02341709,-0.024173506,-0.03656447,0.051774982,-0.1258459,-0.014800926,0.14493503,-0.07041612,0.05677581,-0.14976144,0.10758306,-0.07514253,-0.15640329,0.1104019,0.110027134,-0.13430889,0.061262235,-0.027142877,0.05847732,-0.013835684,0.0025032663,-0.11677887,-0.12180321,0.15124977,-0.042311937,0.1185324,-0.035571367,-0.14351848,-0.08659877,0.15260075,0.050691422,-0.10628313,-0.016938608,0.08787979,-0.0684985,-0.10965808,-0.016173877},
	{-0.065303296,-0.13242225,0.108236395,0.048713796,-0.07536283,-0.07751134,-0.12564288,0.012687497,0.04689027,0.12331772,-0.15590265,0.093631096,-0.12127174,-0.12869433,-0.024622465,0.06251732,0.14697477,-0.09838226,0.097624876,-0.04020038,0.13260373,-0.054135337,0.15616566,-0.09307275,-0.019916898,0.086612955,0.11913849,-0.15174492,0.072647914,-0.047862377,0.099344,0.051023822,-0.09286032,-0.15177743,-0.0058786767,-0.10943753,0.13546757,0.14266904,0.08333464,0.05806591,0.06372249,-0.051012143,-0.08460184,-0.07739509,-0.092768736,0.07903864,-0.038461607,-0.03640994,-0.102865964,-0.05800493,0.0069253785,-0.015090143,0.021535302,-0.13607448,0.022276603,-0.04532984,-0.018622164,-0.11075434,-0.056365065,-0.039543465,-0.06708594,0.0578098,0.14314768,-0.08081948,0.15111744,0.09033362,0.14065416,-0.075614594,-0.07586024,0.13578014,-0.091275394,-0.014473377,-0.0092786765,0.014557198,-0.0060906135,0.03994316,-0.056952305,-0.12067394,0.12676509,-0.1319334,0.08140278,-0.01849521,-0.11448711,-0.1392356,0.04896854,-0.07739131,0.12044637,-0.07694159,0.048815902,0.08288808,-0.04120982,-0.11594364,-0.005804711,-0.02136822,0.01061186,-0.15710135,-0.00022784523,0.08583493,-0.035917725,0.023291118,-0.1285629,-0.09836699,-0.03501916,0.04272768,-0.1440706,0.11629908,0.06916509,0.11607538},
	{-0.15562448,0.13545926,-0.047114257,0.02155371,0.039806813,0.002041851,-0.116803415,-0.13749674,0.040927235,-0.009639863,0.15287378,-0.134594,0.003234228,-0.06492712,0.1183522,-0.029794643,0.13600785,0.09661653,0.12783562,0.068435706,0.08799525,0.108832374,0.10167539,-0.14815828,-0.07017958,-0.12277439,-0.15036093,-0.13493116,-0.014234822,0.09957618,-0.06387938,-0.056182224,0.07324178,0.15697818,-0.15197869,0.114393935,0.08166828,0.037290033,-0.046560146,-0.0761111,-0.14288872,0.010324635,-0.123855636,-0.10751796,0.14620842,-0.11286946,-0.07673306,0.13851768,-0.12085195,-0.033975475,0.04362223,-0.14313711,-0.005003527,0.11623675,0.11154413,-0.13206851,-0.13908541,0.103540026,-0.111004956,0.0042662844,0.032183804,0.033994447,-0.12024266,-0.0098741725,0.1303835,0.11332747,-0.12034,-0.059908643,0.13983259,0.10793385,0.032065686,0.06854439,0.08031202,-0.022856936,-0.046334993,0.026641719,-0.06844724,0.042540904,0.01180324,-0.015451062,0.07132155,-0.072923705,-0.03610747,-0.03497404,0.079035364,-0.11886416,0.15220931,0.13444306,0.03281017,0.046323996,0.030112669,0.06814988,0.05176846,0.10900493,-0.1407203,0.1311236,-0.12579016,-0.11130082,-0.1420185,0.029786084,-0.14054565,-0.016048202,-0.02308254,-0.13631669,-0.04601607,-0.11252901,-0.047571685,0.06663166},
	{0.09284721,0.027383976,-0.15970388,-0.10396207,-0.063119955,0.061751716,0.10006557,-0.061372306,-0.13555266,0.023905242,0.032352753,-0.051099222,-0.12724303,-0.020335246,-0.11121247,0.0006985144,0.037365925,0.026977818,-0.020117203,0.06448302,0.11390449,0.085990936,0.081361204,0.060251456,-0.02911427,0.17076385,-0.06405754,0.0259434,-0.1415262,-0.040947407,0.052782618,-0.0794375,-0.023602653,0.05252292,0.006194701,0.06931821,-0.075095944,-0.061678253,-0.06226345,0.07077408,0.050238315,0.13013996,0.12376722,0.00849333,-0.00924526,-0.09842894,0.059516184,0.01988541,0.00847722,-0.13741559,0.08776328,-0.08410251,-0.006173685,-0.07939869,-0.09324427,-0.05688337,-0.026244063,0.0802578,-0.07689982,0.14423683,0.09066034,0.0007303688,0.004451206,-0.018677136,0.02657428,0.14618494,-0.14241287,-0.07399382,0.0994435,-0.04555786,0.059717443,0.097698845,0.013066355,0.052247606,0.051662773,-0.14222553,-0.09861228,0.080426335,-0.12662165,0.08178505,-0.03209048,-0.046476036,-0.10196636,0.022342477,0.12636088,-0.033900745,-0.085084,0.12600233,-0.08953448,-0.09085989,-0.10551406,-0.11711143,-0.092568174,-0.13104156,-0.0006917218,0.06194581,-0.12848799,-0.14929277,0.12774703,-0.063443154,-0.13787517,0.07902463,0.015903473,0.0567351,0.057953574,-0.06671773,0.1413138,0.10763304},
	{-0.081908315,-0.06568803,0.1206465,-0.1291072,-0.13567874,-0.09421511,0.07149006,0.057847343,-0.11091617,0.15213679,0.14865875,0.11076589,-0.14796224,0.020952454,-0.15642512,0.060054567,-0.012492658,-0.11873772,0.1462991,0.033974104,-0.10776455,-0.04177448,0.082741596,-0.032392472,0.076847695,0.06340777,-0.13567476,0.13401617,0.0030875427,-0.008697524,-0.07980117,-0.022827236,0.025482858,0.13550541,-0.041191056,-0.15471901,0.11102797,-0.0758652,-0.09321204,-0.032671984,0.12544158,-0.09138015,-0.073129416,-0.10616709,-0.04366998,-0.08927716,0.12901777,0.13242364,-0.15575747,-0.06330856,0.01721052,-0.08568288,0.06260823,-0.12658828,0.1439769,-0.05506983,0.009493598,-0.13167839,0.07908729,-0.009263817,0.13189462,-0.13584532,0.00014603359,0.061424736,0.1553538,-0.13570318,0.07630589,0.02563566,-0.08698521,-0.046381194,-0.15487152,-0.0025377849,-0.03740487,-0.13942106,0.0741018,0.018234666,0.08461687,-0.08249034,0.09511511,0.035029326,-0.116339125,0.13740396,-0.06230016,-0.111718655,-0.12800436,0.09457664,0.12729856,0.044495422,0.13151969,-0.05066178,-0.14736831,-0.05065347,0.110312365,0.01611559,-0.09768755,-0.0150806345,-0.011800366,0.14448014,-0.0547525,-0.12615934,-0.1553082,0.036958057,-0.15057202,0.05112519,-0.022155106,-0.14583062,-0.08984027,0.11464903},
	{-0.038173623,0.031885926,0.122413084,-0.14228128,-0.024028745,-0.005195861,0.0840387,0.032171857,-0.03007585,0.025121333,-0.14721037,0.08907667,-0.09305347,-0.051592197,0.07740504,-0.12789552,-0.05556235,0.030801078,-0.08748516,-0.021933977,0.044887017,-0.09231677,0.0236115,-0.15428904,-0.05501981,0.012284417,0.099799916,0.14760338,-0.022832066,-0.13397422,0.15306127,-0.011453599,0.1041526,0.0048449114,0.15738748,0.014081063,0.07527837,0.13746925,-0.02562299,0.09585382,-0.15571034,-0.09765561,-0.023889828,0.0065832613,0.137879,0.14428413,-0.119913705,-0.11197626,0.12162025,0.06908609,0.07764958,-0.034478325,-0.051375017,0.14177307,0.16654088,0.116121,-0.040553566,-0.15275596,0.13004735,0.03177564,0.023209365,-0.08255906,-0.13007718,0.0076157786,-0.112772256,0.09693946,0.03140943,-0.14657618,0.11203402,0.032907285,0.053240955,-0.0051011806,0.100399144,-0.07488123,-0.060495287,-0.08169444,0.053959116,-0.10813211,-0.09192129,-0.09109105,0.12632717,-0.07904136,0.102084585,0.13078158,-0.11332674,-0.10519869,-0.09690297,-0.017789321,0.0563669,-0.026381895,0.1460393,0.048555814,-0.02509896,-0.13062778,-0.06715869,-0.046898816,-0.07788366,-0.0979666,-0.077341415,0.087031886,0.11231474,-0.13086635,0.11871584,-0.14730315,0.0340866,-0.013981205,0.10930334,0.093160935},
	{0.0917977,0.08243004,0.12851396,-0.06387675,-0.05119154,-0.008925845,0.011215726,0.06757226,-0.030459916,0.131828,0.06567356,-0.07733612,0.04628606,0.092952706,-0.08556153,0.12435987,0.03463186,0.038418613,-0.14589971,-0.09361293,-0.07142859,-0.009109216,0.01498178,0.08724692,0.07863232,-0.073433645,0.030032262,-0.09041878,-0.101015724,-0.13032849,-0.13585947,-0.06860388,0.10066269,0.103078686,-0.038907684,0.082245216,-0.0011493582,0.09904232,-0.011819008,0.020055337,-0.07608212,0.11525376,-0.15435734,-0.11132401,0.08050417,-0.024785679,-0.017294519,0.119956754,0.0127669135,-0.13831994,0.042486515,0.11581224,-0.0969809,-0.039976005,-0.056248203,0.096405365,0.10169457,0.14337714,-0.12670681,-0.07276189,-0.13142969,-0.10227418,0.032238375,0.10547804,-0.06267746,0.08440191,-0.11198723,-0.10618078,-0.15420656,-0.03065503,0.0970157,-0.10512537,0.045836717,-0.12296023,-0.16462873,0.03588068,0.0373145,-0.034858953,0.002191648,0.116912834,-0.051692933,-0.08091531,-0.070474245,-0.1408564,0.073300876,-0.107276104,-0.14377394,-0.14819008,-0.08625404,0.11502435,-0.082328506,0.121197745,0.1275358,0.010323144,-0.080521055,-0.030473655,0.095267944,-0.09237996,0.14037907,0.0416361,-0.023414612,-0.13225736,0.049497783,0.12023536,0.14971088,-0.10617711,-0.15200439,0.046087477},
	{0.14023237,-0.034795843,-0.040968236,-0.1577922,-0.129145,-0.06444181,0.15165006,-0.074727006,0.14027523,-0.052343886,0.019932859,0.025766488,-0.092354484,-0.12607205,0.08765021,-0.099775136,-0.031967953,0.044607002,0.116463475,0.024014521,0.011315236,-0.06483726,0.008331748,0.13120277,0.0032444664,0.13836437,0.0051121702,-0.02822569,-0.12306191,0.028190352,-0.021466175,-0.04621036,-0.102324255,0.0502042,-0.041013073,0.07807225,-0.043581985,0.031495966,-0.0041852356,-0.05445744,-0.06395194,-0.059985805,0.09059691,-0.12107602,0.115275346,0.047176026,0.03657256,0.044475213,0.076733075,-0.073797226,0.040531788,-0.14606643,-0.06391251,0.064218044,0.1486091,-0.01818196,-0.1001481,0.089314416,0.014882518,-0.03776473,-0.09027521,0.0053006858,-0.08104906,0.05798202,-0.065993965,0.09689172,0.07127588,-0.10694095,-0.05124268,0.0062847463,0.1417168,0.15183489,0.09757071,-0.13704868,-0.0015600836,-0.1455617,-0.022091974,-0.07507448,0.048672214,-0.0591189,-0.098391265,0.07805237,0.09078249,-0.07185047,0.15655054,-0.01634875,0.10440759,-0.11947062,0.11052235,-0.0709611,-0.13424774,-0.06736995,0.13424288,0.06234981,0.08455427,0.05063499,0.12667704,-0.014604476,0.108390465,-0.017055862,0.12102918,0.11381562,0.05575207,-0.027167365,-0.16167219,-0.13662544,0.14592762,0.055085786},
	{-0.009007752,-0.020254567,-0.15786362,-0.11671969,-0.027135687,-0.04019521,0.06016004,0.06824593,-0.12934338,0.008631591,-0.12644592,0.015616219,-0.034575537,0.089640975,-0.006359376,-0.004862944,-0.060164087,0.010084469,0.068931565,0.025108755,-0.0503155,0.048153758,-0.06556567,-0.051438984,-0.07617057,-0.06269025,0.03748031,-0.0154091045,-0.016379632,0.09674224,-0.07752635,-0.07292519,-0.11488726,-0.15659614,-0.1346308,-0.12736061,-0.05581907,-0.022515437,-0.1467072,-0.019404965,0.040826768,0.1057392,0.10320546,-0.13171147,-0.114561535,-0.10488501,-0.044714287,-0.11064931,0.07565185,0.009710476,0.0714783,-0.07715962,0.14043413,-0.12209297,0.11132366,0.0044086594,0.14402287,0.031228807,-0.08335634,-0.1288088,0.1384437,0.09387136,-0.1309965,0.05288118,-0.05368135,0.012384821,-0.15221635,-0.041907735,0.042309105,-0.11231826,-0.00091865443,-0.13415085,-0.091534555,-0.018528411,-0.04848782,0.14300266,0.023882577,0.0843867,0.024596319,0.036351394,-0.06974796,0.06921883,-0.09540929,-0.15014234,-0.039752938,0.04697828,0.0067068497,0.025625845,0.04364502,0.11603542,-0.04396158,0.10128136,0.04140246,-0.037070084,0.1519689,-0.050898828,-0.119179115,-0.0639502,-0.079978675,-0.13134277,-0.14497861,0.0423993,0.048618153,0.10770406,0.14585002,0.13850148,0.08396093,0.024683177},
	{0.02098648,-0.10882657,-0.01134,-0.10340567,-0.0021812501,-0.051027652,-0.03596498,0.06618136,-0.01747837,-0.08223347,0.12514192,-0.06531891,0.073051445,-0.10206284,-0.064145185,-0.14687954,-0.066691704,-0.11559619,-0.04119024,-0.13712092,-0.1480127,0.14244843,0.1502632,0.051216546,-0.024245119,0.015567324,-0.085778356,-0.0636622,0.12372494,-0.0016961494,-0.134088,0.008538811,0.06732357,0.06697676,0.0035203532,-0.14594892,-0.15351868,0.04268566,0.056646705,0.1106259,-0.13811386,-0.02168239,0.062358975,0.11454451,0.04492561,0.041771963,0.07040267,0.15110795,-0.04983147,0.07649955,0.06762375,-0.09669936,-0.11766202,-0.110807925,-0.053874724,0.027991042,-0.053283688,-0.063151665,-0.14489533,0.04914165,-0.090051085,0.009729307,0.07324881,0.12112318,-0.11560248,-0.0980232,0.15152113,-0.009249566,-0.0428778,-0.109181486,0.05393651,-0.05395089,-0.031394698,0.04069383,-0.10618765,-0.013447223,-0.076257885,-0.06218189,-0.03765522,0.117776506,-0.07775037,-0.017782383,-0.0006648302,0.10045712,0.1546947,-0.09149108,-0.039188635,0.100668944,-0.08919775,-0.06327268,0.107614055,-0.1538779,-0.08003283,0.051202342,-0.10345131,0.05480511,-0.09547652,0.08121915,-0.038729213,-0.04777656,0.1187894,0.11653691,-0.06712876,0.15004554,-0.014057969,0.069066755,-0.04880762,-0.12989286},
	{-0.105623096,-0.01917929,-0.13235295,-0.1096253,0.008104518,-0.12940983,-0.12513416,-0.12509792,0.100609824,-0.12224701,0.12536624,-0.048088137,0.15015411,-0.09905293,0.017790694,0.04181716,0.10033714,-0.10155939,-0.0058333874,-0.10657268,0.04975527,0.09827857,-0.081222944,0.04867928,-0.105283864,-0.15153222,0.03883445,0.15792228,-0.033450484,0.13815427,0.14501588,-0.14192422,-0.04194471,-0.055448517,-0.072752275,0.08106088,0.048725605,0.12800366,0.0020734202,-0.06368601,0.14540794,-0.109343216,0.06344575,-0.14248002,0.023295768,0.113708526,0.05253194,-0.04345753,0.07757767,0.11982702,0.13645042,-0.045097314,0.04788585,0.13425201,0.08682485,0.12875499,0.022705905,0.044014186,0.12543908,-0.14777893,-0.02792377,0.15696312,-0.14095281,-0.0403629,0.141543,0.13601847,-0.15670441,0.0849913,0.030704245,0.02815372,0.065260254,-0.15838556,0.036475915,-0.14525257,0.052164715,0.15130036,0.06513476,-0.06499454,0.086560845,-0.00014111015,0.07260676,-0.10563371,-0.11218339,0.15613045,0.07437562,0.06364931,0.1556505,-0.044948865,0.1243587,-0.044796687,0.12178844,-0.069232635,-0.058584094,0.13131039,0.14668888,0.041060418,-0.0682244,-0.103432484,0.09640713,-0.009582652,-0.15356584,-0.024413629,0.056933463,-0.010503631,-0.13545653,-0.09329338,-0.14135161,0.063669235},
	{0.09822742,-0.13891967,0.08889101,0.11912811,0.04865264,0.13902521,-0.012070506,-0.04532682,-0.042422287,-0.101769164,0.05261826,0.04626219,0.15399937,-0.152582,0.07140362,0.08864254,0.0028609643,-0.16030103,0.15827209,-0.06759447,-0.04729721,0.032292917,0.057186753,0.05592056,0.119301595,-0.13514796,0.013371208,-0.020913783,-0.006393739,-0.08656431,0.15758586,0.0036915436,0.06539138,-0.09236222,-0.07763639,-0.09855551,-0.105978586,0.14179595,0.0025682645,0.0065863505,0.13608831,-0.07293775,-0.07881633,-0.05082204,-0.02651956,0.08908917,0.0695,0.07984731,-0.13341944,0.0045442134,0.0034918585,0.15364896,-0.107482314,-0.0903103,-0.10222085,-0.032707233,-0.09327113,-0.12944363,-0.021920228,0.13215587,-0.12155758,-0.08379443,-0.022529883,-0.099048026,0.14149593,0.118204676,0.13604946,0.011185199,0.0039847493,-0.03775505,0.117776014,0.10147028,-0.14911593,-0.05026586,-0.14435461,-0.029849578,-0.11587667,-0.14880899,-0.06187723,0.0075230547,-0.043252215,0.024511017,0.059360188,-0.03008872,-0.15227298,-0.081834495,-0.081965044,-0.046177905,-0.14528899,-0.08859894,-0.108306825,0.04756562,0.14824596,-0.07908103,-0.043518186,0.037957285,0.016919035,0.046304338,0.14547805,0.10646186,0.12291912,-0.105636574,-0.09905392,-0.03986617,-0.070115864,-0.10207662,-0.09548981,-0.07309496},
	{-0.10015451,0.08995225,-0.054693017,0.017450407,0.00957597,0.045240242,0.03004086,-0.095562845,0.09440328,-0.0070519247,0.016132366,0.05910209,0.02614217,0.10856287,-0.1343151,0.092606224,0.045298964,0.02469637,-0.03295237,0.15051956,0.022604031,0.078777134,0.030193923,0.14402579,-0.13283505,-0.0116706565,0.13222578,-0.023306767,-0.10999296,0.13600321,0.13593028,-0.12463437,-0.040724397,0.07312679,-0.023471264,0.15574712,0.13831745,0.06893385,-0.06853505,-0.1436161,0.12172612,0.10607277,-0.09765026,-0.010836577,0.001361834,-0.12544125,0.07396122,-0.022048105,0.14379251,0.10463552,0.020868734,-0.08397105,0.056094136,0.11579982,-0.05917447,0.045138117,-0.15088302,0.014909831,-0.02962619,0.014746194,0.012696793,-0.05001039,-0.019040082,0.110773206,-0.06153402,0.049646363,0.10704942,0.08365022,0.1505097,0.12765162,-0.06906322,0.12992276,-0.010966939,-0.07424151,0.06904756,0.057391327,-0.051132925,-0.08392136,-0.1544166,-0.14680292,0.03084643,0.15208738,-0.085180394,-0.13752611,-0.13432792,0.043001294,0.11476017,-0.056407526,0.07547956,-0.10398011,-0.06978699,0.014103335,-0.06952105,-0.1446848,-0.05618159,-0.037040375,-0.016114365,-0.106654,-0.09215848,0.081561,0.014626753,-0.12519252,-0.09425521,0.09351673,-0.1579415,0.016384413,-0.0010013666,-0.05146059},
	{0.11903153,-0.08354489,-0.034602292,-0.08281317,0.0025357713,-0.106694505,0.05528408,0.11717459,-0.0541139,0.05759527,0.023551261,0.13720973,-0.047371134,0.09640642,0.0138722025,-0.07277652,0.11434333,0.14824,-0.043307643,0.08365779,-0.041342117,-0.07475858,0.14471196,0.14794873,0.11986413,0.11434149,0.09250173,-0.017265117,-0.054851495,-0.07722429,0.06208894,-0.037197653,0.117344245,0.11638174,-0.095585406,-0.057201922,0.10566908,0.123560116,0.012200755,-0.14433682,-0.13628489,-0.027963944,-0.07788664,0.10616168,-0.06594105,0.105058245,-0.1270912,0.14375646,0.028058266,0.08942641,0.07370891,-0.08025268,0.12100844,-0.14004862,0.1099611,-0.005701988,-0.015838383,0.08555983,-0.13285898,-0.14613384,-0.0782484,0.07207373,0.12364559,-0.08657358,-0.14150146,-0.08265796,-0.09492624,0.08605684,0.03234781,0.14402437,-0.08887075,-0.13802238,0.06761722,-0.14013316,0.13591182,-0.038850218,-0.014948106,-0.15929961,0.10874246,-0.057915322,-0.11216307,0.13854514,-0.02034232,-0.02075617,-0.07750858,0.06725928,-0.06993739,-0.114247076,0.06048051,0.106733136,0.1295483,0.11679358,-0.0549536,-0.08888689,0.12895158,-0.044825092,-0.035248622,0.015406609,-0.09935153,0.09221687,0.058083963,0.055762276,-0.044827953,-0.03647824,0.12533025,0.02499261,-0.14096667,-0.08938513},
	{-0.073725246,-0.10311416,-0.06763304,0.09422423,0.0903497,0.13810232,-0.07879333,-0.09716825,-0.10456198,-0.09278419,-0.060257584,-0.11869909,0.15908873,0.09717456,-0.1146277,-0.14519085,-0.118954964,-0.1491157,0.05729169,0.014407753,-0.08775053,-0.04535583,0.040041428,0.09714462,0.061083447,-0.038727537,0.14610642,0.011012815,-0.14150725,-0.00057121087,0.049364127,0.010462908,-0.14331368,0.14802767,0.16023678,0.022527402,-0.06782494,0.08772502,-0.05128415,0.1049391,0.117417865,0.12746225,-0.12611349,0.0390174,-0.024878506,0.13167848,0.029130856,0.16053212,0.019711968,0.07488717,0.047879964,-0.13213162,-0.00061427726,0.09166587,0.0641844,-0.03936213,0.11614861,-0.05492883,0.104570664,0.12861952,-0.11998683,0.11167142,-0.064299114,-0.07884955,-0.06840054,-0.05604185,0.08169883,0.080026805,-0.12106989,-0.0038642157,0.003459935,-0.07127175,-0.055087835,0.0676472,0.13512951,0.029342076,-0.09716273,0.020006245,0.10622929,-0.017490176,0.08805529,0.03724982,0.14577185,0.028329626,-0.09972174,0.00420165,0.01794028,0.06340422,0.1199655,-0.04082743,0.004866046,-0.05561316,0.025662914,0.06748109,-0.035443053,0.07338381,-0.1544902,-0.108507186,0.035717957,0.016918458,0.08520308,0.054737467,-0.10847929,0.12910381,0.0043847375,0.097581245,-0.15327285,-0.13281234},
	{-0.0035799416,0.14929052,0.040908497,-0.12134116,0.1269955,0.07364231,0.08705088,0.04572077,0.11035007,0.0676111,0.09256822,-0.077518664,-0.15477265,-0.13045993,-0.013236836,-0.14727558,-0.030784674,0.026148817,-0.07042934,-0.01907665,0.04067172,0.14404818,-0.042956956,0.029324483,0.008218549,0.09779558,-0.12837404,0.10392701,0.115890324,-0.075346805,0.08531245,-0.11215165,0.0040897583,-0.049971417,-0.03854194,-0.012848413,-0.06197059,0.082195856,-0.0583324,-0.10917798,-0.129281,-0.09334722,0.01150999,0.09837998,0.016910007,-0.082794696,0.07782354,0.09342542,-0.13258453,-0.103335425,-0.08482142,-0.008371776,0.1254592,-0.0433609,0.026704932,-0.027504208,-0.10299468,-0.08518923,0.06475327,0.08872615,0.098699324,-0.11559024,-0.08130184,-0.0940315,0.115696214,0.10734943,0.0932346,-0.11132554,-0.11477542,0.008634523,0.11677207,-0.012457708,-0.031365506,-0.0039617037,0.070144385,-0.024460288,0.15321466,-0.055527642,0.10572596,-0.039707173,-0.11054448,0.04446881,-0.0722761,-0.0973932,-0.029146196,0.11773575,-0.11235988,-0.08704257,0.11442377,-0.15442298,-0.0683629,0.017925957,-0.052321874,0.11954273,0.075535044,-0.11577996,-0.1307445,0.047850773,0.082427844,-0.010682069,-0.13883002,0.048788503,-0.13123628,-0.07468222,0.14149888,0.08385537,-0.030372657,-0.15039644},
	{0.0060669403,0.024624677,0.11164069,0.07964723,-0.08881693,0.040669095,-0.042461187,-0.001946643,-0.117984176,-0.022876661,-0.096468166,-0.05701991,0.08780184,0.1394881,0.046331596,-0.098360464,0.11127889,-0.11662272,-0.045582898,0.050282158,-0.00560795,-0.11930253,0.130016,-0.10145485,0.046097774,0.045430247,0.13964051,-0.059495952,-0.048583597,-0.04566855,0.059333187,-0.0795939,-0.008769612,-0.0309694,0.059649196,-0.14671011,-0.118255615,-0.011650631,0.05359148,0.048802424,0.115675785,-0.08139443,0.02415096,0.009092577,-0.15467344,0.07850343,0.14586382,-0.1338959,0.009330707,-0.09414637,0.13838375,-0.032694098,-0.0723227,0.11249189,-0.09037146,-0.010246123,-0.10379195,0.08287057,-0.122793294,0.13933672,0.0726358,-0.15512325,-0.03474298,0.06573846,-0.028176637,0.019537056,-0.029188158,-0.12988807,0.021303788,0.14125763,0.0140917,-0.15040912,-0.13879725,-0.07483944,-0.026114136,-0.00033292995,0.11417335,-0.09000139,-0.05219668,-0.006972176,-0.10020295,0.113589324,-0.016280435,-0.06029425,-0.02095632,0.008242816,-0.11175217,0.10357392,0.038140915,-0.066010706,0.00088335574,-0.14642726,-0.12212524,-0.12326367,0.1033315,-0.15477766,-0.0008891161,-0.013408691,0.097421326,0.11920197,0.003947054,0.15854199,-0.10111529,-0.03813471,-0.078743406,0.03875979,0.13026123,0.10618757},
	{-0.12415521,-0.072645254,-0.051269494,-0.08729356,0.024257867,0.13149723,-0.08701984,-0.07497305,0.10308796,-0.042257413,-0.031170176,0.15587144,-0.02889272,-0.0116873365,-0.11893301,-0.1319408,-0.05081359,0.0475516,0.087405756,-0.08346996,-0.034273185,0.07919613,0.13808152,-0.025999807,-0.14354663,-0.11020343,0.040603507,0.02528629,0.13897198,-0.007720849,-0.016087137,-0.10318428,0.14395186,0.08120587,0.090904534,0.1440674,-0.06686395,-0.058349125,0.15543503,0.060461577,-0.088002875,-0.0821467,0.13378331,0.10727008,-0.1327048,-0.090569526,0.12347718,0.14580187,0.15666468,0.119112805,0.14614707,-0.15419517,-0.073425606,-0.024039365,0.09799778,-0.15329584,-0.13015798,-0.06759159,0.066007964,0.11974241,0.034622815,-0.004520683,0.061623145,0.06881101,-0.15424182,0.022977678,0.097212695,-0.09761177,0.074741066,0.1074509,-0.14016737,0.01956489,-0.0071267276,-0.013986583,-0.047414422,0.14804111,-0.05741953,0.05913532,-0.14936103,-0.016436173,0.04674355,0.015782004,0.04941614,-0.1566462,0.06427428,0.08934232,0.091110095,0.03503718,0.037356123,-0.11079456,-0.10634457,0.15133646,0.1544198,0.043313235,-0.12253387,-0.070011035,0.035706986,0.1462651,-0.14625977,-0.050486922,-0.09782284,0.12638082,-0.026482686,0.07223209,0.115673676,-0.11689091,0.040256526,-0.021317812},
	{-0.006259844,-0.1505838,-0.122979574,-0.062358037,-0.034155987,-0.10015324,-0.06820753,-0.02011469,-0.08062042,-0.06733627,0.09116733,-0.1011209,-0.13596034,0.11332002,0.022397865,0.13716815,-0.06561328,0.053050097,0.12781882,0.025648331,0.14358799,0.10729639,-0.098897666,0.1479377,-0.16107881,0.087320775,0.05706013,0.118818864,0.07173864,0.13421398,-0.09745518,-0.108970925,0.011087247,0.0028537982,0.07762396,-0.07371734,0.07336836,-0.038208134,0.027464908,-0.088768676,-0.056884594,0.083942026,-0.10698284,-0.07549698,0.072509415,-0.12525173,-0.093013346,0.071592495,0.10941301,-0.12619585,-0.08513254,-0.09368516,-0.14429632,0.14118935,0.15367411,0.09961111,0.019623905,-0.12688993,-0.04357133,-0.101002276,-0.1565844,0.0042216093,0.014238851,-0.119601905,-0.13576113,-0.03468116,0.10223446,0.1405889,0.098329425,0.059903104,-0.07327611,-0.022799019,-0.14787038,-0.11859707,0.05094344,-0.05642338,0.115475245,-0.11018058,-0.14849919,-0.07931812,0.1218918,0.0900621,0.113093056,0.06278114,0.12729356,0.0036055325,-0.076905936,0.10660708,0.13301411,0.12891597,0.075091474,-0.07951201,-0.03635309,-0.041892234,-0.004922909,-0.083167404,-0.1296057,-0.05352362,0.03941861,0.015373097,0.008232981,-0.049476698,-0.0077236444,0.04201998,-0.13132708,0.124481305,0.07694619,0.15766875},
	{-0.06046977,0.09827274,0.12859112,0.15100317,0.04927901,0.055145487,-0.14923486,-0.05880426,-0.059288386,0.01583365,-0.024068128,0.027251745,0.007329993,-0.13328646,-0.13254756,-0.038087517,-0.038545925,-0.065000996,-0.051054046,-0.06342495,0.13916264,-0.13475154,0.01510256,-0.12628604,-0.09588672,-0.00795604,0.050126832,-0.0106392205,0.11310751,-0.06856612,-0.09154162,-0.060857728,0.14686555,-0.09173219,0.09771479,0.0779001,0.02282437,0.07019993,0.11189761,-0.07102131,0.15748227,-0.1107336,0.11547689,-0.09338724,-0.12821877,0.06909318,0.076130696,0.03330122,-0.071345806,-0.0035882592,-0.07738982,-0.011599542,-0.06081813,0.12898205,0.059705116,-0.14623757,-0.14174624,0.06702698,0.06793005,-0.029325591,-0.10251845,0.011496506,0.12667757,0.14218421,0.146604,-0.06347159,-0.035515193,-0.062160604,-0.14470977,0.10746731,-0.013514397,-0.11220303,0.15511662,-0.0683304,-0.055891495,0.01246132,0.114888616,0.14790536,-0.0932039,0.14256753,0.06836129,-0.065803654,-0.097475864,0.010694832,-0.14883807,0.03966898,0.10841605,0.075880304,-0.094758466,-0.06570083,-0.075970836,0.105309136,0.08675859,0.0036690822,0.03164852,0.058282323,0.13096172,0.12651344,0.0974804,0.123511225,0.0074729673,-0.0597727,0.039250076,0.10283092,-0.0048728525,-0.09996402,-0.11908083,-0.012549687},
	{-0.12676802,0.024840623,0.12684998,0.04509965,0.029556692,-0.034083303,-0.045001574,-0.12880652,0.09367793,-0.022089425,-0.13704768,0.12869376,-0.11444079,-0.011304109,0.14628129,-0.10523963,0.09106877,-0.01578652,-0.05712436,-0.072571956,-0.0918555,0.07105592,0.11033307,0.083550856,-0.062814616,-0.05435697,-0.04200057,0.05667724,-0.15607564,0.14241177,0.024122287,0.07193815,-0.051273707,-0.11440538,-0.033877775,0.09075398,0.07167588,0.09479758,0.12550963,-0.07595105,0.051312808,0.031672433,0.035094142,-0.014296919,0.119649336,-0.1385987,-0.1372134,-0.04448679,0.039012738,0.05642703,0.095412105,-0.09584847,-0.12236773,0.043991312,-0.11808254,-0.13028526,0.105899625,0.13406253,0.063111365,0.13887359,0.00077596377,-0.091616005,-0.041765418,0.057626933,-0.0107424725,0.008244091,-0.062411964,-0.10507813,-0.097363874,-0.121454924,0.049973857,0.058172286,-0.043491807,0.10155131,-0.09603527,-0.02155072,0.00623021,0.022788346,0.0633771,-0.010725681,-0.11906986,0.058276486,-0.0685688,0.021801468,0.0867776,0.15387712,-0.0782627,-0.14895223,-0.009242483,-0.017267752,0.082843065,0.08478676,-0.049539737,0.017986849,-0.09011054,-0.07251121,-0.020250902,0.14005712,-0.028276324,0.08889333,0.011369192,-0.026841007,0.078823596,-0.108957484,0.01553444,0.12441084,-0.08954092,-0.037168752},
	{0.0027236054,0.053041838,-0.08902179,0.030505322,0.017075147,0.13548033,0.14158046,-0.06407865,0.021255849,0.12856427,-0.0854835,0.06030553,0.14576592,-0.11748466,-0.084201165,0.060303565,-0.12508887,-0.08648058,-0.15191366,-0.02462362,0.08725842,0.0860974,-0.0059503103,0.05623994,0.15165995,0.09715864,0.11994294,-0.10065055,0.08624633,-0.092536725,0.04553478,0.052428003,0.092521764,0.08765097,0.007664456,0.027627436,-0.09402456,-0.065440275,-0.037840746,-0.10204646,-0.0048864423,0.15211843,-0.148391,-0.0055397963,-0.1157272,0.117860064,0.031130051,0.14603618,-0.06150944,0.018762574,0.10761955,0.0852778,0.15088706,-0.08437296,0.13282014,0.034740906,0.06809975,0.080464505,0.027744155,-0.026643032,0.009148847,-0.12811194,0.08205854,-0.11864146,-0.113563456,-0.077349156,0.119151175,0.043712765,0.03321232,0.043202896,0.12535317,0.007677149,-0.11804379,-0.14769046,0.10801621,0.16058798,0.036598254,-0.07422103,-0.07107281,0.011550065,0.07572496,0.09886752,-0.020735418,0.13376082,0.008704555,-0.040764276,0.14826047,-0.0032498587,-0.014277817,0.031233491,0.091526076,0.09070886,-0.08782094,-0.089800775,-0.015816756,0.08757915,-0.1592662,0.015438835,0.11545038,0.14354628,-0.017490186,-0.06192424,0.021209627,-0.053887505,-0.10023141,-0.0080135735,-0.066003256,0.02732707},
	{0.108290814,0.042271942,-0.1247046,-0.032030202,-0.030105771,-0.07320867,-0.109772325,-0.10177658,-0.1000649,0.099855065,0.02441087,-0.054449223,0.13903685,-0.06845297,0.03471619,-0.08512387,-0.08013918,-0.11779697,-0.065847404,-0.15020022,0.05180921,0.03210751,-0.037004586,0.013009675,0.14903535,-0.047879644,0.14403369,0.08124113,-0.07855271,-0.024462985,0.11043504,-0.1390768,-0.1342584,0.01294012,0.016864778,0.15115565,-0.14796233,0.13801369,-0.0057952255,0.1374259,-0.078228496,-0.13949566,-0.064429566,0.05649342,0.12561709,-0.003317953,-0.00065684645,0.00089524686,-0.14320835,-0.14371386,-0.06016044,-0.009021197,-0.111354925,0.0841849,0.07259448,0.1601598,0.12523697,0.11730975,-0.014793737,0.03696494,-0.15310492,-0.111527994,-0.14881098,0.12587886,0.012009536,0.04894643,-0.035774976,0.034449566,-0.14423347,0.048408873,-0.15286514,-0.15510915,-0.024549574,0.013956127,-0.034086123,-0.06226435,-0.11435027,0.10419297,-0.1298272,0.1256016,-0.07729246,-0.009908427,-0.02419803,-0.03163466,-0.04866227,0.14043158,0.100252286,0.017528534,0.08478635,-0.037238456,0.003337138,-0.10058715,-0.07358104,-0.11845035,0.024504801,-0.049542703,-0.13392784,-0.08339724,-0.006294506,0.096230395,0.004378267,-0.06620542,-0.022652194,0.008468819,-0.035576697,0.0007380783,0.057778787,-0.14721002},
	{0.052067824,0.1389602,0.11445175,-0.044938322,-0.039743897,-0.00906595,0.14848098,-0.12344666,0.007847939,0.032782085,0.0397208,0.14574613,-0.059134375,0.1281655,0.04731042,0.05318569,-0.0624355,0.08453478,-0.102775924,-0.15173824,-0.02022045,-0.10842099,0.05115913,0.060868345,-0.1597331,0.034709554,0.10787023,-0.03994738,-0.14890637,0.14720386,-0.14306831,0.024464106,0.10351051,-0.11093104,0.1246562,0.11037402,0.014925733,0.09701916,0.08266109,0.022169717,-0.15239589,0.14408739,-0.14750178,-0.09139164,0.13862738,-0.091383524,0.009138615,-0.12213829,-0.14046068,-0.15319692,-0.025407646,0.06965045,-0.03165786,-0.0084355865,0.019059157,0.06284331,-0.14022666,0.15415943,-0.04293737,-0.097348064,0.037486337,-0.068336815,-0.12516415,0.14685126,0.12621024,0.05763453,0.041492496,0.14180319,0.020434907,0.05451012,0.02995001,-0.09745313,0.14196078,0.09653743,-0.15206851,-1.06066e-06,-0.056139708,0.036171425,-0.043277845,-0.024095178,0.04787971,0.022366263,0.07608554,0.09462798,0.027767163,-0.054768864,0.006714775,-0.15416719,-0.15738367,0.069187775,-0.06906313,-0.09848368,0.107071556,0.08723937,-0.08407835,-0.08184942,-0.013347331,-0.13805145,-0.08932923,-0.003791344,0.13125533,0.0459082,-0.006906554,-0.05797394,-0.13910647,0.02668478,0.08303588,0.014842256},
	{0.06665846,-0.068386525,-0.15899324,-0.08689157,0.075377606,0.09851589,-0.1318353,-0.05768386,0.032615904,-0.09072967,0.0651248,0.15456644,0.040469382,0.12974639,0.13373668,-0.13123451,-0.12975842,0.111334875,-0.11479107,-0.0055842483,0.15280187,-0.072160006,-0.010256357,-0.1264781,-0.006258793,-0.021910628,-0.023945782,-0.09702711,0.11135593,0.119612046,0.14621684,0.10148482,0.08885431,0.12820876,-0.031682,0.11689188,-0.05180084,0.14075437,0.02907331,0.094610825,-0.09265688,-0.15458688,-0.052384477,0.14919999,-0.028313223,-0.1113226,0.08257584,0.06818486,0.04383985,-0.0016349703,0.16003588,0.058109656,-0.15624644,-0.021805368,-0.102015756,0.14684191,0.12946212,0.086738944,0.09614774,-0.04714009,0.064684354,0.123495884,-0.003995873,-0.11616761,-0.067971714,0.01977233,-0.12929602,-0.09494243,-0.14994127,0.06513613,0.16186187,-0.12945233,-0.098130316,0.11389736,-0.07672151,0.018387621,-0.1352651,0.04673927,0.14942853,0.076593116,0.12981333,-0.11788764,-0.14726923,0.12105719,-0.021118578,0.035752516,0.1477912,0.09623675,-0.08009593,-0.090362914,0.14382432,0.08842369,-0.11020297,-0.0027186126,-0.104932725,-0.082627475,0.0056290957,-0.11448491,-0.060174786,0.15034401,-0.105027474,-0.15855932,0.05381438,-0.04065379,0.058909144,-0.0925297,0.11051202,-0.106414154},
	{-0.13464922,0.115147546,0.08515811,-0.12143518,0.01731537,-0.11381192,-0.14473563,-0.13537517,-0.015819743,-0.06927254,0.013321519,-0.07123484,-0.025508732,-0.026628628,-0.13616471,0.007106307,0.015266896,-0.08426861,-0.08047076,-0.0891053,-0.08957507,0.11965253,0.12587766,-0.011708328,0.0029021862,0.040243324,-0.0976636,0.13156289,-0.07608842,0.022190375,-0.100413874,-0.051335055,0.03199941,0.12255931,0.04886213,0.048900615,-0.07854953,0.045421936,-0.07708894,0.068425566,-0.0019296807,-0.0014060736,-0.13202827,0.15251239,0.043908276,-0.07450831,0.08923478,0.034530334,0.15815,-0.10699707,0.07414514,0.100033864,-0.06278687,-0.10835373,-0.13656503,-0.023023624,-0.12843154,-0.11760307,-0.13039213,0.15700907,0.0920676,0.044564262,0.014937808,0.017790407,0.070024714,-0.07317129,-0.051378664,-0.006649092,0.027260527,0.05687623,-0.09323023,-0.05948447,0.09327693,0.024416659,-0.082125716,0.12176382,-0.052623905,-0.11394583,-0.015940756,0.04042335,0.08456677,-0.06367395,-0.06469846,0.14624421,0.01164041,-0.12305723,0.07585928,0.1526204,0.14048958,0.107507624,-0.13190126,-0.017025366,0.07246237,-0.07569314,0.022442266,0.09148399,-0.04423451,0.056040525,0.14798908,-0.11490375,-0.044031776,0.15421528,-0.07875235,-0.0625501,0.0788529,0.14891179,-0.0102566695,0.14802355},
	{0.01347197,0.007772886,-0.1551731,-0.036283486,0.10937891,-0.08746508,0.1357791,-0.1555053,-0.15385829,-0.10846684,-0.010014785,0.07185351,-0.12450986,0.13379523,-0.04859801,-0.1272489,0.11000644,-0.13856466,-0.091494486,0.068347834,-0.06464646,-0.023623338,0.072269194,-0.0976043,-0.049419533,0.013754945,-0.03022002,0.10366106,0.040539443,-0.03773174,0.095209025,0.10280596,0.14916554,0.122994624,0.13908796,0.026089689,0.034239296,0.044312406,0.089008644,-0.02407155,-0.09972753,0.02735064,0.11905382,-0.11868385,-0.133193,0.011246178,-0.023340257,-0.044083413,0.061649024,0.13916923,-0.09873307,-0.15587191,-0.0838071,-0.15727077,0.021391239,0.1466609,-0.06519346,0.0056152167,0.053119104,-0.041026413,-0.060076397,-0.054866534,0.12540723,-0.09723974,-0.085837975,-0.06482771,0.005653226,0.108762786,0.05830741,-0.15692632,0.068897575,-0.020534007,-0.07331867,0.09957692,0.093081094,-0.074808896,0.067104444,-0.057077136,0.030561075,-0.04250836,0.04551728,-0.019275717,-0.15477133,-0.12594517,0.046064384,-0.15435767,0.09501994,0.07402034,0.00824956,-0.054828856,-0.0042015165,0.008101628,0.005394942,-0.11421385,-0.11212458,0.042884383,0.13600992,0.12531775,0.08604261,-0.048807476,0.070237644,-0.14452846,0.12116028,-0.016451396,-0.062055442,-0.13949792,-0.090063065,-0.053450935},
	{0.14757368,-0.000597156,-0.09249684,0.007131315,-0.034933724,-0.013353008,-0.16354439,0.13115883,-0.10203959,0.03983554,-0.15506355,0.008153703,0.08793174,-0.0027532603,0.0105391,-0.1062827,0.07781069,0.12462359,0.076287866,-0.06605382,-0.11941548,0.103351526,0.1532205,0.04913022,-0.08917362,-0.016487563,0.11389833,-0.12773623,0.015993625,0.0610724,0.14783114,-0.120118804,0.11501758,-0.026946558,-0.038342286,-0.09180329,-0.08266366,-0.11599565,0.02011226,0.070822194,-0.15541393,0.021174861,-0.09476874,-0.10305997,-0.11348136,0.042845104,0.07662719,0.075947024,-0.015737774,-0.07085778,0.12366615,0.03790299,0.01161078,-0.10272524,-0.13617073,-0.13795677,0.075643666,-0.13657527,0.14251098,0.13307293,-0.08790144,-0.15765959,-0.049526874,-0.12678163,-0.010093327,-0.14074863,-0.056727085,-0.05284195,-0.024781713,-0.14825442,0.031547874,-0.073261425,0.06171247,0.10979638,0.1459077,-0.04480933,0.0367755,-0.07784256,-0.07222921,0.14670481,-0.1193057,0.009749789,0.13304709,-0.14654201,-0.10203604,-0.1435511,0.105661206,0.090175934,0.11884484,-0.15449083,0.028308293,-0.062193174,0.08420881,-0.0727225,-0.064969555,0.085256964,-0.010918109,0.043241706,-0.14567259,0.007919663,-0.079772934,0.10755024,0.111696646,-0.03641167,0.033459105,-0.10725924,0.03646361,0.14446718},
	{0.06400749,-0.06735815,0.010251177,-0.098269224,-0.11662596,-0.013879482,-0.043090105,-0.0016233185,-0.12148838,-0.1509723,-0.026822463,0.045672636,0.060605187,-0.07960155,0.04357393,-0.075911425,0.08100394,0.06960461,-0.0245006,0.07068978,0.018770121,-0.06991224,-0.035402667,-0.028904583,-0.121169195,0.091029435,0.09992299,-0.10189135,0.1314105,0.1330821,0.14858186,-0.14083572,-0.044985306,-0.14214014,0.09354571,0.03207359,-0.11512586,-0.055197366,-0.03934895,-0.09934538,0.080368444,0.13825983,0.12835814,0.0904776,0.10972012,0.08164684,-0.09335919,-0.042058896,0.053375833,0.020807803,-0.00900679,0.0077134,-0.0016420931,-0.07877829,-0.115742676,0.057790034,-0.14482547,0.13889231,-0.12921311,0.048559718,0.002836396,0.12086228,-0.0138383405,0.05628042,-0.07870395,-0.13778512,-0.15358666,-0.12515548,0.052948788,0.09441317,-0.0017181984,0.016047291,-0.003931741,0.03943081,-0.15136848,0.01508796,0.10690594,0.069790296,-0.14963256,-0.011908104,-0.14931563,-0.06605833,-0.13099849,-0.09616051,-0.018421102,-0.06805239,0.020282462,-0.1569054,-0.13349567,0.0049486384,0.022405552,-0.15399003,-0.1101825,-0.012377219,0.13472073,0.008516714,-0.13902558,0.08913048,-0.022282302,-0.123424165,0.15301856,-0.032109335,-0.13792597,0.04905813,0.098305166,-0.046512183,-0.1360793,-0.13990244},
	{-0.052659325,-0.044015802,0.031388562,0.0936309,0.043068066,0.101343654,-0.014362857,-0.026556266,0.054140277,-0.074773334,0.08407566,0.0486347,0.12259551,-0.13980018,-0.075969525,0.11499123,-0.15038128,0.08527387,-0.008583006,-0.14511512,0.10755819,-0.08680214,-0.119164445,-0.07185663,-0.098942354,0.13103315,0.08509954,-0.112899244,0.160976,-0.13463348,0.077795595,-0.008866041,-0.057611104,0.12740575,0.034025453,0.06328687,0.09643636,-0.13991037,0.047177054,-0.10625487,-0.09769405,0.104737334,0.077514865,0.1519293,0.13418828,0.06513209,-0.006635993,0.07231584,0.07340418,-0.024175465,-0.030890822,-0.14925532,0.11218278,-0.14141841,0.14675072,0.0030323456,-0.018598534,-0.043820392,0.14453353,-0.13114952,-0.023770768,0.08902255,-0.033288095,-0.10925065,0.041517675,-0.14097798,-0.057932388,-0.06376836,-0.11088982,0.084257364,0.14696102,0.08965937,-0.14388181,-0.1542649,0.061129257,-0.12477437,0.012247199,0.117219046,-0.039421223,0.09390647,-0.14593525,-0.14734063,0.028084928,-0.032490954,0.11744259,0.027973218,0.09791247,0.006349549,-0.02668572,0.14718093,0.093052216,-0.0064015673,-0.04048809,-0.068415545,0.16077405,-0.12046933,0.13335344,0.078275956,-0.10718337,-0.07034869,-0.035760704,0.006030343,0.004231438,0.096346386,-0.069045275,0.03822712,-0.10745874,-0.109612495},
	{-0.09316084,-0.11638547,0.12246917,0.15282087,-0.10203835,0.067712404,0.040161666,0.05147194,-0.11636354,0.14302838,0.065192915,0.10312824,0.11048375,-0.0039313696,-0.111699246,-0.11477006,-0.13582413,0.03628516,0.07035655,-0.10639044,0.049324464,0.062256053,0.028908217,0.10679461,-0.025597245,-0.08230031,0.15857771,-0.055029232,-0.07313976,0.10375658,0.042936336,0.070031345,0.12683672,0.02094158,-0.09365623,0.014475132,-0.13079914,-0.017278315,-0.07519313,-0.15044862,0.15325458,0.14881416,-0.09029,0.08512909,-0.049718075,-0.12231552,-0.048365045,-0.07906764,-0.04854472,0.028172314,-0.090715475,0.07820836,-0.022409528,-0.01663901,0.019434186,0.12340393,-0.12981808,0.09427981,-0.08067491,0.014905636,-0.09967969,-0.05877184,-0.064154774,-0.06464872,-0.07250113,0.025696961,0.035492975,-0.08160207,-0.086844444,-0.1268026,0.0565989,0.057515472,0.11647635,0.031740814,0.11120118,0.085695565,-0.058962997,0.082134746,-0.037593924,0.05050156,-0.15056023,-0.08566521,0.14426698,0.14874776,0.1595326,0.08075232,0.111425236,-0.056850977,-0.027133634,-0.040168602,-0.09956023,0.11693411,0.12876932,-0.051872186,-0.11778307,0.0068696477,0.00551142,0.09538104,0.15154602,0.065337345,-0.06864797,0.14763647,-0.07371071,-0.1462395,-0.12411151,-0.022345474,0.040648073,0.15768556},
	{0.06315979,-0.07131042,0.12811159,0.0996019,-0.04558232,-0.09896301,0.06436796,0.14982398,-0.035299793,0.07895156,-0.075910844,-0.13664274,0.111734286,0.07814465,0.010055056,-0.10353702,0.02165266,0.036911022,-0.14028555,-0.108222984,-0.061711855,0.11167379,0.15828171,-0.123679444,0.10147988,-0.069751814,0.012984525,0.12506959,-0.1144366,-0.004592165,-0.14380464,-0.067040056,-0.055556882,-0.080318145,-0.15610494,0.043796036,0.13710459,0.13133273,0.101487085,-0.07016544,0.12876163,0.02913321,-0.14136727,0.034064393,-0.06134938,0.10528072,-0.038624834,0.068586014,-0.09354799,-0.071864866,0.076023966,-0.0007372999,0.10349719,-0.1455593,-0.025886958,-0.11523871,-0.02926515,-0.10299993,0.031727027,-0.06441381,0.07160508,-0.024010465,-0.07748407,0.01638414,0.13059655,0.1224161,-0.094457164,-0.14459959,-0.110691674,-0.10949742,0.100361764,-0.14999051,0.1143927,-0.002648932,0.09263346,0.06340432,0.12186353,0.13393854,0.07689281,-0.07801106,-0.15496579,-0.0923433,0.11256094,0.030133784,-0.09946197,0.08532529,0.11705844,0.09465925,0.074735455,-0.053992864,-0.023729589,-0.07510743,0.053634968,-0.06198135,-0.11887469,0.15012527,0.07907449,-0.09095122,-0.1473805,-0.070650406,-0.046841227,0.041699152,-0.1351937,-0.05867591,-0.08633818,-0.05851094,-0.1070572,-0.033790402},
	{-0.15620095,0.04706925,-0.07062943,-0.14007816,-0.12153088,0.011074958,-0.016970666,-0.07399989,-0.04385597,-0.03330547,-0.03379183,0.03973143,0.017298162,0.034694158,0.045853656,-0.027477173,-0.14673801,0.03144664,-0.120574646,0.09153778,0.118722826,0.14128141,0.055843387,0.025290579,-0.120469406,-0.096772835,-0.102909535,-0.11345041,-0.019275596,0.04607175,-0.03825598,-0.15282226,0.13360608,-0.114731,0.07019249,-0.12909424,0.09065122,0.085177556,-0.13522388,-0.15034641,-0.09086947,0.15666798,-0.12114225,-0.09918825,-0.01827833,0.02693232,-0.05636906,0.03711002,-0.032377947,0.113582686,0.06714803,0.10292086,0.068740696,-0.0857384,-0.061460976,0.005060687,0.011963771,-0.028113237,0.100960635,0.038647942,-0.08044096,-0.06105049,0.1283697,0.04003568,0.09354694,-0.05701417,0.14785025,0.09460123,0.04661649,0.07130766,0.04046679,-0.14559367,-0.12956628,0.10855485,-0.13052821,-0.12162609,0.1061439,0.034615006,-0.03179401,0.09904323,0.1416301,0.038506944,-0.07776784,-0.10250966,-0.13836487,-0.09462693,-0.15503803,-0.07778573,-0.051163204,-0.123324074,-0.09643822,0.15652415,0.06966032,-0.003316611,-0.11230514,0.14902903,0.035590705,-0.10296452,0.0024856313,-0.05133811,0.0023917053,0.11645715,0.11777283,-0.1257031,0.07359781,0.088279545,-0.062102694,-0.0996773},
	{-0.08908874,0.10536695,-0.045818746,-0.14422722,0.15645131,0.067136236,0.004289459,0.09029711,0.03195416,-0.108029984,0.049006365,-0.003455773,0.0041239965,0.03353924,0.06535649,0.08621385,-0.13460499,0.11419355,0.027662124,0.13484181,-0.06539856,-0.1099598,0.03762877,-0.13087212,0.05245956,0.1385509,-0.021833181,0.1516578,0.11134244,0.09688441,-0.12344026,-0.023359181,0.060690314,-0.0883831,-0.1498535,0.08030487,0.021233344,0.087506466,0.14179294,0.14171351,0.13938788,-0.09561413,-0.11954048,-0.12586777,0.037778858,-0.027230404,-0.14608948,0.030654036,0.121162735,0.054873973,0.16775665,0.049210016,0.025395423,-0.0054501444,0.079564564,-0.005877876,0.12371183,-0.11298189,-0.032330576,-0.05244411,0.10063111,0.074053906,0.0055048876,0.06198732,-0.14139663,-0.108601876,0.09806717,0.06323758,-0.033250406,-0.15182866,-0.147184,-0.12079564,0.020905092,0.13299336,-0.061352678,0.0432676,-0.022846736,-0.018608911,0.025594503,0.09281912,0.13335907,0.13632336,-0.014543413,-0.06489915,-0.14119929,-0.021331906,-0.11412351,0.13611804,0.08242997,-0.15563641,0.024488848,-0.017016932,-0.14987263,0.08391789,0.08089468,0.13440183,0.0733776,-0.07514053,-0.036683276,0.071616165,-0.07270526,-0.095901,0.045813933,0.029145565,-0.04840064,0.13606074,-0.0066174725,0.097379625},
	{0.14586271,0.13666438,0.0066047413,-0.039057072,0.012931205,-0.085827306,-0.1320708,-0.081532486,0.06564547,0.08281111,-0.055365127,0.06963609,-0.008092842,0.14179161,0.12121658,0.06121442,-0.14902306,-0.06984968,-0.004185602,-0.14194092,0.03991667,-0.061526187,-0.03023991,-0.0517701,0.08664446,0.12961711,0.01603338,0.12374444,-0.008274741,0.14121588,0.07293823,0.03388876,-0.09499603,-0.03682723,0.11791981,0.015832959,-0.13131356,0.053776823,0.14472015,0.011798478,-0.08577937,0.028160097,0.14203049,-0.03364105,0.039978355,0.08335021,0.08431684,-0.0034181047,-0.0813295,-0.1321832,-0.113695994,0.12758617,0.023785636,0.10323085,0.012664724,0.050927,0.0357538,-0.06654276,-0.15123533,-0.09414162,-0.03002578,-0.14300206,0.1304237,0.023989722,-0.07443506,0.07030591,0.024496228,0.022217795,0.12671213,-0.09469838,-0.12019806,-0.10432035,-0.15266863,0.018383041,-0.0873894,0.09701652,-0.027281882,-0.0017893016,0.07871258,0.10788,0.12105586,0.13401501,0.06642315,-0.1261934,-0.14249372,-0.1106779,-0.109048985,0.008809403,-0.057479877,0.02400525,0.009025827,-0.1372231,0.050149977,0.11592798,0.096404076,0.04907112,0.14515454,-0.0629788,0.094321,-0.05186502,-0.011596675,-0.056139264,0.07778609,-0.1036568,0.067365795,0.029555928,0.06669834,-0.070772894},
	{0.06201665,0.012268802,0.0821915,-0.11478822,0.019146854,0.12256359,-0.07819028,0.090175174,0.018521357,-0.13066685,-0.07138166,-0.1360923,0.15738276,0.07223028,-0.014064359,-0.020595985,0.1382631,0.03911458,-0.024477437,-0.053881403,0.033574566,-0.09488314,-0.09495978,-0.10038704,0.13710983,-0.122494265,0.039171513,0.046908155,-0.07978351,0.075529195,-0.020319598,0.13028754,-0.117182225,0.13263273,-0.094622135,-0.11278515,-0.11709248,0.1464787,0.03364281,-0.071058944,-0.028609795,-0.13674617,-0.09400519,0.14587538,0.06350874,-0.036401153,0.15761639,-0.009263912,-0.09481486,-0.02664727,0.063815214,-0.1373942,0.13222058,0.10794797,0.12341656,0.034533773,0.060947657,0.08701137,0.08197913,-0.12156882,-0.08234186,0.014665242,-0.053029425,0.1268288,-0.058281224,-0.028244507,0.078928,-0.14756177,0.12656341,0.09091371,-0.10897907,-0.057558928,-0.010061606,0.14801891,-0.1476141,0.10872705,-0.026614584,0.005436484,0.10312052,0.053850666,-0.14711687,0.12601677,0.04612893,-0.1428812,0.13657695,-0.013883086,-0.090110265,0.06388451,-0.14718115,0.15278031,0.0016348979,0.1556527,-0.006829089,0.10217096,-0.12795857,0.14403573,-0.08886846,-0.15859999,-0.057780445,0.083763815,0.0031352597,-0.054827284,-0.05698786,0.06110005,-0.12220636,0.07107188,-0.0044597946,0.13639967},
	{0.1197626,0.124891,0.12084257,-0.047966328,-0.043996297,0.09738348,0.15532257,0.10451332,0.085857466,0.063509725,0.13064434,0.14888953,-0.1491589,0.0023470907,0.03543647,0.041674092,-0.08005964,0.042932477,0.03571898,-0.05219514,0.015092775,0.009583064,-0.13563061,-0.07342001,0.047684826,0.017944425,-0.11442288,0.09294877,-0.057594143,-0.15379678,-0.06081783,0.02475299,-0.058221955,-0.08810655,0.072223105,0.12526903,-0.061847646,-0.15505755,0.11094309,-0.1459224,0.10268753,0.09966845,-0.009660057,-0.048109785,0.063852124,0.13750672,0.07271216,0.13404828,0.08785347,0.08066201,0.026229402,-0.017584102,-0.08941943,-0.11873923,-0.056390535,0.14441445,-0.16374406,-0.029885948,-0.141139,0.093915485,-0.045805067,0.024487328,-0.08838179,-0.15197907,0.053893052,0.13465895,-0.14597806,0.034456193,0.114746414,-0.004430418,0.10861914,0.048812132,0.104227334,0.015825246,-0.11356482,-0.062497474,-0.09525119,0.054157235,-0.14209944,-0.03484113,-0.09074071,-0.09477478,-0.023902684,-0.14721473,0.11167923,-0.14491682,-0.1308476,0.09244205,0.009302674,-0.14011276,-0.14317484,-0.07526863,0.09359901,0.13076864,-0.07428032,-0.15849027,-0.026534079,0.06227072,0.016159035,-0.10403595,-0.03694622,-0.00054956053,0.06300053,0.045642707,0.040336013,0.13154544,-0.12294921,0.09036431},
	{0.13458242,0.024378344,0.14979587,-0.05438573,-0.04360353,0.12286469,-0.05946823,0.15808478,0.12826589,0.15202567,0.036629137,-0.07855273,0.14523819,-0.08815494,-0.044568706,-0.02161424,-0.07781038,0.01299277,0.096682504,-0.08286142,-0.03397696,0.15903386,-0.14057498,0.12873834,0.12227388,0.14039575,-0.060728863,-0.08360856,-0.14703663,-0.022169434,-0.024521498,0.12681948,-0.06709925,-0.12388963,0.15700442,0.08436565,0.00048225635,-0.15780434,-0.037325203,-0.04131493,0.09312035,-0.06491459,0.027853861,0.050782546,0.12800558,0.026569027,-0.11866713,-0.007017183,0.134295,0.15147625,0.10498304,-0.06997126,-0.14707518,-0.059078395,0.0044207745,0.08127025,-0.09661111,0.029916719,-0.06425981,-0.0782726,-0.087843046,-0.0734781,0.050103478,0.027775139,0.09242092,-0.15746261,0.053339053,-0.0033883452,0.09586838,-0.097117096,-0.15278709,-0.017324748,0.08966983,-0.04286339,0.12806164,-0.12483089,-0.12193827,-0.14406687,0.06383172,0.08435123,-0.08417691,0.098411605,-0.11534183,0.060906336,0.077768944,0.0394553,-0.12585936,0.017093077,0.07098143,-0.14351158,-0.0028294474,-0.10979987,0.010092368,-0.06361753,-0.079635575,-0.05806202,0.14765912,-0.107255206,0.1540137,-0.13217248,-0.1067991,-0.06351958,0.113878444,0.059902683,0.023785599,0.10647325,0.07761729,0.055351514},
	{-0.06685625,0.121664256,0.06504331,-0.0119757345,0.024040518,-0.07043455,0.06491472,-0.070233054,0.06469059,-0.13253477,-0.06695506,-0.10173275,-0.022765419,0.12215793,0.15511183,-0.12575059,0.059405927,-0.14754139,0.14938538,-0.080239154,-0.010715563,0.098279044,-0.045158055,0.013301733,0.010289688,-0.14459346,0.011083363,0.07064147,0.14042394,-0.103347085,0.02986171,0.079051256,-0.14186794,-0.062149197,0.11605166,0.07727531,0.07097555,-0.014599906,-0.0325152,-0.14573608,0.016133681,-0.087970085,-0.098314166,0.13015231,0.037322205,-0.13313033,0.142275,0.091603436,0.03657542,0.073675126,0.048605986,0.1454662,-0.03384004,0.108674265,0.07740726,-0.017530393,0.01056029,-0.07997,-0.057430994,0.097826295,-0.06659538,-0.074934706,-0.14792308,0.12240582,0.06632386,-0.04116115,-0.061426546,-0.046626657,0.033637702,-0.059864685,0.040371705,0.08272207,0.10995176,0.09143581,0.12518348,0.1579802,0.09012163,0.040860157,0.04661624,0.14323914,-0.0071482547,0.06806748,-0.017314106,-0.08569474,0.041856967,-0.08627703,-0.019035388,0.09128216,0.13217722,-0.010054016,-0.055548124,0.1541367,0.054638002,-0.14962517,0.033686686,0.04114172,-0.11082801,-0.09889878,-0.07541165,0.056447055,-0.08675748,0.08126544,-0.014354825,0.048781373,0.080491535,0.15311116,-0.048390202,0.0061887265},
	{0.016055463,0.14363097,-0.0001344172,0.06623888,0.06687776,0.09510395,-0.059775338,-0.04448329,0.09081019,-0.014571781,-0.007857244,0.124506705,-0.12148799,-0.089592345,0.033920363,0.047605637,0.11032808,0.04658049,-0.14772281,0.08647674,0.10598381,-0.12177102,0.073590785,0.056538288,0.056486547,-0.07640627,-0.14261183,0.063127875,-0.087471016,0.07756852,-0.11973006,-0.046419363,-0.046515465,-0.14558087,-0.032453094,-0.05819425,0.060771048,-0.15160435,-0.14533597,-0.11149466,0.14034392,0.06456486,0.0026527855,0.06697625,-0.146767,-0.100026585,0.06349324,-0.04733506,-0.14918414,0.020719677,-0.05598594,0.0023577064,0.053359643,-0.02512492,-0.0093082795,-0.10011729,-0.14431554,0.075304255,-0.11549939,-0.1320997,0.063222766,-0.15557015,0.13383652,-0.07922098,0.15193655,0.10916394,-0.13182522,-0.09841134,-0.0013663769,-0.012630156,0.08284648,-0.040769067,-0.038880263,0.039353542,-0.14020194,-0.14314109,0.1355737,0.12266295,-0.0033235848,0.13187796,-0.1302934,0.057182066,0.04572025,0.0041247606,-0.041047674,0.056900367,0.08248374,-0.1090041,0.07986186,0.08502839,0.011140034,-0.10374032,-0.021679565,0.12417589,0.13514528,0.017638296,0.12470904,0.11726683,0.13438581,0.06334743,-0.074718595,0.102395535,0.08515164,0.0040502357,-0.12186733,-0.13493529,-0.12931572,-0.014576007},
	{0.1348535,-0.071764216,-0.072215356,0.14747137,0.120799966,-0.072073884,0.06074862,-0.1280108,0.031762023,-0.0013384917,0.13649017,-0.007339872,0.02041919,0.07132553,-0.11778064,-0.021850973,-0.08712116,0.13118942,-0.14761408,-0.043936685,0.1575797,0.004116431,-0.015700646,0.037645295,-0.02159535,-0.047034882,-0.08990481,0.006165779,-0.03307964,-0.083918996,0.030626249,-0.029942881,-0.050150864,-0.1359309,-0.031523917,-0.09241386,0.111376464,-0.08502397,-0.0099838115,-0.08717547,0.13776456,0.15655255,0.006065981,-0.13402565,0.15675752,-0.10566789,0.061786175,-0.008717669,0.114181645,-0.085212685,0.0999044,0.084290326,-0.016683994,-0.13385668,-0.11555071,0.040824037,-0.14374864,-0.081421696,0.09217672,-0.12756883,0.047541484,-0.06651422,0.0716052,-0.009121317,-0.13878931,-0.08916003,-0.08161132,0.1121756,0.04759107,-0.0414205,-0.040684734,0.1233298,0.122997485,0.097921655,-0.10466086,0.14725922,-0.055926442,-0.031374212,-0.08172674,0.090128645,0.033505704,-0.011295177,-0.15174998,0.06268071,0.05637751,0.07456532,-0.0019411992,0.098769054,-0.09721357,0.04417824,0.06397529,0.1265509,0.15666187,-0.1261876,0.023576373,0.01536259,-0.08699271,-0.12681727,-0.039631538,0.0081866775,-0.14698057,-0.14630012,-0.15321806,-0.013128732,0.12934613,0.032712944,0.11554632,0.019390585},
	{-0.10338872,-0.12764394,-0.032979537,0.078943126,0.0465698,0.12022091,0.037256945,-0.14269565,-0.119718716,0.026759274,0.13597092,-0.11474057,0.036460973,-0.038611937,0.024304442,0.03937136,0.096796386,-0.0014726934,-0.050536808,0.13137266,-0.047103718,0.10614759,-0.13877438,0.075257435,0.147376,0.0012760353,-0.070714585,-0.03404383,-0.028693143,0.10536663,0.073999755,0.13056216,0.05539285,0.11195915,0.13644275,-0.108284086,-0.101600125,-0.053024422,0.11101656,-0.14731196,0.06244584,-0.039113,0.1324172,0.015684405,0.1568162,-0.15084095,-0.064457566,-0.0026703805,0.023706544,-0.07835728,-0.019648366,-0.075423606,-0.024319066,-0.11155202,-0.1411885,0.14557037,-0.07905499,0.08576485,-0.058656547,0.14233957,-0.085791305,0.091420285,0.15081559,0.08500022,0.040081758,-0.13793796,0.08411973,-0.09771741,-0.062099513,-0.021672022,0.12449874,-0.13406056,-0.16191772,-0.018455986,0.059672505,-0.006690415,0.066887565,0.10908254,-0.13555296,-0.101172395,-0.03807635,0.05315889,0.07751599,0.024999928,0.04995751,0.031995043,0.10757534,-0.10491789,0.074976094,0.11665952,-0.15636514,0.047386933,-0.09224412,-0.06059934,0.110330194,0.11257085,-0.15628618,-0.046124283,-0.032928985,-0.11259582,-0.023758644,0.10177315,-0.13695605,-0.14216545,0.08388285,-0.13557602,-0.083711915,0.1575394},
	{-0.14673154,0.10409333,-0.07386994,-0.036143225,0.104541115,0.01205432,0.027708841,-0.0651155,-0.0052008783,0.10576568,0.10176303,0.0150324,0.081352614,0.051757246,-0.026505142,0.13638231,0.13201205,-0.10722829,-0.004902007,0.06787212,0.005261053,-0.075950794,0.14306019,-0.13692904,-0.13691252,0.08093423,-0.08415692,-0.036077674,0.012449006,0.005733337,0.1287497,0.0022314647,0.036515336,-0.06950991,0.040754654,0.06628097,0.08404067,-0.14340664,-0.11863141,0.11375631,-0.102355726,0.09359021,-0.025538776,-0.12149834,-0.13115297,-0.059876338,-0.024319977,-0.10619342,-0.13685364,-0.13845924,-0.12697226,-0.07399258,-0.05114342,0.0761073,0.029739343,-0.038038895,0.12775551,-0.07738187,0.1112868,-0.10518917,0.082219884,-0.04905589,0.021234754,0.08624047,-0.041289046,0.0030713729,0.09006029,0.114652134,-0.13151091,-0.14383571,-0.109707184,-0.01665381,-0.08895401,0.12945716,0.030155431,-0.008129236,0.11787356,0.07994737,0.021696791,0.1442599,-0.0033775447,-0.12334718,0.14946818,-0.14348206,-0.061743736,-0.08584155,-0.037302293,0.10824412,0.022841508,0.11353071,0.12554862,-0.046598542,-0.03474598,0.013917545,-0.08890331,-0.15072407,0.10471528,-0.012100916,-0.065060385,0.060465433,0.076589,0.083179735,-0.045589745,0.026154999,0.14516248,-0.0158455,-0.14968723,0.009807641},
	{0.11697658,-0.072986834,0.079066515,0.12028104,0.121665426,-0.123529054,0.037905496,-0.10369647,-0.05750653,0.14987943,-0.08567451,0.14133085,-0.004605172,0.118656985,0.061126973,-0.031912904,-0.11802735,-0.13400783,0.1556119,-0.03535639,-0.14648378,-0.10498865,-0.15337431,-0.12463879,0.036404155,0.012714135,0.13464189,-0.03924084,0.15240754,-0.13216865,-0.027478248,0.07076953,-0.0013776892,-0.028776893,0.020621838,-0.021542583,-0.13444385,0.14624938,-0.07748528,0.08889936,-0.13159618,0.02105434,0.061272115,-0.10600654,0.11952779,0.10512943,-0.121349856,0.08155635,0.04422804,0.09907533,0.069045626,-5.6125806e-05,0.021399323,0.002117553,-0.12688434,-0.0809179,0.071475394,-0.013441162,-0.12031611,-0.15896678,0.11465825,0.11874084,-0.12790123,0.08557301,-0.024409728,0.024640644,0.054807246,-0.151618,0.06473336,-0.026784612,-0.15348506,0.037063602,0.10289288,-0.0008597454,-0.010791753,0.11255781,-0.0074792863,-0.12339257,-0.13532504,0.12311151,-0.066369005,-0.12551537,-0.022632621,-0.0575259,0.13917127,-0.14612395,0.016463,0.0036459167,0.032486748,0.13681194,-0.0505361,0.007762746,0.08006487,0.07701048,-0.06195272,-0.13009706,-0.066660255,-0.026310908,0.032339174,0.12732801,0.14457251,-0.046819486,0.104610965,0.016016254,0.05977253,0.0974227,0.11367956,0.122036815},
	{-0.11673848,-0.09053653,0.014743362,-0.104045056,0.049907483,-0.087253876,0.019289458,0.011825871,0.13511704,-0.043461576,0.025939077,0.077863626,0.10074779,-0.055483896,-0.08499463,0.0011590482,0.0291573,0.1524683,-0.07781419,-0.014629817,-0.14171924,0.041936696,0.09481027,0.090260655,-0.02300495,0.06523724,0.01424998,-0.11786058,-0.11421185,-0.022836117,-0.10418337,-0.029798847,0.051754516,0.09381984,-0.13315545,-0.12217644,-0.109935895,0.15544766,0.103986904,-0.13190968,-0.1270853,-0.12130755,0.09541464,0.0013013859,0.009316766,-0.0018891369,0.06573327,0.004157716,-0.05234502,-0.15405019,-0.0934431,-0.10878466,0.11618258,-0.049779236,0.060747664,-0.00903822,0.044277675,-0.15680519,-0.015411304,-0.088491626,-0.098878644,0.10511032,-0.12408295,0.016854173,0.11067045,0.08353123,0.075476415,-0.06616817,-0.004658261,-0.07336567,0.07975555,0.12797372,0.06427984,0.062995836,0.07746979,-0.1258462,-0.112048045,-0.1344923,-0.1540356,0.1181399,0.044603586,0.16070788,-0.13996184,-0.105793655,0.09351721,-0.1440758,-0.037165355,-0.030048896,-0.12410984,-0.050805643,-0.040840626,-0.046511885,0.039931342,-0.15058725,-0.08937879,-0.15866974,0.13297263,-0.040172078,-0.07403079,0.135552,-0.10245467,0.0659613,-0.01882033,-0.016350755,-0.01299849,0.067650996,0.15224528,-0.027594574},
	{0.015569614,0.15033028,0.1394047,0.09816736,0.047518842,0.089177504,-0.112689205,0.024542443,-0.105333306,0.13012718,0.04977762,-0.08519229,-0.1460907,-0.09844915,-0.12174091,-0.09122918,0.112863675,-0.084907845,-0.04831388,-0.10932147,0.08035539,-0.07571933,-0.06412252,-0.13311768,-0.03724871,-0.1412559,0.1162207,-0.069370545,0.08178154,0.11266585,-0.10560053,0.09639036,-0.13552067,-0.07394751,0.075836,-0.15699269,0.078841716,-0.11264257,-0.09382848,-0.04442823,0.010369427,-0.017255789,-0.020199336,0.0042403466,-0.07125496,-0.040653184,-0.04735479,-0.101135574,-0.14265501,0.08859235,0.07118042,0.052782215,-0.1409802,-0.08108407,-0.09485483,-0.14238879,-0.09957316,-0.1184621,0.04272381,-0.12688428,-0.1321822,0.07294874,0.07034,-0.05125055,-0.026984844,0.0053239777,-0.01894192,0.10739233,-0.030531257,0.05484745,0.13172303,-0.11844543,0.13116087,-0.14003733,-0.1125721,0.08735447,0.13446724,-0.12095937,-0.15390468,-0.037342954,0.02996746,-0.07729227,-0.067767546,0.0062381094,0.06139796,0.04968269,0.055476043,0.08271462,-0.11200434,-0.01661631,0.13182671,0.121474236,0.12119205,-0.07668883,-0.010131165,-0.14452636,0.09601858,-0.14569777,-0.12533773,-0.13475403,-0.049368236,0.1339717,-0.1106939,-0.09510006,-0.075014666,-0.04162967,0.055116493,-0.09276158},
	{-0.066129975,-0.03571332,-0.14413777,-0.0050629894,0.11697482,0.13048625,0.09223221,-0.010266887,0.053932555,0.05069822,0.10782804,-0.0787308,0.03232607,0.058777787,-0.11548612,-0.04931242,-0.10598329,-0.12782897,0.09668364,-0.024997322,0.06350837,0.110704795,-0.005862483,-0.13359913,0.0835276,0.07535242,-0.06045245,0.050887525,0.11371635,-0.089163505,-0.09223847,0.1095399,0.14701469,0.11737096,-0.083713375,0.061974093,0.100055166,0.12080977,-0.082434356,0.15031847,-0.030263042,0.0031923635,-0.029112382,0.02511332,-0.068838425,0.012198524,0.12144173,0.08245193,-0.11490985,-0.060290895,0.16290984,0.061120406,-0.08719419,-0.14917675,0.11661839,0.12561783,-0.110202946,-0.06471482,0.14651366,0.018687202,0.029630918,-0.07672999,0.020052103,0.13057093,-0.13473415,0.022748731,-0.111566655,-0.029943185,-0.13948622,0.14721057,0.069523126,0.01836428,0.093701966,-0.01323225,-0.16150627,0.15892503,-0.12932914,0.0866465,-0.10048544,-0.057693277,-0.095003955,-0.029411279,-0.07628152,-0.012617836,-0.021130713,0.087012306,0.14653845,0.14437605,0.0009125428,-0.09640278,-0.050527982,0.104697965,0.1395238,-0.06844606,-0.11218921,0.008905296,0.008861746,-0.10192952,-0.028055787,-0.12686995,0.06836785,0.08583914,-0.15274563,0.13855578,0.033656515,0.11911079,0.13911726,0.053942703},
	{-0.037767664,-0.12112962,0.032795463,-0.1235673,-0.10191454,-0.06134446,0.12906295,-0.12924424,0.14175542,0.11186397,0.049588032,0.00472938,0.14448325,0.018587118,-0.067896105,0.12939791,-0.14354728,0.08754757,-0.10610323,0.15496586,-0.07542169,-0.014170554,-0.0051360778,0.054834813,0.03539163,0.042754486,-0.15437898,0.004256025,-0.13734257,-0.06567453,-0.14273933,-0.13214539,-0.14833316,0.15570915,0.053459782,0.061434776,0.04337479,-0.0050395112,0.075982265,-0.13334139,-0.06172482,0.16127571,0.027451962,-0.11743637,0.015462428,0.10482441,0.022586543,0.015946308,0.0051267548,-0.068021476,0.079480134,0.05699155,0.0924729,0.063255176,-0.0070096366,-0.10884713,0.07925348,-0.13655183,-0.13655333,-0.04206252,0.14586039,0.009182498,0.077673055,-0.058736846,0.005766384,0.0429036,-0.062327687,0.019230952,-0.15278153,0.09487791,-0.07484235,-0.092017196,0.09108551,0.05475931,0.062356137,0.033829335,0.14966986,0.04740844,0.14982183,0.15121287,-0.00422577,-0.09765558,0.07562803,-0.05248846,-0.020226017,-0.12188958,0.11192705,-0.037933953,0.038142934,0.09128969,0.022161111,0.016511584,0.008410071,0.097160116,0.15235576,0.1518616,0.021047534,-0.1565675,0.1376815,-0.061275218,0.0808683,0.088820204,-0.099048905,-0.06698991,-0.14031366,0.120096974,-0.118250504,0.07625566},
	{0.10901482,-0.11761791,0.13410687,-0.018421263,-0.07198,-0.11898636,-0.007589563,0.15408872,0.04165291,-0.052989118,-0.049053136,-0.04820003,-0.10735996,0.08351455,-0.11655617,-0.15702195,-0.14393504,-0.08586756,0.14397766,0.075789474,-0.021015469,0.09194199,-0.08955127,0.15044345,0.06963522,0.023497522,0.14596607,-0.07830397,0.15969655,0.076435186,0.07411771,-0.110363044,0.1520406,-0.0064979773,0.07592737,-0.07165437,-0.13282908,0.113905996,-0.075929746,-0.07977258,-0.034440205,0.032009978,-0.03568004,0.09321778,0.033641312,0.053229854,0.040441055,-0.13988192,0.042105738,-0.013354942,-0.15065578,-0.04667241,-0.12552515,0.08569375,-0.10681039,0.05970887,0.01921371,0.021159397,-0.055301882,0.13383353,0.04514085,-0.11498913,0.009857893,0.035478354,-0.081083246,0.122235835,0.12880993,0.02875866,0.10843618,-0.03831748,0.031146511,0.112798735,-0.0734504,-0.12600672,0.13434312,0.05668553,-0.10098371,0.054702386,-0.1442671,0.13244717,0.09663149,0.04487677,0.038084958,0.09618713,-0.11537397,-0.03552649,-0.12153968,-0.1331709,0.15799403,0.12625803,-0.00094372034,0.011785406,0.08998201,-0.026471065,0.112034015,0.03147313,-0.07760017,-0.15127334,0.086835854,-0.052883957,-0.06723277,0.022704307,0.08937088,-0.14792272,-0.1066908,-0.14186811,0.010617957,-0.08529101},
	{0.12160035,0.13702565,0.008231103,-0.14632861,-0.13957399,-0.09489929,0.029285248,-0.08655069,-0.0708109,0.124809586,0.06801132,-0.13397701,-0.07381186,0.12270554,-0.0050339946,0.068808205,0.09073424,0.00997698,-0.039204873,0.04088779,-0.023535863,0.047289692,0.12363896,-0.08912645,-0.07016926,-0.103594646,0.01800923,-0.00597552,0.023984147,0.10241259,-0.1478667,0.089972496,-0.097469896,0.045300186,0.11813862,-0.045239415,0.12790789,-0.043104578,0.011974388,0.017243229,-0.13754226,-0.1331668,-0.0061935987,-0.02028835,-0.12914833,-0.09665923,-0.09640236,0.024403887,0.080261245,0.13484733,-0.12473528,-0.0919774,-0.0035105646,0.0042117527,-0.11533217,-0.12962052,-0.09176367,0.13194391,-0.05613991,0.1434204,0.12723297,-0.14899738,0.07207683,-0.007964955,0.006379471,0.0035946195,-0.14219818,-0.12003276,-0.10629816,0.0340468,0.030520022,-0.033149723,0.045220938,0.003549375,-0.16161291,0.12615049,0.014825974,0.0057829176,-0.10809998,0.06540758,-0.028205495,-0.138942,0.09355423,-0.13297623,-0.15061799,-0.008659735,0.046663027,-0.10126852,-0.14466369,0.009932394,0.041924357,-0.048433173,-0.08302076,-0.04582976,-0.12628742,-0.058814928,-0.006517867,0.056386698,0.018895421,0.15414755,-0.03678639,0.0014248842,-0.058914714,0.0035254192,0.1298314,0.05188575,-0.058922343,0.05186341},
	{0.003959164,-0.13713492,-0.0242639,0.087909125,0.124381736,-0.020601168,0.1519515,-0.07360829,0.13315916,0.09490725,0.056982692,0.12745966,0.094573505,0.096129544,-0.023976203,0.088292405,0.1472829,0.036214583,0.05278361,0.09121756,-0.003072449,0.11605838,0.13953862,0.003317575,-0.051914725,0.06670558,0.07177372,0.123568095,0.14740694,0.008044509,0.075106926,0.09922096,0.058476433,0.13725899,0.09764685,0.09532317,0.1047493,0.1488165,-0.08535491,-0.08858918,-0.12556937,0.010865262,0.15338145,0.06839707,-0.0007839205,0.03427162,0.13069087,0.0386151,0.011302548,-0.13345383,-0.15273638,0.11494702,0.035964414,-0.007028495,-0.041832138,-0.006315447,-0.034987364,-0.0017901825,0.027775306,0.020852765,-0.054872252,0.15195693,0.016275568,-0.09310485,0.15635163,-0.0882982,0.023975218,-0.14334609,0.14805387,-0.08818653,-0.13012195,-0.1353223,0.01346062,0.078022495,-0.14565635,0.01573502,-0.08618414,0.08256067,0.13236068,-0.028518831,-0.020556075,-0.030566307,-0.05462405,-0.09476363,-0.009900504,0.09160225,0.12806083,-0.06762114,-0.06847441,-0.06396227,-0.028749421,-0.051395033,0.013349602,-0.06528495,-0.082220964,0.10966053,0.1052394,-0.024953553,-0.02513394,-0.10618304,-0.0397027,0.09885971,0.13372634,0.11920436,-0.12466122,0.0459805,-0.053996235,0.12355698},
	{-0.13284463,0.095533796,-0.14556605,-0.014830338,-0.14255744,0.03198225,-0.041690364,0.045109697,-0.091412224,-0.11905004,-0.095185965,0.12492865,-0.0024213511,-0.01510995,0.108235486,0.0904668,-0.16038518,-0.05937809,0.14179438,0.057473708,-0.0034972504,0.13494685,0.049819488,0.10008462,0.107967824,0.07391146,0.042746656,-0.055750158,0.009115956,0.08496184,-0.009298272,-0.10019858,-0.00036122586,-0.15597527,0.01722216,0.124565445,0.03268016,0.06768239,0.051385235,-0.14729017,0.08429066,-0.14373873,0.1265022,0.11537309,0.12100277,-0.043875042,-0.07260467,0.09906208,-0.07970673,-0.10816491,0.09493313,-0.0059759575,-0.15502158,-0.05922807,0.00842607,0.14704587,-0.030139651,-0.15501727,0.061984375,-0.007999998,-0.01138924,-0.1172695,-0.08835723,-0.12509023,-0.06219771,-0.05011133,0.07773656,-0.06903889,0.037366845,0.14178832,0.0863773,-0.0039794077,-0.09148722,0.06030607,0.085548796,-0.07571314,0.14570187,-0.14468443,-0.109541684,0.018227315,0.05049668,-0.039602224,-0.0388293,-0.13450484,0.025070647,-0.0004968473,-0.12336949,0.041938048,-0.009021056,-0.12163914,0.060622763,-0.0021784047,0.028259395,0.070434794,0.110104986,-0.14559303,0.108539544,-0.0050225738,-0.0028925347,-0.13787848,0.05550459,0.016635306,0.10698165,0.040589504,-0.14376903,0.15423633,0.120338574,0.0026112522},
	{-0.07153637,-0.003871468,0.08532524,-0.14981689,0.03740526,-0.027626267,-0.12559837,0.014580071,-0.061510295,-0.1089187,0.03739182,-0.054329388,0.1414194,0.081406355,0.09885638,0.14604743,0.14233324,0.102862395,-0.14977358,-0.013601577,0.09386069,-0.09456778,-0.15128438,0.021924345,0.1004787,0.082813874,0.056479804,-0.09240709,0.0069860728,0.11329361,0.040288787,0.13536434,-0.10749851,-0.06317544,0.12920511,-0.12814699,0.0074455896,-0.08201073,0.0470119,-0.111438036,-0.1457212,-0.032565862,0.068846084,-0.05234679,0.0982346,-0.06251624,-0.036980603,-0.06102419,-0.034402292,-0.08037831,0.016132796,-0.016778544,0.005189436,-0.13713846,-0.14701936,0.10249102,-0.1299846,-0.14462116,0.03334294,-0.029588647,0.11773063,-0.011734411,-0.14133163,-0.12861446,0.06185032,-0.13916515,0.032636248,0.027504927,0.045114234,-0.10372203,0.050174706,-0.1556042,-0.01283078,0.11246487,0.1346226,-0.045801856,0.068113096,-0.021410087,0.14972638,-0.13601771,0.11540634,0.115484536,-0.003903553,0.15402736,0.0108951805,-0.08469633,0.069367446,-0.14110143,0.046944983,-0.07202526,-0.10167691,0.12399792,0.013013378,-0.1404244,0.0065692975,-0.034247823,-0.05520999,-0.058442187,-0.10852606,0.15481928,0.10298115,-0.0027269702,-0.11987424,0.072634265,-0.008408191,-0.1323474,0.017063307,-0.041006748},
	{0.00084813696,-0.11414328,-0.05939466,-0.01770196,-0.0890782,-0.029080728,-0.14195122,-0.023550555,0.11676529,-0.121946506,0.13991955,-0.087186426,0.13682175,0.13826148,-0.07984853,0.10083263,0.054258358,-0.14741237,0.13929705,-0.019894602,0.11972345,-0.11071653,-0.05448705,-0.0016834196,-0.11077619,-0.066399775,0.04569651,0.05449617,0.01876917,-0.036067966,-0.09618789,-0.055495515,-0.10849878,0.057269093,-0.10346722,0.13268214,0.08838878,0.04430591,-0.09138527,0.023477089,0.067830615,0.13233256,-0.055558853,0.034809753,0.10857509,0.11417578,-0.05897453,-0.107805245,0.15535387,0.10170697,0.088375404,-0.07483394,-0.117142394,0.076371804,0.034851868,-0.11707561,0.016053176,0.12781551,-0.09201946,0.09871876,0.0176487,-0.130364,-0.09395791,-0.075040616,-0.038345467,0.12891349,0.114959896,-0.038360648,-0.12240161,0.020837441,-0.07045179,-0.11946607,-0.14455049,0.043478247,-0.044101626,0.06859098,-0.045479268,-0.047715355,-0.09964275,-0.04259861,-0.14895105,0.12570508,0.15152422,-0.15031111,-0.012644903,-0.027716774,-0.06817741,-0.0006243754,0.07604992,0.078960866,0.04649955,0.13431491,-0.09697167,0.09856923,-0.0019632208,0.012516125,-0.060040645,0.13395122,-0.082820326,0.07159316,0.031801786,-0.05560356,0.09388088,-0.09068306,0.09240643,-0.05505257,-0.12931469,-0.031036647},
	{-0.060026124,-0.124829754,-0.10928291,0.105274096,-0.015301334,0.15188073,-0.13549706,0.074521236,-0.10877638,-0.07494083,0.033771742,0.00095614,0.07674075,0.050289225,-0.12343679,-0.052218,0.045172833,0.024152938,0.0064231143,-0.04483131,0.01574073,0.11068039,-0.041002788,-0.11772825,0.035940617,0.15594403,0.07642739,-0.088593364,0.03227406,-0.12570977,-0.13757105,0.043380495,0.1317098,0.13293163,0.034965787,-0.039605547,0.023855386,-0.144362,0.04634126,-0.05500256,0.02474034,-0.0709097,-0.059625145,-0.11786602,-0.08239093,-0.098434344,0.013778397,0.01456444,0.10408546,0.038487762,0.046165433,0.038531143,-0.1016991,-0.038761687,0.08834056,0.1050986,0.034711137,-0.114141144,-0.15058184,-0.15700708,-0.099524304,-0.13607429,0.11895553,-0.058875363,0.14386979,0.11830724,-0.018883478,0.038944818,-0.12239672,-0.04531311,-0.009401947,-0.028149564,0.12161442,0.11815702,0.08964015,0.07567603,0.14524767,0.036756594,0.14265035,0.11335642,-0.0026111458,0.051873628,0.12731625,0.09206225,-0.07178578,-0.070890255,0.031939477,0.109610595,-0.073465586,-0.074611,-0.026171468,-0.062738456,0.010899667,0.07361061,-0.099061795,0.08068761,0.045772705,0.14283724,-0.042003896,0.030562712,0.115768865,-0.0413368,-0.01659958,-0.13451172,0.04811268,0.15896657,-0.06948245,0.03236832},
	{-0.0029412685,0.004568264,0.019931156,0.14850345,0.111131154,0.13036649,0.12644416,-0.0721013,-0.1510826,0.07964712,0.08973273,-0.12683707,0.05519679,-0.08873848,0.14773753,-0.069325686,-0.015699899,-0.15407097,-0.14763026,0.008214196,-0.097836785,-0.02964854,0.04870454,-0.035127465,-0.019455664,0.11544928,-0.019125689,-0.029953446,0.15873191,0.103877254,0.019882493,0.10781146,0.06736529,-0.017504413,0.024348462,0.03708361,0.13133349,-0.01746663,-0.13365714,0.023747481,0.051254313,-0.04035261,0.15154934,0.06743339,-0.024175655,-0.086525664,0.050312694,0.09544843,0.15625192,-0.01652819,0.13553555,0.13230206,-0.120506614,0.032710962,-0.037394058,-0.09631598,-0.008335782,0.15060635,-0.013939493,-0.02094618,-0.05096184,-0.022276,0.124576904,0.037645444,0.11580132,0.12241563,0.07315811,-0.029250875,-0.08414626,0.043059386,-0.07839271,0.15439343,-0.065167174,-0.05217572,0.007841175,-0.07114691,-0.082738504,-0.05339394,-0.13936839,0.09067201,-0.11569638,-0.09832213,-0.071244925,-0.14133365,-0.05111398,0.0005317647,0.15294227,-0.055520445,-0.014966077,-0.009848621,-0.12241806,-0.15066151,0.13123892,0.1291885,-0.04248976,0.14359033,0.11909799,-0.006509601,-0.00019718392,0.014450256,0.12233769,0.14331974,-0.06682726,0.1503746,0.020386677,-0.069313504,0.067065544,0.06686891},
	{0.09160861,-0.02308512,0.026257453,0.10075455,-0.12540495,-0.043984767,-0.115276545,0.009894187,-0.1393035,-0.01194309,-0.11144656,-0.039327975,0.13697827,-0.10017186,-0.13798782,-0.021620935,0.048987184,-0.030626351,0.06533,0.09676006,-0.064976014,0.010295512,0.04976962,0.018680502,0.023323368,0.09536684,-0.12419633,0.08519709,-0.01851056,-0.096816525,0.056181673,0.15839666,0.046061832,-0.15747845,0.030577784,-0.1168242,0.1262214,-0.14576904,-0.024619952,0.12055892,-0.106880985,-0.062206328,-0.093537815,0.110260576,0.08778958,0.052886833,0.021795832,-0.11562201,-0.041910693,-0.037712626,-0.12310046,-0.11889993,0.14246292,0.02562053,0.1502572,-0.056760427,0.0005779176,-0.04663673,0.030042378,-0.079258695,-0.07063698,-0.15354232,0.12037949,-0.1466966,0.030168245,-0.15799397,-0.13045737,-0.12776077,0.056104377,-0.12078792,-0.022211976,0.10216984,0.08019601,-0.13595113,-0.09251002,0.15513305,-0.06999183,-0.04369221,0.101389304,-0.024693282,-0.09749453,-0.004081442,0.099556684,-0.12044934,-0.06353828,-0.09291813,-0.08725307,-0.028923053,-0.14160922,0.14811637,0.07206361,0.12528917,0.028118778,-0.042403556,0.019675858,-0.032648426,-0.13534008,0.11875321,-0.044468332,0.14680988,0.083851196,-0.14462958,-0.080738954,-0.073017456,0.12135963,0.026668292,-0.05713035,0.009053165},
	{0.042858392,-0.13915622,-0.063580774,-0.08213043,-0.052768245,0.032485534,0.14458512,0.033184588,0.108757615,-0.026863085,0.030947533,-0.13060963,0.11418038,-0.11074525,0.043575615,0.11574079,-0.08124955,0.09712751,0.052172787,0.15482578,0.12060689,0.12602201,0.0246159,0.15329696,-0.062090263,0.08093707,0.087914735,-0.047761086,-0.079658896,0.1315207,0.030399866,0.122252785,0.043515395,-0.101244956,-0.029756008,0.03138065,0.090612836,0.12946503,0.14206329,-0.11019766,-0.15811971,0.07313787,-0.03969033,-0.029425211,0.0018449496,0.12217714,-0.10900216,-0.1285108,-0.019730164,0.12856852,-0.13108703,0.10178192,0.07369861,-0.13146836,0.10884601,0.13236932,-0.14370576,-0.039562173,-0.08513849,0.06163752,0.035584956,0.04679221,-0.10674337,-0.1464621,0.046390135,0.09064713,0.09507039,-0.076268815,-0.13661462,0.03246893,-0.036650963,0.019684047,-0.021510711,-0.15636913,-0.057258982,0.0007863992,-0.12812927,0.060660467,-0.008387074,0.15592025,0.05950898,0.051234342,-0.12478009,-0.12385206,0.119914815,0.061988786,0.13172609,0.08524069,0.020041687,-0.072226346,0.108488634,0.107609846,-0.07446553,-0.041281506,0.08132966,0.111996256,0.079313345,-0.11015544,-0.08512739,0.024448313,-0.10051839,-0.15550707,0.14035739,0.12169636,0.076112255,-0.09783635,0.04465376,-0.01757926},
	{0.050670505,-0.15576795,0.1256592,0.11509846,-0.001288925,0.15411076,0.08895698,-0.0668371,-0.020053074,0.022689413,0.02295473,0.14186834,0.05462577,0.05948763,-0.11582963,0.028960962,-0.070422776,0.14825122,-0.10331147,0.14865561,0.062248632,-0.05923531,0.08939175,0.01914823,-0.114463724,0.114440285,0.0049991,-0.03845583,0.119386815,0.03417128,0.12734629,-0.023228198,-0.07948576,-0.14090325,0.020456558,-0.011052105,0.005405456,0.14942375,0.14568487,-0.05733523,-0.026277944,0.02132398,0.024222193,0.15004356,-0.11681059,-0.15501003,0.10386008,0.06800639,-0.14920743,-0.13742565,0.113201536,-0.09244951,-0.120599166,-0.020330764,-0.078452505,0.043236677,0.09099152,-0.13851109,-0.033408068,0.01869848,0.075610474,-0.095092125,-0.13991337,0.14067279,0.057849027,0.011165625,-0.14888485,-0.13830969,-0.092429265,0.10015787,-0.12846915,0.10911575,0.043808114,-0.0039404817,0.09399797,0.13750692,0.021582795,0.11674037,-0.09076659,-0.0932587,0.06199768,-0.0020823104,0.034819856,0.022250518,0.08687842,0.07629879,-0.060409956,0.055576988,0.034783367,0.078459814,-0.10978882,0.08689302,-0.106011555,-0.11972832,-0.015843727,0.023532484,0.13764858,0.114838295,-0.13706183,-0.12826915,-0.104870334,0.03788605,0.07699095,0.13343427,0.12629679,0.047985833,0.09542672,-0.14650835},
	{0.079780966,-0.12935628,-0.15410309,0.0033167494,0.14357351,-0.08045389,0.02369153,0.016868772,0.03837637,0.10018662,-0.14757384,-0.14563756,-0.029370748,-0.034124494,0.039739884,0.1160488,-0.04579555,-0.09008674,0.09687008,-0.01893782,0.07659483,0.020676918,-0.014956099,-0.057990685,0.032934792,-0.029795088,-0.15213476,-0.14005809,-0.053138368,-0.12386142,-0.081780665,-0.084300414,0.028051745,-0.0622483,-0.0068853,0.1338377,0.07397626,-0.098400384,-0.09528179,0.023139471,-0.060209315,0.03508993,0.0026276254,0.11168294,-0.10455908,0.03154972,-0.08456299,-0.046786793,-0.011586905,0.010956749,0.11099297,-0.10859418,-0.09904423,0.11047811,0.032240927,-0.022124952,0.042291448,0.035127494,0.08128313,0.11219693,-0.15502085,-0.14509217,0.014336921,0.12047458,0.03377377,0.021840995,-0.1399609,0.06950234,-0.004679298,0.017240493,-0.12048246,0.14359444,-0.05884968,-0.04397225,0.002804106,0.034529246,-0.044325147,-0.0089845145,-0.013986066,0.08815651,0.10384927,-0.008282775,-0.1440703,0.12812364,0.021458263,0.08195089,0.008571476,-0.0059047183,-0.10384601,-0.11764287,0.033235252,-0.017374597,-0.060763497,-0.116922185,-0.017698327,-0.08530505,0.05707261,0.1339569,-0.14115052,0.115488455,0.1367629,0.09802316,0.07086238,0.067274444,-0.11409624,0.10803561,-0.13914555,-0.072196886},
	{0.0949101,0.032801017,-0.011547359,-0.0021874872,0.06652462,-0.11246291,-0.008297807,0.07350718,0.039951697,-0.15710776,0.027683638,0.05965489,-0.15546134,-0.02600306,0.03524049,5.753446e-05,-0.0034975617,0.12591474,-0.03592412,-0.009597987,-0.14002617,-0.07493241,0.0825673,-0.13122053,0.064870946,0.019911598,-0.027779184,-0.107831486,-0.06552057,-0.14216003,0.148003,-0.07222515,-0.030128164,0.154306,0.06549514,0.011241121,0.041820783,-0.064614825,-0.15315711,0.14564006,0.0062922733,0.01372774,0.086747766,-0.08828217,-0.04176805,0.12651235,0.15939389,0.03817037,-0.14196852,0.070812166,-0.15589921,0.05047868,0.0031795055,-0.14159794,0.096280776,0.059187535,-0.11918703,0.12916304,-0.10939702,-0.03453601,-0.15643662,-0.12769267,-0.044904944,-0.05885332,0.037745,-0.14173894,-0.092608206,0.06743328,-0.04014735,-0.0446825,0.048839383,0.12836628,-0.030944414,0.06104634,-0.118663386,-0.14002658,-0.07751899,-0.10250475,0.09212388,-0.11617314,-0.07626097,-0.035948988,-0.09034588,-0.12517083,-0.12202026,-0.034834288,0.03468262,0.08017777,-0.06831297,0.0568469,0.10770178,0.10010189,-0.14772533,0.12965752,-0.075067624,0.03557238,0.039255045,-0.13942775,-0.0048798025,0.033445198,-0.08940676,-0.10390753,0.14224507,-0.018593894,-0.015237328,0.11973753,0.14391443,-0.042220578},
	{-0.13867737,-0.12816305,0.048658133,-0.06154292,-0.1497039,0.016019626,-0.03141916,0.030361503,0.02776256,-0.07773409,-0.07120231,0.12371865,-0.035407636,-0.12656514,-0.15714021,-0.07493756,0.06933521,0.046150826,0.15100889,0.0134134125,-0.062168177,-0.04180578,-0.07620425,0.11856251,-0.06500014,-0.024405936,0.087068744,0.13948338,-0.11496393,-0.06395676,-0.07385384,0.08281372,0.10802214,0.023074467,0.024845991,0.096368425,-0.04955386,-0.06225752,-0.14807035,0.12176679,0.06866651,0.017864607,0.02127325,-0.073326044,0.0052087074,-0.15716511,-0.04556779,-0.08822285,-0.13308224,-0.12199988,-0.058050975,-0.09916198,-0.030477509,-0.0066218185,0.053711224,0.10665826,0.12296778,0.03085964,-0.14297701,-0.009334859,0.039711986,0.092566304,-0.029592773,-0.14928015,-0.1294129,-0.0015188132,0.10256612,-0.07912329,-0.11171233,-0.060860425,0.045672648,0.11595831,-0.00390475,0.09620851,0.08687635,-0.099570654,-0.09792132,0.090780966,-0.09339182,-0.14994992,-0.05358562,0.035438564,-0.09038866,-0.04884796,0.090093516,0.10896485,-0.063451365,-0.061229587,0.0452909,-0.058590524,-0.094698295,-0.0023927279,-0.020089434,-0.03621324,0.018567724,-0.061825294,-0.079519406,-0.01118476,-0.020607356,0.05836598,-0.026261315,0.119630165,-0.06218695,0.10009805,0.01740855,-0.086893015,0.013444408,-0.14019927},
	{0.07552327,-0.038060896,0.09545515,-0.08626857,0.0689076,-0.07635059,-0.054064345,0.15374096,-0.06254454,0.019715628,0.13537951,0.07111812,-0.13075782,0.12022926,0.1292503,0.117143646,-0.12695284,-0.009120221,0.015956238,0.14128523,-0.05373924,0.12784901,0.0020687298,0.1262475,-0.022848347,0.13525218,0.12856755,-0.057037912,0.12766083,0.10382186,0.105211385,0.0880518,0.08920054,-0.10357193,0.062222082,0.10569504,0.04252564,-0.130829,-0.15075155,-0.11146708,0.12453301,-0.012467871,-0.028396113,-0.00293066,0.06921136,0.11958805,-0.15731543,-0.15512514,0.14467521,-0.07382146,0.138516,-0.0017315149,-0.05250766,0.025264129,-0.044581957,0.13644946,-0.09416201,-0.025576547,0.002759094,0.024684422,-0.15572338,-0.081410386,0.054792907,-0.14433311,0.026122628,0.046131637,0.14814529,-0.07544891,-0.050188698,-0.051691987,-0.12706272,-0.10962132,0.119954266,-0.024045864,-0.035752114,0.11424448,-0.011666635,0.12744026,0.08426434,0.12081112,-0.011569882,0.032912668,0.12840267,-0.08751361,-0.063482426,0.0052597076,-0.11787208,-0.039491802,-0.079402015,-0.13671468,0.053780895,-0.139387,0.014784673,-0.15039167,-0.09947171,-0.078640915,-0.03456213,0.09083779,0.11966847,0.029129632,-0.03093679,-0.14867604,0.09319176,-0.0035285805,0.116046205,0.009195986,-0.005275161,-0.118710615},
	{-0.124839135,-0.09996937,0.024418885,-0.10115962,-0.020733258,-0.13277669,0.123444565,-0.12981649,0.041104898,-0.13133031,0.14104588,-0.14466135,0.12925047,-0.14636219,-0.060871694,0.04143676,0.06360608,-0.16085574,0.092535295,0.0020806855,0.010063213,0.011160511,0.07553131,0.077089466,0.039931826,-0.026761157,0.07979391,-0.13595323,0.1462325,-0.06259579,-0.11249187,0.15462165,0.048736554,0.050856963,0.11686242,-0.13616647,0.10730474,0.022810794,0.04803071,0.020975906,-0.029238934,-0.055981897,0.11799905,-0.080405995,-0.14100698,0.04695687,-0.022783866,0.08730171,0.095110685,0.15740858,0.099087566,0.1273375,-0.13658078,-0.0030126418,-0.09178176,-0.07508378,0.064177275,-0.015160212,0.1528129,-0.050935242,-0.15572423,0.06729933,-0.14265662,0.14933124,0.025440853,0.0077814497,0.052450944,-0.14250758,0.054578066,-0.106537014,0.028413083,0.00010985136,0.139923,-0.0014489583,0.09505516,-0.11822381,-0.10620136,-0.014412614,0.10504793,-0.06895239,-0.033109967,-0.00042225674,-0.04747846,0.14241399,-0.053590123,-0.12741327,-0.13502721,-0.0826415,0.14338726,-0.057454452,0.103661515,0.020555997,0.031537697,-0.01832714,0.11547643,0.13819152,0.14045542,-0.15729967,0.06836747,0.008158464,-0.10454855,0.092874676,-0.030402109,0.14574492,-0.100624666,-0.12037026,0.05226058,0.10058239},
	{0.010296326,-0.14317529,-0.0009432588,0.13070443,0.009356881,-0.08127042,0.12985508,0.07895763,0.019910768,0.12812309,-0.04105501,0.09646684,0.15248851,0.05294652,0.07100775,-0.15461792,0.00073184073,-0.096912645,-0.09876625,0.116581306,0.0072384253,0.06418617,0.080313824,-0.10503749,0.048488867,0.12750626,0.032115594,0.04904471,-0.013920615,0.059321266,0.027502678,0.04071311,-0.13307673,0.035916492,-0.07793749,-0.12705374,0.09819625,-0.10032012,0.15394588,0.11004262,-0.086299874,0.11927433,0.095862195,-0.07209083,-0.0799258,-0.07822113,-0.043753404,0.12567863,0.001496561,0.085079685,-0.006649229,0.003413558,-0.105235144,0.011849097,-0.1098812,0.143116,0.073188916,0.057700466,0.10774297,-0.08265126,0.07776476,-0.014282823,0.10491348,0.011620004,0.028194785,0.038205985,0.024966044,0.11003061,-0.050987653,0.024970945,-0.060071528,0.1218246,0.13699593,-0.061232224,0.120355695,0.037212588,0.13331461,-0.012074962,0.07932979,0.006145309,0.028042749,-0.10485023,-0.13276875,-0.096141085,0.08662403,0.14474978,-0.063620105,-0.050816223,0.1319093,-0.0027132651,0.11144225,0.028346503,-0.0372566,0.019810975,0.04049027,-0.03625738,0.11339495,0.02000628,-0.0048611015,0.1351087,-0.015240519,-0.13370466,0.029215813,-0.06563824,-0.09800399,-0.14028743,-0.129285,0.018117161},
	{0.015905963,0.043067038,0.04866736,-0.123841874,0.056335457,0.15562938,-0.061433896,-0.13478658,0.13355422,0.059319463,-0.08115915,0.06801564,0.06783325,-0.07616715,-0.11588705,-0.1516798,-0.12275914,0.068249285,0.0033857687,-0.077332,-0.1466228,-0.119093634,0.061309505,0.063636325,0.012119827,0.041808996,-0.15782833,-0.08867986,0.107264,0.066330895,-0.023389297,-0.06285199,0.0929585,-0.051213346,-0.05130376,-0.14227264,-0.13635592,0.028431498,0.10902317,0.016402613,0.11038435,-0.03245845,-0.14199865,-0.022654643,-0.054131553,-0.13256584,0.022820374,0.05649951,0.11630098,-0.0082527995,0.13727458,-0.057533503,-0.0286375,0.0801,0.1295712,0.11834957,-0.12108027,-0.010854995,0.072417974,0.091632284,0.118580684,-0.1164591,0.121313736,0.06618084,0.07804842,-0.03826566,0.13680822,0.059455805,0.14406468,0.037585672,0.015163582,-0.15259492,-0.06025042,0.089529194,-0.04382338,-0.08915887,-0.112575464,0.08946703,0.048302934,-0.014815076,0.045045853,0.01619554,0.096235245,0.12639223,0.14340566,0.009402648,0.017524496,-0.14714472,-0.01676081,-0.15441468,-0.102368414,0.078812644,-0.09808751,0.13231651,0.11883524,0.03670596,-0.13516058,-0.1475249,-0.15205638,-0.048470046,-0.026080994,0.0053177914,-0.07559373,-0.116986595,-0.016494773,0.0028789137,-0.15710136,0.13127479},
