// include/conv2d_18_weight.h
// sergio rivera 
// 2020/02/14 21:12:52 

const float conv2d_18_weight_p[3][3][4][14]=
{
	{
		{
			{0.031094044,0.10175197,0.047394216,-0.0758292,0.016845047,-0.17513983,-0.12125597,0.18234302,-0.018605918,0.06208767,-0.008525282,0.09888886,0.12197767,0.16266705},
			{-0.13666558,-0.1850295,-0.06739968,0.10616486,-0.13103446,0.005042523,-0.0056990236,0.035016134,-0.14387758,0.03990072,0.18596525,-0.03343512,-0.014412656,-0.015407056},
			{-0.038392067,0.16462444,-0.07527084,0.09044962,-0.032347858,0.19129427,-0.0486556,0.1916006,0.18784557,-0.12944144,0.07433532,-0.13557306,-0.120209135,-0.13765594},
			{-0.026760593,0.17070301,0.13590859,-0.08825978,-0.06621759,0.057147667,-0.13925366,-0.13323331,-0.1425827,-0.05527465,-0.19077502,-0.11408907,-0.124001965,-0.055083305}
},
			{{-0.10987223,0.12733836,0.08746643,0.02490227,0.010237068,-0.013633594,0.04516253,0.15016942,0.16070534,0.03615859,0.19061296,0.1707138,0.1744485,-0.1656402},
			{0.08524461,-0.11538598,-0.18532224,0.10225852,0.14842044,0.048142716,-0.16549802,-0.057885706,-0.10075588,0.14710616,-0.075028986,0.06840159,0.064027,0.13584028},
			{0.08065666,0.07512356,-0.18437406,0.15027176,-0.028120726,0.17227285,-0.07878255,-0.1452341,-0.15216267,-0.082658805,-0.079385966,0.16713823,0.011113346,0.08334343},
			{-0.14752865,-0.14657968,0.1288427,-0.040314734,0.07945497,-0.086118475,0.14074694,-0.16998677,0.12289186,0.030030549,0.13620032,0.017099515,0.08041854,0.019704655}
},
			{{0.17586283,-0.03141655,0.11363198,-0.12875634,-0.041473657,0.1301847,0.110808715,-0.099133104,0.08692695,-0.07383937,-0.0015108138,-0.12638572,-0.14479338,-0.16388443},
			{-0.03706819,-0.18689133,-0.13364534,0.09617911,-0.15136631,0.077654555,-0.033483937,-0.045921892,0.082678035,0.17672314,-0.12361742,-0.17659324,-0.10574357,0.18508463},
			{-0.07443837,-0.11907245,0.09301205,0.1759655,0.1861827,0.1336713,0.1731983,-0.12971054,0.08406977,-0.053655222,0.1647587,-0.18358123,0.15809353,-0.063698515},
			{-0.18938969,0.04772605,-0.17837647,-0.02439998,0.1112435,-0.0010087043,-0.104316585,0.065863326,0.09890528,-0.040786684,0.00884366,-0.14377366,-0.011610404,-0.17581396}
}
},
			{{{0.14215662,0.18064515,0.16007985,0.01299642,0.124588236,0.19073097,0.091374055,-0.03400986,-0.17165786,-0.0836849,0.1891958,-0.1792978,-0.080224305,0.09456189},
			{-0.18516968,0.107979015,0.0017745495,-0.18372558,0.12462281,0.1516578,0.15960352,-0.10997542,-0.06849332,-0.056124687,-0.13646498,-0.18717612,-0.14743173,-0.10949479},
			{0.071215555,-0.09045481,0.10672186,-0.011826202,0.0038555562,0.1442068,-0.11615572,-0.07296776,0.08488445,0.056834683,-0.18398574,0.18513556,0.067004815,0.1246687},
			{-0.139762,-0.1318356,-0.012948692,0.034252852,-0.08554296,-0.18526067,-0.014639869,0.14141317,-0.10191554,-0.046596304,-0.18685095,0.09052785,0.1570618,-0.08044473}
},
			{{-0.16225088,0.048467577,-0.19062653,-0.10678848,0.050481766,0.15518545,-0.12381027,0.1799524,-0.13509572,0.101328924,-0.09266943,-0.07278495,-0.0992463,-0.040699735},
			{0.11524357,-0.028569832,-0.16432184,0.07906373,-0.1731878,-0.0019341856,-0.055387154,0.13922857,0.17535256,0.1050988,0.04384327,0.026330158,-0.13143934,0.11296837},
			{0.0601853,0.124769464,-0.060341537,0.1449212,-0.14286563,-0.085730076,0.058642045,0.07708733,-0.023219153,0.056281835,0.17490385,-0.04406944,-0.1523697,-0.18580347},
			{0.14336543,-0.14901504,-0.17594573,0.018744037,-0.18049262,0.094148085,-0.097861946,-0.111026615,-0.10582662,0.10741754,-0.02173753,-0.0027511418,0.066554174,0.13337879}
},
			{{-0.078945026,0.064198926,-0.16840295,-0.111374415,0.18686445,-0.17174233,0.0051425546,-0.06432694,-0.08011923,0.12916873,-0.18396316,0.081464216,-0.012287825,0.18100928},
			{0.11970638,0.11820917,-0.18666081,-0.020233467,0.104660526,-0.10454747,0.12495448,0.15161897,0.11570518,-0.13664892,0.045720562,0.18753605,-0.15371877,0.110356495},
			{-0.042490765,0.13781975,0.016842708,-0.074679404,-0.10485223,0.080304965,-0.11701412,-0.089914024,-0.15256837,-0.043840244,-0.121533014,-0.118540205,0.18914391,-0.023544014},
			{0.08603905,-0.11674744,-0.15529817,0.109391645,0.0703706,0.09382601,-0.14512704,0.02288279,0.045235574,-0.1396466,-0.12733813,-0.14616713,-0.044636965,-0.16176543}
}
},
			{{{0.05052641,0.07641138,0.15571089,-0.02003923,0.00167723,-0.12346251,0.16398712,0.16779198,-0.1547992,0.07847746,0.070146784,-0.07939771,0.04210952,-0.057887807},
			{-0.18376808,-0.022055224,-0.118044704,0.037664667,0.1555831,0.18794312,-0.16408163,0.008125588,-0.056186944,0.14359818,0.10810886,0.11339523,-0.1774198,-0.15127811},
			{-0.14259481,-0.12185576,-0.1258443,-0.18696553,0.06809123,-0.066215426,-0.0911537,-0.09896127,-0.038661957,0.07006772,-0.17971663,-0.09809283,0.020707712,-0.03886026},
			{-0.029623285,-0.05603525,0.018577427,0.097648546,-0.09157267,-0.07508786,0.10553442,-0.14760907,-0.17848617,0.0021459311,0.17914952,-0.08560559,-0.059170127,-0.1340788}
},
			{{0.12608151,-0.13632381,-0.033655673,0.043348327,-0.04994227,0.014629096,-0.038727522,0.0651996,-0.17232376,-0.11646911,-0.16580604,0.0029438436,-0.08993646,-0.05656448},
			{-0.015513405,0.004278466,0.17871977,-0.043988183,-0.08670299,-0.1736805,-0.030140802,-0.022331178,-0.13502662,-0.019621372,0.1626509,0.1420127,0.19049118,-0.041131735},
			{-0.044623435,0.08254658,0.1063907,0.18370746,-0.06743419,-0.057822615,-0.18919799,0.11452235,-0.12201149,0.07060476,0.18806256,0.039517403,-0.12284694,0.03832209},
			{-0.06356917,-0.09862683,-0.11765534,0.118380174,-0.14423332,-0.020963565,0.056300595,-0.10996932,0.13380624,0.050277174,0.16486599,0.17397548,0.14224188,0.15612157}
},
			{{0.14208482,0.0782838,-0.006024167,0.10424639,-0.019763663,-0.16253072,0.13206728,0.060976014,-0.18340619,-0.10765265,0.09265052,-0.01964578,0.045025975,-0.13636217},
			{0.08201547,-0.07065898,-0.022034496,-0.18522029,0.026921198,0.16630186,0.024320006,0.054089785,0.16220315,0.072352186,-0.029677749,0.0359222,-0.14860278,-0.088403665},
			{0.18997179,-0.08306969,0.0068532377,0.022375822,0.114303574,-0.1182661,0.16775165,0.08616109,-0.13627288,0.07180907,-0.05830288,-0.14915214,-0.19222553,0.08311047},
			{0.15714855,0.02478613,0.117884055,0.13973282,-0.118066505,-0.17445818,-0.07485119,-0.020494178,-0.02566439,-0.12056551,-0.14361468,0.08645351,-0.0024588108,0.019922972			}
		}
	}
};