// include/conv2d_8689_weight.h
// sergio rivera 
// 2020/02/14 17:00:37 

const float conv2d_8689_weight_p[3][3][3][8]=
{
	{
		{
			{-0.09873616,-0.20853648,0.03869221,0.09391323,-0.10444084,0.21036185,0.14006984,-0.020720454},
			{0.19919102,0.20018938,-0.02432955,-0.22484867,-0.028947856,-0.13975884,-0.090108044,-0.24753185},
			{0.21848543,0.17890973,-0.2021455,0.16795272,0.038487818,0.23958279,0.001235249,-0.11287859}
},
			{{0.24186653,-0.1306741,-0.069189854,-0.011815022,0.16344143,0.100967534,-0.04476559,-0.089379855},
			{0.06580045,0.0693945,-0.008223423,-0.19425067,0.14359976,0.0045299614,-0.1777946,-0.0597953},
			{0.11381392,0.2337639,-0.028829487,-0.025913864,0.13652258,-0.04770558,-0.09105501,0.1447343}
},
			{{0.17804202,-0.09666486,0.03521272,-0.20803884,0.1332286,-0.004812551,-0.05900845,0.026247043},
			{0.16522174,-0.16797893,-0.17164782,-0.002124484,0.010852394,-0.019004533,-0.078179814,0.059975233},
			{-0.08737325,-0.14013617,0.028769845,-0.08066503,-0.10706094,-0.13950163,0.020016406,0.048248194}
}
},
			{{{-0.08307596,0.22264823,-0.23443805,0.11133182,0.19468772,0.00561847,0.01211665,0.10257149},
			{0.16851379,0.13580452,-0.14902824,-0.052108776,0.02600357,-0.024453238,-0.16569653,-0.03710853},
			{-0.20705165,-0.22971171,0.23469137,0.03138559,0.0023243448,-0.022318795,0.030372353,-0.24192505}
},
			{{0.10178895,-0.027678786,0.041526727,0.13134573,0.1826971,0.100538485,0.14271143,0.09295917},
			{-0.15423162,-0.06285834,0.19562657,0.2173611,0.13881898,-0.072021306,0.219141,-0.17411539},
			{-0.22126353,0.022225082,0.13394508,-0.1271002,0.19604579,-0.13673954,0.14083318,-0.004583188}
},
			{{-0.14502066,0.085537985,-0.04071833,-0.073400564,0.22085726,-0.03941194,-0.21116659,-0.093269505},
			{-0.045929484,-0.015824934,-0.15903385,0.23291077,-0.19530992,-0.006402938,0.21155503,-0.22805494},
			{-0.023173599,0.16199592,0.029899474,0.043067418,-0.15486544,0.17541932,-0.21033987,0.17243484}
}
},
			{{{0.047069643,0.019623553,-0.08861935,0.04285163,0.076692976,-0.09194634,0.19680342,-0.064429164},
			{0.1362627,0.13377647,-0.05295694,-0.18211317,-0.051540475,0.16651903,0.041343633,0.10334669},
			{0.04938994,-0.1948131,-0.1930067,-0.112316035,-0.05863949,-0.037948847,-0.21391554,0.066080526}
},
			{{0.13872811,0.1914431,0.1266956,-0.170932,-0.17379081,-0.19556141,-0.090318166,-0.18031608},
			{-0.096897796,-0.21476674,-0.015905345,0.19264238,0.16837499,0.13886976,-0.08338981,0.17024545},
			{-0.13048902,-0.21380846,-0.10004388,0.08609947,0.0011816262,-0.00976171,-0.07943721,0.24340563}
},
			{{0.2312759,-0.07524848,-0.14889583,-0.025397202,-0.17565536,0.15887567,-0.074978605,0.15000303},
			{-0.054489683,0.16531016,-0.044127032,0.12145003,-0.06334747,0.030746276,-0.18094133,0.091404445},
			{-0.16211943,0.12159058,-0.054347172,-0.046352074,0.011081972,0.032923523,0.028199023,-0.048893042			}
		}
	}
};