// include/conv2d_728_weight.h
// sergio rivera 
// 2020/02/15 00:16:47 

const float conv2d_728_weight_p[3][3][4][4]=
{
	{
		{
			{0.1844626,0.060368445,0.2241453,-0.08137938},
			{-0.19290224,0.26410696,0.27781388,0.25342104},
			{0.07627392,-0.28532192,0.1161663,0.0851268},
			{0.13124,-0.25440368,-0.22066477,0.254172}
},
			{{0.2463482,-0.052593056,-0.0707656,-0.12509489},
			{0.21322186,-0.19316745,-0.055120796,0.17570408},
			{-0.10770267,0.14650624,0.26476818,0.16909978},
			{-0.06802737,0.19714385,-0.20641895,0.12961549}
},
			{{0.22363009,0.20582557,-0.27631894,-0.1057223},
			{-0.07275121,-0.2601048,-0.12254465,-0.20385411},
			{0.049634434,-0.008856218,-0.21784183,0.057533056},
			{-0.16622923,0.17797229,-0.04967339,-0.13862734}
}
},
			{{{0.033943307,-0.117542535,0.13770422,-0.18171664},
			{0.11867519,-0.27876425,0.27419883,0.23938674},
			{-0.26872447,-0.09157386,-0.1240211,0.094418176},
			{-0.22121058,0.048951667,0.20239434,0.26372945}
},
			{{0.10951723,0.03815434,-0.13088919,-0.001580536},
			{-0.23577541,-0.07924183,0.24379708,-0.068672284},
			{-0.21646817,0.12596178,0.18788545,0.16914976},
			{0.26212004,0.20980911,-0.15979914,-0.27213156}
},
			{{-0.12977523,-0.027266555,-0.105110124,0.015658436},
			{-0.21400924,-0.061199427,0.18088286,0.113399066},
			{-0.098093174,-0.099751726,0.10718714,0.013150776},
			{-0.18517572,0.047523253,-0.1172075,-0.07167245}
}
},
			{{{0.17544699,0.20367439,0.23171127,0.2655646},
			{0.030505897,-0.14142455,-0.004051321,0.044742037},
			{-0.24708225,-0.076921955,-0.12323347,-0.23774973},
			{0.25670478,-0.20322712,-0.18195923,0.15910026}
},
			{{-0.11242132,-0.03233669,-0.06039788,0.26522642},
			{0.17056604,0.08784629,0.032628875,0.28824085},
			{0.036549143,-0.15843637,-0.07237924,0.23978475},
			{0.15805109,0.012876916,0.17650664,0.06015456}
},
			{{-0.16373149,-0.040723898,-0.24589866,-0.070692874},
			{-0.03786081,0.23352528,0.13856448,-0.25446698},
			{-0.03275238,0.097090416,-0.08837014,0.085547745},
			{-0.05068838,0.2011312,-0.14504267,-0.10006121			}
		}
	}
};