// include/conv2d_2949_weight.h
// sergio rivera 
// 2020/02/14 15:31:49 

const float conv2d_2949_weight_p[3][3][3][8]=
{
	{
		{
			{0.22483169,0.14154257,-0.23060617,-0.12829553,0.07877082,0.2112543,-0.19663313,-0.020883327},
			{0.22400944,0.017329313,-0.017425686,-0.21331055,-0.06925467,0.061149284,-0.03151026,-0.088765696},
			{-0.030277845,0.12749144,-0.18608466,-0.10365656,0.12825274,0.015241057,-0.21439801,-0.13565782}
},
			{{0.20126212,0.026584335,-0.057883,0.13507174,-0.16225114,-0.11434213,0.18152575,-0.22335777},
			{-0.040984217,0.08497843,0.24538888,0.0046252613,0.10706036,0.1537897,-0.13097401,0.14766316},
			{-0.086625926,-0.0020853535,0.13779584,0.21141888,0.049237613,-0.17530073,0.11387597,0.036766917}
},
			{{-0.16859952,-0.10759039,0.10013798,-0.17865315,0.06611604,-0.04020485,-0.110580474,-0.07984175},
			{0.10605713,-0.07043238,-0.12048485,-0.07947414,-0.21518405,0.10418502,-0.012927197,0.014263137},
			{0.22319181,0.22681661,0.109218486,-0.058025707,-0.08306405,0.02878692,-0.09432475,-0.11728784}
}
},
			{{{-0.10815452,0.22074337,-0.15189888,0.1817074,-0.22708683,-0.055997405,-0.007732123,-0.097729914},
			{0.082463294,-0.05734872,-0.06419044,0.1743631,-0.10497616,0.09141225,-0.231231,-0.13852163},
			{0.22369443,0.069293104,-0.15733428,-0.22734816,-0.041468848,0.23422685,0.109966084,0.24394213}
},
			{{-0.18164594,-0.2066626,0.066704206,0.120759755,0.13340184,-0.2071986,-0.02002087,-0.032609098},
			{-0.03148854,-0.16209956,0.17984006,-0.24099582,-0.1260644,-0.1254176,0.14298333,-0.20416074},
			{0.24134801,-0.03679538,-0.15296912,-0.17221153,-0.04865144,-0.03335828,-0.13672635,-0.08175836}
},
			{{0.0696028,-0.19260539,0.105371684,-0.032526433,0.008879046,0.027761066,-0.23486027,-0.18883246},
			{-0.21034832,0.04395976,-0.005717161,-0.23001114,-0.055815924,0.09030727,0.05390355,-0.033897433},
			{-0.054795064,-0.1813119,0.1023751,-0.07517598,-0.08309522,0.090385586,0.17506064,-0.0073456187}
}
},
			{{{0.21867797,0.14177378,-0.04129158,0.14230102,0.060238358,-0.19931562,-0.051329084,-0.15726718},
			{0.072189644,0.15312746,-0.20241965,0.15866753,-0.0113496315,-0.15837145,0.18966238,-0.23894416},
			{0.029017989,0.12764731,0.1859378,0.16867457,-0.029655822,0.21807393,-0.035096467,0.09273442}
},
			{{-0.19249429,0.19615704,0.18428524,-0.017965887,-0.001687514,0.021786435,0.10235324,-0.014994309},
			{0.066684105,0.20448902,-0.07063936,0.22123037,0.18874691,0.07484372,-0.19951369,-0.046397112},
			{-0.018934354,0.13484223,0.05381359,0.1847885,0.18373261,-0.19800508,-0.043423597,0.22540149}
},
			{{0.06069886,0.07108023,-0.14512603,0.05702326,-0.040130116,0.13441467,-0.048366524,0.020108407},
			{-0.2356877,-0.0043631755,-0.07203343,-0.21458787,-0.12035333,-0.1805538,-0.146958,0.10382763},
			{-0.08566957,0.23157899,0.1642008,0.18518892,0.036841124,0.119071275,-0.22602457,0.05554426			}
		}
	}
};