// include/dense_1199_weight.h
// sergio rivera 
// 2020/02/14 20:41:55 

const float dense_1199_weight_p[14][132]=
{
	{-0.14759023,-0.033913713,0.2016791,0.07208548,-0.17777362,-0.11853548,0.10462058,-0.009340509,0.19256943,0.18768267,0.0020490312,0.13509044,-0.042946447,-0.15025523,0.16191217,0.1626,-0.16157928,0.020505635,-0.1805759,-0.19832273,-0.018465545,0.032563567,0.041782968,-0.07628092,-0.08288323,0.12138685,-0.09451877,0.15213647,-0.12743644,0.18062632,0.034351118,0.039076377,-0.029385565,0.19516529,0.11325129,0.11434418,-0.09693204,-0.13882238,0.1762345,-0.013517522,0.19891435,0.058454107,0.08074468,0.18682618,-0.061826628,0.16661327,0.06847297,0.12302026,0.11033136,0.035937298,-0.08909429,0.07470354,-0.0029917462,-0.10932437,-0.00860944,0.108416446,0.015095923,0.18530472,-0.153404,-0.166945,0.10157698,0.08656706,-0.04894138,0.14650206,0.16995178,0.0904439,0.11974033,0.07170332,-0.11671598,0.13317378,0.05397938,-0.08874514,0.16593657,0.17650549,0.10059393,-0.077183895,-0.082772546,0.02783035,-0.19440629,0.16194804,0.02486384,-0.043239728,0.12752809,0.022792945,-0.16845118,0.045827013,0.088879235,0.033732813,0.13579245,0.19930945,0.048949268,-0.0068263025,0.122513056,0.1657867,0.18110062,-0.0792709,0.14590527,-0.18330966,-0.124172,0.15160497,0.064986624,-0.13556848,-0.14449386,-0.0885401,0.19301942,0.20542973,-0.09992656,0.17924376,-0.0948194,0.1678808,0.13058287,-0.06986818,0.18185326,-0.1354719,0.11063805,-0.06903348,0.0364254,-0.17681357,0.16428925,0.028180094,0.06943471,-0.0017508763,-0.108438715,0.0878879,0.12303704,-0.117545284,-0.015854923,0.122763984,0.022486836,0.025740754,0.0027660257,-0.18809195},
	{0.1893054,-0.17364709,0.19298404,0.16568077,-0.1327983,-0.1435072,0.13288876,-0.18651062,-0.038113024,0.052437462,0.043221492,0.07172692,-0.07475438,-0.10498254,-0.1132968,-0.1480286,0.20243387,0.10048666,-0.14399517,0.030843912,-0.20201226,-0.016386498,0.15998638,0.02781677,-0.014454348,-0.084497,0.19819745,-0.1017181,-0.040053762,-0.029037086,-0.020526528,0.16163836,-0.005892419,-0.16084035,-0.029353878,0.007405149,-0.19358099,0.027199537,0.109303854,0.13987592,0.016693281,-0.11724649,-0.16759108,0.037143383,0.12835215,0.038206503,0.13089634,-0.041487243,0.014012386,0.13438897,-0.18376651,0.07899657,0.1357215,0.14478223,-0.027191715,0.052612092,0.12186323,0.10747553,-0.10759601,-0.03481846,-0.12730186,-0.18702582,0.13752644,0.0015328764,-0.032234255,-0.07740253,-0.1564364,0.18076153,-0.18679732,-0.0848521,-0.15093645,-0.09619458,-0.12656246,0.18231852,-0.06797179,-0.21057935,0.00902691,-0.1574396,0.08118572,0.034354094,-0.07621356,-0.19956604,-0.05509225,0.15971346,0.16426928,0.16135891,-0.080233425,-0.033861913,0.12649846,0.051640484,0.14161046,-0.018722929,-0.15831478,-0.08071626,0.09831204,-0.0182869,-0.13430676,0.14132129,-0.109594606,0.058467276,-0.10433244,0.108238064,-0.1222628,-0.050083533,-0.12501839,0.19746377,-0.119149916,0.17615058,-0.11335819,0.023619851,-0.094170086,0.11070894,0.17069116,-0.12651089,-0.013317638,0.11464558,-0.047583286,-0.1215566,0.09920045,0.14715225,-0.0022425514,0.11561951,-0.08787718,-0.120957986,-0.028379299,-0.17655347,0.06602306,-0.004970295,0.16929018,-0.18689744,0.17883654,0.17938346},
	{0.044502486,-0.06793098,-0.12260056,-0.07847557,-0.15205449,0.056523412,-0.06221893,0.1920777,0.18466903,0.18809879,-0.12226633,-0.040541887,-0.09145446,0.02093388,-0.18574074,-0.18902013,-0.09930004,0.077099934,0.055251088,0.11504989,0.09929042,-0.13112652,-0.05147681,0.07744268,0.10299843,0.058500554,0.03822949,0.00952923,0.057814445,0.12692381,0.14880836,0.011838093,-0.0032767644,0.11764976,0.025945907,-0.18026492,-0.09369616,0.2040039,0.13366236,-0.031569116,0.09465143,-0.10227472,-0.10770116,0.12504642,-0.14887619,-0.030426588,0.07555721,0.051000766,0.030750677,-0.07563128,0.19897088,0.16777149,0.12636527,0.17789483,-0.08601389,0.10034059,-0.04390393,0.040087044,-0.09344978,-0.027365517,0.028602201,0.19573064,-0.13268451,0.17151216,-0.013927829,-0.045999456,0.15513822,0.05059105,-0.037250753,-0.16757256,0.049083237,-0.016624615,-0.10237712,0.023988256,-0.014507285,-0.059091114,0.09409665,0.18569094,0.052964993,-0.015624737,0.0875379,-0.04263184,-0.12002038,0.12183297,-0.07364991,-0.19405732,0.14229754,-0.024869801,-0.08802419,-0.12617148,0.058187775,0.05964299,0.06123861,0.015248608,-0.19552569,-0.12542477,-0.18360437,-0.11536611,0.009273118,0.074060805,0.16327101,-0.06295508,0.066555254,-0.18158965,-0.045814235,0.057654344,-0.10734168,0.11524936,0.17540936,0.20105632,0.044584062,-0.056284264,0.13025981,0.026788048,-0.11272583,0.11617108,0.008357381,-0.071028315,-0.07765895,-0.0054994836,0.03388606,0.03188429,-0.09962515,-0.07204392,-0.18799967,-0.17806375,-0.13535985,-0.04884181,-0.20600758,0.161472,-0.07872986,-0.073849075},
	{0.0699227,0.086253226,0.15374929,0.12803794,-0.16456205,-0.11388311,-0.061911397,-0.07756564,-0.1980703,0.022069007,0.008885511,0.18643668,-0.079765916,-0.005254465,0.013962229,-0.07236955,0.07401778,-0.0010737518,0.09951975,0.2026387,-0.16345283,-0.04045518,-0.106004834,-0.13272312,0.17439562,-0.03984674,-0.15714175,-0.16562301,-0.019514747,-0.0026607404,0.025475536,0.19492918,-0.011926543,0.063373856,-0.07017441,0.12819074,0.04758299,0.02532986,0.109511346,0.20316976,0.2062703,-0.07115757,-0.052880652,0.14965822,-0.03455064,-0.107665785,0.18306264,0.13295132,0.18196055,-0.0041968846,-0.120593004,0.15105654,0.091935664,0.0738044,0.13601792,0.02738082,-0.17009294,0.20326169,0.07011195,-0.016419493,-0.16443816,-0.04742758,-0.016386168,-0.06174535,-0.08661063,0.19455183,-0.019218432,-0.19157806,0.019866547,-0.14614384,-0.11044381,-0.008951722,-0.024870716,0.03823993,0.13000208,0.068917304,0.019759705,0.16480437,-0.056687158,0.19727708,0.15675502,0.055880614,-0.105183974,0.0994072,0.060374826,0.08673297,-0.2022127,-0.12183959,-0.13178322,0.17199364,-0.18408039,-0.052451305,0.16257702,-0.0030396907,0.073990196,-0.0861832,-0.063260816,0.1105571,0.1528221,-0.16537744,0.09664026,-0.10536088,-0.073884346,0.11459606,0.09990801,0.18347849,0.045635317,-0.10161266,-0.0780083,-0.1541444,-0.11309018,0.043574948,-0.19422005,-0.09373748,0.13001664,-0.14964549,0.14757414,0.044199795,0.013306737,0.14976825,-0.14528853,-0.074621215,0.07617625,0.09877585,0.02641423,-0.06251189,-0.10843582,0.11826102,0.13364592,0.15243907,-0.19484547,0.032573648},
	{0.17872174,-0.017381266,-0.14907522,-0.0048911776,-0.07531083,0.024384752,-0.17758721,0.13038206,-0.07560427,-0.08927962,0.15157655,0.017297842,0.032190908,-0.09552239,0.083415106,-0.061109286,0.034623127,-0.08208765,0.07636194,-0.18822232,0.14746805,-0.005155298,0.14665762,-0.096214615,0.020839024,0.09464988,0.15330641,0.13553354,0.1817194,0.14406909,-0.09240567,0.10438716,-0.017534364,-0.05278861,-0.09652936,0.17886554,0.014109772,-0.050260454,-0.18499537,-0.099858955,-0.1894981,0.065181285,-0.10373225,-0.17852229,0.09162297,-0.00059244264,-0.18753678,0.020602422,-0.07066842,0.046127297,-0.04455449,-0.068254545,0.18136226,-0.11087158,-0.14770758,0.049585003,-0.09072647,0.10605473,-0.01592776,0.08934709,0.118419014,0.09150216,0.12207959,-0.037443776,-0.11431559,-0.09735529,-0.062730126,-0.043473244,0.02027428,-0.052856486,-0.05632414,-0.1848919,0.14076607,-0.1352686,-0.15816079,0.07145241,0.08733388,0.07162735,-0.19230601,-0.13321126,-0.11956488,0.08383256,0.12639584,-0.1520441,-0.16837694,-0.017189616,0.03748866,0.08003461,0.17068551,0.09006934,-0.019365836,-0.0081811175,0.06950778,0.053511843,0.14964777,0.19264011,-0.025257966,-0.079250924,-0.12336061,0.08191704,-0.16267917,0.19246444,-0.043678526,-0.02364389,0.18687251,-0.12823008,-0.123851776,0.16755652,-0.1671801,0.17678295,0.14188072,-0.14935707,0.18635216,-0.14036421,0.057274517,0.17104627,0.00802968,0.12048373,0.0715497,0.03261257,0.15219434,0.07438822,-0.19047104,-0.026045304,-0.03855614,-0.02787287,0.05662053,-0.1371588,-0.120857574,-0.042374972,0.19137217,0.08763673},
	{-0.1148012,0.14840308,-0.15806146,0.08396152,0.055878177,0.10449096,0.15920994,0.09630162,-0.05024383,0.16174115,0.013573863,-0.113898486,0.15544339,0.03733871,0.17932656,0.17441553,-0.021048266,-0.097821705,-0.13545276,0.07939006,-0.18228678,0.054914482,-0.11238866,-0.007835369,-0.12732427,0.02801298,-0.17848141,0.12639105,0.059392996,0.10482017,0.09340805,0.025116509,-0.07626796,0.12787049,0.17484681,0.021450056,-0.0039787586,-0.15802395,0.15626003,0.05944584,0.12984233,0.074918315,0.020884346,-0.09931023,0.043844875,-0.14685434,-0.022453398,0.03886269,-0.11441529,-0.0063954093,-0.16495521,-0.09874951,0.027337154,-0.18940423,0.086135976,-0.18592647,0.0055514877,-0.15305248,-0.16897908,0.106772564,-0.0021287927,-0.15719612,0.10231518,-0.047503535,0.1662525,0.12112608,-0.107929684,0.20632231,0.052804556,-0.14710756,0.03637652,-0.0042261155,0.1341465,-0.14153221,0.06901611,0.121375345,0.02100786,-0.10899874,0.12746724,0.020999266,0.061367795,0.16976923,0.04874527,0.1368879,-0.027544638,-0.03973841,0.20197205,-0.07218105,-0.16917811,0.11351119,-0.16258027,-0.013775193,-0.042923093,0.18187314,-0.14163762,0.10710181,0.14493433,0.099930346,0.11112159,0.07660226,-0.020370612,0.038367953,0.15597157,0.12750961,-0.02920748,-0.15130396,0.09788619,0.1694941,-0.12770289,-0.18963127,0.18993956,0.14275552,-0.18357748,-0.10416716,0.052745547,-0.19589294,0.0499494,-0.09709512,-0.060676884,-0.033953838,0.06264163,0.19006874,0.13425808,-0.10943321,-0.12257184,-0.0821802,-0.028704176,0.05100907,-0.035245057,0.05214702,-0.18717304,0.08759724},
	{-0.06388885,-0.13678004,-0.0745347,-0.1618729,0.18880285,0.11603781,0.024668599,-0.19304398,-0.18098505,0.10994857,0.1988964,-0.03148029,0.18121667,-0.016123552,-0.20347573,-0.1569962,0.17483704,-0.017169781,0.13705455,-0.026778037,0.19448535,-0.023504712,-0.07248046,-0.1233235,-0.04586621,0.08701217,-0.122325785,-0.19213976,-0.116730876,-0.13404338,-0.11068187,-0.020481504,0.09628279,0.080955125,0.15624794,-0.12417277,-0.15479179,-0.19148283,0.031144207,-0.014711764,-0.19326822,0.12007671,0.029085346,-0.15498686,-0.14592893,-0.14098196,0.0074372515,-0.15314822,-0.11587133,0.120877914,0.030445214,-0.018364767,-0.007667599,0.1647966,0.19141875,0.06543375,-0.018739907,-0.025810594,0.17091776,-0.062237773,0.0069320654,-0.011077917,-0.09811455,-0.05158661,-0.025727518,-0.033912282,0.08997345,-0.14180484,-0.010552755,-0.15728375,0.13128759,-0.017411439,-0.15598704,-0.063455135,-0.1903869,-0.12414404,0.1765188,-0.0009870693,-0.10446275,0.04045116,0.012619917,0.19135788,-0.17023517,0.09515218,0.092920184,-0.19712204,-0.19,-0.18518482,0.04634342,-0.14901462,-0.18457267,-0.035414558,-0.017692417,0.08158814,0.13503236,0.13995804,-0.036457315,0.10804842,-0.17004977,-0.062367223,0.12905875,-0.15522729,-0.065720245,-0.12109609,0.014012885,0.027361535,-0.19856814,0.06435482,-0.12867579,0.0706082,0.18631946,-0.13843083,-0.16670506,-0.04763386,0.09421675,0.1904287,-0.1446236,0.1772096,-0.17580329,0.12053509,0.18886434,0.20094132,0.06715162,-0.08588849,0.13448435,-0.003084099,-0.09793121,0.14090951,-0.0087230215,-0.034127332,0.11796355,0.19654886},
	{-0.18739264,0.04771155,-0.001825073,-0.03955501,0.15352634,-0.08998302,-0.15131077,0.02653845,-0.16379912,-0.0132191,0.16312507,0.1439308,0.20197687,-0.17841843,0.08443491,0.17693292,0.11190115,0.16016188,0.04426476,-0.15936227,0.038699504,-0.025985764,-0.08191209,-0.05442456,0.15581945,-0.12829086,0.09639431,-0.053386137,-0.13512994,0.116488434,-0.15489452,0.10757659,-0.06262692,-0.07448579,-0.00087548315,0.088921934,0.13023585,0.07230658,0.117647186,-0.07912831,-0.1720813,0.07089119,-0.0013218428,-0.1618384,0.124554604,-0.09226317,0.12685946,0.12293821,-0.057007264,-0.10268448,-0.0768158,-0.0491159,0.07178463,-0.18351698,-0.050323345,0.08843561,0.13280264,0.20235313,-0.064944856,-0.11427681,-0.15193574,0.012329407,-0.18588042,0.031418744,-0.075520985,-0.16446075,-0.07383101,0.076318376,-0.076727845,-0.15616937,0.05623579,0.009743764,-0.1903071,-0.19745155,0.014626595,0.015917022,0.07930949,-0.12354515,-0.1425576,0.2077007,-0.043960996,0.021550462,-0.006284642,-0.19083956,-0.018689338,-0.09781652,0.06461747,0.013156867,0.19694524,-0.20113654,-0.19647193,-0.13025022,0.011122089,0.20427848,-0.076039374,0.16203351,0.058735058,0.18844269,-0.17964226,0.013183626,0.05779604,-0.07673541,-0.08746408,-0.080288656,0.0954102,-0.03768036,0.09415879,-0.00768491,-0.14718617,-0.17969221,-0.022621935,-0.0027588436,0.17276958,0.1518707,-0.11713914,0.13392821,0.046711884,0.052917212,0.026164215,-0.1819863,-0.20226571,0.04857327,0.09396359,0.12436878,0.18565577,0.0747733,0.012077662,-0.014246127,0.08174131,0.059513476,0.118001685,-0.19572772},
	{-0.026713356,-0.02517364,0.041058615,0.12375728,-0.11907465,0.10432366,0.03651354,-0.13246964,-0.10664068,-0.10791921,-0.19545421,-0.041292317,-0.089978635,0.022004152,0.16401473,0.15964913,0.031729262,-0.037434816,0.19560272,-0.109952435,0.021950161,-0.09704065,0.19738826,0.11159881,0.20493959,-0.01570155,-0.032472786,-0.10501666,0.17604141,-0.13372277,-0.04507455,-0.05688996,0.0377167,-0.17582099,0.10178309,0.17862806,-0.05121873,0.14411171,0.13549134,0.19697535,-0.09282875,-0.09108226,-0.16596164,-0.1924729,0.20208573,0.010758295,-0.07894543,-0.026699001,0.13974625,-0.10867842,0.02553559,-0.01602581,0.0015567592,0.16358085,0.14401644,0.16393985,-0.1758604,0.18504381,-0.085760295,0.18832506,0.18417858,0.111521915,0.18394737,-0.18365365,0.087731086,-0.12906277,0.09354143,-0.12333332,-0.022999521,0.16232714,0.15440445,-0.16682088,0.08750455,-0.18122798,0.011249457,-0.11101596,0.06340544,-0.11635756,0.17147118,0.029430106,0.029303586,-0.18962717,0.031442672,0.105880134,-0.017504558,0.03852889,-0.110784814,0.051721405,0.13490687,0.13720922,-0.021316562,-0.015558402,0.20202397,0.12831716,-0.2002505,-0.15104957,0.031578768,-0.0931139,0.024931066,-0.13834302,-0.18375674,0.16889456,-0.19336261,0.16669923,0.19672765,-0.1633573,0.009184134,-0.12270731,0.09900959,-0.10762086,0.111918904,-0.02660549,-0.15358108,-0.045637183,0.0033330698,-0.10423973,0.12042962,-0.09902502,-0.08039116,0.014775424,-0.074283734,0.19474503,-0.08957192,-0.14549482,0.031990696,-0.18797812,0.17215826,0.008600942,-0.14042352,0.046654016,-0.023496605,-0.055080783},
	{-0.14990608,-0.17103611,-0.0640238,-0.19219847,0.11141564,0.02363714,0.027969806,-0.20489387,-0.16175932,0.1651828,0.030887129,0.16434032,0.19359829,-0.14640774,0.17324813,0.10769414,0.03191513,0.0856898,0.11706849,-0.13702446,-0.14161009,0.06007203,0.054569047,0.17751102,-0.16744235,0.030605221,0.11800493,0.099317744,-0.013569474,-0.102619804,-0.0046955254,-0.14809911,0.067884386,0.12798832,0.071577124,-0.056654897,-0.047686372,0.14198846,-0.00351102,-0.14657399,-0.07758704,0.010292563,0.015729666,0.10089721,-0.007101749,0.13764979,0.111663945,-0.07538188,-0.199469,-0.20002027,-0.020526938,0.009519699,0.082557894,-0.09773691,-0.010257133,-0.20715196,0.08258099,0.010272038,0.1044212,-0.011716862,0.0890384,0.12656513,-0.19948891,0.09831736,0.12932205,0.14756635,0.15442407,-0.01847636,-0.017866526,0.18836702,-0.13327563,-0.0037139568,0.08493098,-0.06676212,0.15320256,0.07720413,-0.12879488,0.053869363,0.101173386,0.1517026,-0.106962115,0.028464895,0.04320767,-0.059061904,0.088124596,0.06621073,-0.10997608,0.13925295,-0.05113634,0.13745253,0.015760753,-0.17464292,-0.10877966,0.20799994,-0.13301359,-0.111261226,-0.09043732,0.05678873,-0.17316979,-0.09703572,0.10183299,-0.03482614,0.05337142,0.12760971,-0.08499521,0.18613002,-0.18704559,0.12443849,0.13472202,0.06698859,0.11398042,0.022937518,0.13564849,-0.17247164,0.10831003,0.15418921,0.05745896,-0.12551573,0.20171121,0.20120254,-0.10319675,-0.19487736,-0.039622217,-0.00209268,0.1583557,-0.08978804,0.043564342,0.14979497,0.079769716,-0.13202928,0.063585036,-0.10174331},
	{-0.11860988,-0.14844641,-0.049026597,0.15378782,0.12296294,0.04596843,0.17274666,0.17782395,0.18134966,0.15384273,-0.035093576,0.19412816,0.15822159,0.17854677,-0.059986085,-0.017060129,-0.0079063745,0.14957911,-0.16786073,-0.0008774376,-0.023034751,0.017170351,-0.03860663,-0.048239756,-0.06388307,0.06187233,0.12816966,-0.19241461,0.07270555,0.074491665,0.13363893,-0.031674545,0.009326056,0.016733268,0.059777334,-0.18349686,0.079873614,0.19497594,-0.08340487,-0.17519082,-0.11036922,-0.14103056,0.15443824,0.012137122,0.09562402,-0.13232563,0.12978312,0.021397429,-0.15204182,-0.026237817,-0.05600656,0.08735609,-0.05914273,0.017325101,0.09495084,0.042186085,0.013445913,-0.0965765,-0.049379334,-0.048852127,0.1177682,0.064040385,-0.06065728,0.053991284,0.17621198,0.01632284,0.10557827,-0.14113495,0.09046014,-0.05322942,0.04339022,0.16583632,0.17666589,-0.08036167,0.14380993,-0.099132776,-0.024960734,0.07696182,-0.1284408,-0.14271408,-0.06553412,-0.16848555,-0.14883186,-0.09802261,-0.11765604,0.15408146,-0.13054435,-0.057088945,0.050652914,-0.14636435,-0.025983695,-0.08988704,0.18522869,-0.10035953,-0.18760179,-0.051248778,0.1089626,-0.085753255,0.015344611,0.14630285,0.088638686,0.037283316,0.13692296,-0.1574735,0.15366831,0.09205482,-0.006078628,0.1891396,0.1770086,-0.1364238,0.15752816,-0.17519866,0.05873664,-0.09748612,-0.018927183,0.108114004,-0.07218307,0.03257378,0.15664327,0.07164608,-0.055811275,-0.10946633,0.06424551,0.0736698,-0.20892225,0.0029261112,-0.139958,-0.07573361,-0.19573234,0.16908783,0.14935295,0.050773766},
	{0.16914596,-0.051176175,-0.0773728,0.08169786,-0.09122619,0.16919912,0.093442954,-0.11368694,-0.106753685,-0.11300025,-0.07002027,0.14230971,0.08988583,0.104794666,0.004225348,-0.17535278,0.13562383,-0.053123932,-0.14807197,0.18822633,-0.1431129,0.17191088,0.1444336,-0.13196948,0.1542815,0.1786141,-0.116817206,0.08751856,0.1838533,0.071343474,-0.03394343,-0.06628299,0.21308732,0.08050375,-0.014963629,0.036184005,0.049477797,0.14455028,-0.10243881,0.06914876,0.04403046,-0.14991565,-0.077194124,-0.058996115,0.0315589,-0.109169886,0.17215416,-0.08099865,-0.027268123,-0.06540986,0.09045737,-0.025412835,0.12714279,0.14020458,0.10968689,0.14100985,-0.1306966,0.030625287,-0.0039696014,-0.19933523,-0.13296156,-0.14046568,-0.09929444,-0.016809434,-0.09256492,0.050735142,0.006045771,0.054174263,-0.15251456,0.06938531,0.034197398,0.14691527,0.04540906,0.1771353,-0.124355495,0.045207907,0.0031968793,0.07060446,0.08964108,-0.14941436,0.08710805,0.099781126,0.04199969,-0.1943286,-0.060570553,-0.01971487,0.06728639,-0.17622234,0.12166778,-0.15193282,-0.20021231,-0.15083283,0.16436496,0.12646191,0.045971062,-0.045135036,0.1601454,0.015010986,0.080014944,-0.16792658,0.118088886,-0.17386125,-0.046442345,-0.041020524,0.019959707,0.013707306,-0.032537755,0.118710525,-0.11146523,-0.020966912,-0.1545091,0.09113059,0.17640987,0.030702116,0.059296083,-0.066190176,-0.09053367,-0.13430476,-0.05989815,0.14214987,-0.10690475,0.040486667,0.09278703,0.2055394,0.18095084,0.15330693,-0.0801612,0.03434545,-0.025013696,-0.032499984,0.082652666,-0.06172479},
	{0.18294941,0.014566314,-0.18048546,-0.02922553,-0.1630398,-0.1696187,-0.0758582,0.15842058,-0.09049456,-0.012912265,0.13344148,0.046048842,-0.07498211,-0.030639187,0.17509553,0.076509126,0.12527351,0.07785827,-0.107702814,-0.06648418,0.19950509,0.00799633,-0.013202891,0.13662234,-0.026612466,-0.07239756,-0.096921384,0.14177722,0.11208894,0.054055694,-0.093068294,-0.16889684,-0.09268611,0.09256758,0.015916524,0.11821496,0.086138874,-0.050705116,0.12779784,0.11688524,0.020933226,-0.15637124,0.014881162,-0.06465477,-0.14601082,-0.10348018,-0.033566665,0.14176196,0.09214236,-0.0016047062,0.12170575,0.060149364,-0.18719666,-0.076033875,0.03693854,0.025895149,0.12313053,0.1911043,0.04460199,-0.0015357414,0.008495746,-0.0070132595,0.13243832,-0.009866068,-0.114935555,-0.0055772536,-0.12242903,-0.060057558,-0.026512617,-0.1775258,-0.16525027,-0.08549018,-0.13084437,0.12370025,0.0038931677,0.15292162,0.16636974,-0.09617046,0.17033893,0.19517957,0.0013732435,0.09469603,-0.109559625,0.15190181,-0.19058947,0.18599813,0.105331734,-0.026660925,-0.03675111,0.018886784,-0.18380335,-0.043166626,-0.1443021,-0.044904564,-0.03662137,-0.17041841,-0.03304943,0.12705788,-0.17950942,0.026151761,-0.186012,-0.14324376,0.10692826,0.14902963,0.028509595,0.18018195,-0.07235339,0.028216613,-0.030930521,0.16701394,-0.05462841,-0.16951607,-0.11173369,-0.06730743,-0.06313482,0.14589809,-0.08838832,0.1160767,0.029236307,-0.19201165,-0.17345555,-0.029131612,0.063833065,-0.18432866,0.07031941,-0.16349523,0.018911095,-0.110836744,0.19073832,-0.1115388,0.1186553,0.15214932},
	{0.03663684,0.11733593,0.18104191,-0.010396763,-0.15986988,-0.120789416,-0.16531059,0.06621402,-0.18559104,-0.04519812,0.01731119,0.15657052,0.16515794,0.17402264,-0.12682986,-0.09743488,0.04598444,0.16563322,-0.09095577,0.12450875,0.013830979,-0.1714388,-0.12020731,-0.15401176,-0.039608013,0.11376691,0.17771699,0.13126317,0.009085548,-0.049043298,0.15511915,-0.20050386,0.12862386,0.12098928,-0.12158427,-0.14157087,-0.11829344,0.024206135,0.030065633,-0.1072731,0.1833891,0.20325844,0.06792174,0.122190684,0.17086335,-0.07238693,-0.16367011,0.14510506,-0.05060481,-0.12673186,-0.19922897,-0.12944353,0.13713312,0.1068926,0.14140144,-0.15912773,0.16251308,-0.12117617,0.069653384,-0.0981556,0.17110103,0.16770616,0.143306,-0.16902791,0.053923823,-0.020598823,-0.16604424,-0.048161726,0.074272215,-0.18464072,0.12414828,-0.09288868,0.031237412,-0.06745712,0.17938438,-0.11115753,-0.08440713,0.13872741,0.12103424,0.02527064,0.087261856,-0.0326541,0.16637789,-0.17771786,0.19324182,-0.17160632,-0.04601442,-0.13464276,0.064599596,0.19683896,0.13551934,0.13562174,-0.1323817,-0.11759011,-0.036908433,-0.19767971,-0.12427082,-0.029079536,-0.166051,0.19124404,0.12583086,-0.009283087,-0.06946053,0.18517777,0.050994188,0.1628936,0.12262376,-0.09151029,-0.18348949,0.07201795,-0.14174098,-0.11234062,0.1532163,0.13646041,0.10929239,0.0886402,-0.0061605764,0.11754061,0.19139738,-0.027167574,0.08095598,0.13555393,-0.16124982,-0.055069435,0.08073796,0.069228314,0.06997436,-0.028662506,-0.09624876,-0.14644895,0.1649178,-0.024595406	}
};