// include/conv2d_635_weight.h
// sergio rivera 
// 2020/02/15 00:12:48 

const float conv2d_635_weight_p[3][3][3][4]=
{
	{
		{
			{-0.09812724,0.24375175,-0.1530916,0.24062635},
			{-0.20193194,-0.03519191,-0.2612917,0.25575024},
			{-0.21728466,0.20680994,-0.21625786,0.25621483}
},
			{{-0.12753706,-0.09514126,-0.23230152,-0.078017},
			{-0.2988525,-0.082884125,-0.1923862,-0.13716437},
			{-0.1644144,-0.14813162,0.05592536,-0.05253558}
},
			{{0.15069494,0.01688604,0.22422682,-0.14948834},
			{-0.23576966,-0.11600283,0.0691945,0.22782032},
			{-0.19480409,0.19652104,-0.28699726,0.028504495}
}
},
			{{{0.13274296,0.045664184,0.24519396,0.17924589},
			{-0.17186472,0.26793906,-0.17861211,0.021884507},
			{-0.13640174,-0.10080564,0.0320499,-0.15018679}
},
			{{-0.19085352,0.027025498,-0.24585098,-0.07863347},
			{-0.00894458,0.2650326,-0.242176,-0.08464276},
			{-0.12124302,-0.20430933,0.04274427,0.04977665}
},
			{{0.21839711,-0.03536601,-0.07242857,0.085648455},
			{-0.025495782,-0.06715664,-0.17647895,-0.21540537},
			{0.21722151,0.25791186,0.18466899,-0.14993022}
}
},
			{{{0.13828062,0.093076676,0.2897455,0.2721625},
			{0.023490325,-0.2787228,0.10419117,0.065736264},
			{0.21703573,-0.1693221,-0.25829002,-0.1660637}
},
			{{0.24186234,-0.097429134,-0.08891171,0.2589793},
			{0.061302427,-0.15224813,-0.086789414,0.025217714},
			{-0.22306927,-0.2961142,-0.07480384,-0.113285854}
},
			{{-0.25929397,0.18835665,-0.27938873,-0.29318243},
			{-0.060876388,-0.2710476,-0.2526478,0.2372091},
			{0.077626884,0.27913424,0.14382523,-0.25506702			}
		}
	}
};