// include/conv2d_637_weight.h
// sergio rivera 
// 2020/02/15 00:12:49 

const float conv2d_637_weight_p[3][3][8][4]=
{
	{
		{
			{0.21565746,-0.08922381,0.06638052,-0.0025940496},
			{0.026348248,0.11308782,-0.14078757,-0.18881086},
			{0.15503867,-0.1397477,0.082571596,-0.038099896},
			{0.15026994,0.23209865,0.22630875,-0.103313975},
			{-0.21463472,0.006212701,-0.104567334,-0.117900044},
			{-0.19850984,-0.12564719,-0.09948106,-0.13832477},
			{0.22328474,-0.11497985,-0.22262844,-0.022595938},
			{0.008474964,-0.22896615,0.12360244,0.2147266}
},
			{{-0.034669593,-0.1764287,0.19454305,0.10748856},
			{0.024956977,-0.19969577,0.22958839,0.17280143},
			{0.07904676,-0.0016954677,0.13324739,-0.06277192},
			{0.09626296,0.16268627,0.23017918,0.14998686},
			{0.12523818,0.12577568,-0.22203995,-0.19560972},
			{0.18692623,0.037486326,-0.21619041,0.15678509},
			{-0.21118222,-0.17908877,-0.21998833,-0.02128148},
			{-0.2191745,-0.12522338,-0.20512465,0.11346528}
},
			{{0.1228022,-0.22473346,0.23213455,0.036553927},
			{0.058078185,-0.07523211,0.023257995,-0.2111982},
			{0.08904875,0.025255054,0.08875361,-0.06863309},
			{0.08222422,-0.020824512,-0.004485516,0.23153791},
			{0.07802442,-0.13635643,-0.013007737,-0.18489559},
			{0.15788798,-0.122792855,0.09487355,0.117740564},
			{0.18519749,-0.108318575,0.12294488,-0.09080256},
			{-0.00867871,0.06434585,0.044249,0.06795055}
}
},
			{{{-0.15860042,-0.009479309,0.052486066,-0.016300999},
			{-0.07281899,0.005456336,-0.06591848,0.10187808},
			{0.10967968,0.08029447,0.095662124,-0.1965444},
			{0.11203211,-0.000682677,-0.09166908,-0.1380715},
			{-0.2334636,0.07032221,0.14385769,-0.058890257},
			{0.14862733,-0.18352503,0.1800217,0.1592695},
			{-0.13632308,0.19727598,-0.12997629,-0.19801602},
			{0.041328132,-0.031808984,0.19341072,-0.056267776}
},
			{{-0.05150145,-0.22759047,0.14513306,-0.12870453},
			{-0.08054745,0.009197602,-0.091350056,-0.11113826},
			{0.07685831,0.1715422,-0.19765313,-0.2197198},
			{-0.10782758,-0.18265425,0.17077334,-0.02571856},
			{-0.14938605,-0.14159353,-0.054356363,-0.23391727},
			{0.07652094,-0.14681406,-0.06652962,0.17185582},
			{-0.07419019,0.1784917,0.16593269,-0.102047086},
			{0.18866906,0.20087846,0.0035525938,-0.2229978}
},
			{{-0.049528647,-0.0086036725,0.036069512,0.099673845},
			{-0.19000322,0.105330646,-0.033526808,-0.16417901},
			{-0.057165734,0.019073905,0.18270873,-0.18076032},
			{0.208602,-0.18721876,-0.06836297,0.10700059},
			{0.21790199,0.14756802,0.18272525,-0.23073086},
			{0.08738333,-0.11039857,0.084897265,0.13726078},
			{-0.10902817,-0.1676237,-0.050007377,0.07888688},
			{0.22519785,-0.09835103,-0.049353633,-0.15108241}
}
},
			{{{0.16084456,0.071842834,-0.017239178,-0.0476529},
			{-0.12967095,-0.0637434,0.18030395,-0.10209709},
			{0.03492303,0.1027615,0.1794844,0.20026147},
			{-0.20538516,0.06813778,0.13434315,0.073651046},
			{0.17528781,0.18059441,0.10806167,0.012010968},
			{0.0048100366,0.19180818,0.22556157,0.088400215},
			{-0.0031711198,0.21887779,0.06896063,-0.14579196},
			{-0.1508114,-0.13510822,-0.12077471,-0.028059706}
},
			{{-0.025402451,-0.0033193096,0.08787783,-0.13357083},
			{0.13770847,-0.07684498,0.06519555,0.19273867},
			{-0.22283334,-0.039332747,-0.14785777,-0.090853766},
			{0.12521146,-0.1306676,-0.14581998,-0.04879659},
			{0.18700247,0.022718154,-0.22052051,-0.22003816},
			{0.0536237,-0.12569384,-0.00013651434,0.079545595},
			{0.08887887,-0.15126416,0.15734395,-0.13950561},
			{-0.059943438,-0.15216681,-0.22227165,0.22769694}
},
			{{0.09640891,0.024236327,-0.070019916,0.028782522},
			{0.11561355,0.18458073,-0.16455242,0.22739758},
			{0.08969028,-0.2145165,-0.11951686,0.19559124},
			{-0.20016418,0.059342872,-0.001700202,0.089950785},
			{-0.0027258378,-0.059658162,0.035694,0.1555561},
			{0.12144791,-0.011413118,0.12160568,0.086976804},
			{0.03637639,0.13597025,0.19024837,0.22913995},
			{0.08866807,-0.158817,-0.16003178,0.1288443			}
		}
	}
};