// include/dense_4386_weight.h
// sergio rivera 
// 2020/02/14 22:49:15 

const float dense_4386_weight_p[62][100]=
{
	{-0.16132942,-0.060598657,-0.11017821,0.102835625,0.16196969,-0.022207385,0.012929047,0.16787958,0.16747613,0.051387317,-0.038274027,-0.03400145,-0.16059597,0.04723945,-0.0061622495,-0.15317337,-0.020325173,0.15312661,0.12441822,-0.14823578,0.07177747,-0.07020419,-0.013216738,0.120871566,-0.122137934,0.18016952,-0.0964886,0.17079632,-0.00722364,0.097620875,-0.06422112,0.026040392,0.111929424,0.13620578,0.0474872,0.10817989,0.15581656,0.112033784,-0.08544227,0.10253805,0.032021187,0.058637254,0.18671979,-0.1595429,0.03823622,-0.052524127,0.12354252,-0.019220926,0.14242595,-0.102877885,-0.15569821,-0.0693289,0.016978063,-0.113680854,-0.13837396,-0.15729792,0.012141016,0.106225014,-0.12344484,-0.14914463,0.051856667,-0.04654443,-0.031579085,0.14975706,0.1854351,0.10388722,-0.14001264,-0.023304272,-0.11401456,-0.0024307095,-0.11212326,-0.02623778,0.17639142,0.10708198,0.054345228,0.04486626,0.17082892,0.17684026,0.10584067,-0.029764127,0.025121627,-0.03752036,0.13530706,-0.16319619,-0.1694156,-0.11401368,0.06721731,0.12713073,-0.1911105,0.010760791,0.15787135,-0.047759827,0.12306847,0.13501836,-0.14796957,-0.045255426,0.006267943,0.17575464,-0.16234493,0.07355486},
	{-0.16272737,-0.11777356,0.13326606,-0.10920843,-0.03584787,0.18795477,0.03338557,0.0813361,-0.06409995,0.13351814,0.058724225,0.106568605,0.13639723,-0.14569524,0.008544545,0.0352584,0.045944504,0.02334196,-0.11983688,-0.016167762,-0.114440866,-0.08001325,0.0018750206,0.07534251,-0.04456584,-0.10611586,0.07238946,0.13418832,0.10291872,0.01523143,0.1768012,-0.15005824,0.15630277,0.16663374,0.08584514,0.033737164,-0.040786047,0.11332561,0.056414887,0.035987064,0.006015267,-0.10340151,-0.059165657,0.023455216,0.050871722,-0.016675357,0.059906706,0.13109249,0.16088015,0.048633475,-0.19077142,0.10828829,-0.14579381,-0.1467272,-0.020184124,-0.07884852,-0.060462154,-0.063864075,0.15019692,-0.14820503,0.13002424,-0.11919972,0.11841062,0.10692947,-0.009250219,0.17977051,0.06671573,0.16038495,-0.19375996,0.1261698,0.16340657,0.058993552,-0.15395011,-0.03739815,-0.061892383,0.18609346,0.13762869,-0.03005511,0.08376305,-0.19218078,-0.18788993,-0.1931135,-0.13072594,0.12960152,-0.070141375,0.10153824,-0.06141661,-0.059676442,-0.11445142,0.1306798,-0.0038889565,-0.05496291,0.010107286,0.054494865,0.12861463,-0.12505816,0.046145484,-0.012928913,0.13699159,0.07461615},
	{-0.0027684576,0.08559819,0.16699086,0.03794322,0.15860556,-0.111870185,0.0967355,-0.14448924,0.17921911,0.01780891,-0.13575786,0.017495083,0.060929563,0.11107258,0.044524103,0.07881555,0.07199463,-0.1282089,-0.087841794,-0.13700156,0.08234198,-0.11540769,0.03434997,0.03081147,-0.049600154,0.1443049,0.050705876,0.04773938,-0.1718623,0.07608603,-0.11333773,-0.17241852,-0.02997107,-0.17057283,-0.14137347,0.020634167,-0.17626081,-0.042980555,-0.043604597,-0.116810784,0.089590505,-0.004790632,0.1287296,0.09992045,0.15547653,0.088570245,-0.060202684,0.010474553,-0.17606787,-0.19163136,-0.19161005,0.178811,-0.12600718,-0.15809444,0.112481,0.17665234,0.017339798,0.15649067,0.0880156,-0.10442471,-0.16245654,-0.090469696,-0.08126269,0.15105839,0.15577883,-0.12737963,0.15656716,-0.17325136,0.13322593,-0.05019209,0.026731145,0.0065830443,0.15489082,0.11206735,-0.12177569,-0.19792382,0.005614089,0.07580231,-0.054980513,-0.049197856,0.14637974,-0.17586152,-0.10018303,0.025328677,-0.07809833,-0.0298324,-0.17308219,-0.15141061,-0.10793492,0.10052772,-0.03862882,0.04670425,0.18400449,-0.031270098,0.15365136,0.0040386473,-0.18406147,-0.019874714,-0.20022915,-0.040762372},
	{-0.19229242,-0.13938363,-0.1710308,-0.1648413,-0.16381605,-0.10164252,0.121805415,0.08369921,0.19043967,-0.13311203,0.18787389,0.12569126,-0.04424571,0.100530766,-0.18000299,0.16523549,-0.15159589,0.048049994,-0.0020934532,-0.066152476,-0.10955427,-0.15504776,0.052679013,-0.11368317,0.122306906,-0.004490905,-0.06718132,0.04222585,0.09175449,-0.17208919,-0.12539604,-0.04384166,0.17763512,0.06548039,-0.05635581,0.025158277,0.06486286,0.022848735,0.052519284,-0.010448963,0.0373336,0.1341328,0.14398116,-0.024341106,0.109401934,-0.114395045,0.1554593,0.12914293,-0.08910888,-0.18582912,0.14996518,0.06901327,0.02468622,0.12024467,-0.1358227,0.047612645,0.08594291,0.09096821,-0.055879015,-0.14321977,-0.026543692,0.0063386736,0.070824705,0.1089928,0.034180023,0.0041626077,-0.12376577,-0.17624304,0.09950764,-0.19017687,0.06789471,0.15511326,-0.16801539,0.06803005,0.13928491,-0.058928482,-0.11258098,0.05474152,-0.059951987,-0.04739743,-0.017837025,0.16333456,-0.09198336,0.023319393,-0.029448748,0.032861732,0.112104215,-0.09354947,-0.052542113,-0.09685244,-0.13101159,-0.09758274,0.10793171,-0.18329997,-0.10896999,0.10632064,0.11706269,0.025602058,0.08048845,-0.044761058},
	{0.10685792,0.011812384,0.10900647,-0.06977089,0.17424066,-0.15933812,0.10550004,0.16439244,-0.20012559,-0.1928055,-0.08104281,-0.003684291,0.042259518,-0.164964,0.07926813,-0.15833326,-0.1386802,-0.03754365,-0.18021819,-0.016942026,-0.17598702,-0.19538905,-0.20380622,-0.015447391,0.044979036,-0.11491015,0.047016945,-0.18281378,0.0012742502,-0.06708894,-0.06609862,-0.16590801,-0.14199643,-0.0024807453,-0.00031829183,-0.030449104,-0.20235024,-0.20565596,0.06879284,0.0165904,0.05763586,-0.017748505,0.11152389,0.041126512,0.06758888,-0.1511457,-0.120388955,-0.022508275,0.0835892,-0.014386095,-0.18879132,-0.026904184,0.12211679,0.08507093,0.074405156,0.04597677,-0.018304503,0.15907642,0.12265988,-0.13241935,-0.09172743,-0.0128034055,-0.17517179,-0.053687714,-0.072895676,-0.00406236,-0.17014682,-0.037536744,-0.09467843,-0.1991904,-0.027327923,0.13256797,0.032117534,0.0625451,0.08924524,0.07028019,0.09920918,0.17030571,-0.17856103,0.010008997,0.12812172,-0.20465146,0.08171302,-0.16407913,-0.092886575,-0.1507558,0.14660907,0.1051138,-0.14002562,0.16683243,-0.09738259,0.054811545,-0.007022573,0.15421999,0.040024832,-0.1567507,-0.16147381,0.059903376,0.008827768,-0.037882317},
	{-0.11204288,-0.1323009,0.052529473,-0.068151765,0.004162848,0.08040573,0.021826379,-0.18123557,0.15272778,-0.06390551,-0.12739071,0.05522252,-0.18752654,0.009178788,0.123296544,0.09926157,0.12207231,0.1825351,0.04175066,-0.035373744,-0.13042004,0.028055372,0.06367537,-0.112049736,0.16926724,0.0021338868,0.12195409,0.06989882,0.050603814,-0.10920746,0.07146553,0.056131877,0.17064883,-0.14679351,0.17906955,-0.1041181,0.13630208,-0.1609904,0.14373313,0.014448968,0.14117073,-0.13598368,-0.045726478,0.16512471,-0.030766727,0.015090234,-0.0890779,-0.17612746,-0.15239812,-0.13031058,-0.05410546,0.13104334,-0.01831185,-0.03408679,0.05898548,0.14283296,0.06378331,-0.018840374,-0.002033323,-0.1488722,0.04616165,0.050520334,-0.064784914,-0.103242576,-0.058912527,0.036081295,-0.1362209,-0.008144483,0.061223663,0.0017160334,-0.024456512,-0.1009139,0.14005214,-0.041928384,0.0776339,0.08795301,-0.15195401,-0.02906991,0.15475293,-0.13543653,-0.14074996,0.11401485,0.019938953,-0.15866634,-0.14317825,0.13684863,0.0071692104,0.11020092,0.17394963,0.03529693,0.13128461,0.11256674,-0.098074004,-0.13039061,-0.085142486,-0.13028602,-0.14346474,0.033562485,0.18811554,0.0051862807},
	{-0.028194597,-0.12853612,-0.053190164,0.092976004,0.082425706,0.12418244,0.13272841,0.10441128,-0.18322605,0.08122683,0.1260397,-0.06885234,0.09177337,-0.09959229,0.031373687,-0.09871747,-0.10064799,-0.038753532,0.08236409,0.13860409,0.021912742,0.17989889,0.14380153,0.038065497,0.0106708985,0.043719027,0.0452554,-0.16357626,0.14696214,0.15977105,0.017456247,0.09706002,-0.023104776,0.018715251,-0.16312394,0.08105706,-0.042148735,-0.109312326,-0.043217886,-0.18865436,-0.1711472,0.1763691,0.1240473,-0.044714276,0.027835598,-0.11605313,0.17261285,-0.16185477,-0.013397744,0.16214433,0.0643724,0.07817543,0.11292833,-0.018863017,0.079404846,0.09828808,0.0783995,-0.16302472,0.0057266094,-0.18785557,0.05635065,0.018213289,-0.05851548,0.005600087,0.058338653,0.15302837,-0.009877497,0.023827242,0.03960461,-0.16731516,0.0116061,-0.15543798,-0.04100436,-0.066790774,0.07919322,0.09083189,0.18607405,-0.07847547,0.07325297,-0.013262102,-0.10150099,-0.0777665,-0.12412472,0.17151089,-0.056297597,0.09337758,-0.104842015,-0.16094738,0.06434498,-0.09485717,0.17115957,-0.12889113,0.12047583,0.13120215,-0.010543564,-0.08988287,-0.1359093,-0.08385081,-0.08529438,-0.15917754},
	{0.027121417,-0.16412257,-0.012188332,0.13667497,-0.153128,0.117765814,-0.0950769,-0.07356232,-0.002718715,-0.12660472,0.0712503,0.0787126,0.14417438,-0.08394458,-0.07604411,-0.17966543,0.0030506558,-0.007848137,0.09397569,0.078886405,0.17609064,0.13514318,-0.06526392,-0.03094432,0.12639357,-0.07625987,-0.07176732,0.11883494,0.016497303,-0.06364013,-0.07832699,-0.16509527,0.1701687,0.09318294,-0.17031625,-0.12112829,0.070785835,0.06844411,0.16141869,-0.18601677,0.011742154,-0.07273004,-0.14431888,-0.029332526,0.15960298,-0.112864636,-0.061032824,0.18680751,-0.14469127,0.15406087,-0.0433404,0.07758226,-0.06136929,-0.059155148,-0.18426433,-0.06717879,-0.04954578,0.16831292,-0.16064134,-0.028964164,0.06666437,0.13839598,0.0009103825,-0.10856477,0.18703656,0.13120571,-0.047674853,-0.053675685,0.18566015,-0.16792934,0.03172168,-0.033674218,-0.09651824,0.12047865,0.050578486,-0.10476951,-0.0042043454,0.017248482,-0.09984165,0.18167607,0.07885285,0.09451338,0.1881472,-0.10442521,-0.06932934,-0.16323906,-0.11104825,0.16808715,0.11035407,-0.023428034,-0.1462943,-0.118899845,0.123798355,-0.11199438,-0.1129526,-0.15369941,-0.16095832,0.14283928,-0.006778484,0.03639302},
	{-0.11167313,-0.10046115,-0.18953271,-0.13515356,0.009969709,-0.15630597,-0.019251773,0.10355461,0.09735691,0.012612583,-0.14086203,0.12718248,-0.16592428,0.1712718,-0.024829622,-0.14641714,0.12025167,0.020117946,-0.11155017,0.12169535,-0.0018567841,-0.14076482,0.13769002,-0.07300775,0.11875821,0.17931518,0.12667064,-0.10154899,0.12602931,0.08218277,-0.034767956,-0.19874623,-0.022961108,0.13357262,-0.1382003,0.15203232,-0.18865038,0.045538727,-0.07990032,0.06872835,-0.051593576,0.012534961,0.114749566,0.1412091,-0.123940706,-0.07139891,-0.04809711,-0.07527187,-0.05093888,0.09370204,-0.03441939,-0.09273177,0.06486481,-0.18189529,0.14384548,0.029648611,-0.102690496,-0.15808772,0.16290365,-0.14527136,-0.015228227,0.15141125,0.17941992,0.09957667,-0.19454339,0.18228574,0.113511726,-0.100568496,0.007953026,0.13922969,-0.18246679,-0.15715545,-0.013935289,-0.09689384,-0.10390519,-0.05729766,-0.057310816,-0.041695595,0.042972967,0.14046964,-0.102444425,0.17936404,-0.15273726,0.09883715,0.09479385,0.13178833,-0.14719148,-0.116925284,-0.03558303,0.014923279,-0.1731132,0.15714602,0.13915093,0.10932343,0.14528114,-0.10750445,0.13096185,0.10884035,0.12481284,0.06794212},
	{-0.19641306,-0.055101693,-0.111950226,-0.105048,-0.036065213,-0.09510753,0.044571724,0.073045924,0.09698874,0.17152253,-0.15963669,-0.112127416,0.092028156,-0.13458252,-0.06558771,0.138819,-0.08113451,-0.002133222,0.085411675,-0.002742251,-0.08753593,-0.13846017,-0.061712317,0.027542945,-0.12707737,-0.015199298,0.17848554,0.16327001,0.16920006,-0.0064782742,-0.010151935,0.087429665,-0.17589056,0.01639098,-0.09100236,0.06595807,0.08911577,0.13512175,0.05237455,-0.076777175,0.11148029,0.031542554,0.09454802,-0.094566025,0.09662588,0.09744013,0.10175344,-0.054791626,0.00070187676,0.062816806,-0.18682733,0.16519395,0.027477624,-0.18956521,0.077945605,-0.15343402,0.001241071,0.15039963,-0.20132552,0.051802248,0.009826325,-0.025334263,-0.11145202,0.03435789,-0.055061173,-0.17695734,-0.15294366,-0.11699258,0.17251351,0.15473492,0.051013295,0.08825794,-0.059445057,0.15571101,-0.16509543,-0.18588264,-0.19146802,-0.117431216,0.14355884,-0.1406467,0.07620275,-0.15868181,0.16415076,0.05475647,-0.14073178,-0.076779924,0.009706207,-0.07943824,-0.17370878,-0.08225265,-0.117140904,-0.0016603152,-0.08735447,0.10060585,-0.04730913,0.09774267,-0.069266096,0.1195823,0.10366142,-0.024874039},
	{0.0629977,-0.1467,-0.14912345,-0.0831133,0.17255424,0.13015902,0.087535135,-0.040323798,0.11949086,0.14279962,-0.0033435225,-0.18650715,-0.093043625,0.18639125,0.17058815,-0.021525444,-0.1676235,0.080346085,0.093602955,-0.000103444596,-0.09920451,-0.007562479,0.1276135,-0.06694547,0.052501272,-0.09487018,0.070257425,0.15419719,-0.012967293,0.095761046,-0.13346867,-0.013942827,-0.045135625,0.13186742,0.10033176,-0.008955855,-0.039921436,-0.18529893,0.1670085,-0.02872686,-0.06321089,-0.13644037,0.10199604,0.05902426,0.11056786,-0.13959664,0.055357642,-0.16565983,0.18777229,0.10208154,-0.067359835,-0.05045242,-0.07549691,-0.156227,-0.17025301,0.01861624,0.09002389,-0.06391063,-0.05819858,-0.057700984,0.109820075,-0.15834782,0.114228204,0.065282,0.07171698,0.16232993,-0.10027336,-0.072812445,-0.18649946,0.09379904,0.18684115,-0.07495806,0.10019299,-0.08147446,-0.060735952,0.17370169,-0.14589861,0.011900412,0.1764874,0.08777893,-0.020411668,-0.07763869,-0.1912663,-0.13511847,-0.11886374,0.11968234,-0.19354182,0.013531449,0.09733777,0.07863738,-0.019933565,-0.124513105,0.097654246,-0.19276097,-0.1422986,0.04413596,0.03768077,-0.0382836,0.119645804,0.15711315},
	{-0.094572976,0.13887171,0.004762711,0.14116825,-0.18399371,-0.16076425,-0.18682435,0.034881063,-0.18065795,-0.10206515,0.128806,-0.18090299,-0.09599762,-0.14961168,-0.16250005,0.13653512,-0.095376216,0.1796071,-0.02362257,0.16441728,0.062009264,-0.05739349,-0.16002761,-0.1088618,-0.039104383,-0.055588603,-0.16554128,0.09662855,-0.18955952,-0.19506691,-0.08109135,0.056779787,-0.17216583,-0.028346244,0.049565945,0.17291543,-0.117503956,0.12353496,0.030619403,0.018307826,-0.11966394,0.0384448,0.14127953,-0.09303672,0.02015986,0.12745707,0.044507094,-0.1339581,0.10213973,-0.0754393,0.16660604,-0.041956104,0.08084717,0.14150383,-0.19269581,-0.06923976,-0.052692823,-0.031949785,0.017698552,-0.04312648,-0.1835842,-0.0014847673,0.023997944,-0.15780595,-0.06316611,-0.118732624,-0.066955045,-0.003861012,0.17115656,-0.07730511,0.14276713,0.028576573,-0.19308208,-0.17143539,-0.17864703,0.022090659,0.038291354,0.020886755,0.06719621,0.036049187,0.16136295,0.12616684,0.1208038,0.010759422,0.09080901,0.1686895,-0.07542786,0.0505433,-0.03631122,-0.12425341,0.16279513,0.13517375,0.08609548,0.14574811,-0.07161825,0.15284918,-0.061329708,0.08013711,-0.10547172,-0.017902033},
	{-0.1543029,0.056186073,0.12849866,-0.045664612,-0.04709915,-0.09672543,-0.033262666,-0.18814097,0.04724013,-0.17009114,0.16042489,0.06968182,-0.14408664,-0.10340429,-0.00922757,-0.112578936,0.12251338,-0.08114567,-0.045777235,0.13706325,-0.102922596,-0.14613828,-0.12883303,0.013984375,-0.14890991,0.14624494,0.03371769,-0.011890894,0.089445256,0.03112234,-0.18465368,-0.11354348,-0.059389506,-0.09592206,0.109847315,-0.028222889,-0.113268465,0.16596916,-0.13045895,-0.06504079,-0.12963456,0.02440377,0.085191175,0.13775268,0.045069642,0.060368452,-0.04914141,-0.0011693174,-0.07418811,-0.072531275,0.17437711,-0.19371082,0.08515875,-0.08750624,-0.020123623,-0.09810995,0.12115735,-0.17912482,0.10309115,-0.09168159,0.01431208,-0.053844362,0.12778908,-0.09595943,0.07327665,-0.17723244,0.056858405,0.062984906,-0.17839795,0.0068196417,0.12192181,0.06999974,-0.091749616,-0.00972247,0.06557776,-0.19163829,0.04815025,0.16869424,-0.15243155,0.0098863775,0.19114943,-0.15664391,-0.07164699,0.10206664,-0.13709344,-0.15800737,-0.12331684,0.07727049,-0.16323915,0.10182933,-0.05399524,-0.06501111,-0.013445115,-0.03545614,-0.19838823,0.14433867,0.092244506,0.14307655,0.13333876,0.14865312},
	{0.15786934,0.081218466,0.078826964,-0.14517073,-0.008387065,0.07816188,0.16738392,-0.053316023,0.12150843,0.15307342,0.1659402,-0.048136704,-0.13191345,-0.18522975,0.115916006,0.17118226,-0.15115386,-0.02068983,-0.12840682,-0.043418437,-0.014394939,0.033456273,0.089522265,0.056505233,-0.055808578,-0.0318119,-0.102869384,-0.15853888,-0.18162416,0.09598876,-0.0124868695,0.042675402,0.10435485,0.12161601,-0.180813,-0.11964799,0.07731285,-0.1709098,-0.018048642,0.1856336,-0.17351258,-0.19444863,-0.12051208,-0.13536496,0.06479389,0.04060583,-0.03337091,0.07126385,-0.009686288,0.064119436,0.111262776,-0.04082631,0.025647802,-0.09311701,0.012181668,-0.17805459,-0.12882748,-0.03616894,-0.15035845,-0.15891351,0.13465086,0.086468816,-0.09182565,0.1532217,-0.044972196,0.10160231,-0.04701146,0.040520165,0.062216576,-0.07944814,0.17863078,-0.061211515,0.16162756,0.04061638,-0.12589985,0.11876674,0.172357,0.091405995,-0.15764655,-0.021276712,-0.14387658,-0.1295258,0.14818996,0.02014581,0.020331692,0.04306175,0.07379426,0.11086976,0.09074411,0.10677736,0.030594548,0.104229696,-0.07884997,-0.17951858,0.05950775,-0.12563984,-0.0016173369,0.17133585,-0.115693934,0.1616505},
	{-0.085748374,-0.070039056,-0.022678452,-0.15708067,-0.19339716,0.12532042,-0.14452684,0.17491153,0.07096874,0.05383596,0.1790486,-0.07128156,0.06265831,-0.13351806,0.047469236,0.09376642,-0.0071622897,0.055294048,0.11646986,0.07509397,-0.16302536,0.0034189324,-0.079069965,-0.0664866,0.15064369,0.0119219115,-0.14520797,-0.01393403,0.098909944,-0.097687885,0.11891488,-0.02843378,0.09123319,0.18296534,-0.03545935,0.0050694146,-0.02527078,-0.080890216,0.100280926,-0.047651485,0.05862286,-0.14606138,-0.12758538,-0.02045166,0.022788327,0.13146782,-0.03922288,-0.15932329,-0.13500574,0.0993011,-0.18868922,0.17964344,0.14679319,0.17440474,-0.035565294,-0.013611343,-0.19765595,0.06972446,0.042743053,0.06627524,-0.12215278,-0.11748329,0.023084935,-0.09170321,0.14682865,-0.19887657,-0.0042517283,-0.071878456,0.017525956,0.18203726,0.10069894,0.1177839,-0.008970712,-0.19595663,-0.14312549,-0.04322055,0.05881589,0.107438356,-0.17515472,-0.049446356,-0.0102798045,-0.07766864,0.08921454,-0.09450441,-0.034491554,-0.09193699,-0.1857175,-0.19585603,0.10797049,0.1335759,-0.019265642,-0.13225979,0.158838,0.07131101,-0.025478525,-0.10575991,0.1785917,-0.017749688,-0.18660414,-0.08904798},
	{-0.035553023,-0.048565734,0.045408245,-0.13907984,-0.0014163404,0.1241003,-0.1779929,-0.042364743,-0.1305771,-0.15537006,0.13685617,0.061912335,-0.14020167,0.1286291,-0.03954094,0.14202015,-0.18642287,0.09822749,0.1610293,-0.056038324,0.014623269,0.18277845,0.10790247,-0.19408073,-0.043196745,0.11060842,0.059471812,0.1003744,0.10479555,0.16919398,-0.16362861,-0.1601396,-0.14670447,-0.09880796,0.11053265,-0.024166718,0.010287788,-0.020882353,-0.08121424,-0.013001005,-0.073126964,0.029741155,0.09319103,-0.046042733,0.030644063,0.015204273,0.16415662,-0.0038383647,-0.065745935,0.17600974,0.05669521,0.04891435,-0.06367204,0.15984322,-0.061917424,0.1060853,-0.090379976,-0.18064712,-0.16495627,-0.16912964,0.0794773,0.08489818,0.14009103,-0.095379725,0.15590437,0.18425861,0.051115647,-0.026633909,0.10087183,0.034364503,-0.14561456,0.16079845,-0.05179231,-0.06519369,-0.14910151,0.03643783,-0.01613514,-0.07330063,0.0006655923,0.033847023,0.067661785,-0.11947812,-0.16439015,-0.13050191,-0.093574375,-0.0044099395,-0.14316913,-0.17244513,0.16201949,-0.12369473,0.13079087,0.033287942,0.16432318,-0.08411526,0.0050610797,0.06711376,0.10860495,0.18620843,-0.092379466,-0.012771696},
	{-0.07357283,0.1131516,0.047915228,-0.035517763,-0.035383936,-0.09609653,0.009074199,0.18704616,0.14225917,0.03197772,0.18971068,0.0718825,-0.18380564,-0.00997899,-0.14394009,0.057891596,0.0032647683,-0.07081591,-0.103458546,-0.1235612,-0.13577771,-0.1578262,-0.18480058,-0.118264034,0.0020874976,-0.016746476,0.05051686,0.0102481935,0.1588694,-0.03375795,0.030812817,-0.028217774,-0.10281843,-0.19105338,0.004702987,0.13846831,-0.18752003,-0.036558434,0.07079705,-0.08142653,0.05446129,0.10234011,0.030824654,-0.04128294,0.11246669,0.05715917,0.14642078,-0.054172408,0.039982647,0.060146995,0.039596263,-0.176926,-0.13010114,-0.11727448,-0.16516829,0.17482594,0.04993542,0.0047652856,-0.18104069,-0.16653351,-0.09381901,0.032654896,0.09428753,0.00017080741,-0.06714471,-0.14097942,-0.09093497,-0.12515917,0.14606646,-0.06443371,0.07782205,-0.10519927,0.14840901,-0.072004445,-0.010721783,0.122274645,-0.011888111,-0.15591182,0.012139127,-0.13506477,0.18626472,-0.0011792848,-0.17188802,0.070303194,0.05829002,-0.0850575,-0.12534325,-0.06302248,0.045180503,0.07578887,-0.041708995,-0.08836937,0.041540507,0.004276705,-0.12604578,-0.18614635,0.036767207,-0.020139966,0.0082223015,-0.058497388},
	{0.08610279,0.08110242,-0.13051988,-0.18232077,-0.11478708,0.07698379,-0.15275185,-0.034173474,0.021716237,0.16714051,-0.006081645,-0.11423793,-0.19393219,-0.19286661,-0.1857217,-0.18898278,-0.16920541,0.008106906,0.08854814,-0.053796586,-0.021498699,0.15245897,-0.16797847,-0.12577786,-0.08861595,0.0059388867,-0.104297645,-0.16775653,-0.1873086,0.11404397,0.16192448,0.11707897,-0.108475596,-0.032841977,0.018299222,-0.17075807,0.08421007,0.11437225,0.00566759,0.1255653,0.17349689,0.13290855,0.17519154,-0.11469054,0.109022036,0.056435242,-0.042469595,-0.14827839,0.019129632,-0.03868797,-0.17882827,0.0013870022,0.07920293,-0.14241426,-0.027564337,0.13111582,0.07296582,-0.19148175,-0.19323719,-0.07818019,0.12927979,0.1492604,-0.14681396,0.015282737,0.06765055,0.011516785,-0.043347534,0.06799416,0.055098757,0.031942673,-0.045692425,0.0504969,-0.0065605477,-0.10924517,0.043005876,-0.08798558,0.060541533,-0.006032885,-0.17837566,-0.08473029,0.13550635,0.05224783,0.0058096736,0.17126648,0.115396306,-0.016164744,0.13986671,-0.02735545,0.098448865,-0.054713946,0.18026671,0.061762344,-0.09680047,-0.111178905,0.11822369,0.029734666,0.15779932,-0.00063444994,-0.084956884,-0.109108075},
	{0.03975835,-0.016399428,-0.066632025,0.06792946,0.040555622,-0.054081302,-0.063535005,0.008756167,0.035840742,-0.043923054,-0.156343,0.025062844,-0.0048271758,-0.060634945,0.00012701338,-0.046921756,-0.08882311,0.037339184,-0.17105459,-0.15787588,0.04643939,-0.06513985,0.1477546,0.049609683,0.072218366,-0.10451398,0.083437845,0.09910417,-0.08467346,-0.18971857,0.094269775,-0.12946084,-0.15873301,-0.0778892,0.15209338,-0.059227783,0.0014964108,0.044169452,-0.0010018883,-0.1417824,0.14092422,0.18626301,-0.06853526,0.06043362,0.0033348808,-0.060068518,-0.027592864,-0.04636488,0.11414238,0.042328246,-0.03932148,-0.1562955,0.16156207,0.11113467,0.11905521,-0.08587961,0.18674108,-0.03044305,0.076771766,0.034443147,0.14077614,0.16866781,-0.05290855,-0.16888829,-0.14751227,0.1258708,0.03892333,-0.07152098,0.13745078,-0.11610769,-0.12612043,0.062319268,-0.09420658,-0.11875988,-0.11338812,-0.07929319,0.027418723,-0.029718582,0.07416997,-0.09907724,-0.07886752,-0.032164674,0.08666155,0.047959227,-0.12831323,-0.1621515,-0.052131504,0.1514805,0.012245153,-0.091007106,-0.12149675,-0.041553043,-0.11723085,-0.09773737,0.14388947,0.039716017,-0.0867361,0.028932776,0.11891006,0.16873473},
	{-0.015188829,0.1681165,-0.014807604,-0.0212053,-0.19284393,0.0921114,-0.14228253,-0.1887779,-0.14238895,-0.0537108,-0.09468543,-0.1253266,0.10046949,0.1763176,-0.10540827,-0.09307238,0.11799804,-0.18896057,-0.06415137,-0.061919335,-0.08925582,-0.17738801,-0.1002681,0.099767186,-0.017339278,0.101848684,-0.1373545,0.095926926,-0.045756496,-0.10169773,0.09272785,0.056835126,-0.16567639,-0.15553343,0.18981223,0.101860285,0.08103203,0.17749768,0.16394462,-0.13353786,-0.09389808,0.061731733,0.15602334,0.16598871,-0.18057708,-0.11411395,0.18790247,-0.12001711,0.11479826,-0.07007378,-0.05290635,-0.16671771,-0.1152522,-0.09676401,-0.14560595,-0.01115815,-0.17681053,0.17754528,-0.1757472,-0.026813686,-0.071029596,0.1686761,-0.10024057,0.1870136,-0.11149107,0.0050974754,0.11172427,0.16440728,-0.12691584,-0.0027142165,0.07126438,-0.13370667,0.04342759,-0.1368222,0.13581505,0.012290624,-0.13879646,0.17927888,-0.05592428,-0.010025735,0.13808917,-0.0777225,0.049073126,-0.16665684,0.013630936,-0.14338812,0.18366782,-0.14329825,-0.16665775,-0.14698303,0.03173181,-0.06606386,0.115957506,0.057395566,-0.075340316,-0.038865805,0.13386802,0.123846896,-0.027170643,-0.17345123},
	{-0.06125134,0.040690206,-0.14197436,-0.07885882,-0.1299087,-0.16293514,0.18549566,0.1794424,0.13971171,0.05990664,0.0074621406,-0.13138156,-0.13667364,0.055157416,0.17381288,0.027411837,0.14600609,-0.07299074,0.019225769,-0.015319726,0.047295872,-0.15957795,-0.19312164,-0.010081858,0.008197177,-0.03489789,-0.15004224,-0.033056278,-0.058555946,-0.1802208,0.15132219,0.048762407,0.021078398,0.09726841,-0.024111776,0.055257153,0.084292196,-0.09054351,-0.15466428,-0.07965416,-0.13239013,-0.006102088,0.012059227,-0.09948936,0.05978881,0.042842943,0.08507062,-0.055692572,0.036397208,-0.18653296,0.14948046,-0.18404141,-0.14741206,0.14525709,0.1475542,0.057755083,-0.023873806,-0.11343792,0.0058423216,0.11286669,0.18906282,-0.08986364,0.03706852,-0.077390455,0.16497697,-0.09032623,-0.154459,-0.13773413,0.056146838,0.1284355,-0.031773724,0.13014413,0.15611003,-0.04009657,-0.0841687,0.17293704,0.12357026,-0.1665218,0.15359256,-0.10294196,0.09939277,0.10789852,0.063037224,-0.0822426,0.1831656,0.08986864,0.051489085,-0.071839914,-0.062039975,-0.033915237,-0.0031330767,0.18462752,0.03679569,-0.14807849,-0.07724881,-0.10563871,0.079753585,0.08879954,0.16386192,-0.19345777},
	{0.013830088,-0.096376166,0.11079432,0.017786449,-0.13758504,0.18137461,-0.06105736,0.032191508,0.05293943,0.09770075,-0.16490673,0.12743281,0.07441577,-0.120545454,-0.15486962,0.08935255,0.13303454,-0.071604416,0.064474106,-0.07507967,0.09752937,-0.1836119,0.1583354,-0.027532807,-0.08161126,-0.09727429,0.08214101,0.039544422,0.06693593,0.18429601,0.111165725,0.018835729,0.09394968,0.06823154,0.010145885,-0.023229454,0.017059568,0.03742995,0.11416249,0.053143382,-0.14023457,-0.031198082,-0.18035977,-0.060743626,0.13570604,0.13278629,0.12767588,0.10000289,0.11380179,0.022904957,0.19024362,-0.007587212,-0.037726503,-0.109109044,-0.07617054,0.008879109,0.0053053005,0.06754662,-0.17036265,0.10358329,-0.012789735,-0.16808471,-0.07550876,0.0085804425,-0.12982072,0.18493865,0.17327212,0.15171807,0.016258022,-0.0875595,-0.1358978,-0.19350532,-0.18216377,0.039292526,-0.032547593,0.087528504,-0.013897188,-0.120034724,0.041537747,-0.046609685,0.07284418,0.15091239,-0.1537015,-0.12404684,-0.028113158,-0.13249786,-0.03315202,0.18077424,-0.04959066,-0.012171557,0.16602857,-0.034688465,-0.02825434,0.16743678,0.09323086,-0.17522378,-0.11437978,0.12026363,0.19043714,-0.17237274},
	{0.029633556,0.001361663,-0.11005013,-0.12884611,-0.14077255,0.12626868,-0.053510506,-0.058620542,0.14245057,-0.15944073,-0.15258959,-0.008785899,0.030800367,0.12000491,-0.11557734,-0.0038780894,-0.17137648,-0.18538354,-0.0933342,-0.16527547,0.17761499,0.049728923,0.17099805,-0.010706922,-0.18186831,0.03665435,-0.029097384,0.070656314,-0.06023945,-0.17862296,0.14022492,-0.11702299,-0.113306776,0.039340332,0.04097535,-0.16521333,-0.19152726,0.1755933,-0.16280766,0.026231904,-0.0028990295,-0.16157553,0.15546328,-0.029979147,0.114847906,0.1766492,-0.058663968,-0.013152896,0.17462316,-0.17885023,-0.15057701,-0.12896919,0.12107957,0.044087913,0.074896514,0.14992939,0.03825271,0.09591808,0.09393201,-0.117616765,0.11453089,0.09141136,0.09262779,0.11507666,0.019036686,-0.017072862,-0.0011392481,0.14853157,-0.006406393,-0.041525375,0.14932738,0.13929267,-0.11799452,0.06884821,0.15661108,-0.15536597,0.08102296,0.09028455,-0.11025562,-0.06313151,-0.15106341,0.03864643,-0.13177404,-0.12879537,-0.17005956,0.16810724,-0.18565586,-0.16731745,-0.05389953,0.15886763,0.19039603,-0.18602644,0.18203676,0.064865425,-0.09468786,0.059463583,-0.052590843,-0.14368656,0.077255085,-0.078356296},
	{0.1250008,0.008118253,0.14884016,-0.11567094,-0.1769788,0.028218748,-0.02924043,-0.16586965,0.11410923,-0.0805475,0.17813139,-0.07671475,0.04978329,0.06881852,-0.17724156,-0.029388273,-0.04267007,-0.051480606,0.119868964,0.100661136,0.09073296,-0.045722846,0.076183915,0.03163524,0.08991399,-0.15307097,-0.079337195,-0.11663289,0.17899203,0.16996029,-0.19507472,-0.13541576,0.08352325,0.12857871,-0.044921648,-0.023707647,-0.19188823,-0.060580276,-0.0759447,0.012177329,0.038657054,0.00065446657,-0.040632915,0.037778903,-0.09429642,-0.025004154,0.08932572,0.09486496,-0.0027065352,0.12284504,0.03377511,0.056702185,0.034607753,-0.10868542,-0.0614783,0.09015072,0.16723986,-0.19386758,0.06349613,-0.15942593,-0.13516219,-0.16579731,0.16030869,-0.060471904,-0.01407828,-0.04519426,-0.1506381,0.06343623,-0.05353031,0.0781367,0.10698481,-0.018547377,0.03918603,-0.04257145,0.10936636,-0.19255908,-0.12778626,0.16739513,-0.01923967,-0.0022064473,0.04041958,-0.08677353,0.16878591,0.15119514,0.097017534,0.14262018,-0.013268667,0.073905714,0.124742255,-0.012366049,0.0607285,0.03647495,0.102247655,0.05555605,-0.1539607,0.098970465,0.08994066,-0.027822224,-0.14552347,0.05587902},
	{0.1271302,0.13138548,0.0909742,-0.16211863,-0.17956255,-0.05441628,0.02820686,0.09620417,0.15714714,-0.022411589,0.083267994,-0.17164913,-0.16766676,-0.13726299,0.013174614,0.15783589,0.16446024,0.026817715,-0.16656871,0.11137362,-0.07758403,0.1271921,-0.1566808,0.08357883,-0.14413552,-0.11882566,0.05802285,0.05389816,-0.1721058,-0.035370156,-0.06254589,-0.1581204,-0.059791666,0.15123121,0.013504684,0.1765491,0.08346481,-0.1206887,0.0030684231,-0.0073312866,0.110139236,0.009531917,-0.046104427,-0.005626193,-0.032593824,0.079338215,-0.11801897,-0.12994467,-0.16282636,-0.053830717,0.08779405,-0.03351139,0.06326959,-0.054889426,-0.053782877,0.14146294,0.08557158,0.16050532,0.02810345,0.15135458,-0.17439747,0.1775129,0.06860737,0.16947342,-0.015742015,0.17670746,-0.0884959,0.17312838,-0.034317255,0.112640396,0.033715736,0.18156642,-0.19450481,-0.049846865,-0.14248687,0.16586167,0.03205939,0.08350602,-0.10373841,0.1109634,0.04209529,-0.16513439,0.13278006,-0.110478364,-0.15864867,-0.11142312,0.066291966,-0.18394633,-0.13033214,-0.18154038,-0.08987573,-0.05176954,-0.00059622433,0.18470639,-0.10750028,-0.16660616,0.016481262,0.04794498,-0.013465316,-0.11178461},
	{-0.052877758,0.08304089,-0.15956862,-0.022295125,0.17011414,0.121825114,-0.13246152,0.01786077,0.104055494,0.057814717,0.04022425,-0.05186516,0.17365722,-0.1716362,-0.108643256,-0.078059606,0.013471233,0.14856212,-0.18465494,-0.02853569,-0.18251255,-0.005508678,0.038383856,0.047423508,0.11743644,0.03875481,-0.03549019,-0.102187224,-0.06504036,0.057123862,0.030159412,0.18316884,0.17778134,0.13004008,0.11910078,-0.1718623,0.049962617,-0.15693958,-0.18601614,0.12777576,0.124115996,-0.1218081,0.13391036,-0.13810202,-0.072423965,0.07649501,0.0794613,0.15420389,0.034514986,0.07029502,0.06557864,-0.14412189,0.04977102,-0.19505467,0.086124286,-0.1393232,0.16599907,-0.18447542,0.11617752,-0.14622077,0.04354242,-0.027163044,0.1705364,0.18075213,-0.08972001,0.04597194,-0.1697727,0.15630047,-0.10856956,0.18647464,0.08614306,0.014363024,-0.09445553,0.019153569,-0.07368672,0.16055183,-0.18596727,0.02190787,-0.14286837,0.1520997,0.055361304,0.10958226,0.1362103,0.12802571,-0.18445903,0.18188155,-0.01223186,-0.17686638,-0.021560863,0.101419486,0.062079366,0.050088886,0.11761241,-0.14579469,0.15219289,0.014843903,0.17499277,-0.09583542,0.01583714,-0.13944997},
	{0.004425181,-0.16925606,-0.08897838,0.07319452,-0.11501428,-0.05576254,0.17185949,-0.14904544,0.17245845,0.053833377,0.11507902,-0.13699071,-0.078906834,-0.04971493,0.030683663,0.14929837,-0.056666307,0.04026311,-0.06916005,-0.15238623,0.043568354,0.12427104,0.11677695,0.079636514,0.18181072,-0.0095731355,-0.18685949,0.035939857,-0.11746605,-0.07621263,0.062973164,0.10043724,-0.144318,-0.0331828,-0.06775146,-0.016418174,-0.029677438,-0.1487664,0.17878582,-0.0674466,0.031170964,-0.11317344,0.13136162,0.13752912,0.14889073,0.13221951,0.10491067,0.14448035,-0.03310745,0.158753,-0.11676217,0.16684644,0.011328433,0.08817881,-0.08900791,-0.05721351,-0.110355236,0.17270212,-0.050079215,-0.035208512,-0.04626958,-0.04108631,-0.1355792,-0.18410118,0.020674963,0.0973159,0.16963771,-0.19214989,-0.08969107,0.093783736,-0.046668164,-0.099192195,0.11529395,-0.10218225,0.036313307,-0.10188851,-0.028302561,0.13833217,0.14016123,-0.0052598654,-0.18670197,-0.19191608,-0.08191734,0.12923741,0.011398036,-0.042442605,0.06700413,0.12780704,0.10767438,0.10230402,0.13700995,0.08897911,-0.18724282,-0.15459637,-0.09587223,-0.19574259,0.09643009,-0.071075864,0.08772366,-0.033855643},
	{-0.05982074,0.037401263,-0.057707917,0.1255706,0.01640269,0.1064475,-0.13332027,0.09574067,-0.055381592,0.12698191,0.015233443,0.13118286,0.1568765,0.0754807,0.15859777,-0.005609586,0.15692252,-0.18522216,0.10793039,0.14937694,0.0941811,-0.15998414,-0.019705098,-0.06649888,0.010171993,-0.10658453,-0.074593574,0.037370868,0.033259895,0.17334338,0.16750968,-0.08647322,0.1180743,-0.12727435,0.11171852,0.15011248,-0.10682143,0.052987017,0.110145405,0.041849405,-0.17955111,0.12333281,-0.10859726,0.1665295,-0.20291226,0.118699454,-0.024910044,-0.1280118,0.08166996,-0.037580904,0.06328794,0.11070331,0.025111454,0.1508914,-0.15601917,-0.0004636111,0.12500918,0.0077784844,0.14050516,-0.154498,-0.023332728,-0.084873445,0.14668508,-0.15665445,-0.17536546,0.111886576,-0.013200807,-0.087273516,0.09437001,-0.08210104,-0.014784821,0.053400062,0.13520971,0.17105186,-0.06879545,0.17669685,-0.16208044,-0.16466321,0.14804001,-0.07598697,-0.023604136,0.16780262,-0.15125304,-0.10289665,0.18716726,0.07682127,0.08451258,0.17065552,0.06236824,0.1660876,0.012823863,0.041141093,0.07166411,0.14298405,-0.18318914,-0.15869851,-0.1378969,0.06885522,-0.074581616,-0.019032056},
	{0.16735882,-0.004546845,0.04544322,-0.15784635,0.16406614,0.007216927,-0.044836372,0.077189855,0.051246803,0.01884907,-0.009723586,-0.15912685,-0.006298833,-0.051104672,-0.07000266,-0.10595201,-0.05027958,0.15790303,-0.12627599,-0.08572462,0.04720631,-0.096182756,-0.07689819,0.16583134,0.11633465,0.1069844,0.17839117,0.18330574,-0.026068255,0.12369346,0.07040884,-0.14707482,0.051933605,0.1591873,0.12190195,-0.15697159,-0.012329414,0.120142736,0.035179265,-0.1431457,0.017880747,-0.10338801,0.16795538,-0.15791951,-0.17035854,-0.18107404,-0.13258016,-0.06604364,-0.04778167,0.17541052,-0.09873157,0.15057595,0.12625696,0.011326587,0.08930799,-0.121692896,0.088821694,-0.054740112,-0.066243246,-0.034120075,-0.1486421,-0.07248476,0.16433828,-0.16141513,0.09213203,0.020317491,0.022792649,-0.14635165,0.028663805,0.15072748,0.05581647,-0.0853265,-0.12338378,0.10918688,-0.022553183,-0.17448471,0.15243368,0.117636465,-0.18878844,-0.1219123,-0.104683995,-0.026227465,0.14976326,0.09326697,-0.018953515,-0.11734954,-0.058591146,0.18857767,0.115082145,-0.017389566,0.09856348,-0.02453083,-0.043810375,-0.044106785,0.15704533,-0.079051495,0.10648149,-0.035170533,-0.086403,0.15512647},
	{0.051998135,0.082287684,-0.1662238,-0.15396143,0.11858289,0.019992055,-0.16043743,-0.028147254,0.09976924,0.09282235,-0.18331873,-0.003048943,0.15583538,0.1221097,-0.16706407,0.13772173,-0.081795834,0.17129445,-0.03175076,0.17281121,-0.17093839,-0.17538138,0.1786724,-0.19023049,0.14460386,0.13311468,0.0889214,0.11667116,0.022712775,-0.14772747,0.100167826,0.048667345,-0.16175827,-0.056794144,0.17187932,-0.014931822,0.06724588,0.04252738,0.072682865,-0.044001818,0.0072947927,0.1845897,-0.008265391,-0.09685981,-0.17889811,0.14636838,0.1518176,0.024216907,0.056735728,0.11085469,0.17365494,-0.021177327,0.13212992,-0.021309966,0.019110635,-0.010121391,0.17873174,0.016276019,-0.08154884,-0.13096762,-0.13832788,-0.169409,-0.13118093,-0.1329759,0.124661155,-0.16613623,-0.05457656,0.18125331,-0.09285925,-0.15644306,-0.18755762,0.06824856,-0.034537382,0.17649736,0.143104,0.043716088,0.06437046,0.095087186,-0.042586654,0.115686506,-0.18679406,-0.15969436,-0.12411121,0.18148375,-0.03484814,-0.102898136,0.12875609,0.14798042,0.16605105,0.12186576,-0.17830053,0.19010462,-0.082081705,-0.18802215,0.17483683,0.16667596,0.09288821,0.16116619,-0.11743205,-0.1777832},
	{-0.091591895,0.0010417267,0.15731439,0.048893254,-0.1499713,-0.12268372,0.06802109,0.12542169,-0.032166127,0.115117684,-0.06124626,-0.1902226,-0.020114865,0.04317641,0.18631935,-0.005547117,0.07943839,-0.101848416,-0.11294861,-0.00193812,0.020922255,-0.06696762,0.17057128,-0.063286416,0.14482084,0.037584744,0.0026525087,-0.052863292,-0.020333242,-0.085584864,0.08035744,0.11074589,-0.12822409,0.01914419,0.09888778,0.10988191,0.16558662,0.13014774,0.111741364,0.0640223,0.09316216,-0.14715002,0.038962863,0.14168707,-0.05383718,-0.057009507,-0.020030126,-0.089238524,-0.1109495,0.04859462,0.11602866,0.15414853,-0.13606663,0.11745556,0.10894076,0.13161981,0.10629809,0.13888124,-0.1243753,-0.040522315,0.11129937,-0.020771742,-0.1777919,0.11088835,0.056224074,-0.069998056,0.0012435244,-0.073628284,-0.13593607,-0.00083575374,0.17197898,0.1475903,-0.15479574,0.0476965,0.11879507,-0.0729058,0.05587904,0.16594467,-0.05418177,-0.07989747,-0.035179347,-0.16415837,-0.12790903,-0.10567016,0.065376356,0.07562747,-0.15036947,-0.08677512,-0.18158165,0.07850391,-0.15366796,-0.07298471,-0.12717636,-0.03798481,-0.04727388,0.16814049,0.031316575,-0.09435992,0.08132482,-0.12032973},
	{-0.054566618,-0.04724371,-0.08789989,0.13335413,-0.045422673,0.13005124,0.0048787016,-0.19177106,0.034749016,0.06629113,0.048983183,-0.15215494,0.032341946,-0.108697176,-0.12351059,0.14709897,-0.12428373,-0.14157641,0.16029416,0.15745144,0.1713088,-0.023209281,-0.029739948,0.028415592,0.036505546,0.09500701,-0.065034136,0.064117946,-0.17167036,0.0136232,0.11193507,-0.06644107,-0.005800608,0.11462805,-0.035383098,0.0051027425,-0.11664669,0.14481871,-0.12106466,-0.010447871,-0.19472432,-0.16776265,0.10418799,-0.14711234,-0.18173406,0.0034931996,-0.124106355,0.14460234,0.15497899,0.08844874,0.061802275,0.15585047,0.08572849,0.08454957,0.12761053,0.07274643,-0.0116151385,-0.0666161,-0.08397071,0.18295796,-0.13481057,0.0781293,-0.1446403,0.1375355,-0.16191529,0.15583402,0.029158432,0.15212344,-0.051030044,-0.18819454,0.11590968,-0.16690496,0.03378189,-0.100416064,0.12223484,0.098392606,-0.08082575,0.08426455,0.057921097,-0.16305745,0.005935885,-0.14613433,0.079135776,-0.08209595,0.007741373,-0.16081099,-0.059987966,0.059520368,0.10878308,-0.02510142,0.11285026,-0.18566495,-0.04152426,-0.19324593,0.056138154,0.052526094,0.0585507,0.15348002,-0.061375435,0.1174958},
	{-0.09502441,-0.024510622,0.15832266,-0.0798356,-0.13893443,-0.04747253,0.036885228,0.005403648,0.1373143,-0.10217298,0.05871015,-0.10351553,0.12056674,-0.18394549,0.16079475,-0.17090651,0.122325726,-0.17223638,-0.09470389,-0.020406887,0.03645265,0.18192884,0.011116085,0.03820036,-0.13558568,-0.13277243,0.005466108,0.13711481,-0.048695285,-0.010565785,-0.019459985,-0.14589396,-0.04644099,0.052795477,-0.107413985,-0.17033377,0.016986791,0.14136407,0.09164765,-0.15670791,-0.13279384,-0.16689423,0.12743017,0.052255157,-0.005267896,0.04452826,0.046316218,0.11720601,-0.011333969,0.18392566,0.016394528,-0.008278689,-0.051490407,0.0556998,-0.13816306,-0.06615818,0.1621542,0.17605175,-0.06598972,0.049624693,0.155092,-0.13969089,0.073316246,0.031368773,0.07300828,-0.10009166,-0.16168143,-0.06612244,0.083147585,0.17505196,0.0693728,0.17981416,0.02817728,0.1669316,-0.1512134,-0.1464969,-0.1645343,-0.15959378,-0.07302435,0.003047117,-0.06666177,0.15599246,-0.17780867,-0.16479035,0.14059618,-0.017526316,0.16562599,0.08885897,0.11538153,0.104491845,0.10351497,-0.16988944,-0.015516074,-0.10530404,-0.15993994,0.16449353,0.14006546,-0.10115913,-0.07520134,-0.066525206},
	{0.14835316,0.1261202,0.11857079,-0.10445848,-0.12495273,0.14784415,-0.037290156,-0.11106633,-0.04763233,-0.16879989,-0.09138264,0.08903551,-0.1836941,0.08713784,0.12437723,0.06895218,0.13096046,-0.013025264,0.11768623,0.11559922,0.1739956,0.013223833,-0.006961258,0.05798344,-0.083137736,-0.09712884,-0.1510105,0.13945183,0.0068692886,0.04477092,-0.093722604,0.019673433,0.1387901,-0.08759747,0.12242323,0.14488454,0.1457226,0.04694041,0.103176706,0.08093297,-0.04930449,0.0065050274,0.004070285,-0.10676552,0.14961696,0.032075275,0.11297311,0.13578679,-0.019427828,-0.018452931,-0.07707093,-0.20014626,0.038455658,-0.087662175,0.16623421,-0.18803973,0.16918693,0.09653807,-0.0004822408,0.08306494,0.075732045,-0.01704725,0.1550861,0.045726366,0.046554007,-0.0054807765,-0.110344715,0.13140593,-0.010146066,-0.019300438,-0.06258135,-0.08425312,0.0013189809,-0.07708639,0.033665437,-0.10585081,0.15411279,-0.031865876,-0.09070432,-0.14499833,0.12546642,-0.15812619,0.05719491,0.14869462,-0.11882477,0.13448507,-0.14027387,-0.07790207,-0.1564265,-0.12104852,0.12418275,-0.07893239,0.036418032,0.09411697,-0.14739294,-0.087038204,0.008454705,-0.12483203,-0.10273158,-0.1321319},
	{0.16769713,-0.17941582,0.12339742,0.021689562,-0.07302549,0.101960525,-0.1270512,-0.099577434,-0.18364808,0.007433017,-0.022581201,0.043688998,0.1346967,0.18883865,-0.08164516,0.082887255,-0.09520142,0.1883921,0.15415141,0.12528704,0.044866282,0.057424042,0.118358426,0.0042015044,0.17280132,0.13118279,-0.13540922,-0.16685636,-0.067706786,-0.0047947834,0.13013028,-0.028234798,-0.17684513,-0.054542616,0.18361168,-0.08068731,-0.099510476,-0.071239956,-0.004476626,-0.050875355,-0.11441063,-0.10571622,-0.0061200825,-0.09876235,0.17359513,-0.04650236,0.07156688,-0.04767103,-0.05216649,0.06498018,0.13095185,0.14134407,0.16755551,0.07549634,-0.1406679,-0.12827468,0.023718387,-0.17651907,0.087146394,0.1362176,-0.14179428,-0.00890975,-0.18447874,-0.17934136,-0.057588045,0.17055151,0.0015985345,0.052967165,-0.015707007,-0.011210122,0.0627053,0.063208304,-0.14376253,-0.013738367,-0.10646547,-0.16875085,0.0593594,-0.040940173,-0.18414469,-0.13347045,-0.040005494,-0.16439141,-0.023658227,-0.08687908,-0.16723002,0.11956048,-0.17038429,-0.18707104,-0.03338256,-0.057840034,-0.07198356,-0.007188684,-0.15321057,-0.15432416,-0.107315294,0.1221051,0.08916272,0.16920267,0.030879108,0.03667384},
	{-0.16087829,-0.10481121,-0.1194852,0.18513228,-0.10148144,0.13424776,-0.09381106,-0.1357453,-0.10697074,-0.04812832,-0.13780865,-0.15301806,-0.021669753,-0.18433316,0.14318012,0.11916269,-0.18233795,0.11716044,-0.028198196,0.12609018,0.021892197,0.18802364,-0.17995171,0.11952444,-0.13812943,0.15839946,-0.19137599,0.17685911,-0.04740233,-0.18681432,0.035204835,0.14100583,0.112194836,0.01599146,-0.18134423,-0.1787808,0.032935567,-0.07901347,-0.06602676,0.15604618,0.03941109,0.17279646,0.14398016,-0.15949693,0.15250388,-0.08905072,-0.02400563,-0.13769038,0.060724374,0.09229107,-0.055340696,-0.0057587335,-0.14015003,0.10846364,-0.10714574,-0.10459652,-0.071324565,-0.15153372,0.07749747,0.14733644,-0.11256142,-0.055673297,0.06977741,0.15833572,0.10048621,0.14328282,0.018240698,0.026667727,-0.124948815,0.13366963,0.162121,-0.066671856,0.15049058,-0.12345938,-0.07289463,-0.09125932,0.18745536,-0.0044752066,-0.06781899,-0.10439614,-0.13712762,0.102883644,-0.07945375,-0.005437389,0.021526445,-0.022477956,-0.019922841,0.124614716,-0.024440635,0.09352512,0.015986118,0.025684444,-0.19376342,-0.09979777,-0.18021524,0.04569933,-0.17530847,-0.119282946,0.069198154,-0.13832021},
	{0.041169006,-0.18594962,-0.11412,-0.13292284,0.016618619,-0.02622905,0.12522188,0.12022195,0.018969089,0.18625528,0.032392338,0.12696025,0.06526799,-0.1905415,0.026388219,-0.09035335,-0.1304203,0.02033551,-0.002302582,-0.049331527,0.08123011,-0.06904627,0.15052046,-0.1593587,-0.009603758,0.05073512,0.0055389544,0.03355832,0.069034,-0.06923392,0.18088485,-0.14902206,-0.06376612,0.064221516,-0.13238357,0.14276078,-0.008992267,0.17379364,-0.07334624,-0.079501495,0.14412138,-0.1481019,0.097490475,0.17042138,0.12095246,0.0467934,-0.17719562,0.108711824,-0.123734795,-0.059145268,-0.0053464132,0.1442976,-0.1478632,-0.124143414,0.17311072,-0.15199755,-0.15238169,0.022222223,0.0072959606,0.044571124,0.07338214,-0.09608324,-0.085068956,0.053500958,0.17288454,-0.10267488,0.035033863,0.023855649,0.03560109,-0.057365406,-0.1220964,-0.09270913,0.16866516,-0.042286545,0.08817639,-0.17252392,0.036364958,-0.1512235,-0.043064,0.017978812,0.053926956,0.18194552,0.14694414,-0.13252369,-0.16238922,0.069307886,0.007228627,-0.14146186,0.039554432,-0.012124784,-0.11504447,-0.089518465,0.034966215,0.05911867,0.14671905,-0.16811405,-0.03320284,0.00816442,0.17757206,-0.09472303},
	{0.10118935,0.05166334,0.17717493,0.059201635,-0.07985295,-0.012506172,-0.008756063,0.081886955,-0.024540069,-0.10137652,0.09920606,0.14443432,0.04110522,-0.13397743,0.10398933,0.07325447,-0.06213881,-0.012144314,0.12589172,0.15044034,0.040126994,0.17492223,0.11786223,0.03714946,0.12993237,0.07783614,0.10217414,0.12951657,0.07222252,0.07183527,0.09496419,0.1411429,-0.090256535,-0.060319833,0.06519683,0.103011765,0.013266655,-0.19442408,0.17168379,-0.1623089,0.16535814,0.14796911,-0.07585969,-0.16480213,-0.11049591,0.105317235,0.048862055,0.052052476,-0.02210141,0.07128262,-0.0709658,0.18865924,0.18957637,-0.13377155,0.10944701,-0.020846503,0.06564558,0.11460907,-0.044783078,0.05134773,-0.19116533,0.15603802,-0.0037876787,0.092082314,0.14617027,0.08120057,-0.09689916,0.022851367,0.1328761,0.039513428,-0.030910172,0.07915325,0.019728987,0.12810549,0.08660539,0.020570423,-0.19128045,0.012178194,-0.07755833,-0.15811385,0.0898995,-0.06424397,-0.0112904655,-0.17662588,-0.0631937,-0.11989681,0.16309284,0.060494505,0.04860778,-0.15039869,-0.13185544,-0.18900704,0.14129408,0.082746685,0.0779752,0.13004038,0.18040289,0.1359733,-0.09733781,0.055987045},
	{0.12758757,0.17907254,-0.029035883,0.18218544,0.06723992,0.018538779,0.14911398,-0.057846874,-0.12628326,-0.01544262,0.07745213,-0.03005534,0.10213762,-0.14511798,-0.00034597446,-0.19015616,0.14539453,-0.1515352,0.0621522,-0.10251492,-0.06941668,-0.15725489,-0.16483235,-0.08875695,0.1765735,0.10720814,0.0063301143,-0.08563216,0.0631296,0.05680203,-0.013170589,0.108770415,0.09808002,0.012367027,0.03618434,0.14565082,-0.0867154,0.19052552,0.1488656,-0.17739269,-0.03062432,0.06311608,-0.05655182,-0.024044331,0.17296846,0.05439362,-0.18676858,-0.02938475,0.10182414,-0.04206685,0.04548058,0.14749227,0.1034378,0.06698077,0.14117488,0.18735126,-0.055102065,-0.024105728,-0.16426274,-0.17300113,0.076518886,0.14440282,-0.12720066,0.11579791,-0.11358689,0.06902829,0.11382746,-0.067257516,0.12155573,-0.14202918,0.16717768,0.1583646,0.008399888,0.18689033,-0.14051455,-0.002811862,-0.14860877,0.0014797499,0.039854586,-0.1845759,0.06104769,0.057760466,0.08087019,-0.10864873,-0.14943619,0.022343371,0.0065576984,0.08888516,-0.0758992,0.011801098,-0.12553753,0.028653514,0.01827917,-0.12008116,0.038297024,0.18543006,0.10335556,-0.062458634,-0.049320906,0.16427521},
	{0.013069485,-0.16238394,0.16101384,-0.122213446,-0.12834378,-0.054926507,-0.00983552,0.0026812293,-0.13022847,-0.16650182,0.13837431,0.1081207,-0.016141845,0.021456677,-0.16082451,0.13350953,-0.12516415,-0.1410128,0.18066204,-0.19205843,-0.166817,0.14092676,0.06360601,0.17385058,0.14154994,0.13501634,0.13444626,-0.15936537,-0.05705597,0.029219607,0.058987785,-0.05731265,0.087868676,0.0262357,-0.17071322,0.04563301,-0.11877355,-0.13316959,0.16721052,0.12582797,0.031227343,-0.09681249,0.1650195,0.037863813,-0.0940356,0.15529111,-0.16587812,0.052192673,-0.1021945,-0.04589193,-0.16827676,-0.16119055,0.11640633,0.11354221,0.15892515,0.071148835,-0.102936834,0.17115098,-0.0944065,-0.10974275,0.056320585,-0.085369475,-0.03728556,-0.12107914,0.17285468,0.08006818,0.025781255,0.06330535,-0.08509401,0.1751894,0.044057608,0.080271944,0.015698295,0.16424786,0.09015385,0.08503038,-0.028275736,0.0081704045,0.029507754,-0.0041461056,-0.13234425,-0.15048634,-0.1266196,0.07853421,-0.08940329,-0.02865216,-0.051862277,-0.18513237,0.059038144,-0.08551245,0.061483376,-0.05594497,-0.12047082,-0.123552464,-0.020839596,0.09315795,-0.18286774,-0.035486475,0.07146776,-0.058149446},
	{-0.14785095,0.045142297,-0.09635423,0.039676547,-0.19001935,-0.0410729,0.060505956,0.1351786,-0.13306609,-0.11156711,-0.061174173,-0.023715358,-0.04477627,-0.010074455,0.008198865,-0.12640889,-0.11232643,-0.1133928,0.18095636,0.080141105,-0.18232949,0.045723025,-0.13006675,-0.08545398,0.17445114,-0.09362775,-0.0646887,0.059483103,-0.07447994,0.09221053,-0.09336692,-0.03271804,0.021487234,0.09585838,0.054756638,0.116047375,0.097542934,-0.05937618,-0.0017039631,0.17428616,-0.09271366,0.038817395,0.04955874,-0.09025309,-0.1912496,-0.19464076,-0.14106457,-0.15899247,-0.072645545,0.17131847,-0.01662979,0.07257465,0.0025116254,-0.11444133,0.13844788,-0.19428793,0.17516258,0.06420957,-0.09866315,0.07172045,-0.16032213,0.090422206,-0.20075627,-0.09255596,-0.13444115,-0.015110286,-0.14760572,-0.08363336,-0.027589437,0.11581254,0.13839993,-0.105121806,0.09626948,0.010748734,0.104196995,-0.14435515,0.17017986,0.043437403,0.15509745,-0.08394608,-0.14030313,-0.04648463,0.0071240505,-0.046228908,-0.021022547,0.08041379,0.14129919,0.15901607,-0.037959397,-0.003552218,0.013322464,0.15790865,0.055149775,0.09958295,0.079704866,0.14005041,-0.07615439,0.11469992,-0.15518063,-0.03869886},
	{-0.16394593,0.0056071915,-0.07499453,0.0518828,0.06955039,-0.116335124,-0.04149346,0.09314361,-0.023009026,0.17469506,-0.11544659,-0.040557414,0.12100523,-0.09708757,-0.14686406,-0.059136897,-0.05031727,0.18176942,0.1672524,-0.19127922,-0.10169412,-0.006832973,0.09884394,-0.15829574,-0.10890351,0.18518968,0.08639471,0.12778252,-0.16211116,0.17090502,0.050130643,0.080214396,-0.09208841,0.0237951,0.13717914,-0.15217511,0.09316017,-0.10987752,-0.012271747,0.020667266,0.101876326,0.18720569,0.122934856,-0.19364414,0.07796884,-0.08226994,0.11454885,-0.18235517,-0.13526674,0.117908224,-0.06324515,-0.00425946,0.11923559,0.15936156,0.14097217,0.14721313,0.022797039,-0.1494399,-0.05281168,-0.008183576,-0.010270999,-0.043283176,-0.092829384,-0.14546072,-0.1809024,0.005299537,0.13263616,-0.058871295,-0.036582008,0.1280282,0.10434084,-0.092994586,-0.047681868,-0.025885003,0.14784247,-0.10024148,0.06065444,0.0888557,0.16690308,-0.14192268,0.13756157,-0.008927124,-0.14191583,-0.09077599,0.13170859,0.15054674,-0.18041545,0.1682383,-0.11040918,-0.13433523,-0.030417092,-0.011002428,-0.056830302,-0.015897239,0.16907322,-0.085281335,-0.0263913,-0.10847795,0.11592425,0.16260071},
	{-0.06288931,0.1436902,-0.06629967,0.17398521,0.05772972,0.05982982,0.15591489,-0.07131655,-0.044002134,-0.016112251,-0.1930613,0.093403615,-0.18777278,0.18854134,-0.066571124,-0.015660947,0.14012311,-0.1651362,-0.010847217,-0.14371738,-0.014891867,0.07255274,0.056192406,-0.002013858,0.0022220553,-0.14177403,-0.06623182,-0.18513867,-0.0736101,0.118325174,-0.16595213,-0.017271135,0.09751455,-0.10514531,-0.009421715,-0.04002452,-0.12647615,0.048001196,-0.120665684,-0.11391353,0.039442196,-0.023290083,-0.12794527,-0.07031986,0.032575913,0.15087795,0.085435346,0.18792905,0.10238575,0.10200153,0.101074114,-0.15722276,0.10928241,-0.06775751,-0.18132634,-0.07146102,-0.18323176,-0.16672988,0.112711616,0.18233539,0.15485284,-0.080007985,0.18022813,-0.14323406,-0.18926352,0.034494087,0.11441411,0.14748128,0.12825854,0.17160341,-0.12638547,-0.18650915,-0.10342624,-0.100123204,-0.15804262,0.14742431,-0.0140681155,0.08942318,0.10427184,0.141224,0.036128066,0.17875977,0.03246202,-0.023296976,0.13582551,0.055199955,-0.02050231,-0.055692792,0.05520541,0.026235767,0.06055201,-0.07516013,0.16630182,0.052408922,0.08162955,0.121663965,0.0053347135,0.03237734,0.034729097,0.13311009},
	{-0.025641356,0.18377875,0.08187715,0.040677775,-0.0780464,-0.16056243,0.059142057,-0.1261551,0.033520624,0.1730107,0.03141666,-0.025436616,-0.06003138,-0.013816649,-0.1930849,0.09235428,0.1756976,0.13691495,-0.00096214487,-0.0346853,0.1417084,0.05585397,-0.17694126,-0.12879598,0.16888347,-0.12677063,-0.011076214,0.16875657,-0.1637176,0.1587504,0.1812735,0.15034351,0.10114083,-0.013623166,-0.09802673,-0.04070225,0.07090269,0.056296334,-0.060308095,-0.028577952,-0.15505165,-0.1870933,0.017209945,0.15867114,-0.17539558,-0.16717912,0.06604332,0.10877638,0.064265504,-0.18546283,-0.12808195,-0.025222205,-0.046323046,-0.08910906,-0.07153388,-0.1492367,-0.045893922,0.05282053,-0.054349672,0.15876032,-0.016282277,0.060942113,0.16741547,-0.17573729,-0.11297053,0.035082497,0.13792044,0.16404773,0.14595963,0.09114236,-0.04442159,0.015558667,-0.0813484,0.14613934,0.13336255,-0.15854383,-0.064891025,0.14121318,-0.07200458,-0.09803073,0.08806927,-0.117327325,-0.05116125,-0.1353843,-0.03407461,-0.13164136,-0.14712948,0.027967073,-0.031417955,0.031693783,-0.042216413,-0.06284679,-0.13611875,-0.1740796,-0.032146696,0.1835932,-0.07017645,0.15918969,-0.17573401,-0.13808006},
	{-0.060600713,-0.04978749,0.094392866,-0.14823955,-0.005677948,-0.12399858,-0.022328863,-0.14050597,0.15983707,-0.14611684,-0.0032109884,0.0060841828,-0.06822584,-0.15796444,-0.022875458,-0.006946753,-0.1077992,0.12522125,-0.11336307,0.121243045,-0.12865795,-0.1870414,-0.018385172,0.14173003,0.033282947,0.057958435,-0.12532797,0.06989085,-0.026115179,0.020110445,-0.063074216,0.18542083,-0.075433314,0.009189755,0.15695426,0.13124564,0.097446814,-0.058676332,-0.03083336,0.09174117,-0.16209622,-0.06716285,-0.09660136,0.07415949,-0.13576886,0.17761827,0.16106234,0.1723288,-0.048676237,-0.15409563,0.12137359,0.17827554,0.13674498,0.03777038,0.14593269,-0.10951923,-0.0452022,-0.16177359,-0.08422142,0.06657352,0.14071523,0.014370288,0.18040037,-0.18365975,-0.15960655,0.004655363,0.020297691,-0.10145238,0.15166213,-0.12522197,0.13457698,0.09380653,0.033057436,-0.1263354,0.06365274,-0.07157909,-0.11924476,0.02433727,-0.09736045,-0.041845564,0.06577366,0.088976815,-0.09039477,0.009417532,-0.027501648,-0.10053989,-0.13616495,-0.17879282,-0.064000025,0.09318032,-0.019108266,0.15532364,0.07466491,-0.08888536,0.01718427,-0.19602187,0.13568689,0.012140978,0.15835339,-0.014775382},
	{-0.12401457,-0.06852944,0.04550562,-0.030958919,0.176367,-0.17476916,0.10356358,0.13306333,0.1566309,-0.1297729,-0.0451327,0.12718529,-0.074585296,-0.035067372,-0.19623895,0.16787894,-0.025342228,-0.037195086,-0.20351583,0.08617795,-0.079833634,-0.026004318,0.08151361,-0.009521313,0.1254991,-0.13557334,-0.0096664075,0.05613549,0.009117008,0.16547188,0.08052939,-0.10423627,-0.12285816,-0.11180324,-0.18991664,-0.046559125,0.0125033455,0.092529714,-0.19135426,-0.010429985,0.019633824,0.06585142,-0.16401805,-0.024605677,-0.14764252,-0.1066383,-0.0050750687,-0.1883056,0.03032205,-0.16449513,-0.12617262,0.034439426,-0.05134194,-0.055498846,-0.034624036,-0.115263864,-0.0048959665,-0.04296213,0.08874284,0.137879,0.014269881,-0.053349894,-0.05238964,-0.086850755,-0.11735697,0.0055772644,0.16077887,0.07095553,0.1607653,0.119635604,0.11469444,-0.03946472,0.03594734,-0.053130984,-0.18846042,0.0894128,-0.038125373,-0.009769605,-0.11780554,-0.062851466,-0.055788588,-0.004519565,-0.15950178,-0.13199802,0.15995544,-0.036058582,0.17724435,0.017134387,-0.17144309,0.027821269,-0.16467214,-0.044974994,0.011363657,0.05294038,-0.1624442,0.07756817,0.10803666,0.031028967,-0.041155197,-0.016103627},
	{-0.076052964,-0.054375526,-0.04665028,-0.18479413,-0.091501564,-0.06321391,0.05544045,0.10555348,-0.19200216,0.12587956,0.022310084,0.04763555,-0.16551985,-0.1517097,-0.072659895,0.1539746,-0.18246579,0.04605862,-0.18313296,-0.14748248,0.01514506,-0.13425946,-0.044895764,0.063283086,0.07218054,-0.16406123,0.07293878,-0.014169473,-0.064924434,-0.16290969,-0.17946067,0.10062646,0.17421973,0.028585676,-0.0159033,-0.16748227,-0.015837476,-0.18545313,-0.17912091,0.034335166,-0.17066453,-0.123022795,-0.011916419,-0.13379908,-0.15947667,-0.14674658,-0.14724964,-0.10374102,-0.1821061,-0.14109056,0.0731808,-0.097434774,0.049629107,-0.04723335,-0.018743956,-0.17565118,0.16058446,-0.15920652,-0.18344322,-0.06572342,0.14405113,-0.18135513,0.13832004,0.11303634,0.0031685855,-0.06804558,-0.07115244,-0.19010258,-0.032681607,-0.20231289,-0.15590806,0.13898966,-0.15375969,-0.17298615,0.16796921,-0.04852817,-0.06700001,0.051104087,-0.14385478,-0.10044477,0.10349994,0.11135135,-0.16087882,-0.15113784,-0.039212346,0.16084547,-0.18279485,0.09455342,-0.122587994,0.03708807,0.055097435,0.13731004,-0.19239323,-0.07932857,-0.076335214,0.17101619,-0.077880174,0.027332399,-0.027344357,-0.1983865},
	{0.15587379,-0.012181686,-0.16168956,-0.12961453,-0.18547007,-0.016269093,-0.18253411,-0.0361822,0.08579707,-0.15505312,0.13372982,0.1813604,-0.12234301,0.047596324,-0.08336071,0.03900974,0.09567147,0.13303593,0.10789988,0.112177074,0.011230275,-0.03507329,-0.114958756,0.03875997,0.09222805,-0.043778867,-0.0012329972,-0.026454959,-0.15060383,0.024617804,0.094889194,0.084194735,-0.007157686,-0.021373851,0.17848843,0.13257095,0.15664998,-0.1192983,-0.1631588,0.11475106,0.03714965,-0.08247908,-0.14829104,-0.19204172,0.02322242,-0.13685949,-0.1555205,0.06169912,-0.024805766,0.10497748,-0.024913142,-0.12740473,-0.13697448,0.06563176,-0.01770462,-0.09497157,-0.12940092,0.07564606,0.0067035905,0.13090317,0.028181395,-0.13009636,-0.13213395,0.020648662,-0.15621701,0.03211891,0.084082365,0.024598127,-0.19504698,0.048071686,0.1819385,0.122041196,-0.027472584,-0.0020504324,-0.057001393,0.09515952,-0.18990827,0.025578268,0.07614449,0.11872335,-0.061818153,-0.07261325,0.037640378,-0.111073986,0.042092327,-0.024981868,0.095954016,0.12090076,0.061796434,0.15204374,-0.01755423,0.10451605,0.09618033,0.09322165,-0.03132758,-0.18807076,-0.06762332,-0.16948445,0.037526414,0.07964977},
	{0.0052998974,0.045203898,-0.19128843,0.10433478,-0.15132897,-0.14317246,-0.14619468,-0.10984956,0.17575318,0.088850915,-0.07803292,-0.15791577,0.053957872,-0.049926113,-0.07344393,-0.12692206,-0.15766548,0.02827802,0.026557159,-0.011256288,-0.10293364,-0.19015603,0.13597484,-0.13324842,-0.062293995,-0.19126974,-0.15532163,0.08293388,-0.14038369,0.10855298,-0.050478283,0.0939286,-0.17937165,0.16617095,-0.07579613,0.06759503,0.017826267,0.111688346,0.015752591,-0.08685442,0.070084125,0.089603625,0.0019681382,-0.07816844,0.097349934,0.079625666,-0.13362826,0.13415548,0.043407515,-0.13701712,-0.09222365,0.13885608,-0.06611167,0.043555662,0.04221635,0.1022235,-0.18471943,-0.18277954,-0.14155574,-0.07297824,0.1361193,0.01914111,0.02940977,-0.029050007,-0.12676577,-0.19205382,0.034015954,0.14918306,-0.117012724,0.08772459,-0.16494003,0.09791828,-0.0068931077,0.04679512,0.17977728,0.11012335,0.0036831538,0.01786088,0.071489446,-0.06473548,-0.06687199,0.094249256,0.08392717,0.1351262,0.100777,0.14956647,-0.10457728,0.06042855,0.109452456,0.1692718,-0.17344864,-0.10526636,-0.17219286,0.18640704,0.14419442,0.07237812,0.04746313,0.10293587,-0.12632002,0.1672754},
	{0.059361186,-0.16829348,-0.06671102,-0.03152023,0.037724264,0.082648836,0.16528484,0.08301406,0.015556197,0.06604133,-0.1833856,0.06927154,-0.063456774,0.06513274,0.13315548,-0.011184868,-0.15661426,-0.16742909,-0.094496086,-0.14481352,0.011528738,0.13250235,0.17764546,-0.016719762,0.073877,0.057698093,-0.026693892,-0.1925134,-0.14993761,-0.050297312,0.15946016,0.10258362,0.16907214,-0.08897988,0.062651135,0.11305334,-0.038925476,0.12556171,-0.118140325,-0.013901277,0.091481805,0.11408392,0.0011628171,-0.18059425,-0.12285356,0.15481271,-0.0166896,-0.0009645935,0.049646907,-0.12240419,0.0430359,-0.14676543,-0.16884841,0.14164093,0.07692222,-0.10637187,-0.1947166,0.021995585,-0.09616358,-0.17822334,0.16403253,0.018137118,-0.1635112,0.114892334,0.16620758,-0.15903164,-0.051410485,0.03415724,-0.09209205,-0.11054889,-0.027217785,0.05437775,0.18728283,0.12564349,-0.1292786,-0.17411761,0.15278076,-0.052247137,-0.04354218,-0.09147633,-0.018223496,-0.14925769,-0.1444928,-0.039195754,0.019615082,0.094411716,-0.15729651,0.17713185,-0.1425984,-0.10599674,0.05045305,-0.043185357,0.18653321,0.18196014,-0.082114704,-0.058320437,0.048523664,0.08207165,-0.10044528,-0.17298731},
	{0.124547996,-0.095930904,0.09450441,0.14664122,0.012402579,0.04688201,0.12736508,0.014972677,-0.19588877,-0.0023932783,-0.029737825,0.10944415,-0.12503225,-0.08776253,-0.086999744,-0.11598911,0.042671464,-0.117277496,0.16054934,-0.13495867,0.07967519,-0.051899992,-0.15121502,-0.1600615,-0.1327448,-0.059542615,-0.17567275,-0.0127154635,0.028118938,-0.16829161,-0.00766516,0.025793599,-0.053875264,-0.05278681,-0.16708824,0.11184287,-0.02261316,0.16844958,-0.1317139,-0.10083621,-0.077602096,-0.17084393,0.13655703,-0.007516285,0.1587058,-0.059705704,-0.07017953,0.09885328,0.10949408,-0.10247078,0.16167563,-0.18241812,0.114152566,0.070689775,-0.08759061,0.027789105,0.07513725,-0.13018258,0.12429446,-0.007181216,0.0026197224,0.14282663,0.06213719,0.18215042,0.03512741,-0.027684357,0.12971435,-0.08528547,0.085293055,0.18465987,0.093853526,0.07968527,-0.0989514,0.09229241,-0.16534245,0.10411115,-0.13674717,0.107910104,-0.045577023,-0.029724127,-0.046886716,0.1450616,0.16274257,0.006470781,0.1790384,-0.071838,-0.02480558,0.1837866,-0.008432092,0.053140268,0.04862178,0.14056906,-0.07089734,-0.07969419,-0.15936694,-0.113034464,0.08494895,-0.10718203,0.11105704,-0.012703089},
	{-0.026669307,-0.14981124,0.13141353,-0.013097042,0.13526127,0.16302192,0.14631523,-0.14321181,-0.15622908,-0.14403649,-0.118000634,0.07835526,-0.13339706,-0.088674076,0.038832814,-0.08761057,0.054950807,-0.0115137035,0.0041690106,-0.09066897,-0.12478495,0.020291645,-0.07064509,0.03589362,0.0996222,-0.057972547,0.004742627,0.03906454,-0.054189943,-0.091730565,-0.06526913,0.115998335,0.009043209,0.021928193,0.0101486575,-0.052719135,0.07258809,-0.11903889,-0.073111005,-0.11966714,0.01594108,0.16024429,-0.1875031,-0.0521525,-0.12541293,0.085180685,0.1678028,0.17356887,0.032679096,0.14463742,-0.07676942,-0.1010067,-0.16011575,0.041828822,0.11994044,0.06469839,0.060806766,0.15801616,-0.06742068,-0.022892691,0.16930597,-0.036898848,-0.17334753,-0.06428966,0.08388026,-0.02993739,0.015398578,-0.07956114,0.10534671,-0.1463512,0.13702838,-0.05158759,0.14979723,-0.17200102,-0.17997886,0.020258766,0.08190384,0.18928237,-0.15438864,-0.17795634,-0.10904089,-0.1361545,0.06874067,-0.055612512,-0.087357536,-0.04354198,0.08374032,-0.035047207,0.050226368,-0.010101063,-0.11279167,-0.1066097,0.18043368,-0.12616263,-0.1885373,-0.18043904,-0.17407498,0.11043517,0.11598905,-0.09949262},
	{-0.18741688,0.100676164,0.036094602,-0.1293908,0.14087914,-0.052681927,-0.1376769,0.0019968632,0.16884759,0.061194,-0.117268555,-0.16258605,-0.08722827,-0.15131451,0.043410037,-0.05752018,-0.12304638,0.18476641,0.1453889,0.15064421,0.046085894,-0.10087879,-0.16629559,0.054158177,-0.16128923,-0.09270386,0.15351637,-0.017783687,0.10927442,0.15764724,-0.08185679,-0.01443438,0.011042747,-0.058686364,0.172933,0.07333779,0.03833611,-0.06548609,0.06210611,-0.13563456,0.13929214,-0.031225653,-0.020662185,0.148932,-0.084964395,-0.0637081,0.093862735,0.04433597,0.11056127,-0.11131203,0.17589307,-0.040607978,0.14015992,-0.0824946,0.17444937,0.14893997,-0.09536403,-0.124402724,-0.0638887,0.049353328,0.08794956,-0.02955728,-0.0024589486,0.1641,-0.09801911,0.1566518,-0.06727768,-0.07260887,-0.07677574,-0.043634616,0.041331466,0.16026787,0.07128777,0.030479796,-0.017680077,-0.0073012584,0.011114596,0.17017399,0.11980467,-0.073671184,0.033615243,0.028710643,0.069097444,-0.14470254,0.12586918,0.10398755,0.06438831,-0.09546081,-0.079553336,0.10880098,-0.1314115,0.052333098,0.0977436,-0.08001342,0.016476443,-0.053504545,-0.07040126,0.11618651,-0.07170913,-0.11273645},
	{-0.107953615,0.14519808,-0.008571951,0.03634207,0.057181746,0.15193227,0.10180314,0.039346885,-0.073382504,-0.16953881,-0.11597347,0.1612836,0.093245715,-0.16290836,0.010500539,-0.18170075,-0.007854772,-0.116764195,0.13567102,-0.19065607,-0.17926338,0.11890772,-0.025035527,-0.18375388,-0.1832595,0.021254124,0.13858804,-0.045948118,0.004710518,-0.10860411,0.08385208,-0.06258543,-0.19874488,-0.11032624,0.13049996,0.1300436,0.031887524,-0.14060812,-0.06874286,0.1915561,0.054573283,0.001230332,-0.071424514,-0.15200405,0.055579025,-0.048323363,0.118074976,0.013656533,-0.03746524,0.0866492,-0.10995358,-0.04619602,-0.10605106,0.15476266,-0.20351267,0.16050969,0.06602322,-0.0053006997,0.1368054,-0.13625923,0.021890761,0.02685091,-0.14812091,-0.078276254,0.015506969,0.13199097,0.12254656,-0.12830703,0.03871301,-0.17599256,0.061690424,-0.16820464,0.14131494,0.16247207,0.09113007,0.10518873,0.16441448,-0.0049235336,0.12992613,0.028981792,-0.18265422,-0.16982123,0.005962926,0.13795859,-0.08457109,0.12637198,0.10102305,-0.10466619,0.11153426,-0.15532342,0.12988903,0.047371507,0.07991889,-0.13437265,0.0042605563,-0.19983403,0.1651527,0.06709935,0.041605797,0.17386436},
	{-0.047760297,-0.048805956,0.05375085,-0.16670284,0.12642623,-0.07559228,-0.043936275,0.09516576,-0.043687835,-0.08658001,0.18344896,-0.014249886,0.12599237,0.121577,0.032597873,0.08530386,-0.18310906,0.03963996,0.12750785,0.10665651,-0.1948071,0.032994248,0.099113636,0.02425354,-0.08340666,0.17877278,-0.0751256,0.06944301,-0.030317001,-0.09827296,0.13366267,-0.09770446,-0.042555884,0.056699336,0.0029249408,0.09432038,0.04726182,0.0076111984,-0.1659833,-0.11924485,-0.0918415,-0.076115504,0.18434249,0.123982385,-0.0643259,0.014213205,0.18391289,0.122817904,0.13336127,-0.1292658,-0.018081225,-0.003918729,0.13342577,0.18196432,-0.11451776,0.16481994,-0.028094256,0.10508909,0.0529248,0.13060081,-0.17838868,0.021965208,-0.1797131,-0.08891114,0.07147947,0.04962333,-0.15483962,-0.06846455,-0.14628303,-0.13039981,-0.015501807,0.09027136,-0.18694575,0.14086017,-0.08843024,0.009070466,0.114250876,-0.15329643,0.13346565,0.10657255,-0.14259747,-0.08904126,-0.15696384,-0.021265753,-0.15109771,0.04090407,0.13293141,0.16593242,-0.12586775,-0.056325413,0.15185209,0.09883297,-0.005173504,-0.09930072,0.016460625,0.06934257,0.15728536,0.11783069,0.12186453,0.1168037},
	{-0.06311418,0.14348574,0.12047962,0.06395819,-0.08612285,-0.17903255,0.06718461,0.12395324,-0.13926046,0.044055868,0.010381423,0.07465944,0.13313337,0.055585638,-0.028782263,0.17048682,0.16044453,-0.18598305,0.0011696616,0.092073016,-0.042363092,-0.096382916,-0.0073605105,0.008148083,0.17238978,-0.040157616,0.083018236,-0.088887855,-0.09234418,0.0073966966,0.12443842,0.15379718,-0.12921879,-0.06820154,-0.055132017,-0.13193448,-0.1892388,-0.15016593,-0.16409585,-0.121603265,0.052019574,0.18684174,-0.19709603,0.13119717,0.18016833,-0.18103306,-0.15815559,-0.119012676,-0.12653902,0.12700984,0.0021571869,0.17890544,-0.020633029,-0.044621002,-0.09114366,-0.14986932,-0.08486501,-0.12936716,-0.1512711,0.13651825,-0.058548845,0.11283465,-0.074793264,-0.01868087,0.16890131,-0.11809939,0.14157924,0.0062955543,0.028823439,0.1622619,-0.08243781,0.0018910706,-0.17863865,-0.19289961,0.1444505,0.18328696,0.13412604,-0.06279165,0.12456388,0.0652658,0.123281226,-0.07928196,-0.08465897,-0.18698598,0.08408077,-0.16323462,0.17555301,0.12137359,-0.19351,-0.1072674,0.085272804,0.13814904,0.13373852,0.058079127,-0.0644219,0.122382976,-0.023922594,0.07773165,0.012264117,0.16651015},
	{-0.013209877,0.09669893,-0.17759502,-0.08294532,-0.104049176,0.05579734,-0.098899774,-0.074379124,0.082545765,0.13547768,-0.04027961,-0.038137183,-0.079651974,-0.10592932,-0.08219236,-0.117335916,0.15838012,-0.07549385,-0.048169777,-0.17500812,0.14909196,-0.074477114,-0.019269653,0.06844066,-0.18578972,0.039175082,0.16859776,-0.031785265,0.09176285,0.020591162,0.06784439,-0.13709979,0.0004943429,0.16267824,0.103166535,0.18150422,0.1739088,-0.11581102,0.16804592,-0.1825126,0.1343564,0.057704434,0.09248885,-0.084583834,-0.17870127,0.0059529115,-0.1747283,-0.112699494,0.06639703,-0.12209765,-0.13885647,0.0012916668,0.11696551,-0.15157337,-0.0900736,0.12262164,-0.013048732,0.086143985,0.13427378,-0.004606825,0.05653877,0.14062844,0.1859354,0.086113274,-0.0212673,0.069681704,0.14092559,-0.115758054,-0.0847135,-0.06842157,0.15040497,0.18330488,0.08942919,0.018051548,-0.14531277,-0.083706126,0.07827561,-0.14748847,-0.0105351815,-0.18660536,0.15845454,-0.18614174,-0.13818029,-0.15990663,0.00029688928,0.14453161,0.069727264,0.0005348035,0.117725834,-0.17931232,-0.026375163,0.16973865,0.09225011,-0.036807943,0.03400111,0.109337606,0.15983176,-0.023977682,0.081283346,-0.07234594},
	{-0.08313183,-0.044672403,-0.011973592,-0.1458448,-0.03068893,0.06935446,0.109583326,0.008801663,-0.1679406,0.1096324,-0.11965488,0.0073783165,0.101942696,0.11909925,-0.032828208,-0.106953196,-0.034383096,-0.0009093737,0.09531388,-0.010732891,0.035568733,-0.06561931,-0.074240275,0.020535888,0.121930145,0.16729493,0.09154515,-0.039599445,-0.13841191,0.15247405,0.1512037,-0.17713849,0.059156794,-0.008318384,0.0027919977,0.14643055,-0.10155877,-0.095813125,0.14976864,-0.046999812,0.13315932,0.17391212,0.1737796,0.07294306,-0.09201584,0.13647546,0.17835255,0.16118321,-0.010569065,0.016946808,0.11632354,-0.16275918,-0.045503117,-0.10142168,0.1235954,0.0025944675,0.1729829,-0.04929076,-0.101746,0.1667404,0.094407775,0.12225436,0.13037887,0.18852952,0.17856331,-0.13027571,-0.04875234,0.14192277,0.05301866,0.14930765,0.14540987,-0.12463601,0.12145252,0.11109189,0.0008219398,-0.06622141,0.18632245,0.17464669,0.06340851,0.014031468,-0.09235391,0.043201283,-0.032481335,-0.14207727,-0.16508755,0.0046665547,0.1302659,0.05994137,-0.19004993,0.028873922,-0.001456893,-0.12831089,0.130976,0.07980523,0.18124712,-0.014892221,-0.07709522,0.0070884596,0.08222421,0.16817343},
	{0.081096604,0.055118468,-0.0036934635,-0.024574056,-0.00785634,-0.14492372,-0.15744793,-0.017058136,-0.0013237605,-0.12960017,0.012470925,0.071898386,0.0791244,-0.16306214,0.016116258,-0.047839046,-0.17333643,0.15731223,0.187918,-0.07459068,-0.15441321,0.017272346,-0.0064540305,0.091523625,-0.11383437,-0.038526535,-0.11124697,-0.02705173,0.147941,0.09600359,0.05177719,-0.16479221,-0.07329155,-0.13197534,-0.020724062,-0.10941205,0.13871624,-0.12186193,-0.055348698,-0.0682512,0.017664833,0.032546688,-0.017774178,-0.0017783835,0.07734297,0.06725365,0.16907805,0.04799716,0.13688031,0.1736932,-0.1721688,0.12257185,0.035155848,-0.008164753,0.0024200357,-0.16036075,-0.061303608,-0.020668184,0.17183505,-0.077092975,-0.02274083,0.1335084,-0.046869937,-0.17585313,0.054106075,-0.02837363,0.07118426,-0.04495119,0.008429766,-0.045044303,-0.054231502,0.03547004,-0.15253046,-0.028475804,0.06528274,0.030886963,0.13727534,0.105179474,0.1537357,-0.10209696,0.06800578,0.102636725,0.0624988,-0.096124634,-0.17262998,0.17644499,-0.025967134,-0.09558795,0.0498231,-0.17303358,-0.0045714225,0.1551674,-0.022760041,-0.120234616,0.1320757,0.13635042,0.10086245,-0.09865953,-0.032794967,0.1548826},
	{0.10287993,-0.12560464,0.01307922,-0.16279721,0.053763077,-0.18296455,-0.12564206,0.08499719,-0.0324857,-0.13178733,0.15303957,0.08566555,-0.15010242,-0.076400064,0.050752226,0.12920599,0.15257618,0.06968646,-0.14439543,-0.11677325,0.083971985,-0.004305431,-0.08032534,0.0039785733,0.028133804,0.006005539,0.012668187,0.14058293,0.1080054,0.15534955,-0.16381474,-0.024419364,-0.03879504,-0.11886933,-0.0065479535,-0.028694216,-0.12329462,0.07831602,0.18960199,-0.13544239,-0.07697162,-0.11402856,0.17270319,0.057657495,0.14268054,-0.07365441,-0.074008614,-0.026365345,0.074744515,-0.058044862,0.07022796,0.06909733,0.15215272,0.029182991,0.15504919,0.18006039,-0.09549097,-0.17638177,-0.04602814,-0.12667252,-0.038836766,0.08844958,-0.1845198,-0.16182369,0.12675528,0.15350309,-0.14816424,0.16755871,0.18738183,0.043335874,-0.04519746,-0.06556233,0.12754025,0.006790756,0.089665644,-0.12242787,-0.04641545,-0.15621395,0.1312537,0.15627833,0.0999204,-0.14852035,-0.12976295,-0.1484981,0.026356556,0.09997984,0.1410013,-0.053574137,-0.11549348,0.06793174,0.16310035,0.12977655,0.032811474,-0.02583614,-0.14553867,-0.077338174,-0.10038511,0.05560437,-0.18559803,0.16859338},
	{0.14475347,-0.12384126,-0.030138701,-0.11682757,0.14473394,0.03207073,-0.19426872,0.08397313,0.14521089,-0.19660476,0.17824404,0.08761066,-0.054519296,0.15440498,-0.047772128,0.015605183,-0.07457952,0.08587434,0.11829804,-0.17089464,0.05971748,-0.16214262,0.09844273,-0.16398619,0.11563616,-0.03361667,-0.071909584,0.10493646,-0.15406244,-0.017857876,0.043193474,-0.10757535,-0.01956727,0.0002226695,-0.025177356,-0.043652046,-0.074555285,0.06082797,0.17476252,-0.03389124,-0.124596864,0.16770437,0.10339321,-0.10299194,0.024595093,-0.17545176,0.10958764,0.11540374,0.099367194,-0.016537586,-0.17636837,0.11959386,-0.12744682,-0.036166146,0.067394815,0.08268537,0.06680113,0.13421297,-0.044170752,-0.16675915,0.15069743,0.1579379,0.09982379,0.01603653,-0.08653011,-0.05313603,0.13538691,-0.02478327,-0.06453547,0.12992938,-0.04772636,-0.13133594,0.10596777,0.16933572,0.00717453,-0.13748118,-0.015697338,0.11956916,0.14266123,-0.1684851,-0.1425481,0.11079413,0.10846175,-0.1498667,0.1358947,-0.13679048,-0.04011179,0.052008405,-0.09696112,-0.004779045,-0.18910012,0.17788304,0.06125226,-0.09482028,-0.011522957,-0.09492892,0.14549573,0.11825231,0.09874362,-0.12154383},
	{-0.036540728,0.181659,-0.05164675,0.14882109,-0.03857898,0.16267745,0.088724434,0.12888797,-0.022821784,0.04044258,-0.12845437,0.10435214,0.17167003,0.08934354,0.08202647,-0.11533734,0.16309698,0.023686832,0.00941674,0.059145063,0.15597938,0.081019856,-0.13992018,0.18047677,0.16892684,0.03263623,0.148782,-0.18887599,-0.034428485,0.003504991,-0.17003651,-0.1512112,0.14242971,0.11722928,-0.08648402,0.16148621,0.16850278,-0.09187404,0.11606515,0.045319457,-0.0032960242,0.1580617,-0.1484687,0.13476492,0.15935162,-0.004119719,-0.04717343,0.0052129105,0.079057716,0.08553018,0.10997831,-0.06197314,-0.08116299,0.09154611,0.17114492,0.18262218,-0.105923906,-0.18294251,0.13655587,0.1642829,-0.15077962,-0.18810129,0.15915255,-0.09280142,-0.030818857,-0.1619577,-0.12868361,0.16649671,-0.087908834,-0.19008608,-0.10454036,0.14704745,-0.111999184,-0.087081864,-0.094832525,0.17171982,-0.061477564,-0.19240811,-0.15869808,0.071677946,0.028279936,-0.15559067,0.15066239,-0.14249672,0.14345248,0.1302228,0.13981208,-0.027099222,0.08909055,0.0026730204,0.03454977,0.06870221,0.04934544,-0.122127004,0.040098462,-0.015388055,-0.05457553,0.042371247,-0.17638904,-0.13265063	}
};