// include/dense_700_weight.h
// sergio rivera 
// 2020/02/15 00:24:45 

const float dense_700_weight_p[297][100]=
{
	{0.104849905,0.06266327,-0.08523075,-0.07176202,0.10916586,-0.090341315,-0.034128442,-0.024086952,-0.11318062,-0.06280719,-0.054134574,0.045794953,-0.023184435,0.072286025,-0.058586847,0.040634926,0.0075930515,0.10681443,-0.07458737,-0.0783469,-0.11300178,-0.050313134,-0.055439536,-0.11101482,-0.12028436,0.033625595,0.06032147,-0.049768418,0.081986584,-0.07331716,-0.09621266,0.0005560445,-0.037867628,0.0077337213,-0.117686704,0.08833885,-0.102731265,-0.119521715,-0.100385725,0.05745867,0.108022764,-0.119760476,0.08775029,0.028358258,0.07344326,-0.09442827,-0.07701681,-0.1124679,0.10755459,0.0176991,-0.01187805,0.060992416,0.009772427,0.07417652,0.10700521,0.07111855,0.077737786,-0.123171076,-0.022957772,0.09791944,0.062466122,0.07138176,0.016604366,0.023831272,-0.050645053,-0.010716065,-0.007279721,-0.08375227,-0.07951093,-0.0026878596,0.0001786798,-0.09660256,0.051164944,0.08523403,0.105583414,-0.03209643,0.048853543,-0.0036323252,-0.08845771,0.09211688,0.072598755,-0.009386155,-0.005692952,0.0832129,0.09134611,0.01969164,-0.07975635,0.054389417,-0.10793443,-0.09282576,0.056406796,0.0885043,0.11275325,0.014578023,0.004543115,-0.10389561,0.054525264,-0.06118308,-0.032499734,-0.003038237},
	{-0.10640059,0.09874493,0.069748886,0.09213945,-0.108206175,0.029002883,0.011548764,0.112912886,0.004360006,-0.074066706,-0.033488095,0.11148098,0.06181203,-0.05280547,-0.12031955,0.11098488,0.03742438,0.020599928,-0.024833772,0.06704569,0.08098719,-0.039360635,-0.10541185,0.040811934,0.09626563,0.05871868,0.08829601,-0.059921768,0.016403407,0.116019584,-0.1217178,-0.06421563,-0.09480582,0.0035029415,0.09327671,0.0051386785,-0.049181662,0.05337832,0.00849242,0.114758775,-0.053581875,-0.079854526,0.12210191,-0.079987526,-0.065829724,0.08260079,-0.08318177,-0.00840793,0.059177347,-0.008712215,0.08733168,-0.0019151312,-0.07231499,-0.0814693,0.11137181,0.00043039292,0.040611334,-0.06950631,-0.059293836,-0.016134707,0.11377577,-0.06837359,-0.09326184,0.07297699,0.07188022,0.028881112,0.031819735,0.07536714,0.045793466,-0.10562081,0.02237904,-0.112255655,0.07423216,-0.11418126,0.07710718,-0.08786585,0.04373064,0.055420298,-0.02481801,0.0998647,0.115723975,-0.051327482,0.03569842,-0.010148867,-0.020662624,-0.04143615,0.10694732,0.061140053,0.1144874,0.02183712,0.082698494,-0.011617674,0.1170646,-0.06172481,-0.07626009,0.06005854,-0.03241144,-0.018260896,0.061345544,-0.031642668},
	{-0.01395857,-0.0010620579,0.07160675,0.031116178,-0.02181734,0.0006808803,0.10457237,0.045969374,-0.12008378,-0.0048254887,-0.04457831,0.044982754,0.015330821,0.0568885,-0.09788863,-0.026865615,-0.086317286,-0.043201175,-0.07902855,-0.0031735813,-0.10354819,-0.04691142,-0.08685696,-0.10243203,0.048224445,-0.024680326,-0.008100117,0.10748869,-0.015524707,-0.09780036,0.005971451,-0.04347957,-0.014969017,0.05145551,-0.05989343,0.12040247,-0.107408084,-0.1128172,0.0683038,0.063821316,0.06489987,0.108531624,-0.12313126,0.033855814,0.06809806,0.084416635,-0.107942894,0.06417048,-0.017917981,0.019272257,-0.01607614,-0.01211261,0.011729335,0.09634173,0.04610341,0.014826037,0.055556342,-0.0771479,-0.12218335,0.07985828,-0.059767496,0.08298225,0.013457605,0.04149372,0.1050242,0.009740093,0.039413106,0.025258504,-0.04085824,-0.072336406,0.003428218,0.11399024,-0.048271712,0.1079276,-0.095625155,-0.067093045,-0.084644705,-0.05411663,-0.03777259,-0.056287643,0.09224184,-0.024385173,0.047376733,-0.09186449,-0.026172396,-0.10364277,-0.008030088,0.006766178,-0.12155961,0.0521212,-0.019949073,0.088512175,-0.008705324,0.0074495473,0.08323082,-0.0008539908,0.05380736,-0.121744014,-0.064711645,-0.114920124},
	{0.09123713,-0.012725702,0.032093212,-0.05920288,-0.031015176,0.04455906,0.11504286,-0.023111217,0.052069955,-0.07146308,-0.08405991,-0.056808904,-0.11054558,-0.08762117,-0.082386404,-0.10585092,-0.112289414,0.03342324,-0.035808187,-0.09089449,0.05526681,0.06741933,-0.043984678,-0.016081937,-0.0063136797,0.030701477,0.108289234,-0.050814673,0.112657785,0.094429515,-0.0008637904,0.1085371,-0.056958813,-0.003904637,-0.04609416,0.076320745,0.06870232,-0.10805315,0.08659439,0.018116329,-0.046300087,0.052885916,-0.01815334,0.03973166,0.0071328874,0.02034264,0.07838262,0.08842384,-0.0088367555,-0.09841131,0.09781954,0.023893157,0.046467185,-0.0010395257,-0.105214395,-0.041704968,0.014482392,0.11241268,0.036528543,-0.101424396,0.094979025,-0.066650786,-0.056483455,-0.0614864,0.03638136,-0.086522944,-0.025791096,0.07243752,0.06082133,0.010036119,0.07797258,0.07815046,-0.04362865,-0.052331414,0.061235774,-0.11555477,0.048835404,-0.10748509,-0.104411274,-0.09106887,-0.101846464,0.098952666,0.10243637,0.033113632,-0.0681373,-0.029180069,0.0737648,-0.076376684,0.10066748,0.06970418,0.07920762,0.032324303,0.071667135,-0.110916294,-0.10912518,-0.08539848,0.025629649,0.10611849,-0.11698256,-0.124420606},
	{-0.050907046,-0.00016894878,-0.04158223,-0.05800163,0.09000494,0.023185473,-0.035710976,0.09299588,-0.093297675,-0.06640877,0.026495202,0.051804088,-0.044872124,0.083310015,0.09858695,-0.0072341263,-0.12017057,0.024204362,-0.032507908,0.07593013,-0.011405596,0.041217994,-0.057157952,0.012103082,0.10008947,-0.09333183,0.06663153,0.088696264,0.045535762,-0.05472627,0.08650465,-0.03991988,0.0104094,-0.0004955849,0.028590972,0.062483475,-0.07178705,0.048079282,-0.087406,-0.039848458,-0.123968095,0.0026085333,0.11237972,-0.10379261,0.10005621,-0.10286878,0.068377085,0.031936876,-0.043367032,-0.027024785,-0.08790255,0.03220106,-0.11349075,0.107948855,-0.0702726,0.077470124,-0.025352923,-0.09629105,0.10174004,0.092794836,0.0849595,-0.12544219,0.05296361,-0.079400405,-0.01649497,0.016116738,-0.023814358,-0.04296161,0.09048751,-0.056314692,0.026180806,0.003950423,-0.034946248,-0.016186424,-0.014223378,0.008127913,0.061953638,-0.08501399,0.02988753,0.0074105654,0.070838444,0.036635123,0.0113481255,-0.06650684,0.043468196,0.043940727,0.0866861,0.09186197,0.04547793,-0.087699205,-0.08614556,-0.013803935,0.023540188,0.040278982,0.10989948,0.010720285,0.1096774,0.025388986,-0.102800265,-0.04856045},
	{0.06342809,0.057356898,-0.122298874,0.004248206,0.0215846,0.052212354,-0.10680835,0.09992062,0.09993791,-0.004894634,0.104330905,-0.033293143,-0.011733021,-0.063081406,0.09918105,0.08399609,0.11538399,-0.09277577,0.009328735,-0.05686435,0.0909817,-0.089454256,-0.009254528,0.08361412,0.066922344,0.021458669,-0.11493305,0.09044005,-0.026341686,0.04991722,0.108590975,-0.11679171,0.09680809,0.09307686,-0.022401266,0.09300223,0.054025847,0.08622574,-0.04189799,-0.09075277,0.039766204,0.013554714,-0.05090934,0.044690933,-0.112482294,0.030932918,0.07331318,0.05253758,0.01850575,0.001887009,0.040659122,-0.073344626,0.042621005,-0.064976074,0.1015914,-0.08779743,-0.07994639,0.037973255,0.12255991,0.07392594,0.06827795,0.08649672,-0.06383758,-0.08759375,0.022735387,-0.00016794351,-0.020572009,-0.0009645583,0.09719882,-0.0083600655,-0.101330884,-0.014346426,0.039990142,-0.01045238,-0.12078345,0.063410826,-0.07594023,0.09676114,0.027010003,-0.06160503,0.036003172,0.013378328,-0.09344816,0.029831668,0.11396333,-0.026225062,0.00093825563,0.04951483,-0.104963295,0.058177058,0.117913,-0.056210484,-0.038473174,-0.052592862,-0.11155318,0.008398874,0.08182033,0.0019579337,0.09425233,-0.09434062},
	{-0.017863557,-0.0073118065,0.10062855,0.05593985,0.059291378,0.11133894,0.096988805,0.015030849,-0.059064552,0.011651428,-0.014687012,0.09588916,0.03207444,0.04410037,-0.0069173616,-0.028581513,-0.10884894,0.09018264,0.10881484,-0.0004899905,0.060677506,-0.10349579,0.02415513,0.016784793,0.08862755,-0.025411235,0.0049351235,0.009506896,0.09924047,0.022200478,-0.09383065,-0.08658874,-0.037339717,0.08566576,0.122196965,-0.04819767,0.0745204,-0.040215563,-0.09854369,0.0651115,-0.014634546,-0.044930592,0.06699251,-0.031209225,0.07942404,-0.017559694,-0.06822403,-0.07153494,-0.089629024,0.062291313,-0.104668275,0.09375951,-0.09523123,0.018371534,0.120899715,0.04958343,-0.10041066,0.0098863505,0.10284886,0.091507554,0.059202854,0.07472613,-0.049896505,0.020853944,-0.049085386,0.11715282,-0.056631893,0.070070684,0.07952688,0.07774855,-0.030631436,-0.048034836,0.08044718,0.04776357,-0.01065925,-0.073144935,-0.10357879,0.08041899,0.082135074,0.028483832,0.01780406,-0.09936861,0.042235665,0.0467625,0.0081461,-0.060959946,-0.036079314,0.09527913,0.02610539,-0.10945589,-0.0068747164,-0.092456,-0.053155564,-0.10816668,-0.008273383,-0.002399651,-0.021722268,-0.06688877,0.031007133,-0.12054248},
	{-0.11810122,0.047801346,0.11282862,0.028630884,-0.0199003,0.0717448,0.11441144,0.04527067,0.10145047,0.112540156,0.081596695,0.023032518,-0.016196169,-0.058341917,0.0693996,0.066508055,-0.1100292,0.0031464568,-0.05863074,0.021731235,0.04304942,0.107324846,0.09794726,-0.012235928,0.09994743,-0.01640448,0.047726512,0.11084883,-0.10485918,0.062177412,0.11596541,-0.07915069,0.093928635,-0.047437347,0.057671033,-0.08561714,-0.029739136,0.038492355,0.09488412,-0.069170326,0.070895106,0.07152029,-0.077700324,-0.11190295,0.076003276,-0.0665778,-0.021902943,-0.11689837,-0.11697583,0.039601035,0.0370599,-0.09480662,-0.006843174,0.03687349,0.025622133,0.118322276,0.03317197,0.053856544,-0.06252601,-0.063794315,0.026802745,0.07309566,0.06397152,0.039055333,-0.11867455,0.02528397,0.10265768,-0.068241864,-0.025968747,-0.029677216,-0.058200214,-0.111485295,0.100529164,0.028739957,-0.04816476,0.09094608,-0.111633554,-0.0045739124,-0.0482656,-0.038194355,-0.11538046,-0.088229306,-0.041555632,-0.0878057,-0.08358522,0.007707286,-0.038363785,0.054889224,0.075697586,0.03363015,-0.07129187,0.06468603,0.066410415,0.014639352,-0.09319851,0.0071259704,0.084890835,-0.019981343,0.022902157,0.002576695},
	{-0.039473403,-0.042051796,-0.037027456,-0.09580992,0.100014694,0.007905899,-0.111594945,-0.0736848,-0.050301775,0.108218394,-0.066875264,0.11336975,0.109731875,-0.09708557,0.11450581,-0.087378055,0.12263016,0.016082881,0.021156037,-0.013335574,0.040645417,0.0055572153,-0.09434625,-0.090973966,0.016918927,0.022428932,-0.03760228,-0.10303734,-0.102520354,0.12173941,-0.07435445,-0.088428386,0.0321176,-0.038043384,0.0460201,0.013713186,0.03831818,-0.038041282,0.07045964,0.022156816,0.026535984,0.1186778,0.07370496,0.017888742,-0.08092645,0.055437434,-0.0975615,0.11107814,0.04621535,0.03139283,-0.10256723,0.09911956,-0.1121562,0.054281417,0.041960604,0.11933415,0.06420188,-0.05267442,0.05840552,-0.0021747414,-0.11933361,0.013154553,-0.055964954,-0.10622454,0.052049443,-0.09504139,0.061663795,-0.10794496,0.11403768,-0.07397672,0.01706198,-0.01974018,-0.035975374,-0.0036832031,-0.10708178,0.043187357,-0.09378454,-0.03037888,-0.10889557,0.0772724,0.08340297,-0.018410865,-0.05479296,0.0272578,-0.043011744,0.09798755,-0.041639812,0.015411662,0.036191024,0.01748107,0.008517926,0.10868711,-0.10233997,-0.055465866,0.008367218,-0.059874106,-0.04331754,0.03629495,-0.090945646,0.11670762},
	{-0.07002832,-0.0060234447,0.097670816,0.08929244,-0.029946731,0.08927485,-0.10739234,-0.05617021,-0.0009058825,0.066452704,0.074552044,0.09461579,-0.091877036,0.028713962,0.074451305,-0.10579074,-0.11750529,-0.03365603,0.03136517,0.013297623,-0.0389957,0.07030489,-0.02216504,0.008621152,0.08561408,0.043884188,-0.084054716,0.047623992,-0.06788601,0.075174816,0.10060146,-0.100221425,-0.011676107,0.10725216,0.029986493,-0.10045182,0.020338656,0.0593699,-0.010726972,0.1066676,0.047457457,0.066703826,0.0024336083,0.026866624,0.075553976,0.07740899,0.06908531,0.0936498,0.09269428,0.0025068703,0.084601134,0.068729684,0.09789863,-0.06307165,-0.085530534,-0.01807706,0.018184623,0.001260864,-0.062347483,0.021168828,-0.10102581,-0.1122066,0.08363633,-0.051544845,0.025170218,0.07407652,0.014710874,0.010171133,-0.010177491,0.032874256,0.083104834,-0.030753065,-0.11899854,0.108854756,-0.08550538,-0.0854681,0.1114234,0.10047246,-0.090480484,-0.040104583,0.08965418,-0.040955372,-0.11742686,-0.12257518,-0.09982564,0.04027809,0.06947474,0.036573358,0.014583821,0.041938275,-0.107317634,0.032145012,-0.0906086,0.05771422,-0.040024713,0.105038725,0.056536984,-0.033364676,-0.0840204,-0.053840347},
	{0.05176574,0.03783684,0.11159296,-0.07744271,-0.049497977,0.0103310365,-0.038930334,0.014552222,0.10708421,0.08144012,0.042990588,0.015087549,0.016221266,-0.03485753,-0.09938611,0.02731734,0.07198967,0.0820522,0.09134638,-0.1077375,-0.04326462,-0.016646441,0.019808616,0.11395468,-0.005706532,-0.055894375,0.008159193,-0.03250469,0.013621876,-0.035230696,-0.09095354,0.04435564,-0.06642588,0.05039911,-0.12158089,-0.0442365,0.060528662,-0.013974695,-0.010015361,-0.029469425,0.00030039894,0.11477924,0.08085963,-0.06404802,0.08089416,0.047784686,-0.056862533,-0.043910082,-0.03676579,0.07005474,-0.016823381,0.075605385,-0.05867777,0.08467692,-0.0836059,-0.12600236,0.0993356,-0.062076744,-0.042661257,0.12028593,0.014192633,-0.105295144,0.08721395,0.04270416,0.0025789472,-0.029792337,-0.05640953,0.11186351,0.05065171,-0.111449204,-0.01057499,0.04581142,0.06203412,0.118550904,-0.048806943,0.07512008,-0.036023572,-0.043121133,-0.12222193,0.10013575,-0.009557735,0.07050509,-0.08363643,-0.000864894,-0.073785625,-0.008926687,0.026721325,-0.055758607,0.046576906,-0.111808464,0.011000193,0.047359277,-0.10393154,0.09791339,0.027157314,0.07763326,-0.012652926,-0.123404585,-0.020215359,0.03933678},
	{-0.031806864,0.03980205,0.06094833,-0.062236864,0.038848814,-0.04432606,-0.11057607,-0.049936436,0.02838127,-0.070642315,-0.0533427,0.027495388,0.113018,-0.1115816,-0.06484631,0.04100869,0.035649687,0.056494545,-0.08399231,0.061140332,-0.10102516,-0.0790923,0.006393773,0.09604723,0.014970345,-0.0021655702,0.011265058,0.048810095,-0.046853676,0.032036956,-0.046212908,0.055594757,0.07153928,-0.009682532,0.095428444,0.11867762,0.010271353,0.09425892,0.031785123,-0.11966449,0.04095159,-0.040675912,0.03260304,-0.019869037,-0.07048645,-0.08780434,0.005830957,0.016110096,-0.10442708,-0.043831524,0.081534065,0.07408343,0.019290185,-0.12144015,-0.034929853,-0.10903784,-0.018710809,0.084176145,0.11607911,-0.010212857,-0.09450173,0.101782925,-0.011571321,0.04431493,-0.08124061,0.10819757,-0.07696498,0.07133184,-0.115677476,0.0913418,-0.107633986,-0.10156489,0.05623954,0.0051353723,-0.09546672,-0.052995384,-0.017229047,0.06279572,-0.09284059,-0.06395924,-0.08392192,-0.05861394,-0.061158862,0.11027455,-0.12192381,0.07849855,-0.03805001,-0.04449881,-0.05140561,0.028929126,-0.07226531,-0.07974166,-0.021610498,-0.075328864,0.06458218,0.11034059,0.10772269,-0.025358733,-0.034248218,-0.021580277},
	{-0.08949192,-0.07829778,0.065201245,0.1179692,-0.1079309,-0.056919586,-0.031507354,0.05188591,-0.020953927,0.083489,-0.09589326,0.012898377,0.028593127,-0.114388876,-0.07683893,-0.09308051,-0.058231615,-0.06687819,-0.008591698,0.04875063,0.09629817,-0.015941234,0.00052194577,-0.057720456,0.0118955895,-0.1270013,0.089125164,0.02581293,0.07834678,-0.030010847,0.043814663,0.071704455,0.031255055,-0.044027735,0.049218513,0.016279986,0.00028786183,0.06305615,0.11573928,0.039742228,0.08784289,0.11436026,0.05696759,-0.08251046,0.028095584,-0.10143719,-0.067379944,0.066274986,-0.12660629,-0.01931834,-0.090082504,-0.042155128,0.04361075,-0.10945515,-0.0034985754,-0.046439514,-0.10012832,-0.085473835,0.11171197,0.048545003,-0.076225154,-0.10236894,-0.118695885,0.100041494,-0.122884564,0.056844845,-0.12507048,0.061977465,-0.116692916,0.11094849,-0.12033373,-0.0788929,0.08258619,-0.014137405,0.115701936,0.029790046,0.04800951,-0.10512473,0.0119837625,-0.036712803,0.035349626,-0.0013571763,0.07190961,-0.115758516,-0.035184372,-0.021044662,0.08037187,0.09884024,-0.10270502,0.11160774,0.0026692944,-0.08112893,0.09434168,0.012125755,0.058468115,-0.0812342,-0.07239143,0.0033482218,0.036763586,0.108345486},
	{0.020356921,-0.00044095056,0.031829055,-0.061303306,0.03407351,-0.038597476,0.03592393,0.009702751,0.099006064,-0.006002051,-0.11724245,-0.06601237,0.008692637,-0.09023827,0.105895564,-0.05017309,-0.036348544,0.0028046567,-0.05597703,0.11763572,-0.092869915,0.02199937,-0.06326444,0.08076742,-0.12826446,0.008512545,-0.05407299,-0.065314464,-0.020071298,0.116947204,-0.043126788,0.030136803,-0.0012782413,-0.08919371,0.06772307,0.07584443,-6.202419e-05,0.0872566,0.0203982,0.0980841,-0.04354482,0.040082242,0.09760311,-0.116887875,-0.0997412,0.11154481,-0.04263538,-0.06120631,-0.005911624,0.09078401,-0.006955706,-0.018750396,-0.0896141,-0.021533318,0.008257466,0.017037176,-0.077653654,0.044632535,-0.081257224,0.048222434,0.07042101,-0.02917057,0.0992415,-0.06483816,-0.12279696,-0.084159456,0.07997646,-0.07634199,0.021286558,-0.045726925,-0.01906775,-0.016546197,-0.109081686,0.069914974,-0.11913526,-0.10412559,-0.09929885,0.10691519,0.11092358,-0.09687203,-0.042624176,0.108606875,0.03400979,-0.026389133,-0.11782272,-0.08750018,0.10540017,0.115397185,0.047737524,-0.07108737,-0.1150729,0.06429334,-0.0818616,0.10740891,-0.11280208,-0.08825729,0.09709631,-0.031042565,0.05364493,-0.0309824},
	{-0.0750763,0.018484319,-0.029877292,0.03090044,0.0045065437,-0.06558992,-0.08211142,0.064109474,-0.105423324,0.09690636,0.12016009,-0.07149891,0.106247805,-0.025626091,-0.09619337,0.10924889,-0.1061713,0.03227421,-0.10577767,-0.007267354,-0.033787493,0.055838913,0.049382158,-0.038303595,-0.07199745,0.066652104,0.09245859,-0.03917803,-0.024115147,0.003729432,0.11876041,-0.119778305,0.007835916,0.048014645,0.0838885,-0.050903507,-0.11915001,0.026064852,-0.07932298,-0.020076105,-0.0997413,-0.026922574,0.034894243,0.004661776,0.05520327,0.030404432,-0.09347819,-0.019750454,-0.059804782,0.00010720899,-0.058211397,0.11234091,-0.05294676,0.029933514,0.029032482,0.10883956,-0.032060016,-0.06683711,0.054398585,-0.023392944,0.07252021,-0.089196436,-0.11066477,0.0016788252,-0.08204743,-0.09096203,0.037543982,-0.053152706,-0.027649943,-0.06556472,-0.045893196,-0.10934315,-0.00094086403,0.042920247,-0.020378586,0.11319671,0.01581792,0.110775225,-0.06482936,0.110280156,-0.07646971,-0.0059147193,-0.118966304,0.056165967,-0.03301943,-0.028587783,0.019624326,-0.089018725,-0.01635614,0.11399908,0.06899951,0.11105149,-0.08285933,-0.011610596,0.06739753,0.100485705,0.11382007,-0.09450783,-0.029701196,-0.0548192},
	{0.06880042,-0.058788985,0.09382738,-0.05845024,0.014063642,-0.10087749,-0.04827595,-0.080304645,0.002786075,0.062777996,0.12030224,-0.028296188,0.05209314,0.010369925,0.11231072,-0.025533186,-0.070098594,-0.076698475,-0.04495546,0.093410745,-0.09991961,-0.09885346,0.10606284,-0.008308769,-0.09167768,0.033195782,0.10941208,-0.028396938,-0.06259973,-0.023916004,-0.011891687,0.03133369,0.039265208,0.03919206,-0.08251582,0.084538855,-0.033949487,0.090309694,0.07069475,-0.07944907,0.043420114,0.088002734,-0.06827351,-0.02456874,0.031454172,0.08412819,0.014159271,0.057729658,-0.0193597,-0.056408174,0.0769541,-0.09119226,-0.09555054,-0.11599123,-0.10827522,-0.029278679,0.07714499,0.092825465,-0.10620362,0.08958536,-0.038275536,-0.12234144,-0.019006094,-0.07801363,0.009850729,-0.0661798,0.0049582687,0.02115608,-0.042778064,-0.09959626,-0.082419306,-0.041417684,0.008121476,-0.10274865,-0.11342391,-0.090189345,-0.08638572,0.058517355,0.072155006,0.0455181,0.10379042,0.042581163,-0.07206204,-0.01179394,0.10940002,0.08898184,-0.10890805,0.067166194,0.10679309,0.070586495,-0.093987264,0.07867992,0.018466106,-0.09059789,-0.02150459,0.09746523,-0.107402384,0.0011956393,-0.08860044,0.09318279},
	{0.099090956,0.09807898,-0.051391542,-0.1176457,0.11131871,-0.07532944,-0.105489835,-0.044924535,-0.096671164,-0.033276487,-0.08701871,0.046367675,-0.10395352,0.037678145,-0.055381883,0.086748764,0.0939472,-0.07115416,-0.02968671,0.07448339,0.0019033503,0.021438904,0.022042485,0.035738368,-0.057295565,0.017394321,0.08426382,-0.043945283,-0.0971978,-0.064707905,-0.0679014,0.058440316,-0.11425925,0.013839109,-0.014051938,-0.047402095,0.07914337,0.06487369,0.050419196,-0.027097851,-0.07919844,-0.019130822,-0.0023375435,-0.075990334,0.08861972,-0.052007068,0.1130826,0.047314256,0.026111223,0.1000689,-0.050997123,0.058294058,-0.033644654,0.05932423,-0.10945846,-0.086550005,0.0682715,-0.06420958,0.008072874,-0.008800656,-0.11805235,0.030948112,0.0195867,-0.060235087,0.07414518,-0.10596789,-0.10287557,-0.07908424,-0.022211263,0.061225582,-0.029448416,0.09563426,0.046050802,-0.09382382,-0.108786985,0.033544015,0.108149186,0.09140509,0.056478303,0.015271918,0.019860486,0.10750169,-0.10625728,-0.06010209,-0.091154836,-0.04517619,0.05024428,0.08600477,-0.015133666,-0.06484879,0.1097384,-0.07332119,-0.026498003,0.04449388,-0.048065405,0.063003145,0.018961074,0.070092484,-0.033071592,-0.0617502},
	{-0.0062058424,-0.03778357,0.10009895,0.11403747,0.07188343,-0.04103211,-0.043434344,0.08141833,0.05625843,-0.1134722,0.10098602,0.07394295,-0.10773886,0.041297387,0.08722169,-0.03218123,-0.1222475,0.07881539,0.0077723595,-0.12580581,0.10557899,-0.058323067,0.011547981,-0.004346362,0.07497182,0.09093189,0.016705157,0.04962532,0.048495572,0.086570226,-0.009098369,0.076906115,0.0021874548,0.027528405,0.0805829,0.051767938,-0.12167075,-0.10079754,-0.07477967,-0.0058156946,0.08080553,-0.08742107,0.056250192,-0.06745502,0.09461076,0.06133192,0.032838166,0.019840887,-0.06995307,-0.087515496,0.022766463,0.10173463,0.07327828,-0.0132733025,0.052829556,0.06121164,0.07679299,-0.026553253,-0.005531329,-0.028564332,-0.095282756,0.09006403,-0.05072262,0.049067095,0.036679927,0.026832376,0.042696394,0.07474768,-0.11725968,-0.01553366,0.008363898,0.016444094,0.07687451,0.11698802,0.040188614,0.100897454,-0.11136623,-0.008437467,0.108698085,0.09718732,0.04377511,-0.037143573,0.07563893,0.055179693,0.041509937,0.0038396814,-0.040975053,-0.04261914,-0.08427759,0.081704125,-0.0002527223,-0.085100666,0.008403066,-0.054180685,-0.053615525,-0.0014524665,-0.054803744,-0.03486382,-0.008975874,0.08747215},
	{0.0935936,0.09716327,0.10472976,-0.048094757,-0.05153753,-0.074218094,-0.061598748,0.02280805,0.009779323,0.10441891,0.090080656,0.029763395,0.11240956,0.030982014,-0.0031658337,0.06033847,0.10601597,-0.028516134,0.011806988,0.004206684,-0.049904905,-0.101897255,-0.043257054,0.08332436,0.08700064,-0.093123525,-0.00023866122,-0.04636187,-0.023774816,0.0051136333,0.07012592,0.09926799,0.037130047,-0.07666466,0.06655281,-0.026799485,0.05779255,-0.008165184,-0.017935662,-0.08169049,0.0477525,-0.10505567,-0.017242827,0.022177001,-0.05761287,0.05399528,-0.048200194,0.11358619,-0.10295194,0.094652675,-0.10806322,0.039378796,0.082212575,0.027078621,0.10137117,-0.11233587,-0.06357372,-0.08774127,-0.086935334,-0.03116928,-0.04769175,0.063767865,0.0029064068,-0.013062845,0.08134982,-0.07667454,0.107936926,0.082384154,-0.043771625,-0.014649396,0.11027235,-0.040587608,-0.11444239,0.06358234,0.01309543,-0.10509708,-0.038411878,-0.082756005,0.066113286,-0.10597539,0.026696721,0.12024381,-0.10984249,-0.05521458,-0.041581113,0.11892102,-0.09906366,-0.027398037,-0.048468634,0.03454444,0.10547979,0.04777124,0.08427363,-0.098153226,-0.013196375,-0.006168787,-0.0008306295,-0.012370078,-0.100604326,0.07334938},
	{-0.03878867,0.015240378,-0.024806896,-0.050415244,0.11683923,0.07276433,0.11451605,-0.075273804,0.04427069,-0.023607193,-0.12614337,0.029345116,0.063611664,-0.08178704,0.073758155,-0.11695639,-0.026922623,-0.038865156,-0.11337341,0.03630895,-0.08992503,0.028924698,-0.013399718,-0.021233298,0.010501458,0.07528492,0.033940498,0.024408417,0.054896522,-0.021828925,0.07370061,0.029719321,0.062198475,-0.046426803,-0.02057784,-0.12645544,-0.040530905,0.029402327,-0.023503974,0.119955435,0.022339921,0.05870816,-0.07107952,-0.11303378,0.094194375,0.11247545,0.0026010987,-0.053858273,0.06742945,0.11487172,-0.12716456,0.055154294,-0.044553734,0.06647583,-0.042432424,0.03095303,-0.042436004,-0.10371657,-0.016112102,-0.008144611,0.10784155,-0.08648803,-0.0892048,0.10318592,0.051686853,-0.008249633,-0.06657828,0.11062145,-0.02181274,-0.11313181,0.05275689,0.070496656,-0.01724407,-0.10169413,-0.023837755,0.05838179,0.008279492,0.07232789,-0.040503234,0.06771938,-0.12559137,-0.036263935,-0.051655646,-0.12575252,0.066570856,-0.021679468,-0.051538836,-0.025686,0.03351924,-0.10441995,-0.090083726,-0.09599928,0.022943787,0.110557124,-0.015717665,0.090810455,0.033615623,0.012342927,-0.01809646,-0.033106137},
	{-0.103141785,0.051754236,-0.058114495,0.038958304,0.043907482,0.03492255,-0.06315484,0.008108191,-0.057422455,-0.07433623,-0.017378245,0.11965167,-0.017370747,0.053063575,-0.04628826,-0.053273015,0.094564445,-0.056340408,-0.04195754,-0.06615398,-0.08056217,-0.0056097037,-0.021894425,0.034468364,0.09842219,0.037664533,-0.08951354,0.052625917,0.010804478,0.028431796,0.044018194,0.0049157185,-0.09308763,0.11520055,-0.05404103,0.08775572,-0.09931133,0.004695859,0.009876291,0.11999179,-0.070684046,0.042651467,0.08936501,-0.051387336,0.07710302,-0.032986686,-0.05492165,0.081692584,-0.040841747,0.099788405,0.01613964,0.0010016758,-0.09893099,-0.025878835,0.032321613,0.02883821,0.026329104,0.041069154,0.11143232,-0.11848137,0.07413023,0.057472218,-0.084478244,-0.11943611,0.016306788,-0.073866814,-0.064933844,-0.052310187,-0.042005066,0.03744197,-0.1105049,-0.023368878,0.012316118,-0.08214086,-0.054627314,-0.051232297,0.03142699,-0.094081946,-0.048850603,-0.07242542,-0.09412838,-0.04953184,0.035638284,-0.037665054,-0.074768394,-0.008539829,0.119876936,0.027111692,-0.08356933,-0.10903725,-0.1124439,0.09137731,0.11021721,-0.08228734,-0.02796609,0.06383475,-0.023330422,0.044190876,-0.09216796,0.01308821},
	{0.050182205,0.057264764,0.022505248,0.09235424,-0.046500932,-0.09595765,0.03890629,0.06496633,-0.11108659,0.007243613,0.026943268,-0.075889535,0.043317135,0.036330298,-0.10920941,0.071080275,-0.06556699,0.040408045,0.072263844,0.09395832,-0.08112673,-0.04858142,-0.020179877,0.026672032,-0.023878496,-0.06307882,0.0977285,0.06310312,-0.040777884,-0.043542538,0.056343216,-0.04565997,-0.022134116,0.083476,0.07339794,-0.070848875,-0.076598205,-0.05716123,-0.02501679,-0.07534004,0.09366199,0.009961819,0.040195532,0.039400138,0.11393545,0.08339264,-0.09442161,-0.107351325,-0.11603893,0.03557564,-0.0823396,-0.108021274,-0.080062285,-0.09560166,0.051992472,-0.051593624,0.071549304,0.073852405,0.007383707,0.031811014,0.08943804,0.08725714,-0.0662692,0.0058212,0.11814041,0.07327897,-0.08995061,0.032372545,-0.0872346,0.048183143,0.08190809,0.062503606,-0.06007086,0.1101059,-0.009968924,0.11684334,0.10632598,-0.019582437,-0.0652749,0.08726597,0.07529751,0.020877125,0.07926751,0.010942886,-0.09919101,-0.07371179,0.10681144,0.00082452456,0.104625076,0.11903449,0.019320533,0.10608098,-0.014925504,-0.07633408,-0.062240712,0.036695063,-0.04068476,-0.016346633,-0.04741115,0.08223957},
	{-0.021504318,-0.12098451,-0.009338001,0.08964652,0.0198289,0.055898454,0.08365111,-0.037545,-0.0614004,0.011767718,0.06305383,0.04088328,-0.10356887,-0.09865894,0.002180057,0.055068757,-0.052913234,-0.12125839,-0.033625267,0.036054805,-0.041581485,0.08929076,-0.010685237,0.04380425,0.0215856,0.06363311,0.072629675,0.07179867,0.020565273,-0.0767721,-0.043080986,-0.010544001,0.08858855,-0.09914393,-0.07446195,-0.0503238,0.11325179,0.08687408,-0.059973635,-0.09392396,0.014658656,-0.08829293,0.015163991,0.09054164,0.036999747,0.027520055,-0.116182245,-0.12080608,-0.08281344,-0.09335623,0.07794873,0.1175765,-0.08127735,0.034481365,-0.042031392,-0.021023465,0.06090103,-0.062597625,-0.05563587,-0.022825014,0.06261016,-0.10451067,-0.10098482,-0.10424418,-0.018327368,-0.090115055,0.0037485207,0.053770136,-0.041017596,-0.067256965,-0.05498075,-0.06609553,-0.087503724,0.027117359,-0.096601486,-0.05976491,0.08778923,-0.039007995,-0.05670647,0.10830364,0.027537247,-0.09618107,0.019323776,-0.08349129,-0.11759878,-0.04605257,0.11640948,0.010307182,-0.006488119,0.042237382,-0.044403598,-0.056728154,-0.10744683,-0.07687783,-0.10873762,0.11884002,-0.016034117,-0.037543416,-0.031183671,-0.06667248},
	{0.08024052,-0.041598566,-0.06293863,0.0029853994,0.06986401,-0.11403066,-0.012010633,0.060236312,-0.059938576,0.03352669,-0.054377735,0.08554234,-0.01152379,0.044962727,0.08468815,0.118069306,-0.03887865,0.11916294,-0.03732252,0.063630685,0.11070166,-0.0193091,0.009689368,0.042534895,-0.013378905,-0.08130179,-0.11300922,0.06857429,0.03360877,0.08282155,0.050242033,0.0965317,-0.08642973,0.10671256,0.042994373,0.08995044,0.10677077,0.006511725,-0.05862138,0.029547984,-0.1227784,-0.058041073,0.01368334,-0.1005429,-0.093425855,0.026625846,-0.092753254,0.06317408,-0.03802707,-0.057780154,0.057027854,-0.05039718,0.010332238,0.09113361,0.028022133,-0.015782095,0.11331566,-0.06893591,-0.007203395,-0.06440052,0.093637586,0.019315174,-0.03484827,0.022944134,-0.10418934,0.059930805,0.01391049,-0.09381346,0.047730982,0.04404431,-0.10946571,-0.11878637,0.05200835,-0.04831065,0.08282772,0.1219269,0.071101725,0.10048165,0.029087365,0.011932598,-0.03898103,-0.038931467,-0.006900434,0.05613271,-0.06287876,0.07203347,-0.029075857,0.11575518,-0.018475443,0.06525874,-0.055174973,0.08771329,0.01552457,0.07305551,0.015879573,0.030384565,0.09457657,0.051739328,-0.10307791,0.05868726},
	{0.07486002,0.11208911,-0.011374116,-0.024579544,-0.07868418,-0.10879101,-0.02186058,0.014279503,-0.09911309,0.09146199,-0.113547735,-0.059847817,-0.071205676,0.04950317,0.03431139,0.008719658,-0.026739132,0.005218006,-0.07051833,-0.043875277,-0.08875755,0.062710084,0.052573305,-0.01621118,-0.018957745,0.091903515,0.0763594,-0.066220626,-0.06811523,0.11963975,0.068784185,0.06319286,-0.042137604,0.0037445806,0.11643283,0.10893094,0.10355927,-0.016187752,0.105417706,-0.07128354,0.114681914,-0.088817716,-0.106379844,-0.062614486,-0.06953436,0.0010096263,0.004023804,0.10347669,0.097307585,-0.043973565,0.024306,0.011068637,-0.08251201,-0.030075694,-0.024680743,0.048673715,-0.085872345,0.06887791,-0.058182642,0.07421635,0.01196452,0.08697683,0.050332427,-0.0069737346,0.0035191106,-0.121071614,0.08760556,0.031963076,-0.092365555,-0.093763165,0.025063464,-0.08682961,-0.05536407,0.0478075,-0.04003632,-0.12360311,-0.055365007,0.08946773,0.10583938,0.10352959,0.111863196,-0.10359605,0.023908377,0.07185492,0.095908076,0.116401844,0.11175484,-0.01662793,-0.10257299,0.0083444165,-0.054079216,-0.10588772,0.05126865,0.06881087,0.002390056,-0.048374172,-0.024718944,0.08441375,0.024424717,0.11652976},
	{0.03121224,-0.027925469,0.007998108,-0.06802998,0.05471982,0.02026972,0.05586047,-0.03064096,0.099508576,-0.044273406,-0.09481952,0.074877575,0.04648659,0.07308078,-0.103545964,-0.117682256,0.10715577,0.07960528,0.0504945,-0.10955803,-0.013752081,-0.04363154,0.07108125,0.08047137,0.092221566,-0.08327146,0.01933429,0.09559779,0.09940303,-0.016438907,-0.107128605,0.08250253,-0.07068308,-0.10364545,-0.04410706,0.113023505,0.018846963,-0.036555883,-0.0617844,0.09116992,0.0056064636,-0.0995251,0.092198305,-0.013145571,0.10556285,-0.12138819,0.076502666,-0.000871245,-0.030845813,0.11768968,-0.056684237,-0.09801921,0.011481838,0.012104428,0.0122530535,-0.12386326,-0.109187625,-0.082523905,-0.08248388,-0.0026748255,0.015045714,-0.013621141,-0.12089598,0.10849258,0.12085127,-0.088759236,0.0036464985,0.10600612,0.0919777,0.10831424,-0.07705263,-0.028525975,0.07396993,0.0979037,0.020028917,-0.10767742,0.0364148,-0.11608927,0.014895178,-0.06159492,-0.015461844,0.06792267,-0.08202034,0.103831336,-0.061322942,-0.061648257,0.09684205,0.0019085741,-0.07923852,0.08917502,-0.10995296,-0.11303462,0.048448373,0.11228862,-0.071829684,-0.0779463,-0.055876832,-0.028405413,-0.0441664,-0.009948276},
	{-0.03377559,0.09072294,0.02282429,0.02239545,-0.087617986,0.09772259,-0.122931875,-0.07546137,0.028849453,-0.037499584,-0.06629079,-0.08362915,0.027623024,0.026933527,-0.066064246,0.11559646,0.07174295,0.017255967,-0.027262988,0.09143841,0.11652035,-0.018820984,0.07837979,-0.029442372,0.0918274,0.023539279,-0.12032039,-0.083523236,-0.050055433,-0.030668564,-0.06108802,-0.043132946,-0.043979973,0.015408317,0.111630164,0.09088337,-0.04649766,-0.06585597,-0.088810906,0.011378644,-0.112414725,-0.07783387,0.054732397,0.037460726,0.06439529,0.034633324,0.11228788,0.105799995,0.048367217,-0.040839102,-0.020647677,-0.081229106,-0.019822815,0.079076484,-0.017759137,-0.045255817,-0.006525536,-0.017337983,0.10318827,0.07971608,0.061986893,-0.086157314,0.08222864,-0.08410543,0.0040186443,-0.00726561,0.026622508,0.05970891,-0.046570644,0.020773683,0.12171641,-0.09260629,0.09147886,-0.0474878,0.061262388,-0.102130055,0.027499065,0.10199642,0.01860524,0.061375037,-0.097272985,0.052500326,0.0059905103,-0.060448814,0.11143727,-0.093288,0.10392591,-0.07112432,-0.04778089,-0.022943659,-0.020284913,-0.01579868,0.069158584,0.10664166,-0.008059613,0.048475746,-0.041256938,-0.05019282,0.07012211,-0.04518509},
	{-0.036996268,-0.06323499,-0.09422667,-0.12072575,-0.10707872,0.0259816,-0.114735655,-0.021853456,-0.08759344,0.0009875211,0.046005998,-0.09214342,0.038126044,-0.046437465,-0.052293357,0.11378026,0.061723035,0.11181483,0.003698268,0.014729537,0.08728378,0.036829058,0.024373466,0.014854139,-0.06258684,0.0598548,-0.103901245,-0.045354486,-0.082997955,-0.018698037,-0.10609601,-0.122215465,0.016240362,0.03814247,-0.04574718,-0.0019813753,-0.043245032,-0.05128786,-0.067823604,-0.024673704,0.11304254,0.0072898306,-0.023701578,-0.07860848,0.11664935,-0.045485165,-0.07808662,-0.0022345826,-0.018336827,-0.0020491064,0.015883794,0.09916976,0.015393286,-0.10061199,0.11794098,-0.058419716,-0.10083443,-0.030208424,0.11616873,0.07289835,-0.122000866,-0.068829075,-0.020700166,0.08530772,-0.10212895,-0.05840286,-0.10548278,0.014826906,-0.06134644,0.10266194,-0.032507278,0.012544214,-0.02096746,0.022543283,0.09488831,0.089658886,0.110199556,0.11610628,-0.11182866,-0.024201676,-0.09298371,0.038405858,0.0627547,0.048422392,0.09901922,0.012370101,-0.017425908,-0.10859098,-0.105201356,0.107632995,-0.028540205,0.014743564,0.016089004,0.100479856,-0.095505394,-0.11517667,-0.10723791,-0.099561796,0.107243136,-0.042396627},
	{-0.0607988,-0.052931435,-0.031223703,0.09281045,0.06760728,-0.10397942,-0.0031600622,0.10467174,-0.11802386,0.08009083,-0.037249405,-0.012852963,-0.028024696,-0.099637166,-0.030109957,0.032076232,0.0022890132,-0.059182163,-0.10840342,0.10291145,0.007105187,-0.07841536,0.016374871,-0.09005084,0.008044527,-0.1024856,-0.103776515,0.08953344,-0.12057747,-0.070114955,-0.12264906,-0.11058932,0.004044693,0.078133844,-0.011462417,0.1010786,0.0803021,0.014978457,-0.027721195,-0.066188775,-0.05236625,-0.012217062,0.041488625,-0.0981023,0.010150707,0.05302973,-0.052942142,0.019211505,-0.10711639,-0.034649372,0.04889158,-0.093877114,0.0077490397,-0.07794827,-0.021794291,0.07563559,-0.019281628,-0.1168833,0.09830057,-0.013588775,-0.11752864,0.055052873,0.053884603,0.11424005,-0.094552346,-0.07388418,-0.093913324,-0.02967204,0.01812095,0.043500666,0.09735686,-0.06357208,0.00096833543,0.08049064,0.051297672,0.046536665,0.020939374,0.034387983,0.023412816,-0.066027395,0.11338149,0.036864795,-0.056974333,0.09786784,-0.0055499063,0.10907494,0.084776044,0.0743617,0.09894855,0.029377453,-0.015986174,0.08130351,-0.09746502,0.110129684,0.03155606,-0.1146019,-0.116681896,0.052867923,-0.027334645,-0.04619173},
	{0.089162916,-0.06006978,-0.072409794,-0.05024138,0.041055445,0.066384,0.024962647,-0.008260038,-0.03289767,-0.032554016,-0.005917947,0.11388174,0.060984634,-0.06597796,-0.10604459,-0.0909007,0.04819853,-0.11732823,0.043611404,-0.10289564,0.007312096,0.09686109,-0.024653096,-0.10488846,-0.043415476,0.0989902,0.018548198,0.021079198,0.028627496,0.05813457,-0.05762148,0.08650221,0.017267423,-0.080139704,0.11555522,-0.06502704,0.040966526,-0.034189627,0.046736997,-0.044181254,-0.031117218,0.084240004,-0.037573926,-0.095958956,0.117127284,0.102107316,-0.104791656,0.040837735,0.089642175,0.09854291,-0.053892404,-0.06805428,-0.013840453,-0.067221515,-0.020041598,-0.045889527,-0.078365944,-0.023497527,0.015975727,-0.10026519,-0.065351486,-0.07668486,-0.10774877,-0.041112613,0.07771206,-0.09824487,0.07190294,0.014997367,-0.09123728,0.07281289,0.06248281,0.08547876,-0.05533764,0.11146488,0.007504788,-0.082226366,-0.029737448,-0.09245624,0.006128782,-0.08101257,0.063667126,-0.081856936,0.07249327,-0.059927646,0.05640642,-0.03414209,0.033961587,-0.039038844,0.11055578,-0.013765532,-0.07335902,0.049694873,0.03740188,0.11402234,-0.071552254,-0.094595626,0.010380033,-0.010238827,-0.12658311,-0.101172216},
	{-0.024959445,-0.06964152,-0.016610356,-0.046094384,-0.090636075,0.0012414798,0.037732586,-0.028696371,-0.061311513,-0.08048105,0.045186903,0.08067522,-0.06514694,-0.06472725,-0.012803033,0.110048994,0.087823726,0.06847184,-0.08626218,0.059846107,0.067594245,0.11687174,-0.09395086,-0.07611194,-0.0638462,-0.02025127,-0.045458585,-0.10595326,0.09092573,-0.106928855,0.022780705,0.06537191,0.008678096,-0.08963778,-0.065498605,0.0333267,-0.08266602,-0.08135228,0.001886585,-0.10692161,-0.05089542,0.041619018,-0.12106748,0.10551306,-0.04666622,-0.09362567,0.031086678,0.09461986,-0.11670361,0.080166675,-0.07520806,-0.038045656,0.015720228,0.028600626,0.08479536,-0.12520067,0.08074649,-0.013005176,-0.019296756,-0.037955634,0.06743397,0.1091088,-0.024697114,0.0041875276,0.090044685,-0.1227615,0.09781506,-0.033175915,0.081244394,0.066353224,0.04724834,-0.0488435,0.022296036,0.023557834,0.012811404,0.03237421,-0.05322104,0.10567127,0.023260739,0.050541546,-0.04237728,0.01919414,-0.010297735,0.096744604,-0.003546782,-0.05714588,-0.04242478,-0.0046114153,-0.09254197,-0.08282577,0.086689465,0.08083422,-0.10301508,0.07011329,0.08527479,0.043462593,-0.110267706,-0.07840092,0.076875456,-0.05012233},
	{-0.060940314,0.06469593,-0.111504585,-0.035900306,0.06227956,-0.122838385,0.017937357,-0.07426483,-0.032201584,-0.02329016,-0.054095395,0.005595016,0.0120426705,0.06285414,0.10969618,-0.09982594,-0.035228934,0.08497701,-0.015531292,0.06324063,0.053733688,0.049455702,-0.010565545,-0.12836178,0.07667681,0.042766545,0.07508136,-0.10214207,-0.047458008,-0.12591913,-0.069859855,-0.08335032,-0.10868833,0.077197224,0.084548466,0.11186361,-0.13008009,0.018850673,0.059683107,0.041479856,0.11352483,-0.04639509,0.0081871785,0.047893263,-0.064387985,0.007906133,0.034542937,-0.098876186,-0.069534376,-0.07049916,0.0054016644,0.060835086,0.116397776,-0.05488404,0.082786515,-0.11080136,-0.0442646,-0.013315077,-0.116210185,0.03127878,0.092984475,-0.038098138,0.03435438,-0.0062124133,-0.006765475,0.05258669,0.048295718,-0.12475404,-0.03550983,-0.11564631,0.06529494,0.07040943,-0.101355515,0.060116913,0.08215519,0.06726786,-0.099737674,0.066848315,-0.035011925,-0.050754238,-0.06257932,-0.038375393,-0.07801705,-0.008982095,0.043494668,0.080956824,-0.058814794,-0.053776596,0.042711534,0.067242056,0.04679038,0.03558565,0.06681191,0.04564405,0.11146712,-0.08441,-0.10223757,-0.03409407,-0.11781907,-0.09780884},
	{0.037217285,-0.10774092,-0.07172175,0.041070823,-0.0005798692,-0.031738553,0.11022563,-0.04623222,0.10583438,0.013446012,-0.07905953,0.09680335,-0.06431994,0.0045972904,0.08318525,0.102665804,0.09260086,0.09580331,-0.013282535,-0.003943766,-0.121152654,-0.11338282,0.012329905,-0.073380865,0.0050673513,-0.037595626,0.084869675,0.042097703,-0.017096343,0.040317956,-0.10023362,-0.0367007,0.038944036,-0.0555135,0.044077203,0.07153797,-0.090034194,0.07015361,0.095005326,0.06779578,-0.07315935,-0.029400753,-0.055972356,0.05254985,-0.12009261,-0.028329665,-0.1154731,0.085315645,0.060856964,0.0502795,-0.05366699,-0.03926269,0.019258551,-0.068731874,0.10971441,0.058230873,0.033896662,0.10054776,0.044316787,0.10772566,-0.04105746,-0.024340386,-0.010777501,-0.041609213,-0.11578755,0.030958638,-0.0052951802,0.018560292,-0.07709415,-0.07128824,0.11895829,0.11044874,-0.0045822607,-0.038248554,0.11822624,-0.04856565,-0.11078161,0.028716438,-0.030100068,-0.073204555,0.026602974,0.0011585818,-0.061325982,-0.07150059,0.08282252,0.03887799,-0.045443106,-0.001378237,0.0797112,-0.104451366,0.10594376,-0.07882365,0.082124546,0.015725598,0.12088107,0.067971505,-0.018991528,-0.06903722,0.016410237,0.11277962},
	{-0.09587459,-0.04556826,0.022057334,-0.066965334,-0.042522762,-0.09756247,-0.07572307,-0.11090014,0.07931038,0.040966026,-0.098692715,0.026407737,0.097147375,-0.10952742,0.07120967,-0.04417541,0.0456557,-0.061205734,-0.10644892,0.031046769,-0.114681,-0.055379532,0.039213605,-0.06628121,0.10305815,0.07378787,-0.05108768,-0.07783929,-0.014441774,0.11018697,0.051379032,0.09547399,0.11702109,0.042669784,0.05250271,0.008858127,-0.11241344,0.10166658,-0.10973923,-0.056446046,-0.07592524,-0.07306927,0.12161734,0.1103876,0.047343228,-0.121991806,-0.10543528,-0.054144092,-0.106244475,-0.08192749,0.03520446,-0.1099426,0.07661044,-0.08904941,0.11200287,-0.0037210009,0.056477696,0.05495352,-0.12011919,-0.10610635,-0.07772352,0.061510596,-0.1211826,0.09944829,-0.053914372,0.12231151,-0.045350935,0.026276378,0.050733183,0.04361961,-0.08742416,-0.028816845,-0.08976138,-0.07232392,-0.11321527,-0.10663332,0.030241469,0.10375776,-0.087991886,-0.07944512,0.00094880565,-0.034069076,0.0807314,0.105534695,-0.0041009015,-0.059003018,0.0007611474,0.009526362,-0.103253774,0.08195237,-0.08096362,-0.049122956,-0.043724805,0.03785664,0.014545998,0.03249322,-0.11606202,0.010415187,-0.10779347,-0.08225466},
	{0.026622644,0.0050863624,-0.07414984,0.0908325,0.02672637,0.064319044,-0.07757842,-0.1025297,0.02094566,-0.017937697,-0.06099671,0.03597362,-0.019617999,0.09412806,-0.10707969,-0.051377013,-0.115827434,0.09262137,-0.029705359,-0.0026325472,0.051214933,0.0017886746,-0.06884566,-0.017091082,-0.057608463,0.027098306,0.043763354,-0.11867269,0.09198986,0.068865865,-0.01631777,0.11951747,0.046323813,0.005428971,-0.058972247,0.11077772,-0.02896881,-0.034800638,0.03195039,0.06196863,0.03802744,0.072925605,-0.01596618,0.016376385,0.057662934,0.06812114,0.006346889,-0.06639337,0.017166914,-0.11898226,0.04603383,0.006780385,0.026502969,-0.09178983,0.09011792,0.060795248,0.028719584,0.025358913,0.09094625,0.09945756,-0.11123607,0.06946655,-0.09201073,0.105492555,-0.0020455066,0.106960766,0.029268445,-0.09992183,0.103633374,0.08399895,-0.052944876,0.038447104,0.09116965,-0.11377972,0.021144884,0.053684212,0.09392225,0.10117898,0.05475273,0.076529145,0.09156499,0.06848139,-0.054087136,0.061621994,0.051467273,-0.030114627,-0.049541753,0.0124103585,0.033880714,-0.044663288,-0.047560513,0.0028377885,0.08055744,0.043708175,-0.06135896,0.11481338,-0.042370353,-0.06956121,0.03553376,0.11458907},
	{-0.089076914,0.007060187,-0.08109903,-0.035138566,-0.113041766,0.013682155,-0.061431926,0.09225487,-0.077957936,0.11234191,0.0027128255,0.03384809,0.057424232,-0.057128515,0.04058607,-0.009008784,-0.013323584,0.056239653,0.034486704,0.047008354,0.031493824,-0.08514419,0.08901745,-0.014291525,-0.07307613,-0.07333763,0.11386506,-0.09334756,-0.10809535,-0.110993214,0.10612077,0.10952757,0.040318165,-0.106793754,0.1061785,-0.051177602,0.013173839,-0.11870366,-0.07585795,0.04484197,-0.060144845,0.00836587,0.014759199,0.014546339,-0.121649005,0.09908688,0.09222041,0.024262706,0.055549834,-0.045298077,-0.023591653,-0.039164204,0.0925768,0.050331865,-0.009918606,0.104417086,-0.07036262,-0.09812486,-0.0022813596,0.08452614,-0.055182572,0.11263929,-0.09673871,0.05855404,-0.08810742,0.08810907,-0.09338824,0.045592025,-0.064569645,0.0785641,-0.028623844,-0.05614712,0.030703772,-0.03967875,0.061445676,-0.061740946,-0.12288735,-0.0011262741,-0.0063896305,0.009242889,0.0038900147,0.10230502,-0.11416209,-0.09997722,0.024334297,-0.1132277,0.024783826,-0.09989992,0.044540998,0.06343807,0.076016806,-0.028734714,-0.042686887,-0.045909006,0.10453763,-0.11696261,-0.0067817224,-0.048791867,-0.08793491,0.10519607},
	{0.06591467,-0.038363826,-0.027560916,0.076127976,-0.09255032,0.05900955,0.019119151,0.07553353,0.11518513,-0.11575888,0.10537752,0.11121842,-0.043660227,0.033326477,0.049876947,-0.029542778,-0.11770272,-0.0192283,0.06040273,-0.015694516,0.060655393,0.09944437,0.09610962,0.0031753671,-0.012734631,-0.10938097,0.11421077,-0.053518664,-0.09511105,0.0823088,-0.041761495,0.07837707,0.095070526,0.060244046,0.00819341,0.0049214247,-0.035539895,0.026760645,0.04597262,-0.09806405,0.050132826,0.043027148,0.08793003,0.1117189,0.0837008,-0.034351602,-0.114035256,0.004311746,0.05777363,0.025568157,0.04493674,-0.0779261,-0.04677936,0.014116082,-0.12201162,-0.02609908,0.061835382,0.074576296,0.0075516137,0.01409676,0.051857073,-0.063806616,0.038564235,0.04085334,0.11117429,0.008366094,-0.10484007,-0.03559273,0.005712644,-0.044378325,0.024301125,-0.0777701,-0.069093406,-0.0058020465,0.029222846,0.012217739,0.070875525,0.0061506024,0.04879763,0.097115874,0.062769435,-0.09552474,0.10237377,-0.06392905,-0.08458802,0.005968327,0.11855868,-0.045263655,0.029597342,0.063759774,0.10126181,-0.02982531,0.008573828,0.011126069,-0.103849135,0.06732436,-0.11599804,0.09179052,-0.039693784,0.11751109},
	{-0.07049983,0.01746402,-0.037324663,-0.09740142,-0.10245283,0.03498171,-0.03580993,-0.098405644,-0.09381993,0.027200809,0.04578366,0.06814917,0.10244693,0.025204206,0.006799416,-0.0528683,-0.07675723,-0.07827687,0.017418355,0.0036114233,0.054931693,-0.06729673,-0.061654814,0.09960979,0.0194379,0.06545583,0.015539213,0.082749076,0.0789864,-0.08371925,-0.08597092,0.04590737,0.09693203,-0.042743925,-0.008061046,0.04604274,-0.0894087,0.11288343,0.085239254,0.07822082,-0.08270024,-0.00516067,0.0049819737,0.02660137,-0.011683061,0.007780851,-0.0014717072,0.0044434415,-0.11013988,0.01720903,0.10892162,0.10659951,0.119446225,2.9643425e-05,0.054597057,-0.07493744,0.09707914,0.069420375,0.08993927,0.098015584,0.10379603,0.038034435,-0.09717787,0.08106606,-0.11816376,-0.08030853,0.08167665,-0.017677959,0.0535936,-0.0028237372,0.061363623,-0.029804775,0.05157772,-0.10866376,-0.063392825,0.07033756,0.059317727,0.06606552,0.03491329,0.061493095,0.008451701,-0.07754765,0.061456416,-0.070026316,0.077176355,-0.05675822,0.008322555,0.036836233,-0.022352265,-0.112183005,-0.030421909,-0.114536226,-0.00067436224,0.118822545,0.07310912,0.05554175,-0.09264319,-0.119735986,-0.085946985,-0.07500381},
	{0.09516852,0.062185,-0.106960215,-0.113397695,-0.12196019,-0.06890973,0.09048606,-0.046548728,0.10345961,-0.072538845,-0.115822,0.092197984,0.03912932,0.10019935,-0.063563064,-0.048932303,-0.10992682,-0.1077543,-0.08863398,0.053169403,-0.09427212,0.026096517,-0.019073887,0.027753396,0.01749665,0.017769057,0.041848604,-0.04735309,-0.046482068,-0.025879689,0.07267427,0.06266134,0.07596221,-0.09441201,-0.0060993517,-0.029677369,0.054256815,-0.04375558,0.01027063,-0.05122513,-0.0011060473,-0.038463976,0.043703284,0.08557699,0.10851709,-0.10220651,0.09135479,-0.060191277,-0.077481315,-0.09212235,-0.06060506,-0.08795579,0.08980195,-0.1027579,0.08044669,0.009870647,0.11271743,0.112394735,0.107938126,0.11430964,0.100900486,0.035354022,-0.10285236,-0.09415704,-0.105243,-0.09345758,0.06068915,-0.0032104456,0.028927147,0.059236918,-0.002809456,0.0013136427,-0.030150885,-0.094312236,-0.05041617,-0.06728086,-0.055045575,0.11853654,0.0667343,0.11168891,-0.07584847,0.0665991,0.011925351,-0.11002231,0.07156398,0.10401174,-0.08283357,0.07395612,-0.081717044,0.027586041,0.009394882,0.06297191,0.10637839,-0.066517234,0.07565808,-0.044603728,-0.114500046,0.10029123,-0.07839931,0.08243487},
	{-0.045655567,0.102541246,0.079935394,-0.07337875,0.025556477,-0.09775684,0.022690402,0.041777115,0.10986705,0.09779478,-0.04722576,-0.05414767,0.09973681,-0.0695353,0.065723866,-0.11186384,0.06508898,-0.114514805,-0.12338191,0.07006806,-0.09697481,0.08890425,0.02910988,0.013053803,0.07874255,0.042776547,0.120274015,0.051823884,0.045491062,0.09922011,-0.015004788,-0.0031055154,0.05914832,-0.11265862,-0.035674542,0.09268793,0.018613705,0.1142249,-0.07472281,0.021672787,-0.03050798,0.09572225,0.10173601,-0.08620833,0.030393824,0.119877666,-0.06952275,0.054550834,0.107929036,0.12181775,0.05443357,0.038823243,-0.029971091,-0.03291348,0.025907824,0.061322995,0.02274624,-0.09099771,-0.0012666457,0.06259342,-0.043752786,-0.022103772,-0.04379246,0.06971689,-0.024704907,0.08076991,0.06975704,0.06497545,0.0734785,-0.011092652,0.0170472,0.04215693,-0.04758672,0.06385251,0.113387205,0.03998102,0.0820162,-0.11460058,0.030887976,0.044931687,0.040993407,-0.12068532,-0.025970576,-0.10948001,-0.0901886,-0.06704881,0.121190436,-0.027419891,-0.07237096,0.11677627,0.052794255,0.054353166,0.07418856,0.11255369,0.10187243,-0.019808583,-0.015705463,0.09237994,0.08009038,-0.038777776},
	{0.07968225,0.118991874,-0.04606771,0.093462534,0.013755263,-0.022340909,-0.049286887,-0.05264685,-0.0297537,-0.08070912,0.07809394,0.10165518,-0.10436473,-0.123004295,-0.018847223,-0.034644842,0.105168745,-0.010811309,0.0011827896,-0.017053925,0.012172387,-0.07824735,-0.101705104,0.09212765,0.032272846,0.11055205,0.08779194,-0.032693397,-0.08782687,0.07356212,0.014094966,-0.06137877,0.05263313,0.04005565,-0.06350682,0.081858195,0.0068156407,0.0783076,0.10010759,-0.057491396,-0.08480147,0.01948649,0.08099543,0.004369394,0.0027785376,0.011636667,0.1098441,0.069726184,0.047551826,-0.076713465,-0.0101087745,0.074901104,0.010407959,-0.040270362,-0.04973674,-0.09607831,-0.070285775,0.062578864,0.10066932,-0.025843283,0.09181142,0.0872098,-0.032880556,-0.044531807,0.0038628108,-0.077440664,-0.11902263,-0.11178519,-0.0918726,0.118522465,0.10756259,0.028171284,0.057193432,-0.105728656,0.111417785,0.05096218,-0.096584655,-0.0037878861,-0.09734821,-0.07984666,0.104141586,0.01609248,-0.07269325,-0.09336073,0.012431981,0.101697244,0.04232963,0.0780221,-0.019785775,-0.08553363,-0.11296173,-0.008795269,0.05606,0.08300516,0.060907967,0.025550187,0.058769815,0.036567938,0.107123554,0.09168495},
	{0.11434938,0.025058627,-0.009034627,-0.1139721,-0.021183968,0.053488776,0.060541254,0.06435269,-0.1016028,-0.03884309,0.030298103,-0.082510024,0.04221359,0.024302322,-0.046269737,0.053693783,0.04357466,-0.103799716,0.06704893,0.047929354,-0.07578599,-0.0031575898,0.03196512,0.05353846,-0.123084754,0.10629357,-0.05756954,-0.10399304,-0.07929299,0.04119254,-0.06427218,-0.08494709,0.07960837,-0.015347846,0.023164395,0.02426557,-0.011351713,-0.09752088,0.019568278,-0.023842007,0.084297314,0.054515187,-0.036997586,0.068461545,-0.051401995,0.04117185,0.05804402,0.038462732,-0.018568272,0.05796522,-0.044341918,0.05775965,0.10059249,-0.11704167,-0.08528,0.024553312,-0.018336428,-0.053822413,-0.10401986,-0.09212601,0.03461942,-0.10653986,0.09904316,0.056337945,0.006306678,0.03735234,-0.017895117,0.026752152,0.09958586,0.027184552,0.005585081,-0.067849405,-0.04136494,0.010248572,0.10839895,-0.10082814,0.005390263,-0.030715795,-0.069854096,0.047371626,-0.017041458,-0.090812966,-0.07699119,0.0077083353,0.07825371,0.052567337,0.005948738,-0.10790712,-0.06510182,0.102703966,0.048422717,0.08062433,-0.10963753,0.021828528,0.062164657,-0.029479334,-0.010126047,-0.030354721,0.10252354,0.10328857},
	{-0.007231131,0.09583862,-0.12668832,-0.07818782,0.015596607,-0.023702113,-0.015363898,0.09696645,-0.00040115364,0.0880591,0.087691024,-0.10137245,0.06358883,0.097633354,-0.008897085,0.0965732,0.017553845,-0.104447976,-0.08225332,0.06580839,-0.0396566,0.038317006,-0.12239198,0.10245698,-0.057243105,-0.017431088,-0.06251115,-0.07840043,0.10398428,0.10161418,-0.07563257,0.0982005,0.043334834,0.05130119,-0.10252872,-0.0564262,-0.08701177,-0.06045538,-0.03731692,-0.057900503,-0.06890964,0.096568435,-0.0678958,-0.057307757,0.05620749,-0.08606195,0.061113182,-0.004356761,-0.03387517,0.05227539,0.10581811,0.055277288,-0.059249938,0.044345524,0.063841976,-0.08068176,-0.12448069,0.008262437,-0.012209582,0.05612003,0.09368149,-0.03300498,-0.008391934,0.041158445,-0.0026233771,0.01600291,0.015158787,-0.044053514,-0.09407111,0.070583075,0.090451196,-0.1059565,-0.12108827,-0.06670876,0.015997058,-0.07464127,0.067132294,0.069629826,-0.11598662,0.015244699,-0.11018029,0.007048265,9.763065e-05,0.022477103,-0.077837236,-0.0045509003,-0.075005,-0.06329072,-0.005315791,0.067584775,0.031000584,0.08020277,0.096914195,-0.020628022,0.10958199,-0.005448686,0.08019042,0.023624858,0.017144075,0.05611798},
	{-0.083562516,0.08332084,-0.001135122,0.054132212,-0.09867699,-0.021889325,0.094961606,-0.12723987,-0.090754285,0.04577422,-0.12523146,-0.022682639,0.031852476,0.1039331,-0.0016850792,0.08313415,-0.07747307,0.008299083,-0.123059735,-0.08811071,-0.046927903,0.09402385,-0.11193321,-0.087598234,0.057079285,0.045855094,-0.09106536,-0.07629395,0.06364672,-0.11422283,0.005398215,0.05486877,0.080457665,-0.06823644,-0.11557942,0.050991595,0.0036350659,0.07040169,0.054514937,-0.1181307,-0.109802246,-0.08751071,-0.07141428,-0.093819164,0.073740736,-0.016085988,-0.030892681,0.07000145,0.08138953,-0.002535625,-0.06214573,0.052099142,0.0046611517,0.018743357,-0.0907679,-0.056950975,0.08126393,-0.03995071,0.020146035,0.09207211,-0.06700379,-0.038591333,-0.0073503815,0.01392179,0.03349096,0.10800383,0.060205456,0.0909575,-0.051268075,-0.009002166,-0.0805676,-0.09991307,-0.073820636,-0.043036584,-0.028015785,-0.056816537,0.07169207,-0.018314257,-0.050581027,0.06592357,-0.0020228405,-0.039661523,0.06387194,-0.105969414,0.08453321,0.09652837,-0.072747454,-0.10829086,0.047801215,-0.024511771,-0.018292498,0.009926958,-0.074976064,-0.08989129,-0.122698076,-0.02339215,-0.021948874,0.007903014,0.07662625,0.058636144},
	{0.11581753,-0.07514863,0.11853595,-0.0613548,-0.039539196,-0.080660835,0.11693838,-0.015510102,-0.053215582,-0.034985527,0.088294424,-0.036046226,-0.045049906,0.075614974,-0.008701759,0.0373619,-0.0825274,0.1088723,0.03291541,0.084644176,-0.05394374,0.09150176,0.015531981,0.08119181,-0.040872533,0.101309285,-0.084785365,-0.050314963,-0.054051667,0.106476516,-0.029644035,-0.11555286,-0.07641727,0.071432374,-0.10047556,0.041323245,0.014547278,0.04798695,0.103056125,-0.083277315,-0.0014562383,-0.080942124,0.011107752,0.064175114,-0.061427392,0.06963763,-0.013548939,0.09710575,0.11208622,-0.06651885,0.10485388,-0.11971609,0.011165498,-0.048060473,-0.1105729,-0.1174313,-0.013949125,0.06987786,-0.09351942,0.07761264,-0.012905544,0.10466405,0.0039298027,-0.075826384,-0.09005631,-0.110879086,0.0390808,0.0044058673,0.04801205,0.045263644,0.013903369,-0.084188,0.0046093063,0.007453433,0.0076855635,-0.08388412,-0.12517613,0.02037756,-0.058678925,0.09100852,-0.027095867,-0.05089195,-0.106660336,-0.014214697,0.057153407,-0.032236293,-0.07405427,-0.11592515,-0.008332113,-0.051807284,0.070325464,-0.0920546,0.07124855,0.108512186,-0.0004398935,0.082397945,-0.12105898,-0.083195016,0.03769419,-0.005654726},
	{-0.10726952,-0.09709746,-0.10404503,-0.10363737,-0.062362682,-0.021370698,-0.023660282,0.10201883,0.120692976,-0.067790516,-0.091998436,-0.045945216,-0.043245807,-0.055075146,-0.028099764,0.07668422,0.013031592,-0.058573578,0.020254603,0.08594585,0.056428153,-0.033164874,-0.06825124,0.07416727,0.0117396945,0.0046970276,-0.073321454,-0.03407167,0.034863375,-0.040260468,-0.07227802,0.024833964,0.10147727,0.08344718,0.05020062,0.055215243,-0.12055162,-0.123127125,-0.044098604,0.096316576,0.07347165,0.09950993,-0.07612688,-0.014403157,0.06336828,-0.051338095,0.02325367,0.05231578,-0.072008505,-0.031193702,-0.061959505,-0.007299592,-0.054810137,-0.06227396,0.06911533,-0.1080695,0.014961846,-0.12200573,-0.012075729,-0.081245095,-0.080545515,-0.09457519,-0.10510391,0.0028949045,0.122166954,-0.08217709,-0.11963133,-0.11336447,0.004141561,-0.060073502,0.008275208,0.11090882,0.06115286,-0.089736685,-0.06449732,0.07113044,0.08718015,0.013060258,0.06615812,-0.087995335,0.09898032,0.09911801,-0.014321668,-0.118709594,-0.06513775,0.1068536,0.058673166,-0.054434825,-0.0033666983,0.10492219,-0.007803623,-0.02284551,-0.09889375,-0.025375145,0.10988858,0.07719696,-0.07563558,-0.04311981,-0.07604333,-0.06443022},
	{0.070693046,-0.074290216,0.023685768,0.02215301,-0.007152636,0.08104099,0.08061774,0.043082874,0.0021409295,0.06892229,-0.06644756,0.040101636,0.008937039,0.08217421,0.09838843,0.109816976,0.012303898,0.04713955,0.12020041,0.061965026,-0.07531204,-0.10331721,-0.04335395,0.052884944,-0.10460366,-0.011836457,0.04991397,-0.11864283,-0.09608004,-0.057077162,0.023558173,-0.120238274,-0.025712457,-0.016073637,-0.084915794,0.05127824,0.075182974,-0.03587883,0.10871835,0.022904964,-0.0042546545,0.03767501,-0.11710264,0.0859082,0.023602128,-0.05256787,0.03733853,0.11710092,-0.07393549,0.09721541,0.051673133,0.09503744,0.012018377,-0.075901985,0.116899915,-0.058673106,0.013837248,0.0041610776,0.088542104,-0.049404956,0.019585155,0.0048063844,-0.068212315,0.10961365,-0.076181784,0.03158944,-0.10616606,-0.09432468,-0.049956933,-0.08996475,0.098515436,0.0019895567,0.08608558,-0.080153786,0.080312945,-0.006038541,0.06357042,0.1211126,0.08310139,-0.085027285,-0.022842264,0.08965885,-0.022774966,0.034153864,-0.06950892,0.07316872,0.082650535,0.094644144,0.10516486,-0.051711418,0.066829145,-0.014285548,-0.077812,-0.0657096,-0.051410697,0.06209021,0.02606154,0.11718812,0.031848744,-0.050218306},
	{-0.004306299,-0.09843402,-0.00088910724,0.08744425,-0.064859465,-0.113661975,0.07494438,0.010577983,0.10947699,0.0067554195,-0.09426844,-0.10459668,-0.0060701463,-0.07849899,-0.07370804,0.01483253,0.021221895,0.031639535,-0.00021896962,0.00595283,0.06879747,-0.091870576,-0.09904145,0.09962813,0.004427784,-0.0059212116,0.10069314,-0.07491855,0.00734823,0.09188827,-0.0037484718,0.013712699,-0.12076351,-0.035252977,0.028794713,-0.11477713,-0.12260042,0.029608306,-0.09559051,-0.07137612,0.08557571,0.056887552,-0.03252119,-0.04712807,-0.12098807,-0.020092748,0.06680784,0.04504306,0.05921402,0.0883337,0.065487266,0.081281744,-0.076800644,-0.07711865,0.07434863,-0.0448192,-0.10193768,0.09883068,0.0031712211,-0.11258108,-0.049109012,0.025036411,-0.009590514,0.018114008,-0.030167857,-0.01621426,0.07663938,-0.054057363,-0.044338025,0.0028825619,0.041091945,0.10780841,-0.12511127,-0.027103195,-0.005596428,0.08519089,-0.055517495,-0.028721616,-0.08755075,-0.0074903416,0.060909335,0.10438582,-0.009739582,0.01428945,-0.07528939,-0.09121266,-0.042806525,-0.059816737,-0.05465093,-0.08903905,0.07536746,-0.07893774,-0.06276163,0.10584837,-0.04645799,-0.10865299,0.016347079,0.093140885,-0.043763913,-0.11340745},
	{0.003251772,0.035458084,-0.09229745,0.037789628,0.045654994,-0.11508972,0.024400946,0.08878265,-0.063723184,-0.1191602,-0.054762825,0.028166724,0.04978284,-0.06977838,-0.10813358,-0.0105389105,-0.059229504,-0.12219243,0.09241971,-0.057486538,0.11680158,-0.02398215,0.11811553,-0.026628604,0.047815483,0.08815932,-0.100159615,-0.047297064,0.0754425,-0.10013068,-0.093468845,0.04554181,-0.03938817,0.033424575,-0.021439243,0.10399638,0.012243083,0.036723178,0.08825628,-0.070045196,-0.015414273,0.055840764,-0.077137284,-0.06328429,-0.049590383,-0.05730885,-0.117511846,-0.0056598876,-0.05208128,0.10580135,0.0072768643,0.02663072,0.055728618,-0.003186615,-0.10156977,-0.011438159,-0.087848075,-0.09061449,-0.08269843,-0.10432221,-0.036116574,0.09727404,-0.043407474,-0.046975434,0.08061522,0.106468126,-0.09445865,0.0820273,-0.116639234,-0.07439835,0.037735168,0.08426803,0.010741345,0.050857294,0.04628586,-0.05424597,0.08460011,-0.060151335,-0.09727804,-0.06294157,-0.08499264,-0.074130766,-0.122794636,0.099479154,0.004641388,-0.004234699,0.09748974,0.06246767,0.09795815,-0.023929194,-0.026037628,-0.10128149,-0.045302562,0.07047132,-0.11549003,0.08593564,-0.024179785,-0.11968063,0.09557595,0.018875757},
	{-0.08547882,0.0126038715,-0.11635873,0.055712957,0.01962965,0.054724157,0.08655462,-0.0053897947,0.056780152,0.02504571,0.05333335,-0.06078391,-0.11232414,-0.07139048,-0.12030717,-0.060500484,-0.08641896,-0.058349278,0.056651205,-0.1064994,-0.07537523,-0.10974194,-0.02529242,-0.052507453,-0.04810063,0.011960548,0.10700219,-0.03615017,0.025352495,0.10137295,-0.11957347,-0.012974645,-0.084865324,0.09644597,-0.041746777,0.0077155526,-0.07409331,-0.01658262,0.06981638,0.09632879,0.006764892,-0.023510681,-0.087478235,-0.1202941,-0.09830374,-0.014186326,-0.008569565,0.10887439,-0.042827833,0.022692379,-0.093363106,0.028887568,0.087920584,0.070275985,-0.119406454,0.110912494,0.06725531,-0.0678669,-0.06510526,0.12330579,0.014133151,-0.09801485,0.100230604,0.0928269,0.0044179633,0.11943898,0.11814698,0.106775135,-0.103464045,0.07903166,0.0425504,0.076019056,0.1193914,0.094170034,-0.028900772,-0.02107418,-0.117779665,-0.005431267,0.10949716,-0.060346242,0.10948783,-0.019782782,0.05931351,0.012164516,0.048268475,0.0646353,0.1078305,0.105131865,-0.008221927,-0.022128891,-0.047411665,-0.10832334,0.086947665,0.061662585,-0.07997171,-0.11210707,-0.02118173,0.03863515,0.011790515,0.0012058682},
	{-0.010592259,-0.09562383,-0.0052638995,0.009625481,-0.07159715,-0.055025276,0.05408947,0.06434712,0.060383007,0.05093116,0.045712706,0.07072541,0.072489046,-0.10086538,0.05756134,0.04301224,-0.12729646,0.061678194,0.10023522,-0.03434438,-0.06787417,-0.12444413,-0.004465502,-0.0054033343,0.11446063,-0.11167056,0.037083764,0.018878983,-0.05839092,0.0025949467,0.112753294,-0.033384357,0.063320786,-0.03497822,0.09144012,0.09366169,-0.07463402,0.10521423,-0.12142091,-0.045219958,0.07128681,0.06598358,0.11829094,-0.07666366,-0.082994856,-0.029885389,-0.07407744,-0.0068106423,-0.08429565,-0.019383823,-0.11605399,0.0738724,-0.11900562,-0.11660746,-0.11938292,0.04174592,-0.106332526,0.0025308917,-0.095478944,-0.08785114,-0.027139967,-0.031411313,-0.11322644,-0.048399538,-0.083029896,-0.123093255,0.013689215,-0.11385597,-0.110894136,-0.032138217,0.08582618,0.03969965,-0.08287445,-0.013630847,0.10589034,-0.01505034,-0.048557837,0.1051549,0.07541609,0.069881454,-0.041925557,0.03972019,0.044108782,-0.07003454,-0.054082792,0.0024866518,0.08195438,-0.10910993,-0.08441044,0.06204125,-0.082681455,0.050994854,-0.016323324,0.06090826,-0.12836857,0.08719238,0.041556522,-0.015582336,-0.08039039,-0.017215466},
	{-0.05352143,-0.009725391,-0.041472983,-0.06628548,-0.032252096,-0.10439176,0.0630407,-0.050290935,0.08148495,-0.06107117,0.0025763793,0.03277812,-0.0050235246,-2.3736124e-05,-0.02472778,0.10696276,0.017469306,0.11226707,0.07771268,0.036778,0.0855087,0.063628,-0.057861406,-0.068071194,0.11739718,-0.008913321,-0.059607297,0.04198984,-0.00944055,0.038084555,0.06552933,-0.049132735,0.118428215,0.044733938,0.037516303,0.057621334,0.021699084,-0.10113337,-0.048173208,-0.10754612,-0.015060175,0.038802058,-0.06935417,0.065914735,-0.088368304,0.063854456,-0.032521434,-0.057576403,0.046931252,-0.0011884439,0.08725648,-0.00080377486,0.05559491,-0.11144157,0.01012692,0.09193806,-0.06012639,0.0326872,0.090536796,-0.10339032,-0.07419988,-0.05838221,0.05412659,0.06884049,0.028898634,-0.09402508,-0.004326855,-0.08636639,-0.024034053,-0.02330548,0.0032245857,-0.039711952,-0.060079705,-0.10919348,-0.07448014,-0.099350706,-0.008760868,-0.05436647,-0.01369452,0.074939206,0.046703715,0.094039544,0.11839484,0.0017647214,0.056839883,-0.024192961,-0.04761208,-0.053372394,0.121792085,0.07127025,-0.07122866,0.104920894,0.1143772,0.03710504,-0.020418812,-0.06657397,-0.10048513,0.095147826,-0.054838568,-0.02950634},
	{0.032009665,-0.023490256,-0.086504065,-0.045763496,-0.051027443,-0.00989537,-0.116405874,0.09919473,-0.059313435,0.08997751,0.10167526,-0.095766634,0.05798982,0.08217038,0.037737366,-0.10571705,-0.037732117,-0.101876676,0.026336009,0.016682032,-0.11987938,-0.048541635,-0.037470017,-0.07275357,-0.04932378,0.05676449,0.0041072927,0.03606569,-0.034427777,0.024197787,0.03823052,0.069552146,-0.011367553,-0.084130146,-0.10995061,-0.117537364,0.097889334,0.089699306,-0.096825264,0.026952194,0.06726214,-0.026340868,-0.06846425,-0.052420218,-0.045249272,0.05094367,0.0067042047,-0.09684133,-0.11052978,0.035274766,0.03970839,-0.07262703,0.090164416,-0.013808024,0.05349976,-0.08360544,-0.07332545,0.03690704,0.056385938,0.058507398,0.08616961,-0.014863988,0.06138939,0.059802536,-0.110216126,-0.024644911,0.0065529733,0.09323162,0.043391544,0.06701792,0.10392724,0.08605557,-0.04605938,-0.039283693,0.10025596,-0.061685048,0.050087504,0.09509719,-0.077533655,-0.083662644,0.0070828977,0.08227911,-0.027964015,0.09522316,-0.09321597,-0.036104653,0.10157954,-0.015156528,-0.05202611,0.055392843,-0.030589249,0.02325922,0.043741208,-0.020113815,-0.0525129,0.04706284,-0.08736405,-0.066822104,0.04438554,-0.049140815},
	{0.08731555,-0.08848888,-0.047991615,-0.019633356,-0.10425739,-0.0051294267,0.11925275,-0.08964708,-0.110440396,-0.028695542,-0.105356954,-0.1133592,-0.062019818,0.114852585,0.05668124,-0.08229731,-0.060430683,-0.0048021553,-0.10245913,0.031136498,0.07199949,0.0125263315,0.040965296,-0.12269527,0.008490384,0.08814103,0.09292755,0.01519604,-0.035732135,-0.06790567,0.118889906,-0.017349487,0.113425665,-0.05976435,-0.06590581,0.013467845,-0.010608695,0.03496844,-0.118042074,-0.033546317,0.080716856,-0.079117015,0.0059713623,-0.08173214,0.037132345,-0.11534967,-0.06482872,0.020584442,-0.0891379,-0.07682104,-0.061443128,-0.012406887,0.06363254,0.0829667,0.07471326,0.103166044,0.09726681,0.05032039,0.042627424,0.04970988,0.049232736,0.08951896,0.011563384,-0.027382053,-0.08006537,-0.10081208,0.12113416,-0.1138738,-0.067021,0.046384227,-0.05226782,0.04327937,0.08686732,-0.06987588,0.10575051,0.063440084,0.05393995,0.071559265,0.028684523,-0.08136244,-0.08660646,-0.08323582,0.00279338,0.041723303,0.045028076,0.06692475,-0.022798229,-0.01572892,0.0036388575,0.06284585,0.01912712,-0.12149847,-0.032381453,0.11782106,-0.07747207,0.082485065,0.0968033,-0.073331736,0.096563786,-0.02471243},
	{-0.1181466,-0.037502307,0.016810475,-0.054440096,0.053878274,-0.0065343957,0.0054863584,-0.12163293,0.009945188,-0.11640828,0.06815695,0.07687607,0.071375854,0.07000901,0.049123697,0.107840315,-0.003620274,0.034061905,-0.055734426,0.050086077,-0.04284175,0.049709037,-0.0997534,0.11449979,0.07497402,0.05227612,0.083496846,0.033559714,-0.06571372,-0.0893671,-0.10450037,-0.08779424,-0.10136157,-0.03167519,0.088427335,0.0055392967,0.062040657,-0.0586361,0.019333843,0.016528279,-0.08166293,-0.095886365,0.04472994,0.015534197,0.05498485,0.025245922,-0.021536507,-0.11523922,0.09797581,0.05440366,-0.07175849,0.11762788,0.0696255,0.050066236,0.11035367,-0.04863163,-0.12184183,0.014668633,0.11175832,-0.05108376,-0.106968775,-0.052054588,-0.09463758,0.08265462,-0.015600734,0.05974863,-0.050904356,0.06858752,-0.08907337,-0.021733643,-0.106099725,0.0904733,-0.018438285,-0.10434404,0.01677868,0.083488815,-0.087948345,-0.0043039196,-0.016595379,0.12136432,0.11001569,0.12143094,0.107887186,-0.11778552,0.100788124,0.0023423082,-0.098548956,-0.02877306,0.08062135,0.07422697,0.08992092,-0.0097939065,-0.11310432,-0.104785025,0.030363096,0.03532148,-0.08148482,0.02359526,-0.040261243,-0.0009083394},
	{0.023939868,0.09101827,-0.10698115,0.06260394,0.05028636,-0.023048334,0.08160351,-0.10082513,-0.023433374,0.0970536,0.07789066,0.004070035,0.07970991,0.0070271464,-0.052466452,-0.01116151,0.067403086,-0.0065731877,0.035534326,-0.03673689,0.003852817,0.025079224,0.027448336,0.09125438,-0.036766075,0.11044171,-0.105208576,-0.028102625,0.08432314,-0.0053142766,-0.0741222,-0.10101854,0.11249917,-0.08885968,-0.10707478,-0.010833999,-0.10855145,0.013924721,0.05904216,0.03162167,-0.12302647,0.03293171,0.010921667,-0.10767867,0.017686354,-0.080427185,-0.05319288,-0.0047493335,-0.08809535,0.05742953,-0.116333924,0.059758108,0.03845345,0.09611053,0.11913265,0.041495413,-0.10626084,-0.04354488,-0.030455168,-0.0902735,0.06217839,-0.0020107438,0.09752273,-0.034815863,0.023558917,-0.11480182,-0.111659944,-0.045311198,-0.019136455,-0.04830348,-0.112705,0.10035728,0.08731657,-0.029581409,-0.06895198,-0.1218314,0.0062495107,-0.10233492,-0.055901386,0.093470044,-0.06121217,-0.02143407,-0.10861525,-0.025155177,0.04853972,-0.09828581,-0.03318419,0.06015235,-0.07088594,-0.06777273,0.038927976,-0.095027104,0.07327283,0.058957838,0.02327261,-0.048159216,-0.051789545,-0.0818188,0.032964982,0.06377038},
	{0.08467258,-0.10899874,0.11927522,-0.006968704,-0.10528784,-0.032569952,-0.08105184,-0.10329609,-0.010360949,0.08526334,0.055342052,-0.07605137,-0.07175604,-0.078661956,0.11644592,-0.02015717,-0.07862078,-0.056025382,0.106632225,0.07389489,0.0018436352,-0.062668905,-0.013892617,0.10124921,0.09669174,-0.018677587,0.08877269,0.07613948,-0.051762495,-0.04121927,-0.06617274,-0.101781435,0.06476175,-0.0012876184,-0.061317217,-0.052583423,-0.06426882,0.026246864,0.04468227,-0.06241125,0.009925935,-0.028615957,0.08538422,0.08758747,-0.062066548,0.10012313,-0.076729774,0.061054155,0.0678757,0.045141578,0.10919721,0.11425119,-0.035126686,-0.10493201,0.054942545,-0.057816565,-0.022767792,-0.09149739,0.047816645,0.026134908,0.08598841,0.061263867,0.0017818864,0.02951772,-0.07330385,0.018125027,0.0838033,-0.07982867,0.091540605,0.023038855,0.019071344,-0.087312065,0.019456863,-0.098263234,0.035128362,0.0031541337,-0.01866443,0.008743201,-0.11011761,-0.0078933835,0.0680955,-0.08455329,0.013465173,0.024148395,0.08222763,0.010732908,0.009033916,-0.0014658149,-0.099407636,-0.11496771,-0.11923886,-0.08989491,0.0043449434,-0.12070756,-0.044799946,0.0062984573,-0.07526866,-0.05757383,0.11469896,-0.009443389},
	{0.07902876,0.012814093,0.10279404,0.072935864,0.032535736,-0.05193556,0.008060371,-0.053639356,0.026980499,0.096267514,-0.038156822,-0.08081239,0.036030896,-0.016551137,0.08622642,0.026194394,0.11797819,0.1203301,-0.068679705,-0.11402865,0.005011783,-0.105678014,0.0740838,0.0744378,-0.09285365,0.05437284,0.049576394,-0.018041354,0.10394238,-0.053875428,0.11482328,-0.0026199557,0.101153545,0.007284288,0.06942322,0.071734376,0.07769307,-0.081658065,-0.08873131,5.8603546e-05,-0.109193265,-0.05786938,0.09581714,0.04049159,-0.02738188,-0.06807523,-0.08384904,-0.096822456,-0.03612082,0.0461361,0.07122926,0.015591741,-0.088056564,-0.048619192,0.0394199,-0.09335316,-0.0158151,-0.05322014,-0.049913697,-0.095863834,-0.011563649,-0.06366537,0.0071730004,0.04776137,-0.003868954,-0.026628599,-0.004375492,-0.009001596,-0.072416104,0.09832306,-0.09798902,-0.023576593,0.097197175,-0.0781484,0.10604681,0.032756943,0.047043823,-0.064037256,-0.089118384,-0.032640718,0.059259813,-0.052888032,-0.020140285,0.114574134,0.031378016,-0.028427582,0.067292094,0.022683175,-0.045892794,-0.11619672,-0.11130029,-0.10442074,0.062051952,-0.012413862,-0.09623107,0.06365434,-0.10564974,0.10571376,-0.09230736,-0.046051424},
	{0.08823743,-0.06855053,-0.04981936,-0.009929577,-0.0097078355,-0.11574711,-0.10496713,-0.07419832,0.013675221,0.06605244,-0.0510675,-0.059684273,-0.09990291,0.08178558,0.022112258,0.07263954,-0.093926735,0.11539742,0.037067976,-0.010940819,-0.11496572,0.061680425,-0.114489354,0.077605985,-0.09947768,-0.08074964,-0.018873539,0.016087249,-0.01761772,-0.08017861,0.0020032618,-0.047784697,0.0902846,0.0026171217,-0.0070463023,0.11791726,-0.0566315,-0.08837477,-0.0805909,-0.007987147,0.11441546,-0.041504312,0.0126839215,0.04851678,-0.027593419,-0.042850606,0.09970933,-0.11931989,-0.0027516289,0.0038324292,-0.042514212,-0.12056776,-0.028924862,-0.09251182,0.08137899,-0.1197603,-0.010729402,-0.10452636,-0.022191806,0.023657264,-0.008868141,0.033561632,-0.05092267,-0.052976783,-0.024129355,0.09599191,-0.03609375,-0.11693635,0.07124056,-0.02328544,0.06874957,0.008582954,-0.0729813,0.059487488,-0.039375532,-0.084009275,0.10218047,0.0538947,-0.06609716,-0.105879,0.080279335,0.0425884,-0.0758571,0.050308354,0.027305622,0.044350937,0.01999229,0.08372275,-0.09256252,-0.0344025,0.06338021,-0.08515523,0.046884473,0.10117274,-0.09025625,-0.10962274,-0.019799167,0.034777083,0.07800562,-0.013508898},
	{0.07518356,-0.11534217,-0.08744384,-0.11620654,0.024438119,-0.01408903,-0.025472784,-0.039746594,-0.1028593,0.044111796,0.04547517,0.052339528,-0.09269613,-0.07044114,0.0012391797,-0.024740823,0.025640769,0.040901102,0.08850784,-0.071132526,-0.033715267,0.052435808,0.047835793,0.0592453,0.008159626,-0.101924255,-0.10962969,-0.10333436,0.0045604417,0.011729171,0.043130763,-0.087040454,0.039526455,0.1222599,-0.044023782,-0.028567439,-0.0391059,-0.06577035,0.09020385,-0.11142601,0.08893073,-0.11865606,-0.06410911,0.017032322,0.067854315,0.09147197,-0.07081555,-0.055541795,0.09045368,-0.07591398,0.09439069,-0.117492124,0.06477198,-0.041831788,-0.047145702,-0.11562519,-0.1140933,0.060440406,0.013455567,-0.07195998,0.1038655,-0.004264696,-0.089843564,-0.0036182252,0.08775069,-0.0013614419,0.11209325,-0.12272922,0.11282195,-0.023175707,0.11195184,-0.07493001,-0.09067217,0.040086895,-0.07631873,0.09253271,-0.0018401436,0.11883933,-0.07049576,0.10909354,0.027817398,0.08787106,0.121120796,-0.064764544,-0.085605,0.031026235,-0.090258606,0.063572995,-0.09483131,-0.020209735,-0.076470904,0.05641763,0.028294537,-0.0068493723,0.09016253,-0.054289952,0.023855302,-0.047124974,-0.059475925,-0.033691052},
	{-0.115797654,-0.0172477,-0.10398683,-0.021884136,0.05404155,-0.10227059,-0.090236604,0.08695279,-0.088874415,0.0892952,-0.06661572,-0.0607095,0.014307192,-0.019622257,0.03215851,0.017119436,-0.08253723,0.047287285,-0.013057655,-0.115971215,-0.10912312,-0.0028441735,-0.08902523,0.029762233,0.055270035,-0.10377749,-0.07016424,0.11965978,-0.021811565,-0.12097113,-0.11373039,0.06266119,-0.03140567,-0.10061716,0.08152754,-0.11647867,0.027813287,-0.10751082,-0.07011152,0.041808844,-0.015951397,0.03235261,0.09388647,0.10828881,0.08127086,-0.043000538,-0.09648604,-0.030271908,0.10904745,0.060532812,0.037149843,0.04269524,-0.093222156,-0.07927341,0.04754303,-0.069607556,-0.123531915,-0.012820837,0.04840878,0.117215656,0.09290826,-0.058050677,0.054278407,-0.0016905345,-0.023277156,0.06820003,-0.0068258997,0.010467799,-0.12182224,-0.058086433,0.008501779,0.093719445,-0.012536486,-0.078880444,-0.070061535,0.05988057,0.07973395,-0.053063497,-0.07876296,-0.007288202,0.08668713,-0.101077445,0.04477128,0.006791612,0.12061917,0.00022484083,-0.05569377,0.013569548,-0.0818691,0.033642385,0.058001954,-0.015882334,-0.070488796,0.11265126,0.004188494,-0.0470463,0.02952797,-0.06536764,0.103633076,0.08550885},
	{0.022364499,0.018673133,-0.047686648,0.016969053,-0.12159884,0.023937505,0.08933414,-0.04273744,-0.06771452,0.10276431,0.060107157,-0.08032776,0.02772234,-0.10337686,-0.12681772,-0.11431636,-0.07675188,0.113338135,0.10914767,0.04731566,-0.09625866,-0.025803335,0.008751915,-0.090990104,-0.014538614,0.04953569,0.10435999,-0.046863515,0.0027050164,-0.09886157,-0.023263779,-0.12114923,0.06528431,-0.10909632,-0.0684364,-0.080212556,0.05823848,0.004297544,-0.10574597,0.070806876,0.057897016,-0.12396775,-0.054461677,-0.058923125,0.07719481,0.08692706,0.10709273,-0.059683625,0.11508133,0.07623853,-0.099527,-0.038535938,-0.09559023,0.087471105,-0.07948549,-0.0029657492,-0.10297641,-0.11968828,0.041032415,-0.11525953,0.10705255,0.08213572,0.09169178,0.10563901,0.07200525,-0.029553305,-0.0044330545,0.0020840145,-0.08297477,0.11645738,0.11342868,0.11735173,0.10070708,0.021985484,-0.0065765665,0.0107875215,-0.032238107,-0.080318496,-0.1137299,0.03464073,0.03794726,0.059179425,0.01881515,-0.11038008,-0.04435661,-0.061409608,-0.06851235,0.10647345,-0.08275345,-0.010622566,-0.094862044,0.031676713,-0.12555566,-0.100881934,0.032659065,-0.099889405,-0.059068862,0.082962275,0.016825797,-0.08281335},
	{-0.032227844,-0.0035288457,0.051520843,0.048322696,0.024093945,-0.053861666,0.08476324,-0.020014303,-0.042049408,0.06323731,0.013252216,-0.0973716,-0.045157164,0.0635466,-0.11253628,0.0153247,-0.0016787865,-0.08227684,0.04336879,-0.043273844,-0.09556114,0.05366349,0.075716555,-0.026628599,0.08676389,0.039489713,0.00080800365,-0.06577689,-0.024741804,-0.07960681,-0.06689399,-0.09120018,-0.095118806,-0.12174128,0.031131897,-0.03348552,-0.015890554,0.055680715,0.03692894,-0.07468127,-0.023997694,0.030582756,-0.048605174,0.06622002,-0.08800563,0.064166784,-0.04830794,0.11526593,-0.11622721,0.034350473,0.0072236666,-0.000707022,-0.040247716,-0.07063674,0.066580966,-0.02464773,-0.008701151,-0.11943761,0.059313335,0.074873656,-0.085947275,0.08720208,0.0751507,-0.06793851,-0.010687567,0.04638702,-0.014310942,-0.071818426,0.078159936,0.11055148,-0.10810324,-0.09266267,0.04675035,0.100957565,-0.03819238,-0.09749064,0.0007095227,0.018889049,-0.063931815,0.0275065,-0.1214849,-0.07506194,0.04545657,0.027926665,0.061537866,0.061728075,-0.047057018,-0.058889717,0.10650902,0.10886398,0.035697795,-0.04247587,0.11687739,-0.049820893,-0.024275392,-0.07141914,-0.074758776,0.050428294,0.07860454,-0.028835379},
	{0.010334571,-0.11468981,-0.050036076,0.067796215,0.020817071,0.10643289,-0.023941454,-0.12812135,0.10477678,-0.06298802,-0.012629824,0.060815327,-0.04807239,-0.06333015,0.04769355,0.11269778,0.10762869,0.012653876,-0.0584432,-0.114976734,0.015142306,0.091706015,0.0034373328,0.056257192,0.08524621,0.021908836,-0.014388741,-0.10000336,0.10748516,-0.052007746,0.01420733,0.029810948,0.076208055,0.08445854,0.06737538,-0.098482475,-0.050110016,-0.11054613,-0.024408825,-0.0011029125,0.08572356,-0.043628246,0.004896107,0.03850733,-0.06119571,-0.018331226,-0.029541647,0.018846465,0.10057252,0.028285634,-0.122774675,0.07819069,-0.088869736,-0.04124884,0.018875258,-0.030009808,-0.013951682,-0.059691403,0.09303595,-0.0128799025,0.0789628,0.031081283,-0.068546504,-0.038811766,0.047003113,0.063904315,0.09152707,0.10187642,-0.018171905,0.101138994,0.058098704,-0.023154333,0.11491513,-0.09062143,0.10330824,0.0036842383,0.11576972,0.05169542,-0.0565208,0.037288476,-0.03304086,0.08464547,0.09394015,-0.0005013071,-0.048923723,-0.110700555,-0.02820581,-0.035253003,0.034088768,-0.08074295,0.007633644,0.08116965,-0.055685107,-0.041171663,-0.01815474,-0.022628518,-0.04611228,-0.029255569,-0.1267085,0.033920415},
	{-0.10225412,-0.08440117,0.05296983,0.012300923,-0.049372412,-0.11232875,-0.023711318,-0.017608888,-0.12403963,0.0706282,-0.012279823,0.041159995,0.040757008,-0.0754526,-0.11260113,-0.05745438,-0.062209364,-0.05197544,0.0036126175,0.11824666,-0.005811692,0.084948376,-0.030584127,-0.061107755,-0.102685474,0.096759126,-0.055733155,0.043447953,0.024891507,-0.08384373,-0.0069310353,0.011573468,0.0014469863,-0.084284976,0.022474593,-0.07119811,-0.1026262,0.04127553,-0.022797732,0.038948797,0.05804137,0.057356376,-0.028276429,-0.099138275,-0.1045255,0.0012335153,-0.10089075,-0.12706329,0.093966134,0.01361982,-0.030793477,-0.023716133,-0.11285854,-0.080162816,0.0017553675,0.09869583,0.032501496,-0.11864282,0.024721328,0.11426416,-0.06945741,-0.12360268,-0.053821143,-0.048903357,0.0021441726,0.0053473837,0.023791986,-0.017871074,-0.12810196,-0.07530197,-0.096494906,0.08381883,-0.11981041,-0.042245094,-0.009605599,-0.10155947,-0.04878949,-0.08545159,-0.058588505,-0.073435426,-0.09480771,-0.1057433,-0.11235866,0.06793323,-0.06740831,0.09171209,0.076018706,0.01172737,0.09499651,0.11333909,-0.07992491,-0.055568688,-0.05730219,0.07677331,-0.030656682,-0.009698528,0.027001409,0.025402293,-0.077151805,-0.014298788},
	{-0.08364345,0.022649117,-0.007416976,-0.029043088,-0.015163248,-0.00072071527,0.034467895,0.01919938,-0.06604248,0.004000754,0.016391814,0.066259146,0.08514649,0.08549973,-0.042324916,0.075962774,0.105558306,0.012577396,0.040721484,0.058853686,0.1039385,0.120530404,0.11334492,-0.10503831,-0.09625957,0.091602236,0.032734256,0.08389499,-0.062372465,-0.054499213,-0.021772888,0.024459315,-0.056937385,-0.0026708539,-0.055163354,-0.0033133645,0.09322021,-0.11602774,-0.04785258,0.0051843245,-0.08657624,0.055730876,0.020704797,-0.040762436,0.012229161,-0.030393664,0.049844526,-0.041455653,-0.002759491,0.077882655,-0.024942406,-0.071139656,-0.10617743,-0.043214966,0.003177856,0.0872235,-0.060057927,0.10649112,-0.021492975,-0.008311645,-0.044643246,0.08074919,0.061227594,-0.0114447875,0.058138277,-0.10332733,0.03965728,-0.016518049,0.09351326,-0.10440196,-0.039010596,0.049238108,0.08538173,0.04227696,0.0014477238,-0.10055437,-0.02879982,0.06376917,-0.07951441,0.0596513,0.045574896,-0.009215871,0.028345814,-0.119130895,0.01940353,-0.058708638,-0.011658697,-0.043518953,-0.11777809,-0.095812455,0.079445936,0.057602007,-0.069891095,0.016086118,-0.0431111,0.080503345,-0.057929825,0.05603236,-0.07991937,-0.010474558},
	{0.05025331,0.12045062,0.024369657,-0.09706216,0.04227918,0.0083381245,0.10777663,0.043447617,-0.059930295,-0.029086009,0.054290164,0.038377315,0.056882106,-0.010425846,0.000109645,-0.06714972,-0.031338952,-0.012174088,0.06987705,-0.06833484,-0.044914488,0.0020392272,-0.07779072,0.086618826,0.020468473,0.11591634,-0.11827623,-0.005770547,0.028978102,-0.106465444,0.030508276,-0.11509429,-0.11718018,-0.09355914,0.118427105,0.087352544,0.090504475,-0.084215805,0.04960854,0.043069344,-0.010670912,0.050441813,0.07603361,-0.023146698,-0.057410423,-0.025848966,0.11001038,-0.12610517,-0.067711085,-0.11329998,0.015101486,-0.0723625,-0.035448786,0.06915477,-0.10374947,-0.08060168,0.020354941,-0.00658304,0.0369618,-0.061024748,-0.06829071,-0.044055503,0.109415606,0.0353779,-0.009253279,0.067180686,-0.004003943,-0.032230675,0.06953684,0.11053521,0.113212146,-0.075968705,-0.09025325,-0.044424705,-0.0329542,-0.062963925,0.09327469,0.09385549,0.07163523,0.011763322,0.048390426,0.09357568,-0.042823218,0.031709272,-0.022279663,-0.09358171,0.09983466,-0.093551345,0.041995134,0.03586494,0.057790812,-0.036591187,0.11918273,-0.11955567,-0.11944259,-0.07730785,0.09541972,0.11728305,0.0014674639,-0.058990575},
	{-0.0463257,-0.0047863903,0.098722406,0.054846812,0.08853021,0.10433242,0.0404162,-0.036622867,0.07898705,-0.07310001,0.015895043,-0.10927423,-0.048750028,0.0022769263,-0.015314332,-0.07256445,-0.09956028,0.1209087,-0.07582527,0.09716585,0.030621212,-0.047853936,0.034348704,-0.121780746,0.07519576,-0.009011139,0.06360946,0.07802631,-0.07087652,-0.09958476,-0.0049965293,-0.11912192,0.094131164,-0.050046355,-0.0013946566,0.006903149,0.031976935,0.06462091,0.07821213,-0.09149382,-0.10745945,-0.09669102,-0.015556865,-0.010552766,0.07201768,-0.06709881,0.08147075,0.08730205,0.023880113,0.10535551,0.011458244,-0.019980947,0.022106897,-0.05289487,0.12014745,0.0068426416,-0.09512442,0.046461847,0.04670185,-0.021641726,-0.009366121,-0.031269066,0.012121098,-0.029135901,0.04595818,0.00045366283,-0.021543054,-0.10125358,0.09161011,0.03499769,0.085869245,0.022678968,0.11652489,-0.074207485,0.043982726,0.11346396,-0.012672512,-0.09996489,-0.041551124,-0.12259431,0.034812596,0.014047142,-0.041651826,-0.039897557,-0.032732815,-0.041513246,0.011741487,-7.713028e-05,-0.108367965,-0.001319182,-0.025748627,0.026862627,-0.12113702,0.07983019,-0.019023633,-0.109893836,0.01214119,0.0019778223,0.10872291,0.03665356},
	{-0.09297575,0.09512679,0.09696796,-0.117021024,-0.061453246,-0.09140248,0.119953655,0.07910188,-0.09543871,0.10719005,0.10927493,-0.020555424,0.009817839,-0.11362468,0.027206944,-0.09507482,0.019892856,-0.017977208,0.07455398,0.10886445,0.029411355,0.026144631,0.018797645,0.096778244,-0.07363622,0.088991776,0.08995597,-0.019427557,0.011957817,0.05184342,0.10341221,-0.116925605,-0.064158425,0.022497922,-0.06586055,-0.109664425,0.05488586,-0.10158067,-0.005417588,-0.013835387,-0.022259928,-0.06725884,-0.04193075,0.051176913,-0.073663734,0.04268766,0.1120082,0.121257305,-0.025801055,0.11354343,0.104568556,-0.10431342,-0.015430086,0.013098029,0.035813384,0.09165967,-0.02368467,-0.03249819,0.01699003,0.08742581,0.008989563,-0.104504615,0.049806163,-0.12052955,-0.067796595,-0.0029083556,-0.12194728,-0.06980478,-0.043504912,-0.06361144,-0.034381703,-0.03626965,0.112862594,-0.012783718,-0.05642725,-0.07129749,-0.08348219,-0.008470152,-0.04322071,-0.11823161,-0.043096002,0.062593445,0.096662454,0.04544155,0.029723825,-0.036035832,0.08456537,-0.09929738,0.059818715,0.07748023,0.02771114,-0.07702566,0.01951157,0.10627226,0.052611433,-0.11267354,0.049820837,-0.00022392452,0.106637664,0.09210521},
	{-0.116181806,-0.09270652,0.0040242835,0.053002432,-0.12728326,0.0832209,0.0985594,-0.05546015,-0.051691186,-0.06446433,-0.05577189,0.030505383,-0.08599336,-0.06270316,-0.12722938,-0.08994637,-0.094192155,-0.109977424,-0.108409196,0.10198917,-0.1253033,0.065261155,-0.039103176,0.10857201,-0.0388534,0.008961857,0.10788278,-0.09094317,0.02343955,-0.031035272,0.106360815,0.06862861,-0.09939114,-0.11679811,-0.10198369,0.06564946,-0.052598853,0.07561825,-0.08439933,0.113119,-0.0005937489,0.028398374,0.110752456,-0.019714424,0.021385467,0.030608842,-0.09091803,0.099113435,0.013760501,-0.005032191,-0.001982591,-0.04216434,-0.04101009,-0.022872029,-0.088181585,0.07564407,-0.056100305,0.052479137,0.09681313,-0.011277574,0.010412554,-0.1088349,-0.05503921,-0.081970945,0.002054032,-0.07980167,0.0570489,0.02761539,0.07764859,-0.004846926,0.01905512,-0.016412871,-0.09637093,0.09855593,0.10819119,-0.017058427,-0.007440944,-0.08266875,-0.005772972,0.038105078,-0.10864559,-0.051027894,0.032306988,-0.12842487,0.094633356,-0.09686583,0.05609314,0.00986475,0.10622411,-0.018749606,-0.020884136,-0.057626273,-0.06548686,-0.0682955,0.07401984,-0.11836227,-0.015193763,-0.09754165,-0.05093923,-0.09158351},
	{-0.0039636134,-0.033533704,0.0320721,-0.002512453,0.07127538,-0.039813377,0.009353455,0.077575296,-0.08308242,-0.010266541,-0.058848046,-0.09501701,0.019720316,-0.10081242,-0.069529615,-0.052328926,-0.103984855,-0.10960238,0.021192895,-0.05250157,-0.069187835,0.03533237,-0.043503877,-0.08621778,-0.07345604,-0.05145842,-0.08147475,-0.03858985,-0.030506436,-0.04989121,-0.07273619,-0.013402017,0.10882803,-0.0114927525,0.10152901,-0.08111395,0.00292111,0.10260068,-0.033747483,0.108139776,-0.10773954,0.11401717,-0.030317796,0.05350861,-0.029215349,0.018520543,0.09065985,-0.013999842,0.065158024,0.06584955,0.054192036,0.08092639,0.058544047,-0.041903075,0.11757096,0.03402467,-0.027936688,-0.048974615,-0.06572387,-0.03803118,0.05554082,0.009954202,0.104747646,0.006867496,0.08255293,-0.07276856,0.06973485,0.07253656,0.0022802206,-0.12064584,0.11859615,-0.08085744,0.053036645,-0.01651639,0.012854236,-0.08575332,0.008260497,0.10990395,0.07012621,0.10269706,-0.059685033,-0.027518947,-0.05031449,-0.117461614,-0.03208037,0.037956934,-0.08641176,0.08140874,0.10320098,0.099441044,0.117822066,0.025234485,-0.012703789,0.07536505,-0.067746006,0.059629936,-0.055908937,0.031491168,0.057778228,0.053167105},
	{-0.12135653,-0.0065909945,0.048240002,-0.09034944,-0.022534506,0.0070181554,-0.12185076,-0.082280576,-0.0016997538,-0.10958454,-0.0131806,0.12006686,0.09475373,0.05224422,-0.106686495,-0.115239434,-0.022729825,-0.09849878,0.06921808,0.03623396,-0.07889956,-0.045076877,0.06608691,-0.022698851,-0.021123165,-0.08239548,-0.0451243,0.113551,0.11913203,-0.087835796,-0.09107663,0.114164926,0.038132377,-0.10678696,0.031943753,0.02717566,0.059999593,0.069743596,-0.11477215,-0.08722928,0.07441827,-0.12378913,0.049822077,0.0950159,-0.09577813,-0.0071984488,0.054858953,-0.11502892,0.09641901,0.07010989,-0.11231571,-0.016033022,0.097008295,0.05421967,0.0058345897,-0.0892739,-0.03477441,-0.024967877,0.056298126,0.008136709,0.08094207,-0.053962775,0.06335063,-0.11573017,0.01474383,0.11787552,0.034146175,-0.088241234,0.0108654825,0.11153402,-0.09057467,-0.096774556,-0.031065427,0.068588585,-0.06640415,0.049162395,-0.067356594,0.0938248,-0.12665448,-0.12161185,0.10717525,0.04443648,-0.078764014,0.056185294,-0.08015099,-0.10260261,-0.0329436,-0.11480794,0.008187129,-0.02225658,-0.109629855,-0.0061363378,0.07660435,-0.09506601,0.027070403,-0.009689246,-0.027130464,-0.043715034,0.010227395,0.0019608676},
	{-0.08080083,-0.037087694,-0.115395755,0.08166282,-0.055575997,-0.12023497,0.11902954,-0.041575324,-0.017201418,0.0016250492,-0.1144876,-0.0461103,0.03420479,-0.09589892,0.05309355,0.06307407,0.09976338,0.09785767,0.032131262,-0.09145437,0.055018242,-0.01744759,0.09638846,0.043631706,-0.052865066,0.039059244,-0.03189014,-0.07497161,-0.026347557,0.07531064,-0.093963474,-0.06888557,-0.024063963,0.033632133,0.12086141,0.0005086027,0.09348872,-0.030619316,0.11880842,-0.07514654,0.05143871,0.08631149,-0.013169212,0.10676336,-0.06881852,0.067257866,-0.016370872,-0.067553714,0.03542604,0.05823349,-0.024376838,-0.09864979,-0.10307731,-0.008628303,0.09437333,-0.051896904,0.0013725752,0.064998835,-0.00265927,-0.051153682,-0.1114477,0.08801898,0.035450596,-0.030169785,0.086272985,-0.100711,-0.07637701,0.10695592,0.033793774,-0.09778478,-0.09403273,-0.037856344,0.092433736,-0.09140425,-0.017027471,-0.024251807,-0.062189117,0.051907662,0.07950572,-0.048850298,0.04144963,0.1187816,-0.047515143,-0.056307927,-0.0760933,0.06731265,-0.10040042,0.042825274,0.03689478,-0.08330593,0.06253101,-0.035131153,0.016610485,-0.015912479,0.110899374,0.082386285,0.06044349,0.11733004,0.07880664,0.009117162},
	{-0.052446645,0.1036068,0.11415989,-0.029369963,-0.080150254,-0.020078542,-0.059405427,0.036747724,0.088758975,-0.11484755,-0.03339397,0.09691774,-0.0112185,0.07960053,-0.046567846,-0.03153206,-0.11375976,0.024429383,0.019981729,0.12282183,-0.054984804,0.04303268,-0.10232593,0.056524713,-0.09294749,0.062873796,-0.013057393,0.003958473,0.037628233,-0.061643727,-0.0035970379,0.09826326,-0.007197446,0.04256317,0.120471165,-0.019715574,-0.08633397,0.109491095,0.089833386,-0.03814601,0.0067769582,0.05252183,-0.09225043,-0.01498424,-0.091202475,-0.02816225,-0.07791321,-0.09718329,-0.051376194,-0.081484094,0.07423094,0.030967783,0.085110664,0.091090165,0.03380486,-0.061187007,0.07074503,0.111711636,0.028411958,0.09883929,0.091682486,-0.06144285,-0.031772263,-0.08553773,0.112166844,-0.12268688,0.05229949,-0.07954174,0.08743992,0.088847324,-0.1197621,-0.015779458,0.090089105,-0.010125149,0.06862694,-0.080092534,0.10142637,-0.026318619,-0.12286786,0.02163533,0.051960625,-0.010210326,0.006583983,0.10668996,0.09513084,-0.10401846,-0.062296294,-0.01192155,-0.06105493,0.02427027,-0.09586862,-0.10626948,-0.10942336,-0.04830475,0.056673136,-0.0032425977,0.0993988,-0.11147944,-0.11766926,0.0744349},
	{0.03801703,0.079149015,0.009590757,-0.10709349,0.10550141,-0.0622547,0.085132614,0.043047436,0.088406876,-0.123349555,-0.04454862,-0.068151794,-0.10131692,-0.055946253,0.037433933,-0.00320305,-0.032823,-0.12044834,0.042544164,-0.045388564,0.043482542,-0.11656964,-0.08033565,0.09890572,0.04678264,-0.04752987,-0.073958665,-0.040424947,0.05431043,-0.06126497,0.098803386,-0.061674733,0.0424245,-0.12258244,-0.1048446,-0.053106535,-0.0692757,-0.010214868,-0.049957074,-0.06128072,-0.120361805,-0.016185772,-0.0039110836,0.10150451,-0.04243974,-0.043466277,0.097117044,0.10934939,-0.05675927,-0.072113395,0.021725709,-0.122030705,0.049975976,-0.03626832,0.10653225,0.092805155,0.09204429,0.0124707995,0.016668992,-0.031226728,0.08556625,-0.017825255,-0.08257069,-0.03473766,-0.0081834905,0.03420272,0.04571396,-0.06583541,-0.12611115,-0.06663702,0.07367241,-0.054959793,-0.07485765,0.09241481,-0.081754185,0.11180519,-0.10796527,0.046872124,-0.11317201,0.04981808,0.109141365,-0.0006638642,0.0010963964,0.043978393,0.024261123,-0.042699456,0.07803584,-0.061486475,-0.12298379,0.077923775,-0.11993435,-0.033516873,-0.08880873,0.09315078,0.11473474,-0.020874923,0.06605062,-0.07390998,0.083285436,0.045225117},
	{-0.07987711,-0.09872088,0.1078514,-0.021671176,-0.06644947,-0.061642665,0.06699774,0.034336086,-0.119784586,-0.015629439,0.027146643,-0.08216792,0.095920205,-0.02867944,0.09618554,0.061002187,0.055831574,-0.12039472,-0.032373406,-0.01328851,-0.015491763,0.032009218,0.06592257,0.006119373,0.10616306,0.02927539,0.10573026,0.04288027,-0.07131881,0.08460766,-0.057342317,0.008324268,-0.06829761,0.0455248,-0.12143536,-0.057537984,0.06855975,0.113815166,0.02916914,0.031395573,0.019714102,-0.11930481,-0.103257276,-0.12236848,0.07972818,0.0963765,0.019518971,-0.01793584,0.020154297,-0.09452719,-0.024078304,-0.064460225,0.030164102,0.104303055,-0.04941632,-0.089345135,0.11638819,-0.012802716,-0.013740524,-0.057712473,0.09481011,0.10818037,-0.063607715,0.00842918,0.038624007,-0.014690494,-0.03515226,0.05734277,-0.11159543,-0.05506847,-0.07838117,-0.113300115,-0.07831369,-0.12029226,-0.09038628,0.081957966,-0.008006309,0.0772826,0.034659795,0.008525591,0.0060151885,0.11976932,-0.069060795,-0.048334826,-0.06504019,-0.11213285,-0.04860177,-0.032622047,0.09747523,0.058181275,0.027377035,0.0067410376,-0.12183681,-0.016318046,0.11122177,0.112552725,-0.105896086,0.07357649,-0.09945683,-0.109964095},
	{0.036594506,0.096645884,0.11544313,0.119329296,-0.035920944,-0.07577828,-0.029291729,0.0032441777,0.027294343,0.09708482,0.04369311,0.05587476,0.09226949,0.0015993312,-0.11032706,-0.012052597,0.06275067,-0.12145656,0.10395467,-0.05585982,0.078970976,-0.104975685,0.042815454,-0.09020962,0.05601589,-0.05802995,0.026718842,-0.034422338,-0.052264053,0.025358908,0.11353534,0.04588307,-0.06784536,-0.029408319,0.11668112,-0.011382367,0.029378809,-0.018415531,-0.030079542,-0.1074559,-0.11683628,0.04625427,-0.103620015,0.03196902,0.05098996,-0.016112687,-0.037579987,-0.08411043,-0.0016830461,-0.12432979,-0.03443735,-0.013275206,0.020549888,-0.0388178,-0.0755626,0.018207692,0.092235155,0.10229872,0.081308566,-0.013567826,0.0938749,-0.06875684,0.09584476,-0.1108035,0.076165706,-0.04181691,-0.079474285,-0.051296994,0.1104839,-0.10180104,-0.104389094,-0.04159251,-0.05189699,0.016634023,-0.023960859,-0.0026234414,0.0010751017,-0.0761301,0.06882685,-0.036386054,-0.05176037,0.09806446,-0.035578832,-0.12084363,-0.058223315,0.074178904,-0.120531626,-0.0990071,0.03886255,0.112332955,-0.094945006,0.09713623,0.029097106,-0.031824883,-0.05742786,0.030745493,-0.06529782,-0.08958773,0.0043243086,-0.050796777},
	{0.10424594,-0.00166351,0.0058013173,0.017388577,0.058265693,0.03810617,0.0820708,-0.048885178,-0.09484597,0.01718156,-0.09188267,-0.11877479,0.013306195,-0.10515303,0.10660291,0.06220586,-0.011783864,0.050753247,0.08011901,-0.09021453,0.067955546,0.11012125,0.02927012,-0.11373509,-0.07306981,0.01427798,0.11282348,-0.09760059,-0.12462304,0.07774886,0.117544524,0.012985587,-0.07771495,0.017213417,0.035239905,-0.036566384,0.0015234384,0.11811457,-0.08859932,0.0696,0.017320596,0.10516785,-0.047658473,-0.053625647,-0.07661036,-0.03770157,0.03973495,-0.06249272,0.10528664,-0.070228726,0.015162498,-0.058947943,0.038367845,0.079834454,0.07920415,0.03697951,-0.0355921,0.0891164,0.08634603,0.022781435,-0.017726803,0.003982301,-0.024233608,-0.0013445547,-0.09417002,-0.073245436,-0.10403053,0.07365075,0.098724544,-0.061110172,-0.11877847,-0.03505184,0.077930056,0.02225628,0.10194544,-0.037055135,-0.1164334,0.025836034,0.11163452,0.08333328,-0.041662745,0.08758663,0.043240033,-0.07319005,0.11577535,-0.1149341,-0.03324097,0.032343097,0.07138244,-0.09457049,-0.05333982,-0.019038554,-0.019405728,-0.05138616,0.016921071,0.013349683,0.1194352,-0.049900584,0.10465597,0.014816798},
	{-0.088539205,-0.08996392,0.07720904,0.06908128,-0.086353116,0.007922523,0.11236903,0.09190961,-0.118519455,0.011884709,0.027554637,-0.10464443,-0.0016419074,0.08913285,-0.06674377,0.09055001,0.079392955,-0.047900714,-0.09055358,-0.00058445655,0.045841884,0.09878476,-0.010144978,0.06106455,-0.040777538,0.012940443,0.06719069,-0.073909014,0.11356625,0.09142123,0.05221696,0.05507508,-0.012529947,0.10030895,0.021935819,-0.07198613,-0.013001512,-0.12647581,-0.100846924,0.08557557,0.038225677,-0.058987483,0.013038167,-0.091075845,0.108972125,0.109038085,0.11318561,-0.017140068,0.07707805,0.091236725,-0.059830617,0.09264074,-0.005843502,0.034627043,0.06278565,-0.016829967,-0.023620836,-0.115812056,-0.038554702,0.10075682,-0.06544818,0.008016396,-0.017806076,-0.0406359,-0.019656306,0.032828256,-0.08975774,0.11033715,0.06108289,-0.095345676,0.06458786,-0.007759539,0.019636508,-0.11463063,0.07380443,0.0015770822,-0.072150365,0.024602588,-0.08039915,0.08806815,0.027112547,-0.12322845,-0.009743728,-0.11526044,-0.0940005,0.00070990616,-0.06319772,0.046345823,-0.052195817,-0.06268136,0.0097621735,-0.083799005,-0.00802118,0.09554014,-0.09597052,-0.057579886,-0.03859802,-0.07557715,0.00017327699,0.0654917},
	{-0.056658406,-0.05416245,0.07732072,0.048771873,-0.11014455,-0.063634105,0.0031306539,-0.030798703,-0.078592226,0.10700507,0.089916565,0.091643356,0.099202655,0.0483762,0.0001429221,-0.036714096,0.07508742,0.04097952,0.022222739,-0.010101344,-0.11021536,0.11072719,0.07036685,0.09265914,-0.041300785,-0.11864876,-0.12292991,-0.081551336,-0.044655897,-0.0042459997,-0.08216387,0.05219242,0.09067763,-0.05384774,-1.6592105e-05,-0.034432538,-0.0164072,0.023163045,0.1115083,0.09554743,-0.097705424,-0.09778986,-0.026123209,-0.12137314,-0.05999391,0.0020763301,-0.014460644,0.009148298,-0.015502562,0.019480465,-0.00012041426,-0.013131622,0.068270184,0.05001935,-0.106841564,0.068941034,-0.079151146,-0.04855155,0.07444628,0.027045792,-0.011734349,-0.011538109,-0.08241491,0.051435553,0.090192005,-0.098312974,-0.043415293,0.039812367,-0.089104824,-0.009174582,-0.026710898,-0.0069387113,-0.07162735,-0.061432607,0.007891197,-0.07903906,0.028698577,0.036921598,0.013612707,0.045064095,0.0945646,-0.05833463,0.121652775,-0.065537505,0.08539882,-0.005859281,-0.08391745,0.10462009,-0.12431792,0.046536442,-0.056742005,-0.05300796,-0.07695352,0.10938709,0.111795336,-0.10103549,0.09032091,-0.110586956,-0.014306738,-0.08037385},
	{-0.08648738,0.051407997,-0.017094193,-0.08898072,-0.06699641,0.032304168,0.050166342,-0.0999379,-0.07816,0.053629357,-0.010857701,-0.112614304,-0.01623748,0.04817072,0.053748053,-0.059191033,-0.027350647,-0.08912544,-0.09545801,-0.05247122,0.06077832,0.08200828,-0.012382769,-0.08130425,-0.117789164,0.08369292,0.039740678,0.093588345,0.017253492,0.0123831695,0.05528431,-0.06874857,-0.06678469,-0.06796668,-0.0358561,0.08856458,-0.11543457,-0.08836956,0.025257027,-0.049630564,-0.011620406,-0.045855694,-0.10917658,-0.06820877,-0.06614603,0.06857079,0.09549669,-0.046122555,0.03722126,-0.12259651,0.070698366,-0.080502324,-0.082056925,0.059412055,0.111172706,0.017893713,0.08710758,-0.088807054,-0.05626792,0.11061892,-0.06789481,-0.058576394,0.03333607,-0.03054879,0.08742433,-0.12645073,-0.06944103,0.11144608,-0.031314325,-0.08890078,-0.09976266,0.014413964,-0.0693154,0.11732099,0.11209699,-0.10414217,0.06528089,0.09447534,0.04337881,0.02467812,-0.12507284,-0.03225107,-0.06716225,-0.1127067,0.057429273,-0.059450224,-0.046028633,0.09290898,-0.09994942,-0.010764875,0.02865851,-0.04635272,0.029415293,-0.08268026,0.0017967739,-0.09597192,0.061851483,0.08042789,-0.06900469,0.07112524},
	{0.046688955,-0.01575825,0.10272234,0.08947171,-0.010406978,0.014090914,-0.116119385,0.031667765,0.10138499,-0.09300726,0.08643824,-0.016526021,0.07898535,-0.09707414,-0.006130227,-0.055717915,0.03297336,-0.019821405,0.04016343,-0.015570194,-0.009040735,0.02447275,-0.09619954,0.031180808,-0.12199049,0.10060989,0.027868921,-0.024846178,0.07049605,-0.061487217,0.06367395,-0.06011016,0.028247038,0.11442264,-0.068942524,-0.09250349,-0.028134441,-0.049354523,-0.10212039,-0.044403397,-0.11335387,0.075809784,-0.0057518524,0.018613558,-0.039500248,-0.11594819,0.07920624,0.07604753,0.07112168,0.11318014,0.037672605,0.09491694,-0.03436619,0.105503894,-0.03460998,-0.05075403,-0.022165699,-0.076761775,0.097123004,-0.043993734,-0.016554665,-0.087701164,-0.11860869,0.040162504,0.049296003,-0.07346623,-0.08866764,0.033672273,-0.102816276,-0.12112411,-0.08714585,0.124224566,0.040192936,-0.044914886,-0.09911309,-0.025028557,-0.073065996,-0.03513227,0.09436443,0.10198212,-0.06408455,-0.05418189,-0.06370691,-0.100111395,-0.0932314,0.02853131,0.051218886,-0.048688244,-0.0039376407,-0.08567819,-0.053660367,-0.048965335,-0.083941855,-0.097926654,-0.033584062,0.06548285,0.024135895,-0.007885601,-0.12100358,-0.081817135},
