// include/conv2d_2476_weight.h
// sergio rivera 
// 2020/02/15 01:35:17 

const float conv2d_2476_weight_p[3][3][2][4]=
{
	{
		{
			{0.09573197,0.112130076,0.17661396,-0.2781485},
			{-0.12038565,0.24740806,0.066861,-0.28786415}
},
			{{0.23715584,0.2245752,-0.30534,-0.19425623},
			{0.054657936,-0.03543663,0.05267191,-0.090502664}
},
			{{-0.10598907,0.15746015,0.0036305487,0.1294167},
			{0.108395725,0.3033382,-0.15799586,0.020526975}
}
},
			{{{-0.28339013,-0.12089579,-0.19128363,0.049444195},
			{-0.15554357,-0.07921347,-0.18455791,0.19371727}
},
			{{-0.09911156,-0.1575865,-0.30328006,-0.28441882},
			{-0.2535746,0.24890617,0.13427615,0.31929436}
},
			{{0.31183425,0.079663604,0.17971803,0.33141866},
			{0.12777424,0.18783525,-0.011114687,-0.09061544}
}
},
			{{{0.17576508,-0.26580548,-0.051910162,-0.01571092},
			{0.30294946,-0.0015439093,-0.27581787,0.15720224}
},
			{{0.14772764,-0.1039699,0.06397296,-0.22680855},
			{0.12025294,0.004968554,0.25674668,-0.09189868}
},
			{{0.028307427,-0.10499947,-0.073845714,-0.088740915},
			{0.11511293,0.29181483,0.28634432,-0.04379925			}
		}
	}
};