// include/conv2d_319_weight.h
// sergio rivera 
// 2020/02/14 23:43:10 

const float conv2d_319_weight_p[3][3][3][4]=
{
	{
		{
			{-0.012067883,-0.29460868,-0.012576694,-0.29261908},
			{-0.23169082,-0.151356,0.07513446,0.20339821},
			{-0.24941112,0.0781644,0.13741967,-0.0528561}
},
			{{-0.061906084,-0.07715371,-0.17419733,-0.2151131},
			{-0.067472436,-0.14323229,0.069856204,-0.19387032},
			{0.20362583,-0.045686748,-0.14390689,-0.016435375}
},
			{{0.2776952,-0.14811073,0.24129085,0.062414456},
			{0.29385278,-0.020868119,0.03436492,0.13998862},
			{0.15028428,-0.19493401,0.02065887,-0.14667946}
}
},
			{{{-0.13842157,0.15016533,-0.16555305,0.13868438},
			{0.18193214,0.23958977,0.025635982,-0.04659637},
			{-0.14939222,0.23014876,-0.17730628,-0.27606493}
},
			{{0.23244448,-0.044822253,-0.045942977,-0.25877523},
			{0.23143327,0.29961777,0.19191386,-0.112987794},
			{0.06505807,-0.029083695,0.07388435,0.04084944}
},
			{{-0.19694805,0.12861049,-0.13084257,0.18302721},
			{-0.036920123,-0.18100497,0.02802058,-0.029137054},
			{-0.0496664,0.29392073,-0.121357195,-0.0064067626}
}
},
			{{{0.18299398,-0.16944447,0.27708378,0.029913817},
			{0.09952946,0.030574037,-0.25306696,0.10252052},
			{0.24637097,0.2620545,0.14310986,0.27002758}
},
			{{-0.30633458,0.09835352,0.07701194,0.049105912},
			{-0.03213012,-0.011950154,0.12727375,0.20794334},
			{0.2958726,-0.11851704,0.123317145,0.11305399}
},
			{{-0.29052687,-0.18855871,-0.2893542,0.12112306},
			{-0.122455835,0.21055423,0.31164956,-0.11385862},
			{0.015808035,0.19569333,-0.24146023,-0.27091616			}
		}
	}
};