// include/conv2d_6578_weight.h
// sergio rivera 
// 2020/02/15 00:04:51 

const float conv2d_6578_weight_p[3][3][9][16]=
{
	{
		{
			{0.011332351,0.13059299,-0.036257297,0.026887137,0.031898428,-0.14310098,-0.1277256,0.0069178045,0.15084064,0.16091067,0.096854836,-0.015137807,0.10110634,-0.11504193,-0.109311424,0.087157294},
			{0.13126783,0.052207433,-0.090662554,0.13647908,0.14696829,0.066746034,0.08967869,0.024534121,0.09164184,0.15883848,0.13534373,0.053069055,0.09292493,-0.0692316,0.045833062,-0.026014816},
			{0.004611877,-0.06506758,-0.05556848,0.02432889,0.12939398,-0.07008138,-0.058471054,0.10102129,-0.03561172,0.049738392,-0.09672436,-0.15249568,-0.078447334,-0.009567407,-0.026620578,0.1087791},
			{0.11315149,-0.09805946,-0.11781426,-0.12888108,0.11659818,-0.0071617994,-0.14927465,0.000889048,0.15359181,-0.06704247,0.06964529,0.16131553,-0.101531185,-0.10950834,-0.118178606,-0.117051825},
			{0.093829624,0.07655545,0.010160103,-0.081182614,0.08463671,0.15173598,0.082137495,0.1452541,-0.15259504,0.070189856,0.01871728,-0.07244144,-0.03875548,-0.15393524,0.12280532,-0.088049784},
			{0.033647943,0.12766792,0.08410181,0.123836376,-0.06808338,0.0932669,-0.13489649,0.03701292,0.042985454,-0.014887802,0.07847313,0.12738296,-0.0835305,-0.1627542,0.1483744,0.11028385},
			{-0.06065598,-0.11794114,0.02655758,-0.12624048,0.057017017,0.13146815,-0.10190656,0.034741223,-0.062157065,-0.008622266,-0.092032574,-0.1585052,0.14574017,-0.09798839,0.08091442,-0.026251564},
			{0.1419143,0.095141135,-0.046325684,-0.05921597,0.0122011695,0.025268985,0.11056127,-0.12118143,0.07469175,0.083056025,0.14677571,0.020059794,-0.11061855,0.009044813,-0.09426029,0.053190768},
			{-0.053567722,0.12022668,0.1419588,-0.10946012,-0.043592047,-0.012387097,0.07054286,-0.016925022,-0.05182225,-0.080835864,-0.018859005,0.015526012,0.16338718,-0.048059903,0.06842577,-0.05576623}
},
			{{0.04296652,-0.127214,0.05377336,0.046485953,-0.11901607,-0.10712927,-0.019191725,-0.009607181,-0.11807979,0.04276191,-0.07069629,0.10449484,-0.048524644,0.1269841,-0.16059841,0.123028584},
			{-0.024766926,0.07980142,0.07218607,-0.08455205,0.16036871,0.12691592,0.015325825,0.15324926,-0.035053194,-0.14618061,0.1246502,-0.008757561,-0.0694483,-0.067133814,-0.11784812,-0.083982654},
			{0.10847645,-0.06689045,-0.15245129,0.15066643,0.12513064,-0.027833357,-0.05057094,0.028291568,0.0635771,-0.009442055,-0.14297317,-0.013114125,-0.14977565,0.13606742,-0.010771678,0.12132618},
			{0.13248216,0.032912448,0.102490336,-0.0780423,0.13069566,0.019671213,0.09381529,0.05261664,-0.015101285,0.04756037,0.1104089,-0.09271155,0.00079557544,-0.036088184,-0.13024104,0.021735886},
			{0.016347988,0.15061328,-0.14357573,0.15266559,0.1141571,0.08943276,-0.022921983,-0.15675019,-0.12177844,-0.005984463,-0.05196538,0.038065925,0.012073431,0.014208145,0.07624223,0.15922442},
			{-0.15335548,0.030791681,0.050267667,0.121829,-0.0029417265,-0.019710831,0.08286662,0.1452626,-0.08533714,-0.07532092,-0.13017039,-0.076469116,0.117109925,-0.023744151,0.13154744,-0.120510295},
			{-0.016138827,0.03720716,0.01746729,-0.105251744,0.09637859,0.059931654,0.107216045,-0.14886396,0.13525029,0.077001385,0.08067919,-0.09549659,-0.04777117,-0.11767424,-0.042700462,0.04763708},
			{0.15734719,-0.13993342,-0.03874313,-0.044862654,-0.02025984,0.031048758,-0.03233215,-0.016528323,-0.14408693,-0.108507514,-0.037443187,-0.0870582,0.03237562,0.070534326,0.10370417,0.08333011},
			{0.022079391,-0.014722621,0.13572952,0.12431092,0.14552255,-0.078555495,-0.084613465,-0.10774081,0.12988421,0.03546843,0.03643427,-0.04120124,-0.06400361,-0.006977353,-0.029614475,0.034060854}
},
			{{-0.04906146,-0.14565204,0.04468155,0.118959054,-0.025471792,-0.07467692,0.03815192,0.05499144,0.13529062,0.05988522,-0.110136315,-0.110032134,0.10330357,0.092432804,-0.15504143,0.04358695},
			{0.12896031,-0.12901244,0.08127044,0.00639849,0.11221837,-0.13453695,0.020238824,0.040161327,-0.055083774,0.030155161,0.08658663,0.11691645,0.001499176,-0.13259722,0.020433355,-0.11778081},
			{-0.094135724,0.08684671,-0.007599607,0.0069221617,0.02342951,0.00095763715,0.042640943,0.019643396,-0.004125504,-0.120577745,-0.07975462,0.034180656,-0.021216521,0.15158917,-0.11350107,-0.070467755},
			{-0.06490267,0.014692806,0.05620554,-0.090464234,-0.025977023,0.04387683,-0.03916863,-0.020655438,-0.14239371,0.07406012,0.13921422,0.073658034,-0.0844443,0.113601156,0.07861531,-0.081163354},
			{0.018887194,0.14800023,0.061552837,0.12347143,0.010545386,0.0012418266,-0.05883361,-0.11449824,-0.033129998,0.011926582,0.06803806,-0.0052443147,-0.03862084,-0.10037558,0.022905227,-0.022517942},
			{-0.01881792,-0.11373785,0.1044507,-0.13800287,0.11659716,0.09952768,-0.06357913,-0.15936649,-0.099897504,-0.0881322,-0.09964604,0.099253684,-0.03447546,0.005734237,0.02694871,0.02847007},
			{0.0022371348,0.09540264,-0.10422398,0.1480088,0.07247757,0.14546394,0.05327944,-0.13733888,-0.032656156,-0.0331944,0.05704095,0.002485171,-0.14177729,0.0007091402,0.07967072,-0.14816466},
			{0.08123148,0.068022996,-0.153147,-0.03305746,-0.10885883,0.15816909,0.09045659,0.16233534,0.07620709,0.0054905782,0.090777904,0.13852164,0.030493185,0.056838594,0.093021415,-0.1507187},
			{-0.0009117224,-0.09891505,-0.13813974,-0.10632523,-0.12171834,-0.06662295,-0.06036709,-0.056627467,0.121705495,-0.071607575,0.093831845,-0.15642338,-0.020784028,0.0686181,0.12727419,-0.09970143}
}
},
			{{{0.062333137,-0.10687785,-0.13183635,0.013345863,-0.034145765,-0.06757192,0.097642824,-0.009680212,-0.037497666,-0.16093446,0.0933836,0.06762336,-0.14020532,-0.011794246,-0.043523513,-0.10090567},
			{-0.022765802,0.15368927,-0.16260779,0.11622907,-0.03942111,-0.10770747,-0.101557426,0.078069985,0.091738604,-0.04287048,-0.13794726,0.04553786,-0.038183764,-0.016677752,0.146206,-0.023517758},
			{-0.14009634,0.039522532,0.028514683,0.026779324,-0.036585454,0.06003086,0.026968505,-0.015297323,-0.024786176,-0.010773115,-0.13955133,0.05716689,-0.034539763,-0.15889612,0.15832603,-0.029694157},
			{0.10233467,0.16042495,-0.05386108,-0.07908474,0.007213915,0.06810701,0.11785753,-0.058246173,-0.03687121,-0.080574416,-0.012957515,-0.16045491,-0.049829334,0.13090421,-0.048958562,0.012357645},
			{0.012971199,0.07542269,0.0038708597,0.083379626,-0.0030295295,0.09254662,-0.08366424,-0.12511303,0.10818121,0.14616846,0.12548344,-0.07367411,-0.10990403,-0.118038006,-0.1417761,0.13143747},
			{-0.15038958,0.076207265,0.049789682,0.01171868,0.0071477205,0.036123183,-0.12974,-0.074578114,-0.15407684,-0.03986601,0.13483573,0.047960624,0.12109327,0.02889204,0.08321439,-0.04166825},
			{0.05496383,0.07689985,0.019925743,-0.07424571,0.13311236,0.111447215,0.11313391,0.09734756,-0.057625227,-0.14294563,0.08348707,-0.1088271,-0.10313923,-0.12642083,-0.011131992,0.054685976},
			{-0.0629352,0.13387914,-0.09990356,0.109619156,-0.11126318,-0.059413206,-9.668994e-05,-0.1199815,-0.05021395,-0.1054911,-0.08983232,0.072501555,0.09969759,-0.13058974,-0.0011289832,-0.08643896},
			{-0.14730026,0.09783017,0.018913507,0.051969953,0.0387583,-0.10686459,0.04294801,-0.04115331,0.021414794,0.09234509,0.12927355,0.13680789,0.010577883,-0.09831353,-0.0036448361,-0.14369717}
},
			{{0.028135749,0.10193105,0.008112356,-0.043719918,0.1201489,0.07381587,0.1308931,-0.0498422,-0.028384857,0.14870897,0.11517271,-0.03195697,-0.037116066,-0.0020127662,-0.07532141,-0.066512674},
			{-0.15373738,0.14587778,0.02731359,-0.10342995,-0.15078433,-0.120639704,-0.055757023,0.14535221,-0.14884771,-0.02041757,0.07508821,-0.11184266,0.15492138,-0.081917055,-0.014960806,0.104212105},
			{0.13275786,-0.15550147,-0.09027388,-0.090448566,-0.118414015,0.14515187,-0.0028636074,-0.038257077,-0.06915191,-0.043746546,-0.054795064,0.05242583,-0.022614347,0.09502033,0.115797006,-0.0067932303},
			{0.0036682696,0.048261777,-0.01569371,-0.084592916,-0.06573573,0.06664441,0.034159806,-0.03341067,-0.050803166,0.11129416,0.058097508,0.06523113,-0.10526066,-0.060303606,0.14139912,-0.09402826},
			{-0.050696608,0.092540696,-0.022328958,0.0056214943,-0.103110485,0.07687463,-0.019272314,0.091325074,-0.13856104,0.058503784,0.15980463,-0.10775386,-0.10425096,-0.093734354,-0.14402917,-0.15557203},
			{-0.09534986,0.08818747,-0.114395425,-0.16194615,-0.121979386,-0.099216975,0.12077619,0.009862855,0.034407392,-0.1590913,0.14104667,-0.036118194,0.10590482,-0.010769233,-0.14270462,-0.10081336},
			{-0.051091347,0.029893583,-2.3081899e-05,0.05771392,0.051106494,-0.04196775,0.031425145,0.1613903,0.004724414,-0.0632402,0.14038056,-0.09114109,-0.0033749961,0.037968773,-0.050135653,-0.123693384},
			{-0.1212746,-0.042935625,-0.11620872,0.049728956,0.1333912,-0.041064627,0.09678077,0.1177696,0.00048160553,0.09517267,0.06259173,-0.13223507,-0.0683648,0.03791473,0.051713597,0.068681896},
			{-0.11771345,-0.088435955,-0.114430115,-0.12669438,0.07933277,-0.14689891,0.1216821,-0.15812883,0.10713342,-0.05436131,-0.055700403,0.059792534,0.13450405,-0.046165533,0.10447117,-0.03947757}
},
			{{-0.018233255,0.060923565,-0.16202371,0.13620064,0.087235495,-0.02792182,-0.06394783,0.030978844,0.15828766,0.009593591,-0.023872437,-0.027824163,-0.08836354,0.11912992,-0.020728407,0.09513182},
			{-0.15741962,0.014063384,0.110651165,0.08438714,-0.07152813,0.013857258,-0.10944768,0.13871646,0.07206475,-0.072488576,-0.034367226,0.006580785,0.012100175,-0.14251836,-0.08268194,0.112858325},
			{0.011345162,0.09735669,-0.14483382,-0.091579325,0.04831693,0.08279752,-0.019010205,-0.14172801,-0.10083711,0.045110315,0.16192879,-0.070197076,0.1436016,-0.055383153,-0.15936409,-0.053558823},
			{0.061218098,0.13119644,-0.07940459,-0.15129848,0.113268666,0.027830513,-0.051037103,0.039489836,-0.058363177,0.11215986,0.09822311,-0.07189777,-0.053053163,0.060078964,0.10177577,-0.09302472},
			{0.066489816,-0.13177577,-0.094853364,-0.123758696,0.057758246,-0.074279286,-0.09927665,-0.04039325,0.09889493,0.044855975,0.031793702,0.060018703,-0.1602163,-0.04836539,-0.113133565,0.018772988},
			{-0.0023874016,0.11298756,-0.11188117,-0.090480655,-0.09293326,0.025506912,-0.04282598,0.11493221,0.12869498,0.042654257,0.09119211,0.10246199,-0.056789353,-0.08946324,0.09249252,-0.08350667},
			{-0.004608623,-0.051588748,0.0004915297,-0.08547421,0.063986495,0.1497755,-0.06498307,-0.0028659403,-0.14144254,-0.16212694,-0.015398881,0.08874738,0.009088659,0.06631678,-0.07228305,-0.0053140665},
			{-0.044992838,0.061249275,-0.115389556,0.012324921,-0.037070088,0.07667386,0.0722808,-0.11787075,-0.054264627,0.0032945531,0.05209271,0.048919752,-0.14875337,0.09171563,0.0964008,-0.13201128},
			{0.08389138,0.0010285765,-0.017056152,0.09601246,0.0794947,0.1087289,0.13452062,-0.056411117,-0.04559749,0.1305684,-0.08294706,0.1270544,-0.14648312,0.07506638,-0.09913003,-0.08493603}
}
},
			{{{-0.051575582,0.08159346,-0.10247092,-0.0015131644,-0.049322296,-0.120066896,0.04259641,0.037725016,-0.15144387,0.1502168,0.092276305,-0.013649419,-0.0963561,-0.056813546,-0.12424906,0.06414451},
			{-0.03284116,-0.14202292,-0.123633504,0.02204572,0.05234237,-0.031902295,0.016138373,0.15311468,0.10007861,-0.0962047,0.092188954,0.14832714,0.15121013,0.15450242,-0.109428525,-0.08533609},
			{0.013536505,-0.13295281,-0.0042402893,-0.05003466,-0.04358889,0.12658359,-0.04894321,-0.036618516,-0.0878464,-0.14035438,0.043385744,0.096419245,-0.12740105,0.10770701,-0.07439407,0.09612627},
			{-0.029897762,0.09201143,-0.028300524,0.15205851,0.11687382,-0.08976379,-0.006095482,-0.10288906,0.09052891,0.09947358,-0.017450204,0.11483237,-0.096015856,0.08933937,-0.10292044,0.11926835},
			{-0.12826125,0.12685181,-0.08542167,0.08508251,-0.022736551,0.111018196,0.11117321,0.08204436,-0.14802279,-0.12818515,-0.023015436,-0.048230506,0.07246445,0.09864859,0.14662674,-0.08781428},
			{-0.016205328,0.008069234,-0.10001997,-0.15054591,0.13898042,0.03341807,-0.06700696,0.06272712,0.03893873,-0.14452407,-0.022777848,-0.13112748,-0.15631631,0.12570128,-0.1613238,0.08396843},
			{0.11273184,-0.15059868,-0.06053216,0.12345987,0.14617257,-0.16540413,0.14626321,-0.07940097,-0.16400333,-0.013672439,-0.15447947,-0.118487924,0.016893862,-0.030659147,0.07489994,0.03810978},
			{0.12358876,0.08581695,-0.066991985,-0.16100392,0.14464222,-0.046482358,-0.0622635,-0.08632333,0.09468645,0.0015196897,0.015141663,-0.017610565,-0.06831327,-0.11798101,0.05118924,0.15186757},
			{0.06812618,0.12085957,0.016761452,-0.084853254,0.01799426,-0.12836765,-0.15176524,-0.120960206,-0.14242972,-0.028561907,0.030219898,-0.0030608475,-0.15034343,0.089185774,0.14194499,-0.15641992}
},
			{{-0.14608718,-0.030167613,-0.11477401,0.03266851,-0.08604077,-0.0025500453,0.15789148,0.008531749,-0.07278735,-0.04157337,-0.03297422,0.04562998,0.028756518,-0.110529855,-0.059463896,-0.09638264},
			{0.023238383,0.14668833,-0.040761523,0.012110372,0.12849328,0.071855746,-0.09900552,0.10718781,0.11077764,0.010309983,-0.017101262,-0.04056573,-0.07967226,0.0019900915,0.058415983,-0.154578},
			{0.13500896,-0.050461333,-0.101234585,0.04398129,0.1487911,0.12961443,-0.018201122,0.06527622,-0.14117502,-0.024887277,0.009028794,0.066541284,0.121992044,-0.0007367462,0.14240295,-0.15878727},
			{0.028927848,-0.017570887,-0.047781408,0.10393686,0.13857791,-0.00082092325,-0.07092213,0.14900017,0.11163275,0.06856454,0.12389958,-0.10936761,0.019362766,-0.13555524,-0.14114118,0.08493288},
			{-0.16218646,0.049141735,0.15987137,0.13248517,-0.018617129,-0.13906728,-0.07949629,-0.104095,0.15094663,-0.13969462,0.13521913,0.07308076,0.08516315,0.06875784,-0.13512325,-0.15985727},
			{0.013645586,0.10748179,0.06584273,-0.05038609,-0.07192477,-0.1142957,0.13341354,-0.021784395,0.111595154,0.02769137,0.12469365,0.12757471,0.14350319,0.06816618,0.06230817,-0.049948566},
			{0.06497846,-0.075309776,-0.13086444,-0.07488772,0.040359274,0.007574784,-0.032089997,-0.12339765,-0.14078252,0.14419554,-0.06263396,0.056798384,0.14013638,-0.14035173,0.046375297,0.019630892},
			{0.095889986,-0.13437983,0.14488521,0.12734987,-0.08262119,0.035438232,-0.06161937,-0.09889066,-0.08278215,0.12264323,0.10676797,0.11876136,0.14212123,-0.06443772,0.07070427,0.1412175},
			{-0.13626719,0.06802722,0.07510504,0.018281845,-0.030138152,0.13316283,0.037503064,0.047812164,0.119471915,0.141303,0.06980484,-0.0058104545,-0.08169392,-0.081983365,-0.097962156,-0.032243766}
},
			{{-0.011261107,0.031381752,-0.0017707795,0.10760598,0.15646017,0.05539556,0.07666567,0.07578081,0.16159663,-0.04422492,0.14170498,0.014275163,-0.12181947,0.009222425,-0.115075104,-0.1549679},
			{-0.06804376,0.038521163,-0.08177351,-0.16071413,0.038729556,0.063955955,-0.04295991,0.037019655,-0.04039917,-0.12036936,-0.15946457,-0.08540056,0.12822276,-0.12352941,-0.058487475,0.03130448},
			{0.102967486,0.053310838,0.12074888,0.019971134,-0.035718985,-0.071467,0.049158853,0.08894536,-0.16145436,0.09235855,0.0034491795,-0.01843673,0.113591075,0.11083703,-0.07529416,0.046664614},
			{-0.1577625,-0.10110088,-0.025915518,0.08107227,0.14311671,-0.16225322,-0.11916808,0.15748444,0.039543193,-0.16207877,-0.05024859,0.017461523,0.12851718,-0.04242424,-0.053702943,-0.0019643358},
			{0.15376924,-0.046218857,-0.0780031,-0.12601523,0.1499472,-0.020501148,-0.0012882808,-0.16196238,0.03253159,0.019180061,0.09993172,0.026309565,-0.06526314,0.1592169,0.13560008,0.011268863},
			{0.028963437,0.022229314,0.11201754,0.01261225,0.13298514,0.038437508,0.0055256956,0.15656286,0.004587665,0.11866151,-0.0441637,0.06527707,0.14151356,-0.031313904,0.08970396,-0.08111047},
			{-0.1559167,-0.04826341,-0.09839827,0.08121106,0.08104376,-0.08569078,-0.15868746,-0.1409695,0.019280784,0.10480537,0.036225587,-0.16157204,-0.12833995,0.028840732,0.1272725,0.116744325},
			{0.021897819,0.12753277,-0.05857539,0.040826287,-0.032657318,-0.14996344,0.03738248,0.04463631,-0.0062875533,-0.014601207,0.052317895,-0.073444486,-0.035800293,-0.025190815,-0.06907133,-0.024071127},
			{-0.03307102,0.008415334,0.13162732,-0.13227631,-0.0624901,-0.014631997,-0.14718182,0.07552856,0.060729336,-0.15286635,-0.02003641,-0.079339966,-0.08925465,-0.15085338,-0.15389104,-0.1375577			}
		}
	}
};