// include/dense_4900_bias.h
// sergio rivera 
// 2020/02/15 00:04:57 

const float dense_4900_bias_p[334]=
{-0.0052503143,0.0058246106,-0.003375812,-0.0012218022,0.004312115,0.007378561,-0.005088329,0.00027781306,-0.0054426505,-0.0009183716,0.005136173,-0.00013406517,-0.0015678167,0.0021925494,-0.0031150444,0.0048517245,0.00017030281,0.0014973439,0.006116526,-0.0024777376,-0.0019538533,-0.007642216,-0.011225909,-0.003275827,-0.0012521171,-0.007052917,0.00030783005,-0.0068326313,-0.0008024995,0.00032822313,0.0055166283,-0.0061277747,-0.005500476,-0.000360028,-0.0015859142,-0.0038822335,0.0005998105,-0.0009951382,-0.01576712,-0.0034928436,0.0016657807,-0.004727023,0.009632388,0.0016021914,0.0015398484,-0.006083713,-0.004066239,-0.0018560365,0.0031673212,-0.0035108002,0.0023449857,0.002500096,-0.009653994,0.002842262,0.0013547764,-0.0023302992,-0.011094498,-0.0001053781,-0.0008727137,-0.009799559,-0.004889414,-0.0037591965,-0.0052828547,-0.004048693,0.007840109,0.0062198243,-0.002755253,0.002907006,0.002284151,0.002879866,-0.007194626,-0.009088764,0.00470839,0.01111337,-0.00068970403,-0.006632467,-0.0024295368,0.0021587564,0.0033672752,0.0020464135,-0.0010519555,0.0044394587,0.009928862,-0.0075435275,-0.0015717875,0.004578884,-0.0018991405,-0.0047815316,-0.006219927,0.00010425574,-0.0021474138,0.011272097,-0.0010916254,-0.006303979,0.0025359143,0.005347919,-0.0047302768,0.011436627,-0.0063846624,0.0024775534,0.0053761974,-0.0016135194,-0.0015211374,-0.008325963,-0.007611391,-0.005135791,0.0004292975,-0.00078471215,-2.1682587e-05,0.002797934,-0.0025858548,0.0022547366,0.003187546,0.0052668643,-0.005571181,0.0053627673,0.009198175,0.0034498775,-0.005589963,-0.0021997592,0.007923297,-0.0024332618,0.00072952587,-0.0019276247,-0.001018931,4.9097e-06,0.0021544127,-0.00796029,-0.0033645735,-0.00046281365,0.0025576632,0.0071367524,-0.020777462,0.0057758344,-0.007781985,0.008366044,0.00206795,-0.006047377,-0.0019575574,-0.0041484344,0.0082245525,0.00055957097,0.0070202574,0.00791365,-0.0015164437,-0.00042045023,0.0063793343,0.007653007,-0.005017902,-0.0007660595,-0.0013886383,0.0024205658,0.0010271306,0.008287517,-0.0056095216,0.0041874168,-0.01695438,0.0010930558,-0.0032947904,0.001523324,-0.0063458537,-0.00010112612,0.0017552236,0.0019116676,0.0018935872,-0.0006537639,-0.0003352071,0.0066434722,-0.0020056595,0.00441338,0.0010405794,0.0048030103,0.0030796216,-0.0015451541,0.0022541243,-0.00066774024,-0.0052181026,0.008379238,0.0023481846,-0.0019400975,-0.00721245,-0.0006268573,-0.0021656977,-0.006680202,-0.0006934734,-0.0020357918,-0.004301242,0.0011735029,0.0016830686,-0.0026315723,-0.015095448,0.0010481039,0.00082098437,-0.0025634086,-0.0034306708,0.0066825617,-0.0031239076,0.0021780008,0.0013877555,0.0007092494,0.0052636713,-0.0017816994,0.005328767,0.006930832,0.0073104594,0.0051432266,0.0054554045,0.002008595,0.0018443485,0.00090529374,-0.0064106174,-0.0005786455,-0.005879205,0.0020797579,0.0023482572,0.0023006818,0.0011494298,0.0060290834,-0.0048311492,0.0033629795,-0.006848471,-0.000673577,0.009857759,0.00028642593,0.006265864,0.0016113752,0.010089657,0.00020390784,-0.003471599,-0.00092073705,-0.00060117396,-0.0046121664,-0.002705728,-0.005534029,0.006905018,-0.0074569234,0.015296471,0.0070279865,0.008951161,-0.010356198,0.0062413756,-0.002555667,0.0042622173,0.0007498077,-0.007786152,0.004749569,-0.0047190003,0.00468195,-0.00068968046,0.010338291,-0.006087942,-0.0046207774,0.01186783,0.005826624,-0.0057614367,0.0021518636,-0.0012548916,0.003041135,-0.0060557984,-0.0045641717,0.00541999,-0.0029024633,-0.00697988,-0.0021309764,0.004877978,-0.0042161755,0.0044761994,-0.005121093,-0.0024211756,0.006337484,-0.0065111322,-0.0006173999,0.0040213107,0.0032114885,-0.004898553,-0.0007404488,0.008244634,0.0010944301,-0.010471594,0.0098321885,-0.0038247537,0.0038079,-0.0014343132,0.003931694,0.008265285,-0.0032276455,0.0123814065,-0.00032674335,0.0005531691,-0.000112257156,0.006426603,-0.00020703452,0.005258539,0.003240156,-0.0057223607,-0.0022175424,-0.0012030662,-0.0015293646,0.0039698714,-0.0008949091,0.0038251062,-0.0070703304,-0.0074448087,-0.00600161,-0.00016076528,0.0043715686,0.0026485694,-0.0043476615,0.004525309,0.00043172413,0.0070783757,0.0018004982,-0.0045476737,-0.0005980211,-0.010689415,-0.0013968514,-0.0001216362,-0.0017236212,0.001087834,-0.00075139187,0.008049362,-0.0018735364,0.0037916673,0.004810009,0.007297428,0.00029359793,-0.0073075686,-0.00075487065,0.0048786737,0.003108047,-0.004542723,0.0039615436,0.0059518977,0.004850478};