// include/conv2d_4687_weight.h
// sergio rivera 
// 2020/02/14 15:49:35 

const float conv2d_4687_weight_p[3][3][8][8]=
{
	{
		{
			{0.17926073,0.18098916,-0.19599648,-0.088463925,-0.11572278,-0.14391357,0.030204017,0.15170139},
			{-0.104958564,0.17263715,-0.19133398,0.07647198,-0.18747555,-0.07044147,-0.0047305655,-0.068185166},
			{-0.014143366,0.15033135,-0.1301091,-0.1282852,0.010325322,-0.042013902,0.123122595,0.0236127},
			{0.15857586,0.1402694,0.20449868,-0.08991091,0.09663977,-0.20160085,-0.1581313,0.09005469},
			{0.071030654,0.14785822,-0.01654315,0.19944772,-0.1862651,-0.0816738,0.038154934,0.11179332},
			{-0.10526837,0.17482202,0.19866802,0.0653449,-0.12962286,0.19822362,-0.18561128,0.08028921},
			{-0.14504202,-0.18668316,0.11325358,0.19192636,0.07861587,-0.14469257,0.15005045,0.069598},
			{-0.13910136,-0.1387513,0.017949227,0.1661807,0.082697,0.15562147,0.012889525,0.094944745}
},
			{{0.07396723,0.15700416,-0.08406432,-0.04293737,0.05286988,0.17758037,0.085838616,0.07914365},
			{0.050953005,0.11455625,-0.04744573,0.047473602,0.10020414,-0.056473646,-0.0724943,0.19039474},
			{0.114179105,-0.12580998,-0.13707475,-0.00908879,0.15443881,-0.12973757,-0.2005232,0.0956226},
			{-0.18759014,0.072394654,-0.047853187,-0.1198642,0.013690398,-0.1276657,0.009523862,0.0087919505},
			{-0.018988315,-0.03736167,0.16103938,0.084603965,0.19370107,-0.053352512,0.033726603,-0.20696454},
			{-0.022946833,-0.080780186,0.13873796,-0.13752143,-0.005214012,0.024616344,0.20159939,0.20333397},
			{-0.18783405,-0.07955848,0.07998482,0.028600134,0.107373536,0.15875858,-0.044191908,0.123285495},
			{0.106027074,-0.1473919,0.0033969984,-0.008052709,0.06499213,-0.054341964,-0.169197,0.02505452}
},
			{{0.10387658,-0.10735107,-0.14145677,0.10905474,0.113286376,0.042631235,-0.1582233,0.088327326},
			{-0.007971667,-0.19733462,0.14726184,0.03293674,-0.0881577,0.0947685,0.06865546,0.098610796},
			{0.19200748,-0.17318757,-0.119152635,-0.18537767,-0.20200057,-0.15687197,0.13054699,-0.13496622},
			{0.10233988,0.16378106,0.1829827,0.12630004,-0.086007394,-0.09744513,0.13765788,0.15156674},
			{-0.18360744,0.08352226,-0.05416317,0.12525532,0.0063812956,0.016060876,0.074328214,-0.031326246},
			{0.05714115,-0.18733746,0.14942682,-0.12558383,0.028160937,0.14452136,-0.06799611,0.18289243},
			{0.124326125,0.0056046015,0.10966099,0.18086088,0.06341626,0.107745275,0.15790112,-0.11340376},
			{0.052730776,-0.13654292,-0.1706165,-0.14935501,-0.08848925,0.19801405,0.17891888,-0.089224756}
}
},
			{{{-0.18271105,-0.1320302,0.1304911,0.16419923,0.025225645,-0.1511942,0.20814168,0.046321224},
			{0.12632541,-0.08276554,0.17001261,-0.053045053,0.1490672,-0.17010815,0.17352168,0.0050968924},
			{0.09098471,-0.14002211,0.08127492,0.12407372,-0.025382215,0.07227451,-0.023241851,0.10385556},
			{0.14205334,-0.032991864,0.12116703,-0.15715419,0.016850514,0.03214177,0.14861561,0.12028855},
			{-0.032783817,-0.032476947,0.13975573,0.0061237956,0.009005784,0.025429888,-0.20258497,-0.0048293993},
			{0.09915118,-0.034739647,-0.045631733,-0.17513049,0.09728473,-0.13808309,0.14419685,-0.1144068},
			{0.17898464,-0.06512946,-0.14095894,-0.009159482,-0.14084223,0.056021333,-0.18915935,0.09468425},
			{-0.11823607,0.008549416,-0.108370215,0.14025687,0.14513081,0.090730354,0.19681868,-0.107986666}
},
			{{-0.07560815,-0.10296126,0.075757,-0.066181995,-0.16644582,0.15734495,-0.042024083,0.094863},
			{0.106708795,-0.1589679,0.06552854,-0.20143805,-0.12222164,0.098271966,0.02810415,-0.1750254},
			{-0.16346571,0.10176015,-0.093953975,-0.17815779,-0.20095257,0.1254942,-0.08914597,-0.18845648},
			{0.16452974,0.11215473,-0.057299834,0.06749509,-0.12416438,0.04512249,-0.077024,0.14154337},
			{0.05734964,-0.030905263,0.11573913,-0.0062146746,-0.009388232,0.026386429,-0.17777187,0.11586798},
			{-0.17828918,0.15096004,0.13602726,-0.17994878,0.0709883,-0.16398087,-0.18878165,-0.01948904},
			{-0.00905442,-0.18537627,0.18742153,-0.11988101,-0.17027953,0.09724953,0.11217881,0.10857237},
			{0.07224971,0.16599475,0.1886844,-0.02412193,0.14924444,-0.041348826,0.0047487514,-0.077350095}
},
			{{0.0027576545,0.10699732,-0.18684714,-0.095825665,0.19018611,-0.04696897,0.08263765,-0.13942671},
			{-0.11679301,-0.010978925,0.15019909,0.055289444,-0.022424035,0.07625449,0.12328415,0.19235423},
			{0.15658204,0.19384222,-0.07707954,0.14646624,0.055976436,0.10421357,-0.03024066,0.02526408},
			{-0.10467515,-0.17062832,-0.20028402,0.033043157,-0.10935288,-0.08001944,-0.077933125,0.11242312},
			{0.024731144,-0.029454064,-0.15182872,0.059123076,-0.1908122,0.05174876,0.19096127,-0.054856792},
			{0.13917233,-0.15715846,0.07606758,-0.08033759,0.13768673,0.039979827,-0.032360144,-0.13809173},
			{0.02963339,0.07729742,-0.0099433735,-0.13166022,-0.0054274797,-0.08925835,0.1469413,-0.18313378},
			{-0.0206971,-0.13055643,-0.035708472,-0.022560844,0.18899813,0.004614334,0.13931079,-0.027221011}
}
},
			{{{-0.02446238,0.044530734,0.020350853,-0.13660593,0.20439978,0.15219592,-0.11515912,-0.086228386},
			{0.1407065,0.0690376,0.00029198633,-0.12031505,0.1670025,-0.024969017,-0.11026303,-0.16045335},
			{-0.14045866,0.008334757,0.12953849,-0.11856903,0.041912936,0.19395731,0.009467293,-0.036498975},
			{-0.19665682,-0.06410314,-0.071366735,-0.16126807,0.11162304,0.17966293,0.19731627,0.106272966},
			{-0.16298105,-0.03676851,-0.07597091,0.18174836,0.116881415,-0.15138842,0.06825669,0.1541479},
			{-0.20234919,-0.1425355,-0.17916939,0.07037343,0.10159626,-0.17824279,-0.18439172,0.024836637},
			{-0.11871762,-0.15499862,-0.0152003495,-0.19896981,-0.05039429,-0.05954299,0.09953328,-0.014928151},
			{0.088087216,-0.0868906,-0.056137193,0.039114155,-0.097335234,0.017923648,0.010192887,0.1972501}
},
			{{0.15973341,-0.08899162,0.031625845,-0.09882205,0.08531212,-0.0911237,-0.09934902,-0.09180357},
			{0.100125805,-0.15854801,0.07739709,-0.104913086,-0.052346,0.09817538,0.050685227,-0.111779526},
			{-0.05875533,0.07261431,0.20253225,0.108169414,0.0461528,-0.1388962,0.15679748,0.12466497},
			{-0.19633758,-0.09483771,0.14195797,-0.0074237157,0.109275095,0.099997535,0.0352475,-0.17408724},
			{0.15582527,-0.046968397,-0.012134867,-0.0024229167,0.08107127,-0.0155482115,-0.1420986,0.03606276},
			{-0.046303116,0.096104816,-0.11955697,-0.10722272,-0.039961796,-0.19700776,0.17523211,0.0041264617},
			{0.11810737,0.06743525,-0.08654089,0.11210951,-0.13607419,0.13060819,0.104205035,-0.06541482},
			{0.19453607,-0.04166611,0.031790234,-0.008822405,-0.12828746,0.079403915,0.031237278,0.15123132}
},
			{{-0.07204944,0.028891027,0.18905681,-0.063804895,-0.17026791,-0.017162926,0.10562154,0.1592993},
			{-0.011310213,-0.02242927,-0.07880734,-0.09005929,0.0466424,-0.08741039,-0.049835887,-0.16335107},
			{0.008489674,0.03076094,-0.17990586,0.057377543,0.11060509,0.15784493,0.0006478239,0.017288607},
			{0.052483022,-0.16709237,-0.17458571,-0.05043824,-0.03624795,0.18663922,-0.05300772,-0.20319724},
			{-0.07015019,-0.07921331,-0.06219159,-0.08704442,-0.13254398,0.08490183,-0.00062775123,-0.05017445},
			{0.022930223,0.1277418,-0.06637867,-0.09564048,-0.002980051,-0.024202108,-0.10619486,-0.17530882},
			{0.0040837303,-0.09277149,0.18609323,-0.07142081,0.09384838,-0.17255229,-0.017181592,0.07119082},
			{0.09179483,-0.18497992,0.18555179,0.106475726,0.16715984,-0.06417302,-0.108108535,-0.017630463			}
		}
	}
};