// include/dense_519_bias.h
// sergio rivera 
// 2020/02/15 00:10:35 

const float dense_519_bias_p[116]=
{-4.406087e-06,0.0012674644,-0.0030151517,-0.010276509,-0.0003609104,0.00964603,-0.0030583502,-0.0006905344,0.0058553396,0.0012619933,0.0011395168,0.009340532,-0.00031176826,0.0017773153,-0.0026467203,-0.003393193,0.006652842,0.003262946,0.00077169936,-0.0034022867,-0.0012199616,0.0031110335,-0.0024453641,-0.0062755723,-0.0005149762,-0.004909077,0.0015822216,-0.00015425868,0.0015821371,-0.008269312,-0.0043450124,-0.0018289858,-0.0008332905,-0.004727098,-0.001727358,0.017255286,-0.0038080718,0.00020990043,-0.015381573,-0.0010542203,-0.0044104187,0.0011336396,0.0030926045,0.011198412,-0.0045126383,-0.0025161211,0.0020616448,-0.0035962644,-0.00063690485,-0.0049578156,-0.0035096714,0.0018789112,-0.0017372898,0.0002926426,0.007175333,0.016819453,-0.00065343716,0.0021599007,-0.0013643571,-0.0068626185,-0.00093227247,0.0040069195,-0.0033889776,0.0057690544,0.0027947905,-0.0009772024,-0.0076143737,-0.0018972069,0.00012175477,-0.00011076371,0.0032673273,0.009406404,-0.004693323,-0.0035304786,0.006252141,0.005382791,-0.0014235746,-0.0066005923,-0.0038018401,2.4871319e-05,-0.0039440626,-0.011333479,-0.014314266,-0.0020336267,0.00071356865,-0.0018140657,0.0073459256,-0.0071369405,0.0038854678,0.0022439118,-0.0011179112,-0.001130992,0.0027030758,-0.0037612608,-0.0054055676,0.00089526933,-0.0010986689,-0.01362862,-0.009002764,0.0008874384,0.004277192,0.0041974545,-0.0022548698,0.0016653376,0.0028371518,0.016452795,0.000339763,0.0082876915,-0.0027673687,0.0027407454,0.00067853264,-0.012889184,-0.0017802157,0.0063177226,-0.004620604,0.004658954};