// include/conv2d_837_weight.h
// sergio rivera 
// 2020/02/15 00:22:56 

const float conv2d_837_weight_p[3][3][7][2]=
{
	{
		{
			{-0.1461541,-0.14998505},
			{0.004059798,0.25131732},
			{-0.0046812147,0.001148439},
			{-0.0758124,-0.11601131},
			{0.17411973,0.06893591},
			{-0.06690855,-0.04482591},
			{-0.18796568,-0.15877}
},
			{{0.12845369,-0.022378245},
			{0.10478056,-0.062208187},
			{0.05637952,-0.23388562},
			{-0.037726313,0.1533959},
			{0.20843899,-0.24632168},
			{-0.20007163,0.19999777},
			{-0.019140128,-0.18633002}
},
			{{0.2296262,-0.08222453},
			{0.1431417,-0.071336284},
			{0.1980048,-0.048057184},
			{0.11451109,0.21161324},
			{0.16781694,-0.15321991},
			{-0.07314303,-0.08100274},
			{-0.22040316,-0.10409219}
}
},
			{{{0.07011502,0.26056328},
			{0.021370392,-0.018472617},
			{-0.16008638,0.038925868},
			{-0.008861261,0.12871918},
			{-0.037144396,-0.0974605},
			{-0.13988216,-0.21213198},
			{0.19258103,-0.25871235}
},
			{{-0.25369728,0.045185506},
			{0.1203323,0.14431404},
			{0.24025443,0.23147814},
			{-0.23834813,0.058227547},
			{0.10764703,-0.09997875},
			{0.15252042,-0.22404481},
			{-0.11267544,-0.17128456}
},
			{{-0.27153635,0.12019873},
			{-0.18550676,0.15400225},
			{-0.07926783,0.1326571},
			{0.060476158,-0.1347945},
			{0.12426757,0.15517823},
			{-0.014154909,-0.02866044},
			{-0.255483,-0.052004714}
}
},
			{{{0.23112567,0.0805991},
			{-0.08335135,-0.11805739},
			{0.20693894,0.26324132},
			{0.1059392,0.15322608},
			{0.106091626,-0.2713091},
			{-0.10583918,-0.055366635},
			{0.022790387,0.16087157}
},
			{{0.25866118,-0.020230401},
			{-0.14026235,-0.1388601},
			{0.0050871265,0.079187326},
			{-0.06408813,0.16986945},
			{0.057272073,-0.09081958},
			{0.24453658,-0.22761188},
			{0.19727635,0.17401071}
},
			{{0.15799113,-0.09086503},
			{-0.12678193,0.054439567},
			{0.05913163,0.037794247},
			{0.12609081,0.108333826},
			{0.08782266,0.18158178},
			{-0.08489605,0.0073997085},
			{-0.087446705,0.12703662			}
		}
	}
};