// include/conv2d_557_weight.h
// sergio rivera 
// 2020/02/15 00:06:56 

const float conv2d_557_weight_p[3][3][6][4]=
{
	{
		{
			{0.029255886,0.009648249,0.049265068,-0.059345264},
			{-0.012393093,-0.022217702,0.1445646,0.16294494},
			{-0.15173355,-0.2470999,-0.20262192,0.1689073},
			{0.22366801,0.13822857,-0.24715815,-0.020715341},
			{-0.04602107,0.024166336,-0.11719937,-0.08187469},
			{-0.0029212295,-0.1930644,0.19275364,-0.2063476}
},
			{{-0.025207544,0.06401612,-0.011491958,-0.15668301},
			{0.18978916,0.04754785,0.07424569,-0.15463032},
			{0.117564954,-0.09909075,0.018013543,0.2262661},
			{-0.22725442,-0.031898834,-0.08013578,0.0042365068},
			{-0.13451317,0.091363825,-0.18381745,0.060058545},
			{-0.09294079,0.10073306,0.13776755,-0.00096529844}
},
			{{-0.24131921,-0.07626555,-0.18505038,-0.039308853},
			{-0.062375367,-0.08569863,-0.18233159,-0.1978774},
			{-0.24741371,-0.164343,0.017574744,-0.06269796},
			{0.2111864,0.16480775,0.12908375,-0.15941934},
			{-0.2339683,0.1987104,-0.05635619,-0.079000436},
			{0.0014832987,0.0036365967,0.023687173,0.04568383}
}
},
			{{{-0.22460428,-0.2207006,0.21625395,0.104991175},
			{0.11409196,-0.03642258,-0.15484487,-0.17839377},
			{0.04815937,-0.017710278,-0.11180487,0.05318439},
			{-0.10825331,-0.0046941335,0.042436354,-0.20610434},
			{0.1216266,-0.24125004,-0.19400154,0.08380021},
			{-0.14707322,-0.16676061,-0.030512692,-0.06945622}
},
			{{-0.23582442,-0.034607206,-0.07072528,0.019985864},
			{0.06655768,0.12308404,0.17499213,-0.11885646},
			{0.022707788,-0.18277185,-0.23670577,-0.105818175},
			{-0.18972988,0.18144444,0.12551822,0.018130409},
			{-0.15406024,0.22780903,-0.059334025,-0.20915452},
			{0.00093493145,0.18124022,0.032461606,-0.18563972}
},
			{{0.12468864,-0.12244627,-0.22840701,-0.07792222},
			{0.22503132,-0.19537021,0.16365589,-0.032678563},
			{-0.10865151,-0.19819939,0.059948824,-0.246769},
			{0.13950913,0.13262172,-0.1818292,-0.13480617},
			{-0.14543344,0.15071188,0.22937377,-0.1375401},
			{-0.03968264,-0.19794263,-0.0934859,0.0010552532}
}
},
			{{{0.022451479,0.24468648,-0.05629553,-0.2286351},
			{-0.030461479,-0.078109436,-0.11627267,0.11176318},
			{0.23052055,0.24549958,0.1732982,-0.07965741},
			{0.15632045,-0.10323721,0.22443587,0.24228264},
			{0.07501337,-0.14649883,-0.050605744,0.031300616},
			{0.23467,-0.17006811,-0.15828902,-0.06443377}
},
			{{0.15466812,-0.027690025,-0.0045817667,-0.14948297},
			{0.22913969,0.13311319,-0.07394226,-0.02887919},
			{0.064748764,-0.21159226,-0.05710087,-0.22564416},
			{0.18451296,-0.045414165,-0.2549303,0.03862617},
			{-0.21574539,-0.04819343,-0.02715377,0.23768952},
			{0.067282215,-0.19039631,-0.15109824,0.10987712}
},
			{{-0.043228738,-0.11720696,0.10904361,-0.19837803},
			{0.14889744,0.09915086,-0.13100143,0.07198574},
			{-0.13230197,0.18549411,0.13996546,0.15000306},
			{0.21719141,0.04252118,-0.015684066,0.04598419},
			{-0.023028502,-0.02673315,-0.03200555,0.12877141},
			{-0.15875047,-0.22784504,-0.081343606,-0.24319203			}
		}
	}
};