// include/conv2d_9561_weight.h
// sergio rivera 
// 2020/02/14 17:21:43 

const float conv2d_9561_weight_p[3][3][14][8]=
{
	{
		{
			{0.16050568,0.12259863,0.1704206,-0.15843911,0.1171435,-0.036816627,-0.049672656,-0.10667439},
			{-0.11855559,0.14761738,0.070707336,-0.030749284,-0.11135959,0.10301351,0.11064101,0.07221083},
			{0.11471225,0.07511439,0.0791228,-0.09547205,0.11918794,0.11206136,-0.056984533,0.054987736},
			{0.046129324,0.064649954,-0.08981304,-0.15121372,-0.081354484,-0.05027823,0.16254766,-0.005001847},
			{0.1443582,-0.08409322,-0.08927232,-0.10607287,-0.06246158,-0.11505998,0.0601119,-0.018195897},
			{0.056027614,-0.10764147,-0.10513162,0.12369491,0.05822927,-0.08453144,0.07347001,0.03045229},
			{0.11811713,-0.053695604,0.029109027,-0.1520671,0.13145748,0.13035963,0.121855125,0.11436302},
			{-0.04493384,-0.16357474,0.08540545,0.01578858,0.048785254,0.15753165,-0.12107872,-0.019336523},
			{0.1469667,-0.06844523,0.0319238,0.11699111,-0.10997243,0.0900183,-0.1436359,-0.03903666},
			{0.052498586,-0.115861796,-0.093556084,0.032001045,-0.17327468,0.029213538,-0.09542903,0.04201898},
			{0.15917335,-0.010571608,-0.12964153,0.08239329,0.15397745,-0.07432523,-0.12689263,0.1102392},
			{0.02353076,0.0012094898,-0.0052582836,-0.14903104,0.034876652,-0.1581583,0.02044368,-0.04948268},
			{-0.007617814,-0.10346473,-0.014147392,0.0684065,0.12149574,-0.0198751,0.09092174,0.017621964},
			{0.093905866,0.03350695,-0.019640377,-0.13439342,0.16185659,0.048987392,-0.024851792,0.15397705}
},
			{{-0.060342304,0.103364974,0.10201477,-0.029233404,-0.12515211,0.013436725,-0.08295151,-0.06688534},
			{0.010786847,-0.042466473,-0.15545012,0.004347199,-0.10058753,-0.15393686,0.107515536,-0.1632946},
			{-0.111597955,-0.11607921,-0.100465976,-0.059700686,-0.00047695398,0.09421306,0.10043042,0.08443272},
			{0.13884091,-0.10278962,-0.08420247,0.15182729,0.0070097544,0.13906327,0.08486539,0.06408578},
			{0.08562475,0.011302406,-0.0034437538,-0.09627162,0.16442081,0.097974084,0.13969423,-0.11542994},
			{-0.11116314,0.1127968,0.09782829,-0.035979062,0.030784486,-0.14283137,0.15292884,0.13117021},
			{-0.0021110522,-0.053176638,0.09842936,0.09662732,-0.13314001,-0.020372028,0.06430405,-0.07073446},
			{0.14356166,0.16567105,0.16309959,-0.1442098,-0.110597685,-0.068854526,0.033958662,0.14570549},
			{0.08749914,-0.17714866,0.11927709,0.07859175,0.13887194,-0.07818284,-0.11280915,-0.07371214},
			{-0.12651439,-0.1237382,0.14047535,-0.1736925,0.15194371,0.028846078,-0.10441563,-0.16946293},
			{0.016213708,0.040919684,-0.011130461,-0.06502012,-0.016070835,0.10633837,-0.02210426,-0.04005867},
			{0.10713736,-0.1467477,0.13868171,-0.041142233,0.14580448,-0.009951936,0.10661828,-0.15717135},
			{0.021526555,-0.020545105,0.14815047,0.086134374,-0.13906421,0.17588405,-0.023921967,0.10683722},
			{0.07189451,-0.07345857,-0.13332295,0.050718416,-0.13976514,0.17255032,-0.047747996,0.00026902638}
},
			{{0.093730144,-0.09444293,0.002091241,0.009228751,-0.09126022,0.04997746,-0.0471271,0.028058002},
			{-0.0945783,0.109589115,0.051325075,-0.042289134,-0.06714844,0.12371417,-0.1688503,-0.049763754},
			{0.032462094,-0.049771655,0.15750566,0.033985447,-0.07630347,-0.15345716,-0.12193923,-0.10003492},
			{0.073110476,-0.16684256,0.10877269,-0.1348022,-0.1509754,0.16854948,0.09340577,0.059190582},
			{-0.028845813,0.16203389,0.12903318,0.025311455,0.053959828,-0.053058963,0.11375732,0.14893979},
			{-0.15342236,-0.117157295,0.08576346,-0.15275353,0.030903928,-0.12436188,-0.013473509,-0.11941707},
			{0.05514432,0.13418266,0.00017161894,0.12220501,-0.092811905,-0.056992866,-0.14790332,0.14983},
			{0.0682565,0.102462605,0.15550427,0.057989996,0.10217986,-0.08137774,0.12906756,-0.12826332},
			{0.027456027,-0.0842987,-0.0015837264,0.0010314952,0.1384833,0.074031584,-0.03184805,0.04433378},
			{0.12048558,-0.11391094,0.14366707,0.07555693,-0.060083903,-0.0003936036,0.07515516,-0.15795486},
			{0.07992817,0.089158155,0.13196586,-0.10662687,-0.032650746,-0.043249507,-0.08381533,0.10039397},
			{0.09990323,-0.11727234,0.0034910168,0.084543124,-0.073677726,0.09896197,-0.096993275,-0.028224273},
			{0.099621706,0.08024346,0.111168146,-0.083649285,0.07478444,0.12945239,-0.06646144,0.070053205},
			{-0.027644886,-0.113750815,-0.06205799,0.17235595,-0.09937871,-0.0011932763,-0.07247692,0.05426746}
}
},
			{{{0.15584973,0.14899962,-0.011869531,-0.11724719,-0.02275015,-0.15420318,0.12060938,0.15633851},
			{0.054681852,-0.03085389,-0.10253056,-0.059085127,0.08793639,0.10113086,0.13599621,0.038448613},
			{-0.13235952,0.14042787,-0.1022951,-0.044382706,-0.044168167,0.15434833,-0.043369107,-0.054700308},
			{-0.099814326,-0.054912608,-0.007149897,0.13108191,0.04469891,0.10673808,0.1372274,0.10909935},
			{-0.09389793,-0.030190308,-0.030684462,0.005618837,-0.011007736,-0.14234187,0.08560437,-0.021727642},
			{0.15488055,0.035397407,0.011220533,-0.12484118,-0.1374018,0.11292749,-0.1727445,0.045911737},
			{-0.0973277,0.090620294,0.040274743,0.055332415,-0.16448393,-0.15542972,0.15767254,-0.030158378},
			{0.1612614,0.009859052,-0.059412368,0.028982505,0.015995814,-0.14147428,0.0790792,0.15715435},
			{0.16800936,0.09630834,-0.12858851,0.03570243,0.095667765,0.018020123,-0.09040902,0.050010905},
			{-0.11810079,0.03676119,0.11762508,-0.12142394,-0.020336334,-0.16972849,0.028581556,-0.023837937},
			{-0.050126914,-0.1676969,0.12099722,-0.14340268,-0.09333872,-0.15146069,-0.17620571,-0.06929543},
			{0.027377764,-0.13215213,-0.102291554,0.06936071,0.07163116,0.1406157,-0.022436751,0.16882247},
			{0.06603753,0.17187019,0.028260635,0.13781652,0.02034895,0.13445754,0.14307792,0.070606336},
			{-0.16812608,0.090736195,0.05156798,-0.029883383,0.07936797,0.16922864,-0.14165105,-0.1404517}
},
			{{0.021972349,-0.10695426,-0.021854544,-0.033885017,-0.022578267,-0.04903076,-0.052008104,-0.029540425},
			{-0.1482407,0.104214095,-0.13904901,-0.17242788,-0.083348006,-0.08616191,-0.09258375,0.050379217},
			{0.14114285,0.016679348,0.16370513,-0.05786391,0.07374985,0.09178577,-0.09764491,-0.02774591},
			{-0.039815206,-0.019891998,-0.008615991,0.026527947,0.019334402,0.117054686,0.11301141,0.042716306},
			{-0.16430296,-0.16987106,-0.14434975,-0.15782984,-0.010725643,-0.10271505,-0.16200586,0.1248533},
			{0.1294493,-0.1325403,-0.03198238,-0.06971861,-0.121474415,-0.018013874,-0.06676803,0.14179182},
			{0.10588453,0.08173199,-0.07398722,-0.12819172,-0.1269655,0.12977605,0.15595655,-0.15532964},
			{0.038430102,-0.01833257,-0.07346752,0.032394554,-0.16313468,-0.073198855,0.09080285,0.17429996},
			{0.019421348,0.09001122,-0.06454062,0.04547471,-0.06326007,-0.15181264,0.06610798,-0.103651755},
			{0.1696006,0.1380124,-0.16815925,0.05105659,-0.112950966,0.03596253,0.17199753,0.1251727},
			{0.17617323,0.15154314,-0.016857639,0.16847572,0.023512028,-0.02373228,0.029418265,-0.1334414},
			{-0.049189325,-0.06685554,-0.0054087425,0.1651628,-0.08894225,-0.003550849,-0.027286187,-0.13544388},
			{-0.13294873,0.00311956,0.07750663,-0.055487227,-0.10611167,0.13355055,-0.16523801,0.17269628},
			{0.10513063,0.055490796,-0.034921102,0.07467525,-0.015612986,-0.15034167,0.09461956,0.15334012}
},
			{{-0.096842825,0.16384202,0.07361144,0.11120493,-0.1314407,-0.11238452,-0.11368133,0.1113832},
			{-0.09491153,0.120312564,-0.17020394,-0.1645208,0.019476244,-0.06339403,-0.028645338,0.14105451},
			{-0.015884176,0.037423257,-0.025556166,0.143909,-0.061032854,-0.041541826,-0.024267564,-0.0137278605},
			{0.03988742,0.12412368,-0.09655285,0.13405776,-0.11660733,0.03373899,0.07229397,-0.08507609},
			{-0.08586535,-0.107777104,0.04865461,0.0038829239,0.07191323,-0.061840974,-0.10142721,-0.10212845},
			{-0.09710013,-0.030121101,-0.060458843,-0.11077193,-0.0134097235,-0.057775497,-0.054651894,0.14671777},
			{0.09404369,0.15983294,-0.033993106,-0.17108452,0.039533317,-0.17368636,0.016921315,-0.01856051},
			{0.0004251675,-0.0921672,0.16962145,0.043710724,-0.08671827,-0.012644169,-0.17339686,0.1725691},
			{-0.17462462,-0.14881206,0.04590061,-0.12122943,0.0130576,-0.09458716,-0.058447525,0.091411166},
			{0.07650479,-0.1438184,-0.02063845,0.028116282,-0.15591644,-0.10303982,0.023861183,-0.11185014},
			{-0.068144254,0.14223872,0.15996115,0.035090655,0.0968906,0.13092613,-0.10117658,0.025920039},
			{0.011473063,-0.051422138,-0.15176804,-0.16924575,-0.028837992,-0.104537115,-0.10588847,-0.09860751},
			{0.017609265,-0.045458443,-0.104982376,-0.10354452,0.0065133087,0.058388226,0.16047628,0.13248989},
			{-0.12109094,0.13254401,0.15600446,-0.064078756,0.052069757,-0.04984387,-0.02082566,0.108535185}
}
},
			{{{0.00607165,0.095397234,-0.06320517,0.018409714,0.013428786,-0.009954424,0.13371852,0.005027551},
			{-0.13611172,-0.04098364,-0.049642548,0.14073801,0.088075645,0.10734364,-0.15624775,-0.10413654},
			{0.081472225,0.049338542,0.13238648,0.12265382,0.092755124,-0.14914642,0.14432736,0.008280544},
			{-0.0028612518,-0.06378833,0.102063514,-0.13597132,-0.08044669,0.052169543,0.03638709,-0.13171387},
			{0.12950857,-0.04520367,0.094613604,-0.106810935,-0.013738804,-0.09816897,-0.1563405,0.12941284},
			{-0.09779595,0.028015632,-0.14354424,-0.105120584,0.15931536,0.023093894,-0.124564014,0.037894893},
			{-0.10015504,-0.1284549,0.11735851,-0.10992361,0.020525577,0.034967598,0.022194583,0.072853796},
			{-0.08944947,0.05275532,0.13441288,-0.061056945,-0.11263123,0.121053696,0.018217443,-0.031802524},
			{-0.070637204,0.06681162,0.0069542504,0.006036364,-0.02294382,-0.113639526,0.162633,0.16012256},
			{-0.02043902,-0.06734107,-0.03734644,-0.004510441,0.09837283,0.09503877,-0.0464365,0.0148803005},
			{0.09686343,0.16642419,0.16140525,-0.11657106,0.10355525,-0.095315985,0.033591706,-0.055032983},
			{0.03852221,0.08363593,-0.11942524,-0.056693785,0.09708966,-0.10184431,-0.13895404,-0.00042473048},
			{0.10708468,0.043717258,0.16165665,-0.10738048,0.073314466,-0.16151044,0.012298422,0.1589809},
			{-0.052533958,0.17389636,-0.08501184,0.17133392,0.15120684,0.076081745,-0.02931086,-0.06615991}
},
			{{0.00055612775,-0.11922466,-0.15448435,0.028031575,0.017655378,-0.013322078,0.028770374,-0.06483851},
			{0.043748774,0.00088736374,-0.0058026346,0.06373441,-0.13137744,-0.07175262,-0.12234459,0.16506138},
			{-0.12051136,-0.05415828,-0.11624985,-0.13056177,0.047750194,-0.14295162,0.16412044,-0.0030412886},
			{0.103020996,-0.049494985,0.1538059,-0.043427832,0.15267661,0.12718119,-0.11397561,0.09763052},
			{-0.118391864,-0.054156598,0.011496415,-0.14275743,-0.071471214,-0.04703265,-0.06824981,-0.11769077},
			{-0.15558659,-0.17149346,-0.130735,0.07638566,0.076595575,0.12562132,-0.07290248,-0.122000225},
			{-0.1309203,0.14288026,-0.088130325,0.118910566,-0.11518248,0.08349627,0.05539935,0.13922696},
			{-0.022816679,0.028365843,-0.1411975,0.08649593,-0.067667894,-0.00684327,-0.16602568,0.13078074},
			{-0.14021653,-0.17232595,-0.12037226,0.14214812,-0.06657342,0.06391793,-0.035410553,-0.0676884},
			{0.011956454,-0.010481544,-0.014451689,0.07849347,-0.12812887,0.13954395,0.02741889,-0.08395527},
			{0.06160537,-0.0022539615,-0.08313585,0.10550488,0.11129636,-0.12289042,-0.0595821,-0.058143128},
			{-0.07964297,-0.10909522,-0.11324953,-0.07991631,-0.14963828,-0.14898695,0.1691414,0.022005687},
			{-0.14004406,0.08969069,0.15407683,0.057074226,-0.11637229,-0.10293947,0.09107348,-0.09606974},
			{-0.11887339,0.1672865,0.12845099,-0.026345048,0.10749188,-0.06752864,0.11883225,-0.12281645}
},
			{{0.08722443,0.018694527,-0.018884005,0.11091874,0.0010604034,0.1440992,0.16553728,-0.05128509},
			{0.07619121,-0.0699835,0.0021652132,0.07253562,0.030956417,-0.14626673,-0.010367575,0.04300715},
			{-0.041536298,-0.11328007,-0.08093361,0.03759494,0.027566504,0.00021543528,-0.030297667,0.13035655},
			{0.15686183,-0.06855128,0.027034614,-0.044997297,-0.056672603,0.08726134,0.1317816,-0.033367734},
			{0.024769265,-0.12929231,-0.09905661,-0.102108255,0.13286139,0.037685305,0.11891311,0.04290605},
			{-0.12641034,-0.16388161,0.053747103,0.16263004,0.08309976,-0.14550424,0.12598097,-0.021775002},
			{-0.0671433,0.10440245,0.12947527,-0.058862183,0.106029995,0.07706426,-0.09447368,0.1581565},
			{-0.092705265,-0.0750098,0.058542687,-0.15044767,0.08535775,0.083056375,0.038815152,0.018190209},
			{0.1414624,0.021434978,0.06730987,-0.17324144,0.12920922,-0.13133322,0.17969504,-0.1097396},
			{-0.014467732,0.16625665,-0.15314142,-0.05659343,-0.011935563,-0.031311776,-0.09392217,-0.0149818575},
			{0.14328346,0.0063578007,-0.13939272,0.02559381,-0.10776128,-0.15262708,-0.031572714,-0.034671746},
			{-0.08020072,-0.092057794,-0.07121459,-0.018741027,0.06227369,-0.06714732,-0.067887895,-0.12223752},
			{-0.08684169,-0.050042942,-0.17859958,0.0990815,0.07897655,-0.1287566,-0.09195131,-0.106212795},
			{-0.08289288,0.09744096,0.014754921,0.14529707,0.16208981,-0.078520946,0.13747089,-0.07672789			}
		}
	}
};