// include/conv2d_3219_weight.h
// sergio rivera 
// 2020/02/15 02:46:05 

const float conv2d_3219_weight_p[3][3][8][2]=
{
	{
		{
			{0.24321783,0.20777415},
			{-0.1564691,0.065160535},
			{0.048845887,0.06989829},
			{-0.1402367,-0.073740765},
			{-0.16990787,-0.057425473},
			{0.12566358,0.25334975},
			{0.024807485,-0.08522915},
			{0.09269635,-0.04740361}
},
			{{-0.012909498,-0.06593539},
			{0.05613433,-0.22851843},
			{-0.12081282,0.11910542},
			{-0.18845792,0.22156961},
			{-0.043647844,0.09458172},
			{-0.23208612,-0.1996509},
			{0.20317219,0.23864141},
			{-0.07947581,0.088736676}
},
			{{-0.011806368,0.17177926},
			{-0.06542862,0.2523902},
			{0.23334737,0.12452739},
			{0.094717585,0.13101304},
			{-0.07758486,-0.14423911},
			{-0.22187188,0.21194574},
			{0.1278609,0.1932628},
			{-0.0074071884,0.15166044}
}
},
			{{{0.2576061,-0.19807597},
			{0.089471474,0.12530111},
			{-0.22079271,0.1392961},
			{0.22122954,0.04354107},
			{0.18124446,0.23395681},
			{0.22384202,-0.2529097},
			{0.19647981,-0.13078262},
			{-0.18109462,-0.17373165}
},
			{{0.24087256,0.18931165},
			{-0.16812588,0.04992052},
			{0.0632447,-0.02020759},
			{-0.14955379,0.19126397},
			{-0.09931696,0.077086225},
			{0.047293395,0.17159986},
			{-0.1752964,0.11381589},
			{0.0301268,-0.0895299}
},
			{{-0.20269655,0.0059157517},
			{0.13464746,0.24049109},
			{-0.17281553,0.018925602},
			{-0.03812845,-0.22458996},
			{0.20571947,0.057430457},
			{-0.033314228,0.066367745},
			{-0.24355255,0.086528026},
			{-0.070653364,-0.18412496}
}
},
			{{{0.06091237,-0.06275117},
			{0.13215834,0.14253558},
			{0.04543547,0.16830401},
			{0.11525697,-0.24244271},
			{-0.0466737,-0.07927997},
			{0.120807946,-0.010538533},
			{0.05596706,0.110374436},
			{0.03746164,-0.051171064}
},
			{{-0.04443082,0.099856675},
			{-0.008623189,-0.1791292},
			{0.20243323,0.14838181},
			{-0.18489616,0.1942059},
			{0.25253105,-0.1723735},
			{-0.07925078,-0.25499547},
			{-0.18211348,-0.20567651},
			{-0.21989182,0.1593697}
},
			{{-0.17348306,-0.25769678},
			{-0.04476859,0.1703617},
			{-0.0514744,-0.13956578},
			{0.14172599,-0.14940783},
			{-0.2309938,0.035152517},
			{-0.23626103,-0.108865485},
			{-0.18101317,-0.06883766},
			{-0.16164254,0.17259796			}
		}
	}
};