// include/dense_1546_weight.h
// sergio rivera 
// 2020/02/14 19:06:42 

const float dense_1546_weight_p[412][100]=
{
	{0.037333645,-0.048320837,0.029016703,0.015814405,-0.06956492,0.08546183,-0.0075171003,0.03684795,0.023984997,0.017301893,0.046872783,-0.0021614146,0.024692314,-0.022845479,0.07630675,-0.08970829,0.07446947,-0.08341271,0.012828195,-0.07599068,-0.0017887892,0.02070354,-0.098002635,0.066898525,0.003083449,-0.028793141,-0.07911199,-0.070203364,-0.05766702,-0.004788156,0.04406277,0.071548015,0.050061822,-0.07277418,0.022879522,-0.02248314,0.09939953,-0.051876374,-0.05101286,0.02516913,-0.038638286,-0.09338248,0.08889149,-0.0518083,-0.0032450892,-0.025787303,0.006048582,-0.05730857,0.05009886,-0.021591756,-0.009760434,0.015765978,-0.0052622263,0.036134597,-0.04892105,0.015707688,0.046023834,-0.040474474,-0.03368244,0.04284396,-0.031928927,0.09056205,0.049217716,-0.031016957,0.09196613,-0.082488604,-0.073067844,0.09433513,0.08441306,0.087458335,-0.10616776,-0.08801022,-0.04014197,-0.07699956,-0.05774529,-0.04894461,0.0068989685,-0.031127686,-0.046156853,-0.09652076,-0.06542219,-0.0036469211,0.04052057,0.014644053,-0.088025324,0.059333786,-0.071994066,0.0060798847,-0.041682623,0.09423767,-0.0052674836,-0.11219361,0.021606077,-0.08792515,0.043370288,-0.05963416,-0.0669711,-0.08500266,-0.029941004,0.09194974},
	{0.02163148,-0.017135246,0.002390809,-0.0501023,0.03638612,-0.05221234,-0.087694615,0.0696275,-0.10238424,0.08430326,0.09005566,0.04637553,-0.028271008,-0.00091336085,0.052440185,0.052567083,-0.0018175516,-0.059498332,0.046809204,0.05542588,-0.05299917,0.067460984,-0.052585587,-0.02222836,-0.015464097,0.07220289,0.014868509,0.07353712,0.0767695,0.09486864,0.08784105,-0.06191708,0.01619977,-0.032477114,-0.023029342,0.031425484,-0.01969961,-0.110040285,-0.049290977,0.045875352,0.08746018,0.011882614,-0.029844465,0.011616707,0.024459796,-0.04972886,-0.07098407,-0.042210188,-0.04327243,0.065659106,0.067911625,-0.033336245,0.039135415,-0.017645676,-0.03513389,0.03732356,-0.060866352,0.100451194,0.06746768,0.043230806,-0.060361724,-0.00015600924,0.08232237,-0.05183729,0.023685316,-0.10289976,0.010073048,0.03125019,0.0060021104,-0.078023605,-0.1038775,0.005302556,0.06534005,-0.08197953,-0.031802684,0.092149094,-0.07034103,0.047115047,0.05124034,-0.06383111,-0.023467666,0.071687445,0.08044677,-0.07355892,-0.09128785,0.090935975,-0.021830183,0.037755355,-0.0019889039,0.0066416548,-0.100977756,0.059908718,-0.065810986,-0.101757824,-0.06103423,-0.09149711,-0.030531498,0.00034341577,0.09303355,-0.08486182},
	{-0.09349717,0.021207735,-0.054553892,0.029591098,0.092185125,0.10012009,0.019981964,0.00047493345,-0.009822569,-0.09474218,-0.011220992,-0.11207248,-0.07655016,-0.08262108,0.0960706,0.02872355,0.08372971,0.012900869,-0.08423128,0.06663308,-0.008756889,-0.070141666,0.011978494,0.09715206,0.053543802,0.03913806,0.028712552,-0.014076367,-0.11292963,0.019430092,-0.026668452,0.087624684,0.034642108,0.014076268,-0.038848,-0.03898899,-0.07623631,0.03215611,-0.1109993,0.07064097,-0.030648228,0.03893852,-0.059302505,0.08840865,0.0029919886,-0.027770996,0.042276397,-0.0415746,0.09956877,0.06595529,-0.084689975,0.055897664,-0.05294729,-0.10215439,-0.051172655,-0.03787679,-0.00825485,-0.03172123,0.06869163,0.06205973,-0.11001383,-0.011263089,-0.013820071,-0.099112816,0.074346386,-0.037942026,-0.029687127,0.03723011,0.04530114,0.06107578,-0.028441863,-0.10059915,0.053937316,-0.032381814,-0.04538217,0.060064588,0.038137816,0.028905464,-0.0034696625,-0.024484484,-0.026964277,-0.10765011,0.047530387,-0.10952788,-0.034855615,-0.025874138,0.023996959,0.010328666,0.08487424,-0.013003897,-0.09313227,-0.004463827,-0.09556189,-0.112312004,0.07180784,0.027329303,-0.06291048,0.100171335,-0.05933741,-0.004473134},
	{0.099963,0.024987504,0.08740223,0.052082784,-0.00916183,0.0698155,-0.049637284,-0.013715921,0.03349057,-0.080955125,-0.03174184,0.06471376,-0.089389026,-0.08872787,0.0026138166,0.05899328,-0.024349501,-0.018441968,-0.09818205,0.011145148,-0.023410996,-0.010272579,0.09353761,0.05680798,0.07384732,-0.08229434,0.034314565,0.026052555,0.040506724,-0.08076115,-0.10258122,-0.02282984,-0.090156935,0.10156899,-0.043759745,-0.021173604,0.035774402,0.07314773,-0.060610563,0.07667978,0.007211737,-0.09926771,-0.022752967,-0.080039054,0.06315139,0.088061735,0.07220338,-0.08818614,-0.014298694,-0.0685917,-0.05449331,-0.04628602,-0.10130589,0.0899492,0.006200595,-0.108969204,0.050815184,-0.002714509,-0.0729736,0.038424406,-0.08933893,-0.07600403,-0.08041382,0.09721722,0.0037412168,0.017532699,0.0034801215,0.09339257,0.06582781,0.06104573,0.044462934,-0.09985087,-0.014874237,0.05879545,-0.0878279,0.0834838,0.027303942,0.04608067,-0.010674333,-0.10846976,0.08594113,0.08143623,0.07876322,-0.09086251,-0.007927766,0.09802835,-0.09782191,-0.025063131,-0.05857207,-0.06519456,-0.09880263,-0.03874425,0.016066754,-0.09949556,-0.08197466,-0.06636397,-0.021891654,0.09591663,0.09745637,0.0013937014},
	{-0.046220135,-0.01796734,0.042836975,-0.10001566,0.08547413,0.004252553,-0.09971188,-0.09746731,0.059223294,0.01190785,-0.06095655,-0.10546104,-0.09118367,0.07106612,-0.10254816,0.090376556,-0.02545268,0.03994001,0.023348285,0.04457491,-0.09889066,-0.07653712,-0.10794155,0.02488794,0.081951074,-0.057631217,-0.06654422,-0.047477223,-0.015300926,-0.094789684,-0.019261507,-0.0058470825,-0.0358343,0.0042914245,-0.09320021,-0.056114566,0.08131739,-0.1042155,0.0058412403,-0.096602,0.078003205,-0.09424578,0.0059632165,-0.073766164,-0.023603542,-0.071520396,-0.095653936,-0.07451106,0.09327237,-0.10680672,0.07853309,0.10386859,-0.07727398,0.0061793346,-0.09936532,0.09956106,-0.0029910724,0.024044948,0.073407255,-0.014066965,0.07260677,-0.029379271,-0.04456986,0.014000646,0.0783728,-0.0029145172,0.07349479,0.056234155,0.08475017,0.057402134,0.032735486,0.07765656,-0.04131807,0.08155811,0.0073032454,0.094797425,0.065253355,-0.012881991,-0.06618511,-0.007637269,-0.06683106,0.055246707,0.051953983,-0.015577363,0.03125567,-0.09163387,0.009052969,0.0073653464,0.05004272,0.044868667,-0.08606919,0.088695824,0.067017786,0.081103966,-0.06979443,-0.052845646,0.046552982,0.10186788,-0.033493113,0.08190125},
	{0.022207208,-0.08852624,-0.066387154,-0.09333367,-0.04854836,-0.027915277,-0.056979433,0.02025644,0.09771719,0.06398513,0.102925286,-0.03507238,0.10113116,-0.05345637,0.004737511,-0.049702592,-0.073871106,-0.036023296,0.05876484,0.039738733,0.01176551,0.0457853,-0.06902203,-0.012003626,-0.0068642907,0.03544212,-0.023856487,-0.05033354,0.10283942,0.025014747,-0.06202757,0.007840633,0.009772734,-0.07049121,-0.07404791,-0.019040477,0.012256217,-0.08013687,-0.06287992,-0.013593676,-0.097993,-0.07629408,0.0059536034,-0.10098843,-0.09500365,-0.089049555,0.07977658,-0.050933577,-0.028969172,0.0047527854,-0.024803499,0.022217367,-0.10819715,0.048535567,-0.015827108,0.054859653,0.059690665,0.047265287,0.10481284,-0.09891601,-0.0665651,-0.081817016,-0.1028623,-0.0935751,0.08510295,-0.079499945,-0.0012435878,-0.056504738,-0.08626512,0.08935837,0.09718886,0.055199575,-0.09435652,-0.076723635,0.07025813,-0.007279172,0.022654546,-0.07576336,-0.0025329706,-0.056398895,0.0074008796,-0.06713343,0.04678087,-0.094733335,0.010868818,-0.026710715,0.107338525,0.024212519,0.10178667,0.031678867,-0.014923609,0.038166348,0.05645286,-0.03652715,0.06611055,-0.0011244544,0.021139195,0.06767211,-0.07925667,-0.059463207},
	{-0.071802646,0.09397995,0.074707486,0.03319755,-0.05129973,0.005051207,-0.03820595,-0.101494476,0.0760779,-0.078216866,-0.025879038,-0.008724392,-0.010745899,-0.030091854,-0.039270952,0.09098889,-0.09830093,0.081628405,-0.06898814,0.044214573,0.072896145,-0.037208505,0.03529888,0.09859545,-0.089914225,-0.06848288,-0.091402344,-0.07596382,0.04832822,0.07164927,-0.04145472,-0.09133629,-0.06764813,0.043993946,-0.06274118,-0.06266346,0.019572161,0.016520694,-0.014604539,0.07941113,0.08350213,0.02378899,-0.06358688,0.029914146,-0.035892244,-0.08788554,-0.055241074,0.037749317,0.027892169,0.013437457,-0.06397109,0.07608382,-0.05296322,0.092448115,-0.02173285,0.0714206,-0.047920514,-0.0043818112,-0.048921082,-0.053396124,-0.056235984,-0.03396772,0.03362659,-0.049518988,0.003543002,0.009660688,-0.08510845,0.061455105,-0.07726233,-0.100315936,-0.06216866,0.021751273,0.050346635,-0.08473243,0.07175992,0.06184367,0.093844436,0.055315353,-0.05781144,0.09966861,-0.023158513,0.012947943,0.030035043,-0.0656275,-0.09282786,-0.060450435,-0.107771665,-0.011804823,-0.03604454,-0.09208655,-0.03282724,0.0034203795,0.034445997,0.09244032,0.100909166,0.083209336,0.0168799,-0.002301845,-0.04538758,-0.06304131},
	{-0.10700563,-0.0025698578,0.011185473,-0.07326211,0.049430948,-0.10931957,-0.10663339,-0.10210551,-0.029708536,-0.013371858,0.09760735,-0.09173787,-0.08805017,-0.08683707,0.074616134,-0.0022555438,-0.07846515,-0.09908656,0.0056279097,0.07333957,0.05429938,-0.046180103,0.08415776,-0.038606677,-0.01618832,-0.09679782,0.07932065,-0.0018691818,0.106507376,-0.10226175,0.074533574,-0.00060694356,-0.0026575024,-0.08670735,0.054532487,-0.08671149,-0.08721129,0.024358768,-0.11020669,0.05598868,-0.108048365,0.023973249,0.10765012,0.068449914,0.013327098,-0.10542299,-0.046499234,0.075801834,0.0984342,-0.061360724,0.0038563134,0.0012157507,-0.08949261,0.072783016,-0.10219299,-0.058218118,-0.0819982,-0.057456613,-0.019647587,-0.01466068,0.08202844,0.012191687,-0.019620128,-0.071024925,0.0013905327,0.029619776,-0.01186369,-0.037947223,-0.02771175,0.031298153,0.046747588,-0.028792981,-0.042939387,-0.08391964,-0.04832944,0.020466698,0.051101252,-0.054751094,-0.1014952,0.10185248,0.017079052,0.07659826,-0.082099594,0.097683474,-0.08354417,-0.06857876,0.0023493671,-0.043893073,-0.042758234,0.09980806,-0.0880078,0.086595066,0.034774356,-0.049923036,-0.104575925,-0.09964723,-0.044349287,0.08377371,0.060267955,-0.05391887},
	{0.06888483,-0.08084655,0.04022385,0.04713441,0.057608437,-0.10169184,0.078773916,0.03221961,-0.05981296,-0.03394955,0.04253328,-0.025403839,0.0975918,0.07289233,0.025802944,-0.058716718,-0.100167826,0.043501917,0.07413603,-0.09637875,0.0050565205,-0.09626174,0.08867699,0.023520295,-0.0878227,-0.0798338,0.053191066,-0.10699655,0.039250456,-0.07727076,-0.00701929,-0.03919216,-0.014653414,0.0036271976,-0.10730711,0.10155326,-0.004663736,-0.05086209,-0.013782696,0.014121342,-0.011165299,-0.01688094,-0.062453575,-0.05055206,0.00028278388,0.08201935,0.084276564,-0.011411497,-0.06348721,-0.06259315,0.06735544,-0.06302059,-0.08597803,0.005220242,0.061423108,-0.06909757,0.022762667,-0.06141515,-0.012609596,-0.01217055,-0.09966421,-0.041094687,0.056846242,-0.003150207,-0.006262826,-0.05792049,-0.05029757,0.011993903,-0.00037249786,-0.08072337,-0.08715043,0.07502886,-0.09349004,-0.007937459,-0.056637827,-0.056884464,-0.0036325597,0.06663178,0.06395988,0.025965793,-0.0071929703,0.09164536,0.082366206,-0.0016843575,0.04364582,-0.067408115,0.035104666,-0.023745306,0.08246823,0.0023312103,-0.09864951,-0.11053727,-0.04909284,-0.092709705,-0.105311595,0.013365659,-0.032818493,-0.08951323,0.049356192,-0.07963392},
	{0.09537651,-0.079122484,-0.0054547708,-0.07100164,0.031256657,-0.09754046,0.016333448,-0.0039720545,0.054870673,-0.04994585,0.008835309,-0.039406903,0.032540124,-0.038861122,0.08775899,0.036970217,0.08626751,-0.09738455,0.08271111,0.079481795,0.008445133,0.091177985,-0.054282088,-0.07658955,-0.009139033,0.04216033,0.070841596,-0.07912607,0.064906456,-0.019853631,-0.08520885,-0.076675214,-0.09451594,0.0060233683,0.02034759,0.067889825,-0.063892834,0.07146109,0.09070741,-0.06338155,0.016823294,0.033222917,0.023852121,0.04835851,0.09391526,0.07930224,-0.013384285,0.0061316243,0.085985795,-0.08005297,-0.034773268,-0.093036555,-0.03242599,0.06095995,-0.05567668,0.0063616615,0.019926675,0.031831533,-0.105621934,0.043494985,-0.10367855,-0.071273774,-0.023174243,-0.07848893,0.026795954,-0.09755902,-0.007828378,-0.09333329,0.1002702,-0.04607579,0.04964521,0.0503747,0.036907226,-0.06530431,-0.01645457,0.0077299536,0.017326346,-0.022349145,0.09469736,-0.0730927,0.026446445,-0.07875845,0.077139854,0.100143604,-0.10814925,-0.0057633533,-0.08847659,-0.08821039,-0.059495784,-0.08950806,-0.025031056,-0.059102125,0.088058196,0.019832699,0.003098804,0.08573898,0.0018906859,-0.044239726,-0.060098685,-0.10699975},
	{0.015331457,-0.100695424,0.0362245,0.013538313,-0.08188392,0.092708856,-0.03372171,0.048935644,-0.07201468,-0.0004964189,-0.01635248,0.08362603,0.043538783,0.039462104,-0.07128985,0.04418292,-0.09112965,-0.06118267,-0.0036716128,-0.10663384,-0.10901984,0.056076154,-0.0049067554,0.0593636,0.08955831,-0.024819238,0.06156244,0.0061944886,-0.07807387,-0.04148609,-0.10900416,0.07197136,0.0693302,-0.0047954726,-0.07856086,-0.04241766,-0.040695675,0.047861338,-0.035546355,-0.03504524,-0.0149354795,-0.10066724,-0.0969513,-0.030669179,0.04230322,-0.04703674,0.06239971,-0.018253433,0.022211889,0.018348048,0.010101231,0.036987454,0.08332351,0.05482882,-0.08282686,-0.026154477,-0.096649915,0.046580005,-0.037281066,-0.097992584,0.03088805,0.04744578,-0.0039473637,0.09754915,-0.009345897,0.014717357,0.028916253,-0.06940303,-0.09992952,-0.039466266,0.005736486,-0.058106706,-0.095894925,-0.07237344,-0.07113374,-0.02499802,-0.048694886,0.09754464,0.035851352,0.026381554,0.08106879,-0.07097116,0.022114597,0.0050913733,-0.06122797,-0.043465618,-0.07272125,-0.05368378,0.10322252,-0.020683784,0.045280408,-0.071238525,-0.019792564,-0.0752224,0.041892402,0.053776484,0.0122971395,-0.04692522,-0.011025981,-0.008848918},
	{0.08669444,-0.011142738,-0.03699109,0.103636555,-0.06569314,-0.04338879,-0.0013148254,-0.007274849,0.08663752,-0.07992475,-0.09549297,-0.097857416,-0.049371026,0.034428038,-0.03868649,0.031090608,-0.07497486,0.016213637,-0.05749338,-0.082292095,0.07498693,0.03570968,-0.0157128,-0.10202808,0.09675266,0.027508736,-0.07839906,-0.001216665,-0.093040474,-0.029122531,0.09174597,0.0777446,0.016742023,0.041793317,-0.032129325,0.026450323,0.04546907,0.0836918,0.03605905,0.04876353,-0.042207744,0.1057326,0.0006614449,-0.035362072,0.074474394,-0.0033006773,-0.038452156,-0.057469875,0.044592798,0.010926884,-0.041245785,-0.081508115,-0.00834513,-0.07977686,-0.059610017,-0.04981474,0.08579519,-0.047564663,0.022245513,-0.0025667427,0.084270485,-0.074671656,-0.0123096965,-0.10185419,0.07874354,0.052495442,0.07939135,0.084264085,-0.0016633613,0.0062467786,-0.047063313,-0.028502055,-0.031086966,0.040167578,0.09201541,-0.041318797,0.07821046,0.060146637,0.004038822,-0.07938627,0.10385346,0.059407532,0.0037751251,0.037120968,-0.09634675,-0.005277546,-0.047454536,-0.023045596,0.027359923,-0.041492615,-0.036089998,-0.0724784,-0.006103067,-0.064873494,-0.07329208,0.050802138,-0.07210459,0.026435846,0.08521537,0.069827296},
	{0.085311264,0.03722222,-0.059716087,0.09861283,-0.040106416,-0.020592907,0.06229058,-0.078723975,-0.02103484,-0.023316426,-0.04199889,0.06125722,-0.0126100145,-0.033193506,-0.02636409,-0.06530245,0.09676297,0.06859082,-0.09143826,-0.09886732,0.06169991,-0.10174831,0.07883925,0.017900025,0.08762416,-0.0575569,-0.008162228,-0.015715625,0.08203058,0.07993617,0.0010832811,-0.06404561,0.012617524,0.047290713,0.01601869,0.032914285,0.07846664,0.06704073,0.0018765297,-0.09568139,-0.108448416,-0.044052783,0.09000121,-0.049825825,0.07753088,-0.09572856,-0.10412331,0.010982521,-0.055149153,0.07942046,-0.034910474,0.04047558,-0.03780441,0.06859187,0.040551227,-0.037635088,-0.07688233,0.06783383,-0.08419552,-0.05221391,0.09141351,0.05329225,0.03507004,0.05301644,0.034118116,0.0934806,-0.06327328,0.052135274,0.0058911443,-0.016482836,-0.023224812,-0.052812893,0.024034481,0.087166116,-0.034308914,0.058185827,0.06854227,0.068596795,0.039601356,3.6627513e-05,0.015751462,0.088114075,0.05446569,0.07082264,0.023995174,0.08184279,0.044345226,0.101419225,0.101356536,-0.0076107094,0.08191175,0.07842626,0.03129806,-0.10478693,0.07293354,0.033479363,0.069820605,-0.071003765,-0.012279282,0.048549585},
	{-0.054099806,-0.06005886,0.10584432,0.058850653,0.041866254,-0.04733142,-0.04721984,-0.018378861,0.08520977,0.0037749251,0.09836959,0.028147612,-0.046137203,-0.031340443,0.044380546,-0.100550584,-0.06767014,-0.083321504,0.03001948,-0.02023093,-0.04404605,0.04552789,-0.026814828,-0.0055013387,0.088972285,0.08159782,0.053799853,0.0887792,0.037682317,-0.03664686,-0.010940085,0.06547295,-0.06877568,-0.06315266,0.08992355,0.033370234,0.05121887,-0.03648183,0.008721934,0.061724886,-0.029237801,0.09712127,0.03125656,0.020071829,0.062791586,0.0029686552,0.061934464,0.06887531,-0.108790174,0.0025062514,0.06769312,-0.099303804,-0.086248286,-0.031573627,0.0334867,0.099389486,-0.081549555,0.008652889,0.05316048,0.03329813,-0.0668557,-0.107070535,-0.10609727,0.087440066,-0.08453689,0.012986193,0.054853447,0.014230463,0.0064863153,-0.03830881,0.06476715,0.022758039,-0.002458034,0.0046524,0.010403509,0.062988915,0.087609835,0.10460559,0.08520988,-0.09915174,-0.013126588,-0.018814353,0.04114909,0.06594965,-0.10607616,0.09116227,-0.011019734,-0.020506898,-0.044469442,-0.066166595,-0.038898934,0.03475737,0.015787823,-0.103624076,0.03906609,-0.035527658,0.0750417,-0.05974331,0.06633752,0.0454448},
	{0.09343257,0.09378389,-0.06871763,-0.08830728,-0.03137524,-0.007692986,0.08810651,0.102756746,-0.0876637,0.07565947,-0.11027446,0.09860474,0.006285813,-0.034206964,0.09094951,-0.07165852,-0.049379613,-0.016255539,0.09347559,0.06799142,-0.009129284,0.082949355,0.033167887,0.085900135,0.0975203,0.094059244,0.09569502,0.08256631,-0.05346102,0.05978925,-0.08648921,-0.08369737,-0.07843539,-0.09013664,0.015128585,0.054328047,0.08661062,-0.03970093,-0.04818718,0.06329449,0.03665822,-0.034748424,0.038915634,-0.007787419,0.10309471,0.083800025,-0.05917532,0.054885294,0.06285636,-0.022084642,-0.06738826,-0.07789023,-0.08761815,0.077581055,0.04425897,0.008116457,-0.019487295,-0.078578494,-0.023854993,0.00035391405,0.053980928,0.042734362,0.03690548,-0.040058736,-0.09433716,0.053249534,-0.082850635,-0.09358781,0.07677287,-0.023562498,0.02843392,0.067426294,0.011865525,-0.048102144,-0.062561214,0.08729033,-0.10328253,-0.0545771,-0.08876499,-0.053598356,-0.011638148,-0.10119621,-0.03638962,-0.021871952,-0.04339567,-0.07026558,-0.048878495,0.05582775,-0.06777623,0.09391375,0.09118928,0.10526732,-0.052439474,0.02771367,0.044249773,-0.06190242,-0.0455102,-0.006732604,-0.04763211,0.058217805},
	{-0.03203567,0.01869539,0.08159674,-0.109126076,-0.03557416,-0.062063392,0.06281011,0.09910682,-0.032904882,0.0033693656,0.083705686,0.0066433065,-0.007215385,0.059862792,0.03839197,-0.08596092,-0.041692816,-0.052161314,-0.08626813,-0.06165846,0.017357713,-0.0932539,-0.027553178,0.06653427,-0.05319408,0.036907047,-0.07634678,0.010526632,-0.08932975,0.038196467,-0.07497507,0.036915224,0.047391202,0.091445416,-0.030912312,-0.024570214,-0.08155109,0.045444347,0.011710872,-0.07797374,-0.0041604387,-0.107044645,0.052094705,-0.00732313,0.031154716,-0.10813613,0.031742215,-0.11040783,0.020260364,-0.0557262,-0.029213075,0.06127083,-0.09856296,0.03747744,-0.06504252,-0.103225,0.03931772,0.02574344,-0.02945756,-0.06507372,-0.07609107,0.026904328,-0.082035154,0.058063418,-0.05135284,-0.06060557,0.09101165,0.02466796,0.087541714,-0.007834197,-0.0508934,0.06589847,0.04537243,-0.038393825,-0.035118558,0.068331525,0.08936032,-0.084459,-0.0751697,0.09602515,0.061557543,0.065331526,-0.014128124,-0.041197743,-0.087665215,0.005081146,0.036591355,0.08675305,0.082213916,0.034134094,0.10506598,0.096490845,0.03512854,-0.10859424,0.05301534,0.095346384,0.061930425,-0.001582502,-0.08132132,0.04859551},
	{0.054094292,0.02547455,0.016306695,-0.006953738,0.003273906,-0.11149806,-0.015815867,-0.10330956,-0.023801344,0.031330954,0.0765167,0.056449745,-0.020121042,-0.03397363,-0.029358542,-0.0889294,0.09108685,0.038972847,-0.097803585,0.04381807,0.08215787,-0.0879833,0.0071935654,-0.06549288,-0.0045628715,0.035004277,-0.032864746,-0.021490606,-0.088220745,-0.051207293,-0.110847704,-0.10107476,0.090315595,-0.01812801,-0.10615353,-0.09209428,-0.09368986,0.044196077,-0.045022465,-0.04804411,0.04702545,0.055633273,0.040707562,-0.05962688,0.08732636,-0.08884242,-0.088710286,0.055626012,-0.0044576153,0.0362575,0.023493186,-0.00078056863,-0.036985654,0.057467733,0.05712834,0.08597111,-0.09744557,-0.095686145,-0.09922722,0.105517134,0.027807783,0.098708786,-0.0039883973,-0.11428495,0.09824662,-0.036970112,0.023813305,-0.02541835,-0.037031457,0.085336,-0.032732032,0.099371776,-0.061416116,-0.050938837,-0.053315308,-0.053359874,-0.0063849795,0.057918094,0.01903829,0.06553488,-0.011498404,-0.09309183,-0.06433283,-0.03841345,0.031492688,-0.10141283,0.09373457,-0.0796511,0.009225595,-0.018963473,0.022705782,-0.025859563,-0.0871334,0.053649344,0.0037714308,0.06866535,0.09499686,0.048902947,-0.021396851,0.0027711843},
	{-0.022955297,0.09434134,-0.094013944,-0.005280395,0.05272481,0.0547828,0.09034531,-0.10089885,0.001858036,-0.065794386,0.008583432,0.085802965,0.050060414,0.0035900169,-0.03803211,-0.08605765,0.0031638232,-0.07747115,-0.05291601,-0.0039693266,0.035442784,-0.0028654756,0.0022956189,0.05594513,-0.03295607,0.07355843,0.033679396,0.09355566,-0.08900816,-0.051881768,-0.09309055,0.048930943,-0.097939424,-0.08034889,0.06478306,0.10301764,-0.071674086,-0.028279228,-0.041656073,-0.013983663,-0.10532557,0.021796364,-0.029662235,-0.036334224,0.020623235,0.008760092,-0.094459206,-0.08338409,0.008124302,-0.107241645,-0.050192524,-0.055848688,0.096163444,-0.014563448,0.076158464,0.041146424,0.019532707,-0.06315938,-0.09576269,0.03805666,-0.08459722,-0.014144514,-0.03126781,0.016243013,0.091851674,0.012036895,0.07694797,-0.036849994,0.06225857,0.076749146,0.064876094,0.011974355,0.084132314,-0.034359936,-0.0034068278,0.086590424,0.013453523,0.064399555,-0.08812049,-0.08851446,0.101777144,-0.103250325,-0.1005372,-0.10249989,-0.08923438,0.08718152,-0.06041463,-0.012252493,0.017650068,0.08075398,0.03333271,0.067615494,-0.07983105,0.0854269,-0.0060448325,0.10205842,0.08966074,-0.11164236,0.053504046,0.07733503},
	{0.10499026,0.027548118,-0.07185399,-0.08642979,0.02502917,-0.089429796,-0.05310396,0.03231291,0.030947918,0.08189995,-0.07304824,0.04516212,0.050066113,-0.098693654,-0.0009834465,0.031975638,-0.07402205,0.04873936,-0.09242045,0.033888433,0.074193776,0.04878108,-0.10314781,0.056075715,8.849613e-06,0.036650006,-0.045104977,-0.08486423,-0.010221455,-0.059790555,-0.06245556,-0.04869504,-0.04806445,-0.043048654,0.035618726,0.056725305,-0.0698604,0.062250536,0.09105128,-0.039410375,0.0836069,0.086410895,0.06719331,0.001033636,0.03597495,0.086357884,-0.03061208,-0.008143479,0.076875895,0.09468464,-0.029737521,-0.09985982,0.034258846,-0.09480297,-0.0018158247,0.07118253,-0.048932455,0.09191462,0.06556133,0.06719493,-0.034471292,0.03369952,0.07968718,0.09114956,0.008560774,0.037636485,0.022131152,0.020123716,0.042333953,-0.09292809,0.05852544,0.055661146,0.050901674,-0.09742413,-0.09553829,-0.0054753684,-0.09341944,-0.025160559,-0.040490285,-0.023023974,-0.10667105,-0.10568967,0.048139155,0.019407015,-0.066997215,-0.08347962,-0.026717637,-0.018489392,0.07291955,-0.07169231,0.044677023,0.08942309,0.067144364,-0.019426597,0.02674381,0.0020522974,0.053031646,-0.020475378,0.06991242,-0.06202855},
	{0.08287545,0.06495915,-0.017190568,-0.05049623,0.08878824,0.05595626,-0.059709396,-0.09708015,-0.059750956,-0.046299636,-0.027351495,0.0013571177,-0.023785576,-0.07969468,-0.10074836,-0.11037087,-0.0797487,-0.10742296,-0.030352324,0.075982764,-0.10994348,-0.014539066,-0.05596551,0.0617166,-0.006589303,0.10255802,0.027431432,-0.017578967,-0.10016183,0.029872736,0.013233915,-0.00256106,0.097042665,-0.10722792,-0.10182509,0.050616436,0.07512553,0.019362306,0.07388845,0.050025266,0.09507625,-0.014222022,0.101835124,-0.072981216,0.061445396,0.025945999,0.025130939,0.066578604,-0.060446974,-0.016823856,-0.008333783,-0.07971078,0.07048759,-0.08295805,-0.056297243,0.015420174,0.09496771,0.10067955,0.04428126,-0.00951494,-0.02946067,0.02168181,-0.034309294,0.018063974,0.026383054,-0.06991965,-0.111170635,-0.017924247,0.090189144,-0.110089615,-0.030608708,0.054965068,-0.07553755,0.0005799879,0.01816697,-0.110388316,0.025592873,0.001914944,-0.026008783,0.0049377666,0.009017812,0.07546834,-0.111975715,-0.07508095,-0.005716295,-0.10038005,0.039131068,-0.06769887,0.07347245,0.0010009522,-0.062536456,0.015164195,-0.046204425,-0.040218476,-0.11153658,-0.04826689,0.07835759,0.031726483,0.093950726,-0.017714476},
	{-0.006108859,-0.022104008,0.07933493,-0.110800676,-0.018317748,0.035092127,-0.08323185,0.031164411,-0.05274568,0.036105156,-0.012337386,0.07661325,-0.047186032,0.07185151,-0.0099762585,-0.043315887,0.096831456,0.02629792,-0.11072829,-0.020668034,0.08000522,0.03253838,0.08294048,0.07738409,-0.00685007,0.032978762,-0.098700516,0.048259784,0.09928119,0.054011945,0.07511181,-0.09480565,-0.04055804,0.0016374956,-0.0665721,0.0034572764,0.09619708,-0.07977401,-0.049388364,0.10427298,-0.01854835,0.01701702,-0.064019084,-0.08387412,0.021886427,0.0031579253,-0.09054727,-0.015486852,0.03849593,0.032863718,0.03977897,-0.07578484,0.03760412,0.07404528,-0.103995964,-0.10770385,0.047978323,-0.1009984,0.026074296,-0.06504379,-0.100805454,-0.109634176,-0.024226908,-0.08228347,0.008852253,-0.034595422,-0.0642351,-0.056053687,-0.09153934,-0.0910377,0.018658768,-0.08119858,0.08736928,-0.06439172,0.019354945,-0.040382788,0.012724757,-0.0055173896,-0.017008683,0.08048179,0.062199518,-0.031944063,-0.06420398,0.0027039312,-0.021587107,-0.060081374,0.07559799,-0.02573041,0.09486143,0.053531464,0.034728076,0.041015327,0.017065968,-0.078458235,-0.08107882,0.0022361693,-0.056923147,-0.0054137222,-0.015402691,0.015984826},
	{-0.031669643,-0.07381879,-0.07978185,-0.016603947,-0.09610311,0.087256774,0.008530471,0.09371211,0.08409033,0.097899005,-0.07112312,-0.071024954,-0.075621724,-0.034730703,0.058528837,-0.05179232,-0.018330043,-0.07519149,0.06709602,0.06811038,-0.012472091,-0.00991007,-0.07534924,0.047820237,-0.013178048,-0.076871306,-0.0015803906,-0.09469724,-0.06675875,-0.022751916,-0.007526213,-0.049970873,0.014702672,0.012405048,-0.075024486,0.09018102,-0.029833075,-0.091727056,-0.0713598,-0.019013485,0.051299978,0.003350447,-0.028280865,0.057903815,-0.060828578,-0.1008644,0.03824823,-0.02942414,0.03224033,-0.043681413,-0.026742041,0.10071824,0.04380302,-0.0028425201,-0.015590535,0.09147661,-0.07984077,-0.08034133,0.06360107,-0.028251309,0.014553296,-0.0014335249,-0.09455692,0.05605586,0.036816396,0.06957079,-0.08056735,-0.02301669,0.015521898,-0.040233616,-0.00919698,0.07800539,0.08623097,0.09479653,-0.108423166,0.030367378,-0.0782151,-0.0614811,0.033848274,0.10211159,-0.09387391,-0.0035501467,0.085990004,-0.08835888,-0.099427074,0.09141795,0.031307142,0.09177776,0.026316676,0.00214548,-0.109828435,-0.0048330952,-0.11108475,0.03114617,-0.031621758,0.047899093,0.053805206,-0.10682084,-0.044728942,-0.06045881},
	{0.052498117,-0.09999114,0.059279967,-0.030926887,-0.03649714,-0.10765232,-0.062103327,0.011403759,0.08101929,0.049010504,0.002693991,-0.013225371,-0.018701056,-0.071544856,-0.021263935,-0.10545696,-0.013513793,-0.04064062,-0.03417365,-0.0020726125,0.034668703,0.033131707,0.050129935,-0.037955392,0.10463438,-0.0720905,0.026963629,-0.08146306,-0.09504263,-0.05814568,0.017201297,-0.10331592,-0.03893406,-0.022441264,0.087093145,0.016729522,0.03236944,0.10103409,0.099326186,0.04675112,-0.038224507,-0.049659386,-0.06105928,0.010176748,0.0023905875,0.024774771,-0.06378135,0.063396044,0.062404577,-0.0013492847,0.0074778507,-0.08458799,0.1038597,0.088219374,-0.081306115,-0.03726073,0.069368824,-0.08458946,-0.03533293,0.02536022,0.062223658,0.1035459,-0.10959903,-0.07091461,-0.07389207,0.05465091,0.05263995,-0.051578503,-0.0049171853,-0.032311857,-0.0388173,-0.03717701,-0.02003309,-0.09625566,-0.089707665,0.0074739307,-0.049281158,0.014450873,0.029385451,0.02858638,-0.049828496,-0.021477291,0.07158468,0.012233918,0.08277586,0.03348426,-0.044774022,0.07805939,0.084820755,0.021003896,-0.055712115,-0.10302205,-0.051294148,-0.08854318,-0.049644705,-0.070382655,-0.0015184538,0.07305107,-0.023487797,0.031313714},
	{-0.07656447,0.0693788,0.078209616,-0.05986843,-0.03750822,0.091505446,0.07053045,-0.032707583,0.017438892,0.033722337,0.0744837,-0.07040464,-0.10604956,-0.048064142,-0.060485683,0.08288486,0.063088365,-0.0056293635,0.07298908,-0.08895104,0.08839658,0.08825179,0.08848537,0.021028519,-0.07995682,-0.069231845,-0.05400526,-0.015100342,0.073773935,0.026380267,0.004474421,0.06817822,-0.040465277,0.041640747,-0.09536737,0.036926236,-0.0963509,0.077949986,-0.03136258,0.002753343,-0.0031600625,-0.08264309,0.07350135,-0.10543476,-0.01897637,0.056557536,-0.023866234,-0.05312274,-0.041206155,-0.10367466,-0.10227231,-0.04213013,0.07692457,-0.006291076,0.041838553,-0.046869606,0.01447006,0.0013838969,0.050053686,-0.016346255,0.078183174,0.03730557,-0.046365626,0.080687806,-0.06211636,-0.09478612,-0.03643108,-0.046149995,-0.054571807,0.06975956,-0.026657838,0.10203846,-0.09308827,-0.07238299,0.03785494,-0.058751095,-0.016431345,-0.07652193,0.022438033,-0.066468686,-0.0929345,0.0974585,-0.06284885,-0.037246324,-0.01994998,-0.07013314,0.048449922,0.08885505,-0.07505409,0.04361953,-0.022507144,0.0645125,0.08940177,0.016905598,-0.01673259,0.048603147,0.021387752,0.102736205,-0.017976047,-0.048094314},
	{0.07619015,-0.03465061,0.031233719,0.026342267,-0.042876266,-0.00827542,-0.055025395,-0.05267176,-0.10079489,0.005117661,-0.04312365,-0.09919077,-0.055333145,-0.033595104,-0.02391086,-0.08024114,0.06105729,0.018121328,-0.0774848,0.018101916,-0.05526342,0.059146702,-0.07365718,-0.097783916,0.061507575,0.013277986,-0.10804182,-0.10121525,0.07885511,0.044703174,0.0725839,-0.08479517,0.06868229,-0.018412756,-0.028065741,0.023638984,0.09277698,-0.03298118,0.102146536,0.03120593,0.0106955515,-0.031143332,-0.0012046411,-0.09009326,-0.020313248,-0.09704401,0.09769514,-0.09278415,0.015939154,0.04787758,0.0069390656,0.060099892,0.02362661,-0.089154705,-0.09707572,-0.0024969222,-0.024689311,-0.10935195,-0.0046503693,0.07267232,0.04679647,0.04449689,0.068206504,-0.02165824,-0.07271669,-0.033303667,-0.10027497,-0.00388426,-0.07690906,0.06433992,-0.0924724,-0.04156001,-0.048319653,0.008819399,0.0053824387,0.044451404,0.02968469,0.0996377,0.0041688266,-0.10004141,0.026167456,-0.0021419916,-0.018433308,-0.036946584,0.013617969,0.03854402,0.08780775,0.042985775,0.051496033,0.048429303,0.071679436,-0.022418289,0.025796885,0.04641722,0.05799448,0.0049803485,0.006970151,-0.047136374,-0.08192342,0.081472866},
	{0.09771236,-0.06738758,0.09664544,-0.08024109,-0.08040878,-0.044006296,-0.011051217,-0.026361836,0.0639259,-0.0485994,-0.03768662,-0.0012165928,0.037353758,-0.017430766,-0.007526703,-0.08245033,-0.033878822,0.023036456,-0.04564286,0.08737121,-0.038547598,-0.052864306,0.053438436,-0.06095858,0.09007206,0.10007141,0.06206944,0.0048192814,-0.0987277,-0.025204219,0.031867296,-0.06027313,-0.05377624,-0.10188649,-0.05941342,-0.05310888,-0.023939142,-0.076388605,-0.05517657,-0.07782906,-0.10137298,0.08042476,0.027303273,-0.086443715,-0.007858802,0.012351989,-0.0021349683,0.07145327,-0.04711841,0.085471995,-0.017469438,-0.10722739,-0.092708394,-0.08123871,-0.046914786,0.071405545,-0.05439411,-0.022013031,-0.091061205,-0.103272155,0.049937394,-0.07790706,0.020442104,-0.039911754,-0.06039343,-0.056743935,-0.07656321,-0.018865706,0.07999777,-0.055152543,0.08234172,-0.0884369,-0.10509676,0.02243584,0.07536235,0.058813892,-0.075204834,0.07518037,-0.059376236,-0.04545885,0.06612203,-0.0026734865,0.038234457,0.049859203,0.10480834,-0.026749033,0.02970324,0.07945847,-0.07021662,0.076603025,-0.021389043,-0.042561755,-0.06841171,0.047989134,0.019261822,0.028620318,-0.06893292,0.03667328,-0.02426907,-0.0014985809},
	{-0.07473277,-0.0853091,-0.051095147,-0.020652734,0.020560455,0.09501081,-0.094575934,0.09134844,0.09177286,0.027998585,0.072842315,0.015425988,-0.015407098,0.011898562,-0.096827336,-0.02246461,-0.07888988,-0.017702261,-0.06452206,0.099464126,-0.053877734,0.07527562,0.070985965,-0.10035121,-0.0817304,-0.029928613,0.018357016,0.025613887,-0.05394128,0.098087326,-0.011059813,0.02599206,0.10207804,-0.084703594,0.029209292,0.082673706,-0.016982896,-0.08201056,-0.051141195,0.06062199,0.034852263,0.038074344,-0.055857822,0.015938366,-0.054290596,-0.03645394,0.025553202,0.08560424,0.10006303,-0.06422243,0.078819714,-0.028218709,0.09615161,0.05151606,-0.0297723,0.01933719,-0.084276736,-0.05408632,0.060970042,0.08927249,-0.04722571,0.014709132,-0.021817867,0.06929001,0.015715128,-0.081841886,0.07020766,0.09069412,-0.07177173,0.035525583,0.07079275,0.084277734,-0.07521005,-0.046663336,-0.10601686,-0.027515724,0.03581069,-0.08918738,-0.02618418,0.06312923,-0.045093983,0.046209127,-0.013897875,-0.08547689,0.045492128,0.032514434,0.007462918,-0.07930614,-0.035889767,0.06409918,-0.039271366,-0.0039171483,-0.050246175,-0.028348371,0.10017236,0.03601521,0.02505955,-0.03597046,-0.08145331,-0.037657056},
	{-0.041900445,-0.0370857,0.10365233,-0.056638688,-0.013570165,0.032047175,-0.062483042,0.030172925,-0.08421582,0.041138627,-0.08274766,0.07386356,-0.051978968,-0.07940062,-0.060372133,-0.07684607,0.04300586,-0.0325531,-0.07455663,0.096599095,0.024550825,-0.09252499,0.06735233,0.062063333,-0.024541823,0.034447234,-0.09297058,-0.100251555,-0.06414745,-0.013766159,-0.070768915,0.055045824,-0.02916188,0.037334964,-0.004993977,-0.00021796967,0.012467213,-0.08011009,0.07323872,0.02469794,0.0030310836,-0.07783162,-0.055654958,-0.037154514,0.009499688,-0.09265922,-0.07655138,-0.0329511,0.099712245,-0.08566171,-0.10566142,0.057765234,-0.018661289,-0.058584586,-0.008464334,-0.045262918,-0.097210445,-0.013481937,-0.08024646,0.002154043,0.015221281,0.08327037,-0.03006947,0.011936804,0.04404971,-0.10113193,-0.07412789,0.02616081,0.06900738,0.013875035,0.040933263,-0.07773316,0.027017973,-0.0844913,0.06331313,0.060941633,-0.037313964,-0.004172803,0.10576824,0.026157735,0.041328218,0.053537916,-0.07067463,0.04234645,-0.06624275,0.06449331,-0.08228695,0.05291967,-0.01784344,0.005257424,-0.07845565,-0.03487888,-0.0508049,0.07154603,-0.022862496,-0.024009814,0.06043537,-0.06532859,-0.07336601,-0.06303616},
	{-0.07640375,0.095323175,0.08880927,-0.0032558003,0.034798443,-0.005701844,0.06667286,-0.09513319,-0.09973712,-0.041682128,-0.0880606,0.10624442,0.03632638,-0.095990814,-0.07508239,0.034822185,0.002944517,0.035091683,-0.060017258,-0.0340582,-0.029873893,0.042890165,-0.005495516,-0.035511367,0.019512711,0.015602596,-0.09271603,-0.04852951,0.07326145,-0.0657294,0.09736601,0.049480867,0.020531874,-0.03481074,0.0013861421,0.0973844,-0.049014013,-0.010073368,-0.04498295,-0.09368362,-0.08834899,0.08916783,-0.015613071,-0.09570327,0.10419705,-0.05852597,-0.10983785,0.032039825,-0.07020502,-0.109424435,0.030203775,0.038525485,-0.019008312,-0.021232048,-0.027354823,-0.0099614905,0.03741186,0.023232687,0.0646007,0.025639212,0.048715252,0.053979713,0.0982434,-0.0672643,0.0267015,-0.102808945,0.032697763,0.06804643,0.09873587,-0.097866766,-0.06792276,-0.035870768,0.010229424,-0.058727395,-0.012203721,-0.08171017,0.0014012285,0.09204595,0.08332307,0.02040705,-0.029935211,0.0032833884,-0.024442464,0.017540019,0.015205323,0.10272656,-0.010263765,-0.10888609,0.027623028,0.07700692,-0.102170594,-0.008913017,-0.08435464,-0.020072818,-0.067273065,0.02226578,-0.019586788,0.031233914,-0.08795113,0.09641776},
	{-0.0064455806,0.0065319324,0.09836241,0.011995259,0.010354694,0.02715323,-0.106796615,-0.033810716,0.04393793,0.01521207,0.034709617,-0.04218354,0.009094795,-0.038706046,0.048001017,-0.0033324664,-0.07557371,-0.053772453,-0.03620053,-0.09734554,0.057654537,-0.043013074,-0.046114497,-0.074081756,0.0801352,0.08790665,0.03593565,0.059242427,0.013012527,-0.107361056,-0.0068661184,-0.08417196,-0.08323933,0.00070548075,0.03291153,0.011048987,-0.013648477,0.019093633,0.044007104,0.016146315,0.050160013,0.013050394,-0.0260477,-0.008236961,0.032136086,0.07388067,0.0060628047,0.009553619,-0.020041265,-0.091577895,-0.08845711,-0.07100913,-0.053119924,-0.023579054,-0.061715145,-0.09123797,0.021133756,0.09639565,0.06986521,0.0020073634,0.0980951,-0.1003736,-0.005360092,-0.07935028,0.10511731,-0.09320139,0.033379145,0.096890256,0.09290276,0.006339005,-0.02118945,0.040195424,-0.06951629,0.011773019,0.0061712293,0.030587427,-0.018634273,0.08874135,-0.045638885,0.050083976,-0.07578133,0.059694383,-0.099383734,0.08720232,0.008182592,-0.0538904,0.069787115,0.008673841,0.071323186,-0.055107426,-0.086569734,-0.05929562,-0.08669028,0.08791874,-0.078749835,0.0033679337,0.0071256016,-0.06393469,-0.08568435,-0.065835014},
	{0.096270315,0.013612917,0.092469364,0.059209015,-0.06780665,-0.011953196,0.012820198,0.0064290664,0.077926725,-0.100804366,0.10350616,-0.015030784,-0.027507868,-0.07001498,0.00892443,0.09993173,-0.02759153,-0.033424452,-0.07428108,-0.029731773,-0.0039261472,0.08829184,0.031085292,-0.04324459,-0.04304703,0.07934577,-0.0845517,-0.008141489,-0.076612756,-0.02257984,-0.054308932,-0.09530612,-0.019430166,0.04107794,0.049465355,0.03728163,0.07707268,0.01635814,-0.059350852,0.021977095,0.075493045,0.07593761,-0.09671606,0.04486966,0.0917198,0.10180591,-0.09144428,-0.05346389,-0.06827682,0.091000944,0.029475758,0.040346302,-0.06130168,0.008864559,0.031643953,-0.08901789,-0.07161653,0.050373998,0.087285034,0.05015183,-0.0853604,0.0018780613,-0.057438724,-0.033664808,0.05362857,0.09552742,-0.026300374,0.03871171,-0.08996271,0.015863298,0.05544253,-0.057594597,0.009688489,0.0038224217,-0.0009678826,-0.02618774,-0.046185087,-0.07600247,-0.045486867,-0.090404354,-0.08267409,-0.024468163,0.076420054,-0.08121644,0.06134584,-0.0854654,0.08823198,0.09499022,-0.042653695,0.028700188,-0.027290812,0.0058460333,0.03857972,0.04911642,-0.07767342,-0.029596489,0.011275093,0.061657198,0.03407886,-0.041720636},
	{0.01821678,-0.05138989,0.05009647,0.08220614,0.08153546,0.07368624,-0.100433595,-0.016744675,-0.09169084,0.09676484,0.013300429,0.0891582,-0.015294372,-0.07089507,-0.059558287,0.07286056,0.030590117,0.050525576,0.013912065,-0.06728667,-0.09585566,-0.008814921,0.04050549,-0.029259909,0.057817813,-0.037765782,-0.08986848,-0.05434771,0.094833285,-0.021221133,0.083520114,0.08223156,0.03179386,0.026078297,-0.05930531,0.10450553,0.004295106,0.009444785,-0.012300314,-0.058362737,0.078579575,0.0794098,0.032786295,0.06706236,0.054520935,-0.100065134,-0.098867044,-0.05472826,-0.052126024,0.020688636,0.10301912,0.011111713,0.056562092,-0.01646312,-0.058345973,0.052199956,0.041705776,-0.074257016,-0.005108388,-0.10183897,0.053071972,0.010643899,0.09219722,0.020791786,0.09622489,-0.05714588,-0.08099661,0.038094502,0.008491412,0.0074941134,0.10215336,-0.04478499,-0.013477684,0.01595113,0.08676903,0.00977256,-0.028868306,0.105548985,0.10355289,-0.02083855,0.05243732,-0.10542232,-0.01914933,-0.056849662,-0.056343358,-0.0045950096,0.06846365,0.10473251,0.05671123,0.09030677,0.03520938,-0.10380852,0.04046502,0.037755493,-0.10982232,-0.1068815,-0.088437825,0.012610461,-0.10109012,-0.014214115},
	{-0.025219604,0.080907635,0.091648795,0.022010034,-0.03751414,-0.06648625,-0.1101652,0.06871248,0.0013847502,-0.04848923,-0.08063525,-0.017848574,0.0963178,0.007383303,-0.056562774,0.03965821,-0.029905064,-0.06760533,0.07857467,-0.07229779,-0.030752666,-0.002808628,-0.0010036437,-0.022373078,-0.016635671,0.046637163,-0.011406187,0.011214913,0.08854103,0.023782263,-0.010690526,-0.08737924,0.051951952,0.078892685,0.046594754,0.02465511,-0.110446654,-0.040115166,-0.044530354,-0.08821165,-0.0022721302,0.06851856,-0.07657682,-0.025797784,0.09071403,0.0054153744,0.04685711,0.004648134,-0.06058329,-0.061251827,-0.036821082,0.07891313,-0.018029407,-0.075712845,0.097738005,0.029876987,-0.08845329,-0.03718619,0.10058776,-0.08095401,0.08547227,-0.11202291,-0.06271029,-0.098725855,-0.054549154,0.025244005,0.07613212,-0.08370022,-0.04210668,-0.10103808,-0.077745065,-0.05427143,-0.0028322649,0.0783125,0.016926168,0.0860725,0.06214888,0.014798533,0.06306211,-0.099395454,-0.034902506,0.100866765,0.011345825,0.0877309,-0.101964965,0.029404858,-0.040475287,-0.00094832777,-0.040135384,0.06448818,0.014955717,0.017934628,-0.053578366,-0.063110694,-0.05608631,-0.022518616,0.093162805,-0.10132361,-0.037020747,-0.03945486},
	{-0.04280294,-0.063106924,0.07262988,-0.045524172,0.049228795,0.042093817,0.093990214,-0.033689115,-0.008055178,0.07842122,-0.0267931,0.026287556,0.061944034,-0.0042851013,-0.1088776,-0.007281395,-0.059456144,0.0217404,0.06771462,0.06831374,0.05156488,0.06307,0.070066445,0.08821079,0.07087635,-0.020074112,-0.090279475,0.0026986431,0.09496023,-0.07856041,-0.07003823,0.0014487649,-0.07090926,-0.029981785,0.029757546,0.068035685,0.09467681,0.048884638,0.061356958,0.09251027,-0.101297036,-0.07731208,-0.047080033,-0.030694738,0.0147680435,0.06102608,0.045393392,-0.052203357,-0.036950145,-0.08022659,-0.058479913,-0.07971453,0.045955464,0.08221708,-0.011577224,0.009691461,-0.046046875,0.07360298,0.08240549,0.087767735,0.10164576,-0.0065407096,-0.107021555,0.006608699,0.047874298,-0.10291194,-0.0723078,0.026159933,0.07394747,0.030010674,0.074839026,0.065845676,0.0002466144,-0.0018992716,-0.022549832,-0.06823222,0.022832822,-0.058503516,-0.08873099,-0.009177199,0.06453138,0.000488605,0.062306356,0.0031475076,-0.08394004,-0.06696111,0.05463215,-0.051646356,-0.105565056,0.06735559,0.011546413,0.10034251,0.09245949,0.07314157,-0.014959819,0.069398224,0.10269573,-0.023639373,0.0627112,0.074100666},
	{0.09171672,0.09159341,-0.048999466,-0.0968506,-0.094243735,-0.10043007,-0.09326349,-0.09670579,0.021854352,0.024381476,0.071723774,0.048040364,-0.106863126,-0.11041405,-0.056772403,-0.038509768,-0.007714599,0.034031842,0.07245727,0.044569977,-0.038927108,0.028865192,-0.106635,0.08711966,-0.08737341,-0.011991229,-0.05548657,-0.10111118,-0.024036286,-0.069898486,-0.101879574,0.05445308,-0.09669434,-0.03603375,0.020323234,-0.08537178,0.05160531,0.039098997,-0.077195525,0.086842515,0.03440095,-0.054315895,0.069134496,-0.10311677,0.089451045,0.062644824,0.013564639,-0.08024264,-0.0925463,-0.06405687,-0.032179255,-0.07724467,0.10121382,0.09299935,0.032666594,0.08588721,0.010290608,-0.07248673,0.06303996,0.069001205,-0.0037526921,0.01184252,-0.041424576,0.037197422,-0.018893266,0.0075274683,-0.0059752516,0.015359876,0.03674084,-0.010363843,-0.03741741,0.048364285,-0.032030717,-0.109509766,-0.046086915,0.09217626,0.060467638,-0.106180035,0.016179206,0.048786636,-0.06480346,0.04792965,0.014126896,0.042674433,-0.019757356,-0.036098953,-0.030909747,-0.07353695,-0.093557835,-0.08414184,0.05547139,0.035540123,-0.009919879,0.028260633,0.016807245,0.02352488,-0.028564554,-0.03188214,0.00849361,-0.07835237},
	{0.02540648,-0.018284034,-0.040645473,-0.079651766,-0.0074493927,-0.100679,0.07456382,0.055625387,0.041214023,-0.07887882,0.0790122,-0.08768138,-0.101504855,0.0150035545,0.08215016,-0.050814297,0.09456196,-0.063977435,-0.060583245,-0.073562406,-0.096637994,-0.092343785,-0.038510907,-0.006743743,0.07337008,-0.04146754,0.021588743,0.004347753,0.0952298,-0.045259446,0.08210883,-0.08653374,-0.04376172,-0.032898147,0.06969711,0.0681533,0.09404535,0.009020386,-0.030223796,-0.09806136,0.031917937,-0.024532957,0.08268797,-0.0055234977,-0.031094601,0.08294882,-0.109652154,-0.017645678,-0.058600757,-0.04517488,-0.052444264,0.04250783,0.09471302,-0.097697616,0.09560469,-0.1080968,-0.0051270225,-0.010808614,0.0040622945,-0.08208267,-0.093310945,-0.10242767,0.023873944,0.03807047,0.023201844,-0.07743051,-0.09553574,-0.013839235,-0.09543579,0.0046256226,0.050102357,-0.10011974,0.06908522,0.051558007,-0.09580959,-0.10121215,0.0425348,-0.0075958194,-0.0077364333,-0.070546664,-0.09209159,-0.014023597,-0.052844144,-0.02569048,-0.08574492,-0.034457956,-0.019822344,-0.023518048,-0.032393448,-0.11026986,-0.05695537,0.052331436,0.07670166,-0.08374865,-0.0027313847,-0.042585,0.028448334,0.04282011,-0.037859246,-0.09185515},
	{-0.027050527,-0.058741573,-0.004069449,-0.09985531,-0.09716764,0.033306714,-0.059371866,-0.036104836,0.0031331761,-0.05660467,-0.0067707156,0.053737834,0.008752145,-0.08785834,0.026860753,-0.10963538,0.10015995,0.04785063,-0.050759252,-0.019557163,0.09975746,-0.06943099,-0.020000957,0.031287313,-0.06106827,-0.022061558,-0.0817713,0.021802984,-0.043653842,0.014319631,-0.025268396,0.018701669,-0.037403014,0.10038734,0.036162492,-0.10101709,0.029561916,-0.0055585136,0.09917359,0.015160258,-0.06870531,-0.0052108993,0.038763903,-0.061688006,-0.021456517,-0.101009786,0.061915755,0.04929925,-0.087868914,-0.09356959,0.10007945,0.058611628,0.07191674,0.03191416,0.05120943,0.048146058,-0.022463407,0.018988324,-0.041373413,-0.03397502,-0.095657215,0.07315781,-0.022086687,0.078513466,-0.08291473,0.0151483575,-0.091509186,0.023192083,-0.02020796,-0.003130882,0.06635662,0.048337556,0.030518055,0.068815574,-0.11002074,-0.0010000864,-0.06584863,-0.054682937,0.08803974,0.0023568661,0.041049965,-0.051749114,-0.07914196,0.010791894,0.025338536,-0.04643706,-0.0061170612,-0.020260185,0.05774006,0.00015726738,0.029348578,0.07650787,-0.08520151,-0.09403805,-0.0633205,0.09316304,-0.07740337,0.08130851,-0.09945282,-0.091273025},
	{0.086489774,0.022432942,-0.015337093,-0.03587876,-0.0010082097,0.024798615,-0.06751322,-0.0729594,0.036102366,0.0703868,-0.039450444,0.06892057,0.058879122,-0.008456352,0.04657614,0.074021295,-0.028259784,0.0318547,0.03773037,0.08871148,-0.012416943,0.10493941,0.06443376,-0.06534648,0.010355964,0.101729564,-0.10743787,0.06783198,-0.052419618,0.00022390636,0.07607672,-0.008801751,0.011980528,-0.06027835,0.059070904,-0.026681585,-0.05472922,0.04674999,0.0049057077,-0.044357598,-0.0072800517,0.00080453197,-0.053461358,-0.049975593,0.08219249,-0.03726824,0.007531763,-0.08425884,-0.015182516,-0.10061284,-0.089279965,-0.07547906,-0.064262934,0.0749907,0.069274776,0.025988229,-0.088060565,-0.065708086,0.10236248,-0.056824777,-0.07108919,0.083367325,0.08522035,-0.03302792,0.050209943,-0.011214049,-0.089902945,-0.04751818,-0.010821034,0.017950557,0.023970883,0.08036745,-0.07517561,-0.10151699,0.040850684,0.0417597,0.043325208,0.06377967,-0.10357973,0.062278833,0.040745284,-0.095554374,-0.061907366,-0.011699774,-0.07781948,0.012820166,-0.025039641,-0.03979827,0.073685534,0.050310336,0.09636164,0.05145964,-0.017084297,0.016222179,0.015058202,-0.08766779,0.09359513,0.051697385,0.07024832,0.043596677},
	{0.0643809,-0.046157002,-0.03490398,0.044557,-0.051841196,-0.050527133,-0.0805002,-0.0677635,0.07038646,0.040170837,-0.0480551,-0.09986427,-0.03076694,0.018831976,-0.09566126,-0.058924023,0.09096115,-0.042916488,-0.042467304,0.08535993,-0.009066949,-0.057715993,-0.05394283,-0.10811876,0.004630662,0.03236095,-0.05023523,-0.037924312,-0.017257068,-0.049728394,-0.0638726,-0.08794011,-0.05944962,0.05253707,-0.052771803,-0.09587521,-0.059866395,0.07576425,-0.037589025,-0.06427912,0.04997832,0.09305209,0.09044311,0.044236667,0.038580276,0.07248718,0.023406725,0.055458147,0.0014848498,0.002599252,0.08953146,-0.093138546,0.025328496,0.0019629232,-0.048165802,-0.016573116,0.017448863,0.032141875,-0.058411963,-0.0049412576,0.07442901,0.07357657,0.07163322,-0.09772777,-0.045703717,-0.09400755,-0.06329712,-0.05785083,0.049139358,-0.101817936,0.038972303,-0.07692958,0.10187158,-0.04081703,0.06548732,-0.0152417105,0.06698716,-0.08045535,-0.031714715,0.04939348,0.02850953,-0.08311136,0.0053165904,-0.069272,-0.010901843,0.069734596,0.04388184,0.01530668,0.07736707,-0.051546484,-0.026806409,-0.045042746,-0.034389175,-0.024784295,-0.106859334,0.087900475,0.08292919,-0.0592119,-0.08247334,0.07045613},
	{-0.01854856,-0.08405548,-0.097144425,-0.011723883,-0.052998986,0.02601284,-0.10862562,-0.027329214,0.07007423,0.04991736,-0.07177063,-0.10337323,0.054005526,-0.016516512,-0.057629555,-0.061074663,0.075764425,-0.095918335,0.091075964,0.09181093,0.08718787,0.08340753,-0.03660485,0.042051446,0.02676595,-0.026413588,-0.0021852434,0.055618264,-0.0670512,0.005602393,0.06654921,0.034606673,0.08517783,0.056715984,-0.10786432,0.07311389,-0.083235934,-0.008748289,-0.035613384,0.04045685,-0.018747644,0.001745948,0.031752955,0.09850919,0.054688513,0.07791921,-0.09297004,-0.069209956,-0.09698001,-0.042509176,0.054980334,-0.08729614,-0.093796656,0.07990636,0.03527562,0.04554151,0.07681481,-0.053044505,-0.048913132,0.09408383,-0.012964761,0.04393468,-0.064250454,0.097123906,-0.06480262,0.013931424,-0.07648413,-0.055817246,-0.01280532,0.07913518,-0.0064046285,-0.02765237,-0.038962796,-0.06836324,-0.05251321,0.08877685,-0.068636954,-0.08774368,0.05772421,-0.090115696,-0.09675134,-0.10522138,0.04005943,-0.008980818,-0.0039003047,0.1060458,-0.08208695,-0.0067842896,0.056527834,0.074559554,0.016706716,0.08690702,-0.019949863,0.08872417,0.10158685,-0.086847834,0.0010913834,-0.10025995,0.06402502,0.0853389},
	{-0.07302561,-0.044471912,-0.07497725,-0.0043557677,0.102861725,-0.06250588,-0.11115755,0.01025459,0.011327992,0.034276318,0.040649384,-0.07614311,0.055715747,-0.048303362,-0.078249805,0.09896091,0.0274188,-0.014569361,-0.04576569,0.09200423,-0.10253018,0.029421594,0.06351011,0.05859105,0.04559446,-0.020749368,0.03298281,0.07111656,-0.08349797,0.038571637,-0.06357878,-0.02450766,-0.051579934,0.033974446,-0.012216653,0.022275785,-0.00994188,-0.1046846,-0.05396037,0.10415289,-0.08301402,-0.07116835,-0.08520777,-0.09844907,-0.08682673,-0.06376606,0.027243655,-0.04882163,-0.07260624,0.09818663,-0.10588826,-0.08601737,0.0340728,0.062849,0.10108813,-0.011974282,0.046694823,-0.07345636,-0.007381507,0.006627888,-0.03323473,0.028231585,-0.08399516,0.10298499,0.026450742,0.09463849,-0.06674805,-0.09015352,0.0073111984,-0.10680677,0.04061516,0.010589336,0.07095392,-0.08430387,-0.017574802,0.06970956,0.077334225,0.051473048,-0.08202081,0.07359275,0.08635921,0.017225323,0.03078352,0.026790624,0.04375874,0.053789962,0.007769662,0.04080087,-0.031367224,0.009615397,0.06818729,-0.01996365,0.09412279,0.0785167,0.052407473,-0.09325593,0.100083284,0.031682078,0.06918106,-0.095976226},
	{0.00083011587,0.022691825,0.05436571,0.025547301,-0.021876121,-0.0197237,-0.07102706,0.08530336,0.054539498,-0.100153334,-0.110837854,0.03396319,0.102297924,-0.08441438,0.03082067,-0.047553957,-0.109638914,0.10416857,0.07313209,0.07666003,-0.015117988,0.010661181,0.01388735,-0.064326294,-0.09869043,0.07699977,-0.06699727,-0.03800312,0.10415725,0.07647614,-0.09299624,0.08684453,-0.0727576,0.06621061,-0.098433964,0.029847406,-0.08256501,-0.020170495,0.08134025,-0.057330362,0.046665702,0.027709322,0.025014685,0.063544065,0.10220103,0.009713415,-0.10524048,0.047836803,-0.0030420802,0.105066486,-0.06522128,0.0079457015,0.0584087,-0.037839,0.0016757199,0.08321471,-0.003455329,0.08907273,-0.094471216,-0.108784884,0.025027582,-0.07239693,0.015311611,0.028190786,-0.01578327,0.026213434,-0.095100164,0.08451141,-0.066194154,0.07001223,0.07388268,0.04351302,0.0016302434,-0.011785102,0.068755046,0.06324422,0.082131185,0.068910845,-0.045721166,0.07834414,-0.036019087,-0.04037208,-0.045589928,0.10038221,-0.020184042,0.08449326,-0.08847003,-0.054201797,-0.04487783,-0.07267316,0.005012097,-0.03022723,-0.04245185,0.10168661,0.05772126,-0.023493782,0.011852256,-0.047535904,-0.017077468,0.07000427},
	{-0.026766935,-0.06020675,-0.06135995,0.03719893,-0.0027576804,-0.009434638,-0.0066079977,0.029431116,-0.07407258,-0.03565216,-0.05801996,-0.063807525,-0.0049089273,-0.040778503,0.06545248,0.009687337,-0.09900647,0.09182597,0.0728919,-0.051758096,0.07905468,0.0060769753,0.044241514,-0.08895174,0.04447342,0.101031855,-0.055821512,-0.06522449,-0.028917855,-0.055932548,0.08223252,-0.011133731,-0.07352387,-0.07389833,-0.06205105,-0.07478452,-0.021908298,0.06854516,-0.0026498998,0.00171465,0.09870615,-0.07187084,-0.05740396,-0.004329928,-0.094376415,-0.08066035,0.065128565,0.07122922,0.012211086,-0.005666789,-0.07903738,-0.110224575,0.08285476,-0.0695402,-0.10415058,0.01239544,-0.015206607,0.005462346,-0.09257586,-0.073804975,0.010607119,0.094420284,-0.06888507,0.05690022,0.02587194,0.0024869763,0.07623469,0.04074199,-0.0849134,0.013811698,-0.047800716,0.08680943,-0.10684209,-0.049211875,0.06299594,-0.021901503,-0.031262845,0.10290465,-0.05638749,0.01911745,-0.013171309,-0.057879236,-0.0056992434,-0.06956957,0.033609085,0.01196534,-0.046907064,0.046951238,0.07333925,0.0794152,-0.055659108,-0.08546681,0.007246422,-0.017664848,-0.051295046,0.10265578,0.041666035,0.017770031,-0.021913705,-0.08743195},
	{-0.02633335,-0.042801302,-0.05793633,-0.08486056,0.055776432,-0.08552448,0.01497859,-0.10788042,-0.08270606,-0.011694213,-0.05954051,-0.09260769,0.029254865,0.05496165,0.08161143,0.056335595,0.046761703,0.021529745,0.08586424,0.039365977,-0.08087895,0.08324773,-0.0060934885,0.04702478,-0.015050114,-0.025316486,-0.012990313,0.031059721,-0.01394255,-0.1025923,-0.063919894,-0.041814294,-0.040955715,-0.061970793,-0.07942661,-0.02982424,-0.01069294,-0.01955285,0.061839845,-0.036175083,-0.010964753,-0.04507462,0.099327795,-0.038551167,0.10066935,0.10053432,-0.009158032,-0.06963473,0.0026691908,0.10457992,-0.041140884,-0.08949098,-0.09191183,-0.06278399,0.011741998,-0.1084061,-0.061480187,-0.08669674,-0.02654914,0.058480848,0.07590629,-0.08561509,-0.05797296,-0.030906463,-0.057785448,0.089008,0.05922673,-0.0041939355,-0.00929432,0.04543419,0.05180692,-0.032378748,-0.047027133,0.030216461,0.03546933,-0.0044768928,-0.03823743,0.09380378,-0.018185932,0.021059522,-0.0711213,-0.03067122,-0.08888334,0.06703042,-0.041543413,0.05866233,0.00572028,-0.013837648,-0.00996073,-0.07249701,0.04292036,0.02917569,-0.053900737,0.06745682,0.029322071,0.07885178,-0.04125332,-0.04248246,-0.090325974,-0.10922803},
	{-0.021747077,0.07382683,0.02142276,-0.10564572,0.028221961,0.02636923,-0.105054736,-0.013310945,-0.07561891,-0.07304522,-0.069486246,0.015035147,-0.090878144,-0.039179217,-0.010755211,-0.08617438,0.049793143,-0.036156237,0.09941784,-0.01258283,-0.030237272,0.104267076,-0.058669366,-0.018063897,-0.011604121,0.009659604,0.055460047,0.09195182,-0.012940479,-0.024922747,0.0701157,0.009580713,0.0032934358,-0.008684858,0.02204382,0.060841937,-0.027669113,-0.10727988,-0.026418185,0.024214389,-0.09012684,-0.057850666,-0.09306158,-0.09644704,0.018355038,0.07548941,-0.002150601,0.023782393,-0.08341828,0.045865938,0.10391254,-0.012080601,0.10261474,-0.029275188,0.097512856,-0.0057040136,0.085759565,0.092762634,-0.023560816,-0.0039581084,-0.07690497,-0.014205766,-0.0104712015,-0.01213278,-0.062094804,-0.037234183,-0.041713893,0.04677229,-0.07494619,-0.01529738,0.00825372,0.009108424,-0.050254516,-0.038482193,-0.075246,-0.093190946,0.06730039,-0.070201814,-0.068566516,0.008651702,0.10539007,0.035609078,-0.07133403,-0.090807356,0.101705536,-0.06339813,0.057719667,-0.08507759,0.02904829,-0.08586856,-0.030279657,-0.02707097,-0.017577304,-0.02768084,0.03843885,0.03674098,-0.04982465,-0.047172368,0.10387286,0.062507264},
	{0.068135954,-0.07594571,0.045696728,-0.098979704,-0.06383132,0.04128647,0.04567264,0.008003913,-0.10848499,-0.10671627,0.0039315596,-0.03108873,-0.049241554,0.09193512,-0.09655824,-0.028079646,-0.018458322,0.04823469,0.06630305,0.10582905,0.057892647,-0.080363676,-0.034831177,-0.06624589,-0.041135903,0.0058942093,-0.08058959,-0.10153352,0.039434373,0.07382895,0.051497433,0.055496268,0.07775924,-0.08213559,0.015081801,-0.023057176,0.10060449,-0.080056444,0.04095042,-0.103566825,-0.06638378,-0.09025279,0.021179212,-0.057954915,-0.033593923,0.050415922,0.04851453,-0.06825305,0.081325956,0.030563008,-0.06757278,0.077843554,0.084508546,-0.024455693,-0.06215453,-0.052490957,0.030758869,-0.08473111,0.10604003,-0.06061958,0.099981956,-0.07350005,-0.036101554,0.04668367,0.075861566,-0.0657948,0.0716207,-0.090366185,-0.06584268,0.0578733,-0.030962061,-0.055639748,-0.04882115,-0.08831457,0.027040053,-0.024301693,0.0030042795,-0.03948235,0.07814328,0.016407099,-0.016396914,0.077108085,0.0057761334,0.020484488,-0.073042415,0.0005266564,-0.107565634,0.0427027,0.050580624,-0.049118496,0.056373335,-0.023213198,-0.008479321,0.04378211,0.10580839,-0.011207723,-0.0911745,0.0068615773,-0.09958543,-0.10854504},
	{0.06184096,0.046495274,-0.022667442,0.08603972,-0.04331623,0.05142026,0.09246346,-0.06433633,0.0795561,0.082370244,-0.08482573,0.033861544,0.029710054,0.082322046,0.0082550645,-0.11239565,-0.013120901,0.084981926,0.013024052,-0.08951419,-0.074586675,-0.005335184,0.04055871,-0.056662157,-0.104209855,0.0786849,0.092907384,-0.014076652,0.08471995,-0.052383486,0.060547125,-0.024475109,0.10039723,0.061347954,-0.011139451,0.009370274,-0.08723057,0.0729088,0.0706432,-0.06474437,0.012849221,-0.10796837,-0.030476715,-0.016570406,-0.103021614,0.09261057,-0.03312431,0.0023476,-0.102105856,0.03152083,0.011425324,-0.056914005,-0.008549013,0.010927522,0.039457515,0.08422559,-0.105758265,-0.04815635,-0.04897479,0.03444668,-0.049642436,0.09939531,0.0844274,-0.030706244,0.012763871,0.06572112,-0.028664604,0.069229305,-0.0023425226,0.014882514,0.059212234,-0.032854624,-0.09489133,-0.06132686,-0.10158101,-0.06859346,0.022518093,-0.07072814,-0.020698048,0.0805711,0.044503056,0.06455533,-0.051707324,0.08593939,-0.0841372,0.03805563,0.040028922,0.046901133,-0.09662471,0.002584447,0.039280932,0.042212877,-0.042884465,-0.04521728,0.072297394,-0.093934216,-0.0067168735,-0.039900143,0.04478486,0.053574942},
	{-0.057216614,-0.09734402,-0.09260112,0.060202435,0.10117856,0.039252855,0.0966344,0.10131751,-0.041891783,-0.08462865,0.093900226,0.09944924,-0.05348287,-0.10260609,0.08939658,0.027607083,-0.102331564,0.053921442,-0.106460325,0.0388672,-0.11057996,0.05884567,-0.10598875,-0.034093987,-0.068988666,0.008501643,-0.1010322,-0.06762561,-0.032839376,-0.03464961,0.079909444,0.08735457,0.083230905,0.06354232,-0.022684187,0.010779945,0.03544687,-0.08407123,-0.062292293,0.050572876,-0.024976322,0.020164188,-0.059793282,0.0033455354,-0.10497703,0.002854015,0.061663426,-0.023431966,-0.10825367,0.10568854,0.014098588,0.085282974,-0.08348039,0.10369884,-0.020629572,-0.09121626,0.03868371,0.091321446,-0.057387516,-0.06667569,-0.047121264,-0.099278465,-0.07467509,0.01848499,0.043768443,-0.081558205,0.08205024,-0.0059219627,0.08700463,0.0111703845,-0.03928499,-0.037011594,-0.0770134,-0.066452816,-0.08442751,-0.060848136,0.025490139,-0.04889321,-0.0064705857,-0.016522637,-0.105943725,0.009483785,-0.09559519,-0.10433165,-0.03030204,-0.078933954,-0.012716643,-0.0050502494,0.02120754,0.1007042,-0.06701194,0.033032153,-0.030581497,-0.06591992,-0.08109858,0.048236948,0.033971604,-0.018190775,-0.075892776,0.0048739286},
	{-0.0033953849,0.057318237,-0.08445798,-0.015508661,0.073215455,-0.07972319,-0.04580283,0.036030557,-0.0515342,0.043139465,-0.0014934181,0.06609026,0.046103936,-0.094324686,-0.104009286,0.030365223,0.02121557,-0.07072808,-0.08813692,-0.09747157,-0.06459297,-0.0811855,-0.07995091,0.08264008,0.032280244,0.04046798,-0.033763766,-0.077479415,-0.024583288,-0.04003601,-0.0025163917,0.016571403,0.105508916,-0.0050153113,-0.009988877,0.03941082,0.04907931,-0.015111301,-0.07209372,0.019600626,0.020871988,-0.035195343,-0.095190644,-0.04630676,-0.04091788,0.053528734,0.091358416,0.004663835,-0.051039066,0.05349445,-0.04442757,0.027431972,-0.03452401,-0.044179335,0.10510519,-0.08040834,-0.04955215,0.054734085,0.06467712,0.04458831,-0.011278559,-0.0012642886,0.061517995,-0.0017657143,-0.09021388,-0.031119285,-0.09398948,0.04213627,0.09933089,-0.038752135,0.05182693,0.08287254,-0.035840377,-0.03478173,0.07173448,-0.023643365,0.049083456,-0.07318022,0.02347837,-0.017835783,-0.098459475,-0.039320346,0.076421164,0.02399423,-0.10794586,0.09096147,0.044870056,0.1057994,-0.031828083,-0.021066802,0.08083848,0.034742836,-0.0020797006,-0.056501042,0.069060035,-0.013083984,-0.10973915,0.0572819,-0.1102673,-0.08838187},
	{-0.0012173753,-0.09305534,-0.01745268,0.08965546,-0.100935206,0.030714909,0.092417344,0.030510183,-0.07662297,0.029013421,0.07625164,-0.04589715,0.07455552,0.09027212,-0.0810072,-0.052998945,0.03491133,0.080693044,0.07467392,-0.0060793995,0.05154384,0.025332931,0.008110573,0.08346075,-0.0812299,0.04471662,0.08236049,-0.09650072,-0.100593664,-0.030568808,0.050344575,-0.10905114,0.09452761,0.020617658,-0.021970375,0.080696955,0.079145744,-0.04291248,-0.075946525,-0.09563826,-0.04205419,0.09523417,0.029935636,0.10280827,0.07812695,0.06615415,-0.022592822,0.031670503,0.095891364,-0.0052098446,-0.075117044,-0.036675595,-0.04875671,0.054571956,0.09093108,0.07243525,0.0031043452,0.027653875,-0.04186058,0.09408986,0.07137911,-0.108426064,-0.009302416,0.0876665,-0.016601728,-0.09052053,-0.017411325,0.022944119,-0.044603802,0.006241654,-0.040046927,0.030903561,-0.018544517,0.061231606,0.09278297,-0.002928806,-0.0070348713,-0.053306825,0.09443021,-0.070182234,0.03656207,0.07108611,0.08801895,-0.10592556,0.079392396,0.0050117755,-0.063234635,0.057386324,-0.009331361,-0.056938745,-0.06617776,-0.065140255,-0.10268335,0.0475586,-0.05052721,0.010977336,-0.050289575,-0.043955166,0.067742355,0.03663941},
	{0.018274922,0.08552243,0.06570927,-0.09079061,0.04855466,-0.03247346,-0.040364493,-0.07966504,-0.0737733,-0.084583335,0.09284328,0.03145848,0.023086619,0.037025847,-0.08192676,-0.07476032,-0.034767278,-0.012561657,0.05005441,0.006117953,-0.072293214,-0.042658363,-0.043711577,-0.017547578,-0.08323561,-0.07588979,-0.054585498,0.06601098,-0.017839316,-0.10720518,0.08799026,0.08131963,0.094723634,-0.006271611,0.03425522,-0.1023061,-0.0013322743,0.046617646,-0.04736162,-0.086071186,0.05357536,-0.07085132,0.038520396,-0.0063908207,-0.10457425,-0.09230455,-0.040866908,0.096485354,-0.006635959,0.07444349,0.0028820804,-0.028164688,0.04362985,0.006079211,0.037022308,0.036437854,-0.08188381,0.10011364,-0.09148509,-0.030364554,-0.014443563,-0.058801208,-0.08091283,0.055879906,0.10200848,0.016925737,-0.05834231,-0.065019,-0.020322446,-0.099822596,-0.079327054,-0.033928383,0.051843148,0.085352734,-0.025876172,-0.09793715,0.0017533698,-0.0838172,-0.036734365,-0.065630764,-0.012731177,-0.10507849,-0.10249077,0.023518171,-0.07929706,-0.050547764,0.047298033,0.08989337,-0.06741423,-0.091051534,0.095744364,-0.07781542,-0.06535111,-0.10447686,-0.05892536,-0.01071153,0.07380677,0.015748002,-0.05623571,0.0033714962},
	{-0.030258745,-0.0941648,0.08309281,0.027644977,-0.071835436,-0.028764255,0.09927987,0.06303177,0.09424092,0.102926195,-0.009137551,0.06317148,-0.07962169,0.026810046,0.030516608,0.03416998,0.07056794,0.01682308,0.024468195,0.084167704,-0.026936065,-0.0070228046,0.085196674,0.067564905,0.031840447,-0.1044982,0.03803589,0.064237386,0.041268244,0.054229803,-0.01273132,0.001893971,0.077142864,-0.092890516,0.09875346,0.09873013,0.039583884,-0.09480304,0.026811594,-0.00018347596,0.102318466,0.0116456365,0.045005262,0.085032776,0.07023846,-0.014183075,0.003178909,-0.09605704,-0.086357094,-0.060065277,-0.057320155,-0.0072776605,-0.061302066,0.01017957,-0.06140179,0.08433211,0.08298778,-0.10245732,-0.04987818,0.102980204,0.0012051763,0.05311164,0.03929776,0.016605789,-0.09766616,-0.08795903,0.08365214,-0.10815375,0.03367285,0.10138225,-0.08695611,-0.057183776,-0.0528011,-0.006791882,-0.10807486,-0.07943966,0.08221515,-0.015600074,0.016733496,-0.0020394851,-0.08214795,0.017356388,0.025941832,-0.06930293,-0.054495633,0.0939935,-0.035454225,0.02750927,0.016708862,0.061161052,0.031773128,-0.09505606,-0.010966509,-0.04614673,0.004957446,0.050464842,0.10040857,0.0017866612,0.0074414895,0.030812336},
	{-0.09571023,-0.07985355,-0.07864387,-0.05672623,-0.107487,-0.0740193,0.01818448,0.044509206,-0.09031527,-0.06870673,0.07194723,0.06571196,-0.01476122,-0.032600958,-0.01681655,0.04639098,0.041207604,-0.10741256,0.051431462,0.0046090772,0.08159171,0.09828778,0.060122296,0.032359064,-0.09595739,0.06841916,0.08993976,0.08159668,-0.094096184,-0.02560743,0.04287412,-0.03752488,-0.003938751,-0.08640942,-0.09950331,0.098992795,-0.060213577,-0.036662538,0.0048646266,0.05803027,0.067164004,-0.046308104,0.03075073,0.05428923,0.024960974,0.029023489,0.04467483,0.08308866,-0.04548067,0.05410625,-0.039901603,-0.01163624,-0.06719937,0.018897686,-0.04835739,0.100097805,-0.025381988,0.048268173,0.025933761,0.0667594,0.098770104,0.08396883,0.09399018,-0.0033139274,0.06309026,-0.04710363,0.07393543,-0.024006538,0.054409362,0.067182094,0.041838195,-0.039444454,0.005353991,0.004849405,-0.060198832,-0.07696716,0.0762643,0.038914446,0.086463965,-0.0692024,0.041631173,-0.06618267,-0.04463396,-0.046306472,-0.0032831873,0.029361632,-0.041724656,-0.10626564,0.020144064,-0.10740916,-0.0745606,-0.052365504,-0.02060787,0.019119546,0.0055961744,0.066959865,0.012172555,-0.058118105,0.0827287,-0.03371531},
	{-0.08498919,-0.08046484,0.003259246,-0.09298108,0.103326716,0.05203339,0.093653336,0.08014865,-0.10448397,0.030417407,0.06524653,-0.07412037,0.10453507,0.092238404,-0.0137940375,0.019678311,-0.10455273,0.06111386,-0.024512317,0.07259898,-0.07720345,0.06930804,0.044877518,-0.09865343,-0.10156373,-0.0884941,0.013375947,0.06012832,0.10021712,-0.06648794,-0.025049053,-0.02435067,-0.09684956,-0.013751351,-0.026014138,-0.060042605,-0.10339354,0.03163366,0.09462855,0.017923592,0.0018229438,0.0034282375,-0.07690616,0.08781793,0.051909525,0.104565784,-0.037967276,-0.017397806,0.004311058,0.095727734,-0.022820486,0.0035269016,-0.065219454,0.028248867,-0.050522286,-0.09714995,0.015171559,-0.0117016025,-0.085890606,0.021511689,0.043084968,-0.06333657,-0.019385388,0.03053338,0.09025851,0.01646163,0.09809884,-0.047839098,0.03336653,-0.07272031,0.004534372,-0.061315585,-0.06755933,0.10434125,-0.097722486,0.057394136,-0.059876654,0.047265828,-0.086095996,-0.054642316,0.036422502,-0.09046016,0.04028107,0.04495747,0.060972568,-0.02754654,0.08908599,-0.008465006,-0.050666355,0.10106187,-0.045917068,-0.10685258,-0.02703858,0.074124806,-0.053291637,-0.07020042,0.016064847,0.00031062763,-0.04090049,-0.035387326},
	{0.08207954,-0.07192561,0.09476959,-0.004812456,-0.017752556,-0.033455167,0.028302675,-0.014007861,-0.013302828,-0.0143499,-0.028845746,0.008515611,-0.012141518,-0.075747795,0.094977655,-0.0069757467,-0.05101846,0.06203571,0.03023273,-0.08813447,0.094094306,0.024758423,-0.0834486,0.06283191,0.028848482,0.08861365,-0.02773905,-0.008305435,0.038030602,0.09296152,0.004526006,-0.09826778,-0.062539436,0.06945645,-0.051059704,-0.04073415,0.08611328,0.026823414,0.053321775,0.059457164,-0.056671336,0.0132913785,-0.040576484,0.07973981,0.055127446,0.026282087,-0.010526504,0.05806815,-0.047937684,0.004856968,-0.025080713,-0.009994485,0.061951257,-0.09051609,-0.10270307,-0.061941724,-0.08081773,-0.0884221,0.004950353,-0.03902342,-0.014882096,0.09181228,0.095194764,-0.05889131,-0.021256344,-0.0033470124,0.058444276,-0.08310459,0.09130876,0.022783838,0.025911769,-0.051756337,-0.08786688,-0.1132746,-0.10599461,0.002811187,0.07588945,-0.109630905,-0.08570987,-0.004303059,-0.068902284,0.057936873,0.06264986,0.019682445,0.017391607,-0.09417561,0.059453573,0.014593713,0.023341829,-0.04755599,-0.06842289,-0.046087563,-0.053201936,0.030182514,-0.012436278,0.08886916,-0.09951742,0.07093404,0.009370678,0.052587356},
	{0.061459556,0.065987386,0.09509825,-0.064324126,-0.1008037,0.023847807,0.08744536,0.05431647,0.031874966,0.051374417,0.078531854,0.0076030428,0.015678119,0.061610498,0.008845406,-0.08853081,0.037550155,-0.023950515,-0.02312566,-0.04050442,-0.063720465,-0.07089984,0.040809225,0.0730665,-0.10380149,0.016244737,-0.09694395,0.052748073,0.07110914,-0.06633067,0.023011211,-0.08849092,-0.089442275,-0.013105212,-0.026609704,0.081226476,-0.031081136,0.010675723,-0.09799128,-0.057115205,0.048669998,-0.049334377,0.022597834,0.062089793,-0.062107753,-0.069972664,-0.10954765,-0.059282597,-0.069424115,0.007579198,-0.007007551,0.07937935,0.08247212,0.10243614,-0.028238539,-0.0010710098,-0.016979957,0.012338118,-0.016630737,-0.089307204,-0.01271262,0.05673907,-0.060555678,0.05595586,0.0016149995,0.04130343,0.054567944,0.0851513,-0.10314015,0.017550249,0.013897439,0.054777473,-0.08677737,0.046844743,0.00044152074,0.075582676,0.058404177,0.027094794,-0.008684626,-0.0036458746,-0.03897196,-0.09173154,-0.036623355,-0.030758781,-0.081481226,0.073455304,0.06075309,0.056535903,0.01574046,-0.057324484,0.041499168,-0.012451027,0.090026975,0.07838962,-0.10736459,-0.034999326,0.0038827239,0.021403814,0.09368535,0.08999623},
	{0.051696233,-0.0111202365,0.06441842,0.077154785,-0.095405556,0.005334714,-0.05647547,-0.09788574,-0.08670352,0.085585475,-0.10637486,0.08432511,-0.010522778,0.028411882,-0.00052596873,-0.06755513,-0.03719673,-0.09837489,0.069102384,-0.07433425,-0.08308806,0.08538317,-0.08073948,-0.10588104,0.044174947,-0.0001567017,0.030397158,0.07113544,0.07584036,0.09783906,-0.047576,-0.10437398,0.03863003,-0.07243797,-0.02725255,-0.061872873,0.076228596,0.04419305,0.005477189,-0.09211594,-0.005665178,-0.07932637,-0.06778351,0.060615446,0.029876301,0.01386104,0.09070383,-0.09131465,-0.06832244,0.10552956,0.050378308,0.036142636,-0.10525874,0.08829746,0.057028044,-0.10067666,-0.008850115,-0.043513145,-0.10306273,-0.004132438,0.04306842,0.07351485,0.08048751,-0.045601364,0.09791851,0.036944475,0.09972387,-0.10149341,-0.06493557,-0.022965955,0.07384327,-0.05849839,0.07601815,0.08649071,0.07876919,-0.09641173,0.09995085,0.09225939,0.04463732,0.08084897,0.021605482,-0.046947643,0.011017644,-0.10528773,-0.009184509,-0.09260334,-0.029125424,-0.056024786,-0.024287734,0.010776899,-0.03644174,-0.027515087,-0.047268827,0.09656138,-0.10787318,0.09329772,-0.08818912,0.10487269,-0.09930723,-0.06300148},
	{0.026763488,0.07443493,-0.032982472,-0.024969123,0.022762509,0.06703113,-0.088518776,-0.043814063,-0.04961021,-0.07628865,-0.0066038636,0.047987867,-0.09733899,-0.064232886,-0.06699775,0.087231144,-0.052197535,0.06902907,-0.038599685,-0.024059083,0.04483578,-0.02466474,0.013290357,-0.06798515,0.07747586,0.056547508,0.09467252,0.10448316,-0.047956962,0.08854539,0.06696281,0.09226926,0.032647427,0.029656233,0.008834897,-0.10699207,-0.046686634,-0.09940028,0.010893355,0.07616548,-0.025780229,0.015726203,0.09045256,0.034746137,-0.02504666,-0.050766345,0.017284937,-0.105558276,0.09983857,0.09191927,-0.004851225,-0.1086637,0.01735679,-0.012495908,-0.08832289,-0.04848524,-0.09998128,-0.046304688,0.08737943,0.090891115,0.045500822,-0.10125396,0.10024963,0.011832545,-0.015724827,-0.051652145,0.036719557,0.10150607,-0.10958621,0.03538331,0.10005725,0.029586976,-0.031795513,-0.087542996,0.040940534,-0.039380025,0.10448228,0.032493196,0.08378821,-0.027924826,0.09957571,-0.042466138,0.04395422,-0.009963594,0.022164343,0.10202557,0.0804244,0.028630089,-0.036295295,0.01670248,-0.0970884,-0.10134233,0.008873073,0.012484215,0.015494968,-0.058272995,-0.04083074,0.083710775,-0.07774415,0.086979166},
	{-0.10855428,0.029181154,0.014974161,-0.017562293,-0.09429267,-0.03722397,0.10377845,0.09441703,0.049559567,0.0637272,-0.017741285,-0.06699857,-0.08714589,-0.041947994,0.036256537,0.026224159,-0.015698839,-0.049572777,0.015822727,-0.0013912967,0.097852774,0.03333105,-0.049424358,0.05307382,-0.101368874,0.08523046,-0.054806888,-0.10322532,0.035336126,0.06775717,0.056008402,-0.10384759,0.02432432,0.097227946,0.017965004,0.04592093,-0.05426691,0.10027103,-0.07482287,-0.06501304,0.00087318226,0.095408,-0.08505651,-0.06608922,0.027576251,-0.08716051,0.067444816,0.07261853,0.056170322,0.008465849,-0.020313326,-0.016617008,0.053034287,-0.08401703,-0.10221322,-0.01901672,0.0042589367,-0.016991938,0.014471238,-0.06940017,0.032712378,-0.05622737,-0.095565125,0.09567922,-0.09032327,-0.079251744,-0.083424464,0.10070283,0.008054846,0.069177955,0.014852298,0.08078598,-0.04640144,-0.0033300293,-0.019848067,0.081396215,-0.014321629,-0.054650214,0.08051624,0.04048696,0.054370344,0.05016516,-0.056785606,0.012411222,0.08104221,0.054663144,-0.07205775,-0.106422946,-0.06353079,0.07849309,-0.08249336,0.08400018,0.04600197,-0.034058467,0.1028108,0.10440485,0.105604574,-0.07887069,-0.06580653,-0.10534574},
	{0.053014837,-0.076348536,-0.007917273,0.09343327,-0.10524166,-0.104724295,-0.012900337,0.010285335,0.079419896,0.0905392,-0.025429605,-0.10643164,0.08220042,-0.088189505,-0.07366152,0.05870381,0.053156212,-0.10086708,0.09146656,0.07188271,0.013567859,-0.056691516,0.059361015,-0.0061826725,-0.04303357,0.048305057,-0.016234148,-0.05158238,-0.028911712,-0.002272541,0.02897225,0.013907646,-0.08765563,0.010396164,0.024367768,-0.053440787,0.026626341,-0.0645822,-0.071540505,-0.040519126,0.080519825,0.08534877,0.08705779,0.030205041,0.062074576,-0.10717869,0.025761135,-0.016129363,0.090489544,-0.08618437,-0.027016886,-0.02559537,0.031958498,-0.026661389,0.06288237,-0.014736366,-0.098148145,0.04965844,-0.09122331,-0.08166612,0.09621507,-0.0953991,-0.031364333,0.09197567,0.07262175,0.043675385,0.0517504,-0.09127391,0.06443527,-0.10519255,-0.01536923,0.060296126,0.019750128,0.05341469,-0.0045936834,-0.028959695,-0.06374171,-0.07293503,0.09560369,-0.04965692,0.0125572095,0.013767516,-0.005613954,-0.00067134545,-0.0047238567,0.041997004,0.011058884,-0.014685743,-0.10750304,-0.07673042,-0.03699526,0.015774192,-0.080150045,-0.07192716,-0.09351496,-0.06453044,0.09039134,-0.018404236,-0.023469301,-0.07103377},
	{-0.016919456,-0.09438633,-0.032259412,0.08354944,-0.023129735,0.0847893,-0.011865386,0.0985821,-0.103956,-0.01908112,-0.09563841,-0.08317812,0.05552159,0.024272727,-0.043330923,0.06652493,-0.063302435,0.08830444,-0.08630961,-0.07814051,0.09631143,-0.09234193,0.0729268,-0.04548875,-0.0666045,-0.10566092,-0.06092889,-0.091472134,-0.09211437,-0.04807825,-0.08724587,0.051868465,-0.09543212,-0.029743668,-0.02340187,-0.0028252758,-0.06881374,0.08127546,-0.10021526,0.08635499,-0.038346447,0.104346596,-0.017350458,-0.018232442,0.07726528,-0.0951152,0.09556148,0.010084204,0.00060670427,0.023238521,-0.08542965,-0.031149548,0.014014165,0.08057372,0.041709542,-0.012273673,0.048307404,-0.05756527,0.0034322124,0.06868259,0.013632105,0.046512406,-0.036906455,0.00388934,0.10175819,-0.022993756,-0.07693257,0.0077826,-0.044106357,-0.046372786,0.10225018,-0.06418559,0.057730876,0.04554116,-0.034431662,0.017657502,0.023794945,0.08581992,-0.04166892,-0.09336625,-0.021582821,-0.03936501,0.036425553,-0.047290985,-0.0043495526,0.07899516,-0.091620855,-0.008494881,-0.10836656,-0.004497085,0.0650752,-0.07951133,0.07618874,-0.040393278,-0.049393937,0.085177675,0.07164925,0.037363146,-0.06988643,0.06641636},
	{0.102180496,-0.09280121,0.0071185865,-0.08753065,-0.10715811,-0.035859883,0.04239669,-0.019816782,0.018528303,0.024973178,-0.08228273,-0.052905586,0.08885073,-0.07508068,0.07160088,0.09570517,0.04932312,-0.0075125224,-0.043602005,-0.09666796,0.02192013,-0.08155879,0.013503876,0.058936767,-0.07165874,0.022600885,-0.02114593,-0.06905451,-0.07881898,0.07502507,-0.032119818,-0.047083672,-0.051624365,-0.050178498,-0.038858026,-0.08700892,0.05177239,0.07946027,-0.007620392,0.020119265,-0.00067573594,0.0725896,0.09439567,0.04418884,0.0728333,-0.070035815,-0.0032494427,0.028032478,0.06822548,0.042793635,-0.015157091,-0.06903694,0.07309586,-0.06563323,-0.017175818,0.047957733,0.039371755,-0.004683038,0.09409479,0.067067415,-0.030034104,-0.08148365,0.08129616,-0.003887869,-0.02762559,-0.06875747,-0.038997784,-0.06201749,0.0034738653,0.095937826,0.027457235,-0.06677562,-0.0024124968,-0.008019214,0.06471004,-0.050145496,-0.08905838,0.01565943,-0.09447713,-0.10283585,0.023126593,0.04280159,0.10330154,-0.02710631,0.10488472,-0.004271422,0.09090449,-0.016841635,0.028823998,-0.08275299,0.07635635,0.06868779,-0.06900526,0.04717361,0.014566663,-0.011269592,0.094860084,-0.07026347,0.028217323,0.04580912},
	{-0.031534556,0.062463697,0.10086161,-0.034264117,0.08446668,-0.033427034,0.05675001,-0.05364391,0.046772324,-0.09496018,-0.0070505026,-0.022038756,0.054386977,-0.09205932,0.040569976,-0.06497551,0.069429,-0.06593973,0.011151996,0.06185888,-0.028143074,0.05819406,0.036179557,0.047386874,0.019091021,0.054861184,-0.03544662,-0.04165987,-0.0350974,0.06754517,0.0014489592,-0.014641841,-0.04716347,-0.030920496,0.05310798,-0.049035303,0.020237038,-0.09321655,0.08805801,0.08020816,0.03177667,-0.009211125,-0.010322659,0.0958047,-0.020007871,0.06868366,-0.08338841,0.008976039,-0.09064002,0.01847317,-0.10332655,0.0740959,0.04146803,0.00091189274,0.079242356,-0.0828253,0.030431319,-0.09702038,0.033049528,0.06096775,-0.0815753,0.031302914,0.10071486,0.08402149,-0.035460904,-0.033988945,0.0745228,-0.07187127,0.030051816,-0.029655453,0.011499915,-0.09511846,-0.030108282,-0.05503814,0.046166066,0.03833624,-0.038230672,0.073632136,0.0022305523,0.060504932,0.020788576,-0.037582014,0.09069007,-0.014517504,-0.010427989,0.045723062,-0.0763123,0.026104573,-0.109685265,-0.103608906,0.03227195,-0.048073646,0.03625787,0.007526397,0.010577304,0.02995108,-0.0917279,-3.5449542e-05,0.07601919,0.09927101},
	{-0.07061177,-0.10678884,-0.09822815,0.010870878,0.0013632954,0.08214912,0.02101242,0.08115277,0.019165019,-0.07628884,0.023767576,0.07986414,-0.09579797,-0.089140706,0.021432688,0.06051885,0.03691163,-0.07422355,-0.0249696,-0.039170958,0.05012542,-0.02448955,0.024275377,0.0015204138,-0.07843406,-0.047756102,-0.08742018,0.017928574,-0.04243891,0.083158106,0.03801367,-0.08119104,-0.0501418,-0.014853464,-0.005191112,-0.037493672,0.018614125,-0.054447524,-0.027588697,-0.031639904,-0.09420102,0.0046257856,0.016793719,-0.039389424,-0.081928425,-0.038930405,0.07290693,-0.089030914,-0.024480661,0.054151393,-0.045535974,-0.049189504,0.041590944,-0.09241276,-0.037761997,0.019005166,0.0027743392,0.037188176,0.09429703,0.020435587,-0.0902963,0.026808836,0.015308992,0.02090938,-0.08331716,-0.04381102,-0.03390975,-0.009553774,-0.011262375,0.0914354,-0.016289316,-0.09694215,0.095648594,-0.072518565,0.06990189,-0.04383401,-0.024538489,-0.066515744,-0.027869046,0.014842212,-0.09673843,-0.094052255,0.016531723,-0.047271293,-0.051181115,-0.093677126,0.015035331,0.073708326,-0.016441794,-0.09907072,-0.018425323,0.090824515,0.04523994,0.03219744,0.04175153,-0.07298673,0.04019748,0.09282079,-0.014259116,0.015514109},
	{0.08468191,-0.019191967,0.066757396,-0.022011345,0.06529455,-0.035046402,0.055795603,-0.10013008,0.074068524,-0.0963347,-0.008891683,0.09668541,0.058768436,0.087957285,0.10049155,0.030554436,-0.0059499857,0.0986814,0.10193633,0.07748798,0.0828483,-0.0766491,0.056600213,-0.10450801,0.031978108,-0.059101127,-0.10338571,-0.036199067,-0.056637585,-0.050838288,-0.046740733,-0.07903104,-0.0714212,0.05629034,-0.10442306,-0.06682,-0.07674602,-0.06526518,0.10089826,-0.0062817624,-0.030455288,-0.023274465,-0.09600287,0.046334967,0.050558448,0.058787383,0.09093303,-0.11090144,-0.08633561,0.040831205,0.03578354,-0.07425924,-0.09293877,-0.044210423,-0.03405284,-0.0030254563,-0.088326,-0.04845054,-0.04208981,-0.06288296,0.09853799,-0.085680865,0.061100334,-0.052629806,-0.02822419,-0.0482435,-0.0659709,-0.034110647,0.09030424,0.096020356,0.035781693,-0.010108888,-0.081830785,0.019941892,-0.10917789,-0.026595386,0.012608381,-0.093414485,0.0015362445,0.076093204,0.015325483,-0.10775494,0.07747972,0.08417305,0.017965421,-0.052631438,0.0014540963,0.038672555,0.100679584,-0.008797011,-0.065258525,0.044298716,-0.0343954,-0.094895065,-0.077352844,0.031673245,-0.076346524,0.03319732,0.01985846,-0.024720984},
	{0.028448932,-0.08051883,-0.0744366,-0.008672054,-0.032828573,0.052981753,0.044433396,-0.07551153,0.023123752,0.08546468,-0.103788756,0.08210554,0.035595357,0.025716795,0.04988065,0.049180485,0.08060431,-0.09127118,-0.048777226,0.09006073,-0.024093252,0.08395631,0.06293636,0.0883205,0.048220295,-0.084516615,-0.047711782,-0.098796815,0.040701766,0.074257396,0.058268376,0.053000703,0.00794319,-0.0045431955,-0.09168611,0.05545262,-0.034730647,-0.08378383,-0.07133513,0.0846104,0.09624774,-0.009233262,0.014777152,-0.055695288,-0.10703308,-0.07518134,-0.07030549,-0.040395174,-0.01974134,-0.107010566,-0.06791861,-0.09369671,-0.02435392,0.02907528,0.07827318,0.09719053,-0.0023542957,0.03236401,-0.015031773,-0.083113775,-0.054431662,0.075845,0.020396952,-0.03266569,0.030501958,0.04157728,-0.06756672,-0.058156617,0.020192264,-0.023872284,0.092206754,-0.07415154,0.048126463,0.006090923,0.07709016,-0.09378394,-0.08546362,-0.09678369,0.10116935,0.089335084,-0.029171472,0.08558124,0.0061703715,-0.046934612,0.04978214,-0.06601066,0.04213922,0.09290236,-0.048628747,0.08519714,0.09224107,-0.0033662186,-0.09687955,0.07935589,0.0714577,-0.035494395,-0.0048317434,0.09190142,-0.023301585,0.072857276},
	{0.019466655,-0.11262369,0.07829206,-0.009606404,-0.00834875,-0.08887729,0.070619896,0.034534425,0.06070256,0.012051629,-0.012513292,0.015255442,0.04507005,0.04116276,-0.03136949,0.097321965,-0.035382017,0.018910933,0.020949757,0.05792296,-0.021597346,-0.08312595,-0.018120406,0.073822975,0.100301385,-0.09528489,0.047562037,0.07570477,0.051637918,-0.010509147,-0.08678525,0.10300384,-0.027313503,-0.003351896,0.0061784755,0.012648834,0.0921438,0.074072585,-0.11072209,0.054735467,0.034347937,-0.010755452,-0.009517746,0.07409057,-0.047421053,0.05628037,0.055210352,-0.11149025,-0.057930943,0.04137746,0.031054871,-0.08940597,-0.057344165,0.061081044,-0.027185818,-0.04962083,-0.053916734,-0.10938204,0.09238435,0.020253865,-0.087557256,0.06974531,0.07337178,-0.10616025,0.08208573,0.07653676,0.052418746,-0.025636911,0.056340408,-0.010193484,-0.08163557,0.09681124,-0.042625844,0.027164122,-0.020775596,-0.02477421,0.09942171,-0.027412834,-0.047467124,-0.082590744,-0.026596721,-0.0021111686,0.07674552,0.025916552,0.032440715,-0.103912234,0.06367781,-0.07803513,-0.048937507,0.037664212,-0.018270737,0.009857448,0.04541392,0.019008426,0.019751955,-0.07095791,-0.06799258,-0.06364715,0.09845892,0.08574639},
	{0.0714014,-0.09845427,0.09136886,0.07496789,-0.089392,-0.06940914,-0.052382454,0.09420179,-0.10509013,0.07076872,-0.04218329,-0.08672129,-0.09167048,-0.05681228,0.040782295,0.0854646,-0.097538926,-0.01182378,-0.07690354,-0.06938807,0.07834298,0.066059895,0.057575878,0.059459362,-0.035701916,-0.0469711,-0.040657803,0.06683356,0.0082154535,-0.0296187,0.08353978,0.097393684,0.0030451957,-0.06365717,0.06147981,0.0787046,-0.062201004,-0.011906023,0.019535316,-0.030625304,-0.07871613,-0.06352236,0.06766015,0.040387988,0.09248751,-0.013914623,0.10242831,0.100600645,-0.05224642,0.03936003,0.00946379,-0.10410395,0.038716312,-0.10399745,0.0975135,-0.006291043,-0.09314317,0.07136848,0.020166967,-0.09291162,0.04814993,0.05542435,-0.039662488,0.058690827,-0.0010902776,-0.011028026,-0.08758691,0.0916363,0.058107737,-0.05077251,0.017656004,-0.031150099,0.0008241205,0.044548534,0.0774311,-0.06369605,-0.0074900924,-0.049395345,-0.004961749,0.04595946,0.06838088,-0.02698116,0.041698746,-0.0009277307,-0.07020224,0.027770974,-0.018341552,-0.05887902,-0.051372863,-0.08610574,0.030953739,0.070975594,-0.08531585,0.008777531,0.030355066,0.099268965,-0.014817302,-0.049877174,-0.0018900436,-0.103531346},
	{0.0017398541,-0.103050984,-0.07638929,-0.030438704,0.056298498,-0.0034080555,0.01756401,0.032869484,-0.09469667,0.014057506,-0.10406454,0.042485245,-0.048060436,0.013078032,-0.09429632,-0.09011445,-0.018528309,-0.09741387,-0.06978442,-0.05636689,0.09992977,-0.006211553,-0.0754152,0.09813692,-0.05024064,-0.05820533,-0.040184863,-0.054086737,-0.00039389724,-0.016308967,0.036634173,-0.014558756,0.092134975,-0.059009794,0.044298597,0.039833814,-0.04156582,0.06454066,0.05559737,0.08528881,-0.0676697,-0.098294765,-0.06759358,-0.027388366,-0.09731311,-0.0034333826,-0.08188502,0.08795786,-0.024865184,-0.06452587,0.06978364,0.009206036,0.010628473,-0.108808696,-0.03786486,-0.09979937,0.046618298,0.086729854,-0.05977382,-0.094349794,-0.026895944,-0.0249747,0.008081177,0.07935581,0.08979833,0.052320663,-0.049111582,0.07545897,-0.022267578,0.06412448,0.054970782,0.04267003,-0.06771222,0.006457662,0.046840314,0.054734197,-0.020726567,0.03340176,-0.09977944,-0.0986719,0.049396772,-0.014798125,0.0021786229,-0.10970952,-0.07402699,-0.028414784,0.00034432334,0.053228438,-0.032601852,0.06388786,0.050773535,-0.032716356,-0.049523693,0.100343145,0.0151929865,0.08852679,-0.031937115,-0.08353867,0.015965769,0.094543666},
	{-0.082712725,0.014263116,0.104031,0.10591429,0.06503761,0.012088236,-0.09279622,-0.042714324,0.09932974,0.08598678,0.008856618,-0.09196746,-0.013947015,0.07315358,-0.0115876375,-0.10711064,0.031799324,-0.04741485,-0.008158653,-0.024135325,-0.043222662,0.034590364,0.07194389,-0.054255206,-0.014389017,-0.08065095,-0.028620338,0.10472737,0.08712515,-0.065880805,0.015525179,0.073202655,-0.08451712,0.09683431,-0.09484412,0.044529557,0.10179308,-0.08144232,-0.059022512,0.03451953,-0.0230342,-0.015514843,-0.09219615,-0.03643046,-0.027272265,0.10094542,0.020404976,0.106344335,-0.031008879,0.034161765,0.020475328,0.030100016,0.0072139376,0.03634973,0.09230979,-0.09474916,0.027457653,0.081023715,-0.0831063,-0.10098278,0.011779517,0.050525796,-0.105900176,0.10066172,0.026833313,0.08649842,-0.0134079,0.053555075,-0.026551155,-0.08270058,-0.091615535,-0.0029762692,-0.011394286,0.07401188,0.07450369,-0.0360334,0.096214496,-0.08252128,0.10141434,-0.043567795,0.025265295,-0.009571136,0.0780179,0.10221119,0.052319225,-0.01544241,0.06302824,0.009458808,0.013143727,-0.09850599,0.06955558,-0.02842335,-0.09036353,0.079897486,0.07238984,-0.04763155,-0.0008093035,0.006560497,0.015016032,-0.049977854},
	{-0.007644495,0.0632175,0.017371384,-0.0011298378,0.09445586,0.061485697,0.045755908,-0.0066905697,-0.054713294,-0.05278558,-0.110251375,-0.08781943,-0.0001255713,-0.038284462,-0.019809837,0.101625375,0.053896092,-0.07474014,-0.03197134,-0.0444129,-0.108135015,0.06954102,-0.0033527883,0.060096174,0.055989597,-0.090646945,0.0025778515,-0.006879822,-0.054883502,-0.022534054,0.046020966,-0.04938301,0.0071570585,-0.002689269,-0.028199488,-0.033939667,-0.0042992206,-0.031290688,0.03135553,-0.031830363,-0.066252574,0.057482313,-0.0028248718,-0.089151636,0.013246607,0.09271379,0.03228608,-0.07039517,-0.020871116,0.034009278,0.064355455,0.023065265,0.067204915,-0.044996295,0.056879997,-0.07605638,-0.039658107,0.04604651,-0.058623917,-0.077184,-0.108290516,-0.076019086,-0.07936473,-0.040882144,0.027618337,-0.06658959,0.024174197,0.07399596,0.098962955,0.0016374922,-0.043426406,0.09022966,0.0008651114,0.076648474,0.061602134,0.036936384,-0.08466745,-0.105673306,-0.09565008,-0.028075712,-0.06706867,-0.045489755,-0.03715974,0.08438713,-0.03604186,-0.030842105,0.031333424,-0.03597165,0.04304509,-0.020790944,-0.0960859,-0.018692095,-0.032528218,-0.10394512,0.0762225,-0.08334605,-0.08393142,0.022219593,-0.032483943,0.015971165},
	{-0.10047556,-0.10625696,-0.040365037,0.041620173,-0.007443672,0.056786492,0.0038958467,-0.05297201,-0.06459567,0.07078046,-0.045591388,-0.06778971,0.091487795,-0.011123455,-0.07975142,-0.008766748,-0.05645909,-0.06242258,0.023607096,-0.023553012,0.028659163,-0.06135206,-0.05206669,0.09975486,0.06819836,0.0003275149,0.015253649,0.10091217,0.014186944,-0.075098,-0.098011866,-0.03944867,0.067006424,-0.018247245,-0.062496904,0.10323698,-0.023727793,0.062072687,0.043273505,0.001663346,0.06633216,-0.028392585,-0.07571359,-0.021252578,-0.026158905,-0.10409534,0.010248254,-0.09139689,-0.09429272,0.07387456,-0.0855513,-0.031397086,0.09829357,-0.052860502,0.027382802,-0.104400784,-0.039962105,0.017738646,0.029317174,0.05959813,0.1030606,0.05008023,0.056572013,-0.07334141,-0.05812052,-0.008840095,-0.002102212,0.018517055,0.042485625,0.054224763,-0.042075254,-0.02026968,0.10145782,-0.07139038,0.048442885,0.025225181,0.013723542,0.0261374,0.09469757,-0.05010444,0.031796083,0.05682466,-0.055733442,-0.10377651,-0.011953501,-0.08486972,-0.10626504,0.048574254,-0.099183954,-0.0324413,0.012967696,0.042883154,0.086247094,0.028596148,0.09677275,0.0058131567,-0.088625796,-0.085778825,0.0131875975,-0.03753848},
	{-0.07082514,-0.0063964613,0.043674912,0.088322684,0.090987615,0.027301999,0.049725175,0.09782294,0.101837784,0.0578166,-0.1059066,0.07994394,0.034050897,0.021634735,0.028929146,0.03564906,-0.054931387,0.0037687544,0.057241883,0.090380594,-0.059614543,0.024737038,0.044975076,0.09281247,0.0070977416,-0.020217549,0.06194693,-0.057275232,-0.006876622,0.0861944,-0.05538019,-0.0761838,0.03232915,-0.022165993,-0.05357647,0.024800899,-0.0065833568,-0.08004986,-0.013726827,0.09671271,0.0034005381,-0.053458955,0.006802019,-0.028772255,-0.06916532,-0.105114795,0.021300616,0.052421045,-0.08843419,-0.053276714,-0.03792528,-0.034526337,0.03505055,0.035045534,-0.036521427,0.015221327,0.02499263,0.076259226,0.10337315,-0.09117286,-0.09539966,0.08776336,0.008528243,-0.039293583,-0.08848837,-0.096698016,0.08242037,0.0013338252,0.026670033,-0.031713154,0.08751097,0.06372247,0.035252277,0.077697285,0.08159474,-0.007727194,0.048898067,-0.06387758,-0.039020173,0.06406829,0.0645075,0.06993091,0.036445048,0.06209345,-0.03331291,-0.05675107,0.093675345,-0.074353635,0.057626303,-0.099567756,0.027878447,0.041418113,-0.08874995,-0.06737753,-0.101635754,-0.05465539,-0.09997625,-0.073737055,0.098551065,0.018152226},
	{-0.044819083,0.07895457,0.08533308,0.012848982,-0.07391986,-0.07948441,-0.08309735,0.01999377,-0.08124576,0.040189996,0.07703218,-0.07677051,-0.06194255,-0.09415679,-0.10142722,0.086458474,-0.04354769,-0.0019697885,0.04979015,-0.009728128,-0.0011809081,-0.036214367,-0.06069912,0.0517603,-0.07483025,0.08759955,0.030420046,0.09073946,0.085747704,0.09608686,0.07595977,-0.10961814,0.07762103,0.08657409,-0.018149475,-0.0858001,-0.09963954,-0.04596269,0.098854244,-0.10576837,0.075383395,-0.07920324,-0.039751343,-0.03619939,-0.07990384,0.041701045,0.03168573,0.0168816,0.07981953,0.09130064,-0.059544306,0.046193007,0.04449211,0.041050848,0.09294998,0.0029254048,-0.014441197,-0.027833948,0.055706363,0.08274085,-0.030438852,-0.052958723,-0.015830906,-0.10331951,-0.062056437,-0.03214993,0.08308318,-0.08589491,-0.058942072,0.042121686,-0.0369102,-0.09541482,-0.042676117,0.05818474,0.028716035,0.07097056,-0.018244945,0.063245215,-0.027303487,0.0091640875,0.042536832,0.10000726,0.06721837,-0.007086014,-0.06528691,-0.05434936,0.08542496,0.018839136,0.04927896,0.04565745,-0.10621749,0.054751944,0.0056264903,-0.031124964,0.03913937,0.0064990455,0.01712643,0.05921186,-0.04837403,0.011886889},
	{0.048218418,-0.06480627,0.013109282,-0.02920971,-0.09770727,-0.10655786,0.063934125,0.028952457,0.006337013,-0.027180398,0.0027719701,-0.04184281,0.043281432,0.07548848,-0.08332359,-0.04637112,-0.11340471,0.09223374,-0.061701015,0.08195729,-0.05434015,-0.052767985,0.033292636,-0.057460453,-0.08609094,0.04155172,0.09028026,0.094561026,-0.096654534,-0.033283547,0.02201233,-0.09971673,-0.042597573,-0.0026915178,0.05806972,0.09249761,-0.020451266,-0.077883095,-0.084022455,-0.08355956,-0.033775054,0.088743515,0.105022356,0.084333375,-0.06069277,0.06632283,-0.015298226,0.07819634,0.031071506,-0.087061055,-0.10062949,0.0060868035,-0.104989775,-0.105256565,0.052664988,0.00501681,-0.03178697,0.04799961,0.017502325,0.10192682,0.004700083,-0.11339345,-0.078494735,-0.08228089,0.026038129,0.08417461,-0.07425788,-0.08820708,0.037440337,-0.029386422,-0.08630388,0.10486085,0.00799268,-0.014123408,-0.016678672,-0.071919434,0.09244192,-0.11117807,0.053637464,0.010152646,-0.072901465,-0.08515854,0.09751196,0.06388718,0.04774597,0.09962197,-0.032846432,0.00787041,-0.07400555,0.025640788,-0.09995629,0.090664275,-0.06361949,0.07296481,0.032703206,-0.10826848,0.0916783,-0.028499965,0.037548237,-0.07941225},
	{-0.0805894,0.028377222,-0.03650766,0.013724021,-0.023278397,0.07228302,0.02722484,-0.10560081,0.08480782,-0.0890626,0.060951743,-0.08334653,0.03092398,-0.0229289,0.046234842,0.03078293,-0.022187516,-0.04880448,-0.082276866,0.058707107,0.05107638,0.04093013,0.054213516,-0.090686135,0.0015021692,-0.086903445,-0.0009176322,-0.019279921,0.038133293,0.03900284,-0.09652931,-0.031510998,0.08457099,0.09944077,0.060464855,0.038261216,0.06799548,-0.10236046,0.00989571,0.055216063,-0.09692821,0.04202832,0.10353621,0.031623278,-0.039504137,0.04953573,-0.06637332,0.088534005,-0.018627819,-0.012337969,-0.02179296,0.0022194826,-0.020230101,-0.0396137,-0.031684346,0.054315947,-0.060755122,0.0033320053,0.02246419,-0.043458626,-0.0011558059,-0.10970857,0.037950467,0.078584425,-0.03443622,0.04594246,-0.06550441,-0.028623868,0.073008165,-0.0899125,0.07110665,-0.015301878,-0.028753335,-0.056232665,-0.037175555,0.040557053,-0.047781523,0.052276053,0.0574661,-0.0667885,-0.047892705,-0.016169794,0.095842354,0.07142501,-0.11060029,0.0736081,-0.05593907,0.050664883,0.044515457,0.041545846,0.08626284,0.05054055,0.093875036,-0.08654566,0.022605544,0.077904165,0.10682959,-0.033606794,-0.0135761835,-0.0773079},
	{0.08236058,0.07968073,-0.0066924505,0.01237019,-0.048883792,-0.08311557,0.09238289,-0.008932975,-0.006365818,0.06275255,-0.08517046,-0.10379556,-0.061305977,-0.06682096,-0.064859316,0.06507936,-0.10830372,0.07368806,-0.052648295,0.026683755,0.062555194,0.010071395,0.018141594,0.028224107,-0.017714646,-0.08556055,0.0764691,0.06701391,-0.098271005,-0.009803456,-0.0136455055,-0.06554303,0.0041202977,-0.07766027,-0.038562063,-0.0821694,0.056050874,0.0830626,-0.02783952,-0.014974035,-0.07516495,-0.022906061,0.040324245,0.08027576,0.0075080255,0.10344352,0.034632165,0.007553043,0.10239764,0.0527838,0.08186508,0.02140383,-0.03400936,0.102524035,0.06994023,0.09680235,0.05527721,-0.04464299,-0.008584135,0.033426616,0.031324733,-0.02423192,0.054484475,0.070079334,0.098339446,-0.05055824,0.026284657,0.056934107,-0.058319863,0.0069440934,-0.008047434,-0.050613724,0.009679679,-0.072028525,-0.07084836,0.039133877,-0.036040187,0.05890954,-0.08412027,0.020034462,0.045419455,-0.04291156,0.09964184,0.06799219,0.024990173,0.042705104,0.05234858,0.024737032,-0.023333877,-0.0948398,0.045867946,-0.042150676,-0.07134835,-0.029139899,-0.06277299,-0.08643961,0.079614945,-0.07287037,-0.034651507,-0.012954697},
	{0.08930554,-0.051982205,-0.07486034,0.06140921,-0.025246609,-0.020376807,-0.002501718,-0.08843703,-0.059190307,-0.10158985,-0.028600253,-0.00401572,0.012126034,-0.082150646,0.011696029,-0.016649704,-0.08352106,0.0765512,0.0037093605,-0.02640665,-0.02188948,-0.03733354,0.093961485,-0.086404994,0.07112138,-0.03835198,0.00062467845,0.071565896,0.1053147,-0.07044217,-0.021695416,-0.041960657,-0.087846965,-0.07577412,-0.06690071,-0.032171924,-0.07353977,0.05467582,-0.046951327,0.07171377,0.021471411,0.041182596,-0.0152764935,-0.05614838,0.033078637,-0.035708386,0.04893252,0.053155992,-0.023240678,-0.004617398,-0.087329,-0.03593561,-0.031640172,-0.0393488,0.0034212063,0.020770945,0.0050391867,-0.018576145,-0.098830394,0.109103866,0.098103255,-0.005983621,0.05911896,-0.074738055,-0.0480217,-0.06596598,0.072766,0.07605126,0.034977008,-0.09141464,-0.0026521897,-0.090210654,0.09746366,-0.10237063,-0.011158129,-0.083714314,0.10023476,-0.03164455,-0.10394709,0.044435497,-0.0026977668,0.03595856,0.06015424,-0.043075744,-0.031790003,0.07309817,0.04253357,-0.10251697,-0.021460641,-0.05967287,0.018662987,-0.07188309,-0.05381383,0.103666954,0.08394252,-0.10071808,0.0021068666,0.05993919,0.02170044,0.02496613},
	{-0.050557595,-0.06402535,-0.0124450745,-0.06422249,-0.084121756,0.062006682,-0.09601377,-0.0035169227,-0.07560165,0.086186476,0.09825994,-0.09672675,0.0035364982,0.08286779,-0.04092189,0.023938572,0.09685979,0.033120234,0.032737833,0.025447395,-0.047318272,-0.04328756,-0.010831847,-0.073691204,0.062266454,0.04583262,0.013073546,0.04442073,0.018283343,-0.04394388,0.0648821,0.012834443,0.047793847,-0.084637664,0.037716504,0.04629172,0.01756755,-0.009413544,-0.07626116,-0.077766635,-0.020594249,-0.0048096944,0.025605844,0.035760723,-0.106399074,-0.08236347,0.025053693,0.045954004,0.033017736,-0.1101901,0.06514938,-0.041832637,-0.10176338,-0.01414056,-0.07761637,-0.11060404,0.006105754,0.08544259,-0.056774132,0.10215523,-0.06808999,0.03945663,-0.00764729,-0.024464903,0.058769938,-0.019401075,-0.011226362,0.06894888,-0.029337592,0.09969664,0.041907858,-0.042437322,0.060158502,0.049899824,-0.0014061907,-0.0643349,-0.06282177,-0.01119956,-0.083602734,0.08591115,0.069126956,-0.09986824,0.048556693,-0.0010917295,-0.02446854,-0.09104912,0.022818856,-0.1020972,0.030104032,0.06092199,-0.06567907,-0.09223246,0.0459993,-0.09561482,0.011910489,-0.07571748,-0.04279394,0.0858159,0.053996596,-0.0065878285},
	{0.067470364,-0.07871156,-0.06534539,0.09692589,-0.031282265,0.05320961,0.04004638,-0.07552048,-0.08259239,0.07541123,0.09180796,0.041958246,0.0548432,0.03485206,0.032512173,-0.10228485,-0.081465624,-0.07738545,0.05928903,-0.09572879,0.021433821,0.012153951,-0.05754181,-0.021891987,0.020877486,-0.04108706,-0.10709835,0.0839404,0.095114306,-0.0333575,0.021935593,0.058047265,0.058422767,-0.060293455,0.06267048,0.009321594,-0.059775397,-0.059981696,-0.07822093,0.10208156,-0.08186613,0.08831958,-0.104325585,-0.03218763,-0.0941188,0.037506886,-0.04062445,0.09013562,-0.03533096,-0.10066466,0.07430542,-0.05696609,-0.10129767,-0.006536736,0.070250295,0.08338874,0.01709947,0.0069955746,-0.092419766,0.09557203,-0.055452142,-0.055461917,0.07892227,-0.055857394,0.029182872,-0.05780556,-0.096953206,0.048335675,-0.06481628,-0.043776352,-0.038533725,-0.09420581,-0.075114086,0.025267145,-0.015018461,0.07859269,0.036640383,-0.10309271,0.09159394,0.008914637,0.058574405,0.019413436,0.03814866,-0.04781588,-0.048207242,0.10378643,0.06211529,-0.06619042,-0.0590374,0.08077972,0.0051507493,-0.091001496,-0.033452876,-0.08748371,0.020129682,-0.011159764,0.08233349,0.10349867,-0.008564288,-0.05206565},
	{-0.0073848604,0.078943975,-0.00029253747,0.07071893,-0.01337251,0.018094504,0.027861211,-0.04717032,-0.10095865,-0.033112276,0.08700025,0.09461876,-0.0035960814,0.07475941,-0.06566865,0.087462604,-0.10797699,0.10093489,0.030163042,-0.055165228,-0.08364606,-0.03490081,-0.07664662,0.00090848096,0.085353516,-0.10691828,-0.05788426,0.029115517,0.08271699,-0.034687314,0.09557508,0.09461177,-0.099213526,0.080098934,-0.033862177,-0.059989445,-0.059861157,-0.027909162,0.052494567,0.0121116815,-0.09815676,-0.07924703,-0.087066695,-0.041420802,-0.065032005,-0.04855717,0.10121555,-0.07437357,-0.07209762,0.035878774,-0.09035369,0.07774987,0.042740583,-0.004439341,0.02804293,0.087084025,-0.10524454,0.0875683,-0.08605291,-0.05460244,0.09982637,0.053309917,0.08147988,0.09994575,-0.08595043,-0.02188478,0.04529219,-0.03802268,0.08381757,-0.076444924,-0.055409722,-0.097942784,0.0943093,-0.052178428,-0.057958122,0.0918786,-0.034588676,-0.10026092,-0.014751473,-0.07344365,0.07862977,0.086555675,-0.08521702,0.08149957,0.062359404,-0.047199234,-0.040610485,-0.10743017,-0.079171784,-0.04207275,-0.009340307,-0.10699972,0.08402932,0.033902105,-0.10432477,-0.06957121,-0.036579628,-0.0875949,-0.09722531,0.10272601},
	{-0.035191372,0.07470722,0.08466125,-0.02817255,-0.06287881,0.036130343,0.061122008,0.07387288,-0.03674227,-0.0985755,0.10207742,0.013124569,-0.06442962,-0.060346942,0.10140184,0.049758673,0.08510796,-0.053515486,-0.09696252,0.086235896,-0.09315357,-0.08207399,-0.03963726,0.08444884,0.028783785,0.009729861,0.07747067,-0.10808544,-0.03791319,-0.015693193,-0.07469454,-0.020222256,0.04777296,0.094721824,-0.050710887,-0.09701928,-0.0035738507,0.07764503,-0.056015037,-0.0021973464,-0.0040611383,-0.07340144,-0.03740017,0.061859064,-0.0074882605,0.08168903,0.10428518,0.005357703,-0.08736457,-0.08107877,-0.005350694,0.07041876,0.041438133,-0.08924595,0.07756233,-0.02395113,-0.01546886,-0.08137216,-0.103373855,0.07970199,-0.016026013,-0.10681593,-0.10352301,0.06805607,0.08485732,-0.067884356,0.030084914,0.010123396,0.102010645,-0.1004315,0.07580712,0.06347101,-0.07639673,0.024953395,0.0030401433,-0.005220922,0.07793776,-0.10070854,-0.0046994225,-0.024975434,-0.0010809863,-0.03764836,-0.07187492,-0.04922663,0.00094086037,-0.08874521,-0.08895715,0.060058225,0.10223923,-0.09885487,-0.071302794,0.010101307,-0.030545542,0.080569535,-0.013236485,-0.06941864,0.076483086,0.025760258,-0.02218545,-0.023973148},
