// include/conv2d_7314_weight.h
// sergio rivera 
// 2020/02/14 16:43:26 

const float conv2d_7314_weight_p[3][3][4][4]=
{
	{
		{
			{-0.071977,-0.23213206,-0.108357154,-0.12124101},
			{-0.055860337,0.0043140776,-0.22391374,0.17363295},
			{0.03897521,0.14018382,-0.11336187,-0.22841182},
			{-0.13800402,0.26389688,0.07601039,0.0074358056}
},
			{{-0.22364233,0.07405319,-0.10078906,0.19700964},
			{-0.11647146,-0.14536823,0.17777334,0.060513724},
			{0.13372709,-0.059401818,0.25390658,-0.19867939},
			{0.13591921,-0.027068367,0.13254525,0.052372403}
},
			{{-0.27214321,-0.024802394,-0.27880687,0.106575534},
			{0.18967436,-0.06213357,-0.21911849,0.19778246},
			{0.2264293,0.28754473,0.098856315,0.15984367},
			{0.08803821,0.25617862,0.092534415,0.17651571}
}
},
			{{{0.12536287,0.20259927,0.19916601,0.1170701},
			{-0.28844127,0.14285272,-0.0458718,0.19326326},
			{0.16397789,-0.16952336,-0.23071016,-0.14473364},
			{-0.28160506,-0.12673993,-0.021530926,0.16909449}
},
			{{0.13168712,-0.0996423,0.04915627,-0.02870985},
			{0.17938593,0.04877884,0.045888547,-0.2834292},
			{-0.038259044,-0.042965107,-0.054994352,-0.029645247},
			{-0.049655057,-0.15896936,0.20448507,0.2451341}
},
			{{0.077805005,0.19241102,-0.275774,0.18950771},
			{-0.28292814,0.19432624,-0.07765235,-0.08133711},
			{-0.1715405,-0.18421729,-0.1392693,-0.0550222},
			{0.2798639,0.23026201,0.23743077,-0.016885493}
}
},
			{{{0.08990932,-0.010183707,0.18922973,-0.21817164},
			{-0.09485326,0.010099595,0.100383185,0.07071755},
			{-0.25245425,-0.19013456,-0.22659662,0.07165385},
			{0.1763378,0.057325546,-0.27178738,0.14909828}
},
			{{-0.06207848,0.060569562,-0.06309663,0.27314985},
			{0.18405929,-0.08359338,-0.27450398,0.1592977},
			{-0.28553307,0.24306563,0.1842687,-0.15601088},
			{-0.1820983,0.2552671,-0.042736195,-0.15347046}
},
			{{0.0177581,0.050693795,0.10233283,-0.120740645},
			{0.050154172,0.03764378,0.27018198,0.118571736},
			{0.23300762,0.16362394,-0.033817798,-0.079857185},
			{-0.23663409,0.10576218,-0.07573871,0.041994516			}
		}
	}
};