// include/conv2d_15_weight.h
// sergio rivera 
// 2020/02/14 23:20:15 

const float conv2d_15_weight_p[3][3][2][4]=
{
	{
		{
			{0.2964807,0.32416192,-0.163632,-0.30473632},
			{0.32287297,0.09795222,-0.09852831,0.30883732}
},
			{{-0.33126754,0.18092409,-0.0208067,-0.09418225},
			{0.09579602,0.089818865,0.061368614,-0.10963258}
},
			{{0.21912673,-0.1352044,0.2303591,-0.009658664},
			{-0.038236946,0.08087015,-0.066845566,-0.10479936}
}
},
			{{{-0.08660214,-0.19233322,0.20799646,-0.2693096},
			{-0.15979338,-0.3131973,0.28689304,0.2366251}
},
			{{-0.2577123,0.034981817,-0.24754643,-0.06678033},
			{-0.1757636,0.13135067,-0.013912827,0.20079413}
},
			{{-0.1225919,0.23333552,0.11320487,-0.0446302},
			{-0.029534489,0.12621498,-0.18411994,-0.15894127}
}
},
			{{{-0.011781603,-0.29481673,-0.1333189,0.22684678},
			{-0.19675231,0.18897477,-0.3114283,0.30960408}
},
			{{0.25111595,-0.22772226,0.1104168,0.248355},
			{-0.00423041,-0.07978162,-0.2910789,0.08871165}
},
			{{-0.16355292,-0.11246991,-0.25311613,0.2275742},
			{-0.11216991,0.2662615,0.18849126,-0.1761795			}
		}
	}
};