// include/conv2d_640_weight.h
// sergio rivera 
// 2020/02/14 22:15:41 

const float conv2d_640_weight_p[3][3][9][14]=
{
	{
		{
			{-0.044121794,-0.11061429,-0.03191811,-0.08263496,-0.072503075,0.103012,-0.06183263,-0.032790627,-0.1355669,-0.04960386,-0.031750046,-0.16817348,-0.06635566,0.10264815},
			{-0.0417962,0.02358071,-0.041462634,0.02501943,-0.041163124,-0.12313249,0.08392287,-0.03766194,-0.15360315,-0.15976253,0.01661574,0.03585316,-0.098178424,0.12540036},
			{0.08457877,-0.13508105,-0.08791422,0.044230793,0.15983517,-0.13467403,-0.046868764,0.03555046,-0.07989536,-0.1486016,0.16668041,0.14153203,-0.13942493,0.06350395},
			{-0.086769335,0.15958288,0.0054036677,-0.0039501423,0.11066673,0.033554062,0.14868975,0.027154326,-0.06490636,-0.08848545,-0.12321106,-0.0963665,-0.1144041,0.16859093},
			{-0.08665469,-0.09630641,0.1599853,0.035033792,-0.015320301,-0.14833012,0.056971762,-0.1541401,0.092363544,-0.008857458,-0.09980056,-0.05125089,-0.084767304,0.022429256},
			{-0.00843693,-0.032887116,-0.15587616,-0.058634438,-0.0346048,-0.17017326,0.094598144,-0.0801009,0.09039967,-0.11460901,0.11766522,-0.14326115,0.010934835,-0.11273914},
			{-0.14278933,0.04112897,-0.021259747,0.15013893,-0.10739557,0.095828526,0.079581454,0.16774087,0.12358024,0.14006336,0.10707431,-0.053590763,0.15594932,-0.015272391},
			{0.056434873,0.05980908,0.06284935,-0.09836052,0.010962207,-0.074969485,0.08587043,0.09488689,0.06599425,0.14139044,0.05974228,0.064358376,-0.15198179,0.098387256},
			{0.051046815,0.03899883,-0.042887025,-0.08290662,-0.10983754,0.07544653,0.14481783,-0.0032046153,0.09772289,0.04373232,0.029852046,0.15929995,0.13737774,-0.08010571}
},
			{{-0.057801295,0.15817355,-0.11813678,0.132316,0.08520068,0.10056872,0.08531861,-0.055140626,0.13165195,-0.12410081,0.0626754,-0.03947912,-0.14517902,-0.060398392},
			{-0.11260932,0.11877658,-0.05517748,-0.04774769,0.0093155205,0.0033900538,0.102445334,0.0739427,-0.03231968,-0.0030439347,-0.12902814,0.06437762,-0.0793992,-0.14353998},
			{0.017980734,0.13019592,0.112237394,0.094093546,0.10092349,0.1337147,0.07169107,-0.098840564,-0.027122263,0.051534656,0.09600019,0.16355762,0.038056515,-0.13396971},
			{-0.1432026,-0.084239505,-0.051663794,-0.015716374,0.154396,-0.11348474,-0.11709004,-0.018263612,-0.14436512,0.09304844,0.15848438,-0.13716653,-0.06416707,0.04024449},
			{-0.015946893,0.038554754,-0.046093635,0.113668874,-0.14514004,-0.12693997,0.053268235,0.007210293,0.15366082,-0.11513196,-0.07762986,0.08211129,-0.1509339,-0.050989684},
			{-0.12526456,0.08698397,0.12072751,-0.023151822,-0.16148962,-0.003519801,0.0011903867,0.03530537,-0.04551006,0.13407828,-0.014452386,0.02673016,0.12274948,0.041282028},
			{0.072378,0.12295167,-0.007586472,-0.07638552,-0.118499324,-0.12002941,-0.055904977,0.10419038,-0.03961474,0.057758823,-0.11059756,-0.01222052,0.16796796,0.14526151},
			{0.12862466,0.12037938,-0.11233409,-0.1123957,0.03325212,0.08460041,-0.116684236,0.024186045,-0.076977514,0.13326287,0.15503849,0.12756585,-0.1643379,0.12236963},
			{-0.054288346,-0.113932535,-0.098170705,-0.13539992,0.15925115,-0.042063996,-0.15656018,-0.056251787,0.082676955,0.0018408292,0.009602752,-0.067787014,-0.06075912,-0.12598158}
},
			{{-0.09237597,-0.030563515,-0.024794094,0.110167526,-0.06389341,0.12712632,0.0755165,-0.15514132,-0.052344542,-0.14946729,-0.08956409,0.08744895,-0.15392774,0.15941833},
			{0.16895041,-0.03935619,0.07282895,-0.16165555,0.09372808,-0.1503553,0.09637315,0.060323447,0.036472183,-0.0874714,0.046318166,0.06390342,-0.08542251,-0.008560683},
			{0.15694468,0.135024,-0.05663662,-0.040395603,0.13612877,-0.13600229,-0.09125473,0.13791786,0.15823232,-0.049063254,-0.08783861,-0.14346847,-0.06681599,0.025543274},
			{-0.08444537,0.14371514,-0.077676,-0.0029036847,-0.14445916,0.1592221,0.14200816,-0.12687038,-0.13802804,0.166252,0.022307806,-0.15415065,-0.052521303,0.108344615},
			{-0.0970819,-0.035602983,-0.1628635,0.0031179634,-0.08058296,0.07686435,-0.11736922,-0.134828,0.08027106,0.1057655,-0.0005195356,-0.08656403,-0.12158104,-0.098299436},
			{0.0031858864,-0.116563365,-0.15688784,-0.12566067,-0.123162396,0.06191993,-0.11026019,0.15276584,0.10447485,-0.14281672,0.09438099,-0.04048337,-0.1679913,0.16890834},
			{-0.028996924,0.030261157,-0.13506961,-0.03757906,-0.13779251,0.030066552,-0.11730852,-0.0842978,0.15567857,-0.018576594,0.12342099,-0.024737226,0.12383488,-0.1448337},
			{0.10828843,0.09204051,0.1548679,0.04473702,0.06455507,0.0936603,0.06281576,0.075309135,0.15160722,-0.060300734,0.05717065,0.106859654,0.0068555297,-0.10868412},
			{0.02755008,0.09944795,0.09083536,-0.056797538,0.0034071847,-0.028193934,0.024843851,0.09487566,0.08830855,-0.16987935,-0.10274751,0.07823612,-0.07217417,0.06681523}
}
},
			{{{0.09657992,-0.12469805,0.16295542,-0.15196037,0.1311858,0.008505221,-0.14634016,0.14035977,0.052444886,0.0050041843,-0.08040202,-0.15716973,-0.15769549,-0.16575485},
			{0.15579946,-0.046680767,-0.08598121,0.117105655,0.13630636,0.0947966,0.05472294,-0.15449773,-0.027980383,-0.15924928,-0.055480503,-0.09626103,-0.07025143,-0.08656647},
			{-0.11892299,0.12341532,-0.08344724,0.07354401,0.13153106,0.06916881,-0.056103643,-0.006761704,0.007328592,-0.0107192695,0.03824516,0.13235769,0.11855564,0.012070128},
			{0.020273685,-0.16092241,-0.15545693,0.025500538,-0.098237224,0.040829998,-0.06976026,-0.002986657,-0.08554588,0.019304112,0.020334903,-0.12225336,0.093750246,0.08633722},
			{-0.0022175752,-0.029277513,0.0017057802,0.16863066,-0.07268705,-0.16054308,-0.07978905,0.16997433,-0.09778292,-0.07800155,0.06425384,0.08888976,0.012568414,-0.14177065},
			{0.04533503,-0.04091936,-0.057856772,-0.15125026,0.029339269,0.11111836,-0.13721628,-0.14800698,-0.06962077,-0.06653096,0.16934773,0.039211243,0.01881804,-0.013179014},
			{-0.05520457,-0.007584653,-0.16936015,0.06258868,0.021674728,0.022185562,0.01870054,0.020487128,0.051022764,-0.114622146,0.08137648,-0.12828197,0.029897528,0.031970404},
			{-0.12577654,-0.12573034,-0.15529057,-0.16976589,-0.019855537,-0.124735266,-0.05634699,0.16201752,0.03581189,0.08813175,0.016757589,-0.081119284,-0.09219473,0.07130869},
			{-0.113110274,0.016537404,-0.098959744,-0.07452353,0.15967132,-0.12593587,0.15561505,0.16714601,-0.023261053,0.0384829,-0.008284217,-0.04429621,-0.010648112,-0.049756225}
},
			{{-0.104158424,-0.115681075,0.011643557,0.08087205,0.12663838,-0.026263265,0.084000826,0.15352617,0.053689487,-0.08598226,0.0066473726,-0.1663225,0.020792488,-0.15528545},
			{0.02203091,-0.08066115,-0.06095364,-0.0938139,-0.019632693,0.11905112,0.03644916,-0.032641288,-0.10530192,-0.11394544,-0.15055156,0.017658813,0.048509084,0.06350292},
			{0.014624322,-0.08249584,-0.04033967,0.03822473,-0.03492145,-0.14114733,0.14124824,-0.024627294,0.11793354,0.03504105,-0.15289317,-0.030673321,-0.09202186,0.089607395},
			{-0.1509527,-0.010371525,0.048743688,0.14106281,0.009415502,0.07476657,0.0027333284,-0.16927595,0.0020611282,0.043018516,-0.11792424,0.1689828,0.09935358,0.11148753},
			{-0.100741304,0.11517193,0.042356707,0.01411604,-0.035899367,0.08164172,-0.1690843,0.16421466,0.11664469,-0.112431474,0.06791544,0.01928486,0.15432324,-0.1330922},
			{0.012414611,0.065299556,-0.13307619,-0.09699619,-0.0738537,0.14016959,0.1335931,0.030493736,0.15591392,0.028957477,-0.02444649,0.15415071,0.05769907,0.012221355},
			{0.08103486,0.095172904,-0.079275705,-0.12087182,-0.002468863,-0.09200649,0.015091471,-0.06904071,-0.066690825,0.0069098985,0.024235157,-0.092576034,-0.033702195,-0.1254061},
			{0.1696066,0.07559938,0.12580067,0.04886193,-0.021619223,0.028649041,0.04309599,-0.08575101,-0.0047759833,-0.12845506,-0.14831264,0.1327613,-0.09907671,0.12896834},
			{-0.023145268,-0.02929493,-0.060843382,0.025926195,0.08315445,0.06403765,0.041186046,0.061368898,0.046252865,-0.116988495,-0.06568619,0.1189658,-0.021511203,0.061618466}
},
			{{-0.07559209,-0.022162909,0.1521541,-0.07522261,0.061312936,0.06565107,-0.14187178,-0.12963524,-0.03284311,0.124398336,0.08993678,0.0336101,-0.044379756,0.13369839},
			{-0.02599224,0.16816448,-0.11705487,-0.124421924,0.03307766,0.070562676,-0.16408607,-0.05028113,0.016901262,0.10490796,0.052306026,0.09772875,0.12988324,-0.1254961},
			{-0.074834436,0.056214683,-0.03382814,-0.09065743,0.04205373,0.011847823,-0.07058008,-0.10027486,-0.07508748,-0.08212931,-0.0035422742,-0.124519184,0.0939523,-0.041804414},
			{-0.06653053,-0.09078499,-0.07041707,0.031736825,0.07204463,-0.11770234,0.1599829,-0.07554036,0.015125157,-0.14167869,0.08242825,0.13340688,0.12169062,-0.02070001},
			{0.15779272,-0.03987165,0.05730741,-0.017134072,-0.0100282505,-0.08497945,6.379864e-05,-0.14180095,-0.1451791,0.022420816,-0.012694425,0.03658014,0.04270516,0.11270107},
			{0.10641856,0.031725507,0.07088509,-0.15224038,-0.07875211,0.09373115,-0.15336539,0.09451113,0.16251354,0.16255848,0.07848924,0.049004514,-0.08973303,-0.060267065},
			{0.019260643,-0.1334292,0.14087917,0.0538757,0.13179581,0.11748967,-0.07782705,-0.055327997,0.095610484,-0.05974548,0.08827649,0.12825827,0.12597027,0.07622475},
			{0.16001503,0.009350595,0.054775372,-0.12733608,-0.15550008,0.09154664,-0.08633826,-0.102520175,0.06616058,-0.02471375,0.013728981,0.021497378,-0.02892949,-0.02600824},
			{0.060615525,-0.023888266,0.099461116,-0.090618476,0.083921075,-0.040494207,0.05517347,0.061418425,0.010882627,-0.02239273,-0.11572465,0.013477611,-0.08587028,0.10129332}
}
},
			{{{0.16560242,-0.14679319,-0.1640512,-0.14362246,-0.10118239,-0.13932855,-0.078191124,0.08269338,-0.09330595,0.03257998,-0.12982997,0.01637892,0.1296409,0.11637061},
			{0.024676925,0.15311876,-0.13889034,-0.041643888,-0.16374326,0.16211694,0.0192949,0.0023770442,-0.15423271,0.10852369,0.10561387,0.09172288,0.044917613,0.04749802},
			{-0.05737864,0.08442311,0.058364656,-0.15189892,0.050376683,-0.07997071,-0.041688442,0.04261423,-0.09192852,-0.042450085,-0.12721097,-0.08365156,0.124674365,-0.029832345},
			{-0.028862419,-0.16284706,-0.027070733,0.012669076,0.16895077,-0.13356577,-0.020362372,0.020887325,0.11771431,0.14140433,-0.09339512,0.029092802,0.08632468,-0.16467297},
			{-0.091316864,-0.11635282,-0.039750107,0.17054492,0.14868541,0.13136022,-0.017810004,0.020521678,0.15022607,0.10832865,-0.08874671,0.09836895,0.017646564,0.024913775},
			{0.070155695,0.019847857,0.0030797066,0.06722757,0.050867584,-0.081123,0.11487073,-0.08621636,-0.05439858,-0.16818868,0.063262105,0.12031132,-0.004987989,-0.13399486},
			{-0.0326428,0.15588316,0.10787287,0.017919248,0.1360039,-0.079624355,0.13635775,0.0662771,0.009238948,-0.16144393,0.0412988,-0.037972357,0.04731479,0.03212417},
			{-0.06945888,0.05417693,-0.09377702,0.07804896,-0.07145984,-0.10015354,-0.0027736058,-0.03373403,0.16000468,0.062069442,0.013927087,0.09923956,0.11331099,-0.020310434},
			{0.14562674,0.11044493,-0.13055547,-0.012820734,-0.12756895,-0.15157607,0.02265779,0.022027668,-0.12642433,-0.110004246,0.13474402,-0.09298026,0.12011635,0.026411397}
},
			{{0.16619097,-0.014947741,-0.16188289,0.15241157,0.0007002945,-0.025717031,-0.031728305,0.046779074,-0.07287602,0.083293974,0.04014537,-0.120451786,0.1714268,-0.16573387},
			{-0.14646953,0.15699545,-0.08090459,0.06355633,0.15902017,-0.039491437,-0.09493633,-0.09069968,-0.15334208,0.08256393,-0.072644904,-0.017487038,0.06360345,-0.011897049},
			{-0.08902379,-0.04309207,-0.1160535,0.045870986,0.053556617,-0.15223657,0.036729157,0.015251288,-0.027562737,0.006025223,-0.11148238,-0.15247971,-0.060501456,0.08712823},
			{-0.05088739,-0.075281784,-0.10455514,0.022723755,0.058078535,-0.1179767,0.04985747,0.03400777,0.12803967,-0.007862545,-0.11050898,-0.0018456696,0.10258109,-0.16274868},
			{0.15509604,0.024587953,-0.012057461,0.028363518,0.10943371,0.012608916,-0.1398768,-0.02764282,0.021317638,0.094736695,-0.05325322,0.0025552204,-0.11939884,-0.03088831},
			{-0.056553118,-0.06639761,-0.06942506,-0.09549502,-0.13054584,-0.1679752,-0.121224314,-0.11513232,0.10429759,-0.010599692,0.15855493,0.12856376,0.06613304,-0.08522794},
			{-0.07945992,0.049455334,-0.10291149,-0.015225361,0.05818045,-0.15612406,0.162851,0.14784968,0.037820995,-0.14149551,-0.15685037,0.044249058,0.05164409,-0.09781162},
			{-0.06110941,0.1437426,0.06881259,0.05729449,0.053761415,0.11433414,0.049629524,-0.0426675,-0.10249437,-0.11304657,-0.06241467,-0.15157996,-0.1558932,0.086124614},
			{0.02675209,0.05055448,-0.07985948,0.08801957,-0.15035482,-0.011485331,-0.15546471,0.039471477,-0.16058095,-0.0892849,0.124131866,-0.047289856,-0.044335496,-0.032859858}
},
			{{0.12772006,-0.01301413,-0.12868975,0.12768558,-0.082653046,0.04270442,0.030616695,0.020667534,0.06553245,-0.001010578,0.06366131,-0.080486126,-0.14383659,-0.017734177},
			{0.10186792,0.16282685,-0.14697638,0.06871106,0.14633612,-0.12902105,0.13881807,-0.050190825,0.16464023,-0.037024423,0.13813037,-0.13429204,0.09006824,0.16398977},
			{-0.15050091,-0.12905294,0.095781304,-0.11212539,-0.08961324,0.100448705,-0.16172834,0.037886493,0.036658965,-0.085720286,-0.14992659,0.15229976,0.09410897,0.018036252},
			{-0.14672242,-0.038333878,-0.08615892,-0.041066032,0.11008278,0.10813746,-0.12222513,-0.0743247,0.05083431,-0.114444844,-0.07575691,0.022267558,0.14077945,0.075126834},
			{0.095697425,-0.039463565,0.056307655,-0.16723244,-0.018352762,0.10938808,0.011726155,0.14106499,0.16340135,-0.15008298,-0.14216939,0.15200038,0.052493397,-0.048318207},
			{-0.082651176,0.101421244,0.049379002,0.00061744533,0.14198025,0.07839616,0.08918963,-0.0351905,0.038033742,-0.0004832012,-0.14223792,0.08526301,0.005438581,-0.016076403},
			{-0.016366124,-0.018006103,0.15051007,-0.109352306,0.089552745,0.0033325935,0.021475144,-0.055725142,-0.05899038,-0.09057817,0.16867614,-0.055006705,0.0817099,-0.14050849},
			{0.07669842,0.05409814,-0.1035671,0.16494246,-0.16049168,-0.060994163,-0.079809025,0.16323161,0.13456556,-0.083978325,0.05457805,-0.14080858,0.051611222,-0.072905645},
			{-0.1186861,-0.019877316,-0.002442139,0.024947742,-0.044048674,0.023048798,0.04700879,-0.13639967,-0.16795705,0.12387795,0.11136211,0.12223568,-0.056277823,-0.0945173			}
		}
	}
};