// include/conv2d_3742_weight.h
// sergio rivera 
// 2020/02/15 03:50:14 

const float conv2d_3742_weight_p[3][3][3][4]=
{
	{
		{
			{-0.097863786,-0.2691993,-0.023966566,-0.26919088},
			{0.2726298,0.15343697,-0.0516561,-0.23578209},
			{-0.10433972,0.2686861,-0.223639,0.12148981}
},
			{{-0.03425885,-0.2732061,-0.23776983,0.17610388},
			{0.22360906,0.043290555,-0.16604926,-0.079840496},
			{0.04881713,0.009858447,0.29544592,-0.28519854}
},
			{{0.24472214,-0.025373416,-0.14366466,0.20078145},
			{0.29584715,0.014525887,-0.14818774,0.18774548},
			{0.0069166096,-0.19873843,0.16686195,0.18243822}
}
},
			{{{-0.21836387,0.1973863,-0.13599245,-0.24684651},
			{-0.2888249,-0.18079546,-0.1853346,-0.013163183},
			{0.06437307,0.29102033,0.09864694,0.13808584}
},
			{{0.10291458,0.03187556,0.2870334,-0.11576508},
			{0.24114066,-0.1287261,0.12343721,-0.08242688},
			{-0.25775498,0.09214754,-0.11390484,-0.1333407}
},
			{{0.14546633,0.24462406,-0.24460067,-0.28659832},
			{-0.169047,-0.10730073,0.11151347,0.01312644},
			{0.2546148,0.21977343,0.07385389,-0.054511834}
}
},
			{{{-0.035789102,0.18425491,0.2174749,-0.2788277},
			{-0.2751626,0.13530777,0.025299432,-0.011328846},
			{0.21135251,-0.007825627,0.19628556,-0.083262816}
},
			{{-0.13641603,-0.21479397,0.13154708,-0.04214608},
			{0.24477644,-0.14967369,0.29689354,-0.022416102},
			{0.23439102,-0.23686376,0.21464096,-0.24829707}
},
			{{0.3045903,-0.11612162,0.26002535,0.16368854},
			{0.06619986,-0.067201875,0.11045029,-0.17011607},
			{0.22952247,0.28875756,0.038168967,0.17401838			}
		}
	}
};