// include/conv2d_7_weight.h
// sergio rivera 
// 2020/02/14 21:23:59 

const float conv2d_7_weight_p[3][3][12][8]=
{
	{
		{
			{-0.03924142,-0.16226263,-0.18033238,0.04632997,0.13099925,0.07859809,0.009466812,0.022759443},
			{-0.043831788,0.1362868,-0.0066694184,0.17593849,-0.109250136,-0.14207815,-0.015509938,-0.16038394},
			{-0.11014117,0.15394676,0.019610941,0.086537115,-0.017607197,0.12216686,-0.14436789,-0.030471684},
			{-0.14098226,-0.048998866,-0.02999655,-0.0055166353,0.065589264,-0.085745305,-0.10152548,0.077136226},
			{0.070240706,0.1817245,-0.04071473,-0.13798568,0.1322974,-0.091246046,0.105928496,0.1412049},
			{0.1612429,0.106557846,0.0692191,-0.10116037,-0.052474253,0.1461877,0.13688529,0.007944933},
			{-0.14809592,-0.07903773,-0.020930635,0.04381352,-0.07510831,0.02428493,0.15449375,0.08146517},
			{0.08137646,0.022236228,0.07273684,0.005097208,-0.086061694,-0.123567335,0.08392083,-0.053222906},
			{-0.043642797,-0.13871318,0.11182099,-0.013118098,-0.051706634,-0.13563244,-0.15481594,-0.009042052},
			{-0.089765616,-0.06587722,0.092677474,0.1818571,-0.17251661,-0.13907431,0.07416825,0.04043283},
			{0.029453915,-0.16615093,0.102827616,0.1545568,-0.112427235,-0.04365036,-0.17031269,0.17718075},
			{-0.16294283,-0.10033035,0.1408445,0.09052682,-0.047374155,0.014756394,0.07649097,0.14442797}
},
			{{-0.07233728,-0.05496824,-6.889005e-05,-0.11466239,-0.1639355,-0.0901037,0.022717219,-0.08269747},
			{-0.13355085,-0.0114354,-0.0058647217,-0.0035487465,0.17847079,-0.06873203,0.029337507,0.041083492},
			{-0.04058818,0.15589026,-0.058062635,-0.025262527,-0.023844356,0.106057346,0.06035044,-0.10128345},
			{0.03078361,-0.041860078,0.055428226,0.10930704,0.076415055,0.07279088,-0.14721158,0.014764979},
			{0.15607113,0.08269849,0.03743372,-0.06777016,0.11385986,-0.14889464,-0.029937517,-0.15492435},
			{-0.16060063,-0.108038306,0.050438892,-0.04748008,-0.0017397162,0.1586837,0.10407063,0.07920217},
			{-0.15461738,0.111856125,0.051241007,0.07791579,-0.099510536,0.060987487,-0.14183463,0.031687908},
			{0.10630683,-0.051019043,0.15467216,-0.06964459,0.022903293,0.02704792,-0.108680174,0.08612822},
			{0.14257091,0.025603436,0.13024515,-0.18802762,0.11303865,-0.012347495,-0.011322999,-0.16887434},
			{-0.08060561,0.133378,0.09347317,-0.106923655,-0.004807818,-0.14297646,-0.177138,0.08209658},
			{0.0007421294,0.18368432,-0.06327813,-0.037788518,0.04953133,-0.044156853,0.07703607,0.18365777},
			{-0.14447601,-0.1793793,-0.063903175,-0.012123743,-0.14717194,0.07556903,-0.083613805,-0.038031194}
},
			{{-0.02166193,-0.052759,-0.096061446,-0.16330832,0.0027397806,-0.03668951,0.11792162,0.1328191},
			{-0.040048975,-0.10450348,-0.07220741,0.016845722,0.13576232,0.14981113,-0.039645605,0.0004861725},
			{0.041847937,0.038781464,-0.103612565,0.16076621,-0.015590432,0.07058311,0.1141844,0.04598584},
			{-0.123068,-0.079597354,0.11576336,0.061189014,0.18489884,0.026847996,0.08787564,0.15551917},
			{0.056554366,-0.057265356,0.12867305,-0.13486694,0.009275873,-0.06599208,-0.066353,0.019598778},
			{-0.17380108,-0.1602526,-0.1220173,-0.08885237,0.11044446,0.031844314,-0.0042157583,-0.027074507},
			{-0.1146281,-0.039988447,0.06188614,0.047480438,0.13085386,0.05743536,0.087020114,0.17414038},
			{0.17727329,0.09196169,-0.03977311,0.10879682,-0.1633264,-0.06771134,-0.05535434,-0.14484365},
			{0.17407106,0.12156395,-0.13994658,0.018219328,0.057671245,0.16846628,0.12113577,0.15360014},
			{-0.12090827,-0.13661893,0.02980292,0.13120282,-0.034841876,0.14513686,-0.040908538,-0.15440242},
			{-0.018104032,0.02789893,0.033080176,-0.052835602,-0.022051295,-0.059957314,-0.122309886,-0.17498586},
			{-0.06468009,0.12421371,0.109674394,-0.10099938,-0.030908322,-0.15483081,0.014478642,0.16464809}
}
},
			{{{-0.0052412287,0.16015294,0.021941174,0.028775403,-0.15444285,0.1095825,0.06879074,0.040301193},
			{-0.10818675,-0.1362461,-0.00042424904,0.025321646,-0.042643882,-0.11226327,-0.07051101,0.0061298166},
			{-0.088040024,-0.028981464,0.11144358,-0.13508542,0.053038243,0.05173458,0.15303725,0.14861841},
			{0.0164538,0.039033517,-0.018315963,0.07322898,-0.13158226,0.018413698,0.04220926,-0.08078101},
			{0.0022827536,0.16188608,0.035027064,-0.10990352,0.07720007,0.1782801,0.054312844,-0.043500684},
			{-0.15995187,-0.004891022,0.124776065,-0.17626606,0.041851245,-0.1356841,0.14117864,-0.077282846},
			{-0.028525382,-0.14042968,-0.062112406,0.06263009,0.10532549,0.016640391,0.030188642,-0.09542522},
			{0.05413783,-0.07344792,-0.0786789,-0.1545921,-0.13542081,0.07193223,-0.11455581,-0.11082258},
			{0.18712357,0.16490224,0.051534485,0.15799381,-0.004540461,-0.13743402,-0.17676078,-0.09421962},
			{-0.027254906,0.15703484,-0.088462174,0.1298842,0.15047678,-0.0029342808,0.051192902,0.15545355},
			{0.01371843,0.16655326,0.14817049,-0.03513781,0.134904,-0.014095931,0.0019144403,-0.10912911},
			{0.18319315,-0.10190685,-0.11853221,0.1727475,-0.17838614,-0.009276215,0.15065607,-0.051039714}
},
			{{0.016277447,0.09417493,0.16606808,-0.04123014,0.08204294,-0.09463801,0.009673903,0.15856157},
			{-0.1665918,-0.120119005,0.084321395,0.16764717,0.006600258,0.12778646,-0.05765984,0.08691622},
			{-0.15543303,-0.14226112,-0.11216562,-0.08782969,-0.07178596,0.047330663,0.13192382,-0.11107939},
			{-0.061947294,0.12375221,0.050528236,0.05224781,0.16022366,-0.08257419,0.06652825,-0.008663496},
			{0.10089504,0.10312321,0.030431004,-0.0108291805,-0.11681667,0.1769039,-0.17701358,0.11929682},
			{-0.0018783268,0.1533049,0.0061786007,-0.00511945,0.11979439,-0.01336079,0.13670944,0.06609845},
			{0.054149244,0.051967315,0.093764916,-0.098582834,-0.006538932,0.006351173,-0.051143426,0.023385817},
			{-0.15543178,-0.11612135,0.032869596,0.08957418,0.03680107,0.07538769,0.09384866,0.13560665},
			{-0.10344268,-0.060386892,-0.1718203,-0.10924404,0.022719035,-0.1425763,-0.06319454,-0.06361649},
			{0.068720646,-0.12069896,0.12954165,0.13043332,-0.027311787,0.08318752,0.02072729,0.1590403},
			{0.038954664,0.13546829,-0.088431805,0.042710915,0.16496985,-0.1720901,0.027277008,-0.11232289},
			{0.007136678,0.12067568,-0.15772457,-0.15918277,0.107855305,0.06489908,0.073190354,-0.0015201536}
},
			{{0.15573034,-0.01238445,0.05614477,-0.073215306,-0.13254741,0.10714355,0.02193606,0.053664662},
			{0.12737581,0.03635801,-0.06868289,0.026963232,-0.028247757,-0.11197705,0.0039801598,-0.07152384},
			{-0.1588297,-0.13908768,-0.10714675,-0.11321974,0.10562887,0.10727586,0.035781886,-0.08938233},
			{-0.14583425,0.11518082,-0.100283116,-0.01953398,0.06334195,0.12207637,0.01336142,0.07895557},
			{0.12757613,0.10319271,-0.06400865,-0.03649931,0.06478642,0.045755826,-0.17353465,0.017716443},
			{0.047192946,-0.08884584,-0.122968085,0.075285144,-0.12310287,0.10994742,0.10039711,-0.14071395},
			{-0.16007675,-0.015562344,-0.006943461,0.15008661,-0.12869766,0.08732701,0.19109629,-0.15557149},
			{0.06710099,0.016381584,-0.16457753,-0.09269787,0.11988774,-0.0072739795,0.12492119,0.16966589},
			{0.15096128,0.104336426,-0.16349474,-0.066390954,-0.13432166,-0.14374876,0.14984697,0.04660469},
			{0.13680276,-0.12021513,-0.11191624,0.13905214,-0.1113574,-0.13650185,-0.016337477,-0.11808771},
			{-0.017469373,0.018295696,-0.007838495,-0.03621794,0.028942255,-0.07376752,-0.05509133,-0.081466906},
			{-0.076775946,-0.1548661,0.08281948,-0.17666091,-0.18336421,-0.046122357,0.05664642,0.094902225}
}
},
			{{{0.11899125,0.042396445,0.0038115305,0.17512771,-0.0027714372,0.11013787,0.0031801036,-0.0972642},
			{-0.16868529,-0.17822199,-0.034344185,0.012737738,-0.13353544,-0.05186077,0.09700915,0.18444633},
			{0.16573921,-0.0027325884,0.10233715,0.06870167,-0.09565486,0.029174443,0.0069359243,0.048583206},
			{-0.13740534,-0.14354208,0.16538554,-0.079862274,0.0950249,0.10454492,-0.023595737,0.028336462},
			{-0.067212015,-0.026693681,-0.05468639,0.06313237,-0.15309215,-0.09546064,-0.16755745,-0.058658715},
			{0.14125484,0.14930268,-0.030485915,0.026858475,0.10431266,0.015264585,0.13551548,-0.09277232},
			{0.06724272,-0.020262828,-0.002184343,-0.08763017,0.11218556,-0.08653994,0.10013805,0.045747668},
			{0.16397038,0.0705393,0.16452667,0.03724151,0.14425431,0.0010940596,0.12100778,0.17353757},
			{-0.039415903,-0.025458341,-0.16630675,0.14510289,0.14456677,0.08194357,-0.029455304,0.01837029},
			{-0.17307417,0.12665363,-0.007838567,-0.12579711,0.13924661,-0.17618248,0.15563242,0.122591875},
			{0.11487529,0.069677554,0.1617808,0.08161113,-0.11834983,0.08854938,0.008203058,-0.06587955},
			{0.17105404,-0.16496266,0.07296537,0.05081324,0.13765295,-0.04844411,0.17261909,-0.06472845}
},
			{{-0.15397355,-0.13740975,0.15401715,0.009216275,0.025981233,0.08951993,0.097522676,0.054148924},
			{-0.07769634,-0.0059213773,-0.07964626,-0.028197797,-0.05167086,-0.044290323,0.16626674,-0.16475794},
			{-0.041832086,0.050456002,0.10535364,-0.1395384,0.052627105,-0.052735306,-0.13913155,-0.057138477},
			{-0.04270027,0.16105884,-0.055859357,0.03954513,0.16811241,-0.02644031,0.071760625,-0.15450238},
			{0.12265057,-0.0061038435,-0.088993,-0.1109384,0.13129516,-0.020153927,-0.050686114,0.060613647},
			{-0.050265197,0.0753139,-0.11981885,0.088324286,-0.12319801,0.16813277,0.067579456,-0.13909568},
			{-0.09062113,0.0016867507,0.14889376,0.09055353,0.1173865,-0.066265605,0.10114835,-0.11874032},
			{-0.17633021,-0.12028857,-0.011252132,0.061156556,-0.07405171,-0.055599052,-0.059845336,-0.02230775},
			{0.15099065,0.16603485,-0.08760924,-0.15824826,-0.15635607,-0.14774379,0.12687121,-0.108701274},
			{0.07271035,-0.083668225,0.055066727,0.17745623,0.10319508,0.05441803,-0.12294645,0.19199184},
			{0.16646463,0.08120799,-0.04931967,0.11588777,0.069050714,-0.14544183,-0.046423778,-0.018151518},
			{-0.12719332,0.15225378,0.17026065,0.1268155,0.119357854,-0.05268395,0.16196665,-0.037741285}
},
			{{-0.1410773,-0.08071186,0.06196398,0.10088641,-0.031974003,0.10131918,-0.061446976,-0.13310151},
			{-0.059203617,-0.15985109,-0.042894997,-0.18701379,0.16022882,0.13172571,-0.13991028,0.13802734},
			{0.07567897,0.056030672,0.10784531,0.019646963,-0.13189158,-0.10261496,0.07813623,-0.15997855},
			{-0.09181165,0.10809821,0.16163933,-0.037065987,0.1126945,-0.038647592,-0.11382612,-0.1445569},
			{-0.17088631,0.1694999,-0.0047826795,-0.04603797,0.018360885,-0.017927552,-0.14464822,-0.12411213},
			{-0.14853548,-0.17524229,0.182663,-0.0783683,-0.1376331,0.047917154,-0.13242033,0.11955044},
			{0.15258993,-0.16850936,-0.09000516,0.048636436,0.097549066,-0.12473304,-0.18025501,-0.028601939},
			{0.14824915,-0.12768792,0.07254385,-0.041191887,-0.14133622,0.10756806,-0.12218668,0.04313948},
			{0.08384381,-0.07948199,-0.15699212,0.005429687,-0.118582696,0.012955701,-0.16087121,0.10267453},
			{0.15644482,-0.014168532,0.003915049,-0.16023667,0.15837997,0.1382882,-0.16988595,-0.11470825},
			{-0.06509764,-0.036287475,0.17300032,0.12264807,0.13997138,0.04788468,0.113496214,0.14405456},
			{-0.07643401,0.11776635,-0.14701219,-0.14195271,-0.15181714,-0.1374382,0.07091704,-0.17451844			}
		}
	}
};