// include/dense_17_bias.h
// sergio rivera 
// 2020/02/14 21:24:02 

const float dense_17_bias_p[112]=
{-0.0016284768,0.0005078659,0.004457051,-0.004036084,0.0059756394,0.008600552,-0.00715564,0.0007931923,0.0020759297,-0.0033153687,0.0057376726,0.0019732937,-0.007143249,-0.0037792698,-0.0012909821,0.0006549895,0.00764037,0.004752099,-0.0024362672,0.0042715,0.0032528006,0.008272007,0.005601866,0.0046448098,0.003929271,-0.0049392367,0.0032057213,-9.275624e-06,0.0074909516,0.00032839458,-0.0024861214,0.0016612669,-0.006683302,0.0009609028,-0.0024696896,0.006785297,0.009208394,-0.01725253,4.2193802e-05,0.0016945826,0.0027886825,0.0072621563,-0.0050262664,0.025295954,-0.004055834,0.0015099476,-0.00028410577,0.0010808916,0.0019329579,0.005769276,-0.030742876,0.0037784565,0.0020621805,-0.0005932508,0.00043734955,0.0035909854,-0.0027407203,0.0024580543,0.000933188,0.00034883677,0.0016293273,-0.007586266,0.0037166711,-0.0010018956,0.0022194241,-0.005939915,-0.0112800365,-0.004118374,4.2827916e-05,0.0032271645,-0.0047823153,-0.0038800766,0.0016618492,0.0057570226,0.006846668,0.0041875597,-0.00072444463,-0.0021681343,-0.0033869732,-0.00010722643,0.007539864,0.0018426464,0.006228488,0.0019270536,-0.0091694305,-0.00036701997,0.0036352116,0.008287156,-0.0013292732,0.0019180712,0.008735877,-0.007995455,-0.007974852,-0.008020282,-0.0022075481,0.0046691685,0.000148586,0.00340115,-0.0010705884,-0.006378607,0.0013956104,-2.759527e-05,-0.0031474521,-0.006084538,-0.0066669774,-0.00027653514,0.0059330272,0.004869646,-0.01882123,-0.012149891,-0.006463011,-0.005348263};