// include/dense_4893_weight.h
// sergio rivera 
// 2020/02/15 00:04:52 

const float dense_4893_weight_p[16][6]=
{
	{0.4703287,0.48641223,-0.012127901,0.23632143,0.0968616,-0.24066548},
	{-0.039719194,0.007044687,0.26227263,-0.14952096,0.39696115,0.4636014},
	{-0.31463552,-0.08647907,0.13207376,0.06394237,-0.2422125,-0.050810546},
	{-0.45479482,0.1405645,0.4067609,0.2314588,0.11875832,-0.3287806},
	{-0.023333669,-0.03519782,0.44568902,0.008597014,-0.29326808,0.19144467},
	{-0.017048895,0.38591912,0.41308358,2.0579697e-05,-0.27163783,-0.30738705},
	{-0.26758227,-0.2653956,-0.08870046,0.06974284,-0.0015690923,-0.416666},
	{0.076333344,0.34364748,-0.1194852,-0.442204,-0.35288697,-0.14932364},
	{0.24030626,-0.12209615,-0.03776997,-0.22514652,0.42845947,-0.18449017},
	{0.08810055,-0.31946567,-0.50728214,0.0055419346,-0.1117287,0.24824086},
	{-0.44856882,-0.2816776,-0.060638633,0.38574108,-0.036194086,0.115512736},
	{0.18201625,-0.43288317,-0.51691103,0.4922951,-0.3601591,0.115113735},
	{0.039092064,0.29529217,-0.5082838,0.12239965,-0.2380521,0.013620277},
	{0.11934847,0.20064725,0.4768326,0.3489412,0.101721585,-0.45001826},
	{-0.28071386,0.49911234,-0.12579478,0.38535786,0.49120146,0.11658725},
	{0.028684735,0.2592268,-0.42750743,-0.2803854,-0.5016389,-0.20216113	}
};