// include/conv2d_1574_weight.h
// sergio rivera 
// 2020/02/14 22:58:07 

const float conv2d_1574_weight_p[3][3][9][4]=
{
	{
		{
			{0.13045332,0.16172524,-0.15620686,0.13906993},
			{-0.06733877,0.011220753,0.038433414,0.048171468},
			{-0.16542986,-0.19499108,-0.09189518,0.0028471907},
			{-0.09188626,0.18543088,-0.17692314,-0.18464036},
			{-0.08034553,-0.120325685,-0.012102195,0.043881312},
			{0.18770568,-0.1818694,0.18109322,-0.0734051},
			{0.12729566,-0.19486523,0.20637411,0.19089362},
			{0.034988884,0.13769457,-0.118612066,0.015146939},
			{0.037717536,-0.06966591,-0.08039996,-0.16746762}
},
			{{0.03088402,-0.07979994,-0.19633195,-0.07642244},
			{-0.19086494,0.058354557,0.20250265,-0.068495765},
			{0.12497841,0.0075377543,-0.13252936,0.01693883},
			{0.2069641,-0.051659267,-0.21899384,-0.11427779},
			{0.08518687,-0.02038639,-0.031835545,-0.10940156},
			{0.08367761,0.06750123,0.20659654,0.17587425},
			{0.20268282,-0.10173227,-0.16046777,0.15542263},
			{0.04979973,0.05637803,0.06320302,0.016311264},
			{0.13169833,0.07121957,0.07410021,0.03328504}
},
			{{0.21709432,-0.20832846,-0.049616918,-0.21102926},
			{0.06449404,0.16267364,0.07031367,0.056300316},
			{0.14639676,0.028260544,0.0193933,-0.14161111},
			{-0.1870803,-0.062085085,0.15094131,-0.1022438},
			{0.040934082,-0.009829737,0.13745214,0.010043888},
			{0.10257215,0.07717982,0.060506824,-0.040703245},
			{-0.03578693,0.08799223,-0.025267195,0.070693254},
			{-0.14750122,-0.18542022,-0.12384471,0.08408102},
			{-0.2063832,-0.18670146,0.057971787,0.14367048}
}
},
			{{{-0.090275705,-0.1875285,0.18874127,0.08750722},
			{-0.17735736,-0.07259513,0.12717453,0.15557122},
			{0.117784835,-0.045488987,0.2067583,-0.23369323},
			{-0.007139575,0.11157962,0.10034091,0.072473675},
			{0.08498699,-0.082675524,-0.1995219,-0.05757124},
			{-0.015374169,-0.0046969284,0.22522697,-0.07304216},
			{-0.09594048,-0.21345763,-0.19555815,0.14946441},
			{-0.09704564,-0.0895364,-0.12249407,0.15694033},
			{0.105646074,0.18161808,-0.18464953,-0.005345703}
},
			{{-0.22381705,0.1703735,0.09792907,0.15214969},
			{-0.13307805,0.2142548,0.029234966,-0.1380161},
			{-0.09864479,0.1785863,-0.06587118,-0.1612281},
			{-0.20705304,-0.034707755,0.0006027415,0.09243494},
			{-0.14836457,0.024363179,-0.04521586,0.061664924},
			{-0.03180225,0.21114282,-0.17305467,-0.026358929},
			{0.039707266,-0.056335196,-0.22705492,0.015214404},
			{0.040817916,0.14709048,-0.18884967,0.14222153},
			{0.02521968,0.03716261,-0.20763786,0.038929027}
},
			{{0.2174369,0.12091191,-0.15206942,0.1100754},
			{-0.09647963,-0.10880633,-0.19223917,-0.010101978},
			{-0.19322993,0.15100744,0.1494567,0.16952965},
			{-0.15065958,-0.124408595,0.07297635,0.1755712},
			{-0.16862409,-0.1557442,-0.15960552,-0.110278726},
			{-0.05593878,-0.11923277,-0.10015869,-0.0055741705},
			{-0.09648465,0.20211321,0.122557156,-0.12921962},
			{0.19137533,-0.04234226,0.0282743,0.124532856},
			{-0.17545718,0.13406159,0.14993805,0.15359804}
}
},
			{{{-0.122384615,0.032908067,0.2169124,-0.20241508},
			{-0.15282983,-0.21243306,0.10583885,0.07091488},
			{-0.01695395,0.21829367,-0.074460655,-0.1870852},
			{-0.12342378,-0.21178605,-0.019448621,0.10565595},
			{-0.17400934,-0.021927463,-0.20943446,0.10275995},
			{-0.18979801,-0.043623395,-0.104245104,-0.17827642},
			{0.124077305,0.17777729,0.03599828,-0.12155399},
			{0.2155387,-0.10945989,-0.01567758,-0.07219532},
			{-0.16991715,-0.14326593,0.2099241,0.07534283}
},
			{{0.14915824,0.02876676,0.065741345,-0.028065288},
			{-0.11653823,-0.045903854,-0.18296525,0.13810049},
			{-0.16181444,0.16790013,-0.15838075,0.1450367},
			{0.15155172,0.056560215,0.13177973,0.01664869},
			{-0.14493294,0.10317723,0.15285641,-0.1408011},
			{0.2076868,-0.19685693,-0.01610202,-0.08079882},
			{-0.19336367,0.043465927,-0.12363807,-0.10719979},
			{-0.1708969,-0.013517711,-0.11594841,-0.03144414},
			{0.14076598,0.13291322,0.1273698,-0.11029583}
},
			{{-0.094221026,0.029183783,0.0026990755,-0.101916686},
			{-0.18696871,-0.12233733,0.024189115,-0.036643654},
			{0.04496269,-0.22035176,0.15072782,0.18821844},
			{-0.12898543,-0.15806295,-0.015251952,0.102175},
			{0.09300295,0.08631093,0.07430024,0.19123363},
			{-0.040035084,0.07255369,-0.061875645,0.15037858},
			{-0.096856765,0.14314091,0.16378704,0.091426484},
			{0.20949848,0.005705336,-0.20931338,-0.14711806},
			{-0.07014632,-0.17952654,-0.016318502,-0.033292536			}
		}
	}
};