// include/conv2d_2213_weight.h
// sergio rivera 
// 2020/02/15 01:18:23 

const float conv2d_2213_weight_p[3][3][3][4]=
{
	{
		{
			{0.07907226,-0.0958746,0.14802332,-0.12030475},
			{0.3059318,-0.008730911,0.17537884,-0.2625561},
			{-0.12883924,-0.24260464,-0.18585664,0.033965115}
},
			{{-0.28401938,-0.21789508,0.07203066,0.29998288},
			{0.046929833,-0.07605776,0.19938643,-0.27011663},
			{-0.2845837,0.09210689,-0.08812342,-0.26147524}
},
			{{-0.23998398,0.19719298,0.27573457,0.021500444},
			{-0.16825606,-0.05543905,-0.18473127,-0.12370031},
			{0.11781277,-0.025884459,0.055585016,0.04086497}
}
},
			{{{-0.020106714,0.18164472,-0.07815411,0.21912524},
			{0.2653544,0.19897637,-0.2151898,-0.050610796},
			{-0.1899649,-0.00476488,-0.2519175,0.16825813}
},
			{{0.29161233,0.166913,-0.18671206,-0.17307286},
			{0.21955815,-0.28839597,-0.297703,-0.09717776},
			{-0.2790336,0.060955215,0.21776623,-0.22334255}
},
			{{0.14554392,0.15026501,-0.23407802,-0.10361505},
			{-0.14143775,-0.05453913,0.11161838,-0.15500277},
			{0.16450825,-0.07686172,0.2221444,0.14547238}
}
},
			{{{0.040525075,-0.040140092,-0.06240435,-0.008385622},
			{0.25365087,-0.009026221,-0.2074063,-0.15429431},
			{-0.11843488,-0.1127088,0.039005473,-0.22115855}
},
			{{0.19818601,0.29258233,-0.061034895,-0.18174429},
			{0.11482591,0.18651885,0.18472959,0.19532461},
			{0.09780289,0.06873886,0.0634627,0.24489586}
},
			{{-0.24630606,-0.20259897,-0.09844018,0.16853341},
			{-0.08859366,-0.22323443,-0.293619,0.29225737},
			{-0.28418803,0.017483996,0.15183625,-0.13356224			}
		}
	}
};