// include/conv2d_2212_weight.h
// sergio rivera 
// 2020/02/15 01:18:23 

const float conv2d_2212_weight_p[3][3][3][4]=
{
	{
		{
			{-0.017186806,0.07848974,0.2027402,-0.23938897},
			{-0.06805835,-0.09062465,-0.19868287,0.25984612},
			{0.21174404,0.28208283,-0.28459635,-0.13132769}
},
			{{-0.14105505,-0.0433166,0.19024995,-0.21354601},
			{0.19206333,-0.22946423,-0.29465568,-0.056297466},
			{-0.21472786,0.03215968,-0.12809056,0.16493274}
},
			{{-0.20392926,0.08120869,0.2139074,0.0043367143},
			{-0.172703,0.05058227,0.14572549,0.040112205},
			{0.2858285,-0.24218887,0.13102397,-0.26995236}
}
},
			{{{-0.05982405,0.23477797,0.16123888,0.1860356},
			{0.1744368,0.22532989,-0.186007,-0.20014204},
			{0.25724152,0.21707693,0.10765542,0.085614}
},
			{{-0.20235418,-0.069294706,-0.06438868,0.09978454},
			{-0.10760827,-0.10987946,-0.28465095,0.2963273},
			{0.28047752,-0.0549154,-0.1927851,0.17486402}
},
			{{-0.29205754,-0.29164734,-0.12348654,0.22559594},
			{0.20400746,0.08479411,0.1837264,-0.06757665},
			{0.23805249,-0.029272258,-0.16074976,0.1918381}
}
},
			{{{0.18610959,0.01798446,-0.27058733,0.07896214},
			{0.16113737,-0.21449795,0.13086027,0.20108823},
			{-0.2946075,-0.02004015,-0.12130523,-0.258499}
},
			{{0.03180793,0.24469545,0.07178271,0.09317581},
			{-0.24988344,-0.01645084,0.1876948,0.24051364},
			{0.24054101,0.07305903,-0.2680767,-0.025055304}
},
			{{0.29604623,0.20163424,-0.29631662,0.0040614274},
			{-0.03970454,-0.15635625,0.29388747,-0.14281127},
			{-0.031605896,-0.03244911,-0.17350993,-0.25447863			}
		}
	}
};