// include/dense_1810_bias.h
// sergio rivera 
// 2020/02/15 01:18:33 

const float dense_1810_bias_p[188]=
{0.003437182,-0.004070493,-0.0009205814,0.0039598476,-0.0043536876,-0.0026182258,0.0024135644,-3.2728945e-05,0.0038699317,0.004732576,-0.0026373162,-0.0018855084,0.0041900594,0.004755645,0.0041001537,-0.0022570603,-0.00088687247,-0.005963073,-0.0046055643,-0.0026901506,-0.0018160618,-0.001814529,-0.008547468,-0.004679649,0.0003817536,0.0011251213,-0.0015913176,0.00072611176,-0.0013593727,0.0023136644,0.0073846243,-0.002667444,0.002586814,-0.00051803864,-0.007103086,-0.00726135,-0.0012167502,0.014528817,0.0016668052,0.0060811783,-0.0045755534,0.0037000969,0.005719705,0.0005558265,0.010164317,-0.0004427454,-0.0054119285,-0.00070406555,-0.0029476453,0.0019456074,0.0022955248,-0.0059919385,-0.0029175065,0.0005139974,-0.005311143,0.0033942047,0.006511039,-0.0047905655,-0.012127257,0.003849958,0.010442667,0.010198813,0.002107968,-1.653703e-05,-0.0073623015,-0.002398133,-0.0003416504,0.0038608615,0.0018403118,0.0009968985,0.00790447,0.0059049153,0.0022901362,-0.004232055,0.00031687936,-0.001285509,0.007876926,-0.009374976,-0.00087459944,0.00144776,-0.00074719253,-0.0025495547,-0.004182635,-0.0032877652,-0.007853409,-0.00048457342,-0.00054602814,-0.013273479,0.0013526388,-0.0021549896,-0.014455612,-0.013602093,-0.003454856,0.011450036,0.008928683,-0.0006212891,-0.0033025541,-0.006812565,-0.0011977397,0.005293762,-0.00032705488,0.0043633142,0.004592224,0.00386219,-0.00066883996,0.003238197,-0.000774181,0.00212263,0.0035217525,-0.012607559,-0.0036732396,0.007745568,0.0032204632,-0.011563657,0.0026571993,-0.0036746569,-0.014469809,0.006077085,-0.001658529,-0.0034243115,-0.0005431316,-0.0018873656,0.00047364598,-0.0013106291,0.0051187305,0.0016528651,-0.0059405686,0.010560104,-0.0052003246,-0.01267975,-0.0013954584,0.00526662,0.0032338626,-0.009439163,-0.0020340695,-0.009071058,0.0037203357,-0.0027368823,-0.008911072,-0.0023385263,-0.0047962526,-0.0024819612,0.008093137,0.0067175357,-0.0031632464,-0.0015998972,-0.0026556132,0.000553714,0.0012252554,-0.0008100677,-0.0017185536,0.0027214552,-0.0002824058,0.000670788,-0.010713178,-0.0051159817,0.010634273,0.014455454,-0.0009933106,0.0042796438,0.0028306881,-0.005855997,0.0030713761,0.0077705123,-0.01061123,-0.009220981,-0.0048260875,-0.010387516,-0.0031080004,-0.0003502192,-0.0033531338,-0.0060720947,0.012357596,-0.002042289,-0.0056681735,-0.0005687311,-0.00351815,0.00024791912,0.00050419726,-0.002529931,-0.0033076273,0.0075989235,-0.0021019084,0.007630144,0.002634289,-0.0025713202,-0.00014159305,-0.005208256};