// include/dense_67_bias.h
// sergio rivera 
// 2020/02/14 21:12:53 

const float dense_67_bias_p[104]=
{-0.0022735423,0.002596686,-0.0023682027,0.0030357193,0.0026708597,0.00224134,-6.0647682e-05,-0.002234454,-0.0035304711,0.00081269327,0.00094786065,-0.0013807983,-0.0032862895,-0.00087527395,0.0075546643,-0.0021642467,-0.010223371,0.0048455056,0.0039434102,0.010933963,-0.004045145,-0.0025832762,0.0059558754,0.0022712501,0.005077051,-0.0021004332,0.0045433124,-0.0013806715,-0.004998242,-0.010782691,0.002172697,0.0025867177,0.004216848,-0.0062911287,0.004444663,0.001833366,-0.004118984,-0.003402581,-0.010995939,-0.0018843737,-0.009620872,0.005216678,-0.0053167236,0.000292819,-0.0007410621,0.008252982,-0.00033162686,-0.0021207943,-0.005568696,-0.0060524982,0.0013234497,0.0008122778,0.00024743308,-0.006781161,-0.0027184235,-0.0030462523,0.0003314265,-0.0008120336,-0.0006516548,0.010286559,-0.0029174688,0.0017165113,0.0011122214,0.0006235392,-0.0006391766,-0.00023319898,-0.008740168,0.0052288403,0.005626753,0.009130128,-0.004499495,0.0031168405,0.0020667238,0.0017772882,-0.0055335616,0.002882116,0.005809796,-0.010251778,-0.0037059165,-0.005061771,-0.0009652036,-0.0057664653,-0.010328879,0.0016695464,0.00037765515,0.005768152,0.008420379,-0.0027287477,0.013347464,-0.0075946674,-0.0069277114,-0.0024515858,0.0022102944,-0.001496803,-0.000671286,-0.0025655916,0.005136108,0.0040378547,-0.001726039,-0.005745067,0.0065308064,0.0026346433,-0.00019847963,-0.0062097292};