// include/dense_2963_weight.h
// sergio rivera 
// 2020/02/15 03:37:28 

const float dense_2963_weight_p[71][72]=
{
	{-0.12777455,-0.18985799,-0.01490616,0.114507936,0.08293834,-0.033442564,-0.20297514,-0.13354072,0.08980333,0.16158913,0.06970669,0.15238053,-0.19901921,0.11338712,-0.091700666,-0.15295419,0.03309837,-0.16832791,0.18150571,0.03587372,-0.12446821,-0.060541667,0.1258237,-0.16925399,-0.052731346,0.1141827,0.16243346,0.06488489,-0.006357994,-0.10363423,0.080229074,0.089383036,0.17829373,0.05744967,0.20932247,0.121313974,0.1480435,-0.18300907,0.14919804,-0.0069539864,0.07533613,-0.08219655,0.05990195,0.13878052,-0.09326505,0.15778878,-0.07275587,-0.09094824,0.08294009,0.0435989,0.18417671,-0.09797118,0.14132032,-0.1416274,0.14566171,-0.15691084,-0.07020639,0.17256042,0.022332,0.019325973,-0.13775803,-0.18441594,0.17298852,-0.12900901,0.18974116,0.16669977,0.14354469,0.110657066,0.0057143685,0.14954382,-0.019095816,-0.13351904},
	{-0.08059405,-0.061427806,-0.20520824,0.041456934,0.012862489,0.109179296,0.15804513,0.13632382,-0.16919574,0.19920462,-0.031847846,-0.06791454,-0.059246797,-0.010831176,-0.17305857,-0.18518335,0.016595392,0.033081986,0.02014867,-0.03017448,-0.15389924,0.15623164,-0.046045847,-0.17812428,-0.18397114,-0.039405536,0.12273355,0.0072347163,-0.15889898,-0.18325081,-0.018259976,-0.14363709,-0.09259832,0.033720303,0.04616192,-0.17494941,-0.07122889,0.15398292,-0.048901383,0.20120406,0.008062678,-0.05185648,0.0013724786,0.17793931,0.13729309,-0.100384206,0.016684795,0.14058441,-0.2000406,-0.15343702,0.07712022,0.025663843,-0.15343656,0.19209693,-0.16378938,-0.11310906,0.023080198,-0.20248803,0.1626345,0.037295472,-0.16792572,-0.121732384,0.032933883,0.106098995,0.030949278,-0.19812846,0.01154787,0.051721606,0.12713777,-0.13160908,-0.19485678,7.599592e-05},
	{0.10782783,-0.17338113,-0.07646005,0.07939174,-0.02359824,0.1802708,0.05743971,-0.07353909,0.091353096,-0.12149674,0.17419527,0.12636106,-0.038537607,0.13027468,-0.15946676,-0.0036215032,-0.08196353,0.14869499,-0.18918507,0.005576133,-0.17065391,-0.01919612,-0.18804167,-0.17449784,0.14362775,0.10379922,-0.15140678,0.11000522,0.16576135,0.02855767,0.08004952,0.1801464,-0.02521636,0.011939445,-0.095641725,-0.1555416,-0.07828225,-0.11804862,-0.0016768412,-0.18575114,0.09657053,-0.17017218,0.03896162,-0.13197778,-0.17260818,-6.9314774e-05,-0.04141286,0.105365336,0.12955454,-0.12812802,0.1075263,0.18681805,0.15917416,-0.19668248,0.0176079,0.03132084,-0.030032799,-0.14633426,0.13308334,-0.10704887,0.03476359,-0.041901253,0.097733006,-0.066256285,-0.12431918,0.102097355,0.11168038,-0.1675356,0.15171486,0.1258267,-0.17330275,-0.041281015},
	{-0.036409542,0.059893478,0.111443244,-0.19747774,-0.15060401,-0.09528699,0.13603155,-0.19932087,0.11967611,0.061552137,-0.18038951,-0.07280165,0.10276075,0.025611635,-0.19168667,0.08580323,-0.07838292,0.1344152,0.06827993,-0.024784898,0.19078517,-0.11643274,-0.19781846,-0.13764238,0.004601743,0.096853815,0.13803503,-0.17758824,0.100109,0.09884155,-0.06907208,0.026635785,-0.06341045,-0.1792974,-0.1028046,0.09393142,-0.014460012,-0.074921615,-0.17157444,0.15253663,-0.20686851,-0.18896417,-0.08923131,0.04927311,0.044890564,0.16249745,0.012359828,0.18392354,-0.1564321,0.17937888,0.12287666,0.11898228,0.00021668302,-0.13902423,0.062347826,-0.12741241,-0.059462324,-0.017559987,0.11786817,0.11665203,-0.027051918,0.1868848,0.06747224,0.17370449,-0.1841485,0.060678262,-0.16894248,0.099072374,0.040912393,0.009897978,0.049496338,-0.11826877},
	{-0.033289894,-0.06280171,-0.13811146,-0.12397329,-0.18695945,0.10470338,-0.09784078,0.12085138,-0.14124067,0.11013085,-0.10411025,-0.18183264,-0.09755295,0.12865163,0.023375409,0.14802381,-0.18370193,-0.14483006,0.15603344,0.07613572,0.04162726,0.06816836,-0.013542895,0.12000257,0.1361165,0.11524346,0.18873069,0.1755954,-0.1228884,0.072987124,0.18331562,0.19534485,-0.10813394,-0.018808914,-0.19466805,0.022131046,-0.16584504,-0.029608516,-0.19227831,0.16747919,-0.026425948,-0.08833966,-0.15604007,-0.15941714,-0.08187766,0.1543726,-0.004116373,0.13993992,-0.17586951,-0.12446753,-0.19518197,-0.17272605,-0.13011217,-0.19137812,-0.009228007,-0.18205236,-0.16466907,0.054618455,-0.15796179,-0.030797271,0.07114917,0.19298373,-0.09286514,0.17023171,0.07822926,0.17293356,-0.06791963,0.16187239,0.09736199,0.11979089,-0.17736384,0.054332986},
	{0.089600995,0.12142372,0.11386856,-0.18883204,0.1849265,0.13427854,0.054516517,0.18579292,0.05656868,0.0011761921,0.12705393,-0.104752734,0.028277237,-0.10627679,-0.09788528,0.13416193,0.06193707,0.13580523,0.05816483,-0.19088295,0.14709756,0.13603665,0.034002136,-0.0636729,0.06984627,0.15775432,-0.09323084,0.13045515,-0.035936512,0.12508947,-0.105621845,0.010036323,0.07262777,-0.1618118,0.013547051,-0.1550384,-0.124984354,-0.0068091205,-0.0060162586,-0.008771142,-0.10654436,-0.17768265,-0.09119849,0.12969036,-0.12294336,0.13179395,-0.1908327,0.17156635,-0.049041852,-0.06702243,0.011382846,-0.0052725584,-0.023321332,0.05577835,-0.08895343,-0.15109086,0.14568794,-0.088118486,-0.19059318,-0.18446489,-0.0074291634,-0.07930161,0.099070325,-0.1750351,-0.055018175,0.007473499,-0.008508086,-0.12987891,0.030059824,-0.13851483,-0.10057979,-0.08986795},
	{-0.011507288,0.107211776,-0.054646444,0.11715391,-0.026928423,-0.059594184,-0.18694466,0.15926515,-0.12019038,-0.089409046,0.049598146,-0.13709177,0.20175686,-0.18627594,0.044088088,0.1966179,0.018782139,0.11719195,-0.16704004,-0.15144043,0.07711418,0.16376129,0.04281842,0.11153595,0.084860556,-0.11930542,-0.044210587,0.19928169,-0.012831858,-0.0027026478,0.14530855,0.18391152,-0.03699026,0.19623367,-0.0077630016,0.018184327,-0.010775998,0.17518823,-0.04193223,0.020059926,-0.13796867,-0.05673792,-0.02956327,-0.16482478,-0.03235602,-0.16305926,0.12334384,-0.124671236,0.030034803,-0.037969172,-0.044780873,0.1787596,-0.12539218,-0.18658365,-0.18386349,0.16522555,0.0122435875,0.11332491,-0.13688387,-0.18439765,0.0037932345,0.1993472,0.19553511,-0.07277291,-0.17810851,0.19410515,0.15769559,0.1645427,0.13065892,-0.06800916,0.012787444,0.15783224},
	{-0.14117748,-0.038722213,-0.029497765,0.010342197,-0.09674819,0.12948868,0.031987816,0.20287268,0.18396337,0.099618584,0.10066338,0.099348485,-0.13841572,0.049700495,0.086174786,-0.14662616,0.08730436,-0.037966873,-0.019845605,-0.050714318,-0.05666277,0.17973876,-0.082880065,-0.18458298,-0.19669527,0.14453031,0.053858075,0.054827556,0.19236405,-0.022428086,0.12055894,-0.13386019,-0.16574292,-0.123074636,0.19740735,0.19274116,0.07996957,0.0972121,-0.08756453,-0.17338419,0.07588761,0.019014036,0.10769638,0.06262149,-0.1996877,0.05133921,0.051084492,-0.14313354,-0.1689009,0.12132165,0.11175487,-0.1531152,-0.07669085,-0.15918158,0.14101744,0.14534411,-0.09366946,0.043592684,-0.036377475,-0.0032693364,-0.06746959,0.17644215,-0.1063509,-0.16095857,0.14591625,0.14492962,-0.11802817,-0.13021035,0.09048803,-0.13294995,-0.08365766,-0.18315189},
	{0.16525503,-0.047221962,0.12020594,0.20332687,-0.08250256,-0.03558085,0.15386854,-0.13793033,0.047976118,0.12936167,-0.13996167,-0.0035782189,0.19422552,-0.031205779,0.12667923,-0.10836722,-0.17532334,0.18361856,0.19878821,-0.090241015,0.08650757,0.1613036,0.112426095,0.14645459,-0.09651948,-0.014203809,-0.11716684,0.14919531,0.0019381146,-0.062962145,0.08385376,-0.04573095,-0.036356494,0.0067094644,0.0005788915,-0.038668633,-0.15607306,-0.09191032,0.10708868,-0.0066430722,-0.06657977,-0.08590129,0.10898021,-0.0070737097,0.18805343,0.08046304,-0.021916613,-0.11250974,0.11206919,-0.052351315,-0.06344934,-0.08499417,0.12906542,-0.029414902,-0.086838186,-0.052070435,0.10035941,-0.014695868,0.09015155,-0.13288847,-0.033119667,-0.066067055,-0.1607817,-0.03842665,-0.14543374,0.09623306,0.05817197,0.028045613,0.012800477,0.07051541,0.17348598,0.13219996},
	{-0.12172831,0.047369372,-0.014060589,-0.093982264,-0.1385553,0.18051367,0.030372333,-0.120690174,-0.12799282,0.04508539,-0.10400008,0.08835693,-0.060208715,-0.013763726,-0.11465141,0.14744598,0.072692804,-0.18793593,0.16740015,-0.07948861,0.04791797,0.0438278,-0.15451857,0.06688446,0.05219653,0.0768214,0.0065239524,-0.09834756,0.121591695,0.15632749,0.059819233,-0.050519764,-0.11536416,-0.10771579,-0.09270315,-0.0038157124,0.011948228,-0.058297873,-0.04714319,0.19784777,0.13962291,-0.12201935,-0.14957549,0.15025893,0.20037699,-0.108495176,-0.18810105,0.08710539,0.0015940836,-0.009636323,0.06801021,-0.11199936,-0.18245432,-0.00443497,-0.10908806,-0.006583154,0.003271321,-0.18306085,0.1349918,-0.005207765,0.028732937,-0.1760272,-0.097040914,-0.16803244,-0.010204967,-0.007182539,0.17182875,0.10560916,0.15624003,0.099853165,-0.20281906,0.13265993},
	{0.124825105,0.05279331,0.16577232,-0.17145404,0.19646491,-0.14262597,-0.108427115,0.064331695,-0.18157347,0.19361028,0.06384935,-0.13544773,-0.13445045,-0.15731539,0.15174025,-0.15712392,0.12508568,0.04493861,-0.01304063,0.149238,0.18218835,-0.09586451,-0.17109406,-0.06791133,0.1874174,-0.09714286,0.05234629,-0.0865572,-0.13765843,0.047935147,-0.06906207,-0.120666385,0.18204218,0.12470117,-0.04135409,0.051669337,-0.1385721,-0.070052035,0.10768707,0.14158389,0.12354543,0.06510323,-0.0633415,0.030811343,-0.20397466,-0.11490262,0.047463253,0.16353504,0.19471374,0.088237636,-0.15313525,-0.12563829,0.111762755,-0.10242859,-0.17183062,-0.00032950647,0.109535374,-0.14878489,0.11268428,0.14805791,-0.081624754,-0.043698613,-0.08678732,0.14083378,0.15770571,0.12308353,0.042739283,0.2017525,-0.18472415,-0.10241788,0.07512985,0.038940225},
	{0.17807002,-0.1753335,0.09211513,0.09618179,-0.19728008,-0.041112736,-0.04325475,0.08393754,-0.15617628,-0.1029978,-0.15853408,-0.20676148,0.1984369,0.1562729,0.17208266,0.011240732,-0.18547337,0.015580153,0.06229614,-0.038956102,0.054869622,-0.10343099,-0.06030416,0.0805354,-0.106316976,-0.035194483,0.11212773,-0.0036307755,-0.1975298,-0.10386156,-0.14375009,-0.17701377,-0.021131754,0.18511242,-0.102579854,-0.17198186,-0.024611965,-0.01832339,-0.03656214,0.17960998,-0.03929732,-0.07534994,-0.14945364,-0.19333966,-0.0064001665,0.06342123,0.12488814,-0.07764712,-0.10796599,0.11123643,0.093893155,0.16863357,-0.038563218,0.07666982,0.07129241,0.15984312,0.17823307,0.114328116,0.16669345,-0.1063735,-0.15597463,0.16868071,0.055365272,0.10135791,-0.1230939,0.05017969,0.17152546,-0.048799682,-0.15829663,0.13095371,0.042616647,0.10272622},
	{0.07142834,0.1747162,-0.11481169,0.18914844,0.12821448,0.19895834,0.11849265,0.045572903,0.054525785,-0.07660088,-0.04120896,-0.20016652,-0.09935417,0.07690313,0.04749951,0.102090664,0.07492956,0.08661406,0.03404169,0.1445526,0.08182468,-0.16205193,0.18135469,-0.14560874,-0.03085731,0.028491255,0.0141333975,-0.19997984,-0.18711308,0.072900414,-0.19677263,0.0038543046,0.19218875,0.19865265,0.19670586,-0.05548385,0.10159008,0.036492936,0.013852915,-0.08400339,-0.046195965,-0.18948177,0.052981086,-0.14337794,0.1438851,-0.07325728,-0.122079544,-0.0135284895,0.12152386,-0.11204705,0.09044592,-0.09918015,0.057045277,0.076183125,-0.016698504,-0.16628632,-0.16065414,-0.068382785,0.09601929,-0.10127131,0.04357872,0.0209267,-0.1469546,-0.17616604,-0.1747944,-0.13011578,0.16372037,0.18817395,0.13762638,0.17349094,0.16101445,0.14058308},
	{0.055367187,-0.17392342,-0.17443797,-0.11553664,0.16835351,-0.10774377,0.17500775,-0.19959499,0.019797921,0.114961594,-0.1268605,-0.058920544,-0.04960874,0.20185474,0.044234693,0.12257573,-0.12605786,0.090632275,-0.18795481,0.18474129,0.10820984,-0.029145643,-0.043735314,0.040599644,-0.00848952,-0.000342504,-0.11261224,0.18232045,0.06861778,-0.0020365808,0.13034363,-0.100733645,0.07584044,-0.18104506,-0.027831687,-0.19853956,-0.05860305,-0.0188108,-0.00073654496,-0.15533586,-0.13690521,-0.0327332,0.13032362,-0.18630637,0.17122525,-0.00011275952,0.14549084,0.17565669,0.10322237,-0.1682953,-0.002152086,0.037769303,-0.004398297,0.10362336,0.09264449,0.1415933,0.15131457,-0.040149227,0.10182256,0.103365526,0.038985718,0.0036181903,0.16862983,-0.13669439,-0.13679941,-0.14129114,-0.15307254,0.0112960255,-0.06713444,-0.036327794,-0.12602665,-0.122765906},
	{0.16845737,-0.048121784,0.00968522,-0.09624643,0.005676142,-0.17661235,0.1623461,-0.17524141,0.023731288,-0.11239127,-0.037965372,0.09737908,0.056844197,-0.0028291834,-0.033919934,0.042360887,-0.18999074,-0.18182482,-0.14453939,0.18044455,-0.039463088,0.14975967,-0.08571863,-0.1169088,-0.11099356,0.15002137,-0.18352948,0.13846925,0.20191094,-0.10983558,-0.14889118,-0.15750979,0.119590685,0.13198078,0.012219047,0.13534313,-0.09312397,-0.20008451,0.11919464,0.1516213,-0.17180778,0.040704478,0.065138035,-0.08756863,-0.16432598,-0.1719359,-0.08738794,0.1805516,0.14831121,-0.03771609,-0.05839655,-0.1739244,-0.20056038,-0.03290921,0.11991223,-0.18113129,0.003628814,-0.04023374,-0.18522997,0.07975495,0.0055837273,0.0004184363,0.09619586,-0.15755805,-0.18142574,0.17511387,-0.02076186,-0.0371659,0.013264327,0.08334644,-0.037538253,0.0977746},
	{0.13607384,-0.03237114,0.08192869,0.15726605,0.08330697,-0.028111428,0.11930763,0.1219553,0.06790354,0.19421412,0.052229386,-0.1901299,-0.14239134,0.07591363,-0.12803155,0.08120973,0.16404442,0.036970157,-0.13897452,-0.16619407,0.01533099,0.07205408,0.1573401,-0.0037457347,0.05354686,-0.12933013,-0.078906484,-0.080166355,-0.06729786,0.19764596,0.14726761,-0.056189653,0.12515025,-0.13355064,-0.13835096,0.14298698,0.06499027,0.18297121,0.050748385,0.20479175,0.13105781,0.15436415,0.16888675,-0.08880839,-0.1576326,0.074969925,0.08857779,-0.0006602755,-0.016852612,-0.17802425,0.07566438,-0.13108477,-0.19974972,-0.07699227,-0.009591648,0.07885248,0.1688554,-0.060008593,-0.09153811,-0.015402813,0.04420365,-0.1914224,0.09351915,-0.08124225,-0.18252134,0.10146629,-0.16991618,0.08926621,-0.06551629,0.13404202,0.0055684745,-0.04758073},
	{0.111164555,-0.056065466,-0.15775129,-0.04716959,-0.1749568,-0.19253829,0.12640527,0.08461014,-0.19022423,-0.072034575,0.14734773,0.0572891,-0.08227017,0.1492016,-0.14397505,0.10094399,0.089868315,-0.1013754,-0.15108329,0.028080242,-0.043589767,-0.06740814,-0.025132818,-0.014260958,-0.039314575,-0.1684016,0.09816112,-0.059581034,-0.17737755,-0.09587824,0.16263627,-0.11185745,-0.15959866,-0.07474416,0.029335147,0.11722915,0.10572906,0.20020527,-0.08141004,-0.027143862,-0.06610142,-0.11081645,-0.13886838,-0.07982136,-0.19884883,0.16245326,0.14200164,0.020176793,0.16213664,-0.03359389,0.16212691,-0.06471385,-0.07462673,0.11890144,0.20585892,0.075985715,0.045659453,0.12826012,0.018064374,0.117508255,0.10433572,-0.06478934,0.0403644,-0.1617592,0.118011475,0.17991611,-0.102776155,-0.14277276,-0.11243224,0.020283056,0.011762951,-0.13910617},
	{-0.09533003,-0.04973261,0.08553008,0.026614157,-0.09744141,0.19496343,-0.18813841,0.06670723,0.041087132,0.01201766,-0.02502668,0.14127716,-0.11685341,0.11777995,0.09840816,0.057077233,0.0032557293,-0.17396848,0.0023770286,-0.07571681,0.004889511,0.17390323,-0.13858205,-0.06155877,-0.037054792,0.16416267,-0.05299021,-0.037488606,0.071654625,0.18263054,0.1317883,0.17353633,-0.1872299,0.002392382,-0.18521936,-0.15493922,-0.16609111,-0.17997575,-0.1814211,0.105148844,-0.13146147,-0.18578605,0.07691989,0.092863,0.10877544,-0.19411626,0.04065664,-0.1714096,0.008201548,0.15464185,0.18888381,-0.028743891,0.08988374,-0.07881915,0.04439128,0.039850086,0.12604958,-0.053774666,0.047062933,-0.013944005,0.15424456,0.03951585,0.09096383,0.12925315,-0.17336501,0.16429532,0.057953965,0.091712475,0.08275501,-0.041499328,0.09241738,0.05149216},
	{-0.1279864,0.1815832,0.15492052,0.1768277,0.11929162,0.08876322,0.16358583,0.20147425,0.0010275745,0.1443881,-0.0039575854,0.124810405,0.06195902,0.20400274,-0.07106494,0.029973919,-0.005674439,-0.02841785,-0.0053697145,0.15766126,-0.19349153,-0.0033253746,0.09168302,-0.043888655,0.06112429,-0.06086843,0.093306355,-0.09379681,-0.131069,0.026280873,-0.15466939,0.10152326,0.019594483,0.18887797,0.18174046,0.010373656,-0.19353788,0.117762074,-0.12116109,-0.08419582,0.013437749,0.16139564,0.18362181,-0.097267635,-0.025038332,-0.002450384,0.04349217,0.07573353,-0.01772327,-0.0038911304,-0.10034105,0.11136161,0.15459676,-0.096127406,-0.09749462,0.1832792,-0.013782513,0.066067755,0.046150707,0.066442065,-0.019625504,-0.13207506,0.20050067,0.07673467,0.1722509,0.041830685,0.1483791,-0.16884941,-0.19366245,-0.035281014,-0.02510793,-0.18099867},
	{-0.06508757,-0.07277814,0.016455887,0.19730948,-0.0679553,-0.13300042,-0.043223307,0.03937147,0.17239982,-0.051371705,-0.08916878,-0.13493817,0.14069292,0.19533417,0.069663025,0.18352012,0.15746945,0.046428565,0.181905,-0.011437744,-0.2055895,0.12316514,0.11006173,0.082305685,-0.07800018,-0.055682197,0.06594243,0.1679326,0.105607845,0.108852275,-0.080219544,-0.1546789,-0.19845033,0.11866344,-0.069212325,0.0828149,-0.13174133,-0.11181759,0.12741703,0.07691178,-0.1188286,0.16258416,0.15239401,0.1873331,0.012889772,-0.10558004,0.1949432,-0.17997755,0.04696622,0.046756696,-0.19608767,-0.1087361,-0.106690235,-0.02524633,-0.13117027,-0.093384184,-0.0161993,0.10887037,0.08366609,0.0742771,0.17239198,-0.021308074,0.17345299,0.036244605,0.17171511,-0.05353566,-0.05074135,-0.15504594,0.075692885,-0.099547826,-0.18179065,-0.09378088},
	{0.1358089,0.17642216,0.12402151,0.11809556,0.0775897,0.08283237,0.056191206,-0.047162347,0.024380902,-0.13578889,0.13940386,-0.092790514,0.19939832,0.14271523,0.08235827,-0.06327513,-0.05356242,0.1678901,-0.07822507,-0.11719133,-0.11819271,0.17731619,0.07706682,-0.049478352,-0.18096463,0.091866374,-0.13234937,0.09685721,-0.06015761,0.025132092,0.15942942,0.10934013,-0.1170061,-0.011734879,-0.032143287,0.015638726,-0.07590331,-0.074364096,-0.022880327,-0.18497908,-0.05716323,-0.08430103,-0.12446528,0.047678802,-0.033148173,0.08721268,-0.17015664,0.03527326,0.10137459,-0.09162838,0.015807364,0.008962005,0.012879109,-0.018319039,-0.08138574,0.16946308,0.20201734,-0.13011669,-0.15715815,0.12220181,0.14858483,0.06579943,-0.03600413,-0.20431815,0.16809803,0.04225787,0.10009529,-0.17418872,0.0674365,0.08505434,-0.06062029,-0.12468147},
	{-0.1585178,-0.104876205,-0.14716096,-0.15582779,-0.017649354,-0.077320464,-0.04239153,-0.032403514,0.16249362,0.17226636,0.023541266,-0.037585773,0.03032405,-0.20267263,0.10495018,0.15729667,-0.11965978,0.017807487,-0.113291755,0.026904453,-0.10438263,-0.17682053,0.19889808,-0.13377045,-0.094513394,0.043815527,0.042424995,-0.10358644,0.007926486,-0.12570927,-0.15868095,-0.05857051,-0.19523305,0.118673064,0.047352493,0.18267392,-0.13323364,0.083652735,0.15505828,-0.034447636,0.18953097,0.042262986,0.010031443,0.059415687,0.114779934,0.025060933,-0.017849281,0.1932453,0.064227685,0.20105891,0.11364477,0.07407477,-0.023292305,-0.18136032,0.10616325,-0.16499028,0.20678784,-0.17288087,-0.2015488,0.14436568,-0.08672845,-0.17954484,-0.18976496,0.13583927,-0.14408058,0.17636597,-0.13399191,-0.17093006,0.1400332,0.003163227,-0.12153932,0.055089403},
	{-0.123122305,-0.04288388,-0.09750168,0.015549433,0.062558345,0.039523177,0.15379705,0.12950084,0.18599215,0.17573772,0.14809178,-0.13035698,-0.024889337,0.15194738,-0.14882351,0.062019892,0.043994755,0.027975364,-0.07060917,0.02200367,-0.060739588,0.11977297,-0.10511322,-0.07005865,-0.07757363,0.08679659,0.1376363,0.09051749,-0.08319057,-0.06522782,-0.11146776,0.19290306,-0.10694115,0.093459725,0.017754875,-0.17688286,0.06842001,0.09260311,-0.13662553,0.0036859252,-0.13838144,-0.018365735,-0.025888473,-0.16944808,-0.08909618,0.0062239384,0.18762243,0.090753764,0.13647136,0.1741701,0.15459813,0.00959757,0.020944543,0.1155527,0.0021104522,-0.16714978,0.18370071,0.08007916,0.08257026,-0.06941266,0.079844184,-0.0066245683,-0.10203814,0.012091791,0.115313634,-0.1098215,-0.12055001,0.07554418,-0.027700841,0.17965072,-0.19818228,-0.026336208},
	{0.013873532,-0.13455415,-0.09647835,-0.10764651,0.13331726,0.19256887,0.14000675,-0.15142387,-0.017980298,-0.18340786,-0.053319752,-0.039395086,-0.17534636,0.10361365,0.05595852,0.08823688,0.08572112,0.0071449364,-0.18024261,-0.18249555,-0.17947005,-0.19161487,-0.07169131,0.20374835,0.17035331,0.11641726,0.002402378,-0.14755437,-0.14172171,-0.18368338,-0.14925274,0.047160808,0.058927886,0.0062150243,-0.030090572,0.07850982,-0.09034579,-0.1699618,0.090562806,0.058411226,0.08799539,-0.15001076,0.13865528,0.08978436,0.012447406,-0.093897,-0.09431906,0.14049096,-0.08881264,-0.13772301,-0.11208996,-0.055255346,0.060673065,0.16057828,0.11330853,-0.1848478,0.0930527,0.035341922,-0.095828585,-0.19454773,-0.0050807614,0.10023661,-0.038206033,0.025924094,-0.13756606,0.10216597,0.12770902,-0.14170292,-0.073236026,-0.12915003,0.12608324,-0.08243853},
	{-0.1353092,0.17838235,0.1523137,-0.11343846,0.14578444,-0.18005393,0.061092027,-0.14622419,0.10816675,0.031612508,-0.14696573,0.13755283,0.011741897,-0.027646579,-0.08215294,0.19366078,0.11901327,-0.05467219,-0.057823993,-0.05166555,0.030066878,0.01989598,0.053766347,-0.1022507,0.12942028,-0.20122784,0.04861844,-0.00432347,-0.18884802,-0.010568537,-0.15006192,-0.097443596,-0.024974056,0.20874882,0.018658359,-0.13658535,-0.050375506,0.0076625985,-0.0108015975,-0.1155282,0.19545193,-0.16764294,0.1390769,0.16744314,-0.016554322,0.043803368,-0.06932035,-0.09824148,-0.053182323,0.11654074,-0.18058778,-0.15743865,-0.15439208,0.20463057,-0.034520093,0.15983696,-0.024461575,-0.11770537,0.012711631,-0.042455144,-0.035132162,0.16043997,0.14555505,-0.19764578,0.1475069,0.06270663,0.13181123,0.11294151,0.13939083,-0.07693929,0.026767319,-0.16093051},
	{0.18987437,-0.14083497,-0.14180677,0.1270245,0.037706494,-0.18340583,-0.13680504,0.0057785176,0.20024398,0.005066916,-0.20562585,0.057704043,-0.07189961,-0.12732585,0.075513676,0.09609773,-0.027666971,0.18892905,-0.018038798,0.07534843,0.0621065,0.070610896,-0.06485352,0.03685777,0.10225982,0.05119281,0.07631614,-0.1979529,0.10251038,0.14979763,0.016386008,0.07205609,0.11389525,-0.17224029,0.10765322,0.08825109,-0.15595728,0.07448446,-0.07393733,-0.15572381,0.19120853,-0.01791454,0.18282661,-0.12919591,0.16266099,0.183777,-0.04565826,-0.033425957,0.08619387,0.11949247,-0.19511688,0.14524105,-0.048791807,-0.022329435,0.087618515,0.07988956,-0.03902664,-0.12736264,-0.14237134,0.12480237,-0.056091912,0.12645425,0.10259992,-0.18928349,-0.037295103,-0.17928432,-0.120305546,-0.021912845,0.1573751,0.0005819581,-0.138748,0.02169998},
	{-0.15912127,0.035591383,0.011320185,-0.040591754,0.040734425,0.04249378,0.08757381,-0.15951878,-0.1100458,0.03567028,0.0033055576,0.06676438,0.021810964,-0.09303694,0.18037835,-0.10960804,0.030201066,-0.08684917,0.20146447,0.061242655,0.12102818,0.039615262,-0.01042492,-0.06300452,-0.19306776,0.020307878,0.07531383,0.12353613,-0.17696986,-0.022322021,-0.02268737,0.11878223,-0.04005906,0.11877236,-0.19478315,0.11946078,-0.06248632,-0.01992794,0.17758912,0.057458706,0.03468769,0.18383396,-0.08017344,-0.030164558,0.03729994,0.102589,-0.043445602,-0.03997937,-0.036862746,0.026687765,-0.025047427,0.09610615,0.023859361,-0.140664,0.15300913,0.023826033,-0.12531927,0.0900512,-0.11888573,-0.10248164,-0.16121227,-0.075251445,0.18507287,0.07387489,0.11033591,0.17330328,-0.11865419,-0.19533452,-0.15556668,0.12269667,-0.021795029,0.009279171},
	{0.035482273,0.10884703,0.1196475,-0.07280479,0.047638953,-0.07598833,-0.07302966,0.050129835,0.13231367,0.013072374,-0.15772007,-0.038083352,-0.11007138,-0.039494902,-0.13225017,0.17481583,0.15728024,-0.15598445,-0.1382887,-0.15686865,0.13202764,0.19341606,0.1400812,-0.13873486,-0.067392856,-0.14700858,0.15324402,-0.12003675,-0.12170262,-0.10910691,0.10641996,0.13844892,0.12269814,0.205829,0.014740969,-0.020698886,0.17708619,0.10198848,0.11189925,-0.012181202,-0.04843477,-0.06888661,0.07226112,0.19533719,-0.19909279,0.18133007,-0.1325528,-0.15012261,0.15490253,0.044850357,0.12027712,-0.13545236,0.13492711,0.06939024,0.005381401,-0.19424689,0.14011225,0.12098377,-0.016405392,-0.102362916,-0.004145521,-0.042920176,0.13769518,0.048961274,-0.13826819,-0.027394943,-0.032120466,0.18688083,0.12650378,-0.14620134,-0.069516,0.16690238},
	{-0.078887105,0.05353242,0.1696116,-0.13165775,0.20214775,-0.0019717203,-0.046133902,0.15095404,-0.0021452783,0.041579302,0.12343587,-0.085830994,-0.01463837,0.065143764,0.01699358,0.01640359,0.058706943,0.19050309,-0.14071377,0.037728924,0.20262662,-0.020125927,-0.019473355,-0.17542174,0.095137544,0.044544518,-0.17231767,-0.16936274,-0.15965211,-0.10791102,-0.12759067,0.14609063,-0.1672908,-0.14260685,0.17533648,0.086634845,-0.097341575,-0.0274491,-0.15465972,-0.18578708,0.038126145,0.15214463,-0.12060192,-0.19834395,0.091722056,0.04388585,-0.07623741,-0.13797082,0.16480657,-0.025712285,0.13995244,0.05418369,-0.19078767,0.11253782,-0.08962322,0.106450975,0.024796315,0.065560706,0.17352061,-0.17179663,0.07060916,-0.06555606,-0.10583839,-0.057263058,-0.03827777,-0.08969574,0.097156,0.14690664,-0.15247832,0.09542198,-0.17306754,-0.06041483},
	{-0.03931001,-0.15194225,-0.15197127,0.078447595,-0.2032877,0.15584193,0.08157388,-0.15531397,-0.15812021,-0.036839277,0.051728006,0.16940418,-0.08219028,-0.15824439,-0.055069443,-0.1700495,-0.06844343,-0.045164872,0.10194648,-0.19529338,-0.008019637,0.083582215,-0.009313773,0.080929056,-0.07581257,0.16065852,0.083980486,-0.068375155,0.14506605,0.06473608,-0.15027757,0.06703421,-0.120991424,-0.04045756,0.18875563,-0.15148042,-0.04883705,0.014420255,0.18919909,0.11781497,0.009510784,-0.15882292,0.021638354,-0.09645254,0.05764639,-0.1693143,0.072729304,-0.14412832,-0.15991192,-0.042807885,-0.08980512,-0.1941176,-0.15948224,0.15057904,-0.05320419,-0.11397521,-0.023378057,-0.04068506,0.07352207,0.09524053,0.16186287,-0.08388491,-0.06688759,-0.0118187545,-0.04706421,0.16289863,0.13412689,0.14967139,0.20229927,0.07086279,0.12962577,-0.014869114},
	{0.008717239,-0.03516302,-0.006120517,-0.040583804,0.022541905,0.20338474,-0.085153,-0.1294956,0.11345208,-0.11718037,-0.011237159,0.037714947,0.100584686,0.09437204,0.19835913,-0.103795044,-0.17524934,0.05424489,-0.12483446,-0.17914705,0.08866905,0.075617716,-0.11159108,-0.007580504,0.09499514,0.09970219,-0.090916105,0.07819507,-0.055915065,0.13427366,0.15198177,0.011414668,-0.11928691,0.17680334,-0.19100697,-0.11138428,-0.19634219,-0.18740697,-0.13328601,0.050260343,-0.058455564,0.038799815,0.0052037872,0.1927574,-0.0866001,-0.0017107858,-0.15572032,0.1961043,0.1555303,-0.12085491,0.044334084,0.14332093,-0.18772516,-0.13675964,-0.08478138,-0.11574662,-0.0034256026,0.10986054,0.18871318,-0.17004766,0.032312702,-0.039166544,-0.11271304,0.0687107,0.20573343,-0.18287869,0.039070427,-0.039510332,-0.010781014,-0.010766848,-0.19653192,0.099620014},
	{-0.035315394,0.05060655,-0.12425858,0.089351766,-0.10048866,-0.022924976,0.14146593,-0.087636925,0.006904172,-0.061419785,0.098009534,0.124894485,-0.08958805,0.08189183,0.03356884,0.1225953,0.08136876,0.06429599,0.14696147,0.01639576,0.06959104,0.13405327,-0.057155717,-0.18739603,-0.12667835,-0.07921793,-0.1355869,-0.122623004,0.17974436,0.14629294,-0.07271562,-0.15783016,0.031065322,0.094295226,0.11254439,-0.20208083,0.018607676,-0.04931678,-0.09022421,-0.09615975,0.035435744,-0.1022992,-0.10873186,0.12291416,-0.13159165,0.17335702,0.11786862,0.05427697,0.19404906,-0.081444345,-0.111159705,-0.040836126,-0.10302735,0.14311704,0.20088759,0.041821986,0.109249406,0.13630709,-0.024539098,-0.19690552,-0.15573104,-0.054736804,-0.2056902,-0.15368463,0.035605468,-0.11491333,-0.083541214,-0.12097093,0.08469269,-0.020895822,-0.15551503,0.15302014},
	{0.06596212,-0.12082434,0.19261917,-0.16991936,-0.18117164,-0.014246522,-0.14776945,-0.0132779665,-0.06994171,-0.03423521,0.0092669595,-0.09906217,-0.104828924,-0.049285386,-0.1924587,0.1950821,-0.0012092708,-0.13623443,-0.094566256,0.03729679,-0.20798787,0.1788477,0.17846596,-0.16387323,0.17087616,-0.1984843,-0.11690099,0.062644206,-0.20246544,-0.10807121,0.04131052,0.17734772,-0.00019586529,-0.0713258,0.030347878,-0.09757785,0.13771392,0.019242657,0.17894176,-0.121714704,0.06064351,0.04948312,0.15611202,-0.0916412,0.10251096,0.020503819,-0.02306281,-0.11177321,0.069526784,0.17448947,0.02060098,0.04330069,-0.16781642,-0.17447482,0.07327585,-0.028928103,-0.105422445,-0.14801511,-0.121306404,0.15008944,0.013425013,0.16309474,-0.10161562,-0.050727632,0.0030421338,0.1431312,-0.12555578,0.04232349,-0.13126926,-0.09053589,0.09655442,0.09804853},
	{0.013005063,0.04170646,0.17358178,-0.104894035,0.20179264,-0.15607333,-0.08514246,0.016895454,-0.15155278,-0.038261574,0.1051697,0.14203207,-0.18553767,-0.17595275,0.14599524,-0.17382188,0.13835798,0.029382259,0.15861794,0.12105353,-0.1626573,-0.014165904,0.1251477,0.14969094,0.093988955,0.1530586,0.19453375,0.020806652,-0.042785365,-0.16293283,0.076375194,-0.2052252,0.07836958,0.16072576,0.17060247,-0.039065868,-0.110547744,-0.028196212,-0.07556685,-0.11873946,0.0911327,0.09486954,-0.029350461,-0.039981194,0.18597578,0.17331463,0.032504395,-0.14023793,-0.14848675,0.022729464,-0.17218257,-0.1265679,0.15648761,-0.06801543,-0.13654245,0.06908946,-0.020150408,0.0053748153,0.034380134,0.122444965,0.18467012,0.16588849,0.17594394,0.12772,0.029286413,-0.14616972,0.073951244,-0.028771134,-0.00020003112,-0.07184365,3.732292e-05,0.14222227},
	{-0.094129525,-0.16290319,-0.034079313,-0.16435198,0.16301084,-0.13559523,-0.18039791,0.19681497,0.075033374,0.15630709,0.1268077,0.20148022,-0.067573264,0.03554977,0.15464616,0.17696586,-0.07157042,-0.041338746,0.013140164,0.15239304,-0.06630467,-0.09827546,-0.0077420687,-0.13951816,0.20292722,-0.06616592,-0.07099719,-0.1773419,-0.1942657,0.07066677,-0.1405649,0.07489425,0.021965763,-0.14358339,-0.15731038,0.09702398,-0.16036817,-0.09146279,-0.11208194,0.18125355,0.032626286,0.07526255,0.12508354,-0.18571143,0.083438,-0.12847234,-0.074907534,0.14573166,0.06318974,0.047256682,-0.100711904,0.080653295,0.09481675,0.11438079,0.18421972,-0.10765953,-0.106264964,0.19719261,-0.0024756503,-0.07178269,0.1738146,0.16010317,-0.011045673,0.18890885,0.023933668,0.039132215,0.18101604,-0.11888755,-0.050283518,-0.051103625,0.14328142,0.121782795},
	{-0.18338454,-0.013156077,-0.14685981,0.01667502,0.055002272,-0.12630525,0.024719972,-0.18062474,0.1621074,0.12053855,0.021245563,-0.15276536,0.05189536,-0.19147481,0.18781634,-0.11364515,0.005143383,-0.15921405,-0.13793331,0.06653483,-0.16336799,0.17561637,-0.01189812,-0.086075805,0.19318366,0.055684518,0.19159205,-0.18118642,0.0039580544,0.18148716,0.11549829,0.018120386,-0.12276092,-0.1686797,-0.18648276,-0.09202268,-0.14616539,0.19975422,0.102634326,0.17782418,0.14011784,-0.038617227,-0.07832091,0.14837235,-0.0010456417,-0.092384115,-0.06911202,-0.19694944,0.17528954,-0.0011121277,-0.1310872,0.16036282,-0.12788881,-0.054049168,0.16173975,-0.09835056,0.13405932,0.20101412,-0.08323471,-0.11258541,-0.13797405,0.060575925,0.12902191,-0.018883038,-0.16513355,-0.016801035,0.11380216,0.19479154,-0.09209486,-0.0056775534,-0.029409302,0.15334295},
	{-0.18969002,0.036635663,0.015832253,-0.056355514,0.109754555,-0.15289223,-0.18155438,0.19862123,0.13790452,-0.19915278,0.19005091,0.03877505,0.16991073,-0.17015442,-0.016839413,-0.18022482,0.078241624,0.12877473,0.10922112,-0.15016714,0.0084721185,0.08954757,0.019305374,0.10565086,0.008089075,0.12922405,-0.08648923,-0.06004737,0.029982187,-0.099640034,0.1912149,-0.20001309,-0.13645655,-0.15594885,-0.17310897,-0.14757565,0.20354085,0.08238045,-0.09959151,0.096594736,-0.13945718,0.17961918,0.18809439,-0.15036507,-0.015169038,0.13558753,0.08814554,-0.05387421,-0.05120463,0.1333004,0.074829295,0.053107683,0.1827599,-0.08359423,-0.027747877,-0.14991957,0.011463894,-0.15604806,0.1462743,0.04632006,0.12817435,0.19494496,0.13768876,0.13669668,0.1255886,0.19398876,-0.17272395,0.099119194,-0.1180414,-0.120521404,0.03081753,-0.022757232},
	{-0.048661485,-0.01768388,0.14991423,0.19705985,-0.15344432,0.056919992,0.031421874,-0.040189274,-0.06892762,0.18277566,-0.066312894,-0.04209766,0.1783035,-0.1651063,0.16536026,-0.18711185,-0.04715158,-0.15018727,0.0057027848,0.028977571,-0.04795815,-0.16965756,0.18152967,0.16587181,-0.062647596,-0.19434813,-0.070353545,0.17153998,0.11012517,0.10073603,-0.1462212,-0.1725308,-0.204499,0.086834155,-0.14654778,-0.09912659,0.13699226,-0.034496743,0.1792815,0.16720594,-0.043106988,0.009025796,0.1447483,-0.0035262373,-0.106357485,-0.17306197,-0.1126319,0.11556782,-0.18605518,0.06628626,-0.19507676,0.007741536,-0.069017746,0.05590241,-0.07736263,0.016637698,0.14942196,-0.11829232,0.19440848,0.12222708,-0.14579025,-0.11373018,0.13000998,-0.20679526,-0.1214996,-0.08376531,-0.18533693,0.17426792,0.08106495,-0.19599912,-0.10026242,-0.03456139},
	{-0.19373883,-0.17384169,0.18781781,0.03315812,0.18444252,-0.06840381,-0.12081551,0.20012935,-0.0010511912,-0.15082185,0.14130922,0.08419009,0.022506112,-0.10776648,0.08070751,0.008034171,-0.018913003,0.16334979,0.011534536,-0.030455856,0.08547006,0.18443629,0.099600695,-0.17559443,-0.09669769,0.1854786,0.18714473,0.03618587,-0.077609375,-0.07122709,-0.2101282,-0.09199009,0.02097954,0.18175197,0.18646997,0.14948651,-0.07619268,-0.17825055,0.008373208,0.03282443,0.19741173,0.12974702,-0.050242163,0.14768717,-0.16284512,-0.15416487,-0.19621082,0.1362923,0.11456749,-0.18501028,-0.10592125,-0.14034516,-0.061964992,0.08119786,-0.1121079,-0.18945678,0.17052253,-0.030850613,0.12744501,-0.05297626,-0.20637819,0.09097395,-0.061898086,0.06740774,0.040476773,-0.17466745,-0.18589488,-0.17930524,0.0042163604,-0.105557375,-0.16013736,0.065256946},
	{-0.0007889569,0.105916195,0.19239756,0.119558886,0.0761258,-0.0040810723,0.1612035,-0.04827379,-0.054294404,0.0033293602,-0.20503628,0.03088529,0.086159125,0.17574659,0.043016378,0.03208812,-0.044529077,0.13522893,-0.1937927,-0.102175124,0.0869344,0.114623785,-0.033930816,-0.09299765,0.03332592,0.036978524,0.0023253667,0.20136848,-0.1926836,0.017823687,0.19479269,-0.06856447,0.17454605,-0.00020533812,-0.1937391,-0.014363577,-0.12857518,0.0040432443,0.06973073,0.14973928,0.025435865,0.10065921,0.032132637,-0.121234365,0.1535814,-0.13004377,-0.10306193,-0.11535455,0.04172056,0.15580298,0.029160805,0.010379281,-0.08751125,0.0934943,-0.02270159,0.13259137,0.10224614,-0.15397803,0.081987835,0.066144414,0.04618146,0.088608384,-0.17564525,-0.11312423,-0.053638265,-0.20573734,-0.1348558,0.03982443,0.14407583,-0.16730183,-0.110976025,-0.0472648},
	{-0.106214255,0.03367007,-0.119431056,0.1749705,0.059767187,0.032839786,0.16344805,-0.18604884,0.07833108,0.01607092,0.11740058,-0.105291374,-0.19233224,0.1957327,0.08110051,0.15429789,-0.05595155,-0.041254688,0.12924612,-0.16139409,0.15745194,0.06286145,-0.039706465,0.011542739,0.06465672,0.042655446,-0.1899417,0.13283621,-0.094197676,0.12233143,0.17551836,0.01910205,0.15265249,-0.050350264,-0.0024295254,0.09957025,0.09623279,0.17597729,-0.13804196,0.11767892,-0.057110976,0.025236063,0.08695366,-0.19282244,-0.007941508,-0.062667415,-0.097890794,0.046605397,0.19024846,-0.0807643,-0.09545319,-0.008238064,0.14181134,-0.11848104,0.12716016,0.17296724,0.1526581,-0.05337569,0.07150844,-0.07893075,0.00659621,0.045901608,0.16528608,0.13899674,0.0581273,-0.20165917,0.015977416,0.06522568,-0.133016,-0.16103272,0.12774037,-0.049789283},
	{0.20022802,-0.20315534,-0.20519881,-0.10881554,-0.06914012,-0.05086086,0.15838335,0.010476097,-0.043613013,0.11845501,-0.19644792,0.01642621,0.09826101,-0.13870396,0.0024405804,0.056037657,0.0656619,-0.015130294,0.14057297,0.18822306,-0.18926558,-0.008128696,-0.16286407,-0.1768141,-0.10365607,0.119735286,0.008752998,-0.06823015,0.08554762,-0.19245487,-0.016114347,-0.127393,0.11663765,-0.053198185,0.08485988,0.1296895,0.19082455,0.12748611,0.2039895,0.1559525,0.120116994,-0.14119919,0.032726895,-0.07293888,-0.16954046,0.04327419,-0.09689216,0.12818263,0.036371343,0.031123325,-0.18803492,-0.19285877,-0.055613756,0.13116717,0.18113852,-0.14041772,-0.035194464,0.1695974,-0.052314006,0.00089306914,-0.09976777,0.0012538041,0.105793394,-0.1119089,0.013037636,-0.08918851,0.1434206,0.12809168,0.1970291,0.06699659,-0.1508457,-0.1737546},
	{-0.11449264,0.06116114,0.110642105,0.046918042,-0.15965685,-0.011773114,0.08361249,-0.08242803,0.021261118,0.031295836,0.15352209,-0.09211123,-0.15109967,0.16180666,-0.20079352,0.1293071,-0.20294893,-0.017159715,0.021308811,0.10496865,0.11775951,-0.04516885,-0.07860171,-0.10038289,0.1986964,0.19675149,-0.007489601,-0.03115119,-0.0070805536,-0.17270914,0.14792162,0.128059,0.09662237,0.014778286,0.071908094,0.04116759,-0.013856679,0.03725417,-0.119004555,-0.035505883,-0.05486275,-0.19955257,0.19035351,-0.052854095,-0.14037344,-0.04973735,0.06876381,0.09903354,-0.11343044,0.07608734,-0.16294925,-0.09953845,0.045355484,0.0015520499,0.074350566,0.083572365,-0.059035294,0.1487022,0.0294744,0.012082297,0.043007065,0.119956456,-0.097651206,0.15439697,-0.15903753,-0.16778414,-0.19282337,0.17201848,0.1760153,-0.054221828,-0.056211058,-0.13062696},
	{-0.047519237,0.15314297,-0.17916189,-0.058260117,-0.17607184,-0.075762875,-0.09525044,-0.05558275,-0.1411223,-0.042110212,-0.073963806,0.15229148,0.090108104,-0.00905174,0.16808599,0.18547127,0.0049865134,0.013051719,0.031277563,0.16490886,0.19110768,-0.19887255,0.17677253,0.12770095,-0.15307866,0.08798172,0.0012674048,0.0108130695,-0.100530356,-0.06580811,0.016420774,-0.012478015,0.20258293,-0.008054678,-0.0065861708,0.16683379,-0.1074718,-0.14569508,-0.14062878,-0.18260385,-0.18246447,-0.08586538,0.18352856,-0.10233049,0.17183128,0.14875036,0.09819563,-0.11403875,-0.03209999,0.14612329,0.02405419,-0.18453163,0.20182267,-0.10221291,0.14716835,-0.07736622,0.10338539,0.06534779,0.004007119,-0.0859059,0.15065618,-0.12037981,0.18992306,0.08913303,-0.12583815,-0.10199539,-0.146089,-0.1025705,0.056204244,0.026807077,0.169838,-0.16949205},
	{-0.08584826,0.11729574,0.0059714383,0.033454664,0.026544163,-0.0735512,0.1561494,-0.036322583,0.16053684,-0.035603914,-0.048898615,-0.1876264,0.19411315,-0.06420247,-0.13030185,-0.076328725,0.04381433,0.17929626,-0.026783215,-0.042448312,0.12627241,0.19520293,-0.08317621,0.18614872,0.08316387,0.01786631,0.0469991,-0.14178143,0.07155966,-0.19878122,-0.13535589,-0.07959871,-0.1312843,-0.07548471,-0.096171655,-0.14190546,-0.011227056,-0.19349214,0.12369238,0.0058751754,-0.037892878,-0.1964071,0.07149493,0.13115229,-0.019780453,-0.18176755,-0.020299375,0.115431264,-0.015154783,0.10968215,0.008834285,0.13939285,-0.0919305,-0.07576643,-0.13413386,-0.079902366,-0.102998495,-0.025813276,-0.0070165843,0.022651026,-0.17279518,6.620702e-05,-0.004309154,0.06274949,0.114493474,0.1930713,-0.15583777,0.11291777,0.1400891,-0.17741925,-0.09051739,-0.2026152},
	{-0.16850235,-0.067343466,0.15135962,-0.14650309,-0.12856853,0.19944943,-0.2073712,0.15652904,0.12909186,-0.116230406,0.14907289,0.05674795,0.19793855,-0.13052715,0.19707969,0.043907825,-0.039453305,-0.044785224,0.16989505,-0.20054604,-0.085047,-0.09920449,-0.001739123,0.056626737,0.0086280415,-0.040029403,-0.18030128,-0.07986088,-0.15891099,-0.024760224,0.17017153,-0.061809227,-0.06296179,-0.16353533,0.049973104,0.049989585,-0.08266175,-0.03795137,-0.04267995,0.09591305,-0.1305093,0.11674698,0.06913787,-0.060118176,0.0287631,0.037663978,-0.10208673,-0.008736522,0.057648413,0.088652804,0.088696264,0.14127314,0.18973629,0.13949475,0.09742305,-0.17697616,-0.003783979,-0.046664953,-0.11635996,0.13206686,-0.07032541,-0.19660097,-0.07871078,-0.09717367,0.026423976,-0.115164414,0.08141891,-0.0237986,0.022278365,0.031886633,0.19113703,0.08695583},
	{-0.11879878,-0.062353384,0.09252203,-0.077989705,-0.0769346,0.0067744553,-0.04671924,0.0033502611,0.15374628,0.15411095,0.044298563,-0.20831537,-0.07022626,0.113554895,-0.19728458,-0.033707485,-0.16935934,-0.06542238,0.0470224,-0.08126554,0.021460487,0.05758415,-0.15444095,0.108809255,0.07543998,-0.10929301,0.14955868,0.20017424,0.12869148,-0.06535203,0.15431252,-0.047878083,0.1339948,-0.08470755,0.18778445,0.12091441,-0.009426057,0.107638486,-0.122574754,-0.15893808,0.017596826,0.031655625,0.124309294,0.19329815,-0.11025485,-0.061218232,-0.10941888,0.030056525,0.0061653573,-0.13195992,-0.012974238,-0.18243687,-0.18085508,0.008258864,-0.16607448,-0.07815616,-0.076451674,-0.15069008,0.04670722,0.17795807,-0.13750443,-0.12273639,0.10762017,0.024398476,-0.12234119,-0.12057049,0.13552776,-0.1631798,0.026246917,0.034935847,0.17280577,0.089428954},
	{0.10848917,0.09078515,0.19739404,-0.026887955,0.077398494,-0.19202957,-0.029842516,-0.06939179,0.042213976,0.049534515,-0.14273195,-0.0081442,0.10620442,0.08977148,-0.104318306,-0.08977104,-0.007401633,0.07920396,-0.135333,-0.029685352,0.11801694,0.19169039,-0.19288917,0.052281898,-0.15604262,-0.2082881,0.14168657,0.16679098,0.11404835,-0.17385688,-0.16335629,-0.036056634,-0.204071,0.0694446,0.056337498,0.07358117,0.0030840486,-0.13580379,0.080752924,0.01876956,-0.06461921,0.061243463,0.10472922,-0.032303933,-0.15021251,-0.17222947,-0.07771653,-0.1976915,0.09487823,0.18297514,-0.17846464,-0.13133678,-0.11429933,-0.09261554,0.08260541,-0.09096163,0.043778107,-0.047004677,-0.13273698,0.111838706,0.11098792,-0.10257117,0.16876638,-0.08163112,0.111169994,0.060482822,-0.18175575,0.0006533755,-0.04410602,0.1536293,0.07221922,-0.13822864},
	{-0.014950573,0.10124614,0.15110022,0.0013976084,0.15204036,0.18993747,-0.19597653,-0.08601887,-0.08331366,0.013692545,-0.02644736,-0.090583816,0.038595714,-0.056413468,0.09240158,0.027509319,-0.07270954,-0.042437445,0.072807424,0.022882689,0.07742728,0.16398613,0.1851042,0.19612443,-0.1295645,0.16678733,0.16427784,0.026064739,-0.15898074,0.04296102,-0.013473478,0.18109171,0.17409544,-0.19734745,-0.049194355,-0.021166874,-0.13839462,-0.020628067,0.066861846,0.10898089,0.20465371,-0.0706567,0.03659804,-0.09991119,-0.0025732825,-0.04479639,0.06516924,-0.08193515,-0.017022997,-0.19300602,0.14180571,0.030677177,0.17678061,-0.15312241,-0.16636445,0.052434046,-0.18559405,-0.11218871,-0.12329226,-0.11253885,-0.17863196,0.07413142,0.1725547,-0.111473255,0.16674462,0.11010438,0.13075125,0.038551398,0.21034187,-0.05657583,0.18256056,-0.17284562},
	{-0.13469258,-0.008378171,0.17090794,-0.10556102,-0.17487139,0.012408718,0.16528764,0.0023298305,-0.03040029,0.09973162,0.1486629,-0.15011066,0.19579577,0.17871898,0.068680264,-0.023080548,-0.16547772,0.17776741,0.1266039,-0.12577942,-0.16043441,-0.10492214,-0.08581844,-0.17636725,-0.098252214,-0.0722761,0.17231858,-0.17655654,-0.15165757,-0.100861214,0.13405277,-0.07013063,-0.14028534,-0.098422505,0.06395416,0.13505076,0.004555255,0.014628034,0.112041295,0.04004051,-0.20770788,-0.027352622,-0.18679826,0.12311093,0.1927263,-0.1366063,0.06724283,-0.0009055858,-0.10389622,0.017828528,0.06619615,0.10125536,0.1630086,0.107145876,0.05591995,-0.15487681,-0.11986017,-0.063350774,0.002643176,0.10319216,-0.11291788,0.08346335,-0.08154389,-0.054807555,-0.109070875,-0.07359416,-0.02285092,0.123039864,0.1774633,0.102034554,-0.17214943,-0.10744874},
	{0.015973017,-0.08905642,0.15225242,-0.041337304,-0.011216054,0.025333667,0.17873958,-0.118975714,-0.03897201,-0.1939053,-0.20767228,0.023037503,-0.14010282,-0.126757,-0.18924785,0.008436926,-0.00030328042,-0.13851935,-0.10445192,0.023784429,0.0750304,0.00062098424,-0.1255929,-0.13431054,0.124434054,0.05718073,-0.07803512,0.0019064387,0.03299537,-0.018135704,0.09530284,-0.023166087,-0.05333171,0.02791811,-0.058329016,0.15227306,-0.11593211,-0.11996337,0.039264232,-0.14127082,0.16576828,-0.18844818,0.007784805,0.017118366,0.039695516,0.05991803,0.14335273,-0.010492688,0.13016835,0.16536982,-0.07367636,-0.038946755,0.041477416,0.081685655,0.00023447341,-0.151342,0.10064515,-0.1744283,-0.019903125,0.087882385,0.10955071,0.06557666,-0.061536964,-0.016400574,0.11724363,-0.19254184,-0.08742309,-0.15093775,-0.18869723,0.18615022,0.10354436,-0.0154955145},
	{-0.022098675,0.09083105,0.16762632,-0.10352174,-0.007027345,-0.11386174,0.09774553,0.020872984,0.102256626,-0.16289215,0.09807916,-0.025105974,-0.050143618,-0.2035951,0.03882093,0.04544585,0.19257177,0.026684634,0.087265216,0.10985941,0.16362104,0.008475658,-0.07735667,-0.02036634,-0.0036902227,-0.087051496,-0.11827825,0.06239172,-0.078701265,0.16351594,0.13233727,0.030115945,-0.07460407,-0.059429817,0.045834597,-0.11612912,-0.00587219,0.1300461,0.05217907,0.105368435,-0.07542783,-0.10202619,-0.09640651,0.02862515,-0.020211816,-0.1404228,-0.11114404,-0.06015771,-0.030955862,0.17112519,-0.0321553,-0.07997695,0.03967888,0.008607241,0.05141835,0.11148596,-0.05094447,0.19535665,-0.09408331,0.14088823,0.17354687,0.13312922,-0.0031711073,-0.18611075,-0.04199373,-0.0764604,-0.15646477,0.10589266,-0.040145677,-0.15708019,-0.10289115,0.115110524},
	{0.15997373,-0.022077493,-0.041088514,0.008421092,-0.030632043,-0.12548979,0.0960789,0.07347257,-0.025523921,-0.12364033,0.013675098,-0.09801905,-0.105450146,0.17647985,-0.033311,0.009673904,0.19106306,-0.107935935,-0.15214822,0.018754568,-0.12886846,0.073618606,0.13464011,0.087442204,-0.10401366,0.08231034,0.17546715,0.17992349,0.15932992,0.022640714,0.18777305,0.07084284,-0.15961422,-0.025212081,-0.19824758,-0.07829949,-0.13717344,0.07851863,0.009161431,0.037359644,0.03628153,-0.08460253,-0.052566346,-0.11675882,-0.15840256,0.09749297,0.052289292,0.0628932,-0.117876045,-0.13479179,0.17988208,0.11415565,-0.09390101,0.15305777,0.09536295,0.09093146,-0.0630134,0.07483614,-0.10197276,0.012951327,-0.15640818,0.10272971,-0.0050574844,-0.17272249,0.07310159,0.1896259,0.14207359,0.11286972,0.10373408,-0.20434439,-0.037769847,0.03490378},
	{-0.045279533,-0.0722531,0.1983841,-0.12691678,-0.11775965,-0.14035615,-0.07202244,-0.10710758,-0.114167735,-0.0388657,0.0014394275,0.034392506,-0.0028403641,-0.19786532,-0.10193539,0.07915099,-0.08339331,-0.11640754,0.19658343,-0.168775,-0.07737629,0.032190174,0.11780212,-0.18566546,-0.042178035,0.0668535,-0.06673524,0.061133794,0.035667203,-0.10169297,-0.07907293,-0.097922586,0.16351373,0.10229465,-0.080317885,-0.10897132,-0.0007044226,-0.024968041,0.121768974,-0.15540527,0.06602447,-0.05404613,-0.12125147,-0.09912546,0.035270754,-0.19164936,-0.10613333,0.15687533,-0.0044703106,0.14863871,0.115767926,-0.14058591,-0.010362492,-0.043873984,0.05739156,-0.10576042,-0.031058554,0.031041997,-0.07212461,-0.13235395,-0.00716864,0.005373677,0.015212628,-0.107055515,0.013995952,0.1606566,-0.10918201,-0.112617716,0.16597338,-0.1735258,-0.14803392,-0.20419976},
	{0.1820619,-0.06977266,0.17652746,-0.07846202,-0.12989312,0.13249473,0.11054017,0.05769182,-0.03734302,-0.19397046,0.18787496,0.15690488,-0.2002628,-0.0770531,-0.19652623,0.18675983,-0.095163986,0.19287252,0.18287136,0.031593204,0.18945673,0.11144086,-0.15538287,0.10706728,-0.07832988,-0.020115852,-0.039607733,0.0010811429,0.19647163,0.18967356,-0.039484076,-0.15594889,-0.19815609,0.03170033,0.20605585,0.031071277,0.13978799,-0.092958875,0.134261,-0.12942158,0.028589327,0.14796191,-0.09379229,-0.030541668,-0.19107251,-0.023375368,0.061099455,-0.126844,-0.18834141,-0.17687312,-0.069018364,-0.0675641,0.16064999,0.026909601,-0.1338597,-0.10135191,0.08972156,0.14380607,0.19881815,-0.120940335,-0.17535008,-0.059138425,-0.032633044,5.0397357e-06,0.19333035,0.014875374,0.15900981,-0.14297847,-0.0086928,0.08090307,-0.030740924,0.06272229},
	{0.068635955,-0.061617,0.07553953,-0.0076225763,0.16946164,0.18853882,-0.07370822,0.12004586,-0.10097161,0.17087592,0.101357736,0.13395241,0.04254391,0.01946693,-0.14140192,0.19325837,-0.17652568,0.19265948,-0.116747946,-0.19661033,0.1384021,0.098763466,-0.07850998,-0.053840637,-0.14168172,-0.17166804,-0.18959953,-0.12203991,0.18998556,-0.004268406,0.17485996,-0.0731022,0.11401621,-0.083923526,-0.014709955,0.15863946,0.16138233,-0.09748951,0.0042926525,0.051358983,-0.07308673,0.06034238,0.11660887,0.042987958,0.03426179,-0.034423977,0.12502597,0.027900934,-0.009761562,-0.16449888,-0.12258862,-0.037442263,0.053483054,-0.053324193,-0.1701348,0.0923066,0.1660087,-0.06036843,-0.17124559,0.19859399,0.13437873,0.16939805,0.11468755,-0.19106966,-0.15097727,0.03536827,0.11520164,0.1675542,-0.027146593,0.17402588,-0.040617973,0.01865262},
	{-0.024498373,0.040471792,-0.13724259,-0.060268924,-0.05760542,-0.123822734,0.014707492,0.032467768,0.024137773,0.028741987,-0.15841356,0.02772728,-0.15083599,-0.037676014,0.10924571,-0.0006103059,0.1364506,-0.014784021,-0.09853052,-0.07941096,-0.13608886,-0.16950683,-0.17202005,-0.1251201,-0.07503622,0.087785006,0.11756692,-0.051956195,-0.01333254,0.083161816,-0.03003833,-0.13638857,0.10178052,-0.032228153,0.050403737,0.17231002,-0.08274595,-0.08803795,-0.105893284,0.105686165,-0.15874432,0.027012767,-0.040494133,-0.15298533,0.0048804404,-0.14566137,0.026967466,-0.17022341,0.10387819,-0.0145652,-0.05913846,-0.10940882,-0.053575106,0.019698754,-0.1361447,-0.08707324,0.12734516,-0.018696086,0.051130954,-0.1468701,-0.10640781,0.1605038,0.042127527,-0.10256014,-0.09432522,-0.08696948,-0.009041569,0.1711587,-0.078196466,0.15087831,-0.09250814,0.12032303},
	{-0.14096251,0.11568035,-0.13573448,0.120306894,-0.042688906,0.021020155,0.15032317,0.15511097,0.19805455,0.012006308,0.05274451,0.122078754,-0.0983553,0.113614544,-0.056236703,0.0018679246,0.005741307,0.14334072,0.043065157,0.023501445,0.026515732,0.13868317,0.179342,-0.15621668,-0.14074664,0.062986694,-0.0016276551,0.10077939,-0.18427938,0.05545906,0.18131562,-0.038818642,-0.019756466,-0.0988975,0.032790974,-0.10336496,-0.088944025,0.17896344,0.17342062,0.17860672,-0.20202903,-0.0025766187,-0.12669474,-0.12548794,0.02259942,0.02270759,-0.17842677,0.040582415,-0.09611137,-0.01036433,-0.0835309,-0.00599307,0.1854431,0.069012985,-0.17419554,-0.14057742,0.075666726,0.005308612,-0.0302389,0.08940718,-0.050379455,-0.20122936,0.07141633,0.1928826,-0.18660238,0.042769417,0.14130342,-0.06771508,0.18313982,-0.10273281,0.18500671,0.08080527},
	{-0.09011943,0.0650054,-0.1537057,0.06829754,-0.17588472,0.007894084,-0.05061818,-0.0049241493,0.016405111,-0.12824252,-0.0840502,0.18306336,0.10688453,-0.16959503,0.110463716,0.13854107,0.10557723,-0.06815646,0.1614494,-0.14901416,0.007544038,0.03929713,0.19164094,-0.14236999,-0.09678941,0.046073712,-0.17090331,-0.15166742,0.14845033,0.099496506,0.15048955,-0.1012242,-0.044339363,-0.07433732,0.099754356,0.13249756,-0.057216242,0.08895023,0.070420876,-0.2010637,0.099461086,0.025548015,0.20596744,0.1500749,0.022699794,-0.040797234,-0.134633,-0.020042524,-0.02456106,-0.046598133,-0.18805087,0.013765952,-0.16074307,0.19035633,-0.044399116,0.15517905,0.002723544,-0.028851217,-0.08956499,0.103072494,0.07213154,-0.049588665,0.14658165,-0.06586731,-0.06620155,-0.044483926,0.07492139,0.026343243,0.19542445,0.118584804,-0.09462149,-0.18229765},
	{-0.036622614,0.045822434,-0.09270579,-0.10612634,-0.0049444395,0.10680458,0.07049386,-0.020660503,0.027855437,0.052335054,-0.04853495,0.18613853,0.18583217,-0.036548246,0.038699184,0.05184606,-0.164269,0.019490784,0.0028977846,-0.17208914,-0.037041266,-0.04403408,-0.016396372,-0.056413494,0.038750723,0.051688697,-0.05588997,0.12938727,-0.049932256,-0.19002472,0.08781414,0.13260154,-0.078829505,-0.14190924,0.017908635,0.13382305,0.113638535,-0.17277429,0.13913701,0.18994454,0.09485235,0.08878527,-0.0690094,-0.16354911,0.16207159,-0.13450567,0.04806651,-0.012101266,-0.15850398,0.02222807,0.07933804,0.18942532,-0.046335492,-0.007968448,0.05325329,0.11254604,0.17280567,0.15873834,-0.09705156,0.07482447,0.08650056,0.026728185,-0.17930464,-0.02746189,0.16209838,-0.008344369,-0.14216843,0.1404099,0.02187281,-0.15176228,0.13633032,-0.13978674},
	{0.19536321,0.08212579,-0.17472164,-0.11522501,0.08005956,0.11647474,-0.06302727,-0.17159888,-0.10341876,-0.07619364,0.1500715,-0.1238606,-0.11368485,0.07331499,0.14351429,-0.021334065,0.19029565,0.08779095,-0.19327123,-0.06992535,0.11108846,0.11809863,-0.01839699,-0.14438048,0.018720461,-0.1396762,-0.11973606,0.037142012,0.14369777,-0.19962727,-0.116036594,0.09746683,-0.17174257,0.08250385,0.09487776,-0.15380073,-0.084574446,0.1496422,-0.08636465,-0.18753777,0.025344677,0.15362263,0.11349188,-0.19210513,-0.082277454,0.14907917,-0.19220951,-0.08097007,0.08488993,-0.09782314,-0.093711704,0.14913115,-0.022591783,0.18917806,-0.15047711,-0.09028909,-0.07477804,-0.19864132,-0.023085574,0.12979993,-0.034054562,0.10673979,-0.009102488,0.07406178,-0.14508528,0.09383912,-0.009846558,-0.18833499,-0.1458858,-0.07807137,0.1860129,-0.09755908},
	{0.202031,-0.013580179,-0.1739328,-0.049558148,-0.037006237,-0.058848213,-0.0041994257,-0.023307057,0.07613584,0.071067385,-0.1729563,-0.11925396,-0.0649521,0.04149384,0.13307719,0.16131473,-0.03878835,-0.16093282,0.20286293,0.14192191,0.06424261,-0.0575361,-0.0802814,0.16941613,0.006043639,-0.07889192,-0.17184034,-0.08306252,0.07527454,-0.1357177,-0.13293149,-0.095228694,-0.03302878,0.20557092,-0.100686476,-0.07808689,-0.1728161,0.026033517,-0.036639664,0.14320053,0.06682206,-0.15115662,-0.05750559,0.012175411,0.033107344,0.017143153,0.0430845,-0.057109907,0.06863695,-0.105949774,0.094385326,-0.02030108,0.13096717,0.19574153,0.17544678,0.020906672,-0.07836872,0.11556601,-0.046357814,0.056043617,-0.06593495,0.07537886,0.04758975,-0.19430862,0.04758864,0.091942735,0.097798966,0.18031082,-0.10142515,-0.04941627,0.17244637,-0.16039826},
	{0.06636818,-0.08996542,-0.08459068,0.0035389247,0.104675576,0.06856453,-0.10146575,-0.059638675,-0.04950827,-0.100293264,0.024631023,0.2002384,-0.07826215,-0.15189353,-0.10729662,0.13282715,-0.13486366,-0.18377732,-0.089931525,-0.049623087,-0.20179455,-0.10722758,0.1159852,0.15736218,-0.15348335,0.100490496,0.14930841,-0.1791225,-0.10206647,0.2020879,0.05786685,-0.16466163,-0.17267594,0.20995666,-0.080816306,0.052370217,0.09718643,0.15375732,0.028040776,0.19747038,0.17541824,0.10230895,0.107938975,-0.122415125,0.051220473,0.16456057,-0.14902583,0.1650377,-0.05676094,-0.10800374,0.09389238,0.04940817,0.06121014,-0.07289134,-0.07693324,-0.051795825,0.17193772,-0.038514696,0.041160878,0.04716318,0.17310403,0.16425952,-0.19392894,0.034634035,0.19004183,0.118396185,-0.089852974,-0.08084705,0.018840319,0.19177128,-0.16117159,0.14699244},
	{-0.17207608,0.16399461,-0.025851274,-0.097445704,-0.04617848,-0.11497984,0.008675676,0.019727625,0.100464754,-0.15443735,0.046380684,-0.20756492,0.07560001,0.1375388,-0.07992298,-0.12548266,-0.0009890653,0.103207156,0.11471445,0.015630009,0.20413277,0.13120992,0.14401616,-0.043197926,-0.031212114,-0.10270412,-0.04287101,-0.16952024,-0.06206428,-0.10635489,-0.13953021,0.18128552,-0.15309735,-0.09458514,-0.046469726,0.1340203,-0.103090405,0.12844324,0.18209511,0.127905,-0.12096742,0.044129167,-0.13464175,-0.14453182,-0.124980785,0.12700672,0.05526451,-0.20714644,-0.124375336,-0.1522291,-0.18536934,-0.16935314,-0.19479857,-0.1555315,0.0866135,0.09965135,0.07019383,-0.044531938,0.046748806,0.14771679,-0.06550334,-0.15300758,-0.20624655,0.18837728,-0.1506317,-0.07631413,-0.118687205,-0.14171183,-0.06057034,0.062919766,0.02946321,-0.14477362},
	{-0.18673411,-0.12163621,-0.20122325,-0.08395781,0.11952115,-0.19374326,0.041023303,0.07225735,-0.023291092,0.14438099,-0.13132448,0.07840635,-0.19595565,0.17010258,-0.12964983,-0.06396787,0.19258139,-0.12366117,0.04189619,0.034964126,-0.14220686,-0.14469342,-0.06069817,0.11573519,-0.013249127,-0.119374596,0.14305374,-0.19447602,0.12949665,0.03704588,-0.16609685,0.034317642,-0.0014061473,-0.043663558,0.15119311,0.062256575,-0.1456132,0.1509896,-0.022054832,0.0043953885,-0.15454529,0.057479,-0.12065868,0.07339424,0.044073522,-0.1268134,-0.1194296,-0.07642613,-0.009953509,-0.17213964,0.20079024,0.08875426,0.14086312,-0.193094,0.008443446,-0.059546694,-0.061969265,0.1628084,-0.1496813,-0.20302695,-0.0763904,0.119249865,-0.12875481,0.020773705,0.07522011,0.097512744,-0.1292254,-0.18976726,0.16064695,0.17804871,-0.1880851,-0.001274182},
	{0.1068394,-0.045481436,-0.010077516,0.005236837,0.07559552,0.10087115,-0.19170527,-0.17991978,-0.16136034,0.19784066,-0.12087672,-0.073928,-0.10968216,0.03538281,0.18548812,-0.1248972,-0.07060191,0.08692356,-0.05223537,0.067797534,-0.07905142,-0.032770883,-0.11909014,0.005379334,-0.07707049,-0.015733367,0.18106906,0.02263213,-0.14129405,0.10616391,-0.09351479,0.17467867,-0.18492864,-0.17851913,-0.18655874,0.12700453,-0.15907468,0.09885399,-0.00043425616,-0.17196393,-0.0677798,-0.052600507,0.11722714,0.1208126,-0.09168265,-0.016723735,-0.19552138,-0.045519166,0.15822476,-0.0281347,-0.022215996,-0.064427026,-0.1879479,-0.14795579,-0.12677349,-0.07398901,-0.06480045,0.023651294,-0.034972753,-0.010977416,-0.1621032,0.13547552,0.056909967,-0.03207241,-0.019013735,-0.04306891,-0.1811514,0.03107797,0.10461902,-0.09531771,-0.0056691123,0.16617168},
	{-0.19475679,0.16742976,-0.09774776,0.1488225,-0.19060966,-0.07488455,0.19156942,0.17170373,-0.09816538,-0.12627707,0.06925026,0.05081494,0.042758334,0.060731675,0.082687326,-0.16955224,-0.17880447,0.05885482,0.18976791,-0.16932505,-0.116094895,-0.0863921,0.13271643,0.037632942,0.06852717,0.10301967,0.17118679,0.12450309,-0.15971547,0.06509375,-0.03951017,-0.012032491,0.042355258,0.085690804,-0.08144878,0.15820391,-0.06596053,-0.18014751,0.18635194,-0.19485693,-0.044642895,0.019703012,0.004821776,0.08645383,-0.14833331,-0.086283125,0.12871054,0.14983054,-0.08772472,-0.11881364,-0.0434354,0.17017017,0.10963763,0.010116381,0.10532848,-0.1455227,0.030040307,-0.0016549727,0.1268843,0.15321714,-0.03198524,-0.1938807,0.016977634,-0.113166526,0.046096135,0.19838749,-0.0176972,0.056296468,0.0098389825,-0.1815705,0.15147313,-0.19638126},
	{-0.015435666,0.014597203,0.17091598,-0.12640458,-0.06569882,-0.15235373,-0.09940103,0.11190982,0.12887381,0.20579913,0.018749284,-0.19272837,-0.027297815,0.10850696,-0.09987717,0.13338578,0.16676784,-0.19605526,0.060489163,0.08314447,-0.16632763,-0.017507086,0.06367135,-0.119230494,-0.19655244,0.10225146,0.10777282,-0.096858345,-0.072147466,0.009384883,0.1397097,0.11578966,-0.023637755,0.05661859,-0.1307486,-0.020052746,-0.1281212,0.06219547,-0.05904144,0.20622094,-0.052916437,0.17920183,-0.093508564,-0.10823625,-0.101473294,-0.050422616,0.13402374,0.12975407,0.19971646,-0.10207635,-0.013068744,-0.12438791,-0.06363237,0.005807314,-0.13821056,0.18823218,0.1913187,0.1636728,0.18680537,-0.060243424,-0.07024135,0.013329374,-0.13779001,0.03327713,0.19569513,0.10457545,-0.04257814,-0.113414064,-0.10274288,-0.13074087,0.008162948,0.047181346},
	{0.051912174,0.08691965,-0.14248815,-0.048281234,0.17023873,-0.16592959,0.06920839,0.03508827,0.06728235,0.080492765,-0.15670383,-0.0002249954,0.07739642,0.0029303925,0.11310632,0.031865504,-0.18129057,-0.19167288,-0.14698105,-0.043450583,-0.07488994,0.14820589,0.17161769,-0.20000175,0.16178095,-0.09503312,0.012596891,0.16644177,0.08107484,-0.17675865,0.09611574,-0.1693974,0.026002731,0.19753458,0.048791025,0.101087935,-0.15474862,0.06055917,0.12932104,0.20234673,-0.042487454,0.16784495,0.15968727,0.09118538,0.12656161,0.015036466,-0.17956524,-0.034527063,0.010259324,-0.08691827,0.059860393,-0.09263124,-0.19430774,-0.16913283,-0.13199225,0.20559403,0.20896004,-0.11819958,0.10511694,0.15229718,0.031006483,0.20972358,0.05253603,-0.19171922,0.0058392393,-0.079303585,0.06350286,0.15528814,-0.05279677,0.20840856,0.20002934,-0.12664059},
	{-0.0047629625,-0.16409677,0.058744643,0.08265711,-0.036153167,-0.057331964,-0.17693135,-0.19141358,-0.07341305,-0.039950572,0.11253768,0.06379571,0.15178773,-0.040083647,0.0134248715,-0.01634696,-0.037137214,-0.047328066,-0.11171591,0.124604985,0.15285908,0.086714275,-0.16230483,-0.16729043,0.08151367,0.07741865,0.069844045,-0.1451694,-0.027754549,0.1830686,0.084635355,-0.06765638,-0.11232472,0.20790237,0.13614997,0.083885625,-0.14299935,0.12850985,-0.09523084,-0.19427972,0.13670525,0.18426172,0.17204738,0.19018328,0.16338703,0.19849147,-0.025709286,0.07971499,-0.13093644,0.142204,-0.055750508,0.05662898,-0.06271629,0.13361084,-0.005750156,-0.11504858,0.13790444,0.042060263,-0.1444028,0.11457654,-0.009504633,0.20738505,0.1859703,-0.094351836,-0.13103703,0.104534276,0.07424211,-0.18864903,-0.14388718,0.07355069,0.106609315,0.036265638},
	{0.014012024,0.09809137,0.11516141,-0.04287498,0.018039376,0.10044136,0.036573265,-0.16122867,-0.05374946,-0.049828134,-0.09233633,0.06496246,0.07954163,0.13292143,0.06710758,0.16036054,-0.02057996,0.16422464,-0.05807812,0.04112599,0.19272462,-0.16685662,0.1372381,0.12473348,0.05095869,0.022508428,0.12262097,-0.036411356,0.10081139,-0.171449,0.056902353,0.1759689,0.07314189,-0.007872912,-0.11763884,-0.20414568,-0.18581359,0.0829844,-0.057935,-0.1298206,-0.1414731,-0.17006017,0.1936167,0.05411655,-0.049020052,-0.10657838,-0.07139026,0.17603748,0.106745526,-0.10997098,0.11057628,-0.07658303,0.17010473,0.0324679,0.07840633,0.0007799107,0.06611284,0.17230104,0.09586726,-0.13798495,-0.15600695,-0.17815797,-0.14290546,-0.14790007,-0.13475549,0.17626406,0.0889375,-0.18900576,0.21123445,0.20607248,-0.19520801,-0.011582312	}
};