// include/conv2d_3678_weight.h
// sergio rivera 
// 2020/02/15 03:40:13 

const float conv2d_3678_weight_p[3][3][4][4]=
{
	{
		{
			{-0.045202117,-0.029668633,0.06719797,-0.08068275},
			{-0.23065123,0.20592402,0.23327433,0.061308555},
			{-0.20493683,-0.059053876,0.068539925,-0.1392067},
			{-0.13901488,0.19544461,0.27351213,0.1377561}
},
			{{-0.05039498,-0.26544654,0.2629425,-0.28427702},
			{0.025627488,-0.0119267795,0.0058856634,-0.17348164},
			{0.036040932,-0.012338114,0.24809851,0.048911992},
			{-0.1010865,-0.2510998,-0.27824193,-0.12843266}
},
			{{0.0056547513,0.2656014,0.19384524,-0.07007108},
			{0.13908324,0.095057145,0.14693022,-0.020665893},
			{0.029508555,0.11049137,0.14160183,-0.09818803},
			{-0.17055677,-0.23377365,0.14102432,-0.0010577191}
}
},
			{{{0.17451183,-0.0055530136,-0.25676987,-0.12255345},
			{-0.2349535,-0.13175195,0.18978126,0.06606298},
			{-0.2641967,-0.16087937,0.15177163,-0.2870815},
			{0.21866636,-0.15537678,-0.16019265,-0.18204252}
},
			{{0.021056285,0.1363111,0.001083639,-0.013926612},
			{-0.20103444,0.22492751,-0.10994057,0.13107672},
			{0.18702614,0.16122597,0.0968453,-0.25557283},
			{0.21580893,0.27732453,-0.23755327,0.15703748}
},
			{{-0.25919938,-0.24544801,-0.07643161,0.20836173},
			{-0.27060467,-0.039109796,-0.03831469,-0.0370094},
			{-0.2754319,0.21828243,0.089437395,-0.21139953},
			{0.051807564,-0.22846358,0.03618762,-0.24887565}
}
},
			{{{0.2176902,0.012801563,-0.1044412,0.14063787},
			{0.013195169,0.115474746,0.2757317,-0.06916377},
			{-0.08435504,-0.027071845,-0.110215165,-0.20756017},
			{0.2331131,-0.20610012,0.009661354,0.07153604}
},
			{{0.10265691,-0.2146534,-0.23298447,0.22469386},
			{0.04354715,-0.22739153,-0.08691587,0.18869813},
			{0.1353477,0.08026077,-0.028030941,-0.028723989},
			{0.21379896,-0.12297175,-0.15312432,0.12737057}
},
			{{-0.1053764,-0.095710315,0.15422028,0.116316766},
			{0.23206481,0.007897931,-0.074555345,0.11939089},
			{0.2817469,-0.17066087,0.22455868,0.25859833},
			{0.13204265,0.14763281,-0.27062258,0.08713667			}
		}
	}
};