// include/dense_749_weight.h
// sergio rivera 
// 2020/02/14 21:37:23 

const float dense_749_weight_p[16][5]=
{
	{0.050857116,-0.28982425,0.30308798,-0.3680973,0.43573785},
	{-0.49750036,0.35303265,0.32309222,0.26316416,0.4979599},
	{-0.47716343,0.011294246,-0.1251416,-0.12576339,-0.18004666},
	{-0.024159485,-0.41403666,-0.064146,-0.21860772,-0.029334677},
	{0.424067,0.19362098,-0.33711943,0.16086258,0.21115573},
	{0.46371117,-0.106844366,0.14132714,0.32341397,-0.22373393},
	{0.12964265,-0.43790224,0.4121288,0.37226486,-0.1842798},
	{-0.27427983,-0.23789969,0.3025942,-0.13451156,-0.470545},
	{0.39524144,-0.2185911,0.46559787,0.39382014,0.0073615042},
	{0.025814202,-0.032820642,0.42690712,-0.51782024,0.19532283},
	{-0.50500387,0.36450493,0.18376097,0.40837213,-0.039832328},
	{-0.26451594,-0.5270396,-0.11388615,-0.045301907,0.3692152},
	{0.0016692716,-0.48439696,-0.02060934,-0.2995617,0.31054032},
	{0.29958954,0.46297687,-0.25841403,-0.0060074227,0.29297206},
	{-0.43143302,-0.05869943,0.35898465,-0.0124193765,-0.010883252},
	{0.012224437,0.1737485,0.35639036,-0.17923236,-0.27401614	}
};