// include/dense_758_bias.h
// sergio rivera 
// 2020/02/14 21:37:29 

const float dense_758_bias_p[111]=
{-0.0011085569,-0.0028085983,0.009553075,0.003941591,0.013143795,0.006347877,-0.0017807311,0.009160733,0.00035542203,-0.013927549,0.007327596,0.00054580625,-0.006414363,0.0027651927,0.0013386376,-0.0038794777,0.008704836,-0.0066298526,0.0011669616,-0.0020717909,0.0021585366,-0.0021737672,0.0010319562,-0.00016356597,0.007391625,-0.004110314,-0.0030503664,-0.006470332,-0.00042669987,-0.007518018,-0.004932311,-0.0020240126,0.00026519469,-0.0065650665,0.005533267,-0.0068212063,-0.0064327605,-0.00039372453,-0.0034166032,-0.0014346146,0.00058276404,0.0015424363,0.0032382943,0.00867917,-0.007304038,0.0024102167,-0.0030327921,-0.007040763,0.0010997764,0.0030018138,0.0003723544,-0.0019663693,0.005188753,-0.0036487046,-0.0023491634,0.0024857402,0.0026246852,-0.0042750016,-0.0052489303,0.003343073,0.0028818045,-0.0023185113,-0.0061314274,0.001501541,-0.00044516276,-0.00019498821,-0.0031658115,0.010884162,-0.0023528212,0.0065482333,-0.003945601,0.0018041832,0.00372151,-0.002661992,-0.0060206614,0.0011902814,0.00039613555,-0.0048990455,0.0027540007,0.002536328,0.007517186,0.007476454,0.0047228215,-0.01721209,-0.0013796266,0.0022912405,-0.0076932977,-0.0035737494,-0.0016090355,1.1491589e-05,-0.001778502,-0.005288588,-0.0045604957,0.0001379893,0.0012406409,0.0033323243,0.00077060534,-0.009696015,-0.00067893404,0.00025718776,-0.005559997,-0.0038617137,-0.0055349395,-0.0076774103,0.00669811,-0.004088943,-0.0021720945,0.0039881906,0.0025995169,0.0046485458,0.00847004};