// include/conv2d_2829_weight.h
// sergio rivera 
// 2020/02/15 02:07:58 

const float conv2d_2829_weight_p[3][3][12][4]=
{
	{
		{
			{-0.1437606,0.13182107,-0.11402152,-0.14714092},
			{0.12682153,0.090967566,0.20136532,0.1765418},
			{0.18739705,-0.18382677,0.09147113,0.13486601},
			{0.06045943,0.088228256,-0.12760238,-0.16734993},
			{-0.043983843,0.109959535,-0.018774979,-0.119750865},
			{0.18495509,0.17153731,-0.13551418,0.08159315},
			{0.050943635,-0.08601326,-0.11196939,0.06945343},
			{-0.034042887,0.14224869,-0.124630265,0.19211262},
			{-0.049120337,-0.18415266,-0.1493434,-0.03883541},
			{0.040687785,-0.14204368,-0.057376523,0.06575137},
			{-0.19710658,0.034425598,-0.0022545643,0.043663446},
			{-0.032709084,-0.1203807,-0.11962435,-0.179239}
},
			{{0.02600224,-0.17133114,0.084066056,-0.141966},
			{0.069002196,0.035608537,-0.040682055,0.20139736},
			{-0.17190094,0.16180055,-0.07729359,-0.10495827},
			{0.15313871,0.11170721,0.1509797,-0.16325718},
			{-0.07941623,-0.22378127,0.15949588,0.10314506},
			{0.19501695,-0.19999434,-0.008550966,0.13810857},
			{0.06909074,-0.08778346,0.048819646,-0.080040336},
			{0.1491986,-0.09792962,-0.11877454,-0.0029518057},
			{-0.024556655,-0.15881436,0.09652857,0.009721397},
			{0.06225307,0.16961513,0.108134374,-0.17878067},
			{-0.0016044467,-0.07964611,0.16348211,-0.13338213},
			{-0.032582384,-0.07897418,-0.006586671,0.091781355}
},
			{{-0.12910618,-0.043586988,0.12538713,0.025551176},
			{0.18457869,-0.07166045,-0.020675812,-0.20242524},
			{0.19642437,-0.10162144,0.18909223,0.0068262885},
			{-0.13777153,-0.009033073,-0.12689435,-0.056231607},
			{-0.13638905,0.10534815,0.14130016,0.04792149},
			{0.19831274,-0.18759474,-0.0062980694,0.045019977},
			{-0.0105751,0.07948789,-0.13453291,-0.11329799},
			{0.033340216,0.10445604,-0.09133123,0.028969562},
			{0.1734722,-0.13295317,0.009213645,0.038466744},
			{0.032893784,-0.06904358,0.089939944,0.15858339},
			{-0.1044667,-0.025467133,0.219581,0.010050637},
			{0.034616657,0.097715564,0.004901113,0.0052925227}
}
},
			{{{-0.0697259,-0.06206766,-0.07826438,-0.10034724},
			{-0.15374605,-0.17895609,0.03239255,0.18952096},
			{0.043272335,0.18035904,0.15908954,0.16816483},
			{-0.010404928,-0.1871623,-0.0068748225,-0.05913764},
			{-0.2071148,-0.059942767,0.041282598,-0.20602098},
			{0.11617282,-0.064966455,-0.07411854,-0.021430906},
			{-0.07196508,-0.19961043,-0.023842916,0.13501377},
			{0.13680907,0.19695708,-0.14965975,-0.09430524},
			{-0.010964913,-0.095569596,-0.14622088,0.05601148},
			{0.17773558,0.15613602,0.1993974,0.034330416},
			{-0.2146045,0.09324685,0.04539036,-0.15567231},
			{-0.031636734,0.022417892,0.12517129,-0.11743186}
},
			{{0.19216429,-0.023214038,-0.13481234,0.08425025},
			{-0.16866513,-0.017637867,0.026322234,0.07908261},
			{0.09155882,-0.074840754,0.19629148,0.022900354},
			{-0.09838526,-0.16970247,0.20199794,-0.11828106},
			{-0.056418825,-0.04499891,-0.0039341114,0.03966247},
			{0.039770402,-0.124183066,-0.014752116,0.13640594},
			{-0.14028662,-0.010315818,0.13215274,-0.16530024},
			{0.10529644,0.04997541,-0.06934921,-0.14272602},
			{-0.13388385,-0.0012332979,-0.13609214,0.13142303},
			{0.06285717,-0.12486392,-0.17066282,-0.078792185},
			{-0.116212554,-0.1536302,-0.032380674,0.0615636},
			{0.0346967,-0.10948192,0.013833541,0.17858773}
},
			{{0.09816133,-0.09107787,-0.093808375,-0.21356821},
			{0.04862812,0.114355005,0.030618777,0.03621326},
			{0.19937934,-0.07659935,0.055556856,0.0027436814},
			{0.17776504,-0.18705091,0.19105564,0.050127875},
			{-0.011573491,-0.015389081,0.19523688,0.048605815},
			{0.15832646,-0.17756404,0.122764364,-0.12204778},
			{-0.054212864,-0.016390478,-0.053876884,-0.21169919},
			{0.14116739,0.12219222,0.048894156,-0.036987342},
			{-0.079316966,0.19795863,-0.008969105,0.14189148},
			{-0.022463733,-0.05970365,0.16935766,0.039842203},
			{-0.02109834,-0.14752138,0.12651879,0.03528852},
			{-0.048735324,0.06634807,-0.12705883,-0.083319455}
}
},
			{{{0.19564015,0.116291024,0.11565065,0.16972263},
			{0.0955774,0.025292069,0.19132428,-0.18760625},
			{0.091952704,0.14408454,-0.15215349,-0.027848616},
			{-0.13583918,0.023049112,0.16736439,-0.040641464},
			{0.08904614,-0.15552306,0.032714922,0.024369888},
			{-0.10734735,0.084308654,-0.16965748,0.17391367},
			{-0.13537043,-0.16828723,0.124635994,0.11279063},
			{0.18838994,0.13493496,-0.099094525,-0.124483004},
			{-0.16946289,-0.039921906,-0.07503918,-0.009264047},
			{-0.120977126,-0.0034473587,0.16092692,-0.04762842},
			{-0.14640917,-0.016290585,-0.17730998,-0.025826996},
			{-0.104706995,0.0265024,-0.010015036,-0.0895137}
},
			{{-0.06804716,-0.066560686,-0.20410591,0.0054121837},
			{-0.030458765,0.19968158,0.05074412,-0.13241984},
			{0.15627748,0.004903161,0.07988861,0.016810577},
			{0.07144569,-0.04084238,-0.1982721,-0.15373735},
			{-0.14945044,-0.17741382,0.050966647,-0.15879251},
			{0.15650429,0.11677685,0.010110696,-0.19115919},
			{-0.14682397,0.14958762,0.10136324,0.03342486},
			{-0.0483654,-0.088383995,0.14549205,-0.026635727},
			{-0.011711805,-0.013818231,-0.008186964,-0.061568853},
			{0.16845581,0.04177209,-0.029378273,-0.026169289},
			{0.1393233,0.05325552,0.07500983,0.08484331},
			{0.16369918,-0.18586233,0.17536049,-0.081650116}
},
			{{-0.103077225,-0.034701463,0.059056602,-0.19118366},
			{0.20399506,-0.1386969,-0.083075434,0.19576748},
			{-0.0002543449,0.14039403,-0.09261158,0.076937675},
			{0.062845014,0.09837907,0.18505408,-0.14766358},
			{0.028969165,0.15247527,-0.16916364,-0.04797664},
			{0.15320034,-0.16724965,0.20025384,-0.12742695},
			{0.060252186,-0.18098572,0.054604594,-0.059937924},
			{0.011398951,-0.025407588,-0.15487127,0.15438949},
			{0.025379684,0.18661077,-0.009041536,-0.046863362},
			{0.03143164,-0.1947615,-0.18038602,0.0057965512},
			{-0.15959626,0.10513284,-0.11409761,0.025477367},
			{-0.13271672,-0.016389444,0.017417759,0.08997347			}
		}
	}
};