// include/conv2d_2831_weight.h
// sergio rivera 
// 2020/02/15 02:07:58 

const float conv2d_2831_weight_p[3][3][12][2]=
{
	{
		{
			{-0.1424627,-0.060536608},
			{-0.21553694,-0.1979996},
			{-0.007437229,0.09305601},
			{-0.03824109,0.19354118},
			{-0.03206244,-0.021687016},
			{-0.017712295,-0.02973172},
			{-0.118921846,-0.16208246},
			{0.15223138,0.06969486},
			{-0.16245295,-0.041889176},
			{-0.11341831,0.15901719},
			{-0.049801275,-0.19371751},
			{0.15745793,-0.049237713}
},
			{{0.09926556,-0.08998172},
			{0.040187106,-0.20540984},
			{0.12255554,-0.16220266},
			{0.107136086,-0.043754816},
			{-0.14281306,0.16302676},
			{-0.07597028,-0.19087468},
			{0.05353813,-0.07532534},
			{0.056834415,-0.20168214},
			{-0.21133845,0.09052925},
			{0.0794483,-0.15523481},
			{0.17531674,0.1330686},
			{0.008368313,0.14403065}
},
			{{-0.03407064,0.13910435},
			{-0.15258272,0.086536005},
			{-0.19909431,0.20300244},
			{0.13588412,0.015788749},
			{0.03476177,-0.017462194},
			{-0.106433034,-0.029235229},
			{-0.1407728,-0.16664495},
			{0.043909296,0.102216914},
			{0.024326041,-0.11976771},
			{-0.19293185,0.13883339},
			{-0.035898462,-0.11056508},
			{0.19610472,-0.109411694}
}
},
			{{{-0.06549913,0.20902754},
			{0.08963688,0.04920821},
			{-0.11555975,0.17086543},
			{0.18470173,0.06086968},
			{0.115427956,-0.08771968},
			{0.094825044,-0.11256371},
			{-0.09482066,-0.08997512},
			{-0.1379073,0.15748696},
			{0.20767738,0.014985815},
			{-0.04389161,0.14176627},
			{-0.16975503,-0.20241386},
			{-0.21119188,0.09839894}
},
			{{0.03753878,0.11494745},
			{0.06037809,-0.15622988},
			{0.11608292,0.13608848},
			{-0.19651954,0.018283084},
			{-0.13819927,0.06462146},
			{-0.100158654,0.028681457},
			{0.17708243,-0.16518214},
			{-0.06553939,-0.09862313},
			{0.009279311,-0.12608224},
			{-0.02552995,0.09201266},
			{0.053725675,0.17257608},
			{0.1811829,-0.10984363}
},
			{{-0.016009077,-0.07971269},
			{-0.0064600557,-0.102589734},
			{-0.085299164,0.014733434},
			{-0.20330851,0.031197175},
			{-0.17637002,-0.18919717},
			{0.1808181,0.05418144},
			{-0.060720682,-0.033766016},
			{-0.07021955,0.21308686},
			{0.11651783,-0.14127654},
			{-0.07110208,-0.066525415},
			{-0.10057055,-0.07033692},
			{-0.057556182,0.16590573}
}
},
			{{{-0.13668054,0.11360477},
			{-0.055159077,0.047756955},
			{0.07285701,0.06370075},
			{0.1802385,0.0027271658},
			{-0.06488317,-0.07135177},
			{0.20126505,0.15407376},
			{-0.03843458,-0.09828162},
			{-0.07045482,0.2173764},
			{0.122560844,0.13893698},
			{-0.18027452,0.02478695},
			{-0.17682713,0.07533096},
			{-0.06275411,0.12736456}
},
			{{-0.095706895,0.18752022},
			{0.18796287,0.17166807},
			{-0.14170945,-0.2173265},
			{0.17696424,-0.13315856},
			{-0.049257383,0.09540187},
			{0.002077505,-0.04225269},
			{0.17119978,-0.17889823},
			{0.07452397,0.14253424},
			{-0.18924062,0.10022311},
			{0.10583134,-0.09986647},
			{0.0068393946,0.10612707},
			{-0.11177451,-0.20408975}
},
			{{0.1256669,-0.04456894},
			{0.15124686,0.20949517},
			{-0.08338888,-0.050239548},
			{-0.17366117,-0.15320554},
			{0.09604441,-0.10894798},
			{-0.016360417,0.11461525},
			{-0.04931976,-0.027817234},
			{0.10027473,-0.0339929},
			{0.0049425364,-0.079240024},
			{0.12862717,0.0037539154},
			{0.18293212,0.019928023},
			{0.116394356,0.08283235			}
		}
	}
};