// include/dense_2297_bias.h
// sergio rivera 
// 2020/02/15 02:08:04 

const float dense_2297_bias_p[119]=
{-0.001658675,-0.00044481002,0.0052221534,0.0024910572,0.002598294,0.001223342,0.004585851,-0.0058165463,0.0009757545,0.005438936,0.011551396,0.01043655,0.006868218,0.0028561007,-0.006930702,-0.0066663106,0.010080498,-0.0055621886,-0.004251461,0.0004334959,-0.004239104,-0.007266919,-0.0027183965,-0.005223559,0.0044737016,0.00066650246,-5.3319032e-05,-0.001161481,0.0031519083,0.011170468,0.0013653387,0.0022019385,-0.00173939,0.010153752,-0.0060504717,-0.005288481,-0.0002998924,-0.013365214,0.008786492,-0.0048655225,-0.0051585576,-0.007575623,0.00088656,0.0007676292,0.002789413,0.0020726912,-0.014201159,-0.0016095235,0.0053375117,0.0017651309,0.0035086593,-0.005188771,-0.0012061798,0.0026821701,-0.00068171415,-0.0017343045,0.005376947,0.016240712,-0.005298947,-0.003478318,-0.00457184,-0.0028204373,-0.008331313,0.007672414,-0.00021792226,-0.0024821267,-0.0027048234,-0.0042363144,-0.013483021,0.0027451713,-0.0037178826,0.00010756054,-0.006066283,0.0012971474,0.0017843666,0.00797599,-0.0035098153,-0.0018247748,0.001352846,-0.0027138623,0.00083141576,-0.0062791165,2.636225e-05,-0.006308145,-0.0021756645,-0.002815857,-0.010913654,-0.0069068735,0.008867653,0.0017446484,0.0037559648,-0.0017796103,0.004469649,-0.0034438781,0.0045890794,0.009013411,-0.0025433744,-0.006372991,-0.00079720654,-0.0005770172,-0.0022054594,-0.00747196,-0.0041904845,0.0021451158,0.006210679,0.008669548,0.00034804735,-0.0007773051,-0.0009770963,0.026198618,0.0034599784,-0.004109266,0.00589661,-0.007061515,-0.006508628,-0.0033158595,-0.006426133,0.0011452587,-0.0012889932};