// include/conv2d_3710_weight.h
// sergio rivera 
// 2020/02/15 03:43:09 

const float conv2d_3710_weight_p[3][3][3][4]=
{
	{
		{
			{-0.15493236,-0.27316153,-0.22634189,-0.08021408},
			{0.28384992,0.24714507,-0.27249584,-0.036860134},
			{0.20816657,0.13058,-0.2789721,0.021622678}
},
			{{-0.071928024,0.08267438,0.27267858,0.24725789},
			{-0.14414869,0.30024767,0.22546759,-0.23075491},
			{0.27561063,-0.05302633,-0.11848076,-0.20708808}
},
			{{-0.022517608,0.29175308,-0.13103542,-0.1551923},
			{-0.18452792,0.04145306,0.20781098,0.06697419},
			{0.1282434,-0.017253444,-0.12315759,-0.25845948}
}
},
			{{{-0.20528182,0.17293513,0.26980188,-0.26392698},
			{-0.13326032,0.041763734,0.27719206,-0.12737487},
			{-0.114646755,-0.0023578363,0.19347541,0.019069798}
},
			{{-0.1490445,-0.22497094,-0.24149898,0.066805735},
			{0.23200354,0.07830785,0.14257993,0.27937612},
			{0.15094344,0.049400646,0.06062784,0.025592323}
},
			{{-0.17669421,-0.06590399,-0.055980496,0.2056886},
			{-0.08967806,0.059986517,0.096377805,-0.2327872},
			{0.17520244,-0.19308259,-0.14743447,-0.13300362}
}
},
			{{{0.16051254,-0.048061937,0.04745868,0.031842086},
			{0.21301277,-0.14155528,0.15411036,0.1085832},
			{0.028060973,0.018348344,-0.25413334,0.082622014}
},
			{{-0.11908285,0.15601045,0.11807418,-0.25226644},
			{-0.23760891,0.22274159,-0.13340658,0.23529786},
			{0.059051767,0.11915547,0.031492013,-0.013431152}
},
			{{-0.005916833,-0.0020824624,-0.038395863,-0.0875036},
			{0.29150409,0.013299239,-0.22838852,-0.109881386},
			{0.22808775,-0.08741131,-0.17684184,-0.18602839			}
		}
	}
};