// include/dense_390_weight.h
// sergio rivera 
// 2020/02/15 00:03:21 

const float dense_390_weight_p[13][178]=
{
	{0.17477012,-0.17822555,0.0107249245,0.014359822,0.046285365,-0.057611126,0.022536136,0.011101683,0.0017214622,-0.11714276,-0.02367939,-0.16900706,-0.13004713,-0.010609988,0.13229439,-0.10721079,-0.10796775,0.1361515,-0.012637299,0.006824756,0.045885835,0.11870837,0.085543744,0.17209168,0.003325514,0.17406371,0.056542266,-0.14646061,-0.033909857,0.15867256,0.1378574,0.04808923,0.13878267,-0.061642956,-0.024533201,0.06395484,0.110054694,0.021256002,-0.005917072,0.10579554,0.13013591,-0.08817282,0.13006616,-0.16865411,0.14878799,-0.15756874,-0.17057258,-0.018983796,0.15408736,0.162456,-0.0560264,0.1418636,-0.047840808,0.016614284,0.109948665,0.16379957,0.06303807,0.01457546,0.084829606,0.014491096,0.13086285,-0.062641926,0.05716141,-0.055183962,0.113492385,0.12614506,-0.15235141,0.022810789,0.035737455,0.10716878,-0.14338426,0.09459839,0.1156756,-0.07901915,0.062666774,0.11698015,-0.018859077,-0.07217135,0.12927759,-0.024755664,-0.082760096,0.09877616,-0.06547349,0.16023442,0.00535322,0.110993065,0.006604856,0.0049409377,-0.15009686,-0.14694715,-0.030058132,-0.100643605,0.09547184,-0.028340392,-0.15502377,-0.0561049,-0.072804034,-0.15646331,0.09478365,0.04267925,0.16418456,0.077207275,-0.022805704,-0.071987286,-0.15089944,-0.12387748,-0.14056581,0.0955252,0.10061726,0.1496376,-0.05706827,0.0986096,0.15833072,0.08851839,0.08664272,-0.15873341,0.10499662,-0.079396315,0.13609922,0.011691466,-0.09371782,-0.11161409,0.07343974,0.1494758,-0.034145076,-0.10016512,0.032472465,-0.15046297,-0.008928168,-0.056503054,-0.05579587,0.1676572,0.16244836,-0.027094278,-0.07875912,-0.055369392,-0.025150264,0.12330981,-0.096225195,0.11089406,0.029390955,-0.047388323,0.05345067,-0.05611735,0.14791483,-0.018203411,0.06779654,0.13506298,-0.10194402,0.07253456,0.021322556,-0.050227772,-0.16503261,0.16990723,0.1258203,0.1383272,-0.034092143,-0.16447513,-0.17656976,-0.120333984,-0.15503031,0.14063004,-0.12964766,-0.157767,0.14342116,0.16196668,-0.12458102,0.08061197,-0.10785904,-0.01589072,-0.1725322,0.0062012,-0.018561848,-0.09294302,-0.14972338,0.040292177,0.121447496,-0.17274822},
	{0.058481287,0.060894076,0.17651859,-0.06487984,0.16527039,0.019081203,0.17460167,-0.05359971,-0.16072038,0.15690641,0.015355953,-0.015684903,-0.007808152,-0.037860904,0.071681805,-0.09026708,0.15762359,0.13558453,-0.057208862,0.12283056,0.14684568,-0.005398187,0.16708991,-0.10230887,-0.039552983,-0.09276644,0.07423672,-0.13353875,0.018798852,-0.17263015,-0.14605895,-0.13719036,0.17414078,-0.0035634274,0.131657,0.1749445,0.13860093,0.080362126,-0.03921889,0.057247613,-0.08948904,0.019893749,0.10679571,-0.01985358,-0.11271645,-0.0051986314,-0.07174313,0.07665499,-0.13605161,-0.10756011,-0.027089704,-0.17871562,-0.03435316,-0.1612915,0.1358427,0.050281662,-0.035996247,0.01745436,0.08167313,-0.13460188,-0.09941162,0.14026998,0.11790401,0.12314373,-0.039217822,0.092333525,-0.07146528,0.16097793,0.15455008,0.12212929,0.13656344,0.053814713,-0.15827651,-0.06776662,-0.0028789479,-0.06262316,0.14649706,-0.14189875,0.00027006053,-0.11621134,0.13977182,-0.17890543,-0.031401023,-0.16271669,0.04527285,0.106109425,-0.08942189,0.119448476,0.12889136,0.013566684,-0.03628943,0.024881057,0.10431322,0.1479889,-0.093380064,0.067616425,-0.06280505,0.023540152,-0.04943293,0.005838526,-0.06292951,0.07179991,-0.09872811,0.0051548183,0.16371363,0.10700716,-0.096582584,-0.04969111,-0.14917001,0.0697394,-0.11160249,0.021234995,-0.008051243,-0.0010978978,-0.051983964,0.065346844,-0.06740044,-0.12362304,-0.11739225,-0.16238049,0.050666623,0.10581456,-0.083063476,0.02241878,-0.025621075,-0.024109062,0.047533777,-0.08288028,0.06670887,0.16160998,0.17725492,0.124668,-0.029764099,-0.123850845,-0.08255013,-0.09466561,-0.14468503,-0.055433244,-0.15136522,0.06605069,-0.15257604,-0.14649189,-0.033144966,0.17279348,-0.05867852,0.15023239,-0.16962649,0.09406133,0.16926093,0.13034533,-0.15934666,-0.13466209,0.17616245,0.111525625,0.024280254,-0.12733041,0.0332133,-0.11977394,-0.1681994,0.11377885,0.17783774,-0.076451555,0.015565185,-0.02425657,-0.07271119,0.12411856,0.07398706,-0.11180131,-0.064601794,0.13776018,-0.1340234,-0.021421222,0.16229843,-0.0442558,0.10903937,-0.060070544,0.051997386,-0.056258198},
	{0.026117746,0.085843936,0.08507395,0.14231811,-0.1643289,0.17535457,-0.13579006,0.12835467,0.06067822,0.085991375,-0.091459565,0.029977122,-0.13942115,-0.0016191676,-0.09983166,-0.12567392,-0.1126575,0.078322336,-0.02082022,0.13438657,0.1505681,0.086981155,-0.14211912,0.17449561,0.016411413,0.14110662,-0.020041771,-0.12448592,0.14626235,-0.083716355,-0.14296615,-0.064063564,-0.06124766,-0.051776793,-0.11067863,0.06665114,-0.038458206,0.04618147,0.03155911,-0.14147787,-0.11480449,-0.012799123,0.11312544,-0.018841371,-0.070686065,-0.05963072,0.12101593,-0.04529409,0.093785085,0.07168784,-0.01228215,-0.12464356,0.06592372,-0.12754157,0.09964265,0.15953514,-0.059708696,-0.052467655,0.09708972,-0.13850972,-0.029802456,0.021398686,-0.020529486,0.027680168,-0.15816085,-0.027834803,-0.18016075,-0.030825688,-0.008259414,-0.1474377,-0.11673539,-0.032793764,0.05096972,-0.08987476,-0.14381023,-0.09519346,-0.11472282,-0.11053202,0.0760527,0.14061178,-0.029415982,0.11477008,0.15867804,-0.087966695,0.01739683,-0.12256485,-0.039767604,0.13349913,0.040780038,0.16793102,0.06573118,0.013198055,-0.0021503349,0.17475444,0.09718059,0.06668878,0.090604894,0.088407055,-0.08551359,-0.14048359,-0.14118582,0.038283575,-0.14029753,0.109888,-0.08504224,-0.12603502,0.013818401,0.15550415,-0.011993633,-0.16849941,0.15315357,-0.06581812,0.14901386,0.064146526,-0.041984316,-0.108156085,-0.18082353,0.1676276,0.06998619,-0.15370552,0.14439638,0.0851945,0.026641985,-0.08976919,0.10929012,0.11578366,-0.16266316,-0.023535475,-0.014272718,-0.118266195,-0.13721783,-0.046812993,-0.009537532,-0.09904284,0.018721217,-0.07708184,0.09430422,-0.10500171,0.07188273,-0.08094199,-0.0047621173,-0.04387933,-0.044155043,-0.10271619,-0.045151632,0.10513937,-0.06412688,-0.1744898,-0.099074244,0.15802728,0.10048502,0.023957713,0.17779209,-0.061229527,0.037001144,-0.057912216,-0.06153342,-0.11995981,0.08448196,-0.0046872413,-0.08590593,-0.09866911,-0.14696552,-0.17044,0.15626241,0.13137513,-0.055459473,-0.0667337,-0.08961091,-0.09164942,-0.06692377,-0.0678724,0.11953117,-0.16962928,0.07702968,-0.07066925,0.06326711,-0.13857424},
	{-0.09504594,0.07701393,-0.08987326,-0.010063464,-0.13918653,0.078530274,-0.00036015583,0.16581987,-0.06077435,-0.08473616,0.028905904,-0.12217775,0.06641009,-0.026557425,-0.13984211,0.06722592,0.029043313,0.15495913,0.11954422,0.16262321,-0.16496488,0.05372359,0.0193489,-0.16960746,0.14276034,0.16739392,-0.16612956,0.1508335,-0.10803437,-0.1600183,0.09669623,-0.08977008,-0.014656335,0.067304045,0.016323818,0.1261508,-0.10112906,-0.025171628,0.06875702,0.05185629,0.004448205,-0.12494351,-0.029193662,-0.14919558,-0.038648516,0.002856627,-0.083000265,0.052535854,-0.00070598733,-0.026154347,0.12202021,-0.02292009,-0.10667718,-0.120570265,0.12494815,-0.11956042,-0.045271326,-0.07314711,-0.09174233,0.110326245,0.058481645,0.10934414,-0.024522932,-0.056617472,0.16324803,-0.009069348,-0.113315254,0.09798553,-0.16147447,-0.11150192,0.057216216,0.16148557,0.08279788,0.12791902,0.045139182,0.16862811,-0.06708035,-0.105295084,-0.02853453,-0.09785498,0.14354038,0.025512762,-0.055593543,0.07477732,-0.15876673,-0.09429048,-0.0070861704,-0.05228766,-0.15506864,-0.06128217,0.13339482,-0.11796191,0.05381849,0.044924535,-0.011612091,-0.09446354,-0.111486495,0.006273781,0.09250383,-0.019999787,-0.13314694,-0.1269103,0.06959279,0.098091446,0.054708008,0.16055864,0.08390838,0.16487804,-0.07116558,0.039164048,0.010933141,0.12660481,0.086256064,0.15611736,0.091020025,0.026100071,0.073352285,0.16242188,0.12097184,0.06512704,-0.023721922,-0.15343015,-0.15103942,0.013619334,0.025302263,-0.116525315,-0.13523197,0.1158231,-0.052119017,0.13792846,0.04909767,-0.06811214,0.043379933,-0.1704006,-0.068374574,0.14995587,-0.10211513,-0.056161106,0.03205914,0.07801695,-0.05772385,0.089654334,0.07370787,-0.018159265,0.016774474,0.10479821,0.12763396,-0.16635235,-0.14961767,-0.07424968,-0.0008751749,0.08325,0.15160987,0.1468718,0.047060743,-0.019865213,0.05328616,-0.13058257,0.09647084,-0.018852025,0.17709206,0.1589453,-0.051541362,-0.16917533,-0.1321795,-0.07029204,0.025279028,-0.035487648,0.11401126,0.03820364,0.17720537,-0.005807013,-0.15159863,0.056244075,0.008398204,0.031639934,-0.13892423,0.071601935},
	{-0.13434246,0.15037999,0.11104487,-0.05936401,-0.18267985,-0.039249234,0.005641535,-0.08189827,0.043894157,-0.0054689255,0.0061474405,-0.082894556,0.014118718,-0.13363382,0.16541563,-0.035093896,0.13091743,0.15536882,-0.110188656,0.08533378,-0.025098719,-0.06758492,-0.17345545,0.15743282,-0.051762085,-0.11778267,-0.060054716,-0.057053104,0.089337245,-0.009022725,0.17197709,0.018059554,-0.049225263,0.031202268,0.17119847,0.03405259,-0.0014054463,0.07271555,0.10003206,-0.11353637,0.09309294,0.026567455,-0.17870834,0.0955146,0.16754822,0.063127235,-0.026655806,0.1095816,0.09670601,-0.033961248,0.112860985,-0.12986019,0.15619653,0.07734598,0.11411351,-0.057503983,0.01724352,0.1710521,-0.01921685,-0.17445509,0.056351136,0.01815956,0.064244874,-0.031940747,0.113252155,0.06257712,0.015849417,-0.059843313,0.15569381,-0.11052494,-0.1477256,0.12133047,-0.15020525,0.11952659,0.11389899,-0.06341366,-0.029428456,0.110753864,-0.16876645,-0.1414935,-0.16724664,-0.032468867,-0.07619257,0.016376577,-0.06411152,-0.115917265,-0.0032757265,-0.17673707,-0.15569502,0.0012902647,0.039318983,-0.024463993,0.045368016,0.061578024,0.018250393,0.11233601,-0.061243694,0.047025595,-0.104955494,0.08835895,-0.010959761,-0.104800105,-0.08061337,-0.017637564,0.008271193,-0.08497496,-0.0620232,-0.045587473,0.05239539,-0.08932138,-0.022371711,0.08693331,-0.16631286,0.01625594,0.07619447,0.019330284,0.18198615,-0.13461623,0.11987844,-0.028850306,-0.06610726,0.12318999,-0.1740104,0.0789456,-0.16249293,-0.0501807,-0.11375746,0.035362672,0.13448139,0.028123716,-0.09425945,-0.08796541,-0.10524236,0.16228807,0.07592698,0.1467496,0.014459513,-0.037951928,0.027729299,0.12366695,0.14497666,0.06187246,0.07580971,-0.070074,0.14131583,0.032460902,-0.05614912,-0.14797793,0.047405876,0.015533061,0.042075064,0.1340663,0.024927415,-0.1350479,0.089442864,-0.05659061,-0.13921918,-0.13768423,-0.008053383,0.06898328,-0.022809662,-0.13689926,0.14865026,-0.12081409,0.062546425,-0.033276312,-0.16675079,0.10017723,-0.14656836,-0.12088326,-0.11061289,-0.064737916,-0.009331813,-0.09182937,0.17413284,0.041805852,-0.11573456,-0.08232688},
	{0.084163025,-0.10915682,-0.17200245,0.046226177,-0.043929722,-0.010238446,-0.06452063,-0.07334258,-0.17208835,-0.08123839,-0.11105298,0.102207705,-0.15763648,0.1041287,0.0101412665,0.1076601,-0.09730703,0.14106926,-0.071850464,-0.02675905,-0.0134595195,-0.04979392,-0.0802852,0.014021915,0.007085216,-0.025813676,0.09801605,-0.0223101,-0.15245591,0.11895509,-0.006425044,-0.076330096,0.076210774,-0.15420428,-0.07304477,-0.07600201,-0.16031998,-0.08363195,0.0006370869,-0.09236276,-0.08112758,-0.14999959,0.09851079,0.179863,-0.13252233,-0.16439319,0.04362696,-0.06689569,0.06709201,0.039253667,-0.11413448,-0.13647898,0.025625767,-0.1428708,-0.115397304,-0.03500883,-0.11049927,-0.097922735,-0.11186066,-0.012632871,0.10073353,-0.05368976,-0.15452491,-0.07356591,0.10743941,-0.0334266,0.05570764,0.046177343,-0.006748475,-0.08297217,-0.09284977,-0.16869652,-0.16596332,0.057276208,0.097528294,0.11100972,0.16838343,-0.14098118,0.1555987,-0.12597923,-0.17315604,0.13341571,0.11298899,-0.04643532,0.027552424,0.13391314,0.021425473,0.06780354,-0.16842432,-0.14683972,0.006128635,0.17081705,0.036548696,0.01365623,0.07429037,-0.0867436,0.12309837,-0.06200087,0.0114768,-0.17185247,-0.029545987,0.16983214,-0.017712394,-0.06076484,-0.17555004,-0.15159857,0.07840745,-0.016817583,0.019526584,-0.010781003,-0.010970453,-0.12794045,-0.12519531,0.071742885,-0.15337233,0.054580502,0.105416976,0.037855472,0.10126868,-0.029231464,-0.15579423,0.049060248,0.08151538,-0.17490964,0.117677756,-0.06298884,0.018626135,-0.06480328,0.14121728,-0.117009565,0.1275464,0.17535304,-0.11833123,0.085238345,-0.08828258,0.08244075,-0.06673302,-0.13526526,-0.1000581,0.14943282,-0.13703051,0.04804461,0.034867417,-0.120839715,-0.16780676,0.1467511,-0.13164653,0.018618736,-0.015510614,0.08216733,-0.16915245,0.08943907,-0.11689867,0.11739121,0.13246112,-0.15626077,0.17969887,-0.051289335,-0.07177132,-0.08514123,0.052453324,-0.14640428,-0.11074787,0.1508926,-0.1557665,-0.071384646,0.07419362,0.07571832,-0.062142774,-0.16139655,-0.16077133,0.09319038,0.15239093,0.14495216,0.07796211,-0.16019271,-0.056457672,0.14046018},
	{-0.123707995,0.052823946,0.09903462,-0.123575926,-0.07907152,-0.14907323,0.13920014,-0.036093768,-0.03838113,0.024999326,-0.043310028,-0.012052378,0.14377992,-0.002709602,0.12386306,-0.14251731,-0.057830084,-0.047022134,-0.11091846,0.16163324,0.11827234,-0.09832116,-0.0054253694,-0.011794011,-0.06047082,-0.14750643,-0.07402209,0.105889164,0.056423973,-0.033703785,0.035300385,0.052057024,0.08820425,-0.07620507,0.10233844,-0.12405635,0.07495587,0.13522975,-0.036471616,0.1268862,-0.11926209,0.011377399,-0.120702945,-0.038438596,0.1191424,-0.11185661,0.02165945,-0.17497085,-0.17311165,0.14561404,-0.13044342,0.17190333,-0.04696387,-0.11792777,0.028631821,0.110664174,-0.026541477,-0.15427478,0.016508756,0.010480458,-0.007706068,0.021998242,0.027924001,0.11739971,0.02397676,-0.07770216,-0.164737,0.1199059,-0.15458912,0.073596925,-0.06307531,0.1660868,-0.10782784,0.0005027222,-0.08613617,-0.02510701,-0.019709276,0.14014578,0.11986715,-0.15319392,-0.15231684,0.076924354,-0.10840329,0.004136764,-0.040923826,0.020366741,-0.07744478,-0.034624666,0.04264984,-0.07221203,0.07534866,-0.15835679,0.042755216,-0.058865197,0.074559145,-0.02278314,0.03294867,0.008843858,-0.13704036,0.10082667,0.122052774,0.07865521,0.042929493,-0.0841147,0.05809969,0.16248058,0.013068789,-0.021918321,-0.1053319,0.08154756,-0.055478465,-0.08393536,0.043888744,0.120954745,-0.12730975,-0.12932983,-0.03528838,0.13445802,0.15980288,0.10872954,0.00628007,-0.12685531,-0.16713743,-0.0566592,0.122956164,-0.10515849,-0.11130569,0.14773908,-0.015996613,-0.1673195,-0.10369548,0.11914983,0.083211206,-0.13883469,-0.06035685,-0.16023472,-0.05223376,0.10651419,-0.060266785,0.1059861,0.01630012,-0.028839532,-0.024553392,-0.106662355,-0.08409344,-0.055433538,0.13737714,0.026531149,-0.047640696,-0.0831499,-0.017832916,-0.109325156,-0.12356384,-0.0185019,-0.033876136,0.13498811,0.05543199,0.041025247,-0.03469797,-0.11282416,-0.16677159,-0.04921556,-0.091282286,-0.06722893,0.10778925,0.021215402,0.027030762,-0.10701766,0.11412309,0.13869137,0.04233753,0.07781876,-0.077185646,-0.09018024,0.17590322,-0.14894238,-0.09074321,-0.1727139},
	{-0.09980153,-0.038531017,-0.13976067,0.16896197,0.14014333,-0.033924367,-0.17720337,-0.001331958,0.12625493,0.01319429,-0.096708134,-0.0132174995,-0.08190606,-0.15772173,-0.083524175,0.0004223656,0.019508846,-0.027804125,0.13759571,-0.03816341,0.079038955,-0.0109159835,-0.16459507,0.067527585,0.08835011,-0.13933319,-0.17064662,-0.08037888,-0.14172128,0.008326257,-0.08089487,0.13353914,-0.03301006,0.13641153,-0.060373817,0.009478732,-0.040379494,0.15310612,0.012711132,0.052685145,-0.022625254,-0.039084144,0.080483854,-0.13508889,-0.12874766,0.0958583,-0.070378184,-0.1397311,-0.17717402,0.047069993,-0.056839045,0.14572592,0.011653158,-0.039477617,-0.08156078,-0.10170883,0.14001875,-0.15208556,0.13984302,-0.13416363,-0.043448713,0.10673655,-0.115664296,0.146389,-0.15189345,0.06505247,-0.09742468,0.098450094,0.084305786,-0.0061213216,0.115211256,0.16736412,-0.018923087,-0.08995415,-0.016989306,0.17710795,-0.036269233,0.06783961,-0.018942015,0.11834403,-0.10410277,0.0019324047,-0.08786243,0.13702372,-0.04404557,0.049898434,0.112260096,0.049088497,0.107867464,-0.09832246,0.03341015,0.0070399316,0.042078033,0.090025246,0.16456933,0.06739274,-0.18078525,0.08529,-0.060821824,0.1271134,-0.11750579,0.110231854,-0.13301925,0.013585058,0.16872235,0.15697151,0.09678667,0.05589186,0.17470188,-0.011259177,-0.090163924,0.0067155813,-0.053969786,-0.020294834,-0.1644866,0.17369673,-0.091084495,-0.0046655354,0.03669684,-0.068011,0.116942815,0.03646197,0.1075956,-0.10965083,0.0020345543,-0.06754764,0.10887587,0.011466307,-0.1602726,0.020703962,-0.12759517,0.07060387,-0.10918511,0.031405024,0.14078622,0.052839167,-0.12367687,-0.13809627,-0.14202392,-0.084077336,-0.050814703,0.092556976,0.04159484,-0.069900095,-0.11892668,-0.07430139,0.041136798,0.10028921,-0.09683594,-0.07040273,0.029422857,0.045146804,0.13090433,-0.001198368,-0.009786283,0.09163505,-0.0667261,-0.06785384,0.09222411,0.08662761,0.10743724,-0.13474426,-0.11913246,0.008904819,0.08658495,-0.012775944,-0.07640844,-0.16845804,0.056045298,0.058464643,-0.063136995,0.12594059,-0.1400504,0.020380273,-0.1800891,0.027955897,0.1302207,-0.11363231},
	{-0.092571534,-0.08557987,-0.16049343,0.13521673,0.0091621755,0.12206037,0.09821945,0.049725376,0.08067169,0.0722222,-0.14725311,0.0978863,-0.13735397,0.029654104,-0.027367823,0.15599123,-0.11496831,0.14222363,0.0037446374,-0.068538524,-0.10683872,0.13708091,0.028416049,0.024302877,0.024377072,-0.1589731,0.08602791,0.06563694,-0.18209918,0.05961162,-0.12134819,0.04339893,-0.03503908,-0.0069391904,0.047429424,-0.1378053,0.03519399,0.090010844,-0.08475117,0.063579895,-0.11363162,-0.04502394,0.12017596,0.004659798,0.024560168,-0.018498164,0.0077886675,0.15921468,0.017869076,-0.016496548,0.16371061,-0.0062725544,0.0696267,-0.14519088,-0.15357304,-0.084305376,-0.024466312,-0.091536134,-0.03067757,0.08870428,-0.1389806,0.039724655,-0.12025776,0.091965795,0.07186441,0.061378404,-0.1817926,0.103405416,-0.050863788,0.12216143,0.0204687,0.1141575,0.02283769,-0.039059978,-0.006279952,0.038342986,-0.12537843,-0.14194582,-0.17248596,-0.06893976,0.023996955,0.14491804,0.059922054,-0.14968997,-0.084232874,0.07128706,-0.028652612,-0.03813618,0.081738025,-0.089315966,-0.011607788,0.005687928,-0.11151377,0.14457136,-0.1661806,-0.06571626,-0.0072603016,0.01509551,-0.0767862,0.1639154,-0.1188703,0.026217967,-0.10726926,0.16871743,-0.013873806,0.048467863,-0.15426196,-0.045496486,-0.13772371,0.087014034,0.0384657,-0.11555255,-0.124210544,0.021277146,-0.021793853,0.03802562,-0.120344296,0.16076776,-0.16793844,-0.085024506,-0.10194332,0.06944795,0.08745164,-0.11705903,-0.159536,0.078560606,0.14455324,0.06290781,-0.012072807,-0.039333664,-0.0029037297,0.045400288,-0.06536836,0.06439804,0.018975025,0.11942132,-0.11351113,0.09926939,0.10320827,0.054111015,0.021640444,-0.08646467,0.079965495,0.025141366,0.16718,0.13163787,-0.030040374,0.0036085567,-0.036529984,0.031227525,-0.06854456,-0.13411279,0.11825974,-0.0080892425,-0.07438034,-0.12896538,-0.01501705,0.021605996,0.15597306,-0.079551816,0.09322486,-0.069096684,-0.053682506,0.1698482,0.14274697,-0.06619832,-0.1461339,0.012501325,0.08924735,-0.11878671,-0.08917592,0.071977876,-0.006879806,-0.0071363742,-0.16948321,0.04485619,-0.15976334,-0.14748883},
	{0.12595667,-0.11556399,-0.06628015,-0.06686971,-0.010042043,0.15759073,-0.1518984,-0.041952692,-0.03912756,0.097564824,0.11556819,-0.031786542,0.04862616,-0.046443664,0.10325238,-0.06269617,-0.08844729,0.14424723,0.11192696,0.106494986,-0.1586019,0.103482276,-0.16657361,0.004992638,-0.05532826,0.13771002,0.07274226,0.027462652,0.014580514,0.14041352,0.039607603,0.12877737,0.081695504,0.15691751,0.053269487,-0.07239195,0.02494831,0.10433385,0.13315743,0.107832894,0.1394051,-0.1594344,-0.025321024,-0.16817114,0.13805202,-0.16678129,-0.1470347,0.044881627,-0.14915851,0.07612624,0.045669254,0.03186436,0.13304844,-0.011152139,-0.14039622,0.05335851,-0.071459316,0.035955857,-0.08172805,-0.13548984,0.16221005,-0.14153273,-0.055092078,0.028083103,-0.090953246,-0.11908922,0.14786422,-0.01707034,0.053611193,-0.044456117,0.012662093,-0.1141983,-0.14421633,0.061226457,-0.085147835,-0.13229658,0.111767784,-0.091888614,0.0011956717,-0.16699147,-0.045045763,-0.05449097,0.022392532,-0.13168722,-0.08263244,-0.0925079,-0.0908384,0.07734041,-0.134407,0.0023450442,0.003917759,0.041059814,0.13923274,-0.09745059,-0.0024027673,0.13785759,0.009782136,-0.011082974,-0.08457056,0.07710789,0.007224807,0.11139966,0.15414952,-0.17460644,-0.12898594,-0.06554633,-0.1489757,0.05933099,0.015050703,-0.0787235,0.035351034,0.17413257,-0.17151555,0.17838563,-0.10703272,-0.06943441,0.011999825,-0.040033236,-0.17555289,0.033837028,-0.07544777,0.07485297,0.17206058,0.04139771,0.0033741593,-0.08746682,0.10831999,-0.07165929,0.16323714,-0.16173144,-0.12663668,0.16302198,0.0925127,-0.09095071,-0.057688314,-0.115345575,-0.11557148,0.14454538,0.15416388,-0.08773613,-0.043291662,-0.17799692,-0.009491058,0.057028938,0.059630673,-0.10067103,-0.11144415,-0.018290358,-0.013916803,-0.052056298,-9.1111986e-05,-0.05364509,0.10299626,-0.10939259,-0.106733955,-0.018662792,0.16172022,-0.060402155,0.038939215,-0.10381328,0.11495791,-0.04267642,0.108292654,0.045064285,-0.0025725511,0.1386146,0.11607304,0.1319889,0.06673394,-0.13862042,-0.011595701,0.027342005,-0.17184395,0.05426685,-0.11849518,0.14653616,0.10125349,0.008391001},
	{0.15425372,0.09221148,0.14971143,0.012450428,-0.070338905,0.0023133107,0.04453659,-0.09616945,-0.17196858,-0.079416394,0.09296664,0.041158013,-0.0976932,-0.17631641,-0.10873728,-0.117864,0.021195298,-0.0756227,0.12963529,-0.12822172,0.14349523,0.104073055,0.018583052,-0.06790313,-0.14162508,-0.06823807,0.08354994,-0.037801206,0.1270939,-0.014432836,-0.13953471,-0.12549736,-0.1106617,-0.14477384,0.04134776,-0.07883413,-0.067353606,-0.09915055,-0.09493256,0.037190724,-0.16343008,0.035661355,-0.0757447,-0.12643954,-0.076514326,0.082752205,-0.09316478,-0.034440037,0.056184057,-0.1493405,0.0043676426,0.15796994,-0.049155794,0.08272218,0.11896165,0.16403443,-0.00612775,0.09884538,-0.012026393,-0.11549237,0.11692999,-0.050878078,-0.068674795,-0.0055393213,0.07646981,-0.14956185,-0.08563155,-0.124933735,0.08218738,-0.0041997083,-0.06500074,0.17718287,-0.08814969,0.14550783,0.01379385,-0.06879806,-0.04335124,-0.024633612,0.08493124,0.0012177539,-0.15768401,0.056151837,0.05253644,0.12606648,-0.09435562,0.15502784,0.023362624,-0.16161083,-0.026002333,-0.142025,-0.0010775893,0.07822515,0.09725008,0.03180684,0.023451628,-0.06890384,0.17285429,0.102380715,0.009656386,-0.165743,-0.095058784,-0.17765824,0.06378763,0.035929613,0.028185658,-0.014638282,0.046401918,-0.11116607,0.07042303,0.09549632,-0.110431775,0.055025544,0.10794541,-0.05918363,0.06529558,0.13507415,-0.12884375,0.026918475,-0.001444627,0.15959583,0.049165323,0.040963575,0.042557187,-0.07518129,-0.16196007,-0.04811554,-0.060437184,0.10473279,-0.016805824,-0.09953078,0.12511906,-0.02923836,-0.08294216,-0.13586327,0.10641766,-0.059727605,0.14618337,-0.043816306,-0.043230247,-0.0069964314,0.10319748,0.034984726,0.08444938,0.09650927,0.01806836,0.15382792,-0.08271921,0.042666502,0.03844766,0.043914054,0.040393155,0.117470026,-0.101271115,-0.036505356,-0.13695227,-0.11695535,0.06149247,-0.05425825,0.16493826,-0.13676062,0.06565826,0.16348131,0.14022279,0.1561113,-0.12449074,0.058625318,-0.018662352,0.08691451,-0.026665766,0.1375315,-0.08656071,-0.002578812,-0.16446134,-0.18148878,0.088130146,0.15461871,-0.12481757,-0.17455728},
	{0.09124057,-0.10759742,-0.061193608,0.14168265,-0.1539517,-0.07037077,-0.09176629,-0.059548963,0.07976926,-0.16076227,0.07047755,0.06785117,-0.04450014,0.026221447,-0.101847835,0.05750909,-0.14378195,0.15411006,0.12072595,-0.009470976,-0.010585129,0.14757328,-0.081139974,-0.12366096,-0.01806431,-0.13781789,-0.05340621,-0.16666701,-0.12373402,-0.03808606,0.04259718,0.07267746,-0.06861066,-0.143484,-0.05144953,0.0714474,0.12859648,-0.087665156,-0.008991582,-0.07217961,0.037807357,0.07881439,-0.17028823,0.0937332,0.05092208,0.09754329,0.102319606,-0.14253551,0.12527843,0.1698278,0.1333394,-0.058061432,0.14933684,0.17085476,0.060869962,0.14454156,-0.011206165,-0.018724702,0.07183344,-0.1242505,-0.10225472,-0.16855359,0.03710792,-0.12830193,-0.1668496,0.0537906,-0.04590063,0.090304114,-0.084855035,-0.16640195,-0.046141315,0.09640977,-0.13532211,0.08176002,-0.021160059,-0.115760095,-0.037498776,0.15681346,0.08217255,0.16685757,0.0024649038,0.08779715,0.011906024,0.1544438,-0.09669009,0.05705142,-0.058712475,0.0013891963,0.0065144226,0.07428297,-0.14903161,-0.086677544,-0.034899343,-0.039654933,0.08484989,-0.08126745,-0.02609491,0.09655342,-0.12500271,0.1685666,0.054787196,0.13272074,0.119982906,-0.07092516,-0.037369106,-0.08844955,0.17093076,-0.06962828,-0.13835154,0.1326454,0.13794109,-0.03237915,-0.12861101,0.06345197,-0.12647173,-0.13435808,0.003148577,-0.1099369,0.127947,-0.07179539,-0.04345022,-0.038044743,-0.14956869,0.054677505,-0.11120041,0.06022982,-0.042484708,0.13262038,-0.036993153,0.1486066,0.039058402,0.082641155,-0.0899849,-0.17011765,-0.12069896,0.031038348,0.1469362,0.0080922535,0.048359007,0.02502555,-0.050703947,0.14964898,0.046811625,-0.13292901,-0.1246068,-0.17574906,0.13726333,-0.07514158,-0.10553433,0.078055836,0.012721718,-0.09092973,0.0589377,0.0038730882,0.00738203,-0.1310892,0.16488335,0.05036117,0.16068186,0.029647939,-0.06143754,-0.017719632,0.09058479,0.021686003,-0.050879467,-0.17197321,0.05673494,0.13916118,-0.15201317,0.11444078,-0.07284174,0.053897668,-0.06294007,0.13474514,-0.13980111,0.12620626,-0.0022418334,-0.09901535},
	{-0.06322442,0.17857955,-0.028563056,-0.16395804,0.05090183,0.07686533,0.120778374,0.121458665,-0.16206585,0.07006124,-0.049501028,0.055320513,-0.10980379,0.06209138,-0.10607703,0.09037112,-0.14149863,0.043792672,-0.08199085,-0.039620366,-0.08875646,-0.14253071,-0.08160498,-0.057816047,0.009672755,0.06275159,-0.053752497,-0.032660715,-0.06425605,-0.16513215,0.14861661,0.15308395,-0.09752537,0.0016605945,-0.014953813,-0.03333744,-0.1529381,0.1311054,0.10869643,0.10665999,0.03016541,0.045624666,0.009424853,0.015025711,0.023195026,0.13574128,-0.10554028,-0.1388308,0.04103327,0.004851086,0.023325859,-0.02864155,0.0031330893,-0.109122194,0.025396014,-0.14430529,-0.12378697,0.06367812,0.07892928,0.11475695,-0.0967534,0.12869197,-0.06401058,0.07672533,0.0667895,0.022187155,-0.014344912,0.13863419,-0.07547496,0.046282806,-0.032782614,0.011662637,-0.11822316,0.14450961,-0.012244266,0.15206575,-0.057816256,-0.11538833,-0.17986684,0.069453,-0.117276445,0.10278048,0.086982235,-0.09290738,-0.1107139,-0.12748176,0.021371339,0.0990812,0.11336533,0.02864247,0.0422837,-0.019246824,0.16695699,0.08534419,0.108012535,0.07297717,-0.049986813,0.028133793,-0.08884607,-0.03984567,0.08687362,0.077124186,0.059184033,-0.09368287,-0.04605242,-0.12303532,-0.058379844,0.1501994,-0.06541478,0.16577467,-0.09545026,-0.0985735,-0.15711497,0.10958619,0.036348984,0.068489105,-0.0824303,0.07680945,0.06097765,0.11118832,-0.084611654,0.008184025,0.020841118,-0.06712415,-0.039152693,-0.069227844,-0.09196272,-0.078190126,0.037291303,0.027038636,-0.09371215,0.09780481,0.15732566,0.08566657,-0.036426872,-0.059179116,0.044545215,-0.16426168,-0.16608284,-0.031654548,-0.04681036,0.027126066,-0.062582225,0.017845135,0.08711936,-0.12228684,-0.033399682,-0.07071146,-0.0961484,0.042472627,0.03054845,0.17460686,-0.12886879,-0.024291217,0.12897389,0.095671535,-0.13773468,-0.07807942,0.04101152,0.1600301,0.16088441,-0.13814099,-0.038317136,0.13711303,-0.0054302346,0.016264707,0.08936703,0.05816278,0.064681925,-0.052595265,0.03422213,-0.059061054,0.024615884,-0.064913556,0.1507705,-0.06490794,-0.048558198,-0.027156463	}
};