// include/conv2d_2800_weight.h
// sergio rivera 
// 2020/02/15 02:04:32 

const float conv2d_2800_weight_p[3][3][6][4]=
{
	{
		{
			{0.04584284,-0.07345816,-0.25762767,-0.21832691},
			{-0.14041989,-0.10851845,-0.028572982,-0.008992367},
			{0.23786531,0.007125235,-0.012757714,0.07823045},
			{-0.15132952,-0.1182102,0.039086707,0.13760966},
			{-0.20354731,0.24361145,-0.19516805,-0.20042264},
			{-0.06652276,-0.14345321,0.03527545,-0.24193037}
},
			{{-0.16574703,-0.041434094,0.03458632,0.08558851},
			{0.06376991,-0.23357925,-0.14965452,0.20828752},
			{0.12097063,0.23606418,-0.20615567,-0.13247983},
			{0.24011637,-0.13158055,0.2269928,0.1428947},
			{-0.22785012,-0.11408605,0.04416693,0.14823629},
			{0.14229842,0.25418675,0.121068485,-0.15914106}
},
			{{0.21214087,-0.22421934,-0.16463332,0.24288036},
			{0.080958396,0.08207313,0.2461183,-0.23188108},
			{-0.15452693,-0.16438484,-0.06332624,0.2331082},
			{0.21447085,0.21187563,0.14204091,-0.023045002},
			{0.16648377,0.17956972,0.08695515,0.00014951554},
			{0.06437955,-0.084045984,0.109208725,-0.046170678}
}
},
			{{{0.25666043,0.07941544,0.111448556,-0.11983212},
			{-0.1583902,-0.06901414,0.11065761,0.07467824},
			{0.24143259,-0.25495777,-0.049598675,-0.18477708},
			{-0.23290828,-0.04223054,-0.16217321,0.027289014},
			{0.16616231,0.064371966,0.25808653,0.013360154},
			{0.12148804,-0.06502291,-0.24113964,0.11695405}
},
			{{-0.0045860577,-0.110313125,0.091909535,0.043364346},
			{0.22059222,0.04069749,0.036593415,-0.14670393},
			{-0.13701619,0.016315646,-0.08010535,-0.24469844},
			{0.1794586,0.070790075,-0.22177832,-0.050361346},
			{-0.0010465246,-0.096463114,-0.14246298,0.09578809},
			{0.026158817,0.07144867,0.12346655,-0.056077596}
},
			{{-0.15515137,-0.12815677,0.025797857,0.17641039},
			{0.12621011,0.24783142,-0.2374094,0.05123217},
			{0.12975256,0.23617107,0.23389342,-0.1578572},
			{0.15113617,0.09777446,0.2552304,-0.17247778},
			{-0.096306436,-0.14025179,0.014986532,0.082836546},
			{0.19798735,-0.19032668,0.006714806,-0.10708095}
}
},
			{{{-0.015523151,-0.15942203,-0.1419659,0.02807974},
			{0.22221577,0.19151787,-0.11380136,0.104361914},
			{-0.03089288,0.23768042,0.010023956,-0.20231344},
			{0.10772226,0.06917792,-0.0744108,0.2563481},
			{-0.15844908,0.073997155,-0.05873549,0.08115506},
			{-0.23004197,-0.04992175,0.088736124,0.2344657}
},
			{{0.035607044,0.15956104,0.12943386,0.088529},
			{-0.09229844,-0.047850203,-0.23901075,-0.009432616},
			{0.0009990218,0.22506648,-0.17557135,-0.13620606},
			{0.13275483,0.17077048,-0.15188605,0.080385506},
			{0.052544642,-0.0056309113,0.23371008,0.091025405},
			{-0.15298735,0.03388641,-0.106337585,0.1625544}
},
			{{0.023468776,-0.03026431,-0.22755142,-0.03152217},
			{0.23128018,0.17174436,-0.15355061,-0.19648868},
			{-0.22029185,0.040560074,0.029092852,0.08407025},
			{-0.2474955,-0.055757407,-0.22938378,0.147698},
			{0.04429158,-0.23629372,0.0071926075,-0.18195733},
			{-0.11321508,-0.15879999,0.049945008,0.13993585			}
		}
	}
};