// include/dense_814_bias.h
// sergio rivera 
// 2020/02/14 15:14:51 

const float dense_814_bias_p[594]=
{-0.001562548,3.0302443e-05,-0.00529132,-0.0063680303,0.0021975546,0.0047044978,0.00038256962,-0.005493217,-0.003873322,0.0030742153,-0.0041014054,0.0002833174,0.0,0.0061712773,0.004704077,-0.0002569497,0.0074073975,-0.006170283,0.0013996754,0.0073388033,0.0028288662,-0.0026532726,0.003003808,-0.0036884712,-0.00096951914,0.0053182812,0.0015302604,0.0028134766,-0.0068692453,0.0016330068,-0.0038041633,-0.0035338826,0.0012898081,0.0038518393,-0.006811868,0.0013185414,0.0011911229,0.002362234,-0.0035728936,0.0,0.00854048,0.0042098183,-2.8377632e-05,0.00074144744,0.0009679665,0.0015955466,-0.008198419,-0.0013830716,-0.0103995865,0.00022617378,0.0049416698,0.011721499,0.0023928734,-0.007887834,0.0077615655,-7.3587784e-05,0.0008098482,-0.00552592,0.0006248688,0.0034308068,-0.00016229454,-0.0022833413,0.0023516566,0.003123004,-0.0021011229,-0.0025718515,0.0040757563,0.0039874353,-0.008791003,-0.00407641,-0.009982522,0.0,1.0114745e-05,0.0024555875,0.0032503926,-0.0032725325,-0.002330434,-0.005686001,-0.006261651,-0.0006016743,0.0020241071,0.0025399127,-0.00029686381,0.0013541607,-0.0035889996,0.0025195559,6.937684e-05,0.007583014,-0.00043606514,-0.0018193601,-0.0006060514,-0.0002025622,-0.003324394,-0.0059829075,-0.0031459215,0.007985946,-0.011285121,-0.006709937,0.0004687776,0.00044910464,-0.0035571023,-0.008935911,-1.5648198e-05,-0.00018032058,-0.0031985734,0.0029152194,0.0013614066,0.0005158112,5.694898e-05,9.989238e-05,-0.0018487121,0.007622095,0.004730694,0.0069289203,0.00090698624,-0.0019450998,-0.0024143017,0.0009330691,-0.0008108972,0.003537477,0.008738516,0.004351268,0.009060826,0.008999715,-0.00014446082,-0.006535326,-0.0029654219,0.0059308647,0.002824367,-0.0063519655,-0.00967455,0.0,0.0055393064,0.00030490127,-0.003064427,-0.0061410777,0.001694917,-0.0011072577,-0.0047094855,-0.005297879,-0.0035515681,-0.0034936406,0.0013997938,0.00076807046,-0.003946878,-0.0017106561,0.0027248666,0.0015075504,0.01222978,-0.0109806955,0.00975492,0.0037496388,0.00051754806,0.00016550548,-0.0021111968,0.007877648,-0.001714139,0.0010934588,-0.00032927457,0.0015814187,0.00036014162,-0.012086366,-0.00031260424,-0.007103162,0.0038718048,-0.0013997426,0.0013998763,9.150128e-05,0.00314066,-0.0011703111,0.007760965,0.0046982216,0.004697196,-0.0025743942,-0.00027836242,0.0027256787,-0.0011962001,-0.004674093,-0.0020675592,-0.0030537401,-0.0073724776,0.0063679647,-0.0026388972,0.0027630017,0.013275818,-0.00680812,-0.005726558,0.007281647,0.0019018988,-0.0035965953,0.003957018,-0.003836699,-0.0019424183,0.002691831,0.014332628,0.0160578,0.0031138877,1.8399674e-05,0.009579172,-0.00024167297,-0.0006281085,0.010807072,-0.0070561073,0.000517191,0.004693286,0.00091148866,-0.0012562103,-0.0009936541,-0.0071429405,-0.015164572,-0.008074441,-0.0019865665,0.0070725055,-0.007151657,-0.00045659908,0.00014861999,0.002391794,0.003682895,-0.00070148055,0.0003687779,-0.00031143986,0.00119904,0.00402759,0.005162129,-0.0002657515,-0.0066442857,-0.0011325165,-0.01408855,-0.001399908,-0.0026748192,0.0030747927,0.0028863559,0.0073099085,0.010568548,-0.0024231833,-0.0014009445,0.0031265572,-0.0034779615,-0.00011300937,-0.0030449557,0.006793246,-9.550387e-05,0.005842193,-2.254502e-05,0.008790448,0.009835423,0.008199772,-0.00039965485,0.00025573862,-0.004675145,0.0050576627,-0.013010625,-0.0073701115,0.0016128265,-0.0013307066,0.00080732914,0.0008122703,-0.0016759718,-0.0013108072,-0.0043110503,0.0017269794,-0.006240393,-0.0044848723,0.0025063194,-0.0063538547,7.979036e-05,0.007864553,-0.0005549395,0.004182169,0.005883644,-0.0048871245,-0.00012641403,0.0032880935,0.00418986,0.00011174986,-0.0030378648,0.0042068604,-5.8334845e-05,-0.009510852,-0.0011556505,0.0011681344,-0.0027373005,0.0034910778,0.0063455394,-0.0023382385,-0.00078263495,-0.0006357009,0.01106568,0.0018181498,0.008640469,-0.0024604076,-0.0041408283,-0.00026022407,0.0066750273,0.000635258,-0.0031779052,-4.294119e-05,0.004848833,0.0012572323,-0.0032479244,-0.003041142,0.00018262654,-2.703187e-05,0.0051260637,0.0023883104,-0.0029006673,0.010297632,-0.00017161167,0.0036392938,-0.0026095356,-0.008609933,0.0033229224,0.00055490586,0.0008410783,0.0035736426,-0.005395334,-0.00015791529,0.004093747,0.006152257,0.013990581,0.0045129634,-0.0048208134,-0.0032869582,-0.0004425582,-0.003456999,0.0,0.0013972401,0.0020041573,-0.0044345227,-0.003521355,-0.0069486103,-0.0035329561,-0.007261946,-0.00033000123,-0.0023092795,-0.011421407,-0.004964375,-0.00962813,-0.00031040583,-0.0056680324,-0.0008437735,-0.011621782,-0.00020165637,0.0020352383,0.009926356,-0.007743041,-0.0031234415,-0.00065484503,-0.0021759165,0.005649331,0.0004136521,-0.005595873,0.0044674687,0.005733073,-0.0009550174,-0.0011056089,-0.0033661162,0.0069987634,0.0027534997,-0.0052912454,0.006435339,0.0028572008,0.0017516564,-0.017101865,0.0027401813,0.0015861767,0.0014978331,0.008447901,0.005558954,0.0014114594,0.0017938473,-0.0048119235,-7.880502e-06,0.0076490077,-0.0054659983,0.0076041715,-0.0036987416,0.003248254,-0.0037557893,0.00041346299,-0.0011991855,0.0021663406,4.2630825e-05,0.0024544017,-0.00284427,-0.0013998405,-0.0013998877,0.004481708,-0.0019395163,-0.007561296,0.0025076945,-0.0013969005,0.0026958436,0.00827947,0.0017888811,-0.009896223,0.0054310127,-0.0040885294,0.010899048,0.007943838,-0.0032821037,-0.002780864,0.00281769,0.0014978232,0.0,-0.0024783318,0.0010234027,-0.006295978,-0.0028010523,-0.0042231083,0.0065146806,0.0019265622,0.0018117281,-0.0058361692,-0.0139037,-0.0049664197,0.0014619421,-0.0013997724,0.007718133,-0.014345938,-0.0047709905,-0.010803453,0.009384169,-0.00962942,-0.0014253308,0.0028290153,-0.0052572293,0.011721067,0.00631331,0.0011766475,-0.004363205,0.0011843558,0.0013425107,-0.0034484759,-0.0053491453,0.004830059,0.001769578,-0.0013566022,0.0008471708,0.0011091281,-0.009993416,-0.003221153,-0.002266228,-0.010358571,-0.007761022,0.0009925169,0.000250048,-0.008323979,-0.0058660787,-0.0012766563,-0.0032530315,-0.0023708984,-0.0025275643,0.001003705,0.0017738082,0.00023767911,0.003022996,0.0021041962,0.006249411,-0.0007195238,0.0056361854,-0.00864521,0.003857592,0.004004835,-0.0023744411,-0.0020562045,0.0027168933,-0.0010647364,-0.012149824,0.00015898631,-0.0027097177,0.0018279703,-0.0013997945,-0.0024802405,0.00053541316,0.0022562705,0.007711746,-0.0007969581,-0.0048292847,0.016215112,0.002054856,-0.0025391337,0.005097163,-0.005297559,0.011590837,0.008232955,-0.0038433056,0.0049564415,0.0019418895,-0.008969211,-0.0040531596,0.0,-0.006720609,-0.00054559787,0.004916869,-0.003214355,-0.0030944943,-0.010713068,0.0036095937,-0.0016964416,0.008641781,-0.0018020475,0.0035256292,-0.007322272,-0.0044014878,0.0037035455,0.007508279,0.0037860824,0.00077055825,-0.0039372556,-0.001399821,-0.00968907,-0.00117593,-0.0012580035,-0.0010385264,-0.0012801782,-0.005701213,-0.00040458317,0.0013528666,0.005539279,-0.005607251,-0.0035849907,-0.0028331776,0.027849397,0.0045648115,0.004051606,-0.0024166051,1.686567e-05,0.0033869138,-0.021034375,-0.0016195886,0.01039649,-0.007031791,0.0042489637,-0.0013151197,-0.0027383529,0.010196985,-0.001294786,0.0030136649,-0.00083902077,-0.0042839674,-0.00075355754,-0.0056816107,-0.0045337803,0.0075625684,0.0015598657,0.012127657,0.0052727135,0.00054217596,-0.0051907836,0.002429956,-0.0031207807,0.006380691,-0.013683783,0.002425184,0.0047661057,-0.0067071584,0.003154484,0.0043536127,0.00040425872,-0.0020483644,-0.0024804885,0.0020678698,0.0062778066,0.0034205036,0.00028359483,-0.0018803602,0.00047840516,0.011685141,0.00299741,0.009494197,-0.005302918,0.0013994895,-0.0019648117,0.0055192807,0.008319686,-0.0012427114,-0.0007753065,-0.009275872,0.0013995653,0.0016787257,0.0015626677,-0.008270899,-0.015652083,0.0076292623,-0.0037889665,0.005762674,-0.0037523566,0.00013490497,-0.008062426,-0.0014175132,0.0005389414,0.0031024097,0.0026397482};