// include/conv2d_92_weight.h
// sergio rivera 
// 2020/02/14 23:22:55 

const float conv2d_92_weight_p[3][3][8][4]=
{
	{
		{
			{-0.060380604,-0.04414466,-0.11212773,-0.07533336},
			{0.16577643,0.07123814,0.19999744,0.054082785},
			{-0.044421483,-0.14201598,0.014712981,-0.08104888},
			{-0.020028938,-0.043661933,0.009887322,-0.07151259},
			{0.09355929,0.099686936,0.019482126,0.06827728},
			{-0.14394872,-0.23449132,-0.0024102225,-0.016153254},
			{-0.0059011946,0.12251495,0.06898925,-0.18177637},
			{0.09831025,0.0025662147,0.13524096,-0.16282158}
},
			{{-0.033935428,-0.003128894,-0.15388836,-0.026398523},
			{-0.06365054,0.03767287,-0.23306441,-0.028636198},
			{0.04939061,0.1730234,-0.14683416,0.08321536},
			{-0.046911567,-0.20084058,-0.16514733,0.14523226},
			{0.16159697,0.05425124,0.045669664,-0.026970236},
			{-0.16722292,-0.017862774,0.16564408,-0.032843288},
			{-0.038325492,-0.08058166,0.24056715,-0.19685574},
			{0.07518819,0.08206624,0.22456633,0.11179911}
},
			{{-0.12073343,0.23350132,-0.05322806,-0.23353718},
			{0.15925631,0.07680182,-0.13572606,0.1825986},
			{-0.07405062,0.07026488,0.02769875,-0.22501709},
			{-0.17861943,0.1960407,-0.08164501,-0.21210991},
			{-0.062213164,-0.1500791,-0.0065059196,-0.17682062},
			{-0.20403652,0.15719134,-0.02161741,-0.10907638},
			{-0.21904121,-0.14613079,0.09309448,-0.11802063},
			{0.060978454,0.06141712,0.2221192,-0.23430873}
}
},
			{{{-0.017286424,0.12428396,-0.052012317,0.1192156},
			{-0.02590533,-0.19211994,0.07051181,-0.047400348},
			{0.1287078,0.06447718,-0.17421502,0.18071051},
			{0.106235996,-0.21340291,0.17104028,0.13483043},
			{-0.014558163,0.1492151,0.18796661,-0.009233654},
			{-0.2269552,-0.12920474,-0.03897176,0.09403007},
			{-0.12968528,0.08702622,0.11807111,-0.13644278},
			{-0.17016783,-0.09628932,0.21650073,0.15115197}
},
			{{-0.019379908,0.103654355,-0.14998901,-0.09835628},
			{-0.11487022,0.07405828,-0.13643841,-0.14598793},
			{0.22932047,-0.088538714,0.040721115,0.16701609},
			{0.009478097,-0.2258673,0.075671054,-0.20330012},
			{-0.1109851,0.21391335,-0.053400293,0.08622186},
			{0.13413173,-0.053739637,-0.1652216,0.09871621},
			{0.21792918,0.047874264,-0.1192233,-0.11463223},
			{-0.1354778,0.18716031,-0.055725165,-0.092857495}
},
			{{-0.17450075,0.15232933,0.12679866,-0.04123031},
			{-0.15412955,-0.10799902,0.015626557,0.18422979},
			{0.12935716,-0.038493343,-0.17782794,0.08259551},
			{-0.054612592,0.22122832,-0.046497844,0.059539147},
			{-0.05853932,-0.05789955,0.22240481,-0.052816547},
			{-0.15751863,0.04772551,0.012661857,0.12363149},
			{0.0718715,0.16846137,0.051395815,0.09598217},
			{0.12503201,-0.16090283,-0.04086908,0.1468971}
}
},
			{{{-0.115033984,-0.060439456,0.1803738,-0.17366073},
			{0.108804874,0.03835924,0.23160286,-0.16699752},
			{-0.1978049,0.12696935,0.00162674,-0.04572244},
			{0.015675863,0.0810023,-0.12936597,0.0016783488},
			{0.119502954,0.008182505,0.12807165,-0.15733944},
			{-0.16178988,-0.23371555,0.098393515,-0.18594876},
			{-0.22859068,-0.2182619,-0.12409682,-0.21539576},
			{0.051338438,-0.048856344,0.19274919,-0.16536984}
},
			{{-0.034531277,-0.11019791,0.11116066,0.06698153},
			{0.027951278,-0.033326466,0.049754575,0.20265658},
			{0.19460635,0.0640594,0.2285504,-0.14675413},
			{-0.10012043,-0.04690598,0.16944595,-0.0120944455},
			{-0.17064904,0.19315033,-0.08854405,0.13280252},
			{-0.13600281,0.13578154,-0.1780448,0.1308761},
			{0.01135655,-0.107273355,-0.025215419,-0.12075081},
			{-0.08908182,-0.032962617,-0.0589604,-0.05992207}
},
			{{0.20489684,-0.14777167,0.10723064,-0.038430452},
			{0.19004197,0.17412347,-0.005409052,0.06701149},
			{-0.1553164,0.011350452,-0.22443913,-0.10751719},
			{0.12142945,-0.17000622,0.19900717,-0.23281509},
			{-0.08410468,0.014637165,-0.14663883,-0.16791092},
			{-0.028778257,0.15156128,-0.042650457,-0.20060535},
			{-0.14978056,0.07260467,0.06124637,0.114002846},
			{0.08014884,-0.17898679,-0.027271088,-0.11754894			}
		}
	}
};