// include/conv2d_6089_weight.h
// sergio rivera 
// 2020/02/14 15:59:52 

const float conv2d_6089_weight_p[3][3][3][32]=
{
	{
		{
			{0.0129197305,0.044382334,-0.12365746,0.10168983,-0.08615687,-0.037037842,0.018629048,0.111216955,0.1352251,-0.13515124,0.073076755,-0.09099966,0.13083835,-0.033509795,-0.11007803,-0.13041922,0.018763784,-0.09334491,-0.056574978,0.1210099,-0.09118256,0.0613873,0.13647322,-0.055683095,0.030436292,0.09448356,-0.088225625,-0.03694123,0.10080544,0.13616563,0.021508856,-0.012026031},
			{0.10552645,0.05382295,-0.013603825,-0.072311595,0.09158738,-0.09026399,-0.090706445,0.036458295,0.08610624,0.122084945,0.124841586,-0.05454959,0.06959283,-0.124938816,-0.08258729,0.12195318,-0.017936965,0.036681104,0.057199303,-0.05991278,-0.08991477,-0.103472814,0.058976363,0.13600884,-0.0012260242,-0.015509743,0.106190145,0.029071743,0.1312104,0.090411566,-0.054807734,-0.05061066},
			{0.014321274,0.1237912,-0.011373937,-0.085960925,-0.1186724,-0.13197537,-0.12699193,0.05041211,-0.09950261,-0.09947227,-0.06456573,-0.025355894,0.06453961,0.0771057,-0.061889473,0.06864933,-0.10600826,-0.044459883,-0.064928435,-0.12386263,-0.100481234,-0.014114379,-0.04715009,-0.13649662,-0.022877213,-0.02820396,-0.06857803,0.114492826,0.11925823,-0.049585138,0.07344076,-0.11500647}
},
			{{-0.059823744,0.04237237,-0.12583664,0.12004383,0.088211834,0.12282332,0.13650434,-0.10425206,0.10333254,0.1137162,0.09707765,0.13407063,-0.06624796,0.015753059,-0.10864305,0.09006911,-0.008648139,0.06933542,0.025165029,-0.028906196,-0.06903239,0.028236913,-0.12476345,0.106745094,-0.12598853,0.016152639,0.009785239,0.0059495806,0.010343986,-0.042358026,0.13251525,-0.09201814},
			{0.069126956,0.016378995,0.011219944,0.023643043,-0.08614034,0.06682753,0.015224765,0.05197865,-0.13214065,0.0076683075,-0.108318076,0.09734102,-0.09717764,0.06936779,0.12783836,0.06842111,0.012935675,-0.10799393,-0.09707117,-0.045345362,-0.085007794,-0.13494314,0.01611247,0.10915,0.09522018,-0.09904935,0.107204445,0.13653369,-0.111034274,0.02259974,0.061534744,-0.13092275},
			{0.11515948,-0.06589936,0.11698598,0.13019502,0.05979339,-0.11924615,0.008862748,0.035607953,0.07579489,0.018575175,-0.13627276,0.08663791,-0.08482304,-0.030540815,-0.020930953,-0.062329244,-0.091633566,0.064261034,-0.05743133,-0.02454848,0.010063963,-0.045115903,-0.010320556,-0.09817993,-0.054285254,0.07899274,-0.084561326,0.07313158,-0.052772775,0.04177605,-0.08349027,0.050134998}
},
			{{0.059249457,-0.019176941,-0.010672211,0.010913828,0.07902804,-0.13155788,-0.06720204,0.08069058,-0.11063933,-0.12156955,-0.0017927643,-0.10573273,0.06126582,-0.10308586,-0.103217386,-0.024021314,-0.0034976704,-0.06687628,-0.104201056,-0.039411142,0.09178592,0.081662305,0.03153217,0.02204695,0.058298603,0.01351301,-0.052154023,-0.02109291,-0.06613003,0.11100085,-0.09160242,0.058508616},
			{-0.06566045,-0.0011867892,0.105278775,-0.09352503,-0.020483134,-0.06048116,-0.06960084,-0.02724404,0.025016103,0.05784304,-0.034977052,-0.091843925,-0.06804331,-0.11606836,0.10324538,0.021122882,0.02159956,-0.0063315234,-0.0021603208,0.08710396,-0.121483535,0.11737962,-0.091658875,0.034493163,0.13485374,-0.05166916,0.044146,0.093873315,-0.04055539,0.10008219,0.05195561,0.024835132},
			{-0.09093295,0.06433921,0.11113605,-0.043910287,-0.13621627,-0.061798126,0.032936297,0.04797237,0.0073539354,0.083234414,-0.11878389,-0.033891555,-0.01933738,-0.12515403,-0.021911642,0.09023359,0.026735533,0.08848043,0.016016396,-0.022260869,0.016255682,-0.08948503,-0.08239646,-0.12934001,-0.026542239,-0.07636177,0.13065623,0.011290061,-0.13461559,0.12337584,0.05842972,-0.025981782}
}
},
			{{{-0.10421004,0.0419488,0.06954579,0.05700241,0.10882128,-0.019191187,0.13684557,-0.12837045,0.09749206,0.08721718,-0.121734515,0.032111414,0.11795849,-0.05865537,-0.0018566812,0.053018853,0.049211178,0.0042973836,0.13683324,0.04205013,-0.0035917163,0.08843297,0.026832543,0.019590216,-0.0134666795,-0.13413051,-0.08526989,-0.010715924,0.051979106,0.10239958,0.07665787,0.030016787},
			{-0.119611934,0.09833413,-0.044623457,-0.11616476,-0.026918685,-0.04273442,0.015671644,0.041811127,0.11514742,-0.0019662085,-0.12094827,-0.10982611,0.065682836,-0.04281448,0.06986749,0.041983593,0.11421811,-0.12844603,0.07912967,-0.036548316,-0.12812772,0.1093198,0.09415853,0.11585442,-0.09120155,-0.011353238,0.012816335,0.009688011,-0.05895087,0.08512675,-0.10652994,-0.06919674},
			{0.0031908078,0.12905762,0.12329396,-0.043355413,-0.07923792,0.12579381,0.017017553,-0.02909403,-0.008647171,-0.13072564,-0.11009195,-0.085163355,0.10366409,0.09433327,-0.028778657,-0.018383766,-0.05135061,0.08927038,0.060239628,0.09247096,0.11774278,0.08808153,-0.067517646,-0.03722429,-0.12065236,0.09331697,-0.107009836,0.12352385,-0.100451596,-0.087073326,0.10990561,-0.07433924}
},
			{{0.07309119,-0.13507235,-0.020710627,-0.09737082,-0.07688231,0.036238726,-0.051186398,-0.042494357,0.050297122,-0.10186246,-0.0121844215,-0.12754501,0.006909036,-0.05194491,-0.03336373,0.09805118,-0.10217262,0.05761655,-0.02543919,-0.034803767,-0.009244414,0.019098043,-0.07439089,0.017320067,-0.029237371,-0.12718134,-0.094983965,-0.033949904,0.03111624,0.0036890397,-0.118582055,0.10866659},
			{0.08671763,-0.12816064,0.07220658,0.12231049,0.06533262,0.06919726,-0.014396804,-0.036227517,-0.028859835,0.019090662,-0.07065924,-0.009063015,-0.08341047,-0.083127104,-0.12930816,0.014971297,0.08417204,-0.11763361,-0.043539457,-0.086721666,-0.062445465,-0.1026983,-0.09885269,0.063088134,-0.050162796,0.11383472,-0.12769963,0.04127279,-0.11534614,0.100413024,-0.01908421,-0.033660397},
			{0.13580756,0.036941234,-0.08241929,-0.048026394,-0.027324066,-0.0999513,-0.086831056,0.10233954,0.11490446,-0.09184325,-0.043313477,0.04437416,-0.099591464,-0.0713636,-0.0828849,-0.021146562,-0.07950377,0.039404083,0.028119262,-0.043683283,0.11317511,-0.03182369,0.09038714,0.1307257,-0.13704023,-0.054895654,-0.12076458,-0.13430539,-0.02285939,0.032464877,-0.00080470066,0.052526034}
},
			{{-0.12970853,-0.10204298,-0.10087255,-0.08489882,0.09714392,-0.1347689,0.038744856,-0.0006033353,-0.0044664717,-0.0067519182,-0.022638017,-0.049269352,-0.003558216,0.10635756,0.054519605,-0.0679501,-0.08841151,-0.039777577,-0.079618976,0.031844124,0.1117438,0.055725086,-0.032620355,0.104454786,-0.093696274,-0.07410995,0.13736439,-0.00861909,0.023322402,-0.11684675,-0.014103012,-0.022277437},
			{-0.118956976,-0.0345679,0.116801694,0.062484626,0.11753005,0.06432085,-0.026428198,0.04579065,-0.094950065,-0.06442154,-0.047578365,-0.06623051,-0.0640459,-0.013814157,-0.13641304,-0.13200529,0.0574656,0.043253176,-0.11133476,0.103148036,0.012330197,-0.028542478,0.009762225,0.06445642,-0.036046248,0.04466792,0.11903037,-0.057084687,-0.050073784,0.012629561,0.1011435,0.12892249},
			{0.05417986,0.055873577,-0.13001418,0.04183892,0.114174955,0.066349894,-0.13142212,-0.08579515,-0.0353985,0.087186635,-0.10353307,0.1272465,-0.10069649,0.10998387,-0.088422045,0.12300196,0.0027304282,0.044449147,0.037218377,-0.12739924,-0.13834745,-0.02194436,0.13411832,0.08580116,0.07020793,-0.011380398,0.09453279,0.087833054,-0.028345093,0.117768325,-0.009495234,0.0024551593}
}
},
			{{{-0.13638593,0.0822217,-0.12904854,0.107397504,-0.003965805,0.041552212,0.060023446,-0.00027636657,0.11088402,0.054070786,-0.008119995,0.033976365,0.12471083,0.114029825,-0.04814957,0.10285142,-0.13392116,-0.10491752,-0.08532692,-0.07088972,0.1222021,-0.089361735,0.00742037,-0.11978191,-0.062076867,0.03630912,-0.0892905,0.034611344,-0.049477264,0.0733228,0.118902914,-0.08028445},
			{0.09498877,0.09715589,0.12333373,-0.008375568,0.12561029,-0.083627425,-0.07462904,0.11140491,0.009885786,-0.021560406,-0.06955569,0.11291404,-0.10603191,0.025843602,-0.07375968,-0.005979757,-0.09495335,0.11064817,0.1268304,-0.034361247,-0.062261585,-0.13696975,-0.10304599,0.12421333,0.10209301,-0.04093386,-0.09880207,0.085860245,-0.07067605,0.05074881,0.11983674,-0.09921915},
			{-0.08517522,-0.01504094,0.050502133,0.025402246,0.084854364,0.13509369,-0.06989135,0.022932949,0.03937634,0.044928186,-0.107792825,0.007275239,0.11440967,-0.05163098,-0.035925243,0.0708816,0.10636113,-0.06434749,-0.009854724,0.042675428,-0.060376856,0.06302903,0.05433785,-0.00658947,0.036143176,0.13371451,0.042394754,-0.034973722,0.040834498,0.0194038,0.120730825,-0.060459252}
},
			{{-0.0072133783,0.056986853,0.020777326,-0.1003399,0.124532,0.1049625,0.102011725,0.11854689,0.12504439,-0.09719411,-0.06897892,-0.13330323,-0.008133062,-0.039343275,0.012976567,0.13111411,0.07640868,0.13386078,-0.043712255,-0.011377625,0.009199763,-0.11166256,0.08705964,0.07556364,0.05509759,-0.08946029,-0.12287232,-0.07810249,0.1051629,-0.002898337,0.0050729737,0.09281307},
			{0.0029683276,0.1130984,0.07618592,0.021884652,0.00437844,-0.10246745,-0.09879704,-0.035263527,-0.13197239,0.059310425,-0.025531884,-0.06505895,-0.095498584,-0.040407803,0.005284909,0.13600218,0.07140065,0.04562565,-0.0008389616,-0.042916913,0.0934273,-0.066893086,0.121850505,0.019897575,0.08031124,-0.073652074,-0.052643638,0.051903803,-0.07083589,0.13332215,0.015334761,0.116380125},
			{0.062293798,0.105742015,0.1235719,0.13650729,-0.064896196,-0.11859249,-0.08796937,0.070771225,0.108272806,-0.1266113,0.124718174,0.007859167,-0.0007051741,-0.12620169,0.028185653,-0.076237954,0.08765191,-0.13538514,-0.021677447,0.0045578238,-0.12670505,-0.08728499,0.056418903,-0.13798277,-0.07402938,-0.06091632,-0.043229688,-0.119092666,-0.007694079,-0.11349724,-0.06843898,0.12606792}
},
			{{-0.09484005,-0.066721775,-0.061769303,-0.11784299,0.10725311,-0.10086608,0.0755178,-0.10086825,0.037235502,0.058134425,-0.0054272623,0.0069612493,0.110370725,0.047025636,-0.103252605,-0.095414184,-0.06472175,0.021416124,-0.056604236,0.03602553,-0.039889403,0.1198894,-0.094335616,-0.0041845473,-0.017628916,-0.034831405,-0.029539445,0.02455849,0.00016754164,-0.1263118,0.0073416457,-0.13175884},
			{-0.029092977,-0.02488108,-0.01686817,0.029179567,-0.017613728,-0.07910168,-0.13455695,0.020400219,-0.06426579,-0.08847698,0.08578861,0.08518387,-0.048655707,-0.07678894,-0.11617004,0.080498725,-0.086900026,0.13243878,0.0974499,0.09007655,-0.034034114,0.0985611,-0.11446054,0.11677034,-0.10207962,0.015404636,0.018706197,-0.016498847,-0.0599916,-0.009091251,0.09234028,0.08403892},
			{0.012300147,-0.11025596,-0.120537825,0.010093367,-0.13443968,0.08180647,-0.121881485,-0.09993699,0.13048178,-0.0037510283,-0.07710583,-0.017183142,-0.06500257,0.04588826,-0.005227614,0.08614814,-0.06717031,-0.100572355,-0.019491948,-0.12899368,0.08681102,-0.12909265,0.09957821,-0.07558432,-0.091870144,-0.0449459,-0.018511532,-0.06700693,0.06039641,0.11289265,0.12752324,0.10466122			}
		}
	}
};