// include/conv2d_6090_weight.h
// sergio rivera 
// 2020/02/14 15:59:53 

const float conv2d_6090_weight_p[3][3][9][2]=
{
	{
		{
			{0.1706386,0.12603037},
			{-0.061095767,0.22562109},
			{0.07158393,0.19501796},
			{0.04286833,-0.22554573},
			{-0.17763475,-0.03353711},
			{0.24585876,0.14431371},
			{0.11133455,0.020467281},
			{-0.1759835,0.19532108},
			{0.14690495,-0.013203471}
},
			{{0.19248405,-0.10429289},
			{0.23537745,-0.110950686},
			{-0.18270618,0.19017112},
			{0.06934296,-0.11466835},
			{-0.0074547376,-0.053132586},
			{0.100143135,0.17173743},
			{0.031230452,0.124095984},
			{0.22615753,-0.2314364},
			{0.07939715,-0.17349382}
},
			{{0.21747828,-0.19978265},
			{-0.04488753,0.03510153},
			{-0.01640661,-0.063106254},
			{-0.21135148,-0.17461038},
			{-0.092397615,0.0062349723},
			{-0.1579828,-0.17290081},
			{0.1611535,0.19004162},
			{0.16327932,-0.092377506},
			{-0.2435139,-0.027291223}
}
},
			{{{0.075216174,0.0034365137},
			{0.12595776,0.17800705},
			{0.24345568,-0.22197145},
			{-0.22456704,-0.18117294},
			{-0.17121841,-0.030873708},
			{0.12554266,-0.090323},
			{0.04177836,-0.049201053},
			{-0.14603893,0.098003834},
			{-0.17354405,0.180113}
},
			{{0.17310536,0.0024557777},
			{-0.14442673,0.15748315},
			{0.22311547,0.1302213},
			{-0.04224066,0.056700986},
			{-0.21013391,0.09498},
			{0.11002174,0.14363542},
			{-0.062460344,0.19973259},
			{0.22275701,0.001687348},
			{-0.022709444,0.21957055}
},
			{{0.24018767,0.1835171},
			{0.007894103,-0.07963988},
			{0.1286082,-0.018907174},
			{0.23553719,0.15477212},
			{-0.008163098,0.06771714},
			{-0.052314207,-0.011149973},
			{0.043518797,0.12257801},
			{0.07485298,0.095953695},
			{-0.2164189,0.10503619}
}
},
			{{{-0.205979,-0.09176852},
			{0.19399023,0.17167228},
			{-0.12883705,0.03727898},
			{0.14264019,0.093454145},
			{0.039832335,0.13358426},
			{0.09480825,-0.21779194},
			{-0.09358629,-0.17117146},
			{0.12386622,0.031369228},
			{0.09207346,-0.0055366424}
},
			{{0.11863827,0.19741517},
			{-0.18176842,0.08616564},
			{0.20994833,-0.0058632344},
			{-0.123855546,0.23062415},
			{0.0020458363,0.089192964},
			{-0.22511572,0.19075915},
			{0.07112134,-0.1622752},
			{0.16543844,0.1714469},
			{0.13699031,-0.13921346}
},
			{{-0.10316878,0.18619904},
			{-0.15478347,0.09344705},
			{0.10483953,-0.19808675},
			{-0.11285506,0.043606162},
			{0.16955486,0.030840412},
			{-0.2239959,0.10112316},
			{-0.0942732,-0.17308863},
			{0.13828592,0.11031296},
			{-0.20192392,-0.11012828			}
		}
	}
};