// include/conv2d_3431_weight.h
// sergio rivera 
// 2020/02/15 03:08:59 

const float conv2d_3431_weight_p[3][3][14][2]=
{
	{
		{
			{0.027860826,0.051447835},
			{0.19081944,0.1973509},
			{0.19207656,0.03500698},
			{-0.08572169,-0.01307404},
			{0.11546981,0.027830934},
			{0.053916782,0.11926011},
			{-0.020850547,0.11277719},
			{-0.15465817,0.055281233},
			{-0.1827649,-0.055039376},
			{0.043681275,0.06373114},
			{0.0263966,0.06093513},
			{-0.01345127,-0.17489956},
			{-0.088334605,-0.048505496},
			{0.08675971,0.13865352}
},
			{{0.07196008,0.14285772},
			{-0.010177439,-0.10395276},
			{0.116332196,0.00094574894},
			{0.0035150924,-0.025999697},
			{-0.056528196,-0.11673468},
			{-0.06689505,-0.10830077},
			{-0.028948633,-0.12932484},
			{-0.006816532,-0.19797966},
			{-0.038323335,-0.19320905},
			{0.027204392,-0.010239253},
			{-0.0975564,0.15479247},
			{-0.15837036,0.17076105},
			{-0.043940257,-0.13063988},
			{-0.16435586,-0.13748045}
},
			{{0.075294815,0.17521732},
			{-0.007948307,0.18918583},
			{0.18719009,0.061645698},
			{-0.052390512,-0.11946747},
			{0.1486968,-0.041906457},
			{-0.14703397,-0.1578225},
			{0.05307512,-0.11704322},
			{0.09441964,-0.068157636},
			{-0.13570608,-0.085819855},
			{0.16095689,-0.061072394},
			{0.10970404,0.09577295},
			{0.19552134,0.07610174},
			{-0.04562733,0.0920892},
			{-0.15950137,0.08425982}
}
},
			{{{-0.19751367,-0.06601864},
			{-0.039980974,0.1260937},
			{-0.05219214,-0.07253327},
			{-0.071353346,-0.0752639},
			{-0.040622372,-0.09466252},
			{-0.1444845,0.12027772},
			{0.08870893,0.025092168},
			{0.19179067,0.11339938},
			{0.09320809,-0.17384651},
			{0.15305682,0.07091266},
			{-0.17694552,-0.008328181},
			{-0.013834667,0.016683867},
			{-0.023087334,0.10981333},
			{0.16201791,-0.0044450373}
},
			{{-0.05171364,0.1310448},
			{-0.16970831,-0.05911312},
			{-0.19440688,-0.102240376},
			{0.11683993,0.14210455},
			{-0.1489569,-0.058898},
			{0.042366657,0.1947378},
			{0.12702116,0.12042615},
			{-0.14634758,-0.0128949545},
			{-0.009761497,-0.16242397},
			{-0.019640282,0.10030527},
			{0.04458313,0.15147945},
			{0.11634783,-0.1249285},
			{0.13736711,0.12317617},
			{0.058321312,0.1722874}
},
			{{0.16374399,0.14379533},
			{0.16425624,0.030053498},
			{-0.08463041,-0.15137641},
			{0.05650594,0.08685741},
			{-0.1719403,0.10063978},
			{-0.20307307,-0.19971412},
			{0.092796646,0.090829626},
			{-0.02910793,-0.1456726},
			{0.066343606,0.12645832},
			{0.15881997,0.11956655},
			{0.07093171,-0.06529972},
			{0.044448074,0.032580093},
			{0.14281859,0.18354729},
			{0.049050275,-0.1808204}
}
},
			{{{0.010725824,0.14163767},
			{0.059026487,0.16693635},
			{-0.08962599,-0.12101602},
			{-0.100635,-0.11890426},
			{-0.10048306,0.013634072},
			{-0.065769866,-0.08530235},
			{0.13483654,0.13454577},
			{-0.15426748,-0.031385224},
			{0.071806245,-0.026578497},
			{-0.1810056,0.1591178},
			{0.0076579466,-0.038723595},
			{-0.15403643,0.09068952},
			{0.10055823,0.025660967},
			{0.14012924,-0.14496425}
},
			{{0.11542955,-0.08077999},
			{-0.029205838,0.07772511},
			{0.17568438,0.10804429},
			{0.14085273,0.19011872},
			{-0.1120981,-0.15257809},
			{0.02357219,0.058058694},
			{-0.18932956,0.12764174},
			{-0.08035965,0.10591787},
			{0.02750806,0.083496474},
			{-0.10751678,0.07234501},
			{0.12527673,0.14819112},
			{-0.09991836,0.022333866},
			{0.19520827,-0.13326976},
			{-0.15683903,-0.14859614}
},
			{{-0.0006912185,0.15137973},
			{0.18210255,-0.04890843},
			{0.12723275,-0.022089979},
			{-0.015666448,0.012997909},
			{-0.018950853,0.020273037},
			{0.06763331,0.13326257},
			{0.10848734,0.14259824},
			{-0.17487045,-0.050741386},
			{-0.13105163,0.13471325},
			{-0.032279763,-0.16322216},
			{-0.0331535,-0.046837274},
			{-0.09172923,0.0703665},
			{-0.06461671,-0.00067792746},
			{0.17472489,0.12779018			}
		}
	}
};