// include/dense_2858_bias.h
// sergio rivera 
// 2020/02/15 03:24:37 

const float dense_2858_bias_p[121]=
{-0.002634714,-0.0036038551,0.00072414434,0.0014171918,-0.0013998614,0.014356443,0.0,0.0010187585,-0.0040683937,-0.002995579,-0.0013997111,-0.004521735,0.0,-0.0022745791,-0.0016253699,-0.0009518134,-0.0013997937,-0.0030104262,-0.00082154665,-0.0013999231,-0.0047785523,0.0,-0.0075935563,0.01785423,-0.0005272685,0.0,0.0029563247,0.0071579237,-0.004663107,0.0,-0.0029750522,-0.0027370835,-0.0037066685,-0.0040897937,-0.006686612,0.006155601,-0.0037927008,-0.0032164878,0.0029239904,-0.0038608059,-0.0040954733,0.007742641,0.0014746946,0.0022398501,0.012249103,-0.006051734,0.0009199115,-0.0037269786,0.0012694215,0.0009885259,0.0026353025,0.0,0.0,-0.0012424133,0.004135403,-0.0048795417,-0.0013998309,0.0,-0.0030656527,-8.621995e-05,0.0029175696,-0.0039162925,-0.003070402,-0.0029663485,-0.0014000036,-0.0013999996,0.0010624544,-0.0007034451,-0.005758982,0.0,-0.0015028466,-0.0003778122,-0.007711874,0.0,0.0,-0.0013999593,-0.0033095018,0.0,0.0060438807,0.0,0.0013999306,-0.002212315,-0.0017518811,-0.0016162831,0.0015510999,-0.0022000046,0.0011255601,-0.0004936394,-0.003077614,0.002928299,-0.00081863964,-0.0013999153,-0.0013998573,-0.0013995204,0.0,0.0068666455,-0.0033939788,0.0,-0.00082599744,-0.0032602928,-0.0027610282,-0.0014000214,-0.0049150013,-0.0009952056,0.005555086,-0.0022065905,0.0,-0.007659822,0.0,0.0037024652,-0.0062526437,-0.0027750642,-0.0014,0.0016284491,-0.00759345,-0.00031962327,-0.0031367554,-0.0009450208,-0.0013998642,0.0052059423,-0.0018410507};