// include/conv2d_1076_weight.h
// sergio rivera 
// 2020/02/15 00:43:29 

const float conv2d_1076_weight_p[3][3][6][4]=
{
	{
		{
			{-0.22110055,0.22387077,-0.09564533,0.15583664},
			{0.21158421,-0.00058571034,0.16916417,0.08739478},
			{-0.14518839,0.15163359,0.0168962,0.24062121},
			{0.21314092,0.12996294,0.18007317,0.077298574},
			{-0.18983564,-0.20753174,-0.09001344,-0.22036728},
			{0.07659338,0.031654164,0.11721487,-0.048694883}
},
			{{-0.0135935405,0.13892701,0.19016354,0.18988945},
			{0.016979858,-0.22022301,-0.029994983,0.22273129},
			{0.18142824,-0.040700626,0.1582744,0.035165943},
			{-0.07806054,0.1245328,0.21383712,-0.24632803},
			{0.21251969,-0.1991923,0.17317328,0.12514879},
			{0.2479995,0.24315707,0.20962633,0.22482236}
},
			{{0.11982724,0.1375809,0.21509734,-0.021363849},
			{-0.021675812,0.027673557,-0.16150358,-0.1574289},
			{0.20141593,-0.24837914,0.23302755,0.065031506},
			{-0.007785135,0.0058553526,-0.19800858,0.024841921},
			{0.160588,-0.17735071,0.06649008,0.05911549},
			{0.09715794,0.07043452,0.23541376,-0.19872208}
}
},
			{{{0.08987986,-0.17550029,0.14480399,-0.018910546},
			{-0.04176093,-0.028248701,-0.14172822,0.08594376},
			{-0.14786358,-0.004886799,0.24427079,-0.19941768},
			{-0.23737127,-0.07850602,-0.12712057,0.25467816},
			{0.19986606,0.18579789,0.21473818,0.14472492},
			{-0.122036755,0.17916778,0.101834506,0.08186021}
},
			{{0.17100866,-0.056704942,0.089095496,0.060026027},
			{-0.16917232,-0.028220553,0.025274431,-0.09495751},
			{0.12848236,0.16085151,-0.09690958,-0.22424068},
			{0.21304488,-0.029480053,-0.12625983,0.19426695},
			{0.08779673,0.037285995,-0.24444765,0.22197412},
			{-0.010607623,0.11624428,-0.194386,-0.12496923}
},
			{{0.039579064,-0.19355586,0.19351478,-0.12692636},
			{-0.0071196696,0.13404854,-0.21116786,-0.064909324},
			{0.16457726,0.20402409,-0.15893172,0.028570976},
			{0.23242167,0.005516486,0.13782504,0.22093949},
			{0.1747735,-0.10135985,-0.1609795,-0.21057594},
			{0.19214115,-0.17170654,-0.08261096,-0.23190233}
}
},
			{{{0.13566095,0.24436612,-0.097646594,-0.017356988},
			{0.1871871,-0.24125226,-0.08086585,0.1509316},
			{-0.029687794,0.03010732,-0.25328967,-0.051351596},
			{-0.07254574,0.24360783,0.23654293,-0.10232242},
			{0.05497774,-0.20159227,0.12686865,0.08154887},
			{-0.08837594,-0.030658934,0.058325205,0.030006854}
},
			{{0.11924741,0.009018258,-0.08549172,0.23300627},
			{-0.08818857,-0.070381336,-0.15453649,0.114379294},
			{0.15820304,-0.15734275,0.09456804,0.23399626},
			{-0.12711032,0.09772665,-0.07532593,-0.123668976},
			{0.18342297,-0.25267354,-0.2547004,-0.11512209},
			{-0.20136634,0.010208157,-0.11641814,-0.25311673}
},
			{{-0.1385226,-0.074624576,0.0669028,0.08867786},
			{0.112156786,0.16384229,-0.17106715,0.18322007},
			{0.1088576,-0.19492337,-0.054517332,-0.24643378},
			{-0.22572953,0.21609779,0.0008935963,0.023351766},
			{0.08082928,0.23001692,0.021466542,0.23396869},
			{0.05494233,-0.0036246295,-0.003468107,0.23383471			}
		}
	}
};