// include/conv2d_2989_weight.h
// sergio rivera 
// 2020/02/15 02:30:59 

const float conv2d_2989_weight_p[3][3][5][4]=
{
	{
		{
			{-0.050541192,-0.1530965,0.16118845,0.20080975},
			{0.24355966,0.046612322,0.105865836,-0.2074376},
			{0.14620563,0.17538953,-0.10432464,-0.21412794},
			{0.14885753,-0.0934841,0.27139515,0.19213727},
			{-0.2351112,-0.16773143,0.08973089,-0.05915031}
},
			{{0.14429957,0.19397092,-0.13126324,0.06878191},
			{-0.25158772,-0.09596093,-0.2690958,-0.09976441},
			{0.124488026,0.14155325,0.2705955,-0.112597376},
			{-0.18658075,0.19862613,-0.27136934,0.14227015},
			{-0.025225654,-0.05879718,-0.033545762,0.16452232}
},
			{{-0.024989724,-0.06759307,-0.20054635,0.022033095},
			{0.13285297,0.14614424,0.20899084,0.24973041},
			{-0.089172065,-0.014784962,-0.17005304,0.008437812},
			{0.26011235,0.047087193,0.075211465,-0.19066338},
			{-0.15837899,-0.05832836,0.13444659,0.16738394}
}
},
			{{{0.107028514,-0.02016443,0.1352303,0.10581857},
			{0.22239685,-0.062331066,-0.16700818,0.030997097},
			{0.24977571,-0.18249044,-0.06757775,0.085956484},
			{0.041293353,0.07372427,-0.0052269697,0.20131886},
			{0.1511234,0.26687902,0.17753568,0.19151777}
},
			{{-0.12856294,0.13178074,-0.26734102,0.13582808},
			{-0.20711893,0.26088977,0.18141958,0.2508993},
			{-0.23868991,-0.20017739,-0.033694163,-0.2144278},
			{0.02320677,-0.061463296,0.26542014,-0.1429234},
			{-0.19752686,-0.23229837,0.08461231,-0.17663574}
},
			{{0.12574744,0.26444948,-0.111195505,0.019064099},
			{0.1446597,-0.1792352,-0.1859785,0.038051367},
			{-0.07155657,-0.039833546,0.06157458,-0.21988843},
			{-0.24219179,-0.17589094,-0.2260496,-0.16526467},
			{0.10619593,-0.25568515,0.19842169,-0.12850253}
}
},
			{{{-0.19070439,0.1169166,0.2581867,-0.046403587},
			{-0.18498388,0.10655463,-0.061321452,0.1673136},
			{-0.19849163,-0.21745683,0.24423647,-0.19995761},
			{0.03321731,0.047199517,0.12067038,0.25343704},
			{0.18758023,-0.17016116,-0.24146076,-0.15525834}
},
			{{-0.118557975,0.12556654,-0.06957148,-0.04276739},
			{-0.0061012805,-0.20625116,0.16605735,-0.11029835},
			{-0.13919343,0.2621885,-0.19113332,0.2229847},
			{0.11508685,0.17834246,0.103000194,-0.13856265},
			{0.07106879,-0.1974318,0.16232973,-0.20719284}
},
			{{-0.07172665,-0.22901037,0.040663987,0.07596254},
			{-0.25949544,0.20503175,0.24410295,0.112458706},
			{-0.18992358,-0.24123618,-0.069615275,0.0867711},
			{-0.24837789,0.039394617,-0.25670442,0.1302256},
			{-0.04151988,0.22383136,-0.09310657,0.23453319			}
		}
	}
};