// include/conv2d_2991_weight.h
// sergio rivera 
// 2020/02/15 02:31:01 

const float conv2d_2991_weight_p[3][3][8][4]=
{
	{
		{
			{-0.0972071,0.15024807,-0.044650763,-0.18384737},
			{0.21497945,-0.09894006,-0.13353363,-0.16284104},
			{-0.18737169,0.10835005,-0.11537807,-0.17596889},
			{0.23003693,-0.037014827,-0.05688481,-0.09256229},
			{-0.19025004,0.09581806,-0.17839497,-0.21179561},
			{-0.15864086,-0.1298459,0.10443826,-0.21030486},
			{0.13873623,0.061132923,0.08295916,0.2186382},
			{0.1865815,-0.1849298,-0.21513797,-0.006912023}
},
			{{-0.16364706,-0.027001068,0.16965578,0.13018481},
			{-0.17684975,-0.09948607,0.20619695,0.17476068},
			{-0.17005377,-0.05322203,0.19931622,-0.083691105},
			{0.09831612,-0.011801854,-0.21324036,-0.1238125},
			{-0.10873848,0.07170786,-0.01734449,0.17221685},
			{0.00041933358,0.0533915,-0.12099534,-0.19121644},
			{0.19139759,-0.20071992,-0.16473056,0.23250736},
			{0.09150238,0.09390627,-0.13221005,0.16809951}
},
			{{-0.1455733,0.047496364,-0.13220292,0.054844275},
			{0.23364343,0.01877974,0.007257968,0.047927216},
			{0.0652314,0.16051425,0.09587677,-0.03652805},
			{-0.069578156,-0.18860513,0.13354965,0.15449657},
			{-0.23301572,0.068004176,0.13455482,0.18407084},
			{0.1160685,-0.22124404,-0.09496489,-0.20270196},
			{0.18352498,0.012817085,0.16480862,-0.13714011},
			{-0.028089136,0.1789123,0.15612216,-0.14744794}
}
},
			{{{-0.12420204,0.20579676,-0.019683078,-0.0072430223},
			{0.03925146,-0.19264802,-0.123898245,-0.17737658},
			{0.14178352,0.007866681,0.03316079,-0.108178824},
			{-0.01607655,0.062863305,-0.22258246,-0.04890518},
			{-0.16327369,0.114942715,-0.13535966,0.12570827},
			{-0.21136819,0.14010365,0.20828687,-0.1909776},
			{0.23123689,0.104402795,-0.21820244,-0.179003},
			{-0.014019445,-0.033602953,0.21285795,0.15128644}
},
			{{0.04071717,0.08857991,0.17714117,-0.039425403},
			{-0.11741949,0.17273931,-0.10468805,-0.1790859},
			{0.13909532,0.20443036,-0.11958112,-0.058977887},
			{0.15608658,0.09109379,-0.22216408,-0.031045645},
			{0.013417304,0.07675783,0.026428595,0.09618826},
			{0.007542148,0.027621254,0.18963121,-0.032251105},
			{0.06655668,-0.21546885,0.04787512,0.14201139},
			{-0.09372178,0.04675658,0.20911328,-0.019340351}
},
			{{-0.11541173,-0.12874289,0.20533659,0.17535494},
			{-0.09252733,-0.20305318,-0.05422394,-0.03457497},
			{-0.0904849,0.07579042,0.016398504,-0.12936643},
			{0.10059111,-0.21828263,-0.04257135,0.06762637},
			{0.0816416,-0.09217566,-0.015537515,-0.0460923},
			{0.041728124,0.08147745,0.22252096,0.0010926723},
			{0.177004,-0.19161694,0.1647277,-0.15420115},
			{-0.13132504,-0.026910424,-0.113677636,0.16087644}
}
},
			{{{0.037777618,0.115456,0.14302905,0.19181924},
			{-0.22035727,-0.21161646,-0.08810736,0.16494505},
			{-0.21260709,-0.01083,-0.0558144,-0.024780214},
			{0.11304583,-0.17097701,0.0353186,-0.13716933},
			{-0.048932657,-0.13213623,-0.06510419,0.0049888343},
			{-0.09983346,-0.02140762,-0.20926973,0.20808648},
			{0.15342356,-0.044042677,-0.07749754,0.05184196},
			{-0.04154387,-0.14944535,-0.0644405,0.15371828}
},
			{{0.035086647,0.17791282,0.013258159,-0.19645894},
			{-0.021370918,0.032459095,0.23135664,-0.19520998},
			{0.060950175,0.06515442,-0.08618671,0.17839138},
			{-0.15715644,-0.12236382,0.18556897,0.19657148},
			{0.050734624,0.20761235,0.049033597,-0.19376542},
			{-0.10203926,0.10696314,-0.12384593,-0.13349228},
			{-0.13480046,-0.15824096,0.18708019,-0.10473852},
			{-0.22941244,-6.748736e-05,0.1726001,0.19445251}
},
			{{0.007229194,-0.112828515,0.116464004,0.077927336},
			{-0.084161356,-0.0643819,-0.19674638,-0.07433462},
			{-0.024458438,-0.04904437,-0.15732811,0.12787427},
			{0.086549506,-0.117318735,-0.14946717,-0.07234304},
			{0.03149526,-0.1968999,0.23566012,0.013464913},
			{-0.103825614,-0.058696404,-0.19564095,0.22307377},
			{0.13711585,0.12078853,-0.054773152,-0.038666308},
			{-0.06756966,-0.18867363,-0.18115789,-0.018285722			}
		}
	}
};