// include/dense_2421_bias.h
// sergio rivera 
// 2020/02/15 02:31:08 

const float dense_2421_bias_p[175]=
{0.0038692846,0.0038176053,0.005037017,0.0024762878,-0.001565178,0.0017288201,-0.0038632937,0.013296601,-0.0025826292,-0.003956533,-0.002934961,0.0008665491,-0.0016773465,0.0014679029,-0.0010867852,0.00560077,0.002508257,-0.0015590029,-0.0060848696,0.011981695,-0.0005091121,0.0017616993,0.002863214,0.0053049196,0.006276308,0.0016997183,-0.010189613,0.0041869814,-0.0015311269,0.001996891,0.0077452655,-0.005852417,-0.005629845,-0.00020279468,-0.0032632255,-0.0025302696,-0.0030674539,-0.002275418,0.003397094,0.001796908,0.0023233383,-0.0011514904,0.0011438243,0.0030485534,-0.0066557345,0.001329055,-0.002180668,-0.0035522878,0.0006840246,-0.0027683694,0.0035584013,0.0011732192,0.0044377726,0.007898112,0.012429783,0.0019683428,-0.0017968005,-0.0055189636,-0.0046097683,0.0033708413,-0.0031170538,0.0030616277,0.0035337396,-0.0025354086,0.004445088,-0.0075993575,-0.0037182658,0.00012182663,-0.002841613,-0.0013114433,0.009016113,0.009383712,0.0030201853,-0.0019302443,-0.0038592515,-0.0036203284,0.0016393614,0.002685723,-0.0033245515,-0.0010902032,-0.004561681,0.0014883201,-0.00034035696,0.001611492,-0.0027019195,-0.003919581,0.0039742244,0.0046535223,0.0011799502,0.0007895078,0.005659063,0.0052365754,0.0030606464,0.0006493805,0.0014829839,0.0056403093,-0.0083706565,-0.0057759406,0.0005317772,0.0006545326,-0.0008868731,-0.0017338941,-0.008763738,-0.0037830258,-0.00845763,0.010682103,-0.0029745896,0.002619187,-0.0026343318,-0.0056874184,0.0011800409,-0.00812485,-0.0036879897,-0.0012507171,0.006296173,0.0033635546,0.0037740907,-0.002493753,-0.0031581712,-0.0018392069,0.0006050363,-0.002469847,-0.0022744276,-0.0033640761,2.0552834e-05,-0.0031753187,-0.0056973053,-0.0067522987,0.0009197424,-0.0006762336,0.005233507,-0.006744941,0.0043402864,-0.008247683,-0.008995422,0.0029484727,-0.003740884,0.0020634644,-0.0003189454,-0.0010971022,0.0036261093,-0.0035950108,0.0078104613,-0.008863602,0.015278757,-0.005994069,-0.0035010842,0.0050699064,-0.0024090193,-0.00023070068,-0.0033536074,0.0014378699,0.0063172583,0.003385638,-0.004081421,0.0066056727,-0.0027462526,0.003690286,-0.0043526185,0.00082829234,0.0016121251,0.0036551685,0.0031100824,0.00086382614,0.007588112,-0.007314047,0.00058779446,0.0008786559,-0.006142296,0.002094219,0.00088951807,-0.00022644422,-0.00010965986,0.0026547837,-0.0045780754};