// include/dense_2421_weight.h
// sergio rivera 
// 2020/02/15 02:31:08 

const float dense_2421_weight_p[2][175]=
{
	{-0.11902848,0.07158421,0.19255285,0.054985438,0.1132217,0.07879735,0.15139894,-0.0865922,-0.074715756,-0.07177049,-0.069452554,-0.07538841,0.1781568,-0.085008144,0.063683175,-0.08070675,0.15099552,-0.031579588,-0.10664693,-0.120665714,-0.13468863,0.06425244,0.029129196,0.14494132,-0.11106218,0.09971221,-0.04534763,-0.026417375,0.013822804,0.12859246,0.038231704,0.15445112,-0.12796843,-0.12723213,-0.07418364,-0.16930497,-0.024496041,-0.15839642,0.029879726,-0.15201052,0.0869659,-0.17138398,0.10197349,0.04489629,0.0075748228,0.087351605,0.063332796,-0.17334509,-0.16569793,-0.04045794,-0.044286326,0.0131743895,-0.04629844,-0.18122223,0.047234498,0.04074289,0.15961713,0.08183466,-0.072085485,0.077229284,-0.045311652,0.13592538,-0.08134704,-0.13044702,0.040420488,0.055498965,-0.075893596,-0.15720786,0.14226077,-0.15166432,-0.06338131,0.17120673,-0.058624927,0.17588292,-0.10505254,0.04451714,0.03695586,-0.1458987,0.12010119,0.08110035,-0.10194215,0.10848324,0.068890154,0.13638586,0.059866093,0.1688275,-0.03472545,0.106132425,-0.14263558,-0.09770387,0.01168695,-0.06532772,-0.034987085,0.18075706,-0.14601155,0.0947502,-0.15419173,-0.012266067,0.0060362956,-0.08687801,-0.07901554,0.14582965,-0.013915948,-0.042475212,-0.0027216207,0.018506117,0.086853564,0.17227204,0.16779152,-0.083997466,0.040069934,-0.12913002,0.13440892,0.16672595,0.02818866,-0.17036116,-0.10876544,0.14339624,0.14299558,-0.17481951,0.08744348,0.037171137,-0.037048407,-0.13559377,-0.03334056,-0.06902348,0.18104738,0.090168945,-0.18882012,0.03291745,0.07509678,0.15158579,0.040412065,-0.12713808,0.014809598,0.11653082,0.13098766,-0.056866907,-0.07540577,-0.11633479,0.009338307,-0.10408934,0.1858213,0.12021,-0.11930519,-0.012491346,0.06955803,0.106241316,0.114669725,0.1842169,0.15572195,-0.03801247,-0.17881966,0.1447263,-0.019038249,0.01758358,-0.17681181,0.08451795,-0.12113573,0.1055097,-0.18409094,-0.05913267,0.08065861,-0.08479463,-0.043204837,0.19465528,0.029856814,-0.0690365,0.17576852,0.055776812,-0.026511753,0.15683559,-0.12485939,-0.03387937,0.16856219},
	{-0.008320937,0.0074267006,-0.033746094,-0.17906816,0.12700363,-0.11156738,0.1193604,-0.105608866,-0.09813473,-0.049237292,0.04271312,0.046045624,-0.08539257,0.175547,-0.05596247,0.18583348,-0.060101505,0.012466346,0.08190629,-0.1027713,0.01281203,0.020292893,-0.1753201,-0.13233195,0.02576282,-0.06796318,-0.14004868,0.14514525,0.1290469,0.09221395,-0.09356238,0.09670858,0.07271838,0.13037437,-0.040323593,-0.07566092,0.05137894,-0.13544133,0.15603407,0.031813525,-0.15956809,0.1026572,-0.09312396,-0.14417385,0.1461854,-0.11676039,-0.14120108,-0.15131138,-0.036638185,0.020797461,0.15396182,0.15377046,0.16190559,0.13236117,0.10620745,-0.01270278,0.024746403,0.032918185,0.11684621,-0.05538359,0.17851722,-0.08308405,-0.09699614,-0.044785116,-0.13378814,0.10158433,0.004689682,-0.08531798,0.056675054,-0.029553603,0.1727906,0.0058471644,-0.1608142,-0.15734622,-0.12024381,-0.17015623,-0.0037973812,-0.03364091,-0.18181561,-0.008645404,-0.0629956,0.17561197,0.045769963,0.0031465106,0.10299832,0.08748107,0.16898608,-0.005390597,0.1602946,0.14529322,-0.064043544,0.14129554,0.16262005,0.13543765,0.12211049,0.03206846,-0.045661375,-0.10035208,0.17417496,0.07162841,0.14794715,-0.06836321,-0.040914904,0.061715532,-0.057550132,0.07840638,0.024539856,0.13321625,-0.032048002,-0.014208281,-0.0037286286,-0.08105391,-0.05017633,0.16369985,0.04529136,-0.015451117,-0.027484283,-0.018855955,0.16778296,-0.014191648,0.105874814,-0.005323305,0.00783634,0.15524496,0.10399158,0.15817784,-0.023203528,0.0057154903,0.01762604,0.023607597,0.112751774,-0.14592949,-0.097481094,0.078848675,-0.16050814,-0.12393315,0.15218489,0.15926571,0.15805852,0.016519513,0.086674675,-0.15922922,-0.13368957,0.015475059,-0.16938326,0.17094415,0.0656871,0.046538565,0.03624891,0.11728283,0.115949295,-0.08219196,-0.10577858,-0.060023837,-0.08613035,0.024825063,0.1505971,0.009433778,-0.14843102,-0.10535667,0.18146577,0.12861408,-0.15328978,0.11932864,-0.010785406,-0.124617025,0.0149399815,-0.0853708,-0.1322421,0.036834795,-0.0038414425,0.07527962,0.17077892,-0.17663103,-0.008193251	}
};