// include/dense_319_weight.h
// sergio rivera 
// 2020/02/14 23:52:57 

const float dense_319_weight_p[80][100]=
{
	{0.10466168,-0.0069777425,-0.10350466,0.059511878,-0.09379404,0.11925151,0.14414994,0.017784234,-0.033486333,-0.06380657,0.04543519,0.01660086,0.009126851,-0.14934887,-0.1065167,-0.122647606,-0.18538338,0.15873131,-0.054408997,-0.05564964,0.010546774,-0.17680806,-0.011883359,0.029744279,0.092159696,-0.068761066,-0.08603068,0.13785951,0.01670956,0.105564915,-0.17066525,0.16849484,-0.18139498,0.12251748,0.0007861882,-0.057205956,-0.0016346037,-0.080388844,-0.052845452,0.046879128,-0.08793874,0.040374223,-0.03258562,-0.14853358,0.062031757,-0.0022274442,0.11162966,0.0033575918,-0.14309432,0.0010356344,0.029583173,-0.08072344,-0.14862867,0.10114137,0.077558644,-0.030794589,-0.008756307,-0.09258115,0.05688205,-0.17555761,-0.104515105,0.12511714,0.1680254,0.069338076,-0.10010372,-0.09485007,-0.10964658,-0.0639612,-0.1772884,-0.11898381,0.17173907,0.0592038,0.079393454,0.09910511,-0.17654027,0.16261286,0.16733418,0.14088942,0.0028271745,0.03222075,0.052507486,-0.15400812,0.093165785,-0.0145508945,-0.15844306,0.029631153,0.009872562,-0.040229637,-0.06499646,0.010859072,0.026081312,-0.1340601,-0.116429895,-0.11150127,-0.1505439,-0.117536746,0.051049046,-0.17640437,-0.16445713,0.10850097},
	{-0.17993684,-0.15759976,-0.16485466,0.11394094,0.050985504,0.03940118,-0.026083611,0.116666615,-0.16604936,0.053806823,-0.094926484,-0.121561304,-0.08193477,-0.1360698,-0.011101469,0.015912645,-0.04012426,-0.13786574,-0.021271534,0.060349844,0.022935579,-0.029089522,0.056444567,-0.08965949,-0.16247904,-0.10958877,0.15984792,-0.12657936,0.06924758,0.027778715,-0.07860202,-0.14553966,-0.05596554,0.17923751,0.019184163,0.15614545,-0.010049112,-0.114049844,-0.14625627,0.049527947,0.049881984,0.18110423,0.052260485,-0.10004939,-0.099151045,-0.051049422,-0.030824436,0.030351114,-0.07371513,0.06733765,-0.006925532,-0.0033543664,-0.0019475234,0.012397804,-0.11170698,0.18095478,-0.0054622847,-0.10580541,-0.08843935,-0.17419516,0.03636279,0.024404516,0.1505711,-0.16422515,0.13652179,-0.1346342,-0.063733235,0.066386305,0.17774123,-0.12198588,-0.03975921,0.0019803434,0.18130559,0.1378295,0.11182022,0.12141901,-0.050301474,0.14185703,-0.0737329,-0.14943594,0.09697446,-0.08815997,-0.03795584,-0.07339799,0.13524665,0.042350326,-0.05245146,0.15142871,-0.15354083,0.055611346,0.004772909,-0.10681654,0.17179897,-0.13072224,-0.14744109,0.0019191966,0.13625169,-0.17878674,0.09059788,0.02501699},
	{0.014387958,-0.013074389,-0.040946912,-0.002575189,0.08022699,-0.008224555,-0.011290659,0.18095966,0.07923844,0.0791508,0.053093985,-0.17275757,-0.10798564,0.044354297,-0.05332708,2.4942841e-05,-0.16919328,0.07722379,-0.09584805,-0.14763142,-0.17462392,-0.15420176,0.041792568,-0.06768424,0.010303429,-0.04867142,0.122703694,-0.12467829,-0.03888316,0.070863605,0.10679939,0.05248264,0.05851632,-0.08175975,0.08003785,0.06251438,-0.025675243,0.11749989,-0.008584756,-0.14661512,-0.17048529,0.04250566,-0.041591097,0.003222045,-0.092365235,0.018449329,-0.1600577,0.08133506,-0.06082851,-0.10618712,0.010194638,0.15952417,-0.1339152,0.04868839,-0.07988579,0.063357726,0.1720543,0.033447385,-0.015527659,-0.033679202,0.06565404,-0.11957149,-0.00021713845,-0.17107657,-0.11224026,-0.009591886,-0.10982922,-0.02194867,0.07254302,0.12507701,-0.055170298,0.14990945,0.14742918,-0.1326394,-0.12381083,0.16930746,0.0565638,-0.15749447,0.13276267,0.07625955,-0.07476648,-0.003940134,-0.14226864,0.12789074,0.041049976,0.105737664,-0.14448084,-0.026062444,-0.09806854,0.12387799,-0.14812301,-0.05910614,0.031057518,-0.1737171,0.1588114,0.17881587,0.10028146,-0.1670632,-0.028021172,0.08792251},
	{-0.10788007,-0.09210958,-0.053528804,0.1411068,-0.103992045,-0.02192239,0.09239118,-0.07621214,0.055943877,0.040233318,-0.085957184,0.020062521,0.04333108,-0.043247264,0.110822864,-0.16640872,0.0434879,0.13367528,0.082301065,0.009622157,-0.0035171367,-0.17586254,-0.09845997,-0.023551155,-0.04397741,0.08252386,-0.14118943,-0.02967943,-0.034851797,0.17931826,0.119611256,-0.04573681,-0.031940773,0.039188024,-0.16323835,0.048097245,0.030551953,-0.012348217,-0.09901204,0.14173526,0.0066551752,-0.10047597,-0.1781606,-0.13129227,3.8538084e-05,-0.05925803,0.11557605,-0.15276898,-0.10496789,-0.0027456789,0.046378396,0.088169254,0.05464633,0.07957551,-0.0494799,-0.15281911,0.06986485,-0.13380991,0.0412143,-0.09913192,-0.121255614,0.0070437207,0.11493261,-0.10824419,0.15590672,0.10098226,0.09629254,0.050545976,-0.042737294,0.15489091,-0.16656795,-0.13377544,-0.18100882,0.09464991,-0.039209552,0.17070311,-0.13574786,0.13765964,0.07007961,-0.035653673,-0.13857217,0.114784636,-0.07712884,0.16449173,-0.09821187,-0.15672372,-0.17123355,-0.14289984,-0.14556473,0.058536977,0.022705024,-0.047077633,-0.034749478,0.12402672,-0.16167103,-0.005406717,0.08602078,0.11194026,0.122930065,-0.123121805},
	{0.11117047,-0.12415682,0.020177433,0.013023502,-0.12835623,-0.15830013,-0.17034341,-0.014023652,0.1353739,-0.10582044,0.010597537,-0.124154165,-0.05804533,0.010582788,-0.14296187,-0.17859294,0.011505896,-0.12200861,0.042461414,-0.0041283728,0.032873154,0.17268045,0.11985137,-0.14214231,0.027771948,-0.11577212,-0.18826886,-0.09913073,0.06619306,0.08918063,-0.092787854,-0.058871616,-0.023009198,0.17392613,0.11974102,-0.142692,0.033369653,0.09613705,0.1737175,-0.11038982,0.15122762,-0.14064033,-0.17077005,0.033681177,-0.036698893,0.16887616,-0.038408075,0.15497056,-0.1811973,-0.15364498,0.08863949,0.11502003,-0.17902438,0.07259362,0.054438274,-0.13398817,-0.022100475,-0.16487874,0.09914228,0.1501135,-0.007674431,0.0027645694,0.10297825,-0.07008254,0.08299491,-0.08176714,-0.17734185,0.12669988,-0.07202575,-0.06857989,0.09227934,0.12795612,-0.12370993,0.035210937,0.087316215,0.08060738,0.09697222,0.16227476,0.06624669,-0.051579755,0.13841467,-0.11669389,-0.032086384,0.10231206,-0.14918204,0.13408543,-0.054560803,0.13666022,-0.052004617,0.1649226,-0.07006344,-0.024692316,-0.14687707,-0.0017767024,-0.17951742,-0.13036409,0.009225917,0.17060316,-0.108707726,0.12774262},
	{-0.046889585,0.12928751,0.07066055,-0.08411485,0.15359971,0.08805721,-0.19625366,0.07267781,-0.027397787,-0.0062419134,0.03480065,0.12330561,0.1050015,0.054482922,-0.07408509,0.046910983,0.052723426,0.046804924,0.06623619,0.0990201,-0.1695759,-0.06911447,0.054065693,0.06759497,-0.1816293,0.15184858,0.15185638,0.029764278,-0.006935312,0.08966218,-0.1733443,-0.16049169,0.14709686,0.07127419,-0.057225455,0.11197358,0.065258026,0.14654763,-0.17493549,-0.025297128,-0.15394886,-0.09412144,-0.1907988,0.1379177,-0.13372727,0.031347793,-0.10622882,0.097231925,-0.07735204,-0.11610677,0.050339915,-0.10382508,0.06017648,0.048945885,0.13230062,-0.12687331,-0.17164762,0.0017663282,-0.17776604,-0.11304096,0.14911756,-0.03390165,0.013801173,0.103551485,-0.1686127,0.0071133003,0.029429657,0.11737312,-0.111433536,0.13304976,0.028369032,0.028527137,0.069986075,-0.002399192,-0.07146086,-0.1109415,-0.14396416,0.11349874,-0.09845898,0.09813391,0.15547606,0.13205147,0.0902036,-0.17336594,0.036662836,0.11378904,0.06584033,-0.14401017,-0.14370917,0.10152855,0.15162194,-0.07662458,0.00756752,0.014113713,0.097704425,0.16031171,-0.14970325,-0.01740522,-0.09196483,-0.17888951},
	{-0.11379779,0.09782659,0.049690153,0.1557863,-0.17524214,-0.035107978,0.07582671,0.024260228,-0.06448208,0.089527346,0.022767585,0.09293625,-0.17470098,-0.02948687,0.08465403,0.026396109,0.11333819,0.07318274,-0.021617604,-0.041657157,-0.17830051,0.113375574,-0.018813118,0.16663437,-0.11559365,-0.16032892,0.062379252,-0.052829802,-0.15885766,0.07203197,-0.12968892,-0.101615325,0.17365737,0.013406734,-0.10961089,-0.18025738,0.16131003,0.0019488313,0.009403028,0.05725227,0.09846829,0.04078182,0.041739512,-0.034139857,-0.16621083,0.015263556,0.16682982,-0.040670626,-0.039903786,0.04948504,-0.022911109,-0.12946561,0.11550207,0.14055857,-0.10387458,-0.020097967,-0.012068188,0.08564896,0.095174365,-0.1222876,-0.17660803,-0.114541724,-0.11316954,0.16083375,-0.092954166,0.12170285,-0.051578972,0.036734678,0.08474573,-0.1876735,-0.072730035,0.1742657,0.114564225,-0.09383182,0.1332073,0.16744947,0.1666904,0.016574789,0.17361388,0.030700833,0.048781537,-0.12614721,-0.15896972,-0.099564336,-0.06019171,0.083722316,-0.048418805,-0.15593174,-0.031292886,-0.0004863274,-0.07549536,-0.16748905,0.12240275,0.13496816,0.14186792,0.121968456,-0.044205684,-0.07610111,0.09384867,-0.17305897},
	{-0.068780154,-0.15674745,0.11856076,0.10589984,0.15810667,-0.12271717,0.07131618,-0.040181205,0.10816871,-0.0050813137,-0.106814265,0.11710608,0.028650844,-0.037877485,-0.04495097,0.1512678,0.060408026,-0.13906515,0.13924016,-0.119365536,-0.11581237,-0.15701146,-0.18388203,0.05535425,-0.1781869,-0.0732718,-0.13427715,0.06768109,-0.032001108,0.138764,-0.007988753,0.042848583,-0.0472344,-0.17582752,-0.019912155,0.044125214,0.038983177,-0.0018014316,-0.09317603,-0.010959879,0.12980206,0.0026292596,-0.097168766,0.06805499,-0.06467882,-0.1459824,-0.07258064,0.14714429,0.15492831,-0.089816935,0.009357729,-0.1397926,-0.06820761,-0.17149054,-0.17022079,-0.0040451884,-0.06420506,0.075183704,-0.010462506,0.019547116,-0.09407076,-0.19158751,0.096397825,-0.040846437,-0.10566743,0.038985986,-0.09090344,-0.10398967,-0.20234495,-0.029659962,-0.10056133,0.069679864,-0.15261392,0.042862717,0.11418232,0.1063787,0.12027747,-0.12042905,0.10851567,-0.06733269,-0.033250943,0.02841054,-0.08501975,-0.15274091,-0.0546602,-0.15839852,0.11459495,0.010960145,-0.19848698,-0.07072983,0.16670114,0.029246993,-0.089798756,-0.066313386,0.07655532,0.10728836,-0.17992339,-0.12085202,-0.03077072,-0.05269473},
	{-0.018131211,0.06976364,0.1140148,0.057525214,-0.17001729,0.019348891,-0.07741192,0.0078083877,0.045750625,-0.17546408,0.14307655,0.13530637,-0.098800965,-0.00788041,-0.024781173,-0.16180311,0.020832362,-0.07502876,-0.07836406,0.14847995,-0.09471828,-0.13730825,-0.035273314,0.16193375,0.10633963,0.054743696,-0.1691107,0.03472221,0.0792548,0.05658991,-0.10012294,0.07189589,-0.070591375,-0.046898335,0.14719401,0.15357764,-0.11181153,-0.041478034,0.09633661,-0.189217,-0.20578325,0.12489928,-0.058653787,-0.19327717,-0.07074963,-0.025421048,-0.10369316,-0.13717142,0.0012542536,-0.13269444,0.12542354,0.14624023,-0.0954568,-0.17099698,0.11287508,0.04312432,-0.17317836,0.03257522,0.028285172,0.012850284,0.061129835,-0.07824906,-0.18943572,-0.06802928,0.07309602,-0.20769495,0.086332984,0.10377185,-0.0918729,-0.10297095,-0.06054395,0.099377304,-0.19215229,0.048527785,-0.077086784,0.114127636,-0.033638407,-0.14343685,0.0038986523,0.14436744,-0.0036750494,-0.10394784,0.11563438,-0.12978964,0.09572505,0.06978681,0.042034604,-0.0025656684,-0.032294147,-0.18957151,-0.0332338,-0.16040671,0.12593275,-0.14709534,0.026380764,-0.06033211,0.083220325,0.104089744,-0.032672506,-0.022585876},
	{-0.06820007,-0.06711407,0.054249153,0.14351903,0.14643136,0.17495817,0.08863887,0.08444839,-0.046683736,0.006881644,-0.18377316,0.12237043,0.036795456,0.085535124,0.03174436,0.073850095,-0.057703305,0.035325352,-0.109233946,0.11181993,0.05061299,-0.14041516,-0.055699877,-0.13238345,-0.092669934,0.15325256,0.042237494,0.078325465,-0.069664605,0.074120335,-0.1618236,0.16851261,-0.10187142,-0.0025563664,-0.041589305,-0.020704554,-0.06395821,-0.0134454025,-0.08087595,-0.15305614,0.15378268,0.1647283,-0.12296211,0.02212148,-0.12338594,-0.10338009,-0.16014522,0.08176808,0.14343129,-0.14145175,-0.12514874,0.08213342,0.14667305,-0.12336788,-0.11605447,0.10801739,0.03318702,-0.15648,0.052790985,0.08549521,-0.13758685,0.021688405,-0.012099401,0.113722555,0.06750251,-0.15287314,0.028380657,-0.15003948,-0.14265351,0.13522093,0.0930527,-0.12208806,0.040211532,-0.18327808,-0.07806532,-0.116155155,0.1538938,0.043716893,-0.13570277,-0.17824134,0.115493566,0.05489618,0.10020598,-0.14810517,0.16924416,-0.14576338,-0.09698496,0.009865798,0.07989305,-0.025732327,0.01744439,0.14011464,-0.17905961,-0.1137358,-0.13603099,-0.13573653,-0.14563753,-0.17655003,0.094758295,-0.111842185},
	{0.05037803,0.0732371,-0.061797384,-0.14055698,0.15718819,0.094114,-0.14217079,0.1747283,0.17552187,-0.023145415,0.08229289,0.16257556,-0.1473511,-0.11732749,-0.15218726,-0.1192258,0.08019458,-0.07481004,-0.15924929,0.14947838,0.100824706,0.15567976,-0.032622937,-0.14342168,0.027591042,-0.024732487,0.04344253,0.06823005,-0.0375936,-0.01576431,0.021293422,-0.1174962,-0.07792912,-0.04803979,-0.071086,-0.086393945,0.16239928,0.010835973,0.029161548,-0.05390217,0.09431539,-0.09672674,0.15122367,-0.023064537,-0.12074788,-0.007745569,0.04464535,-0.030020954,0.028218755,-0.056851078,-0.13254723,-0.08544605,-0.0924463,0.118296534,-0.044300787,-0.17678097,-0.01731735,0.1229,-0.05550549,0.123525225,-0.15856166,0.13369611,-0.050093368,0.12500735,-0.14721608,0.10586978,-0.1329222,0.088943005,0.06994193,-0.14739487,-0.0023124677,0.10787371,0.035940364,-0.09958981,0.15180333,-0.18150811,-0.14797871,-0.04901048,-0.06852723,0.063276604,-0.16529544,-0.07712094,0.14257427,-0.09593959,0.05622775,0.042858772,-0.042052217,0.017725492,0.011252056,-0.13796036,-0.1112509,0.105581775,0.08883251,-0.07148095,-0.042658933,-0.14831528,-0.1463455,-0.064373076,0.03744874,-0.0030448951},
	{0.124450065,0.1675831,0.08707908,0.051396307,0.11004173,-0.05360243,0.12116386,0.12057116,0.12231847,0.08090524,0.12241332,-0.074101254,0.14817454,0.1506096,0.02780008,0.020270487,-0.07739819,0.13787289,-0.045437377,-0.05196912,0.13481958,-0.106289476,0.08339437,0.061650097,0.15125453,0.09518959,0.12906891,0.046155147,-0.111384936,-0.17268722,-0.12744194,-0.05577949,-0.16587728,-0.1844664,-0.04792332,0.014604998,-0.041547626,-0.10111674,0.07167457,0.14157784,0.09645431,0.16736946,0.11818462,0.021806091,0.06764483,0.14993718,-0.18493682,0.03268188,-0.040351313,-0.14756638,-0.10085819,0.001198549,0.0998042,0.16690278,-0.17166714,-0.047795624,-0.06622843,0.056452297,-0.08019532,-0.09338057,0.14116357,-0.10654345,0.1165286,-0.1636994,0.010712195,0.05523465,-0.04756223,0.16326168,-0.17556472,0.0975115,0.13268007,-0.019479817,-0.1839128,-0.10303855,0.10840403,0.13768528,0.07267443,0.053833254,-0.12031819,-0.0089884065,-0.11498701,-0.07778798,-0.0066491407,-0.14892279,0.08660295,0.1315752,0.0021878572,0.043561794,0.008604101,-0.1740603,-0.005625559,-0.1177023,-0.10987003,0.14455502,-0.19106917,-0.028490892,-0.117468245,-0.004579044,0.046522133,-0.1789456},
	{0.03947013,0.040103223,0.10216532,0.10287076,-0.18643202,0.1478267,0.14568119,-0.11354554,-0.07588777,0.092605114,-0.082091875,-0.065708384,-0.15247077,0.13509822,-0.114550695,0.16652486,-0.17688493,0.09277088,0.05310679,0.0085754795,-0.109419614,-0.1077518,0.1359287,-0.06726132,-0.16868341,0.06787508,-0.0030191005,-0.023215951,0.17351897,-0.11629845,0.09460631,0.01608006,-0.13407092,0.16660923,0.17020743,-0.08385207,-0.13697782,-0.016172675,0.16248575,0.090794854,0.017628301,-0.13759683,-0.16694297,-0.17958774,-0.08937668,-0.063940324,-0.042205304,0.15767361,-0.008090004,-0.08178047,-0.17435099,-0.113196366,-0.11746301,0.0787266,-0.08106913,-0.0747996,0.11718577,0.14297622,-0.18362142,0.004028427,-0.1644662,0.14514132,-0.0698988,0.11454165,-0.014278093,0.015862063,-0.11657514,0.13711867,-0.14119445,0.09618205,0.05108145,0.16478887,0.15961796,0.05931222,-0.14813009,-0.09568542,-0.079483315,-0.047950167,0.05246155,-0.105365954,0.06749364,-0.1635392,-0.05132032,-0.18136637,0.14748056,-0.1901228,0.15123083,-0.03720184,-0.036554012,-0.15046026,-0.00978023,-0.048258092,-0.07224853,-0.09858338,-0.15544978,0.07602301,-0.16993785,-0.101922736,0.15541337,0.06472723},
	{0.1477293,-0.16952373,0.07315212,-0.09975414,0.041381527,-0.009771054,0.005600641,0.10776217,0.16896173,-0.14485851,0.01301392,-0.1559072,-0.0075930427,0.0008321883,-0.18362792,0.0918133,0.061103154,0.16487397,0.08145621,-0.024739603,0.050305776,0.004583304,-0.11003964,0.06493326,0.12514183,0.09389664,-0.110909745,-0.10726113,-0.13067922,-0.013919148,-0.17186385,-0.0733912,0.11788052,0.12129374,0.018158711,-0.05198273,0.00489349,-0.020124583,0.08707951,0.07541893,0.014301527,-0.10625118,-0.082933575,-0.15493257,0.15991615,0.08668741,-0.054777727,-0.116628654,-0.0478483,0.14456935,0.11067354,-0.036459472,0.13642514,0.031430162,0.11413125,0.13200426,0.016205115,0.08748509,-0.0023949607,0.052859943,-0.19513468,-0.06862128,-0.15918022,-0.039126884,0.14679448,0.13468622,0.16367595,0.022828385,0.1596461,0.109245904,0.09524447,0.16008028,0.08975596,-0.00765421,0.098605424,0.011674052,-0.09824083,0.16049437,0.015228363,-0.051824864,-0.007466914,0.053438835,0.1625687,0.09557734,-0.0904816,-0.06973166,0.09104432,-0.038783755,0.016058167,-0.13375571,-0.02586975,0.061306603,0.15629855,0.12222072,0.060933053,0.15067501,-0.07681918,0.08854716,-0.065644436,0.10761781},
	{0.14954525,0.010601024,-0.16437507,0.06503606,0.16652247,0.13053346,0.1396333,-0.034419123,0.032751236,-0.058726013,-0.015892286,0.0172699,-0.047130577,0.094796166,0.05259434,0.08758146,0.17396316,0.007946023,0.0017992813,-0.043261725,-0.11642704,0.025802929,0.0035092516,-0.18223569,0.050726667,0.1288076,-0.07513979,-0.18335243,0.07827382,0.020294469,0.079664774,-0.059972942,0.071947865,-0.07244639,-0.07684916,-0.10141946,-0.12383419,0.07017998,0.02173786,-0.1829539,0.044215728,-0.16471761,-0.08853834,0.13427082,0.13878553,-0.04097311,0.13938059,0.054653432,0.13259287,-0.11660259,-0.16544639,0.072921194,0.058221936,-0.12044431,0.022485044,-0.18514629,-0.046288464,0.0876635,0.15800872,-0.01466931,0.0045497017,0.08964895,-0.037463687,0.07744281,0.09946666,0.020087255,0.17398223,-0.104538195,-0.184117,0.03650731,-0.07138163,-0.03305666,-0.019147739,0.104671545,0.12161293,0.12619895,0.111248635,0.12639385,0.17440586,-0.06904076,-0.14206982,-0.105739065,0.03690233,0.039343998,-0.035876438,0.057766676,-0.08211517,-0.17874119,0.100928806,-0.07109983,-0.0375852,0.018774707,-0.02000545,-0.13085212,-0.14534517,-0.1577883,-0.16369608,-0.12249083,-0.06834622,0.013005549},
	{-0.07906633,0.10700689,-0.0023831585,0.14626195,0.011659133,-0.20348771,0.060222797,-0.058391586,0.15784658,-0.106357194,0.14471132,-0.022501903,-0.009294282,0.12100929,-0.091395944,0.12574624,-0.018033149,0.020989371,0.08206167,0.06988512,-0.16381408,-0.09176687,0.079221696,0.06923623,-0.14225335,-0.058573432,-0.16830887,-0.027434418,-0.10472625,0.08989499,-0.12692086,-0.12448586,0.15347591,-0.1649095,-0.17775092,-0.15481536,-0.090095825,0.13324715,-0.1227531,-0.12210722,-0.045234505,-0.010782775,0.040904272,-0.20334217,-0.08349811,-0.006304992,-0.06363466,-0.02319897,-0.17135961,0.095565334,-0.14399123,-0.028007653,-0.18624361,0.051224504,-0.15209003,-0.14386544,-0.0746519,-0.1261337,-0.140948,0.038628064,0.027849555,0.016795227,-0.050846666,-0.008912998,-0.017494049,0.04831128,-0.18351759,0.018231621,0.064194426,-0.012492249,-0.0040041097,-0.16341138,0.06397434,-0.090207875,0.050774086,0.013665899,-0.18607855,-0.13792206,-0.09014372,-0.1776725,0.12467018,0.051760018,0.011933041,-0.022323549,-0.08762719,0.11646254,0.008615396,0.109497756,-0.05162636,0.072171,0.10129586,-0.19755803,-0.042467896,0.0790073,0.024429156,0.047987044,-0.033582825,0.018344115,0.1044585,0.09741125},
	{-0.09610251,0.075306736,-0.011085683,-0.048376396,-0.17712803,-0.17904972,0.023182165,-0.0040545985,0.093245335,-0.019176187,-0.17124665,0.028670456,0.16026735,-0.13588308,0.14220552,-0.07752025,-0.03456428,-0.14270616,-0.02593456,-0.09990178,-0.01362754,-0.1793326,-0.086945966,-0.14415248,-0.17261901,0.16000348,-0.003953274,0.021271441,0.15247202,-0.010644391,-0.10484683,-0.072579265,-0.10881206,0.103090286,0.0021073879,-0.013130802,-0.020230388,-0.033661414,-0.056989197,-0.14939216,-0.18283375,0.04767699,-0.011745023,0.016906485,0.16631208,0.068493284,-0.11296091,-0.17918761,0.06304451,-0.17615092,0.15332413,-0.015274355,0.10743007,0.09737814,0.16722187,0.15556312,0.00086361927,0.15926197,0.0070461244,0.079875104,0.1748669,0.15698718,-0.101745345,0.102831945,0.12260508,-0.17627893,0.08876593,-0.04087287,-0.0129825575,0.102201305,0.12978812,-0.011819773,-0.027054742,0.15446696,-0.078709945,-0.054685444,0.16104689,-0.07783057,-0.18275549,-0.16208057,-0.124699466,-0.066611424,-0.011077173,-0.1306653,0.08039692,-0.06189235,0.09751592,-0.13538004,-0.13498767,-0.17622674,0.113100134,0.014164782,-0.003057167,0.12949736,-0.05712901,0.062070373,-0.13937835,-0.17767498,0.0041610347,0.14697611},
	{0.0827502,-0.07672686,0.15787633,-0.1811608,-0.15330164,-0.14615573,0.098700106,0.02581068,-0.14656094,0.0024072086,0.060627643,-0.054481808,-0.017593054,0.10322426,0.0351695,-0.111745104,0.08718827,0.095774315,-0.17687786,-0.17787687,-0.065022856,-0.07460995,0.018082647,-0.035069108,0.10092188,-0.036297623,0.13870236,0.072543174,-0.12231415,-0.15506129,0.09331974,0.032844044,-0.064107545,-0.17311577,-0.020820599,-0.022391887,-0.059119526,0.061501537,-0.15082237,-0.020389887,0.15895283,-0.10516328,-0.008695229,0.1275027,0.14224228,-0.1376301,-0.1383615,-0.018672952,-0.07983443,0.013742036,0.036472667,0.15869373,-0.16221501,-0.027533036,0.115802765,0.16871634,-0.02992943,0.09373111,0.028441569,-0.10773803,0.06843804,0.16939256,0.08100986,-0.07581078,0.12680264,0.08734855,-0.12139503,-0.0044037844,0.15219502,0.11540874,-0.007453004,-0.15691169,-0.057632625,0.036624864,-0.14029413,0.08874289,0.098865256,-0.065158725,-0.17438859,0.096944265,0.0049787867,-0.17839764,-0.14407487,0.0840172,0.104795784,0.06873666,-0.112496674,0.04026604,0.05192065,0.17774938,0.02470199,0.027761688,0.011785773,-0.092308484,0.0725674,0.15372142,0.17277919,0.0287725,-0.047444273,0.055099335},
	{-0.14125709,0.07977134,0.058835674,-0.19105794,-0.10556889,0.071290866,-0.16292132,-0.16984245,-0.0021255394,-0.16451737,0.07421749,0.030715398,-0.009834311,0.13858308,-0.10045768,0.038482014,0.13116787,0.1096936,-0.1756392,0.15817806,0.13336726,0.07520718,-0.17468475,-0.0891796,0.11179802,-0.14588875,-0.0112531325,-0.053124785,-0.13323247,0.017097266,0.0021555652,-0.04951917,-0.08877542,-0.06434936,-0.030159932,-0.10165086,-0.08084582,0.0143081155,0.1003966,0.054989643,0.02991179,0.08821713,0.0057666926,0.016081512,-0.16157947,0.12924387,0.045826018,0.10339797,0.13779067,-0.18265821,0.10100478,-0.1812979,0.1421881,0.00023936186,-0.16076645,-0.039680406,-0.20565616,-0.004011167,-0.0697241,-0.13589378,0.117603116,-0.14223944,0.07445647,-0.18995441,-0.0026027884,-0.060660873,-0.20679241,0.003912606,0.14769377,0.13183758,0.05439833,0.18097652,-0.10489735,-0.012823575,-0.058046255,0.09973015,0.11344834,-0.20570508,-0.19641994,0.0032981234,0.0714872,0.06593505,-0.029334158,-0.032583483,-0.20237969,0.039973028,-0.11685431,-0.12271961,0.080319464,-0.009810556,-0.17863347,0.042252295,0.09970962,-0.028689891,-0.118485555,0.1465902,0.014438667,-0.06468716,-0.022045191,0.14390238},
	{0.06288726,-0.007031291,-0.14010963,0.110522464,0.03424167,-0.18411651,-0.14158936,-0.008772947,-0.17224626,-0.1054552,-0.16389753,0.12472547,0.06912917,0.015022281,-0.06568427,0.002737675,0.12345433,0.08497907,-0.17167081,-0.09618171,0.12346011,-0.17503744,-0.1864624,-0.1006214,-0.12844054,-0.13969544,0.13133632,-0.061534144,-0.00203697,0.17649186,0.15494633,0.009829077,-0.08483822,0.117568396,0.14259212,-0.06736651,-0.013507189,0.06713155,0.11905569,0.16591944,0.12901898,0.048556793,0.040566072,-0.014502865,-0.13777088,0.10741568,0.055966258,0.10655005,0.030627813,0.058899358,-0.18105726,0.07387259,0.09584882,-0.09560028,0.11046725,-0.16548404,-0.03737066,-0.07496669,-0.09906689,0.09335376,-0.13443111,0.067374706,0.12931567,-0.19173464,0.006588409,0.095539615,-0.03763121,0.024821317,0.1048212,-0.05953326,0.11059632,0.05287004,0.14786364,-0.0019743224,0.10962771,0.02705033,-0.17807694,0.088512026,-0.10302579,0.13282958,0.08933017,0.046640623,0.07260508,-0.07522085,0.0025697076,-0.1869369,0.07126215,0.057722427,0.029010514,0.1344765,0.12648219,-0.17932639,-0.07123055,0.051944792,0.0061091525,-0.045597546,-0.063135676,0.17136572,0.037895758,0.11966177},
	{0.12375845,0.033685245,0.11335185,-0.11650595,0.17382349,0.1587743,-0.11166832,0.040942907,-0.084052585,0.0043238215,-0.042772416,-0.17394392,0.03516383,-0.16660807,-0.12174311,-0.1660031,-0.13723132,0.12697068,0.00022172794,-0.12494951,0.13241567,-0.09679699,-0.12199343,0.009529509,-0.0020842259,0.098223425,0.15530571,-0.037408818,-0.06329099,-0.029595362,0.061021686,0.16013937,0.068195105,-0.044742104,0.12093133,-0.017941492,0.053567827,0.1229214,0.12840374,-0.04015305,0.02639146,0.063955195,-0.17024136,0.1324833,0.01893043,-0.024250232,0.10571123,0.12843335,-0.05624998,-0.04906058,-0.15651356,0.1701803,-0.04628808,0.0029369732,-0.0020641803,-0.068882756,-0.09551105,-0.07076315,0.15668646,-0.015788753,0.13146058,0.029348053,0.14521168,0.08151446,-0.14341412,-0.005930425,0.1405605,-0.01255178,0.0022472823,-0.008415382,0.006735727,0.09961658,-0.058543164,0.15320678,0.1378203,-0.08192617,0.09868554,0.010609076,0.1078925,-0.1288629,-0.08837882,-0.10435272,-0.011090811,-0.021149045,-0.14072761,-0.05366194,-0.061536677,0.13643184,-0.13885678,0.008230368,-0.08694513,-0.14337124,-0.03272316,0.06573729,-0.10958698,0.097305834,-0.014843633,0.109614655,-0.16762768,-0.14231054},
	{-0.118846886,-0.035749223,-0.083243445,0.02680809,-0.15644512,-0.024606513,0.018551983,0.04355731,-0.15167461,0.15255506,0.102372445,-0.11803934,-0.1466492,0.122540705,0.16084066,-0.16101664,0.14313842,0.04072579,-0.015031597,-0.10625087,0.12978135,-0.08409325,0.1516783,0.0093074655,-0.078524604,-0.04022268,-0.023230165,0.15692008,0.08908851,-0.16636948,0.022025818,-0.068738855,0.03366028,-0.11180997,0.06714226,-0.089261994,0.03925927,-0.17393069,0.034512423,-0.013272034,-0.001380567,0.10030106,0.10299905,-0.1682303,-0.05442739,-0.05013324,-0.035505347,-0.006718327,-0.089432895,0.035393335,-0.049513582,-0.15009609,-0.04890492,0.14570202,-0.016552899,-0.02113458,0.17311303,-0.03684613,0.020129425,0.17233403,0.16184479,-0.094015114,-0.09212668,-0.038641427,0.12156199,0.05053798,0.064143404,-0.15336913,-0.008231138,-0.112834126,-0.026982108,-0.0018148902,0.12652904,-0.082606494,-0.18387292,-0.13537477,0.087496676,0.14514208,0.14817835,0.03760029,-0.092221394,0.11572662,0.042366296,0.15437827,0.08358552,-0.1347122,0.1496378,0.12605807,0.027817788,-0.16963288,-0.046377067,-0.16271798,0.16218995,0.008529416,0.10463225,-0.15481941,-0.16061045,-0.14724982,-0.071239926,0.14538485},
	{0.027906585,-0.12740129,-0.0036450392,-0.08987511,-0.1553915,0.14958645,0.115521125,-0.07528049,-0.088724405,0.13227233,0.058350317,-0.08914069,-0.14001633,0.023570262,0.058238387,0.04192195,0.07870937,0.10833001,-0.04100385,0.028821712,-0.039336465,-0.041859187,-0.1821466,0.08003798,0.08800325,0.13278645,-0.08437482,-0.003967933,0.17592381,-0.12508121,0.062153447,-0.13633107,0.098915644,-0.11069875,-0.029927004,0.096707195,-0.00040915178,-0.037350748,-0.18633097,-0.15692076,0.10484694,-0.08205563,-0.07358506,-0.19071747,-0.008980001,0.04365995,0.1035403,0.081064,0.1513585,0.08796593,-0.1647479,-0.1093075,0.041985177,-0.0607808,0.021886554,-0.15484166,-0.14343217,-0.08838406,-0.05666677,0.15844679,-0.08342904,-0.014515921,0.062226832,0.016741775,-0.1359646,-0.16871832,-0.16057447,-0.056177713,-0.14975424,-0.13473296,0.0373655,-0.110295236,0.12229972,-0.05918964,0.059133787,0.1307522,0.16294014,0.15363358,0.07144856,0.019406866,0.020339763,-0.095419474,-0.17416126,0.1488396,0.010942665,0.16281296,-0.15707237,-0.065201096,0.07473273,-0.1004987,-0.17984925,-0.13094887,-0.024126658,-0.008999144,-0.06452869,0.11147953,0.07484877,0.08530251,-0.00047100947,0.009380259},
	{0.15827245,-0.13821022,-0.09685243,0.05900557,-0.080065094,-0.16722573,-0.13024788,-0.03110914,0.087548986,-0.13793512,0.1734902,-0.17231737,-0.13401243,-0.02994551,-0.14870363,-0.103733756,-0.1530491,0.14652237,-0.031880338,0.16212146,-0.05069959,0.11936697,-0.051363174,-0.015197305,0.04121132,0.11637042,-0.088763624,0.06887611,0.17876738,-0.031513184,0.16235647,-0.17485803,0.049379054,0.17549224,0.035409927,0.020357955,-0.062444665,-0.14803942,-0.052506637,0.15719914,-0.07267937,-0.17057526,-0.096628845,-0.032946724,0.120428964,-0.061502844,-0.14093937,-0.06387362,-0.17727655,0.05575261,-0.043752294,0.11450057,-0.123332456,-0.08761433,-0.010911197,0.13865457,0.17814036,0.121449575,0.05130183,-0.015977256,-0.16721512,0.009003068,0.07924659,-0.044422302,-0.07155879,0.054523934,0.05598917,0.045766346,-0.09459612,-0.17245662,-0.0646605,0.08674141,-0.11960533,-0.12271561,0.18137917,0.008413778,0.16575745,-0.09627228,-0.0222305,0.12221236,-0.11213674,-0.03329092,0.07963635,-0.1018712,-0.08570761,0.095119275,0.002684201,-0.12123906,0.059241008,0.13681136,0.053766828,-0.091651924,-0.15376498,-0.121200524,0.07002503,-0.014493415,-0.064767145,0.08202609,0.12731884,0.047473725},
	{-0.1040309,0.13619192,-0.108064935,-0.015908273,0.014982826,-0.046962883,-0.20038286,0.12474565,-0.010501313,0.035498254,-0.0049707047,-0.052136857,-0.020836955,0.0153362835,-0.05111791,0.044101555,-0.19637938,-0.15168835,0.144293,0.10207042,-0.034057446,-0.008359135,0.03772672,-0.050814193,-0.17115933,-0.051756017,-0.11894981,-0.14691718,-0.15020399,0.095001124,0.1398315,0.0069394545,-0.06966499,-0.12214798,-0.072089225,0.14586951,-0.09764337,-0.1578299,-0.112661354,-0.041965336,-0.12786093,0.0053861835,0.046928346,0.14199682,0.034495797,0.06718263,0.043476526,0.06333186,0.091415234,0.037202504,-0.0019531453,-0.06054414,-0.05639418,0.0930455,-0.04066928,-0.16973774,0.01721822,-0.028696077,0.14009161,0.013614952,0.035565563,0.1316065,-0.154669,-0.033232015,0.14697705,0.031633306,-0.15521117,0.0598881,-0.16530503,0.15450373,-0.1507328,0.17832398,-0.10615125,-0.17888638,-0.050734065,0.092772655,-0.031164423,-0.11590676,-0.13144404,-0.09351492,0.15807603,0.010493548,0.11650059,0.15708861,-0.05224236,0.07559718,0.167598,-0.20204191,0.028026387,0.15226744,0.033471648,-0.024162505,-0.06547263,-0.14481309,0.0053243674,0.026690494,-0.19227992,0.17547376,-0.0054171835,-0.04055375},
	{0.17470296,0.15005673,0.12891029,0.03753072,0.113277435,0.12975754,-0.06283612,0.039086454,0.03132088,0.16986758,0.11655121,-0.041472092,0.15794912,0.05613755,0.14704822,-0.11466317,-0.06049021,-0.17096987,0.10342852,0.09680373,-0.119184785,-0.07917786,0.025725678,-0.005899411,-0.18917336,-0.080907084,-0.026445214,-0.033107266,-0.11176986,-0.13156761,0.010334906,-0.015063076,-0.15468664,-0.030868536,-0.12890291,-0.16591157,-0.04532644,-0.15558855,-0.11831071,-0.09983516,0.023984265,0.1361763,0.02917739,0.061710153,0.048655424,-0.05701293,0.15197301,-0.059774015,-0.08482881,0.031175135,-0.02866679,-0.10376038,-0.09409638,-0.047136866,-0.036036085,-0.054857988,0.08283547,0.140413,0.06809085,0.018184174,0.10360787,-0.08193937,-0.0537643,-0.11061681,-0.0112398,-0.010246355,-0.04724773,-0.050679646,0.07788725,-0.14844425,0.007523694,0.077364154,-0.13916582,-0.12321238,-0.106408626,-0.07938306,0.046173688,-0.05326372,0.12809926,0.11002316,0.099109754,0.1651922,-0.18472034,0.092826046,-0.16492376,0.12228948,0.1334027,-0.025025401,-0.16772993,0.053675875,0.13368294,-0.12332573,-0.021203382,0.05435833,-0.044936053,0.16231914,-0.10461259,-0.19247931,0.15275964,-0.014194965},
	{0.13336304,0.08766737,0.14651364,-0.06109541,0.08706484,0.10593247,-0.008076391,0.058538217,-0.13848075,-0.12445055,0.1391104,0.06834197,-0.016156642,-0.017988669,-0.06487812,-0.05626211,-0.1252655,0.15029018,0.036810886,0.09983536,-0.026881134,0.15795651,0.08086028,0.025176736,-0.042570654,0.09361062,0.1025282,-0.18493855,0.10389664,0.0048144422,-0.11618657,0.054326966,-0.03994555,0.07277103,-0.069732666,0.11798361,-0.10603651,-0.030067485,0.066382,0.0466967,-0.07613356,0.11099527,-0.0062076715,0.14294082,0.06680333,-0.0037954843,0.075546876,-0.14284399,0.12500228,0.035039764,-0.15708879,-0.13935083,-0.07750615,0.08666703,-0.18315259,-0.18436244,-0.13435236,-0.08857717,0.13486159,-0.041678373,0.0073740096,-0.074207395,0.10250271,-0.05213603,-0.018101815,0.085169286,0.15918055,0.1138632,-0.16847622,0.011549889,0.109309174,-0.095506586,0.016397497,0.1678361,-0.085455835,-0.11283709,-0.17429705,0.07252122,-0.13130377,-0.17195858,-0.16885279,-0.040474206,0.12178601,-0.0075155445,-0.16111968,0.058892008,-0.075134836,-0.16144426,-0.17889898,-0.13822529,0.16330707,-0.15645203,-0.014892964,-0.11476128,-0.0639362,-0.09561888,-0.08690702,0.058664203,-0.06731284,-0.16443726},
	{0.086299345,-0.110090666,-0.14994931,0.17276557,-0.114438504,0.017244153,-0.081488274,-0.0109555395,0.04656747,0.013943483,-0.02023128,-0.083578795,0.06990487,-0.13978395,-0.11909721,-0.10459468,0.06765223,-0.16199173,0.054333553,0.13504297,-0.07995768,0.1725056,-0.061989266,-0.17558873,0.12686136,0.03299341,-0.100786574,-0.067418754,0.015483432,-0.09902363,-0.020915363,-0.048473265,-0.15919536,-0.12466877,-0.04994027,0.10376821,-0.12633227,0.14105627,-0.13993128,-0.1377266,0.14501207,-0.13781728,0.10485327,-0.1381135,0.11452325,0.104173616,-0.13645737,0.11328577,-0.15472218,-0.12963432,0.061872143,0.011478769,-0.04801598,-0.060662434,-0.17191873,0.09298337,0.14841676,-0.12551346,-0.029090807,0.143032,0.02498323,-0.1467694,0.10965185,-0.101201996,-0.17714174,-0.09539131,0.013351993,-0.102423266,0.15292688,-0.013251073,0.12033505,-0.06385212,-0.020901788,-0.16976751,0.044870943,-0.1461099,-0.04904489,0.010044339,-0.06346503,-0.043177668,0.058567222,-0.10128261,-0.16608645,0.13198382,-0.08027801,0.119029716,0.16450499,-0.16580795,-0.0748711,-0.13285188,0.021859366,-0.14788564,0.038723335,0.006798996,0.04253604,0.024392948,0.109763116,-0.15997924,-0.092928864,0.08691004},
	{0.007840495,-0.036363166,-0.066194445,0.12949418,0.13900109,0.017617462,0.027193166,0.07106392,-0.08650633,-0.16160259,0.08565747,0.03244875,-0.17410849,-0.033282973,0.14426346,-0.053270537,-0.035794035,-0.08399956,-0.1339785,-0.10034496,0.06091029,0.11123612,0.022103935,-0.02525301,-0.09875081,-0.124948926,-0.17392185,-0.17740107,-0.04371149,-0.10386817,-0.040297784,0.09821031,-0.059078515,-0.04990239,-0.0042258203,0.11366692,-0.057189606,-0.1823565,-0.10555301,0.15793414,-0.11605001,-0.15332168,-0.11850235,0.12135332,0.045717936,0.1757904,-0.0149572855,-0.1510104,-0.051497463,-0.16225079,-0.16703902,0.05044588,-0.06519785,-0.03513717,0.004767659,0.12048976,-9.05451e-05,0.054991696,-0.15175155,0.068037346,0.068115525,-0.071306,-0.10896797,0.082275614,0.08861789,0.0939371,0.12069215,0.17889546,0.10192732,0.14841057,0.10006075,0.07318745,-0.051962703,0.05199178,0.09198853,0.17819367,0.158456,0.01964704,-0.17222655,-0.17275833,0.0018865472,0.066782884,0.016711252,-0.10546438,0.16412291,-0.06608238,-0.005041883,0.15957612,0.17636093,0.050123572,0.05009805,0.16294365,0.12988476,-0.11128434,0.09836111,0.06586087,0.14222522,-0.07660438,0.064637884,0.078464724},
	{-0.054444395,0.07786649,0.022836082,-0.07251776,-0.006957898,-0.048169866,0.0896789,0.0874843,0.15883702,0.01609293,-0.04580293,0.00412722,0.08705707,0.1632471,0.05602115,-0.065821804,-0.013392468,-0.03911844,0.1367944,-0.05595403,-0.043373153,0.096142165,0.18180022,0.023197163,-0.16468516,-0.1058254,0.17890717,0.03438901,-0.07864589,-0.06958006,-0.06561664,0.010170908,0.06812377,0.034865152,0.039335296,-0.12285256,0.042415034,0.04058365,0.14660081,-0.08960768,-0.15242924,-0.14142025,0.021527067,0.080330014,-0.18115824,-0.11396549,0.09245177,0.1412228,0.1475051,-0.08441493,-0.011394152,-0.17187925,0.056494042,-0.04207864,-0.03927238,-0.092234984,0.078488,0.025240948,0.16343626,-0.02596707,0.16538754,0.11840414,0.12539098,-0.102630116,-0.0035984064,-0.11391211,0.05949554,0.076449305,-0.08701635,0.08743464,-0.11882644,-0.088551804,-0.04577145,-0.1621434,-0.17707153,-0.04891431,-0.17756741,0.07526924,0.049468137,0.054106127,0.15922803,-0.032523684,0.024487318,0.02614115,0.13657935,0.14228472,-0.16739386,0.16271776,0.014898325,-0.024317186,0.0010212536,-0.13402791,-0.06969934,0.11354744,0.06706884,-0.1292748,-0.003846542,-0.0009178233,0.017453087,-0.039095182},
	{-0.16668215,0.11288574,0.055540387,0.044640422,-0.12806572,0.033291094,-0.10638665,-0.05054236,0.11715639,-0.08694766,-0.023831336,0.17954019,0.10181705,0.12968306,-0.16271849,-0.054196585,-0.013801168,0.17255357,-0.16143344,-0.13086052,-0.03571887,-0.106592074,0.09226183,-0.038998213,0.13405652,0.017275421,0.013245614,-0.1517044,-0.16852546,-0.12579204,0.11467133,-0.08085639,-0.16254218,0.172359,-0.06977263,-0.13875163,-0.017788148,-0.024235595,0.03382567,0.15794992,-0.1575815,-0.062321153,0.098851085,-0.13673589,-0.12567349,0.017130341,-0.01413904,-0.029366447,0.00015437053,-0.07265775,0.017256422,-0.07106728,-0.12895998,-0.16758391,0.017247345,-0.0064716158,-0.15311146,0.16482256,-0.14481843,-0.008346045,0.04683705,0.13549156,-0.14415117,0.03252683,-0.08995583,0.13530587,0.06715738,-0.0143217845,-0.17578167,-0.07621577,0.14134426,0.1396969,0.07708714,-0.023465494,-0.08862466,0.0047494764,-0.048682343,0.049946126,-0.08248216,0.11374963,0.14309846,-0.059751756,0.0027576273,-0.0916469,-0.12155999,-0.0042638034,0.0030520197,-0.039724894,-0.08179748,0.17299312,0.10567859,0.17024785,0.14153653,0.065886326,0.096659824,0.03036763,0.034655757,-0.053955916,0.11045616,0.16587691},
	{-0.16096433,0.002053691,0.009068075,-0.029038187,-0.14672266,-0.06606576,0.12142033,0.006776167,0.042351764,-0.17782214,-0.08148335,0.0101310555,0.13980399,-0.13064371,0.11854128,0.06308822,-0.18479091,-0.17395833,-0.12041118,-0.10582638,0.14515777,-0.049385622,-0.012940541,0.04850584,-0.044762176,0.024058776,-0.16660482,0.08859895,0.012474913,-0.0666958,-0.019909272,0.16261706,0.041487325,-0.040245548,-0.13199478,-0.0015782148,0.11979977,-0.16536768,-0.011240471,-0.085467964,-0.023086002,-0.10057076,0.05188316,-0.1827117,-0.022758396,0.107912585,-0.09735937,-0.07278948,0.046362285,-0.032950867,0.013880404,-0.179319,-0.032902308,-0.18378569,0.09068859,-0.026278071,0.07763732,-0.10062865,0.022655917,-0.08281681,0.056223534,-0.07456103,0.11769874,-0.119072884,0.012754249,0.011248861,-0.15770108,0.14950873,-0.020095544,-0.10312608,0.08557455,0.120224915,-0.09101223,0.03605891,-0.021913435,0.00485975,-0.1099134,0.04283645,-0.12962237,0.010026153,0.16660893,0.06628571,-0.08298499,0.085138075,-0.07837973,-0.054808967,0.1515508,0.10218988,-0.12262575,0.069156945,-0.11813482,0.06754383,0.033643402,-0.056928482,-0.1622876,0.07543092,-0.13104981,0.023403777,0.1603983,0.14750263},
	{-0.06271108,-0.073722586,-0.1593778,0.10085878,-0.09790146,0.037237167,-0.038348377,0.04500541,-0.009638771,0.10749018,0.109381706,-0.17198874,0.02518867,0.16905987,0.16651791,-0.0080944,-0.07035614,0.10804355,-0.08256709,0.17417246,0.09185624,0.02408582,-0.11260019,-0.046059504,0.16194075,0.060058683,0.055445462,-0.060219347,0.061930344,0.013681844,-0.05936435,-0.020242065,-0.09141485,0.15042773,0.044914126,-0.0026352108,0.15080148,-0.017402887,0.17399347,0.17997307,-0.056701884,0.09782678,-0.09894555,-0.11880134,-0.17114262,0.10517308,-0.09180474,0.014549166,0.04314284,-0.07894695,0.08048549,0.034677044,0.026193842,-0.040746137,-0.17624545,0.13463688,0.0895938,-0.11596068,0.15554109,0.12559015,0.101423055,-0.027636006,-0.18164697,-0.12273441,0.13092458,-0.15528502,-0.14510226,-0.06801144,-0.11296183,0.09101716,-0.06301295,-0.0035304278,0.007875979,-0.07633076,-0.0034992993,0.079603195,-0.07021919,-0.07336996,-0.11427157,0.006065607,0.124212354,0.12158382,-0.059040144,0.07231942,0.10512844,-0.012877375,0.1617578,0.03585781,0.007946536,0.024730131,-0.1309137,-0.18222043,0.17759919,-0.012759283,-0.1240765,-0.07001561,0.1270687,-0.026330784,0.048536226,0.09372118},
	{-0.163781,0.0519734,0.11614395,-0.044428762,-0.15391846,0.1276777,0.121071294,0.14014162,0.17872418,0.093249485,-0.025936283,0.13113326,-0.18082531,0.041285284,-0.11793958,0.17445786,0.122641146,-0.14632866,-0.11522497,-0.00816691,0.097541966,0.16332854,0.016359752,-0.08629825,0.16725059,0.039695162,0.114555776,0.12251438,-0.08411327,0.17107135,0.0904806,-0.040562585,0.08852964,-0.027956406,0.14130887,-0.092269205,-0.023946637,0.10546253,0.13425724,-0.008601314,0.070153944,0.17521973,0.17209974,-0.17863646,0.09712693,0.014721214,0.14447702,0.12771736,0.012439002,0.011839671,0.11470818,-0.1208902,0.07172831,0.1366333,-0.033635147,-0.11997745,-0.021418957,0.05011892,0.16343501,-0.021355199,-0.078860804,0.007416749,-0.0708387,0.15254804,0.054258093,0.17115673,0.043828174,0.009202754,-0.018816847,-0.14453393,-0.12773018,-0.055168923,-0.084946424,-0.18238749,0.13722879,-0.14203665,-0.09275483,0.09642151,0.060281888,0.10253525,0.08257142,0.150338,0.1496114,-0.13707699,0.16515164,-0.13865687,0.038597442,0.005568826,0.072763,-0.078640275,-0.13595939,-0.10650343,-0.116527386,0.13555925,-0.18284178,0.06889086,0.006113551,-0.023358675,0.044909466,-0.15168732},
	{0.10201448,0.16700418,-0.01576118,0.07379171,-0.08285487,-0.049538437,-0.1559257,0.039586734,0.17334358,0.17111088,-0.11347293,-0.13325329,-0.08088833,0.014840064,0.022568822,-0.13399541,-0.082252964,0.028131416,0.14189577,0.052509718,-0.12840159,-0.16776095,-0.011525385,-0.16895401,0.07690669,-0.13976377,-0.043414693,-0.052363854,0.0057879263,-0.01727218,-0.03488677,-0.052555498,-0.00269266,0.13705468,-0.0067226733,0.065383084,0.063920975,-0.16239499,0.055445883,0.00572165,-0.056124583,0.15847906,-0.17723916,0.18101013,0.115615964,0.056392673,-0.15453897,-0.14903215,-0.0035658926,-0.08515495,-0.12639032,0.14264026,-0.11622794,-0.030820562,-0.17877066,-0.17621002,-0.181571,0.011362127,0.16471082,-0.010577838,-0.1542187,0.08624729,0.0894707,-0.05789325,0.12556209,0.18034059,0.109509185,-0.034522153,0.11523723,0.038516857,0.14306162,0.043388017,0.011970885,0.0071112784,-0.027307104,0.16535732,-0.046790224,-0.16298753,-0.06790566,0.07128224,0.028403543,0.1723843,0.11790046,-0.04394659,-0.13249007,0.07240206,0.041902833,-0.1026151,0.03602375,-0.13104802,-0.14546269,0.044494927,0.11734509,-0.008829781,0.16854697,-0.13757952,0.16614051,0.09801094,0.12531711,0.074372984},
	{-0.14964761,-0.062788226,0.15415926,0.12172906,0.043268345,-0.12168991,-0.03377763,-0.18019821,0.0496587,0.02394287,-0.02635582,-0.019414546,-0.01810451,0.123311795,-0.05903881,0.07276812,-0.16342832,-0.170973,-0.11953896,0.16955212,-0.078019455,-0.008516673,-0.17097268,-0.1384457,0.13150127,-0.09407193,-0.16043648,0.07096105,0.14214104,-0.04890586,-0.03070674,-0.17205898,-0.053734284,0.111303255,-0.15241414,0.08035514,-0.15969631,-0.08132792,-0.011367187,-0.15056522,0.053731594,-0.1117312,0.029330213,0.05305974,0.13568702,-0.08592116,0.11955539,0.047491066,-0.14930458,-0.039752115,0.14492586,0.14327358,-0.11089751,0.07496103,-0.00035152675,-0.17541459,-0.012135604,0.042276565,-0.056890104,-0.014475656,0.03310085,0.067998245,-0.06912443,-0.02450287,0.08571703,-0.11779126,-0.029272318,0.025326934,-0.17412502,-0.18836074,0.103427425,0.1476735,0.12542585,-0.09891854,-0.16046478,-0.031296868,-0.07715002,0.10920306,0.14463724,0.10594506,-0.12296167,-0.12348766,0.07065349,-0.03611019,0.10793018,0.01509284,0.010188907,-0.15445909,-0.15438227,0.15830737,0.09181184,0.01182779,0.058369108,0.15773451,-0.13755845,0.014703304,-0.018196397,-0.12450927,-0.12496932,0.06819799},
	{0.17107007,-0.112450756,0.16749872,-0.18501562,-0.10208658,0.024455234,-0.009964439,0.056067787,0.15522577,-0.12813225,-0.17732838,0.11128802,0.05951671,0.14486533,0.1276979,-0.008064703,-0.02120057,0.15612328,-0.06981719,-0.14029685,0.097541794,0.107945286,0.08275362,0.078947335,0.1697011,0.0873816,-0.0016432295,-0.02301289,-0.13209474,-0.07914071,-0.13572593,-0.12479744,0.07979563,-0.0026404397,0.10950287,0.08288705,0.09416622,0.063932285,-0.11004418,0.005933157,0.0064961878,-0.16635455,-0.066655695,-0.14755149,0.10384271,-0.013356938,-0.17554466,0.04924185,0.12331366,-0.021184573,0.15080152,0.1732555,0.13239893,0.16874471,-0.080061354,0.08593863,-0.07830732,-0.07092569,-0.16687213,0.14712363,0.12056104,-0.055085115,-0.16187818,0.120142855,-0.08951636,0.119341314,-0.16236307,-0.08420874,0.17305852,-0.0058013825,-0.066619985,0.08841425,-0.18358774,0.13812068,0.016469747,0.13265897,-0.08125641,-0.04643636,-0.037982043,0.08361367,0.06881562,0.0050442317,0.106161445,-0.14903454,0.09988208,-0.046381216,-0.021436166,0.116645284,-0.06769916,0.041917544,-0.059897486,0.17172796,0.08252493,0.05177909,-0.059399452,-0.001794979,-0.10134826,0.16323645,-0.13753249,-0.10572903},
	{-0.0025099828,0.054092944,-0.15405388,-0.13940468,0.07829974,0.11527679,-0.06651709,0.16395825,-0.1372051,-0.1332498,-0.067989156,-0.01382766,-0.1686017,0.16895416,-0.047848545,0.12325399,-0.08035957,0.12604031,0.07421216,0.13616316,0.0596747,0.043031048,0.07453866,0.14399453,-0.014141092,0.074660964,0.0045056078,0.025855193,-0.12662312,-0.18246417,-0.03764429,-0.06371841,-0.024192749,-0.1340426,0.0805329,0.05478287,-0.016332092,-0.08379838,-0.18580945,-0.14910565,0.05912677,0.026480962,0.08078386,0.09640838,0.1293017,-0.12923561,0.10095061,0.07340236,-0.018908242,-0.14124124,-0.1203333,0.056126326,0.16641417,-0.08581801,-0.051683217,-0.048117105,0.14670208,-0.008400708,0.09914595,-0.03169799,0.1454753,-0.114686534,0.06457028,-0.108525194,0.16500635,-0.11941247,0.004689647,0.16741006,-0.09716751,0.06899074,0.11156728,-0.07647326,-0.028433353,-0.046884608,-0.101295926,0.03752246,-0.12895073,0.1084733,0.062473167,0.13314867,-0.10688613,-0.1171174,-0.11152287,0.05277824,0.13924937,0.120838255,0.17712952,-0.013493667,0.1436528,-0.030490126,0.07642964,0.015939627,-0.1669404,-0.08298596,-0.09084793,0.13190848,-0.059541117,-0.1299403,0.13757832,-0.12567595},
	{-0.0354821,0.0147410175,0.03667844,-0.113460235,0.07646687,-0.007945669,0.15091448,0.050164487,-0.1164467,0.0053794887,0.10527694,0.04900221,-0.16072144,-0.024254413,-0.15895857,0.05531476,-0.17182414,0.04927809,0.1453533,-0.11250916,-0.1426642,-0.036251716,-0.13621615,-0.035877805,0.05136174,-0.17316885,-0.10973321,0.053152896,0.11263749,0.06290515,0.061857026,0.021454921,-0.017402584,-0.014369672,0.046764787,0.0037544726,-0.07747147,-0.046120923,-0.028333029,0.08270279,-0.1419523,0.071865804,-0.097614676,-0.12016429,0.06956778,0.06739892,0.14392503,-0.18138786,0.04531104,-0.09121611,-0.098429896,0.076655954,-0.14814715,-0.05261522,0.07605665,0.098083176,-0.023747966,0.1265031,0.17553775,-0.166547,0.0567514,-0.016204491,0.039038062,0.06806626,-0.0055963863,0.03475941,0.15896712,0.10564623,-0.00033324107,0.00015809713,-0.12284022,0.04993282,-0.08224297,-0.058070168,0.07639124,0.15242422,0.124979615,0.112128094,0.048174493,-0.11538573,0.04048254,0.16761161,-0.112730816,0.01365122,0.05668889,0.015906239,0.11424056,-0.12307943,0.14708,-0.07046783,0.1700779,0.06320629,0.04802158,0.08060382,-0.11001431,0.006297925,-0.04533533,0.012763624,0.07019182,0.03006142},
	{-0.0092996,-0.12969357,-0.11899343,-0.04676644,0.11329003,-0.16759491,-0.11016649,-0.0041717975,0.096976794,-0.12209076,0.13851328,-0.0075821597,-0.028101793,-0.15333027,-0.11512223,-0.02163525,0.027034787,0.14953423,-0.07674503,-0.11281331,0.022219209,0.0610348,-0.06602928,0.13501373,-0.17572488,0.037452668,0.04251681,0.0006433859,0.12114441,-0.15799251,-0.018351348,0.12513153,-0.14433344,-0.101651736,0.06893836,0.05187176,-0.16387717,-0.16467473,-0.07037011,-0.12740397,-0.05861485,-0.013773967,0.04404528,-0.06761535,0.057327833,0.022460287,-0.042446055,0.17095861,-0.101851754,-0.12014274,0.13144307,0.058285944,0.049656987,-0.08068075,0.11421174,0.17204757,0.17749843,-0.1775779,0.09857553,0.15837274,0.017313713,-0.048441567,-0.16038594,-0.09086689,-0.09448031,-0.16990925,-0.110438995,0.062683955,-0.067444734,-0.044800233,0.06630283,0.12600368,0.088154346,-0.15933262,-0.050090432,0.13280717,0.08607712,0.16471657,-0.16638361,-0.16568764,0.0984059,0.08010973,-0.15780784,-0.032262325,0.14304566,-0.07996999,-0.12195324,-0.056794047,-0.06728035,-0.0954411,-0.1344685,0.029498361,0.09525803,0.0972317,0.023405261,-0.09629854,0.06350886,0.07703633,-0.09776199,-0.07875821},
	{-0.09019681,-0.0058722445,-0.019233946,0.07461445,0.15959685,0.08210372,-0.16468094,0.10671298,-0.13637832,0.14457089,-0.164524,0.020055456,-0.13659701,0.06174581,0.11749813,0.16603902,-0.10426409,-0.018712211,-0.013346903,0.011380142,0.13764726,0.07973554,0.017175416,-0.122829385,-0.007999764,0.033739332,0.14861715,0.15613276,-0.034263033,0.05385571,0.17085388,0.01042026,-0.09264461,-0.09100135,0.08758158,-0.050604284,0.07371964,-0.14949232,0.15572114,0.15775663,-0.14439362,-0.18433362,-0.11797483,-0.0902539,-0.08075065,-0.13681431,-0.080204785,-0.16458178,0.15999418,0.1646475,0.01064825,0.15218087,0.116002165,-0.0021017867,-0.029596867,-0.17058867,0.10944071,0.060762923,0.046294402,-0.03795923,-0.10842103,-0.11779907,-0.09211159,0.12151827,0.13214104,-0.1881728,0.17299671,0.12095579,-0.041062694,0.17521076,0.09339823,-0.16094835,0.16488172,-0.15433615,-0.009765575,0.12254242,0.054182168,-0.031900316,0.13061412,-0.028314019,0.09963556,-0.023301596,0.14927065,-0.122306086,-0.038152777,-0.0119767375,-0.14960437,0.11497058,-0.13768856,-0.04474004,-0.012254137,0.08009099,0.047756486,0.15725105,-0.06050288,-0.18287507,-0.005899214,0.055044513,0.08475107,-0.10776187},
	{-0.08502585,0.09132615,0.13472657,-0.03471186,-0.07849482,0.01898835,0.10313439,-0.07856236,0.009989715,0.12854804,-0.07389546,-0.0984988,-0.018768905,0.15983541,-0.16739741,0.030573158,0.10974629,-0.14941733,-0.03539064,0.008964318,-0.17284141,0.049751595,-0.019768422,0.04344799,-0.0967347,0.104116626,-0.0691651,0.060067035,-0.11486407,-0.111064345,0.10884185,-0.15610605,-0.13439526,0.054456167,-0.04954291,0.14072992,0.013720885,-0.09400668,-0.13412514,-0.044548076,-0.04158319,-0.07008951,-0.1295503,0.1106244,-0.038482003,-0.04853829,0.08842844,0.10470157,-0.1763704,-0.18285333,-0.07939789,0.035631683,0.09947053,0.16949973,0.058727957,0.092104405,0.062247552,-0.022501912,0.020526115,0.022435078,0.15875874,-0.13458054,-0.028821446,0.06588811,-0.0832597,-0.03502316,0.085267164,-0.024578366,0.04491527,-0.089636326,-0.18420082,0.08739077,-0.119386,0.1563817,-0.04437953,0.014118412,-0.08041741,0.09576076,-0.114304654,-0.110402785,-0.014529704,0.04074142,-0.05062524,-0.07815464,0.020939156,0.1473281,0.16058606,-0.005107269,-0.12520102,0.111894466,-0.13561736,-0.08181914,0.12447834,-0.15605062,-0.09487002,-0.05460696,0.024067983,-0.13604984,-0.18073198,0.17532054},
	{-0.0161425,-0.18837038,0.1110747,-0.083295375,0.09811726,0.031528536,-0.10339376,0.12895556,0.015380758,-0.010139967,0.12912239,0.09647308,0.031730063,0.05339881,-0.10728507,-0.019680131,-0.10745304,0.14460649,-0.17193772,-0.17744167,0.09130651,-0.08510822,0.14182001,0.025482705,0.08323311,-0.021814214,-0.010423755,0.113649346,0.08392997,-0.05525446,0.08117422,0.08799104,-0.14712167,-0.037187185,0.07619206,-0.13778372,0.12096264,-0.11649265,0.09651204,0.06842314,0.0149066085,0.0053913603,-0.033006273,0.10068205,-0.038968027,-0.025529662,0.14802504,0.031193523,0.06328432,-0.015816951,-0.056678586,0.15906827,-0.1446804,0.049036827,-0.07472909,0.1219327,-0.06897393,0.01927582,-0.1861891,-0.09865592,0.09088961,0.0068313032,-0.051525693,0.028739348,0.055338144,-0.080399714,0.14618245,0.14353202,0.06748794,-0.0887653,-0.13857305,0.020192685,-0.16812366,-0.11627123,-0.041359555,0.09326744,-0.100256205,-0.17717968,-0.058592454,-0.10939177,-0.004871458,0.02474215,0.07957583,0.090942875,-0.15855326,-0.1234227,-0.033271573,0.09687142,0.077438466,0.09942833,-0.037087295,-3.9880833e-05,-0.12686747,0.019443413,-0.06487724,0.16381785,-0.015914239,-0.11632567,0.09884827,-0.1876323},
	{-0.09639425,0.08767122,-0.15151055,0.14776896,-0.01214654,0.17460644,-0.08259077,0.045233533,-0.0045628385,-0.091204226,0.12692216,-0.08346239,0.07744728,-0.1742105,0.0062373634,0.171112,0.11213474,0.13917628,0.085594036,0.11913445,0.17634574,-0.16959947,0.10632612,-0.08613911,0.10824558,0.065779984,-0.17240271,0.13252558,0.072037764,-0.17666829,-0.1414441,-0.1315384,0.048600286,0.030856606,-0.0838889,-0.17637888,-0.069134854,-0.1733374,0.12630141,-0.07967119,0.058855496,-0.030677814,0.11862709,0.083049834,-0.15995388,-0.15426952,-0.103946194,0.06270069,-0.08008978,0.1296119,0.112991005,-0.081053324,-0.12943913,0.16889812,0.06475505,-0.02846603,0.08849857,-0.16872133,-0.09637224,-0.18223847,0.09220145,0.007428955,-0.17647924,0.10160945,0.01335739,0.06369116,0.12417201,-0.056729864,-0.13811895,0.014778341,-0.034944475,-0.14029637,0.04501477,0.07214708,0.12853624,-0.0125725195,0.1210865,0.04403348,-0.13205701,0.10713573,-0.009014855,-0.056214627,0.11746708,-0.12746403,-0.049094994,-0.10721534,0.08110067,0.09854934,0.025162248,0.08119574,-0.08719008,-0.16685241,-0.17394376,-0.039486364,-0.0008660427,0.055665348,0.07954511,0.015164002,-0.0133404955,0.14717019},
	{0.056117862,-0.09453362,0.10732308,-0.16520543,-0.120438166,0.07787195,-0.08604606,-0.04026474,-0.1178441,-0.07202003,-0.17237453,-0.11006954,0.11983821,0.07128191,-0.03547816,-0.009987399,-0.0047162473,-0.10178944,-0.078485884,0.0912123,0.1265772,0.021768332,-0.12845486,-0.13666463,-0.13562563,0.0210305,-0.039627433,-0.011146575,-0.09025419,0.062048256,-0.17977273,0.11261091,-0.10752148,-0.06438234,-0.068937436,-0.12639947,-0.034700155,0.15709248,-0.064695045,-0.15228316,0.01810661,-0.16713046,0.16122523,-0.104588486,0.11717722,0.069832,0.12913498,-0.07608251,-0.14268465,0.18180922,0.028214931,0.09165162,-0.13817658,-0.1267898,-0.1405752,-0.11450507,-0.080035344,0.13358775,0.08984679,0.014940187,0.16438544,0.031408146,0.06564815,-0.044603854,-0.08341555,-0.099496156,-0.11198926,-0.027994424,0.17763922,-0.06927896,-0.068358675,0.024221405,0.12777475,-0.18133265,0.17411187,0.078767955,0.062143415,-0.17552862,-0.15793437,0.043004066,0.0481849,-0.013585776,0.1150434,-0.106109135,-0.080309756,0.07760063,0.006816745,0.16922346,0.11675033,0.011372447,-0.14617738,0.10764927,-0.15525737,0.09905645,0.16144311,-0.05057752,-0.016022354,0.10702929,-0.094545245,0.10018766},
	{0.07460279,0.058773547,-0.0034629374,-0.18694732,-0.13711227,0.084754035,0.07224587,-0.12793857,-0.0011640586,0.035079386,-0.15692481,0.16260476,-0.15269879,-0.012566325,0.041229747,-0.12160714,-0.118105516,-0.026153414,0.1596017,-0.094179526,-0.16065189,-0.0007719593,0.075229585,-0.01796537,0.14358543,-0.1269628,0.037369236,0.08221636,0.0805057,0.056016482,1.7700717e-05,-0.16167931,0.09573271,0.10940818,-0.168851,-0.1316304,0.13919447,0.094249,0.03788395,-0.16157821,0.029721154,0.14088924,0.11469008,0.047497574,-0.056988116,0.16026413,-0.12650378,-0.037077926,0.026495654,-0.104199365,0.04662202,0.11984892,-0.014397498,0.12436575,0.035034344,0.03822246,0.07965381,0.037022643,0.16501196,-0.16169494,-0.017343756,-0.03749212,0.05052957,0.0021121355,-0.025947928,0.15324426,0.059603345,-0.03838627,-0.17951141,0.03743852,-0.035072353,-0.10686155,-0.18126264,-0.044450823,0.05611417,0.07697131,0.14015923,0.004438453,0.17204037,-0.09832665,-0.058035847,-0.025228072,0.06545767,-0.17046808,0.064414546,0.16989957,0.11519318,-0.17531621,-0.048866242,-0.04560569,-0.17637756,-0.13971719,0.11376829,0.10182108,-0.05192888,-0.001639022,-0.12718548,-0.03535476,0.11409846,0.0065374486},
	{0.0052243937,0.07701515,0.051382754,-0.16740556,0.04699463,-0.05081812,-0.13168538,0.0128640225,0.059189636,-0.108054444,-0.12321712,-0.030450718,0.06645589,0.027464002,-0.1723245,-0.08714722,0.022461373,-0.17585781,0.16457619,0.10728816,0.083640404,-0.16478041,0.04806551,0.12156609,0.00578601,-0.0170928,0.11105887,0.13830614,0.095433086,-0.1387452,-0.16087084,-0.0858937,-0.17336382,-0.13536072,-0.16672334,0.024219235,0.11646788,-0.089314714,0.02267718,0.03670892,0.080698155,0.105560645,-0.005318232,-0.07408905,-0.07564167,0.015353918,0.16846572,0.16072698,-0.14072691,-0.023976628,0.073059045,-0.15426652,-0.0067989896,-0.07401221,-0.16081665,0.073131695,0.010120306,-0.03592335,-0.063690685,-0.00858758,-0.111477286,-0.001742876,-0.118434586,0.1421657,0.17879884,0.13922514,-0.16383816,-0.06930072,-0.019711457,-0.08076482,-0.07923513,0.16437179,-0.078594595,0.09026651,-0.13805287,-0.13401005,0.056925323,0.049541544,-0.18159142,0.11118576,0.046933636,-0.1391715,0.12705618,-0.11520673,-0.053371325,-0.002482545,-0.13280876,0.03749087,0.15205353,-0.056545027,-0.10342155,-0.17382869,-0.15052138,0.10870328,0.09696843,-0.038822763,0.1688797,0.16591421,0.14481717,0.044822544},
	{-0.14430551,-0.09694751,0.06266489,0.09476478,-0.067857936,-0.18377271,0.016903741,0.123181894,-0.109085955,-0.034685984,-0.096288905,0.010684586,-0.060388163,0.089623645,0.08645247,-0.15123425,0.10286639,0.0020972244,0.10742055,-0.13341466,-0.08763704,0.052261505,0.11722843,0.0032973485,0.018558376,0.10474888,-0.11903577,-0.021485556,-0.074330196,0.17038499,0.026101872,-0.047569826,0.11900022,-0.0639465,-0.15937606,0.111677304,0.10692985,0.16024433,0.15136954,-0.14734137,0.17935038,-0.13776982,0.07540478,-0.13218156,0.12757917,0.020614518,-0.0104626315,0.102706775,-0.016689653,0.16745727,0.14764825,-0.009868517,0.014640229,-0.025962848,-0.09318644,0.041241024,-0.035169214,0.11655774,-0.15049958,-0.0962495,-0.020824812,0.09198708,0.15753141,0.1639518,-0.07752673,0.12393601,-0.1182967,-0.07404253,-0.09260144,-0.04699982,-0.16115135,0.055035405,0.07451255,0.107656166,-0.033757918,-0.080231436,0.03291492,-0.00727601,-0.1507248,-0.07815967,0.08232282,-0.12923066,0.0024158848,0.11682308,-0.027970843,0.12182375,0.0689814,0.09378154,0.008722761,0.0027236901,0.026473124,0.03056757,0.10172144,-0.022753801,-0.08710329,-0.0029299762,-0.010705263,0.100080915,0.17727713,0.17814319},
	{-0.089515425,0.14017162,-0.0055127977,-0.17249113,0.14759415,0.10874411,-0.20139448,0.06276986,-0.14320727,-0.18330066,-0.20151606,0.06601168,0.08373607,-0.1445127,0.11556002,-0.06340078,-0.088550285,0.04323678,0.06779906,-0.1814954,-0.18345597,-0.08344074,-0.09044449,-0.050631303,-0.18539794,0.13103485,-0.15391193,-0.1547942,0.15336533,0.03245023,-0.03270415,0.06479853,-0.17975965,-0.054805413,-0.0792469,-0.043920122,-0.19319032,-0.012231258,-0.03480314,-0.17214069,0.044984523,-0.15090044,-0.18577257,-0.14416574,0.14615834,-0.005945031,-0.12218973,-0.10421825,-0.0300956,-0.13668399,-0.15476534,-0.16847873,0.018281303,0.13233672,-0.15486494,0.12580694,-0.026593484,-0.07434249,-0.1153654,0.07890025,0.018957276,-0.10755027,-0.029903168,0.14201184,-0.18727008,-0.17372787,-0.1504492,-0.016509598,-0.038537282,-0.06302261,-0.08743931,0.060750253,0.09330415,-0.10444268,-0.002308046,-0.20531,-0.20193005,0.13730146,0.12919582,-0.074683405,-0.16164075,-0.16864479,0.06302215,-0.15142989,0.104178086,0.08060318,0.084558114,-0.1712775,-0.014423621,0.12486491,0.0691406,0.041594334,-0.06630902,0.062308624,0.035818353,-0.18925154,0.019855421,0.031867478,0.11889124,-0.15710571},
	{0.0035013156,-0.11931387,0.11814736,0.08473659,-0.0065267035,0.065184966,-0.18781233,0.06501098,0.12721115,-0.05797392,-0.16006032,-0.15556765,0.07873322,-0.17552567,-0.09925636,-0.09610823,0.06341551,0.029593533,0.065713234,-0.19165877,0.09777941,0.06299332,-0.08123813,-0.030762047,-0.12608573,-0.17085248,0.14572972,-0.14951673,0.05387066,-0.05936603,-0.022505077,0.17622049,-0.11999022,-0.06823683,-0.007510697,-0.12542495,-0.06945716,0.11993545,0.02828693,-0.13645805,0.1534004,-0.17890216,0.114004515,-0.003795553,-0.16996025,-0.08724154,0.017633738,-0.070115864,-0.06861004,-0.090813406,0.04890957,-0.07565961,0.075901575,0.027039455,-0.10823137,-0.100401506,-0.111898884,-0.0789061,0.0984257,0.11594599,-0.01431661,0.032650925,0.008471681,-0.01775367,0.01623853,-0.17261235,-0.16959004,0.14767213,-0.104511775,-0.040352847,-0.043728616,0.0103631085,-0.20006226,-0.13556404,0.0804596,-0.103888154,0.026733633,0.018699389,-0.053991564,-0.116402335,-0.020600505,-0.032251216,-0.14467442,-0.08022779,0.021491537,-0.051669262,-0.079379536,-0.17989422,0.083857715,0.00015825231,0.07043166,-0.11303109,-0.02302298,-0.10748532,0.12689604,-0.014423383,0.05513657,0.085085586,-0.14945215,-0.19054821},
	{0.16864108,-0.12162824,-0.0051805037,0.1255753,-0.18218605,-0.07721914,0.11147026,0.07426487,0.15583591,-0.010781825,-0.09550223,-0.1157783,-0.04656695,-0.076332666,0.10187852,0.009940256,0.117488556,0.16663733,-0.027071336,0.08693186,0.11994832,0.1433065,-0.14834689,-0.04474285,0.16466275,0.058493648,-0.096820995,-0.17839189,-0.16047391,-0.13574481,-0.09661468,-0.11534786,-0.12474263,-0.051661193,0.053541638,0.16909958,0.029855764,-0.17607176,-0.09443859,-0.08420512,0.12195956,0.0957847,-0.18410796,-0.10658865,-0.0035586886,-0.012807938,-0.056874435,0.053013172,-0.058735985,-0.14619139,0.08087525,0.08485,-0.06850814,-0.07847127,-0.05067218,0.116392896,0.14212866,-0.15957195,0.06904755,0.16300917,-0.002919909,0.08465233,0.0913356,-0.08246297,-0.10997947,0.10152579,-0.14671543,-0.13987365,0.060495093,-0.04094081,0.009624773,0.034936015,0.014250476,0.03593324,-0.16669784,0.011595353,-0.104148425,-0.12999792,-0.03327865,-0.093308605,-0.089944504,-0.0789348,-0.15022889,0.08585851,0.04558661,0.040609572,0.166801,-0.021514291,0.09483381,0.07954086,0.16482994,-0.05341271,0.13289063,-0.01996873,-0.036417864,0.090523995,-0.12708849,0.12132708,0.16722341,0.05255604},
	{0.09427026,0.015892332,-0.06963133,0.011195774,0.036172815,-0.063790075,-0.047405604,0.16847973,-0.018701253,-0.096795015,-0.102179274,-0.14013682,-0.028970107,-0.04098344,0.15181449,-0.13802592,0.05474588,-0.01996277,0.13254891,-0.08314269,-0.16688196,0.12918265,0.13335282,-0.03673814,0.009839612,0.08256279,0.11456925,-0.09647653,-0.17869294,-0.06519244,-0.11613009,-0.030148033,-0.14333077,-0.10842173,-0.12317891,-0.13394709,0.100851454,0.009286339,-0.14447753,0.025244439,0.054222435,-0.0024906748,0.084430955,0.046118908,0.11284762,-0.02873134,-0.02523734,0.14596781,0.14378619,0.083889894,-0.10873195,-0.14779647,-0.17894205,0.017333467,-0.042531453,0.028496087,0.119109325,-0.01347608,0.13870405,-0.15714619,-0.11408664,0.05019002,-0.12375304,-0.07688476,-0.17958044,-0.09354742,0.038761053,0.08662569,-0.0788221,0.13970686,0.10550285,0.14781131,0.13959996,0.15042454,-0.018647686,-0.12426486,0.17184168,0.12815507,-0.0046429913,0.07191533,0.16593868,0.05139622,-0.16807055,-0.15375644,-0.028478453,-0.041613083,-0.008104923,0.015294298,-0.13955233,0.023244109,-0.08258409,0.05360641,0.068422146,-0.043041468,-0.13992067,0.117529325,0.15105665,0.02916456,-0.109318346,0.12401509},
	{-0.08744803,-0.11274155,-0.023214862,-0.059650168,-0.044359736,-0.005947328,0.05403271,0.044973817,0.10148453,0.10027185,-0.1557075,-0.04673426,0.17777653,-0.117968276,0.14274047,0.15109372,0.12137155,-0.13514778,-0.13230027,-0.078740805,0.14099531,-0.11673991,0.114537954,0.06225948,0.17448702,-0.06632246,0.14817522,0.17253271,-0.0069733337,-0.0030667768,0.056270953,-0.060389817,0.04756974,-0.09780089,0.12487506,-0.015976422,0.12334345,0.110992126,-0.06268641,0.11744043,-0.15621191,0.10560608,0.15926416,0.09458107,0.050151147,-0.07574239,0.002452638,-0.09902435,0.14562593,0.1762174,-0.009884544,0.12189024,-0.18118845,0.026197296,-0.030300347,0.03635188,0.15245955,0.109254435,-0.12013534,-0.10681928,-0.1648996,0.14459062,0.08231407,-0.001001505,0.13888077,-0.1560671,0.14864102,0.038277857,-0.08226909,0.0023991782,0.0742281,-0.12820175,0.100199595,-0.047660235,-0.0072065867,0.0076749404,-0.021439351,-0.151873,0.040625002,0.08201392,0.06299413,-0.13783519,0.048831735,-0.05190425,-0.016271388,-0.16825107,0.013163652,0.17325094,-0.076713584,0.04117765,0.13062896,-0.05191593,-0.14175346,0.06264628,-0.092184894,0.1767888,0.06919022,0.13279158,0.074109465,0.062395483},
	{0.14473449,0.080886856,-0.15426847,-0.09263017,-0.16662344,-0.01070119,-0.107744195,-0.14966723,0.002808255,0.13904935,-0.049389917,0.08574017,-0.13358402,0.10283645,-0.13557482,-0.045481957,-0.15391037,-0.07700035,0.0017565559,-0.09051208,-0.086469226,0.08940489,0.029237049,0.14850512,-0.009992469,-0.12179013,0.15621313,0.08570564,0.10760813,0.015780544,-0.15221515,0.10926741,-0.16757917,0.14243835,-0.097664826,0.12457666,0.13093477,-0.10494536,0.017283987,0.023149345,0.02862421,-0.024120172,-0.089900695,-0.117584795,0.08900775,0.01565749,0.0844777,0.049769804,0.13538307,0.037445728,-0.09850292,-0.06267015,-0.12897152,0.14908612,-0.035125844,-0.09998883,0.12821043,0.0111643,0.02657492,0.026118428,0.012712872,-0.121108636,0.06186682,-0.18033522,-0.09958483,-0.1330167,0.040031634,-0.017135192,-0.11929837,-0.15331914,0.09555524,0.17962927,0.044872347,-0.030232202,-0.10907871,-0.10364349,0.083827436,-0.15430115,-0.09980378,0.062463176,-0.12458471,0.036068615,0.09525294,-0.20344527,-0.007846384,-0.061703566,0.0641279,0.113895886,-0.16311415,-0.16642548,-0.008997864,-0.12255764,-0.13803731,-0.13055491,-0.17147404,0.028155766,-0.19596285,0.14987828,0.13780104,-0.18542917},
	{-0.029885296,-0.15007867,-0.10029336,0.08156358,-0.109103575,0.14702953,0.009496857,0.158765,-0.09209792,-0.07552312,-0.09261801,-0.14142387,0.11222407,0.07369602,0.03572645,-0.021692248,0.041038647,-0.17986213,0.0076585053,0.039568778,0.0688016,0.025683314,0.16174994,0.17234914,0.0047293184,-0.012314701,0.11921698,0.12211685,-0.019114003,-0.14560823,-0.12490954,-0.036970347,-0.039972454,-0.11111866,-0.1882819,-0.16908605,-0.09278985,-0.06697987,-0.17047472,0.029778335,0.09135284,0.017574972,0.14689963,-0.09848912,-0.044225454,0.006722143,-0.11672979,-0.07631914,0.0017782212,0.1617149,-0.024136543,0.16535453,0.13764001,0.14056721,-0.14783956,0.16606662,-0.15521596,-0.01097273,-0.14617772,-0.0868118,-0.1538569,-0.012777999,0.14662373,0.05777539,0.17039031,0.024416182,-0.15040977,-0.19055298,-0.1394116,0.08724109,-0.08654686,-0.13922635,-0.041866146,0.109517425,0.017792953,0.055318855,-0.02832422,0.0015197981,-0.039679334,-0.11656701,0.033736978,-0.10719412,-0.12813416,-0.16637905,-0.071907096,-0.1393195,0.07954759,-0.18122812,-0.05141323,-0.0068729986,0.06905028,0.07429325,0.1690411,-0.16459918,-0.11486334,0.09750912,-0.060119655,0.03325181,0.10552377,-0.057838988},
	{-0.10535939,0.13242628,0.1337115,0.15095909,0.04250559,-0.048385225,0.13459854,0.094324216,-0.17036633,0.006834178,0.061713792,-0.08070085,0.0106736515,0.10016396,-0.08873307,0.16597869,-0.0805957,0.11875233,0.050868165,0.0031653096,0.1371929,-0.121087186,0.082329005,0.15736873,0.14300433,-0.17311712,-0.012300179,0.033236552,-0.16759817,0.15057531,-0.013123111,0.07562027,0.1340934,-0.07297392,-0.17235176,-0.10613296,-0.042463847,-0.12601715,-0.08972512,0.16782571,-0.118882604,-0.020197554,-0.17366894,-0.072694205,-0.0072394237,-0.11261531,0.13260226,0.15094256,-0.052352034,0.14477108,0.104044005,0.010483352,-0.11015077,0.082791306,-0.17732051,0.023720745,0.0877557,0.031222379,-0.088330515,0.088740006,0.09882313,0.12932973,0.036964007,0.008897792,0.16960244,-0.041383173,-0.013756943,-0.11836008,0.009367967,0.11876036,0.14282067,0.09676414,-0.016476639,-0.043579698,-0.14591458,-0.0025171307,0.13873753,-0.06558166,-0.070152454,-0.052735858,0.08901006,-0.07046168,-0.0864021,-0.040839054,-0.048318658,0.06989696,0.040904038,0.13612935,-0.018914854,-0.14544503,-0.035215475,-0.017117321,-0.062212143,-0.16569677,0.14720783,0.091107614,0.066628106,-0.1618712,-0.10882114,-0.16358636},
	{-0.15860581,-0.1770311,0.06908818,-0.16882278,0.16557698,-0.15088171,-0.046039276,0.024870912,-0.07444569,-0.15865786,-0.092376314,0.056884076,0.1280344,0.01978493,0.09081592,-0.1760832,-0.18491517,-0.046762064,0.09367555,0.17461684,-0.18622482,-0.10945439,-0.00018578139,0.035674952,-0.15729202,-0.07404738,-0.06878375,-0.058730237,0.08695444,-0.10447325,-0.12892377,-0.01213639,-0.09339954,0.010657405,0.074951276,0.13139197,0.15192878,-0.032504156,-0.13961522,-0.034059156,-0.04689829,-0.109574996,-0.19290404,-0.087901734,0.062397625,0.04311951,-0.09457219,-0.06337059,-0.08369736,-0.18172266,-0.05255539,0.13339406,-0.103505135,-0.103942536,-0.12466344,0.0035404658,-0.074946515,0.031711277,-0.14784259,0.11775022,0.03639287,0.03161301,-0.13286415,0.13822192,0.17363116,-0.038370058,-0.10187389,-0.18809836,0.085696384,-0.0954708,0.020201994,-0.16439646,0.096493155,-0.14204057,0.023253685,-0.18579046,0.12178804,-0.19750622,-0.16418158,-0.036447577,0.09336177,0.09054227,-0.094119586,-0.16513759,0.15228717,-0.16776219,0.067730084,0.001158749,-0.15572047,0.093663596,-0.023205906,0.025668241,-0.11848153,0.08833659,-0.085822426,-0.026437294,-0.15005077,-0.01039013,-0.057371277,0.112447314},
	{0.18252668,-0.10313209,0.037652135,0.05230485,-0.10747412,-0.10341481,-0.10354884,0.043444723,-0.07019116,-0.1654154,-0.009392098,0.0995678,-0.082164966,0.01059407,0.08515242,0.13406909,0.060919255,-0.100430116,0.15494376,0.029602602,0.040960595,-0.18151678,0.115152866,-0.14658822,0.11608034,-0.14042068,0.072910696,-0.14350231,0.06769276,-0.10390909,-0.098942116,0.08899391,0.12342915,-0.18246749,0.041796535,-0.08325097,-0.044491336,-0.14060588,-0.04573126,-0.0836413,-0.07985409,0.03318487,0.14603832,0.15550071,0.1152567,0.008451164,0.09723452,0.08207992,0.05686547,-0.18144016,0.08789122,-0.12575598,-0.027124837,0.13919473,0.002500087,-0.066186,0.16961592,0.105186105,0.13686657,0.17938301,0.11388034,-0.14952487,-0.08859477,-0.1320206,-0.16780977,0.006635785,0.036117643,0.17542946,-0.13660164,-0.08420609,0.03738208,0.16138548,0.09233901,0.1770072,-0.038427815,-0.0027852058,-0.03234297,0.0384918,-0.16191232,0.1267331,0.15907487,-0.08620411,-0.02999489,-0.12663671,0.05365625,0.05367741,0.15274546,0.17709878,-0.08388201,-0.118481666,-0.07196362,0.1311354,-0.02774325,-0.17447251,-0.017069489,0.11779246,-0.06990008,0.044884622,0.13066345,0.14460078},
	{-0.020067127,-0.0034174367,0.13135,0.16646531,0.11930824,-0.009242536,-0.096621685,-0.07900981,0.06192517,-0.088286474,0.027016526,-0.07237597,0.13744095,-0.0018382857,-0.0066575245,-0.12177921,0.09041021,-0.05717891,-0.10085692,-0.117736205,-0.05284958,0.09814297,0.0031046062,-0.08980414,0.11656479,-0.056100354,0.100200735,0.16537125,0.0794146,-0.083535284,0.11735479,-0.15508369,-0.08714259,-0.11537052,0.11388419,-0.14529541,-0.15149488,0.12476012,0.13354975,0.10356482,-0.17345454,-0.124683775,0.12939472,-0.066262275,0.060144715,-0.14646792,0.14561155,0.15074517,-0.15060851,0.00034629146,0.09129783,0.06635436,0.03705713,-0.025058523,-0.15550578,-0.08352531,0.007513549,0.1414354,0.13247488,-0.09349219,-0.040275063,-0.10281359,-0.1813644,-0.0401296,0.010133095,0.09804733,0.1200615,-0.1229929,-0.12972882,0.019462975,-0.015700445,-0.040597066,0.13155033,0.00039533654,-0.0550733,0.013194236,-0.07523823,-0.023933057,-0.14295812,0.14553785,-0.11852903,-0.07773766,-0.032172278,0.14355291,-0.099780016,-0.1385222,-0.05227946,-0.0851549,0.06249342,-0.10859674,0.083609216,-0.1411295,0.08158555,-0.13091521,-0.013222698,-0.18440907,0.02138011,-0.09988106,-0.018155744,-0.0006326329},
	{-0.11544457,-0.0069078607,0.12154967,-0.008081499,-0.07302253,-0.17780316,-0.14023824,-0.1548291,-0.12942384,0.17779878,-0.082043864,0.08891165,0.13201186,0.10696441,-0.16057183,0.098944105,-0.07059018,0.010668563,-0.12367621,0.08294804,-0.13251865,-0.1248274,-0.023982279,0.0018461612,0.06045026,-0.1672255,-0.043552816,-0.030246688,0.13670027,0.033381473,0.093214065,-0.1094429,0.16763665,-0.050057027,0.097177185,-0.17612359,0.026378201,0.051221307,0.17672507,0.13132937,0.16037217,0.08722614,-0.14945233,0.059074853,0.07333887,0.15559602,-0.15391636,0.04167554,-0.06931918,0.14582701,-0.03600612,0.04190137,-0.17832735,-0.008580903,0.03139529,-0.07193256,0.106444836,0.16314818,-0.03947509,-0.08953381,-0.15505315,0.03827356,-0.11326674,0.035434235,-0.041296586,-0.034386534,0.095253296,-0.03096962,0.024864053,0.030321281,0.09907331,-0.05391589,-0.028963607,-0.07405038,-0.14745127,-0.05513638,-0.019748919,0.063468695,0.048623398,0.10959997,0.12625797,-0.036643256,0.17686348,-0.08644295,0.025502477,-0.04189138,-0.15636134,-0.10805345,-0.13922188,-0.16099353,0.13724475,0.049307674,0.09779406,-0.08771857,-0.13583319,0.06441801,0.09741533,-0.14139445,0.12183092,0.05267432},
	{-0.13030405,-0.07401611,-0.12949148,-0.022338007,-0.07785514,-0.09915056,0.15015917,0.050097268,0.13063513,-0.14157341,-0.056917917,-0.030824482,0.018638834,-0.16136408,-0.08604887,0.14020199,-0.17470074,-0.11765747,-0.11246869,0.071786255,-0.12865068,0.113652885,-0.014592065,0.15637131,0.1254025,-0.077064976,0.047688086,-0.17977566,0.07663389,0.010517775,0.086570926,-0.045315847,-0.08865934,0.004892367,-0.16973901,-0.048545297,0.02843986,-0.17901061,0.1535152,0.1694315,-0.10522863,-0.053167745,0.112540044,0.06630566,0.11913739,0.031835604,0.1005486,-0.09114418,-0.13030402,0.013043342,0.008629679,-0.15678017,0.13908704,0.06933138,-0.11392554,-0.16155565,0.11755165,-0.17730513,0.10568133,0.102254964,0.075680524,-0.17584519,0.016873466,-0.16408062,-0.085586525,-0.14019923,-0.09264465,0.007775129,0.06111861,-0.055939905,-0.10465847,-0.084964916,0.052396245,0.013579242,0.06507282,0.033548526,0.11179858,-0.005894476,0.042424712,0.15816528,-0.053169724,0.08790376,-0.100358196,0.12821583,0.07108232,-0.12144737,-0.0037555436,-0.072615884,-0.17795114,0.06896528,-0.06707578,-0.16757499,0.1304527,0.13177173,-0.032232374,-0.017822227,-0.1781585,-0.054354012,0.17198418,-0.12292158},
	{-0.09140031,0.11368942,-0.11667125,-0.016827032,0.16455233,0.04134178,-0.070321225,0.025405526,-0.022190422,-0.15610489,-0.16193473,0.08278969,-0.00628303,0.09308827,0.15168598,0.007625997,0.10981986,0.053998426,-0.14606547,-0.14461417,0.0743421,-0.024508521,-0.1555761,0.14771596,-0.17504844,-0.070695005,-0.055847943,0.1368961,-0.020997688,0.047851995,-0.048598647,-0.1255079,-0.02029635,0.008977875,-0.024857625,0.022424176,-0.17887151,-0.03228487,-0.17431253,-0.0783798,-0.110894024,0.1655002,0.11000037,0.10877055,0.0012140721,-0.15484598,0.09293488,-0.11861412,-0.050631672,-0.12689762,-0.019099563,0.058100477,-0.056478232,-0.01650609,0.16821173,0.12855968,0.09184602,0.037384734,0.102133095,0.10467002,-0.011205077,0.049136758,-0.06466466,-0.12313784,-0.17252219,-0.017802954,0.096785635,0.035731763,0.16671875,0.12805927,-0.009711772,0.015964508,0.14988449,0.03371972,0.12957591,-0.0967708,0.16040653,0.025146395,-0.006494716,0.08659962,-0.033985376,0.08150414,-0.10186274,0.15189394,-0.17702056,0.17003343,0.08984381,-0.17764656,0.1007956,0.0006195903,-0.008983314,-0.0724188,0.036749512,0.07067925,0.09098095,0.05454655,0.07146186,-0.1393004,-0.14850196,0.10588205},
	{-0.15457328,0.108157404,-0.045178317,-0.07122446,-0.06671114,0.06592173,0.09125735,0.02805925,0.0105257435,0.081938565,0.10407583,-0.1093839,-0.17433442,0.00076401973,0.05089527,-0.15714073,-0.0054244692,0.13266036,0.049132492,0.037628006,0.1380589,-0.14618565,0.14693227,-0.06518476,0.022579692,0.04024971,-0.15955879,-0.09921955,-0.08519147,0.11885098,0.029820753,0.13346963,0.030987103,-0.06686454,0.089729376,0.015397244,0.10673278,0.12444515,-0.10639011,0.15646608,0.14544281,0.042568572,0.11761396,-0.057317607,-0.086929366,-0.13015772,0.12816961,-0.18397547,0.10435829,-0.07762806,-0.065796174,-0.013315272,-0.09415605,0.11324643,0.08411579,-0.007338564,-0.049910743,0.16232242,-0.1762755,-0.16341582,-0.08999145,-0.11704282,-0.1779899,-0.042230856,0.16030626,0.11409569,-0.16094981,0.124683596,0.1407591,0.1395304,-0.05121402,-0.14190169,-0.004187009,-0.19145097,-0.16875969,-0.060153794,0.04781761,-0.0044786474,-0.019967822,-0.1128862,-0.12726687,-0.079063535,0.07766674,0.0463572,-0.08995635,0.012024467,-0.1791676,0.03689134,-0.016886223,-0.09407401,-0.06270929,-0.14376563,-0.18247078,-0.1565527,0.13909483,-0.059367172,0.13744175,0.0011505466,0.067104906,0.007783319},
	{-0.12456578,0.14997701,-0.12491079,-0.1685176,-0.15322307,-0.17891547,0.028250929,-0.16302514,-0.14551218,0.14916712,0.08982311,0.011212977,-0.07822843,-0.13265015,-0.18143395,-0.076184824,-0.15189274,-0.18328436,-0.008423829,-0.06467416,-0.17282717,-0.18721406,0.08408492,0.13587993,0.12315125,0.15746537,-0.17084935,0.04532205,0.066218674,0.16355361,0.15676574,-0.04205272,-0.16355291,-0.114223145,-0.16743007,0.011492981,-0.16212884,0.06644764,0.071703054,-0.022253897,-0.05339406,-0.16259193,-0.0024311966,0.1559793,0.15381594,0.15489714,-0.15983517,-0.1607884,0.14943361,0.110481575,-0.16005585,0.051783442,0.021948086,0.049137015,0.114323094,-0.021580793,-0.07771731,-0.07720962,-0.030785197,-0.15492812,0.0709244,0.119310744,-0.12423968,0.031814456,0.12127452,-0.03130268,0.086764015,0.008062147,-0.17829047,0.04063202,-0.17977749,0.027253069,-0.15220344,-0.12629797,-0.16017902,0.008845676,-0.025075546,0.052504633,0.057488482,-0.13897198,0.08265239,-0.0018172404,-0.04029257,-0.08640153,0.13326783,-0.13238676,-0.19627902,-0.016841616,-0.07706982,-0.1729833,-0.09579809,0.09718254,0.0853985,-0.010285748,-0.17607817,-0.11983823,-0.18078586,0.061920833,-0.011424086,-0.017920462},
	{-0.045719437,-0.11526274,-0.14279044,-0.1613248,-0.07674622,0.03075949,-0.15466772,-0.031639725,-0.1789379,-0.17071502,0.13424654,-0.08990893,0.03239446,-0.14917946,-0.18068072,-0.12008629,-0.10917058,0.123725764,-0.01973054,-0.13999788,-0.08462207,0.09907138,0.0056752954,0.005414958,0.15395194,0.048513103,0.16995306,0.12073743,-0.17146958,-0.1270684,-0.0038957503,-0.15323667,0.011569202,-0.013730401,-0.026269468,-0.1675885,-0.13256745,0.061858706,-0.06845802,-0.07933438,0.17630023,0.052432474,0.02375018,0.14078538,-0.0052362955,0.0608322,-0.10135452,-0.12533133,-0.1752815,-0.1045055,-0.16107665,0.1710334,-0.13077894,0.13360932,-0.07916279,-0.12488681,-0.09112758,-0.17640477,0.010728039,-0.027787006,-0.08530563,-0.07442436,0.01998732,-0.084764816,0.061845653,0.085789196,0.10924951,0.07065079,-0.085832745,-0.14940901,0.17450792,-0.16838108,0.055845786,0.16949661,-0.18722565,-0.15807238,0.1464788,-0.042910434,-0.17879687,0.060865946,-0.03379954,0.12577608,-0.1266533,0.09393347,-0.03744496,0.0979139,-0.16775262,0.07187353,0.16762546,0.13654292,0.09336179,-0.14564286,-0.13189295,-0.16157643,0.010027156,0.16816412,-0.023522971,-0.09576787,0.09759096,-0.022896051},
	{0.08088139,-0.05954761,-0.14632168,0.11236019,-0.06613175,-0.17977382,-0.11344842,-0.07580881,0.108714625,0.13045706,0.06577719,-0.017993437,0.14088573,-0.007865163,0.024407083,0.1405024,0.14109455,0.06772659,-0.12509821,0.13421556,0.047180716,0.005489118,0.06887548,0.026867742,0.15530933,0.08421457,-0.15077822,-0.10652385,-0.06474081,0.026211,-0.077853486,-0.004462913,0.06254701,0.14365977,0.0019665034,-0.049836993,0.022696653,0.13314499,-0.14862785,-0.13657361,-0.18292971,0.1527721,0.0013822723,0.031146392,-0.021323,-0.13940611,0.038171902,0.12099916,-0.18163483,0.16887692,0.045552354,-0.09568679,-0.048861943,-0.15125467,-0.021939233,-0.15004256,-0.16271716,-0.07348027,0.023364678,0.029434133,-0.15032999,0.038578793,-0.14907978,-0.015021779,0.056886557,-0.05240964,-0.044684008,0.124537446,-0.11276647,-0.17385346,-0.077420935,-0.049882945,-0.077770315,-0.11979716,-0.13871889,-0.031073876,0.018290197,-0.033847064,0.08370419,0.09277179,0.03153357,-0.17198865,0.11305726,0.13492061,-0.09446263,-0.026725363,0.13064142,-0.018876208,-0.043220922,0.11170649,0.055556864,-0.049800426,0.16495122,0.16518186,0.07435992,-0.12554954,0.07778778,-0.050554827,-0.07772154,-0.027792137},
	{0.09570941,-0.015926905,-0.11851915,-0.08411189,0.05137951,-0.048640966,0.075192414,0.09945802,-0.18159813,0.028122028,0.11397725,-0.09927808,0.16551098,-0.10514076,-0.079818964,-0.09131174,-0.06927004,-0.010834616,0.02001197,-0.15232354,0.1446615,0.13993134,0.15156096,-0.009968324,0.0570377,-0.14198613,-0.08743306,-0.026611399,-0.1403458,0.14846872,-0.010591519,-0.16828017,0.042014092,0.046226628,-0.007536593,-0.024758736,0.065724045,-0.124242686,-0.08332045,0.14755164,-0.037057616,0.058062896,-0.039145023,-0.031759616,-0.14622177,-0.050472915,-0.10070486,0.06681381,-0.090793766,0.1814169,0.17171803,-0.11317337,-0.013068583,0.039455768,-0.17844471,0.020038256,-0.1215424,0.16874222,0.014272583,-0.10796842,0.06645286,0.17434156,0.03704164,-0.15251993,0.023885364,-0.053516928,-0.029189821,-0.12280049,0.13596393,0.05250135,-0.009359085,0.083820246,-0.13193175,0.065745465,0.16208266,-0.050191786,-0.10563566,-0.0701138,0.04754312,-0.10008903,0.0031870338,-0.06700692,-0.022222256,-0.032160826,-0.05892005,-0.038450688,0.04975165,0.0069375257,-0.17916639,-0.14299929,0.054731,-0.11293214,-0.08117847,0.1730164,0.06894693,-0.049630035,-0.123679124,-0.14346263,-0.01641187,-0.06828118},
	{0.10599589,-0.12994686,0.16622818,0.020460207,0.1554038,-0.1679134,-0.16915126,-0.05314067,-0.12319775,0.045716245,-0.017289078,0.13251403,0.1103303,0.008102608,-0.12875098,0.10330031,-0.13284993,-0.12376537,0.08620343,0.056466058,0.15637448,0.0435465,-0.007936891,0.10974495,-0.18753241,0.07210027,0.10784336,0.14656296,-0.12153454,0.039751828,-0.06534845,0.015974373,0.13313289,-0.17425205,0.122216105,-0.08679515,-0.06463934,-0.046970323,0.13127893,-0.14169171,-0.054637954,-0.11507479,-0.06991306,-0.10220754,-0.13157246,0.12167461,-0.012736046,0.036063384,0.1086442,0.076700464,0.11737682,-0.15413241,-0.120971404,-0.16253984,-0.09817269,-0.1262566,-0.109602176,0.1403194,-0.115221694,-0.008076872,-0.079387315,0.15030922,-0.021670831,-0.19073577,0.03267667,-0.05065703,0.03158022,-0.03020163,-0.1711072,0.09240088,-0.040985454,-0.079472564,0.06971551,-0.08973189,0.07193574,0.11240845,0.08495045,-0.04564907,0.09269769,0.042301998,-0.11717346,-0.1772438,-0.049087055,0.07112904,0.1381171,-0.15376917,-0.12518339,0.00092258,0.13439785,0.1503569,-0.07390564,0.10525732,-0.14652607,0.09720078,-0.13562013,-0.0411976,0.16939293,-0.1400284,-0.010662201,-0.078423485},
	{0.08136349,0.07126491,0.16789055,0.07753657,0.15841588,-0.11932469,0.15023878,-0.07720779,0.15669806,-0.070033446,0.099082045,-0.08454585,0.054892987,0.15786056,0.012997787,0.04342644,0.023044376,-0.045585044,0.1099055,-0.12267844,-0.13290453,-0.09157313,-0.052348662,0.024577599,-0.15510963,0.12950316,-0.027439471,-0.12442312,-0.14623173,0.065107636,0.06190441,0.042108014,-0.045037992,-0.0018428375,0.041668475,0.06822452,-0.053303257,0.0867953,0.10166983,0.11628241,-0.10006975,-0.014812555,0.025822826,-0.13559623,-0.07300216,0.045676168,-0.17913029,-0.1276453,0.008636001,0.015747217,-0.040208887,-0.024264272,0.04131325,0.073776044,0.020039715,0.074539475,-0.18564445,-0.07534374,-0.1431986,-0.0063649816,0.01387701,-0.12627155,0.12125622,0.14264579,-0.17339985,-0.12647834,0.06953372,-0.020906735,0.03662182,0.14873978,0.14022617,0.05074735,-0.061501775,-0.010303387,-0.0051988782,-0.17316371,-0.031069146,-0.13813204,-0.10087384,0.09978411,-0.13893045,0.17262033,-0.008106404,0.048753023,-0.11565078,-0.00606345,0.10851186,-0.10206741,-0.08048678,-0.043920994,-0.16289803,0.049585532,0.011140187,0.15548499,-0.10604848,0.1582307,-0.046618775,-0.14787954,-0.1864383,0.1615905},
	{-0.17603527,-0.051181436,0.033508558,-0.026687652,0.037995916,0.09839154,-0.16955759,0.07064983,0.11369634,0.0022885613,-0.13890691,0.12495082,-0.10120619,-0.16328225,-0.076322965,0.11123322,0.13012868,-0.03180056,0.011373259,-0.02975255,-0.109172225,0.07546925,0.053925756,-0.15200889,-0.16830537,0.09039502,0.10782864,-0.02726968,0.14766769,-0.08974442,-0.015819922,-0.04787024,-0.097577184,0.08565276,-0.020788176,0.078214034,0.12405557,0.06901427,0.008092262,-0.12736991,0.06455253,-0.07751352,0.12633252,-0.019014893,0.053250283,-0.071272306,0.12981911,-0.13316911,-0.16245057,-0.0323142,0.0088208625,-0.13477127,0.12296144,-0.1136482,0.13794954,-0.08287988,0.1414903,0.08703482,0.10180846,0.0731515,-0.13274209,0.09473763,-0.07026216,-0.15126932,0.023071358,0.00017966237,-0.09799347,0.06746588,-0.151884,0.10901211,-0.07369777,0.094136566,0.099286385,-0.08776755,0.14935058,-0.13631952,0.11079337,-0.14920421,0.10826442,-0.010882301,0.15000673,-0.0048213704,0.089026585,0.061269943,-0.086887635,0.15603228,0.11814119,0.15445118,-0.10743003,-0.04299837,0.14802074,-0.058232423,0.04512145,-0.16033456,-0.10583078,-0.15828063,-0.15831082,0.1690611,-0.043396436,0.15110715},
	{0.08619284,-0.1188548,-0.077379726,-0.09486016,0.11307781,0.12283698,-0.11794289,-0.06624869,-0.063611396,0.026562227,-0.023208823,0.022271985,-0.094803005,0.13411945,-0.15940689,0.09158786,0.010515869,-0.12191921,0.16524081,-0.16355503,-0.118378595,0.033902325,-0.064243525,-0.18109266,0.016268572,-0.020155802,0.15834011,-0.19035053,0.12491551,-0.046072207,-0.071103156,0.051892478,-0.15067872,0.045796912,0.019568417,0.16871135,-0.083948635,0.060007747,-0.011511509,-0.1439346,-0.15469618,-0.11870926,0.049157474,-0.13450912,0.1343919,-0.15494044,0.035692986,-0.0052117114,-0.06997396,0.13816577,-0.1403376,-0.11358148,-0.15070905,-0.18686154,0.09281879,-0.17117405,-0.16589174,0.0536819,-0.091835566,0.1447807,0.1157376,-0.13330314,0.1064826,-0.17264728,0.12230672,0.10395639,0.05739604,0.03602594,0.050013818,0.050191153,0.063772604,-0.09418185,-0.11084397,0.075101286,-0.17458133,-0.029347245,0.065402396,-0.05083006,0.10600624,0.13978334,-0.17679514,0.16354826,-0.02597918,0.061356127,0.044274405,-0.036869965,-0.07082781,-0.03135377,0.10189835,-0.08254908,-0.16304632,-0.14494391,-0.0065186066,0.0974341,-0.0931896,-0.16173495,0.09319124,-0.12171837,-0.02595546,-0.019393295},
	{-0.04015765,0.035757482,-0.1146331,0.045237564,-0.16311793,0.15069866,-0.050446164,0.07934074,0.18222503,0.086382635,0.02470605,0.102740906,-0.05505439,-0.038497854,0.07763602,0.06904042,0.02914349,-0.1061662,0.021655744,0.055315558,-0.03254286,-0.037568484,-0.06490401,-0.041340787,-0.06413227,-0.14205426,0.07262197,-0.027168354,0.09867652,-0.14257185,0.13206689,0.08308355,-0.14115378,-0.052236427,0.04852891,-0.00061218557,0.00347804,0.101088494,0.029187324,-0.1498739,-0.14631267,0.00591709,0.13326979,-0.17807703,-0.14975525,-0.11494942,0.119079076,0.08033548,-0.06558358,0.06656993,-0.15275945,0.110684365,0.019310325,0.08155171,-0.015621855,0.04948051,0.0748718,0.112265825,-0.09663439,0.15318836,0.17072517,-0.06534916,-0.10654849,0.0013518056,-0.18085283,-0.0050883824,-0.05466899,-0.17943548,-0.11715047,-0.1456158,0.15937088,-0.12867269,-0.07308985,-0.06831869,0.11464811,0.110078424,-0.054812156,-0.03116873,0.08950435,0.06731016,0.08847514,-0.004037234,-0.09484709,-0.017389463,0.019156035,-0.06256542,-0.09550448,0.02049474,0.092297316,0.0059208935,0.022027364,-0.0715937,-0.098990865,0.16373527,-0.13111918,0.066234455,0.12595646,-0.14265412,0.088283464,0.08727499},
	{-0.14725453,0.12020984,0.09497598,0.117176995,0.15035063,0.038851656,-0.07289144,0.1235234,-0.06663124,-0.01224908,-0.0138682425,-0.020202897,0.106185324,-0.10726621,-0.04857295,-0.12967622,0.05969337,0.11800646,0.03140883,-0.09154956,0.16798973,-0.15234746,0.052917674,-0.06631026,0.008823996,-0.093267575,0.035895552,-0.04565867,-0.1637023,0.06325721,-0.058781706,0.06060217,0.15927635,-0.032152936,-0.18045026,0.08771326,-0.16106619,-0.038960908,-0.00038093494,-0.047672354,-0.1804264,-0.06969775,0.059908926,-0.10619583,-0.17978275,-0.10750972,0.018795094,0.024628017,0.07802837,-0.13039976,-0.12995356,-0.104027204,-0.03342815,0.07537712,0.1030648,-0.021230754,-0.04939931,-0.07358054,0.11846071,0.0055596507,-0.15787372,0.06589061,0.10477672,0.065793514,0.058984578,-0.0007092231,-0.1310485,0.038562577,-0.17226733,-0.03329666,0.15434736,0.09787198,-0.012123322,-0.11091486,0.13744098,-0.07233865,0.036581513,-0.045716908,0.046865843,-0.016342295,0.10517488,0.109530516,0.10783587,-0.029501483,0.100911275,0.063954525,-0.05216797,-0.060912564,0.1409459,-0.005583285,-0.07041424,0.11164848,-0.090277135,0.095282786,0.0098756645,0.13278323,-0.18341415,-0.10328724,0.03391,-0.0592352},
	{0.14083347,-0.15319286,0.08519737,0.022317585,0.0067421496,0.1261838,0.0047510783,0.1125785,-0.08056968,0.028896533,0.071581006,-0.09205824,-0.08851114,-0.15086533,-0.16492794,-0.05922517,-0.16005294,0.011117296,0.17173658,-0.03173512,0.10070161,-0.1324479,0.10565666,-0.15356396,-0.18997338,0.05981481,-0.060718864,0.06320398,0.11405979,0.11427425,0.12153819,-0.07743835,0.08222207,0.15584995,-0.18596105,0.1315787,0.12746647,-0.029513417,0.08145179,0.097091235,0.007667308,-0.027589854,-0.15628771,-0.010456612,-0.07024964,0.056503512,0.050960787,0.09788705,-0.020846598,0.107876524,-0.14950567,-0.09147811,-0.10366608,-0.16621588,0.099579945,-0.08004127,-0.17148277,-0.1571424,-0.08759629,0.1650149,-0.0849033,-0.05236671,0.13726929,-0.17631778,0.11485403,0.07829817,0.115203455,-0.045402136,-0.002403248,-0.080982275,0.0027696842,0.17166616,-0.06694158,-0.0563193,-0.049356062,-0.1492721,-0.14792846,0.11112448,-0.10163579,0.04938557,-0.1689792,-0.013918504,0.13297914,-0.1849713,0.024428537,-0.17626666,0.15265158,0.027131837,-0.11676623,0.10067749,0.07961629,-0.06921797,0.02428749,-0.03931581,0.16553739,0.14340425,-0.00967657,-0.11368075,0.011605492,-0.16761413},
	{0.073154636,0.014542669,-0.15516499,-0.084044866,0.13923977,-0.19025518,0.025293164,-0.18958052,-0.182309,-0.12850465,-0.0013266334,-0.06712226,0.14801833,0.16844706,-0.09317534,-0.18166105,0.03824388,-0.031933725,0.10645172,0.074734345,-0.14736293,0.0002956198,-0.12823373,-0.11736794,-0.17465034,0.14272071,0.050950803,0.16559884,-0.109707706,-0.095223896,0.039848242,-0.019085715,-0.048872013,-0.09271034,-0.1664369,0.105420895,-0.09645979,-0.16257179,-0.008812279,0.03516429,0.05457746,-0.058699902,-0.15976329,0.044006795,0.007301981,0.08644981,0.022102902,-0.08620479,0.10515556,-0.0853539,0.11001191,0.10094752,-0.14589353,-0.07348311,-0.07197614,-0.12721696,0.10626814,-0.06067909,0.011903306,0.053232074,0.09792462,0.074028485,-0.036697067,0.17344233,0.018557576,0.07375477,-0.16724917,-0.060124863,0.14282341,0.089706406,-0.12386833,-0.18063663,0.14985715,0.0679611,0.13788141,0.1324891,-0.15825732,0.04298771,-0.14680837,-0.017490858,-0.16252679,-0.052531727,-0.14907739,0.07351991,-0.09610833,-0.07853317,0.17337455,-0.13857302,0.021149399,0.1677434,0.044971682,-0.15314917,-0.06686116,0.16146477,-0.034372766,-0.04510905,-0.057298627,-0.1247269,-0.08007098,0.026216697},
	{0.12494048,-0.091147944,-0.03907482,-0.012852081,0.005790286,-0.10199154,-0.17417327,0.08204861,0.07752587,-0.09888751,0.14010166,-0.11163747,-0.07668484,-0.093307376,0.17616849,-0.14453584,0.1352891,-0.09683157,0.0340295,0.084059015,0.059186976,0.052602056,0.17895505,-0.18123709,-0.041376356,0.105460525,-0.10232011,0.13226347,0.13547258,-0.00692455,-0.11489257,0.10889132,0.1465555,0.058250133,0.14687951,0.046339083,-0.028089296,0.15690248,0.12906088,-0.10650456,0.14449742,-0.09682268,0.13980156,-0.17954442,-0.18219343,-0.17114332,0.034830287,0.12534042,0.098253116,-0.13712974,-0.008138343,0.14055447,-0.092522964,-0.1327725,-0.031004893,-0.13466227,-0.06322138,0.1612181,0.022007817,0.12643832,-0.07376439,0.17916058,-0.06457287,-0.1252876,0.07982798,0.12586766,0.08238247,-0.1596646,0.061789144,0.16013259,-0.14297654,0.04446812,-0.020527078,-0.14689398,-0.078222424,-0.035077613,-0.16885956,0.049554206,0.016625475,0.15299231,-0.17852105,-0.182164,-0.15065442,-0.17268147,0.15316077,-0.06275701,0.10762222,0.1381786,0.117836244,0.043470733,0.10361764,0.020816151,0.07212735,0.15562889,0.14583863,0.0250438,0.09402474,0.0030568782,-0.038141016,0.123246714},
	{0.0076499055,-0.018259734,-0.003753866,-0.13177033,0.07972852,-0.13122375,-0.16049738,-0.000106662046,-0.012116643,-0.12532754,-0.01035071,-0.070804216,0.05014554,0.07976293,0.10154815,0.08545247,-0.11373084,-0.15307005,0.012933678,0.016530193,0.14345573,-0.024539119,0.07882601,-0.115732126,-0.019983536,0.15577677,-0.075940296,-0.0747453,-0.1591037,0.099562824,0.169139,0.15918243,-0.03428264,0.01963177,0.02368836,-0.07076936,-0.08175304,-0.16327004,0.044990197,-0.055345237,-0.1615613,-0.16233256,-0.061648037,-0.03112799,0.08052876,0.14774457,-0.009243286,0.030718017,-0.041778684,0.10405715,-0.16510147,-0.07636898,0.02379813,-0.07963805,-0.15712492,-0.1329956,-0.05171322,0.13499133,0.14904208,0.038726125,0.025252277,0.13219616,0.0772738,-0.1218614,0.14523561,0.09766803,-0.10937286,-0.07055287,-0.18919346,-0.117765754,-0.17657275,-0.13137649,-0.09950829,-0.13367358,-0.11109138,0.15150636,0.06875601,-0.0975589,-0.056115795,0.15667619,-0.14399333,0.16688259,0.11824696,0.10185642,-0.061840635,0.059498113,-0.030360112,0.14986923,0.1075944,-0.038978536,0.042922653,-0.07596585,-0.13138787,-0.053319387,-0.048261862,-0.104081266,0.010854867,-0.18963069,0.12960562,-0.036139168},
	{-0.10633512,-0.14372723,-0.006423971,0.17129837,-0.03874338,0.12497871,-0.16049647,0.049398817,-0.066649735,0.15772256,0.1071932,-0.12715815,0.15452124,-0.14007428,0.024880644,-0.17765485,0.09544909,0.17346191,0.04890839,-0.15528621,-0.15818061,-0.14224213,-0.005988617,-0.18342358,-0.09729411,-0.09534349,0.08469704,-0.17881106,-0.15969293,-0.022025488,0.12836994,-0.17727323,0.17679547,-0.08401682,-0.119379714,-0.08474954,-0.065922625,-0.14231792,-0.11405855,0.05017164,-0.10266174,-0.17314638,-0.015152478,0.12267714,-0.16736078,-0.057355165,0.08129846,0.11369767,-0.07419866,-0.04643862,0.079222545,-0.008628828,-0.034746546,-0.0013897386,-0.116918586,0.045358766,0.11263411,-0.13596718,-0.14764455,-0.017422184,0.04550202,-0.12854598,-0.1350088,-0.13966922,0.10372506,0.010253368,0.17845583,-0.12536535,-0.06855369,-0.027059423,-0.0049629,-0.15736632,-0.061034307,0.080740884,0.17786832,-0.033216726,0.10925779,0.044089265,0.047112454,0.04640946,0.09654811,0.093310155,0.010196642,0.048633102,0.12758744,0.1636073,-0.17773148,0.100221686,-0.09400171,-0.0020483716,-0.06881661,-0.053336103,-0.17260389,-0.053796936,-0.055178624,0.07904098,0.13637103,0.08868214,-0.16445269,0.020256227},
	{0.12386886,0.05256001,0.1666187,-0.06581756,0.093047924,0.041409884,-0.120830365,0.0887976,-0.12203964,-0.1616655,0.11791827,0.1603481,-0.09310538,-0.13912497,0.13795222,0.083516344,-0.13126096,-0.005816421,0.059676785,-0.045238897,0.046356436,0.15636812,0.16401982,-0.01974366,0.08210842,-0.08861973,-0.069841534,0.022822557,-0.03125329,-0.11118757,0.008883337,-0.13488796,-0.1816624,0.08122758,-0.08712912,-0.11227328,-0.09682764,-0.023338847,-0.10837028,0.07160964,0.13665414,-0.15028507,0.09674368,0.058909573,0.09396395,-0.08404523,0.03212331,0.1273959,-0.116788484,0.12825198,-0.120005354,0.10592946,0.025774661,-0.17662907,0.16840687,-0.11099538,-0.05305125,0.054743957,-0.07745838,0.14407669,0.047160707,0.09806847,-0.08014622,0.15542603,0.06815519,0.07840591,-0.10880038,-0.12291392,0.04499803,0.096747406,-0.1621471,0.09451486,0.1209763,-0.08868907,0.15752976,-0.07877577,0.11767126,0.10630334,-0.069539584,-0.10170162,-0.03902698,-0.051144354,-0.11305963,0.14818051,-0.17952588,-0.05033847,0.0040806383,-0.09731266,0.030368004,0.074449375,0.12062712,-0.087397724,0.11963029,-0.10155303,-0.13674518,0.0899658,-0.0380339,-0.18285137,-0.14031057,-0.066937536},
	{-0.07085351,-0.05906512,-0.144393,-0.0103442995,0.08036157,0.0136068445,-0.14843571,-0.06725237,-0.1268535,0.13628365,0.13855287,-0.10497396,-0.08783795,-0.19419596,-0.09414205,-0.059706118,0.026474651,0.089837424,-0.052933324,0.0056068404,0.052866057,0.004822549,-0.015843414,0.10173153,0.06455987,0.023798624,0.1420824,0.10345341,0.15269996,0.04864893,0.10720106,0.055372376,-0.0047626803,-0.006413164,-0.17590362,-0.048626725,0.046349537,-0.05893989,-0.1670364,0.15810587,0.07193073,0.11650716,0.06617641,0.0011553434,0.024381315,-0.10730636,-0.16336313,-0.07364791,0.13023761,-0.048710205,-0.1316494,0.12280213,-0.0025249934,0.041689295,-0.00036429992,-0.062810265,-0.0028707744,0.076881826,-0.005100865,-0.05996223,-0.07632155,0.00555774,0.12029562,0.121106565,0.011373471,0.045293696,-0.16771485,0.109516814,-0.12082647,0.03888504,0.06648065,-0.030539349,-0.12878942,-0.017648932,-0.077170685,0.10074801,-0.13238028,0.11732019,0.12314186,-0.084922746,-0.09693797,-0.12707718,-0.04193986,0.11618309,0.040975384,-0.06651384,-0.03007447,0.11186887,-0.09732044,-0.028289301,0.07725473,-0.14406775,-0.08328053,0.0010650804,0.12542759,-0.009444158,-0.019961122,-0.025993958,0.020257907,0.16121715	}
};