// include/conv2d_3047_weight.h
// sergio rivera 
// 2020/02/15 02:35:28 

const float conv2d_3047_weight_p[3][3][15][2]=
{
	{
		{
			{0.19317819,0.028123774},
			{0.11624876,-0.006201084},
			{0.17578407,-0.1539331},
			{0.1879571,0.10345962},
			{-0.11672817,-0.09175877},
			{-0.050506957,-0.1385092},
			{0.0542034,0.12856305},
			{0.15158008,0.18476005},
			{0.116474204,0.17314853},
			{-0.17635068,0.03138986},
			{-0.18047084,-0.07834294},
			{-0.114749104,-0.111873135},
			{-0.10253241,-0.18952586},
			{0.19620603,-0.15125364},
			{-0.13359033,0.024513016}
},
			{{0.008566261,-0.18647183},
			{-0.08109509,0.041181143},
			{-0.112173826,0.15903479},
			{0.11042387,-0.18435435},
			{-0.04828954,-0.15405393},
			{0.047985204,-0.17157008},
			{-0.048995383,-0.036075853},
			{0.08201211,0.002628465},
			{-0.093182415,-0.15425737},
			{0.028705152,0.14682919},
			{-0.017596824,-0.034514382},
			{-0.052977707,-0.123226054},
			{0.06552917,0.18225712},
			{-0.19758607,-0.07481041},
			{0.08883033,-0.08101151}
},
			{{-0.10663813,0.010753319},
			{-0.031964786,-0.16505477},
			{0.052647322,-0.021041501},
			{0.14278056,-0.19767551},
			{0.06491148,-0.12120878},
			{0.031352635,-0.058121458},
			{-0.051937908,-0.09011823},
			{0.021138145,-0.070061594},
			{-0.065021925,0.1638608},
			{0.027252704,-0.16970779},
			{-0.13883182,-0.17705311},
			{0.072237685,-0.120143905},
			{-0.017084803,0.15287882},
			{-0.0019351586,-0.010846427},
			{-0.14631078,0.03760889}
}
},
			{{{0.16178732,-0.110032275},
			{-0.027613249,0.019508049},
			{-0.060800776,0.069906406},
			{-0.10807866,0.0895832},
			{-0.12207057,-0.04741317},
			{0.018216984,-0.18700118},
			{0.06015278,-0.12170311},
			{0.13721505,0.079451814},
			{-0.16908003,0.03927917},
			{0.024487888,0.06045408},
			{-0.15530032,0.13414742},
			{0.16051567,0.004474877},
			{0.1678327,-0.17339903},
			{0.034678966,-0.15792133},
			{-0.01860319,-0.12309057}
},
			{{-0.19334644,-0.050956342},
			{-0.017235857,-0.07917252},
			{-0.17831777,-0.18194702},
			{-0.18753645,0.15774494},
			{0.0015628305,-0.11458197},
			{-0.09138473,-0.15890603},
			{-0.04753397,-0.137722},
			{0.043342505,0.18469259},
			{-0.04912708,-0.03924097},
			{0.061085045,0.17755003},
			{0.13925044,0.06614714},
			{0.05229715,-0.02073835},
			{0.12696472,-0.12815405},
			{-0.16817354,-0.13303322},
			{-0.019621372,-0.08972144}
},
			{{0.11128757,-0.19354591},
			{-0.18388414,0.11988231},
			{-0.065897755,-0.06301324},
			{-0.19336307,-0.16255215},
			{0.036015764,0.12303562},
			{0.16821755,7.232558e-05},
			{0.09152044,-0.045006666},
			{0.04588801,-0.1566924},
			{0.065614596,-0.09576066},
			{0.038865097,-0.050225567},
			{-0.17402487,0.19112247},
			{-0.03289979,0.1953028},
			{-0.16155359,0.14767294},
			{-0.15701266,-0.13693327},
			{-0.023679415,0.07866518}
}
},
			{{{0.14719094,0.060092952},
			{0.19730024,-0.16346385},
			{0.013569438,0.009864664},
			{0.15310022,0.15204822},
			{-0.087018974,0.087557375},
			{-0.06219903,-0.029546844},
			{0.044513993,0.103862576},
			{0.045995478,-0.016805787},
			{0.05296417,0.050949957},
			{-0.12296912,-0.08840057},
			{-0.16225377,-0.07122859},
			{-0.020492615,0.02468423},
			{-0.09180821,-0.110613205},
			{-0.00036302683,-0.18997975},
			{-0.021418754,-0.0131098395}
},
			{{-0.1587343,0.12974893},
			{0.012681682,-0.056639098},
			{0.052751847,0.120728716},
			{-0.038726427,0.034440644},
			{0.021090131,-0.07921785},
			{-0.13771547,0.12739655},
			{-0.14791983,0.070814535},
			{0.1342163,0.19052026},
			{-0.10086677,-0.03970042},
			{-0.1713727,-0.093731776},
			{0.16587375,-0.17145036},
			{-0.07990308,0.028674535},
			{0.15085267,0.12691526},
			{0.1731533,-0.012468834},
			{-0.093754195,0.16128623}
},
			{{0.15857758,-0.16841955},
			{0.05066651,0.117363565},
			{0.10620295,0.09753829},
			{-0.13180962,0.09139614},
			{0.03559623,-0.14337555},
			{-0.15467973,-0.072096646},
			{-0.09191723,-0.14191969},
			{-0.03836436,0.17134878},
			{0.06385721,-0.1252353},
			{0.15773661,-0.17373322},
			{-0.10660154,-0.09734155},
			{0.10876956,-0.07664878},
			{-0.138785,0.14171465},
			{6.807677e-06,0.10928235},
			{-0.061517674,-0.030485693			}
		}
	}
};