// include/dense_2463_weight.h
// sergio rivera 
// 2020/02/15 02:35:32 

const float dense_2463_weight_p[106][108]=
{
	{-0.16089073,-0.06273049,0.028733047,0.15332334,0.12281672,0.114339806,0.019801557,0.15778369,-0.056533415,-0.14597392,-0.053626847,-0.14618833,-0.11998634,-0.09986196,0.06707168,-0.13572836,-0.15548925,0.05150895,-0.04812271,0.13801296,-0.08749244,-0.07774241,0.08872638,0.10960232,0.08263766,0.09411055,-0.10597384,-0.088973366,0.08017609,-0.057674922,-0.107452996,-0.008901209,0.16338877,0.026154911,-0.050798945,-0.15501139,0.0963486,0.045575872,0.14079913,0.08198708,0.068141036,-0.1592373,0.13630873,0.048924692,-0.15048797,0.045039546,0.043641005,0.007334575,0.108244054,0.03193727,-0.1603619,0.026465377,0.011629041,-0.052561007,-0.01437057,0.07765235,0.047434703,0.13947368,-0.0044354815,-0.03211586,0.110349745,0.113467984,0.033154134,-0.06924558,-0.109172754,-0.002168046,-0.053955413,-0.103653856,0.028054304,0.12689538,0.12978853,-0.11053367,-0.04659197,0.037084907,0.08048116,0.107511334,-0.16338068,-0.09243471,-0.05798869,0.058595285,-0.10400234,-0.069839455,-0.022254175,-0.14691205,-0.14302255,-0.114460036,0.029448539,-0.025476249,0.107044026,0.053605806,-0.038152162,0.12688594,0.14923383,-0.04891099,-0.14870241,-0.10683465,-0.08185511,0.11008824,-0.13607793,0.05924481,0.12205159,0.10958274,0.0332558,0.14016066,-0.06250364,0.08107031,-0.13173965,0.10196439},
	{-0.033463936,-0.101403624,0.02434988,-0.11387883,-0.0035005577,0.05296342,0.04649718,0.07091554,0.030433549,0.071664095,0.03782001,0.0968274,-0.104817785,-0.0666415,0.011683956,-0.0993366,-0.0654108,0.12404446,-0.06518109,0.052859664,-0.07311473,0.11546014,0.08142008,0.09178467,-0.011878428,0.14241888,0.0012460948,-0.13755731,0.11669684,-0.08511517,-0.09431977,0.010161361,-0.0026800507,-0.1459611,-0.12061179,-0.14952268,0.06334892,0.14795618,0.11611025,-0.05168343,-0.038550537,0.016659722,0.12627843,-0.107772745,-0.11712084,0.12649824,-0.15051107,-0.15848501,0.027581813,0.0921646,0.15447006,0.09578222,-0.12539777,-0.0063144863,0.08545345,0.11913734,-0.025068939,-0.081244186,0.039605442,-0.14360528,-0.007303341,0.15855853,-0.044205144,-0.12014977,-0.057675056,0.027118316,-0.0663882,-0.018471807,0.03213375,0.13907728,0.07151072,-0.023602035,0.1586485,0.14911635,0.12070833,-0.059312925,-0.115223974,-0.15794241,-0.013840205,-0.09476925,0.1384121,-0.15052,0.07332244,-0.048026428,-0.008900015,-0.06542408,0.153594,0.088503115,0.013460398,0.06389944,0.026277969,0.08545296,0.16165078,0.01150839,0.0066907285,-0.11735107,0.13883969,0.14655456,-0.033524502,-0.08619367,-0.038474694,0.009076908,-0.1278747,-0.1530044,-0.03911023,-0.029121509,-0.02140373,-0.076583564},
	{0.16377878,0.13598634,0.08627063,-0.06560455,-0.06272376,-0.010540277,0.059044644,-0.1449334,-0.11308964,-0.15817183,-0.11137858,-0.07052764,0.017242188,0.07827404,-0.09883052,-0.15570076,0.033642754,0.06551252,0.06591359,-0.019569898,-0.13558897,0.098803446,0.10129359,0.020321654,-0.030956976,0.07280851,-0.010305232,-0.08093295,0.053554703,0.16258281,-0.09314192,0.0005488191,0.05578737,-0.12443083,-0.036577,-0.11491138,0.044041395,-0.16494419,0.0071201175,-0.16550353,-0.067056105,0.10786228,0.12539946,-0.07371752,-0.001323238,0.048020117,-0.12567092,-0.06514069,-0.1401148,0.1049195,-0.09742295,0.112568416,0.0019786833,0.027662173,0.10188177,0.08393983,0.114591435,-0.07415933,0.1105797,-0.0140986955,-0.1277666,0.10411505,0.15014969,-0.012772678,0.145685,-0.050405182,-0.12526135,-0.03210126,0.043613218,-0.116552174,-0.098531105,-0.10853811,-0.049658746,0.137078,0.16457321,0.09705867,-0.09128618,0.07722691,-0.16786338,0.14377551,0.029812038,0.13968365,0.123211086,0.10739139,0.08343727,0.09797155,0.009807482,0.02730093,0.09892015,-0.16376275,0.007344002,-0.045693476,0.10692259,-0.049652472,-0.1572882,0.06954073,0.009351627,0.120314464,-0.04177762,0.11609508,-0.12826881,0.008394539,0.11845712,0.040962834,0.14921013,0.1422683,-0.038515523,0.14118949},
	{0.1076483,0.08776978,-0.10437504,-0.14561638,0.0535656,0.15519296,0.10999443,-0.088725924,-0.045315694,0.14153324,0.12223072,-0.029634193,-0.1196834,0.09741372,-0.117067225,-0.103156626,0.08313273,0.07798374,-0.16719113,0.10472719,0.076764524,0.0718334,0.022238089,-0.112575576,0.11676787,0.11886668,0.11630765,0.12183334,0.004477611,0.10378525,-0.13085721,0.11256897,0.049872834,0.08597019,0.11457236,0.043446362,-0.054870278,0.08372767,0.09070264,-0.016938454,0.063492574,-0.042277306,-0.11938479,-0.07532519,0.13030396,0.03517639,0.045238774,-0.04557044,-0.029375954,-0.06739679,-0.08145337,-0.06667092,-0.14467238,0.06298596,-0.101987526,0.0479565,0.121009454,-0.16003196,-0.0371909,0.043898623,-0.15068914,0.03969506,-0.022144245,-0.1319334,-0.07343809,-0.015728472,-0.1717852,-0.067432515,0.0281321,0.013369672,0.022694886,-0.16657174,-0.0608448,0.023463557,-0.05701302,0.12518449,0.1317255,-0.051193513,-0.11903542,-0.13147393,0.05311872,-0.03637153,0.011312176,-0.16222635,-0.108814165,0.13580173,-0.090927385,-0.021912696,-0.033452604,0.11605312,-0.115751036,-0.04814789,0.13583064,-0.12501152,0.034876097,-0.07245334,-0.13955235,0.02525658,0.15660205,0.12174748,-0.08728888,0.10965727,0.026364326,0.1652282,0.1161109,-0.10236333,-0.062124327,-0.14993075},
	{-0.095528275,0.075295,0.09239251,-0.027940532,0.12655798,-0.16364376,-0.007796918,0.06065832,0.15530935,-0.030309781,-0.02232644,0.04283242,0.03798825,-0.104950465,0.13088042,-0.14386494,0.13985313,0.06806187,-0.12104638,-0.110231735,0.00477387,-0.036242597,0.06415459,-0.12574881,0.10241039,0.12878163,0.055369776,-0.0708648,-0.048022315,0.12562339,0.13465884,0.15179025,-0.019672722,0.10013782,0.104542375,-0.1065788,0.00975389,-0.1671103,0.13449672,0.16186512,-0.084488414,-0.074290596,0.033524383,0.040077835,0.008761138,0.15485503,-0.12829496,-0.06969534,-0.13606675,-0.029203117,-0.06677432,-0.15200804,0.030843288,-0.017377913,-0.08011089,0.070279226,-0.14094958,0.13948883,-0.08686352,0.12129022,-0.10242676,0.13719718,0.05120685,0.11540019,0.019182049,-0.13761659,-0.11960121,0.01572822,-0.1265145,0.15066306,0.08623545,-0.11456469,-0.1556849,0.16579838,-0.00088366785,0.09970147,-0.026814798,-0.044876,0.056960016,0.1540869,0.11268408,-0.100416206,-0.07018461,-0.05731812,-0.030713977,0.15401103,-0.018795406,-0.12172265,-0.04374396,-0.09229345,0.1541245,0.03415875,-0.08556187,0.079402745,-0.120566756,3.6140846e-05,0.080643356,0.10458368,0.059264112,0.02199294,0.0049789455,0.03640205,-0.14804336,0.07324903,0.048153795,-0.04199512,0.15916328,0.006516312},
	{0.02373743,-0.013873558,-1.0640593e-05,-0.106140345,0.103157036,0.02399601,0.15334235,-0.12570232,0.12883519,-0.051308624,0.064809024,0.06683524,-0.13882793,0.07868967,0.08273301,0.15516944,0.009840414,-0.06752034,0.0001492881,0.06286483,0.008773342,0.13785607,-0.13643718,0.041238815,-0.1236129,0.12907822,-0.15048787,-0.007047981,-0.01819095,-0.13893437,0.04428617,0.112879746,0.049671516,-0.08138686,0.06472173,0.16328023,-0.10738092,-0.02298291,0.10007984,-0.13917153,0.015692534,0.14262646,0.15168487,-0.10164277,0.05415304,0.019974813,0.07752216,-0.08000188,-0.1067529,0.15749611,-0.16731189,-0.13926156,-0.12143825,-0.12257115,0.12487375,-0.04944653,0.107971266,0.0065758824,0.010563478,-0.013828278,0.09205186,-0.07178553,-0.13981552,0.15122342,0.13477744,0.03530258,0.14775921,-0.16028164,-0.1311217,0.04184528,-0.1238333,-0.14675152,-0.15434198,0.117087916,0.13319272,-0.04359503,0.16391581,0.1466798,0.034315437,0.04858412,-0.07701531,0.054331616,0.13279547,0.06295156,0.030189883,0.15898405,-0.018045114,0.1226878,0.07772459,-0.0056798905,0.07341263,0.10991946,0.10532273,-0.13933228,0.13552497,-0.13429135,0.06450315,0.103753716,0.06413582,-0.070824005,-0.095162585,0.076218516,0.12794624,0.15698752,-0.1548183,-0.067704074,0.11346054,-0.076445006},
	{-0.054416493,0.06749229,-0.060932707,0.032968234,0.0017998586,0.03289342,0.043126978,-0.1270601,-0.09289313,0.09148492,0.06398568,0.005199477,-0.12607041,0.07424914,0.012280944,-0.10714888,0.16125067,-0.04708056,0.03080921,-0.052876666,0.08146064,-0.11437999,0.051054917,0.026005909,0.15749657,0.025605053,0.12397018,0.034932196,-0.08515894,-0.10288812,0.1392729,0.09911588,0.09571581,0.14458756,0.05227551,-0.021994531,0.098912165,0.03022112,-0.05680286,-0.0062832795,0.05613313,0.031127809,-0.0067870594,0.07362015,-0.109300464,0.13695736,0.0478743,-0.06758228,-0.104618445,-0.0010578036,0.031513214,0.07990704,0.003018722,-0.14634687,0.018315407,-0.06625641,-0.055713467,0.12879075,0.15952323,-0.13117127,0.11188774,-0.1288258,-0.027560547,-0.11154806,0.16330314,-0.01974219,0.015255585,-0.15180579,-0.16400978,-0.1596846,0.009982035,0.10216291,0.16150646,-0.112850256,-0.14290766,-0.08520871,-0.08538414,-0.006973833,0.13482426,0.07269728,0.04123358,-0.049681537,0.12486803,0.06193164,0.07419201,0.079873666,0.0038508377,-0.015424258,0.0036991916,-0.03572336,0.057891354,0.06250664,-0.09307064,-0.09820779,0.06961283,0.041647375,-0.028491303,0.0410802,0.06373751,-0.013255202,0.1296932,-0.026557254,-0.04033204,-0.06127381,0.035223257,0.022605905,-0.050929345,-0.073821954},
	{-0.06886398,-0.12618363,-0.057987493,0.14112706,-0.16534089,-0.0596606,0.16372378,0.15341319,0.09121338,-0.13996363,-0.13392456,-0.13052139,-0.08642829,0.08609185,0.046086714,0.12942027,0.077512145,-0.019687504,0.052691374,-0.16370612,-0.074648954,-0.12780844,0.14504416,-0.06788889,0.12429192,0.10274044,0.030335424,0.15061544,0.03380082,0.07213239,-0.16073656,0.056528986,-0.11074426,0.14712203,0.12616383,0.021292627,-0.09113099,-0.16396207,0.037103206,-0.07786622,0.007469682,-0.13887864,0.0032345366,0.06487283,0.13786279,-0.00802269,0.13463895,-0.16641079,-0.14391735,0.10727608,0.0058972435,0.08680778,0.07863859,-0.12776966,0.12563688,-0.098147765,0.039400548,0.13221017,-0.08699807,0.10474081,0.0714774,0.08153164,0.059865788,0.064622045,-0.077020064,0.06328544,-0.026529003,-0.16588378,0.034270614,0.023601081,0.14304312,0.006496481,0.0045626163,-0.010181042,-0.115225635,0.015883684,-0.12551183,-0.17218074,0.073546655,0.009378925,-0.09840715,0.1102813,-0.01662152,-0.0084686,-0.037776522,-0.016607862,0.032471463,-0.08181416,0.15218814,-0.06429067,-0.0032915631,-0.114045665,0.124274835,-0.016110674,-0.15689483,-0.03462841,-0.07476592,0.03562897,0.050226416,-0.017437786,-0.16437364,0.03089483,-0.12845486,0.096262105,-0.13451812,-0.020434381,0.14413716,-0.09708867},
	{-0.10561717,-0.019139066,-0.025003443,0.037800588,-0.062271025,0.052144095,-0.06571135,-0.15843491,-0.135688,0.08060615,-0.059541937,0.15748556,0.06801442,0.14429438,-0.11007188,0.0048042876,0.05502078,0.1357434,0.12385804,-0.10454922,-0.16137551,0.14973925,0.10628172,-0.06411663,-0.13728264,-0.07763972,0.12729102,-0.04412716,-0.14053503,0.13276656,0.078809135,-0.055707645,0.12008697,0.08471941,-0.121243455,0.04515107,0.12536937,-0.12580456,0.16138512,0.08967643,0.13287115,0.0020441236,0.129077,-0.046292894,0.083885714,-0.060784638,-0.10183792,-0.13800144,-0.054672666,0.060846195,0.14357264,-0.1409888,-0.020001542,-0.13372606,0.095441855,-0.05633607,0.1538891,0.08194085,-0.019010296,-0.16029231,0.029595261,-0.06992501,0.074515715,-0.022209799,0.0066479426,0.03164704,-0.16063276,0.0475415,-0.08740286,-0.047837637,0.100865714,-0.055514004,-0.12109268,0.06323755,0.08185898,-0.07712093,-0.0015097893,-0.10447118,-0.15887932,0.026383618,0.034004446,0.008136543,-0.071116224,-0.0056801355,-0.13510962,-0.1312826,0.009845418,-0.024869598,-0.166974,-0.1570392,-0.023162436,0.03674809,-0.047282323,0.075459205,-0.07504494,0.007608848,-0.05001253,0.05503207,0.11354883,0.16707642,-0.0534463,0.031143837,0.059877023,0.11330992,-0.08440307,0.061489563,0.044341754,-0.008835245},
	{0.13996585,0.17169465,0.15154368,0.15711954,0.0028212578,0.0029498488,-0.12554587,0.16717386,0.11852623,0.1258048,-0.14569382,0.12628482,-0.11194521,0.04686183,-0.12133825,-0.06329248,0.07095668,0.07831769,0.118406855,0.1444681,-0.02055867,0.13070153,0.114725105,-0.15994093,-0.056959406,-0.14539112,-0.1259128,0.10990201,0.09694934,-0.086808465,-0.086975135,-0.10940818,-0.100539714,-0.1662075,0.120921485,-0.09287716,-0.11631246,-0.047163278,-0.13484383,-0.006459495,-0.07795139,-0.16523637,0.051781077,-0.06773106,-0.005154729,0.0908363,0.111519136,-0.059820086,0.1475951,0.014439728,0.09631774,-0.118011504,0.14800717,-0.14387967,0.08738304,0.166889,0.07682955,0.14549889,-0.1297749,0.14345749,-0.081266835,0.15953174,0.08880218,0.13061464,0.11647709,0.12015358,-0.096210115,0.124203876,-0.0007464414,-0.11589862,-0.14832267,-0.07867173,-0.08890503,-0.06887789,-0.14089094,0.09103231,-0.017097227,0.10365072,-0.07757848,-0.15967703,0.12146421,0.12577178,-0.10777094,-0.02428604,-0.11642839,-0.13069956,-0.054663178,0.031027751,0.07537932,0.0470512,-0.09806068,-0.02736458,0.10201186,0.03495486,-0.114696175,0.07631514,-0.02520434,-0.06353339,0.13546425,-0.087902196,-0.095624775,0.06620452,0.060497258,0.0609337,0.12717435,0.12629592,-0.15387139,0.032544766},
	{-0.13189115,0.068995096,0.02116453,-0.08355176,0.011246052,-0.002700188,-0.10680804,-0.084394276,0.15108122,-0.10154983,-0.1203016,0.046611756,0.07808895,0.079736225,0.13795532,0.12858914,-0.1327091,0.00066776574,0.069387354,-0.04577811,-0.063818365,0.020634081,-0.16013598,-0.043509364,-0.038408846,0.070192814,0.08808796,0.030996472,0.00074900687,0.11238228,0.038484007,0.12875304,-0.08728209,0.071970016,0.10274784,0.08696501,-0.07038577,0.023945421,0.062673025,0.11565347,-0.07936556,0.14468731,0.12414554,0.0795967,0.023419619,-0.035831228,-0.02234967,0.066002615,-0.051365435,-0.06116353,0.050245434,-0.03251708,0.09237115,-0.13363253,-0.15216722,0.064216934,0.022071257,0.049066193,-0.13801621,-0.13419782,0.13821721,0.10126428,0.10809674,0.12062205,0.048922684,0.11484818,-0.077167295,0.0507185,0.14735769,0.164821,0.1497649,-0.06580833,-0.032171607,0.05379127,-0.0070328517,0.10471234,0.05108944,-0.02410838,-0.06924692,0.12452884,-0.13330317,-0.14155622,0.08111694,-0.12873264,0.079160295,-0.04241805,0.03637489,-0.101049125,0.14484423,-0.12565401,0.11436465,0.09898033,-0.11329813,-0.015142771,-0.0014786124,-0.09529889,-0.11556816,0.13088635,0.1464777,0.0007979705,0.031344973,0.15706101,0.14179334,0.06895895,0.026442017,-0.04575777,-0.011387842,0.08315796},
	{0.15361843,0.020795545,0.039900325,-0.1175157,-0.16472207,0.066334106,0.102001324,0.088266805,0.14292452,0.06854133,-0.0829413,-0.09717123,0.08040697,-0.019329723,0.10663676,-0.12465185,0.11808412,0.02124983,0.1508431,0.047980826,0.12351639,0.11118317,-0.033892006,0.016104765,0.018673755,0.12649257,-0.07208877,0.15435278,-0.01204896,0.064871155,-0.13090435,0.105990216,0.15709557,-0.14512873,0.113207065,-0.078111924,-0.04592419,-0.020595238,0.085787125,-0.09627587,0.15480721,0.10222095,-0.055673882,0.08474821,0.06519586,-0.09234592,0.01869061,0.111698344,-0.05343809,-0.14317684,0.032560058,-0.14379428,-0.04516338,0.07237749,0.006535037,-0.10766501,0.13992308,0.042330746,0.11883127,-0.117484964,-0.0729198,-0.11397518,-0.006693544,0.037429124,-0.16635181,0.12462227,-0.05083687,0.06950672,0.009129405,0.040788423,0.12609048,0.055823117,-0.027592465,0.011380717,-0.1358057,0.13672127,-0.15025412,-0.0647885,-0.14791264,0.0038822924,0.12642112,0.081044115,-0.005667733,-0.110867426,0.014929433,0.102306366,0.15587571,0.07727864,-0.01231581,-0.10929369,0.07660848,0.1064033,0.08273164,0.021945871,-0.08109527,-0.06646146,-0.041243285,0.00910034,-0.075009234,0.042905737,0.01131427,0.10864418,-0.045324404,-0.12713453,-0.094511874,0.1437575,0.003085039,-0.06942822},
	{-0.07687586,-0.092310786,0.1103036,0.16170281,-0.052413166,0.13257927,0.15779035,-0.12649624,0.17401442,-0.14495124,-0.0853631,-0.15615849,-0.1542107,-0.058418915,-0.0121859135,-0.002041207,-0.16171344,0.010481477,0.079481535,0.052547913,-0.13933778,-0.015215665,0.057823084,-0.06444539,0.10480009,0.00909233,0.13070753,0.12227042,-0.021692595,0.1622419,-0.103307314,0.09514552,0.07711538,0.051327046,-0.16121411,-0.11711505,-0.0002374202,0.059131235,-0.14389658,-0.06843448,0.11586404,-0.12305508,0.12039268,-0.030915482,0.11770345,0.14099993,0.08616523,-0.06051053,-0.13222085,-0.00770585,-0.052462906,0.03562746,0.027220383,0.07324551,0.029648295,-0.097993396,0.033899218,0.12862258,0.04756378,0.041148253,0.032198552,0.03804041,-0.025707424,0.0077563347,-0.030469796,-0.07544057,-0.017260361,-0.11591309,0.15392841,-0.09345154,-0.008824974,-0.09250071,0.0468543,0.1059022,-0.15512569,0.007836081,0.1352449,0.1249881,-0.15246497,-0.10699647,-0.017015059,-0.1191001,-0.018547352,-0.019864334,0.03369358,-0.088968925,0.06308613,-0.055320904,0.13840024,0.026617082,-0.04379021,0.08654497,0.13350312,-0.05602408,-0.0678898,0.058553997,0.00037256442,0.06215676,-0.058900528,0.051452108,0.035313368,0.031937465,0.08272462,-0.11895788,0.15839708,-0.031099258,-0.15090932,0.061537605},
	{-0.03149221,-0.13054784,-0.015180404,-0.028549192,0.079635344,0.15624316,0.057826117,0.036623094,0.16888776,-0.11665499,0.14773503,0.15122576,-0.10403133,0.08000043,-0.060625542,-0.1160555,0.08257069,-0.024129823,-0.08841914,0.021819992,-0.14553978,0.16618083,-0.08083537,-0.007091506,0.100869395,0.05214605,-0.037186503,0.026492909,0.03701043,0.06799166,0.15025412,-0.014825643,0.11258178,0.041245155,0.14276357,-0.005504161,-0.076667555,-0.062062606,-0.12335112,0.11164654,-0.076105356,-0.03744942,0.14861661,-0.12572655,-0.13084511,0.05509729,0.13014665,-0.116779506,0.015656324,0.005862326,0.046853546,-0.16905054,0.11066668,0.055816457,0.14092408,-0.14323573,0.064606026,0.026773615,-0.11776482,-0.06989801,-0.06793233,-0.08519927,-0.10098414,-0.10253433,0.029509198,-0.15856612,-0.016716797,-0.12803355,0.1503206,0.07911319,-0.12071,0.1334983,0.038370036,-0.016470533,0.16638818,-0.014777339,0.0041884165,0.15487719,-0.14849432,0.01516101,-0.108944476,-0.013967678,-0.06926387,-0.017586797,-0.08930043,-0.16005124,-0.112683825,0.008280936,0.012832355,0.05069925,0.016191265,0.035625648,0.14388187,0.036982406,0.06749013,-0.16211972,0.017733604,-0.081948385,0.15944135,-0.062216174,-0.09302669,0.012990117,-0.13948488,0.08889331,-0.0033046682,-0.013555489,0.10855545,0.16182508},
	{0.15460755,0.15630493,-0.07643396,0.13344707,-0.017269768,-0.081044436,0.06159484,0.08130291,0.040531754,-0.021081284,0.046004504,0.13039,0.0070693856,0.12700541,0.09794391,0.0645071,0.021778196,-0.09524811,0.02837465,0.08251993,-0.06337787,0.1317484,0.13690445,-0.16314216,0.06530318,-0.107130915,0.06587181,0.12695877,-0.095449395,-0.10666019,0.11862594,-0.006457575,0.16482262,-0.13357796,0.10990848,-0.020528972,0.12440339,-0.11735099,-0.15725996,0.13877411,-0.04000618,0.14250982,0.15740043,0.16313043,-0.13573332,0.056139782,0.04047568,-0.11929079,0.03229828,0.010751262,0.074361116,0.10987115,-0.12574807,0.034143537,0.0031379953,-0.112017274,-0.013247132,-0.08563278,-0.16086602,-0.11610894,0.0904553,0.15278055,-0.11565387,0.025578525,0.14913541,-0.10228179,-0.0017530769,-0.008295968,-0.077315204,-0.099528186,0.14345855,0.0077465833,-0.114690445,-0.03175251,0.069822565,0.11385742,0.16365898,-0.06261233,-0.12891047,-0.11332549,-0.045063473,-0.1640647,0.12667254,0.068005234,-0.105293065,0.054384172,-0.04128075,-0.10746886,0.06592673,-0.0017633438,0.14398822,0.09548563,-0.109037176,-0.11139303,-0.14217101,-0.034117192,0.04891847,-0.12525913,0.077679776,-0.066873014,0.08106892,0.049144022,0.11793737,-0.0795597,-0.16641705,-0.04033545,-0.07414167,0.059637923},
	{-0.024847914,-0.15263145,0.040766656,-0.10301621,0.0192015,0.14790279,0.08755594,-0.08669316,0.09460523,0.01890631,0.017236002,-0.12463292,0.05085955,-0.029308427,0.16643202,0.04928439,-0.10354759,0.11153485,0.0997987,-0.14659336,-0.09643821,0.054774873,-0.011976801,-0.15394154,-0.1362503,-0.029629074,-0.11824707,-0.022603653,-0.042300634,0.14030352,-0.017771535,0.16711007,-0.046525538,-0.10720756,-0.11210544,0.034219667,0.08110964,-0.005651474,0.13935956,0.0835016,0.16076428,0.025982792,-0.16640182,0.037924938,-0.15061118,0.022565126,-0.071082786,-0.103243984,0.10786643,0.07789768,-0.12965934,0.11113718,0.04923468,-0.16106388,0.14419538,0.08359516,-0.009044737,0.0102318805,-0.070045665,-0.1440655,0.07563806,-0.033279054,0.076462,-0.118755825,-0.03811882,0.13841666,-0.12328543,-0.09825078,-0.10061789,-0.09138714,0.15037927,0.100432016,-0.09386768,-0.057462677,0.111955054,0.105199315,0.076037556,-0.12354763,-0.09602039,0.02575656,0.13302772,-0.047019467,0.13350534,-0.124539815,0.053672653,0.07965925,0.10374618,-0.16238557,-0.093635574,0.15152137,-0.15165335,-0.06586203,0.023784135,0.10127588,-0.086124524,0.09445443,0.044553995,-0.07566198,0.072559774,-0.07321443,-0.09566296,0.014709966,-0.016679112,-0.08014621,0.14371419,0.059278972,0.018245738,-0.012776102},
	{-0.13253084,0.12045478,-0.08109472,-0.123940736,0.11936133,-0.1478809,0.0739871,-0.015585616,0.17127939,0.08980335,0.100883536,-0.11031028,0.029007912,0.030871166,0.13364466,0.039578196,-0.054645836,-0.09213538,-0.119891204,0.079457454,0.1384608,-0.030813232,0.023349995,0.037105687,-0.08227629,0.113265924,0.061275285,-0.10469298,0.09499463,-0.0017851543,-0.14038529,-0.018417079,0.0947705,0.0028142894,0.13470973,-0.15358223,0.13509558,-0.03944394,-0.09835697,0.14429826,0.13696522,0.031330094,0.041999307,0.03675128,-0.057049684,-0.11555736,0.04463167,0.021237895,-0.1486266,0.10849656,0.10517219,-0.110976726,0.123782896,-0.1596651,-0.107830286,0.057266343,0.060480595,-0.15396373,-0.14384563,0.07236137,-0.06684299,0.0336438,0.11511476,0.0507781,-0.02882357,-0.042993266,0.08292584,0.010441959,0.13976887,0.022138545,-0.10581334,0.1234214,-0.09770685,0.07783854,0.07253568,0.039176747,0.011917027,0.10496187,0.048570823,-0.107551694,-0.053600848,0.0511913,-0.13773218,0.06577328,0.03862677,0.14425747,-0.08543803,0.16212693,0.130608,-0.036990836,-0.037172914,-0.021919519,-0.08714606,-0.109879285,0.12292619,-0.014993004,0.055475947,-0.03049548,0.07028108,-0.040575847,-0.07240346,0.006817743,-0.017689982,0.16123429,0.03015675,-0.050850905,0.07456808,0.10932488},
	{-0.035169628,0.11180448,0.077538,0.16172624,0.14446053,-0.16439906,-0.13489337,-0.066342525,0.039401967,-0.11346154,-0.16156428,0.056918845,0.031216642,0.008372116,-0.14587131,0.14059365,-0.05297775,-0.163756,0.06808562,0.029082047,-0.13243507,-0.11592451,-0.0017244704,0.15354429,-0.004254558,-0.04863416,0.00434939,-0.091881715,0.0055436236,-0.01696334,-0.13660637,-0.08199013,0.05155901,-0.060453165,-0.12968834,-0.16174929,-0.09838316,-0.14916381,-0.1326813,0.03489577,-0.117889315,0.09536405,0.061300416,-0.096321486,0.045215458,0.034916215,-0.07379844,0.06800352,-0.15519226,0.14540808,0.013739376,0.14842272,0.076873064,-0.08845875,0.065240666,0.07346176,-0.106802076,-0.067203,0.1436501,-0.14461315,0.040991582,0.11052369,-0.15221739,0.09813203,0.019732727,0.017343273,0.036650933,0.063172996,0.14803134,-0.16383517,-0.012666389,-0.12718406,0.14940277,0.017174697,-0.029404135,-0.1460807,0.027432408,0.092875294,-0.1496047,-0.12050748,0.15671216,-0.13313878,0.081489794,0.15665706,0.08628039,0.15547684,-0.08155295,0.04053181,0.12067203,0.16568479,0.14690803,-0.12587655,0.05662757,-0.03812547,0.020743424,0.16241327,-0.06981996,0.03369818,0.04909784,-0.06252935,0.07953578,0.15769605,0.034517847,0.13752909,-0.0006938021,-0.1450119,0.038982525,-0.031929694},
	{-0.13960999,0.06556043,-0.00824569,0.095352545,-0.001364589,0.012674812,0.0708878,0.011337219,-0.083323605,0.15983789,-0.15202127,-0.14368863,-0.023503607,0.04546958,-0.022443635,-0.13088864,0.069001436,-0.06114868,-0.0578284,0.09812945,-0.121485196,-0.1301545,-0.15640973,0.15949923,-0.020443074,0.085353225,-0.003918538,0.019065889,0.0375272,0.049593907,0.08310727,-0.051894836,-0.089735836,-0.10719329,-0.09209463,-0.068559505,-0.105942145,0.16691367,0.055564668,0.023399964,0.011371845,0.07813521,0.010770102,0.077690125,0.1324931,-0.16539072,0.07671059,-0.014006405,0.023984585,0.11418802,0.04418788,0.07508784,0.06634206,0.09334804,0.12391913,0.16068862,0.15759753,0.016582292,-0.07009253,0.03010764,-0.039456733,-0.11175242,-0.08255633,0.098995686,0.13358116,0.026589682,0.1316025,0.028795555,0.088885166,0.16792814,0.14922705,0.017991634,-0.062538154,-0.1379063,0.12579043,-0.028578827,-0.027852431,0.082757674,-0.1152406,0.0792876,0.060799602,0.16076261,0.13180083,-0.06193236,0.08825606,0.020876471,0.14713584,-0.10258786,-0.030132145,0.15728517,0.1649986,0.11217399,0.1305333,-0.013459185,0.067006595,-0.00067858293,0.093071505,-0.007419158,0.014637169,0.02633349,-0.043077983,0.100106776,0.12441838,0.09511356,-0.005344953,0.10854726,-0.098472714,-0.04914491},
	{-0.08686389,-0.034962952,-0.114655636,0.11275054,-0.15596154,-0.06696833,0.14661874,0.0639244,0.12691513,0.0027685314,0.11809931,-0.13716424,0.03849973,0.100351654,0.02424137,-0.06017371,0.05225353,-0.07186658,-0.09179124,0.09747525,-0.12373403,-0.03499886,0.11840212,0.003784838,-0.022586035,-0.15503901,0.024145192,0.062307864,0.0486674,0.12694648,-0.11030168,0.15774836,0.057681378,0.051206816,0.13034591,-0.087929785,-0.15067619,-0.07133422,-0.08745897,0.07815928,-0.12862703,0.13371725,-0.09938102,-0.009226099,-0.016080096,0.111229226,0.01265299,-0.16836649,0.061084524,0.042042926,0.04697622,0.069111906,-0.16704375,0.16149603,0.09898907,0.08432537,-0.0018393099,-0.0360806,-0.037496213,-0.16506723,-0.004888079,0.11471738,-0.061932214,-0.082283065,-0.0031948788,-0.15914671,-0.07725045,0.045432672,-0.045365363,0.16243182,0.0927481,-0.1396446,-0.16649397,-0.13806552,0.120378315,-0.080152854,-0.11424359,0.057436287,0.013394088,0.1099363,0.16446754,-0.14984329,-0.017095942,0.058850218,-0.05904155,-0.14015637,0.15781754,0.12801519,0.020289041,-0.114534624,0.0025247438,0.002597411,0.14078908,0.019991003,-0.0060217083,0.08644762,-0.12517,0.12579623,-0.15990451,-0.1268675,-0.069930434,-0.1697736,0.071228005,-0.097084075,0.08081104,0.14113858,-0.04610434,-0.11852031},
	{0.021326717,-0.08413474,-0.0109479,0.15739374,0.03323027,0.06989314,-0.12022072,0.08473995,-0.005503493,-0.0042427927,-0.057051376,-0.085648224,-0.028394446,0.146263,-0.0337212,-0.053231467,0.14749129,-0.108879566,-0.16121988,-0.053417012,-0.058967624,-0.10798867,-0.0005625941,0.0904473,-0.16698118,0.098540105,0.11850173,-0.007466352,-0.09654078,-0.06752389,0.042030096,-0.016604083,0.13729627,-0.06234428,0.14836389,0.019319624,0.11874996,-0.092977084,-0.15561943,0.13473925,-0.1341759,-0.117540896,0.04409412,-0.101868235,-0.020448565,0.009084757,0.06914497,0.072370544,0.10580045,0.14939961,0.017727524,0.066538,0.11482351,-0.13290516,0.12729762,0.08742326,-0.10113476,-0.04660194,-0.018177914,0.007532234,0.10808369,0.15057957,0.027582237,0.0058791027,-0.064916976,-0.063316524,0.07540748,0.070284605,-0.12491611,-0.050105844,0.010957062,0.08119104,0.04606038,0.10860578,-0.07963105,0.10822667,-0.1563495,-0.013107181,-0.103800334,0.107857354,-0.064042255,-0.03528377,-0.15453312,0.12162531,-0.028820539,-0.024413005,-0.027687248,0.14468536,0.08883988,0.16409677,-0.079254515,0.14393167,0.04586729,-0.09055703,0.1403603,-0.043656513,-0.13097617,0.15373021,0.029586557,-0.16139828,0.1584576,0.0894718,-0.12958735,0.15552159,0.089098744,0.06794881,0.057442784,0.09845901},
	{-0.12429887,0.112887256,-0.10358557,0.08152851,-0.09865626,-0.0075276345,-0.040838286,-0.14382012,-0.1332194,-0.10137868,0.15434925,-0.08542371,0.02630911,-0.07531526,-0.06962768,-0.07241586,0.04686278,0.13600524,0.021931095,-0.08391647,0.0536916,-0.001072213,0.15438184,0.103089,-0.10617811,-0.10272578,-0.042018022,0.080838405,0.0077514113,0.06450811,-0.121532984,-0.12609576,0.04191088,-0.050913107,-0.081334665,0.10877074,-0.007504523,0.036438763,0.019397497,0.13291721,-0.0034404453,0.14563857,-0.1294968,0.12890342,-0.14181408,0.07460537,-0.14223787,-0.1647579,0.1170719,-0.028777217,0.14241561,-0.016031913,0.051117633,-0.13053676,0.062572956,-0.0034596669,0.033686116,0.044689037,-0.005750195,-0.07366024,-0.15633054,0.10643475,0.13985269,-0.014114795,-0.14473696,-0.062077597,0.07594989,0.1173176,0.119960174,0.11666333,0.15380351,0.16411771,-0.023585107,-0.11517005,0.16625606,-0.14512941,-0.014389617,0.13568209,0.12495352,-0.12885383,0.012021497,0.0640595,-0.114785865,0.10778803,-0.1102505,-0.01731263,-0.00037246698,-0.15843722,-0.1439053,0.092003234,0.005726044,-0.110121414,-0.14250861,0.047433868,-0.15028408,-0.13964668,0.018712306,0.14147824,-0.124490306,-0.0692943,-0.04841216,-0.13136518,0.16390286,-0.070763245,0.108144976,-0.045060296,0.014441714,0.1271719},
	{-0.0128789395,0.124526046,0.16282582,0.08504026,-0.05616016,0.12318142,0.0060188523,0.13052051,0.070559435,0.028705329,-0.10126646,0.12383662,0.10823364,-0.01908044,-0.0066556935,-0.16341601,-0.099107295,-0.16594797,0.01620132,0.07078522,0.001039207,-0.07571487,-0.10427815,-0.13788879,0.1496057,0.114538595,-0.035524912,-0.16748227,-0.15216078,-0.01179081,0.0133496,0.07423259,-0.0012141317,-0.06990272,0.041609738,-0.15502156,-0.008785457,0.1489294,0.11599038,0.13450356,0.12932484,0.096043706,0.029477278,0.07050889,-0.11083892,-0.13605458,-0.13411346,0.06858022,-0.096430786,-0.024326831,0.11899851,0.04218463,-0.15125078,0.11754732,0.06552773,-0.001713155,0.122560486,0.12895241,-0.05023306,0.03320846,-0.08669696,0.027195174,-0.013382787,-0.015257945,-0.056206714,-0.14002235,-0.16327842,0.13218306,-0.16449666,0.020166263,-0.027961804,-0.08104692,-0.16596086,0.13604291,-0.09615188,-0.09705303,-0.03710895,0.16509761,-0.01854302,-0.0844527,0.13936083,0.016699567,-0.006157672,-0.048028316,0.02445195,-0.13649471,-0.14731114,0.08917348,0.086552896,-0.12733446,-0.005735037,0.13975412,0.006710518,0.11001142,-0.046593077,-0.15700647,-0.100459404,-0.010044066,-0.080131784,0.10404252,-0.031114511,0.11054992,0.08557441,0.05647109,0.029450037,0.05043787,0.11994101,0.1557411},
	{-0.14053553,-0.062813714,0.05097548,-0.13515908,-0.06106306,-0.16008635,-0.077669434,0.16382629,0.067452826,0.10461824,0.052082345,-0.14328691,0.14749715,0.16520672,-0.09514012,0.14909889,0.12518905,0.05392158,0.103845015,0.14841084,-0.13567436,0.081176236,-0.12250397,-0.102788776,0.004488215,0.032901205,0.07253852,-0.13119255,-0.15448205,-0.15277138,-0.041077733,-0.00025003834,0.12121946,0.029552778,0.09870575,-0.113582104,-0.001042828,0.01856123,0.13699971,-0.03201991,-0.14284733,-0.04201506,0.12719631,-0.06863662,0.034029603,-0.009535858,-0.04497026,-0.014299512,-0.0047943494,0.11257397,-0.08996533,0.007635219,-0.0007145436,-0.040007353,-0.004082254,-0.008751101,0.1161236,0.09916218,0.04550893,-0.1185363,-0.00705294,-0.109104216,-0.056491144,0.012568589,0.15063326,-0.021395352,0.02467967,0.036611423,-0.10154666,0.020803431,0.010243937,0.031042831,-0.08214573,-0.023238122,-0.019012203,-0.0951265,-0.11079207,0.014152917,-0.12032024,-0.035480842,-0.09740037,-0.050248064,0.120031856,-0.0683474,0.041804053,0.11125703,0.082944736,-0.08287987,0.058571987,-0.048822094,0.106052175,0.029047225,0.13480653,-0.09080123,-0.0157001,0.09759112,0.015947014,-0.04492557,0.067137964,-0.02052474,-0.020430395,-0.12128124,-0.11135028,-0.14456688,-0.006460445,0.0895261,-0.0720053,-0.11681172},
	{-0.09669579,0.07188125,-0.09475299,-0.13504665,-0.03186651,-0.022847692,-0.014702802,-0.1288315,-0.12630394,-0.008465156,-0.08985293,0.09464805,0.00030179764,-0.05622871,0.079407446,-0.1289819,-0.13516563,0.011002809,0.11573143,0.09400014,-0.15505102,-0.15710999,0.14831051,-0.00011530719,0.07997084,0.1217961,0.034147535,-0.13286932,-0.1626714,0.06525575,0.11871251,0.08969566,0.07826507,0.14838485,0.03187045,-0.11929817,0.042595156,0.09059249,0.14660215,0.07485756,-0.0029100042,0.057943553,0.11429842,0.018112274,-0.046339735,0.11792953,-0.11157314,0.124608085,-0.11238158,-0.119051054,0.12695087,-0.13365875,0.052565683,-0.13046665,-0.1491948,0.06383653,-0.11352789,-0.09091859,0.09326513,0.019071385,-0.15312685,0.057134677,0.092696056,-0.0028160529,-0.029332489,0.09713973,0.1104085,0.013460234,0.03697945,0.13480684,-0.025098154,-0.05915156,-0.010179669,-0.025509834,0.1323701,0.11251792,-0.061227478,0.018412232,-0.02251783,0.02599426,0.044229403,-0.019244213,0.12631242,-0.044797234,0.11037713,0.15275003,0.059097327,-0.006127751,-0.03550788,0.103647314,-0.04742868,-0.035324197,0.066325635,-0.11532252,-0.14941932,-0.04142128,-0.15194784,-0.09760228,0.1218968,-0.10164209,-0.11056125,-0.0037672687,0.050790478,0.03603746,-0.020460581,0.053641036,0.03569029,-0.042240612},
	{-0.060864516,-0.114017084,-0.054829113,0.09453145,-0.09136684,-0.02988479,0.13818678,0.10590352,-0.09305829,-0.007539764,-0.12821189,0.10496615,-0.15440267,-0.13422799,0.009422691,0.12101193,0.08761217,-0.058796458,0.11367895,0.10262513,0.08716236,0.15914303,0.15404469,-0.06054838,-0.06799413,-0.0066026896,-0.15181558,0.0699271,-0.14976895,0.106374346,-0.06104737,0.011412268,-0.08957919,0.12911446,0.08046359,0.09557991,0.09084006,-0.13080902,-0.15429568,0.026364105,-0.11466603,-0.1345608,0.0629218,-0.05572153,0.0014739931,-0.14865166,-0.08797857,-0.14105266,-0.15755603,-0.044235498,-0.059228726,-0.122231394,-0.1524399,0.15398856,0.06659554,0.06033409,0.07347423,-0.16415687,-0.038174838,-0.01829052,0.07386242,0.12254453,0.038470406,0.018064244,0.022918586,-0.08578407,-0.0942731,-0.014834106,-0.007956624,0.04265078,0.097254075,0.013976629,0.07607037,0.05620514,0.15323979,0.005070299,-0.024505503,0.099866316,-0.024495542,-0.01620158,0.01002575,0.13478653,0.13916007,-0.051726673,-0.08269693,0.019080795,-0.077075504,-0.15044099,-0.09003118,0.00684765,-0.10363548,0.10986316,0.10595606,0.07645306,0.04984933,-0.11695397,0.11690669,-0.070162125,-0.067364365,0.03466631,-0.10193379,-0.073901445,-0.043967605,-0.04743404,0.019349258,0.021010457,-0.09235821,0.13330312},
	{0.13364539,-0.16044691,-0.16114908,0.15735136,0.027307626,-0.13471726,-0.08818122,-0.008866608,-0.14935249,-0.11316061,0.15224184,-0.11175369,-0.12259536,0.08834736,-0.020797737,0.08703437,-0.12049426,0.102657095,0.07314798,-0.05330365,-0.13349304,-0.086297534,0.078556255,0.0769992,-0.0628179,-0.12773913,0.14261582,-0.03369858,-0.12127872,0.07137173,-0.02972097,0.0077548334,-0.043179296,-0.049102455,-0.12016131,-0.076204225,-0.02381829,-0.11502427,0.009061151,-0.067529544,0.15386131,0.043500047,-0.02874598,-0.03511036,0.099591985,-0.050804578,0.018883891,0.014398935,0.13047849,-0.16358449,-0.0844579,0.022305438,-0.06849023,-0.16258001,-0.0476816,-0.024659622,-0.1079109,-0.06387537,-0.16755173,-0.10420482,-0.063519254,-0.007847304,-0.12240307,0.03053002,0.09703761,-0.1321175,-0.12810692,0.115693286,0.12981255,-0.09480545,0.010907988,0.16900407,0.06401589,0.12791027,-0.016008206,-0.08227818,-0.004268272,0.035991594,0.15213864,-0.019492215,0.072438955,-0.11650495,0.040398467,0.00066059164,0.13274182,0.1404301,0.14636846,0.044422843,0.099293776,-0.052018825,0.1297433,0.08161286,0.006839493,0.04185425,-0.10882348,0.14710298,-0.016651407,0.13954668,-0.07150426,0.05508084,0.069117285,0.10774905,0.0434894,-0.12932579,0.14968835,0.07017643,0.005429485,0.13671447},
	{-0.15778232,-0.002884093,0.10490565,0.09739486,0.055502698,-0.062466457,-0.07550073,-0.14724417,0.032621056,-0.0021511465,0.11107086,0.0015905946,-0.06885841,0.099346176,0.15668665,0.12730135,0.1207449,0.13467507,0.11268003,-0.050717756,0.15965195,0.04544668,0.07316479,0.041545756,0.0966786,0.0789626,-0.15914828,-0.01580435,0.11821362,-0.055066533,-0.02238664,0.116405085,-0.11696583,-0.06831698,-0.08753448,-0.12219261,-0.03780076,0.073833,-0.10773976,0.05871067,0.1236804,0.066790536,-0.0414257,0.15154661,0.09471415,0.0830941,-0.02273987,-0.11904846,-0.07572057,-0.1379892,-0.05252692,-0.093794525,0.1232117,0.10049601,-0.14467466,-0.0057410263,0.029227585,-0.12004982,-0.08033277,0.12654825,-0.019596735,0.015490084,0.13781796,-0.11156978,0.02769363,-0.12350356,0.06919605,0.035397083,0.01996132,0.13726395,-0.1063542,0.0129908025,0.13277672,0.022777716,-0.06495135,0.0851102,-0.09103829,0.14185493,0.10480588,-0.13135915,0.16136812,0.05603507,0.12544695,-0.089217335,0.06961291,0.120436616,0.023070425,0.10488701,-0.007538007,0.13687263,0.025599744,-0.09099494,-0.022530945,0.011361271,0.064015515,0.027243868,-0.016314866,0.058465537,-0.08212504,0.016761959,-0.13892187,-0.06830117,0.0708154,0.0485902,-0.056243587,-0.034482267,0.15927665,0.0075529963},
	{0.07907802,0.042930733,-0.065549776,0.04771942,0.12482227,0.072102636,-0.15519522,0.010696299,0.09764493,0.12555496,0.009519691,-0.051091455,0.15496106,-0.15523468,-0.0012009293,-0.13167277,-0.021467686,0.13222013,0.13902168,-0.14265369,-0.13315654,0.04310724,0.12283074,-0.15038458,-0.007376824,0.0066782944,-0.07918561,-0.1234943,0.041111015,-0.16832583,0.039898723,-0.13428383,0.12104111,0.13296112,-0.11082612,0.08078775,-0.036470458,0.1335132,-0.10192094,-0.15529504,-0.1631553,-0.06465173,-0.0123113515,0.1461289,-0.10223516,-0.06905607,0.0073471456,0.114108995,-0.13170466,-0.075447574,-0.09079301,0.10355029,0.0518489,0.015370324,-0.06756126,0.079217814,0.027296886,-0.11100166,0.14570685,0.06529931,-0.14262645,-0.07141961,-0.040917948,0.12754896,-0.13957958,0.1551843,0.06257893,-0.10339041,-0.114238024,-0.0013837751,0.10655086,0.11860461,-0.066464536,0.14191511,-0.02131409,0.0064970553,-0.062317763,-0.109648235,-0.1688073,0.042595074,-0.10197711,-0.13586763,0.056966,-0.09537384,0.02714472,-0.13774006,-0.1440408,-0.010580384,0.098862596,0.10491855,-0.078660816,0.1027817,-0.10055807,-0.13258502,-0.11588413,-0.0490332,-0.12846103,-0.10138303,-0.06402827,-0.16448316,-0.040967308,0.05090645,0.11733018,-0.08473811,0.084592,0.01219,0.12924792,-0.070449464},
	{0.10836922,-0.08997703,0.045980908,0.07167671,-0.12019355,0.12787217,0.051428955,-0.099357486,0.061065666,0.092346385,0.056857616,0.0064463466,0.030742869,0.11158654,-0.0126281995,0.114491,-0.021162212,-0.016352713,-0.15669914,-0.044778187,0.05468285,0.15900676,-0.04149328,-0.04441315,0.015192196,0.038004562,-0.095404215,-0.07500158,-0.074400246,-0.05119345,-0.06201095,0.17369647,-0.11317454,-0.08554813,0.08334044,-0.11608842,0.015242064,-0.026266664,-0.1436461,-0.11478711,0.10958379,0.10494277,0.018479241,-0.13894926,-0.12352148,-0.050391383,0.15862338,-0.11031178,-0.149198,-0.06759659,-0.081878655,-0.14480785,0.15151234,-0.040965676,0.16388959,0.061070904,-0.026211336,-0.12755011,0.0077792555,0.026695266,-0.06951458,0.13334745,0.16931765,0.006810138,0.1438984,0.07793726,0.10694982,-0.04700774,0.04048641,0.17056662,0.07753021,-0.07562833,-0.042003036,-0.10833943,-0.15611978,0.05051639,0.041548863,0.14735396,0.092887536,0.040007185,-0.0029510155,0.012723714,-0.018917771,0.14390925,0.022564318,0.16308004,0.12911564,-0.09719756,-0.06096375,-0.13825318,-0.0006747978,0.014528535,0.018258736,0.11880964,0.09587388,0.1539702,0.12745129,0.042841755,0.09930444,-0.075049385,-0.037650358,0.05769434,0.050618067,0.058636885,-0.15559031,-0.1471609,0.14216906,0.093865216},
	{-0.07736591,0.09970848,-0.1551794,-0.007258917,-0.061342373,0.13127805,-0.07260636,-0.13210852,0.101671785,-0.13817278,-0.154306,0.1268352,-0.017612945,-0.10767969,0.015485541,0.15144524,0.13959096,-0.0818163,0.07074374,0.1613078,0.15478078,-0.10585797,0.15454167,0.009025501,0.14402372,-0.15125394,0.10796547,-0.045147702,-0.008437903,0.043976925,-0.07774572,0.13622496,-0.09759965,0.032412857,-0.14190845,0.04895261,0.1535647,-0.039113432,0.14583251,0.16028671,-0.029786691,-0.036362946,-0.038796626,0.11445167,-0.023284882,-0.050840255,0.16005035,0.09832807,-0.12588766,-0.06557569,-0.09270346,0.15803742,-0.09261318,-0.1385912,0.02677689,0.11222042,-0.13686012,-0.018438507,0.13613737,-0.06594137,0.04925741,-0.06559915,-0.1055597,-0.03974891,-0.15743428,0.010745443,0.13827015,-0.07493863,0.07772698,0.062671185,-0.09041547,0.013439894,-0.025992943,0.12709889,-0.10821911,-0.16127978,-0.06272635,-0.13115725,0.13013858,0.09944348,-0.09817293,0.05358688,0.11632784,0.16270362,0.11233021,0.049609866,0.1360976,-0.051595487,0.081997976,0.01996546,0.03176831,-0.015829222,0.11375401,0.034743663,0.011218244,-0.049589396,0.06815622,0.0033741759,0.032445278,0.07513247,-0.009279405,-0.12605834,-0.07369287,-0.012201896,0.0026633444,0.055874687,0.052899778,-0.07414503},
	{-0.095593624,0.10946166,0.15558502,-0.02549069,0.1359089,-0.13072966,-0.019813145,-0.06744587,-0.07850038,-0.095938995,0.1557865,-0.03137876,0.17312163,-0.14080052,0.034057032,-0.12514485,-0.1088741,0.13576521,-0.015746752,0.11682504,0.14832614,-0.16367349,-0.05268242,-0.12465927,0.15221104,-0.05802484,0.07642363,-0.09060038,-0.09279348,-0.09877094,-0.16402994,0.10729118,0.030099945,-0.103095345,-0.053163175,0.08049828,-0.0831895,-0.08473916,-0.07948704,0.052556645,0.16914818,-0.1140883,-0.15427078,-0.021144139,0.064829454,-0.14372808,-0.15259673,0.084436014,0.12614007,-0.01659862,-0.14854185,0.03290996,0.024863198,0.08308853,-0.011604602,0.104197964,-0.0757678,-0.0020759315,0.053694133,0.06372307,-0.052030344,-0.0958273,0.119531475,0.10890518,-0.11340206,-0.15569608,-0.010086969,0.124482706,-0.0033674303,-0.11241572,-0.08325598,0.016327687,0.11015597,-0.05059433,-0.043702293,0.06208804,-0.09856913,-0.12723419,0.05809635,-0.0959066,-0.077369906,0.1164745,-0.14504239,0.12205067,0.09649816,0.109447315,0.12526767,-0.119725496,0.12774931,-0.061896805,-0.17237557,-0.1402992,0.1045108,0.0029036717,-0.12762232,-0.017901847,-0.1258193,0.10378339,-0.04726784,-0.08862966,0.03764726,0.07782392,0.1596587,0.14569715,-0.044794325,0.07078917,-0.09427582,0.057638723},
	{-0.027489431,0.05702656,-0.055348877,0.17412874,0.06836533,0.109952316,-0.09375775,0.027493013,0.16668022,0.1612344,0.11281139,0.010305765,0.16091682,0.008555523,-0.1304685,0.08037242,-0.020843118,-0.155082,0.03161529,0.053070147,0.082596295,-0.061104447,-0.008546687,0.13723971,0.1317301,-0.0118352845,-0.035017245,-0.14465581,-0.12670982,-0.14412728,-0.16325885,-0.03800858,0.095512494,-0.16646177,-0.05822932,-0.05102869,0.1344199,0.13405387,-0.09915744,0.15188712,0.05403568,-0.12941149,-0.036679227,0.019893175,-0.07621472,0.07857365,0.15713812,-0.11688666,-0.12263919,-0.013021589,0.024305087,0.029193407,-0.055303182,0.04854013,-0.15804246,-0.085911304,0.08598392,-0.038740475,0.14977929,0.08457212,-0.108810194,0.10918703,0.08251104,0.13040139,0.14470686,0.16001505,0.032652427,0.03226562,0.0035710344,0.0574412,-0.020937964,0.01685743,0.092076704,-0.029423539,0.10575248,-0.13661535,-0.08353968,-0.11869264,0.009890856,0.014336392,-0.034860328,-0.10396833,0.022729795,-0.11830427,-0.12788479,-0.028589854,0.0034355829,0.11327635,0.07444896,-0.095513985,0.15595469,0.13427451,-0.030999271,-0.15601183,-0.046202146,0.0935778,0.07648411,-0.12041013,-0.113995,-0.13811825,-0.046053533,0.08622418,-0.014704767,-0.15012126,0.14162242,-0.13652413,-0.041493922,-0.04763383},
	{-0.0678751,-0.122966126,-0.0649422,-0.05121168,-0.14404361,0.07443721,-0.14724398,-0.14864728,-0.003122159,-0.10654914,0.027383924,-0.017241657,0.021417879,-0.16454552,0.070101604,0.059838742,0.15217428,-0.024602622,0.06794688,-0.037534058,-0.14520359,0.07711288,-0.14353882,-0.08767163,-0.070314564,0.16277957,0.095137686,-0.053104315,-0.04561381,-0.14223626,-0.039312806,0.01790728,0.061619457,-0.004423588,-0.10212597,0.09207557,0.15001939,-0.06990422,-0.0358334,-0.13968779,-0.084427595,0.13040878,0.046111356,-0.08597562,-0.11484135,0.06459749,-0.15221952,0.10903846,0.050977543,0.073100224,0.047152285,0.04792919,0.07236639,0.0835603,-0.1636571,0.014067117,0.015952826,-0.028400702,0.13752988,0.032440547,-0.10274199,-0.15649767,-0.06285156,-0.108976655,-0.16300239,-0.060187455,0.03274689,-0.04030226,0.16240531,-0.1109158,0.049270347,0.15775788,-0.029078439,-0.085267015,0.16632842,-0.047851488,-0.15338166,0.081320554,0.10064729,0.113344595,-0.1456251,-0.14262633,0.034457292,0.16383857,-0.055847954,-0.004629878,0.059975892,0.010039212,0.08716823,0.14172848,-0.092990495,-0.06505506,0.14358811,0.049771436,0.10515371,0.09867353,-0.034767322,-0.03945376,0.13448013,-0.00362188,0.030946894,-0.15816875,-0.0019527589,0.11863589,-0.08862695,0.13884632,-0.10203284,-0.13784246},
	{-0.027184427,0.17071442,-0.12791893,0.11346391,0.038190138,-0.012849742,0.08382309,0.10860503,-0.038939714,-0.0016660541,-0.16453874,0.1638255,0.13482358,-0.073211186,-0.013366536,-0.10767409,0.085694805,0.16053532,-0.113832004,-0.0981977,0.009061977,-0.16561127,-0.16363426,-0.10772375,0.03746806,0.12926348,-0.010342594,0.09749642,0.0064111035,0.1628467,-0.06656141,0.08354211,0.052886143,0.05984525,0.102994174,0.061290517,0.14638433,-0.14271478,-0.022049364,0.15127663,-0.05354363,0.08421575,-0.02515567,-0.09376043,0.09852816,0.041789815,-0.034863286,-0.009111585,-0.058651324,0.14496532,-0.11567239,0.13868524,0.02157664,-0.06819753,0.107880056,0.16078074,-0.13574047,-0.09040699,0.12132816,0.15805505,0.06918028,0.15175155,-0.06412952,0.16679233,0.0046414984,0.116094455,0.13087605,-0.12159618,-0.031767756,0.13493466,0.02929589,0.032164257,-0.13689122,-0.14868939,-0.093953505,0.00015639933,-0.057344563,-0.10601606,0.12919836,0.1646226,0.06782601,0.04242001,-0.008760481,-0.06714966,0.118843,0.15480602,0.033880174,0.054378845,0.13432577,-0.056225855,0.14482677,0.13913499,0.011318857,0.05220039,-0.07546651,0.13293445,-0.022704303,-0.16512628,-0.06936619,-0.0511578,0.071268685,0.108748175,0.067175485,0.05490036,0.059437957,0.046998143,0.012766055,0.11193293},
	{0.044554345,0.11515052,-0.029030781,0.13290976,0.0043652514,0.08579604,0.084708184,-0.053586733,-0.10407557,-0.098566435,0.12753241,-0.019856397,0.14130992,-0.040143933,-0.014785762,-0.10409907,0.12538312,-0.003819704,0.07865294,0.10219711,0.042378865,0.0040331245,0.0058506196,0.124187715,-0.1060703,0.025433687,-0.04837338,0.13001522,0.12283824,-0.077496216,0.07050743,0.014222213,-0.117796294,-0.08318362,0.051993135,0.022151709,0.12518041,0.045329034,-0.019560473,0.049698576,-0.099714726,-0.12200372,-0.025004294,0.048931625,-0.15058336,-0.12951453,0.15435578,-0.06205994,0.0037140718,0.10053423,0.06906929,0.14508428,-0.14519034,-0.07796469,-0.09474378,-0.11236829,0.0075059086,-0.018674308,-0.11627469,-0.03511986,0.09199615,-0.083548695,-0.12793383,-0.062795326,0.034722093,0.090791926,-0.08103575,-0.16378275,-0.008427471,-0.03408068,0.031306814,0.15492466,0.14077754,0.12625091,-0.033148333,-0.09200716,-0.100218475,0.001104191,-0.14535038,-0.06687593,-0.07600329,0.001997402,-0.07657229,0.06314438,-0.16562952,-0.028125115,-0.078267455,0.04592095,0.09420645,-0.15784849,-0.11342469,0.031118812,0.14643139,0.037872776,0.009251937,-0.06755021,-0.05835648,0.13551879,0.05520614,-0.16552626,-0.090080075,-0.14379264,0.15694685,-0.071927,-0.1256511,0.017390069,-0.14862572,0.05350119},
	{0.11404467,0.07246389,0.1324383,-0.13722348,-0.10183361,0.09342025,-0.050156374,-0.14409924,0.105819836,-0.062447295,0.06783528,-0.020618826,0.060610987,0.11280613,0.08051631,0.049109694,0.060278505,-0.0939497,0.018012892,0.07333832,0.14803986,0.06639942,-0.07405435,0.13292138,-0.12208444,0.047724217,0.115001425,-0.08358709,0.16337593,-0.121190496,0.014956625,0.1182381,-0.044895142,-0.15705344,0.0886935,-0.09072434,0.10679964,-0.13569799,0.019389885,0.12617987,0.13999885,0.035605136,-0.1303502,0.022535736,-0.02662097,-0.11047156,-0.12862553,0.12840132,-0.10883893,-0.12761198,-0.05557591,-0.045822542,0.03234497,-0.12297559,-0.025467407,0.08985455,-0.08042099,-0.031036835,-0.13676202,-0.0872387,0.1573565,0.07588535,0.12808107,-0.06653832,0.075340606,-0.007317841,-0.15981093,-0.03803064,-0.029398814,-0.046001256,-0.15172668,-0.0038054814,0.14299466,-0.15569289,-0.04898161,0.1457274,0.14380096,-0.14706917,-0.11754317,-0.046273082,-0.14797962,-0.017188234,0.047226757,0.02083946,0.13983017,0.07238069,0.13909832,0.07058171,0.14477213,-0.13926485,-0.09550484,0.1526801,-0.041486047,0.021981258,-0.013936624,-0.04625998,-0.069098845,-0.017046168,-0.13543348,-0.08814153,0.053108275,-0.042151395,-0.11922005,0.11313158,-0.010112783,0.045308445,0.123315796,-0.10441313},
	{0.14707561,-0.12943733,0.1682313,0.07893709,0.06649213,0.066470236,0.09387269,-0.15629902,0.07258042,-0.14583315,0.10461576,-0.08595083,0.10116459,0.07698817,-0.13245042,-0.034368873,-0.12817667,0.07827684,0.10752566,0.08833845,-0.16349007,0.06869518,0.07382592,0.1289542,-0.048840426,0.14003435,0.055945355,-0.03437169,0.10340087,0.015806612,-0.0022792274,0.022378579,0.06503226,-0.11871878,-0.14134492,0.047454745,0.092451975,-0.15438078,0.009843136,0.041733496,0.036059394,0.14333859,-0.047935113,-0.15926245,-0.093424805,0.067298815,-0.003123234,0.07512723,0.102307186,-0.13210209,-0.14334315,-0.12244257,-0.15878297,-0.10644075,0.073649496,-0.07571269,0.15917014,-0.057202365,0.061688855,-0.050195128,0.12994665,0.13128145,-0.15752935,-0.06510525,-0.057889864,0.01939328,0.025948018,0.1107073,-0.12784013,0.101967,0.010742858,-0.07947748,0.06609917,-0.16050585,-0.08880339,-0.1379782,0.03232973,0.16299488,-0.035360664,0.10792525,0.11963149,-0.07951381,0.11199767,0.123442136,0.10101421,0.0075462586,-0.069173805,-0.16571274,0.10778385,0.0649062,-0.08775586,-0.023364421,-0.02726693,0.16080453,-0.12812456,0.16057952,-0.09272861,0.13082647,-0.017573096,-0.058356553,0.10290234,0.004497925,-0.04909842,0.11345355,0.000139418,-0.10885005,0.13329108,0.14479478},
	{0.13176443,-0.15726502,-0.15042406,-0.09126296,-0.066952944,-0.12041805,-0.15701206,0.036752645,0.05444282,-0.1489658,0.029422164,0.0051537305,-0.09217537,-0.14520685,0.0038336813,0.025371045,-0.15369429,-0.03434418,-0.024474025,0.08714842,-0.06061984,0.0124595165,-0.004592381,-0.062308703,-0.07440953,0.007625864,0.11066747,-0.019218385,-0.03050241,0.083899565,-0.004529834,-0.031416893,-0.048455484,0.066454634,-0.13287741,-0.14842139,0.015429527,-0.015744671,-0.070915364,0.06932624,0.14647388,0.04950413,0.14146343,0.105454154,0.14748175,0.06381342,0.016745094,-0.008556932,0.13777606,0.0049705445,-0.0645129,-0.14213306,-0.0027360984,-0.06754462,0.068887874,0.096757285,-0.060677364,-0.05122504,0.10501956,0.049866635,0.113012165,0.09395826,0.06927411,-0.16363186,0.09171356,-0.04974252,-0.03075358,0.08318858,-0.119951405,0.030092912,0.11823596,-0.026357997,-0.1507448,-0.033580862,-0.026499212,-0.16429181,0.09398704,0.04229026,0.13482015,-0.08396021,0.16657092,0.057223663,0.13347133,-0.13649228,0.09042996,-0.050579328,-0.16293125,-0.012104127,0.01823024,-0.11642762,0.1251174,-0.12682451,-0.14214946,0.1578931,-0.12653962,0.011104658,0.05774312,0.13312174,0.04772535,0.042243093,0.04543384,-0.12948997,-0.14635345,-0.10446571,-0.1551734,0.14758098,-0.007869244,-0.08649742},
	{0.030624056,-0.053263783,-0.10873579,-0.021579068,0.07100774,0.107122764,0.12290321,-0.121102035,-0.12987848,0.12962396,0.09861769,0.11610715,0.0022388468,0.04153563,0.060695484,-0.066728435,0.1440338,0.100874916,-0.15538189,-0.079004474,-0.021109194,0.06933394,-0.07224407,-0.024774987,0.15948805,0.055825856,0.13058884,-0.12906729,0.033700243,-0.1299598,-0.044624016,-0.06452203,-0.15729049,-0.08437776,-0.11146945,0.15527253,-0.081841126,-0.13451076,0.00034731627,-0.060985688,-0.053960465,-0.07334703,0.0016634525,-0.15619665,0.16289221,-0.0020637978,-0.16321057,0.095254585,0.113123484,-0.027638175,0.02393678,-0.09509527,-0.037329588,0.085173324,-0.039725006,0.13980211,-0.1023869,-0.089364156,-0.08470341,-0.15871403,0.14271855,-0.12910074,-0.0561661,0.14449267,0.1492338,0.051346518,-0.119022444,0.15321003,0.11691069,-0.025796693,-0.027696311,-0.053090308,-0.08821698,-0.049664456,-0.006311776,-0.032618925,0.1375703,0.12540683,0.07281222,0.15600948,-0.069834046,-0.086594366,-0.04452062,0.05211963,-0.0039542424,-0.002852443,-0.1179574,-0.14541353,-0.035829287,-0.083456196,-0.0959299,0.12621805,0.08514277,0.041338667,-0.12319734,0.135903,-0.09600836,0.16064824,0.026085136,-0.07836623,0.14204414,-0.12945892,0.0818491,0.16828728,-0.09615772,-0.14479002,-0.07389428,-0.037298143},
	{-0.013336763,-0.053249773,-0.13435082,-0.10653717,-0.14708307,0.115355924,-0.0061450396,-0.025152862,-0.06930808,0.14774661,0.067494154,-0.16678752,-0.052363243,0.10346497,0.118188426,0.121135995,-0.14647302,0.07415134,0.00029258127,0.16353537,-0.057556845,0.110267624,-0.003486883,-0.037924767,-0.13941123,-0.09112847,0.10627981,0.07022303,0.057254285,-0.059064653,-0.10930964,-0.052527126,0.073536575,0.15087701,-0.0362071,0.09497668,-0.069515504,-0.060753338,-0.07819292,-0.11765512,-0.071424335,-0.059352048,0.15481989,0.092539154,0.07493468,-0.10605151,-0.03747353,-0.0989737,0.07193971,-0.12807068,-0.100419804,0.06107897,0.15913461,-0.16263379,-0.05585905,0.13926646,-0.038367286,-0.15899858,0.022761345,-0.089240335,-0.020522993,0.10304355,-0.112808965,0.06070891,0.03562693,-0.08896763,0.1517299,-0.011781007,-0.053125143,-0.14863528,0.1035467,-0.13544542,0.1260431,0.045063272,-0.026969422,-0.032289695,-0.13881542,-0.0352263,-0.111030504,-0.047326166,-0.065719545,0.020989344,-0.008736078,0.010416242,0.14746962,-0.10787943,0.050470833,0.03467849,-0.10590965,0.10211049,-0.11935593,-0.13728602,-0.13546011,0.15525424,-0.14128695,-0.0734238,0.11091225,0.15893368,0.034181982,0.14552914,0.033110686,-0.02919705,0.039519798,0.08901841,-0.12561907,-0.12165369,0.016912365,-0.14022273},
	{0.13503648,-0.13505119,0.10293721,0.062363368,-0.05819089,0.12794425,-0.10988983,0.12693068,-0.0749594,-0.11366689,0.1261111,0.16515724,0.1368791,-0.13307145,-0.043993946,-0.1140253,0.068749845,-0.017746583,0.03969188,0.160478,0.025071576,-0.015809145,-0.10987157,-0.16202831,-0.012086287,-0.115712374,0.07051684,-0.06902956,0.08675168,0.101815514,0.073527314,0.1340821,-0.08968001,-0.07927063,0.03578776,0.12489368,-0.07262123,-0.12944259,0.13482398,-0.09313827,-0.12032266,0.12693785,0.030221848,0.04876705,-0.028016552,-0.09024057,-0.091443054,0.14141127,0.043642662,-0.051800206,-0.078925826,0.15448226,-0.035274964,-0.0077471584,-0.0055570975,0.1670489,0.10628159,-0.12383017,0.00802069,-0.036827147,0.09388063,-0.043782093,0.15566513,0.11229254,0.071749106,0.12799226,0.15536617,0.031504363,-0.07487527,0.08862786,0.14521155,-0.058296602,-0.1588968,0.04104448,0.12871514,-0.13818967,-0.16539574,-0.046838276,-0.03929758,-0.14194097,-0.12861066,0.12224518,0.07407179,0.095607266,0.042701885,-0.12269954,0.026292717,0.1477842,0.08609272,0.053216297,0.110543974,0.094818935,-0.048341803,0.08235916,-0.14313197,-0.12782729,0.152135,-0.13960157,0.017009791,0.023297122,0.117491215,0.110995166,-0.154739,-0.04472518,-0.0153366085,-0.030596172,0.042253386,0.10629101},
	{0.08464731,0.027796222,-0.07600828,0.028344518,0.08990976,0.030439038,-0.026444385,0.012111276,-0.16069137,0.068519816,-0.054296844,-0.016353205,0.069703475,-0.15356956,-0.1078773,0.14923356,0.084808156,-0.088581026,0.009644902,0.1079882,-0.05442647,-0.0017030621,-0.1259051,-0.10127421,-0.12693635,-0.032364383,0.12149545,0.12873234,0.16219403,0.07265963,0.0881054,-0.11451087,-0.0082716495,-0.12516078,-0.16007115,0.08289249,0.103621684,0.08672042,0.033581924,-0.010970398,0.025895827,0.116187334,0.055777933,0.08754194,0.12692513,-0.11595604,-0.058309853,-0.13293509,0.058764353,0.04556042,-0.1407172,0.03439379,0.046138287,0.07974735,-0.14258087,-0.11601626,-0.13018101,-0.017558537,-0.11371835,-0.036919698,-0.01345767,-0.15381786,-0.010287925,-0.10116646,0.023411388,-0.112637274,0.018342182,-0.08639815,0.066318825,0.04377908,-0.008550024,-0.16604677,-0.11539051,-0.15914647,-0.14328241,-0.09317662,0.031973183,-0.09127003,-0.07005792,0.026407761,-0.11524592,-0.08095395,-0.088411026,-0.15757962,0.15244314,0.05937896,0.038658496,-0.15682775,0.13549878,-0.121975794,0.06603333,0.07428203,-0.03783478,0.14881283,-0.16219912,0.16562922,-0.017672375,-0.10178216,-0.07400396,-0.16489966,0.15288772,0.16384329,-0.13059224,-0.066743016,-0.1405755,-0.062480807,0.12671241,-0.012679668},
	{0.08807478,-0.13602525,-0.095132686,-0.15402,-0.029577747,0.010212958,-0.09941146,-0.11090637,0.118987754,-0.057599604,-0.06618233,-0.05874484,0.10068584,0.07954405,0.12415476,-0.021467404,0.11121084,-0.10650191,-0.11716439,-0.1595195,-0.008417562,0.038624033,-0.12124963,-0.09657793,0.12348948,0.030989565,0.14718778,0.09016122,0.0475855,0.07820333,0.14611568,0.0050978204,0.1464142,-0.110977605,0.16574015,0.052837104,0.014727384,-0.10431364,-0.004984826,0.035314895,-0.029197233,-0.005243078,0.060148943,0.022015017,0.14508219,0.11131332,-0.08599693,0.018420264,0.13015687,-0.014264628,-0.15139475,0.15576227,-0.010084399,0.14592363,0.084037766,-0.12426161,0.030757815,0.09777145,-0.085869335,0.005630154,0.14084823,0.08682353,0.0015922093,0.071976885,0.14760096,0.041870438,0.13502868,0.046898678,-0.055014163,0.042426568,-0.10834342,-0.08814566,0.0361896,0.11368041,0.11108783,0.122946456,-0.095545545,-0.060361844,0.09178589,0.15032308,0.11967416,-0.03713754,-0.049985398,-0.032405555,0.04005911,-0.06111258,0.11636539,0.10886076,-0.12925437,0.05501018,0.057614133,0.11077333,-0.0997544,-0.087704144,-0.08042158,0.07223338,-0.10565762,0.09341905,0.12536915,-0.06282747,0.15351969,0.04266937,-0.13784227,-0.08924401,-0.07633516,0.06416165,-0.16327462,0.106520966},
	{0.16047083,0.035866175,-0.09954097,-0.016650235,0.11446464,-0.054764025,0.09221457,-0.031605035,0.04167356,-0.094983704,0.094439045,-0.13271376,0.040789653,0.09243631,-0.05055282,0.118428305,0.038950622,0.07166861,0.15997194,0.10058989,0.14177771,0.060483072,0.096655086,0.03943029,-0.10885797,0.021770895,-0.043118615,-0.10629073,-0.0073093474,-0.10393165,0.09815568,-0.035897594,-0.09700562,0.02157715,-0.1306023,-0.10299068,0.10141802,-0.106272325,-0.034294043,0.09584805,0.026207715,0.103052184,-0.010801055,-0.12625292,-0.0017112046,0.051129222,0.07942626,0.09452591,-0.097584926,-0.076749355,0.07088758,-0.014903234,-0.06466578,-0.043975495,0.058096774,0.1506424,-0.06055014,-0.07888529,0.06435855,-0.08084632,0.054159854,0.12866065,-0.082199275,-0.1314293,-0.018748866,0.112604305,-0.0033994466,-0.102659285,-0.11853087,0.042975843,-0.025344731,0.014615053,-0.08658829,-0.050584726,-0.028131958,0.08066529,-0.048496533,0.01976563,0.1464154,0.025686339,0.06430432,-0.15897205,0.08034318,0.05111268,-0.031997204,0.13500267,0.13654841,-0.12675007,0.008763569,0.14132152,-0.039279457,-0.04785864,0.1433265,0.11180357,-0.07465435,0.1598459,-0.1587768,-0.13754681,-0.15866078,0.08582102,0.008430596,0.11569204,0.06356579,0.040987313,0.04097448,0.10471839,0.09994038,0.07187333},
	{0.16610214,-0.15474904,-0.1206801,0.09552454,0.08245871,0.13531238,0.07986645,0.017937906,0.1446236,0.0748409,-0.1440356,0.008882403,0.0015011105,-0.12292209,-0.07518616,0.10953259,-0.004756674,-0.0458455,-0.15266201,0.14042635,0.14427593,-0.06695276,0.046199746,-0.08903427,0.036397338,-0.11678088,0.06787173,0.113412134,0.049165852,0.044718925,0.11095827,0.015688835,0.06957999,0.011121869,0.060721397,-0.047317535,-0.1690694,-0.16224808,-0.039282415,-0.07589069,-0.09156889,-0.088864736,-0.008606114,-0.16286099,-0.10524298,0.0810112,0.13344678,-0.06909489,0.07205865,0.023632228,-0.048299327,0.109794945,0.046528947,0.011613175,-0.09594294,0.025064586,-0.009035513,-0.09613336,0.067968614,-0.13992015,0.10668854,0.017994918,0.10668079,-0.16287333,-0.023393465,0.15874559,-0.08549397,-0.02941294,0.12382248,0.114791736,-0.008015127,0.021571904,0.11777331,0.15400389,-0.08837903,0.029212886,-0.07929297,-0.013776021,0.023780033,0.04987179,0.1289411,-0.018560175,0.019688228,0.13907178,0.09414063,-0.07717442,0.16450304,0.0975854,0.16353922,0.034080602,0.14004894,-0.12646566,0.03599209,-0.11833292,-0.091457255,-0.16582529,0.0032725036,0.14489536,0.047586236,0.11067392,0.056118418,0.037833273,0.15824054,-0.082179345,0.1608472,-0.15236616,-0.14621533,0.020264098},
	{0.13199061,-0.111772604,-0.12664594,-0.021231035,0.010320387,-0.07980077,0.16153955,-0.13691871,-0.15034668,0.02488403,0.16426373,0.0013707348,-0.008577271,-0.0023423904,0.037533786,-0.15885372,-0.037577808,0.032736734,0.033350836,-0.08435689,2.3902503e-05,0.08655464,-0.04487103,0.08818516,0.09336753,0.13227199,-0.1433799,0.071377985,-0.02194958,0.16636907,0.0037391023,0.0867777,0.024705296,-0.10661195,-0.003372199,-0.15029812,0.13425809,-0.07865957,0.15002403,0.10289148,-0.070689686,-0.16826674,-0.026392769,0.091935754,-0.14309712,-0.0346812,0.08714147,0.14719126,-0.09395976,-0.15724851,-0.05411817,0.16531555,0.057759225,-0.0064566135,0.10157027,0.1402209,-0.13821326,-0.04088246,-0.013185544,0.10794975,-0.16361354,-0.109068625,-0.08924735,-0.008195868,-0.16779278,0.034663364,-0.07519709,-0.12433688,0.014585705,0.05837269,0.15418528,0.068956934,-0.10596248,0.038202684,0.04651042,0.019894551,0.03187525,0.09925394,0.10912414,0.0012104796,-0.010442204,0.013910451,0.062932156,0.13941883,0.07345208,-0.066178575,-0.020089697,-0.09906454,0.05663637,-0.09199953,0.034180775,-0.020440517,-0.14949766,-0.15947732,0.02287656,0.13115779,0.14894392,-0.098883055,-0.03108923,0.08449348,0.14610292,-0.140302,0.08991617,-0.16371295,-0.04904667,-0.028153272,-0.13938768,-0.16538164},
	{-0.14369139,0.068636246,-0.036776874,-0.040142782,0.009575436,0.1259517,0.05109708,0.0629719,-0.10498404,-0.085876375,0.10568595,-0.096202396,-0.058068562,-0.071824715,-0.09843278,-0.086751185,-0.09498099,0.13003923,-0.04332731,-0.09658668,-0.16694973,-0.13129526,-0.12346499,0.13581172,-0.023756796,0.0021323354,0.091063894,-0.052045263,0.0023654415,0.06397004,0.084676206,0.056464177,0.1313392,0.08899789,0.10206635,0.052158475,-0.033101838,-0.10643205,0.031829096,0.12414177,-0.107907586,0.1528397,0.09614321,0.16329443,-0.000611797,-0.09259774,0.070932254,0.030033365,0.09681404,0.10807864,0.032615483,-0.14508551,-0.14588028,-0.012450695,-0.085538864,-0.07856235,-0.0694714,-0.081709385,-0.029576072,-0.099247575,0.027359767,0.1602481,-0.118606366,0.15715401,0.073871806,-0.002510846,-0.1520115,-0.044116378,0.105364196,0.14376011,-0.08547935,0.11192524,-0.032817453,0.033026878,0.02835663,-0.02503719,0.13254559,-0.11545085,-0.06976407,0.050501037,0.033411548,-0.020172462,0.094309606,0.1518019,-0.12766263,0.07936493,-0.029158639,-0.02835829,-0.004332947,0.12598795,-0.0026573692,0.04577507,-0.1407868,-0.10812727,-0.048868477,0.14628659,-0.0036272139,0.14604048,0.017892329,0.14059061,-0.018611213,-0.0715472,0.059465844,-0.0650539,0.17142299,-0.1164652,-0.050527796,-0.1022892},
	{0.13480192,-0.113717824,-0.1625747,-0.13530393,0.14099863,-0.14922985,0.037942886,0.13899533,0.008709927,-0.13522041,-0.16189334,0.02034793,0.06428212,-0.14517787,0.15161502,0.11903356,-0.07352265,0.09490095,-0.10296259,-0.07819281,0.013449064,-0.04999201,-0.044762976,0.013816887,0.16362663,0.0063714646,-0.0048262817,0.015323234,-0.12552626,0.10927673,0.16602917,0.042169455,0.14230677,0.0039219274,-0.08661983,0.13055156,0.0045672804,-0.018213555,0.06508497,0.06908171,0.08629017,-0.15000644,-0.12960851,0.13803576,-0.07429266,-0.14945516,0.15468971,0.08986388,-0.14308582,-0.0073144212,0.1303484,0.025926214,-0.04130601,0.0803784,0.093677625,0.101658955,-0.15498875,0.14340894,0.045963228,-0.04752226,0.045583475,0.07671367,0.06462072,-0.12875947,-0.12709522,-0.034940407,0.04627009,-0.14727569,0.017776355,0.106848486,0.1292622,-0.08610902,-0.022396779,-0.067536205,-0.042275436,-0.07579574,-0.01584261,-0.0075093526,-0.010281582,0.10636087,-0.12341981,0.13525978,0.045880996,-0.021172311,0.082590714,0.12019959,-0.082773186,0.09556393,-0.13484836,0.024388535,0.01546077,0.03135641,-0.15790711,0.14087726,-0.07314897,0.06153464,-0.10996682,-0.07887609,0.16064659,-0.07793228,-0.046421833,-0.028105944,-0.09140029,-0.016392123,0.106506556,0.0026865348,0.06451771,0.14173207},
	{0.09498407,-0.021927033,0.06504307,0.16087367,0.15148683,-0.13186482,-0.16980189,0.05995111,0.10516436,0.025120035,-0.036886178,-0.08373154,0.16257507,0.16763026,-0.13367069,-0.15531018,-0.089076295,0.026232824,0.013880476,0.13929509,-0.058945905,-0.014238357,0.021807408,0.056591325,-0.107741505,0.086124465,-0.04645855,0.040926866,-0.14193648,0.073875986,0.11223644,-0.09062943,-0.0806095,0.05217803,0.16046005,-0.08071945,0.09690828,0.03315364,0.006448953,0.024991037,-0.16240565,-0.11129942,0.035341594,0.033808846,-0.1580478,0.019856766,0.055084996,-0.015058809,0.09744026,0.08133604,0.12487365,0.14463465,-0.13253188,0.036647305,-0.043956175,0.02069344,-0.109258905,0.16533944,-0.10133237,0.15897752,-0.16626914,-0.0043792105,0.034769166,-0.02334509,0.070501946,-0.15600556,0.12485893,0.0011681914,-0.08339245,-0.09994747,0.014471911,0.15152723,-0.0006627607,-0.14147398,-0.14657326,0.13598357,-0.06782414,-0.16594629,-0.11491352,0.10981451,0.00021759211,-0.07422318,0.13307163,0.02162559,-0.16876477,0.13170467,-0.045127723,-0.080078855,0.04619533,0.02648456,-0.025110379,-0.14898427,-0.122429095,0.08227859,0.032316446,-0.11972088,0.08295421,0.14558144,-0.14515689,-0.121878676,0.16770245,-0.012862808,0.17119326,-0.058406062,-0.043809127,-0.059960037,-0.0911135,-0.1590734},
	{-0.08455743,-0.07356805,0.078693844,0.061670166,-0.15335332,-0.12226239,0.081544906,0.020043097,-0.07394704,0.018409163,-0.02247084,-0.15113994,0.014607298,-0.14691386,-0.02741167,0.016357541,0.017810747,-0.10590704,-0.054516595,0.09968491,0.09006508,0.077659056,0.0017457788,0.12413854,-0.05872213,0.11771734,0.067986116,0.13389315,0.13243833,-0.0028145588,-0.049723133,0.10891944,-0.116750106,0.07693959,-0.11056956,0.16002555,0.0009275824,0.15209247,-0.026310459,-0.15225224,0.060628004,-0.04161392,0.01061276,-0.11602789,0.0747371,-0.08717876,-0.0701997,0.0043533444,0.13460481,0.15458736,-0.08332571,-0.0005254995,-0.12605648,-0.04197274,0.032623004,0.11270796,0.10995655,-0.16740844,0.15229946,0.06397895,-0.1467413,-0.069736496,-0.12098874,-0.069264665,0.041354477,0.10497821,0.11000805,-0.16266406,-0.078449294,0.030023746,-0.042124644,-0.1578462,0.0042819977,-0.15443884,-0.10805603,-0.0138691515,0.068891525,0.116184205,0.04809502,-0.09508096,0.12644051,-0.03411615,-0.14289212,-0.13475375,0.06273245,0.091390006,-0.11722415,-0.123005055,0.09744018,0.021789804,-0.11612898,0.067801505,0.16112056,-0.13684966,0.13430923,-0.071110785,0.071016416,0.11385158,-0.010128378,0.038176194,0.1459798,-0.059388816,-0.103554346,0.116880946,0.10110205,0.15349798,0.13424645,-0.16153929},
	{-0.12923974,0.03514459,-0.10756305,0.0746879,0.044137325,-0.1168643,0.12726797,0.008322115,-0.14548214,0.009785876,-0.1255269,-0.047290146,0.12024934,-0.003016923,-0.07741693,0.09351146,-0.09908063,0.094873235,-0.090542495,-0.11366086,0.1536455,0.15773214,-0.12293699,-0.14489685,0.14855482,0.11530419,0.012074911,0.04648705,0.13519539,-0.06971405,-0.102115236,0.08385902,0.038900774,-0.063636705,-0.11969958,-0.0022683889,0.0042394847,0.099786595,0.06752765,-0.15636286,-0.0022034182,0.0043175668,0.06010203,-0.024151446,0.014962643,0.011931226,-0.07734338,-0.14247678,0.06012456,-0.0550652,0.07572653,0.075406045,-0.14273873,-0.010355204,0.1426196,0.10837808,0.056578606,0.043226905,-0.11753581,0.061020143,0.13181546,-0.07578168,0.06968164,0.030807197,-0.07415078,-0.07236834,-0.15480983,0.1399342,0.106972806,-0.0405845,-0.037447095,0.059986483,-0.0056007653,0.16187741,0.06269747,-0.036990717,0.09822191,-0.11242507,-0.16185865,-0.06945974,0.15360786,-0.01873812,-0.0406327,-0.021889685,-0.1384935,0.07938615,-0.08883684,-0.1560571,0.027166843,0.020719638,-0.12753314,0.14492455,0.14621146,0.02588211,-0.034366067,0.10977849,-0.000826093,0.016997116,0.13729227,-0.14691979,-0.079170644,-0.09161951,-0.06519755,0.14193858,0.020596238,0.12806033,0.0593742,-0.058193877},
	{-0.0032495856,-0.0073469286,0.07382393,0.07434617,-0.16186933,-0.10887694,-0.054879747,-0.101570345,0.07135419,-0.06029871,-0.12630227,-0.15936504,0.035363946,0.03034237,0.011437288,-0.062146567,0.13716762,-0.028109342,-0.07010433,0.14926319,0.098596856,0.06446926,0.004812051,-0.16557854,0.09423183,-0.16385141,-0.026884168,0.005987495,-0.10970582,-0.061321642,0.14271027,-0.13556089,-0.08414066,-0.16500199,-0.079552956,0.10160108,-0.13296399,0.05719623,-0.15251136,0.039626144,0.065337375,-0.16387275,-0.03710138,0.101304226,-0.110679075,-0.07019258,-0.09122368,0.14575844,0.13676862,-0.01754427,0.06477246,0.10361631,0.04624732,-0.10806839,-0.053342424,0.058931552,-0.03401591,0.13029265,0.096783176,0.05929424,-0.11637809,0.1595862,0.120773725,-0.017783824,0.12407854,0.10066475,0.019206047,-0.13014397,-0.025241166,-0.12537076,0.13483296,-0.119341366,0.1375819,-0.13691892,-0.07982785,0.12895492,0.12992567,0.07083587,0.03546658,-0.123065196,0.13392071,0.10605343,0.0291591,0.08588538,0.05064066,-0.03364498,-0.05241201,0.046870455,0.07332683,0.015199855,-0.03571185,-0.038606398,-0.03749101,0.12473314,0.006174326,0.0039700866,-0.114272065,-0.009121705,0.14000632,0.0633621,-0.005341489,-0.027326588,-0.00985177,-0.015359236,-0.0071411375,0.054217655,-0.012957187,0.08750686},
	{0.0253741,-0.10619244,0.00905717,-0.062317293,-0.03663116,-0.072881944,-0.05609931,-0.031195352,-0.040282995,-0.06305151,-0.1559735,-0.113213986,0.17116776,-0.025356703,-0.09698761,0.050082766,0.16637199,-0.044815727,0.118446484,-0.106189735,0.10364486,0.042363375,-0.10332635,0.014495827,0.015533357,-0.060912546,0.039891858,-0.026555583,-0.082617626,0.15687828,0.047386393,-0.056697417,0.061468717,-0.1414218,0.0046504736,0.0075191706,0.00590159,-0.1356356,0.053139552,-0.1368481,-0.09244714,-0.0075756162,0.014660582,-0.06653702,-0.14802106,0.14647174,0.12470084,0.05645469,-0.070525944,-0.13211034,-0.075159125,0.057354786,-0.09287893,-0.066442214,-0.07731724,0.09696372,0.12681778,0.029476304,0.081013784,0.04770458,-0.042928524,-0.06418309,-0.13161674,-0.14366452,0.10165201,-0.06146948,-0.13784578,0.04637602,0.10794612,0.025016572,0.048618257,-0.015101565,0.14652108,-0.15166318,-0.09929404,0.16334052,0.103517786,0.12894142,0.16493224,0.10499863,-0.029984176,-0.10987522,-0.16711256,0.14426951,0.094857804,0.13865596,-0.16157128,-0.15469706,0.022833858,-0.051261567,-0.10911011,-0.025255032,-0.016034832,-0.14071734,0.09987954,0.014701679,-0.16338375,-0.02536095,-0.1040856,0.016417354,-0.085507326,0.11554353,0.006592661,-0.0074083614,-0.014047942,-0.15095343,0.070044786,0.16283125},
	{-0.16328043,0.07825441,-0.010902908,0.006398795,0.066287175,0.1030359,-0.022989377,-0.026707724,0.052028794,-0.01095666,-0.032233104,-0.023035333,0.08696132,0.04632979,0.13743015,-0.07043176,0.02636607,-0.052629672,0.0387371,-0.11827481,-0.16442867,-0.13363317,0.07799238,0.11316302,0.09629296,-0.1042618,0.049814623,0.15562707,-0.021429643,-0.028927797,-0.04083008,-0.019374836,-0.10251383,0.13261437,0.03967936,0.009689584,0.04230407,0.06648314,-0.08176099,0.15046434,-0.06723573,-0.117516726,-0.102941185,0.13910453,0.123961106,0.11208604,-0.09690921,-0.09994708,-0.061791703,0.012190089,0.029052043,-0.0635753,-0.13116068,-0.08426713,0.032155566,-0.06869816,-0.15437567,-0.1657085,0.080044314,-0.052909203,-0.023510866,0.08056803,-0.016356796,0.070567034,0.11528524,0.15864314,0.029770434,-0.15321842,0.084995106,0.077095225,-0.16147579,0.06757405,0.07929028,0.15332769,-0.116060585,-0.0878347,0.041615065,0.002516821,0.07622275,0.013066404,0.14362973,0.014504646,0.023161687,0.05528962,-0.13957657,-0.10697509,-0.07853492,-0.08429531,0.107581615,-0.051944353,-0.16139333,-0.14129952,0.053849686,-0.04709827,0.075700134,-0.07969145,-0.15482496,0.06781567,-0.14167437,-0.0503299,-0.11813041,-0.1350859,0.124677226,0.094098635,0.10209011,0.098593324,-0.03684212,-0.0043704063},
	{-0.0038717398,0.13977745,-0.07172077,-0.0062983227,-0.0896644,-0.044080608,0.032448947,-0.057250965,-0.13313428,-0.16202119,-0.005068779,-0.10380053,0.052743874,-0.12859234,-0.12074325,-0.1432893,-0.027483806,0.09338687,0.14060307,-0.103139,0.040137783,0.106187955,0.09506479,0.08047723,0.0065243253,0.019035473,-0.15349758,-0.045103796,0.007883939,0.12495173,-0.07672125,-0.10450431,0.1308972,-0.019108599,-0.15357968,-0.0069972277,0.0567725,-0.108647585,-0.10776475,-0.16309373,-0.12663513,-0.089049585,-0.039870836,-0.14482486,-0.10016147,0.11141178,-0.067617975,0.014165655,0.024198025,-0.13415754,0.0376918,-0.024669781,-0.09560272,0.042139933,-0.08137693,-0.08796308,-0.1457215,0.025339039,0.07195404,0.07709215,0.04102896,0.14795193,-0.08557912,0.14132641,-0.13628265,-0.10770661,0.046397097,0.08799882,0.062127694,0.12078864,-0.08424106,0.04305177,0.12689234,0.044683762,-0.06752984,0.043110028,-0.054461654,0.1231584,-0.025609365,0.092373595,0.0630666,0.08424775,0.09928461,-0.114323415,-0.005040843,0.06890085,-0.00834547,0.010303987,0.039052956,-0.15101059,0.034323774,0.07090994,0.14796273,-0.1657027,0.04247865,-0.10377954,0.11033138,-0.043885168,0.10473285,0.0362861,0.06719425,0.05629736,-0.0078174425,0.13980715,0.1254406,0.12564912,0.08028822,-0.015108036},
	{-0.12887162,-0.116123945,-0.033464927,-0.02901981,-0.16391881,-0.031885065,0.12800948,-0.045938402,0.047058817,-0.010799259,-0.13241452,-0.040986076,-0.100459754,0.05353232,-0.15291044,-0.036418427,-0.04907389,-0.11518715,0.10205098,0.00553607,0.0869246,-0.07508053,0.030643368,-0.031613193,-0.09174857,-0.13916779,0.06899134,0.1292755,-0.089137174,0.17031483,0.15811898,-0.09575645,-0.053237043,-0.08319588,0.048177782,-0.013457641,-0.15458639,-0.11519562,0.13157226,-0.14793049,0.13317919,0.012818521,0.09901995,0.151748,0.1649837,0.14081235,0.13197367,-0.0930862,-0.15496081,0.046569526,-0.15199402,-0.14788419,-0.032173738,-0.061549895,0.035691798,0.0172907,-0.1424983,-0.13475329,-0.074898586,-0.004499018,0.15085836,0.16190486,0.022249445,0.15337159,0.0030196498,-0.07395504,-0.08485905,0.06041968,0.023193583,-0.05540541,0.16730553,0.15245879,-0.0820375,-0.101787396,0.16977191,0.054607864,-0.060716793,-0.12675689,0.04870437,0.15263976,0.058471415,0.09139142,0.15567967,-0.1261299,-0.06074953,-0.0014496322,-0.14001499,-0.019697197,-0.060131997,0.08122939,-0.16701433,-0.066613846,0.016679455,-0.16410401,0.067347765,-0.122328915,0.019329563,-0.14439577,0.07624563,0.14681272,0.108010374,-0.08490221,-0.003806016,-0.03774242,0.00684236,-0.085424796,-0.14908119,-0.13816653},
	{0.006453559,0.09031672,-0.053166084,0.08059728,0.10308446,-0.13490683,0.035575807,-0.081334025,-0.004627882,0.06380983,-0.03680468,0.13383959,0.029107207,-0.036123015,0.06010427,-0.040763002,-0.061195232,-0.10605335,0.048846684,-0.014944506,0.12877254,-0.08199986,-0.037722435,0.08732496,-0.09083018,-0.040103808,-0.092240416,-0.07986105,0.062209282,0.090343356,0.061765388,0.12124412,-0.15204778,0.11809683,-0.036534917,0.024257734,-0.060030438,-0.005010411,-0.041361887,0.0059660412,0.16002306,-0.12855732,-0.039292395,0.10968551,0.019949898,-0.1718106,-0.13014114,0.05045414,0.074823745,0.08395433,-0.11761107,0.022269297,0.13962665,0.010330811,-0.15482156,-0.12766767,-0.07800517,-0.045835413,-0.0182313,-0.07163265,0.005895328,-0.15793778,-0.105649,0.02802833,0.13830636,-0.06222594,-0.13817719,-0.10226953,-0.15665874,-0.06019927,-0.1652776,0.098119944,-0.022543425,0.09003297,0.10750755,0.15638907,0.13522606,0.05127196,0.15648521,0.11404388,-0.09865207,-0.08890391,-0.168471,-0.14422539,0.087093025,-0.1347304,-0.046920884,0.11717741,0.04748688,-0.12308961,-0.13792282,-0.12882885,0.0652866,0.0102577945,0.16133772,-0.10154649,-0.13397226,0.05729593,0.08818293,-0.13750803,-0.016337164,-0.00069339573,-0.0057047945,-0.031917386,-0.15254326,-0.09406466,0.022997439,-0.073089555},
	{0.07398601,-0.07794038,-0.06315451,0.04711416,-0.09525147,0.058069482,0.09480901,-0.118503764,0.10551948,0.040331155,-0.048242923,-0.10286021,0.14198224,-0.1616941,0.013055265,-0.16753331,-0.049215414,-0.016383693,-0.16020033,-0.033349454,-0.07130695,-0.12187755,-0.11610324,0.018145608,-0.14851534,-0.1489715,-0.040210623,-0.15232319,0.12104344,0.07425726,0.07940331,-0.0929299,0.16313341,0.08484163,-0.090775274,-0.081680164,0.08414705,-0.024590284,0.006559655,0.07173251,-0.035431944,0.1221012,-0.031143075,0.16367996,0.014374927,-0.044804238,0.15370756,-0.029789925,0.15690611,-0.013873383,0.14446625,-0.11844339,-0.14197443,-0.1570695,0.1072788,0.09961662,-0.06191358,-0.09139435,-0.044109184,0.07884335,0.1038294,-0.06323091,0.050717458,0.03922197,0.11515497,0.05713614,0.13707307,-0.13831595,0.1389673,0.15139672,0.08271079,0.04035722,0.107402906,0.10990549,-0.13205318,0.117396906,0.10676548,-0.02003143,0.030346097,0.10487421,0.102540836,-0.13436621,0.1331011,-0.06326355,0.0934269,0.05880204,-0.120216094,-0.090417184,0.105411075,-0.023477927,0.108072534,-0.024048107,0.02632561,-0.040205523,-0.13920596,0.13541883,0.017847205,0.07499768,-0.053146392,-0.113351956,0.00077694765,0.07112743,0.08868291,-0.11013631,0.05806312,0.018880323,0.024158612,-0.121042795},
	{-0.046656467,0.08218206,-0.035584353,0.038475707,-0.03436162,0.10919945,0.10736768,0.12658739,-0.112429015,0.082140535,-0.14922403,-0.11632492,-0.074267104,-0.027476111,-0.03070813,-0.15519746,-0.07947736,-0.15786539,0.060223877,-0.07570894,-0.04276696,0.15437919,-0.0006086171,-0.010078704,-0.011977417,-0.032217376,0.16781396,-0.14851415,0.043076444,-0.07778236,0.14944819,0.16100973,-0.017054295,0.030529693,-0.16580154,-0.013339475,0.068170056,0.11744703,0.051064067,0.13281822,0.07150161,-0.044356216,-0.12903315,-0.11247106,0.15871699,0.0764838,-0.0987542,-0.113230675,-0.13153064,-0.041592926,-0.016631931,-0.04621039,-0.023639878,0.031976506,0.0013931547,0.05719132,-0.062332124,-0.109482124,-0.04049578,0.03207101,0.13180378,-0.023108874,0.10982119,-0.036225256,0.112230256,-0.13305587,0.012148961,0.027679905,0.10497536,0.035678614,-0.1287623,-0.032826472,0.033352993,0.027107581,-0.037597597,-0.036591534,-0.13462329,0.09334959,-0.007750958,0.02971706,-0.10091365,-0.11153618,-0.070436046,0.11018812,-0.122379996,0.10291081,0.10780385,-0.08103594,0.019932743,0.07715818,-0.041177396,-0.13127695,-0.115206465,-0.14636594,-0.0075948983,-0.03267595,-0.008322313,0.04819267,-0.10464686,0.051349197,0.13232408,0.09528733,-0.08407651,-0.15511121,0.116248526,0.11634022,0.14644505,0.15249571},
	{0.09094174,0.15595965,0.13352767,0.04026922,0.16158618,0.09766556,-0.06954389,0.13499965,-0.12293546,0.045578748,-0.06311847,-0.044127222,-0.115292884,0.010332121,-0.09532045,0.09150049,-0.082314,0.06617306,0.041105844,-0.14915979,-0.15373594,-0.16182974,0.06867046,0.15507138,-0.056294337,0.07877908,0.06367992,-0.05958923,-0.092216045,0.1472345,0.01906428,-0.014665687,0.035699937,-0.16643776,-0.10554217,-0.022773013,-0.007318708,-0.12357945,0.1645046,-0.052918136,-0.04737408,0.05262054,0.12898119,-0.09923432,-0.12379315,0.003572479,-0.06810269,0.024801549,-0.12946011,0.016752083,-0.14047553,-0.08992273,-0.037345707,-0.06538238,-0.13401477,-0.032411605,0.16341,0.13144234,-0.11205255,0.048366472,0.0518559,-0.15271163,-0.13739385,0.10077678,-0.013520155,-0.021162927,-0.08488228,-0.12447961,0.15380172,0.027810985,0.12276708,0.16204637,-0.088042706,0.12038175,-0.02699566,-0.03271564,0.0076471856,-0.13937116,0.029283628,-0.061329197,-0.034330573,-0.07071489,-0.045735676,-0.06754789,0.11309071,0.107281856,-0.01934664,-0.022648107,0.0939649,-0.15314266,0.14135033,-0.15188806,0.09988827,0.09248521,0.026915312,0.12101875,0.06597449,0.019410351,-0.04849736,0.08340137,0.009173654,-0.14622551,0.10532073,0.0824532,-0.035656985,0.14449967,-0.0014822742,0.034140673},
	{0.071826056,0.059243742,-0.09891029,0.10205826,0.1452987,-0.067093916,0.10843025,-0.1370343,-0.08485081,0.103683755,0.15007241,-0.11545263,0.05953626,-0.15769193,0.091512,-0.044687934,0.030169249,-0.012570858,-0.14868818,0.15948087,-0.13890487,-0.024031542,0.041292712,0.14400901,-0.05592122,-0.13834256,0.07853475,-0.1362935,0.041865557,-0.04804073,0.019964285,-0.14484183,-0.1356889,-0.08421052,0.093705595,0.12988447,-0.040786948,-0.084395595,-0.11128343,-0.14223082,0.0997264,0.1186502,0.06914216,0.038157877,0.058707476,0.0108457655,-0.07487436,-0.06045204,-0.03445676,-0.08832565,0.07183121,0.07092605,-0.08029201,0.037766516,-0.04596553,0.006992829,-0.022964269,0.13036343,-0.044836044,-0.024448678,-0.077053,0.1307037,0.061832566,0.026312495,0.041050993,-0.11754349,0.011074752,-0.11821817,-0.054856665,-0.014875195,-0.10303495,-0.015576537,0.08206825,5.018711e-05,0.13722792,-0.08354197,-0.027985303,-0.121626794,0.111538514,0.14668117,-0.028493866,0.13110892,-0.11484652,0.116669424,-0.09623463,-0.10274839,0.11816676,-0.027344197,-0.039155718,0.07649106,0.125164,0.09935128,-0.09280797,-0.1505139,0.14745672,-0.10230702,-0.13786818,-0.096354686,0.11150403,-0.028617933,0.14113529,-0.14496684,0.14978443,-0.052374035,-0.14683668,0.10040807,-0.15772209,0.060297564},
	{-0.07033623,0.13625367,-0.10000111,0.152452,-0.04784172,-0.034524307,-0.16429082,0.15700364,-0.062178947,-0.040610492,-0.09531026,0.01139456,0.09530204,0.017906021,-0.058482274,0.14772995,-0.08893956,-0.10415659,0.059181105,0.14138882,0.14774649,0.011533096,-0.08922238,-0.14006957,0.13276291,-0.09627755,0.026690954,0.122687444,0.124289654,-0.0017033592,-0.058526188,-0.14401628,-0.034522757,-0.02146695,-0.15111075,-0.08690415,-0.05672712,0.15975545,-0.03284301,0.13616572,-0.020826157,0.07645534,0.06681793,0.16108842,0.15965681,0.1502113,0.1607359,-0.12375726,0.12588304,-0.06840498,0.14169279,-0.0010001834,-0.09236148,0.14679767,0.15538675,0.02529005,-0.09466246,0.14948866,0.086021475,0.008038449,0.11997766,-0.08895525,-0.079407126,0.09404897,0.074546635,0.029083824,-0.07900469,-0.11362841,0.07705423,-0.035582338,-0.07983019,0.051983867,0.085525826,0.11130357,0.14592911,-0.055459842,0.1358674,-0.093000494,0.03421911,-0.056637414,-0.086619034,0.0495999,0.017109001,-0.07510152,0.054642327,-0.08378589,0.06731786,0.14126542,0.15386425,-0.15202816,-0.12285517,-0.018607104,0.1658055,-0.031802535,0.018776111,-0.10174344,-0.11950706,0.040003464,0.025859097,-0.12910305,0.060170345,0.15014367,0.10044104,-0.14886735,-0.13241872,0.0011283049,-0.08414381,-0.08046308},
	{0.069966964,0.06361768,0.12758571,0.16194578,-0.15002055,0.12811457,0.04670386,0.0849314,0.13019559,-0.03042531,-0.032131657,0.0061402344,0.036642775,0.009968924,-0.16136034,-0.08591213,-0.08600228,-0.096114166,0.13754205,0.16222858,-0.14093664,-0.11050286,-0.01785801,0.062307134,0.009383621,0.066345766,-0.15029727,-0.1210231,0.05474346,-0.050546903,0.078122586,-0.003257316,0.1411288,0.08220885,0.06390132,0.10747744,-0.052257165,-0.060283817,-0.12837343,-0.0054447916,0.0060828067,-0.07325485,0.011444879,-0.09040134,-0.042977326,0.0044572856,-0.0035101846,-0.10964638,-0.022714185,-0.09788963,0.015786787,0.030480511,-0.020327754,0.13629739,0.079169236,-0.029790733,0.042119488,0.009795645,0.15853094,-0.0038385391,-0.073431335,0.13046597,0.12353773,0.09489885,0.010296758,0.05754714,0.036067627,-0.12882875,0.14788061,0.15734959,-0.106860965,-0.09896943,0.11505732,-0.13785066,-0.069389,0.13247469,0.08418383,-0.13448209,-0.024937226,-0.020721942,-0.16015558,0.15903105,0.14461336,0.021686167,0.071446344,-0.14958975,-0.14824389,0.1569274,0.12681362,-0.082924746,-0.024146965,-0.04022718,0.021697592,-0.13385837,-0.0075169946,0.049591824,0.15940227,0.043087218,0.16003384,-0.099705,-0.14165413,-0.08825862,-0.15040009,-0.05458903,0.14442913,0.13148703,0.091672644,0.01612059},
	{0.1289268,0.0015576133,0.1504395,0.1062954,0.0021172722,0.052861106,0.0027583838,-0.031874273,0.045304347,0.070582256,0.028437419,0.09261532,0.024868745,0.16251947,0.105744496,0.1615487,0.009329453,-0.035862446,-0.05044389,0.13712975,0.07076764,0.09353347,0.048989613,0.08005664,-0.010218495,-0.045699667,-0.075236425,0.040094115,0.05950648,-0.16175923,-0.01982353,0.12541853,-0.09141438,0.10423375,-0.09121095,-0.06305011,-0.15507875,-0.06299334,-0.08966234,0.03153071,-0.052820735,-0.02510622,-0.09483487,0.040586203,0.070252225,-0.058613762,0.13358326,-0.16070059,0.10762945,-0.04066888,-0.0027172002,-0.059668314,-0.011571202,0.025974125,0.1280511,0.050745785,0.0013176501,0.120589055,0.07365359,-0.13978736,0.10698263,0.11490528,-0.14320785,0.112300895,-0.07586178,0.048611563,0.012767401,-0.031379685,-0.06547789,-0.037750218,0.038394842,0.0048499596,-0.07254663,-0.02089625,0.064902775,-0.10966639,-0.15610082,-0.041968793,0.091879,-0.019003175,-0.09216139,0.118019864,0.015904047,0.05426819,-0.14421396,0.12349658,0.07784871,-0.12305041,0.1618631,-0.11679427,-0.10109126,0.09275037,-0.15309833,-0.07576129,-0.09949276,-0.0037183778,-0.09469513,0.1585644,0.0022071982,0.14183588,-0.10170019,-0.09318423,-0.05023697,0.14216018,0.06286484,0.07066407,-0.07825748,0.040148146},
	{-0.04157369,-0.12285349,-0.024219938,0.045393236,-0.0005060149,0.10107638,0.12572034,-0.030831238,-0.029817754,0.15203966,-0.16166936,0.07967837,-0.13210936,-0.0018348681,-0.104601316,0.021659834,-0.11745447,-0.06474004,0.15460797,0.09208885,-0.16702889,-0.10731432,0.1501742,0.064609155,-0.051544495,0.04071748,0.14128152,0.054494455,0.113823876,-0.07070548,-0.16253997,0.008958737,0.096366554,-0.11939728,0.10763179,0.016036585,0.053588226,-0.08900064,-0.0044716746,0.08086493,-0.16289705,-0.16590685,0.023227608,0.062717736,-0.026116207,0.14684409,0.057403922,0.08734213,0.047927,0.059395906,0.03381658,0.095509596,-0.07693725,0.036743075,-0.020246675,0.11102351,-0.1077198,-0.033579927,0.086977,0.082366236,0.15857923,-0.14487916,-0.08337279,0.15032707,-0.049488917,0.1345486,-0.033955693,-0.15015005,0.1516918,-0.12732004,0.075136125,-0.07202152,0.08150591,0.015578857,0.12557495,-0.050828166,0.042153828,-0.00693192,-0.1528471,0.0058524013,0.00664784,0.016681075,-0.09424403,0.07700449,0.03994266,-0.060529232,0.001782909,-0.056518666,0.13356598,-0.020504907,0.1018343,-0.15516381,0.099385455,-0.16008447,0.16199243,0.13904567,0.15419832,0.12072989,0.10005462,0.018291637,-0.091972105,0.15820752,0.1656311,-0.08436735,-0.092017844,-0.117130026,-0.020396188,0.13734843},
	{-0.09832684,0.023326317,-0.037356555,0.10115507,0.117538676,0.06575121,-0.1639748,0.066261865,-0.11239407,-0.12391356,-0.07152193,-0.10830477,-0.019430133,-0.16889586,0.15526374,0.056712084,-0.09642939,0.13950314,-0.022339402,-0.01335812,0.054629505,0.14452349,0.1337463,0.11449302,-0.0380293,-0.07849249,-0.10798631,0.12943463,-0.11384942,0.123073176,-0.04816196,-0.16108435,-0.12034193,0.09569397,-0.1506018,-0.088321894,0.0071436316,-0.027799904,0.13976796,0.011597492,0.046892405,0.12564842,0.12235939,-0.13201624,0.07242361,-0.04413833,-0.104245275,-0.038764387,-0.059069935,-0.15519604,0.07084941,-0.08751517,-0.14024723,-0.118757024,0.04894881,-0.05296786,-0.034584433,0.1592924,0.044301517,0.14803547,0.1295946,0.04196694,-0.07254988,0.036739122,-0.057079703,0.04006688,0.038645547,0.09619574,0.13469683,-0.015859887,-0.1562108,-0.047948092,0.09536658,-0.1264572,0.098615006,-0.11611657,-0.0477236,-0.0025498604,0.026700187,0.10172711,-0.05834634,0.090112194,-0.09160594,0.039139833,0.16698971,0.032761823,-0.05698441,-0.067267224,0.03510765,0.14207582,0.106400535,0.1624137,0.0971331,-0.027762175,0.07969898,-0.1254848,0.06362518,-0.044693552,-0.15269823,0.13504161,-9.109019e-05,-0.01802145,0.16641122,-0.12625691,0.085434526,0.12305412,0.060021937,-0.08680977},
	{-0.10535524,-0.13582748,0.15546787,0.17404675,0.11214887,-0.10188592,0.16405396,0.07908722,0.16158342,-0.14719349,-0.043924656,-0.0132671,0.05056021,-0.05326002,-0.16196881,-0.049895592,0.0026285648,0.10175179,0.13699761,-0.12705265,-0.057485826,0.13144039,0.09659318,-0.10621028,0.049612105,0.11194517,-0.15284672,-0.0045223683,0.063404135,-0.024895428,-0.081974305,0.0730353,-0.07725505,-0.056937527,0.05426172,-0.10952909,0.040000334,-0.02700898,0.012610465,0.024192167,-0.095262624,0.14755644,0.08111969,-0.016648006,0.13058148,-0.13003927,-0.06683,0.04802215,0.038957283,-0.09271304,0.123186804,-0.025848124,-0.038159166,-0.13351448,0.008004527,0.10500679,-0.11576502,0.042692892,0.085732274,-0.04010467,0.011858103,0.042719305,0.006636131,-0.11621363,0.0019762367,-0.03652845,-0.107397996,-0.03766036,0.114217944,0.03276253,-0.08921594,-0.10545001,0.08798559,0.10411866,0.097213484,-0.069740385,0.15174046,-0.121018395,0.14502855,-0.124297515,0.08983819,-0.055620886,0.10967458,-0.11284789,0.121144354,-0.1291836,-0.10742744,-0.1316888,-0.13762656,0.08272293,-0.12920046,0.06774475,-0.10096153,0.046113774,-0.088247865,-0.057556976,0.013967075,0.14802179,-0.027939375,0.0678408,0.1091903,0.10656263,0.13058,-0.0861694,-0.113513276,0.058316078,-0.00041657686,-0.12311676},
	{0.1454574,-0.15024567,-0.04186937,-0.13629717,-0.08862528,-0.0873062,0.06890601,0.0034296364,-0.1618454,-0.08430705,0.14517485,0.13781174,0.1130151,-0.09496438,-0.12992886,0.11339308,0.10637413,-0.01642789,0.13680866,0.0043035205,0.08349563,-0.1079919,-0.05624504,-0.04540225,0.09387265,-0.080529824,-0.049005218,-0.08995748,-0.122909084,0.13064788,-0.15129972,0.13056044,0.052190572,-0.0059880167,-0.11038508,0.06861584,-0.12987223,-0.029898673,-0.15639259,-0.012483103,-0.12513775,-0.02768017,0.0003347438,-0.14306656,0.105752036,-0.055563398,0.025631323,0.1270775,0.07807264,0.13678347,0.13491862,-0.07933057,0.1553876,-0.0023031235,0.09079047,0.040479958,-0.044068985,-0.07458797,0.063722074,0.056933716,-0.12466503,0.09531055,0.017884627,-0.05642142,-0.04982898,-0.0024111122,0.110451,0.026711836,-0.14132108,-0.058350507,0.017403087,0.100055076,-0.0919978,-0.025691718,-0.095937476,0.16335844,-0.099809505,0.1429223,-0.11575883,0.020476758,0.034154274,-0.0698588,0.09074041,-0.038656432,0.042352352,0.023085523,0.007416475,0.03140375,-0.11644153,-0.14883794,0.056710348,-0.124410294,-0.07956432,0.13750361,-0.038217068,0.020604774,0.021726102,-0.044731773,-0.11865838,0.047555424,0.023278212,0.12436825,-0.11788393,-0.04612109,-0.05808233,-0.04064467,0.056809485,0.084397},
	{0.030436054,0.14828163,0.08620605,-0.16042764,0.006846805,0.1226731,0.15289931,-0.116619706,0.0068356665,-0.16008611,-0.071866095,0.02213274,0.0038399748,-0.0055512507,0.01977184,-0.056866124,0.12989922,-0.035782084,0.029898541,0.11862738,-0.07342951,-0.13512912,0.13740371,-0.024760544,0.046256542,-0.13001242,-0.06543167,-0.06825778,-0.080294125,0.14076318,0.079769075,-0.09113256,-0.039429843,0.043137178,0.1434409,0.090936676,0.12041775,-0.0481624,-0.013602429,0.101293065,-0.1329795,0.030629836,-0.12862398,-0.108848065,-0.04405474,0.0059161484,0.064610526,0.106264226,-0.024196774,-0.13864645,-0.09303421,-0.057156328,-0.121652424,-0.015161812,0.11543641,-0.060269166,-0.043331236,-0.018247208,-0.075312175,0.06830907,-0.034868132,0.124408,-0.013855775,0.14027074,-0.022457127,0.15015663,0.05064632,0.1006528,-0.11112516,-0.03712233,-0.028486889,0.06975589,-0.14208116,0.058697775,0.069661245,0.054690365,0.14174059,-0.11829298,0.039203778,-0.15951344,-0.09227149,0.12009801,-0.10536732,-0.07608937,-0.10499969,0.040974505,-0.02174184,0.16284774,0.13326253,0.13689207,0.13732275,0.121809326,-0.09269588,0.1525373,-0.1454181,-0.13526408,-0.059627466,-0.14364469,0.13746937,0.11656561,-0.13207012,0.12252863,0.038563393,-0.045078266,-0.16082633,-0.008105575,-0.00467568,0.008393347},
	{-0.050310668,-0.035451457,0.08540418,0.039518677,-0.15516084,0.012158051,0.017468005,0.05012981,0.060017325,-0.12302038,0.027701417,-0.1286111,0.05503476,0.0055196993,-0.09560621,-0.13385804,0.05733864,0.015173033,-0.12954912,0.08989065,0.10118376,-0.027850121,-0.007308633,-0.13711338,0.11842879,0.113062896,-0.10060327,-0.10221965,-0.031324312,0.08472977,0.09893003,-0.060570907,0.0163614,0.011908319,0.004045192,-0.043132305,0.0114302635,0.017251953,0.06520519,0.08257381,0.10346642,-0.11895492,0.0146771185,0.1027959,-0.11546589,-0.15592553,0.14235963,0.120626315,-0.008627559,0.13350527,0.048249427,0.16486521,-0.113905065,-0.010078549,0.09849986,0.027187444,-0.14369914,0.12308359,-0.1068607,0.15783593,-0.09561083,-0.012322126,-0.1422861,-0.020119423,-0.16020021,-0.0006766416,0.05302553,0.08560918,0.14494912,0.09524915,0.012346059,0.043636706,0.110676214,-0.090145476,0.15867613,-0.11212692,0.046833467,0.06788389,0.14790568,-0.042910002,-0.15917905,-0.07935533,0.0081124175,-0.014071232,0.035544075,0.073434725,-0.073554024,0.1031982,0.13449003,0.095327966,-0.037012894,0.1545294,0.04092447,0.08679866,0.027303066,-0.11928219,-0.1469769,0.0977893,-0.15340444,-0.13460985,-0.05436932,0.034955427,0.16513458,0.076141596,0.0675413,0.1518649,-0.067679234,-0.023398526},
	{-0.029356973,-0.076174684,0.15462136,-0.10403147,-0.020471347,0.15190926,-0.024344573,-0.08899411,0.11468642,0.05768943,-0.05660128,0.12132119,-0.049373765,-0.027339138,-0.011081122,0.11267878,0.14178018,0.07412127,-0.009882684,-0.04993315,-0.1529123,-0.10861262,0.08859086,-0.076185204,-0.10936606,0.053969238,0.00043003913,0.11018437,0.11879358,0.12614457,0.019426376,0.00026467154,0.106143,-0.016242186,0.15656656,-0.07753502,-0.15221961,-0.15261632,0.06292277,0.03692913,-0.13831475,0.08823223,-0.15567893,0.010417285,-0.16504933,-0.0563362,-0.08054113,0.035420127,0.09978729,-0.011589398,0.061612487,-0.034434784,0.116428055,0.14492826,0.15285991,-0.08533558,0.0060765147,0.08543074,-0.12166229,0.028281882,-0.15337205,-0.162035,0.07041718,0.045314554,-0.0724363,-0.007970691,0.075286314,-0.16374606,0.037930623,0.05793371,-0.022742111,-0.02712311,0.13221005,-0.09393121,0.1245788,0.14462253,-0.16176628,-0.16032197,0.116124764,0.119200386,0.00561856,0.041341435,0.06644055,0.11152112,0.055687413,0.011102885,0.018638162,-0.019475453,-0.15871064,-0.11917942,-0.15947385,-0.1628604,-0.08902235,-0.08555428,0.10346763,0.10831404,-0.043194786,-0.04555505,-0.07838042,0.058910068,0.16261797,0.12942709,0.15847269,0.10229133,0.15662375,0.14384699,-0.10613251,-0.07283318},
	{0.024004785,-0.09580473,-0.06421427,-0.11409136,0.026147729,-0.14597528,-0.16642703,-0.011896746,0.026004275,-0.027599663,-0.026375894,-0.13063589,0.009173577,0.17068139,-0.14809506,-0.11404757,-0.09307118,-0.1572379,0.12648009,0.15957275,-0.044014648,0.079411596,-0.10922458,-0.03834068,-0.015621012,-0.003384914,0.09709479,0.12718129,0.0003345395,0.055545155,0.017867409,0.15900569,-0.15876232,0.079944335,0.02556475,-0.12554188,0.012368472,-0.114400774,0.1533846,0.16480955,0.07378667,-0.019024927,-0.16566789,-0.120128624,-0.10225744,0.11765374,0.110053204,-0.010548549,-0.0019462846,0.09364898,-0.10602099,0.00050062453,0.018043224,-0.08990691,-0.0055485214,0.106856465,-0.06712639,0.16082978,-0.13353966,0.1536939,0.12747024,-0.0235639,0.104312964,0.13511038,-0.15626304,0.07504442,-0.14593004,0.16331415,-0.089602225,0.027732203,-0.10695392,0.14227337,0.103394255,0.13792461,0.13266045,-0.17156792,0.09036443,-0.113444805,-0.088123806,0.0009835263,0.09575811,-0.116141126,0.14683199,-0.13192399,0.045725346,-0.036972877,-0.0050945934,0.14486405,0.034999732,0.035444032,0.061599605,-0.09898321,0.04727943,0.097384535,-0.13792491,-0.025643667,0.11621602,-0.07314547,0.14190905,0.09840839,-0.0882523,-0.17048217,-0.060019445,-0.17085695,0.074032195,0.059152596,0.06767957,0.08997301},
	{-0.15242751,0.167929,-0.008054707,0.06559659,0.04146525,-0.15462933,0.07214522,-0.14176811,0.14549139,-0.06979308,-0.036854606,0.10594813,-0.003183765,-0.15049256,0.03870747,-0.07857438,0.11252351,0.04697661,0.07523108,-0.09424579,-0.09755537,-0.06474363,-0.056449477,-0.011498538,0.012573633,-0.0785015,0.036582336,-0.064872175,0.01290052,0.14493556,-0.032680973,0.049314998,0.13288699,-0.032371495,-0.08420367,0.14904173,0.10244779,0.13856469,0.14254528,0.0060896375,0.12676266,0.075758815,0.010484686,0.12727173,0.012799174,0.14847168,-0.15884508,-0.11779216,0.02026511,-0.15933156,-0.06696124,0.052796785,0.06648081,0.0029844642,0.05971014,-0.041634377,-0.1497438,0.10604554,0.16323452,0.02718637,0.054462384,0.033597343,0.11392075,0.11870558,0.11015998,-0.12789916,-0.099367455,0.14415799,0.0020080477,-0.06364445,-0.11357188,-0.13526168,0.0749583,0.088947184,0.06927295,-0.12447693,0.06171553,0.101858236,0.10251924,0.09346248,-0.09243203,-0.054245025,0.09177559,-0.15248437,0.0875634,-0.06647395,0.14174223,0.09933679,-0.113794535,0.08753211,0.1493431,-0.030386267,-0.07164833,-0.04604766,0.09056995,0.098781094,0.07166619,-0.15852338,-0.08381205,0.047161367,-0.11258799,0.16596119,-0.09069952,0.11510191,0.088463016,-0.14368275,-0.05691375,-0.07247741},
	{0.06142563,-0.14464831,-0.14930987,-0.10893942,-0.10585788,-0.15029621,0.085529596,-0.14529309,0.07358921,-0.11656229,-0.14013445,0.07778122,0.1347364,0.087145835,0.058309697,0.09038373,-0.13340262,-0.12028084,-0.009882749,0.022277808,0.006860619,-0.13804625,-0.15778907,-0.040720906,-0.06828845,-0.103305355,0.03140152,0.057583936,-0.14100593,0.15379049,-0.0040270225,0.029455991,-0.08233512,0.10214027,0.14782202,-0.15392508,-0.04562319,0.16652377,-0.13985479,-0.09379324,-0.054660175,-0.12011065,-0.04631971,0.09871454,-0.10127732,-0.16263987,-0.04370407,-0.0042398944,-0.16385609,-0.048157908,0.07778522,0.07686636,0.114014804,-0.13099793,0.17054603,-0.08215252,0.025535107,-0.013631501,0.14896986,-0.15269072,-0.03680731,-0.07958941,0.07465436,0.15606955,-0.13300937,-0.02117285,0.09803057,-0.0632203,0.1299146,-0.06819114,-0.121019356,-0.15717724,-0.059313424,-0.099432014,0.111728944,0.11973344,0.12762792,0.1526334,-0.1514861,0.16234082,0.07586556,0.14404209,0.055532753,0.06791638,-0.030631348,0.07944664,0.1315762,0.13998961,0.043418773,-0.15447314,-0.03128939,-0.11506764,0.13275485,0.027409095,0.16464841,0.09036775,-0.0329922,-0.106317,0.01800584,0.16376054,-0.13909607,-0.0060892454,0.14949393,0.014630217,-0.071560435,0.11096661,0.12986672,0.088272154},
	{0.117322885,0.043269336,0.07481058,0.07285734,-0.010585399,-0.16294199,0.0047272444,-0.026188932,0.09494316,-0.029909924,-0.049261842,0.12928878,-0.04477506,0.05733589,-0.14147873,-0.16914,0.16265397,-0.041188285,0.101834774,-0.04096578,-0.10014446,0.076802894,0.12797768,-0.1270856,0.02605518,0.100648865,-0.008910336,-0.07661179,0.09457719,-0.056185164,0.080103576,-0.051360648,0.0097840335,0.078595415,-0.028636083,-0.017351955,-0.15548043,-0.14350092,-0.0387844,0.154777,0.118031636,0.07208407,-0.07428566,0.031271808,-0.13725722,0.13829947,-0.033022914,-0.108339824,-0.114111185,-0.08104334,-0.15157501,-0.025627723,0.15328054,-0.0502095,-0.11258424,-0.16129826,0.04477939,-0.15474941,-0.05928955,0.15421851,-0.15286687,-0.025506925,0.08718286,-0.15852374,-0.110567614,-0.012437279,0.039175924,-0.15563796,-0.106705464,0.06580357,0.10022651,-0.13526595,-0.12251825,-0.05636827,0.15318061,0.027277961,0.026832527,0.10224344,-0.031914536,0.0600013,0.14569406,-0.04545846,-0.057346288,-0.07394485,-0.07837542,0.09053181,0.09153167,0.16830474,-0.07034078,-0.04431838,0.16034909,0.08634806,-0.08087959,-0.13208528,-0.10724529,-0.14134033,-0.14765094,0.0005790664,-0.1257771,0.14420073,0.034818575,-0.15562654,0.12804532,-0.07495722,0.11875116,-0.14522387,-0.12240794,0.088942654},
	{0.06999243,0.08005593,0.036384195,0.06393898,0.12586842,0.008498803,-0.0133342445,-0.0447562,-0.092216335,-0.13996235,0.15404727,0.13868968,-0.11194473,0.09620847,0.120930396,-0.0029376792,-0.032344744,-0.05349937,0.06283053,-0.040783685,0.16330945,0.09491669,0.0991828,-0.08392428,0.031514276,-0.13600507,-0.16384727,-0.0070725107,0.112412885,0.035782635,-0.10201898,0.09496552,-0.07560425,0.021037601,0.06633069,-0.13661532,-0.029181316,0.0903395,0.14402236,-0.104115784,-0.1671208,0.07292071,0.15978587,0.068959,0.07838136,-0.06582938,0.006681484,0.13074575,0.07293376,0.02507643,-0.022731807,0.015391934,0.032914434,-0.1093571,0.15511881,-0.07884532,-0.10250036,-0.10300655,0.033789366,-0.114178374,-0.14060849,0.015567507,-0.15059204,0.056512177,-0.01126062,0.10622485,0.039408598,-0.11502423,-0.042209625,0.09640492,0.02011162,-0.15617524,0.0015722032,-0.046650052,0.020688482,-0.046107225,0.07749363,-0.090441756,0.04975536,0.031935707,-0.14154668,-0.10434789,0.023055417,-0.08864852,-0.1536569,0.029085929,0.0024989417,-0.15974575,-0.16598836,0.13916992,-0.11582737,0.10423073,0.10693782,0.114839904,-0.07407378,-0.16502905,0.012559285,-0.02407127,0.15460715,0.12862797,-0.003057773,-0.03892772,0.029161632,0.13926753,0.030396812,-0.097958356,-0.15068966,0.09070886},
	{0.013931998,0.10338241,0.07236686,-0.14314227,-0.030166833,0.10527157,-0.16153231,0.10990473,0.123335704,0.04069285,0.11474379,0.09441483,-0.09087626,-0.01942557,0.115808256,0.13971014,-0.011785477,0.092949584,0.11408787,-0.016915297,0.046498597,0.043076057,-0.16298732,-0.11446136,-0.014716345,0.09023427,0.11354995,-0.0051491046,-0.108646296,0.08555178,0.15432052,-0.056333978,0.06502785,0.0880809,0.11597046,0.018196747,0.10962147,0.0725486,0.17330424,-0.16480279,-0.15464513,-0.006772283,0.047408275,0.118887894,0.023547888,0.01797682,-0.026743785,-0.012354844,-0.09450708,-0.12296101,-0.10272875,-0.07574736,0.08627955,0.096715495,0.03359852,0.08250724,-0.13106026,0.004184041,-0.08793862,-0.015702516,-0.14698312,-0.14129369,-0.07038644,-0.086470015,0.11350487,-0.07823596,-0.08352929,-0.14931907,0.019426405,0.031215262,0.07181586,0.14293493,-0.14367448,-0.110519916,0.16514601,0.015635075,0.1182726,-0.041363582,0.017041728,-0.07645459,0.082435966,0.16113545,0.13700335,-0.0032736573,0.14740494,-0.02399815,0.13863018,0.0007632099,-0.11545171,0.15731706,0.0174311,0.14498363,-0.02760802,-0.09390098,0.047816396,-0.0917605,-0.15813962,0.12519436,-0.09573072,-0.074819684,0.07227843,0.0022456055,0.020533288,0.021884847,-0.017109387,0.051710725,-0.04833121,-0.111354806},
