// include/conv2d_40_weight.h
// sergio rivera 
// 2020/02/14 23:32:17 

const float conv2d_40_weight_p[3][3][13][4]=
{
	{
		{
			{0.13693398,-0.19032626,-0.031078475,-0.030773615},
			{-0.16356903,-0.16693816,-0.15940478,-0.1641685},
			{0.10147207,-0.14325836,0.08824917,0.013316268},
			{0.20679367,0.09364861,0.14887218,-0.18211919},
			{0.13459301,0.14988688,-0.08462802,0.17838207},
			{0.14828345,-0.00843795,-0.0014398468,0.096834645},
			{0.1576339,0.07058681,0.04902555,0.008892036},
			{-0.015252273,0.10331482,0.17388766,0.03326397},
			{0.09882404,-0.013770513,-0.03977382,-0.021397462},
			{0.085598856,0.10421548,-0.016751828,0.07258993},
			{-0.03152492,0.05116554,-0.13605519,0.15198468},
			{-0.007839141,-0.17726088,0.01066133,-0.041869406},
			{0.12767604,0.02460021,0.17050222,-0.18970177}
},
			{{-0.18127145,-0.094048075,-0.1477167,0.12859446},
			{-0.021346767,-0.038543526,-0.17427483,-0.16092864},
			{-0.10230019,0.096932136,-0.06789852,-0.14255093},
			{0.10293615,0.18606022,-0.14770947,-0.07555415},
			{0.16288058,0.066658355,0.015522425,-0.1545337},
			{-0.18824972,0.17411168,0.039735943,-0.018451117},
			{-0.13400054,0.09208862,0.13185942,-0.037730888},
			{-0.14083885,-0.0123190405,-0.18451503,0.06655489},
			{0.030665848,-0.12865148,-0.009443734,-0.080812715},
			{-0.015164841,-0.1412908,-0.034020428,0.035946075},
			{-0.06820928,-0.0010448282,-0.13159297,0.15205121},
			{-0.16413721,-0.024137717,-0.16464317,-0.11828264},
			{0.11079684,-0.11977227,0.039894443,-0.1391435}
},
			{{-0.045152448,-0.09106632,-0.105898,0.06933587},
			{-0.0056392634,-0.15074587,-0.10866728,-0.062047906},
			{0.15559998,-0.032991182,0.09359268,0.042930588},
			{0.17462681,0.01736278,-0.1892603,-0.026333833},
			{-0.098446414,0.02739974,0.08428157,-0.014780683},
			{0.18199709,-0.1754159,-0.0113129765,0.12265517},
			{-0.08386576,-0.19281915,-0.17836389,-0.019554297},
			{0.013743015,-0.14308892,0.120067574,0.029833984},
			{0.07572663,-0.06679111,0.17413846,0.12112861},
			{-0.025535323,-0.16532207,0.043009326,0.019319592},
			{0.040108413,-0.0017907551,-0.1541972,0.0521897},
			{0.04614561,-0.03741842,-0.022426985,0.08421793},
			{0.17636685,-0.15989666,0.042673238,0.18488075}
}
},
			{{{-0.11329975,0.18450885,-0.1347437,0.09790199},
			{-0.045099188,0.05236699,-0.16736625,0.026140528},
			{0.108061634,0.11387302,-0.15209642,-0.045719363},
			{-0.116549544,0.02817752,0.07795292,-0.065815195},
			{0.08884015,-0.14194714,-0.1134719,-0.0077322293},
			{-0.09150122,0.042917497,-0.19252646,-0.00912358},
			{-0.06482041,0.03284533,-0.0530459,-0.14241873},
			{0.1603764,-0.026796212,0.15825474,0.17406003},
			{0.12902535,0.13582282,-0.18393904,-0.18576889},
			{0.15810312,0.19559725,-0.14151058,0.10314369},
			{-0.025121778,-0.10216293,0.16610105,-0.038413536},
			{-0.16028398,-0.025219025,0.12131203,0.02035188},
			{-0.11393426,-0.09387512,0.06443619,-0.08103647}
},
			{{-0.1325462,0.17690323,-0.1203911,0.05532378},
			{-0.04170135,-0.1453203,0.08659431,-0.029302312},
			{-0.017738288,0.014326907,-0.02974664,0.06643896},
			{-0.19754423,0.1520092,0.15834208,-0.08179997},
			{-0.121985815,-0.1908074,0.13887005,-0.089150295},
			{0.14337873,-0.14984348,-0.025826154,0.13181427},
			{0.17798083,-0.017551817,-0.03044857,-0.12555064},
			{0.024710605,0.07924794,0.098410696,-0.19019823},
			{0.16778257,-0.11852651,0.1307694,-0.12706},
			{0.18528782,-0.00941199,0.023089174,-0.102399625},
			{-0.090818636,-0.1271809,0.10128515,-0.0043875347},
			{-0.00095518824,0.021056522,0.03934584,0.13000245},
			{-0.10299536,-0.15201156,-0.0933923,-0.16580199}
},
			{{-0.14515494,-0.043623835,0.14059319,-0.04428867},
			{0.14298269,-0.15460947,0.17076835,-0.09667337},
			{0.059658185,0.14830622,-0.017380694,-0.19826047},
			{-0.07504838,0.035762228,0.07062293,0.057220906},
			{-0.19133289,0.14750364,0.039157584,-0.10262634},
			{-0.17065288,-0.19456774,0.1819866,-0.022612864},
			{0.11277315,0.032651052,0.021257723,-0.009801788},
			{-0.0013313235,-0.0641545,0.14993781,-0.16465057},
			{-0.073351726,0.17429125,-0.06736262,-0.062201574},
			{0.14676309,0.11125,-0.031104112,0.13236731},
			{0.09172418,0.04662972,-0.20152876,-0.10602223},
			{-0.15277599,-0.10478429,0.1853299,0.028406413},
			{0.012867251,0.114360355,0.12550876,0.046607535}
}
},
			{{{-0.19775368,-0.13567886,-0.16466793,-0.069066286},
			{0.08795511,-0.11048953,0.16726492,-0.109751},
			{0.08997043,-0.106439546,0.151127,0.10681789},
			{-0.13785769,-0.19172567,-0.049507022,0.07989875},
			{0.08593456,0.1109082,-0.0028715737,-0.05604572},
			{0.05164812,0.006307861,-0.13416256,-0.06971232},
			{0.033829223,0.047329854,0.17319858,0.17034611},
			{0.08056765,-0.09357021,0.01817451,0.19299018},
			{0.1451401,0.17756282,-0.117845885,-0.07577598},
			{-0.0073272535,-0.031576,0.06662465,-0.16039222},
			{-0.04071072,-0.067092516,0.05415938,-0.048275087},
			{-0.055902775,0.10497308,-0.06317269,0.045587286},
			{-0.09069085,0.1561991,0.00435025,-0.076191515}
},
			{{0.1371648,-0.13481638,-0.041935347,-0.06735247},
			{0.094397865,-0.18546787,-0.16925305,0.09537222},
			{0.14088185,0.02815469,-0.0067317514,-0.12785248},
			{-0.042947147,-0.06895138,0.005394807,0.15769312},
			{0.023071134,0.18808514,-0.015458675,-0.17086935},
			{-0.12584305,0.037164472,0.169048,-0.15451682},
			{-0.120972395,0.01117903,0.16095516,-0.15484394},
			{0.055431798,-0.0029919157,-0.111774854,0.15578142},
			{0.1205189,0.10469353,-0.04460296,-0.18034297},
			{-0.045675237,0.19196047,-0.17533925,0.19019327},
			{-0.1576256,-0.1355332,-0.02024275,-0.033201013},
			{0.030933091,0.20178181,-0.15991123,0.118284166},
			{0.15274717,0.007435077,-0.036870267,-0.006644062}
},
			{{0.05453785,0.111759625,0.13509153,-0.1903291},
			{0.107766785,0.09944967,0.17179559,0.11788581},
			{-0.15225475,-0.08429531,-0.06815711,-0.099533044},
			{-0.13750122,0.19273098,0.063061655,-0.06316833},
			{-0.10849486,-0.19182394,0.057355095,0.004382807},
			{-0.15628871,0.015595715,-0.045053296,0.1793065},
			{0.13942945,0.008562031,-0.013128573,-0.023596097},
			{0.16927944,0.13421763,-0.16984336,-0.028490875},
			{0.011487144,-0.1437118,-0.07398822,-0.096839085},
			{-0.052410066,-0.1025574,0.10934884,-0.1493368},
			{-0.11790725,0.18962634,0.18011542,-0.011038848},
			{0.013129435,1.9105151e-05,0.09260956,-0.09373515},
			{-0.13826543,0.17999977,0.023932531,-0.02466566			}
		}
	}
};