// include/dense_278_weight.h
// sergio rivera 
// 2020/02/14 23:43:15 

const float dense_278_weight_p[15][270]=
{
	{0.10928315,-0.08572264,-0.07479021,0.008173553,0.06765448,0.09921463,-0.1261508,-0.059366386,0.12679236,0.030335752,-0.103859715,0.09206418,-0.12404896,0.032779098,-0.10815056,0.003359049,-0.058294754,-0.007846179,-0.12622778,0.038431317,0.066198334,0.005362818,0.10030328,0.03940463,-0.13866346,-0.046412062,0.122830436,0.050849337,-0.08083988,0.13649377,-0.06989476,0.009033048,0.02883215,0.06275286,-0.1471157,0.005135742,0.062275514,0.035024222,0.10420639,-0.118911594,0.069787785,0.04428478,-0.027185168,0.09354878,-0.13597286,0.02265929,-0.06331736,-0.10526119,0.13263999,0.1160118,0.059952207,0.0033899802,0.06017759,0.06300827,-0.12748334,-0.033699226,0.10969721,0.128186,0.115226895,0.09063515,0.046114884,0.019140346,0.09503634,0.073770545,-0.12102467,-0.06231547,0.0040814173,-0.11561136,0.04868208,-0.06745473,-0.09973638,0.016067704,0.01123739,0.025751054,-0.0016316429,-0.111691244,0.12709239,0.00879397,0.110336065,0.07652691,0.08580859,-0.030907694,-0.12621516,-0.13543393,-0.02364708,-0.07643241,-0.14767118,0.130306,-0.10630099,0.059852708,-0.086155504,0.056036685,0.08114821,0.042667776,-0.019165244,-0.14810534,-0.04306094,-0.060535703,0.121705286,0.052991934,-0.13510354,-0.13611029,-0.040900014,-0.06812045,0.074405655,-0.10806153,-0.08120312,-0.07674338,0.09094431,0.036283415,-0.124086305,-0.011497578,0.1041082,0.12872574,-0.0654774,-0.13009785,0.12951286,-0.025454378,-0.13637553,0.05547396,-0.06188742,0.009754373,-0.022761457,0.029151484,0.025032155,-0.00456664,0.14019386,-0.043584187,0.10359586,-0.049337227,-0.06826276,-0.016145816,0.08123203,-0.10670248,-0.1298847,0.11363533,-0.11464589,-0.04123689,0.12983479,-0.11614473,0.073474705,0.121568285,-0.07673503,0.034601994,-0.02035596,-0.08402265,0.12742133,-0.10725269,0.0448953,-0.015008025,-0.059719514,-0.03426504,0.06771652,0.10242036,-0.13958305,-0.08786658,0.1047667,0.026266428,0.018472811,0.10407675,-0.011738084,-0.09430322,-0.0057207695,0.0030682164,-0.050901286,-0.11199577,0.07074896,0.13328825,-0.054209445,0.118366964,-0.07525018,0.10378957,0.12078639,0.13522677,-0.016648563,0.023306934,0.01636791,0.02305669,0.07802812,-0.028749399,-0.045671567,-0.106854185,0.014816687,-0.051596697,-0.054478176,0.06702619,0.12616615,0.043141097,-0.07591463,0.13015755,0.0224241,-0.08154397,-0.028846262,0.053202458,-0.0913349,-0.04493189,0.05604916,-0.083882414,0.13835311,0.015273936,-0.12792762,0.117709026,-0.06483703,-0.036994994,0.0038368024,0.11437741,-0.056895807,-0.086981304,-0.011105865,-0.0035442729,0.12646717,-0.08350275,-0.057855275,-0.09132752,-0.113594025,-0.14486162,0.09077602,0.030916829,-0.03674473,0.09736904,-0.05370343,-0.068919286,-0.08476885,-0.107918255,0.05985762,0.009997788,-0.10528794,0.03546526,-0.029537037,0.06624599,0.11185477,-0.027719513,-0.09320361,-0.074000426,-0.0044477046,-0.10687688,0.1211745,-0.11113216,0.09843781,-0.10295512,-0.08052979,-0.027429158,0.09384162,-0.021557493,0.097355925,0.023673346,-0.13012676,0.12098343,0.13471535,-0.010831652,-0.07054313,0.093275696,0.045322258,0.09496204,0.11254004,0.07798568,-0.06840843,0.036926936,-0.14145859,0.071001135,0.038772993,0.029076204,-0.14262111,0.021432236,0.112747915,0.12357546,0.081099115,-0.071556605,0.011602072,0.00749949},
	{-0.029978428,-0.03416013,-0.11369625,0.14536744,0.033908688,-0.10386095,0.0744753,-0.082290664,-0.01818547,0.078463964,-0.109761775,0.04872412,0.12046282,-0.094682336,0.013786464,0.13218507,0.11766516,0.101694785,0.08834947,0.11557125,-0.08491146,0.07887605,-0.06228127,-0.07250896,0.0018096656,-0.07161352,0.11286273,0.13211776,-0.12946324,-0.13417993,0.058515012,-0.109580584,0.09868397,-0.12802625,-0.06817319,0.106834166,-0.102790155,0.1329906,0.039289325,-0.10138724,-0.018839624,-0.14202952,-0.07348199,0.011525003,0.14745241,0.027899321,0.028104192,0.07157734,-0.1048174,-0.05610885,-0.124259315,0.00830891,-0.11837394,0.0723627,-0.08266432,0.14372502,-0.041400593,-0.046747692,-0.094806515,0.06625397,0.02679362,0.10099167,-0.069280416,0.041380707,0.12172873,-0.13264225,-0.10754602,-0.1088964,0.018901536,0.0015216682,-0.05817645,0.054711737,-0.017145853,-0.027459688,0.10954869,0.120498486,0.12002763,0.1431539,-0.060831252,0.12108374,-0.018292163,0.101659425,-0.13720223,-0.05232418,-0.085988335,0.079389855,-0.036608238,0.038019713,0.08936474,-0.04986971,-0.04008885,-0.1297031,0.01728563,-0.08572713,0.14249393,0.1253919,-0.04823895,0.031397335,-0.01067102,0.09921103,-0.040921923,0.115533076,-0.034253772,0.11013054,-0.024040077,0.11492928,0.008351069,0.033353474,0.117953345,-0.12566358,0.017042931,-0.07696488,0.11986341,-0.087853774,0.05203323,0.11046724,0.11074109,-0.08919991,0.058964003,0.06559052,0.02032186,-0.1323326,0.04801565,0.10972239,-0.09822167,0.028894458,-0.013968299,-0.10656843,0.12956196,0.077161245,-0.11045717,0.09809888,-0.107897215,0.07745009,-0.12664473,-0.14023957,0.06904389,-0.10055248,0.093230024,0.07280501,0.10650966,-0.06444852,0.11766529,-0.09082287,0.0036110838,-0.024635054,0.021502865,0.03781788,0.01984873,-0.0047369287,-0.10312696,-0.01684925,-0.09729001,0.06886009,-0.05544715,0.09689757,-0.13955063,0.08013317,-0.12058234,-0.08710725,0.035586603,0.07572303,0.13162372,-0.09788167,-0.004675018,-0.10897021,0.0656962,-0.0021104882,-0.12794375,0.016099304,0.0511564,0.1352359,0.1013937,0.020097986,-0.09070573,0.06649774,-0.12209981,0.0067325816,0.10590223,-0.08675894,-0.020343069,-0.062761955,-0.016311843,-0.0720566,-0.094726935,-0.12657738,-0.007832459,0.08053114,-0.031257205,0.046270113,-0.034113925,0.10100462,-0.14108378,0.14958227,0.07966892,0.07427373,-0.079717,-0.06366482,0.042759433,-0.021478273,-0.05253402,0.040331963,0.014814004,-0.13225919,-0.037074424,0.021872533,-0.11409707,-0.030109785,-0.06431114,0.048567105,0.044384968,-0.13978273,0.0065224776,0.07174622,0.1175618,0.13802311,0.04482519,0.12284052,-0.021300055,-0.09985483,0.13825941,0.030278256,-0.056055456,0.064696364,0.0462943,-0.029507166,0.09926284,0.09630932,0.011248772,-0.14680505,-0.018402988,-0.114595264,-0.06484661,-0.038472347,0.017219175,-0.024139835,0.032397173,-0.08623294,-0.08793,-0.013113558,-0.11668804,-0.031552136,-0.01972955,-0.10346732,0.118948944,0.046966184,0.050541144,0.10952476,-0.04766816,-0.11083909,-0.07393631,0.100414276,0.024284655,-0.08130108,-0.122391045,0.033617314,-0.12142171,0.11921582,-0.05698314,-0.06531332,0.04920032,-0.123482294,0.12819947,0.007925421,0.09130784,-0.059038796,0.045967814,-0.03183257,0.08823161,-0.04963993},
	{0.08263891,0.14812393,0.050790064,-0.050114203,0.006381065,0.045774523,0.111399636,-0.12329776,0.03781835,-0.09566918,-0.12783027,-0.07460782,0.11760273,-0.056107037,0.010446735,0.10133255,0.100300804,0.025251217,-0.11490248,-0.052614138,-0.103829995,-0.008382531,0.07663167,0.020531112,-0.11997218,0.12439589,-0.01557484,0.016677208,0.14027274,0.12273874,0.096266896,-0.09153154,0.14580283,0.015429395,-0.08070167,-0.09272451,-0.012414399,-0.14339043,0.0060640103,0.11312774,0.010996232,0.043397546,0.050690785,-0.012100682,0.10834026,0.12569152,-0.0108905295,0.1279997,0.073190466,-0.11210384,0.055413064,0.08999476,0.03448817,0.026660109,0.03160623,-0.08731379,0.0002626837,-0.022522137,0.008249781,-0.11525661,0.14085816,0.13039264,-0.07433647,-0.098326676,0.020099673,0.11984886,0.09732279,0.033029497,0.028289642,-0.123858,-0.12134545,-0.038850777,-0.09013016,-0.12597966,0.13547221,0.026629228,0.11170379,-0.099407904,0.087757275,0.0500809,-0.121079035,-0.084687635,0.057094857,-0.04337532,-0.068451755,0.12249492,0.02532537,-0.051981676,0.007979207,0.12859923,-0.0687541,0.08901661,0.09985519,-0.08305444,0.025482941,0.06444972,0.10665752,0.09936441,-0.032576934,-0.0207733,-0.09934722,-0.0091088675,0.09718434,0.12573978,0.09711234,0.09727085,0.04041142,-0.031229613,-0.02460232,0.11078871,0.11217005,0.09529043,0.13725765,0.0295733,0.010789291,0.103974015,-0.11490857,-0.006468954,0.103689335,-0.08598396,0.044766277,-0.006418885,0.07259981,-0.14381428,-0.04791668,0.06379381,0.09056258,0.093646996,0.026336253,-0.14826474,-0.013741526,-0.09158627,0.03866801,0.032047547,0.103418626,-0.03064813,-0.13735338,-0.036831357,0.017999226,-0.025974244,-0.05682068,0.14560437,-0.13155174,-0.08294143,0.04888719,0.07045,0.059272073,0.05564283,-0.10161785,-0.134507,0.09738071,0.07616303,-0.087685056,0.0916191,0.1414756,-0.09377216,0.057308495,-0.10530418,0.058026105,-0.13041916,0.059472743,0.10992951,0.026630912,0.13878745,0.12744997,-0.03869311,0.097744964,-0.0073257447,-0.08207692,-0.060534816,0.0631476,0.09315038,0.11503308,-0.06289385,-0.0068125017,-0.1283176,0.057430726,0.13261898,0.13795118,0.030878767,0.046749387,-0.007932164,0.009073243,0.1426202,-0.069119625,-0.046794698,0.02245348,0.07127428,0.1288342,-0.036778495,-0.10816369,-0.13101082,-0.06928005,0.08657885,-0.014686974,-0.028207354,-0.08945563,0.11434666,-0.001893515,-0.10021152,-0.12747745,-0.012870653,-0.037265018,-0.104694806,0.13213642,0.12947206,-0.039634127,0.0038421154,0.057565153,-0.100487664,0.021435915,-0.09055023,-0.0980131,-0.1305104,-0.053245608,-0.10776886,0.05992784,0.0757069,-0.059724197,-0.04560975,-0.13518193,-0.07460748,-0.04353147,-0.10160932,-0.025765661,0.11908853,0.026867185,-0.08376379,0.116116494,-0.04408842,0.10704484,-0.1312617,0.078020535,0.062267207,0.035236925,0.08148345,0.038816847,-0.14282769,0.0981298,0.06390861,0.059580546,0.1177666,-0.1215212,-0.07334776,-0.01513573,-0.026055515,0.024232805,0.13419023,-0.11400879,0.009452925,0.14210504,0.0788752,0.12314401,0.037763648,-0.096456215,0.083890826,-0.064694405,-0.07645107,-0.031060442,-0.033416476,0.13219985,-0.07764707,-0.024375482,0.012428403,-0.11797379,0.0014178362,-0.06106576,-0.0040709106,-0.057819303,0.05774292},
	{-0.12997843,-0.07008094,-0.14036232,0.074080035,-0.029137945,0.056504324,-0.1416986,0.07239055,0.038998455,0.13174175,0.13062537,0.06846914,-0.08846001,0.13934036,-0.07096466,0.06949052,0.1309246,0.09024953,0.054649662,0.04034137,0.059228476,0.09349002,-0.06885432,0.07349743,0.1027298,0.041960184,-0.036190163,0.013100658,0.09994576,-0.09900006,-0.05459465,0.14433813,0.06749046,-0.056314882,0.10444822,0.12381449,0.09806482,-0.0099530555,-0.12500694,-0.14826414,0.1015177,-0.047411546,0.0205661,-0.052728403,0.014526334,-0.086155176,-0.042773236,0.0733434,0.027175574,0.10940996,0.11206534,0.13626249,0.06508383,0.010278627,0.046018794,-0.00035708828,0.10693782,-0.12526752,0.11061028,-0.10525824,-0.07043761,-0.05679536,-0.1372782,-0.06889249,0.0949105,0.031555213,-0.03337089,-0.117122985,0.1310424,0.06112646,-0.0006933212,0.067296945,0.09339963,0.07021043,-0.02610962,-0.10844336,0.0192262,0.088263795,-0.088429816,0.10671428,0.12788507,0.11903202,0.1145782,-0.05428764,0.05772221,-0.06413602,0.122995876,-0.049828604,0.14734091,-0.12536317,0.11927711,0.029692475,0.10816933,0.13083827,0.051086437,0.0104783345,-0.10138406,0.116722435,-0.020275552,0.024080781,0.064520426,-0.05796794,-0.060228046,0.08939664,0.117980465,-0.1227814,0.1102332,-0.059644233,-0.13147134,0.097043864,-0.055020556,-0.11057639,0.052067496,-0.08598155,0.10246312,-0.08952378,0.14311334,0.025452096,-0.07848062,-0.000573148,-0.11857525,0.059603702,-0.018130807,0.102008015,0.1136459,0.032709528,0.088884294,0.014666345,-0.07789016,0.12943849,0.0055618454,-0.036656916,0.032476373,-0.059990026,0.059208717,0.022802211,0.14071466,0.13714886,0.02703075,0.090867996,-0.07017813,-0.08012908,0.023812428,0.03870678,-0.12096772,-0.037658762,0.07820241,0.026154622,0.039391328,0.033967514,0.10765283,-0.1326888,0.14331268,0.007929453,0.076744765,-0.13462684,-0.08125856,0.053678602,-0.048863772,-0.11768553,0.058061503,0.09304716,-0.07282482,0.031074276,-0.14383043,0.084314115,0.043017246,-0.05786756,-0.121523604,-0.018942147,-0.078664675,-0.08534104,-0.13206537,-0.14768308,-0.09769998,-0.08955312,-0.08730375,-0.13675684,0.13437997,-0.119471535,0.012355247,0.12323796,-0.07105482,0.09410946,-0.06599401,-0.108988054,0.12018077,0.11951674,-0.14013925,0.01872287,0.048488196,-0.011602859,-0.09878975,-0.044155046,0.08045664,0.009116281,0.14883105,-0.036704633,0.11844163,0.036771256,-0.012246335,-0.1211047,0.118164286,-0.10587817,0.010141817,0.010381573,-0.11854594,-0.10517003,-0.062282518,0.04626071,0.037441254,-0.02973777,0.064682305,0.077851795,0.07416035,-0.054616008,-0.015112454,-0.0423071,0.10039766,-0.06892613,-0.06992901,0.08684117,-0.14410424,-0.055941366,-0.039812062,0.04375564,0.00023605104,0.0865522,0.13191421,0.031212687,0.054540385,0.046490084,-0.111428976,0.05887266,-0.0668599,-0.0107058035,0.09136312,-0.06835941,0.07967094,-0.10848051,0.044885907,-0.04592658,-0.06186889,0.012555067,0.06504484,-0.08735194,-0.061696257,-0.1439891,-0.0556069,0.051716443,0.061657757,0.035558827,0.08228438,-0.0016728691,-0.04174106,0.06912418,-0.036671635,0.037423808,0.017361589,0.057371475,-0.07155449,0.08542057,0.015666079,0.0289945,0.04489465,-0.045384496,-0.04956686,0.023841817,-0.10007297,-0.030955473},
	{0.11200618,0.084148236,-0.038847588,-0.038182396,0.08481851,0.09502494,-0.009393656,0.009502478,0.12396764,0.06011465,-0.0071651693,-0.049624503,0.081701435,-0.024799034,-0.06831097,0.058460955,-0.007074755,-0.13633117,0.08234177,0.09187208,0.12628372,0.11775143,-0.08258456,-0.11122233,-0.07623469,-0.054688938,-0.087557994,0.06488051,0.016064804,-0.054521047,0.11516394,0.054382052,0.05851633,0.03661565,-0.084799804,0.10956441,0.024708252,0.13397385,-0.07723852,0.016540352,-0.07771766,0.06288862,-0.06528897,-0.0072268927,-0.061369363,-0.1554544,0.00069133093,-0.0100466255,0.07115734,0.122221805,-0.06613591,-0.11027835,-0.0962238,-0.14042562,-0.05889066,0.0135299675,0.12596585,-0.027044535,0.01344768,0.10528013,-0.08772361,0.029315367,0.03781572,0.020363092,0.12498214,-0.070963345,-0.09343038,-0.11268503,-0.10569195,-0.11484749,0.104298905,0.02154892,0.10023777,-0.14364879,-0.017934166,0.08174841,-0.08033767,0.09612692,-0.024243522,-0.037647646,-0.08440156,0.112633415,-0.10085553,0.058617175,-0.106840685,0.11053188,-0.06501016,0.098321,-0.09184844,-0.037983667,0.09788409,0.08128836,-0.07594391,0.052137963,-0.113224454,0.10501545,0.09055862,0.13907509,0.13308457,0.10264795,-0.07121166,0.023449093,-0.02743888,0.04504869,-0.04566589,0.005038741,0.052634332,0.11861838,-0.13930279,-0.1054874,-0.11375274,0.13161537,0.029684946,0.025533564,0.0653588,-0.049289394,0.07592335,-0.06822409,-0.052142773,-0.10498384,0.02141422,-0.010068264,0.004976232,0.045760468,2.6199676e-05,-0.09259895,-0.14034605,0.004174118,-0.10984578,-0.11706546,-0.1042443,0.12665145,-0.03716492,0.12813291,-0.1367776,-0.05351196,-0.1411356,0.10153857,-0.061239578,0.12430227,0.111156315,0.01889905,0.02871161,0.08442382,-0.067140676,-0.017950285,0.0943138,-0.053369418,-0.086268865,-0.051012345,-0.066058345,0.11933715,0.055427626,0.11399395,0.09198181,-0.040063553,0.03604201,0.13843693,0.12464925,-0.11742917,-0.009637339,-0.08946607,0.13547279,-0.02685165,-0.028410701,-0.12881471,-0.052668348,-0.05218448,0.12892744,-0.001280087,0.06285739,0.1379595,-0.051775537,-0.07775152,0.07351902,0.13037223,0.10222935,0.0492088,-0.021060757,-0.06627145,0.08430464,-0.01171407,0.09623014,0.016024586,0.0096446425,0.054674286,-0.110920444,-0.05026938,0.14022566,0.064442724,0.10854738,-0.14387085,0.056933165,0.04784239,0.109739736,0.08032714,0.087130725,-0.1035049,0.1389237,-0.13551931,0.09053519,-0.109352805,-0.13453797,-0.07803483,0.03397812,-0.036870804,-0.09246389,-0.11932707,-0.06288129,0.056628924,0.11291535,-0.012879044,-0.011820072,-0.11352529,0.10021879,0.030300992,0.123055845,-0.026067123,-0.053609364,-0.069898576,-0.07218813,0.001649329,-0.057269,0.0042035077,-0.08852376,0.11008849,0.00823307,-0.0021460876,-0.12482483,0.08589326,0.057424422,0.031791482,0.068062924,-0.05755181,-0.012076013,-0.08574882,-0.1276698,0.09411582,0.019548254,-0.0020345002,0.01527449,0.11569851,0.06268809,-0.043159336,0.09794707,-0.03660311,0.033058252,-0.10476566,-0.014500206,0.06731876,0.002915843,0.07497361,0.07228059,-0.08231742,0.107436344,-0.1366927,0.006567708,-0.007522872,-0.13195117,-0.0351981,-0.07045826,-0.014204668,0.109634966,0.050207764,-0.08609355,-0.1372126,-0.02605316,-0.05860081,-0.03974141,-0.1264298},
	{-0.018034147,0.1207637,-0.12577015,-0.021820897,-0.0822317,0.14913093,-0.12979169,-0.043066654,0.099629834,0.11466012,0.10656617,-0.087218,0.13623932,0.06537911,-0.10139719,0.070369095,0.112821154,-0.11759308,0.007974854,0.083505064,-0.12504943,-0.018383292,-0.12336837,-0.038092352,0.11132712,-0.040550094,-0.035103627,0.06191891,0.023278568,0.014013851,-0.02381555,0.0430631,0.054139044,0.049689915,-0.043939274,-0.09392112,0.058123965,-0.03508486,-0.09210308,-0.06937712,0.02923038,-0.09847278,0.10640818,0.12252381,-0.054940205,0.06755694,-0.11261459,0.12800895,-0.06637168,-0.14388554,-0.018633068,0.030445961,-0.07170402,-0.05064753,0.07543355,-0.01686506,0.085197225,-0.056701384,-0.10750848,0.0464039,-0.004157282,0.0377024,-0.09091272,-0.044022594,-0.097188115,0.08868082,0.080008015,-0.039560042,0.003077466,0.06362759,-0.13727188,-0.13756998,0.03629412,-0.14417914,-0.02888442,0.03988331,-0.1099831,-0.10220257,0.011289006,-0.069203354,-0.0497791,0.0981009,-0.11802709,-0.035643447,0.12643157,-0.036952116,-0.12448276,-0.037205756,-0.055697102,-0.067428805,-0.08923115,-0.081244536,0.07399323,-0.04503892,-0.100230746,0.11855389,-0.14724833,-0.08431807,0.08697996,-0.032666657,0.11914113,0.12510708,-0.121284254,0.088361405,0.1378691,0.0008534766,-0.049618986,-0.13713065,-0.10138141,-0.10634901,-0.14001063,0.10852102,-0.04098119,-0.05021861,-0.069517344,0.015857156,-0.018758073,-0.046303928,-0.13784072,0.004040336,0.1046201,-0.045368016,-0.13785324,0.028413907,0.059867766,0.07981978,0.10291424,0.11284713,0.037189696,-0.11362731,-0.14115521,-0.08252116,-0.042211723,-0.0020739315,-0.058065757,-0.05485196,0.08103607,-0.030787036,0.08633372,-0.087990865,0.09264698,0.13921054,0.09979174,0.02497152,0.13160507,-0.023928722,-0.07409174,-0.13466907,0.10069055,0.15059389,-0.06248747,0.049725797,0.07050239,0.027120015,0.13811177,0.11233501,0.058668505,0.123289905,-0.02402677,0.0689518,0.09220501,0.03536978,-0.065802254,0.066321336,-0.091758214,-0.057559546,0.05056752,-0.119407855,-0.10844798,0.0032337904,0.05003976,0.10894839,-0.024645604,0.06878273,0.105553,0.07699385,-0.0005935512,-0.14455576,-0.09940952,0.104209274,0.09696611,0.14924145,0.10086512,0.07965529,-0.07971745,0.0064204023,0.021681054,0.052430943,-0.10133748,0.08749679,-0.061570037,0.05524565,-0.12289264,0.05458778,0.14462318,-0.13357167,0.100459516,0.007764145,-0.11089148,-0.14323454,-0.008745694,-0.008048296,0.01633355,-0.059089392,-0.01364281,-0.056769207,0.0036054533,0.096976265,-0.110599086,0.060546797,-0.09149171,0.0853622,-0.056577306,-0.02936285,-0.0018792672,0.03342916,0.032849617,0.007525839,0.024754867,-0.044131078,-0.021683473,-0.030875817,-0.013887286,0.057372887,-0.079777725,0.052389584,0.1397085,0.07481593,-0.1342685,0.012743127,-0.02168045,-0.12462388,0.02741879,0.06555761,-0.018975789,-0.056631625,0.028088018,-0.008912069,-0.093660936,-0.09699457,-0.030469837,0.11368805,0.011991159,0.006616443,0.08376068,-0.12208733,0.14355539,0.003479613,0.027985005,-0.10648063,0.10745408,-0.13908313,0.03672072,0.110757254,-0.007876425,0.097887054,-0.055681158,-0.0033249792,0.11845531,0.06966399,0.09600337,-0.0278915,-0.09650678,0.09546471,-0.016943358,-0.0063600433,-0.07826162,-0.045278374,0.033352237,-0.12616988},
	{0.06973503,0.0564804,-0.067492604,0.01886146,0.14117631,-0.07018605,0.14273599,0.11902688,0.10634272,-0.019461337,-0.030596225,0.04689876,-0.011359917,0.11867085,-0.1428925,0.12746477,0.06267367,-0.019684661,-0.039562564,-0.118264146,-0.102590844,-0.019918652,0.07082543,0.10387286,0.07852155,0.049113095,0.121351436,0.082761295,-0.06393682,-0.04965144,-0.0104426,-0.10938888,0.046271063,-0.13447562,0.14425877,-0.10026905,0.015117537,0.10927271,-0.062582694,-0.1301726,-0.0786156,-0.12035893,-0.072451234,0.09677625,-0.10060191,0.06983707,-0.08015045,0.042103697,0.07013242,0.08317918,-0.1202029,-0.118050784,-0.0929724,-0.06697258,-0.11261307,-0.1243704,-0.11639783,-0.030332811,0.06132257,-0.1163401,0.08510103,0.03230547,0.0874011,0.075830385,0.12715378,0.12211644,-0.06766629,-0.07845919,0.100461304,0.13712111,-0.10291219,-0.0417505,-0.14548177,0.10886471,0.058821328,-0.110167526,0.052711397,0.05239195,0.023013031,0.13704515,0.07981562,0.09844559,-0.07055912,0.0961663,-0.040572412,0.08759334,-0.09496188,-0.096638635,0.04837147,0.023100669,0.0177489,0.068273894,0.07854992,0.07551017,-0.039123077,-0.060876146,-0.026261192,-0.06656694,-0.10611027,0.059363075,0.1440532,-0.03558327,0.10904549,0.062277596,0.12687197,-0.035066903,-0.001294867,0.1265742,-0.03611867,-0.023981089,-0.061358668,-0.08354752,-0.055566363,-0.05549556,-0.084467344,0.121476434,0.043442875,0.0026083617,-0.024579624,0.040620033,-0.008667588,-0.05327237,0.10901054,-0.075306065,-0.10298569,-0.12641247,0.07152723,0.13100758,-0.07701063,-0.047981393,0.0604873,0.079246454,-0.130171,0.00676415,0.118640944,-0.0026549161,-0.11423102,-0.011089823,0.053212132,-0.11695076,0.067249045,0.10347372,0.13817619,0.11145845,0.038377542,-0.12625718,-0.13328488,-0.13071334,-0.012608572,0.011740469,0.047240745,0.11452337,-0.020086242,0.077679634,-0.06525206,-0.109059155,0.09880343,0.12594943,0.035821393,-0.13153552,0.12449776,0.07876142,-0.04640903,0.09568116,-0.14110614,0.14512421,0.009999913,0.05425967,-0.053089302,0.043043867,0.0069201784,0.14012167,0.003893152,-0.13594005,-0.05411457,-0.022318123,-0.13241012,0.005211825,0.10773178,0.022981614,-0.10910886,-0.094555646,-0.09130209,0.013592861,-0.016618118,-0.010572109,0.10050923,0.059608683,-0.005442135,-0.006781529,-0.081521094,0.091235325,0.10039197,-0.0016323252,0.058138877,0.057807226,-0.07623467,0.028381156,0.13268906,0.04277069,-0.030031329,0.11550815,-0.051438764,-0.09528558,0.1222839,0.08338693,-0.008981995,-0.041516684,-0.041780703,-0.004298838,0.12334642,0.033401165,-0.07654147,-0.045631208,-0.07476958,-0.09985004,-0.010821856,0.036300626,0.000116854906,-0.057669654,-0.059941117,-0.1063035,0.04803972,0.07978841,0.077434786,0.023247669,-0.114242114,0.053461704,0.1277333,-0.14224136,-0.0044514933,0.12756717,0.06247007,-0.1332833,-0.081954844,0.091599464,-0.03563422,-0.101282135,0.00366996,0.047614455,0.008901298,-0.11845766,-0.051687486,0.08615603,0.07615174,0.06055427,0.073081985,0.01923207,0.103881896,-0.06520552,0.020599825,-0.07098656,0.098483846,0.06363793,0.0742851,-0.037158486,-0.114581734,-0.03564306,0.10446787,0.11313974,-0.03887817,0.108669475,-0.12595615,0.0112802535,-0.0802403,-0.09527643,0.015961206,0.077896066,-0.050438914,0.007754248},
	{0.04591445,0.070949025,-0.1390715,-0.09008222,0.15162058,-0.106719844,-0.07995022,-0.12725498,0.12036202,-0.08803629,0.13493738,0.066561684,0.027620848,0.101395994,0.13592373,-0.14146495,-0.014286366,0.015710885,-0.049591843,-0.02459831,-0.03542512,0.13414195,-0.07848314,0.1032771,-0.030905671,-0.14511338,0.1124087,-0.002884978,0.094439425,0.044700257,-0.084068716,0.08084406,-0.10887873,0.142717,-0.054482482,0.079236254,-0.044810582,0.08618351,0.015385492,0.104849055,-0.031126093,-0.015576828,-0.061577786,-0.028579466,-0.012681074,0.1106467,0.09784201,-0.07304381,-0.004963329,0.13426153,0.1149316,-0.047327753,-0.038645443,-0.012137928,-0.089315176,0.09747524,0.02201284,-0.007885456,-0.1188816,-0.07142584,-0.0925043,0.026475608,0.008420333,0.11177983,-0.0022531128,-0.06444757,-0.010782854,-0.06966035,-0.12432647,-0.13648635,0.07612026,0.09643552,0.12142464,-0.053966954,0.12590274,0.0077937194,-0.04401039,0.058860637,0.09658206,-0.07667425,-0.053019874,-0.0862247,-0.0526047,-0.029522354,0.12987402,0.036917325,-0.007820273,-0.11068735,0.10593654,0.11965563,-0.0054054195,-0.014238792,-0.11018939,0.12172581,-0.0074915267,-0.11267013,0.072441846,0.031144949,-0.07603631,-0.07897319,-0.05602262,-0.11036043,-0.06366475,-0.072778285,-0.051693615,-0.08702551,0.063650265,-0.009612726,0.0020081105,0.04618943,-0.061914083,-0.11075706,0.13304089,-0.05921159,-0.09923383,-0.06391679,0.0011519946,-0.14934692,0.08522148,0.09553022,-0.115128085,0.022336831,-0.07631371,-0.06731454,0.05070621,-0.11530131,-0.052532423,-0.018665018,0.07109297,0.009626337,0.04938054,-0.121332504,0.074630864,0.13193588,0.1275971,0.05412597,0.07010583,-0.019565137,0.09896234,-0.111962065,-0.11057259,-0.12980448,0.04104721,0.0794061,0.030109568,-0.11847569,0.09033279,-0.0075151324,0.026215144,0.09927189,-0.09334477,0.12661804,0.13720372,0.051441245,0.038957722,0.08080368,-0.09009376,-0.07682706,-0.037681572,0.05482663,-0.05996081,0.1285627,0.1384404,0.06938935,-0.054418914,0.04446673,-0.040738124,0.015580467,0.08340386,-0.10197367,0.03609271,0.021857906,0.11765473,-0.10205722,-0.07570573,-0.053826105,0.08007109,-0.13165572,0.057741955,-0.0033792257,-0.054868467,0.06347049,0.05356244,-0.0677482,-0.0514398,-0.074970976,-0.071522675,-0.010563046,-0.052376036,-0.10010947,0.09953706,0.023478288,0.12714522,-0.06446351,-0.03886836,0.0043116715,0.13960317,0.096022345,0.033919297,0.06788766,-0.008995654,0.008676243,-0.091893084,-0.09907033,0.026651941,0.13218197,0.044730287,0.057914063,-0.11890818,-0.021263428,-0.0039813863,-0.085089445,0.08972069,-0.039256375,0.045288257,-0.02870378,0.05956339,0.14462677,-0.007133469,0.137238,0.12630221,0.12359726,-0.12871008,0.14361037,0.13299532,-0.11405565,0.025469568,0.059077945,-0.13762982,-0.14537226,0.017831853,0.07446697,-0.14657223,0.0016208106,-0.05002084,-0.12286159,0.078230284,0.10213872,0.111054376,0.07004908,-0.12072698,-0.09752192,-0.07546793,-0.087000765,0.090983585,-0.042537425,0.053339057,0.119525045,-0.04602387,0.12132285,-0.115697585,-0.1283016,0.036608063,0.11270742,-0.09782054,-0.021220975,-0.05859502,-0.07449041,0.09761021,0.0127738565,0.05752386,0.060907632,0.027370559,-0.06078223,-0.08932883,-0.06800241,-0.015306739,-0.07461971,0.052759822,0.03723073},
	{0.13563854,-0.050289884,-0.075589575,0.04059186,-0.07576459,0.06743362,-0.063444346,-0.0794275,0.007531815,-0.12604316,-0.028296078,-0.0670235,-0.060803346,-0.061284617,-0.04858613,-0.036035124,-0.06647895,-0.029069472,0.0038688458,0.03037826,0.061801784,0.08492661,-0.069533475,0.13469175,0.10938542,0.016934812,-0.032431375,0.0395855,0.1392971,-0.13486218,-0.08896081,-0.0788455,0.12114962,0.06524346,0.04595,-0.11409727,-0.13269259,0.13272259,-0.07286558,-0.13831164,0.03717293,-0.10966793,-0.10555447,0.059163585,-0.10479512,-0.018453008,-0.06873543,-0.032154016,-0.041667026,-0.11057192,-0.01954427,0.084311016,0.0627307,-0.10468955,0.0015017497,-0.104221486,0.13077967,-0.09370692,-0.014336663,0.07092553,0.018369198,0.046832766,-0.078278914,0.074850515,-0.055093106,-0.073958226,0.040507287,0.10205257,0.047811937,0.11186277,0.015750542,0.028952144,0.04287064,0.040020317,0.06861079,0.09348282,-0.07864936,-0.066675484,0.13888116,0.07981492,0.11635178,-0.109756924,0.0955806,0.08963335,-0.023469795,0.1335006,-0.12524633,-0.022986451,-0.088704966,-0.02096339,0.00996018,0.106431276,-0.04154458,-0.010699289,0.09713417,-0.009615558,-0.12795152,0.079264544,0.06430126,0.03893018,0.0012439276,0.007948897,0.06714841,-0.049884282,0.10406029,0.09737732,-0.11647753,-0.1159789,-0.13404225,-0.045567878,0.02539033,-0.019040775,0.011836504,0.04724956,0.11441479,0.100440495,-0.06730099,0.113016516,-0.12352278,0.014905741,-0.121302694,0.047756735,-0.08591271,-0.1109785,-0.034627266,-0.089113414,-0.11409195,-0.05169629,0.03938432,0.06796696,-0.040805954,-0.14400089,-0.017213471,0.12744477,0.06364813,0.11401569,-0.06883535,-0.0015169405,0.0055317497,-0.11516847,0.09586377,0.10100762,-0.012967842,-0.05062681,-0.08079708,0.056571983,-0.035857417,-0.070494264,-0.083038665,-0.017051669,0.07470931,0.13188006,0.041274283,-0.13422866,0.091002166,-0.013367623,0.07927233,0.07500005,-0.12788205,0.042020626,0.120697565,0.072436385,-0.12198605,0.04385224,0.14077936,0.011222926,-0.012518741,0.096781306,0.029257072,-0.05426405,0.09045566,-0.07214158,-0.09483772,-0.07672694,0.12469617,-0.059068654,-0.08364182,-0.03889159,-0.077140905,0.06952776,-0.0739359,0.15171367,-0.01916624,-0.11844707,0.13095005,-0.010035917,-0.060353238,-0.13550983,0.122957595,0.10491489,-0.027998101,0.11002889,0.056414273,-0.08050861,0.13094299,0.11986125,-0.11015815,-0.09589183,-0.1223006,0.010018642,0.054386053,0.002184015,-0.14131263,-0.098821685,0.12781766,-0.023705464,0.106712505,-0.13688582,-0.087029666,0.045878254,-0.11178359,-0.001604303,-0.040474385,-0.12700291,-0.030698758,0.06345073,0.12378,-0.13372737,-0.12032941,0.08402622,0.017759373,0.10479941,-0.12915233,0.09849543,-0.048299417,-0.050527595,-0.009210851,-0.0012110365,-0.13904941,0.033965815,-0.035444573,0.025021464,-0.0702552,-0.054423634,-0.13717784,0.11310328,0.07231945,0.07423098,0.012731002,-0.13242675,0.0834011,-0.1097119,-0.034068182,-0.13702293,0.020726385,0.019815873,0.10690119,-0.019512225,-0.070856065,-0.00581598,0.05691834,-0.032320246,-0.057648305,0.060521495,-0.08239219,0.13511844,0.002293237,-0.12376938,-0.0029565182,0.02514774,0.06820358,0.07410103,0.012909734,-0.11020544,0.04717352,0.020167733,-0.067982554,0.12548977,-0.089497775,0.07352758},
	{-0.07858329,-0.10668609,-0.12889677,-0.04776423,0.077248655,-0.07591742,-0.059135452,0.04038282,-0.04089273,0.05841063,0.12213924,-0.01368092,-0.11771913,-0.14209692,0.022569157,0.13175623,-0.045966487,0.03200747,0.12192008,0.027946098,-0.13703954,0.06852267,0.10287494,0.14073817,-0.05406519,-0.08182463,0.11625404,-0.09618381,0.0780672,-0.06998367,-0.14116831,0.12485859,0.030889623,-0.04111507,0.13115515,0.1259122,-0.11850087,-0.08951604,0.019834626,-0.028441219,-0.044109423,-0.05210377,-0.13347931,-0.11918623,0.03904568,0.11768575,0.108171225,-0.04192148,-0.08092443,-0.1179396,0.0899191,0.047179148,0.10411582,-0.096932665,0.05530398,-0.11064339,0.10781945,-0.11512027,-0.10436064,-0.029911922,-0.039164342,0.13827841,0.099826336,-0.106954016,-0.09755878,-0.0046302555,0.10543182,-0.032358944,-0.12946878,-0.07051884,-0.058157906,-0.14882025,-0.009130608,-0.06534009,-0.14226183,0.060249384,0.09315158,0.043777242,-0.12098343,-0.028982487,-0.11066802,0.071444996,-0.040961552,-0.03559588,-0.030577105,-0.12730566,0.036167268,0.056649562,0.05750397,0.12483334,-0.11344143,-0.022509348,-0.12060872,0.042225815,-0.1328911,-0.08640143,-0.096047424,0.031667646,-0.13724434,0.06687864,0.04249898,-0.10220256,0.12857987,0.010427386,0.037418105,0.11143187,-0.11550223,-0.12518434,0.051366795,-0.025730511,-0.07613849,-0.13839814,0.053928062,0.06658789,-0.12147242,0.08603862,-0.13440162,-0.0038528019,0.020534506,-0.120267026,-0.14163387,-0.113675095,0.07687413,-0.13454841,0.104676604,0.089353025,-0.013235501,0.0050358106,0.081217445,0.04824896,-0.08147051,0.09364782,-0.0070120445,0.07251572,0.0064758537,0.029466692,-0.05561175,-0.05690761,-0.057270084,0.008890428,-0.031207984,-0.08751708,0.08875264,0.051111516,0.061825804,0.06397983,0.09729993,0.010958597,0.058621936,0.055145904,-0.035002798,-0.09765133,-0.13723306,-0.082413256,0.11879332,-0.083516635,0.012480109,0.008624321,0.07521033,-0.017131845,-0.12289797,0.089897305,0.09092466,0.065961495,-0.07938647,-0.04933362,-0.11542564,0.08925344,-0.010062238,0.08629193,-0.11086722,-0.09800042,0.012708822,-0.05539338,0.036362663,0.13551441,-0.10390719,0.14067125,-0.08261017,-0.104448065,-0.099358045,-0.023441367,0.107103445,0.14006688,-0.048504725,0.13253498,0.0839627,0.053155355,0.12783496,-0.08295766,0.070629455,-0.098505124,0.11597839,0.06352601,0.07919624,-0.08755086,0.032583017,0.09682002,0.13407986,-0.084216334,-0.06697398,0.09908936,-0.09406783,0.11044919,-0.14451313,0.082466036,0.122448206,-0.11772564,-0.0229851,-0.01703826,0.018479131,-0.09533155,-0.062458094,0.035319887,0.11732609,-0.07879738,-0.08606302,0.027547732,-0.0142342895,0.12288372,0.020265367,0.00773047,-0.13108312,0.02420899,0.032802388,-0.14679213,-0.08127721,0.08925076,0.004918824,0.12634742,-0.053747322,0.05569209,0.08189768,0.05174847,0.116335265,0.08339432,-0.09901431,0.013828229,-0.08824498,0.014477894,-0.0114403665,0.054671463,-0.009791367,-0.14068088,-0.08931051,0.051112995,-0.02666816,-0.098195836,0.08365376,-0.03047093,-0.09910053,0.055466466,-0.13370186,0.04911202,0.13411288,-0.08905975,0.086708814,0.0048105475,0.10520046,0.13167748,-0.08085818,-0.094038926,0.07483496,0.0014588088,0.04409361,0.039300505,0.13420343,-0.13043135,0.017220763,0.003162101},
	{0.12551838,-0.019028336,-0.02136042,-0.04866388,-0.113186434,-0.07845855,-0.11675732,-0.0514826,-0.06315324,-0.0012281109,-0.13054101,-0.091769025,0.14368774,-0.09861795,-0.008420818,0.025440019,-0.07587212,-0.11572591,-0.09103581,0.11344886,-0.037655354,0.11105237,-0.12036147,-0.009753325,0.12712772,0.12199859,0.03165287,-0.083366685,0.02680622,0.06655694,0.10854109,-0.064473346,-0.001695756,-0.0026194986,0.13430813,0.10666464,0.13669097,0.012657766,-0.009230269,0.11917556,-0.0006199085,0.10152923,0.13748269,-0.05410923,-0.069634095,-0.038265202,-0.0001483867,-0.040338013,0.014356413,0.10203611,-0.13876121,-0.063163534,-0.0904059,-0.044129048,-0.020518787,-0.0017673983,0.051360663,0.0793992,0.14324975,0.06352439,-0.025193907,0.0009922597,-0.021927271,-0.07520565,-0.11025138,0.06584456,-0.075651206,0.08198616,-0.111332454,-0.109211534,-0.046411753,0.06589503,0.117584825,-0.04353863,-0.08765042,-0.031758655,0.14042449,0.091009356,-0.03436395,-0.06608474,-0.10599423,-0.11565216,-0.14254272,0.0358835,0.051295917,0.015417045,-0.14453869,-0.03572972,0.05149899,0.09951955,0.06271025,0.072956264,0.071097575,0.11577482,0.022019517,-0.13363616,0.112250656,-0.035418455,0.12734357,-0.116589226,-0.03622077,-0.027887328,-0.04092249,0.023823611,-0.07885539,-0.099138476,0.030077677,-0.026608368,0.10514634,0.032409746,0.034532484,0.124833204,-0.052106883,-0.0053533693,-0.049415976,-0.09619751,1.0942924e-05,0.14333358,0.018930478,0.073184624,-0.11774335,0.11744074,0.06505194,-0.1381453,0.09316655,-0.030512914,-0.057326935,-0.06978779,-0.022728069,-0.08695072,-0.018526092,-0.12593322,0.13361064,0.029948829,0.119393334,-0.07439178,0.095609196,0.064425774,0.012720375,0.024318658,-0.07478191,-0.042039838,-0.12990086,-0.11721496,0.0523234,-0.13247699,-0.04279742,-0.12178182,-0.14029866,-0.038425494,-0.14345163,-0.11473387,-0.13521579,-0.0910177,0.1329781,0.06036307,0.13583843,-0.005366621,-0.0067845755,0.124615915,0.013766822,0.111573644,-0.03669035,0.099797554,0.098941565,0.11347831,-0.09652403,0.04629561,-0.059904743,-0.07032014,0.015660008,0.048084788,-0.023579614,0.027525788,0.034379534,0.03089991,-0.08479182,-0.090899155,-0.012469001,0.04924862,-0.11715896,0.1327137,0.1206657,-0.0983113,0.012472689,-0.079305805,0.11321239,0.0011899363,0.06606069,0.07820627,0.09037253,-0.03457939,-0.11432083,0.021683339,-0.07514094,-0.09716889,-0.037215624,-0.009495601,-0.06903016,-0.06333508,0.015984472,-0.012066599,-0.06084945,0.02311995,0.0394168,0.124149665,0.010614839,-0.074277155,-0.10663161,-0.08426726,0.13211407,0.04231996,-0.018176964,0.033330075,0.110966355,-0.02706751,-0.0044861254,0.06524758,-0.103993714,-0.07412828,0.09857174,0.016365476,0.06924285,-0.14216089,0.071430735,0.082204744,0.14117746,-0.035942845,-0.14052226,-0.101678304,-0.06533033,0.029411603,0.13535994,-0.023294492,0.12481139,-0.033721607,-0.036867507,0.09825162,-0.11147422,-0.10674299,-0.029642921,0.10295569,0.07843223,-0.12288201,-0.124282196,0.13991877,0.0028016744,-0.077753834,0.014093325,0.08110421,-0.049602896,-0.06446125,-0.02239369,0.122913316,0.11212295,-0.14125459,-0.06488169,-0.047638033,-0.14203477,-0.06781156,0.073313706,-0.053957775,-0.13011274,-0.06018138,0.08868638,-0.13741933,0.050154038,-0.09641652,-0.008667627,0.07552013},
	{-0.12957712,0.09231353,0.12657823,0.15165254,0.022745825,0.117749006,-0.14299464,0.013405499,-0.004627501,-0.023618061,0.01241697,0.0874493,-0.12345865,0.017384777,0.053770732,0.061072145,-0.1137901,0.004626859,0.020886026,0.122036755,-0.03410296,-0.09055999,0.04198749,-0.03376272,-0.04611035,0.11089669,-0.14293164,-0.12448647,0.0025799961,0.046320744,-0.100625806,-0.049222518,-0.08810488,0.008403117,0.11501727,-0.020951644,-0.13502146,0.012625506,-0.097393155,0.04769645,-0.0710659,-0.07621443,-0.05237002,-0.09046065,0.08055303,0.005329067,-0.14701639,-0.089720435,0.03796957,-0.03754128,0.072677344,0.00310147,0.067829914,-0.005964785,-0.099909596,0.057088766,-0.013076038,-0.03891723,-0.08583608,0.013096888,-0.09048501,0.059973873,-0.020030372,0.067449845,0.026963683,0.13301526,0.08811302,-0.10641885,0.024205845,-0.11894022,-0.07914071,0.08109803,0.10378371,-0.12354732,0.099042945,0.049014732,-0.017374378,-0.062158708,0.07487117,-0.13618325,0.1425291,0.082411565,-0.11495859,0.105018295,0.14503336,-0.08979246,0.09075518,-0.12312387,-0.034154706,-0.041324217,0.039289482,-0.09719053,0.08004314,0.03512381,-0.135886,-0.10086074,-0.07295453,-0.09056794,-0.103297174,-0.054290555,-0.105575934,0.114275604,-0.13520673,-0.07480014,0.10690797,-0.05862753,-0.04472101,0.08076572,-0.13337672,-0.010251274,-0.07114013,-0.0868709,-0.10493753,-0.03608267,0.052892312,0.042313296,-0.039987765,0.12804118,0.09837301,0.018774875,-0.03661912,0.025427783,-0.077342995,-0.047469757,0.10055524,0.029397406,-0.009770617,-0.13363585,-0.0025692112,-0.099835195,0.11255733,-0.0019273509,-0.0983463,0.015506972,0.00670182,0.045131844,0.10320101,-0.1227758,0.05627099,-0.10246724,0.13550375,-0.13556646,0.0043285876,0.08669717,-0.10219974,0.12324433,-0.020529447,-0.099351384,-0.005276689,0.009027256,0.057869695,0.06699423,-0.049589723,-0.07668974,0.037818395,-0.1204491,-0.036582313,-0.13039316,-0.021317124,-0.021969391,-0.082384616,-0.1152595,-0.084719054,-0.10408198,-0.09874985,-0.0054886425,0.030680342,-0.08113412,0.004849804,-0.08800467,-0.04785624,0.13596994,0.13735025,0.12790626,0.12447689,0.05782596,0.02635989,-0.08886021,-0.10130821,-0.063766085,0.045445085,-0.025844235,0.13349703,0.04483232,-0.04393936,0.10266599,-0.14190868,-0.07682608,0.07171999,-0.121915266,0.090198584,0.106436506,-0.13251479,-0.009008467,0.06638388,0.083688915,-0.06904866,0.14266063,0.053701766,-0.06256808,0.10094822,0.13742949,-0.014633179,0.050014947,-0.14385144,-0.09691129,-0.0667012,-0.08896859,-0.13192336,-0.09282652,-0.076292515,0.05825753,0.0717553,0.12483783,0.07303707,0.022487266,-0.103048235,-0.024532495,0.0469601,-0.050106835,-0.033127196,0.058324534,0.0025069565,-0.049928714,-0.028201371,0.104528286,0.07717096,-0.052238863,-0.021288633,-0.086825214,0.044008505,0.1094475,0.07593723,0.08663227,-0.10874963,0.023250591,-0.05740741,0.010912526,0.04840555,-0.0659729,-0.06549057,-0.060899086,0.050896414,0.08193916,-0.12270805,0.04474773,0.10163621,0.11123039,0.047032043,0.09823516,0.14182144,-0.13954766,0.073511,-0.062434904,0.09328855,-0.07357258,0.054131333,-0.1223404,-0.07125592,-0.03596374,0.07008461,-0.06838665,-0.09859464,-0.050695382,0.035677318,-0.03140458,0.05409225,-0.101765886,0.019099932,0.10092393},
	{-0.08062675,-0.03708022,0.06014492,0.056590497,-0.10795045,0.041937854,-0.1009683,-0.103147425,0.021925967,-0.03960008,0.09693983,-0.108612776,0.08054606,-0.05474534,0.08413642,0.07169254,0.117131114,0.101034656,-0.10622562,0.0775002,0.031744376,-0.11606464,-0.012141038,-0.114494726,-0.034426015,-0.0023198265,0.12063998,1.2398232e-06,-0.05078752,0.07005657,-0.13453253,-0.1409994,-0.06786468,-0.08393154,0.057144783,0.13437675,0.064090155,-0.09746475,0.08600468,0.019999797,-0.065800026,-0.07313755,-0.06470429,0.021974735,0.14150771,0.09801623,0.13591535,-0.13507587,-0.14477605,-0.003909565,-0.09185879,0.14457229,0.08173644,-0.020343157,-0.013395458,0.061292004,-0.055578556,-0.118408024,0.0186266,0.09072469,0.008246377,-0.105906755,0.031167112,0.07607659,0.05912212,-0.08626823,-0.07066359,-0.14275712,-0.033166174,-0.006148412,-0.08195768,0.0020741245,-0.05103678,-0.0452637,-0.118740685,0.066909775,0.12271162,-0.09202993,0.08095836,0.088185765,0.12055134,0.08087184,-0.026075669,-0.092861645,-0.084950894,-0.12737527,0.120119415,0.123959035,0.0063989577,0.1326975,-0.059733655,0.11243808,0.09702662,0.14441817,0.045647945,0.12306575,-0.012062155,-0.09936951,0.028498765,0.061704975,-0.09725585,-0.10430162,0.0008729091,0.0014059142,-0.026203774,0.07811413,-0.04772118,0.10986611,0.018521838,0.03802025,0.08134814,0.098644465,0.11353849,0.0778405,0.11623481,0.021011466,-0.071697064,-0.036894824,-0.09889862,-0.014947524,0.04527986,-0.06698091,-0.029022504,0.0019736886,-0.14602524,0.109424226,0.1054227,0.0965876,-0.061301738,-0.10775518,0.007577883,0.10216745,0.0051988955,0.03541407,-0.09870953,0.08536956,0.0938856,0.09917763,0.072034985,-0.02507074,0.09465367,0.0768015,-0.05412632,0.12121295,0.10678403,0.008169544,-0.13854921,-0.13654026,0.07173724,-0.0010191787,0.057995908,-0.029284298,-0.008415718,0.057562985,-0.09667457,-0.06567523,0.0051535796,-0.063241586,0.0038561632,-0.124564394,0.011551837,-0.13334858,0.016321495,-0.0045501133,0.0125450045,-0.12354217,0.024861118,-0.005413764,0.015741361,0.0062246504,-0.020167554,-0.08199979,0.049058527,-0.10403275,-0.065908946,-0.015759794,-0.06703682,-0.07251199,-0.031755812,-0.07907564,0.113536835,0.043532144,-0.06897124,0.025800535,-0.043954477,0.04232204,-0.124766216,0.07733323,-0.10912103,-0.07908316,0.1182266,0.10912615,-0.07775564,0.02676414,-0.10048698,-0.07554433,-0.015552892,-0.01832542,-0.04321852,0.11796511,-0.058378216,0.13457572,-0.08201691,-0.113671936,-0.14050542,-0.08967687,0.021598091,-0.042343706,0.073949665,0.03285876,-0.113959335,0.11730747,-0.10963425,0.050762348,0.10252387,0.12925069,-0.083680205,0.06864361,-0.05947858,-0.04329849,-0.039804064,-0.039387826,-0.021875344,0.14533173,0.00892619,0.004698897,0.098594114,0.03208169,0.042431127,0.032519456,0.105615795,-0.14325407,0.032064978,-0.08220968,0.028438387,0.07384631,0.01538939,-0.04250159,0.08892801,0.0039192885,0.04366672,0.058777045,-0.14871602,0.1349076,0.12519655,0.13780782,0.08981862,0.05009474,0.07610982,0.13730703,0.119110785,-0.046475373,-0.008195163,-0.094918475,0.12657443,0.04769528,0.0144437095,-0.021371396,-0.065284654,0.10917562,-0.12356082,0.03077661,0.035498425,-0.102837086,-0.10544197,0.068639286,0.039313894,0.13452366,0.11922276,-0.13165283},
	{-0.07323097,-0.11223175,0.028395321,-0.11779813,-0.068870984,-0.037880823,-0.08783997,0.026357096,-0.013981275,0.02102233,-0.05430056,0.10582903,-0.016591424,0.0985797,-0.13861987,0.13257375,0.031709347,-0.07942358,-0.12785676,0.142324,0.06854175,-0.0050840196,0.009841222,0.04615353,-0.13561565,0.117100686,0.042430747,-0.10025473,0.11786462,-0.092976175,0.038860366,-0.08018248,-0.09505991,-0.0066279406,-0.038032647,0.017044581,-0.051929694,-0.06542263,-0.09080593,-0.010405586,-0.015564769,0.013126744,-0.033499733,0.13255389,-0.034012333,-0.13712727,0.038498737,0.043208867,-0.04237938,0.12260896,0.051521912,0.11343492,0.10458821,0.13137797,0.015228084,0.05842526,0.00016845908,0.03608811,-0.104270205,-0.07657438,-0.009492761,0.008634203,-0.055864234,-0.111671045,-0.11910006,-0.1365536,0.068506785,-0.06798288,0.01798333,-0.019828595,-0.03176622,0.05363248,-0.008954983,-0.04883291,-0.051451087,0.11559221,-0.09261652,0.094673425,0.08372512,-0.10143587,-0.0067173326,0.13230264,0.08912998,0.0014213122,0.00059144804,-0.001705642,-0.13424352,-0.13937737,-0.10309149,-0.024341865,0.08699459,0.07922471,-0.052605353,0.11209267,-0.028911203,0.07815953,0.08191706,-0.1401616,0.046428375,0.031812657,-0.087923646,-0.039632123,0.105765335,0.098437026,0.021467099,-0.10640087,-0.014216592,0.0070068114,-0.05755512,-0.053849112,-0.028545365,-0.04979878,0.13239218,-0.048310548,0.026882626,-0.089779936,-0.044422884,0.07636836,-0.12959974,-0.07905712,0.044030026,0.023356,-0.027692474,0.06111136,-0.124253064,0.09241453,-0.023907663,-0.0893528,-0.03209082,0.1102503,0.10514393,-0.053250477,0.021599285,0.0376853,-0.08000751,0.0122014545,0.13064459,0.14421672,-0.091040015,0.11594779,0.015420106,0.089908674,-0.08483449,0.10095772,0.067385875,0.05501295,0.07922814,-0.020606324,-0.13871087,0.106165506,-0.027431538,-0.13864055,0.028606523,-0.006869275,0.01996109,-0.05944506,0.10441997,0.11458294,-0.117050625,0.042933766,-0.067517385,-0.019756896,0.11119402,0.10856897,0.13225967,0.06510629,0.08600156,-0.005817587,0.1439211,-0.11779874,0.08712574,-0.087591305,0.009623878,0.06914668,-0.021114428,-0.10568123,-0.09214176,0.089343205,-0.11767533,-0.14247417,-0.12687062,-0.054953348,0.0853095,0.03948493,-0.066365294,0.016373461,0.065208614,-0.115596995,0.11935442,-0.017864496,-0.10766322,0.034453835,-0.031370185,-0.10841105,0.045045,0.028056176,0.08194898,0.07662071,-0.10258336,-0.121345185,0.12641324,-0.08019065,-0.085818514,0.12044831,-0.12829715,-0.1345174,0.13474828,0.057275116,-0.13214116,-0.10075343,-0.09213539,-0.080586486,0.03613699,-0.06472829,0.07849909,0.012933712,0.15772161,0.08958222,-0.030268982,0.08806064,0.08497497,-0.02629796,-0.0992282,-0.047552023,-0.14680357,0.07254772,-0.104372375,-0.13560356,0.104765415,0.02752755,0.11164284,-0.024099043,-0.101117566,0.05296594,0.083960146,-0.07470564,-0.09791751,-0.14009467,-0.10521041,-0.1385564,0.0060977954,-0.009683039,0.09193086,0.10277292,0.12529223,0.016521866,0.10389944,0.13837194,-0.08399365,-0.10466815,-0.106538795,-0.13835171,-0.05011467,-0.051901605,0.045942806,0.025471507,0.10111572,-0.07396955,-0.04146357,0.115450546,-0.03936403,0.13114382,0.015952049,-0.11169237,-0.07708521,-0.025823405,-0.053564176,0.033032116,0.06394964,-0.06277186},
	{-0.14704067,-0.0022669244,0.11044926,0.02976407,-0.04998423,-0.098823205,0.042073864,0.0807931,0.03797659,-0.04992226,-0.058343373,-0.060933676,0.03092101,-0.11293068,0.025662752,0.067262754,0.05041887,0.13554767,-0.007114899,-0.12917957,0.086067766,0.00089103624,-0.029186502,0.11813623,-0.05118469,-0.07757096,0.008077308,0.10277048,-0.07372567,-0.1315057,-0.01786992,-0.024455745,0.13676105,-0.117619015,0.0023928895,-0.05873956,0.14536124,-0.10395561,0.05576157,0.11790471,-0.035304006,-0.07630135,0.10861491,-0.10463975,0.13980287,0.045839384,-0.0967193,-0.07989223,0.121915944,0.0075766942,-0.14206669,0.022827664,-0.14208998,0.11723749,-0.010499554,0.01090943,-0.08110016,0.02588144,-0.12243027,-0.14281297,-0.0035357918,0.12483466,0.013735728,0.09754906,-0.11193626,-0.10042898,-0.07962668,-0.07202343,0.046734683,0.14162044,-0.06785693,0.112975664,0.01719999,-0.12287524,-0.11233984,0.087876014,-0.11506018,-0.10320974,0.014273708,0.018131541,0.0817174,0.076454096,0.10835595,-0.13347875,0.09230147,0.08204679,0.10414767,0.11022833,-0.13302167,0.017905962,0.07640721,-0.06298414,0.00046402588,-0.10489846,0.09712458,-0.13555343,-0.0010478555,0.032406926,0.11718282,-0.017212482,0.13009207,-0.053772423,-0.051930647,-0.050808433,-0.055819638,0.0616229,-0.05133723,0.059932575,-0.13598295,0.13724852,0.048841983,-0.07207457,0.13400774,-0.13098094,-0.013322068,0.09000921,-0.09720767,-0.05874267,0.052616816,0.08556851,0.013573557,-0.10587864,0.07962591,-0.036596984,0.052454256,-0.06027924,0.025292864,0.12284135,0.114304826,0.02684716,0.07591626,0.014152721,0.014222536,-0.075468384,0.04012184,-0.02547423,0.12947881,-0.009402811,0.08187875,-0.057847954,-0.11153487,-0.055538516,-0.10216445,0.07902029,0.017674614,-0.10267632,0.09012787,-0.045390002,-0.009266456,-0.008004016,0.07547476,0.11521832,-0.052584138,-0.09149465,-0.12438332,-0.0368948,0.10877072,-0.007986254,-0.07937296,0.04536544,0.056792147,-0.019831944,0.07806557,0.06882552,-0.13228117,0.07036599,0.0803143,0.07311473,0.055641513,0.10695124,-0.093551,-0.11242004,-0.094814196,-0.027067307,0.073907495,-0.038419686,0.13259442,-0.09597385,0.13237545,0.035958663,0.08832739,0.13670911,0.13854504,0.029516457,-0.04557933,-0.12099928,0.079554506,-0.123974524,0.00953501,-0.07002997,0.05893996,0.12619044,0.13187346,-0.0034154532,0.05302437,-0.0056378446,-0.08210639,0.05418225,-0.0072503844,-0.00994619,0.08188421,0.0014932334,-0.095087096,0.037245218,0.014566349,0.11792698,0.008143985,-0.0088052,-0.032515272,-0.09868873,-0.026150286,0.11073287,0.013741122,0.0062453593,-0.0059628026,-0.07408235,0.10914703,0.016063962,-0.11073932,-0.050347295,0.03689356,0.10778127,0.11223845,-0.05493343,-0.05319163,0.14016722,-0.067409,-0.053345073,-0.12707032,0.0010920339,0.057784397,0.08058357,-0.12451204,0.02087072,0.08188865,0.010279589,0.07343696,-0.022926245,-0.12682243,-0.10793467,-0.063511565,-0.13272566,-0.0944297,-0.026877377,0.05232124,0.08988462,-0.091262765,-0.05652034,-0.11615212,-0.021480061,0.011668267,-0.017304448,0.10119527,-0.11863814,-0.05883676,-0.14077398,-0.13602236,0.108351596,-0.13467486,0.09589627,-0.06027993,-0.087989755,0.10251194,0.011302084,0.0728467,0.13299234,0.1271218,-0.033308033,-0.031936496,-0.129389	}
};