// include/dense_278_bias.h
// sergio rivera 
// 2020/02/14 23:43:15 

const float dense_278_bias_p[270]=
{-0.00086900487,0.0028362232,-0.0015177835,0.0069048773,-0.0021979297,-0.0027340315,0.0013999684,-0.0042201066,0.0019873823,0.007004202,-0.0036518401,-0.0052631805,-0.0005514121,-0.0019131859,6.1229104e-05,0.003113831,-0.0032723516,0.00011454933,-0.0010990647,-0.0015337446,-0.006290647,0.005462883,-0.009246511,-0.0035413457,-0.0003953562,-0.0053230175,0.0075249434,-0.01652793,0.0016720763,0.00035733962,0.0,0.0014183663,0.0040914183,-0.0012114028,0.005255075,-0.005752921,0.0018542155,0.0043373723,0.0023443466,-0.00014219909,0.00295157,-0.0013999273,-0.0013999272,-0.0011556251,0.0029935534,-0.020839106,-0.0012234587,0.00042665546,-0.0006087378,0.0033521364,-0.0022778823,0.013273182,-0.011833789,-0.0043828995,-0.0023792144,-0.0006714996,0.0030663847,0.0,6.1752624e-05,0.0012391944,-0.0037733088,-0.0099620875,-0.010288531,-0.007493313,0.004720545,-0.0013393208,0.003942202,0.0,-0.00346669,-0.0010030097,0.0,-0.008756264,0.0004054692,0.0,0.0011304147,0.01706549,0.010635871,0.003054696,0.013041155,-0.0037230412,-0.0018916765,-0.01069502,-0.0029571818,0.0015963229,-0.0017975464,-0.00040181552,-0.0040065506,-0.0059140525,0.011400414,-0.013222374,-0.009090568,0.0024843502,0.009598936,0.002623686,-0.0018371497,-0.0052949334,-0.0010341757,-0.009141161,-0.005034322,-0.0012695449,0.004070463,0.0013994528,-0.002587357,-0.0007180199,0.0020006262,0.011747914,-0.0013871199,-0.0017436756,-0.00035768014,-0.0041200453,-0.0018981814,0.002836463,-0.00466992,-0.008661919,-0.011859623,-0.001420039,-0.0010977035,0.0017342961,-0.0005833062,0.0020574972,0.0,-0.0014767018,-0.0051715914,0.0,-0.009049888,-0.0026371563,-0.009053226,-0.0065051448,-0.0010642667,-0.008363619,0.0041569998,0.005045644,0.0068949633,0.009137855,-0.002899622,-0.006769648,-0.0054557547,0.0011834169,-0.0005184623,-0.0003433089,0.007243227,-0.00054721517,0.008109128,0.010755501,-0.010281291,0.0012030955,0.014871263,0.0,-0.005614266,0.013625845,-0.0051135775,-0.007175301,-0.0007894672,0.0022475729,-0.003806916,0.0,0.0031596376,-0.0046580154,-0.002953986,-0.007242103,-0.0022137081,-0.012228939,-0.004847077,0.0002646827,-0.0025988887,0.0034245802,0.0013128375,0.0022210106,-0.00034688148,0.0028454177,0.0024231924,-0.0017072068,0.002397323,-0.0025935017,-0.011704029,0.0050315326,0.001397664,-0.0010626884,-0.00081989076,0.0,-0.0006441806,0.017955927,-0.009458221,0.0019740965,0.0,0.00064783206,-0.00527756,-0.00014296628,0.001193754,0.0044037635,-0.0032853414,-0.010531521,-0.0019097865,0.01609411,-0.0017021102,0.00041344413,-0.0007872926,0.0013016039,0.01176777,0.0005498494,-0.00347709,-0.0002604545,0.0,-0.0034329088,-0.0013999473,-0.0019628098,-0.00036212313,0.0,0.0,-0.0013978854,0.0013575375,-0.0004650136,0.00324946,-0.0026606796,-0.014058107,-0.0027237409,0.0138621535,0.010833633,0.0,-0.007965845,0.009334636,0.006398952,0.0,0.0017436472,-0.0012360407,-0.0066590663,0.001088362,0.008379219,-0.004721315,-0.0062791533,-0.008009969,-0.005584456,-0.0059050513,0.0018047002,-0.014445178,0.0077963257,-0.0056692986,-0.0026676576,0.0004009367,0.0,-0.0016921457,0.0008099077,-0.003527803,-0.0023248405,0.005475269,0.0041384776,-0.004074501,0.00483694,-0.008568326,-0.0012703526,0.007319278,0.0016351069,0.0002837838,0.0066465735,0.0007419769,-0.0009952623,0.003971024,0.0007528456,-0.00015359477,-0.004070581,-0.004727733,0.00014708948,0.008995686,0.0,-0.004826811,-0.006359644,-0.00010445446,-0.00020256755,0.00079972995,0.001956084};