// include/conv2d_2289_weight.h
// sergio rivera 
// 2020/02/14 17:19:39 

const float conv2d_2289_weight_p[3][3][4][2]=
{
	{
		{
			{-0.21421282,0.135915},
			{0.2412238,-0.29403353},
			{-0.18085863,0.15744157},
			{0.3228899,-0.16503653}
},
			{{-0.1404185,-0.10415015},
			{-0.22136585,0.02713815},
			{-0.13132349,0.21759742},
			{0.07096133,-0.09145562}
},
			{{0.120469004,-0.32101074},
			{0.15495877,0.15290935},
			{0.011787408,-0.13726215},
			{0.21198264,0.02472791}
}
},
			{{{-0.2122702,-0.18354158},
			{-0.014316894,-0.30562776},
			{-0.24670549,-0.2126426},
			{0.006659031,0.2789159}
},
			{{-0.26029322,0.24427572},
			{-0.17503576,0.15102819},
			{0.17103675,-0.2979406},
			{-0.17616367,-0.14087915}
},
			{{-0.2585622,0.05142061},
			{0.32897964,-0.19691321},
			{-0.1397829,0.23381555},
			{-0.32182878,-0.02244401}
}
},
			{{{-0.12561427,0.08183052},
			{0.17118366,0.018186796},
			{-0.05911085,-0.15523395},
			{-0.17409444,-0.017442554}
},
			{{0.19560114,-0.10660335},
			{-0.08160049,0.242629},
			{-0.04814817,-0.3146311},
			{0.13374972,-0.1392673}
},
			{{0.25088486,-0.26633888},
			{0.12731618,-0.21331263},
			{-0.26572144,-0.12844773},
			{-0.30377588,0.2486985			}
		}
	}
};