// include/dense_1741_weight.h
// sergio rivera 
// 2020/02/14 17:19:40 

const float dense_1741_weight_p[8][450]=
{
	{0.034469977,-0.057243265,-0.04019855,-0.08031531,-0.010457152,0.10702016,-0.07827204,0.06527993,0.10164833,-0.031139953,0.06941985,-0.095547035,-0.049395557,0.013507624,-0.0138572585,0.07129621,0.046828132,0.0027718642,0.109277874,0.04223851,0.06188969,-0.09065695,-0.05831923,-0.106739424,0.07017244,0.04473829,0.09764545,0.011295989,0.07845195,-0.053202346,0.05487942,0.07124607,0.08566156,0.077155724,-0.0031858133,-0.100897565,0.04574425,-0.112850435,0.007836576,0.07180589,0.09034574,0.07906265,-0.07439947,0.06717783,0.09008574,0.06892544,-0.04433564,0.06449427,-0.091240115,0.0014955237,0.06312128,0.00013856601,-0.03584911,0.10515212,0.10861661,-0.0718391,-0.10987641,0.07389174,-0.045082226,-0.07039037,-0.04582889,-0.081097215,0.10627038,-0.021134878,-0.021153025,0.058194026,0.070005804,0.07494526,0.090658784,-0.027559347,0.072303355,0.03657317,-0.11502254,0.0400127,0.092540205,0.1013735,0.022488378,0.0647131,0.04098999,0.07139772,0.025789093,-0.07446512,-0.0886427,0.03787211,-0.0053329826,0.0833217,0.027512396,-0.052256864,-0.08535429,-0.10886823,0.03817693,-0.095427416,-0.064340115,-0.101143725,0.09833334,-0.03949408,0.100861266,-0.008870004,0.060944952,-0.04572186,-0.022384439,0.045917105,-0.020994917,-0.061269812,0.050550833,-0.055948272,-0.023476211,0.04354147,0.071751885,0.095059566,0.0551835,0.0899728,0.07073946,-0.029837003,0.03944841,-0.0795068,-0.058569435,-0.0102178175,0.020157885,-0.04148227,-0.09446788,-0.08922226,-0.021842826,0.09151853,-0.08013957,0.10930334,-0.093164675,-0.039549995,-0.11033981,-0.11051128,0.04307373,0.09937161,-0.070220426,-0.07534301,-0.02038262,0.07389002,-0.09188289,0.07926524,-0.020773832,0.1091017,0.10410177,-0.00872715,0.05356926,0.018454745,-0.03548787,0.05977427,0.07409208,-0.039019,0.074551396,-0.11298156,0.10006591,0.10373383,-0.060049396,-0.11096368,0.042680535,0.0060346094,-0.11870735,-0.07544225,0.06471874,-0.01728129,0.11836615,0.10851588,-0.031719606,0.06720382,-0.10681394,0.10747423,-0.07005595,0.07042021,-0.013049925,0.041340206,-0.008883964,0.06240229,0.051002845,-0.089975685,0.07411575,0.06281577,-0.009128295,0.031660397,-0.08052518,-0.024637396,0.05787492,0.049067743,0.043212812,0.04187341,0.044355452,-0.040355988,-0.07875511,-0.06087437,-0.04519199,-0.036299665,-0.11600721,0.031313255,-0.009077572,-0.024926316,-0.074658066,0.031523544,0.029226882,-0.092551745,-0.056961335,-0.037449904,-0.07528793,-0.07848312,0.06914158,-0.02810956,-0.023771973,0.11007872,0.010966036,-0.067448996,-0.09017762,0.11235583,0.098482944,0.07000233,0.10530035,0.07945958,0.103443,0.0502127,0.015868735,-0.004485355,-0.025056615,-0.0941293,-0.107298754,0.041584227,0.10837211,0.06791024,-0.09350963,-0.105032414,0.10797593,-0.09129201,0.079209015,-0.09828878,0.06548369,-0.021524332,0.023664048,0.11443827,-0.07800857,-0.0799591,0.017920384,0.056754015,-0.102830626,0.051661365,0.047546092,-0.103251524,-0.036856852,0.04345191,0.08418321,0.017864676,0.04623258,0.10507841,-0.03734094,-0.04707802,-0.095169835,-0.06797982,0.010501556,-0.020301098,0.085568495,-0.08366396,0.088737845,0.05279394,0.01791727,0.049588036,0.09106705,0.09013237,0.0025141183,0.054023217,-0.08496844,-0.083713286,0.020678185,-0.0315835,-0.00782226,0.053857625,0.08828643,0.014231544,0.06341428,0.05048379,0.057719648,0.10577276,-0.078988545,0.071316324,0.07479025,-0.024709715,0.07847284,0.044544507,-0.11246495,0.060221266,0.03886594,0.09476185,-0.001891968,0.09306617,-0.03906132,0.100664034,0.020309877,0.101967834,-0.052228395,-0.098511875,0.11654106,-0.04446693,-0.09760872,0.111144856,-0.015606235,-0.11016758,0.08953212,-0.06042531,-0.07392393,0.08166743,0.0130012175,-0.092520334,-0.08095289,0.1078243,0.034859672,-0.044867415,0.079988524,-0.02597263,-0.0050725816,-0.0901519,0.10033013,-0.08884873,0.02754616,0.038809054,0.028240869,-0.11623805,0.07612376,0.09222451,-0.0068255356,-0.0014036598,-0.07425172,0.087594576,-0.06004185,-0.00878392,0.048228767,0.030178733,0.006434554,0.070896104,0.04459868,0.06600111,0.041365493,-0.028246537,-0.105943754,-0.1061798,0.0056213415,0.022264225,-0.08298689,-0.07185583,0.035318885,-0.09862992,0.08921804,-0.021602236,0.074046336,0.10540676,0.09285985,-0.04273409,0.07831892,0.1092838,0.10651762,-0.04849417,0.06403908,0.11028887,0.09831487,-0.08842924,0.010123393,0.013907319,-0.010211426,0.10184719,0.052393313,0.03526942,0.014413915,0.020946532,0.0340251,0.037191823,0.029053655,-0.0077313343,0.042100355,-0.09408446,0.08068463,-0.02270097,-0.071972005,-0.006456427,-0.055235077,0.034968615,0.052506484,0.0781284,0.072309665,-0.047432866,-0.011065907,-0.023614636,0.014285435,-0.059880435,0.076496445,-0.041876197,0.015191438,0.07715887,0.0457541,0.044555966,-0.030951098,0.013568365,0.061299823,0.028478319,0.10371452,0.06711422,-0.09705032,0.08016158,0.08169682,0.09728618,-0.0014068206,0.073993005,-0.042098753,0.01566314,0.101182684,-0.040221233,0.07235247,-0.011048397,-0.10295335,-0.013728704,0.06610027,0.10387828,-0.07657543,-0.07403043,-0.08264513,-0.05928038,0.07630904,0.016261302,-0.02278677,-0.005506389,-0.052427415,0.097390756,-0.034979083,0.101885885,-0.10738346,0.043088645,-0.0384899,-0.0024907005,0.0964936,0.0018707835,0.09460638,0.014392461,-0.071014896,0.0056787687,0.067648634,-0.043058358,-0.03647051,0.015003228,0.014206519,-0.03663471,-0.07847118,-0.011073874,0.080043465,0.06755797,-0.045939386,-0.056205016,-0.06492977,-0.084260195},
	{0.06948079,0.045890607,-0.042262986,-0.02068131,0.063819565,-0.038744252,-0.0583408,-0.026076758,0.052800268,-0.012062966,-0.030453091,-0.010121995,-0.019400219,-0.062887914,0.029635968,0.039656688,-0.007128061,0.09632728,0.05703078,-0.05076241,0.06410539,0.06586767,0.083167486,-0.048333902,-0.085995175,-0.090392694,-0.06224962,-0.013951495,-0.058746576,0.09673181,-0.055024117,-0.09507771,0.08902411,0.080026336,-0.026280168,-0.07883278,-0.09427926,0.04607037,-0.010574963,-0.022341447,-0.06165717,-0.054757018,-0.045849208,0.08038738,0.012393104,0.026628802,-0.07740026,0.04108483,0.03561247,-0.02632495,-0.088359654,0.10564403,0.099015266,-0.012861259,-0.041188568,-0.07177385,-0.04093605,0.013097857,0.08106267,-0.054800797,0.005273347,0.03670557,-0.11148145,-0.004863053,-0.08976139,0.055398505,-0.07577254,0.0694244,0.083394036,0.09186452,-0.11895788,0.10583125,0.1047615,0.103717834,0.07915137,-0.07821951,0.056423396,-0.043454267,0.07649553,-0.04019247,0.018300219,0.05715009,-0.028801342,0.09761624,-0.11453242,-0.02403655,-0.0033817638,0.095569454,-0.05317475,-0.0200491,-0.10433524,-0.025341863,-0.086543635,-0.011736326,-0.0854287,-0.008596212,-0.09836922,-0.025346413,-0.06447622,0.08350767,0.022965563,0.04170544,0.100637935,0.060595743,0.011125487,0.06719445,0.00560045,-0.015661497,-0.036569737,0.057979837,0.016149526,0.112725906,0.0070312205,0.04472639,-0.012132802,0.002392138,-0.05539384,0.027457483,-0.11433611,-0.07188115,-0.092777774,0.008767578,0.056694556,-0.044611637,-0.037052076,0.10532564,0.078586765,-0.0192369,0.06282872,0.014987665,-0.027139504,0.08957769,-0.059508014,-0.10503673,-0.0052925423,-0.054836072,-0.10686334,-0.0760481,0.11518917,0.095139585,-0.07656308,0.07868579,-0.115989864,-0.07656748,-0.000733083,-0.099642724,0.004939148,0.03940347,0.107531495,-0.011625812,0.077826604,-0.087046534,-0.065853775,0.077981025,0.07399408,0.096496135,0.042841025,0.010564823,-0.086636424,0.0107410345,-0.04804846,0.06912751,-0.09366408,-0.060973473,0.05305635,-0.10315836,0.042479645,0.0031589286,0.007387023,0.07257361,-0.10609388,-0.10846533,-0.011221499,0.078178614,-0.004107869,-0.108551905,-0.0057898806,0.08253076,-0.08749645,0.060134195,-0.00796775,-0.02601597,0.107494146,-0.06252657,-0.050088532,-0.014640442,0.09466439,0.0051469444,-0.08052688,-0.0582951,0.077632956,0.10079824,-0.10650138,-0.006589611,0.059874844,0.006378471,-0.014408157,0.023565851,-0.0257831,-0.02465708,-0.023572128,0.06871228,0.077918306,-0.01867306,0.09051323,-0.033578202,-0.096062616,0.083372936,-0.034529094,0.07992355,0.047805466,-0.03309591,0.078707136,0.07636198,-0.09419689,-0.013586049,0.08873799,-0.060676128,-0.06919892,-0.10269404,0.08442744,0.0532728,-0.047660988,0.060251124,-0.06605979,0.00960006,-0.03265946,-0.106560536,0.030015029,0.09435677,0.024432711,-0.06866646,0.051368512,0.11643513,0.06682904,0.113655895,0.0449908,0.0668195,-0.068962365,0.058864426,0.058538035,-0.017558258,0.02369028,-0.00023751793,0.07055555,0.025934735,-0.06740163,0.088912405,-0.06482516,0.0078822,-0.032272145,-0.013066399,0.008575313,-0.012297577,0.05163104,-0.02623373,-0.097554214,-0.017478362,0.0917236,-0.115576826,0.046530213,-0.008841028,-0.07336382,0.100638986,0.10054524,-0.0131743485,-0.039013833,-0.02874091,0.024684364,0.06433937,-0.057154886,-0.08837398,0.0043914746,0.074651465,0.012054329,-0.06760058,0.115565956,-0.044751924,-0.07007311,-0.11063231,0.02261457,0.10868515,0.01184648,0.03524348,-0.018723782,-0.03576568,-0.08750844,-0.048690017,-0.04095808,-0.09822504,-0.08688134,0.09202483,-0.05020975,0.08911457,-0.037022132,-0.00063673686,-0.033431023,0.055282306,-0.08631703,-0.09071804,-0.012690831,0.02865994,-0.025413822,0.011766294,-0.06799872,0.038799543,0.009108662,-0.021221746,0.099699505,-0.025396883,-0.009288956,-0.021848125,0.07809175,0.118454136,-0.10650184,0.025871962,0.023387311,-0.053732775,-0.09420173,0.07612069,-0.006347874,-0.015701015,-0.100938395,0.09525436,0.011541246,0.031187003,-0.060628172,0.102696724,-0.10443162,-0.018878054,0.0866352,-0.05341884,-0.06970008,0.015853856,0.07595341,-0.06510499,-0.028914131,-0.059339043,0.0040730657,0.108077474,-0.057683002,-0.11147585,0.057908434,0.03713015,0.010189913,-0.025156006,-0.09246845,-0.101307675,-0.07450114,0.010988804,-0.061683957,-0.04450688,0.10801467,-0.014044322,0.0761783,0.0947539,-0.026924515,-0.096782014,-0.08281689,0.060842223,-0.059615463,0.083351135,-0.06207531,0.049631104,-0.114269614,0.0817089,0.036885563,-0.022049362,0.09294783,0.10534718,0.05280998,0.106294505,0.0719783,0.06664032,0.019784475,0.05460733,0.068283536,-0.084653154,0.07986048,0.10390861,-0.03738241,-0.07348216,-0.08579604,0.046141326,-0.020190349,0.062405825,-0.020434352,-0.04542614,0.031921584,-0.023727385,-0.033556703,0.099678725,-0.028476143,-0.094852746,-0.0024737928,0.08669628,-0.019663787,0.10716811,0.031253956,-0.06477724,-0.062022276,0.06053345,0.014383977,-0.0073164837,-0.06845429,0.026992027,0.07463864,-0.12060739,0.10358683,-0.03100783,-0.1132052,0.08428393,0.018818853,0.051199753,-0.021742636,0.027791584,0.10571856,0.09534744,-0.030332766,-0.029336575,-0.0688225,0.04374034,-0.02534011,0.008163012,0.07542862,0.08807338,-0.058934726,-0.06532128,0.102492765,-0.028597819,-0.05917813,-0.053453125,0.05680858,-0.08896095,0.119597875,-0.061285976,-0.11130321,0.03760946,0.017755177,-0.028768482,-0.056391332,0.053727955,-0.11178061,0.031156242,-0.06885088,0.07257203,0.023994187,0.114241846,-0.06371887,-0.0076191956},
	{-0.06258833,0.008810293,0.0011026107,-0.06217961,-0.099753,0.03241463,0.10480413,0.08148833,-0.08981275,-0.080564484,0.012296718,0.05423413,0.0037114096,0.10020664,0.045427803,0.058874253,-0.10662994,0.101156496,0.09776619,0.04010196,-0.08451537,0.06398379,-0.08736529,-0.031664718,-0.10605857,0.051677592,0.012147083,-0.10886617,-0.0044667455,-0.057869542,-0.09957709,0.017670626,-0.040232755,-0.07064865,0.022532597,0.03225063,-0.06949369,0.076479934,0.046427045,0.10557832,-0.099114306,0.00083384174,-0.06709772,-0.053477652,0.10194442,-0.002983939,-0.03040167,-0.01011513,-0.07780522,0.005090621,0.07723611,-0.005464446,-0.08046577,0.0143517405,-0.06802036,0.002423345,-0.059778605,-0.038722027,0.070034206,0.11519039,0.0909797,0.05999372,-0.071398556,-0.09215557,0.10365458,0.053064052,-0.046222523,-0.02114765,0.07649065,0.023305418,-0.020477341,-0.06647235,-0.095844164,-0.010944489,0.11138194,-0.03902976,-0.0336132,-0.10259039,-0.022252765,0.060305655,-0.012606793,0.084024236,-0.06729084,-0.10733753,-0.09924303,0.10065946,-0.057774916,-0.113766454,0.107226685,0.03404569,-0.011986904,0.059434243,0.10650375,0.10604379,0.025047548,0.054788254,0.09865604,-0.09768906,0.09388267,-0.10756987,0.085857175,0.013408527,-0.08682275,0.01844254,-0.09648639,-0.053111102,0.005795959,0.04338296,0.009622648,-0.018969616,0.10933811,0.017248461,-0.005401949,-0.042344276,0.08799306,-0.003228965,-0.038044106,0.0034229935,-0.09835145,0.060737364,0.016810996,0.07320142,-0.08691283,0.021547675,-0.045974035,0.0895663,-0.02410897,0.034291115,0.010790467,-0.038956016,0.010317909,0.017257428,0.08041389,0.097042024,-0.051113658,0.10897043,-0.008160412,0.05027888,-0.056658752,-0.025147662,0.0716051,-0.089127764,0.0153313605,0.0841403,-0.074656785,-0.00762565,0.05403207,0.07216234,0.06775769,0.0580921,0.027219832,-0.05643418,-0.011320837,-0.10775201,0.114655726,-0.11061218,-0.092682175,0.061197367,-0.090874985,0.03730525,-0.05107759,-0.1153538,0.08749382,-0.052864734,0.026111998,-0.10017597,-0.0019690988,0.10007828,0.060786687,-0.046648312,0.11815538,0.042555444,0.026726384,-0.08490174,-0.014214211,0.11250979,-0.042037327,0.08119466,0.044503495,0.097185515,-0.09929149,-0.089015216,-0.019518755,0.036358252,0.06335182,0.030962171,-0.06966938,-0.06918902,-0.10156147,0.10104768,-0.018148383,-0.104074396,-0.0014300101,-0.10181072,0.05652514,0.02776709,0.04161775,-0.10015288,-0.021098318,-0.03747784,0.040128965,0.10342639,-0.07699747,0.10391053,-0.031814244,-0.11034639,0.08460554,-0.019898381,0.049542155,0.02936963,0.07013868,-0.060494784,0.09701089,0.107415736,0.012067237,0.07937624,0.08645438,-0.09806979,-0.11737781,0.09904944,0.05050324,0.03491034,0.11047405,0.08727947,0.01790237,0.04419408,0.070644446,0.03838668,0.10851238,-0.07110103,-0.05757132,0.014130925,-0.033638768,0.014054837,-0.11073182,-0.097993866,0.07310501,-0.00036467356,0.037814982,0.10147967,0.10219319,-0.08066337,0.10148496,0.0499542,0.055727128,0.05609075,0.06320251,-0.0882409,-0.10430084,0.07229537,0.07845573,0.060860053,0.09009821,-0.039389823,-0.08511959,-0.10791653,0.010292502,0.0029930444,-0.010293584,-0.08393263,0.05132813,-0.05255737,0.0031587277,-0.015479718,0.0054834317,0.00054083066,-0.013685417,-0.032767754,-0.01337633,-0.056853183,0.0664576,0.032488648,-0.06928275,-0.07582149,-0.007713411,0.057261605,0.022123678,0.009627424,0.117338195,-0.072280504,0.031925198,0.077633105,-0.052140914,0.010729543,0.05848958,-0.019785315,-0.009683213,-0.038956434,-0.028921878,-0.05712646,0.047394816,-0.07947829,-0.10127719,-0.057343632,-0.028205859,0.080988,-0.027972613,0.11219963,-0.061442327,-0.080712,-0.06658564,0.01992624,-0.003633742,-0.00085187284,-0.07179599,-0.085522205,0.054449845,-0.0060878233,0.09534181,-0.017771577,-0.06605332,0.022448534,-0.05759832,-0.076990955,0.07061591,0.012754068,0.0048130616,-0.07242741,-0.023009546,-0.04236667,0.09441626,0.10569899,-0.1035125,0.07879015,0.09255385,0.025033213,-0.095130906,-0.062550075,0.07260312,-0.1049065,-0.00016215316,0.017007083,-0.05569555,0.063025765,-0.09118856,0.040714383,0.047957182,-0.08392002,-0.07484555,-0.082710244,-0.059138115,-0.0034849837,0.087414905,-0.05379104,0.050040387,0.11680214,-0.019002903,-0.110282384,0.06927521,-0.10271805,0.10485123,-0.06793983,-0.05454167,0.08860783,-0.012081684,-0.058083653,0.046319555,0.013854109,0.010551774,-0.099985644,0.04016977,0.08223667,0.084207214,-0.022496916,-0.06470867,0.0079289675,0.058896467,-0.0021725432,-0.03264899,-0.060829595,0.059479468,0.032907862,-0.0028235626,0.07755929,0.051802453,-0.10847527,0.0680031,-0.033026293,0.03277624,0.052954104,0.037223734,0.0465538,0.02546728,-0.06403693,0.034170795,-0.08968827,0.00015020574,-0.010143782,0.087434605,-0.050956436,-0.05375735,-0.11339597,0.030764075,-0.060251065,-0.071701854,-0.051333852,-0.049365986,-0.04218976,0.10295851,-0.048333496,-0.029292312,-0.0043688137,-0.030208087,-0.09247759,-0.099813186,0.0033309425,-0.030962467,-0.021259012,0.024824664,-0.054674454,0.106341235,-0.015492947,-0.07227924,-0.032999277,0.011953178,0.07237981,-0.0313529,-0.10486632,-0.043927815,-0.030974498,-0.085311905,-0.02963394,0.009078104,-0.09356751,-0.0087223975,0.10531594,-0.0940105,0.008437649,-0.1037491,0.06294711,0.017585281,0.010845811,0.016869219,-0.112817675,-0.07596989,0.016861256,0.07006778,0.10329634,-0.07224052,-0.07262575,0.06340182,-0.11236146,0.022376152,-0.10174866,0.051517565,0.098670036,0.01943908,-0.0082386555,0.041881174,0.026588922},
	{0.091386676,0.09501188,-0.04783438,-0.100550905,0.05878636,-0.091373324,0.10898348,0.06979667,-0.10669226,0.080184504,-0.102676645,0.025557326,-0.025793768,-0.029486502,0.034215752,-0.015656654,0.09658536,-0.09582795,-0.026840106,-0.10802799,-0.010275902,-0.07940607,-0.06725895,-0.014775381,-0.017970206,0.04673847,0.017752368,-0.062178493,0.07145801,-0.055275295,-0.09983815,-0.055877183,0.0833221,0.0264591,0.039319146,-0.024561757,0.025612708,-0.018043162,-0.058542058,0.0671046,-0.032438587,-0.060818482,-0.08770706,-0.037262265,0.008611023,-0.09447188,-0.045596663,0.017392052,0.12140478,-0.08409566,-0.030077942,-0.11046276,0.039046925,-0.058169197,-0.05338019,0.023781091,-0.047118574,0.047938395,0.08975101,-0.020092454,0.055565905,0.07337549,-0.036751106,0.088786244,-0.026606068,-0.008225504,0.032134842,0.0102310125,0.04611852,0.027662562,0.09583533,0.009578789,-0.029951174,0.09597864,-0.07206361,0.07721254,-0.059452686,0.038433317,0.087830395,-0.07962414,-0.08767276,0.042812984,-0.0976441,0.09887119,0.048378598,0.03674061,0.071019955,0.040949915,-0.013254112,-0.013947099,0.07858337,0.019306108,-0.06462434,-0.07707734,0.06280666,0.0051648556,-0.09790297,0.050717168,-0.07560148,-0.10765259,-0.026259411,-0.07019346,0.1015822,0.11634172,-0.0005395645,-0.035112545,0.11128841,0.09926212,0.04952656,-0.033714186,-0.09199631,0.03258147,-0.07636179,0.010869215,0.10113167,0.06776942,-0.02663346,-0.05505187,0.00983741,0.08479478,0.07681994,0.063420855,0.022251615,-0.01715322,-0.01706386,-0.08407871,0.115503274,-0.006017648,-0.08765147,-0.055977874,-0.08810511,-0.088526815,-0.028759537,-0.08227987,0.10236094,-0.028424699,-0.063653566,0.0108292475,0.036946133,0.10578029,-0.058371678,0.036719225,0.02270736,0.024574775,0.019823011,0.05931583,-0.023167029,0.0866647,-0.060534887,-0.09836579,0.04355299,-0.060548626,-0.0010353418,0.055512946,-0.10585578,0.027133022,0.03827416,0.0475427,0.11515875,0.103045724,0.068307064,-0.070846125,-0.04207011,0.08097473,0.0062971953,0.10941753,-0.046768203,-0.028304737,0.10528175,-0.04824567,-0.014987226,-0.09104345,-0.11031551,0.085811965,-0.07172324,0.0718768,0.097748585,0.09758639,0.092432186,0.047684763,0.065237604,-0.10683608,0.010973683,-0.017309649,-0.09653563,0.07260186,-0.04798482,-0.11376654,-0.041723583,0.02160955,0.059679873,-0.029591184,0.03957657,0.014895564,-0.00021431153,0.046396352,0.04823275,0.0020803139,0.0011218813,-0.10691814,-0.0804988,0.026055984,-0.056906164,-0.057748035,-0.041097753,0.068511985,0.10036698,0.025162395,-0.062341474,-0.016676614,0.047774166,0.07071867,-0.06527882,-0.085485764,-0.0766844,0.070256166,0.07999496,0.03862578,-0.027364036,-0.10052356,-0.0075147073,0.08072744,-0.0766318,-0.032529812,-0.026120482,-0.074829675,0.028124059,-0.056494135,0.10188774,-0.054014597,-0.074124284,-0.07461404,-0.079282,0.021322364,-0.01569815,0.056724034,0.033849325,0.11128021,-0.10942202,-0.046310518,0.044019632,0.026446594,-0.099119924,0.041741017,0.10003336,-0.08644416,-0.043348614,-0.10442131,-0.0021028796,-0.10447056,-0.10973098,0.09206603,0.07928837,0.068538524,-0.10250822,-0.0346196,-0.058629103,0.033930365,0.10428399,-0.10742824,-0.0433001,0.019672442,-0.020849703,-0.079199366,0.051526964,-0.060709197,0.02768644,0.004786967,-0.0027266273,-0.01987707,0.020757087,-0.067118146,0.03213276,0.06783445,0.09956958,0.0060038073,-0.0365343,0.11298555,-0.07575503,0.09375836,-0.053000085,-0.042662885,-0.01280312,-0.09072539,0.107407875,-0.057389714,-0.09009153,-0.06733968,-0.06633459,0.09583661,0.073250726,-0.018281583,0.02655102,-0.038837653,0.06739799,0.041967977,-0.035703607,0.0071759154,0.036201898,-0.029173622,-0.050857566,-0.06536253,0.095427945,-0.06616317,-0.06496139,0.011258133,0.03860145,0.018658862,0.11804007,0.0011433552,-0.10711611,0.074908815,0.080562726,0.004526752,-0.065072864,0.010690049,-0.047688156,0.07651963,-0.09399743,-0.10710791,0.025901709,0.048718873,0.008178549,0.05099739,-0.033182483,0.0001501547,-0.024594942,-0.0018016109,0.018510966,0.058429882,0.0486946,-0.10065397,0.097589165,0.04779734,-0.043454066,-0.1091396,0.018129911,-0.08815612,0.028598934,0.04043491,0.10068142,0.096325934,0.12296292,-0.061632123,-0.053669762,-0.08197049,0.024654794,-0.07694072,0.08060145,-0.0458838,0.020341653,0.08678807,0.02323752,-0.03148722,0.06261064,0.112775825,0.09379348,-0.10040997,0.05212905,0.09294621,-0.097731225,0.035647992,-0.022620369,-0.047093607,-0.055961486,0.09272393,-0.09805752,0.07474545,-0.08890453,-0.044383757,0.03299411,0.057863656,0.093205035,0.063214526,-0.094816186,0.06293706,0.030228807,0.061955985,-0.08924265,-0.09412931,0.047948282,0.11278746,-0.07746887,-0.051076565,-0.025014387,0.06127324,-0.0057603265,0.03461982,0.06400864,-0.06591071,0.08556882,-0.02022523,-0.11810238,-0.02442047,0.016289156,0.05005916,0.058209248,0.031955145,-0.06329679,0.06599595,0.013700604,-0.024769697,0.020030195,-0.037315264,0.049564116,-0.030575067,0.09141704,0.114005506,0.05441596,-0.1031945,-0.03441605,-0.09835604,-0.07037679,-0.08600696,-0.06330796,-0.10622101,0.026433075,0.031009763,-0.023087574,-0.063244164,0.04533132,0.018104253,0.0056569106,0.07066984,0.015952464,-0.020776505,0.031231022,0.083263345,-0.057269864,-0.065056175,0.04744913,-0.05256358,-0.0497091,-0.019157223,-0.10931988,0.07178653,-0.021723371,-0.06995137,-0.0013961324,0.05690267,0.020482445,0.088962376,0.031801064,-0.1088941,-0.029582286,0.051454443,-0.10481972,0.106142186,0.04546498,-0.07810176},
	{0.09499583,0.008481987,-0.11056566,0.06687525,0.007580757,0.10827713,-0.0063123545,0.021492135,0.107692845,0.049700115,-0.05037793,-0.058942575,-0.12107212,-0.04723452,-0.065580204,0.046863638,-0.037849728,0.022826282,0.035690255,-0.0047778236,-0.09111466,0.060384445,0.0392662,0.09923274,-0.0842407,0.10366029,-0.101890996,-0.01079039,-0.10348276,0.10338084,0.08402839,0.07615721,-0.08579613,-0.048891954,0.05671463,-0.06618552,-0.04918323,0.083456285,-0.0051342007,-0.095138796,0.0801379,0.02412445,-0.010296718,0.073079884,-0.07203654,0.027592493,-0.07800304,0.0092713665,0.022855239,0.0054327003,0.0012149427,0.029620996,0.009388691,-0.06308452,-0.001505503,-0.04823393,0.10645069,0.020751586,-0.006893087,-0.049088977,-0.101777546,0.050829753,-0.07969372,-0.010824359,-0.10589666,0.07079751,-0.10136363,0.05735919,-0.0134428935,-0.06406687,0.02621159,-0.038543146,-0.11398984,0.045704506,-0.10671633,0.015369918,-0.07817989,-0.08737248,0.024015423,-0.095587716,0.023208572,0.017514562,-0.09182506,-0.105246134,-0.015743338,-0.06945492,0.099024236,-0.06396855,-0.023572663,0.082084455,-0.03574315,-0.026058838,-0.049834367,0.10096015,-0.060309555,0.0877253,-0.002050925,0.10377044,-0.02670903,-0.01627012,-0.09410065,0.09529395,0.10262461,-0.07022118,-0.063981935,0.064548105,-0.05846328,0.086649634,-0.027866842,-0.09104465,-0.080703534,0.05420577,-0.06758578,-0.01595308,0.11430647,0.060053322,0.030935677,0.07521562,0.062928446,-0.10388502,0.04738004,0.033163037,0.030504718,-0.059415687,-0.07987625,-0.11520565,0.1142054,-0.04921696,0.04769125,-0.082588606,-0.06771915,-0.061144903,0.058496132,-0.039230987,-0.10075157,0.0117948195,0.005242434,0.009551834,0.115324564,-0.106085695,0.073278755,-0.08101926,-0.0932118,0.01617128,0.09952056,-0.025031725,0.110039905,0.008046739,0.027644154,0.0055879224,0.02831077,0.07652064,-0.055796556,0.05889845,-0.08204793,-0.10417945,0.06540484,0.053389605,-0.019989803,0.07204108,-0.09265164,0.08832624,-0.048258916,0.025052465,-0.028644832,0.04447384,0.08789429,0.09595926,0.10665902,0.11360151,-0.1225131,0.012630538,0.0765843,0.04393846,0.10600514,0.07960952,0.017694294,0.078791276,0.0020881223,-0.032081313,0.079174094,-0.0929775,-0.08419846,-0.012656594,-0.093457244,0.012122249,-0.011895763,-0.024644606,-0.007033715,0.054180942,0.024151608,0.08494951,0.02025475,0.06870477,0.013939506,0.06609045,-0.09784806,-0.09508429,0.09674398,-0.0466212,-0.09823494,0.08801803,0.11135108,-0.026168378,0.06036987,0.09834875,-0.01838841,0.09338954,0.06279019,0.09886294,0.0095293615,0.059738383,0.058007147,0.004912019,-0.08709421,-0.111668915,-0.09262787,-0.046715397,0.089063466,0.04668192,-0.002570228,0.017753558,-0.063157454,0.05836948,0.043323666,-0.043823812,0.10337284,0.09431759,0.0874688,-0.0040024035,-0.07686352,-0.026843043,0.05618784,-0.019967431,0.069184415,-0.046780456,0.020406973,-0.011753223,-0.014261006,0.103079125,-0.10707905,0.05935303,0.06506563,0.0107624885,0.014839546,0.0023657267,-0.056537118,0.036573518,-0.066721454,-0.02878317,0.01136101,0.08067332,0.09759441,-0.098351575,0.01804178,0.07549025,0.040086277,0.02357434,0.007900331,0.08381405,0.08710056,0.03493438,0.06893086,0.051346876,0.09609707,0.06075844,-0.071067184,-0.050363563,0.102222145,-0.07223277,-0.059194524,0.07963456,0.081962995,-0.061860867,-0.031169446,0.058331177,0.09334664,-0.00042796228,-0.10566118,-0.015865332,-0.06299543,0.06555348,0.024129912,-0.009441881,0.09332152,0.04961301,0.056647677,-0.09164272,0.08155899,0.053840693,0.1124878,0.049476277,-0.025019793,0.030114768,-0.10868078,-0.089147955,0.082578436,-0.044235833,0.06970776,0.100522555,0.07721768,0.01564445,0.05941823,0.077143565,-0.06537102,0.060652286,0.08223555,-0.11292165,-0.0012472162,-0.105418324,-0.11484656,0.08465533,-0.08345331,0.023802401,0.015558394,-0.109226175,0.10947536,-0.026030445,0.082558215,0.045094702,-0.11182548,0.035100263,0.015601494,-0.0045138085,0.11393959,0.003690623,-0.11562997,0.038998395,0.019447,-0.09452666,-0.0041083638,-0.032049347,-0.08594387,0.016932307,0.09439368,0.003323399,-0.043161064,0.062484536,0.016504299,-0.10149285,0.07891959,-0.020867916,-0.04009814,-0.062069174,0.11030354,-0.06688862,0.067193046,0.019172397,-0.10679412,-0.082946435,-0.07145265,-0.08477819,0.050157987,0.00862249,0.030359693,-0.015177736,-0.03670036,-0.11252788,0.07114502,0.06571226,0.0058071,0.06550141,-0.12332681,-0.03791509,0.018837146,-0.0202138,-0.069390886,-0.011445024,-0.06750219,-0.023345029,-0.05664907,0.09211568,-0.045952447,-0.10065406,0.10042232,-0.1032126,0.08554664,-0.10457035,0.009856909,0.09030178,0.06661303,0.05017949,0.042170756,0.03088036,0.036210027,-0.050371133,-0.09339564,-0.09251346,-0.09787464,-0.01868349,-0.048335228,-0.020793261,-0.017737037,-0.042550635,-0.10447233,0.09148217,-0.012988509,-0.06172453,0.0428133,0.11867108,0.08628052,0.040726583,0.032354046,-0.08652533,0.035091884,0.027977072,0.088809,0.035211,0.092784815,-0.059695993,0.00972161,0.034700032,0.085577615,0.08601062,-0.04994496,-0.076961935,0.052617226,-0.048942424,0.066716924,-0.103734344,-0.09530599,0.10432324,-0.10103277,-0.08286347,0.026491346,0.10194089,-0.08357052,-0.107323445,-0.032431137,-0.024231872,-0.0835496,-0.052504983,-0.017312218,0.060025606,-0.049612705,-0.042292,0.0073840166,0.080521874,-0.0014636249,0.095543414,0.10587844,0.10725194,-0.004897241,-0.039339308,-0.02367661,0.088075295,0.09789544,0.08206659,-0.010174357,0.04788125},
	{0.031980976,-0.10029407,0.035763867,0.055929188,0.04357638,-0.03640703,0.06754162,-0.021605583,0.045800347,0.06510147,-0.041589513,0.03919853,-0.012493923,-0.06553788,-0.016444525,0.09945724,0.06793542,-0.059326593,-0.10377677,0.037308,0.07616992,-0.021294769,0.028272964,0.094714224,0.077640936,0.03956685,0.03950328,0.025110653,-0.03167698,-0.08572625,-0.043206852,0.11478478,-0.010695524,0.07189996,-0.022278292,-0.07099667,-0.0073208665,0.03582595,-0.10826999,0.010370921,0.03990935,0.10828072,0.014724532,0.05691332,0.0835681,-0.103667945,-0.006688503,0.018919107,0.11278044,0.009147984,-0.09804725,-0.050210446,0.02430935,0.07395639,0.08316626,-0.012356398,0.047415055,0.0752415,0.00618623,0.024678541,-0.009694178,0.03554636,-0.041193772,0.015834229,-0.11084116,-0.09943965,-0.045859758,-0.050977126,-0.057374086,0.004861903,-0.07334603,0.0209853,0.095663294,-0.03564775,0.0780613,-0.09725449,0.017485403,0.037906952,-0.094247624,0.06300628,-0.046152685,0.08571773,-0.07870083,-0.047506094,0.10640838,-0.10069096,0.050407186,-0.010301171,-0.093191765,0.05990416,-0.0990324,0.10310857,0.02769269,0.031621985,-0.032565318,0.0809193,-0.10548281,0.021544505,0.022409515,0.009938264,0.12382013,0.030268101,0.020211678,-0.062019613,-0.08778477,-0.0038461545,0.11047424,-0.037005015,0.04704503,-0.021301858,-0.037909493,-0.04318149,0.02961948,0.013834698,0.031991076,-0.10888527,0.023924805,0.06625282,-0.107591674,0.09447937,-0.013135765,-0.049668733,-0.015775,-0.048571363,-0.052922815,-0.08489784,-0.08490799,-0.05369283,0.103720814,-0.051989395,-0.0044520316,-0.10037569,-0.003207663,-0.11203447,-0.108727664,-0.015589424,0.04520607,-0.07572731,0.05832728,-0.044089265,-0.111452855,-0.114163324,-0.11812512,0.024938995,0.10276505,0.049603608,-0.05939773,-0.08323782,-0.0016932251,-0.06254839,0.07572453,-0.06206072,-0.07750603,0.07042546,0.008194163,0.0112231625,0.041157685,0.013358804,0.109039016,-0.05251062,-0.0009238307,0.09540724,0.096269704,0.06794857,0.039827216,0.07046756,0.09342331,-0.06003592,0.116329476,0.079719566,-0.03834306,0.070716694,0.08651074,0.04628428,-0.0027556778,0.04852556,-0.090987206,0.05505217,0.056295086,0.06355441,-0.021747898,-0.05064702,-0.017270155,0.09931056,-0.07478933,0.041594375,-0.038100876,-0.06976431,-0.0647899,-0.051162466,-0.10819976,0.0034454856,-0.029173763,0.11232562,0.020620981,0.11674967,0.113095365,-0.07760629,0.07821636,0.09835172,0.0028566476,-5.0229704e-05,-0.06660773,0.08643568,-0.013448976,-0.039275978,0.09575426,0.10620624,-0.042868353,0.0081063565,-0.0321504,0.08061456,-0.081948355,-0.016086,-0.09681619,0.05786307,-0.10299883,0.029972116,-0.004864063,0.020691624,0.05635886,0.10936065,-0.05154031,-0.017411347,0.010262719,0.106280036,-0.102422625,0.101316884,-0.0801008,-0.072120026,-0.04599763,0.050365277,0.027811546,0.03110344,0.051140644,0.016998146,0.059800904,-0.033410598,0.04140349,0.0419921,0.022806132,0.101166114,0.076966986,0.0137200635,0.03380218,0.04214314,0.08316099,-0.023463504,-0.05581358,-0.116611965,0.02255245,0.045049846,-0.00038947538,-0.09952332,0.044612758,0.06277322,0.06126048,0.120708905,0.016151322,-0.0587301,-0.094428584,0.053132325,-0.09040181,-0.0009938956,0.078278705,0.08427306,0.00046068718,0.067158476,0.056913357,0.04660644,0.055481676,-0.07796712,0.0188133,-0.06995708,-0.107896015,0.039837293,0.05619145,-0.09746369,0.045269664,-0.089434244,-0.05373989,-0.0032939338,0.08822646,-0.03930897,-0.0727946,-0.0456885,-0.032302152,0.05495112,0.039166544,0.063563146,0.06174967,0.021100152,0.05057979,-0.023203054,-0.07932868,0.041420028,0.05905957,0.03405833,-0.050324757,-0.07523089,-0.049083173,0.029900678,0.06500868,-0.081946895,-0.040527046,-0.04431977,0.06728485,-0.053788375,0.027572362,0.094330676,0.02419229,0.03359688,0.08835037,-0.10749434,-0.055189636,-0.105702385,-0.07942683,0.0215085,-0.0010198691,0.110186026,0.020689726,-0.11435333,0.07628896,-0.027341412,0.009713798,-0.0631056,-0.052649356,-0.08551327,-0.08946276,-0.08917089,0.064155445,-0.011809834,-0.08703679,-0.03971492,0.10728549,-0.047444608,-0.042464204,0.033358373,-0.008677826,0.105699256,0.02577726,0.068080544,0.09362416,-0.029232293,0.040470213,0.033305313,-0.020195482,0.060723156,-0.032187212,0.05137634,0.11157962,0.10246265,-0.025827872,-0.11902744,-0.059821375,0.04657016,0.042005792,-0.105174094,0.03834952,0.11645392,0.029496685,0.02054334,-0.08466563,0.09225833,0.0066128336,-0.09741799,0.012238773,-0.040582046,-0.022944469,-0.030008044,0.085973516,0.098725155,-0.06435732,0.10480202,-0.009980502,0.011935,-0.020967336,0.028538963,0.09883331,-0.065304615,0.07536314,-0.07930234,-0.090351954,0.033356767,0.095660456,0.0072804736,-0.042034425,-0.08323906,-0.0051929606,0.0500612,-0.02230816,0.08754091,-0.025839169,-0.0017607874,-0.0018188937,0.0482732,-0.09639663,-0.01357223,0.06772188,0.073331356,0.052013785,-0.0021456704,-0.03399372,-0.032891076,0.056842886,-0.1016942,-0.09061251,0.025090883,-0.07874101,-0.07392897,-0.06178726,-0.054165844,0.11145172,0.023703795,-0.10928425,-0.014238822,-0.112630695,0.10639493,0.11391912,0.026435196,-0.09041671,-0.016456682,0.017532932,-0.052354235,-0.012931063,-0.039070483,-0.056499552,0.06394718,-0.012588523,-0.050517824,0.079005,0.086794995,0.061781928,0.10160986,-0.012093045,0.07602102,0.08769458,0.0818149,-0.108178444,-0.09320867,0.030629177,0.06521471,0.06575774,-0.022920528,0.07690492,-0.051790595,0.1034596,-0.06625707,0.06438875,0.031071965},
	{0.03411705,0.002869605,-0.11395102,0.108143,-0.111311644,-0.08407139,0.079064526,-0.01981387,0.04615833,-0.1099571,-0.09848311,-0.010329916,-0.0007091358,0.009225185,0.046144642,0.09029633,-0.10099014,-0.041871373,-0.072000846,0.055475537,0.048475895,-0.004204969,-0.023160527,-0.011577695,-0.09342749,0.10155124,-0.037509955,0.08906462,-0.06336639,-0.09140553,-0.020400543,-0.018659022,0.056861218,0.05572497,0.03301412,0.031421755,-0.007504416,-0.03902459,-0.019475771,-0.054886207,0.028963257,-0.05395334,-0.095056176,-0.112986535,-0.10206489,0.021549981,0.009631259,0.058343146,0.017380476,0.0762439,0.053842895,-0.086956605,0.038448706,0.046164937,0.022937289,0.043749295,-0.066172846,-0.038215823,0.0678085,0.02571482,-0.04358134,-0.02389539,0.10295661,0.024213364,0.103778966,0.076965794,0.054529972,0.06293532,0.09388137,-0.0024948267,0.036193505,0.02545262,-0.05226389,-0.09695204,-0.06216215,-0.07173284,0.054903343,-0.10442256,-0.020122997,0.04618529,-0.07264251,0.039537437,0.005805425,0.060935557,-0.090646975,0.08519463,-0.051470764,0.031695586,0.023979267,-0.030263146,0.003349124,-0.071562506,-0.03045806,0.07047491,0.046375487,-0.079251684,0.027935091,-0.035635732,-0.06218248,0.08736549,0.08683137,0.069657624,-0.036340125,-0.03060573,-0.0012154588,0.05952939,-0.11737667,0.014029495,0.052191492,0.06633604,-0.016852466,-0.010948158,-0.04498345,-0.10118568,-0.085869566,0.046410155,0.0033651295,-0.048389494,0.0029169107,0.08042099,-0.111285076,0.02160819,-0.08833857,0.0123503795,0.03291477,-0.09721976,0.07854443,0.10248521,0.10627814,-0.050303582,0.0508353,0.03940735,-0.011732839,0.0135179255,0.008235274,-0.02106169,0.0813414,-0.046928484,-0.044811238,0.03305751,0.0648466,0.05202861,-0.03200883,-0.007037201,-0.06853091,0.10495646,-0.013939092,0.0994865,0.03839589,-0.002588822,0.10860326,-0.116771765,0.0499381,-0.0003492561,0.007630793,-0.12130613,0.006636138,-0.08890559,-0.039429873,-0.05149792,-0.06851963,0.052848376,0.105849266,0.0046767346,-0.060550217,0.06332194,0.0093412455,-0.013117933,-0.0098805195,-0.059022613,-0.102828264,-0.018382214,0.06237051,-0.09682135,-0.0028455728,0.06317243,0.07035089,0.07713856,0.029451462,0.110961094,-0.087133564,0.10982144,-0.028028445,0.09509186,0.015878964,-0.09162394,0.050665557,-0.1019321,-0.026318843,0.06900494,0.077369824,-0.10512163,0.07640381,-0.055624895,0.042753737,-0.06784939,0.027198307,0.09533437,0.11125371,0.09048308,-0.07088653,0.070056915,0.021995462,-0.01797841,0.011414956,0.088035084,-0.10377086,0.06241907,-0.11172839,-0.022580575,-0.08989017,-0.030005576,0.078026384,-0.0261478,0.07135899,0.056026895,0.06774392,0.0148543855,-0.08601128,0.07697756,-0.098592386,-0.02258432,-0.09953488,-0.087898746,0.054777805,0.04330782,-0.11068152,-0.03761096,-0.08676312,-0.009659113,-0.050368223,-0.044943094,0.00024440401,0.09606956,-0.00096445624,0.09025048,-0.0781502,-0.02468893,-0.11012109,-0.03602656,-0.10882128,0.027124193,0.013751452,0.06136037,-0.00039556465,-0.07101079,0.024358265,-0.06244756,-0.02247581,0.006172522,-0.088221215,0.10098488,0.08599388,-0.013298756,0.003003094,0.020950036,-0.057961095,-0.060284015,-0.111195765,0.08337349,0.02196124,-0.11170485,-0.030372413,0.09855298,-0.01362726,0.012980688,-0.016841525,-0.050729502,0.04897651,-0.0032553114,-0.114911236,-0.055137176,0.050925795,0.021796953,-0.09018608,-0.111840695,0.09694181,-0.038848843,0.0135255195,-0.019786377,-0.07815376,0.103434175,0.011913023,0.05834939,-0.014290325,0.0736103,-0.053035628,0.079925194,0.10051962,0.028343635,-0.10732336,0.027930181,-0.05654678,0.0047507505,-0.001557737,0.022223452,0.049696293,0.049528822,0.0468991,-0.033106882,-0.04088146,-0.06710399,0.041250385,0.0350553,-0.10703356,-0.06623268,-0.093641795,0.009472686,-0.019683199,0.085828096,-0.11639093,-0.07254042,-0.012874009,0.0890887,0.08648242,-0.052806143,-0.030036552,-0.028814955,0.038483936,-0.048988584,-0.047369577,-0.028713267,-0.07996584,0.09030653,0.08930191,0.11082773,-0.008508725,0.034441385,-0.03485954,0.045320444,0.07987641,-0.06341793,-0.04508178,0.09665507,0.07048603,-0.012084015,0.09305776,-0.009604548,0.093356125,0.03126333,0.11481185,0.008090861,-0.056192424,0.10758737,-0.055770148,0.06657382,-0.027740398,0.1117617,-0.051119607,-0.035217155,-0.059407294,0.110722825,0.07929577,-0.070952415,-0.08451829,-0.0362126,0.09345617,0.0151293855,0.0938358,0.07826071,-0.091418944,-0.084368855,0.072384104,-0.01984964,0.07578354,0.05937971,0.0015640748,0.05510846,-0.092361405,0.016161337,-0.09738145,-0.09943826,0.081346974,0.0807263,-0.0547298,-0.028238349,-0.024184106,0.1040805,0.0033504546,-0.050347578,0.11030224,0.014358539,0.074391864,-0.09073326,0.024409698,0.061284274,-0.012243266,0.10154533,-0.013249838,0.08128398,0.02167587,0.016371705,-0.10017659,0.07010558,-0.011062108,0.06285422,-0.028163467,0.06273223,-0.057558436,-0.03711671,0.08494542,-0.01253921,0.07847189,-0.1092415,0.032287225,0.10278618,-0.015202895,0.048378434,-0.084393546,-0.07946031,-0.036699355,0.039874095,0.11005336,0.09573966,0.10886408,-0.059013914,0.117848955,-0.06810889,0.08186139,0.08391729,-0.112199344,-0.0140548395,-0.015978146,0.06253968,0.0402025,-0.07415116,0.096965685,0.032805774,0.0040008356,-0.037188888,-0.104888715,-0.0043801866,0.039881833,0.04797922,-0.07681604,0.07476253,-0.09791432,0.09113429,0.031035388,-0.044220064,-0.099252835,-0.09998375,-0.04498081,-0.032810964,0.065668546,0.111605264,0.019907743,0.08344219,0.033771537,0.0013356082},
	{0.068799995,0.10700693,-0.055188496,0.038594898,0.059508577,-0.09191361,0.081210606,0.08124123,-0.03074501,-0.0948168,0.0041784095,0.10597057,0.00035784568,-0.004249113,-0.08080739,-0.118149675,0.05155692,-0.03679548,0.0019468355,0.09205369,-0.06357998,0.063349016,-0.057098456,-0.05186511,-0.060705382,0.111356,0.017785588,-0.11234374,-0.0810663,0.01121065,-0.0528847,-0.032034628,-0.087369844,-0.046072368,-0.08924147,-0.008934588,0.06792583,0.016712949,0.008239463,-0.0974576,-0.04887874,0.06695511,0.001775754,-0.020921733,0.032577377,0.09675344,0.10102865,0.04980823,0.05170216,-0.06333389,-0.017615786,-0.04377018,0.077213235,-0.04197279,-0.013065891,-0.09619292,-0.083381556,0.107272826,-0.09845324,-0.012964375,0.10113062,-0.06573482,0.10195569,0.098611936,0.06911537,0.044652816,-0.03947182,0.019842615,-0.076523386,0.026788332,0.01106861,-0.09893866,0.021323532,0.014168525,0.082192145,0.020734176,-0.026443234,-0.11099722,0.046749573,0.076162994,0.025881121,0.048252396,0.026932035,0.02060313,-0.06351664,-0.00969107,0.114772126,-0.09072356,0.031914353,0.094061196,-0.049482774,-0.10623121,0.010551299,0.069273196,0.046260387,-0.07870084,0.05659569,-0.015750257,0.044819344,0.04139854,0.11273798,0.010874897,-0.08958266,-0.10821129,0.055101193,-0.11687536,0.07036791,-0.10602472,-0.081557736,0.013037022,0.07819131,-0.0050026905,-0.08378549,-0.05903488,0.010808443,0.0352521,-0.017010322,-0.017409341,0.013221315,0.06935731,-0.106998146,-0.057629123,0.0069718263,-0.06558355,-0.008566126,0.061085727,-0.034617666,-0.04095016,0.07422121,-0.060903065,0.052598298,-0.046439845,-0.025757506,-0.045942117,-0.09916488,0.037543725,-0.008062409,-0.06596037,0.06838846,-0.07899863,0.015312576,-0.07103376,-0.007942841,0.048076134,0.04826044,-0.063517675,-0.091955036,0.017671704,0.09223946,-0.056386176,-0.0038217502,0.053175796,0.0024006967,-0.028083984,0.1153691,-0.022456715,-0.08637286,0.0002737549,-0.102404326,-0.06372007,0.048634443,0.054400235,0.105106264,0.07619144,-0.12181986,-0.08015113,0.1078876,-0.09835731,0.020185862,0.08625792,-0.040697314,0.08839646,-0.050430164,0.030982304,0.094863646,0.10883268,-0.08087591,-0.0012588813,0.08721883,0.06358031,0.08916123,-0.052866004,0.11582988,0.046889443,-0.096100435,-0.082806714,-0.07737848,-0.057718813,-0.0732844,-0.11729738,0.1034857,0.032750458,0.003054565,-0.020077685,-0.018638654,-0.03082341,-0.0866447,-0.038581327,0.047459282,-0.03297155,-0.052483004,-0.0034993223,0.033650093,-5.1121802e-05,0.045638315,-0.013924463,0.023733776,-0.0814795,0.03791694,-0.0081570605,-0.061450023,-0.015210222,0.09337486,-0.04984825,-0.021153336,0.089076884,0.016176794,0.055639103,-0.06223752,0.08231568,0.0461982,-0.08724778,-0.03357808,-0.005771805,-0.021859258,-0.11148578,0.0045560785,-0.10065191,-0.01968149,-0.034559697,-0.07507913,-0.055473432,-0.09807068,0.10132207,-0.073236614,-0.103426,0.028676264,-0.07688922,-0.0291858,-0.063194305,0.033419646,0.10083959,0.047577333,-0.10120068,-0.049103092,0.10345835,0.10308149,0.007072512,0.02148934,0.08463792,-0.0729429,0.06318085,-0.01683571,0.05573525,0.07291864,0.07097772,-0.07732253,-0.08696899,-0.11011864,-0.05971151,0.017173646,0.047781173,0.005312691,0.0375474,0.04304868,-0.07266904,0.05697571,-0.030877009,0.09158339,0.10784105,-0.057053473,0.054178268,-0.09120317,0.08285334,0.015100491,0.03468088,0.04016806,-0.016953807,0.021553071,-0.007121464,-0.10090849,0.09156196,0.06991543,0.09623139,0.06483594,0.06026204,-0.062157843,-0.07157642,0.08431717,0.015848495,-0.07578944,0.05584224,0.0007429558,0.003026889,-0.09378159,-0.0738437,0.08614586,0.049748704,-0.06919584,-0.07106907,-0.08037504,0.11418213,0.020973032,0.08921792,-0.08438429,0.0009090217,-0.0137550505,-0.031715095,-0.06600842,-0.09067805,-0.0909162,-0.10811243,0.109985575,0.044526145,-0.09836725,-0.050252315,0.020005282,4.870625e-05,0.045437507,-0.021279637,-0.013279365,0.034077592,0.027640948,-0.015349237,-0.057311147,0.03170849,-0.11000368,0.11238446,-0.038079552,0.075577535,-0.07495038,0.031647053,-0.038154066,-0.088298514,-0.11225103,-0.07971037,0.071623914,-0.081805944,0.08620796,-0.050004207,0.10049005,0.10265056,-0.08920539,0.028296657,-0.051563665,0.033460937,-0.10671722,0.0028645236,-0.103536695,0.07809851,-0.09863182,0.09261955,0.028653555,0.02845232,-0.012483803,-0.018308382,0.059008107,0.056906108,0.0774118,-0.04530142,-0.004470292,0.058063284,-0.090285145,-0.028726138,0.09948804,-0.06510243,0.011664216,-0.06690993,0.0058779386,0.092448324,-0.060123008,0.02593421,-0.008995198,0.03464597,0.10400398,0.033064395,0.097024895,-0.01938503,-0.032200713,0.017865906,-0.024542606,-0.033758078,0.007755734,0.064376704,0.07906281,-0.07671095,-0.10947887,-0.034527052,0.029586291,-0.064210765,0.08028653,-0.04980528,-0.05267109,-0.017906718,-0.0059947157,0.094559945,0.062212788,0.064092994,-0.10921051,0.039845847,-0.07374225,0.004468156,0.10641434,0.08616587,-0.059550613,-0.05558247,0.0615473,-0.04738449,0.09708635,-0.058234632,-0.087675944,0.036450922,0.008181031,-0.009695794,0.023059022,0.07729855,-0.0892625,-0.082487814,0.09078569,0.037368666,0.06562892,0.080811255,0.060926683,0.04284308,0.007844059,0.10186591,-0.09989153,-0.09205643,0.012634402,0.106665455,0.08490122,0.082795806,0.040130716,-0.03263465,-0.06388675,0.05253308,0.10640363,-0.04145168,-0.043196116,0.0047559277,0.065363236,0.05933715,0.06306396,0.08494464,0.044989653,-0.017757358,-0.035278503,0.019697998,-0.072973944,-0.079608165	}
};