// include/conv2d_232_weight.h
// sergio rivera 
// 2020/02/14 11:42:50 

const float conv2d_232_weight_p[3][3][2][4]=
{
	{
		{
			{0.07061129,0.2749201,0.23424682,0.1150698},
			{0.30316064,-0.10014039,-0.050642222,0.15052123}
},
			{{0.2993662,0.16212326,-0.09200542,0.0032989117},
			{-0.17769235,0.31629047,0.2666192,0.14419577}
},
			{{-0.13155463,0.14575076,-0.18746929,0.31065342},
			{-0.15260936,-0.21877286,0.20088023,-0.30543712}
}
},
			{{{-0.12147694,0.24443366,0.18260095,0.21747446},
			{-0.16815409,-0.20302738,-0.19386038,-0.27307364}
},
			{{-0.09049344,0.30906984,-0.2518689,0.09299764},
			{-0.27946022,0.30411607,0.2449724,0.27116477}
},
			{{0.0014309074,0.19220269,-0.2667249,0.25392255},
			{-0.008194432,0.19226186,-0.28114653,-0.028564118}
}
},
			{{{0.21792339,-0.28375947,-0.17363587,0.15141433},
			{0.25242028,-0.21637048,-0.13595536,0.30012026}
},
			{{-0.041733615,-0.000308074,0.044541966,-0.09723051},
			{-0.023890598,-0.09559182,-0.2719531,0.18257208}
},
			{{0.25592092,0.28388438,-0.16820501,0.24739397},
			{0.07590652,0.1978133,0.20705311,0.29914764			}
		}
	}
};