// include/dense_402_weight.h
// sergio rivera 
// 2020/02/14 16:20:12 

const float dense_402_weight_p[2][164]=
{
	{-0.04062349,0.062427793,0.033020675,-0.065418586,-0.10261323,-0.0433907,-0.122732095,-0.073921874,-0.018179758,0.03600639,0.06225627,-0.14634278,0.0776407,0.12106343,-0.10678518,0.060642377,-0.17435065,-0.02775169,0.0019663565,0.09261906,0.13958068,0.054990485,0.015156231,-0.11231924,0.03880898,-0.07588402,-0.0925526,-0.06550396,0.12685919,0.12258926,-0.12337422,0.1746954,-0.13497561,0.17012261,0.050960958,-0.075674415,0.04520448,-0.011142103,-0.18354759,0.08260013,0.093946666,-0.09079223,0.16441281,0.13006331,0.027042098,-0.08185673,-0.14663608,0.019016948,-0.046447802,-0.085840836,-0.031092167,0.0952432,-0.15817785,-0.062582344,0.16875032,0.0036165214,0.1072268,0.0870228,0.16293308,0.00048330124,-0.070087746,0.13044801,0.009282422,0.016234754,0.10990268,0.1559439,0.015688162,0.041919377,-0.041213475,-0.010506883,-0.07575961,0.05469404,0.1405578,-0.11379275,0.17454746,-0.058204204,-0.09145099,-0.08074082,-0.028444696,-0.13769779,-0.13782604,0.1778599,-0.06678879,0.0046390337,-0.09488709,-0.06632331,-0.035368398,0.015209814,0.015113996,0.1185535,-0.045227055,0.05586682,-0.07287357,-0.11417703,0.17627583,-0.015827784,-0.14343487,-0.034007825,-0.09246587,-0.048991982,-0.17739415,-0.16124822,0.008233224,0.08727994,0.0026759414,0.0962891,0.15606774,0.11506265,-0.05457137,-0.14840172,-0.15493469,0.094851665,-0.06828609,-0.1319908,0.10496421,-0.017113693,0.17964797,0.0457635,-0.1076963,0.14315149,-0.1769479,-0.1533335,0.09667022,0.08346887,-0.057911843,0.11406429,-0.010517311,-0.14543268,0.1327872,0.01951067,0.17967005,-0.17877957,0.16882111,-0.03964166,-0.0027438027,-0.1517035,-0.097139314,-0.004010775,-0.1274798,0.116299435,0.08077961,-0.10252672,-0.022182427,0.12662646,-0.067207,-0.14405751,0.021144515,0.1811423,-0.05041229,0.056090664,-0.11354227,-0.12167548,-0.11026513,-0.062329043,-0.0081287995,0.19093348,-0.14182118,-0.05282995,-0.11306292,0.043585032,0.17602798,0.023123596,0.17757553,0.068628505},
	{-0.007808316,-0.096766025,-0.10408809,-0.16707966,0.040546987,0.14776357,-0.13913232,-0.02563167,-0.17939019,0.034795098,-0.08980788,0.05142275,0.0168422,-0.13861746,0.06723579,0.11986777,0.020926623,0.102653444,-0.17640522,-0.12086981,0.0040978817,-0.15196186,0.13431194,0.17731605,0.17158104,-0.15994108,-0.083318286,-0.004251167,0.16043364,-0.110449,0.104482494,-0.08700007,-0.17647155,0.0034661144,-0.123020835,-0.009965784,0.089025885,-0.15977834,-0.15331033,-0.0489617,-0.09277758,0.030404508,0.14708476,0.004040977,-0.05862568,0.1579668,0.17813063,-0.1364773,0.18499227,0.17868197,-0.18224075,-0.14461876,0.022698808,0.030484758,0.07650831,-0.17896807,0.165968,0.008102504,-0.16069503,-0.0821206,0.11938768,0.05238668,0.030703722,-0.065841384,0.15170318,-0.021041783,0.047200073,-0.08419169,-0.17289595,-0.04845846,0.16345187,0.12965368,0.058199383,-0.03668195,-0.12578414,-0.08505023,-0.10996355,0.1714467,0.024711266,-0.110130414,-0.057403926,-0.014925626,0.18406655,0.16860554,0.08370516,0.14963417,0.18843721,0.15175322,0.12039113,0.11737821,0.032882724,0.101921335,0.017604215,0.041389897,-0.045257885,0.049389146,-0.14509223,-0.043074794,-0.13821304,0.007998553,0.09189159,0.17326649,0.006133347,-0.07536169,-0.14067513,-0.1441518,-0.07230034,0.10876059,-0.15024322,0.020652978,-0.16303374,-0.016569054,-0.1627026,-0.1305006,0.11930441,-0.05375052,0.089293346,0.065593325,-0.1128715,0.08748922,0.044935547,-0.028082458,0.11518471,0.049215805,0.01642927,0.17408575,0.11161421,0.15896313,0.05475355,0.057013944,-0.103181586,-0.011137552,-0.022101676,-0.07025458,0.04929843,0.131119,0.02963891,0.14317924,-0.16864696,-0.13310102,0.1142217,-0.119081035,0.040978648,-0.01894199,-0.100482024,0.010528402,0.11879048,0.1960615,0.12496156,0.11186033,0.15035339,0.026935568,-0.06734335,0.08607403,-0.0067141256,0.086941116,0.085094444,0.16739134,-0.108798824,0.10216147,-0.00137959,-0.061181623,-0.10666675,0.17289753	}
};