// include/dense_403_weight.h
// sergio rivera 
// 2020/02/14 16:20:12 

const float dense_403_weight_p[164][100]=
{
	{-0.031011375,0.14988759,-0.08260891,0.018249976,0.07225344,-0.1130192,-0.07537743,-0.043884147,0.14254892,0.064941116,0.020722227,0.07760917,-0.14460517,-0.081999496,-0.062481225,0.038716484,-0.027814312,0.11238917,0.05587446,0.054587644,-0.0074873576,-0.06258442,-0.14474885,0.11329156,-0.07428949,-0.1479693,0.06399375,0.056558568,-0.0781248,0.014058813,-0.13046786,-0.057216924,0.077721186,0.097963385,-0.07463695,-0.034165494,-0.14696024,0.14432944,0.13725184,0.11727125,0.13526958,0.05600543,0.020662587,0.020815006,-0.1252943,0.14706792,-0.06881192,-0.12223601,-0.0756372,0.01539247,0.023121648,-0.084497996,0.013119284,-0.012165103,0.026022306,-0.112526394,0.10712904,-0.0035956826,-0.0069885436,-0.074503325,0.09986212,-0.031041134,0.05695608,-0.12781408,0.15088496,0.0031614304,0.091128945,0.0890792,-0.13653746,0.057720784,0.09458998,-0.08850513,0.06377273,0.033828925,0.088481724,0.1229764,-0.038489528,0.11319196,0.10960583,0.098494895,-0.060406066,-0.12986723,-0.12619302,0.11213508,-0.10457264,-0.13149321,0.03224402,-0.08555545,0.0932722,-0.08601226,0.07666358,0.03439873,0.057080846,0.023925986,0.14031044,-0.031088674,0.12230556,0.06520966,-0.1440053,0.085943244},
	{-0.1489878,-0.0061624115,-0.025693825,-0.014396951,-0.1041844,-0.062036455,-0.08204589,-0.07631322,0.02226893,0.14416818,-0.09074277,-0.019275645,-0.101962514,-0.12927967,-0.09841742,-0.10096136,-0.056629207,-0.09510287,0.12213981,0.08926886,-0.08811603,0.06360826,-0.0648487,-0.13488999,0.079133384,0.14219305,0.07812492,-0.022080587,-0.032897413,0.06492997,-0.029862184,-0.059180565,-0.13538808,-0.06052993,-0.11470912,-0.09858432,-0.07037546,-0.09400875,0.11569416,0.12758355,-0.06739743,0.10625031,0.04556345,0.11179903,-0.034652542,-0.121992916,-0.12529615,-0.08831345,0.08370532,0.02385183,0.026589237,0.03023335,0.11312183,-0.046183858,0.028909618,-0.07222103,-0.0996168,-0.114157766,-0.015156678,-0.13109381,-0.09669618,-0.0048042634,-0.09098616,-0.0914142,0.05046008,-0.121785454,-0.1002719,-0.112568624,0.13553472,0.13112432,-0.029169345,-0.022460332,0.13604513,-0.06912968,-0.11040458,0.05530501,-0.10064872,-0.14294286,0.04341453,0.13908605,-5.3116884e-05,0.04146386,-0.07617006,0.034766465,0.07267696,0.013977405,-0.14050129,-0.05125039,-0.024219606,-0.10996772,0.07087718,0.11372057,0.10981318,-0.046358865,-0.097282685,0.1109531,0.020385256,0.12730606,-0.0842121,0.00894277},
	{-0.016193237,-0.014377884,-0.06577882,-0.065745264,-0.044779107,0.0756124,-0.12337202,-0.032720078,-0.029068585,-0.0773529,-0.13265032,0.03360809,-0.084647715,-0.0748577,0.011379507,-0.0691239,0.11579742,-0.10120293,-0.018709105,-0.13233623,-0.009544275,-0.0914747,-0.083769985,-0.015252474,0.098637514,0.03140524,-0.14488177,0.11759181,0.0058955043,-0.017422868,-0.120132715,0.043060847,-0.05137508,0.01869291,0.13111328,-0.011937013,-0.012432259,0.08716579,-0.00788759,0.11165832,0.12285546,-0.0490876,0.020552486,-0.03761395,-0.039879743,0.14404571,-0.031242788,-0.032039274,0.14374074,0.14623325,0.11563854,0.11068824,0.026994463,0.085807234,0.09990139,0.056016076,0.10452317,-0.032227322,-0.029615948,0.13071238,-0.11787894,0.010522808,-0.10415027,-0.027185578,-0.00052463915,0.072135754,0.010468451,0.027643885,0.12953615,0.015307623,-0.07712622,-0.031680975,-0.041238055,0.06393326,0.053370304,0.010713814,-0.08152964,-0.10323615,-0.09888323,0.14413957,0.13883263,0.033510495,-0.09934689,-0.07558727,-0.11765366,-0.016764617,-0.13054067,0.10042731,-0.10972195,-0.13539994,-0.055991497,-0.010446827,0.01087408,-0.1300187,-0.043480314,0.035755526,-0.05456228,0.09222104,-0.07487824,-0.024545554},
	{-0.047025006,-0.13140814,-0.068220764,0.02514821,-0.022267833,-0.10133681,-0.096055016,0.024342922,0.14996591,-0.1395189,0.06998633,-0.007940443,-0.086789906,-0.041804407,-0.0806167,-0.036524985,-0.014407545,-0.07108391,-0.11339854,0.11878331,-0.0497764,0.08251243,-0.13026868,0.07342099,0.006259473,-0.09399198,0.12921809,-0.07400939,-0.11791433,0.09755111,-0.10620008,0.06326388,0.08476721,0.028757755,-0.07134415,0.04363043,-0.12444176,0.14282669,0.09572011,0.10375961,0.028806265,-0.08558467,-0.1240706,0.046987418,-0.007524581,0.1481873,-0.089796364,-0.060287364,-0.1152301,-0.13056868,-0.025066031,0.13999933,0.13535245,-0.09146415,-0.055202696,0.004905699,-0.003287873,0.027447676,0.13321254,-0.14919776,0.023970863,0.12837167,-0.0065419194,0.072777644,0.038382478,-0.12596896,-0.05158567,-0.059613742,-0.00020941396,-0.13192545,-0.11817958,0.119550385,0.11897214,0.10325695,-0.0649483,-0.06517272,-0.07153935,-0.08618925,-0.07661247,0.06403132,0.026478458,0.04753718,-0.03846804,-0.026211042,0.06757298,0.053729996,-0.0009889808,-0.08310698,-0.12619624,-0.09059565,0.12557718,-0.14647937,-0.09493804,-0.1290733,-0.10222323,0.024203628,-0.043524973,0.042427685,-0.11804244,0.031091653},
	{0.1116619,0.13994625,0.14688513,0.016091794,0.11698699,-0.13865905,-0.06842803,-0.11545481,-0.0011469234,0.09935367,-0.016736137,0.08975658,0.06633727,0.012124779,-0.11433757,0.081872836,0.10187354,0.05928937,0.108815394,-0.032432742,-0.12983498,-0.018674422,-0.12949596,0.14099038,-0.006548905,0.13897218,0.045911156,0.06958021,-0.06562429,-0.13477491,-0.035063658,-0.11470082,-0.04823692,-0.08257307,-0.02342712,0.08487198,-0.023737196,0.14237715,0.03325609,0.05141236,0.14796779,-0.13183828,-0.045350693,-0.089189805,-0.10633968,-0.08862535,0.03278025,-0.031844623,0.023772372,-0.105436966,-0.0850589,0.14937063,0.07619377,-0.03932506,-0.059360538,-0.045564733,-0.11370751,0.083253324,-0.12735383,0.1176466,0.08939916,0.043159332,-0.10598293,-0.11671052,0.037910353,-0.14329538,0.025464287,0.006082475,-0.064586826,0.037642725,-0.02865399,0.09852177,-0.06196362,-0.020785006,-0.1004858,-0.045224346,0.13262555,0.027485821,0.017024208,-0.110084854,-0.05233546,0.07740708,0.019166512,0.1253815,0.072349966,0.054458693,0.0039283214,0.012075682,0.01184829,0.050601237,-0.014068257,-0.0371222,-0.103487186,-0.100003496,-0.078869805,-0.14423409,0.14115243,-0.13239193,0.14662924,0.0062321373},
	{-0.07540549,0.031555444,-0.1500487,0.02874411,0.10068218,0.12729467,-0.13983999,0.12971301,-0.016973063,0.118916065,0.043832716,-0.090812095,0.036052782,0.03851783,-0.10573498,0.1211277,-0.032534324,-0.023031157,0.047882013,0.048361957,-0.10627682,0.02445775,-0.052134566,-0.13175574,-0.15241753,-0.09979715,0.077112325,0.1013006,-0.15074801,-0.10908479,0.039101623,0.052362774,-0.042828377,-0.10766456,0.052723836,0.11709125,-0.15004212,0.054643605,-0.04466876,-0.006386913,-0.07319027,0.12165268,-0.020688793,-0.0074166115,-0.03010779,0.03824339,0.06277753,-0.10180689,0.03805475,-0.06835529,-0.09747916,0.12123878,0.1395876,-0.12886819,-0.14259438,-0.025806641,-0.13727708,0.1249469,-0.028990313,-0.053286746,0.055731412,0.10199455,-0.051080637,0.11139955,0.14220008,0.14389744,0.024804851,-0.09862834,0.103285834,0.038819477,0.14213128,-0.1376833,-0.06550067,-0.11741294,-0.07669823,0.027922235,-0.022656439,-0.020995561,0.09072422,0.05955738,0.05122946,-0.13252982,0.12855144,0.14219823,-0.12079903,0.035359394,-0.0059737167,0.015823487,-0.056608155,-0.05418954,-0.09065024,0.05866497,-0.07861381,0.021401476,-0.07561135,0.1431973,-0.06733801,-0.10579024,0.069735296,0.07936671},
	{-0.040729996,-0.12025907,-0.0037697393,-0.093597665,0.021693327,-0.12929423,0.11112727,0.057665374,0.004496079,0.067002706,-0.01355271,-0.09368084,-0.07834931,0.039876565,-0.095138736,0.0012626343,0.09776048,-0.040294737,-0.12423104,0.13359928,0.079785764,0.061183676,-0.025862051,-0.013071691,-0.14444855,0.050424926,0.07687623,0.13614467,-0.0064925677,0.10377518,0.10264918,-0.014642067,-0.09570949,-0.11870819,-0.14817432,0.12246934,0.015966525,0.08888317,0.04358802,0.02570985,-0.14600687,-0.13721618,0.09253755,0.015566922,0.13118385,0.010821152,-0.15044516,-0.03318361,-0.09211502,-0.022468578,0.048733056,-0.07221904,0.0061574914,-0.14953367,0.1014319,0.00091045664,0.11097249,0.016565412,-0.055650856,-0.1464338,0.10285372,0.06509508,0.14428695,0.119895406,-0.14786792,-0.11405537,0.014928572,-0.014729482,0.090713784,0.05982893,-0.0031946374,0.118379645,0.1452955,-0.08138866,-0.051842067,0.083879575,0.14119557,0.02304054,-0.077816814,-0.0759554,-0.08556112,-0.034428187,-0.11781716,-0.039147288,0.06353778,-0.00991837,0.12832606,-0.07834068,0.045048587,0.0052489834,-0.15200113,0.03649074,0.14640892,0.12529747,0.04614236,0.03490971,0.12907544,0.021185614,-0.13411571,0.076444715},
	{0.0033511063,-0.14735404,0.14774993,0.087039895,0.076244466,-0.096520215,0.094435796,0.12951328,0.11229622,0.10988157,0.054770403,-0.089913264,-0.07635179,0.1322347,-0.0063769473,-0.1377553,-0.0060792104,-0.14292416,0.09739988,-0.035261713,-0.15032339,0.090512194,-0.13597915,-0.005380488,-0.07100154,0.031964853,0.11193778,0.10354625,0.09490541,0.0317843,-0.12782718,0.086178765,0.09425405,0.03194153,-0.10013455,-0.13073288,-0.10862712,-0.08969198,0.0376949,0.023511881,-0.043250155,-0.07685401,-0.1177972,0.1359121,0.1098368,0.115242355,-0.090131216,0.11099317,0.06771103,-0.0030932552,0.0073487787,-0.1507373,-0.09220197,-0.09332603,0.020578893,0.119481236,-0.030455103,-0.033944998,0.09045956,-0.08769708,-0.07825318,-0.09388695,-0.08520136,-0.103881314,0.085521646,-0.14884499,0.0050148214,-0.044131804,-0.06704027,0.12751308,-0.08038031,-0.025805777,-0.03514398,-0.018513914,0.13487475,-0.1401186,0.11362872,-0.15073523,-0.02950437,-0.08671423,-0.023164656,0.0046931533,-0.08235028,0.049450103,0.006026948,-0.04084372,0.14004223,0.11729466,0.07307201,-0.11075542,0.14020619,0.14540291,-0.016553028,-0.13097537,0.038188756,0.1361048,-0.029053304,-0.018565275,-0.14250797,0.11569433},
	{0.06761593,0.0015098797,-0.1262919,0.12475505,0.13588662,0.025792025,0.009543718,0.026723206,-0.03951822,-9.898207e-05,-0.15287422,0.08883691,-0.006306177,0.10499543,-0.14336982,0.14794867,-0.10513674,0.12642972,-0.07058693,-0.03857435,-0.079292335,0.014608435,-0.08933533,0.08449043,0.004444878,0.011213809,-0.13813938,0.13304244,-0.030531999,-0.09343798,-0.051267296,0.14671661,0.04704156,0.0756616,0.016184045,-0.063319795,0.10116243,-0.1350529,0.028881054,0.13161886,0.06991901,-0.0966453,0.1014625,0.10483958,0.08575253,-0.06945139,-0.13349494,0.13934666,0.058399275,0.040207397,-0.10382819,-0.087217204,0.0041582156,-0.018850598,-0.062163465,0.02294159,0.14317814,-0.104280114,0.12291619,-0.04133489,0.11704862,-0.05286342,0.08723344,0.13564695,0.10540208,0.09973004,0.062046893,0.082648076,0.037920497,-0.13407734,0.12684028,-0.083053805,0.11240253,-0.05779358,0.08163472,-0.10684585,-0.14090222,-0.11542208,0.013521755,-0.06859044,-0.058593445,-0.0011217548,-0.034420934,0.14085492,-0.062522136,-0.000250151,-0.08838601,-0.046972845,-0.058961842,0.09917272,-0.12470602,0.03579922,0.0919416,0.114049114,-0.053560175,0.124016576,0.07179422,-0.0064321626,0.13659374,-0.1272361},
	{-0.03226958,-0.0837791,-0.032753333,-0.11383726,0.06937795,0.03877944,0.12269538,0.11385012,-0.07696672,0.10114582,-0.074313365,0.029508933,-0.1205241,0.11862865,-0.04815346,-0.108304955,0.02825384,-0.10516004,-0.012681127,-0.058519226,0.10200414,0.11403724,-0.1076593,-0.060222335,-0.13110487,-0.0935919,-0.07128937,0.07786266,0.013748379,0.075887464,-0.12876274,0.11144229,-0.046103563,-0.05993152,0.11583016,0.00792926,-0.083549134,0.046493538,-0.14681496,0.059964497,0.104606025,-0.03682772,0.10117967,-0.062437125,-0.09255326,-0.0244733,-0.008246661,-0.037440438,0.056484636,-0.020413691,0.11223437,-0.11197483,-0.07197703,-0.15386134,0.04500358,-0.12573719,-0.12830333,-0.028963428,0.09617497,0.07209973,0.09301477,-0.09217961,-0.029019726,-0.10918261,-0.034079213,0.07543385,-0.012129674,0.007212892,-0.0058916,0.10618416,-0.0088481,0.01047067,-0.02453161,0.096476406,0.14646536,-0.0073611243,-0.04164324,-0.13875668,-0.046401497,0.01995715,-0.13973856,-0.047557075,-0.021114409,0.07171334,0.03978376,-0.03878172,0.13617432,-0.095071666,-0.027721357,-0.017529316,-0.14724666,0.01225694,0.10635182,-0.11947594,-0.11189361,-0.032531723,-0.13254392,0.09072829,-0.04344537,0.06813478},
	{0.14183246,0.02453069,0.0410781,-0.093781926,0.06825752,-0.1271361,-0.10672383,0.021880018,-0.10514176,0.14201336,-0.03361965,-0.11885318,-0.13140084,0.068691194,-0.1515668,0.038873274,-0.02425986,-0.090692475,-0.019325154,0.023000887,-0.018362045,0.12211776,-0.07615586,0.040548604,0.062721595,0.13428985,-0.080808796,-0.13551624,-0.10952139,0.08077008,0.013697711,0.035248574,-0.091531426,0.0336807,0.10917013,-0.095430024,0.12703493,-0.022277951,0.05731092,-0.050473385,-0.035820477,-0.046494666,0.08347319,-0.014704221,-0.13288553,0.06603306,-0.14728472,-0.05481089,-0.11329785,-0.060054168,-0.13048941,-0.12821378,-0.060648166,0.119581915,-0.027422547,-0.084669195,-0.09285174,-0.14114428,0.09872818,-0.1360485,-0.1315359,0.1246799,0.053425163,0.066001356,-0.104998514,0.11826049,0.1257373,-0.020718595,-0.07744668,-0.13499239,-0.11573824,0.15097874,0.13292816,0.13300832,0.09478029,-0.103838265,0.10625219,-0.047205858,-0.04699218,-0.123610295,0.104331814,0.059389442,0.07078853,0.017733986,0.14250018,-0.09073469,-0.12045042,-0.14336789,0.021935523,-0.030132277,-0.07052656,-0.09676072,-0.07911432,-0.03915197,0.109791875,0.044876736,0.11113042,-0.085662626,0.08948109,-0.003180055},
	{0.025607064,0.00047969344,0.08363068,0.075647205,0.057452645,0.02362,0.10526547,-0.10353165,0.09726326,-0.08153282,0.0067328475,-0.007948421,-0.13958731,-0.14770052,-0.1155029,-0.12037503,0.06855984,0.019528074,-0.08586726,-0.08370053,0.012597077,0.13837023,-0.08016147,-0.09172987,0.13069956,-0.054473627,0.11201417,0.12563719,-0.08875255,0.024761073,-0.09746861,0.13482831,0.066510804,-0.13860388,-0.09631152,0.063090004,0.05768057,-0.008087196,0.013696196,-0.06433758,-0.01008669,0.07977692,-0.108981736,0.11554549,-0.058471374,-0.06262289,0.0055477954,0.13501483,-0.008624588,-0.059567425,0.033858452,0.13905738,0.02593412,0.13277335,-0.006191178,-0.008907594,-0.12482305,-0.13789245,-0.04225487,0.10865531,0.09094446,-0.058690477,-0.029280486,0.09587524,0.088888235,0.0560845,-0.12639591,-0.019074267,-0.14845721,-0.045271825,-0.11485354,0.0037154104,-0.05406324,-0.021375708,0.03401837,0.1252385,0.11097126,-0.10725434,0.07197867,-0.073401965,-0.1264049,-0.1387033,-0.103512555,0.09569376,0.09973415,0.1263877,-0.01354578,0.08647862,-0.055628583,-0.036185466,0.030692957,-0.06728916,-0.10813518,0.10638251,-0.13766503,0.11414661,-0.14290576,0.033292644,0.0884519,0.06876617},
	{-0.0061223833,-0.07129246,-0.09845023,0.105503105,-0.022253916,0.0541315,0.09872638,-0.15348493,-0.00012452295,0.0730124,-0.037281338,0.059460517,-0.040971264,0.104537494,0.13274786,-0.113446735,-0.06422095,0.043628994,-0.09676572,-0.06665065,0.08581017,0.045526944,-0.032921433,-0.027733635,0.111638814,0.015280508,0.110360146,0.12985186,0.091080874,0.12469213,-0.0148758935,0.111977145,0.06835214,0.010517402,-0.015295312,0.11549123,0.026676066,-0.1404992,-0.050892644,-0.09287798,0.00033047743,0.13580772,-0.10934125,-0.04709651,-0.037076235,-0.1492959,-0.1053012,0.04717835,-0.07441571,0.0316074,0.12201325,-0.114311025,0.03153154,-0.057135858,-0.0418372,-0.06628716,-0.041698277,0.10229346,-0.011461773,-0.028340468,-0.051364634,-0.05364453,0.049720906,0.03103108,0.014848976,0.0024886266,-0.15590517,0.08999545,0.036337133,0.117861055,-0.08566156,-0.1159378,0.032574307,0.10050361,-0.075539865,-0.01713872,-0.07378096,0.09946453,0.13989064,0.028313527,-0.056878466,0.065532945,0.13408877,0.11555183,0.047547568,0.09820984,-0.088682525,0.007060656,0.0669404,-0.13831493,0.079088666,-0.106179126,-0.08582503,-0.114002824,-0.024074264,0.068273924,0.035184577,0.05908094,0.108206116,0.061148122},
	{0.055601124,-0.020507138,-0.022198888,0.1346528,0.08007585,0.1146518,-0.13688117,-0.12958443,-0.034983568,-0.1183364,0.0494997,-0.11552917,0.01659924,-0.08582494,-0.14078584,-0.12419715,0.007494896,-0.10449342,-0.12182863,0.021810789,0.052279484,0.055250965,0.1454241,-0.083747864,-0.084577076,-0.11021096,-0.1367408,-0.11243828,-0.13614835,-0.061619718,-0.08916464,-0.026746152,-0.10070767,-0.052523125,-0.067836486,0.04592711,-0.009895505,-0.013529563,0.01607226,-0.11203154,0.017112114,0.02976641,0.075160265,0.039462503,-0.060377102,-0.0009209387,0.09021968,0.042914968,-0.009559127,0.043573797,-0.031479634,0.06983663,-0.12118928,-0.06684416,0.010975508,-0.077651106,0.03568536,0.14188051,-0.103770204,-0.12014062,-0.11235234,0.045636702,0.12955412,0.13493879,0.044211607,-0.012557796,-0.020419344,0.11822667,-0.11022077,-0.00061820727,0.07414627,-0.055760108,-0.090558365,-0.08609154,-0.029178062,0.013989858,-0.04092547,0.029711304,-0.08937259,0.07963435,0.036538154,-0.114105,0.024204623,-0.11615077,0.12054849,-0.0025734059,-0.09576626,-0.15553042,-0.053553488,0.03313175,-0.04562076,-0.08280871,0.0048071453,0.09199738,-0.13600428,0.06862855,-0.100799836,-0.10993493,0.0038148982,-0.12191739},
	{-0.05145169,-0.01875535,-0.051907666,-0.012054518,-0.046396613,0.07134506,0.01947374,-0.09086722,0.118570685,0.028431213,-0.14234099,-0.054837115,-0.0342251,-0.04333812,-0.05604826,0.004825498,-0.053204514,-0.064719625,0.015333454,-0.14290051,-0.10328007,0.1407469,0.0012148186,-0.12733166,-0.017725423,0.05583078,0.10876251,-0.102814265,0.13383515,0.0019032853,-0.07072411,0.04198365,-0.014379274,-0.07711176,-0.02022778,-0.10380352,-0.035067957,-0.019821163,0.060043786,0.051067233,0.11922973,-0.0671329,0.04307966,0.039195094,-0.07127071,-0.04691024,-0.030781383,0.13064577,-0.08886879,0.08073177,0.09550941,0.10161824,-0.07792318,-0.07587161,-0.025055407,-0.1215496,-0.099628806,0.08810822,0.14347038,0.010321802,-0.09750222,0.09158807,0.057586152,0.0031438805,0.03886293,0.013586204,0.029523062,0.0017157507,-0.070849106,-0.057462372,0.027410831,-0.0055546295,-0.09872978,-0.03998069,-0.07954433,0.043268044,0.052644096,-0.07731556,0.09852329,0.11830371,0.057821847,-0.023883926,-0.14590196,-0.1231466,0.09826235,-0.017145105,-0.11600013,-0.048373744,-0.0038660078,0.0020293477,-0.09406003,0.14036669,0.0036985807,0.039118916,-0.13054086,0.116164334,0.09313676,-0.038562763,-0.11457383,0.072150655},
	{0.07752087,-0.013158854,0.037092894,0.11823635,-0.09451613,-0.14001973,-0.10273636,0.1331284,0.10135842,-0.06574063,-0.09725783,0.11216996,-0.107184745,0.07676897,0.0063801836,-0.119753666,0.05474053,0.018225241,-0.057987943,0.051232416,-0.081211455,0.08736663,-0.046822947,0.12515943,-0.05261438,0.056008115,-0.103409894,-0.024357134,0.049536537,0.05378537,-0.027642101,0.0760544,-0.13173899,-0.019229986,0.07064566,0.05906127,-0.051324572,0.042743508,0.10982882,0.05474516,0.10176885,-0.065842256,0.054552533,-0.02868474,-0.025101505,0.0024776985,0.06784622,-0.14398816,0.020322625,-0.07486724,-0.12838937,-0.04439587,0.04260448,-0.11616404,0.044551563,-0.09509169,-0.15140684,0.09166135,-0.010791419,0.046233386,-0.096503384,-0.13065466,0.10053295,-0.0072598895,0.11771455,-0.048658602,-0.12686798,-0.07088276,-0.116603464,0.1372969,0.01056336,0.051381953,0.013090839,-0.11948694,-0.01685654,-0.047487002,0.063519046,-0.058499817,-0.027013507,-0.1313488,-0.09958502,0.08996311,0.13510859,-0.09551222,-0.09320081,0.027475761,-0.12825085,-0.1414343,0.074946016,-0.0755473,-0.023721594,-0.008451803,-0.034542866,0.033483736,-0.03471852,-0.10912344,0.088929005,-0.037295222,0.036457576,0.059918605},
	{-0.09712598,-0.038477037,-0.021433938,0.06763488,0.02003422,0.0033875145,-0.14684932,-0.14288586,-0.12084827,0.03207179,-0.09794428,0.14113645,-0.07583473,0.08921864,0.05581752,-0.043158457,-0.05913317,0.06812673,-0.015767075,-0.03457521,-0.009331328,0.04079262,0.09946531,0.11912726,-0.10933344,-0.033345316,0.108426325,-0.009040243,0.04731799,0.0037533233,0.14387749,-0.050510693,-0.13011545,0.043005306,-0.069349274,-0.09796464,-0.10710982,-0.14121987,0.055405274,0.09764089,0.06868758,-0.09447403,-0.075014696,-0.024440043,0.14637932,-0.12763166,0.054939795,0.0896597,-0.113936186,-0.0023285341,-0.08916521,-0.0018041867,-0.1382004,0.00019025918,0.050079055,0.05688085,0.05431433,-0.039282087,0.12374318,0.09594454,0.10860753,-0.110898174,0.04667927,-0.096355304,-0.09254725,-0.014560702,-0.09704551,0.078309245,-0.14201804,-0.024426863,-0.02925556,0.07014284,-0.11149914,0.13591343,0.14577863,0.07122795,0.121812336,-0.07373654,-0.02963365,0.09108036,-0.08918268,0.12486453,0.033162467,-0.06172094,-0.047877308,-0.014009804,-0.01140619,-0.0315551,0.092256196,-0.0746609,0.020256737,0.06099111,-0.11579565,-0.013017006,-0.13500002,0.089908905,-0.08165055,-0.12545323,-0.06594842,0.10187968},
	{-0.008888525,-0.15147987,-0.119960025,-0.117107704,0.06760106,-0.03232394,-0.12978213,-0.10566765,0.11984689,0.015513689,0.0031990595,0.06997112,0.057320885,-0.047156654,0.007171694,-0.09513405,0.11178439,0.10725432,0.13549681,-0.08000026,0.072393864,-0.05266849,-0.10260113,-0.06999812,0.087021984,0.03799528,-0.06788215,0.09372602,0.03186138,-0.14032303,0.030588575,-0.05969509,0.031901114,0.076264605,0.025749277,-0.12590347,-0.12275463,0.04969561,-0.10488266,0.014919093,0.045601297,-0.09175649,-0.10274735,0.11677886,-0.09394777,0.032752223,-0.13158509,0.0034367056,0.08409371,-0.045575973,0.03037687,0.046352368,0.07715642,0.07207621,-0.028935159,0.05459218,-0.057481553,-0.13224405,0.019993108,0.059366226,0.03898329,-0.029971862,-0.109468006,-0.13112834,-0.049971394,-0.055561323,0.0406744,0.103903994,-0.0840659,-0.024545845,-0.1357607,-0.015855027,-0.06018359,-0.110840544,0.12645441,-0.12273341,0.029438527,-0.1072156,0.1255549,-0.053012863,0.020544097,0.12288523,-0.003610687,0.02884256,0.022345822,-0.1376116,-0.07860961,0.10845833,0.07746817,-0.14746618,-0.13070111,-0.10175213,0.027421208,0.016292691,0.13230638,0.07600805,-0.11486012,0.08507657,0.024824347,0.12429503},
	{0.09116062,0.06714355,0.037292033,0.001151364,0.13679883,-0.0074489117,0.0816192,-0.10794644,-0.1445985,-0.037208267,-0.024493946,0.12920687,0.14110537,0.022862524,0.020163672,0.03787836,-0.07563579,-0.14083175,-0.025928956,-0.014220297,0.0090568205,0.11784343,-0.010754095,0.09532564,0.041388158,-0.14735733,-0.1181605,0.0063590286,-0.017435377,-0.13449411,0.11872206,0.051162332,0.13433217,0.12675495,0.054761913,-0.080776356,-0.04390421,-0.12796192,-0.11224646,-0.14743795,0.13618378,0.114279985,-0.018362636,-0.11934444,-0.05819833,-0.09495847,-0.11826058,0.09922295,-0.12872519,0.0016905664,-0.026880918,0.13881724,0.116939485,0.062461328,0.13765223,-0.04686252,0.013726998,0.11532925,-0.020773068,0.068365514,-0.116703175,-0.15143614,0.07399856,-0.10755081,0.1055227,0.10726464,-0.13991903,-0.12206108,-0.07518109,0.06564015,0.074720815,-0.12890802,0.087711394,-0.1460614,0.1445977,-0.111849874,0.019399928,0.123898484,0.02332856,0.0052484465,-0.11600672,0.118996136,0.13637722,-0.015205081,-0.051968336,-0.14824769,-0.084571265,0.043961227,0.07450673,-0.012954247,-0.09417073,0.06698537,0.08298619,-0.05988847,-0.040583562,-0.04612278,0.109165095,0.13314351,0.098641105,-0.1401549},
	{-0.11134052,-0.08285396,0.062070973,0.1399362,0.08732074,-0.086539984,0.13938819,0.1318339,0.027286796,-0.0031269845,0.066270486,0.10902724,-0.105243444,-0.12357156,-0.052059613,-0.033752955,-0.09432886,-0.060413126,0.008942882,0.0478439,-0.0765818,-0.08142436,-0.089093186,-0.023450386,0.12634246,-0.015847191,-0.12462363,-0.05720788,-0.03657735,-0.11907663,0.011925559,0.09302755,-0.044090085,-0.08758045,0.07153374,-0.04989349,-0.052699942,-0.049089234,-0.0693516,-0.08858225,-0.13556813,-0.14399868,0.08949265,0.052706625,0.016306488,-0.009940138,0.11076389,0.11532794,0.091447726,-0.016068865,-0.09613216,0.062567875,0.08943059,-0.010993401,-0.028729495,0.058472484,-0.14607799,0.12454538,-0.0026506458,-0.116302855,-0.13575915,-0.0077505982,0.049274147,0.11714657,0.0027046879,0.02995425,0.056587975,0.1357112,-0.0654223,-0.0427737,0.094796695,-0.14666772,0.059549287,0.039467283,-0.09307809,-0.11926835,-0.13143715,0.002430492,0.11989692,-0.005717676,-0.035773866,-0.10589899,-0.1148391,0.0455014,-0.06945907,-0.055756323,-0.06625961,-0.11146738,-0.095247336,-0.08138522,0.048722707,0.066633195,0.08912116,-0.09231469,0.095300384,-0.09870234,-0.10928848,-0.08909454,-0.046937145,0.06813813},
	{0.12305274,-0.11486859,0.0022006514,0.00055780116,-0.084476,0.09065473,-0.14782299,0.12541178,-0.1397398,0.061048795,0.082774624,-0.10981028,0.04471243,-0.06961378,-0.063325725,0.032174774,-0.05121509,-0.08719133,0.05737492,0.12427907,-0.05826818,0.12033565,-0.0051116715,-0.031337567,-0.13499555,0.13475928,-0.114978224,0.07503189,-0.1180455,0.0443477,-1.4881371e-06,0.065608025,0.040916983,-0.15772523,0.046070706,-0.011642348,0.11818378,-0.08764287,0.10521645,-0.14486563,-0.021588149,-0.06735218,-0.0978183,0.11067897,0.013635399,0.016040087,-0.122709334,0.057373203,-0.1334456,-0.06678396,-0.010799989,0.1398989,0.12713288,0.021981237,0.014364361,-0.12145087,-0.08817824,-0.14606532,0.1161521,-0.10530864,-0.157602,-0.014361445,-0.0795275,-0.046187095,0.033239882,-0.02917785,0.009105278,-0.046202064,0.14210315,-0.114725664,0.11612174,0.13876605,-0.024323842,-0.060769506,-0.020735413,0.01579443,0.10554766,-0.12341012,0.004726063,0.12547202,0.09558699,0.08806945,0.06361326,0.11760078,-0.065827735,-0.104458004,0.12565246,0.0748718,-0.127754,-0.063779935,0.005796109,0.032723185,0.06142794,0.05154605,-0.15110585,-0.020044543,-0.059663933,0.05486755,-0.14977059,-0.033240337},
	{-0.119360745,0.1460634,-0.14412554,0.03405814,-0.09787509,0.035176035,-0.05711469,0.027328096,0.0066235573,0.061341837,-0.07828598,-0.12702705,-0.083539665,-0.14585163,-0.070950866,0.09691872,0.1326011,0.004192472,-0.14372317,0.12843733,0.13259919,0.035025917,0.06000627,0.04132615,-0.13362025,0.01904982,-0.13052344,0.0857229,-0.040533032,0.08472562,-0.046275157,-0.020196592,0.09641392,0.07021908,0.115048096,-0.115128905,0.1322411,-0.10111955,0.04966857,-0.11345899,-0.0865738,-0.026067166,0.12147664,0.023257744,-0.0935405,-0.11134381,0.08201228,0.061324656,0.14596324,0.02321143,0.042411096,-0.11119577,0.041621104,0.07811092,-0.14628576,0.10842438,-0.09229289,0.11782776,0.058358833,-0.065091684,0.12906939,-0.10098558,0.11380555,-0.022923838,0.024434283,0.020892452,0.0075828177,0.12442621,-0.07226283,-0.022455819,-0.06861623,0.045912325,-0.12957749,0.046912525,-0.12711978,0.019591589,-0.1447258,0.017660353,-0.0024833626,0.083553754,0.07038611,-0.09724815,-0.0025085995,-0.11261286,-0.14529765,0.014876276,-0.09574867,-0.05376028,-0.100128785,-0.12940162,-0.109490976,-0.084012665,-0.10533924,0.14261937,-0.12513416,-0.14953409,0.14575808,-0.06305317,-0.11636396,0.013452416},
	{0.14330636,-0.018566681,-0.05934278,-0.049329475,-0.036317218,-0.14401247,0.13441588,0.11871418,0.015377288,0.07791618,0.09446183,0.07113697,0.047639046,0.051455263,-0.021012036,-0.14271177,0.08066754,-0.016531553,0.03302279,0.014882429,0.053742923,0.104529195,-0.033904556,-0.13311164,0.13325068,-0.011488557,-0.14932281,0.018799966,-0.097674854,-0.14255057,-0.027758382,-0.087546356,-0.08471688,0.13612461,0.116379894,0.11963766,0.07612127,0.06686505,0.034179315,-0.15162213,0.010577053,0.12370808,-0.13397054,0.13184352,0.08486035,-0.06318299,0.057421595,0.14445086,-0.08512585,0.020077182,0.09125964,-0.026782298,0.019982776,-0.032357577,-0.016312644,-0.039889462,-0.053021867,-0.066286154,0.13177584,0.11346591,-0.12553355,-0.07146686,-0.063937426,-0.13530158,0.061650272,0.12182849,-0.050067544,-0.046844702,0.12242128,0.14406654,0.122876614,-0.13607347,-0.019548196,-0.1338173,-0.073974445,-0.119329035,0.08811914,-0.13704495,0.12050185,0.05344541,0.0705481,-0.031068867,0.002103573,0.037670292,-0.14023128,-0.15217118,-0.06872852,-0.027290156,-0.060156755,-0.048508815,-0.13831669,-0.09120281,-0.05798113,-0.08107925,0.13742132,0.07638069,0.036252987,0.05045551,-0.13715898,0.08532738},
	{-0.060260423,0.088109866,0.14084859,-0.14356148,0.14386275,-0.048574105,0.12593688,0.00015803863,0.015323612,-0.040840775,-0.13632634,0.07990598,-0.14180975,-0.12698911,-0.116158515,0.13148187,-0.11989649,-0.061061475,0.097979024,-0.016502978,0.11736534,0.12337614,0.071776904,-0.053622037,0.053888787,-0.054588202,-0.007955818,-0.11556521,0.116114244,0.117292054,0.02587962,-0.07311159,-0.06811448,0.028574238,0.022575833,-0.032649558,0.06634745,0.121694334,0.053528264,0.06915602,-0.034980897,0.11621845,-0.12730104,-0.028983545,-0.07326007,0.066166274,-0.03363629,0.11665703,0.10870948,-0.12545891,0.0059910384,-0.15058511,-0.0867396,-0.028758043,0.006038854,0.0037919786,-0.06622862,0.0019148905,0.02742949,-0.14086805,-0.06999028,0.040570147,-0.040795173,-0.02045958,-0.07278247,-3.1738717e-05,0.004622171,0.06798583,-0.058803312,-0.11374817,-0.103547834,0.09502325,0.10595633,0.07546966,-0.105718754,-0.02840336,-0.14117216,-0.066559464,0.08405721,0.09890077,-0.032824025,0.00012188376,-0.08619914,-0.09909353,-0.108060755,-0.032963894,0.036041338,-0.1355772,-0.09673785,0.07668136,-0.09574683,0.104849234,0.09579858,-0.09499876,-0.014148361,-0.135306,-0.08091378,0.13701096,0.05769561,-0.14438158},
	{-0.0032779165,-0.05608678,-0.15849404,-0.13510467,0.009342426,-0.06543969,-0.03495179,-0.12460932,-0.026797604,-0.024758307,-0.10293211,-0.019434614,0.13532469,0.12154584,0.07722507,-0.1500418,-0.118237846,0.0792605,0.08503636,0.0025666405,-0.10355999,0.13949496,-0.012345305,0.041511152,0.13828862,-0.062430784,-0.10703222,-0.073513195,-0.038790137,-0.13230962,-0.10710673,0.09345235,-0.026688017,0.03616476,0.12100964,0.017318891,0.122481935,0.10131642,0.09786474,0.021810701,0.13694635,-0.11475953,-0.08395687,0.13435215,0.025522137,0.13039301,-0.1272532,0.10345365,0.08464026,-0.14947326,-0.02676533,0.12483206,0.033645105,-0.062221434,0.08852694,0.06637996,0.1344467,0.09624961,0.13929859,-0.15025581,-0.10901867,-0.027254183,-0.08110634,-0.12590992,0.07058035,0.10218326,-0.12447392,-0.06569959,-0.050092585,-0.041068446,0.12017321,-0.11762989,0.010264871,0.1075573,-0.038943164,0.015016222,0.0027787192,-0.0022601523,-0.13010885,0.056622524,-0.14497842,0.0844954,0.13152544,0.08570209,0.004265396,-0.007986405,-0.01822408,-0.099464834,0.07293923,0.009691922,0.023372507,-0.10765175,-0.058594026,-0.090879425,-0.1108638,0.10672875,0.11661097,0.10021123,-0.072274625,-0.14208633},
	{0.016990932,0.07966064,0.069152266,0.122901395,-0.014120432,0.1467564,0.04655648,-0.060889807,-0.11190666,-0.12401478,0.08100126,-0.00018633275,-0.03552635,-0.1360451,0.056992937,0.058540117,0.07845398,0.07409165,0.02515926,-0.1346166,-0.052086867,-0.14001995,-0.039811384,0.044254936,-0.08316057,-0.06936291,-0.11461714,-0.05669421,0.10019326,0.023192758,0.011172363,-0.14988217,0.010117534,0.08490142,0.05732146,-0.022627888,-0.13257535,0.11954439,-0.017429493,0.07300364,0.12151964,-0.02701988,-0.034117706,0.016222658,-0.010663325,-0.13970079,-0.06884615,-0.1367609,-0.14560841,0.0006813996,0.109415404,-0.04472694,-0.10137797,0.14272924,-0.13776308,0.010956062,0.12153437,0.14617404,-0.039671343,0.052354496,0.006641835,-0.08576814,0.13498849,0.112831004,-0.047514383,0.04374223,0.06547378,-0.061331328,-0.039802168,0.115736835,-0.018709252,0.05278957,-0.12995818,0.10265916,0.07149568,-0.10442744,-0.082292035,0.12345981,-0.15135285,-0.09179645,0.01712237,0.089239374,0.059099577,0.027301457,0.008641599,-0.115734786,0.107990585,0.03622186,0.047711335,0.0727314,0.040487524,0.073378205,-0.05088421,-0.13985483,0.14523967,-0.08933029,-0.13449508,-0.04628083,-0.08670515,0.071311526},
	{-0.03700877,0.14206155,0.021436034,-0.14361714,0.106544375,0.040350154,0.06828672,0.11711121,0.042511333,0.09053098,-0.091472186,-0.085714824,0.04072671,-0.031335026,-0.04620354,-0.069614254,0.14152442,0.05516466,-0.02937236,0.0012840885,-0.051242612,-0.1036874,0.019740922,-0.12448115,0.127681,-0.029348519,0.09493909,0.103700295,-0.13208649,-0.09796716,0.1367315,-0.0121959755,0.011187161,-0.077021435,0.14207906,-0.027093975,0.09073521,0.07845677,0.08408086,-0.041656464,0.00810305,0.0026382534,0.11293783,-0.06156684,-0.07102829,-0.09372512,0.10034648,-0.10702693,-0.14503224,-0.09266107,0.11973251,-0.082735755,-0.080895305,-0.013795095,0.07323344,-0.037297476,-0.0063191797,0.10324225,-0.07714862,0.13663846,-0.13895978,0.05764702,0.122315474,0.06448927,0.02350368,-0.05710487,0.13052626,0.024282377,0.02619582,0.064942166,-0.101126075,0.06273083,-0.106896386,0.0059529943,0.08559287,0.13381858,-0.14308926,0.08859686,-0.08037181,0.004218727,-0.11606372,-0.06659139,0.089554116,0.09547147,-0.03465836,0.01066966,0.021456651,-0.03388791,-0.07589569,-0.11399942,0.0772399,0.064447306,-0.12001258,0.090882115,-0.025467066,0.09610922,0.071882844,-0.076167755,0.08660219,0.03256273},
	{-0.09175824,0.099373065,0.098868914,-0.05146611,-0.15129112,-0.08539989,-0.068091914,-0.12461006,0.1494174,0.02486519,0.14506975,-0.15069023,-0.0227102,-0.035715345,-0.12421209,-0.13123955,0.011051489,-0.09669606,0.055705886,-0.0066844486,0.036073957,0.034295283,-0.078252696,-0.0038553718,0.054471616,0.048713263,-0.11471164,0.07553308,-0.14812563,0.007164528,-0.12551886,0.06297657,0.08728398,-0.009725442,0.0037455065,0.073335916,-0.023609683,-0.115636796,0.12662996,-0.14886129,-0.098908,-0.09263859,-0.015130738,-0.14782207,0.13630678,-0.1349721,-0.0028770615,-0.011009735,0.12199236,-0.14806025,-0.05740163,0.09185145,0.014713033,0.08280211,-0.1164783,-0.107792884,-0.065557554,-0.13116276,0.04719131,0.10840555,0.020479763,-0.043029334,-0.088616624,0.11103447,0.072388425,0.104274206,0.089604914,0.041160062,0.08508399,-0.021249307,-0.12691134,0.08217316,0.0635525,-0.044845458,0.11003858,-0.14624457,0.05944456,0.12877709,0.09613417,0.14377986,0.15106535,-0.05131986,0.13468614,-0.11727138,-0.007212914,0.09786585,-0.033189043,-0.0041279793,0.11406134,0.08427714,-0.14271598,-0.13248755,-0.062403645,0.06098346,0.1465706,0.008078838,0.10977462,0.12640712,0.053115107,-0.103218324},
	{0.061930723,-0.09149537,0.07092146,-0.022188788,-0.089934126,-0.10610714,-0.13444646,0.019407682,0.072865315,0.091007516,0.036942,-0.012355098,0.055220153,-0.15803878,-0.022773957,-0.07104083,-0.058126993,-0.12512447,-0.07101861,0.029792665,-0.1611723,0.03334758,-0.040015727,-0.091438025,0.055172436,0.12575619,-0.055092476,0.08277607,0.11886422,0.016554346,-0.08532247,-0.08228188,0.044284686,-0.053953584,-0.15818997,0.026319033,-0.04915573,-0.09139328,-0.08310498,0.03637523,0.077722825,-0.10564586,0.021267356,-0.079926535,0.09065793,0.10025114,-0.08693455,-0.027113153,0.1052339,0.068570785,0.0024574175,0.027421093,-0.08620202,-0.09852548,0.018323699,-0.05583397,-0.14823009,-0.08637371,-0.10459634,-0.035233982,0.024455369,-0.08171591,-0.08931902,0.12840971,-0.0017718708,-0.026983486,0.07945687,-0.034285262,-0.10653405,-0.045860313,0.12859993,0.03246578,-0.15335959,0.07499403,0.03475265,-0.0031532864,0.03175621,0.06997785,-0.11340654,0.029837055,0.13468993,0.009794449,-0.06393998,0.06351798,-0.14706466,-0.07262927,-0.10968804,-0.10951583,0.054574456,0.11547773,0.13454781,0.12413354,-0.14917983,-0.0027714325,-0.13636744,0.010994476,0.122692525,0.13232903,0.04743163,-0.055681475},
	{-0.12455151,0.044111174,-0.036871612,0.039681975,0.012766205,-0.11708092,-0.021779157,-0.13215046,-0.016589258,-0.053942226,-0.101436354,-0.023935948,0.09859026,0.10676358,-0.0871398,-0.073270306,0.13730492,-0.10142593,-0.11539663,-0.11483093,-0.14008328,0.117103,0.11784367,0.04383721,-0.09942519,0.10005285,-0.11265872,-0.057513423,-0.12633345,0.03805052,0.07695178,-0.085858695,0.0066670235,-0.07087325,-0.042129334,-0.012555514,0.087439135,-0.13658,-0.0892516,-0.05956687,-0.10201177,-0.056157067,-0.035901103,-0.02756298,0.10497484,-0.012846048,-0.00011794997,-0.019549275,0.12148433,-0.05634016,0.04386235,0.065028474,0.06610095,0.027539559,-0.07415926,-0.07618583,0.05053862,0.10482915,-0.11140816,-0.066687845,-0.0955246,-0.02132356,0.027721418,0.100640476,0.12708116,-0.10630054,-0.1378314,-0.1486077,-0.08231413,-0.040398143,-0.11749789,0.14877124,-0.1524794,0.1377714,-0.029893793,0.002595105,0.11485911,0.01101932,-0.032841932,-0.09770799,-0.15511484,-0.14724918,0.11835361,-0.1567266,0.06057197,0.09190388,-0.1137066,0.058052458,-0.12842098,-0.1049423,-0.06573329,-0.0487259,-0.051867995,0.03233048,-0.1331945,0.001533451,0.12503795,-0.12564354,-0.06377304,0.07831021},
	{0.038182694,-0.13200013,-0.10109197,-0.11345195,0.12823728,0.08999868,0.037618503,0.12048891,0.053690847,0.13431156,-0.15183078,-0.0577597,0.021913504,0.011338169,-0.1320639,0.06438119,0.08556465,0.12359531,0.029261218,-0.1002898,0.03851035,-0.10990119,-0.061404888,0.12476295,0.056826025,0.016506063,0.1168025,-0.034889452,0.13940166,-0.12242169,-0.021247424,-0.084983945,0.027205693,-0.06794135,-0.072587214,-0.017087728,-0.050736416,-0.035542317,0.0791529,-0.062206935,0.08976738,0.019454185,-0.004210734,-0.12926409,0.14099546,-0.022997452,0.04997297,0.010607241,-0.103477344,0.033402435,-0.02373508,0.04057297,0.05404982,0.14108478,0.11535528,0.05943804,-0.09034555,-0.09959065,0.123523176,-0.08429046,0.0064291228,0.12623918,0.04161547,0.01005397,0.021640172,0.13942778,0.097739294,-0.083673514,-0.010820278,0.09298204,0.0908201,0.059166893,-0.026040426,-0.14628445,-0.050785806,0.04023503,-0.14064687,-0.042975005,-0.11110905,-0.08548659,0.13603078,0.034287073,0.037984826,-0.13907614,-0.05108877,-0.1464253,-0.10223892,-0.13441578,-0.056612827,0.035742123,0.069915354,-0.13755563,-0.07357917,0.03801749,-0.1482325,-0.008205795,-0.030786581,0.011130389,0.06471195,0.079987235},
	{0.14175975,-0.15318373,0.12136866,-0.11100774,-0.05482672,0.12538469,-0.1470351,0.055085942,-0.14775848,-0.10687698,-0.09709189,-0.06901761,0.06926315,-0.08402038,0.107477985,-0.04653438,0.0764931,0.03138007,-0.13483995,0.11236653,-0.083233885,0.035196006,0.08854045,-0.13859338,-0.11567445,-0.14466128,-0.096678235,0.10097042,-0.09935963,0.10026696,-0.012988105,0.09238119,0.1331308,-0.01958118,0.05272518,-0.12170837,-0.042099454,0.06140064,0.07215128,-0.09475099,0.0573972,0.10510564,0.09537871,0.02598262,-0.13367268,0.08543257,-0.052711528,-0.01128756,0.004134005,-0.12285695,-0.079336286,-0.12235132,-0.05431899,0.014927432,-0.14047992,-0.15585212,-0.08035573,-0.11122064,0.042481348,-0.08905792,-0.003925074,-0.051040065,0.10431616,-0.010989217,0.08733142,0.12897772,-0.08516136,0.09177785,0.0089727715,0.043769363,-0.14644672,0.07005849,-0.024437537,0.10183755,0.0069250115,0.03567019,-0.13269658,-0.015705416,-0.076060824,-0.06555812,-0.12728032,0.09083224,0.1073478,-0.0643093,0.13071604,-0.1518523,-0.09357714,-0.09946042,-0.15864486,-0.08134587,0.036079314,-0.12856068,0.05513998,0.087117575,0.054967232,-0.080335505,-0.0015210963,0.009611485,0.04098868,-0.07002528},
	{0.071352385,-0.09575248,0.038897138,0.038325377,-0.11483306,0.10823312,-0.048288796,-0.028048316,-0.03386521,-0.018811291,-0.14058718,0.01735347,0.059732296,0.13255821,-0.07123881,-0.07089342,0.014219226,0.11204661,0.07683896,-0.13860302,-0.15101601,0.021306947,-0.0669023,0.09456919,0.021167701,-0.12590429,0.08556492,-0.051035475,0.1275958,0.13408846,0.026574811,-0.05788163,0.009769352,-0.0036650386,-0.085264474,-0.053693943,-0.06073815,0.13565858,0.09841077,-0.15268816,-0.11525203,-0.09555277,0.08195807,0.13118105,-0.12294155,-0.008158086,-0.11401579,-0.10952174,0.1163668,0.01531126,0.09543562,-0.03950709,-0.06808391,0.05303577,-0.055747658,-0.0028911324,0.009417647,-0.022785697,-0.051218394,0.11936436,-0.036451403,0.073094435,0.06380502,-0.09739966,-0.10629088,-0.13356464,-0.13934767,0.08771181,0.010789299,0.1141541,-0.04319619,0.054152217,-0.0055539915,0.00039668332,0.01906353,-0.04196391,0.1464793,0.008827609,0.11500887,0.041472178,-0.05968557,0.11162117,-0.02550845,-0.06438145,0.07983477,-0.025344085,-0.12834322,-0.11786583,-0.050253987,0.12189187,0.089882925,0.053940456,0.06110609,0.09956466,0.03882084,-0.035450067,-0.030568646,0.016470995,-0.044940792,-0.0020031214},
	{-0.14252752,-0.13168491,-0.09259253,0.07317255,0.10335451,0.09240746,0.013144245,0.025756022,-0.13930723,0.13032272,-0.0953497,0.009483864,-0.11322198,0.1118391,-0.10518686,-0.08472709,0.10249453,0.11308083,-0.022585172,-0.107118696,0.09217799,-0.08611374,-0.10134196,-0.14300136,0.024712877,0.04204849,-0.013477076,0.023837326,0.08746023,-0.005666761,-0.03261047,0.1276153,0.029817576,-0.12608299,-0.14287838,-0.10934676,-0.039718922,-0.08551881,-0.07064135,0.0667109,0.046977766,-0.14650755,-0.13771492,0.01766417,0.071622126,0.038379896,0.09079274,-0.09769446,0.054919027,-0.08149848,0.13806632,-0.14190944,0.14274785,-0.1301145,-0.10903395,-0.046895444,-0.048843056,0.12911402,-0.011202145,-0.07554622,-0.10860256,-0.060611565,-0.11519497,-0.13129324,0.0041951444,0.10107633,0.04832252,0.004101284,-0.16081576,-0.04941019,-0.11718536,-0.114102565,-0.019041726,0.11483088,-0.022345148,-0.049192764,0.12337461,0.02923924,-0.13153756,0.03715786,0.13529189,-0.13016677,-0.06317991,-0.09064189,0.04074821,-0.1200529,-0.08721812,0.053385545,0.041048676,-0.1605536,-0.15159218,0.02341394,0.11401267,0.09656143,-0.03541483,0.06019792,-0.098570496,0.12965441,-0.14282429,0.037240844},
	{-0.0037412893,0.10106629,-0.04120912,-0.12786826,0.040855583,-0.08409853,0.1115308,-0.027172687,0.14291914,-0.056601387,-0.10548121,-0.07105255,0.05708847,-0.030012721,0.06640675,0.092041865,-0.08131586,-0.07002821,0.0032142622,0.11906383,-0.10877112,-0.13900273,-0.13816893,-0.04912852,-0.14278358,0.050651822,-0.06701004,-0.004749493,-0.14155181,-0.11712247,-0.13175198,0.08728455,-0.09293084,-0.02236074,-0.10157437,0.01907665,0.036918353,0.026511364,0.04138089,-0.1346467,-0.11532498,-0.025965447,0.061073806,0.04926496,-0.04313114,-0.111632735,-0.069859475,-0.12209042,0.03076048,0.021065166,0.1142152,-0.10465965,-0.11168074,-0.039384015,0.016340213,-0.07909302,-0.063147046,0.03604235,-0.10489409,0.043377575,0.10173765,0.04181365,0.07657076,0.056469228,0.119658105,-0.061283033,-0.07759376,-0.09674034,0.13105407,-0.0039970917,-0.06916856,0.024100605,0.010544003,0.08663439,0.006270684,-0.08377688,-0.095515095,-0.063875206,0.11316823,-0.13598435,-0.10488231,-0.028999636,-0.022355521,-0.02143684,-0.09033235,0.039021056,0.06278545,-0.023525234,0.119587146,0.04823937,-0.09613627,0.073593594,0.08138355,0.12822369,-0.15043922,0.051794585,-0.14429231,-0.006429275,-0.016260035,0.08213871},
	{-0.10019285,0.053050216,-0.068726785,0.021199664,-0.05229428,-0.13858372,0.09701723,0.10382061,0.04299217,0.007421381,0.084113024,-0.043875456,0.06408413,0.10512841,-0.09135257,0.018801995,0.059487652,0.05694906,0.06707219,0.07326846,-0.03242977,0.017573457,-0.06548811,-0.101177305,0.026372261,0.032092366,0.04696136,0.07745154,-0.112744436,-0.06200609,0.068959795,-0.025381345,-0.08406689,0.039030828,-0.092358224,-0.026001621,0.07614454,-0.030911652,0.13357738,0.017234962,0.08886888,0.1251097,-0.147571,0.033637226,-0.0360673,0.020648498,0.021677084,0.022966186,-0.055996314,-0.10335963,-0.022732418,0.08325477,0.09893275,-0.041446496,-0.10963824,-0.13068002,-0.063667156,-0.028769758,-0.08455127,-0.03918066,0.07292227,-0.063558064,0.11248612,0.065388665,-0.03106756,-0.007929174,-0.10546599,0.06905399,0.04500901,0.05257432,0.09759085,0.0211719,-0.06449757,0.10530593,-0.014965316,-0.037659198,-0.12497847,0.108608775,0.08326857,-0.123175025,-0.02473867,-0.09568177,-0.1265908,0.09733515,-0.038852107,-0.14125519,0.06720675,0.0045585847,-0.095449045,-0.029771533,0.1389006,-0.017868537,-0.035000343,0.049111273,0.013280477,-0.090762794,-0.020675218,-0.05434155,-0.043493547,0.081076585},
	{0.0930884,-0.008825352,0.035219092,0.14228772,-0.03547099,0.106091045,0.043835625,-0.11248853,0.050867323,-0.0595485,0.03893183,0.0050171623,0.06335631,-0.14564644,0.075942665,-0.1054033,-0.12154044,-0.033527877,0.07337341,-0.016257647,0.12778784,-0.15408568,-0.061340075,-0.10600498,0.100369856,0.08483477,-0.12776639,-0.11902909,0.1376026,0.017866565,0.029102158,-0.089908965,0.11324622,0.116086185,-0.024075916,-0.020173077,0.077106684,0.013701706,0.0929132,-0.12423541,0.02630583,0.12807582,0.090803385,0.12977928,0.045033827,-0.010788756,0.055899125,0.08603087,0.027799902,0.046963878,0.022407807,-0.05401563,-0.041035503,-0.12305973,-0.12396363,0.07045532,-0.00477903,-0.017708689,-0.04942344,0.10375753,0.0910626,0.008005437,-0.08280148,0.04865633,-0.046896372,0.10222131,-0.13153267,-0.13006707,-0.066150844,-0.009575095,0.092412606,-0.024508597,0.07491914,-0.09153401,0.14217158,0.071792126,0.06319972,0.101679064,-0.0008043548,0.106738664,0.08576054,0.12965626,0.12074616,-0.03203118,0.12544379,0.000121015764,-0.04361897,0.066704124,0.0931785,-0.12860514,-0.12411865,0.03111817,-0.016198238,-0.14795452,0.07098025,0.13907504,0.03492661,0.12799542,-0.08763918,-0.022399656},
	{-0.13091423,0.11325489,0.11439787,0.080127254,-0.051231097,0.07118565,-0.12292253,0.043460533,-0.0009720055,0.04960631,0.13157956,0.121052034,0.14525628,-0.033172168,-0.1485367,-0.14349169,-0.0028512082,-0.045335177,0.14189132,0.04627676,0.038746998,0.05634693,0.0066454234,0.031252716,0.0018607137,0.09904432,-0.07567415,-0.048173066,-0.10904127,0.10165388,0.09584014,0.081355825,0.00776873,-0.024458148,-0.08429117,-0.14702126,-0.11698714,-0.091509596,0.06415081,-0.10796101,-0.0811905,-0.0832377,0.13501155,-0.02478983,0.14397454,-0.050052237,-0.14406973,0.068609625,0.14458644,-0.090098836,0.07377268,-0.002810283,0.11476501,0.029994626,0.014480358,0.040329836,0.0014307268,0.07115432,-0.05013432,-0.1465725,0.11347235,-0.08606573,-0.11721606,0.11086546,0.038582362,-0.14744036,0.09882911,-0.11241072,0.06723922,0.0742843,-0.107081205,-0.11342202,0.008070488,0.040975418,-0.08839234,0.008417021,-0.027384577,0.10162006,-0.05935496,-0.1388352,0.075190745,-0.14893118,0.053813078,-0.0818365,0.025649073,0.03616161,-0.122844145,0.03492826,0.07699863,-0.011571162,0.039136548,0.07957656,0.071546875,-0.04827953,0.051173944,-0.10566426,-0.018598316,-0.022126244,-0.0478655,-0.075925305},
	{-0.06613723,-0.15260668,-0.13446227,0.04058608,-0.09381419,0.063319854,-0.06188188,0.09826959,0.07824943,-0.032893393,-0.12911153,0.07862766,-0.09199499,0.07115647,-0.06145685,-0.05218041,0.08981849,0.105639674,-0.11980227,-0.020008152,0.1010274,0.022342075,-0.0036324172,-0.1288992,-0.087533094,-0.0034142903,0.14229497,0.041442633,-0.07198585,-0.025122283,0.017327515,0.13802631,-0.066988304,-0.12557161,-0.12403287,0.052632075,-0.14913262,0.11333129,-0.0076638735,-0.059948705,-0.058368456,0.014436124,-0.13032953,-0.10740065,0.050725028,-0.02431536,0.04625705,-0.15007232,-0.023203222,0.14459011,0.10109359,0.08745528,-0.036967542,0.073257476,-0.03479433,-0.08173443,0.018940091,0.13066506,0.13984808,-0.030040126,0.05314969,-0.09382826,-0.078121506,-0.026183669,0.0016523912,-0.057277177,-0.07672528,0.095023274,-0.12973188,-0.15072428,0.1081179,0.12598322,0.044064723,-0.120247945,0.13549925,-0.12424065,-0.13160963,0.11647673,0.057704117,-0.008280957,-0.05890025,-0.0382573,0.039066646,-0.08983617,-0.09968406,-0.013173299,0.018748812,-0.1312467,0.10732844,-0.05000243,-0.08612838,0.035282064,-0.068226255,-0.043750282,-0.06927272,-0.022653073,-0.14383256,0.090002656,-0.021703407,0.12394928},
	{-0.057783533,-0.09218105,-0.10313642,-0.12638173,-0.04111664,0.12439238,0.113813125,-0.1402027,0.04996223,-0.080475144,0.07697443,0.1491681,0.03763516,0.0062088375,-0.113724485,0.07784533,-0.09991327,0.1390175,0.114825174,-0.12387937,0.0075446684,0.12511602,-0.096859634,-0.064995974,-0.048015643,0.03134686,-0.06096002,0.07402154,0.14103295,0.02455278,0.086322084,-0.055244688,0.07620682,-0.051297843,-0.054737538,-0.04876466,0.107783064,0.035459258,-0.0658804,-0.05217989,0.08792359,-0.030889776,0.015346557,-0.017688014,-0.030098598,-0.10358841,0.0043118475,-0.024547847,-0.07606664,-0.1382431,-0.036382947,0.12024725,0.019817408,-0.0969777,-0.009780248,-0.10365707,0.009069342,-0.11267783,0.017127428,-0.09993462,-0.06497797,-0.1072626,0.09568411,-0.15465058,0.081601195,-0.05799253,0.041423984,-0.098933294,-0.0749093,-0.04521403,0.045601193,0.040186636,0.0982072,0.07575475,-0.14774668,-0.11158818,0.0715147,0.10389623,0.11041334,-0.025199465,-0.074666195,0.012779944,0.12493979,-0.038998548,-0.060340457,-0.15470336,-0.11683217,-0.10753881,-0.07663954,0.035790432,0.017684579,-0.07931011,-0.1486285,0.14194643,-0.067261286,0.03681701,-0.06878238,0.017968971,-0.006925981,-0.0760152},
	{-0.0550951,0.1321764,-0.1441831,-0.10376855,-0.1063105,-0.15545581,-0.021636873,-0.10975327,0.089146316,-0.15065415,-0.12203785,-0.030960457,0.1234276,0.00049945567,0.06279547,0.0962544,0.006564092,-0.007763886,-0.040433526,-0.06996684,0.04119205,-0.045501646,-0.0066578262,-0.15036951,0.12640151,0.116196446,-0.0071125324,-0.14560391,-0.06574625,0.04095538,-0.15651405,0.09860457,0.06546302,0.091548145,0.06471991,-0.04594332,-0.007814194,-0.14438535,-0.08637218,-0.03158435,-0.07879666,0.053074274,0.12266149,0.052135505,-0.034708947,0.013768413,0.07215694,-0.08812693,-0.009956766,0.024905737,0.0718329,0.057012916,0.082393125,-0.14296302,-0.0041095605,0.12753195,0.0045955535,-0.12904175,-0.008469122,-0.06812142,0.026339412,-0.12532467,0.07603299,-0.042767424,0.11848823,0.04014414,0.024225852,0.028236186,0.010302886,0.036224157,-0.017281782,-0.014885634,-0.117929995,0.13064697,-0.10761075,0.0034686609,0.029268743,-0.05116678,-0.12761173,-0.051478796,-0.104875624,0.12752911,-0.035351656,0.1221321,0.021123813,0.11689692,-0.14818099,0.029160334,0.13110813,-0.13876921,0.082210645,-0.12831847,-0.047531236,0.12356938,-0.09406968,0.10771279,0.06585116,0.112779625,-0.0423911,0.032409146},
	{-0.13795972,-0.013605102,-0.08560633,0.060368996,-0.038064953,-0.032632716,0.07711418,-0.032503136,0.11133592,0.026414307,0.083681665,-0.122471504,0.09680899,0.04847234,0.053728964,0.08081415,-0.019616008,-0.07094755,-0.024585491,-0.14776082,0.065431446,0.06695595,-0.14678387,0.13355425,-0.10339506,0.14662223,0.05691309,-0.09584953,-0.122570604,-0.1191639,-0.13870881,-0.14229174,-0.0995585,0.08699098,-0.049479492,0.06415638,0.031764947,-0.017901411,0.13218442,-0.07035146,-0.051893428,-0.040260077,-0.100869134,0.07848605,-0.09814783,0.019101957,-0.033115838,-0.13016005,0.13881235,0.09930863,-0.02664793,-0.14150289,0.061060596,0.108017065,-0.011411278,-0.077986956,-0.1459099,-0.0846214,-0.12503964,0.04320499,-0.123627506,-0.12680574,0.12934047,0.12102044,0.05364927,-0.073861085,0.13065869,-0.061485913,0.030506512,0.07550461,-0.04167768,0.028586296,-0.060806572,-0.075276084,-0.087472446,-0.07111021,-0.05186085,-0.04721185,-0.10403676,-0.05991841,0.12845545,-0.008867836,0.056372326,0.1354852,0.046936687,-0.0425916,0.11544954,0.036619145,-0.07090128,-0.018167226,-0.037584558,-0.121867254,0.021964328,-0.06574927,-0.09071291,-0.13452806,0.088021666,-0.13838077,-0.021897608,-0.10819644},
	{0.018010985,0.020791892,0.12801206,0.03682602,0.06379961,-0.12352976,-0.09421074,-0.11074628,0.13473453,-0.15590236,0.11242738,-0.056268454,-0.050145764,-0.08247262,-0.05247445,0.06328119,-0.06047499,-0.06198474,-0.1375695,0.10797216,0.115876466,0.13353866,0.09329476,-0.02486097,-0.063109696,0.061785784,-0.0027022401,0.121594995,-0.008667013,-0.02570719,0.016882623,0.033164132,-0.14504537,0.034578096,-0.129491,0.07229553,-0.07195715,-0.078313656,0.0029738154,0.051248778,0.13353826,-0.043780793,-0.039971385,0.058439694,0.047650192,-0.15878461,-0.108842134,-0.13849989,0.004156862,0.011914029,-0.012239755,0.08254628,0.04072918,-0.16154484,-0.019217307,-0.055776574,-0.071007796,-0.14244436,0.10128857,0.07018894,-0.06311105,-0.044610016,-0.13537703,0.040773924,0.087772764,-0.032330595,0.03858614,-0.15270571,0.08411516,0.092656665,0.10079792,0.14229886,-0.16228083,-0.07814112,-0.050212853,-0.121870495,-0.028347898,0.037279073,-0.019264862,0.10352624,0.06139678,0.07107656,-0.13575743,-0.005335039,-0.017088125,0.112475954,-0.12597166,-0.017362338,0.062461,0.010718605,-0.11290244,-0.12990573,0.08013067,-0.16028161,-0.065403365,-0.027116127,-0.112186804,0.03318291,0.0638107,-0.08791418},
	{-0.14652582,-0.04877067,-0.042249527,-0.061833363,-0.1297069,-0.09751401,0.031312816,-0.15503024,-0.08168221,0.04977217,-0.06090205,-0.06918562,0.00014003279,-0.09789252,-0.07517089,0.06256464,0.0849286,-0.09990649,-0.13319172,-0.07663896,0.011782089,0.010442963,0.08867255,-0.04775334,0.13581274,0.09758425,0.12792607,-0.08468532,0.0040225247,0.032805774,-0.12450497,0.0011142011,-0.12630074,-0.105419226,-0.14141005,0.095114976,0.09554642,-0.15433717,-0.10841778,0.011023441,0.020752925,-0.10870222,-0.09218785,0.016776761,-0.12170707,-0.14142698,-0.06420633,-0.081316315,-0.14569286,0.047129873,-0.108367816,0.0714586,-0.068056,-0.11641917,0.112434536,-0.14702868,0.017037438,-0.14693649,0.037712507,-0.14359933,0.09282274,-0.07178863,-0.07978217,-0.04588346,-0.096664935,-0.09021438,-0.07738535,-0.017384823,-0.1577505,0.098657034,-0.029595897,0.04384557,-0.069956675,0.08984034,0.14005771,0.13998145,-0.069711275,-0.02255504,0.04225506,-0.02622994,0.09263108,-0.08153032,0.10709585,0.043683577,-0.061710533,0.08042936,0.00045615569,0.085757315,-0.055965606,-0.06802241,-0.077693194,-0.1086867,-0.07211,0.015815772,-0.09467103,0.06091706,-0.06294126,-0.13786742,-0.13022617,0.00091926276},
	{-0.046051376,-0.064193055,0.05158601,-0.07992985,0.047207132,0.10662127,-0.07042321,0.043319307,0.02284544,-0.069083214,-0.10641675,-0.026760565,-0.021600652,0.07663549,-0.0047103027,0.14012203,0.08569365,0.0036873433,0.019119982,0.019820007,-0.07442459,-0.061768677,-0.0011254919,-0.03948392,0.11823384,0.026349083,0.014523195,0.103411324,0.12154379,0.11592044,-0.14426552,-0.13425642,0.0688275,-0.009251244,-0.012757464,0.035055373,0.024007823,0.03191789,0.01031058,-0.0360367,0.08605086,-0.020434616,-0.03212838,0.030355249,0.11562924,-0.018626476,0.051930953,0.06693955,-0.13824587,-0.13691622,-0.06484198,0.13085707,-0.022673521,-0.056269653,0.020617725,0.036977157,-0.10116297,0.085252926,0.08103678,0.053257134,-0.023714554,-0.06395688,-0.14024895,0.044579763,0.14380905,-0.010839473,-0.13552967,-0.081976205,0.028696386,-0.11785624,-0.12716293,0.03396568,-0.0604636,0.0073238197,-0.029048324,0.13782719,-0.12552594,0.13506277,-0.004249669,-0.14144045,0.0057459855,-0.12865867,-0.07392453,-0.10137419,0.105711155,0.13394761,-0.07040489,0.04219444,0.061858796,0.0049104365,-0.08000896,-0.07374166,0.0552409,0.027648902,-0.013257777,0.028611163,0.12320488,0.07018392,-0.056592334,-0.06106002},
	{-0.045756266,0.08300196,-0.14792001,-0.14180474,-0.060825124,-0.0759172,0.13495055,-0.08743948,0.044079058,0.071658656,-0.03188508,0.07852401,-0.08280515,-0.12059759,-0.038062118,-0.062215827,-0.05875242,-0.0895358,-0.13071008,-0.031425394,-0.004350133,0.088767715,0.06123875,0.019209253,0.12401178,0.13537973,-0.011816025,-0.05573377,-0.033979725,0.105821185,-0.021610476,-0.14808075,0.107095875,0.022426363,-0.0714821,-0.025695838,0.023011243,0.1413059,0.10596014,0.038307596,0.045368567,-0.012742385,0.13429701,0.039710145,0.027525786,0.006926658,0.11329409,-0.06906359,0.04007055,0.10907527,0.037219293,-0.12090787,0.13377893,-0.009537705,0.05994673,0.047190707,0.071022324,-0.04125638,-0.10087931,0.14166088,0.024651555,0.14625598,0.07232862,-0.14526352,-0.008151113,-0.045190703,0.10467111,0.09350898,0.13119522,0.059383348,0.14565672,-0.116077796,0.11039031,0.07346971,0.024973901,-0.10884012,-0.13428164,0.029485693,-0.12685516,-0.04681188,0.10801275,0.10690601,0.035075545,0.06273876,0.13244188,0.10181554,0.035681963,-0.08446282,0.07234617,0.1430513,-0.03842903,-0.132949,-0.02545041,-0.10029803,-0.07037761,-0.14420347,-0.031723913,-0.017887736,0.007419959,0.06804687},
	{-0.051454034,-0.019795058,-0.019830339,-0.06432123,-0.05397469,0.02402349,0.09110142,0.09669278,-0.10021794,0.11498473,-0.042912196,0.004097762,0.04269841,0.0336538,0.012793991,0.091612026,0.10572442,0.0921018,-0.088855214,-0.02956018,0.066882074,0.005978336,-0.019816518,-0.052423168,0.025248673,-0.08136745,0.11066012,-0.10920608,0.14086445,0.04730437,-0.09385241,-0.04262933,0.028291263,-0.04427881,0.04227678,-0.06409506,-0.09653359,-0.049900543,0.08733401,0.045986433,0.016789945,0.057805635,-0.034192752,0.14452785,-0.07573233,-0.03396259,0.084403515,-0.08011475,-0.054652937,-0.07004675,-0.081883475,0.09405237,0.1011523,0.06940442,-0.026567329,0.028081767,0.09817842,0.11636888,-0.108438194,-0.04269231,-0.09131281,-0.060713746,-0.030976273,0.09279585,-0.10823694,0.06901493,0.0794224,-0.07341783,-0.053914975,0.0499322,-0.081114724,-0.027966388,0.03069104,0.108718514,-0.07187451,-0.1299532,0.07390991,0.14182083,-0.10236757,-0.13832235,0.009280229,0.06940771,0.08517595,-0.0030548358,0.1408986,-0.017350646,-0.026316045,0.114559904,-0.14198893,0.025818005,0.111105084,-0.06438596,-0.12467216,0.12793764,0.03330547,0.11190561,0.093443535,-0.10312496,-0.12852074,0.014781483},
	{0.12049923,0.12122074,-0.03371544,0.09314879,0.12584409,-0.056340396,-0.12297772,0.09211289,0.0052689486,0.05792904,0.037494067,-0.004079419,0.012184956,-0.081611685,0.09265069,0.13890556,0.03734187,0.13288034,-0.14744617,0.13761191,0.13497983,0.07354772,0.07919234,-0.115678936,-0.00019360383,-0.11557792,0.09972549,-0.01762754,0.09336975,0.063213184,-0.068362325,-0.05464399,0.10098332,0.0054540117,0.07391112,-0.031902343,-0.078271955,0.118054695,0.00095383,0.024309728,0.07544027,0.0100429095,0.058827598,0.040297326,-0.13271528,0.077509925,0.13626628,-0.12401051,0.008680597,-0.05892791,0.06021493,-0.016885854,0.12927204,-0.1289514,-0.00056925387,0.11751796,-0.0068856655,0.06402875,-0.07679272,0.103752725,-0.11511136,-0.03554143,0.030474648,0.10237445,0.10539934,0.089692645,-0.083279975,0.06263359,-0.07972033,-0.08813424,-0.028311566,0.13282514,-0.08065972,0.03204089,-0.07873498,0.050316703,-0.06327727,0.0046806573,-0.08101778,-0.10281506,-0.09551335,0.011217106,0.07698414,-0.0434032,0.11501224,-0.0327942,-0.13036291,-0.0012382464,0.107322,0.041695647,0.02814157,-0.14850493,-0.035447136,0.08029799,-0.03634268,-0.09924815,0.04026994,0.11974451,-0.0687276,-0.07418728},
	{-0.0013340887,-0.14090571,0.050718866,-0.030023823,-0.15210785,-0.09821924,0.05209495,-0.005257761,0.1040567,0.052651364,-0.05491239,0.0030125352,-0.104854256,-0.027432792,-0.15173745,0.002242915,-0.117702775,-0.06782707,-0.007421792,0.13916032,0.0131998565,0.09990406,-0.07176291,0.14424856,0.12741691,0.11016273,-0.14830373,-0.00012933131,0.0928633,0.12442871,0.06710711,-0.054924835,0.03233569,0.10712477,-0.124734126,0.016484093,-0.00024206025,-0.054098353,-0.07610825,-0.08761265,-0.14629108,0.09667144,-0.08163822,-0.11234024,0.04570099,-0.029670838,0.09596828,0.079512954,-0.014931746,-0.057153895,-0.0052290517,0.039157115,-0.06905866,-0.1387451,-0.04947966,-0.072903164,0.025482483,0.1228036,0.07584183,0.09546932,-0.070822075,-0.08267901,-0.05053647,-0.06905102,-0.13318981,0.03194032,-0.10133546,-0.08333651,0.065415844,0.08543518,0.09715624,0.046207853,-0.012703089,-0.03676711,-0.1536688,-0.045557965,0.0048796376,0.0703546,-0.15157603,0.06423999,-0.018757502,0.06686252,-0.06862927,0.11078982,-0.098631114,0.13768402,0.08612228,0.04198765,0.025547994,-0.03380251,0.12552562,0.0041976348,0.09798558,-0.00671486,-0.09208679,-0.040571764,0.033566333,0.13007422,-0.09127666,-0.11261676},
	{0.08253369,0.07156053,-0.0053563854,-0.14783257,-0.12579066,0.14015265,-0.13470368,-0.11959603,0.016595941,0.09107676,-0.14583981,-0.038911253,-0.09353644,0.14209156,0.10510256,-0.027924525,0.040646363,-0.08708568,-0.030737178,-0.009955877,-0.09430281,-0.13205653,-0.092617415,0.090677954,0.081367925,0.087430276,-0.12127861,-0.008520289,-0.029474096,-0.10090052,0.13216473,-0.12921399,-0.009967078,0.09318361,-0.051232044,-0.004868836,-0.12314286,-0.13358392,0.13876013,-0.09594259,0.097636364,-0.03353399,-0.023172675,-0.05913869,-0.087075606,0.09911187,0.05525519,-0.07128576,-0.090557724,-0.033295564,-0.10807363,-0.008669284,0.04638125,0.13028355,0.0773412,-0.068905026,-0.065781444,-0.08768372,-0.15199922,-0.019695273,-0.0901622,-0.054563332,-0.13741866,-0.0010214832,0.1313546,-0.107784115,-0.14047079,0.020279998,0.021380413,-0.042564023,0.019967001,0.0795441,-0.02761422,0.06269463,0.06522334,-0.12211527,-0.05553144,0.06784662,0.082926445,-0.0875951,0.10669564,-0.11948459,0.02207924,-0.007112292,0.12263911,-0.0055327937,0.1020834,0.12623778,0.0023524696,-0.022783045,-0.077126406,0.100019276,-0.12739459,-0.004948136,-0.020625101,0.11907397,-0.13532469,-0.045561243,0.07133958,0.10063605},
	{-0.030884162,0.030181982,0.040149424,-0.03163256,0.085468605,-0.022809472,-0.12144652,0.087261885,0.13078351,0.04869311,-0.010961807,-0.020561576,0.010296221,-0.12458846,0.021746084,-0.13581055,0.013097285,-0.08772135,-0.13838314,-0.0651428,-0.05723198,-0.09212013,0.10939602,0.0742909,0.038012672,0.04668933,-0.0060172807,-0.015516014,-0.12737918,0.117176384,0.11689537,0.07687018,-0.0004353036,0.0913235,0.03684411,-0.09677542,-0.14903446,0.09287311,-0.04499493,0.14626825,-0.121625245,0.01172577,0.050456647,-0.006530268,-0.05763352,0.010604389,-0.07453951,-0.10283473,0.08496033,0.04458259,0.08421542,-0.12330232,0.07127572,-0.09174895,0.032561645,-0.06019081,0.047056064,0.14605394,0.016116107,-0.111296825,0.040773124,-0.15106547,-0.031415466,-0.14887701,-0.12914044,0.03103618,0.030851059,-0.08936401,-0.07058595,-0.048997156,0.10374117,0.050872095,-0.093463995,0.09414415,0.0021778871,-0.123113506,-0.007344691,0.13271753,0.11365257,0.14505428,0.03953649,-0.07579624,0.13509093,0.09526336,0.052929744,-0.053631023,-0.05225601,-0.025066651,0.07684553,-0.052974187,0.09181375,0.050693482,-0.066627026,-0.14627668,0.14604135,0.13077328,-0.12154865,0.07193332,-0.09265531,-0.13365747},
	{0.0076408675,0.027177311,-0.13113393,0.07795868,0.061423,0.029875394,0.03786762,-0.04385028,0.11849925,0.068831265,0.09532457,-0.109937176,-0.13914908,0.053880595,0.012015899,0.035049845,0.0088605955,0.13502118,-0.072362475,-0.0146895945,0.04575296,0.14134322,0.024586441,-0.03271059,0.015538876,0.08853812,0.12367182,-0.060289696,-0.14253557,-0.076805785,0.043569673,-0.01858811,0.10668155,-0.116674505,-0.076255836,-0.08728851,-0.15741836,0.012963475,-1.6415317e-05,0.073917,-0.026287502,-0.08532647,-0.10100786,-0.14813727,-0.14516929,-0.048311293,0.07624222,-0.06272464,0.067735426,0.014181223,0.008111193,-0.08197664,-0.066896684,-0.13257453,0.04768125,0.018320216,0.046225067,-0.1558277,-0.06489035,0.0071220226,-0.04126997,0.047302317,-0.15242355,0.024672747,-0.025512833,0.13308631,-0.0034544,-0.023209127,0.0776042,-0.008506858,0.14334232,0.111449994,-0.07124328,-0.10735105,0.055886753,-0.121457264,-0.113864705,-0.13181399,0.05152849,0.023030424,0.064339526,0.09016704,-0.07239781,0.08930989,0.11554568,-0.07654783,-0.117074646,-0.107623965,-0.021061178,0.029540733,-0.083938144,0.028523212,0.013480674,-0.010450249,-0.030021764,-0.07759628,-0.13487522,0.03312817,0.0045019407,0.1301508},
	{-0.1492081,0.060710188,0.0112587735,-0.0882142,0.14222667,-0.018711993,-0.044743635,-0.0009625468,0.110431015,0.057060853,-0.078059286,0.07618771,0.0070312414,-0.010236877,-0.04210123,0.12077796,-0.0116970455,-0.0005253876,0.09087259,-0.12080326,-0.084168404,-0.12622721,-0.0696611,0.067640245,-0.03773489,-0.031368803,-0.05976673,0.11808773,-0.10299611,-0.11460971,-0.051000435,0.04162262,-0.13221675,-0.105493665,-0.11542638,0.037328966,-0.09771692,-0.028803973,-0.08046239,-0.021637183,-0.08604437,-0.10104839,-0.043889202,0.11518403,0.13462263,0.061468884,-0.0016163936,-0.11251593,0.029131815,0.14695467,0.0067218393,0.022532051,-0.12116446,-0.1403353,0.03224604,0.03328091,-0.10553184,0.053067382,0.004309994,-0.019138265,0.041865714,-0.09484984,0.041132174,-0.025400007,0.007936518,-0.13976085,-0.10809162,0.09425262,-0.022893019,0.039138574,-0.12594591,-0.10916177,-0.0014537958,0.077560104,-0.04544469,0.021838127,0.060321722,0.04304628,0.10245809,0.051916096,-0.022501802,0.00070077105,0.07846031,-0.025459424,-0.120658584,-0.02028151,-5.4670963e-06,0.02221595,0.12958023,-0.02987009,-0.026948001,0.013068951,0.03848854,0.10658606,-0.07001892,-0.0021884453,-0.05482596,-0.1113291,-0.097590566,-0.07834997},
	{-0.0026303153,0.05870752,-0.0579956,0.012302553,-0.054455496,0.049763873,-0.015413526,0.023941413,-0.08669499,0.011959742,-0.103225216,0.10425874,0.03645955,-0.11523489,-0.10404966,-0.08446159,0.01235199,0.024557743,-0.14637353,-0.06677863,-0.14805779,0.07612162,-0.053334378,0.1449708,-0.04551003,0.019399472,0.044447385,-0.08829697,-0.14153509,-0.13820465,-0.06025602,0.01628652,0.030770179,0.072672926,-0.021949366,-0.13946526,-0.0812079,0.02690578,0.13189799,0.0930501,0.013271904,-0.0017583134,-0.043181956,-0.08159326,-0.07551036,-0.020551922,-0.014095147,-0.13535663,0.058483362,0.011510208,-0.057673357,-0.0006780678,-0.017538507,-0.11537416,-0.0024735518,-0.1223188,0.06318821,-0.013105254,0.06662647,-0.026045755,0.10956679,0.013640769,0.07208549,-0.11196152,0.03664749,-0.02034381,-0.14167881,0.11151524,0.14955118,0.052865967,-0.05082885,-0.14926161,0.12435385,0.018486518,-0.10752377,-0.12344931,-0.13793558,-0.11937284,0.123523325,-0.13159107,0.055382628,0.068362184,0.13888192,-0.036358025,0.091485664,0.12936725,0.042162906,-0.14869688,0.009379489,-0.055211563,0.13994823,-0.1404144,0.120293185,-0.13073038,-0.046514094,-0.06976637,0.0006987554,0.027605852,-0.006458535,-0.069513254},
	{-0.13592187,-0.051169693,0.100001335,-0.01230032,0.07961951,-0.078143276,0.13136762,0.0023310753,-0.14120208,0.021767365,-0.13423859,0.080354005,-0.042186882,0.0404967,-0.041205496,0.04085327,-0.015438722,-0.14150058,0.097066775,-0.06625606,-0.12781627,0.057961095,-0.10305824,0.0127129685,-0.050410353,-0.10736074,-0.13360587,0.016515058,0.036134392,0.037029743,0.12247653,-0.03178939,0.11998149,0.09615815,-0.16015215,0.04064055,0.02660469,-0.03436121,0.017611574,-0.063099325,-0.038491886,0.0723868,-0.04451917,-0.12113949,0.03337768,-0.14313567,0.054942224,-0.022580024,-0.13413884,0.09590599,0.044561673,-0.016470905,0.017518431,-0.10465616,-0.012612763,-0.104953356,0.05465257,0.14009131,-0.1517612,-0.14228079,0.0071741575,0.103498206,0.11502446,-0.026665157,0.061747283,-0.119608924,0.057876285,0.075374514,-0.0012700991,-0.122192204,0.068775706,-0.101239756,0.017727358,-0.1381776,-0.12679213,0.08252021,-0.11573714,-0.13795987,0.088285744,0.13644882,-0.13737555,0.01518549,0.07825224,-0.0124790585,-0.14519957,-0.07794427,-0.07596439,0.11690586,0.105245516,-0.05920745,-0.11818022,0.119166814,-0.06814611,0.011133272,0.046257492,0.03248393,0.029740257,-0.035553787,-0.1557826,0.015126836},
	{0.13115774,0.0023179764,0.078092545,0.030473568,-0.0403111,-0.05641994,0.03304967,0.004528431,0.13895604,0.13310663,0.07732036,-0.03200081,-0.09750244,0.13377708,0.027337682,0.13484092,0.14669876,0.053418763,0.12511861,0.050263844,0.09304867,-0.00063200324,0.066434704,0.026705427,-0.0011988501,0.028227687,-0.078328125,-0.062246755,0.081422314,-0.08444078,-0.023487693,-0.14408925,0.011132372,0.14244735,0.07873132,-0.04698713,0.051418204,0.12565228,0.033084452,-0.023836179,0.012486914,0.048580427,-0.14025562,-0.0823935,-0.10010363,0.119634375,0.06752406,-0.09817783,-0.07137578,-0.10602831,-0.108568326,-0.107534915,-0.12291403,-0.10813127,-0.07610336,-0.003850707,-0.07794989,0.12359749,-0.0042932224,-0.09264578,0.0930169,0.041269615,0.013803187,-0.115065195,0.122795604,-0.056629807,0.077263206,0.03206388,-0.03012452,0.12645441,-0.11689481,0.08641041,-0.054132108,-0.08254378,-0.057152845,-0.09646758,0.088926144,0.051951308,0.06608913,0.035713587,0.13616806,-0.105208375,0.004418494,0.028697038,-0.10121452,0.021456666,0.13498265,0.07555569,0.05709077,-0.10656869,-0.11260868,0.014940981,0.038094413,0.09734778,-0.07235889,0.075976804,-0.10884867,0.1324698,-0.0883945,-0.14310591},
	{0.049634535,0.0012285782,-0.07533763,0.020721173,-0.15647648,0.11359561,-0.10451026,0.11698268,0.104176074,0.0126407435,-0.12593056,-0.08059029,0.016158268,-0.0039077443,-0.08809455,0.0027610478,-0.13057207,-0.12427056,-0.09318529,-0.08327383,0.12624395,-0.09359752,-0.016085608,-0.093650006,0.008940056,0.07650029,-0.10327313,-0.12000772,-0.14174728,0.011725754,-0.10097974,-0.13803914,-0.113152854,0.028937493,-0.09304971,-0.072296716,0.02921416,0.1166569,-0.13019338,-0.04659034,0.08815398,0.13091479,0.08175438,-0.05442642,0.0211348,0.03277004,0.124063276,0.022017919,0.022212671,-0.029271817,0.030233089,-0.12906042,0.081020765,-0.06903298,-0.028245179,-0.052036148,-0.056113183,-0.12721826,-0.10188325,-0.07005419,-0.017175315,0.11822278,-0.04432797,0.11367582,0.014865299,0.12520806,0.13403466,0.075342365,0.032012556,0.08956092,0.03672445,-0.0618135,-0.04855968,-0.027462864,-0.018460501,-0.15989672,-0.105505936,-0.10291481,-0.1397293,-0.0028264464,-0.037093844,-0.1000981,0.05057539,0.110091604,0.0049453694,-0.043951742,0.043412965,0.059658,0.09691427,-0.101131,-0.037835065,-0.10435327,-0.0028491786,-0.14513856,0.08326825,-0.090261355,-0.0779355,-0.12522417,-0.0023241783,-0.029967954},
	{-0.040943943,0.10239664,0.099190325,0.1313748,-0.06836243,0.031105505,-0.10149388,-0.13002713,0.06650682,-0.14357185,-0.051569823,-0.14971195,-0.103210256,-0.08779585,-0.10091567,-0.08393509,0.10608825,-0.013659738,0.0032657771,-0.087178744,0.056974802,0.12286408,-0.03690042,-0.098300144,0.0035443176,-0.059204016,-0.0312607,0.026679121,-0.032527667,0.012722873,0.10140461,-0.03637101,-0.11524849,-0.06758766,-0.032896157,-0.05348212,0.108304806,0.053418033,-0.15243098,-0.070928544,-0.08522957,-0.013086592,-6.889738e-05,-0.00792419,0.06969735,0.06347415,0.0055358657,-0.008836389,-0.07594336,0.14424467,-0.018120378,0.134599,-0.12677534,-0.08156832,-0.07646903,-0.07405345,0.061550405,-0.12462416,0.09696935,0.11814362,-0.061962336,-0.05543476,0.02270721,0.019499047,-0.06829053,-0.15354872,0.09709246,0.0047542537,-0.02499734,-0.02202136,-0.14893028,-0.14807889,0.014791842,-0.103532895,-0.008929392,0.09191883,-0.1078079,0.06604768,-0.11267096,-0.057361025,0.12820256,0.09777857,0.0976352,0.045946497,0.113531046,0.13323966,-0.066244885,0.03629622,-0.08835938,-0.10741438,-0.14863051,-0.00629451,-0.006750803,0.009516552,-0.022393554,-0.12411901,-0.045373887,-0.029231826,0.11050617,0.07167008},
	{0.0051975646,-0.06583226,-0.15241474,-0.10244065,0.12266678,-0.03485593,-0.15716879,-0.052430067,-0.14746898,0.13482246,-0.080740176,-0.048819125,0.03259282,0.033419807,-0.11844572,-0.03354117,0.107526965,0.062639326,0.06188651,0.08861212,0.111955196,0.08168593,0.0026034,0.019031424,0.028575838,-0.08889661,-0.09103672,-0.0034531604,0.1128204,0.101162724,0.09718289,0.034391828,-0.14174786,-0.07821207,-0.012888632,0.09858441,0.04043249,-0.06478643,-0.11308894,-0.07385813,0.13502431,0.111878246,-0.1305167,0.026362553,0.091267854,-0.05534131,-0.07984261,0.07667148,-0.020292,0.047346633,-0.031689074,0.019176446,0.10829802,0.0041634915,0.06500566,-0.11955722,-0.111137025,-0.07323559,-0.14787497,0.030757284,-0.15274367,0.022487935,-0.02799724,0.05586958,-0.0060210596,-0.007665799,-0.061173588,0.1362138,-0.019387038,-0.1287382,0.09575527,0.073686406,-0.10515914,-0.08368158,-0.041289885,0.12041326,0.056383047,0.01086061,0.12433272,0.070904315,0.0406277,0.031368673,0.10630586,0.12270548,0.080232255,-0.06798739,0.060235467,0.00029178947,0.005944417,0.11832489,0.1134909,-0.1025355,-0.052266266,0.13416895,0.11425256,0.13757803,-0.07761204,-0.014759966,0.064046636,-0.10598589},
	{-0.01667385,-0.028740756,0.08297695,0.092430025,-0.0384191,-0.041632697,0.068835415,-0.057254374,0.060191322,0.088251166,0.04489935,0.118816994,0.052050732,0.01948853,-0.00655162,-0.044564437,-0.012053317,0.13002315,0.07248647,-0.07677504,-0.019425875,0.10610499,-0.007911532,-0.09040548,-0.08829938,0.07286588,0.13121559,-0.10481222,-0.08705817,0.11817546,0.1456739,-0.041400947,0.0057332353,-0.13841115,0.12045449,0.09743616,0.022172268,0.005429497,0.015081052,-0.060382217,0.10299249,-0.0996147,-0.12094176,0.06851388,-0.14744768,-0.086261705,-0.13250765,0.11221948,0.041763872,-0.11417596,0.108228505,-0.023289137,0.007467105,-0.09169799,-0.033212192,-0.12287194,-0.046321016,0.049926907,0.10786222,-0.020002339,-0.12284765,0.02118643,-0.021701757,0.052593365,0.11802327,-0.108075894,-0.140902,-0.06677458,0.039138682,-0.13974208,0.13093865,-0.10705612,0.04220192,0.049861144,0.06266246,0.049185704,-0.069168665,0.10060161,-0.002095204,-0.11671497,0.13165106,-0.08559256,-0.115927674,0.14058587,-0.07751341,-0.055398814,-0.011735264,0.13485971,0.035647605,0.05179913,0.011101222,-0.08017716,0.017317517,-0.12452064,-0.0050513824,-0.068267465,0.13192637,0.021075713,-0.06840179,0.016764017},
	{-0.009864894,0.052760687,0.13241154,-0.032221083,0.07623492,0.005764793,0.079574384,-0.04009669,-0.0014559213,-0.13855875,0.11476695,-0.006926454,-0.1312032,-0.06533056,-0.14761968,0.07042146,-0.08586503,0.057578955,0.061896726,0.062988386,-0.051963706,-0.1293312,0.1264199,0.054753263,-0.09563397,0.020849222,0.13828555,0.009864144,0.06288818,-0.13423216,-0.14403395,-0.1049499,0.02950919,-0.09615814,0.14742364,0.14104624,0.04174168,-0.104125604,0.03989958,0.060596135,0.016183374,0.124934494,-0.13824232,-0.016245887,-0.048414994,0.14197057,-0.067423366,-0.1297718,-0.1289015,-0.11963359,-0.1243878,0.114405505,0.0027352697,-0.0033378482,0.083814606,-0.11804231,0.017069947,-0.06211084,-0.07370212,0.11942551,0.0719673,-0.032980546,-0.12157693,0.06029237,0.13281687,-0.08277202,0.058709953,-0.092420444,-0.035411894,0.07617103,-0.14019175,0.034440354,0.14737405,0.09928269,0.0023924806,0.14514562,-0.0041381908,0.10143,-0.14610448,-0.116459586,-0.088469505,0.015823448,-0.056558426,0.07947352,-0.111502826,0.11322383,0.0074796057,0.054567665,0.118897624,0.1457404,-0.12762202,0.041838028,-0.031638496,-0.10604423,0.10801415,-0.096980214,-0.008200906,0.1149413,-0.12836647,-0.024455486},
	{-0.02482004,-0.03512238,0.13809204,0.11980179,-0.047841836,-0.1369361,0.036392298,-0.14436834,-0.12466943,-0.0684541,0.10106279,0.11626539,0.12180337,0.13074695,-0.0060734157,0.04065313,-0.059124243,0.094485894,-0.1133024,-0.1444579,0.11327696,-0.14456359,-0.1490736,0.083080515,0.09537302,-0.12986329,-0.094658546,0.13615261,0.05776257,0.11914937,-0.060906094,-0.08463703,-0.060625937,0.035817027,-0.1548928,-0.026306914,-0.089467965,-0.08500559,-0.14087294,-0.07094942,-0.088766016,0.04264763,0.07972824,-0.14600818,0.041675717,0.11812189,-0.07036837,0.03206996,-0.11190038,0.0029654321,0.104589,-0.056409646,-0.014887379,0.041965462,-0.054053713,0.055371635,0.07690577,-0.023473848,0.035967655,0.08767399,-0.047573723,-0.12477418,0.09434922,-0.1065863,-0.0108047705,0.05355711,0.014761353,-0.038763408,0.10068793,0.116948955,-0.009337042,-0.04102334,0.07908184,-0.036629204,0.11219965,-0.074821934,0.07173373,-0.14880688,0.07442708,-0.12970117,-0.08779153,0.0955866,0.0768124,0.022267343,0.09848187,0.014839069,-0.044510663,-0.11485733,-0.03284533,-0.031646587,-0.04779316,-0.044589,-0.09134848,-0.04209392,0.07666549,0.04662328,0.02888127,0.024698896,0.05661527,0.05368271},
	{-0.0072602625,0.11219549,-0.07215972,-0.055544708,0.1289374,0.076081485,-0.039096873,-0.06117386,0.052170306,0.11512302,-0.037816815,0.0076766307,-0.08275183,-0.11981101,-0.10995349,0.034697037,-0.014243013,0.121996745,-0.11426166,0.13416614,-0.0704268,-0.06896109,-0.057701815,-0.0754128,-0.14554518,-0.102479726,-0.14805712,0.062686644,0.018599791,-0.03463148,0.14252998,-0.01902974,0.10212826,-0.066869155,-0.036753785,0.13377541,0.09733583,0.0115416385,-0.107274696,-0.14263263,-0.00809758,0.12934014,0.035919175,-0.036561433,-0.11442881,-0.05981459,-0.03956964,-0.11125484,0.028730415,0.08341237,0.10612842,-0.12653245,0.14714397,0.04055952,0.09186557,-0.052680228,0.13626416,-0.0903302,0.13811018,-0.043440063,-0.120668046,-0.09611482,0.12269635,-0.11226305,-0.060309745,0.057221834,0.11491504,0.07776824,0.037131187,0.048115324,0.043252796,0.09438409,0.14327687,0.03743551,0.06799131,0.06772596,-0.046597723,0.09676221,0.07516854,0.01960563,0.05420511,-0.13153791,-0.093280576,0.10407766,0.107582025,-0.1265343,0.07403533,-0.078062356,-0.13585617,0.096739225,0.121176995,0.14120582,0.075006835,0.056054004,-0.07119275,0.090974614,-0.09716935,-0.02159627,0.1352876,-0.10786283},
	{0.1301728,-0.08505061,0.09707014,-0.06440813,0.087403364,0.12781245,-0.00022263832,0.08786312,0.035293013,-0.1417704,0.026936896,0.009212482,-0.111719035,-0.1255745,0.031593863,-0.039056208,-0.12455515,0.08268296,0.07020291,-0.09621925,-0.11134158,0.04269059,-0.072057955,-0.07625,0.113672055,0.05753993,0.08306126,-0.0387417,0.063831836,-0.12069083,-0.14183785,0.11745464,-0.12624563,0.09168734,0.12860057,0.012659715,-0.018083723,-0.05441066,0.05029734,0.093514025,0.13592571,0.10510443,-0.13741744,-0.151587,-0.12718643,0.054392125,-0.054489963,0.11498607,-0.047099832,-0.116358116,0.080809206,0.064587794,-0.097122,-0.13098177,-0.11757797,0.047085643,-0.109853536,0.04708612,0.10606558,0.051743664,0.055784702,0.03904648,-0.04775718,-0.045458782,-0.020496318,0.10194018,-0.13833874,0.09566394,-0.07520943,-0.020169439,-0.038817372,0.105569415,0.10970301,0.06870206,-0.009095129,-0.12344417,-0.014953275,0.12853165,-0.10798902,-0.05208143,-0.07117337,0.049082946,0.009060776,-0.13875714,0.09509535,-0.14829433,0.0817557,0.015706632,0.10822924,-0.13587594,0.11221218,-0.10695334,0.109769784,0.032149244,-0.11038303,0.13018626,-0.085501924,0.11423757,0.03608181,0.10004434},
	{0.111555085,-0.05546852,0.09716335,0.035763483,0.13196124,0.1236119,-0.14870615,0.017550858,-0.08533157,-0.14156997,0.05547305,0.053200357,-0.14119439,0.062968574,-0.10278376,0.13588239,-0.020292208,0.022446081,-0.065128595,-0.10457662,-0.14609675,-0.13273019,0.009806647,-0.09605803,-0.02680666,-0.1461935,0.089430615,0.045360625,-0.014009515,-0.081261896,0.089044146,0.08237465,0.047010627,0.110423066,0.03493541,-0.12824933,-0.106133915,0.13617253,-0.040875487,-0.123712756,0.08684453,-0.13067913,0.07261596,0.123840675,-0.10509241,-0.13880245,0.05220821,0.123526834,-0.061334737,-0.15697923,0.020054834,0.08440334,0.07934394,0.085672356,0.02762745,0.0075124516,0.044963732,0.11478869,-0.11254359,-0.07908226,-0.14335032,0.01613298,0.019871814,-0.019761194,-0.1177372,-0.035319217,0.015696736,0.12193082,-0.045866195,-0.11680067,0.012554826,0.07331858,0.08699516,-0.11143044,0.052096304,-0.022310896,0.054276243,-0.04379812,-0.10009112,0.0041270694,-0.034471102,-0.08849842,0.04556514,-0.029830128,0.13901845,-0.0214845,0.024751445,-0.15400821,-0.08728787,0.11597977,0.116607346,-0.07843547,0.102005325,0.029725337,-0.042707965,0.039196584,-0.1264662,-0.02815009,-0.046025075,0.00055437745},
	{0.054698333,-0.025209252,0.078485355,-0.06375642,-0.077458814,0.09596965,0.10433433,-0.10049385,-0.13267645,-0.112583354,0.10878294,0.10978146,0.12207281,-0.022031475,0.07948449,-0.087675266,-0.10161775,0.13667293,-0.15149169,0.10688399,-0.08173335,-0.14173387,-0.06731916,-0.10267614,0.07668708,0.04025055,0.04523142,0.09696298,-0.041933358,0.07507952,0.066045895,-0.069908604,-0.090178125,-0.113304034,-0.14881945,0.038776357,-0.104370214,-0.14893398,0.06833893,0.0995464,-0.004262721,0.08770059,-0.053991128,-0.13852257,-0.04094208,-0.08329144,0.022810677,-0.10879208,0.0064533995,-0.006359249,-0.1177951,-0.082641765,-0.15478612,0.047962856,-0.0746269,0.058286965,0.009792208,-0.041487373,-0.06522388,-0.1453578,0.04490786,-0.039155006,0.13681586,0.1084666,-0.1138962,-0.11310041,-0.11827004,0.027087608,0.09708202,-0.06789393,0.13218082,-0.097989134,-0.099299565,-0.06639498,-0.029837217,0.10255369,-0.11647723,0.083987474,-0.094129905,0.12828597,0.054369744,0.0036618633,0.014700978,-0.05530782,-0.10511201,0.09784179,0.05319383,0.09873223,0.038576156,-0.04524308,-0.12950227,0.028236339,-0.12321341,0.028839547,0.047270376,0.07985185,-0.12627354,0.12809743,-0.046767585,0.049832586},
	{-0.053439517,0.035652384,-0.14665979,0.020246636,-0.11745837,0.06924319,-0.10360265,-0.029979534,0.119799405,-0.064202584,-0.07851765,0.0036217305,0.14301011,0.009282583,-0.05280324,-0.08898777,0.056833223,0.12935098,-0.01725334,-0.13015,-0.07356719,0.023271376,0.07196989,0.1329989,-0.06897527,-0.045413684,-0.047573365,-0.052007053,0.12435215,-0.09629391,-0.041964315,0.13260797,0.10776001,0.12671335,-0.14252254,0.07229264,-0.022207016,0.036281716,-0.10967566,-0.07247548,0.09172343,0.06897801,-0.030671354,-0.15380509,0.01992317,0.092709154,0.110471435,0.10697759,-0.038471587,-0.03472831,-0.04494689,-0.0072335117,-0.027739016,-0.049749948,-0.058323525,-0.13721065,0.139949,-0.11461332,-0.01586525,-4.911208e-05,-0.09980626,0.082612514,-0.070002906,-0.14306943,0.028669616,-0.114863254,0.013553309,-0.045341212,-0.11710677,0.064996004,0.0770738,0.14319935,0.051809743,0.13780978,-0.13599436,0.03282309,0.038588554,-0.14828886,-0.13976403,-0.06724702,-0.113507375,-0.122511886,0.11524879,-0.006827139,0.14664364,0.012866751,0.051874485,-0.057687234,0.14165317,0.0040259464,0.0799002,-0.06320191,0.04927776,-0.11887053,-0.0040994426,0.11825115,-0.10818927,-0.12247139,0.13019818,0.060848963},
	{0.09963805,-0.049579687,0.1293039,0.038656916,0.12094247,0.049461443,-0.09150467,-0.007200117,0.033834983,0.007722638,0.011101571,-0.060796708,-0.059844807,-0.024448205,-0.0076757013,0.067192115,-0.03948935,-0.11105128,0.112211026,-0.04666474,-0.08255366,-0.11441783,-0.03630714,0.015373909,-0.063342705,-0.15082587,0.048577134,0.13546032,-0.07167546,0.014562637,-0.1288284,0.12392272,-0.006931019,0.09949539,-0.13671161,0.00729599,-0.10622687,-0.045873027,0.028545227,0.069953464,-0.08445831,-0.15372871,-0.036542118,0.063435934,-0.13687164,-0.0021049017,0.06375252,0.08193289,0.025884666,0.021559758,-0.018169604,0.08161672,-0.039597046,0.102900386,-0.0063036876,0.003906416,0.11436634,-0.02892346,-0.03812607,0.063643135,-0.06918637,0.1052894,0.0762219,-0.13257766,-0.07507198,-0.036240812,-0.056618012,0.10223681,-0.0872989,0.10821039,-0.028333066,-0.020387504,-0.09146766,-0.047642175,-0.15056503,-0.070940316,-0.08207257,0.0055226195,0.09607498,-0.06672932,0.12382807,-0.13420267,0.044964246,-0.07832335,0.1020462,0.10190027,0.024953669,0.13370027,0.06604316,0.114102475,0.038546916,0.028574796,-0.12421747,-0.095168374,0.076663055,0.060883157,0.03949585,0.023172922,-0.06145331,-0.14809011},
	{-0.029364035,0.1423378,-0.08731182,-0.14325766,0.09387046,-0.14955218,0.021605426,0.12852903,0.08665851,0.1339463,-0.032880053,0.10880885,-0.010194712,0.11459609,-0.10233013,-0.11990059,-0.115051955,-0.05806171,-0.033925403,0.11313859,0.120403044,0.027327282,-0.12290078,0.064790584,-0.055767313,0.011285882,-0.058127645,-0.04336966,-0.07320732,0.09092839,0.032468002,0.069142774,0.12563309,-0.087243296,-0.11951864,0.12046014,0.00015249744,0.034648538,-0.057026047,-0.010708303,0.06537345,0.043832395,0.071884595,0.08200762,0.071363114,-0.120527424,0.119153515,0.117675826,-0.10790355,0.10748873,-0.11088029,0.017839182,0.020047953,0.12577587,-0.017380552,-0.004166443,-0.14627403,-0.00090032414,0.049508445,0.04070972,0.03143456,-0.15177855,0.011788052,0.060844954,0.14150241,-0.10840319,0.0404668,0.12237093,-0.1408639,-0.064486705,-0.027748037,0.12195122,-0.0942577,-0.13631986,0.06742231,0.10643374,0.06294756,0.1342825,0.061968546,-0.14412071,0.017457826,0.1030028,-0.07473507,-0.115262374,0.042056546,-0.06115269,0.10786407,0.04447927,0.03781579,0.1008412,-0.11686367,0.120469294,0.0045031477,-0.11589196,-0.013826701,-0.14755061,0.10331966,0.06646027,-0.105233096,-0.12398726},
	{-0.0607246,0.08751924,-0.0946097,0.0079543,-0.029752301,0.08624598,0.118550345,0.059900623,-0.039100207,0.052254103,-0.032072183,-0.08260917,0.0035865942,-0.06237125,0.047344755,0.13190374,-0.05374032,0.07222366,-0.031149348,-0.08315987,-0.07594001,0.0815628,-0.064621165,-0.030536892,-0.022061188,-0.09956657,-0.009554479,0.14172879,0.09430745,-0.07186781,-0.11378518,0.09885816,-0.02387108,-0.06993012,0.08921892,0.09012745,-0.07853598,0.052986953,-0.031791937,0.11624569,0.12869792,-0.13872722,0.13562171,-0.0779142,-0.04149515,0.12005526,-0.070840195,0.036726493,-0.10657265,-0.102875486,-0.100671604,-0.10444313,-0.14950933,-0.048184153,-0.055145774,0.110495165,0.11348727,-0.045302443,-0.08031072,0.09467919,-0.009432073,0.049406808,0.02502729,0.110883825,-0.032915402,0.042712197,-0.009675009,-0.042763084,-0.063988574,-0.088885345,-0.037918784,0.14123784,0.06264796,0.1047796,-0.02937887,-0.08670036,0.10143687,0.0890506,0.01897483,-0.13455749,0.050582975,0.10582984,-0.037848685,0.13815542,-0.022459047,-0.054039653,0.093902096,-0.02516772,0.08908555,0.080723524,0.06361012,0.11058956,-0.105253175,-0.06873816,0.123296425,0.020251025,0.086687095,0.084408164,0.0682326,-0.074806735},
	{0.022053344,-0.0056711906,0.04865179,-0.08194087,-0.13647208,-0.10295227,-0.010865694,0.08660297,0.1060707,0.03427697,0.026015176,-0.07878462,-0.06211517,-0.08642384,-0.071338005,-0.0226074,-0.12353279,-0.04969062,0.13164684,0.08994319,-0.09334123,-0.047798637,-0.04375257,-0.11708885,-0.0666402,-0.022955779,0.056386977,0.1370803,0.06767571,-0.020283045,0.031322338,-0.040983316,-0.13239075,-0.056553174,-0.13515751,0.06291209,-0.087071575,0.06690361,-0.12342146,0.0524255,-0.0390036,0.060973134,-0.014214484,0.123413384,0.0010876488,-0.08585912,-0.005717316,0.047997594,0.023784118,-0.12555166,-0.07589939,0.14044988,0.05560567,0.103268564,0.058244392,0.039263695,0.007242091,0.027437143,-0.008064566,0.034395285,-0.12502082,0.04924749,-0.04751024,-0.003847955,-0.10948523,0.11379373,0.14514807,0.108752765,0.11651842,0.07587304,0.115420066,-0.018247245,-0.021524034,-0.12274829,-0.089220144,-0.113622725,0.05687325,-0.015544255,0.072847374,-0.1476043,0.113805085,-0.113629535,-0.0023450386,0.005723582,0.065672144,-0.10281598,-0.032239657,0.09971279,-0.066224165,0.02694365,-0.0785065,-0.1250379,0.00036368443,0.027573837,-0.11468123,0.07266545,-0.12387506,-0.008038958,0.02256596,-0.106237665},
	{-0.052128118,0.07384093,-0.12568127,0.11193551,0.0497453,-0.043763004,-0.067966685,0.03278041,0.10452701,0.053112373,0.0003690276,0.095054805,-0.060882498,0.106524654,-0.15640041,0.11894369,0.10943738,0.056510128,-0.13271159,-0.078129254,-0.0137212025,0.047986444,-0.08522389,-0.024051988,0.13160379,-0.111433536,0.065574504,0.072923765,0.029351093,0.04909331,0.070174,0.09572948,-0.101099245,0.012356922,0.030986656,-0.006947064,-0.050309207,-0.02223756,-0.014459534,-0.018545114,-0.009335368,-0.14710645,0.13384941,-0.111994326,0.008267074,-0.11252658,-0.14461921,-0.094213575,-0.061706666,0.062382232,-0.065181665,-0.06666785,-0.14279962,-0.118375495,-0.14493226,-0.09482193,0.05485765,0.027524874,0.11834005,0.037703738,-0.060539648,0.047939338,-0.01978068,-0.021669634,0.12948655,0.0726857,-0.04443589,0.025737498,0.096987575,-0.031731386,0.056654233,0.0803702,0.042971715,0.103533566,0.13947436,-0.0069570746,-0.14151019,-0.0034063512,0.037869256,0.106803045,0.09275794,-0.15710339,-0.07601952,0.10512772,-0.11481683,0.11966533,-0.029744836,0.09751405,-0.12851806,-0.101362854,-0.047077645,0.0052583762,-0.13956243,-0.1140721,-0.028224591,-0.0629156,0.03014898,0.04740216,0.02102613,-0.082764186},
	{0.1098277,-0.08354295,-0.10496696,-0.067650415,-0.06926492,0.012433905,-0.010721818,-0.07193221,0.094196506,-0.119035676,-0.1159034,0.0573775,0.107223414,-0.06453468,0.084928945,-0.1115349,-0.07269957,-0.11577336,-0.03195988,-0.1541117,-0.15301017,0.097467154,-0.13178368,-0.11264441,-0.1424638,0.099290386,-0.11043737,-0.052059326,-0.09655358,0.013094962,0.04054052,0.041703608,0.06525786,0.0834446,0.049463842,0.023378205,0.07103249,-0.09462526,-0.11601288,-0.08282469,-0.046503365,0.026810111,0.0265179,-0.036167152,-0.10109649,-0.079033956,0.0970608,-0.040260665,-0.04735883,-0.07761637,-0.12455404,0.08724046,0.13758218,0.006354794,-0.05853335,0.12868097,-0.016088327,-0.09219841,0.084931836,-0.11566033,-0.05948452,-0.08213708,-0.058253326,-0.061762635,-0.103129834,-0.08938841,-0.11754606,0.06832522,-0.07925907,-0.109482795,0.060583577,-0.036118247,0.12561378,-0.1322636,-0.14928387,-0.048540913,0.036289334,-0.15194325,-0.1591331,-0.07707533,0.11673343,-0.07546444,0.12768562,0.072616205,-0.023404378,0.11966941,0.04333138,0.08422728,-0.09318797,0.036037628,0.0913515,-0.12728332,-0.14205357,-0.12721446,-0.13791406,-0.13896723,-0.146701,-0.09636193,-0.04792706,-0.14927864},
	{0.038874283,-0.09873458,0.04909576,-0.12055127,-0.107949294,-0.11017262,-0.098411135,-0.09224865,0.06380536,0.10329425,-0.12505402,0.009893362,0.014383674,0.14005935,0.015441855,0.11917368,0.073460154,0.022326918,-0.05478499,-0.099189244,0.08764016,-0.03188661,0.14595589,-0.08299601,0.038121894,-0.1452569,-0.0054989774,0.07626261,-0.06662129,0.09955948,0.026157282,0.060943127,-0.0163716,0.12198968,0.10159066,-0.010883898,0.120009035,-0.0021066056,-0.11579422,-0.060361158,0.11644106,0.09301172,0.05143231,0.02825174,0.025157759,-0.028211253,0.00045952888,0.0025360894,0.13318396,0.12713705,-0.082923636,0.10604967,-0.05047768,0.016530773,-0.048841022,-0.04176827,-0.10119555,-0.0020769145,-0.09029068,-0.1458207,-0.03084388,0.0054400307,-0.13228196,-0.09033668,0.07478726,-0.11590354,-0.11229318,0.13891676,0.099520296,-0.1296221,0.051714506,0.10330113,-0.119286835,0.14170727,0.011328864,0.07560333,-0.0878145,0.11593169,-0.14312625,0.12948973,0.10208564,0.063461855,-0.042777687,0.11370709,-0.048522476,-0.11240584,0.070262454,-0.14383683,-0.1253377,0.046210088,-0.006845459,-0.10849841,0.0264664,-0.036984388,-0.11870267,0.03951412,-0.13158569,0.11332545,0.101811305,0.072247446},
	{0.13725066,-0.07995664,-0.07736605,-0.1454152,0.11415196,0.034958936,-0.16078709,-0.09762725,-0.022610126,0.10504727,-0.13155289,-0.14401609,0.06499037,-0.06220709,0.0906909,0.0009953792,0.09664937,0.006657796,-0.0737232,0.019583538,-0.022704486,-0.15095294,-0.15653557,-0.0073407423,-0.053330306,0.01708625,0.1395074,0.10039612,-0.14358553,0.03614999,-0.060508654,0.14761318,-0.025067568,-0.049307674,0.027234662,-0.08473986,0.101675145,0.10407281,-0.09186663,0.04813054,0.087928444,-0.128903,-0.1413466,-0.013417382,-0.08986375,0.13246372,-0.11341821,-0.14924017,0.096851446,-0.13518217,-0.08753172,0.0004042713,0.115044765,-0.14610869,0.02083224,-0.07193252,0.106506184,0.09262407,0.104646936,-0.064542405,-0.06490767,0.049644448,-0.0064918143,-0.12099124,-0.082709484,-0.04112384,0.13088992,-0.02375118,0.037471697,0.0040580505,0.055176966,0.04322499,-0.037985776,0.08274562,-0.11572679,0.06664579,0.13668746,0.043684054,-0.042180855,0.09910344,0.0002193079,0.0104398895,-0.0038390704,-0.14809342,-0.1051628,-0.15522943,-0.0975572,-0.03693922,0.099927954,-0.064690106,-0.15084556,0.006461471,-0.0043148734,-0.092327535,0.09977257,0.101883635,-0.011753218,0.14512023,-0.10795806,-0.12347387},
	{0.10800768,0.10376342,-0.014043372,-0.15170261,-0.10269391,-0.005071618,0.037105385,-0.13696389,0.10127412,0.12957944,-0.14814341,-0.07067628,0.07310772,-0.12671842,0.08444907,-0.13423769,0.09736926,-0.15148808,0.07480739,-0.004088452,0.01658013,0.08610186,0.11167882,-0.10459165,-0.06664038,0.14704111,0.07505574,0.090989105,0.12770683,0.013949161,0.001977046,-0.12987657,-0.028616294,-0.0019697498,-0.011636746,0.04141411,-0.035592806,-0.044027932,-0.110575974,-0.11007175,0.007851801,0.0073992396,0.04957907,0.1174748,0.12745592,0.083024114,-0.008421035,-0.04593703,0.07006318,0.09306257,0.11942901,0.07341909,-0.024568196,0.02175946,0.117614225,0.12772407,0.033920705,0.055140175,-0.00077613204,0.07319014,0.037386496,-0.004208656,-0.037913978,-0.06478913,-0.045828875,-0.13168664,0.009617404,-0.10676092,0.14218807,-0.05622258,-0.07237844,-0.0849,-0.14093581,-0.023079006,0.052264318,-0.14339864,-0.069519386,-0.13246632,0.1262824,-0.13843164,-0.06326783,-0.060243025,-0.01854227,-0.020495886,-0.058305267,0.030202564,-0.12004839,0.025303915,0.04329531,-0.00018213363,0.10849752,0.034824833,-0.005855172,0.11185865,0.1476134,-0.08649862,-0.12059424,0.07248332,-0.019336045,-0.099000126},
	{-0.089000285,0.042380437,-0.036709517,-0.02450217,0.021813525,-0.12358206,0.12206997,-0.002014307,-0.12114809,0.055501755,0.06999979,0.04046742,-0.121755905,0.04575695,-0.01738217,0.033798788,0.062348396,-0.13495637,-0.013220242,0.029203406,-0.12122209,0.028814243,-0.13650568,0.1216972,0.07844589,0.015459312,0.0345965,-0.016014215,-0.09107373,0.010503885,-0.107181184,0.098384686,0.120564744,-0.08281658,0.059334036,0.12263768,0.13110022,0.051626906,-0.053228844,-0.1061866,-0.13643219,-0.1236665,-0.12136408,0.10526919,0.08362653,0.0913359,-0.057091597,-0.024892012,0.019312225,-0.10211075,0.1054689,0.10839051,-0.049068484,-0.07868581,-0.049964886,-0.05080658,-0.010000773,-0.026303176,0.035634637,0.07189548,-0.14240116,0.12233145,-0.040020443,-0.14432392,-0.1280407,-0.09829923,-0.14817823,-0.030384619,0.14020036,0.04377252,0.054062188,-0.07208031,0.105151825,-0.041955747,-0.0042340057,0.1065845,0.0463388,0.122649215,-0.06941828,-0.091286026,0.021960173,-0.13578491,-0.0013906615,0.053814195,-0.14150633,-0.001738836,0.11881441,0.047866054,-0.1481702,-0.017797222,-0.11340957,-0.08634491,0.10130959,0.121948734,0.114500985,-0.11562386,-0.12841268,0.0034447883,-0.080110475,-0.12876427},
	{0.12088056,-0.12063745,-0.055041324,0.06326524,0.0987703,0.09630884,0.0729557,-0.059911564,0.13948786,0.12286615,0.13828626,0.058088157,-0.0017319821,0.05441726,0.11638032,-0.08489877,0.025202673,0.07232464,0.075857274,-0.06536571,-0.0051869047,-0.037533153,-0.13216572,-0.10412137,-0.033024184,0.12277396,-0.016235571,0.059679724,-0.11644149,0.12186015,-0.091626026,0.12512651,-0.07184347,0.07801485,0.011258288,-0.14067833,-0.11281106,0.099199824,0.008591005,0.13923068,0.097133584,0.007348528,0.10007078,0.11804319,-0.06420061,0.14089623,-0.04423923,-0.008881787,-0.044328425,0.06792894,-0.06515166,-0.106161505,-0.08940451,0.08208549,0.1381944,-0.09457193,-0.091619425,-0.012778044,0.010069878,0.14460723,0.06402773,-0.12699814,0.13579445,0.0907492,-0.109287255,0.13125917,-0.13745953,0.13539201,-0.06548546,-0.016250724,0.12595144,0.027262324,-0.13363603,-0.14701733,0.11568353,-0.121279,-0.04782053,0.026494773,0.12819338,-0.05074161,-0.018760314,0.10552478,-0.04960827,-0.09331342,-0.13263036,-0.12985922,0.1440676,0.0057750447,0.038072765,0.014150072,0.06211942,-0.08355436,-0.11247716,-0.013602803,-0.11473555,-0.14670365,-0.12030674,0.09017067,-0.0014400021,0.10765626},
	{0.006091544,0.03911325,0.009389732,0.060258873,-0.07286834,0.036186505,-0.020135911,-0.052233662,-0.09542155,0.021677395,0.025470179,-0.022160795,0.008266044,0.025204197,0.05815143,0.029134836,-0.043844886,-0.058933333,-0.092656866,0.093953975,0.116838284,-0.049335778,0.13120922,-0.08963969,-0.063149616,-0.052534174,0.14989084,-0.03632062,0.022426343,0.12389646,0.13905007,-0.09757989,0.0057871095,-0.09376737,0.146826,-0.11815323,-0.12040208,-0.092172265,-0.01939784,0.11830932,-0.11061951,0.07617638,0.14829372,0.026820827,0.09239168,-0.014941453,0.09946233,0.06709195,0.027013903,-0.14167134,0.012715497,0.008874101,0.05260224,0.008067161,-0.015893416,-0.04487216,0.09350892,-0.10490015,0.14991693,0.046187397,0.14703542,0.10865346,0.052091498,0.04280521,0.008393333,-0.0033434208,-0.0857841,-0.11688472,0.046115845,-0.096162744,0.0781176,-0.051382605,-0.062241815,-0.11942128,-0.122712776,-0.06064287,-0.0673002,-0.007974931,0.09070963,0.09943527,0.08670778,-0.12571977,0.11784724,-0.1152046,0.010770429,0.038900275,0.11646651,0.102902636,-0.052973136,0.020700004,-0.10658703,-0.047030747,-0.10183752,0.11875188,0.10993172,-0.027696148,-0.08958112,0.036166266,0.1385473,-0.007414803},
	{0.021190193,0.10678073,0.14041875,-0.069025554,-0.023017077,-0.0061915126,-0.07909904,0.0006315628,0.109208636,0.1162914,0.08263709,0.04793779,0.11065299,-0.12643102,0.14202608,-0.09867751,-0.0010381133,-0.102654874,0.01941008,0.0021449402,-0.10426627,-0.14807525,0.0688328,-0.13602988,0.04063087,-0.010961055,0.12517905,0.133519,0.029152382,-0.030328358,0.100117095,0.03409522,-0.065395474,-0.078634225,-0.09017005,0.09751427,0.087813444,-0.05939947,-0.018058239,-0.045599263,-0.08491981,-0.08593134,0.055254623,0.1308102,-0.07318233,0.048536435,0.14372721,-0.07055391,-0.05848435,0.120397545,-0.14285384,0.100694664,-0.008765756,-0.051400054,-0.11780812,-0.14403465,0.017697044,0.121244445,-0.04465526,-0.009377201,-0.043030184,-0.016015474,0.0026872968,-0.10454884,0.013183197,0.14649801,-0.12321867,-0.023355657,0.04525238,0.081886664,-0.04765645,0.0757902,-0.013753053,0.038348593,0.09774899,-0.07540399,-0.10853136,-0.01033226,-0.046349812,0.043673754,0.070842855,-0.037373517,-0.0071445843,-0.084496364,0.09659646,0.06777313,0.11103338,-0.103922844,0.064893566,-0.08608412,0.11706366,-0.06850488,0.030888403,-0.111925125,-0.01972681,0.077582,0.057249505,-0.09308897,0.08703972,-0.09807754},
	{-0.13469316,0.03392198,0.090339065,-0.12694415,0.117582105,0.06656799,-0.07597845,0.13868254,-0.066301405,0.054958418,-0.10631009,-0.016477646,0.12616593,-0.03978339,0.018687112,-0.062322743,-0.026392268,0.052322786,0.011069359,0.03402827,0.08293938,-0.05763617,0.096756496,0.010812969,0.059347566,0.08001845,-0.13613537,-0.03421388,-0.057438407,0.042300213,-0.14709722,0.063559614,-0.08481363,-0.0459968,-0.058987267,-0.13493241,-0.1001033,-0.1197408,-0.11351677,0.06576894,-0.05496317,-0.022451717,0.15007645,0.04479979,0.09379845,-0.07051819,0.039341543,0.101932235,0.13590734,-0.0080151195,0.12036773,0.14289203,0.007684528,0.040905822,0.0205655,0.057906125,-0.1508863,0.056376375,-0.09780447,0.024272157,-0.045670863,-0.05373781,-0.113038674,0.07149782,-0.020043325,0.09664733,0.03655656,-0.013377811,0.03393338,0.12307131,0.077630736,-0.14599188,0.115762986,-0.14526574,0.005871635,-0.019104706,0.11804622,0.075118154,0.029201843,0.028666813,0.08394752,0.06697982,0.10828796,0.07329644,-0.10542042,-0.054558113,0.09647436,-0.14894925,0.08799029,0.033389118,0.08427619,0.12186647,0.06363209,-0.007393929,-0.06789411,0.1325859,0.032893576,0.0033951483,-0.043050215,-0.026443366},
	{-0.053938832,-0.104694314,0.10329657,0.002329473,-0.072658874,0.03787012,0.123651676,-0.00018548837,-0.112646066,0.116539605,-0.048989553,0.0657446,-0.11274979,0.06740335,-0.13677666,-0.14321546,-0.07852218,-0.030601379,0.100002535,-0.015546004,0.05372495,-0.13105984,-0.10954409,-0.023181044,0.030511059,-0.07220954,-0.083424516,0.052879915,-0.057984743,-0.032480877,-0.1156773,-0.08713013,0.03697194,-0.08875134,-0.057035632,0.103100665,0.040645313,0.05722233,-0.15466985,-0.13831496,0.045709055,0.06441372,-0.15314606,-0.04822129,0.0049824975,-0.06776261,-0.103321776,0.02705543,-0.16121209,-0.1599834,-0.10465212,0.107552715,0.09533387,0.04947804,0.031919524,0.034868646,-0.009449957,-0.016040105,-0.12977718,0.11582576,-0.11236974,-0.079147294,-0.09168869,0.06866892,-0.11820816,0.04959142,0.061105113,-0.11427962,-0.11181569,-0.070741355,0.08335818,0.12827085,-0.028294154,0.11114438,-0.024121506,0.10304518,-0.14000528,0.0978112,0.10271379,0.044524144,0.12067233,-0.1501993,0.013756206,-0.056211386,-0.04255879,0.0649469,0.011013902,-0.08694526,0.107274555,0.03212735,0.06353151,-0.1397219,-0.034312055,0.11121735,-0.015297151,-0.08123727,-0.05033654,0.044320527,-0.005473179,-0.0857656},
	{0.038164455,-0.04774323,-0.02103975,0.043647107,0.10558814,-0.14872053,-0.06681012,0.08907143,0.087203905,0.018503439,-0.062247977,0.08512009,-0.08329902,0.10217955,-0.05664537,0.04184807,-0.14143547,0.13675116,-0.06253835,-0.13908468,0.096762285,0.106414594,-0.013104621,-0.03769943,-0.027421795,-0.07600411,0.0010499507,-0.15038101,-0.12946424,-0.025736583,-0.0033771978,-0.073297985,0.07071528,0.03220543,-0.05260618,0.034127675,0.12028174,-0.1344684,0.039888646,0.0025186625,0.10225835,0.024808945,0.058356453,0.10672307,-0.07648446,0.1204286,-0.05963514,-0.10512647,0.08244132,-0.023781104,-0.06769065,0.07716745,-0.10907781,0.000677395,-0.028092338,0.122100525,0.049060788,0.1280176,-0.08326972,-0.119629234,-0.075170524,-0.081895374,0.12089606,0.07151638,0.13324545,-0.14609593,-0.073328,-0.050126586,-0.13998647,-0.12844896,0.10106629,-0.14938508,0.091575995,-0.11991389,-0.053116597,-0.12132585,0.0104644075,0.00556969,-0.1316645,-0.00040142928,-0.027536131,-0.1153109,0.02228504,0.14259785,0.042127322,0.015602865,0.12207318,0.026495954,0.12853715,0.05348705,0.036114614,0.11657534,-0.070710965,-0.087287314,0.12331527,-0.1332336,-0.10241734,0.1453591,0.14484358,0.005428288},
