// include/conv2d_3218_weight.h
// sergio rivera 
// 2020/02/15 02:46:03 

const float conv2d_3218_weight_p[3][3][3][4]=
{
	{
		{
			{-0.28606275,-0.2716031,-0.19545835,-0.22675866},
			{-0.060613163,-0.023223698,-0.03591034,0.26199067},
			{0.26325482,-0.20278141,-0.18121703,0.011884305}
},
			{{-0.27504316,-0.28687724,0.084246784,-0.016955666},
			{0.1125021,-0.26631457,-0.15100889,-0.20195629},
			{-0.15155369,0.27672908,-0.083609655,0.20364706}
},
			{{-0.034894463,-0.041327156,-0.15017131,-0.0036897736},
			{0.17430003,-0.26026502,0.090851635,0.088769875},
			{0.19720516,0.1692731,0.1943149,0.27776384}
}
},
			{{{-0.17343356,0.04283817,0.30496487,0.040453702},
			{0.24523607,0.16680215,-0.10588762,-0.23004079},
			{0.13156822,-0.054204848,0.089938246,-0.17918517}
},
			{{-0.13386574,0.07493892,0.21918063,-0.030807538},
			{-0.13293095,0.2443359,0.23947442,0.054505326},
			{0.068707205,-0.12953475,-0.019976359,-0.21463233}
},
			{{0.015839709,-0.069940075,0.18027097,0.15392128},
			{-0.18588702,0.19591407,0.12627855,-0.1442685},
			{-0.2146983,0.13143615,-0.23959675,0.04926286}
}
},
			{{{-0.28282875,-0.08446896,0.0044137132,0.10928812},
			{-0.1543888,-0.29013598,0.26770055,-0.24129812},
			{-0.2222454,0.044096906,0.15113656,0.027164273}
},
			{{0.20515433,0.26863912,0.0535121,0.2030565},
			{0.18366048,-0.11696821,-0.05458943,-0.22424716},
			{0.020665767,-0.25302818,-0.2813359,0.19131364}
},
			{{-0.09329312,0.23348154,-0.24860467,-0.10052045},
			{0.17260514,0.10987617,0.30046594,-0.2930655},
			{0.028509721,-0.2920535,-0.1306498,-0.18181519			}
		}
	}
};