// include/conv2d_3216_weight.h
// sergio rivera 
// 2020/02/15 02:46:03 

const float conv2d_3216_weight_p[3][3][3][4]=
{
	{
		{
			{0.12480075,-0.031814925,0.059558295,-0.0077324407},
			{0.15954396,0.23880664,0.09434184,-0.23684768},
			{0.072560236,-0.20574448,-0.29434583,0.23554319}
},
			{{-0.08814119,0.1950576,0.033058126,-0.059006486},
			{0.17034166,-0.26335534,0.28212032,-0.0021644027},
			{-0.0034987056,0.09273804,0.054289848,0.12598667}
},
			{{0.09678766,0.27748236,-0.14488463,0.01585986},
			{0.0032321,-0.22480214,-0.23078379,0.02891685},
			{0.1993262,0.10011528,0.051421206,-0.07166077}
}
},
			{{{0.05453684,-0.22870952,0.27441615,-0.25016227},
			{0.27926362,-0.21390824,-0.0394564,0.1691285},
			{0.1034568,0.26496935,0.083220616,-0.2250707}
},
			{{0.11592638,-0.103219405,0.25800768,-0.28069586},
			{-0.03858035,-0.062440224,-0.26372665,-0.03156906},
			{-0.033820093,-0.2658277,0.016894436,-0.23189431}
},
			{{0.16171299,0.019524245,-0.19533944,0.27364665},
			{0.11631061,0.06328049,0.1452024,-0.052715473},
			{0.16845737,0.1657551,-0.30144182,0.19155835}
}
},
			{{{0.066801585,-0.02873726,0.020881796,-0.20574343},
			{-0.17896754,0.0490671,-0.03563023,-0.07483246},
			{-0.16915591,0.13932556,-0.29402164,-0.07830467}
},
			{{-0.20708032,0.12300973,-0.23818594,0.06417995},
			{-0.2644624,0.05738519,-0.23130694,0.12897877},
			{-0.30575103,-0.021565612,-0.020592613,0.09135138}
},
			{{0.14539644,0.16307057,0.25641835,-0.20660426},
			{-0.13525392,0.13829274,-0.12979521,-0.13389423},
			{-0.25212854,-0.3000921,0.14669885,-0.17745915			}
		}
	}
};