// include/conv2d_634_weight.h
// sergio rivera 
// 2020/02/15 00:12:49 

const float conv2d_634_weight_p[3][3][4][4]=
{
	{
		{
			{-0.25251675,-0.14992903,-0.07869192,-0.2707055},
			{-0.04484269,0.0051518967,-0.09898055,-0.060735732},
			{0.14663789,0.10956271,-0.124645695,-0.19126436},
			{-0.14608061,0.26033923,0.12318322,0.08395092}
},
			{{0.12259281,-0.18774273,-0.25887057,0.067533426},
			{-0.014261838,0.22615016,-0.01671302,-0.11554107},
			{0.02586356,-0.1679389,-0.19563696,-0.055984814},
			{0.113452435,-0.0049544536,0.143685,0.017994713}
},
			{{0.106562175,0.18764204,0.15725346,0.18801121},
			{-0.2752567,-0.10983227,0.23390219,0.08054761},
			{-0.18191424,-0.12507458,-0.029414047,0.19993174},
			{-0.10515434,-0.11593843,-0.2873135,0.19601771}
}
},
			{{{0.022796705,0.037940312,-0.06503524,-0.022629978},
			{-0.13853367,0.061058052,-0.20517816,-0.22981921},
			{0.07245455,-0.22816601,0.0411417,0.2726451},
			{-0.096159376,-0.22984987,0.13610439,0.020449623}
},
			{{0.20202677,-0.11814335,-0.006366026,0.27438447},
			{0.086732805,0.04242913,-0.12073788,0.23362172},
			{-0.2083252,0.028835626,-0.0543974,-0.29011485},
			{0.112870134,-0.15317225,0.22226703,-0.14992096}
},
			{{0.248078,-0.05383331,-0.008865142,0.14183745},
			{0.16271767,0.09568272,-0.1576077,0.035411865},
			{-0.21464409,0.17161971,-0.08714582,-0.09035561},
			{-0.117335595,-0.18080772,-0.21792081,0.23364422}
}
},
			{{{-0.07157927,0.21753016,0.013679809,0.08099936},
			{0.16515063,0.117128104,-0.12432454,0.187384},
			{-0.25164244,-0.010935701,0.12549044,-0.25472373},
			{-0.0136955,-0.08800689,0.09401738,-0.19654374}
},
			{{0.19034027,0.0031173925,0.10916026,0.27265605},
			{-0.22238022,0.12945698,0.27064034,-0.10852991},
			{0.10678661,-0.16967751,-0.2670807,-0.044036053},
			{0.12494193,-0.25192025,0.056800228,0.1362845}
},
			{{-0.1853047,-0.14178604,-0.009141412,0.29121807},
			{-0.050019886,-0.09987771,0.25593755,0.10081279},
			{-0.20405357,0.16360341,0.10541696,0.16647995},
			{0.10848595,-0.17877305,-0.12118663,-0.045211423			}
		}
	}
};