// include/dense_532_bias.h
// sergio rivera 
// 2020/02/15 00:12:57 

const float dense_532_bias_p[123]=
{-0.0054113735,0.0,0.0038719876,0.0012592435,0.0056873425,-0.005087124,0.0013994825,0.0022602337,-0.00017167407,0.0029322044,-0.0015078601,0.0005982301,-0.0013999772,0.0015984002,-0.000992292,-0.0023121857,0.01374273,-0.00048858725,0.0014139091,0.0018495678,0.00018593541,0.014347834,-0.0010248437,-0.0027536582,-0.002856188,0.0019433189,0.0029117009,-0.0023693698,-0.0026118942,0.0072732167,-0.010731039,-0.0033092184,-0.0021470664,0.00713968,-0.0022058815,0.0071823644,-0.0061421636,0.0102035785,0.0069095585,0.0045178807,0.0042092465,-0.0030352771,-2.4530571e-05,0.0,0.0,0.001395582,-0.0016345456,-0.0048290594,0.00062873785,-0.0013999834,0.0044043274,-0.0009060109,0.0013997572,-0.0036790387,0.008550408,-0.0032394573,0.0042521586,-0.0013998324,0.0031305854,0.00784665,0.0066132685,0.011007631,-0.0026278207,0.005735198,-0.0032761202,-0.010862835,-0.00037324545,0.0024378968,-0.0019654285,-0.012005868,0.008028944,0.006452868,0.015515228,0.0047433367,0.0066089784,0.01173231,0.0031891589,0.0025360128,0.006912854,-0.00027253735,-0.0035198582,-0.0024655717,-0.0040888595,0.0023584918,0.0055098995,-0.0046824524,-0.0036509028,-0.0041539436,-0.004804478,0.015973503,0.0065525295,-0.0035186242,0.0009965491,0.008450185,-0.0028153993,0.006662446,-0.0011622842,-0.0032361078,0.0006517384,0.0,-0.002912627,0.0019204824,0.013779363,0.010636748,0.0039037117,-0.0006789655,-0.005663557,0.0066390093,0.0042152964,-0.0014000002,-0.00062571047,-0.0018555617,-0.010087784,-0.002638104,-0.004278379,0.005790392,0.0037814805,0.0049730297,0.0027641286,-0.0077186683,0.0046008504,0.0032394854,0.0055190697};