// include/dense_2068_weight.h
// sergio rivera 
// 2020/02/14 22:15:44 

const float dense_2068_weight_p[233][100]=
{
	{0.068054095,0.024021935,0.071534075,0.12181639,-0.1317864,0.076943316,0.089692734,0.00823952,0.1236979,-0.09034164,-0.047757603,-0.068546794,-0.015091704,-0.096195385,0.009706043,-0.100457236,0.04051782,0.12137135,-0.030843223,-0.024786608,-0.13637377,-0.001363339,-0.07519093,0.120721914,-0.041739386,-0.071647115,0.051652394,-0.08203337,0.03705055,0.04292415,0.012888278,0.035248052,-0.046314195,-0.09845827,0.0309699,0.11406122,0.0606533,-0.0095616225,0.11323583,-0.117347285,-0.09159646,0.057446335,-0.034609914,-0.02359185,0.07000683,0.11941366,0.018079253,0.09362463,-0.035598442,-0.092189446,-0.13785617,-0.10846089,0.13229729,-0.12636417,-0.021427277,0.07545108,-0.08852441,0.035467457,0.008195422,-0.12422473,-0.08813017,-0.13132215,-0.03001429,0.000989206,-0.09066716,-0.067048974,0.11529209,0.08247775,-0.018248003,0.020087924,0.059559032,0.07516659,0.081445836,-0.05192092,-0.12555446,-0.015116371,-0.024467295,-0.043057382,-0.06123967,-0.09502846,-0.10917667,0.037210315,-0.10286736,-0.082156084,-0.034826815,-0.08278881,-0.035448447,-0.003934221,-0.08710656,-0.07497884,0.11568791,-0.12629847,-0.05507432,0.080822304,-0.0023134649,0.06862353,0.0061347485,0.10824453,0.020729205,-0.083150834},
	{-0.0224152,0.07236316,0.03198493,0.10205396,-0.020429306,0.04624176,0.057458002,0.06542332,-0.04269177,0.06334418,-0.041794386,0.07614807,0.009692831,0.002805783,0.097281046,-0.10541576,-0.080676734,0.068967365,-0.050534513,0.053661644,0.056357186,-0.08488215,0.047342863,-0.11154305,-0.053966034,0.06333668,-0.05001788,-0.11435117,-0.026689326,-0.08465364,0.12056415,0.027315013,-0.07779487,-0.12741746,0.09232298,0.05606377,-0.029806914,-0.13691449,0.0051779295,-0.11914814,-0.11089732,-0.113906674,-0.05792302,-0.018117856,-0.019279018,-0.12865642,0.0017591129,0.06926352,0.07156105,0.05044846,-0.049090385,0.0064384886,0.12186601,0.02112835,0.0047912775,-0.10346018,0.0080691995,-0.010811296,0.021634897,0.002188231,0.02275338,-0.018476546,0.103631176,-0.10546874,0.08852975,-0.059504505,-0.08376327,0.014772095,0.1009977,-0.08005851,-0.104877986,-0.0583855,-0.024638489,-0.026683504,-0.041890167,-0.07836647,-0.13623913,0.06104092,-0.027370015,0.12907706,0.056189477,-0.03545354,-0.025773618,-0.10539433,-0.048599068,0.10693883,0.021008693,0.082559556,-0.061977655,0.030105872,0.02755426,-0.085760646,0.010082647,-0.08416231,0.090057865,0.047471594,0.1171452,-0.042956952,-0.06769075,0.020852868},
	{-0.07382641,-0.12311037,-0.065293625,-0.11032501,-0.046532877,-0.113159694,0.11816129,-0.047024027,0.13088053,0.086225756,0.0133155575,-0.0120236045,-0.08351936,0.123478256,0.09765627,-0.020452311,-0.064392865,0.13154827,0.03639577,-0.020198185,-0.06393059,-0.08891451,-0.0814941,0.11912331,-0.03135054,-0.055783555,0.13161644,0.06326999,0.04725228,0.039271012,0.05690761,-0.096192375,0.035134196,-0.038074635,0.08683496,-0.056409627,-0.057081986,-0.06289364,-0.044640787,-0.07931658,0.05392558,0.010778009,-0.1055024,0.09016622,-0.12370238,0.06009019,0.117282115,-0.005279314,-0.037716605,0.048768904,-0.010400349,0.0825701,0.10271511,0.044884246,0.1311798,-0.04943614,0.01909534,0.07381803,0.10438424,-0.07549981,-0.09802417,-0.03484263,0.041151997,0.044798084,-0.015887097,-0.12437916,-0.03543845,-0.13526261,-0.12842491,0.03220787,-0.08695228,-0.09694511,-0.0640133,0.008155509,0.03766169,0.050486483,0.054253962,-0.07363062,0.086621545,0.0634977,-0.123970136,0.033622544,0.07523103,0.009052421,0.13030525,-0.0051589226,0.01787545,0.08547,0.049352203,0.04932012,0.01242218,0.08106812,0.06605443,-0.01977769,0.089513876,-0.062105924,0.099110916,0.012235447,-0.08795348,0.10230662},
	{0.0034168698,0.059290443,0.031148255,0.088950865,-0.11156243,0.10305119,0.024974452,-0.10285115,0.0849711,0.064926155,0.06865051,0.06454846,-0.03808646,-0.10469026,-0.09842833,0.09432213,0.00669945,-0.01804239,-0.12522522,0.079041034,0.0667966,0.06330235,0.043928917,-0.025155384,0.01705579,0.009181124,0.12043334,0.080673076,-0.13108763,0.0035644355,-0.019486751,0.026444294,-0.13476408,0.050572995,0.108307846,-0.0038879558,0.026745735,0.10347825,-0.010971934,-0.088855006,0.11770835,0.052046373,-0.01269978,-0.094376534,-0.08756226,-0.01984431,-0.10570946,0.011612887,0.04286585,-0.0524824,0.015044526,-0.08263405,0.0043500196,0.10319176,0.069284774,-0.05358675,-0.11937311,-0.017855704,0.058928344,-0.11958673,0.12860744,-0.05289711,0.08291241,-0.058279816,-0.09165705,-0.003377821,0.11683538,-0.0895822,0.06996669,-0.034994252,-0.026922762,-0.07015529,0.00760168,0.044051524,-0.121125504,0.011475479,0.11139387,-0.09051767,0.039640453,0.00019021852,-0.13605988,0.036616586,0.0062547605,-0.013892308,0.053436823,0.06927388,0.005597717,-0.063005574,-0.05622377,-0.05040561,-0.010045622,-0.08402404,-0.067567214,0.012336674,-0.12118019,0.027276497,0.0726704,-0.12652415,-0.07580622,-0.081838876},
	{-0.026843602,0.113649726,-0.12993109,-0.022947717,-0.1259478,0.055814885,0.019523758,0.038111173,0.057806134,-0.090451464,0.07586989,0.12367126,-0.0687328,0.0810252,-0.13719611,0.08450571,-0.010908804,-0.04941084,0.10138068,-0.015709538,0.008127849,-0.011993355,0.08649332,0.01278721,-0.025365582,0.037956543,0.07391291,-0.04210494,0.08740342,-0.02606658,0.091119036,0.03929667,-0.054807965,0.0023123454,-0.091723345,0.0007166839,0.0021987252,-0.0055660815,-0.13566479,0.030505562,-0.13941325,-0.03951976,-0.037372153,-0.1029501,-0.04905935,-0.123866454,-0.072329074,-0.10977886,-0.0009139096,0.08902592,-0.036623623,-0.054114457,0.033042327,-0.13439582,0.07783701,0.012697872,-0.09467368,0.03813178,0.120779045,0.08563517,-0.03200497,-0.10503272,0.10408508,-0.13737234,0.10264346,0.06679106,-0.07906632,-0.013313078,0.10351821,0.07968668,-0.042040348,0.04131331,0.11373067,-0.0045424392,-0.11920818,-0.08873887,-0.07766113,-0.017299112,0.0057970067,-0.14124563,-0.06051222,0.08988586,0.12267872,-0.05638028,0.014522168,-0.08657164,0.0017888331,0.04934023,-0.05250058,-0.030544076,-0.0377979,-0.04473938,-0.10145065,-0.11481273,0.099914625,0.08397949,-0.028061774,0.064483665,0.003490917,-0.076886415},
	{0.06577606,-0.107075185,-0.094008684,0.045635525,0.028106807,0.036152653,-0.09990453,0.00630715,0.12288816,-0.06409231,-0.113282226,0.1065337,0.018715464,0.05236209,0.055139087,-0.062479015,-0.1251924,-0.071722195,0.044259477,0.018231967,-0.07160767,0.06134464,0.05332603,0.042770844,-0.066276915,-0.025293298,0.112528615,0.09779787,-0.0060690823,0.077326745,-0.061496448,0.08729053,0.11493938,-0.009968378,0.040116876,0.12317272,-0.05975113,-0.10608992,0.004761553,-0.04075053,0.02235404,0.09039502,-0.08038676,0.01637729,-0.060553513,0.098726235,0.0014816262,0.08530776,0.09044313,-0.09060471,0.06562093,-0.04554988,0.06649997,-0.0038945028,0.052947447,-0.0064648692,-0.041413836,-0.13165002,0.104661725,-0.10357369,-0.030768836,0.020359283,0.008183903,0.058016926,-0.11224323,0.061814617,-0.044881694,-0.124422885,-0.042956993,-0.094816834,0.062804,0.06697979,-0.09371228,0.09639209,0.037264563,-0.067895584,-0.00010252114,-0.11642237,0.06989199,0.01605153,-0.08957743,-0.10024448,0.08876484,0.0312519,-0.056403812,0.064144224,0.063202016,-0.1317143,0.09801477,0.009806033,-0.064753406,0.101062655,0.02481327,-0.023983695,0.09617387,-0.015170149,-0.088074245,0.047880504,0.084654555,0.010424242},
	{-0.12241728,-0.10876048,0.12186365,-0.032464422,-0.06458321,0.066608526,-0.053469274,0.035431806,0.09725134,0.037259143,-0.117909506,0.023152001,0.030492807,0.031644482,0.027919669,0.038539253,0.04691089,0.09040559,0.014957262,0.01363633,-0.07924193,-0.10073136,-0.095699765,-0.028245838,-0.046615295,0.11358564,-0.091875024,0.0881316,0.034686245,0.07949922,-0.02382034,0.11552225,0.0901724,-0.048565082,-0.118142284,0.09053107,-0.049495216,0.050500225,0.12625757,-0.091349244,-0.021149274,-0.0715049,0.12580372,0.02445026,-0.019122768,-0.02147016,-0.06379429,0.070967816,0.0028366232,0.019371297,-0.029924238,0.1020782,-0.08171696,0.09079981,-0.046555556,0.03800053,-0.12833153,-0.11051476,-0.04352131,0.003984632,0.105422325,-0.03549601,0.0997229,0.041524496,-0.017142903,0.12657553,0.12878753,0.057892565,-0.07346645,-0.13637118,0.03461523,0.06229302,0.06410445,-0.11522345,-0.09437006,-0.06389852,-0.10600846,0.0907604,-0.08968976,0.06752315,-0.031498276,0.068737574,-0.004962681,0.060030807,-0.057708003,-0.05708295,0.05630166,0.12653133,-0.10968054,0.0006763337,0.07209848,-0.036253173,-0.046576954,0.05790665,0.1187523,0.08841875,-0.052953772,0.06674531,-0.04089324,-0.04339512},
	{-0.08689516,0.101209305,-0.1222714,-0.07158853,-0.023943892,0.003392672,0.0885625,-0.10168498,0.050457023,0.058583703,-0.02636005,-0.053453222,-0.07097961,0.015257691,0.07015665,-0.12583768,-1.9446365e-05,-0.0019727417,0.026022948,0.029325048,0.07549269,-0.02357742,0.06773416,0.07243045,0.046525113,0.029015038,0.05973239,-0.08876003,0.11555814,0.0028196522,-0.13404825,0.069535345,0.05331931,-0.10378896,0.049925517,-0.08619176,-0.006347135,0.1283916,-0.1248109,-0.114700235,0.11527983,-0.08080876,-0.12600397,0.00299504,-0.00088964915,-0.07526319,0.017284853,0.08801428,0.07829604,-0.017720418,-0.119122505,0.12813933,-0.050690297,0.003613037,-0.11384707,0.073497765,0.022826413,0.07695891,-0.115955815,-0.023188327,0.104888074,0.07170385,0.09457596,-0.004869892,0.09842681,-0.024065904,-0.087621056,-0.0254261,0.006642112,0.08765996,-0.08878594,0.048096742,0.10837914,0.059087172,0.02576808,0.022721859,-0.0011157012,0.13137293,-0.02864536,-0.052864425,0.0018657804,0.11758727,0.0760261,0.014671309,0.06942808,0.00016453225,-0.026570428,-0.09465202,-0.035810143,0.055791255,0.098118536,0.069404684,-0.11946895,0.0067656282,0.09475093,0.12804645,-0.036121402,0.10946704,0.07291707,-0.06558222},
	{0.09457058,-0.0009734058,0.029045131,-0.12268023,-0.07768237,-0.04200663,-0.12271592,-0.08989899,0.07963329,-0.037821,0.11872113,-0.09162096,0.09771381,0.04513098,0.027793543,-0.0694654,0.04227904,0.024028989,0.02630915,0.055037964,0.01674438,-0.05036688,-0.07285394,0.0961854,0.09014304,-0.13494988,0.036339488,0.117021754,-0.02068696,0.029112054,0.12510432,-0.026428096,0.10605339,-0.039631765,-0.10332798,0.00915196,0.12014551,0.04399038,0.077232346,0.0944803,0.071781546,0.07242587,0.05835957,0.10068777,-0.12976713,0.11453587,-0.058738817,0.06965748,0.0107948575,-0.039443973,0.064723395,-0.027059926,-0.07746404,-0.012267298,-0.12728807,-0.019393332,0.016183265,-0.08389064,-0.028945345,0.112104386,0.12018485,0.08084569,0.00941557,-0.012921909,0.100984715,0.12740564,0.017122673,0.055449847,0.12639116,-0.10298829,0.09328299,-0.01363537,-0.08749816,0.12224012,-0.07965731,0.07748338,0.07865689,-0.12680689,0.034066767,0.101214945,0.10676105,-0.08449295,0.04108205,0.0744137,-0.09918906,-0.060693912,0.005437059,-0.11506167,-0.073269635,-0.077667676,-0.08909163,0.119839035,0.036558446,-0.023605952,0.07844591,-0.12686288,-0.041584145,0.095823795,0.06075463,-0.060612686},
	{-0.008175116,-0.0132818045,0.124730535,0.12902537,0.035763472,-0.096522875,0.0834344,-0.02178125,0.004529547,-0.06380693,0.12531325,-0.113098845,-0.030651875,-0.04189364,0.11534798,-0.10171858,0.09382071,-0.04850807,-0.02704837,-0.051877987,-0.031335957,-0.09901384,0.008985155,0.04844484,-0.052332688,0.0029632344,0.12436194,0.1215082,0.093217686,-0.10931517,-0.10103887,-0.1116659,-0.07898405,-0.12972052,0.11840626,-0.09919714,-0.043864377,-0.102206774,0.053310007,-0.07180612,0.03462623,-0.12812978,0.02101401,-0.08663162,-0.13479693,0.019819522,0.12328056,-0.076888904,0.026369765,0.13075873,-0.108337075,0.06989915,-0.04177768,-0.053055536,-0.10965767,-0.12355731,-0.08245317,0.043806456,-0.009432674,0.086956985,0.026890432,0.03957641,0.01689075,0.12955177,-0.09942246,-0.022265548,0.04491106,0.057650898,0.091613516,0.11460155,-0.08292074,0.09098332,0.053449053,-0.032425642,0.013036194,0.08590342,0.105658315,0.08960075,0.104389064,-0.038249668,-0.09621985,0.11426339,0.0815157,0.007195496,0.06635152,-0.011418167,0.109381996,0.10846427,0.12558967,-0.024467848,0.054633282,-0.0022574267,-0.09139907,-0.10169032,0.027893476,0.0322072,0.12356008,0.12315752,0.07217418,-0.03580854},
	{-0.002833899,-0.09356325,0.06938065,0.050315663,-0.13735037,0.08320095,-0.120658495,-0.08474733,-0.0920109,0.046357945,-0.10683144,0.0032144277,0.08499423,-0.13988931,0.10195038,0.109741695,0.06836739,-0.02403746,-0.025176588,-0.10805757,0.050506826,0.11601415,-0.043549154,-0.076369464,-0.044551566,0.02366211,0.10400029,-0.014878306,-0.0120919505,-0.0407238,0.054354437,-0.005491936,0.036421005,-0.0002505448,-0.033901546,-0.09128972,0.09339301,-0.019091832,0.0972143,0.064844325,0.07827277,-0.040112346,0.081205666,-0.02885816,-0.08215412,0.017759202,0.08429034,0.08741273,0.021332318,0.084113814,0.010707142,0.056478534,0.03491198,0.04449677,0.053495746,-0.0966996,-0.12456923,-0.047570035,0.02263265,0.05122765,-0.124881856,-0.03727451,-0.028109612,-0.086011946,0.11171684,-0.09144056,0.054792847,-0.12826784,-0.04860521,-0.10403081,-0.12472969,0.1289188,0.023261923,-0.0012625431,0.10287537,0.0029879687,-0.0077286647,0.08425213,-0.05672109,-0.13135967,0.05522444,-0.03816764,-0.038696866,0.0029322777,-0.03135671,-0.107327476,0.07266059,0.07460808,0.022324886,-0.018383963,-0.08216775,-0.07778597,0.12615688,0.0073673697,0.053409707,0.092357874,0.106864735,0.105515316,0.014537831,-0.102160506},
	{-0.049079828,-0.053338874,0.07740125,-0.027176809,-0.044034872,0.11888479,-0.018351516,0.05833221,0.02962663,-0.004066787,0.09867842,0.029190907,-0.05352739,0.016541112,-0.012537338,0.0017271864,0.08583967,-0.107988946,-0.10214073,0.07688624,0.030600324,0.07889803,-0.12506402,0.004624777,0.020970352,-0.12555093,-0.03830316,-0.056245547,-0.08392631,-0.06299156,-0.10365007,-0.0013610453,0.07287865,-0.065510616,-0.11544143,-0.13302548,0.11618207,-0.09090565,-0.11666124,0.04536921,0.03195882,0.06395042,0.043673247,-0.02068664,0.09806205,0.10024957,-0.08233762,0.09025697,0.11144594,-0.049047172,0.12878388,-0.13221747,-0.079842925,0.09386946,0.10825167,-0.074928336,0.049994815,-0.06117638,0.055105638,0.05449433,-0.045376804,0.06722324,0.095320255,-0.11736827,0.114825465,0.043455746,0.0034874673,0.08962889,0.022175452,0.13024986,-0.03613184,-0.026160087,-0.1291509,0.06606146,0.017977864,0.11749182,0.11062181,0.07393796,0.103827156,-0.108003475,-0.06568673,-0.10911283,-0.12107548,0.11974866,-0.0052952343,0.12305756,-0.051909503,0.076630734,0.055107865,-0.07641093,0.031407055,-0.06641788,0.07650101,0.09352536,-0.11678823,-0.10885283,-0.058756024,-0.105562136,0.05462114,0.02301754},
	{-0.044474002,-0.04974086,-0.055196382,0.06195186,-0.1088081,-0.09634305,0.05645619,-0.08887591,0.054019727,0.05398854,-0.10372958,0.04941223,0.042869147,-0.07990122,-0.015927685,0.0234065,-0.06836367,-0.05061824,0.11447085,0.017845638,0.08749509,-0.09720384,0.066922806,0.10801558,-0.011144416,-0.0019225293,-0.084297754,0.11421725,0.11180759,-0.012926485,-0.0965483,-0.114115156,0.13082485,-0.07310633,0.112283505,-0.06411606,0.024891598,0.12720808,0.048341602,0.09140101,-0.023065494,0.059322212,-0.13225386,0.002257895,-0.09468693,-0.08284133,0.052419033,-0.13345015,-0.090997495,0.08006632,0.045184992,-0.09479526,-0.0379436,0.1278687,-0.092244394,0.08436475,0.024169436,0.10833478,0.08069534,-0.010177183,-0.06892383,-0.040843397,-0.07600114,-0.09147198,0.024793215,-0.070696995,0.02936711,-0.0076346733,-0.05642164,0.048227616,-0.07053085,-0.017102549,-0.048434757,-0.120895095,0.037871413,0.036356714,0.03917816,0.06730436,0.019014874,-0.104013756,0.03938543,-0.098191805,0.022547469,0.037680924,-0.025047267,0.008536681,0.028187135,0.1300018,0.017347798,-0.08124295,-0.13547356,-0.029070495,-0.086554095,-0.12262403,0.11444352,0.05703414,-0.0133813545,0.099644445,-0.05375387,0.092618205},
	{-0.088479266,0.118687406,-0.041159645,-0.047038294,0.0387248,0.08370254,-0.060178544,-0.01501772,0.0024150328,0.10633226,0.062306244,-0.010818197,-0.069594815,0.06247016,0.11056975,0.12101197,0.09584241,-0.031452302,-0.008067427,-0.071782984,0.00083704304,0.0967457,-0.10879712,-0.09622258,-0.013578628,0.11845848,-0.044154517,-0.09686028,-0.08311288,0.02150273,0.023012368,-0.00019537448,0.060410805,-0.004131157,-0.034264576,0.10655894,-0.004393553,0.024980044,0.0063051353,-0.04689641,0.07001481,0.032577593,-0.07141491,-0.1337408,-0.0033414345,0.07841941,0.1109221,0.09715705,-0.08176849,0.040599585,-0.028948352,-0.1333044,-0.025863072,0.10765482,0.036809858,0.013653477,-0.09535446,-0.102427706,0.06735111,0.027570046,-0.060468398,-0.011604754,-0.027938958,0.055407256,0.045836456,0.02964432,-0.07595995,-0.12036093,-0.031796068,0.022761844,-0.12685512,0.07021926,-0.06596762,0.12961838,0.08596583,-0.12797008,-0.03913093,-0.037388917,0.043008145,0.12702012,0.03524146,-0.117879756,0.047548458,-0.102688216,0.09832992,0.07933625,0.089566275,-0.09163217,0.12091247,0.028239308,0.10700523,0.08070822,0.120773666,0.047855794,0.086688966,0.048503596,-0.13669479,-0.03464464,0.10241058,0.06586467},
	{-0.021075265,0.040506683,0.10137565,-0.03415779,-0.036559246,-0.016785549,0.09910648,0.033298682,0.069082074,0.014405692,-0.005988746,-0.08969112,0.07641336,-0.089866504,0.0828286,0.0073993425,0.017842434,-0.089488894,-0.070694245,-0.048201308,0.11069802,-0.09466029,-0.09650762,0.070415735,-0.067227885,-0.04806057,0.055661324,-0.12050823,0.0852152,-0.019109529,-0.0552385,0.08063661,0.12401335,0.0121759055,0.09458952,0.03195471,-0.07722309,-0.13571215,-0.108734295,-0.07392561,-0.040367033,-0.08222856,-0.037646323,0.052704625,-0.064276956,-0.06715536,0.04297559,0.12910779,0.09947409,-0.07987109,-0.082953334,0.08331779,0.012383892,-0.114313304,-0.031087996,0.018423868,-0.005826447,0.12279769,-0.10060223,0.045866422,-0.0018127788,-0.06809864,-0.0491278,0.11982152,-0.103676744,0.084739394,-0.066459335,0.022472851,0.017257819,0.01924813,-0.09391372,0.10163175,0.11778508,-0.0684477,-0.07737287,0.11999501,-0.014609937,-0.026934128,-0.060206912,0.12505297,-0.037273243,-0.11886977,0.12455626,0.047813017,0.09975493,-0.018535828,0.06268742,0.1282555,0.09145361,-0.047545813,0.025705928,-0.062352546,0.09201774,0.057941586,-0.11152495,0.123133,0.12860586,0.010934049,0.038331944,0.027578566},
	{-0.0395111,-0.09376678,0.04246827,-0.12833916,0.02329794,-0.12905326,-0.04152527,0.048386935,0.11112394,-0.10229105,0.121647544,-0.008930337,-0.05613417,-0.0366059,0.008867292,-0.12739778,-0.039711375,-0.06652313,-0.0987435,0.12214528,-0.1313749,0.085256636,-0.02461673,-0.083903305,0.111518085,0.068399206,0.051046997,-0.1262947,-0.13025388,-0.10172695,0.102341264,-0.014066007,0.119709395,0.06857392,0.12485345,-0.11160894,0.044516563,0.11888667,0.10589349,-0.090334766,0.09657034,0.07336694,-0.10791362,-0.04460177,-0.12589273,-0.09046182,0.0025362275,0.09768137,-0.0045297206,0.08226994,0.056058608,0.1261077,-0.050791897,0.096703924,0.029698191,0.015288417,-0.0005917158,-0.12597917,-0.07794592,0.010955186,-0.04527224,-0.05727478,-0.099252634,0.11330497,-0.12698609,-0.0008342361,0.03924161,-0.08000492,-0.042459607,-0.13548549,-0.029260524,0.08125437,0.043269873,-0.101598755,-0.123474896,-0.076779634,-0.0032973667,-0.0068315915,0.008316376,-0.082186304,-0.118294306,0.09440368,-0.08586849,-0.11030977,-0.13244377,0.10277766,0.030772395,0.036552314,-0.11144336,0.12305055,0.077866875,0.10147648,-0.11887803,0.050777454,0.12781414,0.105885446,0.052089706,0.12140356,0.04412779,0.07898515},
	{0.043360263,-0.08716773,0.12684093,-0.07093944,0.1234296,0.124705315,-0.087803446,-0.10007534,0.025871225,-0.0555266,-0.08957396,0.057475805,0.07925215,-0.099890046,-0.108178854,-0.09498971,-0.09770119,-0.08652687,0.034882516,0.12193094,-0.034307208,-0.057294115,-0.057566635,-0.11822522,0.0879583,0.014897722,-0.010178348,0.014615764,-0.10460218,0.06050646,0.09534999,0.12980495,-0.076463565,-0.04149405,-0.06851095,0.022035295,-0.13701239,-0.12614669,-0.13318798,0.1190299,0.086117625,-0.073359296,0.002596141,0.103694096,-0.07520667,-0.004783968,-0.016046386,-0.05780205,0.024852108,-0.09352779,0.10750499,-0.033049483,-0.012011201,-0.1068146,-0.058102243,0.03155389,0.012297517,0.037909288,-0.12047798,-0.033413634,0.12337381,0.10890585,-0.06972169,-0.066577315,0.11974427,0.06326231,-0.0286964,0.037174508,-0.05313342,-0.016132917,0.009096566,0.1137577,-0.009475648,-0.080451384,0.053527243,0.046066243,-0.032504305,-0.06250827,0.012732849,0.055241756,-0.06767055,-0.058362737,-0.13116856,-0.13266785,0.12209879,0.12056951,-0.07618846,0.09562874,0.08078513,0.07534288,0.09492729,-0.013268242,-0.030846417,0.022490744,0.10279572,0.07184948,-0.0048267543,-0.03526447,0.002004515,-0.07683684},
	{-0.08426039,-0.008817018,0.1175633,-0.04893127,-0.013586262,-0.003329989,-0.08490039,0.03301879,-0.039343067,-0.023891697,0.12462283,0.115116045,0.07632634,-0.0015793048,-0.0691956,0.025342857,0.06542814,0.03195293,-0.04434167,0.11661974,-0.0054067033,0.07399374,0.06922838,-0.0902851,-0.01252986,0.020631734,-0.11369853,0.11364705,0.10880558,0.021440223,-0.022002617,0.016037222,0.107486665,0.011880609,-0.084300645,0.056806672,0.040848106,-0.03410062,-0.013000242,0.12788455,0.099928774,-0.047638014,-0.13161017,-0.12695785,0.04353874,-0.060854927,0.055737752,-0.042215124,0.064066514,0.046305433,0.09738519,-0.12242842,-0.027999328,0.008390655,-0.05688083,0.011253163,0.02806369,0.1274333,0.09069596,-0.009914853,-0.052254055,-0.048501175,-0.13013844,0.00056165457,0.07276914,-0.060476113,0.11588199,-0.056068253,0.028566377,-0.040746085,0.03901077,-0.10925155,-0.102879845,-0.12889807,0.047652647,0.044073053,-0.11616043,-0.06664659,0.0461111,-0.12127521,-0.13256791,-0.12485956,-0.041988116,-0.11207657,0.010494401,0.014574674,-0.036425076,-0.00042028312,0.0659866,0.10175878,-0.10082464,0.10514605,-0.07070906,0.028850786,0.054250836,-0.13391833,0.047278307,-0.061208908,0.027213551,-0.11436725},
	{-0.015128265,-0.13267568,0.059675857,-0.0010032281,-0.032105178,-0.02727207,0.10353587,0.08840053,-0.096866794,-0.02479322,-0.09280732,-0.048797257,-0.004867575,-0.095432855,-0.060897417,-0.078828305,-0.119492054,-0.123478256,0.09107677,-0.13431261,0.12699237,0.100929014,-0.12958641,0.07375009,0.036289137,-0.12052816,0.08283459,0.064241745,0.07464802,0.11873358,-0.08121099,-0.09228974,0.04100956,0.04441838,-0.10796119,-0.04630468,-0.12009518,-0.031104138,-0.12231462,-0.007492565,-0.021227513,-0.013921323,0.05029204,-0.011777991,0.108572416,-0.109547496,0.049893852,0.11834919,0.0096116215,-0.026505703,0.081398346,-0.10859645,-0.12696324,-0.0843422,0.02736044,0.06242281,-0.09774423,-0.0007607628,0.07993552,0.10074299,-0.033576854,0.119459145,-0.09407148,-0.004279723,0.09130607,-0.066487186,-0.013880798,-0.094002776,0.024914494,-0.08219154,-0.044388365,-0.067714795,0.1168875,-0.01159749,0.026094604,0.007838526,-0.13084014,-0.013170975,-0.0016198144,-0.13533063,0.064906575,-0.031598352,-0.05164871,-0.0027821667,-0.0126924245,0.13144927,0.11688437,0.048968427,0.082394704,0.013606435,-0.10629976,-0.08673942,-0.105982155,-0.117069684,0.012962242,0.1277688,0.09924825,-0.09078177,0.05113599,-0.0062608356},
	{0.09713208,-0.03906768,0.07843202,-0.09936693,-0.0047564325,-0.10300548,0.11661524,0.03478941,0.11482421,0.08746648,-0.057588466,0.06256981,-0.012833589,-0.064874835,0.035652272,-0.115788,0.09566074,0.08094675,-0.0749167,-0.07300093,-0.031358168,0.12139857,-0.015062459,-0.04539914,0.03615497,0.082287885,0.07623348,0.11399748,-0.044984706,-0.0729347,-0.09620291,-0.013722396,0.0137230735,-0.11604114,0.04878308,0.0037878323,0.08483931,-0.006763633,0.08041178,-0.049629167,-0.1246913,-0.12732153,-0.13255365,-0.035219852,-0.10695647,0.05975635,-0.101417884,0.011546231,0.00891834,0.0587084,0.12806684,-0.09576284,-0.004664505,-0.09113453,0.103234395,0.08235794,-0.12716596,0.017412568,-0.049009748,-0.063890204,0.09192757,-0.025514994,0.10226151,-0.041327734,0.11443815,-0.093817666,-0.08779984,-0.014403007,0.005875807,0.001283121,-0.000717413,-0.10833938,0.038349684,0.09399016,-0.13401745,-0.12992847,-0.0557578,0.096185744,0.08091269,0.12474192,0.0029439966,0.06002224,-0.016321937,-0.065175734,-0.07772054,-0.114775315,0.08372917,0.098340765,-0.13199477,-0.08765484,0.0005151896,0.049048282,0.00032335735,0.008017665,0.048219405,0.08363166,-0.07765666,0.026760189,-0.029435545,-0.049551643},
	{-0.02018183,-0.12096676,-0.04652472,0.013280309,-0.057845946,0.11903938,-0.100445785,0.006439965,-0.0016319568,-0.061164975,-0.06750974,-0.030469783,0.01935983,0.10975881,-0.12300225,0.116431326,-0.037099667,-0.052005105,0.12836236,0.046340227,0.016903795,-0.13360569,0.027892826,0.013114156,-0.06451684,0.05235232,0.09538435,0.11572568,0.12176977,-0.13126796,0.075275876,0.04692248,-0.10125028,-0.13205415,0.021842282,0.09071026,0.100999676,0.087377764,0.02920496,0.12887898,-0.12737216,-0.09423784,0.032181546,-0.03894472,-0.0036752545,-0.11780777,0.07842546,0.005035599,-0.031892598,-0.013129,-0.0059368573,-0.012730208,-0.035879094,0.1069559,0.07188167,-0.0024696256,-0.12772729,0.11411119,0.03331341,-0.06413956,-0.07948738,0.026050773,-0.1015448,0.0669644,0.07006971,-0.07899485,0.09378786,-0.06047193,0.0067779897,0.06000529,0.12742689,-0.040237144,0.019565253,0.12264064,-0.0047480217,-0.07448004,-0.026779827,0.069413215,-0.03538509,-0.13353133,-0.065903835,0.051100623,0.0038317987,-0.13069095,-0.06390857,0.024459265,0.11575958,-0.05205378,0.12964106,0.060073595,0.098388135,0.037566837,-0.13735858,-0.063046075,0.048754252,0.07965827,-0.052025154,-0.021011159,-0.008361073,-0.016845483},
	{0.110633485,-0.056088828,0.059960138,-0.048849218,0.08129378,-0.10342561,0.11079646,-0.13603868,-0.038882155,-0.014865993,0.07822106,-0.009158705,0.02310696,0.00091445056,0.12235262,0.024225542,-0.014297058,-0.06294289,0.07003262,-0.08555593,0.018682059,0.017294616,-0.07975219,-0.01192565,0.035094187,-0.09859886,-0.12068491,-0.0153586585,-0.03942627,0.04983943,0.09267386,-0.049736824,0.06540707,-0.031625114,-0.040586997,0.050541304,0.047070626,-0.10980354,0.0065988894,0.11781303,-0.076556765,-0.13557906,0.054681357,-0.034840774,-0.063177496,0.08860661,0.11070291,0.06512454,0.037610084,-0.117532946,-0.08679395,0.12715496,-0.012584587,0.00062956463,-0.07886175,0.061490465,0.10876473,-0.09495105,-0.107939854,-0.122058,-0.06619172,0.068140045,-0.028191768,0.08509195,0.020067431,-0.023358969,-0.10194722,0.0076989336,-0.04232243,0.11109679,0.06517357,0.056344617,-0.040283334,0.080450594,-0.12830643,-0.031194443,0.08036511,0.114809185,-0.04643382,0.098625556,-0.09344698,0.104759574,0.053791523,0.020512966,0.029028688,0.115449384,0.08368866,-0.10839734,0.069770776,0.0058807423,-0.12701209,-0.0064052846,-0.035420295,0.032657154,0.09838129,0.08685456,0.09758372,0.009095436,-0.00943382,-0.09526842},
	{0.026349647,0.08014389,0.027615001,0.064980134,-0.077618346,-0.13010937,-0.040061742,-0.008972681,-0.013773544,-0.094817854,0.03782306,0.048135687,-0.06392872,0.10865765,0.0671978,-0.09350456,-0.08734787,-0.09016391,0.07596805,-0.03788134,-0.0782711,-0.1250181,0.03779947,-0.0010991738,0.06593769,-0.110612266,-0.12229612,0.028723408,-0.13009612,-0.019258602,-0.024415478,0.05280964,-0.093437515,-0.009461752,0.013546175,0.08271512,0.026776388,0.03808955,0.099316485,-0.01667211,0.06772755,-0.014825004,0.1301695,-0.11173872,0.121995315,-0.04187137,0.10920641,-0.018846478,-0.09677735,0.09925156,0.025794435,-0.053556662,-0.087633535,0.06900274,0.09469108,0.030709347,-0.0076994747,-0.11993747,0.1058675,0.048704542,0.06983113,-0.024236375,0.12761094,-0.07607215,-0.0812729,0.09519759,0.037292127,-0.027826998,-0.10483557,0.083174095,0.0634187,-0.00084581116,0.03157225,0.0884715,0.05729681,-0.0035206547,0.11887053,0.06557095,0.10345045,-0.0674766,-0.12806188,-0.03801309,0.11043298,-0.108948775,0.051343706,-0.080439486,-0.1021351,0.03781533,0.096472315,0.095976494,0.083216384,0.03155764,0.017402822,0.059523962,-0.01889254,-0.12701438,0.009449843,0.05591731,0.12682672,-0.008786267},
	{0.009273196,0.11188114,0.07599633,-0.031889748,0.041670464,-0.10191916,-0.1309482,0.09725835,0.031927712,-0.10397191,-0.04510969,-0.028052289,-0.11795923,-0.12492733,0.10456073,0.023548666,-0.021886677,0.10024463,-0.13497603,-0.040028274,-0.06836842,0.031147327,-0.012420413,0.026960392,0.033134114,-0.019393058,0.07751086,-0.003851585,-0.00013826543,-0.10509091,-0.12872083,0.010441413,0.03797193,-0.12645325,-0.01274945,0.048744608,-0.03990431,0.12918149,0.12953588,-0.024925398,0.048402257,-0.09140415,-0.08345422,-0.0024620923,0.09786452,-0.06863865,0.12921253,-0.06956004,0.046552997,-0.0884337,0.00019401673,0.089117676,0.071880236,0.1253705,-0.08755055,0.12136728,0.038116027,-0.13101114,0.11300596,0.06936658,-0.11848869,-0.025670128,0.12361962,0.013286115,0.029301263,-0.055792708,-0.025500458,-0.09375173,-0.03897473,-0.09634989,-0.0874111,-0.017782466,0.11563743,-0.08227517,-0.109176524,0.051075354,0.034511585,0.09127224,-0.016554117,0.107571505,0.120665155,-0.044464633,-0.06598079,0.0799844,-0.07873322,-0.11560903,-0.030270623,0.089725874,-0.03515363,-0.12597965,-0.033296604,-0.065056756,-0.030470183,0.03106779,0.050134525,-0.13335584,0.12680504,-0.062804334,-0.03106377,0.09828031},
	{-0.010317203,-0.052067164,0.12202772,-0.009064807,-0.030173406,0.04281698,0.056377612,0.08924731,-0.057178553,-0.02398457,-0.08412876,-0.027255457,-0.034099985,0.12910363,-0.06969667,-0.081859075,-0.0016643497,0.06818183,-0.10219871,0.1008727,-0.080373555,-0.011403145,-0.1352077,-0.044047624,-0.070335455,0.04600082,-0.11455533,0.054541584,-0.11457365,0.08621404,0.12794124,0.05724541,0.13046002,0.12581134,0.040053893,0.10958845,0.014851382,0.058621798,0.09650249,0.0054179137,-0.08859447,-0.114726946,-0.10596041,0.12831831,0.1000501,0.07243005,-0.09739138,-0.08605355,-0.09230734,0.03450759,0.006110454,-0.0536072,0.10207202,-0.015510315,-0.02284302,-0.027723031,-0.04590341,-0.0016148286,0.09381867,-0.0810708,-0.0004502394,-0.08806611,0.13044444,-0.055259172,-0.07468626,0.06406414,-0.008015537,-0.066892356,-0.1073374,0.00589671,-0.027398912,-0.09161627,0.0008466792,-0.044886824,-0.1028713,-0.025077803,-0.06397198,0.08975461,-0.13030855,-0.0036195002,0.08187437,-0.0011884669,0.113257974,0.018344797,0.07079117,-0.1170262,0.098631196,-0.059322853,0.10702551,-0.024328366,0.10954812,0.10666256,0.053993303,-0.0013726073,0.033690516,0.050063524,-0.0023808738,0.007246173,-0.08257076,0.09866741},
	{-0.016181894,-0.038513895,-0.032296836,0.10512451,0.055931784,0.118125424,0.09570024,-0.073253356,0.036991876,0.044388674,0.020967323,-0.025837695,-0.011541681,-0.056482926,0.12804425,-0.05638016,-0.1249719,0.009861547,-0.098817,-0.09179931,-0.09499177,0.08194041,-0.06738242,-0.0887319,-0.1155271,0.09859849,-0.038726162,-0.037609424,0.026840191,-0.13115203,0.054319315,0.043717284,0.07054864,0.05490419,-0.084789194,0.006158441,0.07954831,0.059538867,-0.111640334,0.067339756,0.016085736,0.113846354,-0.12531093,0.046188954,-0.07275275,0.039024163,-0.124479614,0.030520119,0.0048210826,-0.029088719,0.0045775543,0.018922674,-0.00421456,0.04301364,-0.07340094,0.039377604,0.11219885,0.001974238,0.024011629,0.019875428,0.0011973272,-0.09243004,0.099639006,-0.054064993,-0.11434162,-0.12075662,0.004447566,0.027391877,-0.08016752,-0.0036743889,-0.0073160585,-0.06584355,0.07542563,0.051761314,-0.118402734,-0.10441505,-0.06955332,-0.050177503,-0.067474194,-0.102053314,-0.12282203,0.0027329691,-0.07183194,-0.08404575,-0.09378234,-0.123526715,0.10545993,0.13358812,0.024830144,0.0057016094,-0.08312169,-0.015611822,-5.8291072e-05,-0.07548462,-0.10643295,-0.028512513,0.051851552,-0.048361655,0.053586997,-0.03363046},
	{-0.025819913,0.09791956,0.020400077,-0.0633747,0.0130821,-0.08503365,-0.0917546,0.019210251,-0.11009018,0.123139866,0.03311482,0.09641257,0.06103167,0.066319264,0.05495016,0.1151926,0.0099173365,-0.10264306,-0.060498927,0.09976584,-0.10736765,-0.0052413205,-0.042548228,-0.029102232,-0.0031303628,-0.0019134876,-0.027031958,-0.068589404,0.03114552,0.05463346,0.038118776,0.018848138,0.04824162,-0.013405214,0.072566874,-0.13423184,-0.025542233,-0.11672041,0.12861507,-0.07408866,0.10039682,-0.113334514,0.086862706,0.030690257,-0.083634585,0.058859993,-0.10258493,-0.04367045,0.06402217,0.061872967,-0.13254333,0.04785643,-0.07216464,0.08841604,0.0764942,0.11846489,-0.13673417,0.02688484,-0.052395206,0.04596463,0.06484527,0.045350924,0.108010486,-0.021140356,-0.019381663,-0.07528663,-0.017025737,-0.13182446,0.056500554,0.05739779,0.09763595,-0.06521877,-0.007461068,0.048567742,0.029539483,0.049904928,0.043989915,-0.124437295,-0.015161909,0.079513036,0.041939292,-0.11395811,-0.10726343,0.018558593,0.05323597,0.08529283,-0.027192436,-0.053169135,-0.09670139,0.12202136,-0.07484901,0.09055853,0.12808648,-0.03501586,0.004060547,0.101057634,-0.09717,-0.052382678,0.099329375,-0.08927018},
	{0.0876384,-0.12635407,0.03964643,-0.035648853,0.056110863,-0.10758632,0.08467635,-0.03449556,0.07820035,0.1274485,-0.05156596,0.011215982,-0.10763585,-0.10301245,0.08934341,0.01704156,-0.08366505,-0.06831811,-0.12286157,-0.08076368,0.10467847,-0.003658958,-0.10142371,-0.044837534,-0.030814374,0.0100006955,0.014703664,0.023467347,0.02607041,-0.116155215,-0.012577356,-0.012303303,-0.071783125,0.034786444,0.09947054,0.078575596,-0.081359975,-0.12815523,0.120593384,-0.12417911,-0.0898996,-0.0379679,-0.035179246,-0.10120579,-0.13198546,0.008612932,0.051552642,-0.051152524,0.04553028,-0.053359337,-0.09640335,-0.11834096,-0.03869754,0.053239312,0.124515496,0.020247007,0.11934539,0.04807389,0.08927543,0.010039139,-0.099204175,0.0920293,-0.10021479,0.08494452,0.02384236,-0.075630166,0.0044166627,0.023364305,-0.11925739,0.08033114,-0.041831687,0.09508865,0.09674676,0.064121634,0.028009335,0.020317685,-0.11580909,-0.08226778,0.0673515,-0.09549728,-0.111419335,-0.03304408,0.022083418,-0.07950355,0.08892564,-0.050159074,-0.002377646,0.0011101533,-0.049409647,0.10186718,0.062235244,0.043632653,0.07378584,-0.049735554,0.038475778,-0.10611928,0.1017412,-0.005991698,0.11977604,-0.009225924},
	{-0.13474572,0.10917112,-0.12998322,-0.0220227,0.07102591,0.109112866,0.11383004,-0.05862553,0.048507918,0.032406263,-0.09516545,0.008091391,0.00203848,0.075108245,-0.11107857,-0.044680737,-0.08388723,-0.02592757,0.115983166,-0.110974565,-0.119111344,-0.010974598,0.021901721,0.1099151,-0.13039234,0.038160343,-0.075438336,0.051505856,-0.09868458,0.05907508,-0.010951841,0.10226769,0.010569364,0.015937697,-0.0023688108,0.013315843,-0.09383752,0.10476944,0.0034117517,-0.011370343,0.072498426,0.08077984,-0.057739574,0.03349888,0.12254808,0.09598674,-0.065701984,-0.10112951,0.04543978,0.13057171,-0.038664296,0.069420315,0.09598811,-0.03879508,0.1287198,-0.12521839,0.060502663,-0.12899001,-0.073132634,0.12080591,0.06883381,-0.05333148,-0.029795686,0.07976887,-0.03981397,0.054777868,0.022549672,0.076859295,-0.058278047,0.06943675,0.036637004,0.027038407,-0.064133875,0.026219081,-0.07258213,0.027870513,0.10306816,0.013989859,-0.078195065,0.123807184,0.057361618,0.0726908,-0.012589721,-0.034595557,0.106136255,0.12343886,-0.08880744,0.035348617,-0.11965572,0.10154831,0.08315497,-0.01624782,-0.13001437,-0.12195347,-0.13424323,0.06439402,-0.019162273,-0.13215204,-0.120297655,0.10814388},
	{-0.09923819,-0.0007004383,-0.015128778,-0.13438392,0.104554676,-0.06623049,-0.038618587,0.009275203,-0.063024536,-0.07535015,-0.03451878,0.09047985,-0.118906334,-0.011498339,0.028458003,-0.03195079,0.003035217,-0.074047886,-0.0052076997,-0.037813045,-0.084497906,-0.058481183,0.12994109,0.021870404,-0.056314595,0.05296992,-0.0865617,0.085177325,0.026789816,0.036684968,-0.10950759,-0.048630953,-0.03249897,-0.102502614,0.030605365,0.072719514,0.09768426,-0.06362581,-0.0047049895,0.11001544,-0.01868582,0.123705514,0.11682297,0.0106497845,0.03680354,-0.025422556,-0.11364848,-0.06956851,0.106937096,0.020032665,-0.045905266,-0.08540011,-0.074286394,-0.087478675,-0.027815329,-0.073356025,-0.037879344,-0.07571695,-0.025716389,0.031841703,0.023697259,-0.087239645,0.11910293,-0.09581221,-0.12251858,-0.040479224,0.09854409,0.006709819,-0.09501828,-0.06407132,0.117942095,-0.0061045047,-0.12113485,0.024790328,0.028111307,0.007214141,-0.034364466,0.043600336,0.027167456,0.11544112,-0.08368881,-0.13215281,0.093200885,-0.11450602,0.05332329,0.088715054,-0.12582015,-0.10879489,0.11013969,-0.077679604,-0.11587568,0.07122185,0.12940383,-0.116194874,-0.103783205,-0.12020837,0.077839896,-0.057564467,0.09461788,-0.06179401},
	{-0.066395685,0.08031011,-0.09724258,-0.035984106,-0.11145644,0.06416056,-0.07747107,-0.03383175,0.021701448,-0.052921757,-0.00061569957,0.057095684,0.07915319,0.07970965,0.016584652,0.08802146,0.0644136,-0.09636107,-0.11507467,-0.004650188,-0.10264261,-0.106566764,-0.013539978,-0.053021293,-0.12092745,0.0719348,-0.11259144,0.041665316,-0.061365,-0.027059063,-0.062617846,-0.0942253,-0.08401272,-0.1370134,-0.11686576,-0.07078505,-0.05709472,0.081096716,0.038085297,0.03437569,0.07782466,-0.08842281,0.11770268,0.08547642,-0.0017760901,0.12226043,-3.687854e-05,-0.07313307,-0.066827364,0.08751058,0.10334889,0.03572629,0.0130393775,0.0074601825,-0.04123071,0.08452844,-0.073444456,0.070809536,-0.052224245,-0.08986557,-0.014207087,0.016730355,-0.04819341,0.10597747,-0.015243702,0.025062492,0.023590265,0.03704071,-0.04615122,-0.13623525,-0.03760881,0.1207185,0.019526675,-0.114454076,-0.08597983,0.067045845,0.07176105,0.06910978,-0.13176651,-0.06680333,-0.0018481282,-0.002182192,0.09237967,-0.129699,0.088761166,-0.03930406,0.03406917,-0.089586206,-0.07379589,-0.08305801,0.12847608,0.11526247,-0.037685852,-0.07160263,-0.12732819,0.111227706,-0.0858436,-0.014437103,-0.1084546,0.12896417},
	{0.038794234,0.101008035,0.064099036,-0.055231437,-0.07967709,-0.030243736,0.07414762,-0.05776348,0.03338532,-0.02522166,-0.013281365,0.12858264,0.03856458,-0.05405464,0.086752504,0.106899425,0.06909655,0.0028179255,0.10680603,-0.10028507,-0.08575753,0.1155801,-0.045990292,-0.086286426,0.008787517,-0.12675937,0.051315922,0.0015620124,-0.004689463,0.10663548,0.08541816,0.083223335,-0.04291184,-0.09059383,0.12994815,0.09572889,0.09304197,-0.063844815,0.04764485,-0.08889744,0.11578406,0.10382662,-0.020022355,-0.009067283,-0.08041609,0.09524047,0.11306181,0.055782657,0.0013966628,-0.10375434,-0.068774,0.016834605,-0.03649511,-0.049134884,0.11308629,0.08420302,0.11067329,0.052008584,-0.118467756,-0.084713355,-0.049142186,0.111019075,-0.038964476,0.032825444,-0.04872376,-0.018994255,-0.05402359,0.037196506,-0.01712866,-0.009544284,-0.07190918,-0.0074229445,-0.10339347,0.035172954,0.039061412,0.063454576,-0.065953925,0.022291353,-0.08022077,-0.12476306,-0.046545647,-0.06839958,-0.031180996,-0.0010780406,0.018372986,-0.0758085,0.059267182,-0.10143139,0.11166583,0.011391271,-0.12970445,-0.016956734,-0.07032323,0.013255189,0.07968997,0.037666097,0.046728708,-0.08025977,0.12830697,-0.09280062},
	{-0.06878088,0.12688375,0.11733546,0.036065817,-0.122688465,-0.12937933,-0.099598765,-0.040398218,-0.112667345,-0.11587585,-0.06171091,-0.017021513,0.07944982,0.061874747,-0.058990173,0.09623453,-0.028088711,-0.117379256,0.10742645,-0.032064687,-0.078361094,-0.02421147,0.11295008,-0.060604643,-0.081694044,0.107365295,0.082799725,0.089070745,-0.04733355,-0.08176787,0.041974716,0.015404591,0.094149396,0.0672183,-0.12227058,-0.016916756,-0.0009920631,0.09714219,-0.057444643,0.040898874,-0.11234735,-0.09026127,0.0111929,0.11242299,0.0025440168,0.006270667,0.06884377,-0.054534715,0.02100625,-0.0963373,0.10475544,-0.09936562,0.0043814904,-0.046667114,-0.07344033,-0.005106853,-0.07628416,-0.02332937,-0.064975664,-0.1313485,-0.06469348,0.084282696,-7.702724e-05,0.08062422,-0.06019608,-0.11880054,-0.023817418,-0.1171554,-0.06463465,0.025161618,-0.12849793,-0.10674966,0.0021610733,-0.07194896,0.03659133,0.09655619,-0.04959273,0.08664189,-0.049009446,0.114068314,0.09991936,-0.1322983,-0.022301873,-0.11702856,-0.109988935,0.124955006,-0.07755835,0.02581125,0.028957702,0.11313885,-0.022756504,-0.12983985,0.023598308,-0.06891784,0.130977,-0.035432108,0.11195398,0.020319043,0.107364915,-0.12966077},
	{-0.046075545,-0.0858759,-0.08697123,0.08968434,-0.038532007,-0.083597556,-0.017226275,0.052096743,-0.025946189,0.028738374,-0.11869087,-0.0068007032,-0.049420256,-0.09511928,-0.11157117,0.097811446,0.11080844,0.0102129355,0.0146431625,-0.13262965,-0.048838615,-0.10454441,-0.029298058,-0.106440805,-0.072551325,0.018991342,0.12646069,-0.11433718,-0.033462774,0.129195,-0.09487617,-0.027941525,0.06049177,0.073926784,-0.049136024,-0.0031850534,-0.045111123,0.11458461,-0.015093544,0.014786061,0.039724573,-0.09565918,0.0098862555,0.09949204,-0.08479267,-0.014679598,-0.033656213,0.11507711,-0.0761099,0.030172398,-0.070582025,0.10557847,-0.06132921,0.064299725,-0.043917626,0.090890355,0.06709936,0.052815218,-0.13425677,-0.103592925,0.037814524,-0.043487985,0.009353981,0.04814722,-0.037230585,0.13056818,-0.12973492,-0.08993115,0.07639575,0.11536915,-0.014468999,0.08488549,-0.04182618,0.12218387,-0.085578345,0.09232218,0.13034593,-0.12447096,0.11920337,-0.026765192,-0.06435817,-0.06474746,0.12226984,0.058874898,0.069072284,-0.030997943,-0.084424786,-0.04039158,0.11722513,0.017178867,0.0719862,-0.0053850845,0.07466527,-0.045550767,-0.10442619,-0.021601144,-0.07825252,-0.029552512,0.058829643,0.0013647327},
	{0.0039557917,-0.03156861,0.094807275,0.023853939,0.010210158,0.05701365,0.071380146,0.015939923,0.08734413,0.013359942,-0.07827351,0.036633566,0.030653223,-0.02649754,-0.021570746,0.07826112,-0.070253015,-0.120080516,-0.054133233,0.12383225,-0.07453964,-0.096723706,0.0013252503,-0.10484493,-0.09084976,-0.1381683,-0.10147707,0.1047187,0.0063397707,0.06784741,-0.09911433,0.123468384,0.076310694,0.0706024,0.12077118,0.09473643,-0.11381945,0.0355047,-0.08777323,-0.057708044,-0.107223354,0.06994161,-0.041127708,-0.062130917,0.06927684,-0.023240138,0.11385145,-0.0010824427,-0.042946987,-0.08276429,-0.055843905,-0.09701383,-0.036549356,-0.08183401,-0.10062574,-0.015026804,0.006992111,0.06805619,0.027522175,-0.03736101,-0.03727691,0.06503276,0.1195575,0.10319374,0.026735509,-0.08493893,-0.092702374,0.07681055,-0.11411067,-0.10264677,-0.12918752,0.09621583,-0.019482767,-0.07038466,0.013157531,-0.057511784,-0.0881683,0.06732957,-0.13604496,-0.10600652,0.13189702,0.045646776,-0.13102257,-0.08674295,0.13183603,0.03668243,0.11676883,-0.07187187,0.06109675,-0.07033909,0.047312237,0.118216135,0.12929438,-0.09318746,0.050153594,0.055284902,0.0982113,0.0652307,-0.1009692,-0.110121466},
	{0.12546602,-0.037088517,-0.008113004,0.11290054,-0.0042851833,0.12792128,-0.019658761,-0.02594014,0.08928433,0.02246664,-0.13619712,0.036123678,0.0070926333,0.090567395,0.094461374,-0.009501379,-0.13667937,-0.11748705,0.01968948,0.05576977,-0.04951143,-0.107639916,-0.1201532,-0.032212637,0.075491406,0.12501743,-0.004743926,-0.0008916409,0.09765685,-0.06012619,-0.030583011,0.025153467,-0.13016887,0.007649943,0.029145706,0.005289167,-0.12561871,-0.039849304,-0.097230785,-0.08122504,-0.011687206,0.015394488,0.113325454,0.07453504,0.07135651,0.09980939,0.12415706,-0.08811535,-0.054669447,-0.13167773,-0.07726468,-0.05330995,0.10386752,0.12839545,-0.08036968,-0.0006149868,0.054655064,0.12549502,-0.059587814,-0.020873293,0.033541713,0.027266037,0.009352237,-0.03053929,0.09881366,0.048356637,-0.0052218046,0.04766377,-0.034507338,0.038264044,-0.0074557015,-0.007097775,-0.02034859,-0.072447315,-0.014081025,0.07303969,-0.056832083,0.11325725,-0.02105405,-0.068301015,0.025957096,-0.003947665,-0.10761381,0.00542187,0.031909335,0.095620774,-0.01544438,0.057449874,0.11652251,0.060999844,0.11072312,-0.03325736,0.059806913,-0.12766315,0.08895313,-0.07463191,0.04626951,0.046548687,0.095751464,-0.006961221},
	{0.046627805,0.0157465,-0.081002496,0.10858931,0.07666095,0.08357197,0.114675425,-0.006163692,-0.10629218,-0.09441281,0.06516227,-0.08331726,-0.09257447,-0.03471621,-0.0054987315,0.043881178,-0.06214972,-0.094138674,-0.050142832,-0.11087349,-0.113088384,-0.02143756,-0.12389904,-0.036059294,0.088617474,0.023915084,-0.06990735,0.05679973,-0.009876147,-0.018970586,0.006031903,0.12732193,-0.042568747,0.050133765,-0.030806107,-0.11875543,0.06356092,-0.13683967,-0.12440921,0.10465662,0.07349488,-0.11730506,-0.0771542,0.08440752,0.060540006,0.090328954,0.0075750607,0.050695036,0.08312244,-0.09080597,-0.0731981,0.10511615,-0.04046259,-0.12519373,-0.00029355558,-0.09786737,-0.040297013,0.1019963,-0.12424101,0.090053216,-0.12294238,0.11682814,-0.05913111,-0.089851096,-0.12973967,0.001034887,-0.038744103,-0.06673767,-0.098304264,-0.10649087,-0.08183769,0.06697354,-0.11890124,0.09003877,-0.12915233,-0.059442855,0.06705838,0.087442935,0.047968104,-0.02445253,-0.053389076,-0.013406797,-0.13039888,0.06788368,0.08397922,0.07839699,-0.12698485,0.053622868,0.08687221,-0.05362267,-0.12309898,-0.08499444,0.13044964,0.014095167,-0.11881537,0.04162723,-0.00430717,0.09428209,-0.058806557,0.094284445},
	{-0.05065087,0.002968358,-0.052317314,0.019867433,-0.11993556,0.10124998,-0.118580125,-0.114193425,-0.043929596,-0.10682321,0.029376922,-0.021075424,-0.09781989,-0.096362725,0.0136686545,-0.07046068,0.067032926,-0.088376716,-0.012966705,0.03776018,-0.006983103,-0.01259895,-0.07988776,0.015121232,0.095594116,0.09591666,0.05895213,-0.09369282,0.019645534,0.12056128,0.08806435,0.075015694,-0.032191038,-0.036497165,-0.11030325,-0.010832724,0.10972178,-0.031109547,0.046840683,-0.011912131,0.0146649955,0.04219005,0.100948334,0.04559401,-0.12499799,0.12796451,-0.050655786,0.12817918,-0.076664254,0.08583276,-0.11160916,-0.134678,-0.109673165,-0.039320424,0.01602581,0.05653471,-0.01932134,0.018238442,0.121029384,-0.12033084,-0.012560063,-0.13006672,0.06885495,-0.1301327,-0.13212824,-0.024204666,-0.106209345,-0.077563055,-0.05038734,-0.027650377,-0.0815886,-0.10727117,-0.08864465,0.111934744,0.12942116,-0.03406745,-0.045124758,-0.118137255,0.013440648,0.028406402,0.042859036,0.119714506,-0.12080725,0.04399659,-0.09476698,0.040021952,-0.09858268,0.0414804,-0.019576987,-0.08080679,-0.07706146,-0.016044954,0.032305963,0.086533636,-0.030581355,-0.05326472,0.038531866,-0.10596526,-0.0871081,0.08066725},
	{0.07991338,-0.0934957,0.06694023,-0.06964537,0.034356304,0.019881647,-0.078433104,-0.09167589,0.014027619,-0.105048604,0.007702201,-0.05379941,0.05295848,0.076768875,-0.09305418,-0.052036718,0.03605787,0.118686534,-0.12432543,-0.052599248,-0.073128134,0.006747284,-0.1143366,-0.02921089,-0.016191471,-0.092634715,-0.1134078,-0.018789517,-0.060289897,-0.08145223,-0.0012427992,0.0059662214,-0.0453967,-0.03212909,0.01840735,0.057185978,-0.022555886,0.043378647,-0.018563312,-0.022622542,-0.08960665,-0.0041412343,-0.10324886,-0.06467327,-0.004529131,-0.095645174,0.08402626,0.072084144,-0.034298588,-0.017491998,-0.026642455,0.08731109,-0.037235573,0.023787929,-0.01664359,0.046952255,-0.097860284,-0.0058827414,0.038381137,-0.069729246,0.074104674,0.016796736,0.08081724,-0.1176999,-0.11798782,-0.046745967,-0.09965289,0.06297735,0.042352166,0.08077385,0.119949825,0.07338976,0.042111706,0.073219515,-0.05217124,-0.12035224,-0.06134494,-0.03266431,-0.13512196,0.06571548,0.10948477,0.008504029,-0.10766756,-0.10467787,0.023183111,0.042250324,0.11708707,0.08357317,-0.08666112,-0.059115194,-0.032892775,-0.00864718,-0.09558063,-0.1025755,0.10247262,0.08229303,0.07226282,0.02697704,-0.12513049,-0.056028485},
	{0.033981413,0.08924116,-0.08883892,0.012537616,-0.0015576455,-0.093022294,-0.06329752,-0.075330384,-0.034397975,-0.03496149,0.1179498,-0.018365486,-0.07697032,-0.058927726,-0.10211967,0.06669033,0.022656584,-0.08228104,-0.07240829,-0.027365064,0.00087993836,0.110534996,-0.094180815,0.08217248,0.06432898,-0.017415421,0.12968974,0.12808545,0.05723842,0.113342024,0.03156247,-0.076562226,-0.09328704,0.12539925,-0.13600932,-0.123658136,0.1090681,0.10695216,0.032838643,-0.032833617,-0.014045515,0.015751287,-0.11373223,-0.12893529,-0.0068128267,-0.10927853,0.022727381,0.054423142,0.1017941,0.009465503,-0.066761166,0.10733921,-0.023005811,0.037199713,0.104362376,0.023801755,-0.106204055,-0.12542966,0.08667101,-0.009979658,-0.071986705,0.02308134,-0.111685865,0.11112673,-0.09730343,-0.07086842,-0.082268484,-0.13209762,-0.04125505,0.095728785,-0.06817943,-0.11907911,0.037134785,0.001246667,-0.013845832,0.055378653,0.10231231,0.06559683,0.06999221,0.09113554,0.09348339,0.08838567,0.12631333,-0.10563766,0.10979224,0.03780499,-0.07053031,0.11115965,-0.009687458,0.11857152,0.09178333,-0.020462982,0.062234655,0.098581806,-0.027623538,0.12961324,0.11842801,0.018697755,0.0680189,0.046178542},
	{-0.033002652,0.050047148,0.06136386,0.0145931365,-0.023220617,0.080770686,-0.011602479,-0.086389944,0.054045226,0.12461934,-0.1267138,-0.09054257,-0.04691013,0.10867029,0.022833023,-0.08296157,0.1244608,0.04403636,-0.03726181,-0.064885624,0.07653597,-0.08659759,-0.11999612,0.059801992,0.009830605,0.114415035,-0.054126997,-0.06984791,0.12842272,0.061273437,-0.13718523,0.101831675,-0.0462896,-0.015192486,-0.0836412,-0.07746336,-0.102770075,0.030879425,-0.095371746,-0.081463,0.053691372,-0.0014359829,-0.06075666,-0.08984178,0.12501444,0.030925412,0.012636561,0.014172004,-0.11670548,0.11126525,0.024402842,0.037577022,0.043295704,0.003204301,-0.021949118,0.08233029,-0.0465927,-0.06193238,0.011093579,-0.057246335,0.08476692,0.04229932,0.058872726,0.054686185,0.061008513,0.09455353,-0.09685755,0.11809722,0.122544944,0.0893422,0.05898349,0.006210787,-0.028234385,-0.1317943,0.03563143,0.12501949,-0.10345386,-0.06837787,0.03659732,-0.054853506,0.024700772,0.032609567,-0.1330877,-0.030097187,-0.02254678,-0.057767414,0.07068936,-0.06429743,0.022290163,0.09712259,-0.108854465,0.12180044,0.11939399,-0.073020555,-0.014422707,-0.12020666,0.115354426,0.024731252,0.07858727,-0.03025302},
	{-0.1322408,-0.03651091,0.06575763,0.008528073,0.04581611,-0.1286768,-0.028208762,0.014971025,0.10875438,-0.078562975,0.0754799,-0.11274267,0.13076514,0.058287054,-0.11997142,-0.07688985,0.0019370333,-0.11691991,-0.07533221,-0.13316597,-0.08316328,0.093240336,0.072994165,-0.12313606,-0.0023150302,0.10573066,-0.014821457,-0.04405525,0.08873003,-0.008508972,0.038205925,0.062211823,0.10298041,-0.004031382,0.06984759,0.116643265,-0.12408022,0.06425972,-0.087313026,0.043944813,0.09745014,-0.06645998,0.04684756,-0.09845388,0.046703342,-0.12903965,-0.08394741,-0.035371043,-0.13511361,0.040691093,-0.0841916,-0.10745075,0.074133016,0.11079343,0.09056675,0.12300007,-0.04459744,-0.014959608,0.03882484,-0.11501839,-0.096764445,-0.07165339,-0.052596394,0.08459295,0.08081979,0.07155434,-0.035058003,-0.061397325,-0.1005649,0.032169215,-0.03918344,0.049871974,-0.07090612,0.06559378,-0.05984857,0.049968246,-0.014633689,-0.010936174,-0.13651523,-0.019098818,0.09706794,0.13002989,-0.076487646,0.007695415,0.10124385,0.06199278,0.015263097,0.04979631,0.0067066434,0.07076888,-0.12640886,-0.031149846,0.100704305,-0.09549915,-0.088593036,0.005457916,-0.10615112,-0.117724515,0.12950082,-0.0686556},
	{-0.10859474,0.084410675,-0.0729233,-0.04001171,-0.01589878,0.08799111,0.104409,-0.04230463,0.121357456,0.12548298,0.024293087,-0.04061512,0.084522665,0.08186475,0.0093443105,0.115688354,-0.057181854,-0.08632475,-0.02286223,-0.10457131,0.12253932,-0.073797606,0.08472287,0.11683888,0.06696004,0.11967677,-0.1293179,0.026150428,-0.096690945,-0.02930935,-0.030461049,-0.10216254,0.117651574,-0.07113482,0.009103922,-0.024524445,0.09993341,0.1225723,-0.11052467,-0.0057622218,0.07094063,-0.04920036,0.09302803,-0.050726045,-0.13425934,0.11391531,0.12270596,0.049427472,0.03212256,-0.032856904,0.011252016,0.10028684,0.09034847,-0.008388126,-0.043154232,0.036369056,0.12244638,-0.022498421,0.04769077,-0.046175107,-0.110031486,0.016144155,-0.052799437,0.09252838,0.112796,-0.046236593,0.12202409,-0.04248708,0.057725266,-0.010615998,0.028882561,-0.050307788,-0.020562131,0.02755196,0.073354915,-0.028462945,-0.002668646,0.05533148,-0.06949504,-0.022133311,-0.09580891,-0.027759135,-0.12750329,0.07069636,0.022991255,0.07298043,-0.048177086,-0.01756533,0.09236714,0.08385363,-0.09374583,-0.052450873,-0.097354695,-0.08982223,0.12436929,0.070419475,-0.11409612,0.01742127,0.115862325,-0.07726693},
	{-0.018868713,-0.06030946,-0.12948279,0.024844537,0.023580296,0.011782605,-0.02317168,0.014387089,0.021969995,-0.011065696,-0.09745796,0.11902513,-0.08542699,-0.111019626,0.036531184,0.009747642,0.06389619,-0.049767274,-0.045583095,0.05628309,-0.029942626,-0.0838577,-0.0030946478,0.12330151,-0.09080619,-0.01165926,0.01026374,-0.10038846,0.10548463,-0.047327884,0.05354531,0.055339705,-0.1352896,0.09354027,0.048451297,0.06520102,-0.07346462,-0.07043791,-0.078218,-0.03132424,-0.1094894,0.025543252,0.0490651,0.12596999,0.03917457,-0.07460546,-0.09655836,-0.061581146,0.044326317,-0.08867469,0.004230486,0.036107972,0.058302347,-0.08761014,0.045463007,0.070532374,-0.13625193,-0.048780665,-0.11964089,0.12434121,-0.087379515,0.10847403,0.1140057,-0.09890532,-0.1037889,-0.02404917,0.021884304,-0.07334437,-0.096846096,0.12477354,-0.038586125,0.10353837,-0.08130775,0.029555902,-0.059546772,-0.13441868,-0.12401205,0.043402944,-0.085978754,-0.003168027,-0.083965234,0.1264219,-0.1334392,0.029946378,-0.009515223,0.044944953,0.008226057,0.024028584,0.10258782,0.007751528,-0.004926565,-0.009589539,-0.049892414,-0.10258396,0.082835585,-0.005037327,-0.014209201,-0.12997068,-0.122103296,0.060119394},
	{0.018217912,-0.11692368,0.02680025,-0.077588655,-0.024608321,0.06038114,-0.014920463,0.026651604,-0.10343436,-0.09063634,0.06789403,0.048850846,0.02595897,0.101912834,-0.10620315,-0.025961667,0.06978983,0.12228581,0.015734952,-0.0843605,0.0597381,0.118554205,0.09140325,0.12925464,0.018332884,0.110211186,-0.081266224,0.0425237,0.12363568,0.07881968,-0.03916609,0.02010926,-0.028073192,-0.08001428,-0.046827003,0.058876533,-0.042790834,-0.05729412,0.12670955,-0.11765798,-0.030474309,0.12419375,-0.078357935,-0.036457952,0.10645954,0.003197167,-0.057752836,-0.023258163,0.123756275,-0.07701526,0.10933323,0.009215913,-0.007329457,-0.0030555462,-0.05769725,0.04780302,-0.05060945,-0.01136603,0.01784154,-0.047902647,-0.075897306,0.06832514,-0.1371168,-0.085236534,-0.06369247,-0.07375137,-0.029953381,0.09459678,0.003635915,0.025048919,-0.08714566,0.034871835,-0.03318753,0.1033641,-0.11721684,-0.13162802,0.043653384,0.1201916,0.01720135,-0.042481083,-0.04640007,-0.09008557,0.12506783,0.113482036,-0.048946753,-0.042753246,0.02006598,0.059883624,-0.1302923,0.0024388505,-0.12957521,-0.09642794,0.050173018,-0.13570236,0.08439831,0.10153902,-0.049584713,-0.029124932,0.08588613,0.039475113},
	{-0.082974754,-0.016264327,0.117428586,0.07868922,-0.1105125,0.099318415,0.06385881,0.13169797,-0.126269,-0.11019616,-0.09078238,-0.12457615,-0.049797565,0.12072295,-0.041186254,-0.053775102,0.015023116,-0.03599026,0.08857597,0.05584161,0.018830145,0.021898942,-0.03329497,-0.017840419,-0.053298257,0.124186724,-0.11438812,-0.006891949,-0.12874322,-0.12654155,0.03914341,0.090267085,-0.007122034,-0.037361704,-0.1078606,-0.053405937,0.08125437,0.114072606,0.084283486,-0.028975038,0.025504494,-0.1179981,0.08490019,-0.01359884,0.11676091,-0.025879368,-0.07927518,0.031238424,-0.06858232,0.076986216,-0.13235754,0.036247943,0.08742316,-0.09615738,0.032128226,-0.026859747,-0.02099807,-0.03344812,0.06829531,0.106386356,0.09734043,0.056373708,-0.0729443,-0.11928847,-0.08409069,0.054505512,0.11057235,0.115100466,0.027680876,-0.109608114,0.056107804,-0.04409395,0.07929222,0.08744769,0.1040796,-0.12147948,-0.102007635,0.10379949,-0.1104337,0.07762117,0.021175932,0.0462237,-0.097866416,0.08589993,0.0013164076,0.12690143,0.08071749,0.013847365,-0.047591716,-0.0974553,-0.019139702,0.10218712,0.072662815,-0.07295393,0.054644924,-0.050500166,-0.04858015,-0.07426113,0.09624366,0.12627953},
	{-0.06803045,-0.089983545,0.050940704,0.033420216,0.061203178,-0.038004477,0.062124692,-0.002076946,-0.09968181,-0.12529324,-0.06776236,-0.11399282,0.05892779,-0.10984499,-0.13293025,-0.00022824664,-0.04666783,-0.028405624,0.06400371,-0.08296751,0.06408888,0.056912493,0.12949534,0.10978122,0.003557415,-0.09504413,0.045544937,-0.005498095,0.043985084,0.04720284,-0.0604039,0.08902001,-0.10254204,0.054586377,0.09703466,0.09435885,-0.003822072,0.039793573,-0.044323362,0.0034180984,-0.014029481,0.10944436,0.03367296,-0.11747882,-0.075958215,0.11385475,0.108537704,0.11789338,0.04702976,0.1005875,-0.059795786,0.067472875,-0.11721814,0.11546255,0.10550199,-0.02412709,0.12354034,-0.06968177,0.09922018,-0.0050189095,-0.016909393,0.104231134,0.010607083,0.056207277,-0.01733297,0.11438498,0.0064460593,0.10027112,0.071356684,0.10897362,0.12300547,-0.004354765,-0.121342264,-0.10869983,0.100703575,-0.08870709,-0.10689655,-0.09558805,0.021314055,-0.0044722036,0.10592456,-0.09863339,0.1021413,-0.019144382,0.038676795,0.014054486,0.099978305,-0.07112666,0.108451605,0.043735284,0.08355355,-0.11253848,-0.056172036,-0.10361567,-0.05045557,0.06285807,-0.081581615,-0.023821639,-0.046510696,-0.011788223},
	{0.002400269,0.07852299,-0.010337802,0.108159095,-0.032916,0.09373812,0.10871366,-0.042728238,-0.029071508,-0.11447557,0.124195874,0.03406933,-0.07724351,-0.02761153,-0.08068211,-0.08676964,0.11988593,-0.13175176,0.10157364,0.08703606,0.045010958,-0.0942581,0.101003595,0.042766318,-0.027523462,0.000980082,0.013771473,-0.029779283,0.027091647,-0.0009621267,0.1199138,-0.10280613,-0.028815614,-0.06591997,0.055048954,-0.11613998,-0.094256215,0.016507996,0.0307264,0.08859626,0.070331685,0.112370655,0.12473895,-0.12876593,0.09262057,0.08443087,-0.06124651,-0.10716855,-0.077187285,-0.090346776,0.059621293,-0.057692267,0.12078161,-0.13239446,-0.10779277,-0.03765629,-0.121492594,-0.12666619,-0.07565089,0.08739204,-0.023104526,0.008789827,0.0016828465,0.08916217,0.0108916,-0.08982842,-0.0053600376,-0.08754048,0.012553392,-0.07041222,0.008839074,-0.08191415,-0.0010412317,0.0042482466,0.037181877,0.10789114,-0.061772656,-0.11971198,-0.12041521,-0.02230152,0.039766118,-0.07405605,-0.055373818,0.048406843,-0.1279312,0.04381869,0.050969057,-0.018543966,0.042170048,0.06973431,-0.08055048,0.11265714,-0.11232204,0.12811635,0.08175262,-0.021051636,-0.047547452,0.10402085,-0.009162814,0.09169655},
	{0.07226195,0.04885974,-0.052740417,-0.064563096,-0.044999767,-0.02266391,-0.020867843,0.09685771,-0.046160344,-0.00639739,-0.07750539,0.009770665,0.121196076,0.116262324,-0.10508887,-0.03564882,-0.13034302,-0.05881186,-0.10079162,-0.07909461,0.04756698,0.052298255,-0.036046978,-0.04129383,0.023837723,0.057682637,0.083744995,-0.030541861,-0.09475957,0.085416645,-0.060931526,-0.03020929,0.037385292,-0.04312535,0.017896885,0.09630096,-0.12622292,-0.025535665,-0.03739976,0.051027957,0.066567466,-0.084568806,0.1251494,0.121939704,0.11259124,-0.08464064,-0.038882762,0.012366176,-0.13102446,0.064944915,-0.014687313,-0.030516258,-0.11516266,0.009173115,-0.052094676,-0.08784707,-0.10678728,-0.074800886,0.033168525,0.016752822,0.08154092,0.03312904,-0.088209145,-0.1349816,0.107769705,0.019422678,0.099105015,0.06977731,-0.013601353,-0.023206638,-0.119883314,0.055261634,-0.078449905,-0.0943035,-0.031892486,-0.10414212,-0.12460792,-0.079472885,-0.056931075,-0.0154801365,-0.09423967,0.0037812113,-0.12747799,-0.10967962,0.12970988,0.097623564,0.10240307,0.036217026,0.035302725,-0.0808953,-0.054517094,0.020772519,-0.092274494,-0.09022905,0.017521871,0.11540922,-0.08960234,0.13055259,0.070263125,-0.003803948},
	{0.12659714,-0.02982882,-0.09644561,0.07344822,-0.10363134,-0.028899044,-0.10681087,-0.105541065,0.13361037,-0.068680935,-0.1162754,-0.08978799,0.053933706,-0.09130524,0.12030274,0.0039577074,-0.08363643,-0.019316645,-0.12357087,-0.085361496,-0.12473338,-0.006528822,0.004404213,0.08062814,-0.09707545,-0.051251326,0.022176001,-0.116527334,0.123044275,-0.072003506,-0.06649496,-0.059192006,-0.054369807,-0.07616302,0.0026244228,0.09775138,0.111287,0.12395071,0.11885194,0.008334579,0.12345066,-0.0688336,0.020923179,-0.054819804,0.053111773,0.110224396,-0.13043271,-0.11615948,-0.02866879,-0.02990807,0.016244257,-0.028888991,0.09397496,0.058176465,-0.01905333,0.06535356,0.012161357,-0.010108426,0.022186227,-0.016470514,-0.12974271,0.00695249,-0.0006088026,0.09531949,-0.011184985,-0.119776055,0.055565014,0.05542076,-0.058161687,-0.10589152,0.010082765,0.08523814,-0.11354059,0.10986228,-0.032341056,-0.04200952,0.0011788271,0.020781877,-0.023659643,0.08759265,-0.07064421,0.08885088,-0.110496394,-0.09242104,-0.121085405,-0.07361861,0.03439901,-0.054250468,-0.078875825,-0.13497467,0.099673145,0.104972675,-0.03933539,0.10000307,0.009510567,-0.08809028,0.08202374,-0.034729194,-0.04362336,0.022341175},
	{-0.12814714,-0.059120793,-0.09881543,-0.106302276,-0.014473535,-0.08763432,0.03390129,-0.005390385,0.04365863,0.09547706,-0.04799452,0.08650465,0.07047627,-0.042255323,0.039351273,-0.03500137,0.12438902,0.099904716,-0.07228024,0.10158037,-0.11324747,-0.023461334,-0.01362905,-0.11817382,-0.06807149,-0.10003739,0.093117684,-0.0111719575,-0.0012785677,0.0008799477,-0.10815505,0.11524774,-0.026528796,-0.110680334,0.024648253,0.082939416,-0.0602138,0.06602199,-0.1264479,-0.08319169,0.113697514,0.075961314,-0.08168181,0.09099454,0.07350652,-0.13497831,-0.024168782,0.029335843,-0.09832167,0.081603535,-0.076031394,-0.0057247565,0.114071466,0.09940059,0.028377201,-0.10939942,-0.01242769,0.051849306,-0.10829251,0.0054082517,0.11089315,-0.13458571,-0.03678813,-0.05202863,-0.11191263,0.10836519,-0.10752923,-0.10220453,-0.10937819,0.030402565,0.056927193,0.08635734,0.014332218,0.07160999,-0.043047573,0.023436733,-0.092667416,-0.026935318,0.031424258,-0.08177165,0.08217646,-0.013315194,-0.053948067,0.048794866,0.0703033,-0.10199398,0.12650292,-0.12783082,-0.13557877,0.008092001,-0.07706908,-0.13322705,0.12695311,0.10729736,0.107217334,0.1131937,-0.046535216,0.07312338,0.04247173,-0.111574054},
	{0.04407595,0.038543995,0.020469446,0.018230421,0.09747691,-0.098786786,-0.032786764,0.077245034,-0.07049414,-0.03336158,-0.12493934,0.05070529,0.05300108,0.03082772,0.111827955,-0.017766153,-0.11925303,0.040007,0.01877818,0.06449493,-0.12251168,-0.07742455,-0.0055139866,0.06042597,-0.063177094,0.055025514,-0.023449395,-0.10574738,0.124535464,0.05563961,-0.056071363,0.11215814,0.04219817,0.10538179,-0.039075222,0.06691445,0.044348903,-0.12028302,-0.0688864,0.111357816,-0.06884831,0.017713664,-0.06701713,-0.099716395,0.028176475,-0.037701063,0.058917858,0.100860804,-0.005856021,-0.10558507,0.07112087,-0.0149984285,-0.11298384,0.098808795,0.06568928,0.12127203,0.053252485,-0.06872549,-0.087476,0.06899866,-0.044648103,0.08865126,0.024215013,0.055233963,-0.014324647,0.07887404,-0.04623302,0.05206766,-0.04280498,-0.12834279,-0.07412022,0.11722484,0.008466474,0.11130226,-0.0048525683,0.03542273,-0.038735613,0.13224345,-0.12758604,0.089281246,0.03741422,0.09902593,-0.10292759,-0.044715054,-0.044280328,0.027639441,-0.12148698,0.08716194,0.09582115,-0.08021939,-0.009425385,-0.13243404,0.12982485,0.12914984,-0.042707276,0.08668514,-0.13069499,0.022828152,0.027771477,-0.017125392},
	{-0.07010167,0.12012683,-0.0012626722,-0.054542545,-0.100202836,-0.045073293,-0.13702802,0.014313784,0.0629297,0.057942912,0.0025862984,-0.075359166,0.087121546,-0.052193083,-0.0755465,0.039256375,-0.13691515,0.044704612,0.044426586,0.10362842,-0.09210039,0.103028096,0.109445825,0.058121663,-0.06699889,-0.002958983,-0.04095649,-0.09424953,-0.07491708,-0.074690804,-0.099040866,0.06604527,-0.01170123,0.11006722,0.07099766,-0.094272695,0.080379635,-0.08437856,0.05636471,0.02203283,-0.09354801,0.06727497,0.0392329,-0.0075505693,0.019973176,0.063593395,-0.12071916,0.104231074,-0.011018712,-0.12261611,-0.09313454,-0.13005896,-0.00036923366,0.09152086,0.02302942,-0.10435322,-0.053747427,-0.028206399,0.12194773,0.0017111844,0.05815171,0.0027075296,0.025652595,0.04248904,-0.000138723,0.07732742,0.04919808,-0.07397028,-0.12710421,-0.13150893,-0.030836321,-0.030851312,-0.060744718,-0.11406709,0.09777347,-0.093983896,0.120428234,-0.027413204,0.106273346,0.08404208,0.027165344,-0.1087786,0.010546296,0.10627658,-0.117739685,-0.08610033,0.034745812,-0.08793586,0.124427386,0.01346794,-0.037250817,-0.058736227,0.104264714,0.08538349,-0.13074759,0.0025706964,-0.063811116,-0.046229664,0.086905,0.11254373},
	{-0.07297633,0.028876886,0.005537743,0.12352499,-0.03095292,-0.07068183,-0.11163878,0.045998145,-0.04028103,0.046732586,-0.13393465,0.12784576,-0.057981912,0.029521655,0.025349613,-0.07740667,-0.06523762,-0.10012194,-0.08389334,-0.08706396,-0.12399399,-0.09851704,-0.07924055,-0.009499277,0.070612855,-0.033202115,0.0012661533,-0.08658657,0.06897639,-0.07891594,-0.13568029,-0.017523883,-0.07988096,0.025268273,-0.014647091,-0.11363764,-0.012780826,-0.061105635,0.05728548,0.05105018,0.0009547267,0.08053917,0.093135834,0.12088675,0.1123617,0.025833508,-0.0211337,-0.12838428,-0.042766962,-0.04310704,-0.056179613,0.059968036,0.09517896,0.09074721,0.039736338,-0.054883573,0.084356606,0.10906321,-0.094432086,0.07065708,0.07557438,0.026931746,0.100442596,-0.055785257,0.026427748,-0.033614025,-0.044256646,0.049257692,-0.012237014,-0.04255458,0.085553914,0.0064154794,0.10916948,-0.052996833,-0.02977906,-0.14076772,-0.1240528,0.018734133,0.07678532,0.019601127,0.047149207,0.009613006,-0.08902323,-0.109692305,-0.094922245,0.11336904,0.08615661,-0.048735045,-0.01926756,-0.060096897,0.008071547,0.10430969,0.079096705,-0.03372797,0.020810062,0.10316478,-0.035823748,-0.009558492,-0.07761415,0.054261554},
	{0.124001175,0.083269194,0.08844649,0.11279155,-0.059043255,-0.018943446,0.012394446,-0.023743268,-0.026825253,-0.081215814,0.030582104,-0.011561359,0.033777095,-0.04841841,0.016507415,-0.08155626,-0.019775432,0.08037979,-0.03016914,-0.0854139,-0.058650166,0.002917955,0.09942451,-0.08468439,0.055978872,0.08188391,0.10711196,-0.13015202,-0.02912859,-0.080313474,-0.12101922,-0.11456241,0.026531283,-0.004684857,-0.13293326,-0.067446545,-0.08063111,-0.11674262,0.029529281,0.0974611,-0.0070744306,0.12562203,-0.08982119,-0.13171947,-0.10813629,-0.017367685,-0.078596205,0.006950131,0.08614753,-0.018373908,-0.022807343,0.071387686,-0.12950127,0.050771352,0.06260317,0.077179596,-0.09697619,-0.020767786,0.084475346,-0.1123913,0.113268904,0.04574174,0.11366803,-0.1140546,-0.005354574,-0.011184163,0.111206695,0.0032280132,0.006767403,0.096105814,-0.068092614,0.10348486,-0.13812663,0.083421655,0.054433025,-0.100686155,-0.06102898,-0.13297804,-0.13363814,0.11094829,0.07027746,0.04961803,0.007275518,-0.03895579,0.10220571,0.0023460363,-0.051867064,0.0129373465,-0.043921698,0.00031022134,0.06393226,-0.13761593,-0.025337707,-0.108078055,0.08446604,-0.011127418,-0.08291248,-0.026131071,-0.010397596,-0.11646482},
	{-0.0147929825,0.05113829,-0.12696816,-0.12631664,0.008182725,-0.12905775,0.0016308281,-0.07570584,0.10540601,0.0029665097,-0.08995492,0.03525225,-0.117047705,0.06260021,-0.06765849,-0.020763028,0.07805177,0.04900158,0.07335021,-0.10046671,-0.110279,0.029204857,0.09807628,0.022762157,-0.09441669,-0.007851181,0.030340074,0.03861047,-0.094229095,0.022742305,0.11630872,-0.13761929,-0.07452245,0.0727997,0.043769736,0.014360515,-0.060513332,-0.09780953,0.045940522,-0.01917576,0.020324716,-0.051823482,-0.061687693,-0.054480918,-0.08537632,-0.12583362,-0.054188028,0.08210332,-0.050397933,0.07932651,-0.13485633,0.055451926,0.036569886,0.11031693,-0.061071847,0.014921978,0.02476305,0.10545692,-0.12057363,0.058759086,-0.029867146,-0.087115385,-0.02482724,0.06072701,-0.071436144,0.030860057,-0.048776492,0.07777836,0.000530653,0.07618674,0.0056700315,-0.020470435,-0.036665816,-0.004284423,-0.13716966,0.015668873,0.029428774,-0.09693146,-0.012235133,-0.053524535,-0.045618355,0.07109381,0.088400625,-0.03054071,0.019936386,0.112099595,0.0013495827,0.066867605,0.06609857,0.0059764287,-0.08226081,0.056624193,-0.093255855,-0.06904833,0.03532126,-0.040036965,-0.04279133,0.023913134,0.06324453,0.107156254},
	{0.050160363,-0.05885272,0.012239009,-0.019987386,-0.11851945,-0.097383305,0.06387779,-0.0032275876,0.032849334,-0.09782952,0.08428966,-0.08641668,0.015091055,-0.020712659,0.13047335,0.10166534,-0.034232948,-0.0929286,0.113841906,0.12639987,0.12712748,0.11068373,-0.048596613,0.12336488,0.0078057945,0.077367954,-0.034337923,-0.09211674,-0.04619298,-0.02128793,-0.051952083,-0.01846458,-0.0031777993,0.05548767,-0.11649715,-0.07322834,0.10012603,0.10435499,0.06735369,-0.09999804,-0.011100193,0.031971958,0.06566262,-0.008361696,0.032966167,-0.0982588,0.078740835,-0.110351525,-0.11431267,0.12476137,-0.13009612,-0.124772064,0.0029946903,0.09487413,-0.028806843,-0.018492889,-0.12760954,-0.08487951,0.10948894,0.120269954,-0.04351745,0.06225188,-0.088582754,0.07809922,-0.018932873,-0.03592134,0.019600952,-0.12340794,-0.036240876,-0.035331782,-0.05807558,0.07172201,0.112475194,0.12531357,0.06984308,0.011492058,0.02648575,0.118081845,-0.1192288,0.09377661,-0.060409706,-0.05176672,-0.10770981,0.058471434,0.050370432,-0.13478252,0.117881164,0.093813874,-0.014906451,-0.086930335,-0.085520014,0.03614826,-0.08320665,-0.11220528,-0.10995687,-0.053843696,0.03061423,0.08288102,0.062246915,0.034104325},
	{0.01829544,-0.0062493654,0.07816753,-0.08286653,0.0565396,-0.12593386,-0.082557335,0.097687066,0.032307222,0.12455405,0.06429335,-0.05454984,0.12459537,0.030250391,-0.10268035,0.08660698,0.10582161,0.053519003,0.094664834,-0.052552246,-0.0738072,0.10370488,-0.019927597,-0.087014265,0.118049145,0.046805788,0.05969653,-0.11638065,0.0766982,0.10888689,-0.024434654,0.08162054,-0.09961766,-0.036612652,-0.08715834,-0.100385025,0.058050346,0.11111971,0.10042645,-0.10011726,-0.07398969,0.09401088,0.092867,0.052870873,-0.011981359,-0.05208751,-0.039019525,-0.015848175,-0.0631328,0.05646755,0.13101189,-0.06535543,0.01912045,-0.10980904,0.10737294,-0.13289335,-0.02638242,0.015503059,-0.022503896,-0.07299526,-0.058505476,0.024557237,0.13143155,-0.09189547,0.005094247,-0.019171895,0.037619956,-0.0898609,0.016831988,-0.028797533,-0.11632066,-0.11036358,-0.07551094,0.026530346,0.08416953,-0.0958321,-0.01807284,-0.015139653,0.11158641,0.11918179,-0.021865487,-0.05563472,0.058444943,0.041188385,0.13299324,0.035803925,0.027217103,-0.05986659,0.109118834,0.009888866,-0.10624335,-0.008160447,0.026915332,0.014451059,0.003917116,-0.09996455,-0.006117796,0.09259024,0.11001611,0.011144097},
	{0.068069115,0.05267649,-0.01776442,-0.11350998,-0.04484759,0.08055476,0.056058206,-0.11288747,-0.02667852,0.09150185,0.060091637,0.052929677,-0.026771337,-0.097836815,0.034752164,0.08455912,-0.009452975,0.101842426,0.07066165,0.12938955,0.04294674,0.07859915,0.09359413,0.13006133,-0.08723082,0.1239378,0.058816995,-0.012103474,-0.07150275,-0.017750002,-0.1190821,-0.013684164,0.0875874,-0.021576803,0.003543341,0.119660646,0.051268112,-0.07284807,0.014679211,0.042826064,-0.02780211,-0.011425473,0.12382299,-0.058386657,0.04822932,-0.025218783,-0.12468415,0.1092534,0.00219354,-0.07640608,-0.09767928,0.022925865,-0.01923694,-0.035805866,-0.02829371,0.08566692,-0.112055175,-0.019473383,-0.064023115,0.023941828,-0.09439011,-0.10047789,0.035040777,-0.011563533,-0.010065159,-0.05184998,0.122091286,0.057221398,0.05968925,-0.06898285,0.11132567,-0.01416989,0.043192375,0.052873652,-0.11416697,0.09711981,-0.00022016207,0.018182853,0.09143536,0.045517426,0.05248377,-0.07915837,0.11450808,-0.02870158,0.029967934,-0.04425935,-0.06422667,0.03321934,-0.02146145,0.04240535,0.11473322,0.1077193,0.043743264,-0.047224086,0.0077672983,0.03657216,-0.11672413,-0.1063586,-0.08871155,-0.047445234},
	{0.056830112,0.1209479,-0.00090488105,0.0056976,-0.033150375,-0.13634664,0.08780759,-0.07717273,0.10277053,0.033649825,0.11934084,-0.08960903,0.12187863,0.031497937,-0.10025086,-0.062869824,0.09571715,-0.011230635,0.016231475,0.13159351,0.010560418,0.046271697,0.035699915,-0.01062677,-0.13904184,0.07278452,-0.046423957,0.054806568,0.12602696,0.06700905,0.055448547,0.08313523,0.09628134,-0.1188329,-0.11704873,0.09050636,0.06931924,-0.10708899,0.09804138,0.07552052,-0.11434027,0.12147971,-0.0883368,0.03824984,0.019228173,-0.06541531,-0.018295286,0.01811121,0.014968331,0.045428433,0.062589124,0.0785644,0.108500466,0.0036570167,-0.058611587,0.017901625,0.03940971,0.119151264,-0.030216122,0.10469847,-0.102210626,-0.12045868,-0.033542857,0.067055546,-0.07249085,0.06085506,0.11170107,-0.0005591572,0.07163213,0.10853973,-0.09148785,0.13341941,-0.12906878,0.0420497,0.056312658,0.00050191174,-0.08664763,-0.13263088,-0.05188517,0.11727217,0.09974507,0.11533777,0.025859937,0.055801984,-0.00864303,-0.116252914,-0.10047175,0.012244003,0.09931065,0.0076548867,0.056983214,0.036080003,-0.0023187553,-0.1241408,-0.107679494,-0.045673028,-0.11933286,-0.027231378,-0.042341188,0.045518473},
	{0.07351912,-0.08020251,0.12292973,-0.022702495,0.105079174,-0.00060191314,-0.08509014,-0.034276348,-0.040004954,-0.004630747,0.005844992,0.02714103,-0.111576565,-0.12458142,0.12767653,-0.07408186,-0.08205187,-0.027802825,-0.071828336,-0.08476361,-0.05447944,-0.016004918,0.05143502,-0.009247765,-0.10759151,0.11461678,-0.023673568,-0.093253784,-0.051886454,-0.074648745,-0.03814379,0.125594,0.012992478,-0.035850827,-0.09442016,-0.054855283,0.035709742,-0.08518754,-0.12790784,0.017463211,-0.050679404,0.034907427,-0.03502762,-0.116907805,0.025385685,0.11216311,-0.13654529,-0.09172342,0.08087958,0.10403267,-0.0815382,-0.011240323,-0.09320854,0.038510144,0.05117374,0.0105172945,-0.07920922,-0.045086205,0.10131713,0.106769435,0.05011859,-0.04988497,0.045476,0.06874866,-0.062863156,0.120111085,0.0022681807,-0.06576214,-0.060131952,0.030026235,0.06204325,-0.12660189,-0.11214925,-0.0247149,0.039980866,0.030080983,-0.029723175,-0.09843262,0.08256402,-0.10629514,-0.11421105,-0.11722988,-0.026424002,0.07438428,-0.0593773,0.11134874,-0.017910868,0.11845921,-0.05485794,-0.07023983,-0.04702896,0.09734696,-0.10248297,0.08118677,-0.055807296,-0.07518364,-0.07246191,-0.04280046,-0.06497451,-0.11303249},
	{0.04102025,-0.12929621,-0.10272358,0.049708173,0.12714541,0.0063584168,-0.026067205,0.024852693,0.042210132,-0.0032695632,0.08792763,-0.11347377,-0.10814429,-0.06775639,0.06871986,-0.05440507,-0.043727245,0.05381375,-0.100544594,-0.09148365,-0.036576677,0.012994043,-0.023901325,0.121914715,-0.01036947,-0.12842172,-0.017837007,0.10343811,-0.11048434,0.06495485,0.07067352,0.050956234,-0.00230801,-0.061454996,-0.022061817,-0.12995942,-0.09652141,-0.012879656,0.10536144,0.023742702,0.07578642,-0.06501583,0.03059899,0.07159508,-0.13236281,0.09741117,-0.034757547,0.047579497,0.023288151,-0.02786062,0.038581282,-0.062243424,-0.0021205486,-0.032831293,-0.113124244,0.0916932,-0.05786923,0.023703141,-0.05784844,-0.040537015,-0.05527444,-0.13147412,0.1134495,0.015775163,0.041602287,-0.09030223,-0.1042726,0.01945002,0.087836236,-0.1304126,-0.03849104,-0.06329185,0.084881954,-0.13394175,0.032903317,-0.07120241,0.025740227,0.05796202,-0.06510706,-0.11530929,-0.08471338,0.087056056,-0.0617344,0.031035677,0.12659535,0.011555873,0.027822949,-0.11414613,-0.1159876,-0.12417441,0.13161287,0.057453047,-0.08907462,0.020813098,0.03302872,0.10433338,-0.110326864,0.06475493,-0.020732576,0.025412202},
	{0.11719382,0.07634175,0.068807594,0.094810806,-0.029674914,0.046705056,-0.09443536,0.11814296,-0.030478533,-0.05145322,0.07229768,-0.028369222,0.009690475,-0.02316698,0.005081229,-0.09235299,-0.016900437,0.0099000055,0.056341197,0.025537837,-0.11055787,-0.032252632,-0.076990575,0.0494833,0.031244762,-0.061656624,-0.12267787,-0.107682005,-0.015694791,0.078109406,-0.096232414,0.049787715,-0.035140526,-0.007790623,-0.0087085795,-0.09035047,0.06004049,-0.08137384,0.035790417,-0.10292126,-0.12482054,-0.03770717,-0.039209884,-0.10571705,-0.028491376,-0.10955884,-0.10160057,-0.10498706,0.008607867,0.12411199,-0.061764963,-0.04012092,0.109230414,-0.117055506,-0.07952081,-0.04392079,-0.036891904,-0.11095224,0.0534685,0.048150502,0.055669937,-0.050748654,0.07735677,0.06686395,-0.049867805,0.10844673,0.045971293,-0.111371435,0.10904466,0.051602356,-0.06757167,0.05812442,-0.1314628,0.07549408,-0.066025704,0.031371113,0.10006677,-0.0017550723,-0.0734627,0.0016693586,-0.12255432,0.098665,0.034497604,0.109765664,-0.05676299,0.04034129,0.022604892,0.07747566,-0.11846901,-0.047015645,-0.13093673,0.08146439,0.0819302,-0.04898495,0.11251371,-0.11780321,-0.124992765,-0.13300374,-0.10206309,0.07757003},
	{-0.12403,-0.10310686,-0.11933724,-0.06752455,-0.113442115,0.06389862,-0.07713497,0.043984216,-0.11895704,0.0530406,-0.12652257,0.032752376,-0.072407894,0.0011116292,-0.037159678,0.039693795,0.025629587,0.028899377,0.04261337,-0.08093388,-0.08751326,0.016359009,0.056260984,0.06614144,-0.12632258,-0.11213543,-0.08625993,0.07705082,0.11809328,-0.01825912,-0.075396426,0.12568724,-0.10824037,0.014344891,-0.050057627,0.09485365,0.06221315,0.110944994,0.099496596,0.0473858,-0.040474534,0.11521866,0.10147525,0.108480014,0.06226461,-0.012975798,-0.048727144,-0.030498767,0.0071443524,0.10942963,0.10425162,-0.011892028,-0.11604685,0.12992078,-0.06302191,0.039185625,-0.06282862,0.0021148298,0.119451754,0.09189037,0.0676408,-0.06644148,0.03481602,0.027615098,-0.07947538,0.10180022,-0.037248667,-0.10053129,0.08089115,0.065836534,-0.0389494,-0.111485444,-0.10173694,0.009685091,0.039991386,-0.03517777,0.07901881,-0.11890125,0.0360586,0.05422294,-0.0037188355,-0.025167447,-0.110518575,-0.023528203,-0.10880451,0.073426664,0.03671614,0.04137635,-0.059005704,-0.06157477,0.105930105,-0.050248045,-0.034160018,0.049053434,-0.09807121,0.014505634,-0.122398734,-0.13358615,0.009737635,0.11235299},
	{-0.04003516,-0.013902801,0.08729713,-0.03242771,0.046177737,0.034973998,-0.06437061,-0.09544203,0.07994289,0.109807245,-0.11673892,0.11788201,0.0131735755,-0.0821577,-0.08692315,0.12103272,0.09501215,0.088190734,-0.11538397,-0.04065318,-0.103756845,-0.09206483,0.074996136,-0.08731993,0.021425117,0.032139193,0.006881851,0.0881546,-0.03966146,-0.1073345,-0.083082475,-0.06330499,-0.09327147,-0.043692082,0.117033385,0.10562042,-0.03912477,-0.0794505,0.09373041,0.082542926,-0.024822164,0.08773113,-0.07874127,0.10443053,0.020762505,-0.13037062,0.018292358,0.062527224,0.10384467,0.0349436,0.025080036,0.046474688,-0.11777823,-0.12236937,0.12393251,-0.13283895,-0.04256774,0.015128949,-0.12506069,-0.12143654,-0.022025513,0.052681163,0.12407448,-0.09267358,0.040307667,-0.06848643,0.056137897,-0.07951959,-0.106268756,0.037457105,0.11728306,0.012762225,0.029113226,-0.00013861171,0.09966491,-0.062086515,0.114054695,-0.0010076376,-0.02877517,0.12555142,0.045690462,0.00303561,-0.10564012,0.08388624,0.0111434655,0.08326099,0.101428755,0.07283143,0.027957693,0.064360864,0.03951285,-0.047554728,-0.11850047,-0.008261878,0.09300362,-0.07129332,-0.13359024,-0.05945573,-0.006642928,-0.07332826},
	{0.10641766,0.03343678,0.02172364,-0.074469425,-0.1253708,0.11065583,0.06467345,0.0017437185,-0.0035001424,0.060063463,-0.08329133,0.1313426,0.03357185,0.071989566,0.059695665,-0.024450487,0.048059292,0.02112318,-0.06632186,-0.076298825,-0.06673028,-0.08217168,-0.10723658,-0.035492297,-0.036591504,0.09468328,0.12617283,-0.06998104,0.025309375,0.014656962,0.076624215,-0.082808025,-0.11840825,0.0063212183,0.040800247,-0.116968125,0.08384278,0.0122303,-0.063245736,-0.037419,-0.13254318,-0.050590936,0.10777043,-0.12515704,-0.03544276,-0.11518862,-0.08191871,-0.12715107,-0.10031641,0.08890873,0.103855416,-0.05476115,0.079453446,0.11676718,0.084785596,-0.061452366,-0.13504016,0.004708655,0.026751168,0.013551948,-0.13007346,-0.11556078,-0.1273106,-0.13527818,0.11399894,0.023453375,-0.116173685,-0.003450873,0.021480048,-0.09186297,-0.081780784,-0.0057703136,-0.08672941,0.0135712465,0.103730015,-0.0023340958,0.0712104,-0.07451316,-0.026809175,0.06627202,0.030813986,0.09398834,-0.06874484,0.090296395,-0.02357308,-0.05877277,-0.1223451,0.0035963848,0.121826805,-0.12550919,-0.10048968,0.043450736,-0.11748404,-0.059414152,-0.10625672,0.06196745,-0.13104604,-0.07355663,-0.0011287488,-0.05052788},
	{0.073425874,-0.0817987,0.10055298,0.077038355,0.025262281,-0.009421371,-0.0014152321,-0.05452457,0.020131722,-0.018516235,0.05337883,-0.010558074,-0.11296752,-0.12870592,-0.10029975,0.12491414,0.11497171,0.046423614,0.10374657,0.096846476,0.115842804,0.10673242,0.060464073,0.07780375,0.00884426,-0.12145654,-0.07736327,-0.011385893,0.08029923,-0.012636794,0.0693517,-0.07777947,-0.052999966,0.13206482,-0.065265924,0.08707699,-0.06281045,-0.11273455,-0.06896944,0.09468657,-0.06094768,-0.07787887,0.09752914,0.10547309,-0.12377115,-0.01198023,-0.084931046,0.01011115,0.0725071,-0.026725318,-0.12241003,-0.0074945316,0.06806906,-0.01628743,0.011310397,-0.029373746,0.11535856,0.08484696,0.088971935,-0.075039215,-0.13164379,-0.022321459,0.016724732,0.04076143,0.076086484,0.0615706,0.08781475,-0.04568518,0.01799414,0.08558054,-0.0066548395,0.079793595,0.030921023,-0.091084816,-0.066306435,-0.13379678,0.046667166,-0.059644304,0.050628185,0.050779726,0.12304804,-0.023341216,-0.11470735,-0.008051433,0.064045966,-0.043249447,-0.092867985,0.10826621,-0.12444003,-0.12153045,-0.06384902,0.011526807,-0.10310112,0.056265306,-0.028254228,-0.06800969,0.05375919,0.12925155,-0.12215016,-0.041931912},
	{-0.0819013,0.011442452,-0.070560075,-0.045426197,-0.08126177,0.018870093,-0.06183781,0.03685505,-0.04322986,-0.116498284,-0.061345283,0.12568119,-0.10758897,-0.1001072,-0.052226976,-0.08045352,0.07966582,-0.029016351,0.048558574,0.059632678,0.11678288,0.09156683,0.016429134,-0.11432364,-0.055604514,0.04138487,-0.020048356,0.095114484,0.09992875,0.12702061,0.03722405,0.08110701,-0.011461214,0.11944492,-0.05204703,-0.022702562,-0.010142962,-0.003311271,-0.1248547,-0.11678404,-0.061888143,0.016814515,0.08293972,-0.08655016,0.125864,-0.013268538,-0.09819905,-0.09638801,0.04129462,-0.09384132,0.06919116,0.06278702,-0.11397915,-0.12463223,0.002651497,-0.08051647,-0.120259814,-0.065271236,-0.05484895,0.09145087,-0.13450097,-0.13318396,0.10916327,0.070235536,0.043848284,0.10777049,-0.023169301,0.027842792,0.08623966,0.11630508,0.04905949,0.06504831,0.02994304,0.06787384,0.10415701,-0.06556963,-0.007848847,-0.043726996,0.047379248,0.10241029,-0.0027095606,-0.091161355,0.09560127,0.06974573,0.02407997,0.077765554,-0.12109405,0.1323904,-0.040294126,-0.091711774,0.09856388,0.12349995,-0.0641122,-0.117581435,-0.11265646,-0.021838736,0.036804803,-0.1311818,-0.07350486,0.09177592},
	{0.13216378,-0.056535773,-0.05096607,-0.10747912,-0.013710195,0.08952484,0.045462757,-0.0066513442,0.033703305,-0.05260251,-0.09462683,0.11533442,0.02039714,0.13133247,-0.063116685,-0.024679659,-0.06499168,-0.06645807,-0.10584415,0.079702325,-0.070099846,-0.10246542,0.07982867,-0.01373683,0.06546797,0.062790185,0.06518324,-0.11821848,-0.0010595815,-0.08969839,0.0066886395,-0.06699035,0.047985904,0.11290628,0.02527518,0.03839926,-0.120933965,0.043973953,0.036612347,0.031581268,-0.056835514,-0.0010999776,-0.07702081,0.0923519,0.09756185,0.105249256,0.030993208,-0.10151759,0.09297542,0.01495462,0.07551799,-0.12789834,-0.13123389,-0.06459288,0.036617104,0.053074133,0.07366448,0.056182243,-0.13057475,0.12051709,-0.09304934,-0.047295775,0.05181461,-0.018263875,-0.04658692,0.049890544,-0.052124813,0.041596673,-0.026494686,0.11797094,-0.12349877,0.09738836,2.8110873e-05,0.10279822,0.11603737,-0.07573493,0.09612013,0.073530905,0.042647056,0.028786106,0.08903593,-0.10287951,-0.11129012,0.023107072,0.02450593,-0.013102869,0.027948545,0.10265005,0.023563987,-0.009355014,0.033611696,0.09519447,0.066075906,-0.0736411,0.030095084,-0.050537813,-0.019731639,0.124733716,0.01707825,0.10930237},
	{0.09428242,-0.100244395,-0.07158182,-0.047356594,0.06866676,0.04386615,0.11091684,0.033743374,-0.0037211592,-0.044344675,0.050841503,0.10788858,0.028391704,-0.003045344,0.109500945,0.040664833,-0.08175768,0.09244657,-0.10331093,0.019753452,0.034090184,0.11176672,0.03231918,0.10696547,0.020513976,0.118932754,-0.0696759,0.1154695,-0.104618505,-0.033730265,0.10946345,0.11927198,-0.035753306,-0.040612306,-0.049509335,-0.043439128,0.11864388,-0.050000366,0.0098300185,0.13277782,-0.019619951,0.10573906,-0.07775396,0.03466311,-0.003101063,-0.01196909,-0.11528544,-0.104581945,0.085906036,-0.09332336,-0.03862934,0.08462936,-0.12017089,0.0664224,-0.054602876,-0.08908263,0.10749687,0.059238743,-0.12677051,-0.10011884,-0.0043088607,-0.041852985,-0.062793076,-0.12756646,0.113465816,-0.06458601,-0.056213427,0.069766484,-0.114049256,-0.010685002,-0.12027587,0.071253695,0.0039127115,-0.11506772,0.031181926,-0.12019154,0.043268908,0.0033329157,-0.07629534,0.12961249,-0.0876302,0.016683836,0.1266316,-0.07914613,-0.115585685,-0.078507364,-0.01683582,-0.030555647,-0.019450989,-0.107475586,-0.08178255,-0.13669753,0.12912363,0.030729836,-0.054214858,0.122502126,-0.07152128,-0.077482216,-0.08386245,-0.026362196},
	{0.00850874,-0.029425995,-0.12300014,0.016254343,0.08965988,-0.11047411,-0.019580804,0.06102951,-0.02348925,0.04784555,-0.088633746,0.043737914,-0.128208,0.10268171,0.062142346,-0.023361677,0.033258475,-0.064305454,-0.13579006,0.10711841,-0.13562684,0.12202342,0.058065023,-0.05631685,0.12498605,0.0152482595,-0.08455165,-0.122792855,0.091575146,-0.10509622,0.00030574668,0.08277558,-0.007881604,0.083277576,0.10637236,0.03948091,0.038764533,0.047465667,-0.041148145,-0.04611109,0.05364392,0.043059666,0.0548299,0.124092676,0.04628701,-0.06935306,0.10820054,-0.10635464,0.008239209,-0.065370314,-0.021390237,-0.030489549,-0.07962876,-0.113146245,0.029140005,-0.107683636,-0.12488898,-0.0610183,0.051909618,0.07532537,0.051447816,0.0011032494,0.027156299,0.049452756,-0.05185242,-0.02847203,0.029195296,0.034866948,-0.10179023,0.09276848,-0.016983982,0.12484297,0.07406633,0.05971986,-0.07663048,0.038640294,-0.062300317,-0.018115906,0.038269132,0.10634989,-0.037246812,-0.03007062,0.09556084,0.01453968,0.12071738,0.056458417,0.03493083,-0.012994984,-0.13661124,-0.13169737,0.08293721,-0.12216229,-0.08039696,-0.09617994,0.116915256,0.029551646,0.0013154085,-0.13357121,-0.0057165367,0.04536828},
	{-0.12105764,0.07991759,0.11483021,0.09866781,-0.11116425,0.050054263,-0.02176542,0.016533831,-0.042253736,0.103244215,0.039825536,0.08369338,0.030537412,0.014835395,-0.042186543,-0.05403672,0.00740799,0.054320626,-0.12601998,0.03198133,-0.016257161,9.5223164e-05,-0.100270614,0.123272315,0.12969118,-0.0039692046,-0.11674739,-0.10089505,0.027886743,0.08592019,0.06531097,0.05861809,-0.04265382,0.04296595,0.064138114,0.07889467,-0.011406756,0.08334309,0.10057548,0.11565809,0.1253738,0.10204693,0.12647742,-0.098979585,0.04310154,0.011113437,0.12109518,0.054801572,0.051462654,0.040576275,0.09893565,-0.03361779,-0.07525259,0.10918404,-0.047366876,-0.132487,-0.089297116,-0.10611306,0.10333404,-0.041967794,0.04791027,0.06574521,0.014576195,0.0013084579,-0.10907266,-0.13493156,0.014885615,-0.12307363,0.110396735,-0.11865628,-0.032736413,0.12637763,-0.1333446,0.07969121,0.010558164,-0.04191577,-0.114356354,-0.11774921,-0.08697674,0.06957709,-0.106022246,0.08911264,0.058924496,0.082487114,-0.10146583,-0.07546052,0.008383457,0.08480738,-0.13521719,-0.104675226,0.013503224,0.0006487478,0.09838569,0.08195308,0.005847472,-0.12113783,0.043171026,-0.012480718,-0.11600768,-0.044976037},
	{0.1181429,-0.04292441,0.11519508,-0.10600389,-0.123907186,0.05970613,-0.00022441034,-0.03132296,-0.12442964,0.035777636,-0.06379238,-0.079832315,-0.08753373,0.006322452,-0.10494493,-0.024031544,-0.13278785,0.09107835,0.09517315,-0.004691259,-0.12721166,0.03187462,-0.06062517,-0.12577718,0.11038165,-0.010249464,0.06603861,-0.04657725,0.101998754,-0.10141266,-0.101031415,-0.10695689,-0.0025678934,-0.07930162,0.114856765,-0.029896356,-0.050986845,-0.08906739,0.048234675,-0.08693585,0.105162136,-0.040035285,-0.020934979,-0.07657596,0.12176659,-0.010610183,-0.0986911,-0.11629691,-0.1246252,0.09883486,0.09425302,0.12812841,-0.1105525,-0.088651784,-0.08434203,-0.016590662,0.0059387796,-0.13155226,-0.057080165,-0.062445737,-0.12067414,0.09047436,-0.018235536,-0.08775789,-0.014937419,-0.08827486,-0.06459758,-0.081090406,0.013899127,-0.051858082,0.03441085,-0.055052575,-0.031606767,0.12551771,0.112701364,0.07044644,-0.034713842,0.0359781,-0.120867744,-0.014379575,0.029223036,-0.07462878,0.050361827,0.121851645,-0.008755157,-0.03189253,0.068930134,0.07122165,-0.13270272,-0.11589305,-0.07616528,-0.046001565,0.0501726,-0.03313681,-0.04664197,-0.117922656,0.024737956,-0.06989022,0.07076604,0.043237526},
	{0.05049494,-0.058520824,-0.08082833,0.13037367,-0.12520495,-0.0177057,0.043672066,-0.09691167,-0.00756263,0.041955754,-0.03941144,0.01878246,-0.037244573,0.03150171,-0.029080568,0.00381401,0.09973371,-0.030847324,0.10989841,0.11060285,-0.048578735,0.11156367,-0.0029654806,-0.08731267,-0.121132694,-0.0018852125,0.055129584,0.0439645,0.043727964,-0.1270185,-0.13005385,-0.07240132,-0.061418764,0.09880651,-0.02194751,0.054090973,-0.055479977,-0.023565287,-0.08270223,0.077482454,0.12053933,0.06826638,-0.06912586,0.06977603,-0.08148092,0.08589525,-0.0040362175,-0.100355685,-0.037631605,0.080252245,-0.10426697,-0.040410284,-0.11650121,-0.12356808,-0.014852957,0.04208004,-0.1285146,0.12557779,0.09134303,-0.04340072,-0.05914105,0.124697715,-0.11669491,-0.07019254,0.09446583,0.067090675,0.045787897,-0.009335522,0.08440979,0.036778107,-0.10642455,-0.11759566,-0.10600654,0.012906269,-0.1337079,0.10286718,0.124810055,-0.033634827,0.07687537,0.09726935,-0.099123046,0.028461715,-0.105959155,-0.12398844,-0.13172078,-0.052283723,0.0265213,-0.125434,-0.08282108,0.048734516,0.036924478,-0.07659081,0.13224964,-0.03971571,-0.005310847,-0.0147787435,0.07545567,0.113562495,0.10613639,0.008326833},
	{0.049713448,-0.10019746,0.047756236,0.057588052,-0.071777746,-0.12981835,-0.021100754,-0.0331149,0.09760293,0.009396752,0.10200888,0.089113615,-0.030566843,-0.016916957,-0.04488499,-0.056558732,-0.031430524,-0.08906879,0.04999859,-0.04349013,-0.027090045,0.12976225,-0.043893937,0.03304672,0.036454186,0.028327076,-0.10231214,-0.11992672,-0.042603534,0.026198203,-0.0019671537,-0.09956967,0.012188644,0.041156154,0.030048804,-0.10437722,-0.012092041,-0.03016947,0.04012634,0.013242714,0.035697937,0.09847404,-0.031149672,-0.1252504,-0.09147225,-0.032117072,0.046494678,0.02301246,0.111042075,-0.0143639445,-0.023327243,0.06820307,-0.07505968,0.12862858,0.061723042,-0.09829768,-0.027883839,-0.039651148,-0.11720359,0.005141912,0.03171536,0.096534915,-0.12923463,0.038823046,0.052894887,0.0124031445,0.02925739,-0.08795562,-0.09117888,0.06196077,-0.007861364,-0.042409945,-0.13233955,-0.09951557,-0.11106447,0.030277168,-0.08905696,-0.06851058,-0.10470087,0.061086763,-0.057405792,0.036653865,-0.12215511,-0.01666795,-0.033999845,0.07328429,-0.11349268,-0.1340518,-0.04514843,0.017332062,0.10762582,0.044352703,-0.04126647,-0.030998792,0.10890435,0.113805555,0.09866389,0.061038055,-0.012504345,0.07256739},
	{-0.07128866,-0.041375753,-0.07336646,-0.118624516,0.021175824,0.09208629,-0.08633506,-0.0024903049,-0.045217056,-0.0488834,-0.055273388,-0.04822151,-0.02110164,-0.045576602,-0.1250672,-0.124918565,0.04421486,-0.032522842,-0.09847297,0.015012763,-0.13355613,-0.01792247,-0.012603297,-0.03267056,-0.110858835,-0.0021107201,0.004059291,-0.082439244,-0.1366567,0.0022808108,-0.06707935,-0.060990762,-0.03276031,-0.027182939,0.034691367,0.08357568,0.009232018,-0.0465166,0.06974832,-0.08147208,-0.06534114,-0.13021487,-0.0007913182,0.0063937725,-0.08018008,-0.023388276,-0.12357826,-0.1309164,0.029881634,-0.099339396,-0.043135792,-0.09646144,0.030085841,0.12457826,0.047220472,-0.04966843,-0.07971463,0.05578533,0.09476569,-0.04384072,0.0554238,0.11020973,0.00783756,0.0018533769,0.016328443,0.08567151,0.1053944,-0.028520478,-0.12030028,0.029405965,-0.023343647,-0.02845086,0.039425258,0.11866471,-0.07524451,0.08673261,0.1043008,-0.0322359,0.06626136,0.055168398,-0.13259032,0.122289345,0.023722667,0.040676042,-0.011864286,-0.071977094,-0.09235977,0.051912516,0.074390195,0.0025814294,0.02261907,-0.10698847,0.10926004,-0.13632397,-0.106188126,0.10306228,0.053212687,-0.09991767,-0.09466393,0.11203256},
	{0.060239468,0.10129373,-0.03421777,0.053276703,0.103334054,-0.07837084,-0.12889667,-0.06530616,-0.00786771,-0.0031747217,-0.021050692,0.0021186506,0.019288866,0.044539154,0.026165279,0.089561254,0.1128319,0.13337578,-0.11725106,-0.023421919,-0.074554265,0.076438114,0.043645777,0.09133255,0.0011371459,0.11486107,0.08088759,0.1090382,-0.09410057,0.071296334,0.10318052,0.10606602,0.014704189,-0.12960187,0.09940284,0.028918155,0.06872169,-0.10287386,0.09679748,0.047100283,-0.13629912,-0.046665285,-0.13646212,0.002474007,0.05247681,-0.039740007,-0.05250498,-0.014495248,0.058489446,0.04930376,-0.120391205,-0.13283473,0.07315723,0.11315588,-0.07672784,0.023104772,0.04599099,-0.016641632,0.037045803,0.11457133,-0.10855139,-0.119672716,0.12481328,0.05801713,-0.039971743,0.02636703,-0.08198516,-0.014882481,-0.00836342,-0.079762846,-0.11066316,-0.1306008,-0.07040401,0.07469699,-0.09544369,0.13076508,-0.05872331,-0.13704816,0.1215033,0.034072615,-0.082482725,0.1177239,0.0040046545,-0.064973965,0.023474798,0.10382782,0.015673578,0.10310458,-0.00872119,-0.12549527,0.08959376,-0.12799725,0.0353733,0.0749983,-0.011996239,-0.01059378,-0.09246922,-0.063735634,0.12581629,-0.036629092},
	{0.010794634,-0.033999473,0.0751731,-0.057647005,0.027315931,0.023166606,0.08454697,0.0143147595,-0.13145567,0.094114974,0.0694003,0.070213705,0.07324963,0.0008545944,-0.09360915,-0.018827228,-0.03256627,-0.04719058,0.09728883,-0.12665828,0.08096612,-0.011249685,-0.13544536,-0.0557984,0.07304954,0.08862815,-0.09126127,0.082715295,0.08511053,0.122814655,0.112932324,0.098534614,0.05509274,-0.12767476,-0.03546631,-0.02407798,-0.045218814,0.13016932,0.103393756,-0.10413107,0.010115689,0.009558628,-0.100990444,0.12288114,-0.12479669,0.12638375,-0.051049083,-0.056332506,-0.025344212,0.03358128,-0.02659025,0.03094312,-0.06282633,0.11140625,-0.09566822,-0.0019110166,0.078942604,0.045123037,0.093959756,-0.028850384,-0.009747381,-0.050588552,0.0672137,-0.12266911,-0.10770138,-0.09115462,0.050814595,0.07455519,0.11407352,-0.001254319,0.07367717,-0.054302257,-0.13160022,0.005027076,0.007430773,-0.080927685,0.11493615,0.06373768,0.11381896,-0.061764773,-0.0971599,-0.019856922,-0.11058106,0.00026935374,-0.11823234,0.013396469,-0.010344309,0.00943829,0.0052610673,0.015839547,-0.10729175,-0.05089414,0.11435557,0.05434995,0.074085325,0.013181267,0.08825705,-0.024566261,-0.03381495,-0.07810263},
	{-0.06294811,0.006578586,-0.08830223,0.09271932,-0.07149096,0.12323256,-0.0820856,0.09352917,0.12550473,0.030952312,0.068958364,0.030439947,0.120411895,0.09101616,0.07809449,0.035126213,-0.035233516,-0.007162676,0.043357514,-0.121607505,0.1268398,-0.113810204,0.043348297,-0.01351368,-0.007261612,-0.054571662,-0.056642354,-0.042201743,-0.015261922,0.053831372,0.009528309,0.093347885,0.053692687,-0.03818205,-0.10670425,0.019460743,-0.06427105,-0.10844388,-0.017225264,-0.10257386,-0.023065068,0.13020411,0.0016449476,0.06522561,-0.12175526,0.01967746,0.02306964,-0.09304991,0.05664085,-0.043662976,0.04836692,0.10755976,-0.11102312,-0.041367475,0.04471013,-0.01355288,-0.11834268,-0.072736375,0.03628348,-0.11562947,0.03757224,-0.033421896,-0.046545867,-0.011856238,0.10038989,-0.039116666,0.0036567422,0.01278784,-0.039386213,0.12033543,-0.09818558,0.044151384,0.08391269,0.015402531,0.07566546,-0.06491601,0.059820186,-0.09099188,-0.055138208,0.051537916,-0.041353647,-0.08686511,0.08985366,-0.038986795,-0.079830624,-0.0002062034,-0.08941807,-0.113498025,0.096130274,0.00684518,0.066273935,-0.009383861,0.06518083,0.04104276,0.039824862,-0.03760508,0.120752074,0.082808904,0.026459541,-0.0041473005},
	{-0.11379315,-0.10481225,-0.071603306,0.025913129,-0.11294489,-0.005450042,-0.087556526,-0.036778506,-0.07074967,0.08453715,-0.044654753,-0.010010229,0.10805298,0.11594557,-0.065896936,0.035543982,0.009720449,0.12992924,-0.13103628,0.066284016,-0.0017507996,0.010441303,-0.034577698,0.010086726,0.015850727,-0.08209942,-0.12472546,0.089077935,0.12848552,-0.036179136,-0.116720155,-0.017560866,0.08018308,-0.055773452,0.07813206,0.0814354,-0.12558517,-0.08710645,0.043674447,-0.054070152,0.09934246,0.08973214,-0.1309871,0.061786033,-0.113492884,0.063520655,-0.10309794,0.10190951,-0.08798462,0.041208096,0.065172024,-0.010704934,-0.10726329,-0.074117064,0.075844936,0.03293252,-0.08688548,0.060827438,-0.11449513,0.04441585,0.06616086,0.023371495,-0.016696023,0.06749953,-0.041160617,-0.09989363,0.074499704,-0.017781734,-0.07551559,-0.06951154,-0.10092006,0.09376766,-0.08065666,-0.037971683,-0.10203112,0.089989364,-0.11895802,0.10738618,0.07756539,0.06743114,-0.0463274,-0.12930904,-0.019438893,0.09093811,0.008476352,-0.113055415,-0.032414112,0.115660004,-0.021341136,-0.08499624,0.02871619,0.012141273,-0.080276005,-0.10201827,-0.0984004,0.10351674,-0.06707141,0.025333107,0.07770967,0.029658824},
	{0.07136962,0.05024708,-0.017803675,-0.1345534,-0.12089624,-0.017234983,-0.12117916,-0.09050463,0.07604091,-0.047898546,0.012979698,0.009725529,-0.11870249,0.10601813,0.007476804,-0.026315361,0.12012269,-0.0075792004,0.07954653,0.07168988,0.12622426,-0.11760446,0.035697777,0.090934254,0.044244256,0.013460814,0.074836574,0.03237872,-0.11496078,-0.07709941,-0.08607877,-0.049428478,-0.052582756,-0.038755067,-0.117241375,-0.10498145,0.09419927,0.08821216,-0.1216833,-0.021641009,0.08544218,-0.036814205,-0.0070787254,0.11527159,0.0026726031,0.11377641,-0.07536745,0.049461495,0.0770924,-0.062510826,0.041592155,0.006693826,0.103514455,0.03999759,-0.02831639,-0.011639286,0.024806099,-0.10927965,0.029648552,-0.03813385,0.11411497,-0.06072272,-0.10860749,0.11227161,0.068609595,0.05234702,-0.023469118,-0.05471221,0.12099505,0.021267908,0.016784739,-0.1197919,0.11249589,-0.05666754,0.1013244,0.014054185,0.019430857,-0.05727892,0.047272287,-0.058021814,0.08170939,0.1028375,-0.008329312,0.043291427,0.08193608,-0.102666244,0.05940366,0.019681323,0.104288995,-0.053507138,0.12312277,0.007376531,-0.039382264,0.116138116,0.04812654,0.11338612,0.077958435,0.014636032,0.079125926,0.058534253},
	{0.07250595,-0.032379504,0.062050723,0.05936066,0.029487766,-0.08296578,-0.007823566,-0.09549682,0.088913806,0.05705821,-0.13444883,0.026371006,-0.10055969,0.082299024,-0.12871556,0.0061691464,-0.02933319,0.12436458,-0.020382326,0.013568615,0.08528986,-0.12110846,-0.007862128,0.036254797,0.07266491,0.09254972,0.005894876,0.03225319,-0.076001815,-0.10603534,0.021026801,0.072990894,-0.0031988088,-0.07884126,-0.010191771,0.083072744,0.11957215,0.03929696,-0.11031279,0.0073472224,0.029804848,-0.089097,-0.057398055,0.11846602,-0.08385519,0.03310737,-0.046487052,0.053036496,-0.11002289,-0.11171803,0.05575562,-0.034048308,0.078003295,-0.080017984,-0.0748759,0.07339405,0.055008296,0.026089408,0.12307598,-0.09298857,-0.057040215,-0.12763701,0.10188024,-0.12181483,-0.121382974,-0.11091864,-0.051388714,-0.054739002,-0.07560554,0.117313094,0.08814011,-0.03816192,0.103467785,0.03300051,-0.106279954,-0.0028460359,0.058482192,-0.074047446,-0.07450647,-0.04378209,0.04996041,0.06792267,-0.08736156,0.11753933,-0.040580384,-0.0052956315,0.04438378,-0.0036386438,0.0048331884,0.015150737,0.13055925,-0.024860065,-0.06989281,0.1058331,0.08767218,-0.051853497,0.1022529,0.08581903,-0.10652164,-0.096434444},
	{0.10845846,0.08346376,0.03615066,-0.13415442,-0.029557612,-0.095894285,0.0374432,0.029087624,0.1183408,0.05876892,0.114511296,0.011482565,0.052492402,-0.09094323,0.103412904,0.1226244,0.07897288,0.12757106,0.07523283,-0.12844558,-0.020732516,0.13111825,-0.015664808,-0.06666284,-0.014939324,0.04260035,0.13104668,-0.023495847,0.117376745,-0.06091575,0.07495026,-0.1086599,-0.10437174,0.09251859,-0.04841132,-0.13270669,-0.033243492,0.011378353,-0.003829458,-0.10162212,-0.05805669,-0.123373136,0.06496713,0.08837756,0.005193808,-0.12510274,-0.007571237,-0.0010752907,-0.0761889,-0.029192073,-0.030235589,-0.023041407,0.12098615,-0.097645715,0.10238557,-0.062169377,0.022060843,-0.054887883,-0.0021913908,0.026201209,0.13220124,0.12878354,-0.06851355,0.12243276,-0.10877744,-0.05595831,-0.011584454,0.088052616,0.10622321,-0.050189216,-0.04626453,-0.070327654,-0.08551864,0.006510514,0.12730451,-0.12089555,0.09033332,0.069379985,0.07928592,-0.043172985,0.068949156,0.115483545,-0.07872639,0.0451417,0.09528468,-0.045808043,0.11562431,-0.012679683,-0.10929558,0.033360016,-0.06040054,-0.10889031,-0.100512184,0.11039319,0.06825162,-0.0011819687,-0.046459954,0.08688566,0.10785272,0.1223467},
