// include/conv2d_3474_weight.h
// sergio rivera 
// 2020/02/15 03:17:03 

const float conv2d_3474_weight_p[3][3][3][4]=
{
	{
		{
			{0.18908027,0.29085705,-0.008150835,0.11801713},
			{-0.2580869,-0.13941236,0.18893476,0.2865341},
			{-0.2196138,-0.00013131747,0.1906221,-0.11529797}
},
			{{0.30185884,0.1539356,0.15370487,0.2148078},
			{0.010356126,0.22704996,-0.047483135,-0.07502808},
			{-0.25510296,-0.11383762,0.20343563,0.121624395}
},
			{{-0.102244675,0.096229866,0.29549378,0.13422932},
			{-0.13078187,-0.104775086,-0.010306963,-0.13957371},
			{0.1310578,-0.021270141,0.17935307,-0.08274333}
}
},
			{{{-0.28005797,0.29668853,-0.050839934,-0.050595324},
			{0.115230925,-0.25569907,0.10181943,0.30601615},
			{-0.01815794,-0.14072159,-0.15426764,0.0084633175}
},
			{{-0.18251613,-0.06546446,-0.17492683,0.13699232},
			{0.020321742,-0.057347022,0.063257016,0.118828095},
			{-0.17668884,-0.18289593,0.25574353,0.29593354}
},
			{{0.14530137,0.10000326,-0.06787201,0.05885079},
			{0.20987764,-0.13360956,-0.1973681,-0.24113463},
			{0.15667738,0.090146035,0.05728731,-0.10276026}
}
},
			{{{-0.090678155,0.28146684,0.13256933,-0.10656732},
			{-0.021627484,-0.28119045,0.17589727,-0.17615494},
			{0.17828776,-0.22788447,0.30586064,0.2973925}
},
			{{0.06334956,0.03996118,0.0066581564,0.1431462},
			{0.16187625,-0.15515022,-0.19014622,-0.28401718},
			{-0.106888935,0.018693898,-0.013403514,0.03190233}
},
			{{0.1624514,0.2709209,0.07473075,0.1562878},
			{0.15036657,0.027980052,0.1744418,0.051131252},
			{0.051585305,-0.303186,0.010656837,-0.08476348			}
		}
	}
};