// include/dense_2397_bias.h
// sergio rivera 
// 2020/02/15 02:25:00 

const float dense_2397_bias_p[201]=
{0.0064866794,-0.0016129971,0.0031984542,-0.0013052969,0.0006812936,-0.0033065076,-0.0020915517,-0.0041204025,-0.00017744442,0.0056171915,-0.0017471882,0.00067579,0.0045951703,-0.006067824,-0.005991952,-0.0021507186,-0.012451686,-0.009674981,-0.0030058813,-0.0075201713,-0.0014471763,0.00077759504,0.007049648,0.00040245743,0.002477652,0.005037103,-0.006633356,-0.0015958217,0.0021221084,-0.0009792603,-0.0055334205,0.013071591,-0.006179641,-0.0048330138,-0.0038587241,0.007972447,-0.007378529,-0.00695889,0.008345654,-0.0012236501,-0.00034791662,0.0078878645,-0.00093757885,-0.003232255,0.0041445917,0.0023084006,0.00026388088,-0.00020444512,-0.0023849234,0.0007693537,0.009506911,0.0016123593,0.0051546115,-0.0012362413,-0.00042728917,0.0003113302,0.0019444095,-0.012092827,0.0064423834,-0.0040521994,-0.0012891316,0.00031510193,0.0022609022,-0.005967151,0.0006167177,0.0030862447,0.00012184837,0.0022825126,-0.000555247,0.0015025714,0.010474802,-0.0012434436,0.0010030065,0.0070010195,-0.002118935,0.010513542,-0.0037852945,0.009146936,0.0061138636,0.0020839944,0.010461736,-0.013483764,-0.002939447,-0.008373235,0.011476351,0.00354231,-0.008926458,0.008113425,-0.0060389736,-0.003641878,0.004627131,0.0018700038,-0.0013012408,0.006167704,0.003017575,0.0035922627,-0.0063185114,0.006180217,-0.0047575845,0.008899006,-0.0002303872,-0.0064721364,-0.0018602448,0.0042769583,0.0020047359,-0.00938825,-0.0026412401,-0.0058935625,0.0045389566,0.008912221,-0.0057056486,0.007640687,0.00041968375,0.00034577437,0.002272395,-0.0042089443,-0.00066078245,0.006734889,0.007909347,0.0036939536,0.006253691,0.005283049,0.003263256,-0.0052702175,-0.0017336177,-0.0009459243,-0.0068268063,0.004645626,0.0025576917,0.008792266,0.004141451,0.0022541697,9.317603e-05,-0.0013287147,-0.010265649,-0.005001187,-0.0059354575,0.0053160554,0.00038139336,0.002339817,-0.0017413282,0.0039785285,0.00021816394,0.0006095566,0.005213474,0.0022060117,-0.0055582942,-0.011175918,0.0043499256,0.00466677,-0.0029989656,-0.0019673822,-0.00015754416,-0.00038600666,-0.0007317045,-0.0035357652,-0.00072928827,-0.008369606,-0.0012048266,0.004115833,-0.0135617005,-0.0051961155,-0.0033437684,0.0069449274,0.001857697,0.00090951286,-0.0028993438,0.002832477,-0.00081301667,-0.0027712432,-0.00027977698,0.017368902,0.0019077251,-0.002127739,-0.00024108269,-0.0016667969,-0.0002066347,-0.0034193264,-0.001450764,0.006268823,-0.0018832652,-0.00016811944,0.00028006465,-0.004983398,-0.0041675935,0.0055267746,0.0036929771,0.0042930725,0.0033349923,-0.0010365176,0.010051992,-6.0292543e-05,0.014356414,-0.0056567164,-0.00012948143,0.00535838,-0.0005208814,-0.0026703044,-0.004709524,-0.0026757203,-0.006814466};