// include/conv2d_1292_weight.h
// sergio rivera 
// 2020/02/14 20:37:09 

const float conv2d_1292_weight_p[3][3][3][16]=
{
	{
		{
			{-0.11313369,-0.05164696,-0.12830563,0.1250335,-0.1799211,0.05288377,-0.013334382,-0.13729623,-0.004388451,-0.07703425,0.07427194,0.11626056,0.01976472,-0.13299532,0.11667331,0.114499345},
			{-0.083025284,-0.13328274,-0.08933522,0.13971783,-0.09577802,-0.026753046,0.14025474,-0.11071618,-0.07353643,0.077185325,-0.022096312,-0.004417295,0.018791307,0.09681175,-0.02041457,-0.16869242},
			{-0.072374165,0.112391405,0.15328582,-0.1489494,0.018600088,-0.15509924,0.10921178,-0.020792704,0.1148769,0.055847783,0.04482364,0.10040666,-0.06672789,-0.15621553,-0.17153779,-0.11228177}
},
			{{-0.12736715,-0.0063790316,0.060501553,-0.068266444,0.00602915,0.09789223,0.003706682,0.127845,-0.056108624,-0.1398827,0.05020091,-0.09151649,-0.12829162,-0.037490442,0.16283281,-0.035421122},
			{0.124559075,0.16134973,-0.01796385,-0.1687445,-0.10848944,0.012609675,0.05139648,0.16054982,-0.06499208,-0.09853728,-0.01623455,0.036459018,0.10569604,-0.09397251,0.08809244,-0.09182481},
			{0.10193902,-0.056837507,-0.11965306,0.04738268,-0.11836689,-0.008367125,0.16631933,-0.07744361,-0.08996829,0.022600673,-0.0044960165,-0.07005771,-0.17146249,-0.0903617,0.16075338,-0.11418096}
},
			{{-0.0888346,-0.100817546,0.027245095,0.15263326,-0.08557319,0.17812993,0.053485714,-0.055079293,0.113245,0.14915712,0.15588474,-0.15223159,0.18621877,-0.026412738,0.09283484,-0.12248664},
			{-0.028349563,-0.011367453,-0.15310346,-0.029239936,-0.0951909,0.15209292,0.14783007,-0.15944633,0.024280664,-0.032642286,-0.0703682,0.04461626,-0.12329955,-0.03410052,-0.071620226,0.11483328},
			{-0.06512587,0.024497077,-0.067871585,0.059307776,-0.009986823,-0.15092315,0.004755835,-0.05209091,0.11635672,0.078444086,-0.16059326,-0.06265715,-0.044280216,0.08517746,0.09928297,0.023709983}
}
},
			{{{-0.05977294,-0.16425882,-0.016789366,-0.09433134,0.14655486,0.0010862316,-0.08586753,-0.14840259,-0.120769694,0.1194244,-0.14863887,0.07057204,0.116270125,0.18438324,-0.13760547,0.08395583},
			{0.16856104,-0.09227394,-0.0057460084,0.1632665,-0.08506143,-0.12066246,-0.12597293,0.12620246,-0.0513021,-0.14844261,0.120727226,0.0063443393,0.13706094,0.1420576,-0.12576504,-0.0075671943},
			{0.1071133,0.025772415,0.14606404,-0.011093993,0.14721018,0.08569497,0.011920711,0.109817535,-0.15100102,0.008295052,-0.06670715,0.025500763,0.023657152,-0.110847555,0.04551021,-0.06421918}
},
			{{0.05019544,0.16661231,0.16174999,-0.010814411,0.02342143,-0.06279442,-0.06467689,0.02974854,0.10063495,0.12025734,-0.026672848,0.008633884,-0.12902024,0.014552061,0.1705202,-0.14518325},
			{-0.0030123591,-0.10941514,0.10840822,0.11912557,0.12062652,-0.16011374,0.083908476,0.04573908,0.00026419084,0.14241937,-0.16956577,-0.13857248,-0.058698896,0.12523533,-0.14502217,0.09575575},
			{-0.10995274,0.11653473,0.061672498,-0.04940538,-0.026418446,-0.03892806,-0.12703778,-0.15593153,0.10118692,0.13713422,0.1267057,0.047937814,-0.0841643,-0.13483092,-0.1369467,-0.047359597}
},
			{{-0.17975463,-0.043860972,-0.016793115,-0.17336212,-0.012903963,0.024934504,-0.095677935,-0.11928369,-0.008735489,-0.066964105,-0.17997885,-0.14484496,-0.15696506,-0.06868905,-0.018878201,-0.1608331},
			{-0.122212104,-0.032117978,-0.10916819,0.07836302,0.061994582,0.07205734,0.095437594,0.18758681,0.18942107,0.09365353,-0.015429199,-0.06025516,-0.049114566,-0.13653879,-0.10861499,0.13826153},
			{0.040698647,0.08018272,0.06104728,-0.039214782,0.021043688,0.023705978,0.022134455,-0.036515653,-0.030216143,-0.18071146,0.16374974,0.0394497,0.005851693,-0.079017386,-0.1014835,0.0020229714}
}
},
			{{{0.0021623373,0.18242459,-0.14186637,0.06872313,0.14779118,-0.10472338,-0.0684187,-0.04993784,0.04684354,0.1776115,-0.14070599,-0.05327596,0.16075695,-0.14567506,0.09695014,0.081712775},
			{-0.12225409,-0.09613473,0.14002469,-0.040492434,0.055660907,0.055744357,-0.035645533,0.04405069,-0.053707574,0.05407062,-0.15246351,-0.053788025,-0.14391801,0.16245194,0.036029134,-0.1654798},
			{-0.06407926,0.16811141,-0.1689609,0.09774519,0.09342037,0.08026295,-0.0738082,0.011552301,-0.047660116,-0.07702684,-0.15034491,-0.022339037,-0.1307494,-0.14392173,-0.098979004,-0.047226198}
},
			{{-0.14121726,0.17500678,-0.18008904,-0.038603794,0.074398175,0.08245942,0.070008,-0.0699641,0.1491775,-0.010877412,0.0021668936,-0.030861668,-0.07460088,0.080841586,-0.028668491,-0.16772605},
			{-0.17800187,0.028225329,-0.042732276,-0.058455512,0.12614764,0.034735307,-0.18599111,0.1274722,0.11175038,0.16544434,0.04335727,0.05983939,0.10222269,-0.17645928,-0.012008805,-0.010003523},
			{-0.019694164,-0.18618342,0.13521922,0.028930422,0.07550509,-0.13052803,0.1207501,0.16011636,-0.105012156,-0.054014146,-0.037715077,0.18202446,0.045479238,0.15367894,-0.021423642,0.15719953}
},
			{{-0.08959123,-0.07620876,-0.14785916,0.1822401,0.059397057,0.0126074515,-0.03840659,0.015419898,0.11654076,-0.15913756,-0.07047217,-0.021420032,-0.096052036,0.13935694,-0.106986776,-0.07148065},
			{0.057958707,0.06994143,-0.101695776,0.116749965,-0.090877995,-0.16828254,0.16473909,0.072093345,-0.0014776886,0.17857477,-0.041344225,0.13488464,-0.06288367,-0.17060529,-0.13388763,-0.0312921},
			{0.094622344,0.11333341,-0.08415463,0.14316669,0.1329438,0.14348495,0.0022986333,-0.1595692,0.18488291,0.009031657,0.0017458679,0.0036490492,0.15217717,0.10913066,0.1612174,0.015992468			}
		}
	}
};