// include/conv2d_1293_weight.h
// sergio rivera 
// 2020/02/14 20:37:10 

const float conv2d_1293_weight_p[3][3][3][8]=
{
	{
		{
			{0.047881242,-0.09496119,-0.08247461,-0.07511022,-0.018234631,0.16268793,-0.2140213,0.14656667},
			{0.2152192,-0.1639223,-0.19399928,0.19045193,0.21207993,-0.097668394,-0.21032542,0.029336985},
			{-0.069824524,0.13275126,0.1645068,0.2024326,0.14226836,-0.041575268,0.19003785,-0.1152358}
},
			{{0.16310197,-0.046494752,-0.036301404,-0.0929521,0.009633653,-0.020182848,0.10759921,0.0034484197},
			{-0.09007057,0.23391946,-0.08143503,0.16232808,-0.16251248,-0.18398197,0.23945463,0.041877948},
			{0.19604434,-0.025007877,-0.209329,-0.05466848,0.17632939,-0.21939042,-0.05897127,0.23300426}
},
			{{-0.12419687,0.13387662,-0.035902414,-0.0909239,0.23777337,0.20464036,-0.16797134,0.026491351},
			{0.24329259,-0.16110998,0.12237005,-0.075118445,0.1407314,0.11245009,0.13708384,-0.040666275},
			{-0.13375899,-0.09992747,-0.13162601,0.16409662,0.11140894,-0.106646314,-0.03504572,-0.020262413}
}
},
			{{{-0.085894294,0.04819626,0.06273574,-0.052641887,0.2030349,-0.0767308,-0.01481956,-0.0073334663},
			{-0.028712323,0.082657926,0.17042254,0.23723261,0.13249753,0.013612151,0.12767504,0.24179053},
			{-0.021963008,-0.22488528,-0.13494961,-0.008717696,0.11977243,-0.09385747,0.029841043,0.080094844}
},
			{{0.21609238,-0.13960291,-0.09262607,0.1536596,0.12981701,0.06074485,0.06858569,-0.2184148},
			{0.104246266,0.18506315,0.058752295,-0.18477991,0.07398266,0.12065032,0.054835502,0.106993996},
			{0.2290961,-0.23351678,0.24118264,0.07505596,-0.0019513776,0.22778693,-0.13630265,0.22408581}
},
			{{0.18601985,0.01897477,-0.0061644735,-0.052517615,-0.054450236,0.008803725,0.08230679,0.13269448},
			{-0.114174366,-0.13384667,0.23072436,-0.09915706,-0.2118637,-0.11307889,0.16894029,-0.092211016},
			{-0.13336866,-0.106269516,0.0595373,-0.16171005,0.14165296,-0.18733731,-0.071286455,-0.029159816}
}
},
			{{{0.06688211,-0.054445527,0.043107934,-0.104614116,-0.010830509,-0.09063655,0.025219142,-0.18060319},
			{0.19696435,-0.22784121,0.17201768,0.08859765,-0.14739314,-0.085125655,-0.19852652,0.13258725},
			{-0.07451627,0.12640242,0.103862606,-0.16386634,-0.22922675,-0.14830568,-0.1264643,0.03561315}
},
			{{0.0070729237,0.22493501,0.19039273,-0.11310633,0.16471909,-0.085776865,0.19002117,0.14313708},
			{-0.03311366,-0.18229672,0.102582365,0.122825615,0.07085828,-0.21616939,0.10551389,-0.07342076},
			{-0.075741746,-0.13394374,0.06926572,-0.14872211,0.16797343,0.047657013,0.1577395,0.03321285}
},
			{{0.123011544,0.11637016,0.13537765,-0.13839893,0.24566601,-0.11549747,-0.2118889,-0.15208517},
			{-0.12086199,-0.0127026625,0.16596651,-0.15980373,0.22227925,0.040220886,0.13668041,-0.07022542},
			{0.062350005,0.19802047,0.016437558,0.22482671,-0.121219434,-0.21410762,0.23609227,0.019907217			}
		}
	}
};