// include/conv2d_1378_weight.h
// sergio rivera 
// 2020/02/14 22:51:55 

const float conv2d_1378_weight_p[3][3][4][4]=
{
	{
		{
			{0.23986174,-0.21198055,-0.1903694,-0.16352528},
			{0.23135467,0.03568968,0.24701276,0.11930724},
			{0.002308079,-0.091782026,0.015952405,0.26339516},
			{0.29302296,0.09193487,0.23444974,0.039480146}
},
			{{-0.28682166,-0.039026227,0.1283818,0.26860738},
			{0.0024650074,0.018986808,0.17236003,0.1795669},
			{-0.15278105,-0.22648452,0.20027345,0.04633142},
			{0.14015025,0.006853518,-0.2673474,0.22403954}
},
			{{-0.26320425,-0.11006008,0.19231567,0.15741758},
			{-0.17211144,0.09776531,-0.11503188,0.17496099},
			{-0.012099,-0.28389424,-0.23192267,0.012886086},
			{-0.054816425,-0.051310394,-0.16148426,0.23851764}
}
},
			{{{-0.054330412,-0.17282405,0.150392,0.1288232},
			{0.12112346,0.08462143,-0.107068405,0.03747923},
			{0.056554403,0.19306527,-0.119856216,0.11652517},
			{-0.24660274,-0.24371,-0.23766541,0.11788948}
},
			{{0.22457062,0.27754322,0.011574213,-0.01751907},
			{0.18567438,0.18749762,0.25479606,0.047107358},
			{0.012732124,0.15788749,-0.032054268,-0.04080627},
			{-0.10480055,-0.18944652,-0.1033536,0.10187209}
},
			{{0.0800454,-0.12640613,-0.17931132,-0.13756385},
			{-0.17519613,-0.054245405,-0.15285735,0.16774319},
			{-0.12551066,0.21473211,-0.19794561,0.17878395},
			{0.07268696,-0.05975362,0.13077441,0.08081283}
}
},
			{{{-0.23356527,-0.14054465,0.2616291,0.16703323},
			{0.11268678,0.19057061,0.18428206,0.2530968},
			{0.14952564,0.038714685,0.196476,-0.06282346},
			{0.041755933,-0.07039325,-0.26489523,-0.14507197}
},
			{{-0.04954668,-0.16141556,-0.1270067,-0.2888586},
			{-0.099265516,-0.24083297,-0.27746844,0.0030243322},
			{0.16920012,-0.07102575,0.17701033,0.07613168},
			{0.023785414,-0.043557283,0.11476816,0.21401647}
},
			{{0.14579238,0.07994697,0.26443186,0.17667715},
			{-0.007708735,-0.047749493,-0.16727637,0.12277552},
			{-0.1943059,-0.10850736,-0.07554225,-0.07991686},
			{-0.2700281,0.07309047,0.23408249,0.24728747			}
		}
	}
};