// include/dense_4614_bias.h
// sergio rivera 
// 2020/02/14 22:51:59 

const float dense_4614_bias_p[140]=
{-0.005393319,0.0011031854,-0.0027029775,0.0067744027,0.006195536,0.009730407,-0.017446905,-0.001611867,-0.003293317,-0.0021994316,-0.002640208,-0.007910491,-0.0025336503,0.002622217,-0.0047750506,-0.003646712,0.0020953743,0.009153117,0.002387006,-0.014394678,-0.0026605043,0.0034409068,-0.0041947565,0.0040851063,-0.001524069,-0.001966281,0.003674166,-0.006482153,-0.0008633989,0.011453575,0.0036465423,0.008430423,-0.0020958371,-0.006473099,-0.0042480375,0.0045398595,0.007890727,0.010515818,3.926875e-05,-0.013633821,-0.00015655998,-0.0073627112,-0.0042253663,-0.011494281,-0.0018972657,-0.011352014,0.006805476,-0.003962402,0.0076777176,-0.010557019,-0.013003696,-0.0015796465,-0.0046341484,-0.0045416965,0.0016290011,0.0029716222,0.009197596,0.0038344653,-0.00019121708,-0.0030373721,0.0067714606,-0.0018786134,0.005772136,0.009672646,-0.007864988,-0.002129813,0.0046259025,0.007338604,0.0005201046,-0.005656052,0.0042363117,-0.0028979606,-0.0008377698,-0.0077319113,-0.0018170454,-0.0063517545,-0.0034680446,0.00034296315,0.0066620256,-1.847709e-05,-0.0045146616,0.0013868827,0.003381689,0.005436902,0.00021789112,0.0058669783,0.0062058903,-0.00036116713,-0.004573031,-0.007485587,0.0027313163,0.0025843,0.0059188805,-0.0006052096,-0.0009908645,0.00021825114,0.0003008535,-0.011331547,0.005153534,-0.008733204,-0.006025185,-0.0016539638,-0.0003407696,0.002406038,0.0018039455,-0.0060809944,0.0010546467,-0.015987037,0.0025270984,0.009288294,-0.00502254,-0.0039369534,-0.0034700404,-0.0013044705,0.0012239591,0.0034246026,-0.0025698824,0.009330203,-0.0070135673,-0.008639616,-0.002132942,0.0032879282,-0.004627161,0.0017655904,0.0035268823,-0.0023258156,-0.0038029654,-0.0026898764,0.003691736,0.0036145023,0.003082565,-0.0031894408,0.004078452,-0.011992908,-0.0083413785,-0.0016029342,0.005506293,0.0043787844,0.013590017,0.008478229};