// include/conv2d_240_weight.h
// sergio rivera 
// 2020/02/14 15:28:15 

const float conv2d_240_weight_p[3][3][2][16]=
{
	{
		{
			{-0.03500353,0.17870939,0.16828838,-0.14311916,-0.064156115,0.10731269,-0.07496512,-0.12728304,0.11822377,0.1129359,0.17516364,-0.16006228,0.077734515,0.08746954,-0.18108153,-0.10342496},
			{0.1446895,-0.09251748,-0.054362524,0.13494456,0.14564066,0.034398597,-0.18079917,-0.085190706,-0.175793,-0.029312843,-0.021220518,0.07620135,0.12506148,-0.05812876,-0.089404285,-0.017117217}
},
			{{0.014381383,0.14102535,0.15932177,-0.021491505,-0.18754427,-0.11680257,-0.19043708,0.030639395,-0.15193276,0.13051175,-0.10164033,0.039295707,-0.1809543,0.09772685,-0.15415956,0.16452761},
			{0.1531776,-0.032902658,-0.1008086,-0.02848491,0.0044099395,-0.078349344,-0.05464223,0.076734975,-0.0759959,0.18184611,0.11578155,-0.016226428,-0.04493347,0.042626105,-0.18533722,-0.03858066}
},
			{{0.1518281,-0.023552576,-0.07240181,-0.12416441,-0.052502766,-0.13766295,-0.112110846,-0.17653379,-0.03348439,0.050543655,-0.025619235,-0.18661526,0.10936715,0.03751034,0.09469634,-0.10881331},
			{0.09957754,-0.1692209,-0.03875301,-0.14102332,-0.05584617,-0.031716764,-0.12829457,0.016976105,-0.17498317,0.118522264,-0.1897789,0.07130345,0.1816417,-0.17138676,0.06629144,0.034169674}
}
},
			{{{0.12026334,-0.16232415,0.10674055,-0.16745423,0.08293122,-0.042869348,-0.059034303,-0.0067989915,0.11355301,-0.07632644,-0.024731075,-0.022926603,-0.1822383,0.008274322,-0.16027248,0.090258084},
			{0.05983923,0.0971942,-0.116453305,0.09135612,0.018146629,0.08044767,-0.13121928,0.18315765,0.06713874,0.12414258,-0.06901277,0.07036302,-0.0007101398,0.059257977,-0.049470354,-0.15427677}
},
			{{-0.1638247,0.009272848,0.17082585,0.10563911,0.12155354,-0.16151598,-0.017899215,0.0056262654,0.08444651,-0.19045459,0.1253088,0.04041454,0.0592657,-0.07426253,-0.08305502,0.16022103},
			{0.05005951,-0.19205886,-0.16357917,-0.07622662,0.0829759,-0.030182194,-0.07235168,0.13888595,0.07684018,0.09710617,0.041669093,-0.17630681,-0.04250788,0.02313649,0.13483268,-0.11083174}
},
			{{-0.044385955,-0.03223281,-0.14289397,-0.11393003,-0.12694809,0.012090111,-0.06275423,-0.14295065,-0.0019722471,-0.14600024,-0.1096962,0.026238803,0.06210031,0.16049652,0.08359993,0.09624728},
			{-0.029212616,-0.0997294,-0.040592663,-0.0023615323,0.031908862,0.0021278902,-0.058333486,-0.1661927,0.019645974,0.053056583,-0.10619387,-0.11927174,0.15676588,-0.17642044,0.068449326,0.038532972}
}
},
			{{{0.08768052,0.004397082,-0.063833095,0.17202276,0.036103945,0.041412544,-0.19144344,-0.15235984,0.08548198,0.057175774,0.058460243,0.1442851,-0.08590271,-0.16832624,-0.18768509,-0.06485699},
			{-0.0022115042,-0.034832418,0.122071415,-0.1479369,0.055429913,-0.16459933,-0.084711865,0.035752468,-0.023583984,0.06994171,0.08015511,-0.009909568,-0.060929008,-0.1776404,0.1981662,-0.15967794}
},
			{{0.1543114,-0.047632724,0.0912416,-0.06640285,-0.14672601,-0.11153404,0.065441415,0.073772155,-0.13710414,0.13332719,0.09472321,0.06399887,-0.042934585,0.15434313,-0.082670085,0.04565611},
			{-0.08883646,-0.12470574,0.02630145,-0.12047678,0.08523685,0.09339708,-0.030633405,0.14484009,0.12385071,0.16899794,-0.12808548,-0.060753755,0.10219402,-0.10342753,-0.05396355,0.11997471}
},
			{{-0.14485271,-0.135968,0.11436795,0.14295655,0.010132818,-0.016348893,0.05006185,-0.16471468,-0.19022325,-0.018999483,-0.047394596,0.061869457,0.011518224,-0.14185284,-0.05679457,-0.15869576},
			{0.06284802,0.02050579,-0.14596047,-0.06097382,0.07762657,0.016894871,0.021384045,0.103637986,0.13020726,0.15252678,-0.07284459,-0.18243565,0.16731131,-0.16400577,-0.110677,0.07296999			}
		}
	}
};