// include/dense_181_weight.h
// sergio rivera 
// 2020/02/14 15:28:19 

const float dense_181_weight_p[2][74]=
{
	{0.06185515,0.11194697,0.041148756,0.1614456,-0.17996399,0.18814431,0.06474732,-0.007586075,0.02481322,-0.13616282,-0.20722988,0.20883475,0.14528082,0.12718244,-0.22732185,-0.038293295,-0.029133923,-0.053221498,0.25345147,-0.1929807,0.20191228,-0.14476073,0.10424439,-0.06905892,-0.085539155,0.25143808,-0.118885346,0.03499669,-0.20829502,0.18685018,0.26017287,0.13077368,0.035603233,0.17838432,0.23524407,0.040570386,0.17035852,-0.13704932,0.20325458,-0.045850698,-0.07300942,-0.2255772,0.06522606,-0.048759446,-0.1791656,0.04888683,-0.23186867,-0.078560434,0.13258517,-0.0992562,-0.0007782867,-0.030465608,0.09448499,-0.10181934,-0.2418409,0.012203339,-0.021527955,0.25889945,-0.17993909,0.12129212,0.1369067,-0.27276123,0.18794847,-0.23051006,-0.14869823,-0.2597741,0.18188532,-0.14565569,-0.08144912,-0.20272242,-0.24646784,-0.21226439,-0.16249149,0.015369454},
	{-0.09406107,0.008673704,-0.0056608864,-0.21910028,-0.03244319,0.17231055,-0.20658593,-0.16911775,-0.17475045,0.2535365,-0.24483338,-0.047950268,0.14192525,0.07494715,0.18302798,0.042365793,0.26310304,0.09078573,-0.15660283,0.04460865,0.12446775,-0.082804486,0.03850789,-0.038621318,0.24526502,0.19074167,-0.21099046,0.10048298,0.04219485,0.027059278,0.12196772,-0.17648832,-0.23002163,0.25688827,-0.21971497,-0.054552965,0.09671418,0.0012124169,-0.025721535,0.11068854,0.18865822,0.16459508,-0.04144708,0.10687546,-0.089143924,0.1859818,0.11219231,-0.12184307,-0.03064854,0.07751335,0.1781832,-0.123399176,0.17402773,-0.10404815,0.15709458,-0.028048785,0.21739496,0.012410328,-0.03899322,0.23969106,-0.1151253,-0.19468537,0.14957792,-0.016108334,0.15105729,-0.07914537,-0.19958363,-0.23337558,-0.15541032,0.17804714,-0.28278646,-0.06277332,0.19085553,-0.2621024	}
};