// include/dense_2111_bias.h
// sergio rivera 
// 2020/02/15 01:48:22 

const float dense_2111_bias_p[270]=
{-0.00062524877,-0.0007035043,0.0039535486,-0.0034389202,-0.0049388236,-0.005531581,0.007959032,-0.0019927404,0.00012559083,0.0054865023,0.0038620792,0.0011762513,0.0038811797,-0.009081341,-0.0087509565,-0.006459742,-0.0018229904,0.004529139,0.003942283,0.00653856,7.981027e-05,-0.00458942,-0.0046865335,0.0108400965,0.004100253,-0.0014830278,0.01172724,0.0044811824,-0.0007920747,-0.0008718079,-0.005338067,-0.006620585,-0.0029385788,-0.0042121434,-0.0052468283,-0.0057606595,-0.0040855743,-0.00049774867,0.002257052,0.00566368,0.005442428,0.0016087632,0.002711717,-0.0031271093,-0.01600482,-0.005646287,0.008060459,0.0010786236,0.017975628,-0.009970625,-0.0003425451,0.0011732538,-0.0067800693,0.0011726567,0.010155423,-0.003769425,0.009748115,0.01080308,-0.0013626833,0.0005254183,-0.0007547686,-0.0075973216,-0.002699051,0.0035096495,-0.00018371618,-0.007912725,0.00041078322,0.001922549,-0.007261774,0.0031554268,0.0014807415,-0.010204378,-0.0021479712,0.009221433,-0.007110978,-0.0074311257,-0.0060534226,-0.00017140119,0.0004446892,-0.0074631413,-0.005636002,0.0067837387,-0.012150151,-0.0060630026,-0.0024042134,-0.0100272875,-0.0027172156,0.0028700773,0.0037500614,0.0048509426,-0.0045808842,0.0025757481,-0.005461353,0.008456007,0.0013408039,-0.004391325,0.0017250666,-0.004507136,-0.0070768227,0.0014020837,-0.011417762,-0.0014579961,0.012996243,-0.0018395445,-0.0013558123,0.00302331,0.0034851888,-0.005112765,-0.003441134,-0.0045855483,-0.0058048465,-0.00094819773,0.0024978358,3.7822407e-05,0.0007931177,0.0013086784,-0.0014431174,0.0011417605,-0.0052038985,-0.012162303,-0.0024026707,-0.011730637,-0.0015343151,0.012157139,-0.013638388,0.0006954476,-0.018445652,-0.0048844954,0.0026376124,0.009331822,-0.0016383912,-0.0049780444,-0.001062177,0.0067306277,0.0062978426,-0.0012835491,-0.0025819752,-0.008364146,0.0009652403,-0.0058212923,-0.00194727,0.010994213,0.009392528,-0.0041077365,-0.0050494676,-0.0030936294,0.0058193724,-0.0033984089,-0.00931857,-0.0018117207,0.008073006,-0.0061700377,0.004847963,-0.0008890795,-0.0065750224,-4.7727954e-06,-0.0023783622,6.4361026e-05,-0.0046543325,-0.0055703847,0.0043052193,0.0033455077,0.0024370088,0.0012032607,-0.0013851972,0.0019439737,0.002473028,-0.0034250293,0.0059756567,0.0047821426,-0.003604352,-0.0036229645,-0.002018338,0.0005306528,7.016957e-05,0.002718224,-0.006845479,-0.004610076,0.0006220909,-0.0022095772,-0.003664455,0.0037127058,-0.0010513926,-0.0052052075,-0.010404192,-0.0012158505,0.0032856485,-0.0024401885,0.0013304843,0.0021618595,0.0008448133,0.0014571617,0.003559786,-0.007681458,0.005361854,-0.00068076595,-0.010879215,-0.0022783824,0.0051531508,0.002796543,-0.005522615,-0.0070346333,0.010848439,-0.0038919898,0.00831258,-0.0018250829,0.0064898897,-0.0009032887,-0.0114684235,-0.0027694548,-0.01090629,-0.00083739846,0.0018582998,0.005747109,0.0007986904,0.0016957745,0.0006752572,-0.0054957652,-0.008925168,-6.33747e-05,0.0038169809,0.010616821,0.00039365538,-0.006120926,0.009538952,-0.0051150024,0.0015268914,-0.0013341061,0.013285373,-0.004147589,-0.007957892,0.008332525,-0.0028275403,-0.0067936815,-0.0050335857,-0.008936485,-0.0036201105,-0.012144666,-0.008971577,-0.0024893389,-0.0070383376,0.001954268,-0.0022268402,0.0112135215,-0.008568544,0.00025284674,-0.0027861893,0.00038025016,-0.0030762583,0.0027802782,0.0060857427,0.004652012,0.0061085587,-0.007369184,-0.004436588,-0.0042922203,-0.0010596832,0.0017463428,0.0022153282,-0.0031260946,-0.00050890865,0.0006478168,0.00088132115,0.002981797,0.0009485624,0.0031829765,0.018219767,-0.00040279448,-0.0028033175,-0.002009428};