// include/conv2d_300_weight.h
// sergio rivera 
// 2020/02/14 23:41:03 

const float conv2d_300_weight_p[3][3][7][2]=
{
	{
		{
			{0.20168273,0.062864296},
			{0.09940999,0.057173118},
			{0.06426427,-0.099065065},
			{0.012090491,0.22123344},
			{0.2499383,0.16883612},
			{-0.17798558,-0.20981367},
			{0.08000549,-0.054895032}
},
			{{-0.26662654,-0.003912402},
			{0.20339015,-0.12716717},
			{-0.07361637,0.02997408},
			{0.25657883,0.11037244},
			{0.2475094,0.13959467},
			{-0.047700703,0.17456631},
			{-0.047345083,0.11887755}
},
			{{0.018562747,-0.2313293},
			{0.045691423,-0.20213518},
			{0.17275222,-0.119980395},
			{-0.10794194,-0.12204252},
			{-0.23781107,0.1471252},
			{0.069505624,-0.17324588},
			{-0.055407878,-0.22465213}
}
},
			{{{0.23283596,0.09819857},
			{-0.10859006,-0.049153768},
			{0.22380006,0.107447565},
			{0.104869574,0.07670449},
			{-0.09798529,0.024459861},
			{0.2610614,0.1261542},
			{0.19256532,-0.2118484}
},
			{{-0.036404252,0.1239724},
			{0.082587205,-0.22477162},
			{-0.19650713,-0.19938414},
			{-0.25814065,-0.24254373},
			{0.047636844,-0.07677648},
			{-0.21059947,0.2034934},
			{-0.02043825,-0.27323017}
},
			{{-0.21323508,-0.07304742},
			{0.01792015,0.24581409},
			{0.24760213,-0.016462274},
			{0.22860655,-0.023355642},
			{-0.071943276,0.013108561},
			{0.15560846,-0.10791059},
			{-0.22214682,-0.08266658}
}
},
			{{{-0.1736609,-0.06492223},
			{0.09790586,0.26501936},
			{0.2041872,0.11411758},
			{-0.087279275,-0.15208392},
			{0.0762311,-0.08513501},
			{-0.172157,-0.035358716},
			{-0.10775982,-0.25469178}
},
			{{-0.16932276,0.122570716},
			{-0.1398746,-0.08284274},
			{-0.011691056,-0.17732371},
			{-0.091176204,0.23174411},
			{0.08036443,0.07481403},
			{-0.20886153,-0.23525769},
			{-0.08058253,-0.04703884}
},
			{{-0.08541838,0.04985132},
			{0.23062122,-0.23669091},
			{0.252299,0.18216501},
			{0.053304914,-0.25337988},
			{-0.2635727,0.19970968},
			{-0.10053011,0.08019559},
			{-0.06649026,-0.23878828			}
		}
	}
};