// include/conv2d_299_weight.h
// sergio rivera 
// 2020/02/14 23:41:02 

const float conv2d_299_weight_p[3][3][7][4]=
{
	{
		{
			{0.18550786,0.00065138936,-0.017013684,0.19295046},
			{0.15532291,0.20883614,0.17429379,0.09696394},
			{-0.09041469,0.0012756735,0.00084139407,-0.049414277},
			{-0.13933387,0.09057972,-0.22007704,-0.22329044},
			{-0.19001736,0.13355297,0.036046743,-0.10387963},
			{0.113012165,0.17618668,-0.22903483,-0.14034459},
			{-0.024241745,0.002394393,-0.10597837,-0.036370456}
},
			{{0.16752106,-0.045581102,-0.03319849,0.064077884},
			{-0.05948679,-0.2422107,0.21111336,-0.014444381},
			{-0.035251737,0.18533865,-0.1625288,-0.05074711},
			{0.055452377,0.115174234,-0.012877598,-0.12754366},
			{0.1387302,0.2071644,-0.1607767,-0.014339387},
			{-0.11998543,-0.24220483,0.20634544,0.19101658},
			{-0.08429676,0.09969354,0.17234558,-0.10710472}
},
			{{0.19919285,0.23720428,0.04321596,0.20826212},
			{0.042308837,-0.1782563,0.070901066,-0.234199},
			{0.092105746,-0.06398104,-0.21617272,0.14332986},
			{0.00672099,0.04653594,-0.13361192,-0.18271926},
			{0.22775424,0.14372867,-0.060896114,0.046256095},
			{-0.11981346,0.110230744,-0.12647852,0.00046379864},
			{-0.23319198,-0.14475602,-0.21850789,-0.1374884}
}
},
			{{{-0.1970998,0.1198799,-0.093997404,0.16789138},
			{0.15885693,0.10651955,0.006620705,-0.1621116},
			{-0.107279286,0.030967623,0.10585067,0.21127415},
			{0.20389822,0.19956079,-0.11709073,-0.07809956},
			{-0.06322119,0.13700059,-0.12522104,-0.16070211},
			{-0.086385295,0.07815313,0.23969048,0.19338396},
			{-0.061615705,-0.1271521,0.24408478,0.15544242}
},
			{{-0.20748933,0.111353636,-0.15138757,-0.10684389},
			{0.1915896,-0.10394472,-0.11628966,-0.19885653},
			{-0.19179186,-0.026735038,0.14031759,-0.06839605},
			{-0.058569223,-0.24056268,0.19545108,-0.18380512},
			{-0.20016894,-0.07404411,-0.18221632,0.057510614},
			{-0.22854795,0.20265207,0.074947715,-0.20250216},
			{0.07579684,0.037880838,-0.20911035,0.22072333}
},
			{{-0.06240879,0.18549535,-0.15940842,-0.17821059},
			{-0.15319923,-0.17774256,-0.02650325,-0.026587248},
			{-0.24425727,0.14396691,0.18891865,-0.09539381},
			{-0.12298848,0.13837191,-0.029821485,0.21395472},
			{-0.12318751,-0.028092235,0.041525304,-0.022134319},
			{-0.192912,0.23980412,0.19550529,0.1539669},
			{0.21036965,-0.097514376,-0.10799043,-0.0066316724}
}
},
			{{{0.2401098,0.23565376,0.11456886,-0.039946362},
			{-0.1413435,0.096604496,-0.18052498,-0.2333413},
			{-0.073340654,-0.018064559,-0.13793853,0.17572263},
			{0.23369265,-0.17742161,-0.22542205,-0.1537968},
			{-0.16261086,-0.14452153,0.1497454,0.1595619},
			{0.164072,-0.091999546,0.23873922,-0.07998623},
			{-0.21293056,-0.009994745,-0.18391982,-0.12315165}
},
			{{0.0492467,0.00492236,-0.12053235,0.08360559},
			{0.24535832,-0.1408523,-0.0144640505,-0.07070556},
			{-0.0040403605,0.16921172,-0.12668443,-0.037168413},
			{0.20436871,0.12643492,-0.06617698,0.050005734},
			{0.11177182,0.18288097,0.21012706,-0.1354035},
			{0.21512315,-0.035121143,0.12720838,-0.093488336},
			{-0.05262956,0.16106096,-0.16039032,-0.17227603}
},
			{{0.11354563,-0.20219696,-0.13061684,-0.042629704},
			{0.22784838,0.090227276,0.2276201,0.2033118},
			{0.08491588,-0.07623078,-0.23450334,-0.11635347},
			{0.2421813,0.07028067,-0.02913618,0.19585031},
			{0.036756903,-0.07760212,-0.071771696,-0.025743216},
			{0.069698185,-0.1857144,0.040664613,-0.23835875},
			{-0.20946951,-0.22702941,0.11076772,0.09716621			}
		}
	}
};