// include/conv2d_175_weight.h
// sergio rivera 
// 2020/02/14 15:26:06 

const float conv2d_175_weight_p[3][3][8][8]=
{
	{
		{
			{0.18301655,0.15144521,0.025814235,0.097240776,-0.15156958,-0.0031415422,-0.19698352,-0.11786323},
			{0.03442596,0.20124498,-0.18979011,0.08301131,-0.030733533,-0.11249775,0.019368676,-0.17589381},
			{0.102040954,0.13104518,0.076670125,-0.031621043,0.15297963,-0.15097849,-0.1775165,0.050085984},
			{-0.16385055,-0.17273486,0.062739044,-0.01979478,-0.19518906,0.022111582,0.11943225,-0.038422514},
			{-0.047926795,0.051874373,0.04999359,0.088596225,-0.08917281,-0.031365167,0.12115771,0.1931399},
			{-0.12584394,0.10168129,-0.10457778,0.092827156,0.0418836,-0.09487741,0.17670989,0.0200571},
			{-0.1180745,-0.1556391,0.030101577,0.112655126,-0.2013057,0.053256724,0.12253387,0.06895448},
			{-0.08680899,0.17675664,-0.10556958,-0.20321865,-0.06920818,-0.03184373,0.06898276,-0.19440416}
},
			{{-0.119006164,-0.17745736,0.098947324,-0.16171227,-0.12730816,-0.021960892,0.019589415,0.13257003},
			{0.0087289065,0.09675297,0.20324813,0.15654065,0.17108184,-0.092783324,-0.1452823,-0.03040074},
			{0.03698182,-0.08086611,0.144381,0.053304568,0.060914062,0.112330005,-0.19260143,0.09391078},
			{-0.0368549,0.0052462253,-0.084786505,-0.13762304,0.10674609,0.14096448,-0.11407384,0.10962563},
			{-0.024618855,0.082845755,0.1365274,-0.10691135,0.1312636,-0.14810267,-0.058864858,0.034075778},
			{0.04829,0.14120162,-0.10632015,-0.07650164,-0.044789735,0.045482133,-0.14678784,0.014003649},
			{0.10095459,0.163989,-0.17998524,-0.1118728,-0.07405045,0.10358945,0.012128382,-0.026545037},
			{0.11440104,-0.16898069,-0.009691258,0.039453708,0.06729107,0.088101044,0.00023200196,0.01968225}
},
			{{0.045039136,0.17262624,0.10192546,0.07298837,0.027090037,0.1221904,-0.037952837,0.1459198},
			{-0.16725147,0.11402549,0.17195556,0.17346036,-0.040954474,0.07986694,0.1574367,-0.05179687},
			{0.14356823,-0.07082813,0.18805073,-0.14089817,0.07975411,-0.12380382,0.02194841,0.123303466},
			{0.05955364,-0.1512816,-0.17057009,0.15160286,0.114577815,-0.13973844,0.11238853,0.024930894},
			{0.002977789,-0.007906132,0.18291382,-0.12300925,-0.05843356,-0.07513381,-0.10434657,0.0041997232},
			{-0.1803766,-0.17088571,0.009345512,0.07183516,-0.143831,0.1374682,-0.043718692,-0.015393341},
			{-0.13705698,0.0998723,-0.02589951,0.18272184,-0.14325058,0.073861055,-0.060200628,-0.10289566},
			{0.09803645,-0.14682107,-0.091055706,-0.059201546,-0.12643188,0.12430996,0.15010677,0.067817055}
}
},
			{{{-0.15366402,-0.024481984,0.033973295,0.005536586,-0.07572536,-0.18439838,0.08748426,-0.0007205801},
			{-0.054262817,-0.05410789,-0.121163696,0.101874106,0.14622991,0.02851129,0.15246728,-0.01781007},
			{0.1425696,-0.16228597,0.048474036,-0.12929079,-0.021876479,0.04155757,-0.17017084,-0.16372369},
			{0.07592799,0.1689909,-0.167315,-0.124361314,-0.14834721,-0.15005006,-0.13879937,0.12620197},
			{-0.10575764,-0.17535597,-0.08499407,0.1237271,0.027048681,-0.012111096,-0.00047510525,0.13118535},
			{-0.17607321,-0.17935678,0.01701421,0.16011478,0.15983833,-0.15742098,-0.034028284,0.11944861},
			{-0.15567063,-0.0581393,0.19745333,-0.022854028,-0.0042450377,-0.01626706,-0.031664297,-0.19028269},
			{-0.13190529,-0.17316037,-0.031819407,0.10939568,0.10194061,-0.16982953,0.101493426,-0.118374616}
},
			{{-0.10761911,-0.068664566,-0.07590076,0.042386338,-0.0018295604,-0.17822258,-0.19761758,-0.09830821},
			{-0.1416428,0.030503692,-0.017598705,-0.1339469,-0.03579589,-0.19679116,0.17191002,-0.18027274},
			{0.19862749,0.062467486,-0.13210835,0.14609645,-0.063845694,0.10750516,0.0016768894,0.10821939},
			{-0.023639195,-0.14591439,-0.1269112,0.03531546,-0.052352704,-0.1279086,-0.13203818,0.08453751},
			{-0.11253382,-0.20125495,0.12708044,-0.12859868,-0.10386802,-0.046409998,0.018932305,0.06247985},
			{0.0010183718,-0.13272096,0.12882401,9.8332544e-05,-0.15112327,-0.2053306,0.08857818,0.0354469},
			{-0.15056185,-0.16391045,-0.10308973,0.14753865,0.103804156,-0.14648126,-0.020083806,0.069144785},
			{0.047745217,0.106292635,-0.20244026,-0.20211406,0.05535015,-0.09261538,-0.01499316,0.044383936}
},
			{{0.15022902,-0.20615883,-0.056588985,-0.09209022,0.18771468,0.13373089,0.111337215,0.030733574},
			{0.12883666,0.14938052,-0.15291613,-0.039265875,-0.1156782,0.17211625,0.06309589,-0.15237741},
			{-0.10482574,0.16597408,-0.1645569,-0.20538759,0.1479338,-0.19186512,0.06380956,0.07647942},
			{0.14772421,-0.15676859,-0.045159154,-0.1739848,0.00473395,-0.17663826,0.044868067,-0.1599963},
			{-0.05785646,0.09362085,-0.12851854,-0.08961132,0.027587868,0.058478523,-0.048589233,0.12494276},
			{-0.12724018,-0.1786324,-0.06541273,0.043637134,-0.10150292,-0.1614606,0.0017973341,0.025755193},
			{0.16373967,-0.1254285,-0.017641861,0.13389108,-0.0821309,-0.028697673,0.11358983,-0.13959707},
			{-0.069761544,-0.04547736,-0.055041485,-0.07103907,-0.1833885,0.17945321,0.1240615,-0.116613664}
}
},
			{{{-0.18864098,-0.07330781,0.16417423,-0.1533016,0.08995047,0.048374504,-0.10012326,-0.043935806},
			{-0.0008571297,0.06888627,-0.06786739,-0.067792356,0.042490378,0.108348325,-0.08932351,-8.3623934e-05},
			{-0.08704553,0.044840235,0.013052956,-0.08226642,0.082974896,0.102755696,-0.17143537,-0.16271715},
			{-0.18740954,-0.18036138,-0.20286188,-0.09034487,0.20983745,-0.10639104,0.16636774,-0.13309287},
			{-0.19347462,-0.14748752,-0.021150215,0.19692999,-0.05464837,-0.02230493,-0.1442577,-0.1313948},
			{0.15266559,-0.14597489,0.17761159,0.1920815,-0.18010324,0.084052965,0.12341964,-0.120865665},
			{-0.12748139,0.11773896,0.00030698796,-0.15820114,0.049309608,-0.14553353,-0.0033467321,0.16169478},
			{-0.041676614,0.15007202,0.06480325,0.15100114,0.17701732,-0.09264229,0.0043050195,0.09105377}
},
			{{0.118336655,-0.0121442545,-0.05384366,-0.1259511,-0.1440805,-0.16760418,0.133108,-0.13950117},
			{0.025178507,0.113097556,-0.1543315,0.10207281,-0.07535112,-0.105658986,0.15508167,0.016853586},
			{-0.104837075,0.035992093,-0.00917353,0.17204596,0.13299458,-0.0035556916,-0.053717714,-0.16415213},
			{-0.09911595,-0.11375125,-0.08648497,0.19991504,0.11134027,0.04105582,-0.032033484,-0.11585923},
			{0.18811932,0.1034174,-0.20232275,-0.015091956,-0.0065668793,0.13990222,0.0035142512,-0.018999826},
			{-0.19456837,-0.16270731,-0.068720795,-0.18159643,0.041119643,0.041661806,-0.06744846,0.08453324},
			{0.12150723,0.06975693,-0.13424022,-0.17722169,0.035334267,0.07100588,0.1380946,0.109755896},
			{0.0398032,0.16261923,-0.08251415,-0.0036658735,0.18064207,0.1309368,0.0004770208,-0.15167555}
},
			{{-0.20062204,0.0059619714,-0.16128731,-0.06977465,-0.05764826,0.09955423,-0.12906207,-0.023571646},
			{0.07151838,0.029067425,-0.17699835,-0.14148295,-0.09133005,-0.117468975,-0.025101235,0.09738168},
			{-0.05350584,0.12900613,0.16524255,-0.1519172,-0.038743034,0.11030794,-0.07820197,0.19460239},
			{-0.0729961,-0.03747735,-0.057223834,0.1588349,-0.17836261,0.12124629,-0.048905417,0.09601751},
			{0.15409295,-0.066923924,-0.1695669,0.028204083,0.10324422,0.042163454,0.108635634,-0.19662714},
			{0.01858229,-0.19967853,-0.1104565,0.14816287,0.077641495,0.062716156,0.15918565,0.04467489},
			{-0.15418524,-0.20275141,0.051845778,-0.049991596,0.034035128,0.0948785,0.11321813,0.10603077},
			{-0.15932725,0.09965366,0.14456092,-0.06251868,0.18097535,0.07329558,-0.17553242,0.15788147			}
		}
	}
};