// include/conv2d_3738_weight.h
// sergio rivera 
// 2020/02/15 03:50:12 

const float conv2d_3738_weight_p[3][3][3][4]=
{
	{
		{
			{0.11609448,-0.05832174,0.2897997,-0.30081823},
			{8.515662e-05,0.01578038,-0.1109885,-0.19999743},
			{0.09249951,0.018612478,-0.2856057,-0.24371271}
},
			{{0.20017,0.021367127,-0.20757335,0.16861247},
			{-0.02786512,0.055464663,0.19752733,0.12271857},
			{0.11283005,-0.19264773,0.20848858,-0.07512653}
},
			{{-0.13307945,-0.17343274,0.08399579,-0.07788477},
			{-0.080383696,-0.074238814,0.19708097,0.13322902},
			{0.2120277,0.12556273,-0.015922267,0.013463204}
}
},
			{{{0.0059491685,0.27161244,-0.3043593,0.16798945},
			{0.011403524,-0.09653217,-0.096606806,0.15601149},
			{0.21117052,-0.2850132,0.20083772,0.041727208}
},
			{{-0.045251913,-0.24266797,-0.018236522,0.19907606},
			{0.19077852,0.18830916,0.1524094,0.0076319757},
			{0.04443381,-0.25806677,0.30332145,-0.081952415}
},
			{{-0.25516364,-0.13510764,-0.21844536,0.20348412},
			{0.3073928,0.01870209,0.28724518,0.16963397},
			{0.028449684,0.04723693,0.039459992,0.20650932}
}
},
			{{{0.0871125,0.12406506,-0.11374604,1.1847078e-05},
			{0.28534323,0.09609438,-0.24093671,-0.21670823},
			{-0.07597969,0.09154236,0.22251542,-0.25020388}
},
			{{0.2529818,-0.06814117,0.16252896,0.05035631},
			{-0.23525201,-0.29113376,-0.07364038,0.06867669},
			{0.14004256,0.2287311,0.007887135,0.02673798}
},
			{{0.18327089,0.072944514,0.07590796,-0.14538299},
			{0.087579675,0.032386612,-0.111129254,0.050321046},
			{0.003676534,0.14321202,0.0021751735,-0.21238963			}
		}
	}
};