// include/conv2d_2065_weight.h
// sergio rivera 
// 2020/02/14 22:02:26 

const float conv2d_2065_weight_p[3][3][5][4]=
{
	{
		{
			{-0.0014003733,0.032652404,-0.15662134,-0.20249371},
			{-0.22796871,0.1522959,-0.14859074,-0.04089265},
			{0.043139726,-0.014320645,0.10522573,-0.24406412},
			{0.001862723,-0.22954898,0.25822628,0.085659154},
			{0.012599008,0.0032077178,0.18650913,-0.07901584}
},
			{{-0.035856664,-0.027035842,-0.06013766,-0.08340145},
			{0.07614437,0.26024595,0.1356738,0.054663368},
			{0.033622105,0.1817695,-0.08839668,0.08242272},
			{0.16926916,-0.12476459,-0.16787322,0.1978619},
			{0.16027726,-0.27983394,0.04438844,0.06969977}
},
			{{0.21635884,0.10171564,0.25235394,-0.15467829},
			{-0.15867694,-0.2444192,0.18155178,0.13249943},
			{0.19636379,0.039367855,-0.13910156,-0.026117833},
			{-0.20665729,0.09073686,-0.12616,-0.10430216},
			{0.11361663,-0.1314645,0.074553855,0.15210108}
}
},
			{{{0.17595072,0.1821585,-0.10680053,-0.092342705},
			{-0.090837665,0.12934223,0.23050883,-0.12328491},
			{0.022977585,0.017516082,-0.1515816,-0.09076271},
			{0.044804685,0.26445347,-0.25743634,-0.0164049},
			{0.120469026,-0.12230188,0.040099792,0.13526057}
},
			{{0.007630803,0.12054266,0.23364455,0.17948073},
			{0.0613069,-0.04003185,-0.21806644,-0.09411988},
			{0.22411288,-0.22703788,0.076160744,0.11501155},
			{0.0955229,-0.03768439,-0.09794921,0.016957013},
			{-0.08632963,0.09682223,-0.1660498,0.05693986}
},
			{{0.0064852843,-0.10947369,0.24126391,0.058043934},
			{-0.009979748,0.25716364,-0.15038389,0.10822874},
			{-0.025689203,0.05429224,0.018670894,0.120314404},
			{-0.23811649,-0.1023325,0.27129808,0.0055478443},
			{-0.12298886,-0.1568526,-0.028343027,0.08509033}
}
},
			{{{0.1914027,0.116193496,-0.16544762,0.07399137},
			{-0.24877544,0.14125441,0.18429458,0.06817952},
			{0.18762891,-0.07022863,-0.11989415,-0.25768226},
			{0.07579757,0.21407744,-0.09610672,-0.24280381},
			{-0.043161843,-0.11366218,0.071883224,0.2102234}
},
			{{-0.16044271,0.23328052,-0.26148766,-0.22667678},
			{0.040908076,0.26616582,0.076832876,-0.21263914},
			{-0.22470278,0.25691506,0.19132212,-0.07191651},
			{0.22114372,-0.023587804,-0.23260973,0.18873595},
			{0.0352467,-0.17508517,0.046777427,0.16420321}
},
			{{0.17266388,-0.24798527,0.058163464,-0.018137066},
			{-0.15629724,0.11013873,-0.16886754,0.14189053},
			{-0.14228924,0.14758207,-0.23308448,-0.09612367},
			{-0.15521444,-0.020772144,0.15428358,0.26646546},
			{0.016444841,0.03277644,-0.15226503,-0.08501771			}
		}
	}
};