// include/conv2d_2_weight.h
// sergio rivera 
// 2020/02/14 21:50:11 

const float conv2d_2_weight_p[3][3][3][4]=
{
	{
		{
			{0.015158716,-0.28262028,-0.14450456,-0.288839},
			{-0.10285454,0.017953532,-0.028688693,0.20994471},
			{0.00094233337,-0.22197081,-0.09473686,-0.059254315}
},
			{{-0.1730382,-0.045950986,-0.22415696,0.14936967},
			{0.25870997,0.27624166,0.27364832,0.025030524},
			{0.21745929,0.26648247,-0.23706502,0.24909157}
},
			{{-0.02949114,-0.040347725,0.20953198,-0.06308019},
			{-0.100062676,0.28128976,0.029149506,-0.12459713},
			{0.24857354,-0.0027219434,0.046317067,-0.048746068}
}
},
			{{{-0.2724526,0.22028068,0.02673119,-0.16890688},
			{0.009797313,-0.27857602,0.13775663,0.1576188},
			{-0.08317605,0.034077108,-0.14146584,-0.25734177}
},
			{{0.04999473,0.11981552,-0.25017828,-0.16114466},
			{-0.04837598,0.03338651,-0.053630974,0.09849131},
			{-0.18519521,-0.22749738,0.15107848,-0.17184491}
},
			{{-0.16918434,0.09537213,-0.21616213,0.1671672},
			{0.055636242,-0.2725145,-0.27843228,0.09345019},
			{-0.24081971,0.072045594,-0.19663161,0.24045314}
}
},
			{{{0.114047125,-0.29702553,-0.16368556,-0.080604136},
			{0.19476537,0.0271927,0.10385632,-0.06476346},
			{0.3195245,0.122436255,0.1713522,0.25721934}
},
			{{-0.012590285,0.28526735,-0.040850412,-0.14821352},
			{0.32049552,-0.056487028,-0.18628392,-0.21678029},
			{0.10299783,0.16759785,-0.021437451,0.17918174}
},
			{{0.14275679,-0.111700125,-0.030357286,0.23767926},
			{-0.19206367,0.038828176,0.083168335,0.23882592},
			{0.30813316,-0.073615886,0.20997149,0.16122876			}
		}
	}
};