// include/conv2d_7828_weight.h
// sergio rivera 
// 2020/02/14 16:47:21 

const float conv2d_7828_weight_p[3][3][8][8]=
{
	{
		{
			{-0.081194386,-0.009837156,-0.15182678,0.023960007,-0.0816309,0.12695888,0.069040865,0.20431691},
			{0.011206251,-0.13067137,-0.17258038,-0.007174671,0.20421775,0.15123639,-0.06559508,-0.014047653},
			{-0.1363887,0.15785709,0.110090435,0.024232093,-5.7569938e-05,-0.18299867,-0.124670416,0.07674572},
			{-0.022402698,-0.14702968,-0.17494108,0.041628525,0.09019026,0.16731493,-0.12271596,0.045824952},
			{-0.1135803,0.036120474,0.1434936,0.025163231,0.20029218,-0.005069189,0.023729252,-0.05490379},
			{0.0532249,0.012249647,0.18958284,-0.18460415,-0.16683802,-0.16142169,-0.13561928,-0.1632176},
			{0.16182445,0.04531286,0.044008777,0.19102569,0.1560212,0.14393198,-0.17354545,0.029653292},
			{-0.047037147,-0.09363785,-0.08826355,-0.061590455,0.17084932,0.10133814,0.16331357,-0.0118377125}
},
			{{0.0050162897,0.071529776,0.18005225,-0.17183693,0.009090079,0.12811723,0.18621969,0.0615116},
			{0.013954107,-0.030247085,0.071032785,0.035083365,0.15745844,0.10122278,-0.18850376,-0.09051413},
			{0.0014033527,-0.10524394,-0.18430531,0.09733651,0.19482912,0.110398844,-0.19082825,-0.0118584195},
			{-0.192796,0.1395057,0.037877087,-0.10495925,0.09184026,0.09336217,0.094658144,-0.124348596},
			{-0.19883932,0.15635654,-0.18219262,0.10986881,-0.15513396,-0.027110867,0.08796661,-0.05898686},
			{-0.15787359,0.009351154,0.019318707,-0.033900242,-0.18812858,-0.17404895,0.06591095,-0.14361143},
			{0.09774965,-0.19290367,-0.10534154,0.07246671,-0.08023482,-0.10451515,0.18322992,-0.17218584},
			{0.10522123,0.16140693,-0.18896732,-0.11189366,-0.00083783444,-0.1160156,0.0978562,0.1245535}
},
			{{-0.08949922,0.11750572,0.10991476,-0.1739829,0.17723486,0.00982804,0.11755294,-0.0027136793},
			{-0.0692939,0.008053474,0.12857461,0.014824108,-0.089040965,0.18824121,0.15657732,-0.040544827},
			{0.16499521,-0.15881008,0.062865205,0.17133945,-0.009489755,-0.17287785,-0.0056625125,0.06704014},
			{0.14827557,-0.18332386,-0.0037397484,0.19068159,0.14789537,-0.19384949,-0.08324027,0.02188769},
			{-0.15135099,-0.0033117118,0.12539741,0.06725375,0.14554074,0.11928413,0.13259318,0.101796344},
			{-0.14177111,-0.11172929,0.12498434,-0.1864764,0.04030333,-0.18066543,0.06293667,0.055799298},
			{-0.17636155,-0.07215199,0.1965924,0.0490977,0.052328765,0.16671154,0.012952653,0.1769197},
			{-0.12553582,0.15652013,-0.14215362,-0.07897856,-0.14967972,-0.036974777,0.1506411,0.10402008}
}
},
			{{{0.03863246,0.20030156,0.14114758,0.031599462,-0.1348121,0.113299124,0.10163432,0.0008510235},
			{-0.0038636648,0.020414395,0.1416338,0.08502838,0.18686469,-0.12439894,-0.10636663,-0.016936332},
			{-0.05695837,0.1261029,0.02588221,0.06775377,-0.04873878,-0.16406563,0.18889903,0.04868314},
			{-0.01159429,0.14805153,-0.058494274,0.19627616,-0.15744956,0.088609554,0.048022836,0.107590005},
			{-0.008382589,-0.06517985,-0.076809466,-0.1714013,0.08576395,-0.0998269,0.09014248,0.14186843},
			{-0.029349746,-0.13710019,-0.017440211,-0.14701146,0.005321644,0.0742224,-0.1284799,-0.0047655725},
			{0.17496936,-0.19996174,-0.15531327,0.054853633,0.006487311,0.1312701,0.10646902,-0.19337724},
			{0.083532035,-0.1369401,0.036998205,-0.066495955,0.019988064,-0.19763087,-0.11912552,-0.049188443}
},
			{{-0.15279429,0.12400058,-0.006924807,0.081940465,0.1807716,-0.043778487,0.11085493,-0.15147656},
			{0.09581118,-0.20825866,-0.18984687,0.19794184,0.028525203,-0.07469464,-0.17595229,0.07728577},
			{0.011425742,0.15886658,-0.05278845,0.06089186,0.00032888982,-0.0054512843,-0.18644139,-0.04967202},
			{0.20165513,-0.14499159,-0.08236346,0.015272878,-0.15840548,0.21074949,0.0008686739,-0.102027},
			{0.124633744,0.09512993,0.13933413,0.16155693,0.12151388,-0.056113664,0.012563273,0.12510087},
			{0.08046086,0.018508479,-0.01968742,-0.018427845,0.10861935,0.12691987,-0.028283231,0.15705068},
			{-0.06984789,-0.0955123,-0.19740722,0.018250506,0.09011908,0.1653053,0.13177264,0.14999843},
			{-0.1787066,0.046195444,-0.04898538,0.1302111,-0.089864574,0.057243396,0.08074074,-0.07109796}
},
			{{-0.07259011,-0.20150882,-0.1959226,0.07193173,-0.0043320213,0.14929117,-0.005189035,-0.1908852},
			{0.046190437,-0.098931685,-0.035823647,0.15445273,0.18341142,-0.1042214,-0.04961969,-0.0012798865},
			{0.04801037,-0.048916187,-0.113411255,0.0003784399,0.06635377,0.15027055,0.041216593,-0.054251447},
			{0.07462807,0.10629153,0.07552888,0.16076382,-0.03838039,-0.020836929,0.045748543,-0.054524735},
			{-0.12876803,-0.061336763,-0.11358472,0.12951237,0.16572276,-0.08242467,0.16232881,0.021848274},
			{0.07975019,-0.10540001,-0.16511568,0.1409649,0.13788281,-0.11044541,-0.055397563,0.047733568},
			{0.15611447,0.07384815,-0.081849605,-0.0043245875,-0.13243417,0.09000187,0.08916346,-0.066061236},
			{-0.10811328,-0.19635518,0.18212117,0.14305106,0.17642127,-0.024106316,-0.05523879,0.17201999}
}
},
			{{{0.06749524,-0.12687245,0.03136891,-0.021459043,-0.004915548,0.20181976,-0.19292684,0.05637753},
			{-0.13348353,0.088378966,0.053697936,-8.495903e-05,0.01561114,0.16486706,0.028501118,0.13910073},
			{0.042364404,-0.02146725,0.17370749,-0.091825455,-0.20043637,-0.07513602,0.15755056,-0.017732484},
			{0.06971595,-0.052884486,-0.010327674,0.027948873,-0.043634083,0.20867385,0.14428702,0.09700316},
			{-0.046942852,-0.020477071,-0.047287587,0.16356489,-0.10966795,0.05337475,0.019112783,-0.19934821},
			{0.12795822,0.18666147,0.046111602,-0.20028675,-0.17963633,0.16882217,-0.091712184,-0.12619783},
			{-0.15867998,0.18946038,0.18509068,-0.022641225,-0.20697142,0.15392861,-0.19874404,0.18457274},
			{-0.14781256,0.09177827,0.17318636,-0.16460909,-0.18473591,-0.12251228,0.13639382,0.16223942}
},
			{{-0.12730612,-0.029835159,-0.07966896,-0.13260224,-0.2118574,-0.068071775,0.14767857,-0.032620374},
			{0.091459356,0.01850994,-0.038490064,0.1373089,0.1830412,0.05948666,-0.18218718,-0.13667311},
			{-0.19838515,0.06714425,-0.18161671,-0.13527742,-0.20082402,-0.06416316,0.08709472,-0.07695058},
			{-0.047830593,0.040389333,-0.121955626,0.01926144,0.080467746,-0.012838583,0.031820223,0.114771366},
			{0.009363548,0.19806953,-0.12675059,-0.11377306,0.1800241,-0.110468686,-0.08261071,0.14686835},
			{0.10196304,-0.06089779,-0.045579005,0.18268672,0.09967692,0.08440351,0.026502887,-0.12357492},
			{-0.18598315,-0.046719134,0.09093968,0.1354348,0.006701776,-0.14092198,-0.098562345,-0.18237646},
			{0.12697253,-0.099895634,-0.14241391,0.04212287,0.1731132,0.12496704,0.04275674,-0.009243816}
},
			{{0.09753215,0.12717374,-0.13956006,0.1918991,-0.11771409,-0.04273376,0.013325694,-0.15938409},
			{0.13443084,0.12504837,-0.09094544,0.0443823,0.024392396,-0.084864326,-0.074280135,0.007559649},
			{0.20287444,-0.14801863,0.0050412514,0.09673987,0.11998364,0.032872614,0.16727994,-0.056538936},
			{-0.018741649,-0.12905999,0.12421255,-0.1096978,0.024025146,-0.1110969,-0.14945988,0.040136937},
			{-0.0030322273,0.07807176,0.13469175,-0.13501471,0.036078118,0.09641166,-0.11864736,0.14504091},
			{-0.18054555,-0.1472322,-0.08910093,-0.14871988,-0.16706419,0.1378196,-0.10100945,-0.023398025},
			{-0.014443602,0.10822813,-0.1069736,-0.18922496,0.19073246,-0.078123,0.15934727,0.18983012},
			{-0.10024983,0.0092686005,-0.13089666,-0.082864806,-0.18588169,0.14599179,-0.10229637,0.10778631			}
		}
	}
};