// include/conv2d_7823_weight.h
// sergio rivera 
// 2020/02/14 16:47:15 

const float conv2d_7823_weight_p[3][3][3][16]=
{
	{
		{
			{0.009417634,0.07232344,0.07259122,0.12377479,-0.035285704,0.1785286,-0.10403851,0.15702227,-0.062875964,-0.10506257,0.088096164,-0.11479356,-0.069135666,-0.13853702,0.0412347,-0.15043595},
			{0.16208,0.06657663,-0.04799853,0.16473737,-0.067139305,0.1493516,0.16976394,-0.16997737,-0.16569437,0.11463188,-0.15387173,0.09611202,-0.0049955556,-0.12015005,-0.12884621,-0.09216367},
			{-0.024689933,-0.013974157,0.042787436,0.10415285,0.14335243,-0.15591453,-0.12047441,-0.16926312,0.05658158,-0.007539971,-0.030522576,0.16948818,-0.01649796,-0.017902056,-0.118877895,-0.041439265}
},
			{{-0.0038636741,0.10611123,0.022756739,-0.014985506,-0.040743187,0.07288894,-0.101822585,0.15042885,0.105501264,0.049474325,0.013983858,0.12002724,-0.088574775,0.07353476,-0.026067154,-0.18671872},
			{-0.18145385,0.16490315,-0.16680938,-0.15961796,0.06365137,-0.10584554,0.052809168,0.104391016,-0.16261832,-0.15269548,0.1455425,-0.09092545,-0.029355144,-0.07088115,0.09327075,-0.10722775},
			{-0.049084667,-0.11012189,-0.004781207,0.18588914,0.038304232,-0.07048217,-0.13423778,-0.16358916,-0.07000929,0.00828991,-0.13785149,0.117370404,0.08127645,0.0033394473,0.13964415,0.16922206}
},
			{{0.021529771,-0.04918241,-0.12124411,-0.09558715,-0.06860913,-0.1496512,-0.12698337,-0.1320664,0.027458802,-0.018513205,0.12947005,-0.18668453,-0.17862384,0.0612659,0.06444548,-0.0098321885},
			{0.03686948,-0.0016156118,0.10578606,0.008112165,-0.07857949,0.05874144,0.016023943,-0.14361264,0.046114143,0.13035712,-0.08136759,-0.059247088,-0.06247917,0.004680706,0.16879293,-0.058452636},
			{-0.048388764,0.15591986,0.06960155,-0.101470225,-0.15968859,-0.079784445,0.1486661,-0.12300634,-0.1558076,-0.15547633,0.042799916,-0.13728027,0.03390701,-0.00592771,0.017438943,-0.022640353}
}
},
			{{{-0.07279,-0.1602155,-0.091792606,0.11475544,-0.13873827,-0.117787525,0.053142507,-0.1456584,0.1490023,-0.054772712,-0.12500644,-0.012127267,-0.1502029,-0.0037979805,0.1105448,-0.07307317},
			{0.14040273,0.10933349,0.16687723,-0.13516167,-0.16437456,-0.17994066,0.17205699,-0.089874126,-0.13641489,0.029648256,-0.09899183,-0.015533155,-0.099864505,-0.09229563,-0.04829551,0.056057967},
			{-0.16718692,-0.085560486,-0.10378662,-0.10367382,-0.106325835,0.0694061,-0.089898676,-0.117324404,-0.082347356,-0.15243375,-0.0034602922,0.010263356,0.12854953,0.015677342,0.12541936,-0.07107633}
},
			{{0.17660993,0.093176946,-0.0773118,0.025129968,-0.12962219,-0.076136194,-0.104603566,-0.07448273,0.05778664,0.0670671,-0.1615095,0.025467688,0.046020858,-0.06151754,0.14854635,0.109667495},
			{-0.048381545,-0.120149456,0.14036207,0.08009845,0.031608485,-0.17498283,-0.0422951,0.026509019,-0.16648492,-0.10500104,0.048521515,0.05232224,0.05449869,0.1170332,0.0092765745,-0.06842551},
			{-0.024514915,-0.09190915,0.12026794,-0.13646981,-0.09787626,0.17295639,-0.0599629,0.051498923,0.0060541555,-0.0014862632,0.13195631,-0.115333736,-0.063402854,-0.17819716,-0.13183177,0.050717223}
},
			{{0.013760172,-0.18484308,-0.14047273,-0.14599985,-0.18229492,0.111070015,0.18167348,0.16247378,0.11663023,0.12523288,0.08375652,0.1391258,0.04126741,-0.063929714,0.07869211,0.04054043},
			{-0.1628337,0.06093066,-0.019628825,-0.0037974557,-0.11829215,-0.08154423,0.13160305,-0.015647337,0.005413192,0.11780066,0.077124886,0.15142137,0.113333546,0.095933884,0.07986514,0.1617818},
			{0.11725879,0.14227255,0.12835008,0.051241633,-0.09091282,0.044383343,-0.10290739,-0.0870934,0.1166859,-0.13257107,0.08909667,0.014872016,-0.18527095,0.111834094,-0.08244666,0.14049818}
}
},
			{{{-0.15505333,-0.15523957,0.16352423,-0.14042088,-0.05738857,-0.11487927,0.010618471,-0.045456745,-0.009295359,0.11680859,0.17440045,0.1853356,-0.01055413,0.15739845,-0.102469474,-0.1462012},
			{0.03172817,-0.13664779,-0.17142794,0.10524342,0.18090568,0.06701854,0.06728468,-0.05119331,-0.080739245,-0.15022661,0.0013264124,0.14315827,0.17871065,-0.09235572,-0.040891353,0.10975852},
			{0.14174062,-0.02154795,0.02086531,0.039985567,0.07544468,-0.10203309,-0.053706124,-0.17422882,-0.14300768,0.10787775,-0.09147659,0.074426286,-0.15143353,-0.102080755,-0.018569967,0.118971266}
},
			{{0.14171232,-0.07448157,-0.17423692,0.1741286,0.055106852,0.14893663,-0.124049485,-0.06044925,-0.09089457,0.09363597,-0.17198248,-0.06765618,-0.16302899,-0.13143423,-0.07435959,0.06355453},
			{0.15685076,-0.15366259,0.01638068,0.164131,0.15849292,0.09752004,0.051033452,-0.17880031,0.15164846,-0.017537076,0.15448727,0.12963097,0.1534351,0.16599053,0.0714014,0.058592863},
			{0.12741154,-0.12088779,0.08613067,-0.056728758,-0.15470771,0.026668059,0.049084697,0.14007363,-0.12931232,-0.0058604754,0.09882193,-0.011608555,0.12429788,0.028001787,0.11241306,-0.15002945}
},
			{{-0.18092595,-0.051806454,-0.048310235,0.13850553,-0.09585639,-0.059382297,0.08125233,0.043911804,-0.14167783,0.16431624,-0.15133716,0.15129533,-0.011840156,-0.123567805,-0.002365673,-0.10171887},
			{-0.16411479,0.042128026,0.068303704,-0.021321746,-0.14663292,0.004076428,0.09778182,-0.17853348,0.008343052,0.095622055,-0.0786041,-0.09737671,-0.14108059,-0.083896466,0.16035062,0.17253761},
			{-0.030557044,0.17223275,-0.07019015,0.09400058,0.02010207,-0.15666488,-0.16259353,0.10548409,-0.05669628,0.035748858,0.16255057,-0.11368015,0.1687438,-0.019199885,-0.11265579,0.054273352			}
		}
	}
};