// include/dense_4614_weight.h
// sergio rivera 
// 2020/02/14 22:51:59 

const float dense_4614_weight_p[4][140]=
{
	{0.14364102,0.043670997,0.0007808692,0.13071348,0.14588714,0.1120401,0.18688308,-0.011602128,-0.072996475,0.0648699,-0.1235263,-0.15786612,0.016278163,0.078741506,0.010773877,0.0050228606,0.19850424,0.20810835,-0.20293127,0.007364516,-0.18603407,-0.20124255,0.1918962,-0.0019177129,-0.0062550814,0.09640252,-0.019915186,-0.031402253,-0.16367924,0.13654718,0.028013319,0.19029798,0.12483912,-0.19931886,-0.18513621,0.04258217,0.15043597,0.20278475,0.06647327,-0.11550823,0.05284465,-0.1245917,0.12977228,0.07660627,0.15579776,-0.15176381,-0.1665129,0.12692739,0.15555839,0.021858538,0.08487473,-0.09544166,0.025934624,0.1889822,0.005068246,-0.17816123,-0.0453258,0.07956224,-0.051112864,0.16073616,-0.074830584,-0.039639596,0.14144409,-0.12506142,-0.1083451,-0.07952518,0.120571285,0.13878474,0.12714243,0.14399439,-0.16816033,-0.18767875,0.10748664,-0.003990725,-0.16415468,-0.01780174,-0.17836519,-0.16678146,0.19394846,-0.07663573,-0.031464126,-0.0063652475,0.034583293,-0.2029354,0.09209229,-0.19064265,-0.126671,0.08908444,-0.098457955,-0.1872263,-0.13004799,0.177331,0.122285746,-0.043805487,-0.058163956,-0.055600923,-0.14385867,0.14444038,0.14324328,0.054944444,-0.08404064,-0.17316389,0.008864758,-0.10163235,-0.049632676,0.04927312,-0.13538471,-0.18240184,-0.08594947,-0.017586444,-0.18149388,0.050178476,0.05619426,-0.106987715,-0.10197281,0.16640203,-0.11926194,0.09054561,0.052239403,0.13120744,0.071040295,0.16221085,-0.034500066,-0.16525634,-0.19507305,0.097884364,-0.14539188,0.14764503,-0.20240693,-0.1364463,0.093927525,-0.052390996,0.047614433,0.18103816,0.07955737,-0.12551428,0.069280475,0.20640084,0.12569894,-0.2012723},
	{0.050612275,-0.11659554,0.1634892,-0.054211013,0.19979927,-0.03901846,-0.012426778,0.06846707,0.14494094,-0.0016074541,-0.048332013,0.10977616,-0.15610006,-0.1559196,-0.1755023,0.05713335,-0.14173846,0.19699983,0.12442149,-0.152438,-0.058635835,-0.14224143,-0.15707874,-0.12062982,-0.08730737,-0.19162683,0.117697746,0.103510156,-0.00407053,0.061521895,0.132339,-0.10180151,-0.055778164,-0.1469282,-0.014809243,-0.046622824,0.18855563,-0.019169835,0.11432664,0.049554598,0.16983181,0.09713732,0.011432818,-0.10502528,-0.13816805,-0.1795607,-0.09648904,-0.16168138,0.17852633,0.17704745,0.12573728,-0.16274029,0.17299126,-0.15423828,0.14295664,0.114223205,-0.13943826,0.08825536,0.04524984,-0.071325086,-0.112387486,-0.09376161,-0.08591116,-0.10597044,0.18603225,-0.07618223,-0.07552958,0.054080933,0.11931036,0.15157644,-0.087629765,-0.14355217,0.08272904,-0.027304731,0.010633439,0.19062504,0.17655942,0.11362282,0.08245062,-0.112919405,-0.1303364,-0.014530011,-0.1600582,0.103983656,-0.18054107,-0.06311174,-0.08333263,0.011659147,-0.07004081,-0.16798101,-0.079555474,0.11828704,-0.07549305,-0.016966233,-0.13494389,-0.030831981,-0.063195154,0.030394085,-0.10153251,-0.19369999,-0.10223557,0.013759784,0.13571072,-0.14330892,0.16726755,-0.03715432,-0.066732824,0.12494278,0.19385976,0.10528776,-0.09745146,-0.123130664,-0.079978734,-0.027831452,-0.012758525,0.19532746,0.09407515,-0.04614425,0.0054446324,-0.051541105,0.021257326,0.1239932,0.021252116,-0.10140315,-0.13988483,0.035202976,0.06266091,0.1860385,0.013462654,0.12061564,-0.18043654,0.093175344,0.16026671,0.08843192,-0.16428559,-0.045142353,-0.06661815,-0.03628303,-0.11641479,0.10956544},
	{0.17048605,-0.0898375,0.035688546,0.12663315,0.02573244,0.04363639,0.014491817,-0.15215875,0.016090697,0.10374947,0.05263043,0.14623182,0.008986251,0.0881828,0.038248442,0.12009625,0.062113497,-0.16658622,0.10261447,0.14245468,0.122758165,-0.111297116,-0.082915165,-0.15702468,0.1337594,-0.18030609,-0.07654687,0.040459406,-0.17400135,-0.21239758,0.15088715,0.15688148,0.15741138,0.07474781,-0.18885885,0.115687266,-0.00044730143,-0.033020645,-0.07797162,0.13342841,0.15547282,-0.045529507,0.1380555,0.17377262,0.02456958,0.08002877,0.19727932,-0.08705478,0.19795716,0.120564215,-0.039181888,0.0063160476,0.111763895,0.038075194,-0.19020323,0.081427515,0.15596075,0.12187068,-0.18156177,0.15947528,-0.023061296,-0.14190969,0.064554274,0.09267229,-0.08166355,0.09186699,0.16198827,-0.15390092,-0.19255087,0.064733535,-0.10674627,0.112454206,-0.098297924,0.04265198,-0.14974983,-0.00947978,-0.017911376,0.11726581,-0.12788889,0.06824927,0.06254125,-0.12748633,-0.1926171,-0.04752414,0.053576127,0.056449287,0.12559071,-0.001359768,-0.11294426,-0.014796797,-0.11287154,-0.07265168,0.07910585,0.19811392,-0.15825404,-0.13098581,0.07480081,0.09401681,0.20094272,-0.18172705,0.00423049,0.005627152,-0.11381313,-0.06269123,0.14712077,0.0017489082,0.14808337,0.113900855,-0.058332674,0.13050069,0.1918675,0.08679513,-0.044568527,-0.16718166,-0.15555508,0.15379417,0.08444846,-0.09584642,0.08639458,-0.09931872,-0.09012314,0.13860618,-0.09904303,-0.11753065,0.037025448,-0.02055808,-0.09187147,0.17288382,0.033198565,0.18113977,0.076079056,0.023706928,0.13194613,-0.14417872,0.17272624,0.14371663,0.13680562,0.012772194,-0.06641301,-0.0384068},
	{-0.05072583,-0.14135872,0.06358613,0.12283062,0.08357226,0.13140903,-0.12553096,-0.08606539,-0.14084534,-0.02534379,-0.19558716,-0.1241118,0.19528535,-0.16249692,-0.16036913,0.030439198,0.15677491,-0.10677493,-0.18346116,0.061288737,0.08451167,0.18837008,-0.16037071,0.19266766,-0.07967955,-0.12824984,-0.0013704328,-0.12755822,-0.08418801,-0.047302328,0.11345029,0.15650414,-0.011358953,0.07071708,0.12514737,-0.19219713,-0.068732515,0.20497973,-0.020408588,-0.03444042,0.031555794,0.18658277,-0.020217234,-0.052919857,-0.085709244,0.18288264,-0.04999163,0.16834895,0.0401924,0.061047766,0.08167355,-0.08060438,0.00962608,0.043610726,-0.16132002,0.119164675,0.06787256,-0.032124348,0.08528365,-0.17538379,0.1879157,0.08143143,-0.07470017,-0.16111606,0.13755684,-0.19398531,-0.05923142,0.063372694,-0.055266988,0.089444675,0.06385706,0.0034950753,-0.17534971,0.039675526,-0.05049279,-0.121278,0.14615713,-0.16194694,-0.08345627,-0.16448073,0.17162365,-0.06609226,-0.002210743,-0.1719208,-0.028442925,-0.0811968,0.10735702,0.046951335,0.1951544,0.041519225,0.13630882,-0.05515119,0.16438437,0.16920184,0.0053529134,-0.12515417,0.13496405,0.17351194,-0.11355292,-0.169461,0.12488831,-0.03635096,0.10371111,-0.023355803,0.140062,0.11018315,-0.16253148,0.11438758,0.057527274,0.05574271,0.17690982,-0.012530898,-0.08513255,-0.10767527,0.0332716,0.11030173,-0.081021376,0.16736315,-0.0039410004,-0.030616378,0.16979627,0.16424173,0.16353716,0.019602135,0.035954975,-0.18507178,0.07915356,0.15909937,-0.18230648,-0.17793593,0.12868217,0.11544873,-0.13030034,0.09635222,0.056697223,0.16730464,-0.046692055,-0.078237586,-0.16049667,0.13657515	}
};