// include/conv2d_2398_weight.h
// sergio rivera 
// 2020/02/15 01:30:11 

const float conv2d_2398_weight_p[3][3][6][1]=
{
	{
		{
			{0.25661436},
			{0.17773862},
			{-0.042782012},
			{-0.22193241},
			{0.010834045},
			{0.058169454}
},
			{{0.22307436},
			{-0.14514759},
			{-0.15240997},
			{0.2521173},
			{-0.020270197},
			{-0.16105588}
},
			{{-0.10140191},
			{-0.11192445},
			{-0.21075943},
			{-0.28109753},
			{-0.22831434},
			{-0.24238418}
}
},
			{{{0.094103426},
			{0.29662305},
			{-0.0063698143},
			{-0.2984168},
			{-0.24136186},
			{0.0068480587}
},
			{{-0.25069442},
			{-0.038716454},
			{0.26650247},
			{-0.23522232},
			{-0.2300202},
			{0.10145103}
},
			{{-0.014850467},
			{0.08509689},
			{-0.05905504},
			{0.19575407},
			{0.08654842},
			{-0.25434372}
}
},
			{{{0.24655},
			{-0.24619392},
			{-0.043273706},
			{-0.08924471},
			{-0.2727579},
			{0.30021304}
},
			{{0.06684563},
			{-0.10156006},
			{-0.058507644},
			{-0.06411718},
			{-0.25931716},
			{0.23832743}
},
			{{-0.029606253},
			{-0.23730338},
			{-0.21340573},
			{-0.145569},
			{-0.2311903},
			{-0.26914233			}
		}
	}
};