// include/conv2d_2528_weight.h
// sergio rivera 
// 2020/02/15 01:40:38 

const float conv2d_2528_weight_p[3][3][8][4]=
{
	{
		{
			{-0.076330915,-0.092908084,-0.018626284,-0.12577018},
			{-0.1656663,0.14549835,-0.20982517,0.20582682},
			{0.025481109,0.011655069,-0.153514,0.089721926},
			{-0.23004612,0.0546816,0.009308085,-0.21385203},
			{0.18143094,-0.106618114,0.08814501,0.13645501},
			{0.028635124,0.086223744,0.17842652,0.006735932},
			{-0.18176389,-0.13056114,0.19097787,-0.22204915},
			{0.031602938,-0.21050029,0.1353268,0.0839495}
},
			{{-0.037380196,-0.099964365,-0.19723836,-0.15953967},
			{-0.1765373,0.101200774,-0.17801891,-0.16015156},
			{0.038464665,0.11955095,0.109509975,0.002543792},
			{0.11251308,-0.20315829,-0.14129409,0.18868215},
			{0.07912343,0.10917296,-0.214951,-0.18787028},
			{-0.20540318,-0.118244074,0.118287064,-0.0920673},
			{-0.073586516,0.22276644,0.13126127,-0.019741822},
			{0.019924179,0.014154277,-0.048455447,0.039799247}
},
			{{0.14120716,-0.07570342,0.174741,-0.012614513},
			{-0.03501015,-0.013569023,0.20786093,-0.22098203},
			{-0.0870771,-0.15152158,0.20133987,-0.026504328},
			{0.05307182,0.058100857,-0.17322204,-0.2300818},
			{0.03943712,-0.19962631,-0.22079244,0.028504074},
			{0.17905444,0.12161317,0.19235682,-0.030198764},
			{-0.2243961,-0.08980669,0.12228926,0.2257461},
			{0.03717258,0.16658095,-0.015401354,-0.1803014}
}
},
			{{{0.09594674,0.014381049,0.17128262,-0.07618798},
			{-0.19045871,-0.14352804,-0.0060723503,0.14278246},
			{0.1167295,0.11978542,0.06112448,-0.21016967},
			{0.0126117505,-0.07513679,-0.12301386,-0.21215637},
			{-0.12847187,0.073813155,0.06691458,-0.12500098},
			{0.16242583,-0.13146853,-0.11393587,0.022794345},
			{-0.06877991,-0.16562395,-0.013060637,0.05531683},
			{0.21576062,0.078451894,0.1134047,0.030584795}
},
			{{0.23106617,-0.045648314,0.13670754,-0.094038144},
			{0.07605132,-0.09370369,-0.16327499,-0.048379637},
			{0.17413788,-0.14486706,0.06451056,-0.1974911},
			{-0.09350426,-0.077167265,0.16373,-0.003766704},
			{0.16117476,0.015589544,-0.0990752,-0.16524066},
			{0.09956078,0.19969453,0.010720249,-0.21644668},
			{0.11593298,-0.18023536,-0.011615498,0.13074827},
			{-0.07306468,-0.16237958,-0.08025736,-0.03512285}
},
			{{-0.13408709,0.20074138,0.07596244,-0.023727413},
			{0.08399273,-0.17868073,-0.012987145,0.2128994},
			{0.13696845,0.108280346,-0.16175656,-0.1595444},
			{-0.2141721,0.075855166,-0.032180212,-0.18483317},
			{0.23465528,0.11701968,-0.19879362,0.07789992},
			{0.07012638,-0.0877325,-0.028269066,0.21922037},
			{-0.059023175,-0.09496331,-0.018191392,0.21576624},
			{0.08242775,-0.11621132,0.19917879,0.16118413}
}
},
			{{{0.015614549,0.012021372,0.09436297,-0.08665462},
			{-0.0045203823,-0.1501022,-0.17086896,-0.03287388},
			{0.11115174,-0.09047177,0.22707139,-0.20291252},
			{-0.13609576,-0.1638692,-0.12118654,0.00022391218},
			{0.016949171,0.16458943,-0.19209257,0.035506688},
			{-0.08460005,0.12666148,-0.11208749,-0.2188249},
			{0.062231105,0.05474379,0.2324621,0.22886646},
			{-0.19169542,0.044559266,0.01856135,0.13778177}
},
			{{0.044085186,-0.21149276,-0.011386045,-0.20822969},
			{-0.13977228,0.17782599,0.004832812,-0.13883764},
			{-0.19462891,-0.15153661,0.13495533,0.005150546},
			{-0.13039438,0.0023770093,-0.20215672,0.15167099},
			{0.120701,-0.22204493,-0.09407643,-0.22550984},
			{-0.15285532,-0.10623196,0.082581766,-0.08309348},
			{-0.1000431,-0.2014023,-0.21833317,0.1547464},
			{0.060040824,0.1558576,-0.17574176,-0.100332454}
},
			{{0.09033997,-0.11685973,-0.05418703,-0.21660486},
			{-0.078977555,-0.08414044,0.1667261,-0.18386477},
			{-0.09895372,-0.15281463,-0.17625336,-0.07632629},
			{-0.13176681,-0.09870719,-0.11031643,-0.051449437},
			{-0.049107175,0.047520757,0.02812,0.15545368},
			{0.06563134,-0.016632423,0.047517244,-0.16195522},
			{-0.054717544,0.15375252,0.22682567,-0.030567916},
			{0.003535192,-0.17201406,0.08248157,0.017790375			}
		}
	}
};