// include/conv2d_2521_weight.h
// sergio rivera 
// 2020/02/15 01:40:37 

const float conv2d_2521_weight_p[3][3][6][4]=
{
	{
		{
			{-0.10312073,-0.11543355,0.07919812,-0.23039612},
			{0.009376368,-0.21765791,-0.19132622,0.1243924},
			{-0.24733363,0.041605946,0.111550085,-0.10794893},
			{-0.033128317,0.19531931,-0.12042042,0.040892426},
			{-0.21133715,-0.11001947,0.19824165,-0.04385863},
			{0.01011341,-0.037840877,0.1501725,0.24322519}
},
			{{0.22923915,-0.11476546,0.10551778,-0.02378222},
			{-0.18675439,0.004584854,-0.070991985,0.020392679},
			{-0.039337963,0.191301,-0.18671101,0.2297197},
			{0.04227561,-0.22643872,-0.21612439,-0.06921993},
			{0.11217224,0.08769885,-0.21990873,-0.16825096},
			{-0.11507791,-0.025084065,-0.21302316,-0.032537688}
},
			{{0.14588256,-0.15844269,0.2455288,-0.039309602},
			{-0.20833208,-0.24136001,-0.22715169,0.0447868},
			{0.08153132,-0.07068859,0.22482409,0.24527067},
			{-0.22042684,-0.12947397,-0.042902883,0.20324154},
			{0.061969493,-0.026776128,0.112510875,-0.048565943},
			{0.026220163,0.11833475,0.0404913,0.24672808}
}
},
			{{{-0.19233324,0.19109882,-0.23510045,-0.21614812},
			{0.20403214,0.23193131,-0.15867092,-0.1368216},
			{-0.011917093,0.22305292,0.05794716,-0.16218358},
			{0.21498649,-0.14797002,-0.04887619,0.14175443},
			{-0.001301252,-0.007433278,0.19982146,0.2044566},
			{0.25103793,-0.12537627,0.24535981,-0.03501936}
},
			{{0.12119091,0.19889176,0.066177264,-0.18047956},
			{0.17633379,0.08507359,0.24733911,-0.008361116},
			{0.01437243,-0.07372616,0.23595488,0.08443372},
			{-0.014239902,0.07099775,0.059955485,0.1224694},
			{0.0005360399,0.21484283,0.19501789,0.10940264},
			{-0.12976867,0.026599491,0.06998439,-0.16413502}
},
			{{0.1506255,-0.0714489,-0.25968778,0.0056555774},
			{-0.10813999,-0.0285692,0.05207254,0.132951},
			{0.14718758,-0.036488794,0.20588882,-0.19059238},
			{-0.18638748,-0.17424609,-0.063137285,-0.25504354},
			{0.23806824,-0.0892272,0.059154704,-0.11168444},
			{-0.13088393,-0.12221288,0.12493794,-0.2150309}
}
},
			{{{0.006704323,0.19594732,0.12539323,0.043522585},
			{0.027876072,0.14781138,0.054164395,-0.004347172},
			{0.20413482,0.18674152,0.2497338,-0.17656207},
			{0.21228659,-0.25039878,0.08152908,-0.017519677},
			{0.22089972,0.017859459,-0.2057903,0.14479472},
			{0.1947399,-0.17298405,0.05261764,0.101873316}
},
			{{0.22973733,-0.016954973,-0.2182723,-0.050375603},
			{-0.039523557,-0.22557369,-0.2412321,0.07531438},
			{-0.0010195975,-0.25378627,-0.1445781,-0.030456534},
			{-0.048295096,0.13137032,0.009911389,0.22017291},
			{-0.13838464,-0.20834799,-0.046421207,0.036287002},
			{0.12369735,-0.10583629,0.10918282,-0.03377721}
},
			{{0.18355672,-0.14805256,-0.09530832,-0.049534313},
			{-0.030911503,0.032651503,-0.21385957,0.0136979595},
			{-0.255138,0.2416704,0.22388484,-0.23588279},
			{-0.040502146,-0.03440018,-0.24980298,-0.24105062},
			{-0.09788571,0.21669765,-0.023422424,-0.09948353},
			{-0.10516116,0.13997786,0.116673626,0.14191978			}
		}
	}
};