// include/dense_2057_weight.h
// sergio rivera 
// 2020/02/15 01:40:44 

const float dense_2057_weight_p[18][297]=
{
	{-0.08468479,0.067723945,-0.10606793,-0.11315618,0.027377242,-0.1069625,0.04673768,0.12443123,0.071396574,0.020622088,0.12069283,0.012681778,-0.030548593,-0.12672897,0.10854114,-0.12038954,0.00061318616,-0.10594815,0.08736973,-0.028755235,-0.120757595,0.082667015,0.008893677,0.1269939,0.061135616,-0.112596415,-0.049035855,0.008240792,0.050650977,-0.09439187,-0.040971145,-0.13006368,0.11079333,0.13887006,0.09338668,0.03544604,-0.020780329,-0.09992488,0.0019736958,0.04588064,-0.064653784,0.085579716,-0.01685042,-0.14175458,-0.0081073735,0.030683616,-0.11516614,-0.07662529,-0.008325698,-0.08042713,0.104532875,-0.10332314,-0.00011815226,0.12722395,-0.13907413,-0.07442928,-0.10041175,-0.11347549,-0.05123822,0.012283832,-0.12935375,-0.07405852,-0.019082556,-0.0027862766,-0.08069419,0.041837927,0.1197907,0.08914325,-0.1126307,0.032664344,0.007222888,0.06654395,-0.08657686,-0.13701491,-0.01022498,-0.030404443,-0.12135076,-0.10057029,0.06083114,-0.10427689,0.03355099,-0.12776837,-0.0779863,-0.052174248,-0.034612436,-0.10865224,0.0028693439,0.007174408,-0.11950893,0.04318309,0.002089445,0.06598275,-0.024125822,0.11603443,-0.11459933,-0.010565108,-0.026447246,0.10127234,-0.07677084,-0.059895616,-0.039760098,-0.06684064,-0.061539456,-0.10817346,-0.085955456,-0.13511963,-0.052245006,0.042844493,0.08778615,0.099930905,-0.10562666,0.047148906,-0.018792532,0.074457,0.1048543,0.07762344,-0.09929765,0.04084721,0.11180864,-0.09016482,-0.079404935,0.036287036,-0.09318467,0.03534943,-0.13216844,-0.09144416,0.09690468,-0.0010772189,0.037817694,-0.07884005,-0.09572777,0.037817076,-0.07904559,-0.060741752,-0.042492326,-0.015429371,-0.04617578,0.10283084,-0.11177701,0.010706452,-0.051203344,0.0009297513,-0.07271816,-0.0431408,-0.12769872,0.12942873,0.06556327,-0.02875674,-0.017131861,0.08327292,-0.031243442,0.006252118,0.025326325,0.11441342,0.025636755,0.12260846,0.0044894023,-0.11543723,0.0728174,-0.012452715,0.007982011,-0.031573433,0.1253856,0.012175121,0.042283583,0.1429689,0.08315996,0.047588047,-0.010216771,0.03244806,0.03251242,-0.072782904,0.023580717,-0.01767785,-0.033540677,0.1223106,-0.007644194,-0.02051806,0.06155405,-0.11025689,0.10924529,0.049819473,0.063372314,-0.12702064,0.0505869,-0.13732363,-0.05075535,-0.016488537,-0.042397954,0.019778457,-0.1139916,0.0749935,-0.1269758,0.10156143,-0.042338274,-0.058464188,-0.10966552,-0.1156948,-0.010825582,0.104263075,-0.093217984,-0.07204063,0.033364862,-0.07078719,-0.042459458,0.010674427,-0.02728156,-0.07780916,0.12243183,0.039982166,0.10970041,-0.0113909505,0.016729202,0.10407735,0.10519546,0.078228444,0.0060193525,-0.12925184,-0.023880564,-0.026718836,0.030996487,0.050171416,-0.08983271,-0.1017613,-0.048416086,0.00932567,0.13569227,-0.051752202,0.07208227,0.006493852,0.074005365,-0.015232477,0.03157432,-0.0746956,0.11729563,0.05299671,0.092308514,0.031606086,-0.010995333,0.14021683,-0.12278397,0.023853002,0.09674989,0.022816539,-0.030020632,-0.031079154,-0.03219764,0.06151896,0.116305746,-0.037008077,0.036993954,-0.003694347,0.1048887,-0.08375945,-0.045264214,-0.02220924,-0.090263024,-0.10990764,-0.079327114,0.09165336,-0.13944782,-0.049703125,0.028758207,0.07321359,-0.04175665,-0.0026859401,-0.06294791,0.104937576,0.032511868,-0.10544626,-0.03395312,0.05367691,0.1314331,0.05673463,-0.11767251,0.008772956,0.029405566,0.1148612,0.003990001,0.11847649,-0.04213579,0.12539433,0.011251688,0.083170384,0.09621263,0.03649146,0.117449075,0.074193455,0.079391755,-0.034379076,0.06665196,0.028994715,0.06938735,0.09393611,-0.050253164,-0.09798001,0.094526015},
	{0.12402914,0.13873985,0.057208564,0.031711858,0.08958809,-0.10471894,0.118867084,0.05240259,0.07378218,0.0972119,-0.073504716,0.0054082526,-0.034389593,0.112524964,-0.05376945,0.05368751,0.012733784,-0.11296377,0.108531035,-0.014918686,-0.06892339,0.031072132,0.101419196,-0.09087078,-0.12854101,-0.13444293,-0.09823558,0.12402237,0.12236257,-0.034445055,0.06710155,0.09627932,0.0071211327,-0.11327938,0.057524014,-3.3526914e-05,-0.027481636,0.058670543,-0.09578404,-0.03633668,-0.07626963,0.081268944,-0.10033482,-0.116240256,-0.057764493,-0.09976666,0.11076264,-0.12737389,-0.08193595,-0.13181792,-0.022729572,-0.024184166,0.06812913,0.046276513,0.055307932,0.054533657,-0.07958035,-0.06687169,-0.008402496,-0.08171518,0.123561695,0.047571212,0.07056999,-0.087339826,0.025684055,-0.0071647977,-0.12473098,0.0116503425,-0.12957428,-0.049401235,-0.019291759,0.0556185,-0.043583818,-0.04825002,-0.03234244,0.02650345,-0.062827244,-0.0057355203,0.015881395,-0.12844732,-0.107710026,-0.09459424,0.05498567,0.12396368,-0.043185547,-0.12785128,-0.11366613,0.018467588,0.063004896,0.018933,-0.1403565,0.046875946,-0.1355528,0.10478877,0.04886294,-0.009638417,-0.081675135,0.10171435,-0.013457344,-0.08834179,-0.12588237,-0.056973573,-0.0011731761,-0.02127056,-0.03880254,0.054537416,-0.058688395,-0.13755119,0.08626276,-0.03205426,0.12091212,-0.027570684,0.1287602,0.12049569,0.004709476,-0.05300969,-0.060867287,0.13236201,-0.04365234,0.09544561,0.089703456,0.1052667,0.07078204,0.024536746,-0.033920173,-0.0053523593,-0.123568125,0.07661714,0.0046691913,-0.061780263,-0.13017102,0.07677127,-0.05676727,-0.023179037,0.09696147,-0.06955965,0.05819402,0.038828954,0.048872985,0.026198087,0.06308504,0.08701065,-0.09687524,0.03615351,0.13936822,0.04424656,-0.03705274,0.107402615,-0.1154187,0.021791043,-0.134653,-0.030695751,-0.037912693,-0.1063322,0.122839525,0.02253464,-0.0950646,0.050937984,0.12842174,-0.06559992,-0.07596083,0.05994484,-0.055673502,-0.08703708,0.06718889,0.015410304,0.0029450755,-0.07125555,0.0061216825,-0.10597363,-0.115066305,-0.018686777,-0.09320763,-0.044644963,-0.07293011,0.026451258,0.12737972,-0.03684323,-0.0806709,0.06907207,-0.064877786,-0.1062129,0.13804233,-0.088789195,0.1117145,-0.09440414,0.096170254,-0.1213731,-0.11877206,-0.09236268,0.11481867,0.1218783,0.036493383,0.13355485,0.010766757,0.097781286,-0.02270941,-0.03271003,0.085714936,-0.0054652793,0.09805597,0.04530775,-0.028391924,0.1123082,-0.07754152,0.029457735,-0.074071124,0.11512283,0.0065383357,-0.06908447,-0.10563078,0.05031649,8.8035595e-05,-0.027025446,0.044707514,0.014079894,-0.09025516,0.0870979,-0.01181106,0.12558343,-0.09549375,-0.09363715,0.11482798,-0.04153888,-0.03974397,-0.07527438,0.09621501,-0.0028784564,-0.052311398,-0.05446979,0.10990656,-0.048254736,0.060258444,-0.037898846,0.13191581,-0.09184361,0.050126437,-0.09960891,0.08020706,-0.010803689,0.08977599,0.013581812,-0.1286747,0.121449836,0.14312546,0.12501138,0.115114465,0.09309601,-0.005007634,-0.0033326377,0.024574218,-0.023658046,0.014726403,0.111761086,0.13110837,0.0649802,-0.07666945,-0.07732616,0.119651675,0.10225191,0.10469316,-0.09067045,0.1377647,-0.0852596,0.13899758,0.07675085,-0.014409757,0.13872518,-0.08462371,-0.05981376,0.027708504,-0.048708428,-0.0045825248,0.10615534,0.06241043,-0.08649045,-0.04151729,0.07443124,-0.025147464,0.044531055,-0.015105274,0.05022837,-0.04149692,0.11281178,-0.06556891,-0.03706505,0.051795136,-0.07143299,0.113162875,-0.10430224,-0.05034101,-0.016198138,0.009056939,0.13070352,-0.08988673,0.108021304,-0.06603278},
	{-0.008207057,-0.0862791,-0.024215039,-0.15006103,0.075392544,0.109092675,-0.13214578,0.029498415,0.05876495,0.063849114,0.11903819,-0.12574194,-0.02683104,-0.07867618,-0.09796089,-0.084488645,-0.057314288,-0.0077751507,0.042997483,-0.098905705,-0.016851638,0.10547808,-0.0007895549,-0.11492672,0.028402116,-0.006862076,0.08050043,-0.08381022,-0.073249236,0.09074129,-0.09028322,0.09758877,0.06262798,-0.050459653,-0.035730924,-0.011189712,0.11088953,0.13894361,0.09448871,0.048966445,-0.05940081,-0.07194997,0.037779376,0.019002158,-0.08848837,-0.08796753,-0.145838,-0.09432179,0.10951422,0.014602382,0.12766495,-0.049622886,0.06034551,0.013662294,0.14991157,-0.101518266,-0.054608785,0.06416185,-0.11473654,-0.11614318,0.0862024,-0.0992082,0.036793556,0.12022756,-0.07781036,0.10066985,0.114559434,-0.034666833,0.14052385,-0.09326044,-0.10496863,-0.09492785,0.0045219664,-0.07175139,-0.047926646,0.029930007,0.07877369,0.08288371,-0.09646953,-0.091427214,0.0620727,-0.07596295,0.012970256,0.09966783,0.11818395,-0.074144326,0.07754366,-0.117433086,-0.059605498,0.095385164,0.04802666,-0.053013146,0.0031491194,0.044329457,0.03258588,-0.044132,-0.057465993,-0.02811802,-0.061118532,0.117668696,-0.019923594,-0.05682087,-0.0027026818,-0.114077985,-0.11322787,0.032685816,-0.07630491,0.033220876,-0.034861352,-0.13335088,-0.023453377,-0.020074287,0.014410549,-0.054232966,-0.02566177,-0.13409673,0.12647341,-0.020734932,0.07483274,-0.05948415,0.023303796,0.11485538,-0.11462006,-0.08492865,0.12846735,-0.0058269203,-0.0072542,-0.06467828,0.05628823,0.043309465,-0.03740034,-0.08845506,0.04372111,0.08951183,-0.11000088,-0.094490014,-0.116918825,-0.039259084,-0.03779883,-0.057512112,0.12534158,-0.07389008,0.0049522175,-0.13928775,-0.0076212795,0.13727848,-0.015827667,0.05197995,0.02126869,-0.131611,-0.04094103,-0.11169097,0.062139977,0.008494251,0.1283743,0.060436256,-0.12276636,0.048121966,-0.040476624,0.103567034,-0.1233611,0.0212682,0.08051191,-0.087740794,-0.10283695,0.07598921,-0.04699437,0.015559011,0.030166203,-0.12968999,-0.12799127,0.09785997,0.029987294,-0.051796753,-0.004449453,0.005385043,-0.079103194,0.07206076,0.012020854,0.1331436,-0.030800134,-0.05869872,0.09188158,0.09752713,-0.085512534,-0.03010726,0.082808614,-0.022477088,0.06415038,0.045419175,0.034915227,0.017957136,-0.11448943,-0.10349301,-0.09144106,-0.041982964,0.028803147,-0.11933101,0.13577648,-0.025179699,0.010663256,0.096393816,0.13893601,-0.0699278,-0.044123195,-0.1053291,0.004550751,0.10530314,0.032276258,0.11912812,0.1237068,0.09104248,-0.023749867,0.06880329,-0.042437542,-0.05275379,-0.13353242,0.048927058,-0.10316141,-0.12534538,0.10548909,0.12107007,0.0057330485,0.028001435,0.035333473,0.007723023,-0.014421983,0.073039494,-0.10073328,0.029893598,0.119706966,0.056439947,0.1264623,0.12857047,-0.13625784,0.05401511,-0.03162603,-0.10389477,-0.03134698,-0.024354354,-0.09276898,0.05366516,-0.028975388,0.10019467,-0.13508004,-0.070622906,0.13071354,0.041238844,0.11956903,-0.07315709,0.026073502,0.040259756,-0.06200581,-0.07407013,-0.036668405,-0.05875185,0.042186346,-0.08148778,0.048033815,0.06938734,-0.009803494,0.037140265,0.0215048,-0.04614277,0.12819874,0.062912315,0.10080638,0.004202654,0.007456704,0.11210186,-0.111807615,-0.047198284,-0.11374641,0.06899954,-0.03752707,0.09409189,0.06130175,0.004655232,0.0642847,0.0039398624,0.016549466,-0.08534948,0.11992707,0.04995759,-0.08696041,-0.051339775,0.14075252,-0.0047478573,-0.13390647,0.114592314,-0.09768855,0.12265104,-0.13274541,0.071525104,-0.13016242,0.101150826,0.042739768},
	{-0.02714181,-0.112657614,0.073254675,-0.10730228,-0.03818295,-0.011897148,-0.063490525,-0.03379066,0.007876987,0.008496676,-0.09504211,-0.06747273,-0.045849152,-0.080609545,-0.06129459,0.054912288,0.038990837,-0.057862494,-0.10033717,0.0728109,-0.105422445,-0.09225691,0.022488404,-0.0968301,-0.01241166,-0.042311992,0.03657305,-0.09983097,-0.0885387,0.060318697,0.10890054,-0.0912926,-0.002610702,0.03998597,-0.032657042,-0.021281216,0.11861905,-0.03217351,-0.098700084,-0.048897482,0.00085344445,0.03331572,0.09672277,0.041782014,0.0960993,0.10397605,-0.022045888,-0.039678525,-0.09136369,0.03726315,-0.061688032,-0.106541924,-0.080016054,0.05103999,-0.13462588,-0.10083297,0.03733763,0.07826443,0.11421636,-0.10068882,0.09565634,0.11105862,-0.06149328,0.03330814,-0.06772215,0.07288523,0.07313296,-0.019935405,-0.07216069,0.09756429,0.06729488,-0.101340584,-0.13062622,0.12809627,-0.06558531,-0.10101812,0.057956908,-0.093094274,0.042180695,0.118412115,-0.12840115,0.13113853,-0.04690118,0.037278872,0.045440875,0.07295703,0.093274266,0.038291413,0.12364553,-0.017830933,0.040587634,-0.010898673,0.116845146,0.08390864,-0.046511754,-0.08135109,0.06409991,-0.07251908,-0.10787689,-0.00968989,-0.11307338,-0.043294296,0.0760339,-0.05508826,0.04346336,-0.07637172,0.11798287,0.059563547,-0.12983327,-0.028743567,0.069797546,0.059004027,-0.04858741,-0.11711512,0.14117832,-0.02813378,0.055220984,0.10058975,-0.12574533,0.12183126,-0.12783417,-0.031094383,-0.11092805,0.01238789,0.13278128,0.010477315,-0.059955776,0.11637442,-0.098621294,0.11662524,-0.03098426,-0.09313878,-0.13527995,0.07857656,0.016266448,-0.055494346,0.10299359,0.10840731,-0.13411711,0.07333043,-0.07554812,-0.004476836,0.0014310449,-0.025568012,-0.0698551,0.04004222,-0.029320732,0.07199554,-0.036579575,0.12970012,0.12607105,0.090269014,-0.033247575,-0.11052342,-0.1257313,0.03076666,0.10017312,0.103951134,0.046966664,-0.005168025,-0.117358215,0.057491194,-0.0718206,0.015572103,-0.017706318,-0.091587454,-0.09356623,-0.09820922,0.07977106,0.10411173,-0.055210963,-0.11300179,-0.097949885,-0.115069665,-0.011242731,0.0011817925,0.10470665,0.08173576,0.094126225,0.046765313,-0.10352973,0.009864003,-0.08020233,-0.002174529,-0.09130466,-0.1063211,0.09228993,-0.011174923,0.005210326,-0.108835936,0.104921505,0.14493077,0.038337428,0.12699722,0.082467146,-0.04061729,-0.095463455,-0.10527655,-0.024038797,-0.06187418,0.04419886,-0.04415635,0.1357454,-0.08480938,-0.067387275,0.11914006,-0.06036599,0.081579454,-0.035421535,-0.07430461,-0.06313508,0.08202979,-0.05181911,-0.019839188,0.06279575,-0.049593076,0.113682225,-0.020944044,0.095037796,0.102076754,-0.10669107,-0.07912624,0.118992865,0.077585064,-0.054469317,-0.04746694,0.05290354,0.104310416,0.12701748,-0.13117407,0.07730335,0.06765861,-0.093339756,0.0037063558,-0.13821207,0.022801656,0.089819334,0.064579666,0.056139592,-0.028580522,-0.11175934,-0.033536628,0.04272868,-0.07276496,0.05224147,0.013520518,0.012590214,0.014716596,0.021063346,-0.11614442,-0.053845376,-0.040528394,0.012758389,-0.006412055,0.12671395,0.101409435,0.07653258,-0.06610279,-0.11212764,0.071918085,-0.039748803,0.006356869,0.0025965907,-0.02095473,-0.008302235,0.10716771,-0.026968135,0.049337275,-0.059412822,-0.018947968,0.075457804,-0.103445224,-0.045198582,-0.029590508,0.13056014,0.014493758,0.08330064,0.10921205,-0.113989316,-0.13091086,0.055307962,0.103293285,-0.13422829,-0.11071025,0.03502878,-0.054123208,-0.06340704,-0.07988758,0.05677645,-0.08836786,-0.050119527,-0.13191395,0.12013948,0.02805038,-0.059463877,-0.12722915,-0.06701625},
	{-0.120538056,-0.10617353,0.013305412,0.08566173,0.110039756,-0.054707404,-0.10498306,-0.012473058,-0.07772423,0.06198184,-0.10042433,0.10475496,0.059918568,-0.09296582,0.08606828,-0.12237257,0.049172144,-0.093459845,0.045196373,-0.08471635,-0.007740489,0.06556912,-0.035115197,-0.065865524,-0.11034433,-0.13513234,-0.012296984,-0.015588878,-0.05632451,-0.115587264,0.01315766,0.0926772,-0.012469157,-0.038028494,0.07033023,0.121716686,0.092805624,0.024628649,0.03265532,0.015948309,0.09538905,-0.07112885,0.021940727,-0.04764278,0.044013575,-0.04416481,0.09150106,-0.12345243,0.005045152,0.005763779,-0.0642909,0.076984644,-0.052414108,0.08201132,0.0500024,0.027815172,-0.09366996,-0.029593244,-0.11333417,-0.037150204,0.080646135,-0.07717889,-0.05190315,-0.04173291,0.060057655,0.058620263,-0.024927605,-0.11147519,0.071113974,0.052424353,0.100891426,0.0012682002,-0.03126182,0.08423544,-0.015745668,-0.087700285,-0.033733938,-0.050659046,0.044471473,0.10845795,0.08416178,-0.01364215,-0.08270008,0.09242442,0.10769702,-0.08865056,-0.01557336,0.052967913,0.02754273,0.016779853,-0.12751956,-0.019073825,0.113180965,-0.11254895,-0.017519807,-0.12597324,-0.024967594,0.09922577,0.050737094,-0.0772884,0.09770592,0.057442445,0.03275878,-0.08897585,0.06935627,0.037448328,0.037175868,0.08014533,0.024779905,0.0734461,0.08684863,-0.11476387,0.0582983,0.0856747,-0.007954046,-0.12916465,0.019446213,-0.0058043683,-0.008040193,-0.06586245,-0.00552043,0.03550872,-0.03838889,0.13606793,0.10414069,-0.13410941,-0.04330161,0.10227956,-0.095018916,-0.06711075,0.011646615,-0.10886161,0.121901885,-0.08009134,0.012742726,-0.07116777,-0.12206336,0.1310943,0.07978494,0.08773515,0.048366077,0.120851755,-0.12018016,0.04996502,0.12855679,0.022009507,0.11270458,-0.033753973,-0.018417265,0.018830998,-0.13711068,-0.111186616,0.12326494,0.10093999,0.039562333,0.027397795,0.026899481,0.025794763,-0.06561235,-0.13262583,0.11996852,0.06507798,-0.023400849,0.08588399,-0.036742926,0.014599486,-0.050320446,-0.06802281,-0.08297218,0.11453836,-0.1312025,0.07570501,-0.05944035,-0.04943797,-0.12653019,0.0032261033,0.06464188,-0.11345802,-0.06446227,0.023606453,-0.07444654,-0.13411449,-0.048967622,0.037815202,-0.06566778,0.05290135,-0.038925104,-0.10108041,0.019027568,-0.0790642,0.054094486,-0.021996943,0.077561125,-0.057801776,0.038056605,0.06383142,0.09969651,0.10170414,0.0051274407,-0.112897485,0.034941144,-0.0027057151,0.046198804,-0.053934727,0.04477087,-0.0038450903,0.08463333,-0.041863963,0.119215876,-0.059208367,0.022687411,-0.084928595,-0.11893327,0.019401107,-0.119230285,0.13478924,-0.08821722,-0.104759276,-0.03328248,-0.109864384,0.0067086024,-0.089151636,-0.032836054,0.035696954,-0.034755662,0.08937823,-0.046855383,-0.0026216106,-0.03349128,0.054303844,0.09525172,-0.101105615,0.0008918522,-0.06347972,-0.03428337,0.045006063,0.03290943,-0.026091082,0.09413714,-0.018038621,0.081250615,-0.046364743,-0.10654481,0.04724514,-0.03881396,0.09349528,0.13144878,-0.11152045,-0.0093495725,0.12531395,0.04990622,-0.08050264,-0.040681347,0.11072809,0.12971142,-0.09691133,-0.10839741,0.048422758,-0.100247025,0.07046665,-0.050827824,0.1326285,0.10900274,-0.016308455,-0.051319905,0.08309086,0.055151016,0.01602135,-0.014523917,-0.032177147,-0.040661074,-0.06396808,0.016050803,0.11891084,0.03985178,-0.12496707,0.025365714,0.08941191,-0.114081085,-0.026956338,-0.13462631,0.13424666,-0.060754012,-0.0239251,-0.028110255,0.003665984,0.10105719,0.06810488,-0.07930817,-0.1265785,-0.121190324,0.08884959,0.013084999,-0.10393896,0.12513152,0.08213914,-0.07643126},
	{-0.022182412,0.03358826,0.13380158,-0.115931846,-0.057129838,-0.021586036,-0.043955706,0.10212116,0.04211965,-0.01369834,-0.13106377,-0.0913885,-0.13014977,0.010465533,0.13389067,-0.08554725,0.0066942824,-0.13529482,0.10624024,0.095530935,-0.08638152,0.12772118,0.057584666,-0.031992476,-0.11675139,0.06353158,-0.07920835,0.015769688,-0.10308842,-0.07974752,0.041932005,-0.11426774,-0.10196782,-0.06144684,0.022113545,0.08747617,0.039917696,0.13454477,0.031686608,0.08594571,0.07020164,-0.017666163,-0.07678942,0.07631596,-0.1055215,0.06081249,0.09641999,0.054759298,0.13726203,0.021903899,-0.019388342,0.03670885,0.05247649,-0.03459118,0.08613252,-0.020596642,-0.13393436,0.11502247,0.06396702,-0.05474359,-0.043801006,-0.016061487,-0.03854859,-0.014806013,0.122436464,0.051739052,-0.009456376,0.07480963,-0.07340846,-0.03073324,0.025839118,-0.0399773,-0.077491075,0.06433936,0.06914339,0.028437668,-0.13778251,-0.09636194,-0.021917038,0.03854301,0.08404672,-0.1022162,-0.038502075,0.06344724,-0.117599994,0.059737526,0.10677679,-0.017132996,-0.03629607,0.035059787,0.12384614,-0.044927306,-0.12297477,-0.0028019801,0.047581766,-0.100159034,-0.05582735,-0.07158629,-0.12648028,-0.13209462,0.06850763,0.0552855,0.056832053,-0.080319665,-0.087704755,0.09235226,-0.09562047,-0.025875205,-0.0974963,0.1336625,0.07706666,-0.12486651,-0.0366544,-0.006155273,0.12209833,-0.11610922,0.12966716,-0.116647385,0.10175398,0.094882995,0.080014415,0.0861519,0.02000182,-0.047196344,-0.117785625,0.07489863,-0.13363853,0.046333138,-0.050073445,0.02560896,-0.10064563,0.063389726,0.110580444,-0.06505412,0.1063959,0.06085146,0.010602969,-0.071921654,0.026249014,0.09408406,0.032526053,0.11368636,-0.10061567,0.006997752,-0.14031689,0.0038898075,0.059144862,-0.11182593,-0.07597891,0.057951063,0.1186971,0.05400053,-0.009677164,-0.07244877,-0.12101951,-0.07650643,-0.037744924,-0.1099709,-0.09489471,0.010488299,-0.056435544,0.0025810103,0.066274695,0.08993993,0.049942575,-0.13482301,-0.11039395,0.0143969385,0.12682231,-0.1077417,0.0024461215,-0.011736972,0.010134854,0.06339508,-0.06388994,-0.093890466,-0.10219224,0.084008224,-0.084351815,-0.13114308,-0.00019331946,0.034068853,0.1148234,-0.12908678,-0.051547088,0.12952977,0.021910725,0.12338781,0.107962094,-0.08473923,-0.06307091,0.05918446,0.10112448,-0.056217425,0.116125256,0.08247107,-0.01935501,-0.11874002,0.10854462,-0.061307006,-0.008109148,0.10246579,0.02412292,0.050292566,0.042168245,0.086358674,0.056124248,-0.033851974,-0.014620757,0.031471584,-0.034638792,-0.06007731,0.045730576,-0.04646648,-0.0045084315,0.13104203,0.04694272,-0.105047815,0.05363016,-0.07728891,0.10933312,0.109192684,0.0928931,-0.09216749,0.11920465,0.10573667,-0.12843293,-0.0066557615,-0.026700448,-0.039241906,0.056286376,-0.010828681,0.048012666,0.0061577912,-0.06587961,-0.10204005,0.09260942,-0.09605089,0.042280313,-0.041290462,-0.039554212,-0.067948416,0.024143817,-0.05624236,-0.04176306,-0.035203084,0.06245207,0.1167127,-0.018969541,-0.12888418,0.04899816,0.11819326,-0.040756118,-0.10772064,-0.006540185,0.03482887,-0.12104396,0.07572596,0.035269953,-0.11072588,0.022207815,-0.015332708,0.09403501,0.10862286,-0.020558516,0.020794775,0.040533394,0.06736728,-0.061006192,0.09287243,-0.04881232,-0.0040492313,-0.082133606,-0.11995404,0.10452281,0.058749076,0.007143486,-0.09814432,-0.042408574,0.10711205,0.12679254,-0.06545278,-0.12181594,-0.0343254,-0.12878314,0.11229178,-0.09605963,0.119574934,0.0879609,-0.031255126,0.009719041,0.04627197,0.012282926,0.13516642,-0.03105276,0.025728822,-0.020157367},
	{0.057923023,0.12792149,-0.08576196,-0.11785909,0.034623485,-0.070014454,-0.0014093532,0.049803916,0.058103293,0.10879204,-0.0123092085,-0.08769311,-0.06890587,0.04108886,0.1114873,-0.087366186,0.046524584,0.07084444,-0.06290056,-0.060776662,-0.13330133,0.027778119,0.076094195,-0.0995079,-0.0013102879,0.13111763,0.020396205,-0.014747192,-0.06812186,0.1148549,-0.056832243,-0.022640102,-0.03788107,0.11169804,0.09176366,0.09051059,-0.024705453,0.0090790065,-0.0056295944,0.0058639348,0.00898179,-0.12731302,-0.09873977,0.036443543,0.12661524,-0.050737176,-0.122023985,0.032086696,-0.089106835,-0.06125337,-0.07328005,-0.04443927,-0.13478269,-0.10232753,-0.124877624,0.10299363,-0.02598541,-0.06795612,0.12626664,0.070093445,-0.08460162,-0.04005528,-0.08067019,0.008045228,-0.026168665,0.059192028,-0.076842345,-0.04404237,-0.12744847,-0.042407643,0.021801604,-0.010080472,-0.047561325,0.13241972,0.050301064,-0.035910152,-0.118438445,0.110556,-0.11675928,-0.09740576,0.07685834,-0.07418343,-0.0077098096,-0.117789164,0.050535806,0.037007943,0.09408519,-0.11342474,0.0358429,0.090736166,-0.06179391,-0.11130317,-0.1179336,-0.021003999,0.122771084,0.045279488,0.051343054,0.12598538,-0.08832726,-0.12756118,0.070650265,0.07069202,-0.03069119,0.09924341,0.0016067482,0.066060245,-0.10818376,0.020374753,0.06021031,-0.060492434,0.088835,0.085507564,0.04176443,0.03706669,-0.019166728,-0.009701907,-0.12672316,0.012581455,-0.016242333,-0.060831446,0.048785932,-0.0543701,-0.045559395,0.08748244,-0.06669263,-0.06860826,0.1345543,0.12857807,-0.013392196,-0.075112656,-0.026844881,-0.105157144,0.069684826,-0.12938008,0.06548359,-0.06411349,0.099598944,-0.038436715,-0.008524289,0.10170136,-0.035859037,-0.10029668,-0.011473314,-0.011750187,-0.059174083,0.058342144,0.09435661,-0.037982002,0.13070068,0.07644173,0.08059584,0.09861614,-0.1077599,-0.016904103,0.133662,0.06400784,-0.04550659,0.112521544,0.13716626,0.11153848,0.09256479,-0.0022676405,-0.003706104,0.10323297,-0.007228484,0.0766498,-0.0673602,-0.12556216,-0.12534323,-0.039685506,0.027539613,-0.123824395,-0.122323155,-0.132755,-0.031155555,-0.08964579,-0.036448155,0.12742536,0.049275313,-0.04575359,-0.09970058,0.09245124,-0.005902818,0.109676614,-0.11713365,-0.13057603,0.0327792,-0.06941953,0.1352801,-0.10281286,0.011953143,-0.059882995,-0.04487299,-0.006755247,-0.047050226,-0.08876978,0.1250714,0.0046555838,-0.1284072,-0.13518035,0.11919704,-0.10946101,0.0671842,0.12247001,0.1052911,-0.017488683,-0.04210224,0.0047408342,-0.006131695,0.02675496,-0.12202161,0.055299938,-0.12926799,0.07842922,0.030330716,-0.009323939,0.10374467,-0.044851523,0.1289926,0.05686666,-0.12110361,-0.034400113,0.08865598,0.12856163,-0.05182175,-0.1107369,0.033392243,0.06299034,-0.1187016,0.03505317,-0.030898437,0.0267776,0.067537546,-0.13553758,0.04370745,0.05188013,-0.010629235,0.08010745,0.12721935,0.08856216,0.017434973,-0.03160315,-0.041564677,0.10379701,0.044218685,-0.039096598,-0.09615229,0.060829014,0.09058051,-0.1310359,0.050151344,0.05617918,0.082175866,-0.10944522,0.059384648,-0.03679727,-0.1057721,-0.029747805,-0.12269784,0.0140680205,-0.10000795,-0.041131083,-0.03851209,0.044231147,0.11459756,0.06522391,0.08125198,-0.13173454,-0.11452089,-0.09302237,-0.036910724,-0.13147974,0.027430713,0.025734384,-0.03990287,0.115517296,0.07819018,-0.09218045,0.06049067,-0.058228437,0.015588723,0.093949154,-0.027463548,-0.06210098,-0.068509415,-0.04288942,-0.09831772,-0.098788574,-0.12368141,0.1330006,-0.12355729,-0.05739987,-0.04706004,0.09838342,-0.071738385,-0.060404856,-0.04464155},
	{-0.07493562,-0.088134065,0.10260536,-0.090328194,0.08575243,0.016373292,0.0510464,-0.0781336,-0.03621481,0.09627731,0.0038399722,-0.062951334,0.11607822,-0.042921077,0.13175802,-0.09785798,-0.13021582,0.06366138,0.0769442,0.02860157,-0.078272246,0.09217488,-0.06778227,0.06455135,-0.12417753,0.1057594,-0.053148646,-0.01887763,-0.09966001,-0.001815378,-0.091083586,-0.09172502,-0.1391666,-0.118457906,-0.11844879,-0.09488294,-0.07768083,-0.0842278,-0.04885545,0.08882364,0.101210214,-0.040618822,-0.0066122436,0.08456796,-0.0021323946,-0.101525545,0.11201985,-0.085381866,-0.12360305,0.025502669,-0.13518372,-0.12898687,-0.03641584,-0.029378805,0.06025674,0.033860136,-0.09067485,-0.117453784,0.011367857,0.13497663,-0.05827432,0.05199913,0.08772166,0.00937545,-0.10810329,-0.008904491,0.07380701,-0.023052698,-0.02721401,0.07755183,0.09468738,-0.06261869,-0.09783514,-0.08204272,0.032846365,-0.096229956,-0.07062107,-0.095660664,0.12581883,0.12104978,-0.00057846523,-0.0645128,0.051187914,-0.07891932,-0.08091732,-0.07935945,0.13669558,-0.054615147,0.03664313,-0.12446558,0.10481075,-0.07397486,0.044323154,0.039051827,-0.032562304,-0.053029217,-0.05434224,0.13374287,-0.055442266,0.114538245,-0.046733193,0.03180119,0.12144582,0.122627504,-0.08051334,0.12528285,0.07707715,0.1005045,-0.03338694,-0.11942264,-0.059084184,-0.12980784,-0.009949706,-0.039362237,0.099220514,-0.08934492,-0.13427626,-0.053164963,0.13778563,0.13276523,0.042419028,0.035628717,0.072404,-0.01349815,0.08563637,-0.042699896,-0.024148654,-0.11642384,-0.12575261,-0.09094008,-0.11964866,0.10417119,0.029894914,-0.106533736,-0.07297909,-0.05249593,-0.06256755,0.09704944,0.13784704,0.1339497,0.054781113,-0.08462655,0.017024867,0.104914054,0.1251073,-0.0021178252,-0.047549397,0.11311711,0.12715375,0.0036384962,0.07340032,-0.07878817,0.13808979,-0.03261255,0.021196121,-0.011281031,-0.040400557,0.08901475,-0.11752769,-0.053455923,0.12756756,-0.04700669,-0.026600515,0.06261908,0.08919478,-0.03038809,0.086324796,0.09911036,-0.0041576726,0.041399844,0.10402847,-0.07815969,-0.037178233,0.08949351,0.017750658,0.04590094,0.031255353,-0.083694935,0.021777596,-0.13410671,-0.11930278,-0.09554095,-0.115719505,0.07164017,-0.052466042,0.04854799,0.03289712,-0.12140104,-0.0142551055,-0.011864213,0.06472722,-0.031230653,0.032910105,-0.041831568,-0.012705665,-0.10959842,0.0217351,0.14278811,0.010619997,0.0022548523,-0.05018205,0.111087754,0.05409579,-0.099188,0.036755774,0.05971477,-0.0060733776,-0.0268765,0.068288095,0.08240448,-0.013542085,-0.11208255,-0.1306715,-0.107503004,0.074835174,0.03112963,0.0642796,0.01880298,0.09235739,-0.07125851,0.121065214,-0.0742819,-0.14047845,0.10514895,-0.049805716,0.12720665,-0.07901133,-0.124654494,0.071734555,-0.056372214,-0.035500597,-0.025007136,-0.029379107,0.05953874,-0.12395353,0.13630956,0.11199219,-0.058886033,-0.017983356,0.035914812,-0.12270648,-0.10897166,-0.13171965,0.011720704,0.141739,0.0074752374,-0.07369393,0.09189573,-0.03655209,-0.020016398,0.07178842,0.08280176,0.06499892,-0.11314481,0.09610266,-0.044712905,0.0460508,-0.11815216,0.12986165,-0.0024717825,0.08249383,0.079653256,-0.028924933,-0.11225266,0.024993103,0.08019496,0.086029045,0.110468864,-0.04698404,-0.049624052,-0.071902804,0.0045806617,0.095665,-0.11310621,-0.02016281,0.10941564,0.13987975,0.07824967,0.1063043,0.08889052,0.03969586,0.117936686,0.116724126,0.12557578,-0.090398654,0.07075326,-0.11999185,0.041699115,-0.049511906,-0.04481911,-0.0060215485,0.11202471,-0.038396835,0.115459315,-0.009456825,-0.092130706,0.08490817},
	{-0.11777129,-0.1306839,0.01987841,0.06840658,-0.01658728,-0.010990853,-0.06138997,-0.09299815,0.11245044,-0.05268323,0.11851432,-0.11223629,0.098072015,-0.088318884,-0.112166844,-0.028987141,-0.100445114,-0.14081238,-0.076197095,-0.060153324,-0.006223371,0.011277002,-0.013305712,-0.02391839,-0.13541968,0.027988918,-0.04870385,-0.0207089,-0.044399366,-0.09788855,-0.10993102,0.05657306,0.11328378,-0.13447438,-0.09109745,-0.0118619995,-0.0010244233,0.011342494,-0.08851098,-0.13201092,-0.009117211,0.10271944,0.036041398,0.06755689,0.088509865,0.039755747,-0.1248401,-0.11511077,0.035140872,0.056647353,0.085396856,0.0068914057,-0.021358041,0.025739195,0.113675945,0.12002344,-0.077503815,0.091642104,0.06547199,-0.09118264,0.10084527,-0.04874691,0.090238586,0.04856972,0.0893175,0.058455255,-0.12687114,-0.05229134,0.022722727,-0.03552381,0.09954447,-0.07990966,-0.07332054,0.06367006,-0.104181305,-0.038848758,-0.0017575872,-0.09413683,-0.12689877,0.021630399,0.07359089,0.0038256482,-0.037258357,0.03316009,-0.07213352,-0.025967127,-0.071160756,0.03133985,0.021457326,0.004445748,-0.14197654,-0.009809144,0.12565397,0.11824976,0.126451,-0.033628844,0.04713395,-0.13201894,-0.082364246,-0.13309848,-0.13710277,0.006065903,0.017087288,0.12681845,-0.043959685,0.10664332,0.06787801,-0.09547876,0.13743609,0.03183621,0.06250891,0.086161084,-0.12594195,-0.11125238,-0.06852524,-0.07046153,-0.016960738,-0.03277159,0.12949437,0.09920109,0.037650388,0.035863556,0.088639036,0.045294072,0.108264275,0.05017811,-0.06454898,-0.026241072,0.04000926,0.12763044,-0.026321054,0.056053374,0.12904432,-0.056200095,-0.10085732,0.10989701,-0.11889642,-0.07805152,-0.010226173,-0.06761867,-0.12046556,0.10897867,-0.1205739,0.107307024,0.06558465,-0.109657384,-0.04908233,0.043569997,-0.05008997,0.042148914,0.0133560505,0.048284482,0.08220981,0.11228407,0.07301422,-0.047361314,-0.11345496,0.021909498,-0.017832143,0.085044175,0.10981676,0.07468085,-0.0041826954,0.06363337,-0.092102826,-0.09899989,-0.0427268,0.032586716,0.06611038,-0.019851327,0.047928527,-0.08407186,-0.11651637,-0.060997568,-0.07006904,-0.039702617,0.017997626,-0.06701295,-0.06917655,-0.032593276,-0.064150214,0.10713158,-0.006090074,-0.10445331,-0.10678203,-0.09266748,0.0988247,0.078931235,0.088097624,0.07045786,-0.0368709,-0.13402258,-0.03582995,-0.075614035,0.0317374,-0.06523482,-0.101891674,0.0020503998,-0.023293657,0.077144474,0.015101676,-0.016958088,0.06787006,-0.11121148,0.13175811,-0.048273657,0.045237403,0.08181984,-0.07850763,0.04588031,-0.112859905,0.122049466,-0.0552561,-0.07237072,-0.005557794,-0.09260995,-0.04526326,0.010232368,0.09514365,-0.054177176,0.13460363,0.07278497,-0.075948894,-0.1298633,0.04404412,0.06038578,-0.077446565,0.03576659,-0.053641964,0.046283558,0.040217184,0.12380797,0.13614121,-0.10926313,-0.07125803,-0.092866644,-0.04602362,0.039610445,-0.0081327725,-0.02341878,0.06278347,0.091200836,-0.07355867,0.06189818,-0.11955199,-0.0214819,0.012223492,-0.038127173,-0.10878108,0.04707382,0.026981622,-0.055742662,-0.13205864,0.117559925,-0.050121695,-0.07172745,-0.11665586,0.033465672,-0.10693722,-0.027229648,-0.10194555,0.062370036,-0.0276977,0.0007427016,0.10370848,-0.10551033,0.08832424,-0.08758457,0.10734873,-0.05041224,-0.07493917,0.1310727,-0.12075918,-0.124278866,-0.058533136,-0.13115226,0.08113308,0.0655153,-0.045642413,0.1413516,-0.032957643,0.12590985,-0.054761667,-0.120229274,0.123174794,-0.06022912,-0.0057276716,0.07284615,0.008707745,0.12337937,-0.049722023,0.044375557,-0.1295422,-0.009451809,0.08605471,-0.028756,0.05762783},
	{-0.009433828,0.045337047,-0.079578586,0.09181826,0.06188044,-0.08722987,0.06844307,-0.08376756,0.0006144162,-0.03105223,-0.047423314,0.122003436,-0.101330385,0.13459255,0.025920646,-0.02743873,0.08093765,-0.088613495,0.09327622,0.036526006,0.10195609,-0.01115013,-0.023703704,0.053649336,-0.036170717,-0.0010196583,0.0769996,0.115718044,-0.106668115,0.025013836,-0.006462429,-0.0025841882,-0.088140026,0.09519679,0.08978403,-0.06970178,0.043160826,0.0138208335,-0.010444924,-0.03027763,0.08150359,-0.011964924,-0.06386104,0.080933444,0.04905326,-0.12709698,-0.009359313,-0.1046645,0.13580133,-0.09911182,-0.07810715,-0.06682442,-0.08811866,0.076496795,-0.046569943,-0.013277518,-0.1317596,0.02797125,-0.06535893,-0.091651246,0.06848568,-0.058821764,0.12146065,-0.12356069,0.09040156,-0.047137138,-0.01017281,0.00064659363,0.042711206,0.13203314,0.044542044,0.0110143265,-0.13470785,-0.064839244,-0.04036457,0.09213939,-0.00850428,0.054156072,0.091337085,-0.06532926,-0.06541487,-0.019436622,0.0033951188,-0.04485386,0.048748527,-0.12724225,-0.0014673136,-0.018100549,0.0363561,0.008292354,-0.06195571,0.10652024,-0.050041795,-0.0043042786,0.045553852,0.055068698,-0.033368956,0.0045425193,-0.016798751,-0.00044191515,-0.124505594,-0.11175191,-0.13696241,-0.014199764,0.11094221,0.12626241,-0.07341331,0.06895508,-0.017283697,0.04272248,0.052789498,-0.11401503,-0.10114197,-0.07382371,-0.04940089,0.022899546,-0.010910638,0.027477408,0.06285753,0.04523624,-0.07461801,0.09126994,-0.018595526,0.03887987,0.08195501,-0.0039338865,-0.08273054,0.07565699,-0.107509375,0.013012867,0.019113677,-0.08168799,-0.13389438,0.074044414,0.013114826,-0.01715178,0.13992386,-0.035069477,-0.07579845,-0.05817923,-0.04959392,-0.10584629,-0.043409456,-0.03441515,0.05909007,-0.08229746,-0.034939285,0.049671095,0.032794647,-0.108694986,0.11803923,-0.010741217,-0.1324121,-0.06704166,0.09063051,0.06793652,0.09312817,-0.035886064,0.056410298,0.057862684,-0.0021819265,0.059912242,0.10157219,-0.07253483,-0.11176764,-0.01678552,0.11261303,-0.02905368,-0.13371788,-0.085761674,-0.009008312,0.1268817,0.089198105,0.0862743,0.041855708,-0.0006186448,-0.017475085,0.008722379,-0.1232131,0.03963472,0.080053315,0.1057577,-0.08427477,-0.0020007333,0.047083184,0.11673547,0.04099791,0.05377921,-0.04147614,0.11176671,-0.028879728,0.059397716,0.008967201,0.019459669,-0.03876315,0.095663525,-0.055186372,0.09054012,0.023881488,-0.070142716,-0.12071397,-0.08581153,-0.038950242,0.07188223,-0.11191599,-0.050463185,0.037186433,-0.058028206,-0.016335795,-0.054454256,-0.0118458625,-0.046256457,0.091521546,-0.022420697,0.0014191004,-0.08423959,0.03926183,-0.1269626,0.018066576,-0.116520345,0.007095446,0.007341086,-0.11641147,-0.056925498,-0.02220358,-0.051402204,0.09075398,-0.08542458,-0.117272265,-0.10105133,0.013786586,0.122950345,-0.0051370184,-0.11814974,-0.123638116,0.019224918,-0.09477963,-0.018222475,-0.030774545,-0.082303144,0.07073485,0.12416213,-0.09614606,0.092430726,-0.03322921,-0.024943938,0.040974356,0.0021566916,-0.06245808,0.11574539,0.122997254,-0.09097004,-0.053219236,0.04906266,-0.078624584,-0.0208062,-0.07168086,0.016608069,-0.056463357,-0.045623686,0.13750564,0.006466007,-0.118450694,-0.038916364,0.04619518,-0.0643341,0.038647514,-0.02668794,-0.026068741,-0.1417585,0.0068221637,0.05840218,0.046885956,-0.06010626,-0.060586322,-0.031042086,-0.07731662,0.1211939,0.052188963,0.0013333649,-0.11089842,-0.07234496,-0.003281881,-0.112227134,0.030453399,0.057804324,0.06595162,0.10382583,-0.030193144,-0.12150434,0.08585201,0.08850538,-0.0974409,0.10708388,-0.054132484,-0.014512879,0.11286116},
	{0.056252435,-0.0017337027,0.13716061,0.13050888,-0.0045929253,0.117256835,-0.054721426,0.023877274,0.0748482,0.05588206,-0.06650463,-0.100686446,-0.0827331,0.08896547,-0.048786584,-0.11478632,-0.07126955,0.032703143,0.013118857,-0.08600597,-0.12431091,0.021731697,0.03293087,0.08588911,-0.038975853,0.099891916,-0.10419856,-0.017008586,-0.11874441,0.00072901364,0.11529925,0.048582528,-0.05109563,0.0045736525,-0.14474484,0.09752121,0.038407568,0.008163905,-0.11370715,0.045423303,0.039667975,-0.06123609,-0.01963176,0.10238143,0.13950495,0.08249289,0.0026864717,-0.0789857,-0.10721629,0.002492894,-0.040076517,0.11112203,-0.020514186,0.07116316,-0.13313197,0.05921736,0.033595126,-0.05872962,-0.020721618,0.06319913,0.10629983,-0.08157503,-0.058887213,-0.033221412,0.024522277,0.094507866,-0.020385355,-0.019444969,-0.068389565,-0.115597256,0.12530236,-0.07117241,0.041578185,0.07665517,-0.13111122,0.054456502,-0.119350605,0.012485212,-0.07211301,-0.027379543,-0.07203976,-0.09699618,0.04958001,0.0029929825,-0.037711777,0.112976305,0.05621933,0.12109328,-0.08171602,-0.06381042,-0.11907875,0.06733681,0.105344705,-0.13991418,0.12079549,0.008538601,-0.016464107,-0.12519589,-0.02736204,0.03115271,-0.015331184,-0.085967235,-0.01882304,0.105398595,0.117932454,0.092038766,0.044106867,0.023474846,-0.11712171,0.12463391,-0.102796376,-0.021479815,0.103424765,0.07970892,0.07804443,0.12561618,-0.06715455,-0.056906503,-0.11964587,-0.07207239,-0.026662303,0.04501262,0.060318016,0.02783028,0.109247014,0.0080974065,0.0794833,0.04288519,0.0145651,-0.04634859,-0.09858617,0.1034119,0.058318246,0.0077963313,-0.12165132,0.106154144,0.019770673,0.021715313,0.14206727,-0.11479472,0.024484292,0.0937319,0.12533659,0.10580335,-0.051257227,-0.054798678,0.126882,0.088043354,-0.076894484,-0.06683494,0.07461892,0.13020758,0.007945472,0.020370157,0.10401454,-0.055507444,-0.10192541,0.0826767,0.088834666,-0.096846655,-0.06654018,-0.12450552,-0.12373889,-0.11915768,-0.08268641,-0.010636844,0.03998228,-0.06928125,0.066809565,0.084937125,0.031053942,-0.09585415,-0.12787703,0.14896107,-0.08969066,-0.017096704,-0.034698583,-0.08018656,0.07604262,0.09167577,0.045633134,-0.07484446,-0.118463375,-0.08708747,-0.13976015,0.036717765,0.10489122,0.014821953,-0.010668939,0.004965799,0.06306501,-0.061300974,0.08623811,0.025854029,-0.10858903,0.049045816,0.085424185,0.09786249,0.029047774,-0.06758022,0.006280856,0.08823373,-0.12188262,-0.12114829,0.06590088,-0.060620807,-0.13069384,0.052024346,0.070222236,-0.032927755,0.028342418,0.092996866,0.11254064,0.02321657,-0.07340198,-0.116286434,-0.064914994,-0.08838332,0.11425241,-0.031438585,-0.13176809,-0.11611249,-0.09704661,-0.033541,-0.13308854,-0.09602566,0.04054147,0.12555116,0.022691898,-0.031467445,0.018576264,0.122727595,0.05273065,-0.025313096,0.08914832,0.10613142,-0.11294647,-0.036683746,-0.0860104,0.04608396,0.047814257,0.013334799,-0.09306733,0.072102904,0.06453192,0.12259301,0.13131706,-0.123213395,0.0833909,0.008352526,0.029073779,0.09628788,0.10769674,-0.09837677,0.0229656,-0.043050498,-0.08412426,-0.06676168,0.0466963,-0.10803131,0.09818441,0.117843784,0.111759365,0.0025030016,0.0021261675,-0.06589612,0.05065711,-0.13700913,-0.11404751,0.10824274,-0.092272885,0.057757527,0.08878147,0.13839406,0.048738346,0.07253914,0.12172397,-0.007608453,0.060583,-0.02051107,-0.0057678167,-0.09581605,0.082368895,0.04264308,0.044572756,-0.03449405,0.11849687,-0.089376554,0.13328084,0.11074736,-0.13115668,0.07603013,-0.043171972,-0.06961028,-0.019095689,-0.03386501,-0.096909404},
	{-0.047723178,-0.052314248,0.13360682,0.05498892,-0.0938651,0.039299674,-0.073831804,-0.077750646,0.13868634,0.14040773,0.077828385,-0.026030805,-0.1337494,0.08419778,-0.058939796,0.040535342,-0.016955256,-0.023430755,0.016113078,-0.13250543,-0.08784996,0.13248345,-0.0015969311,-0.07681984,-0.048133496,-0.073863186,-0.066916525,0.0006095007,-0.031833235,0.06291081,-0.027299324,0.122147284,0.09735582,-0.046905585,-0.07656953,0.12334843,-0.099379845,0.12025492,0.13055585,-0.1072268,-0.088066,-0.06672828,0.122419305,-0.09245898,-0.023648283,-0.018959338,-0.021091266,-0.008996276,0.034477632,-0.032323938,-0.08867195,0.08388838,0.0047741192,-0.05408513,0.0030488125,-0.121276446,0.06088196,-0.030141748,-0.118926845,-0.018221904,-0.006180033,-0.03759849,0.029529225,0.101628505,0.10709418,0.10268951,-0.042398248,0.011750397,0.11514115,-0.14251097,-0.015290181,-0.11141264,0.018896688,-0.014810521,0.13061923,-0.032036837,0.016311979,-0.06397978,-0.092692025,-0.0498459,-0.028904106,0.06551342,0.055124424,0.13419816,-0.040275004,-0.07395646,-0.07305782,0.013573612,-0.07342677,-0.050414048,0.043492675,-0.032953303,-0.026398936,-0.064870104,-0.020640101,-0.04214914,-0.045836788,0.10829484,0.01847788,0.14706278,0.120370895,-0.11049639,-0.07093921,-0.0054065157,0.011034454,0.06950733,0.083760716,-0.06298413,0.10715894,0.076103665,-0.099699825,-0.07324688,0.018515239,0.007656425,-0.016902518,-0.016720602,-0.051805105,-0.055215023,-0.009335613,0.103191465,0.12815294,0.10738311,-0.015599493,0.07133657,-0.10411089,0.07781241,-0.048512306,-0.07854914,0.051219705,0.042307343,-0.102515,-0.07671425,0.1168937,0.021186737,-0.024852127,-0.064585045,0.0072325487,-0.009287905,0.13037725,0.03964953,-0.0964271,0.038285,0.054290786,0.07160139,-0.11079854,-0.12078632,-0.08614402,0.0986535,0.059105344,-0.10210807,0.11736777,-0.0029601408,-0.09747651,0.09318136,0.07266283,-0.08205371,0.11219895,0.09248047,0.02879285,-0.0671951,-0.058104027,0.030874727,0.08916704,-0.12203179,-0.070324875,-0.12280628,0.033461276,0.10342701,-0.12146897,-0.06288605,0.13478957,0.11366949,-0.13206358,0.07051698,-0.10309453,0.1195639,-0.120074384,-0.12081114,0.039507836,-0.121620625,-0.10590342,-0.0045659086,-0.064643234,-0.023945903,-0.09118922,0.07707974,-0.006566138,0.06296355,-0.04404837,-0.021238951,-0.038015023,-0.045363393,0.10567578,-0.10429757,0.11563281,-0.040009003,0.14341024,-0.061883453,-0.13957791,-0.13558187,-0.08862716,-0.08721728,0.0025606384,0.03347259,-0.08265515,-0.08850622,0.13210474,-0.05237623,-0.046539936,-0.030807044,0.09919633,-0.11951901,-0.014006395,0.110423714,-0.11722793,-0.07316986,0.1355931,0.021358486,-0.032167055,0.004494257,0.09144671,0.10589949,-0.11908848,-0.092011966,0.07639768,0.02985212,-0.071977206,-0.112964824,-0.10567155,0.0760426,-0.08980904,0.13872778,0.09644556,0.079698846,0.052132558,0.022316156,-0.06677572,-0.01968705,-0.019570285,-0.074842125,-0.1355228,-0.14234829,-0.028444879,0.07120503,0.017997796,-0.07371494,0.0624867,0.045661736,-0.10505855,0.10499302,-0.046195578,-0.010152996,0.10205968,-0.11262928,0.122078225,0.108149506,-0.14154229,0.018025411,-0.060130235,0.04034911,-0.13394997,-0.041309256,-0.07388351,0.12863389,-0.017438637,0.12562037,0.018446166,0.025088413,0.09635716,-0.050005212,0.0039065336,0.0017046463,0.05685359,-0.11793736,-0.08798172,-0.13195288,0.055403955,0.104959875,-0.13653195,0.014409669,-0.025475195,-0.020043336,-0.064670615,0.0714046,0.07261549,-0.09181455,-0.08827987,0.05637201,-0.0959697,-0.08179994,-0.0044960207,-0.13471101,0.09030236,0.0018143773,0.031620402,-0.08400855,0.05632268},
	{-0.06386936,0.0030179333,0.06476635,0.13714135,-0.13751881,-0.005279891,-0.07316789,0.12786411,-0.13451193,-0.082732975,0.044302717,-0.13955316,-0.119253516,0.06860422,0.076675825,-0.066471666,-0.031421587,-0.00042691114,0.017780593,0.09040489,-0.10982488,-0.089771874,-0.12555389,0.056340165,-0.115835965,-0.031317428,-0.12363394,0.08667967,0.0007224332,0.011627418,-0.015451644,-0.07202809,0.09789507,-0.1122227,-0.027269524,-0.09143956,0.113023035,0.13354033,-0.025095241,0.066723436,-0.067405745,-0.05718749,0.053665575,0.010242741,0.07576641,-0.024535155,0.103491776,0.003932459,-0.10733008,0.06531701,-0.030369947,-0.012657821,0.11035395,0.12845713,-0.0018350498,-0.1342335,0.053691167,-0.07105591,-0.11091472,0.003922659,0.03615853,0.097225145,-0.06320628,0.11134671,0.10186336,0.03328667,0.031527907,-0.13676074,-0.0049382127,-0.099948734,0.11620279,0.12347182,0.072331555,-0.09279776,-0.13390818,-0.12348664,0.07063401,-0.07218028,0.08684098,0.036453977,-0.054605547,0.072010495,-0.009717726,0.06506385,0.0060501387,0.028154254,0.06568768,0.0025950945,-0.1097471,-0.034940615,0.1093841,0.02213048,-0.12206729,0.076679364,-0.069799356,-0.09876298,0.13429853,0.102382705,0.1124332,-0.04454444,-0.06467123,0.13040163,0.05975,-0.0050477977,0.027400587,0.1130001,0.09998157,0.045997594,0.022457615,0.07061229,-0.05977404,0.10739238,0.020995075,-0.04840437,0.030743567,-0.063237764,-0.073628776,0.092149094,-0.105747685,-0.062816046,0.008730524,-0.0017568005,-0.015276754,0.011756399,-0.13456431,-0.0037162579,0.1042791,-0.06271449,0.09701331,-0.08226958,0.1347419,-0.11763083,-0.10221816,0.09802446,0.1245046,-0.01668828,0.053377353,0.022233902,0.07009848,0.09140435,0.0721868,0.052385453,0.04789335,0.12132647,-0.071863264,0.07006962,0.06409065,0.06707769,-2.4662673e-05,-0.042889047,0.11081507,0.06996411,0.07339979,0.024920527,-0.0650062,-0.043754354,0.109716006,-0.014773467,0.010006014,-0.099833526,-0.0062544188,0.097772606,-0.1419546,-0.13477033,0.12955876,0.12161934,-0.10404492,0.06779073,-0.06480239,-0.10151647,-0.11316525,0.008947988,0.13125601,-0.022699114,-0.008303797,-0.05571091,-0.029004224,-0.014122816,0.0753758,0.019386845,0.09196717,0.041789778,0.12216378,0.12876269,-0.08648731,-0.06830567,0.06794612,-0.12809768,0.08369347,0.13237147,0.11630188,0.07311848,-0.081079975,0.10427223,-0.12055438,0.03457273,0.004384412,-0.100108,-0.09098182,0.09290043,0.053633284,-0.081535846,0.07828108,0.110150196,-0.09192641,-0.020852404,0.031711906,0.09759516,0.08363498,-0.023668878,0.01869478,0.006527262,-0.11010659,-0.08794184,-0.065605246,0.12345145,0.0007999383,0.07011303,0.0787626,-0.07660985,0.00414928,-0.09935403,0.005084777,0.11881338,0.0660377,-0.10534777,-0.13589408,0.056529906,0.10546191,-0.08248851,0.03539883,0.1167518,0.027781978,-0.0061667506,-0.040027853,-0.012637102,-0.109227486,0.004080243,0.079871915,-0.017237812,-0.003785788,0.11182795,-0.06786898,0.09232683,-0.09853207,0.055527117,0.07051437,0.04919558,0.006227759,0.07925239,0.034837876,0.05668056,-0.013689539,-0.111542985,-0.12778121,0.120202094,-0.089879334,0.09423234,-0.009815444,0.049771216,0.04751454,-0.05961673,-0.0731965,0.11076689,-0.037717525,0.14199194,-0.13490996,0.10336915,0.11973217,-0.10527966,-0.09380453,-0.053245585,-0.14214191,-0.13525046,0.022219073,-0.07039796,-0.02419185,0.082261816,0.0020423261,0.050379273,0.12917738,-0.069003336,-0.07101264,-0.037654225,0.053752434,-0.033837598,-0.08278899,0.11715724,0.12340236,0.01073371,0.11368738,-0.043270767,0.03838281,-0.030589988,-0.09805419,-0.045475833,-0.12603207},
	{-0.003970231,0.045193143,0.04637195,0.018311588,0.0038328334,-0.084450185,-0.023736041,0.047781296,0.0021958966,-0.09138194,0.0053106695,0.016936302,-0.052703347,0.115612686,-0.08086609,0.098925784,-0.03919891,-0.064535774,-0.0244267,-0.019512445,0.06733533,0.03760718,0.1320239,0.032710817,0.13590111,-0.05727654,-0.010467334,-0.14205475,0.11771234,-0.08071228,0.08892451,0.08809545,-0.01817473,0.030984834,-0.14108044,0.109505154,-0.00094241207,0.057614513,0.11059361,-0.10342504,0.060996585,-0.13440393,0.08393509,0.07828061,-0.076534934,-0.049133826,0.12686719,0.01728585,0.12924664,-0.08931644,-0.13493335,0.036212113,-0.13526721,0.0015163986,-0.04903367,-0.028015753,0.022576528,0.12724353,-0.121032044,-0.08028045,-0.06987674,0.016440935,-0.03117882,0.07336069,-0.103249006,0.12740079,0.030655114,-0.11796864,0.030424451,0.13171953,-0.10800923,0.11969301,-0.05425185,-0.0353072,-0.03359999,-0.11866159,-0.0189727,0.01452234,0.08946973,0.04922089,-0.050727516,-0.12827031,-0.11642574,-0.1363714,0.05126467,-0.031433668,0.005251242,0.0610539,0.12346744,0.08511429,0.088613965,0.10375207,-0.072575286,-0.118739985,-0.004363113,0.11817195,0.05141097,-0.06977668,0.107576005,-0.0653003,-0.074045785,0.13239604,0.06408537,0.05965498,-0.12375004,-0.07478257,0.07627198,0.024798602,-0.08679826,-0.0029975146,0.093931966,-0.054716397,0.12257281,0.03909466,-0.08948079,0.033186954,-0.009500313,0.085489705,-0.09680337,-0.13471004,-0.071908884,0.11277442,-0.0134792775,-0.061712548,0.029892968,-0.051033974,0.0049342373,0.097104445,0.012650375,-0.1062654,0.04166755,0.028350797,-0.028304005,-0.049364887,0.013642378,0.06862948,0.009203331,0.04852581,0.07248968,0.12668099,-0.023850951,-0.10056696,-0.0017973454,-0.099469535,0.11213555,-0.122396335,-0.06606698,-0.121106856,0.009053581,-0.03959059,0.13879861,0.10249477,-0.13587578,-0.07499888,0.09438882,0.058187377,0.013996969,0.11898304,-0.007131848,0.066301554,-0.105236374,-0.021298664,0.002515422,0.10096103,-0.13536793,0.1286454,-0.011143803,0.012862306,-0.047674943,0.13075261,0.07250951,-0.09404808,-0.07962759,-0.060753442,-0.061818603,0.096534766,-0.083993874,0.1104524,-0.05897783,-0.121534064,0.10450396,-0.06497804,-0.030878292,-0.02279681,0.032192264,-0.004327842,0.008056968,-0.08937279,0.1326854,-0.014084064,0.095554456,0.07751779,-0.0010099891,-0.12057194,0.039519873,0.06317483,-0.110825196,0.04104983,0.13885795,-0.14017579,-0.06606059,-0.050791074,0.015023657,-0.08483543,-0.050195534,-0.0998858,-0.03451406,-0.050962396,0.071296394,-0.1006513,-0.115023255,-0.100671306,-0.020145599,-0.10002285,0.11331002,0.051969886,-0.06509395,-0.06089647,-0.019723741,-0.11715469,-0.07600219,-0.059714742,-0.10821332,-0.097397394,0.031979486,-0.014333869,0.0640663,-0.031531315,0.13569295,-0.12715721,-0.050287515,-0.095255196,-0.1170846,-0.0913734,0.052076112,-0.08745369,0.029217713,-0.05383897,0.04418379,0.022886293,-0.11094419,0.026376681,-0.081702255,-0.12069105,0.12079965,0.10434461,0.121540025,0.0800344,-0.07429876,-0.05369681,-0.09057827,0.07169047,0.02051423,0.07286268,-0.088268645,-0.1285101,0.10431511,-0.060425207,-0.014810594,-0.015962511,-0.026198115,-0.11270715,-0.03585268,-0.07930967,-0.12325699,-0.016436612,-0.05096321,-0.14112957,-0.12941472,-0.13041969,-0.015294409,0.06612646,-0.08680822,0.14734195,-0.084551,0.13057855,-0.011729591,0.007179146,-0.0017636435,0.030914865,0.13106826,0.13465513,0.113366805,-0.045114156,-0.07370785,0.08968691,-0.11027355,0.080629185,0.14017308,-0.12500432,-0.077089034,0.02788224,0.06597544,-0.024490211,-0.01763741,0.099126086,0.057036016},
	{0.035877444,-0.069962986,-0.016621795,-0.034661483,0.026492855,-0.123085715,-0.08421006,0.13247699,0.10516543,0.13264583,-0.01850294,-0.0964645,0.048507925,-0.123570666,-0.11215051,0.03126218,0.065154,0.12711835,0.02779646,-0.06854768,0.06568801,-0.13535662,-0.02811396,0.061747044,0.0014328643,-0.09230457,0.10199517,0.08999732,0.019623416,0.047400676,0.03997829,-0.05392051,0.14066912,-0.10511378,-0.032577634,-0.0995289,0.043869052,0.06185434,0.094616905,-0.10994265,0.09315033,-0.0890067,0.12896232,0.06148389,-0.036561437,0.13988739,0.14059001,-0.10637181,0.121748105,-0.059519652,0.076533705,-0.046458818,-0.06816714,-0.080643594,0.0024706584,-0.011272573,-0.065502904,-0.12192222,-0.12285621,-0.061506957,-0.032093927,-0.078371145,0.030104091,0.018253144,-0.049159136,-0.005070177,0.045004137,0.115499526,0.07164837,-0.092644334,0.11426746,-0.12504934,0.043865565,0.09118913,0.08967014,-0.007053692,-0.040048014,-0.043230858,-0.012996648,0.0007829026,-0.13368574,-0.008914914,-0.12761733,0.09592505,0.0064406767,-0.028311633,-0.06672235,-0.0814295,-0.08935581,0.08775859,-0.052582517,0.07569161,-0.06799046,0.11527446,0.100603014,0.051409468,-0.084996425,-0.101225354,0.0948989,-0.12814483,0.096418396,0.0056250705,-0.10954022,-0.09441649,-0.061928913,0.008880134,0.027849127,0.04044243,0.059649244,0.10493349,0.11228921,-0.018992368,0.014022222,0.019350477,-0.058194347,0.021338215,-0.055914126,-0.008576475,0.13927287,0.03340808,0.06764238,0.12624286,0.027369358,-0.04266675,-0.015520927,-0.05766019,0.12740189,0.11213923,-0.079828344,0.018327339,-0.10684265,-0.07866205,0.011832856,-0.048603978,0.1047023,-0.09205873,-0.091344535,0.09504066,-0.12250693,-0.006171421,0.10211283,0.13003168,-0.11367958,-0.022941466,0.048810694,-0.014739903,-0.12486511,0.1179843,0.024515493,-0.14221376,0.06229194,0.07301543,0.035763912,-0.024002824,-0.038550407,-0.022410855,0.11301251,-0.107250765,0.049778033,0.07590951,-0.028321072,0.1324538,-0.06923146,-0.12646294,0.02612732,-0.051729046,-0.049443793,0.03609172,0.123313054,0.07140851,-0.08825173,-0.067766584,0.08569894,0.12843648,-0.0837543,-0.0811355,0.008689845,0.1196736,0.045358863,-0.0863587,-0.05931534,-0.042241946,0.028862562,0.04518436,-0.13687398,0.100438714,-0.07646574,0.022628866,0.05481188,0.060238328,-0.119091615,0.033376116,-0.092464104,0.036387708,-0.14991176,0.058256052,0.029862124,0.06725921,-0.07225467,0.063687,-0.056543477,0.061644334,0.046092242,-0.07269019,-0.024806134,-0.095741585,-0.07655637,0.00855606,-0.06139446,-0.09455177,0.021383362,0.13008915,0.071288675,-0.02025203,0.087998085,-0.10700914,0.12985688,0.10041215,-0.10218854,-0.120853424,0.04857795,-0.03170546,-0.06349964,0.015557768,-0.10643601,-0.020216433,-0.036355045,0.101041205,-0.054099735,-0.0023263015,0.06265939,-0.09943249,-0.035084452,-0.114498675,-0.123427145,0.08603675,-0.12107227,0.058147203,-0.084580734,0.0083863465,0.028038153,0.11798714,-0.13924594,-0.023494432,-0.019017715,0.12843579,0.13615203,-0.06795049,-0.122078866,0.1267152,-0.12593265,0.09085541,0.12359168,0.05706178,0.005803033,0.050804824,-0.109048344,-0.09053,0.07711976,0.012523421,-0.09221131,0.13000104,0.019073196,0.054756932,0.10678128,-0.05382413,0.13125592,-0.11315129,0.109339826,-0.071002826,0.06021402,-0.013284457,0.075396426,-0.019688973,-0.0423113,0.13108627,-0.10093904,0.0062955813,-0.08015303,0.031151103,0.12781063,0.030638868,0.059341956,0.05525068,-0.09655526,0.029365245,0.13067105,-0.028967313,0.13258745,0.09611822,-0.06786241,-0.08272481,-0.096874624,-0.06661148,0.088006385,0.07673783,-0.11446892},
	{0.04676353,0.023137802,0.0018602047,0.07615758,-0.005841382,0.05237485,-0.090476185,0.105964765,0.08606726,0.104962245,-0.0016032516,0.097352855,0.056240633,0.1258287,0.06240182,-0.029542588,-0.034969732,-0.013569653,-0.10196914,-0.0020902143,-0.122206986,-0.11473057,-0.1180421,0.10819152,0.12252982,-0.05616707,0.12015421,-0.10238061,-0.01932961,0.093779385,0.043730855,0.09604111,-0.1278252,-0.11338059,-0.020786077,-0.04767658,-0.039564162,-0.09177233,0.013624301,-0.09311601,-0.0026400923,-0.08347965,-0.088768564,0.057259914,0.1159847,0.026849356,0.043168385,-0.0528941,-0.0293385,0.0907652,0.03464821,-0.08778753,0.008039082,0.020349158,0.085454166,0.005092805,0.11646957,-0.011291541,0.034796163,-0.042530455,-0.056939848,0.0050214576,-0.10868611,-0.0003588068,0.043529905,0.06220365,-0.08701128,0.06463655,-0.01106573,0.08077574,-0.09519947,-0.13794973,0.10826295,0.01225218,0.005356751,0.10108854,-0.04239465,0.11286876,0.016102342,-0.0786556,0.07944379,0.10148216,-0.08047365,-0.07410982,0.02143562,-0.021941291,-0.0846532,0.027472757,-0.04879001,-0.056742094,0.11978289,0.13283603,0.09367201,0.025223255,0.11399135,0.017559519,-0.113301374,-0.10931975,-0.026656935,0.0016984319,-0.01088223,-0.031224372,0.12658349,0.12491263,0.0540529,-0.008241596,-0.038789634,0.10023008,0.057031523,0.09889063,-0.1025073,-0.102003016,-0.100808255,-0.09212408,-0.032687675,0.116039634,-0.11141544,0.095479056,-0.08860134,0.023740247,0.04205007,-0.0025303112,-0.13179505,0.047735244,-0.1140293,-0.026137209,-0.079153925,0.08409643,-0.013215373,-0.063284464,0.106177606,-0.018232029,-0.08730455,-0.092254944,-0.030615903,-0.1004701,0.109825194,0.019770151,-0.0049663293,0.043999422,-0.020644408,0.13183625,-0.116779424,-0.070860036,0.124715835,-0.11944536,0.056732472,-0.06032144,-0.020676702,0.08173577,-0.09672932,0.012414485,0.13642806,-0.072587274,-0.1251687,-0.06617071,-0.06562249,-0.058798052,0.09680853,-0.10718815,0.124877736,-0.06405612,0.06199595,-0.028095726,0.04347368,-0.14115909,0.020529125,0.07570127,0.07920432,-0.13779981,-0.119594105,0.10937188,0.06932931,0.050996505,-0.033415016,-0.09238555,0.1369687,-0.14027643,-0.022340242,-0.08090378,0.13292806,-0.10162366,0.0069742873,0.11783437,0.020948036,0.032708883,0.12755007,-0.13595401,-0.09251227,0.012097004,-0.1178389,-0.051682293,0.11828405,0.0236883,-0.048949696,-0.013058271,-0.075844444,-0.06232007,0.104798555,-0.08121726,0.122498825,-0.085094616,-0.12820484,-0.0622232,-0.042592607,0.04318438,0.0065724957,0.06581945,0.12231393,-0.014503292,-0.018587857,0.06557865,-0.05659989,0.11893897,-0.07589405,0.13498169,-0.051319364,-0.017957242,0.048318718,-0.057505123,-0.124420926,0.0018903634,0.007361471,-0.0652954,-0.116667636,0.009105032,0.01992293,0.0075127087,0.04540047,0.102378674,-0.036279276,-0.10223211,0.104594946,0.048816882,0.029542813,-0.13031918,-0.13724013,0.12643018,-0.03392314,-0.0058524143,-0.062344413,-0.09841793,0.001653807,0.03283192,0.061981507,-0.004967642,-0.06877395,0.03268777,0.13277836,-0.060705047,0.1063118,0.044992816,0.0936757,0.050738078,0.061569206,-0.10508122,0.10207845,-0.10969688,-0.042630572,-0.082276076,-0.09575247,0.10786617,-0.10013849,0.09807008,-0.0142963,-0.011431322,-0.075127535,0.019826097,-0.117081314,-0.034745224,-0.020666927,-0.021452041,0.002691251,0.10512717,0.0911625,-0.10483704,0.01183779,0.0063242856,0.033667147,0.021352962,-0.069056906,0.036835596,-0.07915873,0.11235699,0.09218207,-0.03721412,0.10940196,-0.047853753,-0.009468945,0.06794477,0.049056638,0.10286079,0.013756732,0.040037125,-0.055223435,-0.06452938,-0.0070302295},
	{-0.07055311,-0.12865533,0.028550731,-0.004169654,0.117898785,0.059670426,0.08857925,0.07927866,0.12200698,-0.09812779,-0.10254234,-0.002178799,0.055243243,-0.07580957,-0.11999503,-0.06413281,-0.026885632,-0.12701076,0.095893845,0.0008169282,-0.025865644,-0.04027656,-0.02396089,0.11342054,-0.0024873302,0.13585882,0.12395134,-0.13029273,0.08302282,0.0042649875,0.07136947,0.10094385,0.0953585,0.051277824,-0.011975597,0.13007401,-0.08066042,-0.08186398,-0.056601148,-0.098297454,-0.045796975,-0.058119066,0.05759605,0.07460268,-0.10721175,-0.017344799,-0.038631268,-0.09725614,0.07258012,-0.022724345,-0.0740238,-0.014967325,0.012485068,0.04544453,-0.0049948064,0.02581617,0.13503931,-0.049114782,-0.022771068,0.1375718,0.099882744,-0.062041756,-0.116632,0.07396612,-0.09897252,-0.12398303,0.13341893,0.063179374,0.07286537,0.07291325,-0.04894773,0.053673193,-0.06914238,-0.055430356,0.08665976,-0.10177902,-0.04551986,-0.0044176998,0.02447465,-0.0014192178,-0.12281676,0.061930764,0.08570726,0.047323085,0.13215499,0.034987852,-0.08914432,0.1380247,-0.02029314,-0.09036825,-0.107276745,0.059088703,0.047496054,0.12695019,-0.008197071,-0.03423565,-0.11525642,0.0899439,0.04773766,-0.08346316,0.09703172,0.08440409,-0.04015203,-0.03351393,0.03468929,-0.029138707,-0.108776115,0.13830559,0.060116533,-0.1358823,0.13314553,-0.06798322,-0.13632669,-0.10881508,-0.012384746,0.06155921,0.056948688,-0.07161239,-0.09842477,0.056431435,-0.048282813,-0.07854609,-0.11078729,0.0948167,-0.0046632127,0.05214319,0.014218567,-0.108139955,0.043784637,0.0034538908,0.026223188,0.13211796,-0.06747262,-0.099738725,0.07661872,0.02170269,0.064212404,0.05324273,-0.13432209,0.11267127,-0.06506768,0.023383455,-0.051919244,-0.0147163225,-0.09835346,0.04954376,0.060008027,0.012764566,0.119703695,-0.05506645,0.09973089,0.06846651,0.11799092,0.035775136,0.12417203,-0.12074545,-0.115699336,-0.0032472354,0.0032709576,0.029272148,-0.023869928,-0.087162875,0.013911715,0.013886341,-0.059034236,-0.007023165,0.019925121,0.012346112,-0.028707694,-0.12588459,-0.04852648,-0.017820418,0.009214074,0.04755682,0.055298645,0.07545005,-0.081980355,-0.013826438,0.009084746,0.06432279,0.09242607,0.0036791193,-0.106465705,-0.038743407,0.14206178,-0.12678562,-0.025810115,-0.12201409,-0.022465836,-0.034073833,-0.08210426,-0.019491555,0.10479529,-0.04605011,0.100911,0.024883151,0.087077826,0.093377024,-0.11108641,0.11245165,-0.0443176,0.017982006,-0.06258232,-0.0024796366,0.0053774947,-0.014691172,0.07448934,0.117574945,0.13573359,-0.08023866,0.09745363,-0.11664958,0.07051108,-0.027503895,-0.024131164,-0.0865556,-0.09874406,0.12376257,-0.0009345347,0.10076716,-0.0012130563,-0.064409606,-0.038604677,-0.085123286,0.12161059,0.13240114,0.11556026,-0.10343381,-0.09938489,0.046404354,-0.0030789878,-0.030108213,0.016860973,-0.05374455,0.11668651,-0.0034570186,0.0064834226,-0.11238696,0.0027213427,-0.11729299,-0.016384281,-0.0061583472,-0.12609291,0.02817495,-0.06048187,-0.11080945,0.11446551,0.005067123,-0.0865477,-0.032987077,-0.13246793,0.07819377,0.06305708,-0.12822625,0.0057116924,0.031763386,0.02163469,0.0092730345,0.002871437,0.0742131,0.045663517,0.07550515,0.13086383,0.12255196,-0.016515126,-0.072679155,-0.042646434,-0.08718605,-0.06879492,-0.11778611,0.069125,-0.113771,-0.114328556,0.13061161,-0.1377886,0.0072613508,0.10342647,0.09456777,-0.0897012,0.023427837,-0.008294373,-0.042394616,0.11792017,0.000864042,-0.12442126,-0.011041276,0.07010996,0.054740828,-0.06461327,0.00938114,0.057359017,-0.10364072,0.13566524,0.081607774,-0.08835194,0.07624305,-0.050286185},
	{0.09460602,0.040206116,0.09494717,0.094985396,0.018421907,-0.12978968,-0.094123945,-0.11732112,0.066875495,-0.074103005,-0.06204939,-0.13234653,0.120546974,0.08496058,0.035132617,-0.056672577,-0.012316899,0.08690408,0.016078455,-0.042156164,-0.06673788,-0.016085181,-0.07448535,0.045920663,-0.07972355,-0.029018689,0.1066591,-0.11902722,-0.10891043,0.052997563,-0.09486049,0.12479026,0.033795565,0.05290339,-0.06805245,2.3395492e-05,-0.036904696,-0.060699224,0.07617578,0.115735486,0.02419464,0.02332874,-0.046774544,0.03658341,-0.09033195,-0.031579535,0.08800139,0.05550673,-0.08027319,0.07471378,-0.09823573,-0.089338556,-0.11532121,-0.07040039,-0.016338928,-0.026458532,-0.0057507483,-0.023652462,-0.06915509,0.029465424,0.022249157,-0.11282996,0.033573322,-0.065796964,-0.011863232,0.11870374,0.11031727,-0.061658334,-0.08102947,-0.07226703,-0.060569756,0.09964965,0.015041906,-0.065641284,0.07188382,0.034017745,-0.016322836,-0.03273116,0.028827395,0.006418768,-0.017585084,-0.09825603,-0.053525858,0.018394336,-0.029536352,0.08875027,0.068151824,-0.049528833,0.02278426,-0.105098955,-0.09457593,0.01770455,0.06610741,-0.0018387544,0.12496255,0.052123267,-0.083616585,-0.13120803,0.12298939,0.092833936,0.018767063,0.051212244,0.06226821,-0.007980558,-0.042945527,-0.118353255,0.013051872,-0.06890106,-0.11211945,-0.11175645,-0.051229104,0.11687538,0.02654748,-0.013397577,0.029759511,-0.12337707,-0.12669541,0.03648284,0.0935381,0.09489828,0.10164086,-0.07013688,-0.1053649,0.009722333,0.033632576,-0.114713475,-0.0699646,-0.02509612,-0.08309945,0.043305423,-0.017955892,0.04418123,0.11844146,0.0040583084,0.11185739,-0.13547929,-0.060195945,-0.109845154,-0.048838418,-0.13185634,-0.024478797,0.05393041,0.08224971,0.09059985,-0.093965665,0.009473741,0.032606393,-0.07684216,0.06156328,-0.124729775,-0.001018533,0.07462867,-0.034837782,0.010510597,-0.0051553054,0.106356055,0.025465088,-0.0031510668,-0.021255791,0.121424995,0.039293796,0.085380144,0.091267034,0.009973045,-0.10026366,0.08200307,-0.062425792,0.088979304,-0.09541044,0.13134329,0.10596451,-0.024270164,0.058105335,-0.08933209,-0.0121759875,-0.094660036,0.045504343,0.058371037,-0.036227044,-0.089700215,-0.025162129,0.123084895,0.07798398,0.028760636,0.019782625,0.078568086,-0.11736971,0.12081148,-0.10221452,0.0017348687,0.10967372,-0.07343566,-0.056479044,-0.11514599,0.101661734,-0.13434806,0.13519092,0.083731286,0.11399667,0.022176662,-0.08108468,0.09830623,0.107796706,-0.047319386,-0.12667768,-0.040418107,0.087256365,-0.031460732,0.023265867,0.13557015,0.022414418,0.06042251,-0.098765135,0.087404296,-0.039775304,0.050806936,0.026314221,-0.06036542,0.11859878,-0.07219237,0.04938172,0.07063075,0.004501354,0.04951695,-0.058672264,0.03631534,0.10128266,0.042978298,0.12670924,0.022273274,0.07197878,0.08447618,0.135265,0.019278424,-0.11585223,-0.09070584,0.016855238,-0.07648275,0.10578428,0.044895485,-0.07498995,0.08406087,0.048841104,0.07832763,0.063124046,-0.033198185,-0.049505003,0.07650706,-0.13017365,0.08650683,0.11210901,0.120933056,-0.121428154,0.08474509,-0.014004395,0.017437648,-0.089315124,0.10437841,-0.040529326,-0.004856825,-0.014158676,0.0013830427,0.021119839,0.0053573027,0.030570142,0.10794892,0.13416868,-0.054243714,-0.11665728,-0.01901086,-0.06620044,0.0907129,0.003104134,0.12833641,0.11976206,-0.08741592,0.122393325,0.13653705,-0.010361447,-0.12975906,0.10102848,0.0008619635,-0.02800312,-0.06473024,-0.03520727,-0.09680961,-0.10501911,-0.06996215,0.13258035,0.059496067,-0.09303744,0.018444711,0.041643508,0.1021808,-0.039696444,0.07349898,0.04128226	}
};