// include/conv2d_3988_weight.h
// sergio rivera 
// 2020/02/15 04:12:02 

const float conv2d_3988_weight_p[3][3][8][4]=
{
	{
		{
			{0.22736673,0.07775214,0.22416307,-0.116077624},
			{-0.03474611,0.23175399,0.17532106,0.24253042},
			{-0.17691118,-0.20822845,-0.20001465,0.18644455},
			{-0.077004835,-0.104287066,0.23712192,-0.052495636},
			{0.12082671,-0.09339464,0.180248,0.20464858},
			{-0.18950343,-0.14334393,-0.23324697,-0.18092969},
			{0.06591683,0.14514713,-0.045408964,0.09795384},
			{-0.117092356,0.20373034,0.08055668,0.0066603017}
},
			{{-0.12773262,-0.008561705,-0.029871503,-0.10805324},
			{-0.23905508,-0.22367568,-0.13186747,-0.19097082},
			{-0.07873492,-0.08755514,0.0061484417,0.18790303},
			{-0.0009306842,0.036482666,0.047289588,-0.17944762},
			{-0.12251603,0.04138827,-0.108198114,0.13314997},
			{-0.20702282,0.11485783,0.020565284,-0.20964183},
			{0.0033369816,-0.16919869,-0.11984754,0.17587215},
			{-0.122863635,0.123821944,0.032451857,0.14296484}
},
			{{-0.10085953,0.03456068,0.0231464,0.11527426},
			{-0.16555539,-0.20133014,-0.065229505,0.06829635},
			{0.153645,-0.19567299,-0.21162017,-0.045348607},
			{-0.038626358,0.07436579,0.22879936,0.051238023},
			{0.17573228,0.14988424,0.21756814,0.057435505},
			{0.047059122,0.21862125,-0.21853463,-0.06329879},
			{-0.0985763,-0.17552891,-0.03005709,-0.2109562},
			{-0.17127372,-0.13632707,-0.08480642,-0.042670365}
}
},
			{{{0.14838538,0.053953566,0.11936004,-0.15892516},
			{0.11766844,-0.129139,0.0008194174,-0.14674853},
			{-0.09070968,-0.13634925,-0.21361308,0.0768584},
			{0.17973247,-0.087403856,0.07754811,-0.07972512},
			{0.175402,-0.1969649,-0.19067618,0.1936521},
			{-0.029134532,0.027189678,0.09633734,0.21181282},
			{0.056156047,0.17099832,0.029726408,-0.010528533},
			{-0.031361688,-0.19782226,-0.013646515,-0.14435287}
},
			{{-0.14179476,0.23241936,-0.18608625,-0.1351722},
			{-0.17521377,-0.1151941,0.07291899,-0.045369163},
			{0.13461138,-0.18997777,-0.18046436,-0.093618296},
			{-0.07121043,0.08334983,-0.16223569,-0.21208647},
			{-0.17099321,-0.11633763,-0.124491565,-0.015352557},
			{-0.020810088,-0.19094847,-0.021994544,-0.21206158},
			{-0.048934236,-0.035190653,-0.19996403,-0.18625128},
			{-0.14647172,0.010309052,-0.09671957,0.22479288}
},
			{{0.14335613,-0.1861226,0.015913319,0.027820986},
			{0.114775345,0.18827438,-0.076977685,0.05027605},
			{-0.033447858,0.062352527,0.16535239,0.18065909},
			{-0.2097479,0.1938625,-0.043225918,0.11620803},
			{0.054676898,-0.022875393,-0.13747391,-0.1870172},
			{-0.22083887,-0.039572828,0.06470063,-0.099959224},
			{0.048534233,-0.022371998,0.2018246,0.1168775},
			{0.066607,0.093006305,-0.17272162,-0.16362734}
}
},
			{{{0.12615694,-0.017554535,-0.03321202,-0.21719456},
			{0.11837487,0.03414357,0.15731622,-0.09902736},
			{-0.18678172,0.20655711,-0.208638,-0.07218007},
			{-0.04622318,0.013927343,-0.23557054,-0.16103575},
			{-0.21590523,0.1913434,-0.07598075,-0.22326794},
			{-0.10016595,0.15733159,0.07744618,-0.21574552},
			{-0.17894107,-0.07425868,-0.21308178,0.03134668},
			{-0.1448915,0.10322028,-0.17063749,-0.19978046}
},
			{{0.1476072,-0.1069523,0.0024345568,0.18605255},
			{0.045004025,-0.102659784,0.17064942,0.2034557},
			{-0.068838395,0.032303695,-0.017568558,0.18998013},
			{0.1446667,-0.12705453,-0.113054104,-0.051076896},
			{0.011233441,-0.13870575,-0.10207653,-0.1684874},
			{0.14573894,-0.15739559,-0.08714741,-0.16249922},
			{0.063610405,0.04339604,-0.19940728,0.053739075},
			{0.0750747,0.11367073,-0.021200389,0.24400105}
},
			{{0.1952237,-0.12166479,-0.10683012,0.2113197},
			{-0.17212231,0.0007353448,-0.14908335,0.07785818},
			{0.045678947,0.085786864,0.054522857,-0.056601904},
			{-0.17022718,-0.062187143,-0.16857459,0.19136114},
			{0.03721247,0.05844427,0.048736468,-0.09868392},
			{0.03794629,0.18370828,-0.03904244,0.2431053},
			{0.14367786,-0.21184236,0.021183556,-0.029081043},
			{0.16186905,-0.1810871,0.13295689,-0.006249698			}
		}
	}
};