// include/conv2d_3681_weight.h
// sergio rivera 
// 2020/02/15 03:40:16 

const float conv2d_3681_weight_p[3][3][6][4]=
{
	{
		{
			{-0.14863285,-0.029927462,0.25294626,-0.041139722},
			{-0.25394377,0.24138191,0.009589255,0.035196155},
			{0.181063,-0.19401187,-0.10339273,-0.052640464},
			{0.01930362,-0.16585022,-0.19849902,-0.19332913},
			{-0.22889248,-0.056474485,0.08643459,-0.18662006},
			{0.20017658,-0.09113556,0.2386202,0.24810836}
},
			{{0.020285666,-0.02563321,0.16821781,-0.16141167},
			{0.20830742,-0.07632289,-0.079231635,-0.16022019},
			{-0.021958247,0.13648087,0.2396719,-0.06543003},
			{0.113001585,0.103333324,-0.08767691,-0.090295225},
			{-0.11821345,-0.1055857,-0.10012483,0.06999648},
			{0.029879423,-0.23878822,-0.08586731,-0.2386074}
},
			{{-0.056092635,0.09713768,0.08227501,0.17759901},
			{-0.17261153,0.16161285,-0.022014454,0.16846207},
			{-0.09253989,0.16160622,-0.068777144,0.09790379},
			{-0.1985733,-0.007736653,-0.12494399,-0.21821746},
			{-0.2570951,0.045166,0.10018234,0.09853397},
			{0.1980744,-0.16632107,-0.16174388,0.021359844}
}
},
			{{{-0.15732375,-0.031082971,-0.014368773,0.06290226},
			{-0.18964043,-0.23483777,-0.1242622,0.086893335},
			{-0.1449388,0.049992535,-0.13369586,-0.05531673},
			{0.01813379,0.097765446,0.2259489,-0.055414125},
			{-0.14098327,-0.14560013,-0.031260207,-0.19573504},
			{-0.23257095,0.2104242,-0.22775276,-0.20753986}
},
			{{-0.17586397,-0.02617062,0.0039032968,0.22597206},
			{0.1657059,-0.10299124,0.19625373,0.13008747},
			{0.23421964,-0.18076432,0.10919549,-0.15599449},
			{0.082971305,0.0470815,0.09352603,0.021366358},
			{-0.18793944,-0.07237584,-0.0027990039,-0.015818778},
			{-0.23612177,0.06509875,-0.23541127,-0.0057019177}
},
			{{0.08788382,0.19025667,-0.025145758,-0.18149832},
			{0.009187669,-0.18523537,0.08540111,-0.19174844},
			{0.14020456,0.007927597,0.15086885,-0.1491105},
			{-0.1669413,0.023581326,-0.14934304,-0.15325019},
			{-0.21398377,-0.014562632,-0.10455373,-0.0009955935},
			{0.0002942349,0.13075982,0.08843362,-0.18959634}
}
},
			{{{-0.108816534,-0.012448907,0.13654636,0.0448882},
			{-0.013769417,-0.19163395,-0.0026196742,0.23441894},
			{-0.10351579,0.071821466,0.14091137,-0.24932435},
			{-0.16547933,0.08277348,0.09807053,-0.18361023},
			{0.1986841,0.23657921,0.15147838,-0.16182923},
			{-0.091334514,0.06429226,0.10631599,0.044603284}
},
			{{-0.20962346,0.109951496,0.24639338,-0.08100018},
			{-0.18186286,-0.18808502,0.04834061,0.17546767},
			{-0.0550529,-0.18085507,-0.08546484,0.0048503876},
			{0.16463074,-0.10993458,0.011431336,0.11570719},
			{0.23141222,-0.22518246,0.15598674,-0.218519},
			{-0.07573378,0.011006138,0.2205442,-0.035440955}
},
			{{0.062048614,0.08076518,-0.026079077,0.23562087},
			{-0.07473508,-0.03379497,0.15830743,-0.027927235},
			{-0.050866604,0.2477249,0.13263561,-0.16683418},
			{0.150199,-0.1819871,-0.0016315946,-0.12461318},
			{0.067337744,-0.23076957,-0.002039656,-0.071434736},
			{0.027438773,0.120857276,-0.09593863,-0.011780544			}
		}
	}
};