// include/conv2d_233_weight.h
// sergio rivera 
// 2020/02/14 11:42:50 

const float conv2d_233_weight_p[3][3][4][8]=
{
	{
		{
			{0.12375484,-0.18963273,0.186111,-0.11260135,-0.06915799,0.01867862,0.18714072,-0.21544166},
			{0.103802174,0.02873052,0.13077144,-0.028142724,0.16272946,-0.124810666,-0.11411208,-0.13271211},
			{0.07537821,0.046320006,-0.19942063,-0.06682669,-0.08425425,0.1241307,0.19371323,0.11262538},
			{-0.065517314,0.081963226,0.1365255,-0.11408561,-0.09727223,0.11258544,-0.18124981,0.12317067}
},
			{{-0.063255325,-0.23579036,0.05246381,0.03709619,-0.051899362,0.08499471,0.15902898,0.23362578},
			{0.2049079,-0.0696941,-0.17226814,-0.07589839,-0.052848145,-0.13274777,0.20750917,-0.07572838},
			{-0.08607083,0.06238634,-0.0009899663,-0.129715,-0.09127312,0.10396506,0.03775918,-0.20890135},
			{0.22075428,-0.024933513,0.20489532,0.15262271,-0.116682366,-0.22229266,0.024812011,-0.20432363}
},
			{{0.19448726,-0.1592941,-0.21330309,0.12945352,0.18642457,0.06177927,-0.08374375,0.043383967},
			{-0.12502553,-0.067778885,0.027273018,-0.12746803,0.14957625,0.046189126,-0.010056859,0.22176147},
			{0.12432717,0.06261203,0.089321636,-0.042094648,0.08844469,-0.040331975,-0.17502414,0.003609521},
			{0.14289232,-0.19898967,0.18415911,0.14672077,0.0068448205,-0.011861695,-0.002732122,-0.12870005}
}
},
			{{{-0.107771255,0.06899784,-0.2094817,0.051502053,0.12105375,-0.028513629,-0.112889715,0.060948685},
			{-0.17417988,-0.14588153,-0.13316491,0.18457882,-0.019817485,0.025529707,0.09409687,-0.23421492},
			{-0.16863035,-0.040808257,-0.04884789,-0.042978987,-0.16969462,-0.19165197,0.033910874,-0.061098915},
			{-0.18877125,-0.08443709,-0.02111019,0.037232272,0.1708172,-0.15962087,0.008255483,-0.0077351877}
},
			{{0.20510411,-0.14061828,-0.1357893,-0.0355388,0.17794307,-0.12333773,0.15741391,-0.108336},
			{-0.07729845,0.2153903,-0.12132245,0.20336269,0.13433948,-0.08567871,-0.11072479,0.22515768},
			{0.078922786,-0.18887511,-0.13202076,0.15103252,-0.20177779,0.19012623,0.16088058,-0.0058759777},
			{-0.22508207,-0.22507723,0.20728572,-0.21379033,0.22418757,-0.1941303,0.19256777,-0.029876232}
},
			{{0.13102505,0.19792847,0.1195873,-0.008558055,-0.09370764,-0.12922984,0.1354152,-0.06797642},
			{-0.1394038,-0.020842481,0.06372033,0.12426449,0.076758474,-0.07308242,-0.014465599,0.20382454},
			{0.17866021,0.075332634,0.062133145,-0.038008768,0.10746883,0.03447997,0.22319508,-0.13343453},
			{0.1309439,-0.043030266,0.1355571,-0.0073506245,-0.012364052,0.0993721,0.03214879,0.11100244}
}
},
			{{{0.06135557,-0.025873793,0.11044294,-0.17661132,-0.053355873,-0.00016931003,-0.15339382,0.10193956},
			{0.07492962,0.062101983,0.20482945,-0.01734657,0.07351552,-0.18955068,0.11391622,-0.14377812},
			{-0.090705946,-0.08942966,0.09337678,0.0005040133,0.073919974,-0.18852545,0.13979772,-0.094103456},
			{0.09137316,0.06353367,-0.05018331,0.21567392,-0.19618107,-0.05845143,-0.07287309,-0.024218703}
},
			{{0.13465673,0.08722708,-0.17930919,-0.06479638,-0.017398657,-0.12516719,-0.12955335,0.069270946},
			{0.096698314,0.033103514,-0.17668495,-0.078849696,0.06872539,0.112571225,0.16626933,0.051338233},
			{0.09686854,0.18739247,-0.022118771,-0.23304363,-0.12316173,-0.21429548,0.08567393,-0.20167406},
			{-0.11420449,0.087841325,0.14483355,0.012994517,0.05724066,0.17641126,-0.059367184,-0.19476599}
},
			{{0.11960184,-0.18225779,-0.12077293,-0.042421516,0.051265806,0.1053191,-0.005381625,-0.18260555},
			{0.21349671,-0.05163994,-0.02492909,-0.07820995,-0.1792361,-0.10693128,-0.058793772,-0.1942277},
			{0.14444827,0.03919824,-0.1630898,0.03722011,0.088791125,0.10748055,-0.15376596,0.10152094},
			{0.08334902,0.1349985,0.033552665,0.0643512,-0.109949276,0.21818659,-0.16686088,-0.07413363			}
		}
	}
};