// include/conv2d_332_weight.h
// sergio rivera 
// 2020/02/14 23:45:30 

const float conv2d_332_weight_p[3][3][3][4]=
{
	{
		{
			{0.07822546,-0.108205676,0.25300512,-0.14759684},
			{0.03141263,0.23082986,0.3034223,0.1626082},
			{0.28970006,-0.2444528,0.008277923,-0.12000503}
},
			{{-0.111370176,-0.03630501,0.06468123,-0.26123226},
			{-0.15505025,0.026632875,0.01055485,0.07387909},
			{-0.07987559,-0.20680228,0.30714813,-0.16053215}
},
			{{-0.08924805,0.19155142,0.26389906,-0.06790173},
			{-0.24747066,-0.17271394,-0.16872382,-0.059005022},
			{-0.12152536,0.17288965,-0.123049885,0.21263406}
}
},
			{{{-0.075461015,-0.27585468,-0.24510479,-0.17993402},
			{0.2702091,-0.2817312,0.16646829,0.18446222},
			{0.29198208,-0.30514136,0.10581264,0.06195283}
},
			{{0.090482235,-0.087173894,0.21251383,0.011693031},
			{0.23301789,-0.30128023,0.008339286,0.233641},
			{0.20281431,-0.102938995,-0.123520195,-0.004909903}
},
			{{0.238642,0.016814768,-0.07181738,-0.2637425},
			{0.10500085,0.2544447,-0.21467501,0.06557292},
			{0.2960129,-0.0053887367,-0.2578189,-0.14818259}
}
},
			{{{0.11496967,-0.114113525,0.13351277,-0.101900086},
			{-0.016475111,-0.29497433,-0.24912396,0.1405487},
			{-0.07766187,-0.09554586,0.08906883,0.11630651}
},
			{{0.16454196,-0.13025607,-0.2810559,0.08351311},
			{-0.15989812,-0.29312915,0.2915897,-0.2883706},
			{0.06661317,-0.030884624,-0.08257596,-0.20852268}
},
			{{-0.10879563,0.22495851,-0.026166528,0.10473606},
			{0.1812324,0.10348928,-0.0905506,0.22387716},
			{-0.21069276,-0.02720949,0.10140535,0.27614483			}
		}
	}
};