// include/conv2d_2511_weight.h
// sergio rivera 
// 2020/02/15 01:37:35 

const float conv2d_2511_weight_p[3][3][9][4]=
{
	{
		{
			{-0.20833372,0.11354237,0.13522232,0.114801675},
			{0.062139954,-0.07290288,-0.22688659,0.029254997},
			{0.17308982,-0.15863048,0.11460742,0.07229767},
			{0.05498688,-0.10005251,0.04354342,0.092775665},
			{-0.22339424,-0.03635067,0.114768885,0.16904062},
			{0.22436173,-0.049459845,-0.02040924,0.21494588},
			{-0.08177882,-0.15413803,0.15768866,0.07882458},
			{-0.14501977,-0.08498148,0.031452794,0.13629594},
			{-0.025836157,-0.2005641,-0.16948819,-0.2236786}
},
			{{-0.07638881,0.12125005,-0.07946844,0.077581584},
			{0.034122515,0.12954423,-0.13339444,-0.044032924},
			{0.11972872,0.14041245,-0.12444016,0.1791121},
			{-0.16084902,-0.21444428,0.1716509,-0.1343297},
			{-0.1686901,0.038162053,-0.08653122,-0.04272467},
			{-0.043984473,0.097499594,0.00083754514,-0.2138021},
			{-0.032199558,-0.027757248,0.025528753,-0.09134079},
			{0.123132646,0.1454307,0.017059835,0.13820207},
			{-0.21223168,-0.06107348,0.18259382,0.16195573}
},
			{{-0.15008812,-0.030857287,-0.04504175,0.07002473},
			{0.16861153,-0.11544061,0.024634158,0.1426978},
			{0.10852164,0.10039402,-0.18982142,0.16483462},
			{0.033389505,-0.035655897,0.062322773,0.18979608},
			{-0.08746624,0.17269592,-0.03791854,0.20082428},
			{-0.054715663,0.10176606,0.12751196,0.0045516547},
			{0.09638867,-0.0018039788,-0.09031598,-0.07116089},
			{-0.056534953,0.089854285,-0.060649708,0.21061799},
			{0.16109163,-0.015574859,-0.17841941,-0.19916506}
}
},
			{{{0.06570999,-0.15621695,0.17475176,-0.092545584},
			{0.080615886,0.045418087,-0.19533674,0.14266504},
			{0.051402587,0.007471255,0.041013446,-0.12861416},
			{0.1221208,0.2005971,0.094735414,0.018787887},
			{0.06403213,0.1426155,-0.15184888,-0.09191209},
			{0.1056763,0.20851903,-0.18208466,-0.1335703},
			{0.22427732,0.22405928,0.11428062,0.03971569},
			{-0.07525995,0.04457947,0.17449164,-0.13028926},
			{0.018798945,0.011631984,0.032557614,0.10037978}
},
			{{0.059825968,-0.024969095,0.13358998,0.06021771},
			{0.21488081,-0.09036668,-0.15001543,-0.017141286},
			{0.1794436,0.10614578,-0.13761239,-0.053285856},
			{0.020300632,0.09128416,-0.022799712,-0.11778752},
			{-0.06289735,0.039487664,0.19820122,0.070934445},
			{-0.16102839,0.20302534,0.0461921,-0.09240798},
			{0.038328912,-0.19450675,0.11690537,-0.08896369},
			{-0.04340448,-0.15646918,0.2027197,-0.06625766},
			{-0.031572025,-0.19601461,0.005789814,-0.06454481}
},
			{{0.051281195,-0.19232963,0.12637836,-0.20827141},
			{-0.21204615,-0.19887453,-0.007105818,-0.1387398},
			{0.20957002,0.031069845,-0.13736992,-0.0034131594},
			{0.076062836,0.12642051,-0.012635892,0.012654596},
			{0.04797385,0.07613611,-0.22571695,-0.15220666},
			{-0.0290942,-0.10522053,0.04021257,0.073175706},
			{-0.10687726,-0.01880245,0.013035791,0.16599788},
			{-0.17888941,-0.15789583,-0.07547261,0.07696406},
			{0.021889409,0.018217811,-0.01767023,-0.20456739}
}
},
			{{{0.008727845,0.17109254,0.124086395,-0.12867026},
			{-0.069438115,0.07246323,0.1254251,-0.0888606},
			{-0.037078213,0.18784712,0.07977301,-0.05274919},
			{0.1149796,0.08985956,0.104905814,-0.2071059},
			{0.2103418,0.19280453,0.166871,0.18217357},
			{-0.19512175,-0.13000822,-0.13881487,0.18554129},
			{0.12431302,0.03732635,-0.2123422,-0.16831978},
			{0.03331438,-0.13945587,-0.097022735,-0.011523051},
			{-0.040738866,-0.087296315,0.06501095,-0.024768276}
},
			{{0.11079393,0.20534709,-0.19326355,-0.04609567},
			{-0.0029781242,0.0768719,0.20113736,-0.20141415},
			{0.08454913,-0.13644594,0.06749483,-0.11021956},
			{0.08753589,0.09342181,0.15250479,-0.18237936},
			{-0.051218916,-0.19244203,-0.21625096,-0.04395139},
			{0.08727568,-0.0010965562,0.10934853,0.21426606},
			{0.1455412,0.117846206,0.16685621,-0.14774223},
			{0.17408863,-0.03648104,0.034296874,0.14365417},
			{-0.13992438,-0.14887862,-0.15221472,-0.18340984}
},
			{{-0.099188544,0.07875468,-0.10524376,0.009868142},
			{-0.110929064,0.14853865,-0.102610536,0.09701685},
			{-0.031203391,-0.03784658,0.21081387,-0.21840833},
			{-0.059095137,-0.119071774,0.21270917,0.017885074},
			{0.18828149,0.022188725,-0.015772264,0.14201494},
			{-0.11835681,-0.089403614,0.057342265,-0.0041892803},
			{-0.05911269,-0.08276264,0.13342658,0.044832747},
			{0.19139344,-0.22364444,0.107834466,0.03113554},
			{0.096303985,0.111107364,-0.05968089,-0.044019476			}
		}
	}
};