// include/conv2d_2507_weight.h
// sergio rivera 
// 2020/02/15 01:37:34 

const float conv2d_2507_weight_p[3][3][4][4]=
{
	{
		{
			{-0.23052658,0.13478473,0.17139137,-0.09231828},
			{-0.26113862,-0.17355153,-0.15866056,0.16331175},
			{0.10953084,0.01619175,-0.10908912,-0.25946307},
			{0.2502305,0.26898032,-0.18151379,-0.27333072}
},
			{{-0.024840772,0.12158942,-0.25961748,-0.019441336},
			{0.099892594,0.20513046,-0.27878493,0.13332051},
			{-0.12391058,-0.15794602,0.25522876,-0.10373894},
			{-0.2509507,-0.060708843,-0.1404059,-0.28145587}
},
			{{0.08679813,-0.05950977,0.28085935,-0.04638186},
			{0.109247744,-0.028426541,0.2649953,0.019785108},
			{-0.14094989,0.08734005,0.2598492,0.2115066},
			{-0.017555404,0.04015542,0.14077054,0.14059556}
}
},
			{{{0.0032052696,-0.23840332,-0.08229336,0.011734396},
			{0.0073934104,0.10311325,-0.117250346,0.23216416},
			{-0.08784223,-0.26217994,0.09267452,-0.06569442},
			{0.20872656,0.23561816,-0.007182484,0.031309232}
},
			{{0.19166476,0.013272464,-0.15071927,0.049958915},
			{-0.22091407,-0.09137007,-0.02333211,0.10110696},
			{-0.2289564,-0.19560762,-0.25302693,-0.22123262},
			{-0.18039939,0.04154589,-0.103564754,-0.052586086}
},
			{{0.0407739,-0.04299991,-0.21067938,-0.15989055},
			{0.0829092,0.2522726,0.146588,0.10796454},
			{0.15225382,-0.25785008,-0.16339573,-0.085660614},
			{0.22359142,-0.27317366,0.2814551,0.23568922}
}
},
			{{{0.11996761,0.14255312,-0.2551403,0.24627542},
			{0.011364459,0.14511462,-0.22021393,-0.17764014},
			{0.23958115,-0.076196484,-0.13318941,-0.15872526},
			{0.21875061,-0.1729488,-0.16740629,0.039918356}
},
			{{0.038598448,0.2733056,0.27706027,0.07635972},
			{-0.27000502,-0.24190214,-0.26690486,0.14051725},
			{-0.27192193,0.1959048,0.21611798,-0.008115586},
			{-0.046664342,-0.05768737,-0.07234931,-0.0287311}
},
			{{0.08987957,0.14974847,-0.030104965,-0.23985651},
			{0.2150988,-0.03429249,-0.17651245,0.2599784},
			{0.24568385,0.1645147,-0.082920566,-0.019408166},
			{0.0520257,-0.17344192,-0.020439954,0.030083079			}
		}
	}
};