// include/dense_2047_bias.h
// sergio rivera 
// 2020/02/15 01:37:41 

const float dense_2047_bias_p[87]=
{0.002914656,0.0024743804,-0.0029451358,0.0016198378,0.0038534885,0.0061207977,0.007922048,-0.0030530905,0.0068046465,0.005702178,0.0004527931,0.0037431472,0.006873127,0.0025544264,0.0058714678,-0.004217645,0.0009627135,0.0001298507,-0.010270547,-0.0003255995,0.00753648,-0.010476944,0.01318416,0.009453887,0.002398176,-0.003481265,0.008809211,-0.0006182331,-0.009729996,-0.0032687539,-0.011505627,0.0042080316,0.0015343141,0.0017523739,-0.004292648,-0.00047867052,-0.002924194,-0.0015227166,0.006987956,-0.004740583,0.0013023956,-0.012695896,-0.005561162,-0.0021285343,-0.0014577557,0.00038006494,0.005314469,-0.005360026,0.0025659017,-0.014366306,0.0090716975,-0.0039032963,0.0049560363,0.010506958,-0.005382103,-0.0006453756,-0.0041977037,-0.0031424563,0.0010932256,-0.008756762,0.0036466792,0.007317084,0.0032794303,0.0026897418,-0.00022835218,0.009590717,-0.00411031,-0.013679618,-0.006117248,0.00540202,0.0035395264,-0.0016440325,-0.00015961449,0.010543222,-0.0053375456,0.004875819,-0.0076154,-0.0073378747,-0.008256602,-0.0030075582,-0.0021983555,-0.00019692874,0.005597898,-0.0015245734,0.0022739454,0.003246529,0.00463468};