// include/dense_2047_weight.h
// sergio rivera 
// 2020/02/15 01:37:41 

const float dense_2047_weight_p[14][87]=
{
	{-0.15308243,-0.1483203,0.08711042,-0.0064003062,-0.22200668,0.060110744,-0.19801192,0.10204737,-0.20151949,0.091897346,-0.06656335,0.072024085,-0.22551371,0.18131395,0.15050603,0.010079265,0.13945897,-0.00527118,0.027421555,-0.0042644893,-0.17550334,0.09982249,0.23000324,0.029344747,-0.1941908,0.08632785,0.2306248,-0.2380948,0.0588739,-0.13280118,0.2430344,-0.20884474,0.1354187,-0.21701159,0.011529843,-0.02097894,0.03853658,0.05263713,0.115968384,0.13962796,0.035469864,0.1678091,0.10162158,0.23874277,0.16303045,-0.017638704,-0.23679306,-0.15796708,0.09580393,0.11564202,0.16392456,-0.12429316,-0.05996802,0.11679105,-0.2210862,0.060058042,0.13629065,-0.21277364,0.0053293295,0.19856241,0.011989378,-0.05043888,-0.14839722,0.24025202,0.06882338,0.095803596,0.0040394533,0.119742475,0.029739084,-0.11680073,-0.21940582,-0.11299139,-0.066148065,0.19623227,0.19802238,0.012163642,0.21687698,-0.13268442,0.21595249,-0.118949346,-0.070166804,0.05142019,0.0025826502,-0.025547102,-0.07962905,-0.012180612,0.051318184},
	{-0.19624063,0.036531985,0.09062479,0.14796585,-0.14616045,-0.10438594,0.06715771,0.09725058,0.18797356,-0.122778416,-0.19265129,-0.09151056,0.09903386,-0.13778701,-0.18387131,-0.042352468,-0.19985783,0.16804978,0.09410351,0.18539932,0.037737146,-0.0027613281,-0.06614619,-0.11537494,-0.11794468,-0.11764532,-0.12600146,0.1054552,-0.22345318,0.17830619,-0.118049316,0.07049418,-0.0061329803,-0.16737485,0.096761666,-0.017046202,0.19490281,-0.1767504,0.10388882,0.051868606,-0.23730704,0.10967791,0.086772226,-0.046199474,0.11259023,-0.020255951,-0.109819,-0.14031833,0.11937,0.111066334,-0.22973892,0.17479697,-0.106033795,0.18968014,-0.016925836,-0.09100594,-0.1382758,-0.23218624,0.18780048,-0.022587763,0.07489766,-0.061960276,-0.08560431,-0.058819387,-0.08439315,0.024073757,-0.18285075,-0.23503953,0.23339802,-0.031132188,-0.07523081,-0.19845808,-0.22718824,0.24129078,0.13946593,-0.013015123,0.18172258,-0.11430119,0.1669802,0.18445455,0.07588805,0.0819811,-0.19224703,0.24254939,0.14100839,-0.07785295,-0.03863652},
	{0.20161608,0.18037218,0.12460864,-0.04851578,-0.16972132,-0.20166157,-0.10249038,-0.021709986,-0.17174408,0.20671254,0.1298639,-0.0956651,-0.24168825,-0.21616301,0.15409587,0.049224123,0.06968511,0.06838244,-0.1490319,0.11839515,0.22630419,0.124151714,-0.20413452,-0.03827784,-0.1650111,-0.14541003,-0.10334843,-0.07120814,0.19857088,-0.019223101,0.20417145,0.110020794,-0.12934898,-0.07828944,-0.04874601,-0.20911252,0.20932466,-0.12900257,-0.017770512,-0.20564224,0.17313088,0.07002271,-0.04864428,-0.15760238,0.0076998062,0.018833475,0.10218534,-0.078993246,0.14475256,-0.0072959177,0.09378017,-0.12073354,-0.03497209,0.08724579,0.17870396,0.23520608,-0.2340221,-0.0054471176,0.07751144,-0.01319032,0.075128496,-0.088640235,-0.20498101,0.23021916,-0.183657,0.21802709,0.20718677,0.13091086,-0.13168457,0.17324275,-0.06956708,-0.21071102,0.20370309,0.18899089,0.24102847,0.19439806,0.18870206,-0.032373413,0.09464885,0.13832822,0.006269845,-0.075636536,0.19353445,-0.07336363,-0.22326793,-0.12404495,-0.004498262},
	{-0.113786116,0.078042,0.018493883,-0.045591287,-0.054138094,-0.119669266,-0.23481666,0.17332408,0.113208964,-0.018865217,0.11394121,-0.21426937,-0.12814678,-0.15092084,0.23170637,0.18653098,-0.23036195,0.018850481,0.010932092,0.14431159,-0.22445221,-0.17852394,0.03411116,0.16253771,0.15126513,-0.0625639,0.19095884,-0.052956842,0.1641548,-0.22712801,-0.14694479,0.0069598975,0.10176703,0.09815493,0.024251783,0.103773445,-0.16877796,0.12240208,-0.14994605,0.092763744,0.16436441,-0.19731331,-0.2111253,-0.24228786,0.23750438,-0.121833876,0.16665867,-0.23484477,0.1005022,0.2201105,-0.07815723,0.06398482,-0.108917326,-0.09088665,-0.11317476,-0.22592351,0.15594721,0.028635655,-0.1270428,0.17988116,-0.2282147,-0.2316525,-0.22754069,-0.053556368,0.18445107,-0.06797461,0.14976186,-0.1492921,-0.17708798,0.20872483,-0.005845948,-0.08764728,-0.06621057,0.033819728,0.012144023,-0.15439108,-0.1343274,-0.1644515,0.081537634,0.084672995,0.0026794977,0.15236485,-0.09139004,0.100546755,-0.21512447,-0.1943502,0.018703641},
	{0.22699656,0.055780396,-0.24457957,-0.061331436,-0.10990503,0.07970142,0.07469863,0.005875279,-0.026477965,0.1809294,0.12148502,-0.16277792,-0.16397375,-0.2265697,0.066638075,0.017555274,0.0007329195,0.19341008,-0.20082203,-0.013025299,-0.056510698,-0.18748008,0.07271272,-0.14584109,0.13803163,-0.24493706,0.042619925,0.110881716,-0.19879425,-0.045370586,-0.103132114,-0.16244817,-0.024939047,0.09227642,-0.1873031,-0.1073129,0.21010864,0.11590597,-0.16345602,-0.08376735,0.09697,0.16184753,0.11400797,0.028452255,-0.22804438,0.15015863,-0.040568598,-0.07899407,-0.24585587,0.17773624,0.14313096,-0.20262988,-0.03416304,0.17305458,-0.1557538,-0.19981976,0.21698692,0.09303297,0.027370716,0.045422725,-0.2315707,-0.0033225869,-0.07262273,-0.2261771,-0.2135648,0.18320026,0.021943156,0.024090117,-0.17349102,0.16157515,0.10417645,-0.11693397,-0.022616077,-0.13639139,-0.121357605,0.22459336,0.11116403,0.03674897,-0.16667683,-0.24134527,-0.21374895,0.21338151,-0.050747633,0.23348075,0.2431698,0.22099498,-0.13126434},
	{-0.16668454,0.04194798,-0.09566221,0.09873757,0.051482696,-0.066532925,-0.06665215,0.025774058,0.09037063,0.13128637,-0.18116005,0.1912173,-0.048569903,0.09068962,0.023412995,-0.08330099,-0.0046537234,0.16245662,-0.08036355,0.08925859,0.0019788751,0.0080374945,-0.2152685,0.16579367,-0.09510373,-0.14258842,-0.18373348,0.16762608,-0.03869236,-0.18106928,0.048282392,-0.20910618,0.033759713,0.22035612,-0.1946557,-0.057791326,-0.12411313,-0.10278355,-0.020001376,0.013742666,-0.1524404,-0.1383002,0.21774423,-0.20469816,-0.0048961397,-0.18300101,-0.03717173,-0.0841485,-0.17480628,0.111222945,-0.0011609405,-0.18105792,-0.0012886345,0.1284542,-0.098612614,0.15208168,-0.043943875,0.071400315,-0.06535413,-0.047243975,-0.20648733,-0.16385822,-0.110387824,0.039805453,0.068703495,0.12425499,-0.0043099057,0.13610546,0.025685873,-0.24128175,-0.057536196,0.037658516,0.17610767,-0.07542701,0.05873891,-0.13820904,0.081571124,-0.16616674,0.13047855,-0.03810748,0.2280689,0.13537705,-0.21146478,0.07893436,-0.098895796,-0.09635458,-0.05604564},
	{-0.11552515,0.06836195,-0.15434301,0.085402824,-0.059110876,0.04770312,-0.17539653,-0.22799923,0.098341204,0.079493485,0.2065961,0.2441913,0.1497291,-0.13584147,0.10412888,-0.19905627,-0.13173413,0.20641999,0.22960806,0.18854529,0.13885117,-0.14744616,0.21285985,0.14157455,0.10166063,0.10660768,-0.18584463,0.19643752,0.07729282,-0.049340382,0.19425815,-0.050758846,0.18253903,-0.14607595,-0.19701718,-0.24452396,0.08899719,0.025468957,-0.09287724,-0.08092674,-0.08495168,-0.23623843,0.040652446,-0.24155225,0.01640357,0.121165834,-0.096556745,0.13372357,-0.1310474,0.019976983,-0.1936241,0.22286126,0.10757829,-0.04189854,0.08185777,-0.209009,0.04130962,0.14296764,-0.10551289,-0.12671058,-0.09236395,-0.037982203,-0.110705756,-0.19768035,-0.00039156555,0.20867552,-0.19526236,-0.08857787,-0.093330994,0.14043255,0.2328033,0.0092004845,0.07121223,-0.07357084,0.19120212,-0.11075836,-0.21481724,-0.098764196,0.17482728,-0.18647991,0.23057725,0.17096762,-0.04402238,0.068629175,-0.22672531,-0.0705417,0.17316765},
	{0.0057523265,0.20916408,0.1191217,-0.20867395,0.13594782,0.20456332,0.06427824,0.1283933,0.18141054,-0.115150966,0.18558025,-0.19658674,-0.09953641,-0.008546339,-0.2400494,-0.10797881,0.065591834,-0.16413143,-0.06749981,-0.1950053,-0.21871728,-0.013090514,-0.21923141,-0.044698883,-0.15122423,0.16503412,0.087470226,-0.20496827,-0.107364655,0.09404871,-0.11090177,0.041755892,-0.019960605,0.14593366,0.1351824,0.118883505,0.18516803,-0.15465596,-0.006729942,0.077359915,-0.004808374,0.028713452,-0.034554612,0.08114293,-0.07569383,-0.23738806,0.038872615,-0.012247326,0.18227564,-0.08147876,-0.06434193,-0.18751143,-0.013816265,-0.22977705,-0.18626216,-0.015536177,0.055152263,-0.10567131,0.020739034,0.20480134,0.020527326,-0.12069432,0.022638317,-0.16176717,-0.16498858,0.2118798,0.23060638,0.047176454,-0.07110205,0.19625886,0.18688992,0.10309578,0.24963446,0.20275103,0.23815486,-0.022574151,0.19895034,-0.014391163,0.18370768,0.09285205,0.1061151,0.080285735,0.07518496,-0.19296306,0.222505,-0.15030478,-0.20116508},
	{0.20995368,-0.19673637,0.18126479,0.04868621,-0.23269759,-0.08540239,0.14106917,0.0038914708,0.21627063,-0.07902671,-0.1420293,0.22295143,-0.16799866,-0.1225842,-0.008259049,0.2127689,-0.06263578,0.09363053,-0.0011796735,0.23552972,-0.10583624,-0.0048728064,-0.16347155,0.09461516,0.013380293,-0.22395526,-0.020949397,0.24062951,0.1049612,0.16740969,0.1527678,-0.106366344,0.1114907,-0.13468738,-0.21119274,0.11478598,-0.090773895,0.0021397397,0.12518652,0.04353711,-0.026174674,0.08053404,-0.23809123,0.055067096,0.15802778,-0.15804607,0.1578986,0.09890915,-0.077906035,0.22585428,0.19296868,-0.1090329,0.0557865,-0.069593735,0.027989427,-0.16183804,-0.20114511,0.09811757,-0.12718861,0.10475224,-0.035045296,-0.2114285,-0.0625268,-0.027593642,0.14261943,-0.033212684,0.07039427,0.16000712,-0.06549875,0.16673757,0.22866301,0.097617246,0.052040074,0.16670184,-0.20592274,0.007566185,0.16243382,0.23542467,0.19513343,-0.080425695,0.013345661,0.16632916,0.14877802,-0.1116451,-0.015546871,-0.14251302,-0.21593814},
	{-0.23503749,0.12671418,-0.07175242,0.12821266,-0.21755926,0.20826438,0.20653911,-0.11112969,0.1730277,-0.053387757,0.19983575,0.17384304,0.09360991,0.14378357,0.1752149,-0.2135457,-0.14220402,0.22183307,0.017524235,-0.22676879,-0.17694953,-0.077584565,0.09012273,-0.21120736,0.073401764,0.18588619,0.014056723,-0.0020412968,0.17963253,-0.20966043,0.012919811,0.061545912,0.09390944,0.21382537,-0.02497296,-0.057767607,-0.16900218,-0.113215916,0.012998512,-0.09925209,-0.15155058,-0.059781056,-0.21043827,-0.009332953,0.18854126,-0.21488379,-0.14119191,0.1419399,-0.22453547,-0.118280165,0.109673284,0.1470362,-0.05992108,0.13097483,0.1353322,0.022366863,-0.049495064,-0.16890028,-0.11090142,0.024000574,-0.0430202,-0.12746705,-0.0070194458,-0.05023577,0.1617347,-0.045520272,-0.22522278,-0.14135051,-0.17505564,0.20578755,0.07993206,0.0033706243,-0.14494298,0.18134147,-0.08308338,0.09530626,-0.07023173,0.1364994,0.23513353,-0.0074453643,-0.18061234,0.18530482,0.01430713,0.16052827,-0.12454319,0.10257062,0.063761815},
	{0.029149877,-0.21859053,0.029684765,-0.11878188,-0.00105718,-0.08630293,0.10216319,0.18421718,-0.044049826,-0.21109048,-0.017461486,-0.016500095,0.1643473,-0.15092623,0.11668909,0.0738373,0.052365664,0.03056618,0.19889192,-0.2233749,0.12748192,0.04844686,0.20886764,0.1886286,0.13508372,-0.23033102,0.03252938,0.20177662,-0.18106079,0.00016867556,0.06766459,-0.15149163,0.08339905,0.1872453,0.10566493,0.14915094,0.06779668,0.032986958,0.23273385,-0.2214188,0.06108268,-0.18804447,0.21701968,0.20136346,-0.17244923,-0.11372466,0.02122958,0.1324359,0.19219665,-0.21747792,0.1158609,-0.0114747295,0.04499922,-0.066935875,-0.06084081,0.013787982,0.16441457,-0.034969304,-0.23294885,0.069462135,-0.1669294,-0.022801265,-0.08106565,0.03722321,0.23802315,-0.021767015,-0.03349815,0.06264563,-0.13800201,-0.013453233,-0.09426382,-0.23694041,0.18563038,-0.006037174,-0.020008987,0.14062198,0.07634963,0.15446506,-0.0018617874,-0.19239958,0.21004051,0.016662413,-0.092755936,0.07790299,-0.21074982,-0.10406191,0.23412591},
	{0.24005848,2.4106848e-05,0.013316765,-0.20222795,0.12601551,-0.16365519,0.2341007,0.022456817,0.2239394,0.17604943,-0.12614138,-0.20846462,-0.04141794,-0.20854563,-0.22778949,-0.11267164,-0.1840407,0.03138164,0.05563681,-0.23743293,-0.026161937,0.09241304,0.18363579,0.17132087,0.23775695,-0.19514236,-0.22035815,0.20204474,0.06590311,-0.07183439,-0.09974734,0.10483836,-0.10318316,-0.19615963,-0.014516637,-0.16509984,-0.2073,-0.07147515,0.19141266,-0.10433939,-0.12856452,-0.08961631,0.11377878,-0.036952358,0.060249135,0.06928069,0.18133543,0.22518244,0.0052412055,0.14267671,0.0932045,0.080658995,-0.1325775,0.17877209,-0.12098999,-0.11636782,0.12192298,-0.04206859,-0.16908255,0.022363715,0.16630635,-0.13522618,0.20276554,-0.21992493,0.1078477,-0.17649189,0.0062352577,0.14069176,-0.08314724,0.19398241,-0.07621823,0.09338468,0.15209197,0.012570943,-0.21825989,0.058517992,-0.08723287,-0.19532911,-0.1583482,0.12395061,-0.029402666,-0.19864708,0.07485734,0.18999906,0.016744232,-0.123862304,0.22708033},
	{0.21077096,-0.037367333,-0.09865074,-0.03535703,0.21187563,0.012231096,0.028896453,0.18964213,0.17736153,0.19679907,0.20396063,-0.123613685,-0.094248936,0.021985613,0.21942672,-0.23483299,-0.1137184,0.08741208,0.16526933,-0.23048963,0.043294515,-0.23342787,0.21427749,-0.037938554,-0.21211262,-0.025617778,-0.052497182,0.002581145,0.1894002,0.16427584,-0.14849173,-0.0041655647,-0.09115489,-0.045657363,-0.09812076,0.079551786,0.11520024,0.012616835,0.06293381,-0.08900755,0.20668241,-0.13425869,0.06210456,-0.19343494,-0.08238835,0.08085505,0.107937075,-0.122399054,-0.119678654,0.20468113,-0.22244592,-0.07820494,0.032468855,0.12122132,0.05617342,-0.17037919,0.22405235,0.028258879,0.08944797,-0.0061473493,0.1655093,-0.01081542,-0.057093278,0.10031233,0.025162738,0.1594702,-0.20886996,-0.110994235,-0.22238976,-0.18120912,-0.23477083,-0.03085481,0.09269222,0.2276347,-0.20241165,0.24416505,-0.09818115,-0.10460787,0.24369386,-0.12681858,-0.041716523,0.06983017,-0.06795961,0.22974555,-0.08150199,-0.038228143,-0.18676297},
	{-0.0724408,-0.22017032,0.1620657,-0.010557756,0.21624316,-0.022721754,0.14899202,-0.06089086,0.16087961,-0.23713551,-0.1524724,0.20302628,-0.114445314,-0.1451285,0.09477777,0.23403968,0.019338615,-0.105827056,0.12115816,-0.0028623133,0.011400975,0.22413266,-0.17990094,-0.086114615,0.056868598,-0.19239534,0.04752109,-0.15708953,-0.011033834,-0.14679235,0.11810646,-0.0959728,-0.12021452,-0.058584854,0.21238585,0.1418514,0.057115603,0.068598956,-0.017063173,-0.0054509034,0.10914339,0.12681769,0.029286236,0.13009016,0.18172011,0.07130713,0.024489537,-0.17278747,-0.21188885,0.21980083,-0.17544124,-0.08132388,-0.22549735,0.040011294,-0.19528514,0.1417398,-0.001272237,0.17005754,0.20404048,0.18448684,-0.14106603,-0.15292995,-0.1987365,0.13411185,0.080601454,0.16323249,0.13291986,-0.13536741,0.21057367,0.21692611,-0.034351476,-0.19048165,0.21316881,0.055324506,0.05312032,0.053265978,-0.118549,0.058756255,-0.06735177,-0.14532,-0.14495452,0.19731314,0.22444554,0.20582898,0.034839615,-0.23355493,0.14295493	}
};