// include/conv2d_467_weight.h
// sergio rivera 
// 2020/02/15 00:03:19 

const float conv2d_467_weight_p[3][3][16][2]=
{
	{
		{
			{-0.068412244,0.1262153},
			{0.14335075,0.17828359},
			{-0.029408062,-0.085427746},
			{0.15653148,0.03858693},
			{-0.004775902,0.1126741},
			{0.12083132,0.04524672},
			{-0.082537614,0.028710246},
			{0.0789102,0.079953596},
			{-0.040860042,-0.08445698},
			{0.095393315,0.0026215613},
			{0.1458929,-0.12158495},
			{-0.048665848,0.16569127},
			{0.16867968,-0.15406495},
			{0.150651,-0.14399739},
			{-0.029171286,-0.091222666},
			{-0.17995006,0.1663618}
},
			{{-0.1146086,0.022345036},
			{-0.11048187,0.18149038},
			{0.013364573,-0.03031534},
			{0.028816853,-0.18485111},
			{0.14203443,-0.09640317},
			{0.023824027,0.016704872},
			{0.09944584,-0.028621733},
			{-0.0154243745,-0.13613917},
			{-0.1050325,-0.14826971},
			{0.037572518,-0.009209856},
			{0.032492332,-0.1031984},
			{0.18206027,0.07601984},
			{-0.16182944,-0.119701564},
			{-0.013779086,-0.071686774},
			{-0.100734524,-0.1398256},
			{-0.09935846,0.03997436}
},
			{{0.08053137,0.18041714},
			{-0.12847322,0.017074287},
			{-0.0029621017,0.1290717},
			{0.17439532,0.061339036},
			{-0.07518411,0.06854479},
			{0.10231535,-0.10428474},
			{-0.030749468,-0.121413164},
			{0.14028105,-0.18253793},
			{0.1721827,-0.12034715},
			{0.123909965,-0.07931434},
			{0.06370418,0.09724723},
			{0.16658784,-0.05630593},
			{-0.110554665,-0.16644502},
			{-0.07616631,0.06632762},
			{-0.1711872,-0.15702257},
			{-0.007928524,0.0862682}
}
},
			{{{0.004907536,0.13924246},
			{0.08062954,-0.008886337},
			{-0.106404066,0.007064253},
			{-0.12366406,-0.1694681},
			{0.15966718,-0.05440533},
			{-0.025962887,-0.114685655},
			{-0.04567115,-0.18646452},
			{-0.12725733,-0.1217294},
			{-0.041301195,0.06835173},
			{-0.016148387,0.09330653},
			{0.07876411,-0.15550111},
			{0.16847831,-0.12193881},
			{-0.048773225,-0.1457624},
			{0.052861404,-0.057590112},
			{0.1253178,-0.19203407},
			{0.07547631,-0.19229491}
},
			{{0.13913637,-0.05241476},
			{0.0830983,-0.027897596},
			{0.1331707,0.06688462},
			{0.14471003,-0.12447553},
			{-0.022718303,-0.18534115},
			{-0.115093924,-0.07048651},
			{0.13074496,0.063889906},
			{-0.1230428,-0.16232286},
			{-0.02948087,-0.14328669},
			{-0.06411146,-0.067317784},
			{0.11033404,-0.17377649},
			{-0.003102348,0.077228114},
			{0.123576745,-0.055977628},
			{-0.16525824,-0.1778132},
			{0.16966602,0.019489557},
			{-0.049748957,-0.099329166}
},
			{{0.063831024,-0.11594526},
			{-0.08872689,0.1454397},
			{0.16996029,0.13223772},
			{0.1428041,0.10925524},
			{-0.16577506,-0.1666659},
			{0.08575026,-0.05863236},
			{0.1356876,-0.16636518},
			{0.066246666,-0.02968949},
			{0.11907318,-0.074442185},
			{-0.12897566,0.10695748},
			{-0.05489881,-0.098010056},
			{0.17765138,0.009612083},
			{-0.16091073,-0.005179763},
			{0.03275214,-0.12352698},
			{0.08318063,0.1651241},
			{-0.11542949,0.028034747}
}
},
			{{{-0.03578639,0.058721468},
			{0.18798317,-0.17846712},
			{0.18159658,0.1699347},
			{-0.05895673,-0.14587682},
			{0.095676795,0.12192802},
			{-0.080000296,0.022314101},
			{-0.062640496,-0.15851943},
			{0.11228393,-0.02136597},
			{0.15804374,0.0027787685},
			{0.027261542,0.15539034},
			{-0.13719581,-0.14664909},
			{-0.09374019,0.17590536},
			{0.0419307,0.13851543},
			{-0.111031584,-0.09107043},
			{0.04632694,-0.030125797},
			{-0.16937616,-0.06454934}
},
			{{-0.09572632,-0.1317119},
			{0.17058794,-0.060326993},
			{-0.040258147,-0.071653605},
			{-0.16154186,0.060060576},
			{-0.12012067,-0.0025866032},
			{-0.08226474,-0.10405959},
			{-0.18072328,0.08511178},
			{0.16664869,0.08324863},
			{-0.15400729,0.043969184},
			{0.114250734,-0.05684744},
			{0.18527356,-0.07831949},
			{-0.09272217,0.114918575},
			{-0.16412324,0.06314589},
			{0.03498334,0.13309993},
			{0.15070102,-0.06932886},
			{-0.18301594,0.15939228}
},
			{{0.0239958,0.106582746},
			{-0.18474162,0.11040352},
			{-0.023723833,-0.06040375},
			{0.13848619,0.08526705},
			{-0.014528394,-0.13854696},
			{0.117083125,0.1839794},
			{-0.06968672,0.055099368},
			{-0.108655594,0.15393688},
			{-0.1131245,0.15946202},
			{0.022052292,-0.021771118},
			{-0.044175357,-0.064279184},
			{-0.012143992,-0.0007532239},
			{-0.13824062,0.16492309},
			{0.17856826,-0.18970524},
			{-0.14257489,-0.18041402},
			{0.06511145,-0.18311767			}
		}
	}
};