// include/conv2d_1066_weight.h
// sergio rivera 
// 2020/02/14 15:14:48 

const float conv2d_1066_weight_p[3][3][1][32]=
{
	{
		{
			{0.07071716,0.08421612,-0.047020376,-0.10753353,0.08171739,-0.037965283,-0.13187121,0.041624602,-0.033793114,0.020674186,-0.13254994,0.045954835,0.042002182,-0.032671817,0.008167476,0.12470277,-0.04643219,-0.04346698,0.07825709,-0.1189551,0.11359456,-0.042202126,0.11982298,-0.11593648,0.09535136,-0.124868356,-0.1371388,-0.12754226,-0.04346594,0.023124399,0.06173033,-0.07371504}
},
			{{-0.07261978,-0.0009345623,0.107873715,-0.014633719,0.12021504,-0.03173855,0.09122815,-0.0060226913,0.15024261,0.09774548,0.03579306,0.03470587,0.021426136,0.055482395,0.016977988,0.024903057,0.12101385,-0.07270682,-0.08274542,-0.022474343,-0.11547087,-0.14039184,0.05520435,-0.07104776,0.07833789,-0.0025969238,0.042308908,-0.14611192,-0.007294987,0.1261316,0.12574273,-0.049390964}
},
			{{0.06381359,0.039125435,0.04720232,-0.09764664,-0.045248173,0.10614161,-0.13420631,-0.031957764,0.073981486,0.019442376,0.013825444,-0.050482795,-0.09290877,0.0841029,0.10064748,-0.13139158,-0.10194723,-0.040948123,-0.004767403,-0.1195051,0.03543249,0.073267154,0.013516368,-0.122580975,-0.061381992,-0.11536671,-0.12609568,0.020349255,0.06481555,-0.11619382,-0.039200567,0.004966324}
}
},
			{{{-0.0030082292,0.11620362,0.013381792,0.043260798,-0.12346488,0.11269496,0.07551106,0.009073913,0.08998066,-0.12535043,0.120308176,0.026966454,0.055710547,0.027031157,-0.01385812,-0.009660493,0.13168734,-0.1312415,0.14897084,-0.049797982,0.07421403,0.10980812,-0.01363045,0.04034851,-0.07001212,0.026767215,0.0071882387,0.120619185,-0.1254679,0.020602975,0.08627053,-0.02585073}
},
			{{-0.0067343465,0.08772834,-0.031547107,0.12187077,-0.11766755,-0.014253433,-0.0970378,-0.10497671,-0.03444557,0.1252751,-0.054908432,-0.022101834,0.09797492,0.116730325,-0.1274914,-0.11353344,-0.006548553,-0.073977895,0.0016532859,-0.08392749,-0.063565,-0.0886353,-0.023062952,-0.101771384,0.14532147,0.14597209,0.111165166,0.098082855,0.07084132,0.009026961,0.062386367,0.048737068}
},
			{{-0.03688487,0.119644664,0.14470935,-0.03980232,-0.09102467,-0.12764755,0.06688554,0.015879592,-0.0007020773,-0.05408735,-0.07940051,-0.05942098,0.12589876,0.09953601,0.07183345,-0.090948656,0.037135858,0.10251052,-0.11963428,0.005322538,-0.068687856,0.05828609,-0.060943708,0.123057805,-0.014750721,0.05315338,-0.05032711,0.108519904,0.120223545,-0.05540412,-0.073600255,0.058533832}
}
},
			{{{0.03814803,0.041498225,0.11142124,-0.039969318,0.029410318,0.11882221,0.131138,0.045338962,0.022445075,-0.04518654,0.037108853,-0.020996325,0.06773567,-0.10418988,-0.008558815,0.09870971,0.046370283,0.07735025,0.04245069,0.14043392,0.0794276,-0.09554316,-0.03741738,0.013288474,0.021277232,0.09155441,0.029045144,-0.050273176,-0.06915598,-0.027316643,0.039587118,0.12826498}
},
			{{0.0008661447,-0.11783572,0.06415521,-0.10893602,0.056807127,0.004005632,0.08519441,-0.05729273,0.022793813,-0.09845754,0.0124933245,-0.050080482,-0.006149894,0.060959224,-0.07555754,0.023724578,-0.026052518,-0.0051296996,-0.06281946,0.028678618,-0.13109322,0.0411897,-0.090635076,-0.086795576,0.025244072,-0.09187468,0.07976645,-0.13016912,-0.10851484,-0.0460452,0.10622935,-0.0629642}
},
			{{0.11301848,-0.096180335,0.1121806,-0.059269115,0.048326097,0.03618376,0.063914366,-0.010800585,0.010275086,-0.027939852,0.0062813433,0.1190745,-0.047747083,-0.013809351,0.027091071,-0.008538891,-0.057395786,0.022359662,-0.08012134,-0.013945303,0.03470298,0.051722553,-0.11253191,0.05758866,-0.12165563,0.122544006,0.07658089,0.029339239,-0.05336719,0.022366203,0.10319904,-0.0007867286			}
		}
	}
};