// include/conv2d_1064_weight.h
// sergio rivera 
// 2020/02/14 15:14:49 

const float conv2d_1064_weight_p[3][3][9][4]=
{
	{
		{
			{-0.075994015,0.04720134,0.19062063,0.14911798},
			{0.10737058,0.029490849,-0.20521526,0.20657298},
			{0.1501412,0.0026897832,0.06373896,0.17749374},
			{0.17705345,0.21976295,-0.014307672,-0.08335817},
			{-0.07138352,0.19733916,-0.12665978,0.22420256},
			{0.17060553,-0.1562595,-0.1468074,-0.20014186},
			{-0.05279862,0.16554672,0.027136063,-0.07819654},
			{-0.14138219,-0.21742731,-0.04754523,0.18260428},
			{0.025089093,0.0054443544,-0.019182784,0.16872483}
},
			{{0.09101007,-0.077260084,-0.2014696,0.014867906},
			{0.037908982,0.11180625,-0.10320217,0.031280544},
			{0.08489034,-0.19318537,-0.060323797,-0.06370523},
			{0.14141184,0.17289226,0.14010303,-0.1949046},
			{-0.2112387,0.055621188,0.17195769,-0.05739501},
			{-0.085006826,-0.03923298,-0.12223588,0.109441705},
			{0.1667866,0.048034403,0.21783687,0.22341006},
			{0.074393705,-0.012319617,-0.07246007,-0.114255615},
			{0.17912956,0.034573805,0.018176954,-0.03124898}
},
			{{-0.17837696,0.22075784,-0.15915991,-0.07923467},
			{-0.04652354,0.11822456,0.15549275,0.14689322},
			{0.009365337,-0.113256745,-0.1526103,0.0061668716},
			{0.045692522,0.12330756,-0.01111176,0.14836358},
			{-0.16898477,-0.1002135,0.18173276,0.2096466},
			{-0.13345528,0.15502349,-0.18638383,0.16285045},
			{0.14813918,-0.012607257,0.031565115,0.06004536},
			{0.159997,0.13503055,0.16014756,-0.122220896},
			{-0.147114,0.22069134,0.019019812,0.0787899}
}
},
			{{{-0.13473949,-0.13863532,0.2181317,-0.106888},
			{0.11293852,0.18846409,-0.14083546,-0.006877392},
			{0.09498866,0.09944584,0.09473508,0.22585692},
			{0.08666374,0.16948079,-0.04029496,0.20973252},
			{0.2095622,-0.08941899,-0.08920406,0.08919676},
			{-0.10163119,0.064769454,0.13441668,0.22282234},
			{0.16840331,-0.14170557,-0.17268129,0.21696411},
			{0.077980086,-0.21772103,-0.099730454,-0.07509138},
			{0.19427136,0.2073643,-0.093902946,-0.20040467}
},
			{{-0.0034804074,0.036191806,-0.15326262,-0.15722507},
			{-0.098780364,0.082888216,-0.098102614,-0.10168462},
			{-0.1500329,0.06179964,0.12261481,-0.1404239},
			{-0.034965195,0.051535126,-0.18059584,0.06094938},
			{0.038676426,-0.1279839,-0.086937726,-0.047305718},
			{0.22186875,-0.11876327,0.12968095,-0.171573},
			{-0.006110384,-0.20737855,-0.17322344,0.108269624},
			{0.10174411,0.2109999,0.19635868,-0.20088853},
			{0.024459686,-0.16390538,-0.016558949,-0.09496304}
},
			{{-0.13353495,0.19808744,-0.027481798,0.19946153},
			{0.18210076,-0.01954534,0.13854259,0.16062583},
			{-0.097921066,-0.04960698,0.22306712,-0.20207807},
			{0.17092638,-0.20087665,0.012959425,0.03233593},
			{0.16609894,0.17126675,-0.061564952,-0.214979},
			{-0.012346021,-0.11232101,-0.02394819,0.15047742},
			{0.07052769,0.017306855,-0.17994574,0.15701717},
			{-0.108362034,0.10959878,0.17558908,0.06846728},
			{-0.091955654,-0.16274121,0.029161189,0.013634475}
}
},
			{{{-0.10281961,0.01749563,0.099786535,0.026650475},
			{0.031046338,-0.10244383,0.15848503,0.18462062},
			{-0.136334,0.0065706717,-0.15116471,-0.21787956},
			{-0.11215748,-0.2250463,0.08673722,0.0664211},
			{0.16332735,0.22597079,0.1970381,0.027596576},
			{0.037976123,-0.02305976,-0.072700106,0.05212044},
			{0.18185069,0.07513135,0.20571102,-0.003998856},
			{-0.18720761,-0.0772011,0.12145789,-0.21578373},
			{-0.10884294,0.12672949,0.022526406,-0.02536526}
},
			{{-0.16395131,-0.20058605,0.21904172,0.08764706},
			{-0.123534754,-0.21415082,0.15586333,0.056321368},
			{-0.17532347,0.00035209188,-0.21566753,0.20870799},
			{-0.12357335,0.21562138,-0.03747367,0.042847186},
			{0.020192634,-0.0240091,0.08430694,-0.19061352},
			{-0.21739158,0.17086922,-0.13748685,0.10535752},
			{-0.08070817,-0.07583486,-0.009644601,0.14745079},
			{0.0102853775,0.102585346,-0.20998745,0.18225828},
			{0.12931286,0.08974826,0.06576842,-0.2167852}
},
			{{-0.00050684146,-0.16438653,-0.0146751795,-0.0040640165},
			{-0.20303808,-0.06586203,-0.14076121,0.106390834},
			{0.0635385,-0.05902222,-0.01154043,0.111648984},
			{0.029867819,-0.1398605,-0.13673653,0.1398221},
			{0.11846678,0.11133037,-0.22271258,-0.10312266},
			{-0.050153747,-0.20029226,0.14822085,0.12789872},
			{-0.15640993,-0.005374642,-0.11828118,-0.06496011},
			{-0.13867608,0.15554288,0.15524104,-0.10296653},
			{-0.16675018,-0.07845352,-0.2064307,0.20031652			}
		}
	}
};