// include/conv2d_625_weight.h
// sergio rivera 
// 2020/02/15 00:10:30 

const float conv2d_625_weight_p[3][3][3][4]=
{
	{
		{
			{0.16591139,0.17314722,-0.1432843,0.20718534},
			{-0.21436991,-0.2782368,-0.22494799,0.18242444},
			{-0.009332956,0.059344176,0.2357825,0.002334032}
},
			{{-0.0053843423,0.13326052,-0.16090608,-0.2364466},
			{-0.0736682,0.07564107,0.010735572,-0.1920243},
			{0.134184,0.120624214,-0.16421519,-0.20738935}
},
			{{0.16619787,0.19975552,0.25459203,0.026700381},
			{-0.24964783,0.02994709,0.15248093,-0.109395504},
			{0.15056553,-0.0074671893,-0.05285859,0.09292122}
}
},
			{{{-0.09431673,0.12021667,0.19450851,0.02701272},
			{0.06923602,-0.14711078,-0.20484568,-0.14975983},
			{0.049418118,-0.10785782,-0.29999968,0.28819883}
},
			{{0.17079797,-0.0636986,0.030384373,-0.13992578},
			{-0.18512,0.033966582,-0.28603926,0.054459773},
			{0.12317027,0.05968659,0.24386556,-0.10096203}
},
			{{0.21772146,-0.30741018,0.017127892,-0.16394158},
			{0.26320454,-0.20649908,-0.08530046,-0.00063069357},
			{-0.17613271,0.09903887,0.11411561,-0.21384875}
}
},
			{{{-0.21315219,-0.30338567,-0.28056708,0.09978459},
			{0.22957286,-0.24578948,0.23111768,0.20708841},
			{-0.11590986,0.277511,0.21331047,-0.20681417}
},
			{{-0.14867508,0.11007468,0.26674658,-0.07341019},
			{-0.22849768,-0.21593817,0.23496796,-0.15959941},
			{0.24410753,-0.09822168,-0.13112478,0.21926488}
},
			{{-0.127982,-0.14273222,0.08389387,0.28098232},
			{0.2968355,0.24045154,-0.064485066,0.2950975},
			{0.009206058,0.14065151,-0.26454562,0.05229976			}
		}
	}
};