// include/conv2d_627_weight.h
// sergio rivera 
// 2020/02/15 00:10:30 

const float conv2d_627_weight_p[3][3][3][4]=
{
	{
		{
			{-0.2625106,0.27622244,-0.1744045,-0.17035052},
			{0.033963744,0.008363098,-0.010115756,-0.26184672},
			{0.279165,0.010930993,0.14247504,-0.18611796}
},
			{{0.07971193,0.16090827,0.082251064,-0.26977214},
			{-0.17003666,0.2118334,0.12744665,-0.18358667},
			{0.27557305,0.15896235,0.006120037,-0.25372094}
},
			{{-0.021421144,-0.13031028,0.24656211,0.2562258},
			{0.2683586,0.15184064,0.22343874,-0.121940404},
			{-0.07784379,0.2743313,-0.22047378,-0.015101028}
}
},
			{{{0.26080793,-0.12989302,-0.023703855,-0.041177146},
			{0.19396058,0.20308955,-0.1569024,0.26477876},
			{-0.081476346,-0.26948014,-0.117490396,-0.1786388}
},
			{{0.03434947,-0.07940021,-0.012087683,-0.21124445},
			{0.30658066,-0.07066575,0.26113582,0.116402894},
			{-0.17856316,-0.03782696,0.04929864,-0.16632292}
},
			{{0.17830783,0.12029367,0.20717767,-0.24031533},
			{0.020282496,-0.0108173005,0.13677517,-0.0043181456},
			{-0.18438888,-0.23588479,-0.15571208,0.05860385}
}
},
			{{{0.1512884,0.111536734,-0.2610752,0.22856659},
			{0.13376494,0.22552463,-0.038971044,0.07025093},
			{-0.1905759,-0.14279842,-0.22561689,-0.26755723}
},
			{{0.10988695,0.28301948,0.2678573,0.2609268},
			{-0.109796844,-0.025314013,0.19723672,-0.27847356},
			{0.066902004,0.30184853,-0.1833595,-0.124561936}
},
			{{-0.024318095,-0.1997771,0.07306069,0.1557709},
			{0.2044536,0.024794595,0.004088084,-0.21799764},
			{0.17759033,0.29803157,-0.05425955,0.1734082			}
		}
	}
};