// include/conv2d_360_weight.h
// sergio rivera 
// 2020/02/14 23:51:03 

const float conv2d_360_weight_p[3][3][5][4]=
{
	{
		{
			{0.04991117,-0.15640914,-0.09953807,0.15237218},
			{0.17491311,0.22092801,-0.101563916,0.26532388},
			{-0.18401891,0.16750634,0.02166006,0.23514742},
			{-0.053974807,-0.25210395,0.10823849,0.19611189},
			{0.049634695,0.27146882,0.23757154,0.2650116}
},
			{{-0.2525608,-0.2323209,0.06486401,-0.17614433},
			{-0.23177868,-0.09769827,-0.117725715,-0.04065536},
			{0.19538933,-0.21317835,0.02810052,0.10085669},
			{0.09540105,0.10749027,-0.13422889,0.033786893},
			{-0.21354933,-0.2384107,0.01109913,-0.0654473}
},
			{{0.27069736,0.043348074,0.19814622,0.16795886},
			{0.036089897,0.023440301,-0.17295581,-0.25450617},
			{0.21855074,0.12636054,0.24732858,-0.17177637},
			{0.20081693,0.11466488,0.030507267,0.13597953},
			{-0.08974959,0.031345636,0.03793165,-0.13794237}
}
},
			{{{0.23214096,0.0779762,0.11625019,0.22603577},
			{-0.11874823,-0.09758438,0.20169923,-0.15502623},
			{0.23341066,0.19243005,0.13215306,-0.0865386},
			{0.039456457,-0.012229681,0.21521178,0.1586819},
			{-0.27182403,-0.20036122,-0.04140237,0.028884709}
},
			{{-0.036225498,-0.050136283,-0.14954613,0.10742706},
			{0.1540995,0.21617281,-0.09262127,-0.024895638},
			{-0.2552504,0.24033433,0.23505646,-0.20165187},
			{-0.021424234,0.16533378,0.13577196,-0.22789934},
			{-0.21883702,-0.1274547,0.26149297,-0.19483064}
},
			{{0.15279055,-0.24293199,-0.10578452,-0.26978675},
			{-0.004912585,0.2620296,0.2172586,-0.1288609},
			{0.123319685,0.14104441,0.012205362,-0.11035609},
			{-0.2531174,-0.03529136,0.14099196,-0.24642992},
			{0.06718159,-0.06795411,-0.12622511,-0.101235315}
}
},
			{{{0.09038848,-0.15798303,-0.24823117,-0.19134855},
			{-0.20417458,0.11194453,-0.0034114122,0.16326836},
			{0.052615196,-0.09281957,0.24760848,0.088667095},
			{-0.20746362,0.14850193,0.10425961,0.19642219},
			{0.08042109,0.099814564,-0.030051544,-0.13065043}
},
			{{-0.14757246,0.071130365,-0.20161729,-0.16864493},
			{0.2691741,0.09043443,0.18938935,0.020198613},
			{-0.055507883,0.13409331,0.25895482,-0.24807751},
			{0.23062259,0.18918112,-0.14965904,-0.14626208},
			{-0.23411658,0.19440737,-0.15977412,0.111640334}
},
			{{-0.13576287,0.12463558,-0.03127666,-0.13938121},
			{0.09618309,0.20155025,0.114973694,-0.04396978},
			{0.005261034,-0.04734285,0.024322927,-0.02152127},
			{0.11319175,0.23752367,-0.18808493,0.2104615},
			{-0.2602594,-0.002082169,-0.03338127,0.021101892			}
		}
	}
};