// include/conv2d_2951_weight.h
// sergio rivera 
// 2020/02/14 15:31:51 

const float conv2d_2951_weight_p[3][3][3][4]=
{
	{
		{
			{0.21681991,0.23595095,-0.20644797,0.22705941},
			{0.06332342,-0.2351276,-0.25244296,-0.17039864},
			{-0.09552638,-0.20912157,-0.043028306,-0.30627757}
},
			{{-0.14221495,-0.07712048,0.2849314,0.280625},
			{-0.06070894,-0.28569928,-0.17167793,-0.07307943},
			{-0.2637343,0.28048506,0.23189144,0.13440205}
},
			{{0.119338416,-0.30180266,0.3094473,0.029724132},
			{-0.29637954,0.1541615,0.2861438,-0.24341747},
			{-0.22557689,0.22868861,0.29567018,-0.23121208}
}
},
			{{{-0.08651101,-0.040628023,0.085253224,-0.052367717},
			{-0.07111257,0.025025258,0.08733075,0.023334976},
			{-0.05869603,-0.124451764,-0.19075756,0.093614876}
},
			{{-0.0552854,-0.006501885,-0.18573132,-0.0038409575},
			{-0.024516646,-0.05603719,0.2659547,-0.20064156},
			{0.20635866,0.26184812,0.15784577,0.19887027}
},
			{{-0.27339992,0.23176166,0.01831659,-0.14383951},
			{0.041136242,0.0471389,-0.119090416,-0.23013148},
			{-0.25485072,0.013155442,-0.043714862,0.24275067}
}
},
			{{{-0.13544431,-0.2831135,-0.17794722,-0.30190346},
			{-0.24568453,0.2784318,0.11844485,0.09039427},
			{-0.17970595,0.019335374,0.09046552,-0.03363383}
},
			{{0.05598262,-0.18476544,0.09875066,0.12387783},
			{-0.0390907,0.079031214,0.26580036,0.054465488},
			{-0.12088466,0.036547627,0.14258818,-0.022094054}
},
			{{-0.05136686,-0.0039821267,0.110658124,-0.1755633},
			{0.16361555,-0.12840311,0.22711508,-0.01023717},
			{-0.027452582,0.1271652,-0.2550926,0.16359282			}
		}
	}
};