// include/conv2d_2952_weight.h
// sergio rivera 
// 2020/02/14 15:31:51 

const float conv2d_2952_weight_p[3][3][4][2]=
{
	{
		{
			{-0.10116865,0.2926176},
			{-0.14837816,0.015949698},
			{-0.27505192,0.118775256},
			{-0.1407379,0.31721428}
},
			{{-0.09772571,-0.029811399},
			{-0.30760127,-0.115294434},
			{-0.030896764,0.25733304},
			{0.29865077,-0.025672063}
},
			{{-0.27625024,-0.16827087},
			{0.327874,-0.013420161},
			{0.11903538,-0.29378453},
			{-0.08876661,-0.13704109}
}
},
			{{{0.28680295,0.2142821},
			{-0.26345804,-0.28946516},
			{0.037648886,-0.18912604},
			{0.0042751264,-0.07336952}
},
			{{0.32505548,-0.09057015},
			{-0.3182257,-0.07714014},
			{-0.28158337,0.053515505},
			{0.2801117,-0.13640772}
},
			{{-0.32965222,-0.17399776},
			{0.0036781072,0.20673469},
			{0.07744679,-0.15084703},
			{-0.02881314,-0.22571181}
}
},
			{{{-0.15930381,-0.18909806},
			{0.15266596,0.17194971},
			{0.0042877,0.14871567},
			{0.1782255,0.018861862}
},
			{{-0.023837278,-0.037885476},
			{0.28799358,0.24878661},
			{0.12544766,0.026228217},
			{-0.08113244,0.02169149}
},
			{{-0.30433625,0.09302084},
			{0.17235693,-0.2790066},
			{-0.082203686,0.015351939},
			{-0.2569434,0.24120289			}
		}
	}
};