// include/conv2d_2064_weight.h
// sergio rivera 
// 2020/02/14 22:02:24 

const float conv2d_2064_weight_p[3][3][3][16]=
{
	{
		{
			{0.12101241,0.07162614,-0.10699812,-0.11291534,-0.06638677,0.10364622,0.02022407,0.05422913,0.0767107,0.015247701,-0.16566882,0.16552912,0.13082595,0.07196476,-0.014555822,0.11741104},
			{0.070110455,0.020910492,0.1368577,0.1592059,-0.11757338,-0.05674246,-0.08992186,0.14984602,-0.012399779,0.09817546,-0.032584067,0.06255403,0.04548865,0.11686461,0.06435601,-0.031692527},
			{-0.03332779,0.105519645,0.0099008195,-0.18327998,-0.117773056,0.07173573,0.051036537,0.009587364,0.0553815,0.08065695,0.057391346,-0.15861493,0.07765958,-0.10435292,0.09420449,-0.16745403}
},
			{{-0.14049694,0.0054265903,0.11758445,-0.014979135,-0.16507228,0.044129357,0.110673726,-0.14922996,0.07529599,-0.12022571,0.17539899,0.07493936,0.0851902,-0.10063342,0.100291245,-0.105404735},
			{-0.030845653,-0.079633184,0.083591364,-0.08391405,-0.06672605,-0.1694516,0.022757472,0.12087347,0.014684185,0.10469491,-0.055496685,-0.0595578,0.17379881,-0.10471005,0.0075266357,0.030786004},
			{0.09972411,-0.078487314,0.18300787,0.02502473,0.17038311,-0.01847081,0.09771368,0.18522832,0.1688687,0.16818994,0.12768461,0.13403271,-0.054673325,-0.018382108,-0.12442748,0.082988724}
},
			{{-0.123084635,-0.0018353183,0.062753625,-0.0337384,-0.020542115,-0.11840253,-0.14719614,-0.00085405266,0.05088559,-0.1262681,-0.015208868,-0.038677398,0.012794496,0.07005104,-0.05865911,0.01660733},
			{0.0020918483,-0.015409501,0.17424218,-0.04986843,0.16668895,-0.06902083,-0.04693109,-0.05151297,0.04004792,0.02703323,-0.07506566,-0.030970786,-0.024148641,0.17883484,0.04990653,-0.038682155},
			{-0.029733127,0.037859518,0.092096284,-0.04498385,0.13826421,0.05518283,0.11443704,0.1924295,-0.113044344,-0.12230328,0.0698047,-0.17765254,-0.06886831,0.043666523,-0.01500622,-0.00065825705}
}
},
			{{{-0.005478441,-0.018134426,-0.08122502,0.13383573,-0.13731071,0.07213012,0.13356727,0.09345902,-0.11492568,0.098926574,0.00825074,0.045072857,-0.15279746,-0.05206099,0.042020917,-0.0068858983},
			{-0.09932462,-0.11748135,0.08894679,0.17439099,-0.026782025,-0.08949221,-0.10547777,-0.007424905,0.08529212,0.09563291,0.060972624,-0.10683825,-0.112816125,0.01727553,-0.06105656,-0.040230945},
			{0.026545461,0.17930543,0.14491834,0.016968148,0.02864177,-0.14874026,-0.15989546,-0.0477579,-0.013045829,0.07802058,-0.154009,0.05452809,-0.084648,-0.13490981,0.15229672,-0.18061431}
},
			{{-0.07864033,-0.13882126,0.015624775,-0.024116,-0.17068009,-0.1400375,0.15073724,0.0076235402,-0.105516106,-0.027586095,0.12894838,0.187714,0.053096745,0.0674695,0.06908951,0.0504471},
			{0.16284989,0.076134086,-0.16442174,-0.13708682,-0.044455163,0.10795845,0.034816567,0.048491333,0.056973457,-0.18037683,0.16404559,0.1333817,0.15990995,0.115242615,-0.09380857,0.13978386},
			{0.18113519,0.13101675,0.11419031,0.0886595,0.042391155,-0.029580299,-0.083075486,0.07151705,0.15157844,0.0896221,-0.110213645,-0.16393396,0.14482564,0.013763499,-0.05856586,-0.11776243}
},
			{{-0.099932924,-0.16598314,0.10671099,-0.06498854,-0.07392805,0.08089883,0.04486508,-0.028501343,-0.003007363,-0.10284663,0.034703337,-0.09773868,0.008495918,0.041722342,-0.16778578,-0.13991725},
			{-0.09172899,-0.0044403644,0.02127949,-0.15750843,-0.005885668,0.13616237,0.06412715,0.052376967,0.15960322,-0.011189705,-0.1151398,0.0049742633,-0.064679086,0.09638198,-0.128427,-0.084544286},
			{-0.098868914,-0.08847484,0.01885058,-0.15715268,-0.042948786,-0.0421656,0.111826345,0.09505984,0.05870347,0.158367,-0.14435065,-0.15834908,0.06024961,-0.0035380975,-0.06576216,-0.04162112}
}
},
			{{{-0.14561245,-0.03710956,-0.021469593,0.17903093,-0.0073649418,-0.16162567,-0.1307263,0.080872126,-0.086259484,-0.045531776,-0.067118876,-0.05349892,-0.017908856,-0.17569861,-0.14637092,-0.05280076},
			{-0.13005482,0.14543578,-0.17920408,-0.09820683,0.18014936,0.14759326,0.18133855,-0.06619125,0.057881046,0.099207364,-0.055860713,0.017921673,0.030142223,-0.09234383,0.12411895,-0.0128659075},
			{-0.18581711,-0.02836416,0.05719701,-0.045109235,-0.11535823,-0.0674634,0.08058661,0.17955789,0.14870682,-0.071039505,0.12037546,0.09446483,0.13629295,0.022011966,-0.081366204,0.15730324}
},
			{{-0.13237742,-0.10808541,-0.08844864,0.11673748,0.013374123,-0.011258904,0.05080109,0.08569554,-0.12003907,0.1538591,-0.017487781,-0.15640418,0.16028394,0.023620775,0.121784866,0.05039558},
			{0.08801662,0.13106816,-0.071787395,-0.16976845,0.11425447,0.0030508987,0.16329344,0.11140433,0.18069561,-0.09687605,-0.021683529,-0.17778903,-0.06395043,-0.11536524,0.07426845,0.1484643},
			{0.14225595,-0.105628796,0.074750416,0.07647632,-0.13644728,0.0059158113,0.123257436,-0.10795902,0.03472359,0.09651682,-0.106643274,0.10663965,-0.14860064,-0.09470416,0.096896365,0.03268174}
},
			{{-0.17127085,-0.17444964,0.13232611,-0.091370516,0.06448672,-0.01525128,-0.108988106,-0.13414942,0.00083779334,0.05893289,0.049292594,0.013662578,0.16459738,-0.0003770269,0.12783432,0.105125464},
			{-0.025528446,0.083623424,-0.110224836,-0.0006839303,0.01751709,0.18080081,-0.09990517,0.078426905,0.12323375,-0.11572273,-0.14181148,0.11479066,-0.03366438,-0.047699813,-0.064252876,0.003942663},
			{0.03087707,0.01771939,-0.18240856,0.063837506,-0.15474568,-0.07064997,-0.06681066,-0.015810901,0.05940379,-0.14903447,-0.1871786,-0.072680116,-0.045925036,0.017895121,-0.10801027,-0.17332852			}
		}
	}
};