// include/conv2d_2568_weight.h
// sergio rivera 
// 2020/02/15 01:45:00 

const float conv2d_2568_weight_p[3][3][3][4]=
{
	{
		{
			{-0.25736332,0.009305418,-0.1270683,0.19042425},
			{0.11255786,0.24071965,-0.19755639,-0.057029005},
			{-0.10507906,0.21236137,-0.13838717,0.11878737}
},
			{{-0.2933691,-0.20114969,0.27846816,0.23601334},
			{-0.21710157,-0.28906327,0.2717879,0.114011794},
			{0.092587054,0.12920171,-0.11660763,0.24569735}
},
			{{0.17303759,-0.021523565,-0.054936875,-0.1846909},
			{0.28642073,-0.02124083,-0.2090759,-0.06754264},
			{0.23792599,0.035711765,-0.1663361,-0.1560173}
}
},
			{{{-0.20095259,0.23198578,-0.11599449,0.07354255},
			{-0.2871202,-0.012644887,0.26971263,0.30585837},
			{0.2923194,-0.30301616,-0.21426904,0.13933416}
},
			{{0.24892913,0.051537693,0.15654957,-0.1394764},
			{-0.21134244,0.034292817,0.084456265,-0.007030187},
			{-0.24905133,0.122249216,-0.20515096,0.21723929}
},
			{{0.122264445,0.0024579465,-0.16007483,-0.08235391},
			{-0.080316365,-0.30195588,0.23534723,-0.15025648},
			{0.07026027,-0.27923852,0.024432668,-0.2844269}
}
},
			{{{-0.20996942,-0.12221295,-0.25512427,0.22322783},
			{-0.27779368,-0.14213209,0.24361457,0.26367828},
			{-0.07392186,0.11055869,0.19747841,0.121444345}
},
			{{0.08626977,-0.119918644,0.028805768,0.24929045},
			{-0.16964418,0.18909487,0.019962708,-0.12778063},
			{-0.09533226,-0.21089761,0.16504762,-0.3082783}
},
			{{0.24600063,-0.29085848,0.099614255,-0.13785672},
			{-0.040386043,-0.24977165,0.22462903,0.2296453},
			{-0.07749779,-0.25138426,-0.2567653,-0.3100353			}
		}
	}
};