// include/conv2d_2571_weight.h
// sergio rivera 
// 2020/02/15 01:45:01 

const float conv2d_2571_weight_p[3][3][2][4]=
{
	{
		{
			{0.2341443,0.2731374,0.21678868,-0.062841885},
			{-0.10296412,0.012425283,-0.24601385,-0.21637087}
},
			{{0.061071433,0.19939522,0.12768157,0.16236214},
			{0.07055477,-0.27395728,0.2152029,0.08474165}
},
			{{-0.023964103,-0.21151367,-0.2856691,0.21106061},
			{0.10292471,0.07537727,-0.24861702,0.19423674}
}
},
			{{{-0.12384059,0.12669893,0.007065046,0.10788932},
			{-0.28407153,0.27629542,0.061890226,-0.28207564}
},
			{{-0.17975707,0.25903767,0.23550534,-0.055056024},
			{0.31305042,0.21661223,0.21176173,-0.24685599}
},
			{{-0.21947373,0.16926537,0.19920489,0.28984123},
			{-0.08785758,-0.008977828,0.1713644,0.28055984}
}
},
			{{{0.03386304,-0.25419065,-0.18777783,0.32924592},
			{0.048038192,0.20805514,-0.19519325,0.13821855}
},
			{{0.13875405,-0.20610811,-0.15727042,-0.06660267},
			{-0.16057843,0.19175844,0.30783084,-0.27253696}
},
			{{0.25239742,0.17009546,0.021068951,0.3102519},
			{-0.22671956,-0.26524422,-0.03732648,-0.30066806			}
		}
	}
};