// include/conv2d_2573_weight.h
// sergio rivera 
// 2020/02/15 01:45:02 

const float conv2d_2573_weight_p[3][3][1][8]=
{
	{
		{
			{0.23904642,0.059565954,0.06113204,-0.046898574,0.029408252,0.048990317,0.041542344,-0.13673197}
},
			{{-0.16009161,-0.11331576,0.0963723,-0.17564893,-0.23661067,0.14640278,0.09512803,0.13196743}
},
			{{0.0058441777,-0.08982769,-0.21147159,-0.2088476,0.07599434,0.04163593,0.20969312,0.04177974}
}
},
			{{{0.029750038,-0.19241326,-0.10404786,0.10277449,0.19552574,-0.17523697,-0.09917269,-0.1174784}
},
			{{0.20677279,-0.26260448,-0.07410749,-0.16066794,-0.19693635,-0.123832844,-0.21115072,0.093052916}
},
			{{-0.26552185,0.17966382,-0.040466852,0.12336252,-0.06855275,0.07380616,-0.22024816,-0.2019534}
}
},
			{{{-0.23720452,0.20093682,-0.13250151,-0.100677244,-0.09429473,0.13659656,0.19409744,-0.008128488}
},
			{{0.108406976,-0.26108024,0.03705938,0.17612743,-0.22458532,-0.09300311,-0.13426682,0.16318172}
},
			{{-0.13558592,0.082237154,0.12743571,0.06456872,-0.2191932,0.15829626,0.23902787,0.26600993			}
		}
	}
};