// include/dense_302_weight.h
// sergio rivera 
// 2020/02/14 23:48:14 

const float dense_302_weight_p[15][203]=
{
	{-0.008332999,-0.0013468636,0.114526294,-0.14849758,-0.038404554,0.09671653,-0.095178284,0.011598792,0.06815715,0.019142674,-0.043396786,0.11004825,-0.14477175,-0.073348425,0.12683071,-0.13945194,0.11921346,0.033135414,-0.07852759,-0.1622117,0.07450257,0.08344864,0.06897657,-0.051820602,0.116421826,0.020225959,-0.06862893,-0.052107126,-0.026665213,0.112926334,-0.060361605,0.062253706,-0.0892152,0.05062307,0.024202103,0.10555662,0.13353996,-0.019719193,-0.14147931,0.0012429617,0.010303235,-0.0014298011,0.14569448,-0.14534959,-0.0013641408,-0.072494835,-0.13211985,-0.08631039,0.06884459,-0.094199255,0.048871424,0.07734339,0.078309305,0.124087505,0.019627174,0.020030152,0.061918616,0.1591615,-0.08862227,0.121198766,0.009674605,0.057548575,0.04298067,-0.08841447,-0.024274454,-0.096168146,0.05637553,-0.16095011,0.009310974,0.047724586,0.023586202,0.14337718,0.15043083,0.09600263,0.10153937,-0.071563914,0.027732715,0.11244952,-0.023200389,0.023245197,-0.1269167,-0.12075615,0.16259567,-0.07529736,0.16136573,-0.14952014,0.16269857,0.09314249,-0.044294123,0.10944915,0.07570885,0.014558904,0.053005453,-0.1417641,0.15126117,0.018808858,-0.16319485,0.06810256,0.05232128,0.1000799,-0.07058447,0.052416485,-0.035092566,0.08047771,-0.14095405,-0.036155835,-0.076083876,-0.019799601,0.031861693,-0.16117929,0.052414358,0.15996708,-0.008428368,-0.15753858,0.09804102,-0.0067482,-0.10214633,0.03628762,-0.02589478,-0.029232066,-0.025064304,-0.15310043,0.051485874,-0.030849827,-0.004153046,0.087906934,-0.04875316,0.15658325,0.0029119533,0.034967303,-0.13677427,-0.15569653,-0.12564081,-0.058622222,-0.10957435,0.09369479,0.14018008,0.11803604,-0.10607981,-0.13010696,-0.13492581,0.14154316,-0.03597246,0.080423035,-0.106340796,-0.15521514,0.099118866,0.050220445,0.002720316,0.079985954,0.026980069,0.08441878,0.11544794,-0.105994165,-0.05899935,-0.052183367,0.03880878,-0.06296485,0.10987645,-0.07624979,0.060289692,-0.088929646,0.14759259,-0.15717764,0.029588368,-0.03568745,0.021506857,0.11725509,-0.0676669,0.044043113,-0.13314185,-0.15328719,0.011553161,0.06683574,-0.06606214,0.03573442,-0.09078647,0.10994019,0.05274959,-0.14051759,-0.15465462,-0.04004072,-0.13808471,-0.01661363,0.029266167,-0.16439934,0.14500554,-0.075512186,0.14995296,-0.057297017,0.16039863,-0.12418978,-0.11722797,-0.15113859,0.016800871,-0.13513279,0.04944367,-0.0011364341,-0.1009731,0.13634303,-0.1370832,0.16217834,-0.03445809},
	{-0.051403943,0.12119755,-0.06404524,0.112627186,-0.14354996,0.15898879,0.14005996,0.10279599,-0.1628232,0.14928281,0.056008883,0.045919873,0.055816323,-0.14618619,0.023885796,-0.15567648,0.105092615,-0.15278572,-0.104525454,-0.16478531,-0.10537228,0.11740941,0.12265541,0.04711973,-0.07250214,0.10678417,-0.078169554,0.09076827,0.03449055,-0.06375726,0.11308525,-0.106218554,-0.06244435,-0.047360763,0.0992881,-0.13445117,0.11706126,-0.01392008,-0.09398097,-0.106946714,0.0482784,0.010397085,0.1419952,0.006057744,0.0029060587,0.12770027,0.021712933,-0.05912825,0.008582388,0.14032051,-0.14357059,0.0499607,-0.037205078,0.06756091,-0.055557303,-0.16500062,0.100188665,0.10666969,0.032492634,-0.0030285334,0.12090841,-0.031312972,0.16090265,-0.043881573,0.08485156,-0.019757833,-0.13715418,-0.065163195,0.1456536,-0.043706182,0.09365094,0.085825875,-0.033675533,-0.14551876,-0.076903224,0.05113472,0.14384945,0.034189068,0.0018693114,0.09681822,0.1242181,0.1250109,0.15063876,-0.07661159,-0.15138765,0.012887269,-0.10612647,-0.012993612,0.1059318,0.073798485,-0.1199943,0.044217665,-0.07244984,-0.03197154,0.024509348,-0.029061787,-0.06657463,0.06514633,0.0430904,0.16196334,0.07507468,-0.09394174,0.13488819,0.15072341,0.00022529929,-0.042930484,-0.11755902,0.05102272,0.14243892,-0.1535571,-0.056018643,0.05080959,0.01963301,-0.03127826,-0.02856908,0.16199534,-0.012366242,0.16694273,0.09385449,-0.10570791,0.020168254,-0.13340247,-0.08989999,-0.14167272,0.13233934,-0.014726239,0.122029915,0.05015093,0.06796877,0.09945843,-0.109923944,0.15477537,-0.15639026,0.05270577,0.1422247,-0.07116086,-0.064954974,0.0049722116,-0.13998576,-0.12532565,-0.07759765,0.104447074,-0.08644407,-0.083799906,0.09975128,-0.076846875,-0.036359653,0.15614106,0.05937378,-0.09323815,0.0774388,-0.11003286,-0.027098412,0.16847014,-0.15757157,-0.017267551,0.15003528,-0.07567801,0.037005704,0.061663006,0.10034532,0.016288834,0.15160719,0.13546929,-0.05032937,0.05534763,-0.10091488,-0.12248692,-0.12424859,-0.15560889,0.0480974,-0.14302321,-0.15189384,-0.021575931,-0.116549976,-0.13253775,0.16777341,0.13531423,-0.14327209,-0.055406746,-0.032927837,0.14229985,-0.052806765,0.04115508,0.05702184,0.0284095,-0.039696764,0.11329576,-0.026108786,-0.08500568,-0.15242237,-0.05212736,0.09783356,-0.054987125,0.16407178,-0.027153267,0.093513735,0.078015134,-0.0023259916,0.052897416,-0.09656556,0.12555623,0.09463177},
	{0.005134524,-0.11627399,0.056115482,0.11866301,0.15100318,0.09693213,-0.15350707,0.10410498,0.0854564,-0.068266645,-0.09267677,-0.0023363442,-0.14673145,0.09902001,0.08543668,0.07345308,-0.12078445,0.14090322,0.13905472,-0.049914744,0.008288468,0.16666266,-0.09223779,0.16116042,-0.040590134,0.06908942,-0.041788444,0.059715275,0.012533164,-0.13622819,0.10494311,0.056024134,0.11975004,0.0957925,0.01722065,0.030295689,-0.15988027,0.055309124,0.028581673,0.12596536,0.14445972,-0.09582355,0.08217066,-0.015222489,-0.04360979,-0.022247601,-0.11395417,-0.054051805,0.08014418,-0.10056699,-0.08848691,-0.040631965,-0.118709885,0.13699281,0.02276936,-0.124745026,0.068566285,-0.11513074,0.15078174,0.13046372,-0.11816725,0.07937632,0.10540846,-0.015984312,-0.12950376,0.11370054,-0.009690671,-0.07126249,-0.14916004,-0.13835356,0.084382564,-0.09596636,0.06568564,0.105750576,0.07473618,-0.09770615,0.07063824,0.11055966,0.033961207,-0.047483355,-0.013448917,-0.109528504,0.057061695,-0.14710355,-0.08977791,-0.12157141,-0.091337115,0.12513079,0.044193428,-0.14694384,0.16429798,-0.09970714,0.06781564,-0.046609677,0.09143628,0.07141725,0.0030424045,-0.057552826,-0.16552466,0.07241309,0.11112353,0.07986746,0.12508292,0.13485356,-0.075817324,0.092461586,0.015919702,-0.16306597,0.076241754,-0.0811597,-0.11786713,-0.11384013,-0.064417005,-0.038545907,-0.04154865,-0.052323185,0.073171906,0.015228689,-0.061592016,0.012652395,-0.069431856,0.018596325,-0.13717324,0.14350712,-0.15389092,0.043673467,-0.019054044,0.16483413,0.037168145,-0.15174678,-0.083669975,-0.07885371,-0.093139626,-0.16320413,-0.040244702,0.028277257,-0.15588583,0.107639305,-0.04213528,0.036933653,0.15481958,-0.028587846,0.01707962,0.030899273,-0.030710751,0.14342882,-0.13293126,-0.026383357,0.15581055,-0.11330755,0.047992047,0.0358412,0.038529206,-0.15146114,-0.15297358,0.12791699,-0.07456713,-0.002422715,0.10324203,-0.16473965,0.08939481,0.15134043,-0.114332594,-0.15646793,-0.1274312,-0.026657496,-0.09636556,-0.15799774,-0.15502754,-0.11829878,0.12333684,-0.04561931,0.11584091,0.08819591,-0.038837012,0.13744397,0.16727912,-0.055564027,0.13101965,-0.10494609,-0.053428803,-0.13364947,0.13697472,-0.10261297,0.16143025,-0.14025536,-0.09678218,0.026199749,0.14007427,0.14180975,0.005069178,0.15920304,0.12264865,0.14767224,0.08904559,-0.1622163,0.07382158,0.042585574,0.12072244,-0.08084271,-0.09530894,-0.08922334,0.044719703},
	{0.094518244,0.12169933,-0.14735812,0.02064007,-0.023801627,-0.030824626,-0.05785747,0.06896691,-0.08343506,0.15133017,0.03269649,-0.10572275,-0.13869046,0.078758284,-0.07019651,0.023312822,0.04626325,-0.114843935,-0.021556836,0.047245186,0.011882315,-0.11811875,0.13398685,0.02544899,-0.029220123,0.09890125,0.1159783,0.17644025,-0.10336619,0.07934198,0.08741637,0.11831764,-0.04373338,-0.05133654,-0.03689054,-0.15138587,0.0148379225,-0.06577919,-0.052868035,0.1068941,-0.1588823,-0.15844432,0.0012658143,0.08069431,-0.111660406,0.1321591,-0.10272804,0.15468542,0.025114551,-0.05637282,-0.049423397,-0.1144033,0.069662556,-0.07995387,0.13631067,-0.08781314,0.07778357,0.05287806,-0.064471036,-0.13776498,0.1317823,0.0074589653,0.101783775,0.009093688,0.048806086,-0.13097638,0.08508318,0.02997104,-0.013152168,0.0070864325,-0.116568334,0.015978256,-0.0397865,0.08359813,0.12518816,0.028333556,0.05944639,-0.15573205,-0.08124089,-0.0063056634,0.11553751,-0.13730764,-0.017941695,0.10736117,0.13773632,0.05933647,0.10067602,-0.082448214,0.15902331,0.10777606,-0.068378165,0.11314009,-0.039230652,-0.056086466,0.11541303,0.09074652,-0.095991395,-0.096469305,1.5100522e-05,0.04868525,-0.14990392,-0.16938524,0.12622863,-0.065803,0.052369192,0.010895963,-0.12150542,0.059355985,0.12396882,0.12907141,-0.083318375,0.038420398,-0.08330878,0.00029122818,0.13488133,-0.06784998,-0.13811369,0.0615586,-0.014717286,-0.10517619,0.043325573,-0.093520954,0.046302002,0.15108766,-0.0013819183,0.16698964,-0.099427305,0.040397026,-0.16487296,-0.14233103,-0.017283987,0.15910503,-0.14924255,-0.06652388,0.1077948,-0.14948304,-0.1003449,-0.103305705,-0.026995568,0.12155413,0.0724302,0.15904176,-0.030424323,-0.09651749,-0.0003243042,-0.02075244,-0.053605832,-0.03955109,0.07938837,-0.07336243,0.119511224,-0.16334908,0.017390603,-0.05297185,-0.11277191,-0.024215445,-0.11356354,0.15547654,-0.14684628,-0.15289831,0.13485172,-0.14619793,0.016499853,0.12772073,0.03768372,-0.12588671,0.06282793,-0.15308157,-0.15328011,-0.024819786,0.057590887,-0.1425478,-0.03636888,-0.117770426,0.120572664,0.082918875,-0.0617651,0.12598202,-0.08802413,-0.08517212,-0.10379584,-0.027674273,-0.102538794,0.15525311,0.02147523,-0.09840976,0.11855804,0.11686377,-0.07415636,0.04767771,-0.027708337,-0.11871958,0.10626207,0.09533749,0.062408444,-0.061363425,0.15263979,0.010452075,0.023531426,0.035587244,-0.057405997,0.068694614,-0.10219858},
	{-0.14955276,-0.06935088,-0.07127695,-0.09854333,-0.07438864,-0.10845041,-0.06433991,-0.046594523,-0.001902547,-0.080260806,0.082142256,-0.037290514,0.009200936,0.14522876,0.022863662,0.04523308,0.0128348125,-0.06707499,-0.13286033,-0.08702967,-0.16657022,-0.004838883,0.06998967,0.17905024,-0.050906315,-0.10159188,-0.033059604,0.13343531,0.14853117,-0.046764616,-0.034839015,-0.17077936,0.053466804,-0.079624996,-0.15357693,-0.1566446,0.061835233,-0.15265864,0.023175439,0.091651216,0.011027523,0.040207412,0.12013871,0.0034045596,0.11501488,-0.09781157,-0.12689894,0.05107492,-0.069265515,0.052902404,-0.09493303,-0.10199659,-0.034711894,-0.11653505,-0.07495347,0.05053194,-0.028101651,0.03808342,-0.15371417,-0.15149845,-0.017724376,0.078385875,0.0520222,-0.08479312,-0.10872119,0.15871914,0.044135377,0.12995227,0.1230027,0.070767134,0.042866185,0.04510753,0.03026258,-0.09252794,0.14983588,0.124496244,-0.022961274,0.02025848,0.12332905,-0.1367729,-0.008715091,0.12654881,0.061693296,0.0133219585,-0.037057437,-0.14014804,0.10882889,-0.14345038,0.11908284,0.12796392,-0.050617382,-0.10755222,0.10509805,-0.14522529,0.10510554,-0.020584717,-0.01552326,0.1459387,0.08277665,0.1138314,-0.042731088,-0.08861439,0.052766487,0.030070096,-0.04228217,-0.07081078,-0.055888142,0.15989992,0.09468306,-0.142837,-0.109090626,0.13798401,0.040633142,0.0323678,0.08279572,0.13228573,-0.11890284,-0.0400494,0.04358236,-0.021776386,0.0025762154,-0.12501107,0.116569765,0.0005004614,0.13330339,-0.075234085,0.050568767,-0.118565924,-0.12268347,-0.06531287,0.0111720795,-0.066815354,0.06548197,0.050126545,0.008049897,-0.08725845,-0.14686182,-0.063967735,0.053622134,-0.0043217014,0.046397477,-0.112235054,-0.06218237,0.08171003,0.1429002,-0.070170045,0.1590089,-0.1558224,-0.010797515,-0.049180422,-0.056424513,0.16775969,0.078805186,-0.044993315,0.104138836,-0.0016966448,0.10676258,-0.11694136,0.1227364,0.16197541,0.13826942,-0.14232159,0.009815108,-0.07978931,-0.1279637,-0.14087375,-0.12314494,-0.05065186,-0.08297398,0.13270395,-0.06806525,-0.07284591,0.11043303,-0.16040158,0.018074859,0.080570914,0.07019433,0.117708854,0.07144412,0.08990286,0.020168746,0.14829713,0.017816069,0.1321582,0.009783692,-0.13060881,-0.14316972,0.096755415,-0.12674263,-0.12990192,0.09900365,0.1125842,-0.1139684,-0.022514973,0.062069695,0.06466044,-0.106938526,-0.051485848,0.15148789,0.15779892,-0.09601362,0.089807644,-0.05456179},
	{0.060790487,0.11322583,-0.03633879,0.109928705,0.0958132,-0.1603127,0.09516263,0.1318069,-0.10177241,0.08770594,-0.14949502,-0.00050292397,-0.066645175,0.030721556,0.08094743,0.15342127,0.09469283,0.077660725,0.014838502,-0.10729342,0.09716413,0.038157344,-0.08825598,-0.009424443,-0.07074532,0.00024853906,0.05031846,-0.09261613,0.048340738,0.037753787,0.15700121,-0.06182239,0.06967091,0.107797876,-0.114898585,-0.062459167,-0.08922775,-0.060289778,-0.09162363,-0.032537237,-0.0057838946,0.05506192,0.08241636,-0.07815142,-0.15262447,0.003290198,-0.010020225,-0.079090334,0.038727343,-0.12653542,0.1523285,-0.121201135,-0.043422677,-0.15041472,-0.072884314,0.10818751,0.16038872,0.11655602,-0.058997136,-0.061046436,0.01590498,0.037424937,-0.029838346,0.09642703,-0.059954524,0.09666017,0.0023732316,0.10286465,0.02343037,-0.08769959,0.047142744,0.027639322,0.06013019,-0.1521178,0.14791776,0.111652665,-0.099942476,0.1324022,-0.0413623,0.13694626,-0.09459608,0.12370062,0.053627253,-0.06405672,0.12302843,0.122773856,-0.092335716,0.08306071,-0.031796966,0.13531998,-0.010196852,-0.13382855,-0.09761804,-0.1100277,-0.052400272,0.14614104,-0.051923506,0.08743077,-0.075420536,0.14487599,-0.06468394,-0.15326515,0.025842734,0.020304002,-0.06835546,0.10864466,0.028648907,-0.12588955,0.047534026,-0.0600687,0.085484035,0.026543261,0.07114246,-0.077085294,0.09959826,0.04725987,0.13483587,-0.058393724,0.07582118,0.037214313,0.12893018,0.024923278,0.16030505,-0.099189594,0.016965017,0.06300466,0.04439106,0.08766455,0.15220942,-0.03915136,-0.0040985737,-0.026792217,-0.12684067,0.014529064,-0.043867923,-0.10894711,-0.097344175,-0.06124242,-0.04675119,-0.05412641,-0.12841652,-0.14557005,-0.13092212,0.045489404,0.082368836,0.097176224,-0.10231091,0.15025231,-0.14876133,-0.103735894,0.09956657,0.029941158,-0.06510307,0.15937859,-0.029275253,-0.12880918,0.16386351,0.09165342,0.12896527,0.009466403,-0.10364516,-0.045671538,0.11407376,0.02261211,-0.039007492,-0.049965568,0.10537668,0.019480996,-0.06984629,-0.042156335,-0.07761672,-0.09231412,-0.036494587,0.019612987,0.116134144,-0.1662409,-0.09821137,-0.16018586,-0.10596653,0.08250296,0.08622643,-0.071668826,0.053683117,-0.0485002,0.06386519,0.116242334,0.04335599,0.05695718,-0.15616177,-0.0012926534,0.07957524,-0.10647589,0.044865817,0.13871898,-0.07149144,-0.017587405,-0.14528196,-0.03917787,0.08862563,-0.10232126,-0.15406618,-0.12611605,-0.13329147},
	{0.07020446,-0.038091067,-0.14828083,-0.11179827,-0.052049268,0.107216164,0.15200931,0.14500816,-0.076220624,-0.14476547,-0.13756113,-0.093569055,0.06700051,0.068463586,-0.01383259,-0.11438018,-0.16628566,0.016620876,-0.096587926,0.038108204,0.16393696,-0.049780335,0.12933435,0.043387994,0.08655178,0.050687432,-0.017063996,0.14555654,0.03425578,0.15945937,0.12920944,-0.03091094,-0.06772214,0.02881005,-0.09238468,0.01078914,0.100922644,0.16271722,-0.11176105,0.011463114,0.1304331,-0.11065556,0.14613312,0.09284687,-0.122485206,-0.026819047,-0.048728876,-0.05895935,0.12618345,-0.008845372,-0.08119472,-0.11633455,0.13027866,0.11367978,0.030328752,0.081637375,0.052507125,0.054701716,0.1028124,0.077834636,-0.066898696,0.07356427,-0.16887635,-0.15144755,-0.046357803,0.09120343,-0.08558905,0.15480433,0.06301074,0.086653,0.02158957,-0.07472031,0.009202333,-0.09195863,0.020050427,0.03815294,0.15983841,-0.16906987,-0.0039736563,-0.14062405,0.037541635,-0.085285686,0.01407136,-0.16030766,-0.018135667,-0.088091746,-0.14291815,0.036608707,-0.14456731,-0.045766324,-0.037964392,0.15073864,0.0941595,-0.0027897237,-0.064680554,-0.06961076,-0.15629762,0.0062809987,-0.026829243,-0.059891764,-0.056622285,0.115574546,0.12809333,0.03201644,-0.08860914,0.100167096,0.1181397,0.0086665135,0.12976395,0.11804165,0.134987,0.14277354,-0.048314117,-0.05041458,-0.07064764,0.112591624,-0.07522361,-0.14323665,0.1162609,-0.0045319763,0.038766444,0.1370724,-0.058197,-0.112512656,-0.019608336,-0.019162225,0.055936802,0.074213244,0.12458766,-0.033107176,-0.105164215,-0.124458775,0.014155536,-0.047826923,-0.001562778,0.070739344,-0.019671785,-0.016936252,-0.14939545,0.09665473,0.08240283,0.119206816,0.122516856,-0.006948614,0.0030568559,0.11679812,-0.035911895,-0.15493476,0.15982585,-0.12857427,0.15845492,-0.14403355,-0.067596294,-0.13911416,-0.04609249,0.15306294,-0.13261746,-0.13724327,-0.048163343,0.14350219,-0.054593798,-0.156433,-0.10752562,0.14096326,0.12811469,0.09695353,0.105521426,0.11869676,0.12388616,-0.038061995,-0.12146068,0.019145915,0.16349384,0.13849421,-0.019434981,0.014410303,-0.04078233,0.05611545,-0.1278019,0.07572453,-0.0847225,-0.09529771,-0.104600914,-0.11876974,0.15567161,0.0009388515,0.011793071,0.006389674,-0.074290454,-0.0029415912,0.13745436,-0.14980581,0.13746493,0.033521093,0.022498587,-0.010817397,0.081391685,-0.14457576,0.009254917,0.14848506,0.08241077,0.12894516,0.07322636},
	{-0.13213804,-0.06333796,0.08484924,-0.08231023,-0.055833302,0.08695333,-0.0054761735,0.11515518,-0.047071185,0.050716303,-0.043493725,-0.13667618,0.0849787,-0.05506248,0.07209879,0.1600879,-0.0497618,0.046093296,0.044423323,0.14130463,0.13504633,0.13965732,0.009808644,-0.038803894,-0.044175252,0.13073006,0.001346257,-0.069081195,-0.021136489,0.13202268,0.08710584,0.02061862,-0.09559918,0.021414464,-0.016388977,-0.14931835,0.04829171,-0.037091326,-0.107847035,-0.03115376,0.047842644,-0.16331188,-0.16301009,0.09861237,-0.15895312,0.11799556,0.04640583,0.12310367,0.13530006,-0.0786416,-0.09644048,0.034343317,0.06920113,0.029509718,0.16245334,-0.08578981,-0.07160536,0.08343552,-0.06948671,-0.011598152,0.055532265,0.15993895,-0.068304844,0.026041405,0.13383462,-0.16958414,-0.017698873,-0.009671759,0.09362923,0.13806893,0.14212272,-0.06904509,-0.09168904,0.054589704,-0.08949732,-0.012916339,0.15989055,0.071287,0.15965255,-0.0045494935,-0.04715124,0.005654734,-0.032847628,-0.05245989,0.1324065,-0.10571997,-0.047390983,0.0075259325,0.02865324,-0.12200046,-0.08610034,-0.0633183,-0.06778476,0.035104074,0.16473165,-0.10068322,0.10332038,0.10524274,0.13983703,0.07595853,-0.14707929,-0.1192821,-0.14908093,-0.14672554,0.045080833,0.037530705,0.12995678,0.03399508,-0.120777436,0.027131665,-0.14312641,0.14267191,0.11597197,-0.052045662,-0.11580041,-0.1441276,-0.11119339,0.05136621,0.1406211,-0.07548684,0.082325794,0.13686465,-0.048877485,0.0785575,0.15628089,-0.018948328,0.05552179,-0.09111156,0.14340167,0.106586605,0.08222305,0.110980794,-0.13112275,-0.16608289,0.11976918,0.011053034,0.021326162,-0.155829,0.10570513,0.0020203383,-0.15872125,-0.01356136,0.030473288,0.060748074,0.09336623,-0.12430068,0.07384121,-0.02601463,-0.028518073,-0.10864764,0.117496744,0.022923976,-0.08822531,-0.03182183,0.11052022,0.115587,0.019738246,0.122296855,-0.12310862,0.01296381,-0.08849469,-0.13416803,0.107626714,-0.12659132,0.05207882,-0.15903482,0.14135724,-0.09125529,0.038664687,-0.040306415,0.10369483,0.09799889,0.1332429,-0.1653793,0.13448846,-0.15333869,-0.041550953,-0.047366455,0.13741326,-0.033627417,0.09433209,0.13838863,-0.0363235,0.14865519,-0.019798832,-0.159181,0.088438176,0.04795877,-0.11725727,-0.089800775,-0.0063461247,0.012660095,-0.02020395,-0.107525505,-0.010012127,-0.14564706,-0.0053829798,-0.11742799,-0.022591347,0.059330452,0.10531075,-0.06923834,-0.05539711},
	{-0.12858586,0.081080705,-0.12793896,0.0056359563,-0.08219648,-0.04275532,0.09281528,-0.13074495,-0.08598992,0.0881517,0.035393953,-0.15256521,0.14450875,-0.08473018,0.05011232,-0.020317446,-0.13388608,-0.08699271,-0.10076165,-0.096862495,-0.017180802,-0.14514081,-0.015376861,-0.13626857,0.12005835,0.08387165,0.123608276,-0.0019505563,-0.028308244,0.14080644,-0.111452326,-0.12532786,0.06261256,0.07873135,-0.023829356,-0.1163241,0.022019096,-0.053186893,-0.07800428,0.06615925,-0.13256545,0.14213589,0.037850227,-0.0047048414,-0.116646625,-0.12982076,0.04443572,-0.1288151,-0.0063823992,0.06105973,0.1130502,0.10359362,-0.092829876,-0.06396596,-0.07246245,-0.1499763,0.14009444,0.018455718,-0.0056105503,0.09596391,-0.15391071,-0.15408462,-0.060880557,0.12426233,-0.13404553,0.043807212,-0.15390125,0.13767254,0.06448072,0.07299352,0.11673867,-0.08950686,-0.0040060156,0.12642895,-0.0985162,0.16508259,-0.076213196,0.06634142,-0.0744614,0.13216841,-0.15269488,0.1452453,0.006606659,-0.015236527,-0.0648972,0.0028216888,-0.09632075,0.13684356,0.06496944,-0.030931685,-0.07512993,-0.1233635,-0.16813545,0.15967423,0.07907084,-0.024910007,0.116402715,0.061073285,-0.030807858,-0.080176145,0.123065114,-0.08631778,0.08312935,-0.03654759,-0.094596505,-0.074022286,0.043951582,-0.10645097,-0.11106326,-0.14439797,-0.032210402,-0.0946469,0.01692505,0.022075908,0.1050281,0.16165051,-0.010431864,-0.038566038,-0.036494736,0.15482426,-0.109256804,-0.05657112,0.13954733,-0.1413785,-0.15348504,-0.00022758007,-0.08108377,0.05887484,-0.13086565,0.009910471,0.019096361,-0.03952558,-0.1608305,0.008043099,0.093431994,0.0017353836,0.14893326,-0.01961108,0.15277992,0.06254867,0.15923633,0.1338827,0.007731269,0.13943146,-0.08666507,0.0024911244,0.019276302,-0.07138143,-0.11274812,0.035453353,0.039218724,-0.016018078,-0.0614175,0.14485095,0.05557844,-0.11163608,0.07056413,-0.16589989,-0.03027914,-0.06726788,0.08083813,0.05831469,-0.0064744703,-0.017425703,0.02133808,-0.06359075,0.047881875,0.076306075,-0.1422128,0.12392082,0.0750436,0.04566916,0.15829544,0.15985346,0.024835825,-0.1390712,-0.07403322,0.10808401,-0.121506356,0.11152757,0.11667354,-0.027536804,0.16139956,-0.1492525,0.09343846,-0.12874576,-0.007049948,0.06532485,-0.14656161,0.10906707,0.0020734912,0.06117681,0.030930797,0.15066552,-0.029431734,-0.029115496,0.00037549587,0.15080352,0.0035379014,-0.10003672,-0.07228407,-0.031035384,0.13887386},
	{0.042896442,-0.07380501,-0.07008329,0.12188861,-0.15161335,-0.10206101,-0.06742591,0.081025526,-0.09661249,0.02502309,-0.15455504,-0.13842934,0.1266502,0.08822655,0.011419366,-0.107307754,-0.119981065,0.13408345,-0.12487025,-0.15597686,0.04776194,-0.032923575,0.002938319,-0.08244974,-0.07174019,0.11601531,0.09192758,0.072097,0.049685314,-0.025988214,-0.02904972,-0.041543506,-0.1027922,0.16554737,0.031642623,-0.015367603,-0.031884998,0.10134077,0.17145787,0.068540394,-0.048498284,0.066341095,0.02375136,0.014563054,0.020171132,-0.040901173,-0.042505395,-0.15687785,-0.114612296,-0.07034069,-0.0902538,0.1185991,-0.12393362,0.04312936,0.14471588,0.07558278,-0.018721772,-0.16546275,-0.12617116,-0.15264718,-0.029119276,-0.0870486,0.032739658,-0.06533669,-0.11286981,0.08449956,-0.030365506,0.14980231,-0.025719777,0.027134936,-0.08926397,-0.12725715,0.028114334,0.1436344,-0.004899619,-0.016057514,0.06093863,0.08346758,-0.105142355,0.13373078,-0.14828938,0.08035703,-0.1398988,-0.14921077,0.08633543,-0.09518693,0.008033485,-0.09462149,0.10548817,-0.010037033,-0.14626583,0.106773876,0.038819756,0.051813263,0.06868347,-0.09457856,-0.088050246,0.1325809,0.022997037,-0.05076835,0.029974334,0.1450044,-0.011191311,-0.04759094,-0.041636594,0.10724854,0.17030285,0.053767473,-0.0386902,0.06357484,0.030859647,-0.009459393,-0.045796882,-0.07141548,-0.07183222,-0.012678651,-0.031874765,0.08428982,-0.080880195,0.07538768,0.06509005,0.04528255,-0.08356945,0.07182032,-0.085330844,0.0065035834,0.092596136,-0.10555144,0.15182804,-0.08617862,0.096884884,-0.048451435,0.16181925,-0.11887027,-0.15055189,-0.02385784,-0.13109787,0.08558499,0.12819701,0.13702808,0.13331537,-0.15020129,-0.09249846,0.14734682,0.012166814,-0.116395,0.09822292,0.12080942,0.08602616,-0.15156858,0.026870204,-0.017013697,0.01315166,0.0779048,-0.101183474,-0.073445484,-0.06776874,-0.1498635,-0.0012364788,0.057154574,-0.05084327,0.1391859,0.01773753,0.14450192,0.1233992,0.042412095,-0.15403767,-0.10703669,-0.1542065,-0.08286557,-0.048766848,0.03708268,-0.08012993,-0.14235963,-0.005286586,-0.15295784,-0.14266625,0.023533024,-0.10304723,-0.09543349,0.035028163,0.15390976,-0.069811925,-0.047019698,-0.12001787,-0.1196982,0.03839339,-0.12374361,0.1571751,-0.027141362,-0.03772797,-0.085953444,-0.15467933,-0.12210276,-0.1412465,-0.0823813,-0.15190524,0.021268642,-0.09821527,-0.08015847,-0.01933296,-0.11546145,-0.09910018},
	{0.02008782,-0.10198942,-0.14117227,-0.09363864,0.007597997,0.13979281,0.06702027,0.017173875,0.040195838,-0.026760055,0.1496839,-0.042437583,-0.080361865,0.15517688,-0.0023288853,0.07985857,-0.08658365,-0.011388645,0.16009589,-0.017933685,-0.06964077,0.12367296,0.15998746,-0.10091123,-0.034156445,-0.14049013,-0.08032922,0.13370566,-0.097097784,-0.08461859,0.052880596,-0.1048188,-0.030420877,0.13101064,0.038072806,-0.0020626914,-0.06377911,-0.06897198,-0.058191508,0.106507264,-0.108183846,-0.059394512,0.09222674,0.13562964,0.10038551,-0.10260314,0.12958859,-0.13100873,-0.064958766,0.04117591,0.029898612,-0.015397996,-0.10648392,-0.15618764,0.14859891,-0.04212638,-0.056828152,-0.16512942,0.08408361,-0.15748923,0.1467992,-0.1282943,0.09188137,-0.112572126,0.15027183,-0.093638174,0.050073877,0.0146238385,0.021016061,0.15460083,-0.013633764,-0.0674933,0.05924182,-0.10083631,0.04632684,-0.10729519,-0.1195589,-0.007094859,-0.11245812,-0.0007130677,-0.035178423,-0.13156335,0.011485949,0.1301579,0.0072699552,0.10571354,0.04895278,0.021681732,-0.14139248,-0.15311785,0.009239206,-0.019179577,-0.013154613,0.056384552,0.12665349,-0.06740856,0.016154245,-0.045147125,0.07290205,-0.049805224,-0.042080678,-0.042852968,-0.10244524,-0.16657728,0.03454951,-0.0330354,0.07445641,0.12900572,0.021619046,0.15874866,0.017295796,-0.08918185,-0.16086312,-0.06561667,-0.12223137,-0.15462977,-0.15148391,0.09764985,-0.148812,0.06850054,0.1116243,-0.15200853,-0.004668083,-0.052986156,0.057264477,-0.07818531,-0.09028858,-0.08955575,0.10701155,0.049709942,0.1565128,-0.168052,0.08376725,0.013163664,0.007853624,-0.10841891,-0.09895388,-0.07366534,0.1479397,0.13354965,0.00519297,-0.009172325,0.14786576,0.08991604,0.16393882,0.15952736,-0.10787529,0.027996995,0.035846252,0.036526423,0.09138905,0.11913455,-0.09467467,0.12055466,-0.01583057,-0.03884422,-0.14774305,0.022871036,0.13419352,0.045294758,-0.02911996,0.038143694,-0.04085365,-0.007198329,0.16172431,-0.006493682,-0.013149204,0.09561632,-0.10929164,-0.16550298,-0.04464561,0.05182175,0.067041375,0.08886383,0.10987713,0.12631673,0.07200558,0.005369679,0.08245595,0.011240934,-0.15487361,0.018720957,-0.012952881,-0.09205912,0.027875658,0.07269737,-0.15716353,-0.0656351,0.11895036,0.08973362,-0.11014508,-0.07848218,0.011756616,0.013913179,-0.08979005,-0.14866938,0.06057036,-0.06630398,-0.008475425,-0.10767214,0.04624437,-0.14902459,-0.096209906},
	{-0.06344222,-0.09666745,-0.014695673,-0.099110655,0.058251735,0.13707788,-0.033607956,0.06411391,-0.097644866,0.03165268,-0.12577213,-0.11908256,0.009276144,0.14868754,0.15534103,0.02367193,0.0055656354,-0.14949916,0.06073238,0.10335239,-0.06407392,-0.011322186,0.043452524,0.16811863,0.037216827,-0.13463636,0.07274188,-0.13727263,0.07279255,0.13989489,-0.119569786,-0.1001647,0.12678778,-0.090261705,0.13146883,-0.019697562,-0.0199237,-0.13170145,0.05210547,-0.061710075,0.03383948,-0.051390506,-0.060383774,-0.020232584,0.0032677662,-0.1411359,0.06072735,0.119376,-0.14362934,-0.119700536,-0.04146844,0.07951297,-0.13470067,0.14392911,0.04975475,0.058345433,0.00023050199,-0.0946394,0.0041707586,-0.077228755,0.01800815,0.14903331,0.028192138,0.13996129,0.057841156,0.016907468,0.018914012,-0.14079054,0.052314553,0.101069614,0.07424208,-0.11704983,0.049034912,0.06451906,0.14925599,0.065775745,-0.14023606,-0.15808935,0.11402441,0.05981027,-0.05622684,0.12809066,0.1406589,0.06587627,0.11212194,0.00083965017,0.1027776,-0.12489431,-0.16311397,-0.07674655,0.01624049,-0.08877193,0.06649401,-0.10027586,-0.0016430703,0.14544514,-0.121355705,0.05775434,0.0036842104,-0.00933796,0.10867535,0.08050959,-0.059494626,-0.037323337,0.10850574,0.15376842,0.08544548,-0.09666615,0.038065955,0.08319121,0.11213405,-0.09524387,0.013782125,0.052969597,0.054271493,-0.013558208,-0.088773474,0.026705017,0.10735094,0.045522165,-0.029072097,0.13802595,0.02721601,-0.07140888,-0.1515698,0.10468624,-0.046267886,0.13994813,-0.11000001,-0.13290635,-0.11124218,-0.016176581,0.015912887,0.07813863,-0.13908927,-0.09963587,-0.07180511,-0.13710417,-0.12264321,-0.058013655,0.09836367,-0.098144464,-0.09266115,-0.026087303,0.046335597,-0.046678014,-0.07069185,-0.12946531,-0.0013853621,0.07361446,0.01599536,-0.12883158,-0.16035882,-0.047862396,-0.085192695,0.11170528,0.14225583,0.08292916,-0.12447079,0.16161473,0.11368302,0.14445108,-0.025977163,-0.08639397,-0.094732985,-0.092188716,-0.16628075,-0.008147308,0.107169844,-0.07011722,-0.022325171,0.042541556,0.10275902,-0.047013994,-0.059913896,-0.008569808,0.113021605,0.11318881,0.04485399,-0.15386376,-0.09973937,0.042989954,-0.0029161454,-0.15700328,0.06453654,-0.11687208,0.1269094,0.08505853,-0.15216261,0.05064303,-0.111617945,-0.109029695,-0.011427731,-0.11964288,-0.015219282,0.13275145,-0.08441121,0.039866105,-0.09836683,-0.09216295,0.108111896,-0.011462264,0.080569334},
	{-0.026746515,0.11781823,0.002841523,0.030036584,-0.04728952,0.13587397,0.037707936,0.022520551,0.09202511,-0.15573995,0.0667309,0.028822606,-0.11529739,-0.06542351,0.009290749,0.14841275,-0.0012152732,-6.712088e-05,-0.0822818,-0.073062964,0.07062103,-0.053143315,0.14557989,-0.100334294,0.112139925,0.014566331,0.12267989,-0.04168388,0.08539461,-0.069302,-0.13192673,-0.11215702,0.0736262,-0.12107531,0.09386099,0.11074364,-0.13481228,-0.060780965,-0.14184704,-0.058603827,0.14194594,0.13625559,-0.05007456,0.0064983214,-0.13210797,-0.12843135,0.14332104,-0.02029562,0.10560849,-0.07295797,-0.019114282,0.11390836,-0.011580348,-0.036539454,-0.011066677,-0.15926996,0.03426396,-0.107213095,0.12848759,0.12369475,-0.0045083626,-0.078647904,0.120389916,-0.14256677,0.1324198,0.1115243,0.10497856,0.07149459,-0.070457496,-0.1360112,0.080540694,0.12755984,0.058154754,0.16082679,0.12268088,-0.12758915,0.119762465,-0.076337375,-0.09498391,-0.08313566,-0.13440338,-0.15564121,0.010266037,-0.031169582,-0.11662924,-0.053275157,-0.10246325,0.06873572,0.09791077,-0.064443044,-0.094373256,0.062737696,0.040929087,0.077671535,0.14045958,0.17707713,-0.03176078,-0.11926747,-0.029611623,-0.08471293,0.108927,0.007015767,0.042207655,-0.012434515,0.059994977,-0.017312765,0.08510908,0.005502148,0.038897425,0.1393374,-0.053325802,0.13422553,-0.009994133,-0.11024893,-0.104782924,0.15078993,-0.10053764,0.1454851,0.026650593,0.03910221,0.06472527,0.120864205,0.0516977,0.105417125,-0.16633333,-0.11472508,-0.07786062,-0.07057923,0.08226171,-0.09154277,-0.12229197,-0.008330938,-0.09424633,0.105014175,-0.08479705,0.04591814,-0.10748318,0.037066117,-0.07836681,0.04105584,-0.043535694,0.015806472,0.14184347,0.06859897,-0.018319437,-0.034497816,0.12671936,6.666622e-05,0.03820544,-0.007099222,0.13549119,0.162878,0.09472538,0.06627726,-0.08539277,-0.0390432,0.01941463,0.047425717,0.0849063,-0.0735932,0.1605181,0.13628131,-0.1351473,-0.022019964,0.15891908,0.0895326,-0.15016131,0.00010955456,-0.12808035,-0.008590389,0.15832111,0.104846776,-0.13320416,-0.12437303,0.0010856683,-0.086317725,-0.06464641,-0.0017170031,-0.057907816,0.08751579,-0.04376556,0.094445996,-0.10494256,-0.07319044,0.10786855,-0.07340093,0.14796612,-0.15231547,-0.11488239,-0.13932104,0.13008532,0.014387057,0.019349245,-0.039947573,-0.04305731,-0.1275673,-0.0077835424,-0.09538027,0.16740635,-0.15343249,-0.16239741,-0.07379211,0.11489096},
	{-0.13649018,-0.0852807,0.15019983,-0.04872003,-0.13261974,-0.03759324,0.10105922,0.16965142,-0.06697403,-0.08646308,-0.060579304,0.15261115,-0.052401982,-0.15808752,0.1489212,-0.0421246,-0.090234675,-0.019709129,0.11266999,0.12449207,-0.06111926,-0.13851471,-0.052124575,-0.021027533,0.1643335,-0.006439654,-0.05388254,0.0019063675,-0.07095962,0.08120563,0.15343514,-0.14312293,-0.061349653,0.044168424,-0.008953955,0.015160255,0.13344733,-0.0744934,-0.15935935,0.11760832,0.020628681,-0.004799322,-0.06238624,0.0074138213,0.07499277,-0.13474077,0.07141136,0.09786914,-0.0700462,0.07312417,-0.07561479,-0.16158953,0.025911888,-0.07854947,-0.016181173,-0.16035798,-0.06967263,0.03992856,-0.015202771,-0.080997035,0.0020025582,0.091224164,-0.03736277,-0.09728989,-0.15847994,0.15868299,0.10006562,0.00563005,-0.12030023,-0.01476613,0.1228814,-0.029468544,-0.09530645,-0.14759384,-0.045963448,-0.1335333,-0.12454205,-0.13343824,-0.06265724,-0.15378696,0.00043375278,-0.018117748,0.08352904,-0.00014428236,-0.098640196,0.09336426,-0.066496685,-0.110506326,0.10020814,0.115926966,0.104719736,0.086935155,0.09858693,0.11797458,-0.031561077,0.14765556,-0.09462755,0.13926834,-0.16075674,0.0017707185,-0.09366553,0.090126306,-0.0090139825,-0.08084931,0.058092967,-0.0202165,-0.05173415,0.10452584,-0.0048067276,-0.13154015,-0.040026315,0.07441162,0.11778724,-0.01211212,0.055267,-0.09737211,0.10277294,0.06842129,0.13140434,0.058673605,0.16567853,-0.10717215,-0.12739578,0.049329445,-0.057606556,-0.09466605,-0.13573985,-0.023208868,-0.13936715,-0.05198607,-0.119747885,-0.05482576,-0.059770204,-0.08530058,-0.016607787,0.050146844,0.0066534164,0.0464936,0.045580402,0.031526886,-0.12588984,0.11991001,0.12426702,0.11035042,-0.14422888,-0.08470639,-0.16083685,-0.06996641,0.104512855,-0.079515934,-0.0053148256,0.034230743,-0.12938797,0.045640107,-0.08354834,-0.14630783,-0.13239296,-0.014579626,0.12036382,0.078864716,0.10589733,-0.120127074,0.010814253,0.14224964,-0.047416512,0.13460873,-0.11600443,0.06351196,0.02056698,0.114351,0.046366014,-0.09179181,-0.04585123,-0.12378454,-0.043779906,0.14955628,-0.0937983,0.0246887,-0.03498964,-0.07591884,-0.02138496,-0.10698718,-0.15737382,0.09480052,0.10773182,-0.13497086,0.16000082,0.09846222,-0.069219664,0.15216,0.015658475,0.005880435,0.114584334,-0.079149656,0.057844352,0.115830615,0.13515694,0.036870547,-0.048809245,-0.1500556,0.09070123,0.13782229,0.11345128},
	{0.010343408,-0.09547332,0.05536628,-0.018568158,-0.019990372,-0.020628776,-0.008876133,-0.12092916,0.05973078,-0.15081705,0.00481378,0.010742166,-0.105312146,-0.11781373,0.11271943,0.13471393,0.11985147,-0.110573895,0.029335722,0.09487937,-0.018281719,0.07934284,0.015628943,-0.06841858,-0.1523211,0.15688299,-0.041126303,-0.12765612,0.09340376,0.0018382692,0.065479815,0.14370376,-0.087743446,0.043007113,0.032074008,0.12503009,0.10071014,0.124859266,-0.046101857,-0.16167168,-0.16845576,0.027572127,0.14011376,0.0033725253,0.1353747,-0.14884278,0.15942821,0.062293265,0.055098932,-0.13268389,-0.063967295,0.09140376,-0.021751955,0.071832046,-0.034223933,0.045415938,0.007850699,-0.15699992,0.14459077,0.14889868,-0.15464623,0.1450088,-0.0059294347,0.14137295,-0.06782525,0.13367438,-0.1622248,0.03370862,0.0653277,0.02179687,-0.039929144,-0.15051948,-0.041345272,-0.11089398,-0.025879242,0.13599974,-0.16147035,-0.042407833,0.030787135,-0.1518106,0.035897963,0.08100256,-0.0041566784,0.05664666,0.041298907,-0.07169434,0.044259436,0.008406181,-0.05441062,-0.037752885,-0.05483449,0.13746755,0.052638214,-0.03313372,-0.012407707,-0.09315704,-0.09816159,0.13435566,-0.10832361,0.030728765,-0.04576796,0.0052533774,0.11331606,0.12298139,-0.0072941156,0.055460326,0.007868653,0.020625627,0.1092614,-0.100086614,-0.05123601,0.0068493215,0.001266505,-0.046850454,0.035860784,-0.058593735,0.06362517,-0.040548652,0.02220508,-0.061753053,-0.044739425,-0.013155833,0.07926579,0.13000773,-0.05536995,-0.1048843,-0.09828849,0.12886146,-0.08984939,0.100757845,-0.122173466,-0.13241608,0.14440128,0.09512002,-0.09521685,-0.11821797,0.06683211,0.08336559,-0.13538572,-0.11128492,-0.11460931,-0.15516135,-0.12021359,-0.017108388,0.006725157,0.11797924,0.06262602,0.12081075,0.16860768,0.045348354,-0.13254057,-0.14642154,-0.101839215,-0.15878631,-0.15423821,-0.075014815,0.0009060355,-0.10270929,-0.072935164,0.024590503,-0.01509367,0.09327273,0.115901396,-0.11359049,-0.069065735,-0.028293679,0.001932804,-0.14494687,0.08792786,-0.0071319323,-0.06937252,-0.09468359,-0.13290192,-0.07658991,0.13423052,-0.09559647,-0.032615893,-0.0025165787,0.06871208,0.16303991,0.014366027,0.16669427,0.012080384,0.037322477,-0.105378754,0.01308763,-0.05689507,-0.14498752,0.088361196,-0.10635532,0.11673746,-0.06284825,0.13741702,-0.033248235,-0.06459419,-0.027060365,-0.08285138,-0.036241718,0.039746426,0.08477334,0.1247846,-0.09499902,-0.15854476	}
};