// include/conv2d_3242_weight.h
// sergio rivera 
// 2020/02/15 02:49:56 

const float conv2d_3242_weight_p[3][3][8][4]=
{
	{
		{
			{0.07916756,-0.025589224,0.11310167,0.06023649},
			{0.1757604,-0.13757208,0.09354735,-0.014729735},
			{0.15725154,0.22283255,0.007207841,-0.07490757},
			{-0.018808212,-0.19373111,-0.1932999,0.04526695},
			{-0.21517207,-0.20683795,-0.2299868,0.14633372},
			{0.16526182,-0.058289774,-0.06984173,-0.054858662},
			{0.07049055,0.22811756,0.14977936,0.12103397},
			{0.17322993,-0.21013969,-0.13360937,-0.11647841}
},
			{{0.19838376,-0.20378631,0.20012482,-0.1341403},
			{-0.0044082543,-0.1646367,0.111699305,-0.20451483},
			{-0.23465528,-0.14584833,0.20665736,0.20564617},
			{0.06442394,-0.06303844,-0.19758464,-0.18717174},
			{-0.09377206,0.08304786,-0.1926027,-0.1232728},
			{0.06945014,0.12319415,0.19140254,-0.025362823},
			{-0.042125266,0.20618758,-0.17166054,-0.09450337},
			{0.10655446,-0.1753258,-0.06954318,0.13009015}
},
			{{-0.18671823,-0.10706784,-0.17394711,-0.22109674},
			{-0.056757774,-0.18765548,-0.081334434,0.080611594},
			{0.052527785,0.053445503,0.19029714,0.11623401},
			{0.030541688,-0.12640077,0.041176595,0.11135043},
			{0.11189745,0.0046759374,-0.052717995,0.1853627},
			{0.05065521,0.20650627,0.1457694,-0.1478138},
			{-0.054963883,-0.20377553,0.106992275,-0.15603738},
			{0.22486624,-0.21496119,-0.019072538,0.10869677}
}
},
			{{{0.0036777614,0.12748119,0.2246062,0.20253257},
			{-0.010034076,-0.014597834,-0.09849488,0.21720725},
			{0.006233663,0.17126459,-0.17580986,-0.12843658},
			{0.22355264,0.043398026,0.003134254,-0.049915995},
			{0.16664363,-0.15315694,0.10244426,-0.17003915},
			{-0.20710233,-0.08068505,-0.22379303,-0.1436193},
			{0.15004395,-0.024456758,0.07750289,0.14128867},
			{-0.048409943,-0.22642693,-0.14170249,0.17456566}
},
			{{0.06350041,0.05225936,-0.14976504,0.2165495},
			{0.16327046,-0.18292594,0.044651423,0.16495803},
			{0.04210827,0.12148262,0.0027610497,-0.071393274},
			{-0.10507248,0.038696285,-0.11884217,-0.009114927},
			{-0.038133107,-0.12591088,0.08623575,0.16023678},
			{0.1568911,0.22900434,-0.20107104,0.19167046},
			{-0.13682696,-0.15203746,-0.12621862,0.112166725},
			{0.088239394,0.042950127,0.20865422,0.00024194636}
},
			{{-0.030094625,-0.0058850483,-0.053706247,-0.18103118},
			{0.21647368,0.05836453,0.16728534,0.2078217},
			{0.16342196,-0.15226421,0.15350786,-0.05773381},
			{-0.04882742,-0.23229118,0.039916534,0.088381745},
			{0.16632842,-0.21624632,0.043719284,-0.1721967},
			{-0.011947993,-0.217581,0.13295557,0.0694348},
			{0.22357467,0.11135015,-0.20644481,-0.046572637},
			{-0.030786267,0.027589908,0.18165055,-0.067728005}
}
},
			{{{-0.15575112,0.03208174,0.10555164,-0.005655314},
			{-0.122122966,0.20176063,0.0633935,-0.056285787},
			{0.03956013,0.09239934,-0.028950429,-0.21653873},
			{0.020653434,-0.01623995,0.07590844,-0.13934349},
			{0.22269481,-0.03650993,-0.13704759,0.11045702},
			{-0.2179619,-0.12946112,-0.18997529,-0.032612167},
			{0.17987365,-0.027740149,-0.1451561,-0.04635343},
			{0.21465379,-0.06889009,-0.13443674,-0.19095375}
},
			{{-0.21135089,0.028646246,-0.073659845,0.020831576},
			{0.026022604,0.088815756,-0.06337001,0.22679277},
			{-0.119894326,-0.18780582,0.13779846,-0.008174857},
			{0.00566923,0.110062696,-0.15467939,-0.20374557},
			{-0.15687077,0.019645764,-0.23331657,-0.08701225},
			{0.13670214,-0.11032014,-0.017412763,-0.14509311},
			{0.004960727,0.08332404,0.15862927,0.08439907},
			{0.21593542,0.04447097,-0.071280174,-0.025322108}
},
			{{0.19061792,0.036275778,-0.19456252,0.13251692},
			{0.046410654,-0.0050873295,-0.071999,0.12042129},
			{-0.0508003,-0.10927665,-0.056470435,0.18521573},
			{0.21846655,0.16408716,-0.047493324,0.17940101},
			{-0.11848873,0.14881752,0.16094781,0.16183741},
			{-0.16660292,0.18841194,-0.17278549,0.11326245},
			{0.15689287,-0.050750103,0.12765233,0.090457045},
			{-0.054937616,0.15454398,0.1782443,0.14288165			}
		}
	}
};