// include/dense_2618_weight.h
// sergio rivera 
// 2020/02/15 02:50:01 

const float dense_2618_weight_p[6][298]=
{
	{-0.09583432,0.03100589,-0.036056682,-0.12240255,-0.118726335,0.064529076,0.038609877,0.009808758,-0.115425274,-0.039473053,-0.04009528,-0.06816931,0.042851638,-0.03701219,-0.083506115,-0.12279541,0.10976931,-0.11202752,0.012081055,0.09231295,-0.024531541,-0.025417963,-0.030507674,-0.0077084443,-0.089922085,-0.012589338,0.12046988,-0.10449321,0.011620574,0.061054416,-0.03194881,0.008414625,-0.03994722,-0.09389747,0.033815615,-0.013004704,0.0793574,0.04559032,-0.078607604,-0.04220875,-0.11698791,0.04482415,0.0778748,0.08092978,0.1074389,0.09420067,-0.05869237,-0.056144513,0.07760725,-0.008896998,-0.044211507,-0.047291018,0.03490066,-0.038018867,0.077539995,0.012968045,0.06132476,0.07516976,-0.008845843,0.13295011,-0.04466278,0.0024745618,0.08387636,0.07362404,0.0090973405,-0.13719986,-0.11554292,-0.062153485,-0.10706073,0.107547104,0.06779683,0.025312401,-0.09912502,0.027759297,-0.056837928,-0.070804514,-0.09272436,-0.010943528,0.13219994,-0.030972106,0.0654223,-0.0054908637,-0.13135976,0.14147387,0.08131913,0.08513894,-0.11011257,0.09971208,-0.115725785,-0.043329235,0.09935457,0.042154737,0.038652424,-0.07701209,0.09857119,0.0022274908,0.09528522,-0.068128325,-0.052479926,-0.03406266,0.13626274,-0.07817009,-0.012950855,-0.07408244,0.13582371,0.11788283,-0.00394244,-0.008260355,-0.076217525,-0.10122905,-0.13035877,0.040759612,0.11547004,-0.07008523,0.047851514,-0.0026756118,0.07191203,-0.05963589,0.012601756,-0.1356955,0.05065346,0.13992172,-0.14259015,0.09138595,-0.043736354,0.072534956,0.012879757,-0.09929642,-0.052707326,-0.128368,0.05673499,-0.11822782,-0.060734317,-0.0072930017,-0.03954203,-0.013120584,0.021933125,0.08206227,0.12258966,-0.11511942,0.085441336,0.022244843,0.08871063,0.030869149,-0.1035368,0.124550074,0.084039815,0.076869,-0.0730211,-0.01358756,-0.045648683,-0.11652588,0.12412382,0.018619057,0.018049622,-0.02858835,0.07121177,-0.118866146,0.087531224,-0.091154344,0.12131534,0.03509812,0.014789688,0.044597354,-0.049258005,-0.083962336,0.06092785,0.02996352,-0.08081951,0.12185575,-0.026391812,0.04511861,0.017228423,0.023188634,0.13726756,-0.11118258,-0.007717356,0.104581915,0.017049596,-0.08944432,0.12218681,0.1436386,0.05559162,0.12398342,0.13140476,0.046419896,0.060464915,0.13885334,0.041022055,-0.03749571,-0.069727056,-0.0056227813,-0.11875556,0.05289109,0.0024985739,-0.12646306,0.11774464,0.0601132,0.024602335,-0.12296294,0.014864848,0.006670598,0.11592027,0.039802037,0.11606165,-0.013197679,0.05725312,0.020332223,0.115675434,0.049868286,-0.049283028,0.14029689,-0.078111716,-0.0118095,0.044599704,0.030623108,0.041655544,0.038662583,-0.026894942,-0.12909314,0.05223033,-0.018469583,-0.09031243,0.095649876,0.009488898,-0.055165946,0.08811813,-0.0053308937,0.06139992,-0.0640172,-0.11965946,-0.11885268,0.03816661,-0.023548365,-0.14452812,-0.12934522,0.015929582,-0.008299478,0.07150278,0.054498967,-0.09126613,-0.028944045,-0.08368199,-0.062992044,-0.12954776,-0.068258494,-0.061174084,-0.10614654,0.11483693,0.059531614,-0.046666585,0.06604949,0.01897015,0.023148,-0.090573974,0.07055712,0.03077661,-0.01065687,-0.11388637,-0.0283695,-0.09557157,0.016681654,-0.0930202,-0.07523904,-0.007455131,-0.10609962,-0.031896878,0.034650423,-0.12863211,-0.09135465,-0.023187626,0.097725436,-0.098969206,0.11337632,0.038986903,-0.12539713,0.04012605,-0.10308537,0.012818119,0.13021196,-0.060540505,-0.031082053,0.043054495,0.036957197,0.044583157,-0.058941156,-0.053685322,0.08785542,0.109055586,0.021508133,-0.0062881187,0.020147102,-0.033284947,0.11419447,0.11722415,-0.086139165,0.13522753,-0.04117215},
	{0.018932026,0.041604962,0.0067046927,-0.0033568374,-0.08546268,0.0043842164,0.011606179,-0.058257572,-0.08943919,0.033418454,0.0481408,-0.059338093,-0.14181708,-0.022190807,0.03173055,0.0025054503,0.119267024,-0.05509086,-0.029035628,-0.03270033,0.043246474,-0.11261851,0.10679295,-0.015891928,0.059037033,-0.030810041,-0.051396184,-0.012195257,0.017698273,0.050690208,0.03286285,-0.053770997,-0.09944339,-0.1243438,-0.09437592,-0.07135982,0.062503524,0.026066722,-0.04156253,-0.054793827,-0.054371852,-0.14082782,0.044356953,-0.04597496,0.0028192392,-0.058690824,0.0766549,-0.0036501153,-0.11718241,0.059888687,0.100896135,-0.08968922,0.07759857,-0.03804891,-0.07041098,0.046778116,-0.016371673,0.05569524,-0.03581955,-0.0522869,-0.004086099,0.04942021,-0.13664895,-0.1180273,0.0387303,-0.029171435,0.06796809,0.012458323,-0.056043804,0.058437143,-0.074442334,-0.033100076,-0.0797965,0.055853896,0.010559385,0.11638821,-0.10616245,-0.099369705,-0.11955813,-0.041683897,0.011896511,-0.034153927,0.06848391,-0.08653483,-0.14300293,0.02386054,0.02701868,-0.09382544,0.10693602,0.086630724,-0.117211916,-0.018453402,-0.09838782,-0.09887764,0.023688314,0.013934007,0.033813983,-0.04337857,0.049543016,0.009417938,-0.08681312,-0.08701772,0.10191438,0.114506416,-0.08934163,0.108747184,0.13186269,0.12876293,0.07435544,-0.14197265,-0.035218492,-0.1016004,-0.045339074,0.026806708,0.07211603,-0.103114024,0.049544588,-0.13050477,0.035015643,-0.099041566,0.10227913,-0.058044996,-0.08638143,-0.007770954,0.0064990534,-0.11166037,0.015115067,0.07341161,0.047550313,-0.017363451,-0.03315046,-0.0029974373,-0.13597879,-0.05751474,0.095066704,-0.07850359,-0.11667916,0.05357435,-0.08997239,0.10001678,-0.033784825,0.02580965,-0.04032571,0.105007015,-0.010978512,0.13393027,-0.009876211,-0.018438384,-0.1460392,-0.111772195,0.07933073,-0.08278258,-0.035286926,-0.018608313,-0.0019218487,0.0080572795,-0.036731355,-0.08342164,0.07090065,0.095966324,0.10538486,-0.07410906,0.06715964,0.07492375,0.0871555,-0.024459276,0.0603093,-0.032242805,0.03244514,-0.028131884,-0.053018697,-0.13209522,0.0859293,0.12817942,0.0019971447,-0.12903404,0.12665085,-0.0027987785,0.11956452,-0.009295015,-0.065043636,-0.13958414,-0.11606171,0.108957745,0.13192688,0.030597504,-0.03975379,0.08108874,0.1424942,0.026014706,0.07616406,-0.04554824,-0.06448957,-0.04314262,0.11362899,0.02133446,0.061781485,0.052443456,0.05882673,0.07126019,0.09913274,-0.017574396,-0.08383729,-0.0514049,0.012411028,-0.0036762408,0.08763062,-0.07528323,-0.031779744,-0.07589774,-0.12735024,0.108574145,-0.047441565,0.12806949,0.055132944,-0.05717158,-0.10962248,0.08332961,0.035068203,0.14339544,-0.021097634,-0.0010681169,-0.07504948,0.09524071,-0.079974174,-0.1307842,0.023472918,-0.008646475,0.041980423,0.08749189,0.102807894,0.094535224,0.079120815,0.015335002,0.1263827,-0.007831607,0.04105989,-0.12481221,-0.10615072,0.01458401,0.047045138,-0.0166724,0.13944173,0.12578894,0.0034333412,-0.042002235,0.10837334,-0.039517246,0.008345294,0.08256366,-0.052340608,-0.08956776,0.04542047,0.036111087,-0.010760776,-0.034577247,-0.06590766,-0.023258118,-0.029165594,-0.052565467,-0.0049157557,0.056680597,-0.0975065,-0.033353645,0.006097587,-0.04470914,0.0037350242,-0.10077626,-0.04160684,0.06601628,-0.108968444,0.12054433,-0.11607265,0.124630235,0.06796678,-0.101663694,0.102964096,-0.13535048,-0.07126501,-0.01181885,-0.010669854,-0.085093565,0.082978144,-0.07141669,0.0028485518,-0.010266921,-0.10275936,0.049839646,-0.010394929,-0.06903872,-0.052592233,0.12629302,-0.06499324,0.08459912,-0.021997763,-0.08770105,-0.06772335,-0.11022114},
	{0.00056858803,0.0025101476,-0.08101183,-0.037075844,0.0055886665,0.06395101,-0.118413374,0.13345721,0.07389315,-0.013680721,0.05132145,0.0737751,0.018290328,0.0043194867,-0.052873146,-0.0044056573,0.0076164324,0.010331491,0.092736214,-0.046387028,0.04385659,-0.09361142,-0.06154335,0.08600303,-0.107788205,0.07099114,-0.08299629,0.07172023,-0.12520513,0.028256461,-0.10451342,-0.06644793,-0.13001543,-0.06751128,0.11221547,-0.031430338,-0.036175825,0.014503054,-0.0444984,-0.109748185,0.13189915,-0.0825444,-0.078294955,-0.046690714,0.06548952,0.12951593,-0.14145422,-0.06579138,-0.10209664,-0.012019924,0.12528422,-0.029484162,0.09091514,-0.056802556,-0.014459388,0.05725172,-0.12548558,-0.12424333,0.121177055,0.08508039,0.063572,0.0668403,0.117412314,-0.080101795,-0.03350284,0.09702941,0.03918677,-0.08125745,0.1163087,0.056590464,0.025894204,0.09568322,0.03298715,-0.095069185,-0.07070075,0.054388594,0.04942451,0.13227747,0.12330395,-0.06518579,0.075194284,0.06430164,-0.1043654,-0.04932523,-0.05451525,-0.011665959,-0.020100972,-0.0059399335,-0.083360225,-0.062686615,-0.12051071,-0.1042357,-0.09914681,0.120468356,0.051851455,0.048374303,-0.068162516,0.09851931,-0.09302122,-0.026321325,0.027213816,-0.12011197,0.08474716,-0.035937913,0.03594006,-0.028863568,0.10507708,0.026594652,-0.022479536,-0.09615902,-0.011246983,0.061960492,0.029272936,0.13073523,0.0611973,-0.018586619,0.03947605,0.026599698,-0.07201994,-0.019439641,0.04227752,-0.005634372,0.11196395,0.074204646,0.024263365,-0.041931678,-0.025559222,-0.013615465,0.08106485,0.023138484,0.08179506,0.09542581,0.05938319,-0.121407904,-0.0704328,0.05276276,-0.016603222,0.08731853,-0.027614463,-0.04981913,0.016022768,-0.0005320489,0.098407365,-0.03129366,-0.015696159,0.06717906,-0.12519982,0.00892643,0.10526558,-0.12174785,0.04793475,-0.03709065,0.06199254,0.10729859,-0.12578058,-0.02615724,0.09763161,-0.12503774,0.018468915,0.07024812,0.13066737,-0.09477236,-0.04069403,0.031992752,0.086193055,-0.03844155,0.04614633,0.009836407,0.06921463,-0.057870455,-0.027685441,-0.013684994,0.0683845,0.07389243,0.0024687117,-0.04287279,0.07591085,-0.061018195,-0.10560321,0.045594983,0.0711956,-0.12031887,0.11751374,0.06507232,-0.070149474,0.031024965,-0.008926917,0.12667009,-0.08589759,0.13214047,0.08531492,-0.11489235,-0.034381017,-0.0016551801,0.008718609,-0.11114691,-0.0070311455,-0.02369557,-0.086711064,0.03642581,-0.013875626,0.13063826,-0.06346957,-0.028446024,0.07971621,-0.065060586,0.10336476,0.005441111,0.079851985,0.14205298,-0.11942117,0.08409673,0.059947014,-0.12508604,0.10694845,0.014032793,0.046635684,-0.042132076,-0.08431457,0.123388484,0.027767297,0.00821121,0.12886238,-0.0012337326,0.05194301,0.09192138,-0.13545841,0.07344072,-0.11128328,-0.07530623,-0.0911921,-0.06651918,-0.09912391,0.0080144815,0.12457543,-0.12596104,-0.13173054,-0.1382299,-0.114569515,-0.13432409,0.06638177,0.03224919,-0.079221666,-0.018866787,-0.080794506,0.11927014,-0.10694603,-0.02004519,-0.06254733,-0.024986923,-0.05412727,-0.13770597,-0.12458186,-0.11857188,0.13273565,-0.07198685,-0.08462616,-0.067587934,-0.11730833,-0.08197724,0.008314971,0.13205898,-0.03426901,0.04492163,-0.103980035,0.08418564,0.003901946,0.13675043,0.055570778,0.13045523,0.08994347,0.03349466,0.03681932,-0.04873581,-0.12170029,-0.026204152,0.064607725,0.11845019,0.13832568,0.099062815,-0.0057490175,0.010801361,-0.01794889,-0.0261398,-0.010657464,0.14291087,-0.05931434,0.018869158,0.08358738,0.050185733,-0.054692417,-0.0074504246,0.025969403,-0.12487725,0.13877401,0.05409676,-0.13940223,0.08164355},
	{0.034452826,0.07440009,0.052854795,-0.11996037,-0.14154956,-0.025213636,-0.027742837,0.07005011,0.08268672,0.13627258,-0.12934215,0.0004303244,0.035669006,0.1059782,0.036513522,0.043250784,-0.08635741,-0.13378726,0.0787807,0.11815027,-0.086119846,-0.005918986,0.004391922,-0.07508022,-0.060244996,-0.013047831,0.04456912,0.02345908,-0.050478674,-0.051240843,0.10551983,0.016087236,-0.077848144,-0.016412921,-0.11889418,0.10881446,-0.09735132,-0.03774111,0.09326048,0.13808256,0.06803327,0.03155604,0.07798445,-0.050150275,-0.056480445,0.13203351,0.060476553,-0.053004436,0.037175454,0.052475903,0.0016921441,-0.044748604,0.08838654,-0.059293527,-0.056451265,0.010818416,0.004548004,-0.10203139,0.13330083,0.122874625,0.039774474,0.06404404,-0.068403974,-0.11804078,-0.08092757,-0.12723592,0.038343843,0.09397392,0.049101062,-0.13324942,-0.04697048,0.13842021,-0.037325718,0.016819432,0.11397424,-0.067663364,-0.104889266,-0.036818728,0.1254624,0.03860826,-0.005832359,-0.022914939,0.12179919,0.11137287,-0.09182407,0.038965527,-0.023679009,-0.025417482,-0.0006632991,-0.045958474,0.12440887,-0.0047163116,0.05392101,0.12085184,0.111181475,0.074581884,0.010348301,-0.07938432,0.056482915,0.119652815,-0.1032312,-0.022846917,-0.0439211,-0.021983383,-0.0912822,0.05567144,0.12920476,0.12818936,0.05576574,0.024673223,-0.0709702,0.14108019,0.08439025,-0.13513589,-0.105031736,0.12353917,-0.069541916,-0.110371694,-0.03421651,-0.08675963,0.09334299,0.11306645,-0.10812467,-0.005748002,0.077731445,-0.08391281,-0.12818979,-0.05393706,0.065899916,0.14144826,0.13962485,-0.08087267,0.06382624,-0.12859203,-0.036839414,0.048765942,-0.10970613,0.032823045,-0.037566997,-0.09761198,0.021386001,-0.019710965,0.004362067,0.010726688,0.11988728,-0.029712262,0.0398836,-0.10226863,-0.08474023,0.046388637,0.013549612,0.07455482,0.016905399,-0.08705007,0.02260029,0.07177786,0.097245514,-0.06315222,0.039515603,0.0113836,-0.095495746,0.06507469,-0.054989688,-0.1372833,0.10978162,-0.12184117,0.013845601,0.024624744,0.021451471,0.07669599,0.095513955,0.010578928,0.06606666,-0.008740644,0.065800406,-0.0043141916,0.08256467,-0.04636277,-0.080034725,-0.105981864,-0.07746518,-0.10125933,0.11201645,-0.1335153,-0.105045006,-0.13513711,-0.12953806,-0.07703894,0.09130644,0.11001135,0.041787148,0.0045925686,0.012718634,-0.11095868,-0.09308415,0.08393084,-0.059577722,-0.039053485,0.07837012,-0.010426137,0.07411241,-0.1127856,0.07314307,-0.07399169,0.05117481,0.04688449,-0.12108078,-0.059974395,-0.03386687,-0.06702981,0.081663005,-0.12637156,0.06936895,-0.12647863,0.06108616,-0.009542683,0.063477114,0.07125497,-0.10699788,0.1004887,-0.13867672,-0.07102595,0.09341279,0.05863239,0.12040813,0.0958223,0.012676128,0.086105004,-0.12045923,0.1303801,-0.035914768,0.07799431,0.021401163,0.063363045,0.10650023,-0.014656411,0.06797203,0.070000805,-0.034625284,-0.037894864,-0.013461942,-0.11609631,-0.019294985,0.10638847,-0.095204026,0.09412172,-0.12809023,-0.14123867,0.0076102745,0.026796423,-0.12462665,-0.048034977,-0.060268957,0.024997609,-0.10619993,0.05209396,-0.056488845,-0.12795152,-0.01872664,-0.07410552,-0.06424129,-0.07664395,0.014619071,0.014962249,-0.05249364,-0.03286638,0.13099611,0.13985375,-0.11222586,0.12705955,0.12647754,-0.01838814,-0.02640692,-0.00329857,0.124988265,-0.13827191,-0.08589861,0.015765633,0.015260179,-0.037280943,0.10132409,-0.084323436,-0.091989,0.043894842,0.022305593,0.08349883,0.12691103,0.0796919,-0.014673566,-0.029570118,0.07660506,0.0043087564,0.107007675,0.043906547,0.047675584,-0.06753262,-0.05103846,0.092025355},
	{-0.10778972,-0.090145014,-0.123036,-0.016168512,-0.025777034,-0.033845082,-0.091887034,0.039606284,-0.118929364,0.10894415,0.09456834,-0.024791464,-0.09802091,-0.03209734,0.09095684,-0.12098454,0.007026219,-0.12921648,0.124768145,-0.04663695,0.036991924,0.03379321,-0.080073684,-0.0123368595,-0.11663017,0.034248833,0.006162588,0.12632537,0.03954062,0.060770713,0.009872607,-0.038278442,-0.017342823,-0.07448116,-0.01369183,-0.095261075,0.07771106,-0.014734878,-0.10911518,-0.03192769,0.11397201,0.10412164,-0.0048469095,-0.13520518,0.08411018,-0.060440674,0.041435584,0.02985508,-0.101627626,-0.094432205,0.022420572,-0.025036573,0.060857527,0.021177933,-0.14329997,-0.12057519,-0.05572287,0.11581729,0.05181862,-0.021326926,-0.017327717,0.028826742,0.124867216,0.08966865,-0.09700949,0.10256845,-0.061430544,0.1381555,0.088748105,-0.1201488,0.09336649,0.108716145,-0.07562812,-0.043814775,0.061226424,0.026574338,0.060074262,-0.10437698,-0.042078838,-0.044219993,0.08866516,0.13329223,-0.038606033,0.0063154167,0.033699058,0.11908446,0.14073132,-0.09357316,0.022934623,-0.09634612,-0.0668866,-0.026570529,0.075403005,-0.09708721,-0.050578967,0.07047461,0.1409903,-0.083436504,-0.07981818,0.10787506,-0.0374599,-0.075585574,0.06016624,0.069021314,-0.013620342,-0.1222723,-0.13969955,-0.03886074,0.042238787,-0.023710286,-0.07455544,0.08218944,-0.057283413,0.05819073,0.11457441,0.111705266,0.072096035,0.007879017,0.083049856,0.04293523,0.059218027,0.06906488,0.005778149,-0.029347818,0.06426382,-0.035768475,-0.03822687,-0.077008024,0.13150305,-0.13673413,-0.105586305,0.048620388,-0.044808622,0.04802738,-0.09839593,-0.07957444,-0.13386603,0.0251329,-0.026790723,-0.121593274,-0.11932195,0.12469809,0.034941565,-0.071198486,-0.11826439,0.016962389,0.024169948,0.030135132,0.10271461,-0.033240706,0.00913618,-0.06228559,0.106166914,0.008284011,0.124948904,0.032031294,-0.04809973,-0.038647726,0.044913698,0.023346042,-0.07515617,0.028773675,-0.102535054,-0.03316255,-0.11481734,-0.08829837,-0.08991776,-0.016439905,0.038427316,0.007872391,0.10671041,-0.11070165,0.023733815,-0.13549197,-0.01163488,-0.074636415,0.0080393655,0.107960954,0.05516758,-0.041884106,-0.072337344,0.11299441,-0.0052638743,0.080792725,0.11930253,-0.10978414,0.119191036,0.042769812,-0.036429107,0.04615858,-0.047747605,-0.08430074,0.034087628,-0.009404843,0.100502685,-0.027174283,0.12471167,0.109821476,-0.033237528,0.017603127,0.002020975,0.0817956,-0.012251053,-0.13412674,0.13737725,-0.007716191,-0.007907286,-0.048993714,0.08396741,0.1361668,0.044770423,-0.08118863,0.080925554,-0.11939436,0.0084754145,0.11334731,-0.07673419,-0.020942917,-0.053380456,-0.0910331,0.09881742,-0.11616418,0.02885641,-0.10300638,-0.0976867,0.026618693,0.06669829,-0.030863862,0.13671955,-0.046438213,-0.10937605,-0.090007484,0.101266816,0.031115513,-0.07216879,0.11368578,0.124470435,0.020580227,-0.06373612,-0.07292222,-0.027490467,0.14593557,0.055019252,0.105532035,0.011384087,0.10461801,-0.08730382,-0.10121932,0.11284993,0.07552868,0.012301972,-0.09293825,0.14200082,0.080976665,-0.093686126,0.12383788,0.05227666,-0.08823511,0.103758276,-0.07880677,-0.102059565,-0.06240507,-0.13355532,0.072707765,0.077224895,-0.020005077,0.04074479,0.100925155,0.062008623,0.05208656,0.0218967,-0.0620073,0.025861979,-0.09768465,-0.050976112,0.06285676,0.122316875,-0.08679379,-0.1455775,-0.104200825,0.0082995985,-0.023819156,0.08696203,-0.0675399,0.018094506,-0.12867889,0.033864986,0.054425955,-0.031424288,0.055044174,0.031030081,0.02811212,0.11279645,-0.068028025,0.008324459,-0.042474333,-0.05826008,0.008738419},
	{0.09724922,0.12879194,0.029652888,0.0525444,-0.037766665,-0.008149396,0.066843204,-0.08584415,-0.0005572808,-0.119651824,0.030443426,0.1370327,0.048956245,-0.11632256,0.03779295,-0.00010816919,-0.0664934,0.049593497,0.063238375,-0.017999798,-0.029328484,0.012386128,0.008208065,0.12690659,-0.07946031,-0.0021393301,0.09904083,0.1100882,-0.03517002,-0.068460576,0.13953122,0.0067116795,-0.12104165,0.017768629,-0.08595824,-0.028354418,-0.0994923,0.024136662,-0.0850405,0.049666893,0.019367972,0.13203983,0.13893858,0.006692387,0.09393978,0.018955123,0.02782908,0.067399345,-0.027545925,-0.028695857,0.012647849,0.07039577,-0.030572012,-0.07400055,-0.06817533,0.1291747,-0.06923601,-0.03787052,-0.062347263,-0.061170883,0.10232716,0.013841954,0.13461329,0.0075094774,0.13491206,0.07152236,0.10919132,0.123668164,0.07288349,0.10792924,0.04416409,-0.05388007,-0.004385666,-0.020039117,0.03467031,0.055360977,0.09532694,-0.128201,0.05000047,0.0629547,0.12465619,-0.11678909,-0.11330402,0.09292181,-0.11633345,-0.14757304,0.07876245,-0.13568272,0.0066226856,0.06167928,0.08269247,-0.10054286,0.09763208,-0.04282262,0.033555478,0.07738174,0.13609381,-0.0059993938,-0.054667998,0.12978034,-0.032022744,-0.08416488,-0.1343539,0.06976229,0.07928268,0.0519671,0.04674254,0.028559778,0.13143075,0.0040940815,0.13111015,-0.13948601,0.06980153,-0.073319,0.011591515,0.07753313,0.11673155,0.08872793,0.09907973,0.09956136,-0.13330469,0.011766061,-0.053122565,0.1350504,-0.073638394,0.122139424,-0.045539483,0.012256479,-0.12290788,-0.05841664,-0.073542506,0.11266506,0.07345078,0.011158617,0.033050034,0.12971713,-0.08555895,-0.027173381,-0.12021096,-0.09711242,0.02939366,-0.020468988,-0.08714913,0.1002816,0.09023886,-0.007900412,0.05418105,-0.051253468,0.07596391,0.0061013214,0.045511488,-0.06873964,-0.09421502,0.097181134,0.10964022,0.033930324,0.015668157,0.027261982,-0.13062091,0.10039665,0.04273636,-0.08559816,-0.03882313,-0.041751083,-0.07741148,-0.01032959,0.016140707,-0.038917523,0.13450187,0.09221733,0.02671756,0.1361998,-0.048653882,0.0050389124,0.08359809,0.014208895,0.094906405,-0.0038707287,0.009451542,-0.0759628,-0.09743346,0.13071178,-0.014140833,0.088986725,0.016233305,0.121122524,-0.042755347,0.008919891,0.12961058,-0.10068626,-0.108155705,-0.038795132,-0.12584189,-0.12529033,-0.11865954,-0.0068735876,-0.084702745,0.0684977,0.12743351,0.08176451,-0.042712353,0.055719536,-0.072427206,-0.09339692,0.08979751,0.060236976,0.11502501,0.00355152,0.09802397,-0.06126343,-0.017273154,-0.12975593,0.11396863,-0.022983953,0.095478415,-0.097105876,-0.09674375,-0.054744206,0.009589973,0.12327648,0.09013777,-0.001192638,-0.04069866,-0.03187876,0.11224555,0.12671119,-0.069366366,-0.14020954,0.026087208,-0.04663402,0.1135124,0.11717055,-0.071703434,-0.061650515,0.090941876,0.07455478,-0.09871082,-0.13133934,0.03141004,0.055402286,0.04771488,0.06623676,0.0818282,-0.08556015,0.12151747,-0.040389676,-0.06292727,0.061118826,-0.11771929,0.010575907,0.051548984,-0.054169677,-0.13249014,0.07333799,0.01156793,-0.061990812,-0.009951602,0.11716754,0.04659493,-0.12351375,-0.06642452,0.023871124,0.037239265,-0.06398454,0.03070093,-0.10654026,0.10812453,0.105586655,-0.12215541,-0.02041461,0.0863615,0.021468492,0.110694245,-0.11545017,-0.05015541,0.018622587,0.101057425,0.1287496,0.09804102,-0.056254327,-0.07397154,0.06623602,-0.07061797,-0.08177851,-0.11107581,-0.044312295,-0.0024323335,-0.02451814,-0.0095883235,-0.0603537,-0.03436977,-0.06396244,-0.09131778,-0.012109509,0.058611654,-0.023164125,0.047797024,0.00662064	}
};