// include/conv2d_369_weight.h
// sergio rivera 
// 2020/02/14 23:52:53 

const float conv2d_369_weight_p[3][3][9][4]=
{
	{
		{
			{-0.16701381,-0.073334746,0.013228886,-0.10715622},
			{0.15484703,-0.20598418,-0.03160273,0.21622851},
			{0.032405786,-0.1393588,0.028984113,-0.10408918},
			{-0.08519249,-0.20170431,0.116367646,0.031567298},
			{0.2151502,-0.022940287,-0.102473155,0.18315189},
			{0.065099925,-0.030031864,-0.08435516,0.06452226},
			{0.039040715,-0.07746543,0.15552625,-0.037682217},
			{0.0008487707,0.20474114,0.019428642,-0.19342776},
			{-0.22613955,0.059131827,-0.07401914,0.050591704}
},
			{{-0.15249577,-0.1895131,-0.005725496,0.1308893},
			{0.13732691,0.19389735,0.025778761,0.080863774},
			{0.166714,-0.009887584,0.08765317,0.047723934},
			{0.12557504,0.14001831,0.10466013,0.080783054},
			{0.025954273,0.14209075,0.15393391,-0.02053592},
			{-0.09295077,0.055063043,0.19110787,-0.19979541},
			{-0.027950479,0.11358376,-0.04646704,-0.0745752},
			{0.18911365,0.20131525,0.066677116,-0.01793959},
			{0.21648502,-0.10219894,-0.14880174,0.1755391}
},
			{{0.055518433,-0.09575276,-0.20970054,-0.14495355},
			{-0.08642756,-0.08003867,0.18966335,0.0453067},
			{-0.011419682,-0.01238,-0.076444454,0.21945769},
			{0.091844775,-0.16067372,-0.015159924,-0.1071033},
			{0.0006939506,0.14966087,0.17696668,-0.08630106},
			{-0.017524023,0.15467879,-0.052923158,-0.09697679},
			{-0.21147518,0.1662672,-0.0034956548,-0.2288349},
			{-0.12757237,-0.19354722,-0.1830968,0.20247978},
			{-0.19161631,0.18016322,-0.080802605,0.15472454}
}
},
			{{{-0.18101653,-0.04888212,0.059299797,-0.048810545},
			{0.019807141,0.14907035,0.1364731,0.15256779},
			{0.20561914,-0.0024004478,0.18909703,-0.049149018},
			{-0.010388832,0.10503529,-0.046560284,-0.016672548},
			{-0.17736012,-0.13766903,0.099666625,0.06778129},
			{-0.21657717,-0.081489265,0.0011025115,0.056571227},
			{0.09198986,-0.19055729,0.23769295,0.22348203},
			{-0.18450156,0.17999811,-0.16766103,-0.07089995},
			{-0.10468528,0.20227098,-0.041282266,0.0002630133}
},
			{{0.20205152,0.05214207,-0.1033747,0.19062805},
			{-0.07425458,0.16800334,0.01802534,-0.13753963},
			{0.16705891,0.09376989,0.02363621,0.13964228},
			{-0.04241017,0.040593714,0.02358502,0.053600818},
			{-0.19227919,-0.21581851,0.07550464,0.0251015},
			{-0.20015779,0.22823934,-0.16519411,-0.21488672},
			{-0.107730776,-0.095056824,0.055864517,-0.10931678},
			{-0.06614314,0.049740694,-0.22089136,0.08001617},
			{0.06696636,0.119816475,-0.15659992,0.067014076}
},
			{{-0.06912102,0.05863103,0.110317826,-0.070148066},
			{-0.17014262,0.09708761,0.19031104,-0.08332583},
			{-0.06761382,0.12515016,-0.11794827,0.20537783},
			{-0.16479518,-0.10911134,-0.007682069,-0.22047134},
			{-0.029894363,0.013049288,0.14548531,-0.1457908},
			{-0.1833759,0.16967456,-0.07075624,-0.22168405},
			{-0.015118813,-0.05346213,-0.0627325,0.16847947},
			{0.0719908,-0.04801961,0.14351955,-0.21799628},
			{-0.10008916,0.1787578,0.0062988508,0.048833262}
}
},
			{{{0.05710362,0.0036067571,0.07940066,0.058252595},
			{0.117319204,0.2107781,0.019346219,0.15000965},
			{0.0430882,-0.15692222,-0.15190916,0.17469515},
			{0.039179366,-0.15228087,0.18682757,-0.17892684},
			{0.17414841,-0.11653802,0.12691559,0.011801477},
			{0.09753463,-0.080699556,0.16614309,0.20930779},
			{-0.033222407,-0.07439384,0.023044474,0.18839201},
			{0.11018443,0.0213977,-0.095809914,-0.16930436},
			{-0.043486126,0.11376821,-0.15894465,-0.10204275}
},
			{{0.04885376,-0.13533904,-0.06319179,-0.014258474},
			{-0.06298803,0.14948414,-0.18799576,0.026255982},
			{0.21060489,0.1764206,-0.111350045,-0.036977526},
			{-0.14101449,-0.15922286,0.029116241,-0.08706177},
			{0.16022702,-0.16337869,0.092885084,-0.1134748},
			{-0.17732826,-0.048392475,-0.010643018,0.20914409},
			{0.21753384,-0.07937766,-0.21805187,-0.05155833},
			{-0.06798065,-0.094194755,0.05480836,-0.13706234},
			{-0.14804946,0.112121426,0.20010969,-0.16309789}
},
			{{-0.00093593606,-0.1498122,0.1443527,0.07765848},
			{0.07314,-0.105370454,-0.18311577,0.05166831},
			{-0.17357169,-0.081001714,0.061018493,-0.112129465},
			{0.06824215,0.14669117,-0.12883747,0.08715836},
			{0.09742093,-0.19014424,-0.041967604,-0.23765762},
			{0.15931456,-0.061016515,0.07156094,-0.1954838},
			{-0.16594991,0.005732949,-0.054410335,-0.16299553},
			{-0.17631866,-0.0074131507,-0.18789975,0.12170321},
			{0.0006194263,-0.18988639,-0.046756748,0.17907798			}
		}
	}
};