// include/dense_317_bias.h
// sergio rivera 
// 2020/02/14 23:52:56 

const float dense_317_bias_p[231]=
{0.0020856312,0.0024165846,0.0023993277,0.004022737,8.5815256e-05,-0.0011139167,0.0018117224,-0.00373236,-0.0071073417,0.0029530462,-0.006300999,-0.0013943182,0.0016202839,-0.009966023,0.007360691,0.0043383166,-0.0043636006,-5.9669255e-06,-0.0021230676,-0.0036347168,0.010219077,-0.013575178,-0.008825063,-2.8136768e-05,0.0014058907,-0.0022557906,-0.011337532,-0.0028550366,0.011442233,-0.002035805,0.008099146,0.0013853974,-0.005760173,0.00022423267,0.0009068269,0.007630315,0.00024175405,0.0061163143,-0.002206007,0.0017218731,0.0045734835,0.00024365634,-0.0023247653,-0.0059586815,0.0011301442,0.0044508264,-0.0036741048,-0.0023477497,-0.004595251,0.010084643,-0.0025265792,0.0028392007,-0.00077717507,-0.0027074642,-0.0065541686,-0.0023119482,8.616067e-05,0.0073809316,0.010490221,-0.0016262275,-0.0056983707,0.004795505,0.0012473905,0.004403281,0.0018707276,-0.0065568145,-0.007127646,-0.0017135949,0.0023469483,-0.0073748464,-0.0018476893,0.00010360335,-0.0017753216,0.00010647386,-0.0028415653,-0.0041847383,0.006963513,0.0014181215,0.009290914,0.00049171364,-0.012585203,-0.00410878,0.008233273,-0.001757809,0.00029682025,0.0025032433,-0.0036638032,-0.002618569,-0.00053851237,0.007366343,-0.00341575,0.0017670649,-0.0053386795,0.008390047,0.015139585,-0.004140389,0.0085023055,-0.0011264323,-0.0057958574,-1.678645e-05,0.003984273,-0.001326375,-0.0022531347,0.0004996096,-0.003356332,-0.0020286706,0.005243585,-0.003169362,-0.0024871854,0.0026835974,0.0015106548,-0.0016544499,0.0027885064,-0.009447666,0.018510273,-0.0088320235,-0.0010232994,-0.004919738,-0.0053847465,-0.0035461378,-0.013611242,-0.006908904,-0.009316704,0.011673433,-0.00033834414,0.007446739,0.00079103047,0.0014330671,0.0029359087,0.0008068581,0.0038097913,-0.002009348,0.0052505075,0.0045197476,-0.0008605955,0.00046817656,0.008439796,-0.009042799,-0.0016735094,-0.005828156,-0.00010135397,0.0004995952,-0.0017708972,-0.008272675,-0.0019008497,-0.016651258,-0.009847485,-0.004508988,0.0024038684,9.735045e-05,0.0013830692,-0.0013779359,0.0026637267,-0.006929058,0.0025176764,-0.0019551218,-0.0036662684,0.0061340723,-0.027721506,-0.004942772,0.0012804953,-0.0021741712,-0.0016976758,0.009648497,0.006394999,-0.0074347337,-0.000351239,0.011771128,-0.007895641,-9.603839e-05,-0.0040616635,0.0063988585,-0.007298562,0.00065405027,0.00862136,-0.0026483936,0.001905191,0.0033889133,-0.0025789717,-0.0039211586,0.0031212214,-0.0017824381,0.0003848957,0.00015715687,-0.0026353837,-0.010431195,-0.0016141138,0.008956836,0.0013194242,0.0047523016,-0.005671564,-0.0080453,0.010141261,0.0032068216,0.007173288,0.00015311246,0.0014787735,-0.0034145247,0.0006430623,-0.020616515,0.005463253,0.00031992525,0.004282895,0.0029942016,0.010494784,0.003188387,-0.0019739133,-0.008966899,-0.004156955,-0.0015968881,-0.01944492,7.2247814e-05,0.0009879165,-0.00055167446,-0.0011290633,-0.0025596546,-0.0051658917,0.0035262206,0.01625225,0.006865155,-0.0054606493,-0.0005161802,-0.0032862392,0.0060391687,0.015361028,-0.0035642725,-0.00080172066,-0.0011419251,-0.0020227246,-0.00022082031,-0.0013986205};