// include/conv2d_3081_weight.h
// sergio rivera 
// 2020/02/15 02:38:58 

const float conv2d_3081_weight_p[3][3][8][4]=
{
	{
		{
			{-0.19921897,0.10014175,0.21939406,-0.17728202},
			{-0.08902386,-0.21974811,-0.055743232,-0.17836083},
			{0.036367465,-0.18980312,-0.05947475,-0.05046693},
			{-0.09629993,0.20695111,-0.040669195,-0.040798686},
			{-0.14275286,-0.19471237,-0.1130922,-0.057261337},
			{-0.18666081,-0.051120486,-0.023095092,-0.154539},
			{-0.0074173636,0.20970823,-0.09424642,-0.059247304},
			{-0.080601536,-0.15952824,0.10608112,0.045736957}
},
			{{0.09814682,-0.12658085,0.018217925,-0.13873641},
			{-0.111287065,0.13875288,0.071122624,0.017846253},
			{-0.20930648,0.15548892,0.17517343,-0.22108677},
			{0.1946992,-0.17732005,-0.03934504,0.21364883},
			{-0.15096512,0.20141973,0.013134483,-0.04491413},
			{-0.109127335,-0.006719501,0.19621158,-0.1566445},
			{-0.22181089,-0.023988914,-0.050240032,0.19069771},
			{-0.012371955,-0.011375632,0.10067098,-0.11392484}
},
			{{0.08128569,0.151066,-0.2098072,0.17872125},
			{-0.1669314,0.1633433,-0.014539845,0.1982646},
			{0.03653311,0.017144166,-0.105364084,-0.12199332},
			{-0.17500663,0.09924808,-0.15221822,0.114662506},
			{-0.083850175,-0.01809099,-0.016942866,0.12811674},
			{-0.095050246,0.10764579,0.13956617,-0.10235911},
			{0.21425834,0.19365916,0.07495394,0.0145441275},
			{-0.1727016,-0.089537516,-0.024780268,0.0889818}
}
},
			{{{0.22059235,-0.001947917,0.056095403,-0.19671798},
			{-0.17550705,-0.21954237,-0.19809543,-0.13280001},
			{0.0028705136,0.22631349,-0.134373,0.12101461},
			{-0.14388736,-0.026357211,-0.062481,-0.007333494},
			{-0.03024285,0.034073144,-0.124070846,0.09796817},
			{0.16133897,-0.10365217,0.041096732,0.026679022},
			{0.1474596,-0.20534223,0.23586424,0.083666675},
			{0.026678901,-0.18924478,0.085082844,-0.17073914}
},
			{{-0.10556723,-0.09184968,-0.036170125,0.15641522},
			{0.0069121914,-0.17809772,-0.22086747,0.14923157},
			{0.01121277,-0.14259602,-0.093891114,0.0830933},
			{-0.18135531,0.23198654,0.05097345,0.16293523},
			{-0.09151761,-0.0935005,0.18419674,-0.16951492},
			{0.17409424,0.018663973,-0.019869506,-0.2089165},
			{-0.12510996,0.08017412,0.15899916,-0.11207026},
			{0.087111175,0.020681959,-0.04627518,-0.14573923}
},
			{{0.22673947,-0.15919466,-0.12763995,-0.16406202},
			{-0.042924214,-0.22978407,-0.05814897,-0.12564436},
			{0.0418432,0.014693713,0.15218878,-0.11155384},
			{0.06688015,-0.119537935,0.11543742,0.10944272},
			{0.088775806,-0.09169398,-0.12672876,0.22919402},
			{0.1131333,0.06944612,0.1172882,0.21492393},
			{0.109740704,0.18007527,-0.15357514,-0.0095363865},
			{-0.03517616,-0.17823277,0.19252829,-0.0153615475}
}
},
			{{{-0.17307505,-0.21980329,-0.23034166,0.10558208},
			{-0.107766435,-0.08329407,-0.11799223,-0.05507068},
			{0.036513828,-0.029910387,0.016356453,0.080056205},
			{-0.05574784,0.068251505,0.14230576,0.056332443},
			{-0.21608289,0.17328446,0.18561862,-0.21347375},
			{0.16279306,0.08197108,-0.14289759,0.08920451},
			{-0.19643077,0.21116434,0.05027349,-0.027639978},
			{-0.21776733,-0.18431722,0.06773666,-0.05207248}
},
			{{0.14014378,-0.02817299,0.076265834,0.19870567},
			{0.06766566,-0.17349793,-0.12577882,0.05301931},
			{0.16725235,-0.038677983,-0.2238671,-0.1749277},
			{0.09489473,-0.14745305,0.2271798,0.10754496},
			{0.23395237,-0.033988774,-0.013139168,0.011994323},
			{-0.21250413,-0.10322188,0.13860025,0.09141226},
			{-0.13890517,0.12302285,0.13948494,-0.094411984},
			{0.17532884,-0.0024543207,-0.18414818,0.11118983}
},
			{{-0.09839837,-0.07638668,-0.13316248,-0.06639321},
			{0.16029395,-0.18772116,-0.0060079144,0.05758724},
			{-0.08002607,-0.22408134,-0.10217437,-0.020803893},
			{0.16335133,-0.107295804,-0.07132294,-0.18084934},
			{0.091953725,-0.035336968,0.059641615,0.08553351},
			{0.16180834,-0.060725663,-0.029888492,-0.20231007},
			{-0.09276638,0.20945081,-0.0059137894,-0.098078996},
			{-0.08474164,-0.08770475,0.12337014,-0.12172979			}
		}
	}
};