// include/conv2d_6483_weight.h
// sergio rivera 
// 2020/02/14 16:10:45 

const float conv2d_6483_weight_p[3][3][3][8]=
{
	{
		{
			{0.04884953,-0.10832206,0.10234546,0.06667598,0.14070846,-0.010298179,0.0125938095,-0.18861629},
			{-0.09971803,0.229233,0.066976406,-0.14465448,-0.22457913,0.14132357,0.1880433,0.07756477},
			{-0.19254851,0.0052857213,-0.063425444,-0.18536167,0.01945537,0.16712612,0.13281058,-0.20811713}
},
			{{-0.087650105,-0.11650533,0.20932908,-0.011645215,0.02491085,-0.17842707,-0.20550849,-0.027159883},
			{0.07167233,-0.19007514,-0.21457466,-0.23167819,-0.063983396,-0.020451387,-0.123920284,0.052349966},
			{0.21726184,0.21364449,0.19031937,0.03819297,0.21278243,0.0075252177,-0.23652554,-0.16663748}
},
			{{0.1176422,0.07794684,0.14716446,0.18312694,-0.112170726,0.23044185,0.13107352,-0.19945446},
			{0.19626959,0.21530725,0.16526262,0.08473322,-0.17077714,-0.18618958,0.0035965834,0.08323936},
			{0.12856248,-0.1192487,0.13074796,-0.10635331,0.18402901,-0.16030513,0.20403768,-0.11327673}
}
},
			{{{-0.031544834,-0.05593747,-0.06308017,0.22278167,-0.1920107,-0.21040489,-0.12381683,0.094146974},
			{0.16693161,-0.04363027,0.0709922,0.21891235,0.17390878,0.20197271,-0.2412411,-0.20587803},
			{0.05291827,-0.09925855,0.13434835,0.027550342,-0.19453444,0.15821329,-0.14616534,-0.18213753}
},
			{{0.19539636,0.006651772,0.020719005,-0.23801734,-0.14413622,-0.21929751,0.04721108,-0.23563538},
			{0.1527514,0.02312263,-0.0032772105,-0.19755998,-0.22267424,-0.07497354,-0.0006474418,0.20308109},
			{-0.15926462,-0.22799873,-0.08938136,0.12640543,0.14781636,0.016118977,-0.11861041,0.19261174}
},
			{{0.13203442,0.19164422,0.22432275,-0.17156015,-0.24228051,-0.04739644,-0.020489728,0.2167099},
			{0.055201467,0.2469428,0.04221428,-0.23872377,0.018645618,-0.20572609,-0.039624143,-0.19951479},
			{0.042675424,0.11481044,0.21058398,0.088024125,-0.16425098,0.032229427,0.20137037,0.23951863}
}
},
			{{{-0.12188161,0.13980341,-0.23951723,0.17629327,-0.24282804,0.12699844,-0.12572533,0.22108649},
			{0.13781089,-0.12005617,-0.17042455,0.08144301,0.1782181,-0.0062874435,0.104027055,-0.0042992886},
			{0.062421683,-0.087656304,-0.16254057,-0.04396197,-0.16423543,0.07046818,-0.18340531,-0.056477062}
},
			{{-0.026243875,0.10449467,-0.0768981,-0.24152192,-0.10567433,0.12274973,-0.17342164,-0.0039938944},
			{-0.15239829,0.09678443,0.059284937,-0.03177674,0.19226828,0.10127659,-0.10507547,0.092304625},
			{-0.11228051,-0.20577055,-0.07396716,0.1579613,-0.20007859,0.24358647,-0.020597843,-0.04595081}
},
			{{0.19483297,0.15140603,0.016666496,0.056595728,-0.23847145,0.074753925,-0.15703335,-0.13998012},
			{-0.13998418,0.06491895,-0.08156796,0.08135197,-0.13196951,-0.05516195,0.20447125,0.026238091},
			{-0.14596374,0.19280875,-0.18608813,-0.1984111,0.07076761,-0.046589352,-0.16002303,-0.20726748			}
		}
	}
};