// include/conv2d_6487_weight.h
// sergio rivera 
// 2020/02/14 16:10:49 

const float conv2d_6487_weight_p[3][3][14][14]=
{
	{
		{
			{-0.07230067,-0.05567067,0.11481023,0.010389894,0.05120726,-0.125814,-0.10604118,-0.017140144,0.1003811,0.14205809,0.08926916,-0.1500626,-0.10350192,-0.13528511},
			{-0.0737309,-0.022657232,0.07989235,-0.13864821,0.014548868,0.105887,0.052499853,0.056876753,0.10724079,0.023511201,0.08409261,-0.06670147,-0.13551344,0.008678958},
			{0.0517501,0.010818764,0.03576116,0.0036555305,0.15215154,-0.08672346,0.08520444,0.119338796,0.076973945,-0.06013701,-0.033479415,0.06758837,-0.073856354,-0.019757388},
			{-0.04574468,-0.045471787,0.1369537,-0.121047564,-0.09710866,0.13432,0.10455435,0.07253415,-0.10579572,-0.06766878,0.11580639,0.021550005,0.15410425,-0.0404481},
			{6.0038685e-05,-0.0706959,0.053773187,0.092018045,-0.14032802,-0.08133893,-0.0024172766,-0.1470137,0.12278095,-0.14242536,-0.07604204,0.14806724,-0.022534233,-0.04489423},
			{0.023721563,-0.09330244,-0.043896522,-0.13282861,-0.074190944,-0.05279202,-0.06425539,0.11794051,-0.063259125,-0.056462698,0.13694178,0.11662043,0.047107995,0.1501157},
			{-0.09774126,-0.001673,-0.023656122,-0.039014168,-0.046909396,0.012008226,0.14209649,0.01787411,0.10931428,-0.046845995,-0.080667235,0.016250076,-0.091027975,-0.029009027},
			{-0.09202218,0.14264694,-0.09262685,0.12243365,0.021649193,0.12025223,0.087833814,-0.056928504,0.118703894,-0.1340754,-0.0676754,-0.12350351,-0.07651298,0.13298015},
			{-0.04298447,0.019482596,-0.084843144,-0.10567515,0.049650136,0.05188117,-0.0098393755,-0.0069371113,0.05585302,0.1046602,0.03667454,0.017610729,0.025026664,-0.14429775},
			{-0.009883523,-0.086623415,-0.12163995,-0.07557657,0.14515074,-0.06925761,-0.13266255,0.12054936,-0.09881378,0.04880683,0.12107345,-0.04322164,-0.071296185,0.058506574},
			{-0.14419681,0.020394042,0.021670215,-0.030979926,0.11837577,-0.01823749,0.11123858,0.09351106,0.090962484,-0.15306063,-0.031115884,-0.13461262,-0.114544,-0.07476066},
			{-0.04658473,-0.016580477,-0.046193685,-0.075698785,0.11056539,0.10278899,-0.03185788,0.05088957,0.09994259,0.13484447,-0.09548451,-0.14581722,-0.02683051,-0.062476084},
			{-0.10174284,-0.058507532,0.15785725,-0.09504793,0.017960474,-0.13528529,-0.08066911,-0.12605064,0.019795155,0.018407494,-0.027342109,-0.12444811,-0.070673905,0.09893739},
			{0.14227808,0.09381369,-0.03140914,0.15384118,-0.121475935,-0.11485607,0.0016598499,0.15166293,-0.026691148,0.10351287,-0.13037565,-0.026092386,0.076127045,0.089790635}
},
			{{0.08924032,-0.13358498,0.0016436505,0.053246867,0.026524965,0.002059668,-0.07256557,0.087134495,-0.045112275,0.039605856,-0.03103373,-0.101883546,-0.035663195,0.0074874097},
			{-0.11569858,0.14793336,0.0030471485,-0.081917055,-0.00292753,0.12189538,-0.07237968,-0.04857371,-0.109493904,-0.032700337,-0.049281865,0.01631069,-0.1285523,0.039708525},
			{-0.143425,0.12695962,-0.053564336,-0.09396182,-0.11220066,0.13383313,-0.14609073,-0.077281155,-0.07366172,-0.037444845,0.13404174,0.015595341,-0.14712131,0.07456558},
			{-0.036785163,0.088884,0.0014225442,0.031082204,-0.043447968,-0.04831372,-0.06932087,0.029650807,-0.026296109,0.0041918308,-0.056455616,0.018920671,-0.13234489,-0.02006862},
			{-0.032419972,-0.110781044,-0.04929703,-0.10984471,0.038645457,0.15065321,-0.13348402,0.025139974,-0.08930567,-0.084307946,0.06064869,-0.013259288,-0.06912013,-0.020109497},
			{-0.009900275,-0.08851266,0.15961199,-0.09748855,0.013741539,0.09417424,0.057586063,-0.033870745,0.14777195,-0.053346798,0.12059327,0.07131269,-0.097543076,-0.13074185},
			{-0.12358397,0.007935464,-0.03843832,0.03215022,-0.099764936,-0.058026448,0.014899423,0.05738199,-0.1276693,-0.035887904,-0.10904897,-0.106416434,0.14582609,0.11173178},
			{0.023049338,-0.11863625,0.008481891,0.11096827,0.009648004,0.062847055,0.14339751,-0.065946236,-0.012227744,-0.06373613,0.057945054,0.061232857,0.034130957,0.12662843},
			{0.07800296,0.10838972,0.1354683,0.10904104,0.10026136,-0.10565735,-0.012446418,-0.14444175,-0.10376403,-0.025842503,-0.029219268,0.11422687,0.025491765,-0.13218872},
			{0.024488905,-0.13053307,0.07950766,-0.10013383,0.013883608,0.12014385,-0.13264853,-0.14156191,0.1533715,-0.15018217,-0.088822745,-0.013642459,0.13257469,-0.11869328},
			{-0.045678563,-0.010129188,0.043177057,0.009138726,-0.057920862,-0.055021793,0.03545494,-0.03783546,0.08196929,0.07888079,-0.09224853,0.07479672,-0.024994327,-0.076669745},
			{-0.091277495,-0.13494849,-0.11448446,-0.15344119,-0.08605806,-0.07642117,-0.027097965,-0.082329765,-0.09531694,0.08064973,-0.08325336,0.05981939,0.040573284,0.12320496},
			{0.08963262,-0.12141328,0.08666242,-0.0983391,0.025176978,0.0041582533,0.15238225,-0.035208616,-0.017518219,0.121430084,0.026590548,0.117545195,0.11599378,-0.12669304},
			{-0.112051025,0.041205212,-0.03978954,0.05213593,-0.042692676,-0.022035688,-0.113817416,0.024423579,0.10950604,0.079080924,0.08338623,0.010210517,0.14514984,0.075922064}
},
			{{0.052798834,0.1314794,0.05273438,0.027013699,0.042152427,0.100991994,-0.10739687,0.062049747,0.0048627174,0.08578509,-0.07939311,0.11100323,0.14278743,0.015591545},
			{0.08271956,0.15183702,-0.08714818,0.07711052,0.1389977,-0.020238576,-0.14019036,0.10333121,-0.083548404,0.14434184,-0.054390054,0.085082,-0.12697355,0.0988438},
			{-0.08110948,-0.06773439,-0.10046122,-0.050130274,0.034322467,-0.11281648,0.08154324,-0.063953444,0.13222885,-0.013835236,0.10834237,0.13934994,-0.07720186,-0.01020858},
			{0.06605589,-0.058561433,0.03377205,-0.04457493,-0.08710279,0.08196964,-0.024215935,-0.061244372,0.04074181,-0.14996254,0.055027325,0.13395545,-0.025463656,0.14261779},
			{0.042269453,0.0045161494,0.15230764,0.04069294,0.01327723,0.01823907,0.1041099,-0.029789625,0.13414472,-0.0031099766,-0.016234504,0.11554338,-0.047108427,-0.10414057},
			{-0.023191856,0.015963318,-0.034531336,0.022240313,-0.07013755,0.016842255,0.08681301,0.12435708,0.06331152,-0.1106564,0.11677064,0.020913405,0.10178316,-0.14169344},
			{-0.12638965,0.022697186,0.0096174525,0.09459557,0.0009207955,0.055204563,0.015779367,-0.068735994,-0.1193374,0.016421556,-0.02259167,-0.0399819,0.09543682,-0.108884394},
			{0.074293226,-0.014925725,0.055616498,-0.01878622,0.078834414,-0.06786412,0.040984504,0.014159499,0.14911781,-0.1402237,-0.07516297,-0.116021946,0.104169354,0.08546816},
			{-0.13332605,0.07262689,0.15089415,0.04857481,0.046212982,0.1049501,0.13036719,0.12035321,-0.06647804,0.07865322,-0.04123348,0.095112965,0.14929925,0.15804309},
			{0.13244504,0.053672288,0.0035932683,0.10834486,0.079623446,-0.1444096,-0.040365513,-0.14367287,-0.111369416,-0.09446739,0.0331782,-0.07934449,-0.0843069,0.06843522},
			{-0.008466169,-0.040205244,0.029948255,0.12209533,-0.14311308,0.134711,-0.034663863,0.011779109,-0.12585454,-0.12316845,0.13276748,0.13635896,-0.13652663,-0.0744205},
			{-0.09915902,-0.1292506,0.02763649,0.04380579,-0.11050741,-0.029925875,0.04463726,-0.13772254,0.1307922,-0.13460657,0.068453066,0.027466109,0.10932715,-0.06645361},
			{-0.011731655,-0.13483156,0.13467363,0.032740008,0.036401737,0.10587036,-0.095082425,0.12164861,-0.06892162,-0.13586843,0.108828634,-0.03439201,0.08732978,0.02944836},
			{0.073153,-0.0104586035,0.13467158,0.06794161,-0.002872958,-0.08781702,-0.057909515,-0.026138682,0.101115316,-0.042940646,0.029622696,0.023618406,-0.13417456,-0.10315517}
}
},
			{{{-0.08388785,-0.13358513,-0.058611784,0.10809245,-0.03341959,0.016467266,0.095773295,-0.11219592,-0.12593655,-0.057048008,-0.04408037,0.042957008,0.13777985,0.093337394},
			{-0.14649796,0.06545961,0.06299671,0.08073445,-0.069792345,-0.019356668,0.048618674,0.0382908,-0.082576334,0.026873916,0.10243273,0.073786534,0.12711687,-0.08089039},
			{-0.13098492,0.093489245,-0.13087116,-0.11298888,0.06580201,0.111414,0.04334156,-0.13318725,-0.055909257,0.039973512,0.05164872,-0.08434598,0.09758954,0.0009118304},
			{0.04388032,-0.06454563,0.11756844,0.14201058,0.14672254,-0.107889764,0.15338762,0.020785253,0.0681656,-0.088923134,-0.08615281,-0.082220055,-0.15264373,-0.13218524},
			{-0.059912138,-0.1340822,0.02474312,-0.014978176,0.081407264,0.116969556,0.079211496,-0.0010921513,-0.10267515,-0.11842884,-0.11956121,-0.013451336,0.03343166,0.010481905},
			{0.094150916,-0.043817144,-0.047809057,-0.13644284,0.049270246,-0.11328964,0.095332935,-0.10578876,-0.11441061,-0.10016616,-0.11853466,0.13888791,-0.15010688,0.14646643},
			{0.12589945,0.12211037,0.018384757,0.072309464,0.13771531,-0.015021972,-0.06730252,-0.10076481,-0.03600401,0.0889117,0.02460185,0.0896808,0.15150298,0.04378267},
			{0.048286494,-0.1256806,0.035170026,-0.06502394,0.13668628,-0.12677592,0.015028217,0.004665576,0.1387961,0.0038596988,-0.09179428,-0.017704964,0.1301114,0.06622634},
			{-0.07367588,-0.069439664,-0.13389266,0.09997312,-0.05458764,-0.08981122,-0.15184313,0.012584607,-0.019945094,0.11938374,0.052155092,-0.10912563,-0.0854406,0.11442687},
			{0.08857739,-0.12265002,-0.11990089,-0.046079386,-0.07695656,0.018142309,0.035967655,0.14925167,0.12754549,0.05432582,-0.002282456,0.023004504,0.046910495,0.089452006},
			{0.14740784,0.0898566,-0.0676933,0.033479016,0.12005911,0.045787793,0.10817231,0.061520133,-0.10555871,0.12492137,0.09079862,-0.053220157,0.109430715,-0.022902166},
			{0.093206726,0.035779968,-0.043671247,0.081291586,0.14535014,0.005539432,0.1433753,0.11671575,-0.14114332,-0.086748295,-0.026105732,0.037365444,0.110846385,-0.081295624},
			{0.0008304525,0.14646101,-0.10539107,-0.14612252,0.10890904,-0.14546235,-0.06689939,-0.07683503,0.10745916,-0.091748,0.137186,-0.13412778,-0.05529697,-0.108051375},
			{0.13644803,0.14915407,-0.13201427,-0.022172287,-0.08120819,0.067125365,0.12456447,0.1459315,-0.075892165,-0.11888076,0.12517753,-0.04950527,-0.07718553,0.016690679}
},
			{{0.0038802195,0.10935689,0.11958455,0.08333838,0.11363465,0.024035662,0.04865248,-0.050893225,0.05512454,-0.103158556,0.09060213,-0.08979252,-0.0033995807,-0.12694377},
			{0.007865758,0.08026994,-0.14009771,-0.082625344,0.059494194,0.006927221,-0.10698093,-0.11057489,-0.09759168,0.033655748,0.12803933,-0.12484354,-0.08402739,-0.095451884},
			{0.06566896,0.062040947,-0.09747762,0.12814352,0.009304332,-0.019314332,-0.085256524,-0.025477173,0.030182121,0.09261426,0.14028804,0.09595635,0.011990838,-0.102752864},
			{0.097136535,0.0063121263,0.016131561,0.13231303,-0.09379465,-0.03522038,-0.12123047,-0.0065404703,0.06324802,-0.12517145,0.019710666,-0.15973744,-0.04801418,-0.0004980187},
			{-0.15016018,-0.06553654,-0.04372145,0.049944855,0.077392764,-0.04222644,-0.11501882,-0.12976466,0.060684025,-0.111175165,-0.003996964,-0.0922568,0.0478453,-0.08709477},
			{-0.114644885,0.11749548,-0.07064672,-0.12998705,0.11250367,0.028532961,-0.09860862,0.06637601,0.008748838,0.03760612,-0.03806116,0.13171986,0.12598115,-0.094881944},
			{0.15061034,0.08823534,0.09775525,-0.08324722,0.12848592,0.078682825,0.13606586,-0.034529965,-0.042288948,0.09441291,0.012503373,0.09668662,-0.059413083,-0.0030516388},
			{-0.15301569,0.12622543,-0.05072332,0.071159355,0.06491264,-0.094111145,0.10600364,0.028418768,-0.06124649,0.13769265,-0.027073728,-0.04617604,-0.110913046,0.15722127},
			{0.020500842,-0.05255255,0.0043808445,-0.01856844,0.14165328,-0.05379504,0.0741764,0.04641192,0.13510536,-0.07982545,0.120347835,-0.08898681,-0.12052589,0.055777043},
			{-0.06596584,-0.08075291,0.077005856,0.0046959636,0.13025643,0.005632436,-0.014610376,0.06492669,-0.06152057,-0.110559136,-0.12841724,0.13483593,0.00263114,-0.051892504},
			{-0.010759869,-0.14715877,0.09885675,-0.119970426,0.0426276,-0.120707616,-0.010678723,0.077233315,0.03805366,0.058790803,0.0356969,0.08877881,-0.08790073,-0.030904002},
			{-0.12877691,-0.11327217,-0.04174388,0.05727708,0.14022276,0.062090334,-0.06458519,0.014932054,0.035207745,-0.004815653,-0.057313625,0.013340005,-0.13615982,0.0004792194},
			{-0.1416377,0.09140083,-0.10722795,-1.901947e-05,0.13534418,-0.063578226,-0.10674511,0.021012824,0.11243104,-0.010759324,0.10190256,0.068898305,0.08533591,-0.10743418},
			{0.0026920855,-0.020288236,-0.10254702,-0.11620658,-0.07878979,-0.090112664,-0.064585336,-0.1306626,-0.111751504,0.06036161,-0.02345472,-0.105026335,-0.0037351996,0.13797683}
},
			{{-0.013317602,-0.12972227,-0.038649727,-0.07357352,0.06721004,0.039613504,-0.082553856,-0.117931545,0.10084217,0.105803296,-0.022923246,0.04617523,-0.019297255,0.11603598},
			{-0.032423913,-0.15157914,-0.11852758,0.02552992,0.07564069,0.036572773,0.01687524,0.12637758,0.032460973,-0.1348028,-0.06800666,0.0075082607,-0.0062266234,-0.10175334},
			{0.009821246,0.012222224,0.051547896,-0.087896116,0.07905504,-0.04138605,0.025436874,0.08912095,-0.082002126,-0.088141,0.016355619,0.051245064,0.0071623027,-0.14175892},
			{0.05500283,-0.12500009,-0.07242992,-0.12655705,-0.077855945,0.042075474,0.06571025,0.118862726,0.030052396,-0.03720601,0.055758074,-0.14071135,-0.14593287,-0.10549881},
			{0.04882528,-0.10421974,-0.04349992,-0.052893784,-0.06607612,0.019750742,0.14900891,-0.09147992,0.110659935,-0.0068259686,0.05267071,0.1240256,0.062345617,0.028379982},
			{0.09007111,-0.06618832,-0.1183034,0.07185901,-0.0928775,1.1161348e-05,0.12846757,-0.11231558,-0.039077587,-0.06172982,-0.03128727,-0.028924901,-0.101601526,-0.095238835},
			{0.0071827946,0.14840174,-0.11651982,-0.07070056,-0.058623087,-0.01684515,-0.09719294,-0.10825369,-0.06587323,0.07919659,-0.051120207,0.13083336,0.12496705,0.05368806},
			{0.007744991,0.029088175,-0.032275956,0.12841725,0.13156869,0.05421272,0.03994845,0.086015426,-0.022296153,0.09778626,0.010195048,0.11906592,0.010764359,0.08315739},
			{0.019553348,0.12314679,0.13768171,-0.12936625,-0.12974824,0.11704317,-0.122227155,0.017000878,-0.04659523,-0.14384982,0.11092799,0.0071533094,-0.03703981,0.16116698},
			{-0.12777472,0.120756686,-0.108714,-0.1383797,0.11933776,-0.1010901,0.075883344,0.07980226,0.10278325,-0.0014510602,0.07706881,-0.15495688,0.1337107,0.07148203},
			{-0.13218264,-0.005631942,0.1369731,-0.123341195,-0.097528845,-0.03133978,0.028129626,0.0497033,0.020408634,0.00033970177,-0.02519495,0.14894243,-0.10620561,0.15812838},
			{-0.07579829,0.08850575,-0.018382618,-0.032546777,0.024956703,0.076027445,0.1141322,-0.00022142305,-0.13970327,-0.013792962,-0.13371001,0.109733604,0.0011054277,-0.06290957},
			{-0.11878047,0.07379109,0.089279205,0.13561833,0.06980448,-0.0062307897,0.12183341,0.018833706,0.013965487,-0.15066381,-0.10269037,0.13245134,-0.10290801,-0.12611574},
			{-0.022675361,0.06484864,0.030921726,-0.03361559,-0.12171352,-0.13515452,0.075045034,-0.054980297,-0.060625415,-0.09085377,-0.020127991,0.11092975,0.07332084,0.09811346}
}
},
			{{{-0.022577792,-0.09658625,0.15378518,-0.07996461,-0.020838175,0.1524584,0.04523321,-0.043980353,-0.07449043,0.029540405,-0.05431485,0.11829034,-0.13105631,0.11480806},
			{-0.07310399,-0.060244206,0.13489695,-0.072955586,-0.102650516,-0.0703491,0.07465539,0.11072532,-0.08158401,-0.02529405,0.07170873,-0.061434202,0.050591182,0.13866939},
			{-0.110510595,-0.15048465,-0.10295545,0.089382075,0.030805001,-0.14863199,0.03577542,0.14652272,0.04571436,0.0530466,0.1475585,0.030047143,0.14238746,0.025669856},
			{-0.14278983,0.15916432,-0.08226841,0.038748328,-0.02971349,0.032961722,-0.10366234,-0.12744682,-0.098623365,0.10389982,0.07367877,0.13432826,-0.021953367,-0.015513581},
			{0.04290967,0.12614423,-0.07523652,-0.044130173,-0.071119726,0.122025736,0.047109704,-0.10111524,0.034274224,-0.070720226,0.13354574,0.14873078,-0.011426194,-0.029301805},
			{-0.09972529,0.013027251,0.14167078,0.06672438,-0.11020005,0.019885328,0.05983658,0.060511816,-0.12974516,0.09278202,0.033100456,-0.07538397,-0.08523104,-0.11294168},
			{-0.046669487,0.11889209,0.091372475,0.062232826,0.08158568,0.11386111,-0.0739457,-0.050054345,-0.018651413,0.11913003,-0.043980755,0.10119158,-0.0313078,-0.12923223},
			{0.14984082,0.034976106,0.031209318,-0.08236928,0.088651635,-0.13921063,0.10839856,-0.096481375,0.10046815,-0.11245843,0.1347502,0.07061066,-0.12765753,0.12386325},
			{-0.034643777,0.08697924,0.017859625,0.13111012,-0.010866907,-0.09855065,0.11465419,0.07053633,0.15571062,-0.07156276,0.10049608,-0.14835837,0.01646931,-0.15077145},
			{0.14149447,-0.14756872,0.14911419,0.035218574,0.1327387,-0.056074347,0.1484505,-0.01175399,0.1349832,0.12813108,0.12684096,0.08086383,-0.029549262,0.15230821},
			{0.00817037,-0.033868518,-0.114234805,0.054039285,0.12633325,0.0479164,0.0072288755,0.01694612,0.02119318,0.13664289,-0.1278119,-0.060110264,0.07948137,0.011541807},
			{0.0018914274,0.020826943,-0.09580204,0.0525062,0.123257734,-0.14899266,0.08763201,0.031694684,-0.098401845,-0.07600435,0.09166541,-0.13070966,-0.08591399,-0.09039955},
			{0.007837494,0.004013992,-0.14563245,-0.00036172208,-0.15054552,0.1145905,0.082677275,-0.093352005,-0.0067830766,0.03915839,0.005085828,0.06512269,-0.06980764,0.10133314},
			{-0.0109579535,-0.037775453,0.12131788,-0.027533967,-0.05945301,0.084139705,-0.09949226,0.13931857,0.12754957,-0.012956098,-0.09956162,-0.0607871,-2.9206276e-05,0.12726195}
},
			{{0.0398715,0.08999826,0.1418317,-0.13528456,-0.04752893,0.079270124,0.11049958,-0.09213309,-0.03595948,-0.08863136,-0.08513111,-0.09009534,-0.0031207502,-0.12277526},
			{-0.030943953,0.010311868,0.14064562,0.11452006,-0.107248865,0.11437094,-0.0019263767,0.154905,-0.104625024,0.023600891,-0.049096126,-0.0017259705,0.06024162,-0.06176514},
			{0.14431585,-0.1416099,-0.027236592,-0.039331246,0.04864714,0.027294198,-0.1404925,0.14745362,-0.1449235,0.031931236,0.11006606,-0.06990992,0.114040434,-0.048211716},
			{-0.13202386,0.10676919,0.0907827,0.13013856,0.1270071,-0.1537788,-0.0009408702,-0.13886923,0.14600217,-0.12759385,-0.1334244,-0.024797373,-0.13684267,0.116818026},
			{0.122723155,0.15267764,-0.0009154236,-0.07758219,-0.055803325,0.013553281,-0.08703813,-0.1265591,-0.1465567,-0.040817745,-0.0052394653,-0.059579313,0.055752233,0.085602224},
			{-0.034266323,0.031569377,0.008878977,0.11654684,0.009242366,-0.080930755,-0.11922466,-0.10090669,0.10137736,0.14549892,-0.14719112,0.06552491,-0.020185634,0.104675174},
			{-0.13204713,-0.00030609613,0.12653555,-0.04702115,0.017406493,-0.07121525,-0.098364785,-0.0049829986,0.13704175,-0.11906647,0.13698053,0.004144803,0.004362665,-0.0327813},
			{0.008962437,0.13165914,-0.084297635,0.019945854,-0.058794077,0.07105854,0.15117021,-0.044197526,0.017439108,-0.07612248,0.09156047,0.05787379,0.05771164,-0.13166963},
			{-0.048224777,0.004318877,-0.04724676,0.08818891,-0.10542018,0.027613953,0.06978084,-0.018202405,-0.04974948,-0.13115905,-0.12648225,0.13473417,0.019389074,-0.10441612},
			{0.097683884,-0.1476943,-0.096227124,-0.08483776,0.04538724,0.14823769,-0.069921754,0.083992675,-0.02454035,0.108579114,-0.09603428,-0.06807338,-0.021288576,-0.060665082},
			{0.093119584,0.1256204,0.1564288,-0.05971177,0.123974204,-0.10601702,0.037644885,0.08774253,0.02521309,-0.08230016,0.074665196,-0.104145855,-0.13948253,0.09735006},
			{-0.07054497,-0.11649956,-0.06454493,-0.09198959,0.0038486102,0.059344985,0.026935268,0.04764612,0.13139307,-0.14311835,-0.13394046,-0.0048498255,-0.109865814,0.04392337},
			{0.12869176,0.13130374,0.16351774,-0.019128434,-0.10282043,-0.14329731,-0.086117275,0.10680695,0.10587028,-0.11616096,0.06480076,0.116980396,-0.062018294,0.13641894},
			{0.030568141,-0.08479972,-0.12062397,0.123530686,0.01919148,0.12746719,-0.091214135,-0.043240227,-0.021029053,0.05625719,-0.095348924,-0.10463315,-0.061260283,0.13621919}
},
			{{-0.026831364,0.12885708,-0.09560015,-0.013416263,0.026232997,-0.12376958,0.0964951,-0.011793607,-0.11450614,0.078200564,0.12298853,0.05498351,-0.042346433,0.066948056},
			{0.103287004,0.007513096,0.059161194,-0.041741416,-0.030996932,-0.026255164,0.15183775,-0.07864279,-0.150482,-0.074572966,0.049573254,0.051700782,-0.0033704247,0.044097193},
			{-0.042202145,0.14477274,-0.1566618,-0.15335274,-0.10137601,-0.032218933,-0.15459284,0.078431584,0.022172995,0.1444738,0.058075257,0.05240973,-0.047712296,-0.14321418},
			{0.12056016,-0.12687106,0.041726653,-0.12637278,-0.049609702,-0.047295645,-0.121228844,-0.0850158,-0.005074437,0.05148624,0.025166057,-0.07410355,-0.091617174,0.0005297393},
			{0.11288255,0.030356828,-0.09334213,0.115957245,0.12972674,-0.05440192,0.0050944234,-0.14009567,-0.14609121,-0.08118708,0.07921148,-0.09193209,0.10364045,-0.07064131},
			{-0.114584304,0.12833537,0.15644708,-0.1377352,-0.09105026,-0.14074849,0.020947725,-0.09260927,0.09406454,0.13184984,-0.12506919,0.1332981,-0.01387847,0.09320518},
			{-0.09386949,-0.03260334,-0.10797611,-0.06740254,0.1512667,-0.057991415,0.0048240577,-0.06214421,0.092655614,-0.09359005,-0.14384249,-0.093379416,-0.028316388,0.0066664},
			{-0.15234481,0.040785965,0.12403459,0.15666492,-0.075481154,0.059306357,-0.083474115,0.12135777,-0.012687382,-0.098692805,0.12420409,-0.009742576,0.10660109,-0.11549875},
			{0.009956811,0.04751814,-0.11275136,-0.0727041,0.013219459,-0.06438742,0.077933066,0.09420327,0.095635,-0.032969557,-0.045673005,0.005219808,-0.047707096,-0.057788868},
			{0.027956147,0.07352111,0.15315534,0.021081677,-0.14373739,0.06747835,-0.09384215,-0.10269167,0.14201437,0.03281027,-0.11920654,0.11423233,0.07968257,-0.08653434},
			{0.058097657,-0.049695835,0.06115609,0.104416095,-0.08878558,-0.09296852,-0.06032171,-0.13727318,0.07761286,0.06306669,-0.088171296,-0.06349955,-0.07906768,-0.036820315},
			{-0.0059089432,0.13358587,-0.13883495,0.019344186,0.12908007,0.1373255,-0.12202126,0.100651294,0.0059382077,0.07652259,-0.1361053,-0.10175183,-0.028501451,-0.017358745},
			{0.012773408,-0.039441727,0.0202053,-0.14094418,-0.14078443,0.065068506,-0.017862713,0.07163401,-3.2251177e-05,0.052246556,-0.042399198,-0.14182831,0.024797637,0.12233468},
			{-0.1356289,-0.07827987,0.14528207,0.1556106,-0.011589941,0.0661719,0.1495669,0.00037825693,0.11670679,-0.07516887,0.14232202,-0.09291147,-0.02942779,-0.0069628498			}
		}
	}
};