// include/conv2d_2094_weight.h
// sergio rivera 
// 2020/02/14 19:06:40 

const float conv2d_2094_weight_p[3][3][3][14]=
{
	{
		{
			{-0.13548842,0.019402973,-0.051476404,-0.07209578,0.013029765,0.09740328,-0.13093507,-0.09154519,0.03994103,-0.037591655,0.1463198,-0.10377173,0.06571123,-0.118356444},
			{-0.006558761,-0.0013205614,0.18214023,-0.15274054,-0.015842767,0.033240132,0.19600981,-0.13225776,-0.18508378,0.18600157,0.028222932,-0.027810551,0.092367806,0.052000847},
			{-0.07263742,0.072463445,0.15119201,0.04273703,0.047394264,0.13145187,0.09104799,0.02775507,0.06575311,-0.020194774,-0.045917884,0.08281346,0.14083624,0.1477096}
},
			{{0.14277582,0.013297018,0.044398747,0.029207416,0.06815613,-0.16406539,-0.06612957,-0.12671815,0.051641308,0.097467124,-0.09145513,0.19753085,0.16697684,0.17361824},
			{0.08813464,0.08246643,-0.044774942,-0.008755825,-0.0313746,-0.011542185,-0.062695816,0.051155947,0.055991054,0.1915893,0.10967243,0.016488994,0.16506746,-0.19067898},
			{-0.06890839,0.16430758,0.019244874,0.15055855,-0.16653705,0.14860258,0.122222476,-0.16016255,0.13776557,0.008655562,0.067245536,0.056281943,-0.09638209,-0.055124946}
},
			{{-0.008585036,0.00086207653,0.05964013,0.0974034,-0.110190235,0.19789752,0.095255844,0.105948396,0.08915466,0.04397094,0.15271747,0.11237335,0.11110324,0.17310053},
			{-0.15813774,0.0576217,0.14829968,0.06518069,-0.03065064,-0.13914146,0.032250624,-0.04187389,0.15848935,-0.062087677,0.18533675,-0.01470798,-0.15307808,-0.12644646},
			{0.081046894,0.007955694,0.05994067,0.03406721,-0.07356104,-0.12754771,-0.038265955,0.15096182,-0.19428906,-0.04865016,0.055009183,0.12536508,0.17791791,0.13189936}
}
},
			{{{-0.18202129,0.07020065,-0.038991414,-0.0363693,-0.12776938,-0.10764537,0.17554364,0.014939387,0.027978033,-0.19686793,0.16645102,-0.06483003,-0.02361729,0.048530713},
			{0.15518054,-0.14985114,0.09399838,0.05091279,0.017333925,0.16055782,-0.0062374664,0.017886521,-0.19385117,-0.0592417,-0.10054752,-0.08357537,-0.036106475,0.12834886},
			{-0.16348952,0.030476589,-0.019731628,0.09614403,0.048939828,0.117233984,-0.17402177,-0.12923552,-0.07838838,0.020279737,-0.013813357,-0.023272349,-0.10695788,-0.013242212}
},
			{{0.07863941,0.13756667,-0.15734446,-0.049569637,-0.09258831,-0.10513763,0.0135303885,-0.058358386,-0.15542507,-0.09191905,0.108203486,-0.06336098,-0.100610174,0.030260788},
			{-0.03536267,0.10926778,0.060854826,-0.1321325,-0.10679123,0.18144824,-0.12786417,0.10053612,0.12367425,-0.07827763,-0.17416969,-0.0657618,0.098275766,-0.17453364},
			{0.06675431,0.09380041,-0.13638635,0.06773636,0.14144732,-0.12582956,-0.11568556,-0.1823179,0.057597365,-0.027694462,0.12844844,-0.13357693,-0.13182828,0.091408625}
},
			{{0.018060118,-0.12668149,-0.12887028,0.15215518,-0.01048391,-0.08821182,0.17321354,-0.06534405,0.013887948,-0.14528714,0.12199265,-0.025276963,0.04967081,0.012380833},
			{-0.18514672,0.13570619,0.16851375,0.1839282,-0.18267263,-0.07231094,0.18926157,-0.13041992,0.073231384,0.16659708,-0.1911807,-0.0037862984,-0.09580001,0.026652668},
			{-0.022909991,0.20615026,0.12376574,0.15515631,0.05488263,0.17205912,0.016558416,0.11346722,0.15278012,0.00789642,0.18057619,0.041037466,-0.035661604,-0.07146897}
}
},
			{{{0.0121462345,-0.10594353,-0.0094563505,0.020468287,-0.0025562793,0.015936665,-0.16793735,-0.028537838,-0.19486627,-0.005219585,0.16009219,-0.118703716,0.13539593,0.14712489},
			{-0.12599552,0.1110592,-0.06840693,-0.03770411,-0.08539719,-0.07459473,-0.16300733,-0.15790725,0.1620316,0.024757162,0.040573724,0.002232617,-0.024519708,-0.11590437},
			{-0.12308199,-0.18076104,-0.18285461,-0.079050295,-0.041350055,-0.16276744,0.050816815,-0.036614016,-0.011902361,0.073012024,-0.13141821,0.116219126,0.12790206,-0.155416}
},
			{{-0.030231003,0.12687925,-0.11581802,-0.050179426,0.15929486,0.14124863,-0.018614266,0.19348684,0.1694429,-0.13900281,0.1563854,0.13870808,-0.18826751,-0.013971305},
			{0.04377806,0.004371919,0.05762471,0.17112246,-0.03654002,0.15029126,-0.1854443,0.08202864,-0.09689992,-0.07408535,-0.09217292,-0.020984244,0.13683727,-0.12265722},
			{-0.10521138,0.15942499,0.0749151,-0.11697238,-0.003324599,-0.09822802,0.16580452,0.10491201,0.18277664,0.15672699,-0.04492229,0.11494239,-0.1011318,-0.13492669}
},
			{{0.08731569,0.17217757,0.18565503,-0.014021509,-0.10558493,-0.062714286,0.18993296,0.10248736,-0.185236,-0.157188,-0.16723038,0.13073178,0.041804954,-0.13139853},
			{0.12127254,-0.014919924,-0.052031215,0.18368357,0.008152248,-0.09663236,0.013898539,0.0016351483,-0.15584919,0.0047383006,0.16905716,0.18409634,-0.020112071,0.16616492},
			{0.057036806,-0.09650927,-0.015398541,-0.08617356,0.031376693,-0.17240152,-0.081086226,-0.11393477,-0.17982927,-0.10939983,-0.14995447,-0.0808804,-0.14441884,-0.12886068			}
		}
	}
};