// include/conv2d_2289_weight.h
// sergio rivera 
// 2020/02/15 01:22:00 

const float conv2d_2289_weight_p[3][3][10][1]=
{
	{
		{
			{-0.2272852},
			{-0.16328707},
			{0.112035625},
			{-0.11432087},
			{0.018399224},
			{0.11878396},
			{0.21334527},
			{0.060328513},
			{0.22905809},
			{-0.16648269}
},
			{{-0.06450807},
			{-0.11662716},
			{0.022658877},
			{0.08165205},
			{0.07994557},
			{-0.008120205},
			{0.18373421},
			{-0.07073989},
			{-0.12605074},
			{0.06032248}
},
			{{-0.17154759},
			{-0.024954567},
			{-0.058986932},
			{0.11969685},
			{0.07363835},
			{-0.18109114},
			{0.2154504},
			{-0.095004015},
			{-0.18344738},
			{-0.09668862}
}
},
			{{{-0.1694311},
			{-0.19235802},
			{0.04621118},
			{-0.07755935},
			{-0.066394575},
			{-0.1046549},
			{0.21480191},
			{0.123742595},
			{0.014672284},
			{-0.031908028}
},
			{{-0.22565259},
			{0.015149023},
			{0.13557664},
			{-0.22027092},
			{0.21959582},
			{0.026375862},
			{-0.18499438},
			{0.1950295},
			{-0.08382455},
			{-0.124610156}
},
			{{-0.18690407},
			{-0.15853712},
			{-0.16020682},
			{-0.09410514},
			{0.065801114},
			{-0.22504605},
			{-0.13624969},
			{-0.10867156},
			{0.054785278},
			{-0.17499396}
}
},
			{{{0.22334997},
			{-0.12784968},
			{-0.16126692},
			{0.1780183},
			{-0.231864},
			{-0.21286047},
			{-0.007676871},
			{0.19131355},
			{-0.058609262},
			{0.1607127}
},
			{{0.16737604},
			{0.23773721},
			{0.13008656},
			{0.2132358},
			{0.23368351},
			{-0.19364172},
			{-0.21516134},
			{0.007945865},
			{0.014083845},
			{0.21550854}
},
			{{-0.15788989},
			{0.2098687},
			{-0.051211655},
			{-0.17822297},
			{-0.21089455},
			{-0.1371211},
			{0.029626243},
			{0.1864117},
			{0.22518435},
			{-0.21843356			}
		}
	}
};