// include/conv2d_4839_weight.h
// sergio rivera 
// 2020/02/14 20:57:06 

const float conv2d_4839_weight_p[3][3][14][4]=
{
	{
		{
			{0.101578996,-0.032308854,0.15149876,-0.19194607},
			{0.11098532,0.007848978,0.09066783,0.092469335},
			{0.09634745,0.09574931,-0.09146498,0.13572592},
			{-0.055187333,-0.18711756,-0.08419891,-0.12023432},
			{-0.16723987,-0.0968014,0.08395444,0.03861862},
			{0.1277659,-0.057200868,-0.0885434,-0.14207245},
			{0.1679625,0.077057384,-0.05189206,0.18000717},
			{-0.18856664,0.08153518,0.01807425,0.111100316},
			{0.013148495,-0.016201131,0.011254569,0.123664364},
			{-0.14506565,-0.06699163,0.045512244,0.020099087},
			{0.037227236,-0.10499273,0.046321448,-0.16388313},
			{0.17425795,0.13753381,0.06167145,0.07437275},
			{0.032510787,-0.058257937,0.022615733,-0.17992686},
			{-0.046942797,0.12401027,-0.16198434,-0.052278284}
},
			{{-0.17914759,0.12606698,0.11043624,-0.10046479},
			{-0.116099164,0.09622774,-0.15072694,-0.07902727},
			{0.16281149,0.09570214,-0.16094881,0.06999299},
			{-0.07284027,0.108461,0.06744911,0.021621423},
			{0.056304805,0.107337244,0.17381653,0.044828814},
			{0.11275901,0.031556282,-0.050743088,-0.014529847},
			{-0.04497839,-0.103109255,0.15661569,-0.025565846},
			{0.028193722,0.1382116,-0.060588203,-0.09949593},
			{0.012943312,-0.182457,-0.014842068,0.05062449},
			{-0.15951818,-0.07923964,-0.018590594,0.12522651},
			{0.028882599,-0.097345926,-0.19213176,-0.06913078},
			{-0.09929227,0.08787604,0.09310474,-0.12707016},
			{0.014111225,-0.013047057,-0.039673604,0.13667177},
			{-0.10391648,-0.16964543,-0.1378452,0.17151852}
},
			{{-0.16188346,-0.064819776,-0.017482175,0.060964227},
			{0.13646673,-0.18210703,0.13374858,-0.008057566},
			{-0.1622414,-0.011728587,-0.17580982,0.019915832},
			{-0.025895653,0.16977473,-0.1443192,0.14517279},
			{0.12878436,0.11786811,-0.04994241,-0.045538384},
			{0.10389927,-0.1422119,-0.07160213,0.110792026},
			{0.080656774,-0.040961448,0.04960032,0.10460144},
			{0.12910871,-0.19289817,0.09170559,0.11151517},
			{-0.17465807,0.13177605,-0.13384995,-0.18297543},
			{-0.038710047,-0.108988546,0.07658931,0.15666561},
			{-0.12332602,0.07999341,0.16179325,-0.06980759},
			{0.021504357,0.07476839,-0.04823744,-0.18568337},
			{-0.02583882,-0.013126256,0.084667385,-0.18947944},
			{-0.044271227,0.04816688,-0.07066713,-0.04022747}
}
},
			{{{-0.13115221,0.15385836,0.10902556,-0.12854291},
			{-0.045036852,-0.0466027,-0.037942514,-0.15800546},
			{0.019769464,0.09001693,-0.15146382,0.14017797},
			{-0.020066924,-0.12247588,-0.08896045,-0.100857355},
			{-0.18382914,0.06980263,-0.16030243,-0.10445383},
			{0.13030754,0.13798343,0.013016661,0.00788917},
			{0.031945843,0.0682493,-0.1873902,0.008775964},
			{-0.04623123,-0.18429962,0.013096107,0.17319301},
			{-0.07955381,-0.12006864,0.047863454,0.17192939},
			{0.049701624,0.023057984,0.10220461,0.16584352},
			{-0.1621316,-0.18350928,-0.10765115,-0.12671001},
			{0.17244498,0.060628805,-0.007168601,0.12544164},
			{0.0671995,-0.19060901,0.0654064,-0.16878587},
			{-0.042415936,-0.14985746,-0.17787138,-0.11903198}
},
			{{0.012999895,-0.043039545,-0.16274063,0.034412216},
			{-0.15925413,-0.1615432,-0.005649298,-0.15840542},
			{0.14915475,0.1698299,0.12375709,-0.13795541},
			{0.08769578,-0.01448241,-0.12205742,-0.011702818},
			{0.013652962,-0.034752425,0.08504904,0.081181005},
			{-0.0956232,-0.064076714,-0.18496978,0.00054953736},
			{0.14749269,0.0034095028,0.043866992,0.012282988},
			{0.02265864,0.074997336,0.06336963,0.17747572},
			{0.1129019,-0.048473895,-0.100715086,0.013608736},
			{-0.12740313,0.15896825,0.07125657,0.030820368},
			{0.021897716,-0.09092039,-0.07900835,-0.18053882},
			{0.01241909,-0.04925625,-0.040405147,0.0531595},
			{0.0787108,0.019794397,0.17980032,0.16849302},
			{-0.14581342,0.106419206,0.10204096,0.18711045}
},
			{{0.0576093,0.18361413,0.058289193,-0.13906722},
			{0.14143677,-0.050086487,-0.12228276,0.014322414},
			{0.10054769,-0.13730009,-0.16799472,0.080986194},
			{0.017394207,-0.13959228,0.08451287,-0.044497035},
			{-0.008944739,0.061642166,3.9968872e-05,0.16829485},
			{-0.07720045,0.022863153,-0.01635033,0.008351655},
			{-0.011264144,0.16102359,-0.09723725,-0.019474268},
			{-0.09280865,0.10241316,0.10491417,-0.05915204},
			{0.06098189,0.007283037,-0.1639588,-0.02318804},
			{0.16274352,0.115238704,-0.14432229,0.1326635},
			{-0.15049121,0.13189542,-0.18181238,0.12652874},
			{-0.18372467,0.18306892,0.17705885,-0.12238566},
			{0.10643224,-0.17417848,-0.049761616,-0.14304551},
			{0.060749266,0.11323344,0.007371329,0.13173206}
}
},
			{{{-0.0019981312,-0.07374499,0.11783929,-0.034826115},
			{0.09625417,-0.13632263,-0.046286933,0.1267898},
			{0.057295293,0.07115136,0.034491938,-0.03563987},
			{0.07901467,-0.0518704,0.007695582,0.1632675},
			{0.15621905,0.094849266,0.06529815,0.105122454},
			{0.09374699,-0.11094502,-0.06873368,0.03555912},
			{0.13428152,-0.113243,0.09072954,0.066100925},
			{-0.13157792,-0.066355444,0.16602099,-0.08474444},
			{-0.12621634,0.0646888,0.055228386,-0.0038582925},
			{0.016366292,0.029532047,0.10654585,0.12213264},
			{0.07022343,-0.11529409,0.08000268,0.039031602},
			{-0.13300177,-0.04825099,0.09895892,-0.1594912},
			{0.1514484,-0.08279657,-0.040262878,0.13692674},
			{-0.11794246,0.16159447,-0.079299144,-0.18394881}
},
			{{0.074630514,-0.1686763,-0.087055735,-0.17563261},
			{-0.019311426,-0.006003847,-0.0044519333,0.1067124},
			{-0.08121723,-0.0568333,-0.09709208,0.04593539},
			{-0.08718834,-0.014749655,-0.14991637,0.03776399},
			{0.04987217,-0.16416948,-0.1554257,-0.06515476},
			{0.06788531,0.12075614,0.040116142,0.09277699},
			{-0.06913959,-0.1679452,0.1248101,-0.09283422},
			{0.12995222,0.015922295,-0.04115684,-0.0019548868},
			{-0.02991595,-0.15794422,0.10922165,0.033081364},
			{0.18562405,0.018730875,0.10918462,-0.06438032},
			{-0.0922335,-0.132846,0.15585934,0.031546142},
			{-0.14117064,0.11672413,0.006807291,0.09121211},
			{0.04688133,-0.012773052,-0.05553561,0.007134118},
			{-0.07224654,0.18755917,0.006802371,-0.14993533}
},
			{{-0.12550616,-0.040050875,-0.030592531,-0.093965515},
			{-0.14968246,0.079176635,-0.14122353,0.014426529},
			{-0.016048038,0.063866444,-0.05744303,-0.019963667},
			{-0.07560977,-0.078175075,0.114688575,-0.07222138},
			{0.03151105,0.10606893,0.17214774,-0.07338873},
			{-0.016006276,-0.19196163,-0.1868262,-0.03767003},
			{-0.086239904,-0.07356499,0.037176814,0.09758354},
			{0.06893685,0.027656773,-0.018351875,-0.11141944},
			{-0.044689078,0.050888047,-0.15043111,-0.13826622},
			{-0.033906013,-0.1622432,-0.1341566,0.02873086},
			{-0.05224661,0.17909117,0.0303797,0.0508174},
			{-0.068359084,0.14699759,0.09092732,0.13689713},
			{0.13259587,0.07486712,-0.14106317,-0.12017769},
			{0.17382877,0.14958003,-0.030315932,-0.10395914			}
		}
	}
};