// include/conv2d_379_weight.h
// sergio rivera 
// 2020/02/14 23:55:28 

const float conv2d_379_weight_p[3][3][8][2]=
{
	{
		{
			{-0.24203049,0.17687589},
			{0.23600969,0.21234125},
			{-0.02631013,0.12074366},
			{-0.081460126,-0.13368382},
			{0.1300682,0.12988454},
			{-0.032937516,-0.23956317},
			{-0.24987398,-0.13496219},
			{0.12988152,0.04448603}
},
			{{0.22817169,-0.081314676},
			{0.054782394,0.076318234},
			{-0.09947587,0.056658335},
			{0.23292609,-0.150734},
			{-0.23273021,-0.107310496},
			{0.23731917,-0.23078772},
			{0.22657442,-0.07071076},
			{0.18509428,0.015453544}
},
			{{0.10911927,-0.014011815},
			{-0.0887038,0.0053751846},
			{-0.22336751,-0.23955818},
			{0.078850195,-0.10484682},
			{-0.14693077,-0.006154715},
			{-0.14305481,0.085264534},
			{0.1716622,-0.058504526},
			{-0.10613055,-0.046886336}
}
},
			{{{0.05321394,0.19205762},
			{-0.12206331,0.107537344},
			{0.056830958,-0.21149416},
			{-0.18648434,-0.07375048},
			{0.15593922,-0.2339572},
			{0.11775271,-0.040010102},
			{0.10990698,0.14676565},
			{0.022579368,-0.023131227}
},
			{{0.03492707,0.14913687},
			{0.2194114,0.18245465},
			{0.047954675,0.18710914},
			{-0.08808376,-0.16218881},
			{0.17862272,-0.13014776},
			{-0.17274465,-0.024495644},
			{0.18970825,-0.14782384},
			{0.026839973,0.17161591}
},
			{{0.12563963,0.1559272},
			{-0.058096126,-0.013390976},
			{-0.20061448,-0.07012016},
			{0.011297929,0.11169658},
			{0.14678404,0.18185182},
			{-0.15028524,0.019327018},
			{0.047872953,0.008954513},
			{-0.102576114,0.035390116}
}
},
			{{{0.122398004,-0.14538732},
			{0.251255,0.23365022},
			{0.15347868,-0.08329889},
			{0.14597645,0.18018728},
			{-0.24792488,-0.012643491},
			{0.12704107,-0.13418964},
			{-0.20656253,0.044631425},
			{0.21387833,-0.23317346}
},
			{{0.19855145,0.035752848},
			{0.043844096,0.084365614},
			{-0.09267607,-0.16407885},
			{0.119776465,-0.14098977},
			{-0.25649586,0.05667371},
			{-0.048062123,-0.08936103},
			{-0.17134948,-0.048512794},
			{0.17451109,0.15316762}
},
			{{0.14597331,0.008942307},
			{-0.0027632306,-0.021154307},
			{0.19278026,0.04193422},
			{0.09842977,0.16021682},
			{-0.14100133,-0.0880276},
			{0.00023027463,-0.06819831},
			{-0.15947735,0.06679746},
			{0.18072928,0.045075517			}
		}
	}
};