// include/conv2d_2525_weight.h
// sergio rivera 
// 2020/02/15 01:40:38 

const float conv2d_2525_weight_p[3][3][8][2]=
{
	{
		{
			{-0.10146934,0.13772416},
			{0.009534252,-0.22703771},
			{0.1158072,0.13982478},
			{-0.14614919,-0.049384173},
			{-0.2078085,0.20151225},
			{-0.20065923,0.099171594},
			{0.13077655,-0.26060092},
			{-0.19409795,0.03875201}
},
			{{0.007923615,-0.07875951},
			{-0.08208915,0.186404},
			{0.05433174,0.15486689},
			{0.10521074,-0.24351437},
			{0.23785242,-0.10011189},
			{-0.079353765,0.15858597},
			{-0.13776714,0.16471025},
			{-0.061709877,0.11698916}
},
			{{-0.18943597,-0.2456337},
			{-0.05882553,0.016633272},
			{0.067421585,0.123049244},
			{-0.10118029,0.07027071},
			{0.049865037,-0.09337118},
			{-0.010443479,0.17660809},
			{-0.11442448,0.23827967},
			{-0.14530365,-0.09873849}
}
},
			{{{0.07366612,-0.17717552},
			{-0.19112295,-0.12014487},
			{0.0010392354,-0.026728109},
			{0.12518638,-0.23492053},
			{-0.02367738,-0.18766992},
			{-0.20493048,-0.08685341},
			{-0.24587071,-0.07037785},
			{-0.23283051,-0.25810936}
},
			{{0.19497682,0.01816586},
			{0.0139799835,-0.14990391},
			{0.24116576,0.08026343},
			{-0.24182297,0.13789117},
			{-0.08257789,0.06237472},
			{0.03241332,-0.22065777},
			{0.06573632,0.09799804},
			{-0.19191158,0.15883072}
},
			{{0.17620143,-0.07549112},
			{0.21650498,0.17928827},
			{-0.24656248,-0.17560734},
			{-0.012773197,-0.09314165},
			{-0.1433222,0.052995868},
			{-0.1217058,-0.19986404},
			{-0.055784024,-0.13177279},
			{-0.25259218,0.06794431}
}
},
			{{{-0.08292159,-0.079642355},
			{-0.051772732,-0.1043995},
			{0.0679663,-0.17922473},
			{0.1467558,-0.25225794},
			{-0.055382818,0.06942333},
			{-0.046401247,0.24735296},
			{0.16346937,0.20219748},
			{0.2247254,-0.08092244}
},
			{{-0.043771207,0.060071353},
			{0.22126862,0.23335223},
			{0.2141505,-0.210067},
			{-0.011733836,-0.14612915},
			{-0.12659864,-0.21446155},
			{0.04307684,0.21295571},
			{0.23791172,0.04159712},
			{-0.15394945,0.07005825}
},
			{{0.021107456,0.08764584},
			{-0.16631614,-0.035029817},
			{0.07424458,-0.19407333},
			{-0.03875973,-0.25365376},
			{-0.019656928,-0.10679094},
			{-0.016539222,0.0067085936},
			{-0.08221807,-0.15160833},
			{-0.031161437,-0.028918367			}
		}
	}
};