// include/conv2d_4068_weight.h
// sergio rivera 
// 2020/02/15 04:19:00 

const float conv2d_4068_weight_p[3][3][5][4]=
{
	{
		{
			{-0.073183656,-0.11450657,-0.14192432,0.14693174},
			{0.04514765,-0.12831727,-0.2412468,0.13022907},
			{0.113524966,-0.006007803,0.09055172,0.06357319},
			{0.24825905,0.26070583,-0.15219787,0.08728484},
			{0.12623344,-0.0023381265,-0.05080179,-0.033932205}
},
			{{-0.10865186,0.0064711263,-0.26976994,-0.1496233},
			{-0.11192828,0.060235262,0.22033858,-0.22344305},
			{-0.14875987,-0.082238354,0.26149046,-0.041454848},
			{0.20937937,-0.18348233,-0.23160276,0.1895866},
			{0.069379024,-0.17878643,-0.2506763,-0.2172453}
},
			{{-0.23726894,-0.2064659,-0.22362033,0.06610031},
			{0.16414145,0.2318471,-0.16733237,-0.13791642},
			{-0.17570616,-0.22895674,0.04171049,-0.22175829},
			{-0.17127089,0.057662502,-0.03606783,-0.1757927},
			{0.07906963,-0.22188413,0.09362578,0.07590408}
}
},
			{{{0.1755261,0.10056588,0.029704997,-0.072365716},
			{0.05925565,-0.12500916,-0.19685833,0.01035169},
			{-0.21079348,-0.1461009,0.095927425,0.23323567},
			{0.019227823,0.07587122,-0.0795437,0.19638748},
			{-0.12124509,-0.10619292,0.13233097,-0.060810532}
},
			{{0.08311769,-0.051216975,0.04695017,0.13833283},
			{-0.20145512,0.21469696,0.20342924,-0.20506757},
			{0.017076068,-0.15792808,-0.09031699,0.058549568},
			{0.07901749,0.17145035,0.26546657,0.1776561},
			{0.22443895,0.11301409,0.12276998,-0.1439388}
},
			{{0.21603738,0.011201106,-0.011408249,-0.13634586},
			{0.21808739,0.14428134,-0.13572946,-0.16235188},
			{-0.10910016,0.13189831,-0.019562302,-0.016576814},
			{0.22452724,-0.22517386,0.21617508,0.21471545},
			{-0.2237935,-0.21712786,0.19891831,0.0013625306}
}
},
			{{{0.21415098,-0.0033229582,-0.16991222,-0.17679366},
			{0.24453998,-0.22313192,0.01566891,-0.007843216},
			{0.16471146,-0.07407361,-0.14566405,0.0012436451},
			{0.15022115,0.13297895,-0.22069328,-0.09332931},
			{0.18967772,-0.15768306,-0.04325116,0.039663028}
},
			{{-0.23829995,-0.21783873,0.26757976,0.18678862},
			{0.27181897,-0.021377949,0.2539882,0.2587475},
			{-0.10273043,-0.02938834,0.27247986,0.045991663},
			{-0.03228516,-0.07289494,0.059858374,-0.15438633},
			{0.21757375,-0.09750905,-0.097322196,-0.20791265}
},
			{{-0.19891107,-0.035312846,0.2496383,0.23470439},
			{0.13754764,-0.07318096,0.030064367,-0.18520933},
			{0.19449222,0.23295672,0.13597679,0.15929224},
			{-0.019809235,0.21347213,0.21668872,0.21137848},
			{0.052123636,0.037434746,0.17182302,-0.076735325			}
		}
	}
};