// include/conv2d_4065_weight.h
// sergio rivera 
// 2020/02/15 04:18:57 

const float conv2d_4065_weight_p[3][3][3][4]=
{
	{
		{
			{-0.044518933,-0.04375102,0.08983228,0.29660177},
			{-0.20385769,-0.0037340445,-0.1107215,-0.13617803},
			{-0.18017818,0.26696217,-0.13515826,0.1288718}
},
			{{-0.24595377,-0.24983773,0.14717753,-0.027121361},
			{0.17840369,0.15886994,0.04959685,0.11884472},
			{0.069670506,-0.21173166,0.29546684,0.25702208}
},
			{{0.2478318,0.08480877,0.28723523,0.16005006},
			{-0.2679302,0.08061321,0.05164356,0.19006138},
			{-0.055671964,0.06707431,0.073357426,-0.2807193}
}
},
			{{{0.29741,-0.071598746,-0.2548566,0.13754445},
			{0.19092408,-0.22367297,0.16098396,0.10107134},
			{0.13434152,-0.09154129,-0.103008546,0.23544799}
},
			{{-0.1025573,-0.13034956,0.007416886,0.25198996},
			{-0.28436086,-0.088433646,0.08947149,-0.21939446},
			{-0.24513514,0.05530079,-0.10568379,0.040503036}
},
			{{-0.029850584,-0.023223784,0.123176076,-0.12658612},
			{-0.29218504,0.14568128,0.07732591,0.2184646},
			{0.20358594,0.021561552,0.13621461,-0.19258927}
}
},
			{{{0.22174704,0.18982068,0.15521792,-0.24312143},
			{-0.1912338,0.10206249,0.094389595,0.017756611},
			{-0.2205359,-0.284256,-0.1601432,-0.0279146}
},
			{{0.11152123,-0.24766698,0.026139019,0.026711859},
			{0.10925039,-0.29037204,-0.29556173,0.19452527},
			{0.1685297,-0.011057818,-0.1024377,0.27874297}
},
			{{0.29229835,0.19338147,-0.19246978,-0.07636291},
			{0.031238535,0.07158336,-0.06048158,0.29005054},
			{0.21384396,-0.17057595,-0.24119993,0.06169302			}
		}
	}
};