// include/dense_1888_weight.h
// sergio rivera 
// 2020/02/15 01:24:49 

const float dense_1888_weight_p[1][93]=
{
	{0.2482435,-0.02400814,-0.018161267,0.19690056,-0.12295714,-0.203648,-0.05569437,-0.22274594,0.22409646,-0.12367292,0.13947909,-0.09395951,0.0022563648,-0.079144254,0.18251933,-0.112828374,0.18615773,-0.104346514,-0.010203883,0.017849803,-0.24369039,-0.13307898,-0.20737144,0.1672667,-0.1793971,-0.18920651,-0.21914494,-0.054902583,0.011861545,-0.16445951,0.08976358,-0.11857128,-0.04679303,-0.24927475,-0.23293054,-0.15959412,0.08834691,0.052846592,-0.09207788,0.16475767,0.1861625,0.22554044,0.1571504,-0.17610566,-0.13743918,-0.23471037,0.08795124,0.03540187,0.021256477,-0.17708695,0.09013202,-0.18740432,0.2237004,-0.25167134,-0.07231271,0.12160392,0.054975882,0.046418644,0.11623367,0.04001258,-0.15069258,-0.073685125,-0.14637834,0.043322556,0.23659429,-0.15422606,-0.0051098317,0.14988501,-0.23990616,0.16352385,-0.19854961,-0.18068114,0.1208291,0.16811348,-0.19478008,0.019321185,-0.0629925,0.20947912,-0.23561451,-0.037164524,0.06631146,-0.041854084,-0.1703819,-0.05764799,-0.2301146,0.1311188,0.22685085,-0.12767133,-0.19719654,-0.028067887,-0.23177275,-0.004258707,0.091467395	}
};