// include/conv2d_9562_weight.h
// sergio rivera 
// 2020/02/14 17:21:44 

const float conv2d_9562_weight_p[3][3][8][4]=
{
	{
		{
			{-0.0726864,-0.19597265,-0.007087579,-0.006998031},
			{-0.052622933,0.022462396,0.19587208,0.22150561},
			{0.093644775,0.00020969388,-0.043098208,0.13398302},
			{-0.13986853,-0.02890331,-0.08587219,-0.0957127},
			{-0.17004697,0.11548735,-0.21281973,-0.09091008},
			{0.06524998,0.1978355,0.09717211,0.09876142},
			{-0.15721293,-0.23670305,-0.2012982,-0.06368047},
			{-0.17117502,0.066425845,0.079638675,0.14392993}
},
			{{0.044979468,0.06467542,-0.2007232,0.14473888},
			{-0.018001731,0.026860762,0.23449117,-0.19512926},
			{-0.23587339,0.109866016,-0.11305763,0.007942836},
			{0.23270904,0.1522902,-0.11580088,0.08224962},
			{0.0655406,0.028919205,0.022719279,-0.19204493},
			{-0.037850074,0.2059873,-0.21097314,-0.19491404},
			{-0.07384221,0.08465915,-0.008083718,0.1858137},
			{-0.02579354,0.15064433,-0.059325736,0.21481854}
},
			{{-0.2026794,0.05768537,0.040097818,-0.17275308},
			{0.060549222,-0.07216042,0.22914739,-0.0021571359},
			{0.17985456,-0.09265524,0.014175133,0.04649478},
			{-0.20426993,-0.14249429,-0.2029087,0.19308938},
			{0.17474015,-0.11983473,-0.091837704,0.1925884},
			{0.22415644,0.12057857,-0.19555236,-0.20681132},
			{0.01201328,-0.18729946,-0.011398523,-0.2109068},
			{-0.12209018,0.1567244,-0.21533036,0.18554533}
}
},
			{{{0.055507757,0.16879886,-0.13214032,0.15072165},
			{0.06729544,0.115464956,0.22176771,-0.013952702},
			{-0.21800083,-0.099941224,-0.075461455,-0.11039202},
			{0.23407973,-0.15287831,0.16344772,0.073127486},
			{0.0859739,0.17262186,0.1948079,0.11588205},
			{-0.02370332,0.10845216,0.11407462,0.21141067},
			{0.060348053,0.2095632,-0.116206706,0.0061476706},
			{0.019436577,-0.057829976,0.048592538,0.20205572}
},
			{{0.044758026,-0.026482338,-0.07873639,0.2264007},
			{0.036804844,0.023428246,-0.074895486,0.18453273},
			{0.0005792447,0.17528568,0.008288324,-0.23367037},
			{-0.13870308,0.044937238,0.19522843,0.21610303},
			{0.150189,-0.22608593,-0.112668306,0.23121448},
			{0.11397273,0.019161053,-0.21859826,-0.038085043},
			{0.14047532,-0.07386824,0.12964243,-0.015532827},
			{-0.20276111,0.08502223,-0.054412596,-0.18554422}
},
			{{-0.017034838,-0.23084573,-0.21912609,-0.19079383},
			{0.021340122,-0.08102185,0.159414,0.057116225},
			{0.18543641,0.12706028,0.16407314,-0.08866816},
			{0.120792255,-0.04196635,0.19299953,0.19332738},
			{0.14095564,-0.08192495,-0.23244616,0.14293526},
			{-0.22937782,0.026941407,-0.16629156,0.1814851},
			{0.06327921,-0.11592024,0.16388038,0.14637247},
			{-0.18569681,0.15106922,0.1398378,0.13740464}
}
},
			{{{0.063858464,0.160257,0.10250307,-0.061609436},
			{-0.11132707,-0.23192467,0.042636048,0.05292973},
			{-0.03233541,-0.02185028,0.07070453,-0.22154795},
			{-0.09356044,-0.041456208,0.092688605,0.09734725},
			{-0.16489522,0.19970946,0.05441843,0.010891482},
			{-0.015173981,0.18751068,0.101292744,0.053017672},
			{0.18969412,-0.014410067,-0.12284571,0.01194587},
			{-0.2174641,-0.21767706,-0.120156035,0.069189526}
},
			{{0.22508067,0.07378311,-0.07974105,0.11910974},
			{0.15152146,0.02702044,-0.17987274,0.083775446},
			{0.08008067,-0.018019669,0.095326275,-0.18221055},
			{-0.06838365,0.23312928,-0.04669623,-0.18594931},
			{-0.11232512,0.056297794,-0.13340735,0.12450499},
			{0.18231197,-0.1372958,-0.10764656,-0.2085084},
			{-0.08783119,0.16587703,0.02552478,-0.09444497},
			{-0.16598274,-0.054936547,-0.08341542,0.14649346}
},
			{{-0.15277162,-0.121912315,0.13123886,-0.17675681},
			{0.2247611,0.14374481,-0.19750933,-0.1599725},
			{-0.19991596,-0.17831406,-0.013247512,-0.08220459},
			{0.078738354,-0.014561504,0.102197826,0.19138585},
			{0.05265434,-0.14732364,-0.12166975,0.20380317},
			{-0.21625097,-0.11943932,0.14294656,-0.20821762},
			{0.12630711,-0.036054265,-0.048195485,-0.23201635},
			{-0.061118867,0.026946208,-0.059094947,-0.15935606			}
		}
	}
};