// include/conv2d_97_weight.h
// sergio rivera 
// 2020/02/14 21:26:21 

const float conv2d_97_weight_p[3][3][14][8]=
{
	{
		{
			{-0.016482597,-0.02945449,-0.08312505,-0.09302469,0.12942538,0.13665682,0.108120345,-0.022747114},
			{-0.0054395995,-0.041471273,-0.06383445,-0.17392866,0.15803856,-0.1319623,-0.14000495,-0.14504327},
			{0.17363155,-0.056343094,-0.12145108,0.0002554953,0.004365141,-0.13668406,-0.010424271,-0.16283943},
			{-0.1255609,-0.113687776,0.010356189,0.078804344,0.14865552,-0.016273096,-0.15777434,0.068323046},
			{-0.16317347,0.17372881,0.02135723,-0.12193766,0.15568694,-0.05108045,0.08094385,-0.07898321},
			{0.013481453,0.09889555,0.08156201,0.1470184,0.07167285,0.17302498,0.11163628,-0.11494348},
			{0.16854578,-0.048432786,-0.0039812094,-0.0015944391,-0.100069836,-0.043829784,-0.05368779,-0.025754562},
			{-0.10158265,-0.13307014,-0.04703044,0.07122004,-0.14232083,-0.060190856,-0.059446737,0.059617214},
			{-0.13928476,0.024663473,0.009094689,0.05039589,0.09459963,-0.076463774,-0.025235087,0.06632553},
			{-0.09706263,-0.12129073,0.11963308,-0.1443327,0.14658561,0.15617576,-0.063859,0.16487092},
			{0.102581576,0.036439374,-0.023807596,-0.032020748,-0.01818602,-0.0048101097,0.14215414,0.013904018},
			{0.06059356,-0.15234904,-0.16071902,-0.009980559,-0.16936308,-0.021381319,-0.16060704,-0.027520843},
			{-0.067744315,0.031453423,-0.023813952,0.018351406,0.12957287,-0.16168974,0.09725836,0.13189468},
			{-0.05934692,0.051017657,-0.024457723,-0.14335617,0.1719191,-0.033067122,0.008205667,-0.13095261}
},
			{{-0.021283483,0.114941254,0.06917502,-0.17395157,-0.13909866,0.12144855,0.021266209,0.10493405},
			{-0.06532908,-0.064782046,-0.16178882,-0.044760898,-0.05634119,-0.08378156,0.0038037344,0.09153404},
			{-0.10817789,-0.03843181,-0.103419326,0.037995562,0.121554166,0.021339938,-0.0052312464,0.061194494},
			{0.16868976,0.15342785,0.11305653,-0.06719824,-0.039556447,0.169236,0.06695449,-0.10933947},
			{-0.04262019,0.05911559,-0.16739936,0.121394396,0.10838464,0.019961238,-0.04017677,-0.14077446},
			{0.17483617,-0.16502827,-0.048943225,-0.07328898,-0.109842055,-0.09160245,0.021544427,0.050157174},
			{0.15523207,-0.10538512,0.0034381016,-0.07855513,-0.04407874,0.08271104,-0.15490365,-0.087363765},
			{-0.037406534,-0.12202667,-0.08459715,0.047453597,0.15719233,-0.065175734,0.049100578,-0.111085504},
			{-0.025653547,-0.13685444,-0.04752194,0.12724093,0.17102009,-0.0564712,0.16766544,0.114837684},
			{-0.032589674,-0.11853145,-0.023376409,0.16983297,0.022201061,-0.11273571,0.017561808,-0.15023082},
			{-0.071789466,0.06971824,0.09511197,0.092225015,-0.15934074,0.1381248,-0.14257053,0.0042206077},
			{0.012132138,-0.1167991,-0.06232807,0.11402255,-0.16394651,-0.15710844,-0.08279067,-0.1699074},
			{0.001415774,-0.13254642,-0.014656769,-0.046495244,0.0025752326,-0.17265081,0.13180053,0.034857634},
			{-0.05992104,0.07369712,0.09022653,0.08216426,0.0631869,-0.022630572,-0.08068566,0.12214923}
},
			{{0.07046697,-0.03809221,-0.061342955,0.08776316,-0.15795916,-0.13685244,-0.06349497,-0.012876753},
			{-0.17317306,-0.15035737,0.16113618,-0.13176931,-0.15821636,-0.10383271,0.08399798,-0.12415335},
			{-0.015190095,0.1717841,0.11884364,-0.04875195,0.12141831,0.0821296,-0.11915989,0.012083293},
			{0.13918553,0.01620468,-0.055434007,-0.13875325,-0.047578342,0.043468073,-0.107213914,0.16179182},
			{0.120836906,-0.090861015,0.029818371,-0.049305394,0.012297847,-0.10000452,0.08540931,-0.09469135},
			{-0.16070598,0.16084394,-0.008938207,0.0014816225,0.10935384,-0.08346315,0.058803394,0.13432711},
			{0.06646048,0.14904411,-0.09817175,0.051949695,0.035662606,-0.15392542,0.016110599,0.14787976},
			{-0.13791344,0.022381052,-0.12167747,-0.10412219,-0.1286925,0.008242279,-0.14636758,-0.09040511},
			{0.09843844,0.164532,0.06756093,-0.01795651,-0.17425849,-0.002588272,0.042097274,0.011496114},
			{-0.10119502,-0.13500786,-0.07136639,-0.02397047,-0.023283675,-0.04693888,0.0980539,-0.05244039},
			{-0.026395656,-0.008669831,0.17021935,0.13273501,0.10207075,-0.0019478798,-0.07804533,-0.009998899},
			{0.0374842,0.026824158,0.11743966,-0.070454344,0.15382293,0.05702722,-0.057037972,-0.029416371},
			{0.055103056,-0.022129165,0.08637002,0.105983436,-0.10799441,0.036903575,-0.1347854,-0.08409222},
			{-0.037789255,-0.13145202,0.1715458,0.02095151,0.11940342,0.089680105,0.037060782,0.021174923}
}
},
			{{{-0.15770483,-0.032686714,0.16858424,-0.13198832,0.023101253,0.12016305,-0.03636254,0.099274576},
			{-0.14435838,0.08767545,-0.0778841,0.08647734,-0.05470149,-0.09189082,0.044185698,-0.07007455},
			{-0.002665013,-0.12270304,0.13757926,0.15610069,-0.13473985,0.16808867,-0.11717428,0.09201778},
			{0.10214394,0.11007476,0.10856444,-0.06257729,-0.15801851,-0.09890107,-0.16729231,-0.1340506},
			{0.17188755,0.1702066,0.15236658,-0.13763365,0.074434236,0.10041201,-0.16214134,0.15853286},
			{-0.07210414,0.016551817,-0.04108962,0.03939876,0.052218303,0.10726151,0.02406916,-0.08587675},
			{-0.10497579,-0.056470856,0.026830534,0.038595706,0.08188423,0.12519991,-0.030336335,-0.10449701},
			{0.07210402,-0.036583852,0.13992731,0.1712063,0.012689126,-0.10250505,-0.09149604,-0.019684654},
			{-0.037068192,0.10668638,0.063226536,-0.023733273,0.029198082,-0.17401507,0.0475322,-0.044671983},
			{-0.016047776,-0.016510539,0.1635716,-0.14007372,-0.06572869,-0.13964498,0.03039062,0.17078519},
			{-0.05540034,0.08802783,-0.15580302,-0.013261229,0.008888097,-0.13506153,-0.053609274,-0.027745226},
			{-0.11696834,0.09586921,0.0602505,-0.13236667,-0.036332943,0.091962755,0.14254415,0.1424515},
			{0.11890168,-0.010929849,0.10116041,0.087396085,0.12923445,-0.041829363,-0.029546294,-0.118896574},
			{-0.14362536,0.08586392,0.09419957,0.04080452,-0.1519619,0.12953353,0.10465109,0.104242295}
},
			{{0.033810418,0.10030128,0.05117481,-0.016186178,0.168788,0.028110966,0.036121443,-0.17004457},
			{0.13452086,0.021304464,-0.14097248,-0.09469919,0.12886634,-0.14978476,0.091452815,-0.11181938},
			{0.053164516,0.0045226836,-0.07126083,0.023715839,-0.07720835,-0.028472051,0.1142056,-0.072656386},
			{-0.14544226,-0.13517815,0.03473897,-0.09718893,0.00062010344,-0.11674228,-0.11174824,0.010347766},
			{-0.054609768,-0.13555019,0.14934412,0.08564314,-0.11556296,-0.041797146,0.1629155,0.1556308},
			{-0.13713458,-0.08088243,-0.060566463,-0.1037443,0.17170015,0.03934878,0.006101817,0.1550828},
			{-0.04584145,0.16972795,-0.039322283,-0.112029076,0.12827633,0.10802993,-0.11678154,0.15118425},
			{-0.15679826,-0.1609984,0.036237177,0.05368574,-0.1559164,-0.12533164,-0.09011009,0.050192073},
			{-0.0649387,0.08615624,0.1637796,0.14731407,-0.15798058,-0.16067806,-0.16934134,-0.09429238},
			{0.032390792,0.09732863,-0.08521351,-0.041010708,0.046995655,-0.14826818,0.04755175,-0.019264236},
			{0.13249122,0.16370744,0.15906389,-0.17394812,-0.07435783,-0.12815025,-0.124032244,-0.01853272},
			{0.01854913,-0.09427414,0.023508906,-0.12146768,0.15168925,-0.13334934,0.068165675,-0.08646285},
			{-0.12907912,-0.056707658,0.07533775,0.031164318,-0.09080138,0.019098103,0.12967765,0.09464492},
			{0.10005796,0.037308395,0.1294831,-0.16758338,-0.064105116,0.08457649,-0.046206594,0.04291758}
},
			{{0.02141164,0.030870277,-0.11670871,0.14009684,0.03363255,-0.11862039,-0.07295346,-0.016039245},
			{-0.06885138,-0.0957016,0.12475862,0.07958779,-0.08140042,0.040819034,-0.12828164,-0.14604585},
			{0.13568214,0.0120206075,0.124216385,0.1329659,-0.16203031,0.12024301,-0.06603062,-0.10748255},
			{0.042714152,0.16273215,-0.13857892,-0.15455918,-0.15051886,-0.03582357,-0.03323368,0.10434684},
			{-0.036184456,-0.027812302,0.14046004,0.16263378,-0.03837666,0.17191786,0.05329068,-0.018325942},
			{-0.08390937,0.081644654,0.14294517,-0.13934787,0.066697255,0.078615695,-0.16876377,0.11132833},
			{-0.070785575,-0.089452624,-0.054487858,-0.03800486,0.14581613,0.042663082,0.11772006,0.09674036},
			{0.124768734,0.12110184,-0.066332094,-0.14271915,-0.019868772,-0.010736376,0.03293705,0.098198734},
			{-0.17367254,-0.025372732,-0.017370446,0.030841514,0.107455224,-0.0014556497,-0.12338725,-0.109702244},
			{-0.1594857,-0.03148365,0.034934238,-0.044892058,-0.03786707,-0.066488944,-0.134651,0.107924014},
			{-0.019058954,0.019571919,0.117050834,-0.15495607,0.13107046,-0.09710364,-0.16488951,0.14346723},
			{-0.09227634,0.12363906,0.15961367,-0.03314461,-0.007623641,0.008550853,0.029353365,-0.026005954},
			{-0.08271811,0.13937385,0.12190642,0.105555,-0.012570526,-0.17035821,0.03005067,0.013326217},
			{-0.112391934,-0.056400687,-0.122090146,-0.07059425,0.0018640012,0.17161879,-0.0574865,0.1335175}
}
},
			{{{-0.031163836,-0.06825603,-0.16686141,-0.06716711,0.10364102,0.089645684,0.11284649,-0.115117244},
			{0.12305641,0.18174005,-0.06031039,0.018614545,-0.15273389,-0.009390429,-0.001732299,0.13808526},
			{0.063154474,-0.15588035,0.15511465,-0.010901719,-0.03794627,0.064288154,0.029515058,0.099811845},
			{-0.024680022,0.05177326,0.09030343,0.100742996,0.083800755,0.04905434,0.14927778,0.061959654},
			{-0.0010357648,-0.15945026,-0.13593523,0.16393471,-0.024931995,0.09845886,0.07317825,0.11616969},
			{0.15700248,-0.14690857,0.0657787,0.09552291,-0.13856474,-0.0055120587,0.08318061,0.132399},
			{-0.049336948,-0.026141094,-0.16202794,-0.16557454,0.042990424,-0.106906936,0.068454176,-0.07580212},
			{-0.05480914,-0.059781693,-0.1154455,0.1664637,-0.042301636,-0.0042960495,0.017944932,0.16242132},
			{-0.0393194,0.12241745,0.10171733,0.06469093,0.047162574,0.10860336,0.14289112,-0.16874163},
			{-0.0029712627,-0.10209965,-0.06692282,-0.15389292,0.070160255,0.09175876,0.005696669,-0.021030828},
			{-0.062208973,-0.06292204,-0.052349932,-0.12700328,0.046745773,-0.086028844,0.16456135,0.035763737},
			{-0.025312733,0.15216033,0.08537848,-0.102450475,0.04403895,0.035833538,0.08994976,0.07842296},
			{-0.083477624,-0.08037204,0.014010958,0.16261148,-0.016648684,-0.0016042292,0.077496395,-0.10307754},
			{-0.053949706,0.05950588,-0.010244235,0.029551417,0.034195602,-0.06840839,0.14092422,0.09212199}
},
			{{0.0022427856,0.13122644,-0.06356454,-0.07615491,0.12870394,0.100967735,0.1288435,0.12093288},
			{0.14705703,-0.029145654,0.12890731,0.015309468,0.0032114333,0.109631956,-0.08113624,0.14700732},
			{-0.093699746,0.10857746,0.027725799,-0.11054633,-0.096695416,0.1249741,-0.11637863,0.0015465568},
			{-0.03800345,-0.004831534,-0.07377158,-0.09526201,0.07049301,-0.1024032,-0.016976511,0.024098855},
			{-0.008823246,0.12369409,0.13770917,-0.14604343,-0.06846505,0.017643362,-0.15061922,-0.0552857},
			{-0.10649006,-0.09626984,-0.14609435,-0.1408241,0.1391905,-0.07871176,-0.09893091,0.13601756},
			{0.044451892,0.0012718883,0.0882094,-0.1167197,0.101166375,0.04918641,-0.16523395,-0.14270528},
			{-0.12226262,0.06746793,0.118958965,0.10540557,0.044178132,0.034051955,-0.06633368,0.12698796},
			{0.050141577,-0.040667355,-0.06951589,0.022333413,-0.043732367,0.011162907,-0.04603488,-0.0687397},
			{-0.018835798,-0.027108168,-0.11995924,0.108362675,0.012828648,0.16220757,0.014446363,0.10745874},
			{0.115275346,-0.10121348,-0.079028435,0.05825518,0.08967963,-0.05065488,0.122246936,-0.096780986},
			{0.124816485,-0.12933655,0.08783761,0.053104863,0.047690604,0.05223441,-0.02428697,-0.042277504},
			{0.015397074,0.15509692,0.15477729,-0.1350089,-0.036493775,0.063500494,0.0025802003,0.0007849798},
			{0.06084624,-0.042289674,0.06238182,-0.055116616,0.07284285,-0.14946401,-0.16216421,-0.1594339}
},
			{{-0.009885658,-0.11697221,0.10135375,-0.009938851,0.08436716,0.046403155,-0.16652124,-0.05646093},
			{-0.057139043,0.16088754,-0.1040201,-0.012424812,-0.04301591,-0.009012371,-0.062998354,-0.07634191},
			{0.03654214,-0.13865614,0.13802744,0.09066337,0.17194335,0.027098075,0.1641028,-0.16311167},
			{-0.12811515,0.16264288,0.019773936,-0.08631327,0.017146245,0.15669781,0.10049462,0.06420261},
			{-0.12732384,-0.17389575,0.092126235,0.052454546,-0.17139767,0.038050845,0.076860875,-0.055432327},
			{-0.013914958,0.11520401,-0.16277936,-0.0049954653,-0.038673654,-0.07262912,0.14683369,-0.029194709},
			{-0.12722392,0.00438472,0.0377106,-0.16538773,0.041236352,-0.043166175,0.011900558,0.050271846},
			{-0.11853302,-0.07425729,0.16536361,0.13497657,-0.111041784,-0.090285555,-0.061294988,0.017185446},
			{0.15722217,0.15449001,0.026822861,0.051132202,-0.08481161,-0.08308248,-0.16742338,0.00667428},
			{0.17400321,0.07017593,-0.017769456,0.12173131,-0.14172298,0.12492034,0.16679713,0.11564061},
			{-0.1567749,-0.007948306,-0.03128558,0.0965558,0.02749154,-0.056795627,-0.03604568,-0.1288409},
			{0.088799916,0.06470795,-0.0500372,-0.055691645,0.121037364,-0.10299579,-0.013847217,-0.15051003},
			{-0.010769002,0.052848384,-0.030202106,-0.09413379,0.127589,0.12644893,0.15844916,0.0672138},
			{-0.12130968,0.06256074,-0.03622143,-0.076080784,-0.005131349,-0.020592004,-0.09824091,-0.11770071			}
		}
	}
};