// include/dense_224_weight.h
// sergio rivera 
// 2020/02/14 21:26:22 

const float dense_224_weight_p[8][266]=
{
	{-0.032015827,-0.14441429,0.060048882,-0.1106865,0.026259188,0.034878433,0.09551663,-0.07526593,-0.1410538,0.03272092,0.080993086,0.031685095,0.0494238,0.1356193,0.12914969,-0.07252842,0.051587425,-0.10977057,-0.015637152,-0.11244736,0.05058218,-0.062580675,0.04374233,0.13831843,-0.061314054,-0.08222093,0.0732662,-0.0054105083,-0.1359844,-0.14405361,0.13795112,-0.07158801,-0.04907559,-0.05313701,-0.092326105,-0.05914232,0.13639256,0.03489405,-0.048818536,-0.052595746,0.15055127,-0.012097803,-0.09079839,0.1247065,-0.027508732,0.09795405,-0.046639983,0.13230757,-0.012381845,0.04888756,-0.1348799,0.061105385,-0.11026529,0.03203363,0.13162598,0.1065198,-0.0021257345,0.14157666,-0.117953524,0.031942736,-0.10090515,0.018029207,0.02005132,-0.14093758,0.13419144,-0.024036584,-0.112404026,0.009923149,-0.09463279,0.05314651,0.014861276,-0.040626816,-0.065845415,-0.11383207,0.015794775,0.08736159,-0.13487682,0.004294458,0.00976195,0.10872459,-0.10933214,-0.04571233,0.003653785,0.06661571,-0.049209498,0.015933668,0.0825423,-0.034505904,0.047989085,0.065606624,0.0127504645,-0.13320796,-0.07902196,-0.0188126,0.0027410062,0.03396104,-0.0004981058,-0.098384105,-0.07233075,-0.08435033,-0.034080483,-0.024176175,-0.051960435,0.12332324,-0.12291972,-0.036794916,-0.009501922,0.057495605,0.02900294,0.05882534,-0.11443097,0.042392902,-0.065514214,0.03701775,0.020539058,-0.0434237,-0.064679906,-0.032510985,-0.04404055,0.12752284,-0.060284138,-0.00562068,0.01458012,-0.14795396,-0.12542607,-0.02715104,-0.07813494,0.059137937,-0.11105687,0.10451907,-0.08711141,-0.08964045,0.005676875,0.065718524,-0.08826305,0.016098008,0.047703158,-0.053108666,0.094447166,0.10485606,0.06402553,-0.02952259,0.032500654,0.061324883,0.10045073,-0.0006831193,0.057104975,0.038455587,-0.14500603,-0.07256678,0.07535651,0.08969722,0.13707297,0.0656164,0.101753466,-0.052003395,-0.07619118,-0.02808095,-0.08496945,-0.14251891,0.04646843,-0.05781435,0.053959563,-0.022785328,0.13846844,-0.11607888,-0.10361267,0.062778786,-0.05009453,0.03692923,-0.12821625,-0.025660042,-0.103045166,-0.09333107,0.12772578,-0.061056536,0.08602044,0.14552891,0.12411388,0.0011155453,0.08067816,0.0077144913,-0.04801939,0.015523794,0.1525539,-0.08438377,-0.14198768,0.055225924,0.06718931,-0.13856399,-0.06091867,-0.0059621898,-0.057809167,0.15224051,-0.10093008,0.11271272,-0.06211862,-0.08002595,-0.04628345,-0.032589942,-0.08172006,0.09325328,0.03546766,-0.07321298,0.08256554,-0.121171705,0.046790827,-0.09321045,-0.06333445,0.09587884,0.14182018,0.032255087,-0.052377883,-0.14704783,0.038054623,-0.07320035,-0.094498985,0.1134998,-0.10857497,-0.038611628,-0.040204927,0.10294757,-0.114587285,-0.022053422,0.022808982,0.031370282,0.14974841,-0.009891434,0.03890277,-0.036450617,0.036009576,-0.1465433,-0.003919374,-0.09091575,-0.032126546,-0.047381554,0.12785377,0.034783676,-0.10826297,-0.0021863617,-0.03959526,0.1371813,-0.020635488,-0.035310164,-0.06699412,-0.1277467,0.07124925,0.11904555,-0.088703096,0.006428407,-0.03700083,0.066489995,0.11601822,-0.15124464,0.04402403,0.034894265,-0.14525604,0.12997136,0.046585582,-0.0072344164,-0.11995628,0.0077691874,0.11188977,0.06395605,0.09036974,-0.011257647},
	{0.070274234,-0.05749162,0.039250903,-0.03772898,-0.06377877,0.07944636,-0.12737864,-0.009833123,0.032066505,0.013163418,-0.0076332316,0.097003505,0.13375333,-0.12404542,0.08341282,0.14620452,-0.13531852,0.04481396,0.072658345,-0.1364673,0.11507945,-0.014920016,0.043467436,0.066519514,-0.029306466,-0.108891875,-0.08911156,0.11287928,-0.13682456,0.080579005,-0.0902254,0.14998257,-0.07019794,0.12502484,-0.041194536,0.13452332,0.14062409,0.13673714,0.09330394,0.14158016,0.13955279,-0.024303732,-0.046070788,0.12997377,-0.10849069,0.08706735,0.08658808,-0.0063124867,0.061755087,-0.12893446,0.03902243,0.1478156,0.05874157,-0.002730221,-0.077614315,0.06062959,-0.10318336,0.058309205,0.05815249,0.116446406,0.09030025,-0.13027653,0.14697528,0.13134243,0.09743538,-0.08521251,-0.03710653,-0.101169944,-0.09104699,0.1500587,0.054927453,0.089179926,0.09694552,0.06463609,0.0831598,-0.01624118,0.087222114,0.061016787,-0.08236366,-0.0015093089,0.059767384,0.001159081,-0.01835792,-0.008434647,-0.10530596,0.0869962,0.07553442,-0.13486814,-0.08199545,0.026613003,0.09063863,-0.0022725617,-0.070547566,-0.14655836,0.11893434,0.011396711,-0.11898601,-0.07584419,0.06240657,0.038221292,0.12883502,0.02431595,-0.045394804,0.011077696,-0.048548114,-0.12625495,-0.11763544,0.07783794,-0.13833952,-0.115245186,-0.044566378,0.059985444,0.10159008,0.023362288,-0.016597485,0.057777762,-0.0063983444,-0.08122395,-0.0075770067,0.108258694,0.029052284,-0.119859315,0.061716255,0.072609365,-0.15050375,-0.14124784,0.07132191,0.09225998,-0.029540118,-0.064332396,-0.07333558,-0.04434543,0.08178852,0.09920084,-0.09038022,0.10322288,0.09500336,0.14290828,0.058437973,-0.018982057,0.12904464,-0.06510648,-0.07785127,0.0271464,0.089580856,-0.054410852,0.11403821,0.1421268,0.040248137,-0.057542063,0.10653408,0.13963094,0.113644026,-0.029835356,0.10754188,0.05984093,0.13810398,0.005931082,-0.1193811,-0.09323878,0.014756259,-0.09405757,0.13184008,0.09558572,0.06352457,0.14617819,-0.10612245,-0.036205545,0.11464436,0.13664255,-0.054046977,0.023823401,-0.13496147,0.079825275,-0.023269264,-0.13543126,-0.13094448,-0.14354521,-0.036114108,-0.020264456,-0.06077605,0.14295198,-0.02341651,0.06784323,-0.084620215,0.058463715,0.040834285,0.015390676,-0.013125172,0.1098052,-0.045163315,0.117065184,-0.12917699,0.03754164,-0.052230068,-0.093718186,-0.11034014,0.02740125,-0.1288693,0.017244095,-0.1271078,-0.09159438,0.12464267,-0.13850993,0.13379914,0.0010012635,0.093916126,0.06439126,-0.08481709,-0.008292971,0.12423061,0.108456686,0.05177323,0.010657732,-0.059769064,0.15409872,0.0031269568,0.01221657,0.10954608,0.07900839,-0.020218948,0.10524861,0.05070482,0.023186563,0.042512644,0.021259807,0.11427848,-0.089155845,-0.014290253,-0.031676173,-0.10323575,0.042546026,-0.053972807,-0.14964372,0.04544101,0.025050476,0.040843226,-0.037218094,0.010111092,-0.13517335,-0.05606275,0.04598691,0.1353258,-0.10047213,-0.111060604,-0.018484754,-0.12359922,0.06508121,-0.03350343,0.106249996,-0.097221725,0.049799535,0.07220213,0.07308543,-0.017735526,-0.11024812,0.08464958,0.08362943,-0.12663457,-0.1387059,-0.10648528,-0.11512811,-0.017246863,0.085674174,0.10738683,-0.030643107},
	{-0.15099676,-0.04645403,0.07398488,0.0510667,-0.09053272,0.02004286,0.11040266,0.10698128,-0.025545351,-0.004108892,0.1248182,-0.11948527,0.04998045,-0.051602766,0.042437848,0.08169374,-0.02939751,0.11055216,0.118855715,-0.00625863,0.011753135,-0.09802161,0.054270696,0.015933355,-0.045986477,-0.14465767,0.0010643817,-0.12835616,-0.10727141,-0.010764647,0.033760708,-0.10681494,-0.051357534,0.07202532,-0.031717915,0.121550396,-0.0984077,-0.1382385,0.019999892,0.01524919,0.101344846,0.07229129,0.083467305,0.015845167,0.026511246,-0.011354942,0.07977047,0.06466539,0.022663511,0.06686554,0.041101422,0.11267393,-0.01999888,0.009500193,-0.07418192,-0.13476937,-0.07085124,0.074618995,-0.13578798,-0.09116879,0.06890589,-0.04025436,0.12602569,0.016312027,0.009986229,-0.020903317,0.13229236,0.09537902,0.056000832,0.103000775,0.109519005,-0.12748405,-0.09986192,0.02469457,-0.0062232586,-0.09711682,-0.054522473,0.05931721,0.08307789,-0.07104512,0.020295914,-0.12768017,0.082748935,0.029882055,-0.09561053,0.023920963,-0.08521068,0.043126576,-0.10368249,-0.070992984,0.036180772,0.11171445,0.026837958,-0.06954966,0.06867665,-0.013625778,0.07801598,-0.06530603,0.15320729,-0.06340242,0.12853919,-0.03358061,-0.055518877,-0.112189464,-0.04725276,0.07292007,0.0039119944,-0.06516773,-0.0625302,0.13838722,0.11886546,0.12976004,0.06157304,0.1136614,0.04877895,-0.10599476,-0.08638523,0.033851117,0.03721569,-0.009307515,0.0047939634,0.08151947,0.08552024,0.1489378,-0.058864977,0.006107761,0.0060514193,-0.1120791,-0.11743646,0.04015526,0.07337914,0.010193958,-0.09087918,0.13670805,-0.015535037,0.06894048,0.11835541,-0.12853774,-0.043305628,0.08206755,0.12632658,0.029022552,0.10237761,-0.10017047,0.054953728,-0.058490507,-0.014971844,-0.15065844,0.043563135,0.14000487,-0.08275646,-0.07253637,-0.01218116,-0.1451061,-0.039866164,-0.05893336,-0.079545386,-0.0012433847,-0.10754109,-0.09442449,0.13046227,-0.10774882,0.096819475,0.009656034,-0.14548314,-0.012836107,-0.13864928,0.10103507,0.052454505,0.07058615,-0.115691096,0.08100814,0.10437625,-0.01735216,0.11862676,0.13867015,-0.0557675,-0.1426665,-0.08407881,0.082291625,-0.08526117,-0.0539657,-0.13055903,0.0077072484,0.021186901,0.12343071,0.00790072,-0.009496196,-0.07651424,-0.065850094,-0.028477991,0.0056794174,0.13249877,0.05779623,0.0011955076,-0.019403134,-0.103411466,-0.1084015,-0.11303361,-0.064106256,0.050301787,0.09306422,-0.05443215,0.10401622,0.093819775,0.049536075,0.11027766,0.06144121,0.10060653,0.12924458,-0.034201555,0.08628191,-0.041091874,0.08553145,0.12918037,-0.12247698,0.024597699,0.13153553,0.14343564,-0.10235342,-0.13073874,-0.01148178,0.124256305,-0.037273638,-0.06468866,0.019090004,-0.1118215,-0.10272487,-0.09901024,-0.058979552,-0.008489331,-0.04440869,-0.005130394,-0.09227937,0.00036296935,-0.04296638,0.15055625,-0.101453416,-0.123154886,-0.093456075,-0.13606504,-0.012007653,-0.04679334,0.05786443,0.033380736,0.13173121,-0.015117091,0.019960057,-0.027459027,0.039873507,-0.11756065,-0.08615253,-0.049457055,-0.08187581,-0.04935265,-0.075453214,0.06788879,0.04670939,0.13107015,-0.02651426,-0.05937727,0.079594426,0.12711169,-0.13221952,0.10730193,0.066298895},
	{0.050162952,-0.07663135,-0.10027915,-0.08753574,0.0037036408,0.0006251325,0.042176608,-0.07372594,0.033259854,-0.122344986,-0.0011427917,-0.015386192,-0.026674181,-0.14496866,0.023731653,0.12925984,-0.1232487,-0.04777372,-0.0035135697,-0.104413465,-0.01875325,0.063099936,-0.041347954,0.052902598,-0.089797534,0.051215556,0.029434457,-0.13634038,0.099568956,-0.07707565,-0.08013027,-0.15722077,0.041702084,0.09423384,-0.15172917,0.015008289,-0.069600075,-0.080123805,0.1114066,-0.0924108,-0.092082374,0.06927617,-0.0368775,-0.11734513,0.043497093,0.07043509,-0.038183022,0.04176019,-0.08404888,-0.065642804,-0.003163469,-0.15846294,-0.022718182,0.06360079,-0.03507211,0.07961173,0.1252551,0.15006813,-0.11456959,0.011633321,0.07634712,0.079107195,0.10102829,0.123597756,-0.07382714,-0.09278068,-0.0056145294,-0.12570809,-0.11845419,-0.086385965,-0.03748687,-0.019536676,-0.058257673,0.00032161968,-0.13921967,-0.147017,0.08323469,-0.05851615,0.037393715,-0.14143023,0.103672005,-0.13492864,0.11250783,0.096921384,-0.093816526,0.034550905,-0.10254459,-0.13099006,-0.10512661,-0.13909814,0.0891457,-0.05646729,-0.05947166,-0.07073556,-0.003169108,-0.12182867,-0.02923336,0.12460786,0.044470154,0.0024821665,0.045999598,0.092734255,-0.079072416,-0.0965961,-0.09173595,-0.11364989,-0.13811377,-0.12308815,-0.0033474204,0.13616166,0.07732652,-0.10506131,-0.022523202,-0.072491735,0.10073342,-0.1286939,-0.0029505973,0.027435146,-0.082044214,0.07544063,0.007522685,0.11166564,-0.07513885,-0.07318441,0.13517892,-0.018250862,0.03155888,0.12942883,0.08939607,-0.12965146,0.029600637,0.12934782,-0.039766748,-0.06233159,-0.13672628,-0.13143222,0.0694137,-0.10704636,-0.05634661,-0.06304894,-0.117937095,0.146405,0.028081361,-0.13170308,-0.009526339,-0.13642898,-0.05369634,-0.047260616,-0.03872959,0.13419938,0.11926309,-0.060477473,-0.14092638,-0.02672123,-0.08389686,-0.0022308875,-0.08106599,-0.096833564,0.10146416,-0.101651795,-0.08396215,-0.14221977,-0.010083967,0.08213251,0.12243169,0.011550417,0.063225225,-0.0014599758,-0.14511947,0.019747905,-0.08784801,-0.09879186,-0.12802419,0.11014753,0.00924153,0.1362416,0.077369235,0.10877138,-0.03089212,0.062087126,0.03018429,-0.12815657,0.016988743,0.017424926,0.1353479,0.14789931,0.11011417,0.04559257,0.043131676,-0.07190636,0.10439432,-0.07202941,-0.116641425,0.15225565,0.060454905,-0.12126717,0.098469615,0.061365243,0.09204678,-0.06508506,-0.123734124,0.079877436,-0.06780543,0.05646004,-0.1440044,-0.041703418,0.015111973,-0.004605799,-0.07527521,-0.05778819,0.07160889,-0.11557995,-0.077098,0.011870486,-0.1512774,0.011214082,-0.1315185,-0.061076295,0.13478564,0.07530077,-0.10909422,0.05618697,-0.04135342,-0.047754373,-0.072020024,0.10983448,-0.020776238,-0.031030968,-0.08912647,-0.07447767,0.047148775,-0.06749758,-0.06642292,-0.0020972583,-0.060179938,-0.027420608,-0.027888563,-0.016944576,-0.12609386,0.113033265,-0.09807507,0.04861786,-0.07682696,0.10202096,0.14409485,0.020489108,0.030758912,-0.116695374,-0.0005252379,-0.11278686,-0.10036927,-0.11267087,-0.13059524,0.13693167,-0.06639866,0.088862106,-0.029473092,0.05442571,0.026886879,0.119316846,0.044097625,-0.021455914,-0.03592982,0.058864124,-0.03182452,0.06743987},
	{0.051563427,-0.01687649,0.12779774,-0.12952264,0.06238709,0.084008135,-0.11006911,0.030494314,0.015439328,-0.09942584,-0.05150749,0.03765467,-0.13034357,-0.036063056,0.08430685,0.1074532,-0.13155799,-0.043661427,-0.06611948,0.14406207,-0.12698267,-0.09993147,-0.025355209,0.06298659,-0.066904314,-0.13038598,-0.09696376,0.12006035,-0.06955532,0.021236679,-0.1267304,-0.039049096,0.07557933,-0.12006062,-0.09895528,-0.00088461244,0.10517867,0.05427464,-0.13940942,-0.06975537,0.13043348,-0.07946516,0.08678932,0.03472525,0.042757116,0.13585345,-0.09393943,0.05822452,0.104766056,0.058329485,-0.100122906,0.061237723,0.089709654,0.045669064,0.13707137,-0.050990596,-0.03481181,0.07342667,0.058046736,-0.0948224,-0.11453171,0.06365949,-0.02933109,0.11747483,-0.12440541,-0.06727588,-0.094163984,-0.09313571,0.0010454719,-0.04308566,-0.019999336,-0.020299792,0.11140036,0.034778908,-0.039673366,0.09530591,0.056764103,-0.02162182,-0.10552647,0.050483834,-0.12885176,0.07074997,0.013141936,0.13985364,0.05846824,-0.15585953,0.12323547,0.12576917,0.12380927,0.15001653,-0.09522806,0.1333895,0.055682614,0.10283995,-0.016637025,-0.035821516,0.052696783,0.12183132,-0.113855116,0.06816507,-0.114083804,-0.034843594,0.10676149,-0.08133109,0.021544112,-0.095580705,0.040277824,0.13145259,-0.056793712,0.13789062,-0.10324403,0.016177945,0.1392025,0.14029326,0.0822782,-0.045612037,-0.007538329,-0.10033526,0.013197661,0.1018785,-0.1513369,-0.09971957,0.12962188,0.0121610435,0.11353295,-0.13507783,-0.027136948,0.072250076,0.065239035,0.09951271,-0.058940463,0.08857805,-0.13548513,-0.10951023,-0.1420274,-0.1367187,-0.088743806,-0.05401836,0.04346375,-0.058209255,-0.057083946,0.03447032,0.073611595,0.112186715,0.09016808,-0.012550056,-0.032226905,-0.065446325,0.069861904,0.040182848,0.119068384,0.020909857,0.10206573,0.117458284,-0.03878065,-0.103386015,0.13813192,-0.14674667,-0.033593994,-0.022944048,0.10563521,0.099667914,0.08038156,0.08493722,0.04797914,-0.13011365,-0.06739639,0.09800854,-0.12783094,-0.12575963,-0.050999187,0.12422988,-0.008324103,-0.022251807,0.035025362,-0.1430883,0.03327377,-0.06356185,-0.14484973,-0.07227765,0.09719956,-0.076098956,0.10936229,0.027087508,0.09463808,0.0384472,0.13604264,0.037940577,-0.093694896,0.025537582,-0.06345655,0.07059426,-0.08695525,0.1235504,0.04604939,0.14550516,-0.028573308,0.08459187,-0.13545652,-0.07454628,0.031442992,-0.005308524,-0.029615706,-0.13165486,0.009957896,-0.069650225,0.07184128,-0.12449617,-0.08735411,0.063765675,-0.024160419,-0.047222625,-0.11006898,0.019706748,-0.046617243,-0.10054868,0.035880502,-0.0385129,0.09523523,-0.130067,0.13664483,-0.07876696,-0.059088886,0.013339353,-0.04031863,0.019113969,-0.011994851,0.10682593,0.12839572,-0.14337714,-0.15295027,0.14397642,-0.06515303,0.040296655,-0.08246218,-0.055483937,-0.028344229,-0.043421965,-0.09871575,-0.09978086,-0.08089067,0.08956386,-0.026104601,-0.05487824,0.057202313,0.14123033,0.110113285,0.075155355,0.043983,0.019938197,-0.13714547,0.07675501,-0.08199337,0.10642751,0.10126806,-0.053130537,-0.111357555,0.068128064,-0.048516802,0.043298878,-0.053323034,-0.13520367,-0.07670523,-0.0074440474,0.011261258,-0.027948176},
	{0.028909784,-0.045350432,-0.036056127,0.103110306,0.06434619,-0.028469056,-0.1381746,0.10797204,-0.04156463,-0.0005606507,0.109075636,0.05172833,0.10529615,0.035291467,0.043327622,0.12634228,-0.08820679,0.03218526,0.016555943,-0.09614805,-0.02274279,-0.051775623,-0.070502065,-0.05447266,-0.14986661,-0.1449619,-0.06800338,0.1278685,0.09181854,0.0059551215,0.11293859,0.08277946,0.061567407,-0.06956839,-0.1105534,-0.076918095,-0.14619493,-0.03243424,0.073676184,-0.110935204,-0.107456855,-0.07152152,-0.088375054,-0.043703467,-0.07165143,-0.06445685,0.0027969575,-0.042879727,0.04126975,0.13976325,0.009665444,0.045322757,-0.1031217,0.06760606,0.10300045,-0.028018055,0.033297807,-0.111788675,0.009748396,0.005614373,0.021131175,-0.05336281,0.09878076,0.04166925,-0.14093229,-0.06874033,-0.04568444,0.021068294,-0.022631245,-0.021734113,-0.012845058,0.04647781,-0.11459723,0.09718521,0.020022472,-0.13850482,-0.057206146,0.11712508,0.08465946,-0.02719514,0.08861294,-0.022744542,-0.06342741,0.061085083,-0.026870647,0.080909334,0.08695157,0.10951258,-0.029846255,-0.07774653,-0.14661406,-0.00793867,-0.075041555,0.12437179,-0.13490298,-0.032465026,-0.029892875,0.091879904,-0.10103239,-0.05284515,-0.118507765,0.121027745,0.032159228,0.020226384,0.020185333,-0.11509746,-0.111180656,0.029095553,0.045384206,0.01729311,0.041000973,0.076103054,-0.09632343,-0.12326844,0.114324,0.15090784,0.13529706,0.13614886,0.121199146,-0.11354692,0.034417894,0.0459708,0.06620804,-0.13024716,0.019783719,-0.10648505,-0.038368106,0.02543093,-0.14615726,-0.075244054,-0.070176825,0.07733377,-0.10417644,-0.09014781,-0.09017008,-0.037715655,-0.00017213286,-0.13049482,-0.01910402,0.13806348,0.092191994,0.07774337,-0.11925356,0.08333821,0.11203658,0.008506583,-0.14648207,0.033438396,0.10635398,-0.019394536,0.0015850242,-0.09159653,-0.0109494375,-0.03162776,-0.1031429,-0.08803285,-0.102903016,0.06916017,0.13102038,0.053064153,0.032861974,-0.061539993,0.0038294396,0.1551055,0.025173362,0.002077045,-0.0050594606,0.061668325,-0.07708872,-0.10404289,-0.11319642,-0.1277435,0.11736606,0.14248088,-0.03263025,-0.031247923,0.044430517,-0.06333368,-0.07618111,0.09753531,-0.012127921,-0.13125537,0.052387375,-0.09305007,0.0017364686,0.04895757,0.04134817,-0.111843266,0.0764582,-0.069387585,0.08965492,0.1045968,0.06330721,-0.13630311,-0.035158414,0.14730066,0.037866395,0.053251587,0.0069435495,-0.039406538,0.119872265,-0.10112877,0.01702734,-0.03893992,-0.0548294,-0.062388808,-0.051045228,0.1351301,0.13480096,-0.08104244,-0.058691896,0.08708165,0.10977351,-0.0804457,0.07627901,0.091335475,0.058306046,-0.062166817,0.092379525,0.0049779727,0.09950656,-0.11414513,0.102711506,0.089818925,-0.080959514,-0.018418344,-0.08902596,0.09707236,-0.059891332,-0.13437642,0.064858995,0.12616612,0.08327533,-0.1149094,0.07717042,0.031526804,0.14511336,0.014421425,0.04818757,-0.02289799,0.0684832,-0.010542217,0.00097365025,0.012764639,-0.12937565,-0.00024140463,-0.043681256,0.009360056,-0.10206223,-0.13889128,0.050219256,-0.109382555,0.100373045,0.04217864,0.14413325,-0.028282162,0.11865984,0.10185129,-0.0026366632,0.12600037,-0.0056304885,0.052076574,-0.0060888827,-0.12625583,0.009502943,-0.0069839186},
	{0.09975153,-0.09845184,-0.13662417,-0.04113802,-0.054290187,0.097803235,-0.08979932,0.1399831,0.083980605,0.008680317,-0.111862466,0.06496663,-0.06764126,0.120512255,-0.13038129,-0.028873222,0.11806972,0.10065269,-0.07069833,-0.005147931,-0.12967077,-0.064865164,-0.12819292,0.09553045,-0.033258826,-0.07701449,0.14803962,-0.0749523,0.12755166,0.13675487,-0.13146028,-0.09508086,0.003468736,0.07680257,-0.11215888,0.08809213,0.12972789,0.04282643,-0.09763928,0.039876584,0.12660655,0.09327251,0.0018278628,-0.10571603,-0.006035628,-0.027861074,0.04320698,0.07745473,-0.13991204,-0.11667668,-0.014205057,0.13313119,0.09701438,-0.045068655,-0.13635242,0.048630375,0.106369704,-0.07441161,0.07921992,-0.08610569,-0.076306716,0.14567877,-0.04086827,-0.127455,-0.07797397,0.03140369,-0.051022228,0.08167872,0.026028961,-0.1498771,0.03373267,0.06670795,0.11464134,0.059163254,0.047885917,0.13087085,0.06963144,0.022833392,-0.017496021,-0.13382353,0.11375882,-0.12690435,0.025760937,0.14185886,0.034837272,0.13740385,-0.018314864,0.11379481,0.026609756,-0.073644966,0.12710132,-0.13654605,-0.051511135,0.08983704,0.14891966,-0.073679246,-0.071644194,0.1080866,0.013296243,0.07728777,-0.10659185,0.092737064,0.11284856,0.019812044,0.111611225,0.04981125,0.0004502291,-0.084946364,-0.015555919,-0.07699752,0.070514254,-0.07294239,-0.10613546,0.10736973,-0.0538772,0.0043378407,-0.012796064,0.113955125,0.118937686,0.054397505,-0.0502738,-0.035897076,0.051113505,-0.015842412,-0.14074717,0.09176016,-0.042309105,0.052981593,0.06777591,0.05318791,0.11181148,-0.025908027,-0.10102048,-0.07080683,-0.105149165,-0.11771373,0.14131862,-0.052876078,0.110525474,-0.019022457,-0.090681896,-3.4483382e-06,-0.10916352,-0.001170307,-0.115187846,-0.12796076,-0.08741988,0.081921004,-0.00035178545,-0.016800052,-0.042740636,-0.009235727,0.13471499,0.106666096,-0.13992622,-0.11575234,-0.08423504,-0.07941651,-0.12750384,-0.11953642,0.053793922,0.039762132,-0.12150578,-0.060368717,-0.094837464,0.029815394,0.009679565,-0.07889788,-0.062328137,0.023060026,0.05284532,0.055880215,0.066458166,-0.11136029,0.026308246,-0.0037872652,0.103620045,-0.07536771,-0.017178461,-0.069112085,-0.0061168256,0.025785686,-0.036877837,-0.05940471,-0.10851025,0.048469767,-0.04004931,-0.11117639,-0.06503316,-0.036477342,0.10922933,-0.054094777,-0.06226952,-0.118120305,-0.096531704,-0.014826006,-0.08270898,-0.046015885,-0.13095151,0.026089199,0.06820694,-0.100658216,0.014872648,0.015296641,-0.06303123,0.13665007,-0.12738661,-0.098952934,0.13403845,0.11257467,0.07601751,0.1285773,0.03621356,-0.0075460603,0.036081377,-0.052281648,0.04229594,-0.008462159,0.051471077,-0.10887343,0.003258714,-0.07277959,0.015085876,0.13068981,-0.107941814,0.11835629,0.12185774,-0.0632192,-0.15071462,-0.03985684,0.09873899,-0.085430354,0.00955069,0.047600877,0.02769177,0.030976806,0.10031472,-0.06404421,0.12276733,-0.039319705,0.11837025,-0.011738983,0.10873126,0.14063627,-0.045240205,-0.028806884,-0.11453728,-0.057768166,0.04130286,0.0072513,0.074749,-0.09324388,-0.055309754,-0.12687208,0.099777736,-0.04063374,-0.038697746,0.044926103,-0.049354438,0.04058006,0.05826423,-0.111666195,0.15200956,-0.1413382,-0.102594204,-0.018136831},
	{-0.14732926,0.0049426476,-0.092437275,-0.019442312,-0.054570682,-0.10250612,0.11768664,0.048148792,-0.074856326,0.1282441,0.10397274,-0.020422433,-0.07223922,0.13156733,-0.10926553,-0.07099043,0.11043041,-0.08686624,-0.08690298,0.013679937,-0.08802004,0.12349083,0.004170109,0.041607153,-0.15195216,-0.011812296,-0.049524926,0.13012025,0.04052069,-0.043759383,0.05227804,0.06598693,0.13209108,-0.014834354,-0.051164784,-0.0034857995,-0.117401615,-0.13785002,-0.080984555,0.11605325,0.10402137,-0.10394683,-0.07016389,-0.13163379,-0.112280056,0.083301455,-0.13892807,0.15301113,0.01675913,-0.012476414,-0.07247987,-0.044276252,0.13195175,0.13192499,-0.06256498,0.010069242,0.12021908,0.036369517,0.13559642,0.00806124,0.15056013,-0.019476593,0.090738304,0.08412095,-0.0701161,0.027175495,-0.12660785,-0.068027,-0.07467937,-0.016752195,-0.003856198,0.1381978,0.10188505,0.10749421,0.05302398,0.072008066,-0.064575866,-0.022501007,-0.0925525,0.07459777,0.06614963,0.12320433,-0.01895943,0.07976367,-0.11980839,0.045819454,0.028420642,-0.046874866,-0.030750828,-0.017188547,0.11467879,-0.12952593,0.10441529,-0.10851329,-0.11132376,-0.06865371,0.052702647,-0.057254598,-0.03618128,0.041182682,0.009674842,-0.005691122,0.067571856,-0.029667879,-0.10822261,-0.06847162,-0.11908305,-0.036538824,0.1064094,0.06668634,0.092319876,0.025423422,-0.005693086,0.06110161,0.01773749,0.13773057,-0.10837774,-0.14741805,0.12472368,-0.006356642,-0.10655428,-0.0107945,-0.08644797,-0.08241446,-0.13494322,0.104401685,-0.093383715,0.0670272,0.034685496,0.103095554,0.027383616,0.016220953,0.08179574,0.073272265,0.10706786,-0.08229309,0.050272796,0.023030994,0.011885816,-0.14447984,0.12927046,-0.12302131,-0.002117223,-0.10714437,0.09528777,0.052829936,-0.13625911,-0.133303,-0.11753762,0.06508095,-0.057405308,0.045406252,0.0055856225,-0.13586195,0.004524965,0.13828766,0.08540083,-0.020886997,-0.1310713,-0.097811624,-0.1033722,0.046445273,0.09681161,0.044667777,-0.10635299,0.11995983,-0.061083324,0.074656315,-0.13294293,-0.0054594385,-0.054017697,0.023759656,0.057987012,0.13600935,-0.021410936,-0.09317733,0.027060317,-0.09645431,0.052625883,0.038490858,-0.039169498,-0.14088617,0.07593502,-0.080565125,0.11796171,-0.13299651,-0.07681583,-0.09521032,-0.07804136,0.09969433,0.1260304,-0.14832062,0.14546032,0.08293633,-0.008809516,0.10238982,0.09051414,-0.03287556,-0.12807998,0.08689195,0.049855288,0.13533117,0.015075788,0.0788297,1.8326915e-05,0.035662834,0.0049883444,-0.10103237,-0.110677,0.06565579,-0.12790656,0.01657204,-0.05610481,-0.10962838,0.09496442,-0.13127688,-0.03211916,-0.0036508506,-0.042067643,0.13398428,0.11765456,-0.032235608,0.10307588,0.08113966,0.093987636,0.070668735,0.03162713,0.00022878696,0.04305365,-0.08753029,0.13578591,0.070520155,0.12364206,-0.01037878,-0.011300656,0.06892444,0.04954487,-0.06437317,0.008576597,-0.045703426,0.12159608,0.017589139,-0.013085196,-0.10660629,-0.138791,-0.028561236,-0.12544954,-0.04578485,0.10608099,0.14005926,-0.02203334,-0.06654935,0.1383072,0.09320965,-0.08278329,0.10448088,0.14503108,-0.03133788,0.09556634,0.072660804,-0.086982906,0.09220839,-0.07730038,0.11694252,0.035364036,0.0748454	}
};